-1.898010144941508770e-03
1.694667525589466095e-02
1.055018231272697449e-02
-4.506913537625223398e-04
-7.488447707146406174e-03
-2.921076375059783459e-04
-4.495620669331401587e-04
-1.685913279652595520e-02
2.147549577057361603e-02
2.495824918150901794e-02
-2.160665951669216156e-02
4.763170331716537476e-02
-1.407978706993162632e-03
1.080168969929218292e-02
5.701080337166786194e-02
-3.404601663351058960e-02
2.284081839025020599e-02
-3.583053476177155972e-04
-4.037038888782262802e-04
2.995624579489231110e-02
3.848246112465858459e-02
-3.903144679497927427e-04
-3.659630310721695423e-04
-2.225353009998798370e-02
-8.980562910437583923e-03
-2.563165733590722084e-03
-7.658610120415687561e-03
2.939207293093204498e-02
7.722212374210357666e-02
1.713917218148708344e-02
-8.432280155830085278e-04
-5.254948511719703674e-03
1.213085930794477463e-02
3.918237239122390747e-02
5.712901055812835693e-02
-6.597576430067420006e-04
8.261736482381820679e-02
3.091032058000564575e-02
-1.362733077257871628e-02
-1.187792420387268066e-02
-6.097987759858369827e-03
-6.070802337490022182e-04
6.763132661581039429e-02
-6.288458243943750858e-04
1.232731528580188751e-02
5.985633004456758499e-03
-3.279722295701503754e-04
-1.668706908822059631e-02
-1.167102964245714247e-04
-7.034807349555194378e-04
5.867079645395278931e-02
1.571844704449176788e-02
8.203069865703582764e-02
-2.100866840919479728e-04
5.663971602916717529e-02
-2.784888492897152901e-03
2.633570320904254913e-02
-5.004116101190447807e-04
9.772848337888717651e-03
2.163212746381759644e-02
1.916907355189323425e-02
3.779436647891998291e-02
-3.116978518664836884e-02
-4.076251352671533823e-04
-6.946680368855595589e-04
-8.243003860116004944e-03
3.294282779097557068e-02
1.425282191485166550e-02
6.804610136896371841e-03
-6.660963408648967743e-04
2.388760261237621307e-02
2.910394594073295593e-02
-6.094627315178513527e-05
-5.055729299783706665e-02
2.133689261972904205e-02
2.139519155025482178e-02
1.949421875178813934e-02
6.256161630153656006e-02
1.510962098836898804e-02
4.028829559683799744e-02
1.909425854682922363e-02
-2.682231180369853973e-02
3.186496347188949585e-02
9.308983571827411652e-03
2.457150490954518318e-03
-2.163366414606571198e-02
1.659907773137092590e-02
5.857216566801071167e-02
3.291750699281692505e-02
2.438336843624711037e-03
-6.356333033181726933e-04
-2.860917150974273682e-02
-5.752310389652848244e-04
-4.406190128065645695e-04
8.109744638204574585e-02
-4.170350730419158936e-04
-6.318441010080277920e-04
3.600458055734634399e-02
-8.074979996308684349e-04
-1.354180369526147842e-02
2.448092959821224213e-02
5.321796983480453491e-02
9.931898862123489380e-02
1.509403530508279800e-02
-2.668336965143680573e-04
-3.129225224256515503e-02
1.047788560390472412e-02
-2.011803153436630964e-04
9.116403758525848389e-03
-6.211049039848148823e-04
-5.751287681050598621e-04
4.610029235482215881e-02
4.549935087561607361e-02
1.208040304481983185e-02
-3.567860112525522709e-04
-5.094815511256456375e-03
1.080923806875944138e-02
4.288160800933837891e-02
-4.257358086761087179e-04
2.018853649497032166e-02
-7.060758071020245552e-04
1.378663815557956696e-02
-3.032977506518363953e-02
-3.363195434212684631e-02
-3.571166889742016792e-04
1.267345063388347626e-02
1.603824645280838013e-02
-1.103836297988891602e-02
-1.583349332213401794e-02
-3.597954055294394493e-04
-4.457701288629323244e-04
2.707919292151927948e-02
-2.771637775003910065e-02
1.205504536628723145e-01
1.716480031609535217e-02
-5.001940880902111530e-04
5.214759334921836853e-02
6.899438798427581787e-02
1.514668669551610947e-02
-5.300465272739529610e-04
3.194091841578483582e-02
-1.223877770826220512e-03
-2.677473053336143494e-02
6.704109907150268555e-02
-2.224155701696872711e-02
-2.661399543285369873e-02
-3.421540895942598581e-04
1.450506411492824554e-02
-4.069865494966506958e-02
-5.052656051702797413e-04
-4.310412623453885317e-04
-7.405924843624234200e-04
-4.555272683501243591e-02
1.667321287095546722e-02
3.133597224950790405e-02
-1.761084713507443666e-04
-3.368543693795800209e-04
-8.062362670898437500e-03
-3.624643140938133001e-04
2.627071365714073181e-02
-3.526264044921845198e-04
-1.457564439624547958e-02
-3.356165066361427307e-02
4.569814726710319519e-02
5.176927149295806885e-02
-3.176401951350271702e-04
-5.586062325164675713e-04
5.861150100827217102e-02
5.390134453773498535e-02
1.066361181437969208e-02
-1.039187517017126083e-02
8.322282880544662476e-02
2.910949662327766418e-02
3.177999705076217651e-02
5.100089474581182003e-04
3.908047080039978027e-02
7.002791017293930054e-02
-8.433097391389310360e-04
-2.373455092310905457e-03
5.282299965620040894e-02
1.057512685656547546e-02
-2.868662402033805847e-02
-1.577579416334629059e-02
-3.791865601669996977e-04
2.240048162639141083e-02
3.368761017918586731e-02
3.169731423258781433e-02
3.314641118049621582e-02
-1.811563968658447266e-02
-6.762191653251647949e-03
1.094651743769645691e-01
3.302268311381340027e-02
-5.104026640765368938e-04
-3.008933365345001221e-02
-5.894828937016427517e-04
-5.700860638171434402e-03
-4.168382438365370035e-04
2.334248274564743042e-02
-7.931025698781013489e-03
-4.772836400661617517e-04
2.318347804248332977e-02
-5.275830626487731934e-04
-7.382858311757445335e-04
3.245845437049865723e-03
1.878282241523265839e-02
9.883587248623371124e-03
-7.420426607131958008e-02
-1.202052459120750427e-02
-3.690049925353378057e-04
-2.797880733851343393e-04
7.855546660721302032e-03
3.429381549358367920e-02
-2.969358465634286404e-04
-7.118471898138523102e-03
-5.511832237243652344e-02
-6.317381048575043678e-04
-3.249782021157443523e-04
-3.303728881292045116e-04
-1.360956765711307526e-02
-6.660954677499830723e-04
-9.767900919541716576e-04
-4.475686873774975538e-04
-5.219728336669504642e-04
-1.866215281188488007e-02
-2.489146776497364044e-02
4.208962246775627136e-02
5.276060104370117188e-02
5.411186069250106812e-02
-3.097210137639194727e-04
-7.354375557042658329e-04
-1.731073297560214996e-02
3.684125468134880066e-02
-3.916175337508320808e-04
-5.420805886387825012e-03
2.895622281357645988e-03
4.523865506052970886e-02
8.206243626773357391e-03
3.326099738478660583e-02
-5.706836003810167313e-03
2.506988588720560074e-03
2.886965870857238770e-02
3.856388106942176819e-02
-3.184569650329649448e-04
-9.426933829672634602e-04
-4.112755414098501205e-04
-2.164967916905879974e-02
-2.439655549824237823e-02
-1.965965057024732232e-04
3.732692822813987732e-02
3.827958181500434875e-02
-9.379550814628601074e-03
-4.239922855049371719e-04
7.032633572816848755e-02
-6.762610282748937607e-04
1.488583441823720932e-02
3.835985809564590454e-02
