3.310942411422729492e+00
1.931730747222900391e+00
-2.721782028675079346e-01
-1.305826902389526367e+00
-5.845466613769531250e+00
3.331680059432983398e+00
2.136167049407958984e+00
-4.334618091583251953e+00
-7.097815513610839844e+00
-9.449613571166992188e+00
-6.472866535186767578e+00
-6.210474491119384766e+00
-2.719636201858520508e+00
-4.939655303955078125e+00
-3.138242006301879883e+00
-7.131297111511230469e+00
-1.323278808593750000e+01
-1.131990432739257812e+01
-1.246137905120849609e+01
-2.833240509033203125e+00
-1.069795703887939453e+01
-4.286692619323730469e+00
-1.962027668952941895e+00
-8.605398178100585938e+00
-1.229334473609924316e+00
-6.928598880767822266e+00
-6.058632373809814453e+00
-9.581426620483398438e+00
-5.295524120330810547e+00
3.890744209289550781e+00
-8.543332099914550781e+00
3.243710994720458984e+00
-5.831760406494140625e+00
3.182635545730590820e+00
4.328700065612792969e+00
3.603823900222778320e+00
3.489382743835449219e+00
-3.427428722381591797e+00
2.986793816089630127e-01
3.290310382843017578e+00
-4.828078746795654297e+00
-4.305170536041259766e+00
-4.943195343017578125e+00
-4.348546504974365234e+00
9.481677412986755371e-01
-1.824900627136230469e+00
-3.442017793655395508e+00
-7.047433376312255859e+00
4.437187194824218750e+00
-8.643788337707519531e+00
-3.339363574981689453e+00
-4.890240192413330078e+00
-1.496677112579345703e+01
3.017871141433715820e+00
-2.252865791320800781e+00
3.756172180175781250e+00
-3.292058944702148438e+00
-6.463679075241088867e-01
-6.354699611663818359e+00
6.863358616828918457e-01
-8.036947250366210938e+00
4.785578250885009766e+00
-6.321155548095703125e+00
-2.923967838287353516e+00
-1.693123817443847656e+00
-2.285348653793334961e+00
-6.280968189239501953e+00
-8.028387069702148438e+00
-3.938895940780639648e+00
-5.875673770904541016e+00
-5.412740230560302734e+00
-7.263509273529052734e+00
-2.607285499572753906e+00
-6.936953544616699219e+00
-4.024247646331787109e+00
-8.531008720397949219e+00
1.608417868614196777e+00
4.179139137268066406e+00
-9.174227714538574219e+00
5.189587593078613281e+00
-2.579440355300903320e+00
-3.897101402282714844e+00
-4.784981012344360352e-01
1.565564393997192383e+00
-1.644253015518188477e+00
-4.138467311859130859e+00
-6.336567878723144531e+00
-1.058864784240722656e+01
-2.141443490982055664e+00
3.347002744674682617e+00
-7.433159828186035156e+00
-6.349844932556152344e+00
-5.563322067260742188e+00
-5.600232124328613281e+00
-5.318015217781066895e-01
-6.784460067749023438e+00
-2.235743045806884766e+00
-1.120544910430908203e+01
-4.513043403625488281e+00
-8.885226249694824219e+00
2.651430368423461914e+00
-1.389074921607971191e+00
-5.969221591949462891e+00
-5.167071819305419922e+00
-1.327633857727050781e+01
-4.280151844024658203e+00
-2.156832218170166016e+00
-2.588917016983032227e+00
5.364045500755310059e-01
2.220915555953979492e-01
5.092334747314453125e+00
3.737333059310913086e+00
3.740644693374633789e+00
-3.970358610153198242e+00
-3.412150859832763672e+00
-3.082830190658569336e+00
3.033178329467773438e+00
-7.211523056030273438e+00
-1.997938275337219238e+00
-9.448457717895507812e+00
-4.076493740081787109e+00
-3.895837068557739258e+00
3.720274925231933594e+00
-1.603743171691894531e+01
-9.916975021362304688e+00
-1.009406566619873047e+01
-3.439533233642578125e+00
-2.981165885925292969e+00
-3.805448770523071289e+00
-8.968598365783691406e+00
-6.434892177581787109e+00
-2.561414718627929688e+00
-4.732361793518066406e+00
-4.248083114624023438e+00
1.640499949455261230e+00
-1.718395709991455078e+00
-1.418671989440917969e+01
-1.020904731750488281e+01
-4.252033233642578125e+00
-1.285898804664611816e+00
-6.941319704055786133e-01
-3.408864259719848633e+00
-7.365358352661132812e+00
-4.680640697479248047e+00
-8.085442543029785156e+00
-9.737765192985534668e-01
-4.990718841552734375e+00
-1.112102317810058594e+01
-7.588101387023925781e+00
-3.030780076980590820e+00
3.888634681701660156e+00
4.062096595764160156e+00
-2.954828262329101562e+00
3.073993206024169922e+00
9.588655829429626465e-01
-4.603074550628662109e+00
-1.450651586055755615e-01
-1.618885993957519531e+00
-6.099784374237060547e+00
3.460520803928375244e-01
-6.893727302551269531e+00
-7.949518203735351562e+00
-9.763195037841796875e+00
4.030848026275634766e+00
8.849982917308807373e-02
-3.099605798721313477e+00
-2.228526353836059570e+00
-5.287703037261962891e+00
-6.488277435302734375e+00
-6.858889102935791016e+00
-5.250203132629394531e+00
-9.034942626953125000e+00
2.331462353467941284e-01
-6.338345050811767578e+00
-9.458810806274414062e+00
-8.949955940246582031e+00
-6.914732456207275391e+00
-9.597471237182617188e+00
-3.017231702804565430e+00
-1.349380612373352051e+00
-2.003062963485717773e+00
-4.312294960021972656e+00
-1.865980625152587891e+00
2.474004983901977539e+00
-1.154199886322021484e+01
-3.902086019515991211e+00
3.809803724288940430e+00
-2.748417377471923828e+00
-8.523461341857910156e+00
-4.079220771789550781e+00
5.361309528350830078e+00
-7.741752266883850098e-01
-6.137924194335937500e+00
-1.120908546447753906e+01
-5.902673721313476562e+00
3.262398242950439453e+00
-4.429926872253417969e+00
-3.590352773666381836e+00
-2.729403734207153320e+00
-7.068028450012207031e+00
-5.611541271209716797e+00
-3.907915651798248291e-01
-1.288000297546386719e+01
-1.562446403503417969e+01
-2.462811708450317383e+00
2.983189821243286133e+00
-1.902095414698123932e-02
-8.439643859863281250e+00
-7.060112953186035156e+00
-5.336384773254394531e+00
-2.140624523162841797e+00
3.613307237625122070e+00
1.299170032143592834e-02
-7.440365791320800781e+00
-4.943218708038330078e+00
-8.215481758117675781e+00
-3.160057306289672852e+00
-6.967612266540527344e+00
-7.806605815887451172e+00
-5.980021476745605469e+00
-7.494289398193359375e+00
-4.434695243835449219e+00
3.767788171768188477e+00
-2.767880916595458984e+00
-5.271123409271240234e+00
-8.953269004821777344e+00
-4.404818058013916016e+00
-1.287965416908264160e+00
4.333886146545410156e+00
-4.099643707275390625e+00
-8.355906486511230469e+00
-3.140861749649047852e+00
-4.050189495086669922e+00
-8.189316749572753906e+00
-8.275145530700683594e+00
1.028482437133789062e+00
4.097856283187866211e-01
-5.002693653106689453e+00
-7.551760196685791016e+00
3.554573059082031250e+00
-1.088866519927978516e+01
-1.151006412506103516e+01
1.493985533714294434e+00
-1.233644199371337891e+01
-3.851958751678466797e+00
3.334775447845458984e+00
-2.573537826538085938e+00
-1.541407299041748047e+01
-7.362729072570800781e+00
-1.009412002563476562e+01
-5.839732646942138672e+00
-5.029595375061035156e+00
-2.474286794662475586e+00
-5.338132858276367188e+00
3.447940111160278320e+00
-7.610862731933593750e+00
