-3.487501293420791626e-03
8.344285190105438232e-02
9.724414348602294922e-02
5.982691794633865356e-02
-8.183383196592330933e-02
2.452320419251918793e-02
4.580580070614814758e-02
-1.308242678642272949e-01
6.026484817266464233e-02
9.397587180137634277e-02
4.865029454231262207e-02
8.667461574077606201e-02
-3.569190204143524170e-02
2.485306747257709503e-02
2.958768419921398163e-02
8.910298347473144531e-02
6.661029160022735596e-02
8.778853341937065125e-03
8.886396884918212891e-02
1.154140532016754150e-01
1.266483664512634277e-01
5.998720973730087280e-02
9.240499883890151978e-02
-6.809493992477655411e-03
-9.399453550577163696e-02
6.611656397581100464e-02
8.498195558786392212e-02
4.623789340257644653e-03
9.524831175804138184e-02
-9.222829341888427734e-02
1.150306910276412964e-01
-4.960360005497932434e-02
9.307111054658889771e-02
-1.762917637825012207e-02
1.091871559619903564e-01
1.045744121074676514e-01
-3.549465537071228027e-02
-7.518572360277175903e-02
8.367384225130081177e-02
-6.226653605699539185e-02
1.069907397031784058e-01
1.060209870338439941e-01
-6.465583294630050659e-02
9.985794872045516968e-02
3.314798697829246521e-02
9.285732358694076538e-02
2.842702437192201614e-03
4.395709559321403503e-02
8.268065005540847778e-02
1.058014202862977982e-02
1.568764448165893555e-01
1.337996423244476318e-01
5.642364919185638428e-02
1.119342297315597534e-01
7.018267363309860229e-02
-1.392922550439834595e-01
5.524396151304244995e-02
2.801924385130405426e-02
1.059496253728866577e-01
1.451332122087478638e-02
8.034191280603408813e-02
2.909935079514980316e-02
-1.306219771504402161e-02
1.366396099328994751e-01
-7.768663018941879272e-02
1.347490251064300537e-01
7.080338150262832642e-02
-4.669237881898880005e-03
2.662397921085357666e-02
-1.775864511728286743e-01
-5.074613727629184723e-03
-6.802641600370407104e-02
3.300552780274301767e-04
-8.043592423200607300e-02
3.305872157216072083e-02
1.845899154432117939e-03
3.433613106608390808e-03
1.618962851352989674e-03
-7.991869747638702393e-02
-6.322165578603744507e-02
3.148895129561424255e-02
1.155914440751075745e-01
1.158460006117820740e-01
5.883308127522468567e-02
4.229516163468360901e-02
1.202030330896377563e-01
-3.928178176283836365e-02
-6.670982390642166138e-02
6.701970100402832031e-02
5.514962226152420044e-02
6.397788226604461670e-02
-2.921656705439090729e-02
-6.898388266563415527e-02
9.199772030115127563e-02
1.778855547308921814e-02
9.302484989166259766e-02
1.282521188259124756e-01
7.840009033679962158e-02
-6.966258585453033447e-02
2.877781912684440613e-02
-1.025840342044830322e-01
6.926971673965454102e-02
1.021869927644729614e-01
1.208277232944965363e-02
9.681473672389984131e-02
-8.312379568815231323e-02
7.871982455253601074e-02
1.409642845392227173e-01
8.336730301380157471e-02
9.761953353881835938e-02
1.097050234675407410e-01
3.296326473355293274e-02
-1.426938641816377640e-02
5.083130300045013428e-02
-2.383625134825706482e-02
-1.757125556468963623e-01
6.292900443077087402e-02
-4.166603088378906250e-02
4.305916652083396912e-02
8.873493224382400513e-02
1.054036915302276611e-01
7.570157945156097412e-02
-2.000384181737899780e-01
1.248157322406768799e-01
-2.250214852392673492e-02
5.200727656483650208e-02
5.114903673529624939e-02
5.171054229140281677e-02
3.303541615605354309e-02
1.203114315867424011e-01
2.744469977915287018e-02
-9.081257507205009460e-03
1.617502234876155853e-02
5.695804581046104431e-02
-2.664856612682342529e-02
9.800650924444198608e-02
5.487820878624916077e-02
-7.701937109231948853e-02
3.470491990447044373e-02
9.989076852798461914e-02
2.844458259642124176e-02
9.678146988153457642e-02
9.020572900772094727e-02
6.814822554588317871e-02
1.051282957196235657e-01
-2.650565840303897858e-02
-6.158606708049774170e-02
6.653442978858947754e-02
-3.386213630437850952e-02
3.469134122133255005e-02
3.653739020228385925e-02
8.764263242483139038e-02
5.427537485957145691e-02
5.215207487344741821e-02
1.293779015541076660e-01
4.215612635016441345e-02
7.441782951354980469e-02
-5.119135975837707520e-02
8.651828020811080933e-02
-1.238879486918449402e-01
7.156142592430114746e-02
9.846790134906768799e-02
-9.539686143398284912e-02
-4.093901067972183228e-02
-1.389925926923751831e-01
-6.101498752832412720e-02
-4.300028830766677856e-02
5.313120037317276001e-02
1.714950613677501678e-02
-5.390872433781623840e-02
9.996985644102096558e-02
1.239041388034820557e-01
3.322912380099296570e-02
-3.150571428705006838e-04
8.563093096017837524e-02
3.493648022413253784e-02
9.818784892559051514e-02
4.458402469754219055e-02
9.827174991369247437e-02
-6.345270574092864990e-02
-2.291611162945628166e-03
8.779337257146835327e-02
-8.674209564924240112e-02
3.895151242613792419e-02
6.406210362911224365e-02
3.838972747325897217e-02
9.395609796047210693e-02
1.048390865325927734e-01
1.469621062278747559e-02
-1.712564006447792053e-02
-6.847982853651046753e-02
8.961415290832519531e-02
-3.625730052590370178e-02
2.494578249752521515e-02
2.590898796916007996e-02
1.208788529038429260e-01
5.532076209783554077e-02
-1.178714632987976074e-01
8.616746962070465088e-02
1.138704344630241394e-01
-3.986416757106781006e-02
-3.241288661956787109e-02
5.141579080373048782e-03
-2.954655326902866364e-02
8.746906369924545288e-02
2.869734168052673340e-02
6.886676698923110962e-02
6.219240278005599976e-02
6.633907556533813477e-02
-1.543814390897750854e-01
-2.752674557268619537e-02
1.214265078306198120e-02
1.014620438218116760e-01
3.373388200998306274e-02
5.987135320901870728e-02
-9.293617308139801025e-02
6.652802973985671997e-02
1.013123914599418640e-01
4.293731972575187683e-02
1.229571327567100525e-01
-2.332611568272113800e-02
4.833257570862770081e-02
8.044001460075378418e-02
8.771821111440658569e-02
3.654495254158973694e-02
9.639677405357360840e-02
1.159526035189628601e-02
8.049082756042480469e-02
-4.989851638674736023e-02
4.275098070502281189e-02
-1.149948984384536743e-01
2.672623470425605774e-02
-4.001837223768234253e-02
8.293362706899642944e-02
6.058872118592262268e-02
1.066385805606842041e-01
7.459567487239837646e-02
-8.067770302295684814e-02
-9.333872236311435699e-03
6.447830796241760254e-02
1.674211770296096802e-02
8.670075982809066772e-02
-7.467053830623626709e-02
4.818411543965339661e-02
3.224715217947959900e-02
4.073621332645416260e-02
6.123000010848045349e-02
1.187238395214080811e-01
-7.345334440469741821e-02
1.084276065230369568e-01
7.533329725265502930e-02
4.148983582854270935e-02
4.743442311882972717e-02
1.074007377028465271e-01
-4.632543027400970459e-02
5.591984838247299194e-02
