-1.716356910765171051e-02
3.069751895964145660e-02
3.716161474585533142e-02
5.435143411159515381e-02
-5.921428650617599487e-02
1.682737097144126892e-02
7.077762484550476074e-02
5.725866183638572693e-02
4.466116428375244141e-02
1.734480448067188263e-02
2.699231915175914764e-02
1.659785956144332886e-02
-1.720243133604526520e-03
4.208799824118614197e-02
1.661327481269836426e-02
3.006202727556228638e-02
-4.033596068620681763e-02
-3.286794200539588928e-02
8.253050595521926880e-02
-1.048052497208118439e-02
4.062349349260330200e-02
-3.402828937396407127e-03
-3.221550211310386658e-02
-1.231185067445039749e-02
3.064033109694719315e-03
-2.524224575608968735e-03
8.809478022158145905e-03
4.740168806165456772e-03
-1.486707385629415512e-02
-2.783890813589096069e-02
1.133047975599765778e-02
4.582412540912628174e-02
2.669799886643886566e-02
-5.188493523746728897e-03
1.303778868168592453e-02
3.391624242067337036e-02
4.364622384309768677e-02
2.655966021120548248e-02
9.258871898055076599e-03
5.391088500618934631e-02
-2.884795889258384705e-02
4.720130562782287598e-02
1.923240534961223602e-02
-4.034653306007385254e-02
2.641588263213634491e-02
-2.207229286432266235e-02
-4.509576829150319099e-04
5.979328230023384094e-02
-1.785906217992305756e-02
5.215367674827575684e-02
3.367600217461585999e-02
4.010787233710289001e-03
4.595588892698287964e-02
-1.109194383025169373e-02
-2.623500116169452667e-02
1.061393972486257553e-02
7.222709059715270996e-02
-1.370712835341691971e-02
-4.114162549376487732e-02
6.692710518836975098e-02
4.478249698877334595e-02
3.904430940747261047e-02
5.311702191829681396e-02
2.453512325882911682e-02
-2.048461511731147766e-02
5.560692399740219116e-02
7.510463148355484009e-02
3.555758297443389893e-02
-3.679129481315612793e-02
1.880272105336189270e-02
-1.609947532415390015e-02
3.796081244945526123e-02
-2.173870988190174103e-02
5.960673466324806213e-02
4.358914121985435486e-02
4.711887985467910767e-02
3.365347161889076233e-03
-1.559821981936693192e-02
-4.896560218185186386e-03
9.432474151253700256e-03
3.390788286924362183e-02
-3.026134520769119263e-02
3.496944159269332886e-02
8.828173391520977020e-03
7.035859674215316772e-02
-5.613177549093961716e-03
9.201448410749435425e-02
4.416853934526443481e-02
6.653904914855957031e-02
5.650819465517997742e-02
3.426887094974517822e-03
-4.175066947937011719e-03
3.869420662522315979e-02
-4.759682051371783018e-04
-6.841409951448440552e-03
6.703417748212814331e-02
-6.903997063636779785e-02
-2.711972221732139587e-02
3.277242928743362427e-02
-2.339085005223751068e-02
9.188203141093254089e-03
2.523010596632957458e-02
-4.955469071865081787e-02
3.602521866559982300e-02
6.676460802555084229e-02
6.377343088388442993e-02
-8.390642702579498291e-03
6.637391168624162674e-03
8.373283594846725464e-02
-3.396136686205863953e-02
-5.408667773008346558e-02
2.854214794933795929e-02
7.070363312959671021e-02
-5.672831088304519653e-03
4.552139341831207275e-02
-6.337723461911082268e-04
6.099585909396409988e-03
1.982497237622737885e-02
2.981288544833660126e-02
4.674690589308738708e-02
4.411450028419494629e-02
-2.919817529618740082e-02
-1.223870832473039627e-02
4.801656305789947510e-02
4.075940698385238647e-03
-4.608349129557609558e-02
-3.155688941478729248e-02
7.581809163093566895e-02
-3.860288858413696289e-02
7.975298911333084106e-02
-1.466151420027017593e-02
1.471441611647605896e-02
1.284217461943626404e-02
1.019161543808877468e-03
2.038753964006900787e-02
7.223823666572570801e-02
4.709324985742568970e-02
-4.710461199283599854e-02
5.344112217426300049e-02
2.365805581212043762e-02
6.211462616920471191e-02
7.354212552309036255e-02
1.463324669748544693e-02
-4.897588118910789490e-02
1.005153171718120575e-02
4.692058544605970383e-03
4.516898840665817261e-02
-5.947904288768768311e-02
1.826404780149459839e-02
3.853972256183624268e-02
6.363169290125370026e-03
8.130307495594024658e-02
5.554493516683578491e-02
1.907080784440040588e-02
1.367008313536643982e-02
5.219149962067604065e-02
6.125438958406448364e-02
6.283280998468399048e-02
5.660366639494895935e-02
-6.237203720957040787e-03
-4.803389310836791992e-02
-9.239116479875519872e-05
-2.307783998548984528e-02
-3.697922825813293457e-02
-4.091512039303779602e-02
5.631495639681816101e-02
-1.627573557198047638e-02
2.136144228279590607e-02
2.428941614925861359e-02
2.225782535970211029e-02
1.924048364162445068e-02
-2.044545859098434448e-02
-1.894657686352729797e-02
2.504413016140460968e-02
4.203549772500991821e-02
6.927125505171716213e-04
6.388963758945465088e-02
2.298660576343536377e-02
5.760766565799713135e-02
1.788449939340353012e-03
2.242470905184745789e-02
7.622283697128295898e-02
1.846680417656898499e-02
-2.555685304105281830e-02
4.789116978645324707e-02
3.455653414130210876e-02
-2.721639536321163177e-02
3.734288364648818970e-02
5.885802209377288818e-02
4.364393651485443115e-02
1.986765488982200623e-02
-5.327709484845399857e-03
2.234914526343345642e-02
7.919650524854660034e-02
-2.872758544981479645e-03
6.800862401723861694e-02
3.162097185850143433e-02
-3.062579967081546783e-02
7.090571336448192596e-03
2.317698486149311066e-02
8.277274668216705322e-02
5.412866175174713135e-02
4.526490718126296997e-02
-2.939082123339176178e-02
-1.052274461835622787e-02
-4.795402660965919495e-02
1.321179606020450592e-02
4.474596679210662842e-02
-2.133843302726745605e-02
-1.376408990472555161e-02
-1.139439549297094345e-02
4.958204552531242371e-02
3.465336933732032776e-02
3.181864321231842041e-02
4.533915966749191284e-02
4.339737445116043091e-02
4.978427290916442871e-02
8.086476475000381470e-03
7.067812234163284302e-02
1.034331787377595901e-02
2.622320689260959625e-02
1.001756871119141579e-03
-3.584523499011993408e-02
-2.624733187258243561e-02
1.024491619318723679e-02
7.355698943138122559e-02
2.203095704317092896e-02
3.009785339236259460e-02
-2.644707262516021729e-02
6.739930808544158936e-02
1.212627999484539032e-02
-3.092051856219768524e-02
1.084695663303136826e-02
6.825574487447738647e-02
2.388342842459678650e-02
-3.147853305563330650e-03
4.376201704144477844e-02
5.927908048033714294e-02
3.808393329381942749e-02
1.551518216729164124e-02
-3.101552464067935944e-02
5.091876164078712463e-02
1.090052444487810135e-02
5.899990722537040710e-02
-6.919500883668661118e-03
3.621605783700942993e-02
-4.419841244816780090e-02
7.114905864000320435e-02
1.042180508375167847e-02
-8.194961585104465485e-03
-1.992634683847427368e-02
4.973597079515457153e-02
1.116851344704627991e-02
1.907117664813995361e-02
1.788305677473545074e-02
3.553277254104614258e-02
