7.680371403694152832e-03
3.535604104399681091e-02
-5.825596163049340248e-04
-1.710432989057153463e-04
2.515156287699937820e-03
2.986429445445537567e-02
3.894411399960517883e-02
6.630016025155782700e-03
2.632855251431465149e-02
6.713530514389276505e-03
-1.818998344242572784e-02
2.235153317451477051e-02
-3.497504442930221558e-02
9.006775915622711182e-03
1.831181161105632782e-02
1.253593899309635162e-02
-1.601130788912996650e-04
4.332467913627624512e-02
1.607435382902622223e-02
-1.124247792176902294e-03
-1.693554967641830444e-02
1.640962064266204834e-02
-4.902596701867878437e-04
5.695219151675701141e-03
-2.653077989816665649e-02
2.969956584274768829e-02
-3.284802078269422054e-04
-4.988615401089191437e-04
3.445523232221603394e-02
2.278606593608856201e-02
2.352302335202693939e-02
8.045588620007038116e-03
-5.148334312252700329e-04
3.956872969865798950e-03
-5.577774136327207088e-04
4.594025388360023499e-02
6.268862634897232056e-03
-6.258590728975832462e-04
-4.215071967337280512e-04
1.887883245944976807e-02
9.526320733129978180e-03
4.847266525030136108e-02
-6.809480255469679832e-04
3.105009533464908600e-02
-5.971045466139912605e-04
-7.052828441374003887e-04
1.380373537540435791e-02
-5.925535224378108978e-04
2.630998939275741577e-02
-1.383483130484819412e-02
2.001245506107807159e-02
1.020505372434854507e-02
7.329118438065052032e-03
-3.650740254670381546e-04
-4.167241859249770641e-04
1.990331895649433136e-02
-7.126646814867854118e-04
-3.296791110187768936e-04
2.324746921658515930e-02
2.261343179270625114e-03
1.157199963927268982e-02
-3.651139268185943365e-04
2.213390171527862549e-02
3.923553600907325745e-02
2.547492831945419312e-02
3.558726981282234192e-02
2.232575602829456329e-02
2.185116522014141083e-02
-2.155783958733081818e-02
3.739798814058303833e-02
1.538755279034376144e-02
-5.174100399017333984e-03
9.517854079604148865e-03
9.465123526751995087e-03
2.761589922010898590e-02
2.602304890751838684e-02
-8.689984097145497799e-04
-3.362921252846717834e-02
-6.251448066905140877e-04
-5.036041606217622757e-03
-2.652578987181186676e-02
-3.290842578280717134e-04
5.261996015906333923e-02
3.455377370119094849e-02
-7.140411180444061756e-04
2.277368307113647461e-02
1.013721711933612823e-02
-4.683289211243391037e-03
-4.767524078488349915e-02
-1.431300584226846695e-02
5.062636733055114746e-02
-1.757347024977207184e-02
3.182502463459968567e-03
-1.806591451168060303e-02
2.220528572797775269e-02
-2.136751450598239899e-02
2.439276874065399170e-02
3.605064004659652710e-02
-3.820061392616480589e-04
-1.161696948111057281e-02
1.809269934892654419e-02
3.264886327087879181e-03
1.555466558784246445e-02
3.350511193275451660e-02
2.709685079753398895e-02
3.699618205428123474e-02
1.422105543315410614e-02
4.530845582485198975e-02
-2.717920579016208649e-03
-3.867687424644827843e-03
-9.232729673385620117e-03
-1.003138604573905468e-03
-3.935107961297035217e-02
2.267765812575817108e-02
2.111310698091983795e-02
9.933358989655971527e-03
9.679280221462249756e-03
2.316872216761112213e-02
-5.636762361973524094e-04
-4.031112475786358118e-04
-7.560514495708048344e-04
-4.253231745678931475e-04
1.917585916817188263e-02
1.282989419996738434e-02
1.157398335635662079e-02
2.772776782512664795e-02
4.808359965682029724e-02
3.932047635316848755e-02
4.375599324703216553e-02
-2.707188017666339874e-02
-1.727387681603431702e-02
-7.151959463953971863e-03
2.822214737534523010e-03
9.016533382236957550e-03
2.224390022456645966e-02
1.527010649442672729e-02
-2.107303298544138670e-04
2.291171811521053314e-02
2.567905758041888475e-04
5.468546878546476364e-03
-1.013604458421468735e-03
-4.332622513175010681e-03
2.752858772873878479e-02
-9.683237411081790924e-03
4.805505741387605667e-03
-4.727549676317721605e-04
-1.452873181551694870e-02
-3.656492382287979126e-02
2.004181779921054840e-02
8.047565817832946777e-03
-2.375861816108226776e-02
-3.894845768809318542e-02
-2.865367801859974861e-03
2.493912912905216217e-02
-6.732716574333608150e-04
1.202165056020021439e-02
2.807814627885818481e-02
-1.208889577537775040e-02
-7.196246297098696232e-04
-7.880734628997743130e-04
1.459019351750612259e-02
4.058714210987091064e-02
3.606148809194564819e-02
-2.969875000417232513e-02
2.409850619733333588e-02
-2.053486555814743042e-02
-4.887781688012182713e-04
-5.673999548889696598e-04
3.279989585280418396e-02
3.430725261569023132e-02
-6.999704055488109589e-04
1.862732879817485809e-02
2.491250075399875641e-02
-2.132069505751132965e-02
1.353285368531942368e-02
8.077318780124187469e-03
4.783851094543933868e-03
-9.574098512530326843e-04
1.572546735405921936e-02
3.824961930513381958e-02
3.371851146221160889e-02
-6.829123594798147678e-04
3.108016774058341980e-02
-8.489398285746574402e-03
8.179184980690479279e-03
1.939211785793304443e-02
-5.137179396115243435e-04
4.550070036202669144e-03
-1.519471872597932816e-02
6.117241457104682922e-03
-8.362141437828540802e-03
7.960512302815914154e-03
-6.691446178592741489e-04
1.058713719248771667e-02
1.392228249460458755e-02
-2.096384763717651367e-02
2.992657572031021118e-02
1.928126066923141479e-02
-4.107045009732246399e-03
3.025623969733715057e-02
2.270733751356601715e-02
3.934800624847412109e-02
-4.777883179485797882e-03
2.936634002253413200e-03
2.129758708178997040e-02
6.721477024257183075e-03
2.215198986232280731e-02
-6.960285245440900326e-04
5.064485594630241394e-02
5.810806062072515488e-03
3.752374323084950447e-03
-1.933678984642028809e-02
3.203680738806724548e-02
-4.689988563768565655e-04
-3.386548906564712524e-02
1.238686498254537582e-02
4.638764075934886932e-03
9.930104948580265045e-03
2.166564203798770905e-02
2.657163888216018677e-02
2.303061634302139282e-02
4.686120525002479553e-02
-2.141181379556655884e-03
1.087062247097492218e-02
-8.312324644066393375e-04
6.462901085615158081e-02
6.176456436514854431e-02
-7.764908950775861740e-04
5.882118828594684601e-03
3.104762919247150421e-02
-5.327725666575133801e-04
-5.903668934479355812e-04
-1.209777686744928360e-02
-1.784177683293819427e-02
-2.372551523149013519e-02
7.727827876806259155e-03
2.747939899563789368e-02
-2.541887015104293823e-02
2.273314818739891052e-02
-1.102076563984155655e-02
-5.909640341997146606e-03
1.306449249386787415e-02
-6.856453139334917068e-03
2.657197229564189911e-02
1.675122231245040894e-02
-1.107620657421648502e-03
2.083588019013404846e-02
1.345322933048009872e-02
-2.975234529003500938e-03
3.377665532752871513e-03
-1.044254517182707787e-03
-5.078872782178223133e-04
1.996708102524280548e-02
2.052837610244750977e-02
1.628232002258300781e-02
-2.109107747673988342e-02
