-1.697248220443725586e-02 -1.093246322125196457e-02 -3.911102190613746643e-03 8.107741014100611210e-04 -3.730769501999020576e-03 -9.674214757978916168e-03 -3.353602020069956779e-03 -3.770999610424041748e-03 -1.532065123319625854e-02 3.150825621560215950e-03 2.611781936138868332e-03 6.041195709258317947e-03 1.913471031002700329e-03 6.248991936445236206e-03 6.822327617555856705e-03 8.632344193756580353e-03 -8.130192756652832031e-03 8.166579646058380604e-04 -1.336423121392726898e-02 1.773149939253926277e-03 -1.064126566052436829e-02 -5.769182462245225906e-03 -1.664531789720058441e-02 -5.631418433040380478e-03 1.108856033533811569e-02 4.516047483775764704e-04 -8.409262634813785553e-03 1.688284985721111298e-02 7.912168279290199280e-03 1.865485683083534241e-02 -2.851066819857805967e-04 -1.962455920875072479e-02 2.695859782397747040e-02 4.679582640528678894e-02 -4.330283775925636292e-02 -3.759424760937690735e-02 4.943433217704296112e-03 -1.874247379601001740e-02 -1.292254216969013214e-02 -3.461162559688091278e-03 1.429285388439893723e-03 -4.733244888484477997e-03 -1.016401872038841248e-02 -3.962008282542228699e-03 -4.437289200723171234e-03 -1.558175683021545410e-02 2.702900208532810211e-03 1.933682826347649097e-03 5.232454743236303329e-03 4.047974478453397751e-03 6.540680769830942154e-03 6.513777654618024826e-03 3.180637722834944725e-03 3.007004270330071449e-03 -1.432964112609624863e-03 -8.589757606387138367e-03 -1.979568041861057281e-03 -6.330193020403385162e-03 -8.413572795689105988e-03 -7.653587032109498978e-03 -3.364602103829383850e-03 6.485438439995050430e-03 -6.616267492063343525e-04 -7.143782917410135269e-03 1.809243671596050262e-02 7.882336154580116272e-03 1.762994937598705292e-02 1.618156675249338150e-04 -1.896007545292377472e-02 2.568521909415721893e-02 5.736777931451797485e-02 -4.984548315405845642e-02 -3.262128308415412903e-02 2.768002683296799660e-03 -2.052184380590915680e-02 -1.463896036148071289e-02 -4.492165520787239075e-03 1.983283087611198425e-03 -3.732266835868358612e-03 -1.056402269750833511e-02 -4.020821768790483475e-03 -4.472657572478055954e-03 -1.472720224410295486e-02 2.088482957333326340e-03 1.815262367017567158e-03 4.151971079409122467e-03 3.613446140661835670e-03 7.598277647048234940e-03 7.149622309952974319e-03 3.261098638176918030e-03 1.370579557260498405e-04 -1.295993104577064514e-03 -8.404509164392948151e-03 -1.102490583434700966e-03 -4.430858418345451355e-03 -5.237936973571777344e-03 -5.109153222292661667e-03 -6.062674801796674728e-03 -3.709793090820312500e-04 -1.034733606502413750e-03 -1.050044503062963486e-02 1.796536147594451904e-02 8.151050657033920288e-03 1.920470036566257477e-02 -3.256582131143659353e-04 -2.009095996618270874e-02 3.541151806712150574e-02 5.482468381524085999e-02 -5.330574885010719299e-02 -3.682578727602958679e-02 -1.674646697938442230e-02 -2.291101776063442230e-02 -1.660528220236301422e-02 -7.059765513986349106e-03 2.112172311171889305e-03 -5.217226222157478333e-03 -1.016618125140666962e-02 -5.007783416658639908e-03 -4.469848703593015671e-03 -1.637049764394760132e-02 8.447191212326288223e-04 1.934785395860671997e-03 3.861331148073077202e-03 4.476165864616632462e-03 6.259396206587553024e-03 6.585416384041309357e-03 3.193992655724287033e-03 -6.357980426400899887e-03 1.520531601272523403e-03 -1.269971113651990891e-02 -1.803820603527128696e-03 -8.561052381992340088e-03 -1.073600607924163342e-03 -1.065988373011350632e-02 -7.670551538467407227e-03 -4.451167304068803787e-03 2.132235094904899597e-03 -1.003057137131690979e-02 1.883337087929248810e-02 7.567776367068290710e-03 1.836673170328140259e-02 -2.323899243492633104e-04 -1.754081062972545624e-02 3.912147507071495056e-02 5.811288580298423767e-02 -4.741285368800163269e-02 -3.282739594578742981e-02 -2.192957140505313873e-02 -2.423286251723766327e-02 -1.799435727298259735e-02 -9.318547323346138000e-03 2.665585605427622795e-03 -5.772930104285478592e-03 -9.738967753946781158e-03 -5.698046647012233734e-03 -4.118798766285181046e-03 -1.746962778270244598e-02 1.322990399785339832e-03 6.374951917678117752e-04 3.047424601390957832e-03 4.151596687734127045e-03 6.622624117881059647e-03 6.537295412272214890e-03 9.222080931067466736e-03 -1.174485427327454090e-03 -7.178059779107570648e-03 -1.065601501613855362e-02 -4.907613765681162477e-05 -1.078978646546602249e-02 2.402001991868019104e-03 -1.781159825623035431e-02 -7.370039355009794235e-03 8.292425627587363124e-05 1.603258308023214340e-03 -9.639482945203781128e-03 1.994196511805057526e-02 7.050730753690004349e-03 1.964477263391017914e-02 -1.691710203886032104e-04 -1.708454824984073639e-02 4.084865376353263855e-02 6.114337220788002014e-02 -3.940277919173240662e-02 -4.165487736463546753e-02 -2.894649468362331390e-02 -2.557174302637577057e-02 -1.947331055998802185e-02 -1.313036028295755386e-02 3.865472972393035889e-03 -4.782136995345354080e-03 -9.383877739310264587e-03 -6.347303744405508041e-03 -4.644170869141817093e-03 -1.760334335267543793e-02 4.819031746592372656e-04 1.598752452991902828e-03 2.854971680790185928e-03 4.551251884549856186e-03 6.580147892236709595e-03 6.487270817160606384e-03 4.459982272237539291e-03 9.762897971086204052e-04 -4.741980228573083878e-03 -1.042028982192277908e-02 -2.013908233493566513e-03 -9.416380897164344788e-03 -3.195808269083499908e-03 -1.468886714428663254e-02 -9.025887586176395416e-03 -1.107864640653133392e-02 6.386167369782924652e-03 -1.519142743200063705e-02 2.077698335051536560e-02 7.458144333213567734e-03 1.821620576083660126e-02 8.823215030133724213e-04 -1.484638731926679611e-02 4.498807340860366821e-02 5.724735185503959656e-02 -4.054185375571250916e-02 -3.628253564238548279e-02 -3.040957637131214142e-02 -2.743001095950603485e-02 -2.198347449302673340e-02 -1.620173640549182892e-02 2.983286511152982712e-03 -3.768017748370766640e-03 -1.000463310629129410e-02 -7.917510345578193665e-03 -4.955428186804056168e-03 -1.838203892111778259e-02 1.513144816271960735e-03 -5.965843447484076023e-04 2.564745256677269936e-03 5.070054437965154648e-03 7.488743402063846588e-03 6.090475711971521378e-03 -2.390009118244051933e-03 -1.438901294022798538e-03 -4.720419179648160934e-03 -9.843345731496810913e-03 -5.863262806087732315e-03 -1.020524837076663971e-02 -1.072564162313938141e-02 -1.662732847034931183e-02 -1.047640386968851089e-02 -4.355635959655046463e-03 6.013562437146902084e-03 -1.001737825572490692e-02 2.162857353687286377e-02 6.037651561200618744e-03 1.872839033603668213e-02 -1.069083300535567105e-04 -1.923230849206447601e-02 4.675436764955520630e-02 5.484745651483535767e-02 -4.297242313623428345e-02 -4.631754755973815918e-02 -3.648164868354797363e-02 -2.771423943340778351e-02 -2.478544786572456360e-02 -2.067164517939090729e-02 3.251863876357674599e-03 -3.915008623152971268e-03 -9.928509593009948730e-03 -8.163242600858211517e-03 -4.658644553273916245e-03 -1.966213621199131012e-02 -9.098029840970411897e-05 4.856582672800868750e-04 1.766891218721866608e-03 4.553173668682575226e-03 8.695581927895545959e-03 5.982771050184965134e-03 -7.179264910519123077e-03 -4.549642093479633331e-03 -4.914388991892337799e-03 -6.852862890809774399e-03 -4.248042125254869461e-03 -5.562614649534225464e-03 -1.417890191078186035e-02 -1.423584111034870148e-02 -1.141011528670787811e-02 4.548824392259120941e-03 3.582052187994122505e-03 -4.280444234609603882e-03 2.182663977146148682e-02 6.316660437732934952e-03 1.941745169460773468e-02 3.538439341355115175e-04 -1.636390946805477142e-02 4.848584532737731934e-02 5.077917873859405518e-02 -3.488645330071449280e-02 -6.848549842834472656e-02 -3.846899792551994324e-02 -2.908722124993801117e-02 -2.720036916434764862e-02 -2.500569261610507965e-02 1.759431557729840279e-03 -5.993072874844074249e-03 -9.388025850057601929e-03 -8.820975199341773987e-03 -3.867908846586942673e-03 -2.035590820014476776e-02 -3.371947968844324350e-04 -1.488331938162446022e-03 2.039321232587099075e-03 5.255905445665121078e-03 9.142246097326278687e-03 6.532734725624322891e-03 -1.905386708676815033e-02 -7.135188207030296326e-03 -5.732886958867311478e-03 -9.531445801258087158e-03 1.003162586130201817e-03 -1.428314857184886932e-02 -1.720954105257987976e-02 -1.797175966203212738e-02 -1.641008630394935608e-02 5.857174750417470932e-03 -3.628950566053390503e-03 1.004675962030887604e-02 2.155191823840141296e-02 5.643877666443586349e-03 1.823086105287075043e-02 3.171617208863608539e-05 -1.956566236913204193e-02 5.754009634256362915e-02 4.274430125951766968e-02 -2.119846269488334656e-02 -6.680661439895629883e-02 -4.402596130967140198e-02 -2.870083041489124298e-02 -3.002168610692024231e-02 -3.140304237604141235e-02 -7.346007623709738255e-04 -6.528739817440509796e-03 -9.089910425245761871e-03 -9.441732428967952728e-03 -3.360971808433532715e-03 -2.125571481883525848e-02 -9.409345220774412155e-04 -2.217831090092658997e-03 5.146603216417133808e-04 6.032607518136501312e-03 1.106707565486431122e-02 8.061381988227367401e-03 -1.059674564749002457e-02 -2.228243462741374969e-02 -2.145539969205856323e-02 6.594441831111907959e-03 -1.426827395334839821e-03 -5.837725009769201279e-03 -2.330518513917922974e-02 -1.025614235550165176e-02 -2.553254738450050354e-02 7.793030701577663422e-03 -8.624990470707416534e-03 -1.467238762415945530e-03 2.319337613880634308e-02 4.188703373074531555e-03 1.901078224182128906e-02 -1.230745343491435051e-03 -1.769762113690376282e-02 6.300671398639678955e-02 3.327062353491783142e-02 -2.638029493391513824e-02 -5.095943063497543335e-02 -5.082767829298973083e-02 -3.707906871568411589e-04 1.256374293006956577e-03 -3.234713152050971985e-02 1.866805739700794220e-02 -1.810495927929878235e-02 -1.336313132196664810e-02 2.161771059036254883e-02 -8.818059228360652924e-03 1.755825430154800415e-02 -8.602877147495746613e-03 -4.037579894065856934e-02 -1.089481636881828308e-02 -3.190421313047409058e-02 -1.401385571807622910e-02 -2.105553075671195984e-02 2.714526373893022537e-03 1.516793668270111084e-02 -2.495627291500568390e-02 -2.680806070566177368e-02 4.220912605524063110e-02 -2.416063798591494560e-03 1.845404505729675293e-02 -6.583972834050655365e-03 -5.766119062900543213e-02 1.837595365941524506e-03 -3.683672519400715828e-03 2.551463199779391289e-03 2.908511552959680557e-03 -1.823419891297817230e-02 8.202477358281612396e-03 -4.008274525403976440e-02 -2.261710353195667267e-02 2.328796125948429108e-02 2.612709766253829002e-03 2.365561388432979584e-02 4.181274212896823883e-03 -5.308466404676437378e-02 -1.353068929165601730e-02 -1.869072765111923218e-02 9.650284424424171448e-03 -5.421715322881937027e-04 -2.832793258130550385e-02 1.369047630578279495e-02 -2.694755047559738159e-02 -4.155442863702774048e-02 4.008039832115173340e-02 -1.077530998736619949e-02 3.668069094419479370e-02 -1.719955937005579472e-03 -4.873448237776756287e-02 -7.603020872920751572e-03 -3.381133312359452248e-03 -2.803611103445291519e-03 4.998338408768177032e-04 -2.817771956324577332e-02 1.411484554409980774e-02 -3.814442828297615051e-02 -2.873706445097923279e-02 8.885896764695644379e-03 1.206567743793129921e-03 3.397480025887489319e-02 3.473598044365644455e-03 -4.877543821930885315e-02 -2.292581833899021149e-02 -3.076297696679830551e-03 -2.676658891141414642e-02 -2.069927752017974854e-03 -9.172968566417694092e-03 5.798592232167720795e-03 -5.060315504670143127e-02 -1.355960872024297714e-02 4.344020411372184753e-02 -2.398596378043293953e-03 2.607151307165622711e-02 1.199474930763244629e-02 -5.013687536120414734e-02 -9.205449372529983521e-03 -7.621071301400661469e-03 -1.051190774887800217e-02 -3.085243515670299530e-03 -2.853943593800067902e-02 1.395452022552490234e-02 -6.468033790588378906e-02 -1.320883445441722870e-02 3.209228441119194031e-02 -2.356764674186706543e-02 5.059340968728065491e-02 1.262276619672775269e-02 -5.517486482858657837e-02 -1.799937337636947632e-02 -1.030875253491103649e-03 -2.035285346210002899e-02 -4.948350600898265839e-03 -2.232292480766773224e-02 -1.576021546497941017e-03 -5.933905392885208130e-02 -4.941124096512794495e-02 2.039327844977378845e-02 -4.927034489810466766e-03 1.588964834809303284e-02 1.174967456609010696e-02 -6.057727709412574768e-02 -3.859699890017509460e-02 -3.726053982973098755e-02 -9.383299946784973145e-02 -1.951516792178153992e-02 -4.084742814302444458e-02 7.360682357102632523e-03 -6.426110118627548218e-02 -4.725648090243339539e-02 3.191926702857017517e-02 -8.740074001252651215e-03 2.380762249231338501e-02 9.630285203456878662e-03 -5.929354950785636902e-02 -3.106489777565002441e-02 -7.433447986841201782e-03
-1.105008739978075027e-02 1.497055124491453171e-02 -2.274922281503677368e-02 -7.053719833493232727e-03 9.054704569280147552e-03 1.407071575522422791e-02 -1.647736690938472748e-02 -1.834659837186336517e-02 8.428150787949562073e-03 -5.334286950528621674e-03 2.266377443447709084e-03 6.494923029094934464e-03 -1.967191509902477264e-02 -2.215777494711801410e-04 -2.029532101005315781e-03 9.213560260832309723e-04 3.239175712224096060e-04 8.272335864603519440e-03 8.910263888537883759e-03 -1.265924144536256790e-02 1.872341614216566086e-03 6.560849957168102264e-03 5.259328056126832962e-03 -9.815753437578678131e-04 -1.861128839664161205e-03 4.240173846483230591e-03 3.340330440551042557e-03 -8.620985783636569977e-03 -1.628626883029937744e-02 -8.154939860105514526e-03 -5.829576402902603149e-04 5.955180525779724121e-02 -3.424822166562080383e-02 -2.438624389469623566e-02 -5.604032892733812332e-03 4.556770995259284973e-02 -2.021056832745671272e-03 -1.228451263159513474e-02 1.692795008420944214e-02 -2.489536441862583160e-02 -6.938567850738763809e-03 8.234244771301746368e-03 1.328742410987615585e-02 -1.513989921659231186e-02 -1.898468844592571259e-02 8.547497913241386414e-03 -4.836273379623889923e-03 2.835659543052315712e-03 5.453236401081085205e-03 -1.897682808339595795e-02 -6.826324970461428165e-04 -1.827048487029969692e-03 1.684345188550651073e-04 -3.197887679561972618e-03 5.869127344340085983e-03 9.595923125743865967e-03 -7.833607494831085205e-03 1.494687516242265701e-03 3.716768231242895126e-03 2.431009663268923759e-03 3.598172450438141823e-03 -1.634904765523970127e-04 1.173160504549741745e-03 -1.531678390165325254e-05 -8.723705075681209564e-03 -1.555902510881423950e-02 -8.053531870245933533e-03 3.836514370050281286e-04 6.579006463289260864e-02 -3.454405814409255981e-02 -1.896884106099605560e-02 1.837106887251138687e-03 4.850138351321220398e-02 -9.122854098677635193e-03 -1.088394038379192352e-02 2.093204110860824585e-02 -2.708984538912773132e-02 -6.812436971813440323e-03 9.118754416704177856e-03 1.355367805808782578e-02 -1.482339482754468918e-02 -1.932486146688461304e-02 8.839851245284080505e-03 -4.210919141769409180e-03 3.679009387269616127e-03 7.374705281108617783e-03 -1.986859925091266632e-02 -2.999920980073511600e-05 -2.833480713889002800e-03 -3.452059580013155937e-03 -6.711534690111875534e-03 6.752294953912496567e-03 1.271043997257947922e-02 -5.205451045185327530e-03 -1.946602249518036842e-03 4.702132195234298706e-03 4.542232025414705276e-03 4.416810814291238785e-03 -1.702468493022024632e-03 -4.078473430126905441e-03 3.096052678301930428e-03 -8.832027204334735870e-03 -1.464699674397706985e-02 -7.251436356455087662e-03 5.028425366617739201e-04 7.280088961124420166e-02 -3.865632787346839905e-02 -2.342443726956844330e-02 4.049496259540319443e-03 5.542877689003944397e-02 -3.041113377548754215e-04 -1.036544702947139740e-02 2.205642499029636383e-02 -2.658999338746070862e-02 -7.602264173328876495e-03 7.860457524657249451e-03 1.421287748962640762e-02 -1.404652837663888931e-02 -1.968636363744735718e-02 6.722506601363420486e-03 -3.396419575437903404e-03 3.180395346134901047e-03 6.750469096004962921e-03 -1.980278640985488892e-02 -2.853064797818660736e-04 -2.520991722121834755e-03 3.231174545362591743e-03 -6.309758406132459641e-03 1.234070304781198502e-02 1.052075438201427460e-02 -1.048970315605401993e-02 -2.318468177691102028e-03 1.805117353796958923e-02 -3.320568241178989410e-03 9.456005878746509552e-03 -6.845211144536733627e-03 -2.033164491876959801e-03 1.383904274553060532e-02 -7.985737174749374390e-03 -1.400049310177564621e-02 -8.233420550823211670e-03 9.144626528723165393e-05 7.716243714094161987e-02 -3.760782256722450256e-02 -1.664240658283233643e-02 1.728895492851734161e-02 4.936755076050758362e-02 -3.185084555298089981e-03 -8.730184286832809448e-03 2.611105889081954956e-02 -2.755066379904747009e-02 -8.361078798770904541e-03 9.279543533921241760e-03 1.443554926663637161e-02 -1.340391766279935837e-02 -1.887289062142372131e-02 6.976002827286720276e-03 -1.594908419065177441e-03 3.095036372542381287e-03 7.145897950977087021e-03 -1.918893307447433472e-02 -9.109235252253711224e-04 -2.683276776224374771e-03 -7.624911377206444740e-04 -5.823116283863782883e-03 9.124384261667728424e-03 1.232760027050971985e-02 -4.467839375138282776e-03 -9.759803302586078644e-03 1.655714400112628937e-02 -5.565437488257884979e-03 1.311288122087717056e-02 -1.097866054624319077e-02 -6.517748348414897919e-03 2.015869319438934326e-02 -7.383490912616252899e-03 -1.449775043874979019e-02 -8.244363591074943542e-03 -1.104857190512120724e-03 8.319680392742156982e-02 -3.975220769643783569e-02 -1.703549548983573914e-02 2.279389835894107819e-02 5.689780041575431824e-02 -1.828903099521994591e-03 -7.260167971253395081e-03 2.898316644132137299e-02 -2.975672483444213867e-02 -7.869818247854709625e-03 8.849067613482475281e-03 1.451574638485908508e-02 -1.255475357174873352e-02 -1.938670501112937927e-02 5.314594600349664688e-03 -1.183927757665514946e-03 2.431580564007163048e-03 7.040775846689939499e-03 -2.051974274218082428e-02 -5.047291051596403122e-04 -2.776777604594826698e-03 -7.239308673888444901e-03 -7.055590394884347916e-03 1.158186327666044235e-02 7.085556630045175552e-03 -5.424877628684043884e-03 -4.033412318676710129e-03 1.891409419476985931e-02 -1.422756165266036987e-02 1.493484340608119965e-02 -9.217446669936180115e-03 -1.563707552850246429e-02 1.723976060748100281e-02 -7.483541499823331833e-03 -1.373760122805833817e-02 -7.509824819862842560e-03 2.774635686364490539e-05 8.665403723716735840e-02 -4.331316798925399780e-02 -7.881901226937770844e-03 2.585858106613159180e-02 5.334376543760299683e-02 3.011199645698070526e-03 -7.175930310040712357e-03 3.219254314899444580e-02 -3.100867755711078644e-02 -8.968394249677658081e-03 8.605906739830970764e-03 1.449602469801902771e-02 -1.200075354427099228e-02 -1.872331090271472931e-02 4.868999589234590530e-03 3.155615704599767923e-04 2.445501973852515221e-03 7.743714842945337296e-03 -1.972825825214385986e-02 -5.537582910619676113e-04 -3.229825524613261223e-03 -1.167595759034156799e-02 4.143469850532710552e-04 8.519760333001613617e-03 1.037581637501716614e-02 -7.425783202052116394e-03 3.528281347826123238e-03 7.631292100995779037e-03 -1.308985985815525055e-02 1.450867485255002975e-02 -8.344759116880595684e-04 -1.823591813445091248e-02 1.211736723780632019e-02 -7.453649770468473434e-03 -1.316771749407052994e-02 -7.644919212907552719e-03 6.657006451860070229e-05 9.416304528713226318e-02 -4.439753666520118713e-02 -1.413581706583499908e-02 2.202420122921466827e-02 6.353384256362915039e-02 -8.745703846216201782e-03 -5.216371268033981323e-03 3.593297675251960754e-02 -3.517735004425048828e-02 -9.735671803355216980e-03 9.311142377555370331e-03 1.499368529766798019e-02 -1.183951832354068756e-02 -2.023203670978546143e-02 4.791296552866697311e-03 1.414602505974471569e-03 1.436229213140904903e-03 8.659314364194869995e-03 -1.855559460818767548e-02 -8.957372629083693027e-04 -2.302619162946939468e-03 -6.025944370776414871e-03 6.454152520745992661e-03 1.134654041379690170e-02 1.387189887464046478e-02 -2.461441047489643097e-02 2.988116815686225891e-03 1.399667933583259583e-02 -1.326881814748048782e-02 1.765892095863819122e-02 2.110153203830122948e-03 -1.224779896438121796e-02 1.016548485495150089e-03 -7.566779851913452148e-03 -1.279845274984836578e-02 -7.217098027467727661e-03 -8.923149434849619865e-04 1.018168926239013672e-01 -4.930762574076652527e-02 -2.885962370783090591e-03 2.337945997714996338e-02 4.497284814715385437e-02 -6.194452289491891861e-03 -3.511437913402915001e-03 3.865930065512657166e-02 -3.881681710481643677e-02 -8.611087687313556671e-03 1.003991160541772842e-02 1.626699976623058319e-02 -8.534237742424011230e-03 -2.188008092343807220e-02 5.147480871528387070e-03 4.265625495463609695e-03 5.798455676995217800e-04 9.263294748961925507e-03 -1.785337924957275391e-02 -2.169071231037378311e-03 -4.198136273771524429e-03 7.991176098585128784e-03 4.219416994601488113e-03 1.405892707407474518e-02 1.712838932871818542e-02 -3.906260803341865540e-02 8.081598207354545593e-03 2.063158713281154633e-02 -7.236916571855545044e-03 1.911588013172149658e-02 3.074283478781580925e-03 -2.505660057067871094e-02 -9.359289892017841339e-03 -7.620199583470821381e-03 -1.224053744226694107e-02 -8.041084744036197662e-03 -1.469304988859221339e-04 1.066725850105285645e-01 -4.690711200237274170e-02 -7.202753797173500061e-03 4.195079952478408813e-02 5.776864290237426758e-02 -1.449436135590076447e-02 -1.051060738973319530e-03 4.032487794756889343e-02 -4.675205424427986145e-02 -6.156619638204574585e-03 1.140370871871709824e-02 1.785334199666976929e-02 -7.470945362001657486e-03 -2.419555000960826874e-02 4.625875502824783325e-03 7.259614299982786179e-03 1.123090507462620735e-03 1.043647434562444687e-02 -1.738449186086654663e-02 -4.953823052346706390e-03 -7.145151030272245407e-03 7.386223878711462021e-03 5.780388601124286652e-03 2.221938781440258026e-02 1.906473748385906219e-02 -3.826092183589935303e-02 4.057534039020538330e-03 1.126272883266210556e-02 -1.150553487241268158e-02 3.985638171434402466e-02 -1.419165730476379395e-02 -3.484556078910827637e-02 -1.006321236491203308e-02 -7.648358121514320374e-03 -1.148473285138607025e-02 -7.703449577093124390e-03 -5.065739969722926617e-04 1.113163307309150696e-01 -5.072463303804397583e-02 6.279756315052509308e-03 4.880582541227340698e-02 3.056093491613864899e-02 1.799115538597106934e-02 1.157306600362062454e-02 3.027101978659629822e-03 -8.719185367226600647e-03 1.239372789859771729e-02 2.282544597983360291e-02 4.425613582134246826e-02 -3.797829523682594299e-02 -1.244899537414312363e-02 -2.267804928123950958e-03 9.118552319705486298e-03 1.671003364026546478e-02 9.714119136333465576e-03 1.418423838913440704e-02 2.694410271942615509e-02 -5.088646430522203445e-03 -2.192434156313538551e-03 7.682234514504671097e-03 2.544988878071308136e-02 4.168151319026947021e-02 -1.158770918846130371e-02 -3.202214604243636131e-03 8.163836901076138020e-04 -4.034139681607484818e-03 3.029590845108032227e-02 1.602251827716827393e-02 9.896250441670417786e-03 2.168125472962856293e-02 -1.163032371550798416e-03 1.635676133446395397e-03 -6.768330931663513184e-03 1.786924898624420166e-02 4.800594225525856018e-02 -9.911533445119857788e-03 -9.387240745127201080e-03 9.183094953186810017e-04 -2.970232162624597549e-03 3.018018603324890137e-02 1.637463644146919250e-02 -1.649898290634155273e-02 1.376264728605747223e-03 3.263871185481548309e-03 -1.460554357618093491e-02 -3.916348330676555634e-03 2.644214220345020294e-02 4.661510139703750610e-02 -5.991480778902769089e-03 -6.667429115623235703e-03 -1.158694550395011902e-02 3.831750480458140373e-03 2.016192860901355743e-02 1.630327850580215454e-02 1.416102703660726547e-02 4.025898873805999756e-03 -5.292173940688371658e-03 -1.074494980275630951e-02 5.291271023452281952e-03 2.599845081567764282e-02 4.795233160257339478e-02 -1.140969712287187576e-02 -4.298673942685127258e-03 -5.691911559551954269e-03 -1.975991763174533844e-03 1.959417201578617096e-02 1.209225505590438843e-02 1.279259938746690750e-02 1.614634133875370026e-02 -9.249794296920299530e-03 -4.700619261711835861e-03 -6.410710630007088184e-04 2.167131192982196808e-02 5.003209039568901062e-02 -9.381379000842571259e-03 -2.710407832637429237e-03 -9.634629823267459869e-03 -4.358720965683460236e-03 2.167502604424953461e-02 6.132403388619422913e-03 6.429923232644796371e-03 2.387642301619052887e-02 -1.631604536669328809e-04 3.330704988911747932e-03 -4.751130938529968262e-03 2.059770561754703522e-02 4.521550238132476807e-02 1.423885347321629524e-03 4.106580745428800583e-03 -1.530553866177797318e-02 -1.079392898827791214e-02 2.446538396179676056e-02 1.803709939122200012e-02 -1.013519591651856899e-03 1.880110614001750946e-02 7.352415006607770920e-03 -1.312944572418928146e-02 -5.889139720238745213e-04 1.673819683492183685e-02 4.086412116885185242e-02 2.468554303050041199e-03 4.468966741114854813e-03 -5.206453148275613785e-03 -1.161754876375198364e-02 1.980825699865818024e-02 1.952043548226356506e-02 1.382884010672569275e-02 9.538473933935165405e-02 -3.676922991871833801e-03 2.232309803366661072e-02 -2.479464001953601837e-02 1.901642978191375732e-02 3.715669363737106323e-02 5.907112360000610352e-02 1.125058624893426895e-03 -2.719627507030963898e-02 -6.752081215381622314e-03 1.181255467236042023e-02 1.350545976310968399e-02 2.322425134479999542e-02
4.215964674949645996e-02 2.757581695914268494e-02 -6.089537963271141052e-02 7.393543637590482831e-05 -1.984556205570697784e-02 -1.130098663270473480e-02 -1.911474391818046570e-02 5.285685881972312927e-03 -6.958279118407517672e-05 -8.121806895360350609e-04 1.811925787478685379e-03 -6.440034601837396622e-03 1.279049087315797806e-02 9.884797036647796631e-03 1.967659220099449158e-03 1.016962714493274689e-02 -2.077720127999782562e-03 2.305306494235992432e-02 -2.706251665949821472e-02 1.447282359004020691e-02 6.057954858988523483e-03 1.892877742648124695e-03 2.193944342434406281e-02 2.467626472935080528e-04 -5.677070934325456619e-03 -5.009656888432800770e-04 -1.583444303832948208e-03 2.091569267213344574e-02 1.555771846324205399e-02 -1.392712444067001343e-02 -5.118475528433918953e-04 1.859839074313640594e-02 -1.172382291406393051e-02 -1.044506672769784927e-02 -1.838015019893646240e-02 7.878111302852630615e-02 -1.594072766602039337e-02 4.033216089010238647e-02 3.203929960727691650e-02 -6.393258273601531982e-02 5.200379528105258942e-04 -1.938746497035026550e-02 -1.055262889713048935e-02 -1.975324563682079315e-02 5.084019619971513748e-03 -2.953449438791722059e-04 -1.186964436783455312e-04 1.663147239014506340e-03 -5.744435358792543411e-03 1.347734965384006500e-02 9.084898978471755981e-03 1.782230567187070847e-03 -3.928091377019882202e-03 -3.589310217648744583e-03 2.777585759758949280e-02 -2.195960842072963715e-02 1.290578767657279968e-02 8.154457318596541882e-04 2.371927024796605110e-03 2.324258349835872650e-02 1.459455466829240322e-03 -5.774755496531724930e-03 -1.352005056105554104e-03 -4.389141220599412918e-03 2.253599092364311218e-02 1.528347097337245941e-02 -1.397203095257282257e-02 3.445439797360450029e-04 2.940506488084793091e-02 -4.445577040314674377e-03 -1.129596121609210968e-02 -1.586508937180042267e-02 6.380047649145126343e-02 -2.231167815625667572e-02 3.973304107785224915e-02 3.452930226922035217e-02 -6.568497419357299805e-02 5.797263584099709988e-04 -1.998343318700790405e-02 -9.701268747448921204e-03 -2.176043391227722168e-02 4.581965506076812744e-03 -7.009986438788473606e-04 1.422410481609404087e-03 1.868938561528921127e-03 -5.413982551544904709e-03 1.190508622676134109e-02 9.434210136532783508e-03 2.860720967873930931e-03 3.673666506074368954e-04 -3.792552975937724113e-03 2.869069576263427734e-02 -2.157506532967090607e-02 1.113753207027912140e-02 -1.885172910988330841e-03 7.637735456228256226e-03 1.748645119369029999e-02 6.781724747270345688e-03 -5.370700731873512268e-03 -6.089576985687017441e-03 7.643209304660558701e-03 2.404098398983478546e-02 1.554036699235439301e-02 -1.403775531798601151e-02 7.922530639916658401e-04 3.068451024591922760e-02 5.934338085353374481e-03 -2.328960224986076355e-02 -1.367007661610841751e-02 5.548954010009765625e-02 7.630700711160898209e-03 3.714559599757194519e-02 3.657071292400360107e-02 -6.567506492137908936e-02 5.976625834591686726e-04 -1.897591724991798401e-02 -8.520943112671375275e-03 -2.188800834119319916e-02 4.771681968122720718e-03 -1.110290409997105598e-03 1.168084563687443733e-03 2.576811239123344421e-03 -5.627756472676992416e-03 1.237392984330654144e-02 9.007691405713558197e-03 2.596798352897167206e-03 5.603013094514608383e-03 -9.563486091792583466e-03 3.217744454741477966e-02 -1.377119589596986771e-02 5.252085626125335693e-03 -1.975509367184713483e-04 1.523258106317371130e-04 1.900977641344070435e-02 6.904169451445341110e-03 1.259755459614098072e-03 -6.163708865642547607e-03 -5.640720017254352570e-03 2.656072378158569336e-02 1.545623317360877991e-02 -1.319158263504505157e-02 -1.135627157054841518e-03 3.496582433581352234e-02 1.679774373769760132e-02 -1.646581664681434631e-02 -1.391993183642625809e-02 3.114262782037258148e-02 3.416657680645585060e-03 3.744558617472648621e-02 3.777038305997848511e-02 -6.570622324943542480e-02 9.848638437688350677e-04 -2.009988017380237579e-02 -8.029096759855747223e-03 -2.153337933123111725e-02 4.835554864257574081e-03 -2.648316323757171631e-03 1.086490694433450699e-03 3.557177260518074036e-03 -5.165422335267066956e-03 1.257087942212820053e-02 8.346653543412685394e-03 1.911121187731623650e-03 2.341650659218430519e-03 -1.169744879007339478e-02 3.239483013749122620e-02 -1.113841310143470764e-02 3.627737052738666534e-03 1.085311523638665676e-03 -8.499469608068466187e-03 1.834440231323242188e-02 6.660141050815582275e-03 2.778796246275305748e-03 -3.867792431265115738e-03 -5.314465612173080444e-03 2.859631553292274475e-02 1.497040316462516785e-02 -1.436350401490926743e-02 -1.005663871183060110e-04 4.333674162626266479e-02 1.799474470317363739e-02 -1.934549584984779358e-02 -1.334660034626722336e-02 2.635919488966464996e-02 -4.288688302040100098e-03 3.684851899743080139e-02 4.016377031803131104e-02 -6.739447265863418579e-02 1.263913349248468876e-03 -2.162666618824005127e-02 -7.473717909306287766e-03 -2.271424978971481323e-02 4.819013644009828568e-03 -2.584341680631041527e-03 8.503664284944534302e-04 3.488376270979642868e-03 -4.735963884741067886e-03 1.291191298514604568e-02 8.243464864790439606e-03 2.733286004513502121e-03 -4.757713526487350464e-03 -1.276717614382505417e-02 3.274034336209297180e-02 -1.435045432299375534e-02 1.379026286303997040e-02 -3.123621689155697823e-03 -1.019531674683094025e-02 2.264827489852905273e-02 3.206299850717186928e-03 1.621164008975028992e-02 -4.107490181922912598e-03 -1.428965665400028229e-02 3.078000433743000031e-02 1.414544414728879929e-02 -1.446596346795558929e-02 4.968103603459894657e-04 4.781254008412361145e-02 3.681645169854164124e-02 -1.854383386671543121e-02 -1.785466820001602173e-02 3.476190939545631409e-02 -1.160401850938796997e-02 3.591341897845268250e-02 4.041738063097000122e-02 -7.098381221294403076e-02 2.341399434953927994e-03 -2.182240039110183716e-02 -5.245919805020093918e-03 -2.441790327429771423e-02 4.943988751620054245e-03 -2.406618790701031685e-03 -5.773640004917979240e-04 4.385448060929775238e-03 -3.984651062637567520e-03 1.208715233951807022e-02 9.267751127481460571e-03 1.733722165226936340e-03 -1.499905949458479881e-03 -1.788713596761226654e-02 3.777994215488433838e-02 -1.275581773370504379e-02 9.653858840465545654e-03 -6.893665529787540436e-03 -6.880369503051042557e-03 1.455799397081136703e-02 -4.589200485497713089e-03 2.153531089425086975e-02 -4.403499886393547058e-03 -5.891261156648397446e-03 3.280537575483322144e-02 1.417248882353305817e-02 -1.433348655700683594e-02 -2.564622845966368914e-04 5.096225067973136902e-02 4.398858547210693359e-02 -3.972821310162544250e-02 -1.493757124990224838e-02 2.000843919813632965e-02 -1.328397262841463089e-02 3.553137183189392090e-02 4.232670366764068604e-02 -7.682243734598159790e-02 3.503553802147507668e-03 -2.345188707113265991e-02 -4.358147736638784409e-03 -2.509139291942119598e-02 4.947079345583915710e-03 -2.635421697050333023e-03 -2.097824180964380503e-04 4.415211733430624008e-03 -4.803637042641639709e-03 1.502872817218303680e-02 8.124960586428642273e-03 3.220937214791774750e-03 9.023509919643402100e-03 -2.574534714221954346e-02 3.958946838974952698e-02 -1.046584080904722214e-02 9.445364587008953094e-03 1.593940192833542824e-03 3.451622556895017624e-03 9.189267642796039581e-03 -1.335317175835371017e-02 3.653211519122123718e-02 3.085934091359376907e-03 3.427151823416352272e-03 3.428756073117256165e-02 1.339393295347690582e-02 -1.387624349445104599e-02 -2.906238705691066571e-06 5.893437936902046204e-02 5.589676275849342346e-02 -3.072924353182315826e-02 -9.404471144080162048e-03 2.705725096166133881e-02 -3.559036925435066223e-02 3.594102710485458374e-02 4.542046785354614258e-02 -8.639271557331085205e-02 5.656576249748468399e-03 -2.518484927713871002e-02 -3.717154730111360550e-03 -2.573505789041519165e-02 5.307337269186973572e-03 -3.679728833958506584e-03 -5.876743234694004059e-04 3.715474158525466919e-03 -4.135457333177328110e-03 1.624764502048492432e-02 8.220492862164974213e-03 4.475847352296113968e-03 2.109198458492755890e-02 -3.745958209037780762e-02 4.939572140574455261e-02 -2.049884386360645294e-02 1.088062115013599396e-02 5.273785442113876343e-03 5.912189371883869171e-04 -4.810218233615159988e-03 -2.543393708765506744e-02 4.651864990592002869e-02 -1.048066839575767517e-02 2.252950891852378845e-02 3.572181239724159241e-02 1.235427893698215485e-02 -1.439159084111452103e-02 1.055118264048360288e-04 6.425835937261581421e-02 7.224055379629135132e-02 -2.571857161819934845e-02 8.849804289638996124e-03 4.129881784319877625e-02 -5.488263070583343506e-02 3.676738217473030090e-02 4.704173281788825989e-02 -1.021595150232315063e-01 1.188783813267946243e-02 -2.876931242644786835e-02 -1.510887872427701950e-03 -2.744572237133979797e-02 3.873101668432354927e-03 -2.824085764586925507e-03 1.088630408048629761e-03 2.342131454497575760e-03 -6.328593008220195770e-03 1.789453625679016113e-02 7.622718345373868942e-03 6.381022743880748749e-03 1.168243493884801865e-02 -4.009181633591651917e-02 3.971555829048156738e-02 2.189440652728080750e-02 7.786572095938026905e-04 3.058386500924825668e-03 2.007727744057774544e-04 1.339021604508161545e-03 -1.037328969687223434e-02 3.530022129416465759e-02 -2.214017324149608612e-02 2.771316096186637878e-02 3.680083900690078735e-02 1.129525620490312576e-02 -1.478851865977048874e-02 1.248464250238612294e-04 6.594573706388473511e-02 8.252558857202529907e-02 -2.551976405084133148e-02 -3.443483263254165649e-02 2.142042480409145355e-02 -6.053968099877238274e-04 -2.177594788372516632e-02 4.614401143044233322e-03 -1.716112904250621796e-02 -8.864619769155979156e-03 4.018095321953296661e-03 1.991159096360206604e-02 -1.136810798197984695e-02 2.498814836144447327e-02 1.186099182814359665e-02 -1.847437582910060883e-02 -7.365397643297910690e-03 7.543537765741348267e-03 1.862791739404201508e-02 7.800672203302383423e-03 -1.395452534779906273e-03 -3.431958379223942757e-03 -1.063378341495990753e-02 4.311214201152324677e-03 2.581355161964893341e-02 6.377550307661294937e-03 1.657624170184135437e-02 7.532592397183179855e-03 -2.322811260819435120e-02 1.052402658388018608e-03 3.489413065835833549e-03 1.291644293814897537e-02 1.579389534890651703e-02 5.158256273716688156e-03 -8.820093236863613129e-03 6.159469485282897949e-03 2.252225205302238464e-02 4.309277236461639404e-02 -3.990593552589416504e-02 1.814535818994045258e-02 -9.150486439466476440e-03 -2.077795378863811493e-02 -3.336679423227906227e-03 7.776173297315835953e-03 1.733990013599395752e-02 -3.414762392640113831e-02 -1.181394327431917191e-02 -1.898550614714622498e-02 -6.127778324298560619e-04 2.183600142598152161e-02 2.999917790293693542e-02 -4.595696460455656052e-03 2.170051261782646179e-02 -2.038029395043849945e-02 -3.296277672052383423e-02 -4.367629997432231903e-03 1.758379861712455750e-02 3.310335427522659302e-02 -5.332772154361009598e-03 1.422285335138440132e-03 -1.772697456181049347e-02 -6.684929132461547852e-03 2.842338383197784424e-02 2.879538945853710175e-02 -1.525148836662992835e-04 3.040539100766181946e-02 -1.620052009820938110e-02 -2.989120967686176300e-02 -9.679752402007579803e-03 1.424870919436216354e-02 1.545919571071863174e-02 -3.849174594506621361e-03 -1.378370332531630993e-03 -3.790335031226277351e-03 1.838922384195029736e-03 2.973488532006740570e-02 2.542158029973506927e-02 1.356490142643451691e-02 9.575521573424339294e-03 -2.091754414141178131e-02 -3.160873800516128540e-02 -3.865229431539773941e-03 8.097977377474308014e-03 2.057860791683197021e-02 5.517268087714910507e-03 -2.695677569136023521e-03 7.223486900329589844e-03 -8.757334202527999878e-03 2.255784533917903900e-02 2.598794922232627869e-02 2.986725233495235443e-02 1.984545588493347168e-02 -3.497340157628059387e-02 -2.619690075516700745e-02 1.935539068654179573e-03 2.186332084238529205e-02 3.233906999230384827e-02 3.227150812745094299e-02 -5.204407498240470886e-03 4.444791469722986221e-03 -9.599808603525161743e-03 2.819562889635562897e-02 1.560301613062620163e-02 1.550526451319456100e-02 9.082656353712081909e-03 -3.893534839153289795e-02 -3.716590628027915955e-02 -1.776667498052120209e-02 2.468434162437915802e-02 2.164149470627307892e-02 9.425666928291320801e-02 -2.637062780559062958e-02 1.975307241082191467e-02 -2.541069500148296356e-02 2.987996675074100494e-02 7.957295514643192291e-03 6.137526035308837891e-02 -2.743390016257762909e-02 -5.219151824712753296e-02 -3.336704894900321960e-02 -2.368626371026039124e-02 2.870668098330497742e-02 1.174252014607191086e-02
3.078502602875232697e-02 -1.741362735629081726e-02 8.605134673416614532e-03 1.462766062468290329e-02 -1.204292755573987961e-03 -3.945439821109175682e-04 -2.274065837264060974e-02 2.463193982839584351e-02 3.014419693499803543e-03 -6.991718430072069168e-03 -7.910199463367462158e-03 -8.282521739602088928e-03 2.204633690416812897e-02 9.945913217961788177e-03 8.033709600567817688e-04 1.074953004717826843e-02 2.009359654039144516e-03 -1.075178477913141251e-02 -4.473047330975532532e-03 1.710676960647106171e-02 1.005128212273120880e-02 -1.580011798068881035e-03 -1.009223703294992447e-02 -2.757269889116287231e-03 8.455151692032814026e-03 1.702689379453659058e-02 9.151418693363666534e-03 -1.409044582396745682e-02 -3.049764595925807953e-02 9.251954033970832825e-03 9.138011955656111240e-04 -5.982062313705682755e-03 -4.556781798601150513e-02 2.850310876965522766e-02 1.198281906545162201e-02 -8.154373615980148315e-03 6.783507298678159714e-03 3.286933526396751404e-02 -1.612248830497264862e-02 9.935462847352027893e-03 1.416821498423814774e-02 -1.122381654568016529e-03 -1.707149785943329334e-03 -2.297495864331722260e-02 2.463565766811370850e-02 2.407365012913942337e-03 -8.525228127837181091e-03 -8.454922586679458618e-03 -8.453034795820713043e-03 2.323304489254951477e-02 1.095221191644668579e-02 3.602207289077341557e-04 8.389403112232685089e-03 -3.206532914191484451e-03 -7.742164190858602524e-03 4.098835051991045475e-04 1.261555776000022888e-02 5.074978806078433990e-03 -4.238030873239040375e-03 -1.452325750142335892e-02 -1.224638242274522781e-02 8.019431494176387787e-03 1.479760278016328812e-02 3.615259658545255661e-03 -1.534058805555105209e-02 -3.070624172687530518e-02 9.548145346343517303e-03 -4.508066922426223755e-06 -5.798652768135070801e-03 -5.371237546205520630e-02 1.476876717060804367e-02 1.599574461579322815e-02 -6.572984624654054642e-03 -1.677746535278856754e-03 3.282855078577995300e-02 -1.722541451454162598e-02 9.961381554603576660e-03 1.329677365720272064e-02 7.648110040463507175e-04 -1.478921622037887573e-03 -2.234102413058280945e-02 2.477609552443027496e-02 1.065540360286831856e-03 -7.556157186627388000e-03 -9.749421849846839905e-03 -9.124777279794216156e-03 2.384177781641483307e-02 1.136658247560262680e-02 -2.269761462230235338e-04 1.044527068734169006e-02 -5.273879040032625198e-03 -5.732879042625427246e-03 4.656817181967198849e-04 1.715742237865924835e-02 8.660644292831420898e-03 2.729685511440038681e-04 -1.541389897465705872e-02 -5.964287091046571732e-03 8.723234757781028748e-03 1.600815169513225555e-02 9.101729374378919601e-04 -1.453616470098495483e-02 -2.976663224399089813e-02 9.328665211796760559e-03 -1.527514396002516150e-04 -6.763610057532787323e-03 -5.392249673604965210e-02 1.139371376484632492e-02 3.352423012256622314e-02 -2.015630714595317841e-02 -7.007525768131017685e-03 3.542054817080497742e-02 -1.760284788906574249e-02 9.490757249295711517e-03 1.317389309406280518e-02 6.897959974594414234e-04 -2.856732578948140144e-03 -2.268198318779468536e-02 2.514261752367019653e-02 1.499570062151178718e-04 -7.804581895470619202e-03 -9.780428372323513031e-03 -9.765764698386192322e-03 2.272246964275836945e-02 1.202888414263725281e-02 -7.238616817630827427e-04 1.186807733029127121e-02 -9.812656790018081665e-03 -6.890143267810344696e-04 7.208146853372454643e-04 1.625926606357097626e-02 9.512039832770824432e-03 3.191761788912117481e-04 -1.824706979095935822e-02 -2.143956022337079048e-03 9.604866616427898407e-03 1.563005708158016205e-02 1.493812771514058113e-03 -1.484627276659011841e-02 -2.935333177447319031e-02 9.161206893622875214e-03 1.245927996933460236e-04 -3.306546946987509727e-03 -6.339360028505325317e-02 9.631478227674961090e-03 4.249194636940956116e-02 -2.888817526400089264e-02 -1.483876258134841919e-03 3.718841075897216797e-02 -1.903700083494186401e-02 1.099430397152900696e-02 1.318656560033559799e-02 2.203288255259394646e-03 -2.864867681637406349e-03 -2.187870815396308899e-02 2.528970129787921906e-02 -3.176789032295346260e-04 -1.002484094351530075e-02 -9.661763906478881836e-03 -1.025138795375823975e-02 2.388888038694858551e-02 1.247999724000692368e-02 -1.182590611279010773e-03 1.384334824979305267e-02 -5.255799740552902222e-03 7.099953480064868927e-03 5.237035453319549561e-03 2.291758172214031219e-02 -4.194502253085374832e-04 -5.797427147626876831e-03 -2.040398865938186646e-02 -3.442183369770646095e-03 1.645723916590213776e-02 1.637580804526805878e-02 -1.257960568182170391e-03 -1.299167890101671219e-02 -2.789899893105030060e-02 9.437905624508857727e-03 4.518858331721276045e-04 -2.272706478834152222e-03 -7.455547153949737549e-02 -1.102793961763381958e-02 5.938342958688735962e-02 -4.488717019557952881e-02 1.108474750071763992e-02 4.016705602407455444e-02 -2.182449214160442352e-02 1.301850844174623489e-02 1.420951355248689651e-02 1.752617652527987957e-03 -3.382275346666574478e-03 -2.234813943505287170e-02 2.607892267405986786e-02 -2.695591887459158897e-03 -7.923403754830360413e-03 -1.025591883808374405e-02 -1.088295876979827881e-02 2.559462934732437134e-02 1.370971463620662689e-02 -1.329235266894102097e-03 2.237006090581417084e-02 -7.578378543257713318e-03 8.817851543426513672e-03 4.331625532358884811e-03 2.425540052354335785e-02 -1.581071992404758930e-03 3.125387942418456078e-03 -1.907817646861076355e-02 -6.038031075149774551e-03 2.093179337680339813e-02 1.267008390277624130e-02 -3.229105379432439804e-03 -1.498688198626041412e-02 -2.769650518894195557e-02 9.640597738325595856e-03 2.984604507219046354e-04 6.893133395351469517e-04 -8.166195452213287354e-02 -1.786021329462528229e-02 6.703453510999679565e-02 -4.790078476071357727e-02 2.806075615808367729e-03 4.362344741821289062e-02 -2.296997793018817902e-02 1.375037338584661484e-02 1.470025163143873215e-02 1.865741563960909843e-03 -2.715464681386947632e-03 -2.161666750907897949e-02 2.683130651712417603e-02 -3.860106691718101501e-03 -8.637555874884128571e-03 -1.128339301794767380e-02 -1.074423268437385559e-02 2.602642215788364410e-02 1.450942829251289368e-02 -2.063501626253128052e-03 2.647091075778007507e-02 -9.141901507973670959e-03 1.351521164178848267e-02 2.930428134277462959e-03 2.048971131443977356e-02 -8.411932736635208130e-03 -5.925638601183891296e-03 -1.163946278393268585e-02 -8.554391562938690186e-03 2.578281611204147339e-02 1.783919334411621094e-02 -5.839012563228607178e-03 -1.297502312809228897e-02 -2.810692600905895233e-02 9.327626787126064301e-03 2.461618860252201557e-04 -2.718770701903849840e-04 -9.284828603267669678e-02 -1.439926866441965103e-02 9.555713832378387451e-02 -6.317230314016342163e-02 1.753357797861099243e-02 4.721933603286743164e-02 -2.559302560985088348e-02 1.645988598465919495e-02 1.612853072583675385e-02 4.022251814603805542e-03 -3.469658317044377327e-03 -2.130080386996269226e-02 2.855719625949859619e-02 -4.686076194047927856e-03 -9.007709100842475891e-03 -1.074348017573356628e-02 -1.089140493422746658e-02 2.661147341132164001e-02 1.592736504971981049e-02 -2.345900749787688255e-03 1.628859154880046844e-02 -3.638576716184616089e-03 1.394061557948589325e-02 -1.510851201601326466e-03 2.264792285859584808e-02 -1.069544721394777298e-02 -8.459869772195816040e-03 -7.573248352855443954e-03 -1.592474244534969330e-02 3.054400719702243805e-02 2.180204354226589203e-02 -8.028992451727390289e-03 -1.468205731362104416e-02 -2.657794952392578125e-02 1.015155110508203506e-02 4.894526791758835316e-04 1.954633975401520729e-03 -1.076837256550788879e-01 -1.288857869803905487e-02 1.112088263034820557e-01 -6.167543306946754456e-02 4.034292697906494141e-02 5.185910314321517944e-02 -2.784751355648040771e-02 1.965904422104358673e-02 1.492004189640283585e-02 3.795422846451401711e-03 -2.725222148001194000e-03 -2.107619494199752808e-02 2.824730798602104187e-02 -8.361046202480792999e-03 -8.322880603373050690e-03 -1.149242091923952103e-02 -1.133664883673191071e-02 2.814215607941150665e-02 1.618757843971252441e-02 -3.564470447599887848e-03 7.383308839052915573e-03 -2.566876588389277458e-03 2.541036717593669891e-02 -3.124234266579151154e-03 3.065141849219799042e-02 -2.393600903451442719e-02 -3.538305871188640594e-03 -1.187250018119812012e-02 -2.281213924288749695e-02 4.230460897088050842e-02 1.729740761220455170e-02 -1.460963021963834763e-02 -1.493786741048097610e-02 -2.630444243550300598e-02 9.745541028678417206e-03 -3.414360107854008675e-04 7.483571302145719528e-03 -1.155000999569892883e-01 -1.154035981744527817e-02 1.371533125638961792e-01 -7.536208629608154297e-02 3.794313594698905945e-02 5.898664146661758423e-02 -3.050890378654003143e-02 2.137764357030391693e-02 1.541167218238115311e-02 5.798602942377328873e-03 -2.616566140204668045e-03 -2.046774327754974365e-02 2.962636016309261322e-02 -1.251389179378747940e-02 -9.425671771168708801e-03 -1.026406977325677872e-02 -1.178365293890237808e-02 2.893102355301380157e-02 1.765221171081066132e-02 -6.909777410328388214e-03 5.163189489394426346e-04 2.990489127114415169e-03 1.514121145009994507e-02 1.943988911807537079e-02 2.722987718880176544e-02 -2.665128000080585480e-02 7.879371987655758858e-04 6.707193329930305481e-03 -2.220212854444980621e-02 1.937326230108737946e-02 2.602530829608440399e-02 -8.529490791261196136e-03 -1.436453312635421753e-02 -2.575209923088550568e-02 9.483763948082923889e-03 4.010541888419538736e-04 9.840001352131366730e-03 -1.168489232659339905e-01 -1.442725211381912231e-02 1.413334012031555176e-01 -5.997035652399063110e-02 3.168041259050369263e-02 8.250062237493693829e-04 1.624134927988052368e-02 -3.050460014492273331e-03 -2.449088543653488159e-02 -2.887443453073501587e-02 6.006077677011489868e-02 -2.065945975482463837e-02 3.882803255692124367e-03 -2.734904177486896515e-02 -3.488679975271224976e-02 -9.838070720434188843e-03 -2.360394719289615750e-04 2.498748153448104858e-02 8.869498968124389648e-03 -1.053932402282953262e-02 1.195681188255548477e-02 -2.268495969474315643e-02 -2.998153120279312134e-02 5.509932711720466614e-02 -2.093751542270183563e-02 1.271649845875799656e-03 -1.081674452871084213e-02 -4.509309679269790649e-02 -1.523016765713691711e-02 6.972299888730049133e-03 1.650159433484077454e-02 3.231469169259071350e-02 6.733476649969816208e-03 1.756100356578826904e-02 -2.449365146458148956e-02 -2.365431562066078186e-02 5.736884847283363342e-02 -3.025062754750251770e-02 6.885369773954153061e-03 -2.689141221344470978e-02 -2.382004819810390472e-02 -3.075061179697513580e-02 -3.364281496033072472e-03 2.904126048088073730e-02 9.775456972420215607e-03 2.653195289894938469e-03 9.623662568628787994e-03 -2.695206180214881897e-02 -1.908820495009422302e-02 5.009433254599571228e-02 -4.191731289029121399e-02 9.527295827865600586e-03 -3.032381460070610046e-02 -3.938599675893783569e-02 -1.845145225524902344e-02 2.185982884839177132e-03 2.898200973868370056e-02 1.267289835959672928e-02 -8.732967544347047806e-04 1.359316892921924591e-02 -2.845101989805698395e-02 -2.149450406432151794e-02 5.570385232567787170e-02 -1.814506947994232178e-02 6.277990061789751053e-03 -4.298375546932220459e-02 -3.183459118008613586e-02 -2.012445591390132904e-02 6.788847967982292175e-03 1.395145617425441742e-02 1.511725276941433549e-04 5.893425084650516510e-03 2.343185432255268097e-02 -3.330052271485328674e-02 -1.700094155967235565e-02 5.692609399557113647e-02 -2.605322934687137604e-02 1.706515066325664520e-02 -3.152279555797576904e-02 -2.055433206260204315e-02 -1.640742272138595581e-02 4.706015344709157944e-03 1.655643805861473083e-02 -4.564659204334020615e-03 6.155307404696941376e-03 1.025549136102199554e-02 -3.447975218296051025e-02 -1.626735180616378784e-02 6.418962031602859497e-02 -3.662227094173431396e-02 2.961425669491291046e-02 -3.852764517068862915e-02 -2.817251719534397125e-02 -1.159559469670057297e-02 9.955533780157566071e-03 1.630240492522716522e-02 -1.770307309925556183e-02 1.014768797904253006e-02 1.979039795696735382e-02 -3.698778897523880005e-02 -2.283139154314994812e-02 5.339676141738891602e-02 -1.132484804838895798e-02 3.031709045171737671e-02 -5.794393643736839294e-02 -8.440839126706123352e-03 -2.918953262269496918e-02 7.439355365931987762e-03 3.237968310713768005e-02 -2.723770774900913239e-02 3.960057627409696579e-03 4.419562593102455139e-02 -4.009810835123062134e-02 -1.367712114006280899e-02 6.396743655204772949e-02 2.325038891285657883e-03 1.517265569418668747e-03 -3.054599836468696594e-02 -1.452101394534111023e-02 -1.524307858198881149e-02 -1.836590468883514404e-02 2.558245137333869934e-02
7.100098580121994019e-02 2.292071655392646790e-02 -1.696620695292949677e-02 5.942828021943569183e-03 1.449549198150634766e-02 5.645969416946172714e-03 -2.217966318130493164e-02 2.466080943122506142e-03 5.878867581486701965e-03 -5.420244997367262840e-04 3.755853697657585144e-02 -8.228437975049018860e-03 3.476030658930540085e-03 1.426076143980026245e-02 1.223426125943660736e-02 -5.302122794091701508e-03 2.006346173584461212e-02 9.506211616098880768e-03 3.790423972532153130e-03 1.406894437968730927e-02 1.302496250718832016e-02 -1.020672917366027832e-02 3.123444330412894487e-04 2.183919586241245270e-02 3.147437470033764839e-03 -1.312355860136449337e-03 -2.907114569097757339e-03 -1.105214003473520279e-02 -1.143566146492958069e-02 7.441864348948001862e-03 2.593101453385315835e-05 -3.315512463450431824e-02 -5.009470134973526001e-02 3.309092670679092407e-02 6.661423295736312866e-02 1.026775501668453217e-02 -2.667989348992705345e-03 7.328647375106811523e-02 2.327470108866691589e-02 -1.917391084134578705e-02 5.324534140527248383e-03 1.645546965301036835e-02 7.073273416608572006e-03 -2.143080718815326691e-02 3.836233867332339287e-03 6.633620243519544601e-03 -7.737748674117028713e-04 3.713258728384971619e-02 -7.584840524941682816e-03 3.421805566176772118e-03 1.418988965451717377e-02 1.080749370157718658e-02 1.783497631549835205e-02 1.358080655336380005e-02 1.151520013809204102e-02 2.263141563162207603e-03 1.971750147640705109e-02 4.576203413307666779e-03 -4.478799179196357727e-03 1.093003246933221817e-02 1.265543792396783829e-02 3.351231105625629425e-03 3.257009666413068771e-04 -3.650074591860175133e-03 -1.207931060343980789e-02 -1.194357313215732574e-02 7.228971924632787704e-03 1.976365601876750588e-04 -2.989823184907436371e-02 -4.262559860944747925e-02 3.192281723022460938e-02 7.792469859123229980e-02 2.497742325067520142e-02 -1.605249196290969849e-02 7.467626780271530151e-02 2.416779845952987671e-02 -2.175757102668285370e-02 6.333421915769577026e-03 1.734461262822151184e-02 7.627891842275857925e-03 -2.109078504145145416e-02 3.988384734839200974e-03 6.232135929167270660e-03 -1.152812270447611809e-03 3.607134148478507996e-02 -6.016527768224477768e-03 1.908742240630090237e-03 1.358274649828672409e-02 9.975065477192401886e-03 1.942377723753452301e-02 1.787233352661132812e-02 -2.188559854403138161e-03 1.090896688401699066e-02 1.457465626299381256e-02 1.080451812595129013e-02 -6.703761406242847443e-03 8.430406451225280762e-03 1.020753569900989532e-02 -3.254425479099154472e-03 -5.326854996383190155e-03 -5.140469875186681747e-03 -1.364313904196023941e-02 -1.207465026527643204e-02 6.938639562577009201e-03 -1.158574086730368435e-04 -2.667807228863239288e-02 -4.590671509504318237e-02 2.817548438906669617e-02 7.108169794082641602e-02 2.085760608315467834e-02 -1.619141735136508942e-02 7.730124890804290771e-02 2.534757182002067566e-02 -2.404762245714664459e-02 7.831107825040817261e-03 1.731798611581325531e-02 7.890073582530021667e-03 -1.980099081993103027e-02 4.133475944399833679e-03 5.799422506242990494e-03 -1.364220399409532547e-03 3.567771613597869873e-02 -5.621970165520906448e-03 1.760400366038084030e-03 1.376724895089864731e-02 1.084779296070337296e-02 1.720560900866985321e-02 2.037640661001205444e-02 -2.570296637713909149e-03 1.214954815804958344e-02 1.471755746752023697e-02 1.087256986647844315e-02 -1.952936756424605846e-03 9.453088976442813873e-03 9.088527411222457886e-03 4.649315029382705688e-03 -3.742431290447711945e-03 -2.905470784753561020e-03 -1.424763351678848267e-02 -1.158604025840759277e-02 6.594992242753505707e-03 7.771466625854372978e-04 -3.121831081807613373e-02 -4.144304990768432617e-02 3.163611888885498047e-02 6.449249386787414551e-02 3.264963626861572266e-02 -2.748652920126914978e-02 7.931651175022125244e-02 2.872003056108951569e-02 -2.602634765207767487e-02 7.598637137562036514e-03 1.789499819278717041e-02 7.312840782105922699e-03 -2.043596841394901276e-02 4.236249253153800964e-03 6.136447191238403320e-03 -1.400802866555750370e-03 3.572156280279159546e-02 -4.998457152396440506e-03 1.090361736714839935e-03 1.447301357984542847e-02 1.025237888097763062e-02 1.022688299417495728e-02 2.202128991484642029e-02 -8.408692665398120880e-03 1.766265556216239929e-02 1.022018212825059891e-02 9.502734988927841187e-03 -1.481299661099910736e-02 8.489947766065597534e-03 7.698644418269395828e-03 7.582675665616989136e-03 4.457356873899698257e-03 7.088704966008663177e-03 -1.529409270733594894e-02 -1.113457325845956802e-02 6.026469171047210693e-03 2.035399083979427814e-04 -3.214504942297935486e-02 -4.029796272516250610e-02 1.828742586076259613e-02 6.836308538913726807e-02 2.656553685665130615e-02 -8.891256526112556458e-03 8.093009889125823975e-02 2.991692163050174713e-02 -2.555805072188377380e-02 6.835952866822481155e-03 1.805581524968147278e-02 8.076271973550319672e-03 -1.761884614825248718e-02 5.719760432839393616e-03 5.641533993184566498e-03 -2.255980391055345535e-03 3.527797386050224304e-02 -4.687828477472066879e-03 2.472861378919333220e-04 1.519236061722040176e-02 1.089916657656431198e-02 -7.186998613178730011e-03 1.728232204914093018e-02 -1.200207322835922241e-02 1.952186971902847290e-02 5.061658099293708801e-03 5.203124135732650757e-03 -2.166277915239334106e-02 1.516329310834407806e-02 5.873056128621101379e-03 1.143240835517644882e-02 2.112687332555651665e-03 4.450576379895210266e-03 -1.650036312639713287e-02 -9.974119253456592560e-03 6.836939603090286255e-03 -3.809109330177307129e-06 -2.812892571091651917e-02 -3.921065852046012878e-02 3.054655343294143677e-02 6.955153495073318481e-02 4.308586195111274719e-02 -1.068962179124355316e-02 8.355151116847991943e-02 3.238476812839508057e-02 -2.555528841912746429e-02 7.355509791523218155e-03 1.799269206821918488e-02 8.591791614890098572e-03 -1.699621416628360748e-02 4.224101547151803970e-03 5.396693944931030273e-03 -4.086656961590051651e-03 3.580267727375030518e-02 -3.723543835803866386e-03 7.218664395622909069e-04 1.424766425043344498e-02 1.086203567683696747e-02 -3.519946942105889320e-03 2.782519534230232239e-02 -8.279966190457344055e-03 2.920447662472724915e-02 -5.435303319245576859e-03 -6.095698103308677673e-03 -4.354730248451232910e-03 9.410501457750797272e-03 2.476325957104563713e-03 1.475517638027667999e-02 -7.498351042158901691e-04 7.069587707519531250e-03 -1.758670993149280548e-02 -1.035243831574916840e-02 7.078948430716991425e-03 1.954568724613636732e-04 -2.855811826884746552e-02 -3.978544101119041443e-02 1.284473389387130737e-02 6.126211211085319519e-02 3.532119840383529663e-02 -3.220817819237709045e-02 8.496063202619552612e-02 3.338117524981498718e-02 -2.968964539468288422e-02 7.689158432185649872e-03 1.880684494972229004e-02 8.972663432359695435e-03 -1.586706936359405518e-02 4.220313392579555511e-03 4.766210447996854782e-03 -2.530256751924753189e-03 3.416633605957031250e-02 -2.736526308581233025e-03 1.649096142500638962e-03 1.456806436181068420e-02 1.173303090035915375e-02 1.085818465799093246e-02 3.090542741119861603e-02 -1.111415307968854904e-02 3.818409889936447144e-02 -1.906377263367176056e-02 -1.226601097732782364e-02 1.301454287022352219e-02 1.361864525824785233e-02 3.950460813939571381e-03 2.432261779904365540e-02 -2.039104700088500977e-02 1.740913838148117065e-02 -1.854018867015838623e-02 -9.576820768415927887e-03 6.530121900141239166e-03 3.098608285654336214e-04 -2.910221926867961884e-02 -4.319591075181961060e-02 1.696541719138622284e-02 4.655751958489418030e-02 3.231686726212501526e-02 -3.227778896689414978e-02 8.643452078104019165e-02 3.641185164451599121e-02 -3.140072524547576904e-02 7.522558793425559998e-03 1.920218393206596375e-02 8.455686271190643311e-03 -1.396284252405166626e-02 3.733149264007806778e-03 2.918463898822665215e-03 -7.459346088580787182e-04 3.441724926233291626e-02 -2.451354637742042542e-03 1.862411620095372200e-03 1.491284370422363281e-02 1.264412607997655869e-02 6.374300923198461533e-03 1.752424612641334534e-02 -1.758360862731933594e-02 4.267901554703712463e-02 -2.126334235072135925e-02 -1.734068617224693298e-02 6.184112280607223511e-03 3.803278668783605099e-04 2.131708431988954544e-03 2.675400301814079285e-02 -2.542246878147125244e-02 2.387270331382751465e-02 -2.014955878257751465e-02 -8.032561279833316803e-03 6.571824662387371063e-03 -2.609799557831138372e-04 -2.837584912776947021e-02 -3.825919330120086670e-02 4.417882766574621201e-03 5.729593336582183838e-02 4.997886717319488525e-02 -2.792927809059619904e-02 8.891695737838745117e-02 3.974131494760513306e-02 -3.177632391452789307e-02 8.034317754209041595e-03 1.938061602413654327e-02 7.932929322123527527e-03 -1.208550017327070236e-02 4.767126403748989105e-03 1.052317675203084946e-03 -1.479023834690451622e-03 3.339910134673118591e-02 -2.037061844021081924e-03 3.338290378451347351e-03 1.394693739712238312e-02 1.545623876154422760e-02 -1.307652890682220459e-02 1.958285830914974213e-02 -2.517728880047798157e-02 5.778377130627632141e-02 -2.489281259477138519e-02 -3.938840702176094055e-02 1.524542924016714096e-03 -9.538611397147178650e-03 -1.021229848265647888e-02 4.722508415579795837e-02 -4.034233093261718750e-02 3.633586317300796509e-02 -2.124376967549324036e-02 -6.163412705063819885e-03 6.460730917751789093e-03 8.197555143851786852e-05 -3.167322650551795959e-02 -3.372466936707496643e-02 -1.773858070373535156e-02 7.256644219160079956e-02 5.837228521704673767e-02 -1.040314882993698120e-02 3.024342842400074005e-02 -1.975423656404018402e-02 1.497089397162199020e-02 4.620765522122383118e-02 3.696574131026864052e-04 -1.202454091981053352e-03 -5.590683780610561371e-03 1.223250292241573334e-03 8.224518387578427792e-04 -2.847580937668681145e-03 -4.942862316966056824e-03 1.355834770947694778e-02 -1.701535284519195557e-02 1.900402829051017761e-02 -2.641617320477962494e-02 9.869639761745929718e-03 5.344524607062339783e-02 6.851900368928909302e-03 6.791016552597284317e-03 1.801643148064613342e-02 -2.833655802533030510e-03 1.192112453281879425e-02 -2.498834161087870598e-03 -1.645130105316638947e-02 1.614148914813995361e-02 -1.605603098869323730e-02 1.756036095321178436e-02 -3.143827989697456360e-02 7.389952894300222397e-03 5.429410934448242188e-02 -1.045400835573673248e-02 7.897852919995784760e-03 7.884250953793525696e-03 2.400294644758105278e-03 1.742450147867202759e-02 9.556669741868972778e-03 -6.652569398283958435e-03 2.823374792933464050e-02 -8.972314186394214630e-03 -6.606904789805412292e-03 -3.727049753069877625e-02 8.640523068606853485e-03 5.285197868943214417e-02 -9.677438065409660339e-03 8.017112500965595245e-03 7.227873895317316055e-03 -1.791913877241313457e-03 2.336222119629383087e-02 1.304731611162424088e-02 -2.054392546415328979e-02 3.215305507183074951e-02 -1.586099155247211456e-02 -5.964993033558130264e-03 -2.502562105655670166e-02 -1.657778210937976837e-02 5.152935534715652466e-02 -1.140163373202085495e-02 6.906479131430387497e-03 6.892583798617124557e-03 4.816151224076747894e-03 1.882699504494667053e-02 3.482538042590022087e-03 -3.802862390875816345e-02 1.657081581652164459e-02 1.147049386054277420e-02 8.070232346653938293e-03 -2.705458551645278931e-02 9.143942035734653473e-03 6.175104901194572449e-02 -1.760794431902468204e-03 2.275365637615323067e-03 3.637020289897918701e-02 -7.802594918757677078e-03 6.673057097941637039e-03 9.976185858249664307e-03 -4.078304022550582886e-02 3.162061423063278198e-02 -1.605635695159435272e-02 2.146528661251068115e-02 -1.281173899769783020e-02 3.545724088326096535e-03 5.822956189513206482e-02 -1.935543864965438843e-02 1.616975851356983185e-02 2.863557077944278717e-02 6.166223436594009399e-03 -1.176438294351100922e-02 1.462012808769941330e-02 -4.502340778708457947e-02 2.564689517021179199e-02 -1.050090137869119644e-02 -4.155824333429336548e-02 -1.235091034322977066e-02 5.493845092132687569e-04 6.382757425308227539e-02 -4.186940845102071762e-03 1.461212337017059326e-02 2.550523914396762848e-02 -3.780178027227520943e-03 -4.095012322068214417e-03 3.173422068357467651e-02 -4.237770289182662964e-02 2.083235234022140503e-02 -2.449544332921504974e-02 -7.576719671487808228e-02 -1.288764178752899170e-02 -2.066272869706153870e-02 6.648966670036315918e-02 -1.313487160950899124e-02 2.559960260987281799e-02 1.140999328345060349e-02 -1.170442346483469009e-02 -1.293869409710168839e-02 7.856514304876327515e-03 -4.918299987912178040e-02 4.075229540467262268e-02 -2.770646242424845695e-03
4.259576555341482162e-03 -3.361245244741439819e-02 1.221658475697040558e-02 -3.739920677617192268e-03 -3.409579023718833923e-02 -1.148860715329647064e-02 1.341320201754570007e-02 1.444232766516506672e-03 4.424741491675376892e-03 6.246068514883518219e-03 1.810647733509540558e-02 7.571087218821048737e-03 1.347357966005802155e-02 -4.228324629366397858e-03 -3.022287040948867798e-03 8.669216767884790897e-04 -9.904199279844760895e-03 -1.385137345641851425e-02 -1.197776291519403458e-02 -2.407469088211655617e-03 7.569028530269861221e-04 -3.546101041138172150e-03 1.955510117113590240e-02 -1.699419505894184113e-02 -7.705389522016048431e-03 1.742714457213878632e-02 1.708791404962539673e-02 -3.891390049830079079e-03 -1.441687112674117088e-03 -1.063796877861022949e-02 -5.037873634137213230e-04 1.500314567238092422e-02 7.979541085660457611e-03 4.758225753903388977e-02 -2.558715082705020905e-02 7.928943261504173279e-03 3.517859056591987610e-02 3.750182455405592918e-03 -3.315356746315956116e-02 1.483164727687835693e-02 -3.628907958045601845e-03 -3.325096517801284790e-02 -1.252240780740976334e-02 1.309951022267341614e-02 1.712956000119447708e-03 4.546712152659893036e-03 5.809314083307981491e-03 1.925495453178882599e-02 6.676787510514259338e-03 1.302142534404993057e-02 -2.790586091578006744e-03 -2.100996440276503563e-03 1.800928497686982155e-03 -2.300561405718326569e-03 -5.337270908057689667e-03 -1.960402727127075195e-02 2.062850398942828178e-03 2.266162540763616562e-03 7.420262787491083145e-03 2.334767952561378479e-02 -1.555236242711544037e-02 -5.188191775232553482e-03 1.686651445925235748e-02 1.632000133395195007e-02 -4.734353162348270416e-03 -1.635784283280372620e-03 -1.110382471233606339e-02 1.398814783897250891e-04 1.525856368243694305e-02 1.644190587103366852e-02 5.231157317757606506e-02 -3.067890368402004242e-02 1.540901721455156803e-03 2.431357838213443756e-02 2.928338479250669479e-03 -3.418157622218132019e-02 1.820838451385498047e-02 -4.327890928834676743e-03 -3.569025918841362000e-02 -1.209772564470767975e-02 1.233469508588314056e-02 7.243615691550076008e-04 4.084292333573102951e-03 6.201924756169319153e-03 1.990929432213306427e-02 5.808056797832250595e-03 1.264745462685823441e-02 -2.865727525204420090e-03 -5.287808016873896122e-04 -2.160839270800352097e-03 -2.640298102051019669e-03 -6.765932310372591019e-03 -1.701054722070693970e-02 -1.168854534626007080e-03 9.849271737039089203e-04 1.131631154567003250e-02 2.222508378326892853e-02 -1.444450020790100098e-02 -1.303147058933973312e-02 1.280789170414209366e-02 5.040208343416452408e-03 -5.318932235240936279e-03 -3.375289961695671082e-04 -1.037880312651395798e-02 -3.648599085863679647e-04 1.896419562399387360e-02 1.900478266179561615e-02 4.855042695999145508e-02 -2.806512080132961273e-02 -2.761008217930793762e-03 9.453679434955120087e-03 1.476963283494114876e-03 -3.331903740763664246e-02 1.824196055531501770e-02 -3.922147210687398911e-03 -3.509701788425445557e-02 -1.234766840934753418e-02 1.099903136491775513e-02 7.491461001336574554e-04 3.991154022514820099e-03 5.833210423588752747e-03 2.015130966901779175e-02 5.538672208786010742e-03 1.154125574976205826e-02 -2.105581806972622871e-03 -1.743758621159940958e-04 -1.006461959332227707e-02 -8.502135984599590302e-03 -7.651676889508962631e-03 -2.565831132233142853e-02 -5.846016108989715576e-03 1.548726693727076054e-03 4.516885615885257721e-03 2.126217447221279144e-02 -1.694576255977153778e-02 -1.289172936230897903e-02 1.174859423190355301e-02 8.254600688815116882e-03 -4.354637581855058670e-03 -3.428831114433705807e-04 -1.038311515003442764e-02 -3.416437539272010326e-04 1.990191079676151276e-02 2.503237873315811157e-02 4.591935500502586365e-02 -2.160088904201984406e-02 1.053605694323778152e-02 5.700754933059215546e-03 1.381952781230211258e-03 -3.196443617343902588e-02 1.902106404304504395e-02 -4.061337094753980637e-03 -3.640849143266677856e-02 -1.343878358602523804e-02 9.452535770833492279e-03 3.234411997254937887e-05 3.446494694799184799e-03 7.076395209878683090e-03 2.261664345860481262e-02 4.871413111686706543e-03 1.008219271898269653e-02 -1.938765752129256725e-03 -7.359259179793298244e-04 -6.360668689012527466e-03 -9.073571301996707916e-03 -6.638443097472190857e-03 -3.469494357705116272e-02 -9.070802479982376099e-03 4.331415053457021713e-03 1.681895554065704346e-02 2.656243368983268738e-02 -1.257729902863502502e-02 -1.511954236775636673e-02 1.277807448059320450e-02 5.319229327142238617e-03 -4.301880020648241043e-03 -7.697598630329594016e-05 -1.002559065818786621e-02 -4.107632266823202372e-04 2.409577742218971252e-02 2.715720981359481812e-02 3.833197802305221558e-02 -2.819198742508888245e-02 1.576515473425388336e-02 5.964551586657762527e-03 -8.071387419477105141e-04 -3.121319785714149475e-02 2.122760005295276642e-02 -4.409683402627706528e-03 -3.724795952439308167e-02 -1.282721292227506638e-02 6.544442847371101379e-03 -9.396941168233752251e-04 4.280055873095989227e-03 7.070497144013643265e-03 2.325051464140415192e-02 4.410440567880868912e-03 1.012685988098382950e-02 -6.115495925769209862e-04 5.102440482005476952e-04 -7.812121883034706116e-03 -7.421917282044887543e-03 1.609228900633752346e-03 -2.970471978187561035e-02 -8.277129381895065308e-03 4.121053498238325119e-03 1.163455378264188766e-02 2.121090330183506012e-02 -8.118104189634323120e-03 -1.772652193903923035e-02 1.499235630035400391e-02 -4.472641739994287491e-03 -4.149569664150476456e-03 8.665611385367810726e-04 -1.001974195241928101e-02 -8.697343291714787483e-04 3.452892228960990906e-02 3.485994413495063782e-02 3.349520638585090637e-02 -2.454603277146816254e-02 6.864971481263637543e-03 1.314409915357828140e-02 -1.589005230925977230e-03 -2.971698157489299774e-02 2.463365532457828522e-02 -4.515899345278739929e-03 -3.711103647947311401e-02 -1.309033669531345367e-02 6.170963402837514877e-03 -2.382714767009019852e-03 3.126961411908268929e-03 6.841409951448440552e-03 2.455548755824565887e-02 3.641567891463637352e-03 9.313547983765602112e-03 -5.605583428405225277e-04 3.869328647851943970e-04 -3.681055037304759026e-03 -1.085881702601909637e-02 8.455055765807628632e-03 -3.520090132951736450e-02 -1.985242404043674469e-02 -6.109152454882860184e-03 7.507821079343557358e-03 2.515599690377712250e-02 -5.621487740427255630e-03 -1.594644598662853241e-02 2.749387407675385475e-03 -4.958040546625852585e-03 -4.670020658522844315e-03 -5.489365867106243968e-05 -1.024087145924568176e-02 1.004775622277520597e-04 3.209135308861732483e-02 4.335730522871017456e-02 2.782245911657810211e-02 -7.900170981884002686e-03 -9.991469414671882987e-05 3.150287270545959473e-02 -8.590009529143571854e-04 -3.058533743023872375e-02 2.716390602290630341e-02 -5.660366732627153397e-03 -3.830477967858314514e-02 -1.232052128762006760e-02 3.799298312515020370e-03 -3.407225944101810455e-03 3.229752881452441216e-03 7.467633578926324844e-03 2.381480112671852112e-02 4.845567047595977783e-03 7.405452430248260498e-03 -4.904069355688989162e-04 5.160727887414395809e-04 -6.580157671123743057e-03 -2.232908457517623901e-02 1.932773925364017487e-02 -3.490054607391357422e-02 -3.078043274581432343e-02 -1.009980309754610062e-02 -3.699225606396794319e-03 2.837214618921279907e-02 1.222050841897726059e-02 -1.375783421099185944e-02 -2.954759867861866951e-03 -6.422448903322219849e-03 -4.624459892511367798e-03 2.834628394339233637e-04 -1.038538478314876556e-02 -6.665920955128967762e-04 4.418263956904411316e-02 5.355302989482879639e-02 2.093817852437496185e-02 -6.108014844357967377e-03 -1.992779783904552460e-02 6.007331237196922302e-02 -2.274821046739816666e-03 -3.101325780153274536e-02 3.258202597498893738e-02 -6.482585333287715912e-03 -4.060152545571327209e-02 -1.117510534822940826e-02 2.356479875743389130e-03 -4.946762230247259140e-03 2.569075208157300949e-03 9.049721993505954742e-03 2.605711109936237335e-02 4.757903050631284714e-03 6.781749427318572998e-03 3.581625351216644049e-04 7.703760638833045959e-04 -1.313448883593082428e-02 -2.493892610073089600e-02 3.069482930004596710e-02 -4.194819927215576172e-02 -5.135851353406906128e-02 -1.305630616843700409e-02 -4.291722085326910019e-03 2.682709321379661560e-02 3.303984925150871277e-02 -1.587191224098205566e-02 -6.358492653816938400e-03 -7.975031621754169464e-03 -4.523763433098793030e-03 1.695235376246273518e-03 -1.118022017180919647e-02 5.340978968888521194e-04 4.739346355199813843e-02 6.128216162323951721e-02 6.378157529979944229e-03 -1.960134133696556091e-03 -4.821468517184257507e-02 5.057230591773986816e-02 -1.297704991884529591e-03 -3.454776108264923096e-02 3.511831909418106079e-02 -6.339902523905038834e-03 -4.272859171032905579e-02 -1.004186086356639862e-02 -6.222506635822355747e-04 -8.821625262498855591e-03 5.926598096266388893e-04 9.665797464549541473e-03 2.541540935635566711e-02 5.479893647134304047e-03 5.117932334542274475e-03 1.477747282478958368e-04 4.896273021586239338e-04 -1.458810525946319103e-03 -1.985332183539867401e-02 1.650983653962612152e-02 -1.403862424194812775e-02 -6.342863291501998901e-02 -1.096624322235584259e-02 -3.924322780221700668e-03 3.517681360244750977e-02 1.721562817692756653e-02 1.355945691466331482e-02 -1.149959210306406021e-02 -1.494047977030277252e-02 -4.318908322602510452e-03 1.473596785217523575e-03 -9.772616438567638397e-03 2.030702889896929264e-04 5.345036089420318604e-02 6.457684189081192017e-02 -2.392889373004436493e-02 -1.649950072169303894e-02 -2.090953476727008820e-02 4.943431541323661804e-02 1.189612504094839096e-02 7.501135580241680145e-03 -1.360879652202129364e-02 -3.224724531173706055e-02 -1.676695421338081360e-02 3.796068252995610237e-03 -5.164894741028547287e-03 -2.345551969483494759e-03 -3.150146082043647766e-02 -2.905570901930332184e-02 4.878851119428873062e-03 -1.329614222049713135e-02 -6.889543961733579636e-03 6.594994571059942245e-03 -5.026381928473711014e-03 -2.584694512188434601e-02 -3.495189920067787170e-02 -1.251577585935592651e-02 1.635423250263556838e-04 9.094010107219219208e-03 -6.660502869635820389e-03 -3.375131636857986450e-02 -3.205606713891029358e-02 5.607913248240947723e-03 2.608156995847821236e-03 -1.033650897443294525e-02 8.852611063048243523e-04 1.372342277318239212e-02 -5.505571141839027405e-03 -3.237286955118179321e-02 -3.088017925620079041e-03 1.611882820725440979e-02 -1.523526385426521301e-02 -1.803741231560707092e-02 -3.600284829735755920e-02 -3.171117231249809265e-02 4.051808733493089676e-03 -1.267846208065748215e-03 -5.047086626291275024e-03 5.504646338522434235e-03 1.129450369626283646e-02 -2.528813108801841736e-02 -3.399381786584854126e-02 -8.542779833078384399e-04 4.998342599719762802e-03 1.996505446732044220e-02 -1.310624415054917336e-03 -3.393796458840370178e-02 -3.312778845429420471e-02 3.343692049384117126e-03 -2.111637499183416367e-03 1.810516417026519775e-02 -1.592912129126489162e-03 1.193669065833091736e-02 4.018747247755527496e-03 -1.336647477000951767e-02 1.311596110463142395e-02 4.163643810898065567e-03 -1.108000893145799637e-02 -2.082805521786212921e-02 -4.373711347579956055e-02 -2.285407669842243195e-02 1.151743158698081970e-02 -1.053929049521684647e-02 8.982771076261997223e-03 4.176444374024868011e-03 1.415901165455579758e-02 9.802176617085933685e-03 -2.620127238333225250e-02 9.657700546085834503e-03 1.832618936896324158e-02 -6.215948611497879028e-03 -9.344872087240219116e-03 -1.913987472653388977e-02 -2.848800830543041229e-02 -5.945161450654268265e-03 2.269964432343840599e-03 2.297827228903770447e-02 6.301973946392536163e-03 1.693509332835674286e-02 -8.714449591934680939e-03 -8.254528976976871490e-03 1.039051357656717300e-02 2.166653983294963837e-02 -2.863033488392829895e-02 -1.984134688973426819e-02 -1.523902360349893570e-02 -2.742301113903522491e-02 -2.649833040777593851e-04 3.049148072022944689e-04 1.384358014911413193e-02 -8.098084479570388794e-03 1.942609436810016632e-02 2.007883414626121521e-02 -3.519954625517129898e-03 1.360716391354799271e-02 2.558722905814647675e-02 -1.985901780426502228e-02 -2.020130865275859833e-02 -1.887665945105254650e-03 -2.434089593589305878e-02 1.439708098769187927e-02 1.139867678284645081e-02 2.135160379111766815e-02 -1.657158136367797852e-03 1.345336064696311951e-02 3.178126364946365356e-02 -8.227843791246414185e-03 1.277680136263370514e-02 2.315861359238624573e-02 1.056363922543823719e-03 -2.683757990598678589e-02 2.431214042007923126e-02 -4.261420294642448425e-02 8.563811890780925751e-03 7.836290635168552399e-03 1.213002484291791916e-02
-6.165625527501106262e-03 -1.807919144630432129e-02 -3.253458440303802490e-02 -9.292770177125930786e-03 -2.003260143101215363e-02 -5.795246921479701996e-03 -3.607711521908640862e-03 -3.463216824457049370e-03 1.385600119829177856e-02 -3.226986154913902283e-03 3.260455280542373657e-02 2.107919380068778992e-02 -3.767714602872729301e-03 1.350629329681396484e-02 -1.622371189296245575e-02 3.589237341657280922e-03 -2.266722265630960464e-03 4.826676566153764725e-03 -2.957952022552490234e-02 -7.307039573788642883e-03 1.015016902238130569e-02 1.154817454516887665e-02 3.701621899381279945e-03 -3.739767940714955330e-03 1.191671588458120823e-03 -2.524114027619361877e-02 1.143268495798110962e-02 5.193064361810684204e-02 4.088550806045532227e-03 4.149751039221882820e-04 2.240338362753391266e-04 -2.845926582813262939e-02 7.376847788691520691e-03 3.060547460336238146e-04 -3.021190315485000610e-02 -3.916727751493453979e-02 -2.877799794077873230e-03 -7.922746241092681885e-03 -2.009476348757743835e-02 -3.315210714936256409e-02 -7.355138193815946579e-03 -1.971382461488246918e-02 -7.256681565195322037e-03 -3.473868593573570251e-03 -4.271223675459623337e-03 1.366011891514062881e-02 -3.911140374839305878e-03 3.302105143666267395e-02 2.088442258536815643e-02 -4.068697802722454071e-03 1.303014624863862991e-02 -1.503028068691492081e-02 9.615856222808361053e-03 -1.871983287855982780e-03 3.950942307710647583e-03 -2.460413612425327301e-02 -1.198226679116487503e-02 -2.707740291953086853e-03 5.495510995388031006e-03 8.148211054503917694e-03 -2.739767311140894890e-03 2.270078985020518303e-03 -2.231989800930023193e-02 5.163786001503467560e-03 5.181695893406867981e-02 2.922256710007786751e-03 1.228096894919872284e-03 2.999010030180215836e-05 -2.925892546772956848e-02 2.433246700093150139e-03 -1.351156923919916153e-02 -4.567651823163032532e-02 -5.085252225399017334e-02 5.670284852385520935e-03 -9.642439894378185272e-03 -2.391856536269187927e-02 -3.180608525872230530e-02 -6.941101048141717911e-03 -1.970183663070201874e-02 -6.987065542489290237e-03 -4.893942736089229584e-03 -4.402999766170978546e-03 1.304034609347581863e-02 -2.964740851894021034e-03 3.299477696418762207e-02 1.991422846913337708e-02 -2.708940068259835243e-03 1.229994650930166245e-02 -1.423318963497877121e-02 1.515750773251056671e-02 -4.182793200016021729e-03 2.167593687772750854e-03 -2.018083445727825165e-02 -1.556236017495393753e-02 -5.523238796740770340e-03 5.855141673237085342e-03 7.101169321686029434e-03 -4.859124310314655304e-03 1.177878677845001221e-02 -2.250780351459980011e-02 -6.656405515968799591e-03 5.203027650713920593e-02 1.837191055528819561e-03 1.005247700959444046e-03 8.679636521264910698e-04 -3.163783624768257141e-02 6.934023462235927582e-03 -1.517064962536096573e-02 -4.284324496984481812e-02 -7.256210595369338989e-02 -7.600830867886543274e-03 -1.141241379082202911e-02 -2.661699801683425903e-02 -3.173212707042694092e-02 -5.806788802146911621e-03 -2.065701968967914581e-02 -6.926798261702060699e-03 -6.653151009231805801e-03 -5.506161600351333618e-03 1.347898971289396286e-02 -2.036033896729350090e-03 3.496066108345985413e-02 1.783502846956253052e-02 -8.935711812227964401e-04 1.124808099120855331e-02 -1.463863532990217209e-02 4.231346305459737778e-03 -5.526567343622446060e-03 2.140950236935168505e-04 -8.770471438765525818e-03 -1.843998581171035767e-02 -6.601845379918813705e-03 -1.712950528599321842e-03 5.243989638984203339e-03 -7.909657433629035950e-03 1.510534435510635376e-02 -1.627297513186931610e-02 -9.529148228466510773e-03 5.229996144771575928e-02 1.108483527787029743e-03 1.027980004437267780e-03 3.361598355695605278e-04 -2.938390523195266724e-02 2.760274801403284073e-03 -1.494039129465818405e-02 -4.202665388584136963e-02 -5.433424189686775208e-02 1.106149982661008835e-02 -1.280414871871471405e-02 -2.945110946893692017e-02 -3.049237467348575592e-02 -5.169130396097898483e-03 -2.152596972882747650e-02 -6.797138601541519165e-03 -5.820769816637039185e-03 -6.164147984236478806e-03 1.318246126174926758e-02 -2.868933835998177528e-03 3.406626358628273010e-02 1.826723478734493256e-02 9.721827227622270584e-04 1.045940630137920380e-02 -1.478170696645975113e-02 3.488802583888173103e-03 -6.054956465959548950e-03 -2.164266537874937057e-03 -2.626320347189903259e-03 -1.695580221712589264e-02 -8.837190456688404083e-03 -1.049787178635597229e-02 3.473835997283458710e-03 -9.851549752056598663e-03 1.474220305681228638e-02 -1.062292885035276413e-02 -1.269570272415876389e-02 5.385237559676170349e-02 -5.988077027723193169e-04 8.208621875382959843e-04 5.126942414790391922e-04 -3.159217908978462219e-02 2.432334236800670624e-03 -1.779004372656345367e-02 -2.842981740832328796e-02 -5.817321315407752991e-02 5.015982314944267273e-03 -1.320511754602193832e-02 -3.280996158719062805e-02 -2.820441313087940216e-02 -5.629173945635557175e-03 -2.225713618099689484e-02 -7.727943360805511475e-03 -5.425640847533941269e-03 -6.784870754927396774e-03 1.411315705627202988e-02 -3.321514464914798737e-03 3.391556069254875183e-02 1.733427681028842926e-02 1.049200189299881458e-03 9.735466912388801575e-03 -1.392635237425565720e-02 7.088724989444017410e-03 -8.528780192136764526e-03 -1.070985337719321251e-03 9.371069259941577911e-03 -1.683518476784229279e-02 -7.370152510702610016e-03 -1.082364749163389206e-02 8.866677060723304749e-03 -8.167495019733905792e-03 1.882751658558845520e-02 -1.074286922812461853e-02 -1.751938834786415100e-02 5.356656759977340698e-02 -1.347165671177208424e-03 2.734182053245604038e-04 -7.369850936811417341e-05 -3.201410919427871704e-02 4.468837752938270569e-03 -2.092476189136505127e-02 -2.232114598155021667e-02 -6.563745439052581787e-02 7.794524542987346649e-03 -1.426172256469726562e-02 -3.653423488140106201e-02 -2.902962639927864075e-02 -4.633618518710136414e-03 -2.312363497912883759e-02 -6.301371846348047256e-03 -4.449496045708656311e-03 -8.022196590900421143e-03 1.396370679140090942e-02 -3.057704772800207138e-03 3.554776683449745178e-02 1.596021838486194611e-02 4.500004462897777557e-03 1.050615310668945312e-02 -1.509223878383636475e-02 2.727907849475741386e-03 -8.909266442060470581e-03 -1.218663892359472811e-04 1.513510849326848984e-02 -1.147141028195619583e-02 -1.841881079599261284e-03 -5.017063580453395844e-03 1.158371660858392715e-02 -1.659829728305339813e-02 3.263485804200172424e-02 -3.700267698150128126e-04 -1.064930949360132217e-02 5.347603559494018555e-02 -2.505845157429575920e-03 2.530674973968416452e-04 5.028074374422430992e-04 -3.052594140172004700e-02 3.255586838349699974e-03 -3.067779541015625000e-02 -4.383594170212745667e-02 -7.764357328414916992e-02 2.378626726567745209e-02 -1.571107655763626099e-02 -4.083335027098655701e-02 -2.581331320106983185e-02 -4.131320398300886154e-03 -2.295319549739360809e-02 -6.664690561592578888e-03 -4.290542565286159515e-03 -8.695380762219429016e-03 1.446558162569999695e-02 -2.264723647385835648e-03 3.483555093407630920e-02 1.552183739840984344e-02 6.035050842911005020e-03 1.055011153221130371e-02 -1.479778159409761429e-02 -2.220163441961631179e-04 -1.065176911652088165e-02 -4.534078761935234070e-03 2.695752680301666260e-02 -1.797487773001194000e-02 -1.290062209591269493e-03 -5.472016055136919022e-04 1.509082689881324768e-02 -1.402811892330646515e-02 3.500934317708015442e-02 -1.138027198612689972e-02 -1.526851579546928406e-02 5.345077067613601685e-02 -4.753832239657640457e-03 1.012503518722951412e-03 -2.797571942210197449e-04 -3.045936487615108490e-02 3.467305097728967667e-03 -3.279745206236839294e-02 -3.561268001794815063e-02 -8.300941437482833862e-02 2.935288473963737488e-02 -1.792437769472599030e-02 -4.565980657935142517e-02 -2.438553236424922943e-02 -3.788280067965388298e-03 -2.422510460019111633e-02 -7.584890816360712051e-03 -2.884028013795614243e-03 -9.937867522239685059e-03 1.532287336885929108e-02 -7.950090803205966949e-04 3.688734769821166992e-02 1.519221626222133636e-02 9.819340892136096954e-03 1.028781197965145111e-02 -1.545538287609815598e-02 -3.129615681245923042e-03 -1.486677676439285278e-02 -4.317945800721645355e-03 3.589368611574172974e-02 -2.643506787717342377e-02 1.024552527815103531e-02 1.820198260247707367e-02 1.518741436302661896e-02 -7.977772504091262817e-03 4.813883081078529358e-02 -2.497035544365644455e-03 -1.992612704634666443e-02 5.474339425563812256e-02 -6.723034661263227463e-03 4.505283141043037176e-04 -6.218231865204870701e-04 -2.449782192707061768e-02 7.523271255195140839e-03 -2.187565527856349945e-02 -4.442909732460975647e-02 -1.011321991682052612e-01 1.652903482317924500e-02 -1.857919059693813324e-02 -5.017601698637008667e-02 -2.180750481784343719e-02 -6.026431452482938766e-03 -2.459684386849403381e-02 -7.152762264013290405e-03 -7.692459621466696262e-04 -1.031951978802680969e-02 1.614694111049175262e-02 1.096100430004298687e-03 3.794967010617256165e-02 1.377975940704345703e-02 1.225102413445711136e-02 1.089930534362792969e-02 -1.509262155741453171e-02 -2.998716663569211960e-03 -1.783299446105957031e-02 -8.763233199715614319e-03 2.797471918165683746e-02 -1.900419220328330994e-02 1.372376084327697754e-02 2.221490256488323212e-02 1.508011575788259506e-02 -2.052284963428974152e-02 4.030815139412879944e-02 1.992488652467727661e-02 -3.967090323567390442e-02 5.554399266839027405e-02 -8.790395222604274750e-03 7.180242682807147503e-04 -5.490674448083154857e-05 -1.747923716902732849e-02 2.887376351282000542e-03 1.831273199059069157e-03 -5.778810009360313416e-02 -4.887905344367027283e-02 3.964933380484580994e-02 7.093049585819244385e-03 -1.663198135793209076e-02 1.532964594662189484e-02 2.844788134098052979e-02 1.245311554521322250e-02 -3.497543558478355408e-02 -7.083959411829710007e-03 -1.855330355465412140e-02 -1.711280643939971924e-02 -2.730548754334449768e-02 -2.484080567955970764e-02 -2.566953748464584351e-02 -1.195180509239435196e-02 1.553991530090570450e-02 -1.590268686413764954e-02 4.099145997315645218e-03 3.980601578950881958e-02 1.591326296329498291e-02 -4.169083014130592346e-02 -8.524112403392791748e-03 -7.136148400604724884e-03 -2.224680781364440918e-02 -3.009580820798873901e-02 -2.250878512859344482e-02 -1.752289943397045135e-02 -3.322222083806991577e-02 6.465539918281137943e-04 -2.195913717150688171e-02 3.277067793533205986e-03 2.401885762810707092e-02 1.033368334174156189e-02 -3.234231844544410706e-02 -7.292697206139564514e-03 -2.737451903522014618e-02 -1.992961205542087555e-02 -3.561774268746376038e-02 -3.265960887074470520e-02 -2.999337762594223022e-02 -3.699127957224845886e-02 1.271461788564920425e-02 -1.612781174480915070e-02 7.425668183714151382e-03 1.738681085407733917e-02 1.163827627897262573e-02 -3.689745813608169556e-02 5.316338967531919479e-03 -2.415504492819309235e-02 -2.298039197921752930e-02 -3.332415223121643066e-02 -1.953368447721004486e-02 -2.584404312074184418e-02 -4.045964777469635010e-02 1.024342793971300125e-02 -5.526501918211579323e-04 1.574781537055969238e-02 2.823890000581741333e-02 -2.331708325073122978e-03 -2.162859961390495300e-02 -9.482147172093391418e-03 -2.411047741770744324e-02 -1.985730044543743134e-02 -2.857302688062191010e-02 -2.716279216110706329e-02 -2.304364368319511414e-02 -1.037264522165060043e-02 1.046157907694578171e-02 -6.384288426488637924e-03 1.213524863123893738e-02 2.726780809462070465e-02 2.944724634289741516e-02 -2.616350352764129639e-02 -3.174838377162814140e-03 -2.221296541392803192e-02 -2.863607555627822876e-02 -2.655752189457416534e-02 -3.238461539149284363e-02 -1.468654442578554153e-02 -1.192557718604803085e-02 2.332309633493423462e-02 -2.178056351840496063e-02 1.703640818595886230e-02 3.206034004688262939e-02 -1.002524048089981079e-03 -2.879118360579013824e-02 -5.588470958173274994e-03 -2.333525940775871277e-02 -2.645044587552547455e-02 -3.641288354992866516e-02 -4.025308415293693542e-02 -3.453956171870231628e-02 -1.179346349090337753e-02 2.035685814917087555e-02 1.151756290346384048e-02 1.317778509110212326e-02 2.904325909912586212e-02 -3.779747523367404938e-03 -3.065004944801330566e-03 9.253392927348613739e-03 -1.825415529310703278e-02 -2.617415226995944977e-02 -2.625263296067714691e-02 -4.840582981705665588e-02 -3.401213884353637695e-02 -4.621578846126794815e-03 -6.046392954885959625e-03 1.844724640250205994e-02 1.038305740803480148e-02 1.996251195669174194e-02 -1.550114993005990982e-02 6.744842045009136200e-03 5.727528594434261322e-03 -1.080195326358079910e-02 -3.383094817399978638e-02 -3.581329435110092163e-02 -5.594759434461593628e-02 -4.158455878496170044e-02 -3.146715462207794189e-03
-1.621206663548946381e-02 -3.518610447645187378e-02 8.323577232658863068e-03 -3.037449903786182404e-03 2.336537092924118042e-02 1.831562817096710205e-02 1.874017342925071716e-02 -1.110763940960168839e-02 -3.226216183975338936e-03 -6.983673200011253357e-03 2.049631206318736076e-03 6.074126344174146652e-03 -4.479717463254928589e-03 1.389657147228717804e-02 -4.297906998544931412e-03 8.694613934494554996e-04 -5.675204563885927200e-03 -6.527996156364679337e-04 6.282349932007491589e-04 7.407053839415311813e-03 8.622003719210624695e-03 -1.998725114390254021e-03 -5.673081148415803909e-03 -1.617736881598830223e-03 9.385955519974231720e-03 -9.986733086407184601e-03 3.047046484425663948e-03 6.200257223099470139e-03 -1.374811492860317230e-02 -4.614013712853193283e-03 -6.099636084400117397e-04 2.065441198647022247e-02 2.117866463959217072e-02 2.298498898744583130e-02 -1.897556148469448090e-02 2.832306781783699989e-04 2.253021672368049622e-02 -1.839791983366012573e-02 -3.487818315625190735e-02 1.228241343051195145e-02 -2.548600779846310616e-03 2.380718477070331573e-02 1.804426312446594238e-02 1.952725276350975037e-02 -1.077486854046583176e-02 -2.396674128249287605e-03 -8.612650446593761444e-03 2.265418646857142448e-03 7.146229501813650131e-03 -3.816115204244852066e-03 1.214846130460500717e-02 -3.343577263876795769e-03 2.977466210722923279e-03 -2.066395478323101997e-03 1.391117228195071220e-03 1.867799321189522743e-03 2.291927114129066467e-03 1.298287976533174515e-02 1.638056011870503426e-03 -6.550440564751625061e-03 -2.044053399004042149e-04 1.430425234138965607e-02 -7.250184193253517151e-03 -1.340358168818056583e-03 2.868432784453034401e-03 -1.422826107591390610e-02 -5.175156518816947937e-03 -1.035969180520623922e-04 2.081432566046714783e-02 1.623377576470375061e-02 2.142286486923694611e-02 -1.865255087614059448e-02 -1.717853732407093048e-02 2.691191062331199646e-02 -1.894824020564556122e-02 -3.690613433718681335e-02 1.588026806712150574e-02 -1.468150643631815910e-03 2.368611283600330353e-02 1.750908978283405304e-02 2.052351646125316620e-02 -1.143888011574745178e-02 -2.408335451036691666e-03 -7.487063296139240265e-03 1.760028768330812454e-03 6.354844663292169571e-03 -1.579692121595144272e-03 1.189405284821987152e-02 -2.660635160282254219e-03 7.022870704531669617e-03 -6.315685342997312546e-03 5.231823306530714035e-03 -4.013283178210258484e-03 -9.070211090147495270e-03 7.480156142264604568e-03 -2.787109697237610817e-03 -5.696936044842004776e-03 -3.429823089390993118e-03 1.480826642364263535e-02 -8.331331424415111542e-03 5.430919118225574493e-03 1.670457422733306885e-03 -1.287256181240081787e-02 -4.405279643833637238e-03 1.520785881439223886e-04 2.882170490920543671e-02 1.743867434561252594e-02 1.287766452878713608e-02 -2.561149001121520996e-02 -2.129469625651836395e-02 1.964489743113517761e-02 -1.995728909969329834e-02 -3.819528222084045410e-02 1.687618158757686615e-02 -1.427963725291192532e-03 2.434873208403587341e-02 1.762351766228675842e-02 2.049439400434494019e-02 -1.192151848226785660e-02 -2.087752334773540497e-03 -7.382262498140335083e-03 1.063835923559963703e-03 6.037713028490543365e-03 -1.699071799521334469e-05 1.053853332996368408e-02 -1.317997113801538944e-03 4.722796846181154251e-03 -5.122032598592340946e-04 4.847447853535413742e-03 -3.700604196637868881e-03 -7.239700760692358017e-03 2.158699324354529381e-03 9.237738559022545815e-04 -3.195886500179767609e-03 -4.669037647545337677e-03 1.716000400483608246e-02 -1.215370651334524155e-02 1.116197017836384475e-04 -9.980151662603020668e-04 -1.347378734499216080e-02 -4.283275455236434937e-03 6.715022027492523193e-04 3.056305274367332458e-02 1.483967248350381851e-02 1.303358841687440872e-02 -2.343472652137279510e-02 -2.292899414896965027e-02 1.289464533329010010e-02 -2.030392363667488098e-02 -3.930732235312461853e-02 1.659831032156944275e-02 -1.077376306056976318e-03 2.459187619388103485e-02 1.872065290808677673e-02 2.152292430400848389e-02 -1.275499351322650909e-02 -1.549594220705330372e-03 -7.860902696847915649e-03 1.523949322290718555e-03 7.645788602530956268e-03 1.457088161259889603e-03 9.331759065389633179e-03 -1.109920092858374119e-03 6.570709869265556335e-03 2.735903719440102577e-03 6.294147577136754990e-03 -9.031404741108417511e-03 -8.468209765851497650e-03 6.341344211250543594e-03 -4.663999658077955246e-03 3.183874767273664474e-03 1.991881988942623138e-03 1.612494885921478271e-02 -1.349247060716152191e-03 5.651265382766723633e-03 -3.333115484565496445e-03 -1.301682740449905396e-02 -4.605255089700222015e-03 3.266587154939770699e-04 3.060398809611797333e-02 8.076447062194347382e-03 1.476397551596164703e-02 -3.834748640656471252e-02 -2.562806382775306702e-02 1.949975080788135529e-02 -2.307844161987304688e-02 -4.172107577323913574e-02 1.876374147832393646e-02 -2.466028963681310415e-04 2.476562000811100006e-02 1.985077001154422760e-02 2.186796069145202637e-02 -1.351244840770959854e-02 -1.318093272857367992e-03 -8.376162499189376831e-03 8.039337699301540852e-04 7.404447998851537704e-03 3.117192536592483521e-03 9.262602776288986206e-03 -5.453204503282904625e-04 1.127058081328868866e-02 1.060101296752691269e-02 6.192094646394252777e-03 -4.506363533437252045e-03 -5.456916522234678268e-03 5.242865066975355148e-03 -7.902088575065135956e-03 7.023451384156942368e-03 3.139752428978681564e-03 1.448816247284412384e-02 -4.239580594003200531e-03 3.962529357522726059e-03 -5.830709356814622879e-03 -1.293552573770284653e-02 -5.112123209983110428e-03 -1.976510975509881973e-04 3.663697466254234314e-02 1.047673448920249939e-02 2.791309962049126625e-03 -5.264342948794364929e-02 -2.500737085938453674e-02 1.759942807257175446e-02 -2.667077630758285522e-02 -4.273362457752227783e-02 2.121995203197002411e-02 -5.910368054173886776e-04 2.602140232920646667e-02 1.816982775926589966e-02 2.149575576186180115e-02 -1.339168101549148560e-02 -1.844224403612315655e-03 -8.729072287678718567e-03 1.947303069755434990e-03 8.711064234375953674e-03 5.081779789179563522e-03 7.665107026696205139e-03 6.502052419818937778e-04 1.077232044190168381e-02 2.014762721955776215e-02 5.786623805761337280e-03 1.599225448444485664e-03 -1.244109473191201687e-03 3.375280939508229494e-04 -5.692101083695888519e-03 9.772532619535923004e-03 4.184831399470567703e-03 1.866134256124496460e-02 -3.527730936184525490e-03 1.243430748581886292e-02 -6.836729124188423157e-03 -1.307440549135208130e-02 -4.335182253271341324e-03 3.794273361563682556e-04 4.184438660740852356e-02 6.191324442625045776e-03 -3.357517300173640251e-03 -7.116563618183135986e-02 -2.623897045850753784e-02 2.710488811135292053e-02 -2.929705195128917694e-02 -4.532714933156967163e-02 2.514635957777500153e-02 8.478892268612980843e-04 2.714736387133598328e-02 2.002880349755287170e-02 2.210487425327301025e-02 -1.495150942355394363e-02 -1.308796461671590805e-03 -8.585284464061260223e-03 2.525918418541550636e-03 1.000022329390048981e-02 6.407749839127063751e-03 7.417647633701562881e-03 1.881871838122606277e-03 9.157651104032993317e-03 2.067665569484233856e-02 1.154648419469594955e-02 4.463492427021265030e-03 -7.389499340206384659e-03 2.991255372762680054e-03 -5.737731698900461197e-03 1.249299291521310806e-02 1.362374890595674515e-02 1.740991882979869843e-02 -1.001993566751480103e-02 2.511793747544288635e-02 -9.052022360265254974e-03 -1.258909236639738083e-02 -4.633520729839801788e-03 4.009178956039249897e-04 5.012900382280349731e-02 2.340199658647179604e-03 -1.637040823698043823e-02 -7.918144017457962036e-02 -4.556016623973846436e-02 1.869548112154006958e-02 -3.486011177301406860e-02 -4.804498329758644104e-02 2.580783888697624207e-02 1.423089648596942425e-03 2.864911220967769623e-02 2.025881595909595490e-02 2.263132296502590179e-02 -1.510970294475555420e-02 -2.963199745863676071e-03 -8.509518578648567200e-03 2.741568256169557571e-03 1.124033331871032715e-02 8.338498882949352264e-03 6.106354761868715286e-03 4.012266639620065689e-03 2.026120200753211975e-02 4.258412867784500122e-02 1.868096366524696350e-02 1.823566667735576630e-02 -1.631653495132923126e-02 1.026653917506337166e-03 9.495504782535135746e-04 2.482805587351322174e-02 2.993144094944000244e-02 1.226042211055755615e-02 -1.225976645946502686e-02 3.544605150818824768e-02 -1.057889685034751892e-02 -1.221621129661798477e-02 -4.782637581229209900e-03 -1.089912620955146849e-04 6.103833392262458801e-02 -7.197976578027009964e-03 -2.173515409231185913e-02 -1.218523755669593811e-01 -7.822661846876144409e-02 8.683503605425357819e-03 -4.092174768447875977e-02 -5.321245640516281128e-02 2.740070968866348267e-02 4.087412729859352112e-03 3.400453925132751465e-02 2.145126834511756897e-02 2.386719919741153717e-02 -1.606861501932144165e-02 -1.943534472957253456e-03 -7.933559827506542206e-03 5.093361716717481613e-03 1.300806272774934769e-02 9.424109943211078644e-03 4.429562948644161224e-03 8.288587443530559540e-03 2.459024265408515930e-02 3.270171582698822021e-02 1.581792905926704407e-02 -5.673380568623542786e-03 1.137988269329071045e-02 1.357230357825756073e-02 -2.888175891712307930e-03 6.688288412988185883e-03 -7.944373064674437046e-04 5.259777233004570007e-02 -2.576778829097747803e-02 4.536843299865722656e-02 -1.150219701230525970e-02 -1.182869076728820801e-02 -5.535668693482875824e-03 -2.748947590589523315e-04 6.558791548013687134e-02 -1.125838886946439743e-02 -2.594760246574878693e-02 -8.763395249843597412e-02 -2.940797060728073120e-02 1.247980538755655289e-02 -7.389403413981199265e-03 -1.028404012322425842e-02 -2.651910763233900070e-03 -1.941929513122886419e-04 1.192461326718330383e-02 -1.948392833583056927e-03 -2.912048017606139183e-03 -2.153360284864902496e-02 -2.141591720283031464e-02 -1.706397160887718201e-02 5.929509643465280533e-03 -1.447770092636346817e-02 4.964033141732215881e-03 -1.866695005446672440e-03 -2.131506986916065216e-02 1.456615631468594074e-03 -1.691265380941331387e-03 1.077305804938077927e-02 -5.689131561666727066e-03 9.498290717601776123e-03 -2.300871163606643677e-02 -1.734650507569313049e-02 -1.129818707704544067e-02 1.670112460851669312e-02 -5.458808504045009613e-03 7.890451699495315552e-03 -8.930207230150699615e-03 -1.076719537377357483e-02 -2.213742770254611969e-02 -2.300878614187240601e-02 1.323022227734327316e-02 7.750990800559520721e-03 1.718830876052379608e-02 -2.365906350314617157e-02 -1.451342552900314331e-02 -1.205407362431287766e-02 1.661075465381145477e-02 -3.846001112833619118e-03 1.006028149276971817e-02 -7.743678521364927292e-03 -4.166464786976575851e-03 2.070644404739141464e-03 -1.292299944907426834e-02 1.989807747304439545e-02 -3.811203641816973686e-03 -3.506391309201717377e-03 -1.522987056523561478e-02 -1.003150455653667450e-02 -1.462461892515420914e-02 2.090768655762076378e-03 -1.049230247735977173e-02 6.901343818753957748e-03 -6.935840472579002380e-03 -2.154236426576972008e-03 -7.966413162648677826e-03 -1.607254333794116974e-02 1.381481625139713287e-02 2.540888963267207146e-03 -1.542905461974442005e-03 -2.010290324687957764e-02 -1.611949689686298370e-02 1.405647140927612782e-03 4.491415806114673615e-03 -7.357081398367881775e-03 2.200491726398468018e-02 -1.239925064146518707e-02 -1.020283554680645466e-03 -1.401218120008707047e-02 -1.856405474245548248e-02 7.442440837621688843e-03 1.869982224889099598e-03 4.708360880613327026e-03 -2.925346372649073601e-03 -1.834264025092124939e-03 -1.226717885583639145e-02 3.512922441586852074e-03 -3.540834411978721619e-03 2.741595543920993805e-02 2.496142871677875519e-03 2.680543810129165649e-03 -4.945097956806421280e-03 -2.059135027229785919e-02 1.567418314516544342e-02 -1.689782715402543545e-03 1.460198126733303070e-02 -1.014196313917636871e-02 -1.214021630585193634e-02 -5.841409321874380112e-03 6.405122112482786179e-04 -1.765217073261737823e-02 2.176581323146820068e-02 6.954650860279798508e-03 4.359914746601134539e-04 7.244282402098178864e-03 -1.734288223087787628e-02 9.133023209869861603e-03 -6.973732070036930963e-06 1.140674669295549393e-02 3.507339395582675934e-03 2.844458445906639099e-03 -8.996694348752498627e-03 8.087688125669956207e-03 -3.409887198358774185e-03 5.109113454818725586e-02 1.257486920803785324e-02 2.767675742506980896e-02 -2.366113010793924332e-03 2.962735197797883302e-05 -1.349169481545686722e-02 1.018327893689274788e-03 -2.052496187388896942e-03 1.887273788452148438e-02 3.144284710288047791e-02 -1.556452084332704544e-02 1.273389533162117004e-02 -2.093231864273548126e-02 4.716972261667251587e-02
