-2.961161136627197266e+00
-1.635108470916748047e+00
4.889081954956054688e+00
4.634551048278808594e+00
-3.565802097320556641e+00
-3.418436527252197266e+00
-4.043712615966796875e+00
2.423655748367309570e+00
1.083604171872138977e-01
-1.180522561073303223e+00
-1.706938743591308594e+00
1.503022313117980957e+00
4.607769966125488281e+00
-7.610908508300781250e+00
-1.515702247619628906e+00
3.150432586669921875e+00
-5.127827644348144531e+00
1.310477852821350098e+00
-7.178722381591796875e+00
-4.277147293090820312e+00
-8.074963569641113281e+00
-2.589296340942382812e+00
-4.859395980834960938e+00
-6.799437046051025391e+00
-2.193275928497314453e+00
-8.869358897209167480e-01
-4.590016841888427734e+00
-2.138007640838623047e+00
-6.090689659118652344e+00
-5.482984066009521484e+00
-2.386497020721435547e+00
-9.466882348060607910e-01
-4.221044108271598816e-02
5.734354496002197266e+00
-5.725093364715576172e+00
-1.493700623512268066e+00
-1.457355260848999023e+00
-3.402403831481933594e+00
-6.397861838340759277e-01
-7.903204441070556641e+00
-4.209218978881835938e+00
-2.554192543029785156e+00
-4.948012828826904297e+00
-2.227517604827880859e+00
3.404525518417358398e+00
-7.757633924484252930e-01
-1.425488591194152832e+00
4.411497116088867188e+00
-5.864521503448486328e+00
-6.366925716400146484e+00
-4.062256813049316406e+00
-4.900404930114746094e+00
7.317786812782287598e-01
-3.413583993911743164e+00
-4.265261888504028320e-01
5.205380916595458984e-01
5.632103681564331055e-01
-2.855179309844970703e+00
5.498060226440429688e+00
1.382050663232803345e-01
-5.922912597656250000e+00
-3.900249719619750977e+00
-6.815730094909667969e+00
-4.600395679473876953e+00
-1.576541900634765625e+00
4.994832515716552734e+00
3.060327768325805664e+00
2.983449459075927734e+00
-3.151174068450927734e+00
-1.227023363113403320e+00
-4.581522941589355469e+00
-6.680680751800537109e+00
3.058794498443603516e+00
-1.563549399375915527e+00
-5.569989204406738281e+00
-2.148027658462524414e+00
-2.043251037597656250e+00
-2.422322779893875122e-01
-2.602068185806274414e+00
4.745027422904968262e-01
-5.318532943725585938e+00
-5.056586265563964844e+00
6.053011417388916016e+00
-4.839031696319580078e+00
4.718050479888916016e+00
4.527018070220947266e+00
-5.208971977233886719e+00
-1.081263661384582520e+00
-3.634808063507080078e+00
3.768510341644287109e+00
-5.119442939758300781e+00
3.950817823410034180e+00
-4.004113003611564636e-02
-8.114404231309890747e-02
4.678218841552734375e+00
-9.291643500328063965e-01
-1.048646068572998047e+01
-5.102560520172119141e+00
-2.876058518886566162e-01
-6.034111976623535156e+00
-2.274368286132812500e+00
-8.344992637634277344e+00
-9.723519682884216309e-01
-1.043143558502197266e+01
-8.976752281188964844e+00
-1.708164811134338379e+00
-1.667097210884094238e+00
-7.490548610687255859e+00
-3.137823104858398438e+00
4.091740027070045471e-02
-1.271956086158752441e+00
-2.749596595764160156e+00
-2.882481813430786133e+00
-5.323036670684814453e+00
-4.069685935974121094e+00
-2.774796247482299805e+00
8.173444271087646484e-01
-2.714977025985717773e+00
-1.318943858146667480e+00
-1.106259584426879883e+00
-5.161935329437255859e+00
-2.877735197544097900e-01
-3.501603603363037109e+00
-3.097592353820800781e+00
3.702541828155517578e+00
-5.208847045898437500e+00
-6.355360507965087891e+00
-1.810343623161315918e+00
-7.183106541633605957e-01
4.147287845611572266e+00
-8.031402587890625000e+00
-4.338309764862060547e+00
-6.108807086944580078e+00
-2.980559110641479492e+00
5.750116348266601562e+00
1.261264085769653320e+00
2.916623830795288086e+00
-6.398954987525939941e-01
-2.247689962387084961e+00
2.021386861801147461e+00
-5.585070610046386719e+00
-3.077013254165649414e+00
-1.158522367477416992e+00
-4.556880474090576172e+00
-3.726607084274291992e+00
-3.637155771255493164e+00
-5.232151597738265991e-02
-4.038513183593750000e+00
-1.096851706504821777e+00
-4.321876049041748047e+00
-1.313388109207153320e+00
3.223229408264160156e+00
-1.152701282501220703e+01
-5.404935359954833984e+00
-1.014245223999023438e+01
3.916524887084960938e+00
-2.182179927825927734e+00
-4.660153865814208984e+00
-3.738144874572753906e+00
3.315588474273681641e+00
1.350576043128967285e+00
-6.686609268188476562e+00
-2.138332128524780273e+00
-7.992669582366943359e+00
4.530095577239990234e+00
-6.061462879180908203e+00
-3.481186151504516602e+00
-7.416925430297851562e+00
-3.021967411041259766e+00
-4.229846477508544922e+00
-5.400665283203125000e+00
4.089729785919189453e+00
-2.276066303253173828e+00
-9.204987525939941406e+00
-7.844977855682373047e+00
7.365150451660156250e-01
-3.572088479995727539e-01
-1.189213466644287109e+01
-5.250898361206054688e+00
-1.051750755310058594e+01
2.159590244293212891e+00
-6.024440288543701172e+00
-8.690154075622558594e+00
-3.468208789825439453e+00
-1.886300921440124512e+00
-6.206053733825683594e+00
2.527066230773925781e+00
-6.751491069793701172e+00
-1.616161108016967773e+00
-2.332501888275146484e+00
-3.337846994400024414e+00
9.004401564598083496e-01
-4.469008445739746094e+00
-3.326459407806396484e+00
-3.071056842803955078e+00
-6.247366428375244141e+00
-7.697921991348266602e-01
-6.081278324127197266e+00
-1.602343559265136719e+00
4.749800682067871094e+00
5.002548217773437500e+00
-6.548061370849609375e-01
-1.116389632225036621e+00
-1.811977386474609375e+00
-1.490954160690307617e+00
-3.377845048904418945e+00
4.522218704223632812e+00
-5.411748886108398438e+00
-2.193937301635742188e+00
4.060318470001220703e+00
-2.844717502593994141e+00
-2.026317596435546875e+00
-1.008010730147361755e-01
-3.610695123672485352e+00
-3.705877780914306641e+00
-2.227838993072509766e+00
-1.541121453046798706e-01
-8.298751831054687500e+00
8.550333380699157715e-01
-3.044557869434356689e-01
1.817272454500198364e-01
-2.774328708648681641e+00
-2.750687122344970703e+00
5.398086071014404297e+00
-3.845302581787109375e+00
-5.822895050048828125e+00
-1.141388058662414551e+00
1.950309634208679199e+00
-5.028645515441894531e+00
-6.031174182891845703e+00
-1.962890625000000000e+00
3.093768119812011719e+00
-7.196611881256103516e+00
4.683267116546630859e+00
-2.685435771942138672e+00
-1.642555952072143555e+00
-6.839246749877929688e-01
-8.132423162460327148e-01
1.249963879585266113e+00
-9.034896850585937500e+00
-1.003060817718505859e+00
-1.509145498275756836e+00
-3.061216831207275391e+00
-2.171564102172851562e+00
-5.006733417510986328e+00
-1.174759030342102051e+00
-1.402846693992614746e+00
-3.688680887222290039e+00
3.494117259979248047e+00
-3.210224628448486328e+00
-3.388964533805847168e-01
-6.414284229278564453e+00
5.609199047088623047e+00
-1.885888457298278809e+00
-3.431733608245849609e+00
-3.110369443893432617e+00
