-2.986958622932434082e-02 1.416559610515832901e-02 -6.329651921987533569e-02 -1.559619326144456863e-02 4.993408918380737305e-02 1.139201573096215725e-03 2.768635191023349762e-02 6.043869536370038986e-03 3.518886119127273560e-02 2.960056066513061523e-02 1.278778631240129471e-02 -5.650293678627349436e-05 1.049355790019035339e-02 9.182654321193695068e-03 -1.010338682681322098e-02 -6.938909791642799973e-05 1.711295731365680695e-02 -1.083160471171140671e-02 -8.153323084115982056e-03 1.366702839732170105e-02 7.291684858500957489e-03 -9.041254816111177206e-05 -1.861589401960372925e-02 -1.855207025073468685e-03 -6.034716963768005371e-03 8.931996300816535950e-03 4.672827664762735367e-03 1.221710443496704102e-02 9.371469728648662567e-03 6.655409932136535645e-03 9.099178016185760498e-03 -3.746417537331581116e-02 2.846509777009487152e-02 -7.467851042747497559e-02 -1.444487180560827255e-02 5.203692615032196045e-02 3.304304787889122963e-03 2.903173491358757019e-02 7.650818675756454468e-03 3.717773407697677612e-02 3.068921901285648346e-02 1.221412327140569687e-02 7.816918514436110854e-05 1.090731099247932434e-02 8.380752056837081909e-03 -1.174507942050695419e-02 -2.695951843634247780e-04 1.833643019199371338e-02 -7.896335795521736145e-03 -2.242936985567212105e-03 7.881690748035907745e-03 7.782293483614921570e-03 -1.322314958088099957e-03 -1.202338002622127533e-02 -2.127699786797165871e-03 -4.049099981784820557e-03 6.698992103338241577e-03 -1.067592180334031582e-03 1.197105832397937775e-02 1.180268358439207077e-02 7.566499523818492889e-03 9.207874536514282227e-03 -4.330470040440559387e-02 4.347085580229759216e-02 -8.880743384361267090e-02 -1.556280255317687988e-02 5.129158869385719299e-02 3.027674974873661995e-03 2.753897570073604584e-02 4.931695293635129929e-03 3.712440282106399536e-02 2.905918471515178680e-02 1.240752730518579483e-02 7.937326445244252682e-04 1.124306023120880127e-02 7.543101906776428223e-03 -1.340026129037141800e-02 -2.376474672928452492e-03 1.699457690119743347e-02 -6.302899681031703949e-03 4.936240613460540771e-03 9.202148765325546265e-03 8.698963560163974762e-03 -2.136376278940588236e-04 -6.952233146876096725e-03 -2.162456512451171875e-03 -6.461829761974513531e-04 9.382969699800014496e-03 3.666178323328495026e-03 1.203866768628358841e-02 1.218644343316555023e-02 7.933775894343852997e-03 9.126669727265834808e-03 -5.148139595985412598e-02 5.759305506944656372e-02 -1.051388606429100037e-01 -1.574118621647357941e-02 5.173262953758239746e-02 4.186148755252361298e-03 2.779359556734561920e-02 4.242264665663242340e-03 4.027780145406723022e-02 2.889092639088630676e-02 1.325816288590431213e-02 1.628605183213949203e-03 1.181443687528371811e-02 7.167099975049495697e-03 -1.425447594374418259e-02 -2.389998873695731163e-03 1.865808665752410889e-02 -4.398377612233161926e-03 1.598411798477172852e-02 1.874849386513233185e-02 8.147706277668476105e-03 1.281829201616346836e-03 -1.930630998685956001e-03 -2.077735029160976410e-03 2.113686176016926765e-03 7.916565984487533569e-03 2.500740112736821175e-03 1.296640746295452118e-02 1.368155423551797867e-02 7.001907564699649811e-03 8.346386253833770752e-03 -6.605282425880432129e-02 6.247497349977493286e-02 -1.130192354321479797e-01 -1.528820022940635681e-02 4.908587411046028137e-02 7.707284297794103622e-03 2.974649332463741302e-02 5.023992620408535004e-03 4.343568906188011169e-02 2.680450491607189178e-02 1.352617144584655762e-02 5.652021616697311401e-03 1.017593219876289368e-02 5.409185308963060379e-03 -1.640218496322631836e-02 -1.218967977911233902e-02 2.176958881318569183e-02 2.797879744321107864e-03 3.200775012373924255e-02 2.571583166718482971e-02 1.525072380900382996e-02 1.284341793507337570e-02 3.305073129013180733e-03 5.418515684141311795e-06 4.593732301145792007e-03 6.319520063698291779e-03 3.408413846045732498e-03 1.323564071208238602e-02 1.072207093238830566e-02 5.573151167482137680e-03 1.860753865912556648e-03 2.047369629144668579e-02 -1.652585808187723160e-03 -1.191615965217351913e-02 -1.475587300956249237e-02 -5.811673589050769806e-03 9.843238629400730133e-03 2.090804278850555420e-03 1.193494815379381180e-02 -2.268278039991855621e-02 -2.102128788828849792e-02 2.263607457280158997e-02 -2.530775032937526703e-02 2.112286724150180817e-02 2.330651506781578064e-02 1.934845815412700176e-03 -1.936400367412716150e-04 -3.717568237334489822e-03 -8.102809078991413116e-03 2.270076982676982880e-02 3.388153389096260071e-02 8.740829303860664368e-03 -2.435464598238468170e-02 -2.893721871078014374e-02 2.316869795322418213e-02 -2.719701267778873444e-02 2.881630137562751770e-02 3.720550239086151123e-02 2.134031802415847778e-02 -1.569780893623828888e-02 5.279511678963899612e-03 -5.329957697540521622e-03 -3.949376288801431656e-03 2.960731647908687592e-02 -6.304164417088031769e-04 -1.252072025090456009e-02 -3.009154275059700012e-02 2.916202694177627563e-02 -2.599692530930042267e-02 3.418931365013122559e-02 9.557812474668025970e-03 1.264577805995941162e-01 -5.825478583574295044e-02 1.781003549695014954e-02 -5.776950716972351074e-02 -1.777438670396804810e-01 -2.501676380634307861e-01 -1.360392868518829346e-01 1.011695936322212219e-01 -4.241466149687767029e-02 -6.436296552419662476e-02 -6.174363568425178528e-02 3.448313474655151367e-02
6.525394041091203690e-03 3.711618855595588684e-02 -1.039713714271783829e-02 6.581991445273160934e-03 2.327224239706993103e-02 -8.658466860651969910e-03 -2.162056416273117065e-02 9.755574166774749756e-03 1.951506733894348145e-02 -5.718111991882324219e-03 1.450342405587434769e-02 2.230019541457295418e-03 -1.262197364121675491e-02 2.026658505201339722e-02 -3.464004956185817719e-03 -2.170118270441889763e-03 1.247337367385625839e-02 2.690983377397060394e-02 -7.420026231557130814e-03 3.572950605303049088e-03 6.579704117029905319e-03 -6.698514916934072971e-04 -1.638427376747131348e-03 -5.353411193937063217e-03 -6.063906941562891006e-03 -3.017271636053919792e-03 -8.476091548800468445e-03 -3.880244493484497070e-02 1.345818513073027134e-03 -4.562524147331714630e-03 3.289591055363416672e-03 4.041154310107231140e-02 5.226895585656166077e-02 -7.217446342110633850e-03 6.817329674959182739e-03 2.356826327741146088e-02 -7.435909938067197800e-03 -2.150039747357368469e-02 9.963436052203178406e-03 1.931112259626388550e-02 -5.531450733542442322e-03 1.408984884619712830e-02 3.766179317608475685e-03 -1.316277589648962021e-02 1.961854659020900726e-02 -3.064533695578575134e-03 -3.435652470216155052e-03 6.462398916482925415e-03 2.411916479468345642e-02 -7.090815808624029160e-03 -5.032951594330370426e-04 5.710249766707420349e-03 1.060642767697572708e-03 -6.706944666802883148e-03 -7.993123494088649750e-03 -1.828748616389930248e-03 -2.707621315494179726e-03 -6.395358592271804810e-03 -3.793701156973838806e-02 5.365939578041434288e-04 -4.298114683479070663e-03 4.536021035164594650e-03 7.771227508783340454e-02 6.566247344017028809e-02 -5.341375246644020081e-03 5.675108637660741806e-03 2.168069221079349518e-02 -6.960390135645866394e-03 -2.195255085825920105e-02 8.427176624536514282e-03 2.098113112151622772e-02 -5.153069272637367249e-03 1.533417496830224991e-02 3.452241187915205956e-03 -1.274623442441225052e-02 1.811654493212699890e-02 -3.739522537216544151e-03 -5.253943614661693573e-03 -3.716374048963189125e-04 1.970438659191131592e-02 -7.801981177181005478e-03 -6.394901312887668610e-03 1.468145754188299179e-03 -1.853742054663598537e-03 -7.295689079910516739e-03 -6.927760317921638489e-03 9.510912932455539703e-04 1.725268899463117123e-03 -2.663313178345561028e-03 -3.705205768346786499e-02 -9.586761589162051678e-04 -3.468595212325453758e-03 4.336528945714235306e-03 1.174761503934860229e-01 7.985038310289382935e-02 -2.307218266651034355e-03 5.700381007045507431e-03 2.084236219525337219e-02 -4.316986538469791412e-03 -2.256790362298488617e-02 7.370771374553442001e-03 2.140822634100914001e-02 -6.154597271233797073e-03 1.579444482922554016e-02 4.651376046240329742e-03 -1.459598354995250702e-02 1.918796077370643616e-02 -4.525071475654840469e-03 -3.808554261922836304e-03 -5.564124323427677155e-03 1.717275939881801605e-02 -4.805499222129583359e-03 -9.473475627601146698e-03 -1.410625176504254341e-03 -1.919031637953594327e-04 -4.955799318850040436e-03 -7.189086638391017914e-03 3.710480406880378723e-03 1.047026552259922028e-02 -1.900335191749036312e-03 -3.877609223127365112e-02 -1.356963766738772392e-03 1.140361346188001335e-04 5.186761729419231415e-03 1.588986963033676147e-01 5.648067593574523926e-02 3.421624714974313974e-04 8.546263910830020905e-03 1.937944255769252777e-02 -1.914075226522982121e-03 -2.165410853922367096e-02 1.122361607849597931e-02 2.180674858391284943e-02 -3.968008328229188919e-03 1.470205839723348618e-02 3.377337940037250519e-03 -1.021741423755884171e-02 1.852278970181941986e-02 -4.050510935485363007e-03 -8.155037648975849152e-03 -5.797982681542634964e-03 2.013717591762542725e-02 -5.948987323790788651e-03 -1.486740633845329285e-02 -8.405264467000961304e-03 2.208675257861614227e-03 -2.115350915119051933e-03 -4.093355964869260788e-03 4.994595423340797424e-03 1.841733418405056000e-02 -7.392358500510454178e-03 -3.650026768445968628e-02 4.205506993457674980e-04 8.417335338890552521e-03 1.556849805638194084e-03 1.447740010917186737e-02 -4.421110078692436218e-02 -3.642955794930458069e-02 -4.237388819456100464e-02 1.223220024257898331e-02 2.685973420739173889e-02 -2.014525607228279114e-02 4.363438114523887634e-03 -5.631131352856755257e-04 -2.316236309707164764e-02 -1.114779803901910782e-02 1.547096297144889832e-02 2.134661376476287842e-02 2.598215453326702118e-02 -2.742574736475944519e-02 -3.412289544939994812e-02 -4.888163134455680847e-02 1.338491961359977722e-02 2.777577750384807587e-02 -1.101521495729684830e-02 -5.025916732847690582e-03 -4.368340596556663513e-03 -1.888522133231163025e-02 -1.854533795267343521e-03 1.759956241585314274e-03 1.298895571380853653e-02 1.916432194411754608e-02 -2.585140801966190338e-02 -3.955036401748657227e-02 -4.702467471361160278e-02 9.325138293206691742e-03 2.426348067820072174e-02 -3.406754508614540100e-02 2.102405764162540436e-03 1.195752178318798542e-03 -2.046016417443752289e-02 -6.212439388036727905e-03 1.438552979379892349e-02 1.841012947261333466e-02 1.343302130699157715e-01 9.557198733091354370e-02 -2.736199833452701569e-02 -4.331094026565551758e-02 -6.034756079316139221e-02 1.752719134092330933e-01 1.215718463063240051e-01 3.357468172907829285e-02 1.286363601684570312e-01 2.983998507261276245e-02 -1.389535218477249146e-01 9.336104243993759155e-02 2.572814747691154480e-02
-3.842800855636596680e-02 8.589201606810092926e-03 3.539440780878067017e-02 1.130049116909503937e-02 -1.856852136552333832e-02 2.668282948434352875e-03 -1.269821263849735260e-02 2.045082114636898041e-02 -9.928704457706771791e-06 1.476689893752336502e-02 -1.161054591648280621e-03 -1.187265943735837936e-02 1.020170841366052628e-02 -1.115676108747720718e-02 1.204877719283103943e-02 -2.033986238529905677e-04 -3.322543110698461533e-03 1.612214930355548859e-02 -1.631823368370532990e-03 7.582781836390495300e-03 9.271305985748767853e-03 1.504018204286694527e-03 6.158980540931224823e-03 -3.999429754912853241e-03 1.228017546236515045e-02 3.871460212394595146e-03 1.123712398111820221e-02 -2.812501229345798492e-02 4.926685709506273270e-03 -3.956939035560935736e-04 -1.126353535801172256e-02 -4.105560854077339172e-02 -2.071969397366046906e-02 2.708222903311252594e-02 1.139530260115861893e-02 -2.235529385507106781e-02 4.833515733480453491e-03 -1.319497078657150269e-02 1.700948365032672882e-02 3.340936498716473579e-03 1.456400379538536072e-02 1.600537332706153393e-03 -8.743764832615852356e-03 9.420256130397319794e-03 -1.309852954000234604e-02 8.483286015689373016e-03 -3.298668656498193741e-03 -5.996534600853919983e-03 1.918322779238224030e-02 -2.636412973515689373e-04 4.866399802267551422e-03 -5.584226073551690206e-06 -1.145781483501195908e-03 5.491620860993862152e-03 -3.479658858850598335e-03 7.160865701735019684e-03 1.078212074935436249e-02 9.168648160994052887e-03 -2.709482982754707336e-02 5.925097968429327011e-03 4.857580643147230148e-04 -1.024455763399600983e-02 -4.178771004080772400e-02 -4.940221086144447327e-02 2.013584040105342865e-02 9.902684949338436127e-03 -2.415375411510467529e-02 7.218768354505300522e-03 -1.587680354714393616e-02 1.461663004010915756e-02 4.417836200445890427e-03 1.380029413849115372e-02 3.088827477768063545e-03 -6.932553835213184357e-03 8.005254901945590973e-03 -1.334673259407281876e-02 5.487796384841203690e-03 -1.788515364751219749e-03 -5.706054624170064926e-03 2.124094776809215546e-02 9.090485982596874237e-04 2.252002246677875519e-03 -9.046430932357907295e-05 -3.067231446038931608e-04 4.284559283405542374e-03 -5.072403233498334885e-03 7.007612846791744232e-03 1.139850355684757233e-02 8.247124031186103821e-03 -2.736472897231578827e-02 6.801624316722154617e-03 8.852031314745545387e-04 -1.090447604656219482e-02 -4.196491092443466187e-02 -7.852554321289062500e-02 1.246589701622724533e-02 9.736567735671997070e-03 -2.323487401008605957e-02 7.533285766839981079e-03 -1.465796772390604019e-02 1.276854425668716431e-02 6.673275958746671677e-03 1.332849264144897461e-02 2.916252240538597107e-03 -5.285806022584438324e-03 5.704659037292003632e-03 -1.426950190216302872e-02 6.128657143563032150e-03 -3.357873996719717979e-03 -5.464658606797456741e-03 2.665906958281993866e-02 3.082951996475458145e-03 2.289674244821071625e-03 -4.519831389188766479e-03 1.295775640755891800e-03 1.555014518089592457e-03 -5.550749599933624268e-03 9.351251646876335144e-03 8.604523725807666779e-03 7.224271539598703384e-03 -2.788692153990268707e-02 6.958072539418935776e-03 1.518993987701833248e-03 -1.052313763648271561e-02 -3.973687812685966492e-02 -1.076533347368240356e-01 4.219339461997151375e-04 5.501931533217430115e-03 -4.112274572253227234e-02 2.437827363610267639e-02 -2.992429770529270172e-02 -2.538016298785805702e-03 2.613015100359916687e-02 4.509762395173311234e-03 2.222428098320960999e-02 9.821856394410133362e-03 -8.869601413607597351e-03 -2.824702300131320953e-02 -1.443767175078392029e-02 -9.257438592612743378e-03 -7.922693155705928802e-03 2.808258309960365295e-02 8.989335969090461731e-03 5.186634138226509094e-03 -4.440247081220149994e-03 2.131152665242552757e-03 1.124698086641728878e-03 -1.160221453756093979e-02 7.328160572797060013e-03 3.527979133650660515e-03 3.198569465894252062e-04 -2.697329781949520111e-02 8.433682844042778015e-03 1.138773933053016663e-02 -7.281191647052764893e-03 1.895700395107269287e-02 2.619688585400581360e-02 3.625961765646934509e-02 -2.982012741267681122e-02 -2.456170506775379181e-02 8.083377964794635773e-03 -3.729447722434997559e-02 2.103168144822120667e-02 -1.528665795922279358e-02 -9.460369474254548550e-04 3.138433396816253662e-02 -3.455169266089797020e-03 -7.950871251523494720e-03 4.600343760102987289e-03 1.667336747050285339e-02 2.861012145876884460e-02 -3.752107918262481689e-02 -1.139616593718528748e-02 2.966471016407012939e-03 -2.071664482355117798e-02 2.566727064549922943e-02 -2.002503350377082825e-02 1.070367731153964996e-02 2.784343622624874115e-02 1.131681492552161217e-03 -5.600423552095890045e-03 1.189083326607942581e-02 6.436159368604421616e-03 3.956009447574615479e-02 -3.261582180857658386e-02 -2.264682902023196220e-03 -1.940513029694557190e-03 -1.608363725244998932e-02 2.765510231256484985e-02 -1.091466378420591354e-02 9.575730189681053162e-03 2.591889537870883942e-02 -2.654939657077193260e-03 -1.616030698642134666e-03 7.885368168354034424e-02 -3.130181133747100830e-02 -1.216609850525856018e-01 -4.178563132882118225e-02 8.524330705404281616e-02 -2.676108852028846741e-02 -1.287564486265182495e-01 2.199735790491104126e-01 -1.010694801807403564e-01 6.260088644921779633e-03 4.440435208380222321e-03 1.596424542367458344e-02 -4.184174351394176483e-03
-2.796979248523712158e-02 4.585510864853858948e-02 3.553269803524017334e-02 -3.643559990450739861e-03 3.266655281186103821e-02 -4.259658604860305786e-02 -9.146624244749546051e-03 7.682970259338617325e-03 4.356023389846086502e-03 9.680214338004589081e-03 1.040121074765920639e-02 -2.510988898575305939e-02 -1.754266396164894104e-02 3.773083677515387535e-03 -9.118177928030490875e-03 -1.349285338073968887e-02 7.148277480155229568e-03 -7.465553935617208481e-03 8.311888203024864197e-03 4.883013665676116943e-03 -2.026956761255860329e-03 -2.931721974164247513e-03 -6.853394675999879837e-03 -1.419276092201471329e-02 3.991960547864437103e-03 3.052094252780079842e-03 -1.022001169621944427e-02 7.604009471833705902e-03 1.612206175923347473e-02 2.831781283020973206e-03 6.488023791462182999e-04 -3.173661604523658752e-02 4.215442389249801636e-02 5.249714478850364685e-02 -4.364425316452980042e-03 3.272957354784011841e-02 -4.221588745713233948e-02 -8.229060098528862000e-03 7.967250421643257141e-03 4.246714990586042404e-03 7.283021695911884308e-03 1.107233390212059021e-02 -2.458224631845951080e-02 -1.714607700705528259e-02 3.868767526000738144e-03 -1.125704031437635422e-02 -1.206862367689609528e-02 2.681786194443702698e-03 -7.232966832816600800e-03 9.558230638504028320e-03 4.521215800195932388e-03 -4.213018110021948814e-04 -1.654424268053844571e-04 -3.909832739736884832e-04 -1.400768291205167770e-02 4.277068655937910080e-03 1.840659533627331257e-04 -1.095978915691375732e-02 8.888918906450271606e-03 1.712006144225597382e-02 3.166351467370986938e-03 1.369600431644357741e-05 -3.740825876593589783e-02 3.881117701530456543e-02 6.720983982086181641e-02 -4.566024057567119598e-03 3.192079812288284302e-02 -4.214521870017051697e-02 -8.886845782399177551e-03 6.505961995571851730e-03 4.387155640870332718e-03 8.437030017375946045e-03 9.424353018403053284e-03 -2.487662993371486664e-02 -1.778178662061691284e-02 3.605764824897050858e-03 -1.055852044373750687e-02 -1.070937141776084900e-02 8.057896047830581665e-03 -1.125973090529441833e-02 1.091932039707899094e-02 4.463606979697942734e-03 3.942733630537986755e-03 1.579363364726305008e-03 1.233252696692943573e-03 -1.454666722565889359e-02 8.042392320930957794e-03 4.844442009925842285e-03 -9.398417547345161438e-03 9.663568809628486633e-03 1.721221581101417542e-02 2.458410803228616714e-03 4.837349024455761537e-06 -4.387534037232398987e-02 3.915219008922576904e-02 8.559092879295349121e-02 -5.978652741760015488e-03 3.279341757297515869e-02 -4.137363284826278687e-02 -6.172738038003444672e-03 7.153394632041454315e-03 4.036538302898406982e-03 7.495844736695289612e-03 1.018792483955621719e-02 -2.595387585461139679e-02 -1.641063578426837921e-02 4.037419799715280533e-03 -1.162992510944604874e-02 -7.580509409308433533e-03 7.133081555366516113e-03 -1.786618307232856750e-02 1.647145859897136688e-02 4.957437515258789062e-03 9.981459006667137146e-03 1.099665765650570393e-03 9.416521526873111725e-03 -1.766348443925380707e-02 1.060799974948167801e-02 1.113777235150337219e-02 -4.041679203510284424e-03 1.167399436235427856e-02 1.932204887270927429e-02 1.778835779987275600e-03 2.409062435617670417e-04 -4.974809288978576660e-02 3.453144803643226624e-02 1.025058925151824951e-01 -6.184780970215797424e-03 3.154055029153823853e-02 -3.706689178943634033e-02 -6.214281078428030014e-03 7.602397818118333817e-03 8.461670018732547760e-03 8.000223897397518158e-03 1.144822034984827042e-02 -1.993026770651340485e-02 -1.986716501414775848e-02 3.157960949465632439e-03 -1.465294230729341507e-02 1.154312281869351864e-03 1.210178434848785400e-02 -1.837431080639362335e-02 1.936644874513149261e-02 7.279546931385993958e-03 1.544287987053394318e-02 -1.749731251038610935e-03 1.374568883329629898e-02 -2.066989243030548096e-02 1.539906021207571030e-02 1.129782665520906448e-02 -1.106014358811080456e-03 1.231679692864418030e-02 1.810063980519771576e-02 2.747002057731151581e-03 7.642807438969612122e-03 -4.251239821314811707e-02 -3.122766967862844467e-03 -8.327457122504711151e-03 -1.235241442918777466e-02 -2.475128322839736938e-02 -4.068992100656032562e-03 -1.233213953673839569e-02 2.389241941273212433e-02 -9.991694241762161255e-03 3.488622140139341354e-03 -2.247386611998081207e-02 -3.815545141696929932e-02 1.783700659871101379e-02 -2.693358808755874634e-02 9.325765073299407959e-03 -1.408666279166936874e-02 2.233042148873209953e-03 -2.132135257124900818e-02 1.941227121278643608e-03 -1.019105035811662674e-02 2.111031115055084229e-02 -2.166523970663547516e-02 -4.146756604313850403e-03 -1.989831216633319855e-02 -3.361055254936218262e-02 2.014171518385410309e-02 -1.931373029947280884e-02 2.954954467713832855e-02 -1.596156507730484009e-02 1.158598251640796661e-02 -1.662843860685825348e-02 1.227188948541879654e-02 -2.206150256097316742e-02 1.485126744955778122e-02 -3.130636736750602722e-02 -6.096242927014827728e-03 -1.143367122858762741e-02 -4.568269848823547363e-02 1.994947344064712524e-02 -7.652760948985815048e-03 3.958939015865325928e-02 1.044039279222488403e-01 1.495902077294886112e-03 -6.326097995042800903e-02 -8.244681358337402344e-02 1.003265678882598877e-01 -5.234648659825325012e-02 -8.509451895952224731e-02 -6.448549032211303711e-02 -3.327121585607528687e-02 -1.942552626132965088e-01 1.815636456012725830e-02
1.473261509090662003e-02 1.300929766148328781e-02 -6.023284513503313065e-03 -6.870386656373739243e-03 8.478134870529174805e-03 -2.641876693814992905e-03 2.782937698066234589e-02 -9.738958440721035004e-03 2.234874991700053215e-03 6.949494592845439911e-03 2.436526864767074585e-02 3.096230141818523407e-02 3.139317035675048828e-02 -2.200763113796710968e-02 2.661372162401676178e-02 2.165807411074638367e-03 -8.334376034326851368e-04 2.502297237515449524e-02 2.097119577229022980e-03 7.927923463284969330e-03 4.020208492875099182e-03 1.254416303709149361e-03 -4.108649678528308868e-03 -7.351223379373550415e-03 -4.581639659591019154e-04 3.391269594430923462e-03 -7.306585088372230530e-03 -4.797738417983055115e-02 -2.599712461233139038e-02 5.888779647648334503e-03 5.789351183921098709e-03 9.884173981845378876e-03 7.727476302534341812e-03 -4.916239995509386063e-03 -7.335717324167490005e-03 8.926998823881149292e-03 -8.034100173972547054e-04 2.858640812337398529e-02 -9.351927787065505981e-03 3.317197319120168686e-03 7.087600883096456528e-03 2.355729416012763977e-02 3.104169666767120361e-02 3.078594617545604706e-02 -2.019790560007095337e-02 2.603702060878276825e-02 3.651077393442392349e-03 1.807828433811664581e-03 2.674053795635700226e-02 1.047564297914505005e-02 1.166354864835739136e-02 -9.770389879122376442e-04 -1.194754964672029018e-03 -6.265948992222547531e-03 -4.943455103784799576e-03 -3.382395254448056221e-03 6.534454878419637680e-03 -5.345567129552364349e-03 -4.927237331867218018e-02 -2.505915798246860504e-02 7.493950426578521729e-03 5.928582046180963516e-03 4.096762742847204208e-03 1.547619816847145557e-03 -1.669302931986749172e-03 -6.843768060207366943e-03 9.410883300006389618e-03 -1.409084885381162167e-03 2.766046486794948578e-02 -1.120191719383001328e-02 3.308696206659078598e-03 6.312527228146791458e-03 2.342620864510536194e-02 3.034446574747562408e-02 2.963678352534770966e-02 -1.980796456336975098e-02 2.726277709007263184e-02 -2.152589004253968596e-04 6.347513291984796524e-03 2.424433454871177673e-02 1.811337284743785858e-02 8.246027864515781403e-03 8.452643523924052715e-04 1.626173034310340881e-03 -4.450852982699871063e-03 -1.255544484592974186e-03 -7.204759167507290840e-04 6.094026379287242889e-03 -3.031434258446097374e-03 -5.026348307728767395e-02 -2.351673133671283722e-02 7.691426202654838562e-03 4.419830162078142166e-03 -3.384966403245925903e-04 -5.772261880338191986e-03 1.736442325636744499e-03 -5.215558689087629318e-03 9.613678790628910065e-03 -1.177565900434274226e-05 2.804836072027683258e-02 -1.060664467513561249e-02 3.906644415110349655e-03 6.774103268980979919e-03 2.340373955667018890e-02 3.053409047424793243e-02 3.050985559821128845e-02 -2.007331326603889465e-02 2.622011490166187286e-02 -4.834058228880167007e-03 1.368411350995302200e-02 2.483280189335346222e-02 3.922531753778457642e-02 4.546689335256814957e-03 2.362691797316074371e-03 1.147500122897326946e-03 -5.157832987606525421e-03 4.918043036013841629e-03 5.973575171083211899e-04 -9.615953895263373852e-04 1.575905247591435909e-03 -5.330552905797958374e-02 -2.143330127000808716e-02 6.429222878068685532e-03 5.171369761228561401e-03 -7.762385066598653793e-03 -2.165120467543601990e-02 4.141163080930709839e-03 -7.175558246672153473e-03 7.709664292633533478e-03 3.015300026163458824e-04 2.836187928915023804e-02 -1.236303336918354034e-02 4.780461080372333527e-03 7.592346984893083572e-03 2.457796037197113037e-02 2.984257973730564117e-02 2.817103639245033264e-02 -2.034954540431499481e-02 2.569948323071002960e-02 -2.742968266829848289e-03 2.545442804694175720e-02 2.530264109373092651e-02 5.378515645861625671e-02 -1.204406144097447395e-03 4.150815308094024658e-03 -1.086179472622461617e-04 -1.430979929864406586e-03 8.662657812237739563e-03 1.166850794106721878e-03 -2.636414486914873123e-03 6.116850301623344421e-03 -5.283993482589721680e-02 -2.836307138204574585e-02 1.518316008150577545e-02 -1.991386990994215012e-03 -2.932672202587127686e-02 2.152595669031143188e-02 3.722162544727325439e-02 3.049898892641067505e-03 -1.783717423677444458e-02 9.405707940459251404e-03 2.250448567792773247e-03 1.603222452104091644e-02 1.150915864855051041e-03 3.105924464762210846e-02 1.814614422619342804e-02 4.144017770886421204e-02 -4.421887919306755066e-02 -2.356825023889541626e-02 1.776307821273803711e-02 4.150594398379325867e-02 1.724212989211082458e-02 -1.184835657477378845e-02 1.109041273593902588e-02 9.105871431529521942e-03 1.329272706061601639e-02 2.073050476610660553e-03 3.825746476650238037e-02 1.734647527337074280e-02 4.278007149696350098e-02 -5.526403710246086121e-02 -3.782651573419570923e-02 3.550463169813156128e-02 5.331169813871383667e-02 2.014625631272792816e-02 -2.599775232374668121e-02 2.316890284419059753e-02 8.237514644861221313e-03 2.050721459090709686e-02 2.515022875741124153e-03 3.937745466828346252e-02 1.972380094230175018e-02 5.095849558711051941e-02 -3.487737104296684265e-02 -1.536576151847839355e-01 1.520278602838516235e-01 1.523014605045318604e-01 -1.132654100656509399e-01 -4.554532095789909363e-02 1.184297502040863037e-01 1.379396207630634308e-02 -1.130873709917068481e-01 -1.541523784399032593e-01 2.542298287153244019e-02 4.850342869758605957e-02 9.228489547967910767e-02 -4.140397161245346069e-02
-5.676508322358131409e-02 -1.313499733805656433e-02 5.639770627021789551e-02 -1.892113685607910156e-02 4.650957882404327393e-03 4.749972838908433914e-03 6.711370777338743210e-03 -1.423347421223297715e-04 1.410946995019912720e-02 3.978855907917022705e-03 1.622282154858112335e-02 2.156125567853450775e-02 -3.319356590509414673e-02 1.116005796939134598e-02 -3.806005790829658508e-02 1.580220297910273075e-03 -5.477128084748983383e-03 3.376778680831193924e-03 5.095810163766145706e-03 2.717349445447325706e-03 -2.595398109406232834e-03 -3.615794237703084946e-03 1.177242398262023926e-02 1.583526656031608582e-02 -1.508179213851690292e-02 3.581520635634660721e-03 8.919480256736278534e-03 4.363020882010459900e-02 -2.983994595706462860e-02 -1.150453463196754456e-03 9.163027280010282993e-04 -5.052728205919265747e-02 -3.029038896784186363e-03 6.457096338272094727e-02 -2.105313912034034729e-02 6.055244710296392441e-03 5.103474948555231094e-03 9.590571746230125427e-03 3.770182374864816666e-04 1.399998366832733154e-02 3.785145934671163559e-03 1.652822270989418030e-02 2.138348482549190521e-02 -3.399230167269706726e-02 1.285248436033725739e-02 -3.830897435545921326e-02 1.796242897398769855e-03 -1.921923831105232239e-03 5.840412341058254242e-03 6.716781295835971832e-03 3.069363010581582785e-04 -5.269929766654968262e-03 -6.487209466286003590e-04 7.238605059683322906e-03 1.503226906061172485e-02 -1.240428816527128220e-02 4.600523039698600769e-03 5.149494390934705734e-03 4.307205229997634888e-02 -3.034638613462448120e-02 -7.848961395211517811e-04 2.698705764487385750e-03 -4.305691272020339966e-02 4.979256540536880493e-03 7.519586384296417236e-02 -2.011261135339736938e-02 4.749743733555078506e-03 5.254308693110942841e-03 8.279371075332164764e-03 2.118222910212352872e-04 1.544162444770336151e-02 3.197822486981749535e-03 1.644701324403285980e-02 2.082289755344390869e-02 -3.292333334684371948e-02 1.106671988964080811e-02 -3.987945988774299622e-02 2.944186097010970116e-03 -9.423649753443896770e-04 8.328194729983806610e-03 9.932100772857666016e-03 6.072481046430766582e-04 -3.614281537011265755e-03 8.811546722427010536e-04 9.257570840418338776e-03 1.596259512007236481e-02 -1.135641150176525116e-02 4.998037591576576233e-03 1.951130339875817299e-03 4.393780976533889771e-02 -3.141875937581062317e-02 -2.365991706028580666e-03 8.447094587609171867e-04 -3.727031126618385315e-02 1.346117071807384491e-02 8.847965300083160400e-02 -1.960578933358192444e-02 5.619226023554801941e-03 5.219446029514074326e-03 9.142361581325531006e-03 -7.384701166301965714e-04 1.372821535915136337e-02 3.509161295369267464e-03 1.714997924864292145e-02 2.112275362014770508e-02 -3.529411181807518005e-02 1.242955774068832397e-02 -3.866802528500556946e-02 2.220877446234226227e-03 2.476061461493372917e-03 6.407106295228004456e-03 1.463018544018268585e-02 -9.298273362219333649e-04 -1.026448444463312626e-04 -3.563369391486048698e-04 1.496090833097696304e-02 1.376175042241811752e-02 -7.536050863564014435e-03 -1.711145625449717045e-03 6.247712299227714539e-04 4.384053498506546021e-02 -3.389314189553260803e-02 -2.535384846851229668e-03 2.309488598257303238e-03 -3.089137375354766846e-02 1.830867677927017212e-02 9.909489750862121582e-02 -1.763681694865226746e-02 5.825277883559465408e-03 4.223725758492946625e-03 9.246444329619407654e-03 4.892106517218053341e-04 1.553222164511680603e-02 5.760622210800647736e-03 1.576468907296657562e-02 1.968976296484470367e-02 -3.228805959224700928e-02 1.417207065969705582e-02 -4.032755643129348755e-02 8.040389977395534515e-03 3.010066691786050797e-03 1.125524658709764481e-02 1.776716485619544983e-02 2.374391915509477258e-04 1.531407004222273827e-03 -3.439640160650014877e-03 2.297939918935298920e-02 1.193483173847198486e-02 -1.138637959957122803e-02 -1.227337028831243515e-02 -1.078924536705017090e-02 4.323752969503402710e-02 -3.425860777497291565e-02 -1.813984359614551067e-03 -2.322285203263163567e-03 -8.276768028736114502e-03 -5.525821447372436523e-02 -4.325345903635025024e-02 -2.920407243072986603e-02 7.039234973490238190e-03 -1.103517785668373108e-02 4.555854946374893188e-03 -3.457619622349739075e-02 2.216775529086589813e-02 -4.522555321455001831e-02 2.226693555712699890e-02 4.768198356032371521e-02 2.142528258264064789e-02 -2.903353981673717499e-02 -4.872256889939308167e-02 -4.028507694602012634e-02 -3.353321179747581482e-02 1.518549025058746338e-02 -5.721797235310077667e-03 -7.938281632959842682e-03 -1.728997752070426941e-02 2.051206491887569427e-02 -4.742093384265899658e-02 2.381189912557601929e-02 5.163792148232460022e-02 2.358442917466163635e-02 -3.164507076144218445e-02 -3.405794873833656311e-02 -4.269290342926979065e-02 -2.971095591783523560e-02 8.025201968848705292e-03 -9.376879781484603882e-03 -8.931078016757965088e-03 -6.449993234127759933e-03 2.129922620952129364e-02 -5.700857192277908325e-02 3.049353323876857758e-02 5.557979270815849304e-02 2.129934169352054596e-02 5.788158252835273743e-02 -1.538330912590026855e-01 -5.757428333163261414e-02 -8.967601694166660309e-03 -4.025425389409065247e-02 -4.072229564189910889e-02 2.206058502197265625e-01 -7.965797930955886841e-02 5.159984156489372253e-02 -1.158294081687927246e-01 1.466444134712219238e-01 2.266521751880645752e-01 2.272763848304748535e-02
-7.104427553713321686e-03 -2.748385258018970490e-02 1.115500088781118393e-02 -1.203341875225305557e-02 2.435513772070407867e-03 -1.052329223603010178e-02 1.960786245763301849e-02 -9.139280882664024830e-04 2.684284027054673061e-06 2.070978097617626190e-02 1.308423280715942383e-02 1.603723689913749695e-02 1.142296753823757172e-02 -9.757790714502334595e-03 -2.093871589750051498e-03 4.776280911755748093e-05 1.561582670547068119e-03 1.525923330336809158e-02 -4.833620507270097733e-03 -2.352207666262984276e-03 1.193071599118411541e-03 5.633047781884670258e-03 7.535178214311599731e-03 2.837205305695533752e-03 6.226976867765188217e-03 -5.168148316442966461e-03 1.985375955700874329e-02 -4.390937834978103638e-02 -5.185003206133842468e-02 -2.339777164161205292e-02 -1.632684608921408653e-03 -7.855973206460475922e-03 -4.082368686795234680e-02 1.010618731379508972e-02 -1.090526301413774490e-02 1.340759336017072201e-03 -9.202697314321994781e-03 1.924423500895500183e-02 -1.595819485373795033e-03 -1.468093600124120712e-03 2.178825065493583679e-02 1.159953977912664413e-02 1.524659153074026108e-02 1.338639762252569199e-02 -9.282649494707584381e-03 -2.509280806407332420e-03 -5.159918218851089478e-03 8.119081612676382065e-04 1.232411898672580719e-02 -3.552179550752043724e-03 -2.542198868468403816e-03 -1.569286687299609184e-03 3.674052422866225243e-03 6.685191765427589417e-03 4.595967940986156464e-03 8.319813758134841919e-03 -5.789038725197315216e-03 1.606929302215576172e-02 -4.405059292912483215e-02 -5.039360001683235168e-02 -2.382232993841171265e-02 -2.147831954061985016e-03 -8.966315537691116333e-03 -5.342983454465866089e-02 8.376092649996280670e-03 -1.121962442994117737e-02 2.533196471631526947e-03 -8.608222007751464844e-03 1.898091658949851990e-02 -1.143939327448606491e-03 -1.274369307793676853e-03 2.107702195644378662e-02 1.239645294845104218e-02 1.526170317083597183e-02 1.397942099720239639e-02 -9.820446372032165527e-03 -2.614412922412157059e-03 -1.588928513228893280e-03 8.523331955075263977e-03 6.875069346278905869e-03 -2.556662308052182198e-03 2.704991260543465614e-03 1.608863007277250290e-03 6.179084070026874542e-03 7.299857214093208313e-03 1.543678576126694679e-03 1.493480987846851349e-02 -6.142694037407636642e-03 1.705535128712654114e-02 -4.517986625432968140e-02 -4.834524542093276978e-02 -2.385975606739521027e-02 -2.728246152400970459e-03 -9.280475787818431854e-03 -6.611938774585723877e-02 5.250193644315004349e-03 -1.067572552710771561e-02 2.117425203323364258e-03 -8.468756452202796936e-03 1.955786533653736115e-02 -1.113235717639327049e-03 -2.580892294645309448e-03 2.190247923135757446e-02 1.150723453611135483e-02 1.557143777608871460e-02 1.474714931100606918e-02 -1.011275127530097961e-02 -6.476283888332545757e-04 -2.821824746206402779e-03 7.199672050774097443e-03 1.799251185730099678e-03 3.979214001446962357e-03 -1.015385612845420837e-03 4.300788044929504395e-03 1.670590951107442379e-03 1.001775357872247696e-02 -1.002278513624332845e-04 2.057719044387340546e-02 -1.026973593980073929e-02 1.726792752742767334e-02 -4.582712426781654358e-02 -4.733311384916305542e-02 -2.451048232614994049e-02 -3.155753947794437408e-03 -7.064248900860548019e-03 -7.926763594150543213e-02 1.222573919221758842e-03 -1.260313391685485840e-02 8.011344471015036106e-04 -7.341673132032155991e-03 1.943302154541015625e-02 -1.731053693220019341e-03 3.737768623977899551e-03 2.209041453897953033e-02 1.733433268964290619e-02 1.451134309172630310e-02 1.510931085795164108e-02 -1.193044893443584442e-02 -6.441725883632898331e-03 1.524474355392158031e-03 7.587815634906291962e-03 -6.786000449210405350e-04 4.169930703938007355e-03 1.981610199436545372e-03 -1.610325649380683899e-03 5.134472739882767200e-04 7.099135313183069229e-03 4.830705875065177679e-04 2.180118113756179810e-02 -1.398494094610214233e-02 1.451939065009355545e-02 -4.823234304785728455e-02 -5.055505037307739258e-02 -1.643406599760055542e-02 -8.431658148765563965e-03 1.729547418653964996e-02 6.630852352827787399e-03 1.984751224517822266e-02 -8.734181756153702736e-04 1.452750060707330704e-02 -9.635766036808490753e-03 -7.707704324275255203e-03 1.299188705161213875e-03 -1.343102892860770226e-03 6.275583058595657349e-03 -1.348379906266927719e-02 3.095607087016105652e-02 -9.440764784812927246e-03 1.575977355241775513e-02 1.233171438798308372e-03 2.894893474876880646e-02 3.563368692994117737e-03 7.093740627169609070e-03 -6.148507818579673767e-03 -9.324979968369007111e-03 1.432172860950231552e-02 -9.228007867932319641e-03 -6.498066795757040381e-05 -1.800769753754138947e-02 1.918687671422958374e-02 -6.354459561407566071e-03 1.325448788702487946e-02 -3.064150689169764519e-03 3.525380417704582214e-02 -3.117460524663329124e-03 7.204383291536942124e-05 -6.387957371771335602e-03 -2.711044857278466225e-03 1.835115998983383179e-02 -1.227165013551712036e-02 -5.587863735854625702e-03 -8.247924968600273132e-03 1.479245536029338837e-02 -6.482029333710670471e-03 -1.289776414632797241e-01 3.425830975174903870e-02 7.199189811944961548e-02 -1.393312513828277588e-01 3.172255307435989380e-02 3.606794029474258423e-02 6.432611495256423950e-02 2.465927749872207642e-01 -2.824747643899172544e-04 -5.105078965425491333e-02 -6.842137128114700317e-02 6.243848800659179688e-02 8.309476077556610107e-03
-8.509924635291099548e-03 1.062518823891878128e-02 4.633127152919769287e-02 2.956260181963443756e-02 -1.497790217399597168e-02 -2.105704741552472115e-03 -2.424091659486293793e-02 -9.853329509496688843e-03 -1.450674608349800110e-02 1.306481380015611649e-02 -1.195969153195619583e-02 3.279451280832290649e-03 1.318203937262296677e-02 -1.508703455328941345e-03 -1.011960208415985107e-02 4.653825424611568451e-03 -3.128524636849761009e-03 -1.402857899665832520e-02 -1.179475896060466766e-02 1.693611498922109604e-03 -1.563573256134986877e-03 -1.084765186533331871e-03 -1.492175366729497910e-02 3.690405981615185738e-03 9.149846737273037434e-04 -9.163998998701572418e-03 2.639130689203739166e-03 3.729319944977760315e-02 4.285699129104614258e-02 6.681018974632024765e-03 5.957250483334064484e-03 -1.226207427680492401e-02 1.599550805985927582e-02 4.280192777514457703e-02 2.968428283929824829e-02 -1.382325310260057449e-02 -2.435623668134212494e-03 -2.349571697413921356e-02 -1.235800329595804214e-02 -1.447882689535617828e-02 1.313690934330224991e-02 -1.345139835029840469e-02 4.887498449534177780e-03 1.350937969982624054e-02 -1.001227647066116333e-03 -1.162141840904951096e-02 1.976428553462028503e-03 -1.569701242260634899e-03 -6.815849337726831436e-03 -7.497565820813179016e-03 3.516039345413446426e-03 -9.756393264979124069e-04 2.121216151863336563e-03 -1.615120843052864075e-02 6.121614016592502594e-03 7.819739170372486115e-03 -1.097804028540849686e-02 1.795720663722022437e-06 3.877580910921096802e-02 4.173159599304199219e-02 6.306357216089963913e-03 5.044878926128149033e-03 -1.347950380295515060e-02 2.191363833844661713e-02 3.969417512416839600e-02 2.986133843660354614e-02 -1.551381777971982956e-02 -2.445795573294162750e-03 -2.391557209193706512e-02 -1.048428192734718323e-02 -1.245174836367368698e-02 1.373572368174791336e-02 -1.278703287243843079e-02 5.708903539925813675e-03 1.225171238183975220e-02 -1.317555317655205727e-03 -1.244285423308610916e-02 2.992052119225263596e-03 7.438684115186333656e-04 -1.703637186437845230e-03 -2.913741162046790123e-03 4.257697146385908127e-03 -1.510677859187126160e-03 6.876468192785978317e-03 -1.137463282793760300e-02 9.315342642366886139e-03 1.591219194233417511e-02 -9.031360037624835968e-03 6.402611616067588329e-04 4.121883958578109741e-02 3.947034105658531189e-02 6.778731942176818848e-03 7.153772749006748199e-03 -1.592258177697658539e-02 2.393483370542526245e-02 3.377816826105117798e-02 3.021324239671230316e-02 -1.546318735927343369e-02 -2.175282919779419899e-03 -2.465512230992317200e-02 -9.325344115495681763e-03 -1.192393805831670761e-02 1.360055990517139435e-02 -1.316075399518013000e-02 6.704121828079223633e-03 1.393336523324251175e-02 -2.332231029868125916e-03 -1.248227711766958237e-02 1.778084901161491871e-03 -1.125825336202979088e-03 8.041184395551681519e-03 8.416522177867591381e-04 3.652156330645084381e-03 -1.236738055013120174e-03 1.117659825831651688e-02 -7.458072621375322342e-03 1.033828966319561005e-02 3.264224901795387268e-02 -1.118556782603263855e-02 -7.324861362576484680e-03 4.377844557166099548e-02 3.970387950539588928e-02 6.981977261602878571e-03 5.045078694820404053e-03 -2.163702249526977539e-02 3.745536506175994873e-02 3.178156912326812744e-02 2.982846274971961975e-02 -1.517452765256166458e-02 -1.147181726992130280e-03 -2.427811175584793091e-02 -8.390027098357677460e-03 -6.123724393546581268e-03 1.061416510492563248e-02 -1.385414507240056992e-02 6.773510016500949860e-03 1.667833141982555389e-02 -1.344629330560564995e-03 -1.422688458114862442e-02 2.432185690850019455e-03 2.896215068176388741e-03 1.191260106861591339e-02 1.217690482735633850e-02 -7.133571198210120201e-04 6.049540243111550808e-04 6.105797365307807922e-03 -6.358593236654996872e-03 1.171261351555585861e-02 4.483371600508689880e-02 -1.084892172366380692e-02 -9.981503710150718689e-03 4.678862541913986206e-02 2.499699406325817108e-02 -1.843279576860368252e-03 -5.575311952270567417e-04 1.400166284292936325e-02 -1.452191546559333801e-02 -6.779560353606939316e-03 1.604838483035564423e-02 -6.733123213052749634e-03 -6.624822854064404964e-04 3.796985372900962830e-02 -1.324632391333580017e-02 -1.590850390493869781e-02 -1.234750915318727493e-02 -6.697556935250759125e-03 1.191523740999400616e-03 1.394502073526382446e-02 5.503261927515268326e-03 -2.058134414255619049e-02 8.816871792078018188e-03 1.585069298744201660e-02 -1.945363171398639679e-02 -1.729466137476265430e-03 3.570542857050895691e-02 -1.932749710977077484e-02 -1.119683124125003815e-02 -1.815235614776611328e-02 -2.085244655609130859e-02 -5.261834245175123215e-03 1.206026133149862289e-02 -7.255268283188343048e-03 -3.728751617018133402e-04 -6.063840191927738488e-05 2.546983957290649414e-02 -1.974687539041042328e-02 -2.487962320446968079e-02 3.513525798916816711e-02 -2.923293597996234894e-02 -1.104541681706905365e-02 -1.642768457531929016e-02 -1.534752920269966125e-02 -1.504478417336940765e-02 1.298926211893558502e-02 -2.314792722463607788e-01 9.602635353803634644e-02 -9.681046754121780396e-02 2.093674987554550171e-01 1.113161072134971619e-02 -1.266055554151535034e-01 5.065998435020446777e-02 -1.313360929489135742e-01 -4.239940270781517029e-02 -6.661092489957809448e-02 -5.394496489316225052e-03 -1.909830421209335327e-02 2.236396260559558868e-02
-3.128147125244140625e-02 9.269603528082370758e-03 1.207125652581453323e-02 7.177973631769418716e-03 -4.511911794543266296e-02 1.844294741749763489e-02 1.584338955581188202e-02 1.317821349948644638e-02 3.071378450840711594e-04 6.693392992019653320e-03 -2.010248973965644836e-02 1.011387724429368973e-02 -1.836180221289396286e-03 7.817008532583713531e-03 -1.123909838497638702e-02 3.141229040920734406e-03 -2.759217051789164543e-03 7.595314178615808487e-03 -9.645922109484672546e-03 1.914789900183677673e-03 -4.425393883138895035e-03 1.459336490370333195e-04 2.310723299160599709e-03 8.381268940865993500e-03 -3.916930407285690308e-03 1.582870376296341419e-03 5.542026832699775696e-03 -2.441870979964733124e-03 -1.305074617266654968e-02 -6.278061307966709137e-03 -9.596263058483600616e-03 -8.004821836948394775e-02 2.725937217473983765e-02 5.532244220376014709e-03 5.843382328748703003e-03 -4.646740108728408813e-02 1.913119293749332428e-02 1.425735838711261749e-02 1.319735590368509293e-02 1.808996777981519699e-03 6.757194641977548599e-03 -1.930711232125759125e-02 1.215654797852039337e-02 -2.027104143053293228e-03 7.635583635419607162e-03 -1.331239007413387299e-02 3.321519587188959122e-03 -2.019106643274426460e-03 6.256021559238433838e-03 -4.934812895953655243e-03 4.241941496729850769e-03 -3.886654274538159370e-03 -1.146471709944307804e-03 4.483768716454505920e-03 7.915280759334564209e-03 -1.665326999500393867e-03 1.973552163690328598e-03 3.540430217981338501e-03 -1.157343271188437939e-03 -1.134226005524396896e-02 -5.958241876214742661e-03 -1.032988540828227997e-02 -1.315595060586929321e-01 4.609763249754905701e-02 -7.307677878998219967e-04 4.911192692816257477e-03 -4.809041693806648254e-02 2.039866149425506592e-02 1.434423215687274933e-02 1.118305511772632599e-02 2.542034024372696877e-03 5.243578460067510605e-03 -1.899744383990764618e-02 1.398179214447736740e-02 -1.625575940124690533e-03 6.580648943781852722e-03 -1.357400044798851013e-02 4.905502777546644211e-03 -7.021804340183734894e-03 5.529375746846199036e-03 -2.098911209031939507e-03 7.320110220462083817e-03 -3.040286013856530190e-03 -1.801493577659130096e-03 2.835034392774105072e-03 6.239145528525114059e-03 8.419267833232879639e-03 1.760245417244732380e-03 4.684495273977518082e-03 4.711007350124418736e-04 -1.173737645149230957e-02 -7.753973826766014099e-03 -1.131885685026645660e-02 -1.843628138303756714e-01 6.627125293016433716e-02 -1.362585462629795074e-02 5.645364057272672653e-03 -4.802704229950904846e-02 2.196340262889862061e-02 1.606898009777069092e-02 9.774661622941493988e-03 3.723957110196352005e-03 6.323520559817552567e-03 -1.742115244269371033e-02 1.359215844422578812e-02 -1.197358476929366589e-03 6.570308934897184372e-03 -1.470014825463294983e-02 5.193134304136037827e-03 -1.222091261297464371e-02 5.499205552041530609e-03 3.633487271144986153e-03 1.126154977828264236e-02 -3.429333679378032684e-03 1.886425772681832314e-03 -7.943545933812856674e-04 3.098427783697843552e-03 1.367933209985494614e-02 7.520339568145573139e-04 5.202625412493944168e-03 -6.608299445360898972e-04 -8.031035773456096649e-03 -9.195433929562568665e-03 -1.198180206120014191e-02 -2.411314398050308228e-01 6.208612024784088135e-02 -2.677976526319980621e-02 5.565820727497339249e-03 -6.116328760981559753e-02 3.755833953619003296e-02 1.207142602652311325e-02 3.263262799009680748e-03 1.936220563948154449e-02 1.108252094127237797e-03 -3.126207506284117699e-03 2.780102565884590149e-02 -6.873989943414926529e-03 -2.289705211296677589e-03 -3.012567572295665741e-02 2.816760912537574768e-03 -1.616131886839866638e-02 9.015478193759918213e-03 4.933071322739124298e-03 1.088421791791915894e-02 1.403518021106719971e-03 3.221155377104878426e-03 -1.602923963218927383e-03 3.469205927103757858e-03 2.097396925091743469e-02 6.291413679718971252e-03 2.926228567957878113e-03 1.378117012791335583e-03 -8.702682331204414368e-03 4.319215193390846252e-03 -1.341774966567754745e-02 -2.178064780309796333e-03 2.492883242666721344e-02 2.999697811901569366e-03 -2.966465055942535400e-02 1.141930650919675827e-02 6.017308682203292847e-03 -2.664355561137199402e-04 3.185103181749582291e-03 -1.616639085114002228e-02 -2.712462656199932098e-02 1.176406908780336380e-02 -3.950049635022878647e-03 1.614461839199066162e-02 -3.264433238655328751e-03 1.964722760021686554e-02 1.358238980174064636e-03 -3.374636173248291016e-02 5.095497239381074905e-03 8.747988380491733551e-03 1.054258830845355988e-02 -7.969151483848690987e-04 -1.546413917094469070e-02 -1.790377311408519745e-02 1.723707839846611023e-02 -7.618659641593694687e-03 1.633279398083686829e-02 -6.451453547924757004e-03 1.833673939108848572e-02 4.151843488216400146e-03 -2.737142518162727356e-02 1.631236402317881584e-03 9.279792197048664093e-03 1.641447842121124268e-02 -1.899741776287555695e-02 -2.699313918128609657e-03 -2.299777977168560028e-02 1.407749112695455551e-02 -9.862955659627914429e-03 2.174321748316287994e-02 4.031121358275413513e-02 -7.977610453963279724e-03 6.704305857419967651e-02 -9.782157838344573975e-02 -6.352776288986206055e-02 -6.486515700817108154e-02 -9.881544113159179688e-02 -1.394378244876861572e-01 9.941761195659637451e-02 -2.610115893185138702e-02 -1.331857740879058838e-01 -1.188543252646923065e-02 2.728903293609619141e-02
-2.226418256759643555e-02 -1.226453110575675964e-02 -4.883689433336257935e-02 1.702486304566264153e-03 -5.302079487591981888e-03 -5.443653091788291931e-03 1.285379100590944290e-02 -4.148364998400211334e-03 5.541270598769187927e-03 2.394432900473475456e-03 2.389365993440151215e-02 1.199882570654153824e-02 -1.578718051314353943e-02 -1.890560053288936615e-02 4.130035638809204102e-03 1.161080901511013508e-03 -2.461214535287581384e-05 1.754330005496740341e-04 -1.230568811297416687e-02 5.167910363525152206e-03 -1.542723854072391987e-03 -2.318500541150569916e-03 5.119906738400459290e-03 -5.788806360214948654e-03 -1.123537775129079819e-02 6.173017900437116623e-04 1.931154984049499035e-03 -5.121080949902534485e-02 -9.268416906706988811e-04 2.024449966847896576e-02 6.043164990842342377e-03 -1.358333695679903030e-02 -1.319901924580335617e-02 -5.549993366003036499e-02 7.616218063049018383e-04 -3.977790474891662598e-03 -5.922063253819942474e-03 1.244043838232755661e-02 -5.699033848941326141e-03 4.297554958611726761e-03 3.018426941707730293e-03 2.260270155966281891e-02 1.153111457824707031e-02 -1.563188619911670685e-02 -1.736784726381301880e-02 3.563832957297563553e-03 -3.087251912802457809e-03 3.350241167936474085e-04 8.793338201940059662e-04 -1.502373069524765015e-02 -8.861493552103638649e-04 -2.698843833059072495e-03 8.947277092374861240e-04 1.261720550246536732e-03 -7.012934423983097076e-03 -8.906091563403606415e-03 -3.752407792489975691e-04 2.676795003935694695e-03 -5.205799266695976257e-02 9.872375521808862686e-04 2.150555141270160675e-02 5.660937633365392685e-03 -5.043882876634597778e-03 -1.395503897219896317e-02 -5.956301838159561157e-02 1.786604523658752441e-03 -3.445808775722980499e-03 -5.490370560437440872e-03 1.185175683349370956e-02 -6.722732447087764740e-03 4.147877916693687439e-03 3.123416099697351456e-03 2.305470593273639679e-02 1.137731410562992096e-02 -1.762374676764011383e-02 -1.753817871212959290e-02 5.430824123322963715e-03 1.835714443586766720e-03 -1.255513634532690048e-03 3.873042762279510498e-03 -9.497357532382011414e-03 -6.430868990719318390e-03 3.152346471324563026e-05 9.320458630099892616e-04 -1.187575981020927429e-03 -4.482601769268512726e-03 -9.216305799782276154e-03 3.705495037138462067e-03 4.654493182897567749e-03 -5.402347072958946228e-02 1.884809229522943497e-03 2.018283121287822723e-02 5.617273040115833282e-03 3.529570065438747406e-03 -1.516208052635192871e-02 -6.217413023114204407e-02 8.432758040726184845e-04 -4.731363151222467422e-03 -5.645785480737686157e-03 1.099524088203907013e-02 -5.596806295216083527e-03 4.252817016094923019e-03 2.471300540491938591e-03 2.303498610854148865e-02 1.301117520779371262e-02 -1.768631115555763245e-02 -1.841581426560878754e-02 3.274193033576011658e-03 4.913743585348129272e-03 -3.560233162716031075e-04 9.193249046802520752e-03 -7.771817501634359360e-03 -8.220436982810497284e-03 -8.610229124315083027e-04 -1.910070306621491909e-03 -2.016329439356923103e-03 -1.986887073144316673e-03 -6.457973271608352661e-03 2.353637479245662689e-03 5.588308908045291901e-03 -5.538908392190933228e-02 3.265773411840200424e-03 2.192914485931396484e-02 6.459528580307960510e-03 1.216081343591213226e-02 -2.238917537033557892e-02 -6.460089981555938721e-02 -1.752336509525775909e-03 -1.724799396470189095e-03 -5.816937424242496490e-03 1.050831098109483719e-02 -8.432803675532341003e-03 1.737656071782112122e-03 1.939655165188014507e-03 2.110738866031169891e-02 9.571485221385955811e-03 -1.454329118132591248e-02 -1.810477860271930695e-02 7.914067246019840240e-03 1.043535023927688599e-02 -1.276548020541667938e-03 1.278422307223081589e-02 8.698807097971439362e-03 -1.595185021869838238e-03 -4.230096004903316498e-03 -5.298710428178310394e-03 -1.020095963031053543e-02 -2.891791518777608871e-03 -3.277990734204649925e-03 2.480410039424896240e-04 8.633222430944442749e-03 -5.458646267652511597e-02 5.384228192269802094e-03 1.932897232472896576e-02 -2.872653072699904442e-03 1.005423720926046371e-02 1.001976151019334793e-02 -6.874299608170986176e-03 -3.621422126889228821e-02 -1.190178282558917999e-02 3.406498581171035767e-02 1.694200560450553894e-02 2.974111214280128479e-02 -1.421487610787153244e-02 7.512912619858980179e-03 3.297767788171768188e-02 2.511866390705108643e-02 2.690919791348278522e-04 2.405102550983428955e-02 9.220057167112827301e-03 1.229452784173190594e-03 -2.850938774645328522e-02 5.436093779280781746e-04 3.676417842507362366e-02 9.641182608902454376e-03 1.386290881782770157e-02 -1.027505658566951752e-02 1.152059645392000675e-03 2.657366730272769928e-02 2.816562354564666748e-02 4.927860107272863388e-03 3.048267401754856110e-02 1.086774747818708420e-02 2.001203829422593117e-03 -2.839869819581508636e-02 -1.455254293978214264e-02 3.793846070766448975e-02 8.401747792959213257e-03 2.468322776257991791e-02 -2.618938451632857323e-03 2.436740696430206299e-02 3.390403464436531067e-02 2.263921871781349182e-02 1.176483836024999619e-02 -1.692031323909759521e-01 8.268015831708908081e-02 -5.754138901829719543e-02 -4.800544306635856628e-02 -2.209181152284145355e-02 1.092603579163551331e-01 -9.598636627197265625e-02 4.417466465383768082e-03 -5.293443799018859863e-02 2.117089033126831055e-01 2.306590527296066284e-01 2.815617807209491730e-02 5.166674032807350159e-03
2.624062448740005493e-02 -3.035076521337032318e-02 7.476940751075744629e-03 -1.773129217326641083e-02 -1.215897966176271439e-02 3.886176273226737976e-02 -1.105217915028333664e-02 -4.179099109023809433e-03 5.783483502455055714e-04 1.631091721355915070e-02 3.689172910526394844e-03 1.484527345746755600e-02 -1.438598241657018661e-02 2.359243342652916908e-03 -1.546997018158435822e-02 3.371326019987463951e-03 -4.605543799698352814e-03 -1.005548238754272461e-02 7.958767004311084747e-03 1.164187304675579071e-02 5.270123947411775589e-03 8.424096158705651760e-04 -3.579594485927373171e-04 8.573653176426887512e-04 7.219028659164905548e-03 -2.839629305526614189e-03 8.109591901302337646e-03 8.167627267539501190e-03 -7.347674109041690826e-03 9.241878055036067963e-03 3.199439728632569313e-03 4.989320412278175354e-02 -3.775506839156150818e-02 -1.323043252341449261e-04 -1.823801547288894653e-02 -1.335528958588838577e-02 3.894488513469696045e-02 -1.109314151108264923e-02 -4.446607548743486404e-03 2.851488068699836731e-03 1.547064539045095444e-02 3.650331869721412659e-03 1.676500029861927032e-02 -1.369998883455991745e-02 1.778106670826673508e-03 -1.626861840486526489e-02 3.168605966493487358e-03 -6.709178443998098373e-03 -6.516264285892248154e-03 3.426343202590942383e-03 9.350079111754894257e-03 3.553086658939719200e-03 7.532292511314153671e-04 -2.074131509289145470e-03 5.715053062885999680e-03 6.813433021306991577e-03 2.817749278619885445e-03 7.639893330633640289e-03 8.776445873081684113e-03 -7.855875417590141296e-03 9.638492017984390259e-03 5.437709856778383255e-03 7.486584037542343140e-02 -4.266478866338729858e-02 -6.286826450377702713e-03 -1.803100667893886566e-02 -1.264786999672651291e-02 3.978890925645828247e-02 -1.150610670447349548e-02 -3.719802480190992355e-03 3.537563839927315712e-03 1.711881719529628754e-02 4.002122674137353897e-03 1.709291711449623108e-02 -1.641947031021118164e-02 1.303971395827829838e-03 -1.621723920106887817e-02 2.603880129754543304e-03 -6.043420173227787018e-03 2.577910199761390686e-03 6.197845214046537876e-04 3.135354258120059967e-03 1.805723411962389946e-03 -1.164981280453503132e-03 -3.540820209309458733e-03 1.303172390908002853e-02 5.854315590113401413e-03 4.123554099351167679e-03 5.801249295473098755e-03 8.202741853892803192e-03 -8.754710666835308075e-03 9.501651860773563385e-03 4.309588111937046051e-03 1.020521298050880432e-01 -5.280956625938415527e-02 -1.485269796103239059e-02 -1.712157018482685089e-02 -1.392685342580080032e-02 3.925964608788490295e-02 -1.144202426075935364e-02 -5.286572966724634171e-03 5.394500214606523514e-03 1.601632870733737946e-02 4.331917967647314072e-03 1.762420684099197388e-02 -1.535058487206697464e-02 1.011640531942248344e-03 -1.681694388389587402e-02 3.586413338780403137e-03 -4.897564183920621872e-03 1.370576862245798111e-02 -5.709752906113862991e-03 -1.571858418174088001e-03 2.667102497071027756e-03 -1.801538164727389812e-03 7.443321519531309605e-04 1.775737851858139038e-02 5.572221707552671432e-03 3.961462993174791336e-03 4.223691765218973160e-03 8.915141224861145020e-03 -1.118622068315744400e-02 1.048766262829303741e-02 3.769668284803628922e-03 1.274933665990829468e-01 -4.948233067989349365e-02 -2.429483644664287567e-02 -1.667428947985172272e-02 -1.438937988132238388e-02 3.787125274538993835e-02 -1.085377670824527740e-02 -5.187591537833213806e-03 1.120554842054843903e-02 1.150896027684211731e-02 6.981830578297376633e-03 1.542853005230426788e-02 -1.301927119493484497e-02 4.467800899874418974e-04 -2.230252884328365326e-02 3.729008371010422707e-03 -6.570596247911453247e-03 1.471059583127498627e-02 -1.403530128300189972e-03 -6.489517167210578918e-03 3.171589458361268044e-03 -4.751006606966257095e-03 3.245030995458364487e-03 2.076415903866291046e-02 9.256801567971706390e-03 7.365579716861248016e-03 2.303189830854535103e-03 9.669245220720767975e-03 -3.201051848009228706e-03 9.359996765851974487e-03 9.276553057134151459e-03 1.401468086987733841e-02 -3.886909922584891319e-03 -2.737666666507720947e-02 -3.923791646957397461e-02 1.721599884331226349e-02 1.593049056828022003e-02 1.825510896742343903e-02 -8.822589181363582611e-03 2.271589124575257301e-03 -2.544283680617809296e-02 2.563716471195220947e-02 -1.180001161992549896e-02 2.612945437431335449e-02 2.390996180474758148e-02 -1.530048204585909843e-03 -1.401903759688138962e-02 -4.280679672956466675e-02 2.531330659985542297e-02 1.284514926373958588e-02 1.482846960425376892e-02 -1.411737524904310703e-03 1.800167374312877655e-02 -2.331571280956268311e-02 2.434300258755683899e-02 -9.180419147014617920e-03 2.112077549099922180e-02 1.767532341182231903e-02 -3.823521779850125313e-03 -1.459244731813669205e-02 -3.400171548128128052e-02 3.004550933837890625e-02 9.607016108930110931e-03 2.759851887822151184e-02 -2.059232356259599328e-04 2.493783831596374512e-02 -1.387940440326929092e-02 3.150045126676559448e-02 -8.651557378470897675e-03 2.073702029883861542e-02 3.732389584183692932e-02 5.095308646559715271e-02 -2.747982144355773926e-01 1.194258481264114380e-01 1.141849607229232788e-01 -1.820636354386806488e-02 2.470646239817142487e-02 1.125149335712194443e-02 -3.263323009014129639e-02 -6.055201403796672821e-03 2.425571531057357788e-02 -5.301155522465705872e-02 2.929623797535896301e-02
-4.605672508478164673e-02 3.592589497566223145e-02 -1.235111337155103683e-02 1.500542182475328445e-02 -2.455719746649265289e-03 9.000153280794620514e-03 -1.379365660250186920e-02 7.780029438436031342e-03 1.911123655736446381e-02 -1.755269616842269897e-02 -9.478535503149032593e-03 -1.867866143584251404e-02 1.176150795072317123e-02 -6.656521465629339218e-03 2.268311567604541779e-02 -5.488437134772539139e-03 2.111884020268917084e-02 1.694674976170063019e-02 -1.726554334163665771e-02 -2.327869459986686707e-02 -8.786402642726898193e-03 2.498406916856765747e-03 -4.201515694148838520e-04 -7.584943436086177826e-03 2.540417946875095367e-02 -7.622352801263332367e-03 9.707406163215637207e-03 -1.281410455703735352e-02 5.112155899405479431e-02 5.024897982366383076e-04 -3.708612872287631035e-03 -4.076965898275375366e-02 2.707291394472122192e-02 -3.336122026666998863e-03 1.376734487712383270e-02 -1.528418157249689102e-03 9.554527699947357178e-03 -1.469536684453487396e-02 7.563065271824598312e-03 1.830731518566608429e-02 -1.756115630269050598e-02 -9.234770201146602631e-03 -1.955836080014705658e-02 1.375402044504880905e-02 -6.984650157392024994e-03 2.296788804233074188e-02 -4.616208374500274658e-03 1.557021122425794601e-02 1.791913807392120361e-02 -1.675984077155590057e-02 -1.957842893898487091e-02 -4.113615024834871292e-03 -1.535522867925465107e-03 -1.683579757809638977e-03 -3.637454006820917130e-03 2.681482955813407898e-02 -7.846337743103504181e-03 2.374317497014999390e-03 -1.075278688222169876e-02 5.134962126612663269e-02 6.341880070976912975e-04 -2.799862064421176910e-03 -3.442862629890441895e-02 1.678983867168426514e-02 6.468966137617826462e-03 1.298294588923454285e-02 -2.594522899016737938e-03 1.156338304281234741e-02 -1.493950746953487396e-02 7.179423235356807709e-03 1.915693283081054688e-02 -1.709479466080665588e-02 -9.101033210754394531e-03 -1.942746527493000031e-02 1.501648407429456711e-02 -6.824487820267677307e-03 2.273060753941535950e-02 -4.477465525269508362e-03 7.149751763790845871e-03 1.852015592157840729e-02 -1.401958707720041275e-02 -1.784427277743816376e-02 -9.605870582163333893e-03 2.177199581637978554e-03 -1.860402291640639305e-03 -9.007907356135547161e-04 2.839401364326477051e-02 -1.332811079919338226e-02 9.578978642821311951e-04 -8.401418104767799377e-03 4.952026158571243286e-02 3.442124288994818926e-04 -3.513783216476440430e-03 -2.726757526397705078e-02 8.820625953376293182e-03 1.839184015989303589e-02 1.308338064700365067e-02 -1.711994642391800880e-03 1.149419508874416351e-02 -1.345292665064334869e-02 8.650320582091808319e-03 1.906646601855754852e-02 -1.630854047834873199e-02 -8.948526345193386078e-03 -2.023273333907127380e-02 1.629771292209625244e-02 -6.401937454938888550e-03 2.287978120148181915e-02 -1.062989886850118637e-02 4.552042577415704727e-03 1.738865487277507782e-02 -9.894710034132003784e-03 -2.612597122788429260e-02 -1.301949378103017807e-02 -2.309334522578865290e-04 -4.330548923462629318e-03 -2.693526679649949074e-03 3.066188842058181763e-02 -1.795849017798900604e-02 -5.279625183902680874e-04 -8.079494349658489227e-03 4.647625237703323364e-02 -1.356741646304726601e-03 -2.910645911470055580e-03 -2.333771437406539917e-02 5.227715242654085159e-03 3.451789915561676025e-02 1.353491283953189850e-02 -1.502561033703386784e-03 1.140509173274040222e-02 -1.457517035305500031e-02 9.285454638302326202e-03 2.206023223698139191e-02 -1.640036515891551971e-02 -9.221897460520267487e-03 -2.037329599261283875e-02 1.493121776729822159e-02 -5.050283391028642654e-03 1.909616589546203613e-02 -3.530503483489155769e-03 7.285374449566006660e-04 9.793359786272048950e-03 -5.639028269797563553e-03 -2.969374321401119232e-02 -1.098673045635223389e-02 -1.264324528165161610e-03 -1.761322608217597008e-03 -7.134187966585159302e-03 3.198290616273880005e-02 -3.030533343553543091e-02 -1.472971634939312935e-03 -6.599023006856441498e-03 3.498281911015510559e-02 -7.794759003445506096e-04 -5.560009740293025970e-03 1.000760775059461594e-02 1.951331458985805511e-02 1.561935152858495712e-02 1.262983400374650955e-02 -4.115949559491127729e-04 -1.042504329234361649e-02 -9.370725601911544800e-03 1.203666673973202705e-03 -1.432800944894552231e-02 1.530721224844455719e-02 -8.694562315940856934e-02 1.456173323094844818e-02 1.735772704705595970e-03 -9.605728089809417725e-03 1.819117367267608643e-02 2.116741798818111420e-02 1.181058585643768311e-02 3.078692359849810600e-03 -3.495714860036969185e-03 -6.518410518765449524e-04 4.754333058372139931e-04 -3.173831477761268616e-02 1.344670820981264114e-02 -8.132787793874740601e-02 -5.707247648388147354e-03 6.089584436267614365e-03 5.063551943749189377e-03 1.196491159498691559e-02 1.718760584481060505e-03 2.968163043260574341e-02 1.094165956601500511e-03 -1.460406091064214706e-02 -9.899246506392955780e-03 -1.249841507524251938e-02 -3.342151641845703125e-02 1.322071813046932220e-02 -7.495102286338806152e-02 -8.341808803379535675e-03 7.037805393338203430e-03 5.132922157645225525e-02 -4.508074373006820679e-02 -4.142593592405319214e-02 7.863491028547286987e-02 -3.999236226081848145e-02 -6.941565871238708496e-02 -1.067437082529067993e-01 -4.057596996426582336e-02 -2.400801889598369598e-02 -1.346604377031326294e-01 1.093407496809959412e-01 -1.096264868974685669e-01 1.154893077909946442e-02
-4.645257070660591125e-02 -5.528610665351152420e-03 4.734200239181518555e-02 1.791113242506980896e-02 -3.935270383954048157e-02 -1.303012017160654068e-03 3.317337483167648315e-02 2.390499226748943329e-02 -1.231215707957744598e-02 1.450881175696849823e-02 -9.015513584017753601e-03 2.166260965168476105e-02 -4.218646325170993805e-03 3.633107058703899384e-03 -2.758760377764701843e-02 4.230197984725236893e-03 -5.170793272554874420e-03 -5.291129928082227707e-03 7.582775782793760300e-03 -4.266582618583925068e-05 -8.377361111342906952e-03 3.541736165061593056e-03 1.027578115463256836e-02 3.509691450744867325e-03 2.223983965814113617e-02 -7.568637840449810028e-03 -1.070499420166015625e-03 3.782423213124275208e-02 -1.210512500256299973e-02 8.564084419049322605e-05 -7.480631582438945770e-03 -4.628062248229980469e-02 1.416716724634170532e-02 4.698801785707473755e-02 1.813311874866485596e-02 -4.030107706785202026e-02 -1.214669551700353622e-03 3.133053332567214966e-02 2.326967753469944000e-02 -1.152017712593078613e-02 1.592969149351119995e-02 -9.051776491105556488e-03 1.925357431173324585e-02 -5.387047771364450455e-03 2.243299735710024834e-03 -2.786938287317752838e-02 -1.932559651322662830e-03 -1.418817555531859398e-03 -1.382341491989791393e-03 1.356415264308452606e-02 7.434680010192096233e-04 -5.007266532629728317e-03 9.231880307197570801e-03 7.116177119314670563e-03 -9.984795469790697098e-04 1.898097433149814606e-02 -1.022200752049684525e-02 9.654802852310240269e-04 3.861368447542190552e-02 -1.169652398675680161e-02 -1.421143184415996075e-03 -6.730163004249334335e-03 -4.635656625032424927e-02 3.501486405730247498e-02 4.724634811282157898e-02 1.849017105996608734e-02 -3.984037786722183228e-02 -3.578343603294342756e-04 3.049895726144313812e-02 2.366676926612854004e-02 -1.446850690990686417e-02 1.532601378858089447e-02 -9.337500669062137604e-03 1.782157272100448608e-02 -3.864384489133954048e-03 2.465484198182821274e-03 -2.690559625625610352e-02 -1.504906802438199520e-03 -2.320574829354882240e-03 1.619106275029480457e-03 2.218213863670825958e-02 4.259560257196426392e-03 -4.866090137511491776e-03 3.008212894201278687e-03 4.397425800561904907e-03 -5.187126225791871548e-04 9.315065108239650726e-03 -1.126365177333354950e-02 -2.150327432900667191e-03 3.866437450051307678e-02 -1.326803769916296005e-02 -2.819275250658392906e-03 -5.743750836700201035e-03 -4.458392038941383362e-02 5.583782866597175598e-02 4.648086428642272949e-02 1.739302836358547211e-02 -4.034806787967681885e-02 -1.218042452819645405e-03 2.946154214441776276e-02 2.537652477622032166e-02 -1.355748809874057770e-02 1.453504245728254318e-02 -8.420035243034362793e-03 1.981842331588268280e-02 -3.142233006656169891e-03 2.421969082206487656e-03 -2.737267874181270599e-02 6.886236369609832764e-04 -3.622161224484443665e-03 5.768672097474336624e-03 3.133824840188026428e-02 9.390378370881080627e-03 -9.298223070800304413e-03 -1.133324112743139267e-03 3.510338952764868736e-03 -3.215839620679616928e-03 3.607074264436960220e-03 -1.628581061959266663e-02 -8.541907882317900658e-04 4.036585986614227295e-02 -1.446699909865856171e-02 -3.511314978823065758e-03 -5.286320112645626068e-03 -4.170843958854675293e-02 7.100087404251098633e-02 4.825141653418540955e-02 1.833438873291015625e-02 -4.000738263130187988e-02 -7.507731788791716099e-04 2.916797809302806854e-02 2.513615600764751434e-02 -1.601366139948368073e-02 1.560141518712043762e-02 -1.104183867573738098e-02 1.750116236507892609e-02 -3.449894255027174950e-03 2.728261519223451614e-03 -2.557297050952911377e-02 -6.228349637240171432e-03 -4.790556151419878006e-03 1.006706152111291885e-02 4.482279345393180847e-02 1.359128300100564957e-02 -1.923221349716186523e-02 -6.383220199495553970e-03 7.550244336016476154e-04 -2.847896190360188484e-03 1.079170312732458115e-02 -2.536105923354625702e-02 -2.215896500274538994e-03 4.006519913673400879e-02 -1.592223905026912689e-02 -6.418016739189624786e-03 -5.177346523851156235e-03 -2.774346433579921722e-02 2.290012314915657043e-02 1.200328394770622253e-02 2.547848783433437347e-02 3.711534664034843445e-03 -2.827742509543895721e-02 1.164231076836585999e-02 -5.173586681485176086e-02 -1.067256461828947067e-02 2.600501757115125656e-03 1.181927323341369629e-02 -2.015341259539127350e-02 3.963277861475944519e-02 -3.438886627554893494e-02 3.200450167059898376e-02 2.028756029903888702e-02 3.623516857624053955e-02 -8.344417437911033630e-03 -3.076130524277687073e-02 5.959976930171251297e-03 -6.368904560804367065e-02 5.570377688854932785e-03 5.064940545707941055e-03 7.055973634123802185e-03 -1.984984427690505981e-02 3.735340386629104614e-02 -2.431453950703144073e-02 3.566813468933105469e-02 7.209733594208955765e-03 4.840937256813049316e-02 -8.516115136444568634e-03 -5.469216406345367432e-02 1.471082679927349091e-02 -6.580033153295516968e-02 6.910155992954969406e-03 2.313192561268806458e-02 1.600962504744529724e-02 -3.086351603269577026e-02 3.703673556447029114e-02 -2.338961809873580933e-01 1.002290472388267517e-01 -2.865030243992805481e-02 9.463395178318023682e-02 -1.046309545636177063e-01 1.127333641052246094e-01 1.552605628967285156e-01 -1.359459608793258667e-01 1.090223938226699829e-01 1.744051277637481689e-01 5.914437398314476013e-02 -6.259207427501678467e-02 3.440853208303451538e-02
-1.399742811918258667e-02 -8.396074920892715454e-02 3.467773087322711945e-03 2.262268774211406708e-02 -8.801400661468505859e-03 -5.225483328104019165e-02 -3.024839796125888824e-02 -3.072237828746438026e-03 -8.784483186900615692e-03 -1.276857219636440277e-02 1.838570646941661835e-02 -1.610364578664302826e-02 -1.833635754883289337e-02 1.712367666186764836e-04 9.944956749677658081e-03 1.644038828089833260e-03 -5.900728516280651093e-03 -2.796530025079846382e-04 6.570697296410799026e-03 -1.799543038941919804e-03 -6.570923142135143280e-03 2.395170973613858223e-03 -2.779019530862569809e-03 -2.644814737141132355e-02 -1.946647767908871174e-03 1.409961143508553505e-03 9.691516868770122528e-03 7.233921904116868973e-03 -3.313397290185093880e-03 5.016744602471590042e-03 -1.058216090314090252e-03 -5.225861445069313049e-03 -7.745321094989776611e-02 5.401283502578735352e-03 2.191643789410591125e-02 -9.585637599229812622e-03 -5.246310308575630188e-02 -3.104322589933872223e-02 -4.577165003865957260e-03 -1.071234792470932007e-02 -1.217532902956008911e-02 1.818022504448890686e-02 -1.666792109608650208e-02 -1.803625933825969696e-02 -7.795275305397808552e-04 1.025030203163623810e-02 6.635312922298908234e-03 -4.652220755815505981e-03 1.547648222185671329e-03 5.831422284245491028e-03 6.197378388606011868e-04 -7.072222884744405746e-03 1.322220778092741966e-03 -4.196542722638696432e-04 -2.634728886187076569e-02 -7.019650656729936600e-03 6.054894067347049713e-03 4.655058961361646652e-03 5.778143182396888733e-03 -2.627504523843526840e-03 2.504579024389386177e-03 7.509314309572800994e-05 4.582316614687442780e-03 -6.828738003969192505e-02 7.413387764245271683e-03 2.281203493475914001e-02 -8.539348840713500977e-03 -5.140457674860954285e-02 -3.115407936275005341e-02 -2.744101220741868019e-03 -1.159336697310209274e-02 -1.212653797119855881e-02 1.772399991750717163e-02 -1.791327446699142456e-02 -1.750377938151359558e-02 2.425519342068582773e-04 1.122860796749591827e-02 5.282630212604999542e-03 4.397895652800798416e-03 3.984021313954144716e-04 7.646969985216856003e-03 3.956378903239965439e-03 -5.704574286937713623e-03 -5.895221838727593422e-04 -2.061719540506601334e-03 -2.369318157434463501e-02 -1.020473521202802658e-02 5.441028159111738205e-03 2.856045262888073921e-03 7.106531877070665359e-03 -2.932621166110038757e-03 2.173122949898242950e-03 -8.345895912498235703e-04 1.299341209232807159e-02 -5.998522043228149414e-02 9.365663863718509674e-03 2.335896529257297516e-02 -7.745747920125722885e-03 -5.169123411178588867e-02 -3.005019947886466980e-02 -4.191892687231302261e-03 -9.263822808861732483e-03 -1.225230004638433456e-02 1.779371872544288635e-02 -1.848178543150424957e-02 -1.825143955647945404e-02 -1.167627633549273014e-03 1.014781277626752853e-02 3.562241094186902046e-03 4.342182539403438568e-03 1.112752477638423443e-03 1.040289085358381271e-02 1.524515077471733093e-02 9.159786277450621128e-04 -9.759292588569223881e-04 -1.006704522296786308e-03 -2.531860955059528351e-02 -1.092190388590097427e-02 8.515221066772937775e-03 1.270694658160209656e-03 6.561176851391792297e-03 -1.832565292716026306e-03 1.663752831518650055e-03 -1.688070042291656137e-04 2.060985937714576721e-02 -5.257833749055862427e-02 9.992486797273159027e-03 2.262646146118640900e-02 -6.510231178253889084e-03 -5.298097431659698486e-02 -3.019712492823600769e-02 -3.771126037463545799e-03 -1.322100311517715454e-02 -1.148593146353960037e-02 1.673993468284606934e-02 -1.869156397879123688e-02 -1.894613727927207947e-02 5.831264425069093704e-04 1.336286682635545731e-02 1.164308516308665276e-03 8.799185976386070251e-03 -4.378877580165863037e-03 4.010194912552833557e-03 6.084032356739044189e-03 -7.385343313217163086e-03 -4.013342317193746567e-03 2.698840806260704994e-03 -3.034004196524620056e-02 -7.507622707635164261e-03 1.169580034911632538e-02 -1.445917296223342419e-03 6.738751195371150970e-03 1.274466048926115036e-03 -9.056813723873347044e-05 -7.146204006858170033e-05 2.552569843828678131e-02 -2.545825392007827759e-02 3.544754907488822937e-02 6.656682491302490234e-02 1.702022273093461990e-03 -3.727293014526367188e-02 -3.085098043084144592e-02 1.517954096198081970e-02 2.560090832412242889e-02 4.472978785634040833e-02 2.628455869853496552e-03 5.203149467706680298e-02 -6.043182685971260071e-02 2.946364507079124451e-02 -1.927655003964900970e-02 3.452789410948753357e-02 6.490564346313476562e-02 5.107591859996318817e-03 -2.779477648437023163e-02 -2.188818342983722687e-02 1.650176197290420532e-02 1.191476173698902130e-02 5.188794061541557312e-02 -9.834565222263336182e-03 5.105944722890853882e-02 -5.797295644879341125e-02 2.167573384940624237e-02 -2.289714291691780090e-02 2.580681443214416504e-02 6.648202985525131226e-02 2.580243395641446114e-03 -3.364674746990203857e-02 -1.868713647127151489e-02 4.022732004523277283e-02 -1.047895662486553192e-02 5.096381902694702148e-02 -1.092505920678377151e-02 5.301563069224357605e-02 -6.377328932285308838e-02 1.128694508224725723e-02 8.780897594988346100e-03 1.146131195127964020e-02 1.124571561813354492e-01 9.407295845448970795e-03 -3.181054815649986267e-02 1.643600128591060638e-02 2.834307029843330383e-02 -3.935864940285682678e-02 9.012659639120101929e-02 -3.060908615589141846e-02 6.571348756551742554e-02 -5.816932767629623413e-02
-1.986467465758323669e-02 -8.724793791770935059e-03 2.592699788510799408e-02 -7.345191668719053268e-03 9.373458102345466614e-03 1.751386933028697968e-02 -3.221345320343971252e-02 -7.794711738824844360e-03 -3.877122944686561823e-04 1.291040983051061630e-02 -1.370861195027828217e-02 -3.285824134945869446e-02 5.960724316537380219e-03 3.281120210886001587e-03 1.278331317007541656e-02 8.286903030239045620e-04 1.103217364288866520e-03 4.536240361630916595e-03 1.367813348770141602e-02 2.481053816154599190e-03 -6.142979487776756287e-03 4.360521677881479263e-03 8.223827928304672241e-03 -1.592899486422538757e-02 -1.366696879267692566e-02 4.763453616760671139e-04 1.759682316333055496e-03 -5.568420514464378357e-03 4.813952744007110596e-02 -1.623737253248691559e-02 -9.300642646849155426e-03 -2.130299992859363556e-02 -3.297827206552028656e-04 3.200415149331092834e-02 -8.270752616226673126e-03 8.428221568465232849e-03 1.634810864925384521e-02 -3.086134791374206543e-02 -7.594075053930282593e-03 6.432625814341008663e-04 1.065735425800085068e-02 -1.324788387864828110e-02 -3.279194980859756470e-02 6.251860409975051880e-03 3.991341218352317810e-03 1.174624823033809662e-02 7.314601447433233261e-03 -3.015946422237902880e-04 2.598533406853675842e-03 1.461728103458881378e-02 3.253535833209753036e-04 -3.202307038009166718e-03 1.462303334847092628e-03 3.826299682259559631e-03 -1.665733009576797485e-02 -9.635329246520996094e-03 1.993209822103381157e-03 2.585825510323047638e-03 -4.376889672130346298e-03 4.884306713938713074e-02 -1.737895607948303223e-02 -9.953942149877548218e-03 -2.298427186906337738e-02 9.830900467932224274e-03 3.667756915092468262e-02 -9.915415197610855103e-03 6.351229734718799591e-03 1.735069230198860168e-02 -3.092438541352748871e-02 -9.209553711116313934e-03 2.177693648263812065e-03 1.089780870825052261e-02 -1.320904679596424103e-02 -3.270545229315757751e-02 5.838665179908275604e-03 2.136903814971446991e-03 1.093316264450550079e-02 -7.344562909565865993e-04 -4.122336395084857941e-03 3.186330664902925491e-03 1.886318810284137726e-02 -2.354515891056507826e-05 -8.062032982707023621e-03 4.304701462388038635e-03 1.949206460267305374e-03 -1.696099527180194855e-02 -4.462635610252618790e-03 1.313179032877087593e-03 2.599120605736970901e-03 -2.562971087172627449e-03 4.846113547682762146e-02 -1.943165808916091919e-02 -1.069529075175523758e-02 -2.395502850413322449e-02 2.328885719180107117e-02 4.380977526307106018e-02 -9.110330604016780853e-03 8.151823654770851135e-03 1.624006964266300201e-02 -2.904107980430126190e-02 -9.347391314804553986e-03 2.771639730781316757e-03 1.181596051901578903e-02 -1.387169025838375092e-02 -3.414093703031539917e-02 6.661438848823308945e-03 3.403765382245182991e-03 1.107294578105211258e-02 -3.093532577622681856e-04 -5.110832396894693375e-03 1.343679265119135380e-03 2.514540962874889374e-02 -1.357824075967073441e-04 -1.614567078649997711e-02 5.101237446069717407e-03 -9.384498116560280323e-04 -1.712981052696704865e-02 -1.272354420507326722e-04 3.335540648549795151e-03 -2.070127520710229874e-03 -2.572723431512713432e-03 4.686778038740158081e-02 -2.073975652456283569e-02 -1.022329740226268768e-02 -2.303384803235530853e-02 3.251744061708450317e-02 5.053899064660072327e-02 -1.184658892452716827e-02 -6.306919385679066181e-04 2.514229901134967804e-02 -2.867566235363483429e-02 -1.149863470345735550e-02 1.609333045780658722e-02 1.238992903381586075e-02 -5.014162510633468628e-03 -2.748757787048816681e-02 4.527736920863389969e-03 1.078993809642270207e-04 -3.868854837492108345e-03 2.542401431128382683e-03 -1.049211993813514709e-02 -6.708116852678358555e-04 2.248318120837211609e-02 5.650257226079702377e-03 -1.379376184195280075e-02 1.063400181010365486e-03 -1.796410069800913334e-03 -1.878146082162857056e-02 -8.838806534186005592e-04 -1.047976035624742508e-02 2.150058280676603317e-03 3.746140864677727222e-04 2.841376699507236481e-02 -1.121070701628923416e-02 -1.163890585303306580e-02 2.938901633024215698e-02 -1.924054510891437531e-02 -5.164488684386014938e-04 -1.650662533938884735e-02 1.918362639844417572e-02 1.825221255421638489e-02 -2.290254272520542145e-02 1.475527882575988770e-02 2.585187181830406189e-02 -1.157026924192905426e-02 1.005510799586772919e-02 -2.098718658089637756e-03 1.741196401417255402e-02 1.376952137798070908e-02 -2.823150530457496643e-02 -2.704443642869591713e-03 -1.043852604925632477e-02 2.314026281237602234e-02 1.197937130928039551e-02 -1.412227749824523926e-02 3.464566776528954506e-03 1.793269254267215729e-02 -5.466036498546600342e-03 8.915337733924388885e-03 -1.929385005496442318e-03 2.304228395223617554e-02 1.131831575185060501e-02 -3.854899480938911438e-02 -9.734397754073143005e-03 -1.382951717823743820e-02 2.376930229365825653e-02 6.075483746826648712e-03 -1.514853816479444504e-02 1.661577261984348297e-02 1.213923282921314240e-02 7.496377802453935146e-04 1.188875455409288406e-02 -9.041316807270050049e-03 2.195113897323608398e-02 2.983044832944869995e-02 -1.396288275718688965e-01 5.693591386079788208e-02 -1.180881336331367493e-01 6.763014942407608032e-02 1.339073926210403442e-01 -4.999227076768875122e-02 6.811675429344177246e-02 1.309217363595962524e-01 -3.816036507487297058e-02 9.732661396265029907e-02 -9.529193490743637085e-02 5.753167439252138138e-03
1.861436641775071621e-03 9.681916795670986176e-03 6.052566692233085632e-02 1.307291444391012192e-02 7.787303533405065536e-03 -7.363313809037208557e-03 -1.164766494184732437e-02 -4.241560585796833038e-03 1.122192945331335068e-02 5.543097853660583496e-03 2.058561891317367554e-02 4.196569323539733887e-03 6.456041708588600159e-03 6.297420710325241089e-03 2.880501002073287964e-02 -1.435836777091026306e-03 -7.868632674217224121e-03 -4.865439841523766518e-04 -2.675984054803848267e-02 -1.056957710534334183e-02 -4.588591109495609999e-04 9.283369407057762146e-03 2.663176739588379860e-03 -1.522748731076717377e-02 5.813419818878173828e-03 2.487563295289874077e-03 -7.969868369400501251e-03 -4.295048862695693970e-02 -1.490980293601751328e-02 -1.332952408120036125e-03 3.298395080491900444e-03 1.777213765308260918e-03 1.894406415522098541e-02 6.235256418585777283e-02 1.208395510911941528e-02 7.702589035034179688e-03 -7.646561134606599808e-03 -1.159993652254343033e-02 -4.122691228985786438e-03 1.258299779146909714e-02 5.215259268879890442e-03 2.103374525904655457e-02 2.275677165016531944e-03 6.177951581776142120e-03 7.389212492853403091e-03 2.962931804358959198e-02 1.261947676539421082e-03 -8.313560974784195423e-04 -1.068289973773062229e-03 -3.018742054700851440e-02 -4.736633040010929108e-03 2.571271965280175209e-03 4.205357749015092850e-03 -9.995155269280076027e-04 -1.346067991107702255e-02 1.007281150668859482e-02 8.475221693515777588e-04 -7.365038152784109116e-03 -4.389252513647079468e-02 -1.512085087597370148e-02 -1.339155249297618866e-03 3.652936313301324844e-03 8.167967462213709950e-05 2.901221252977848053e-02 6.441464275121688843e-02 1.294491998851299286e-02 9.700950235128402710e-03 -5.652528256177902222e-03 -1.402607280761003494e-02 -5.418630316853523254e-03 1.190018747001886368e-02 6.004814524203538895e-03 2.135983295738697052e-02 2.649228088557720184e-03 6.145194638520479202e-03 7.140715606510639191e-03 2.883786894381046295e-02 1.067106262780725956e-03 2.244992414489388466e-03 -2.974527189508080482e-03 -3.067488409578800201e-02 -5.885140039026737213e-03 4.471791442483663559e-03 3.038082038983702660e-03 -3.257590811699628830e-03 -9.921018965542316437e-03 1.696777902543544769e-02 4.125494044274091721e-03 -2.496427914593368769e-04 -4.297097772359848022e-02 -1.470794435590505600e-02 -2.615625271573662758e-03 3.403476672247052193e-03 -1.031205174513161182e-03 3.832944110035896301e-02 6.530229747295379639e-02 1.245258003473281860e-02 7.634490728378295898e-03 -6.952770985662937164e-03 -1.327855605632066727e-02 -3.950869664549827576e-03 1.071783620864152908e-02 5.336775910109281540e-03 1.939302124083042145e-02 2.245621057227253914e-03 7.597275543957948685e-03 7.320213131606578827e-03 2.990842796862125397e-02 3.861791628878563643e-04 1.052715443074703217e-02 -4.277629312127828598e-03 -3.109516203403472900e-02 -4.866871982812881470e-03 3.328891703858971596e-03 2.027365379035472870e-03 -2.080094534903764725e-03 -5.241347476840019226e-03 2.533043548464775085e-02 5.238689016550779343e-03 4.789725411683320999e-03 -4.391359910368919373e-02 -1.474240981042385101e-02 -1.972669735550880432e-03 3.930546343326568604e-03 -4.774031229317188263e-03 4.993819817900657654e-02 6.809821724891662598e-02 1.272095181047916412e-02 9.079700335860252380e-03 -7.199686020612716675e-03 -1.404384989291429520e-02 -5.092632025480270386e-03 8.942243643105030060e-03 5.365214310586452484e-03 1.987252384424209595e-02 -6.871167570352554321e-04 9.270939975976943970e-03 6.874626502394676208e-03 3.256988897919654846e-02 -1.515876851044595242e-03 1.806308887898921967e-02 -6.937323138117790222e-03 -2.541127242147922516e-02 -7.036251481622457504e-03 2.255560364574193954e-03 2.669701119884848595e-03 -4.609293304383754730e-03 -1.342907897196710110e-03 3.600898385047912598e-02 1.233192626386880875e-02 1.191875524818897247e-02 -4.502692446112632751e-02 -1.302632968872785568e-02 -3.399452660232782364e-03 3.040172392502427101e-03 7.583950180560350418e-03 1.566500589251518250e-02 -1.231843698769807816e-02 -5.098047200590372086e-03 -1.111864694394171238e-03 -1.616994477808475494e-02 -6.501200143247842789e-03 1.649004290811717510e-03 -1.732236146926879883e-02 -3.013120777904987335e-02 -1.569142565131187439e-02 -1.263866573572158813e-02 -1.591165177524089813e-02 1.135591417551040649e-02 1.885353215038776398e-02 -1.718788966536521912e-02 -1.737402053549885750e-03 -1.434491202235221863e-02 -1.872622966766357422e-02 -6.918819155544042587e-03 -7.200160063803195953e-03 -9.448994882404804230e-03 -2.031968161463737488e-02 -9.149386547505855560e-03 -1.031982246786355972e-02 -5.119083449244499207e-03 5.423211026936769485e-03 3.646467253565788269e-02 -2.022341080009937286e-02 7.104380521923303604e-03 -9.677082300186157227e-03 -1.340156141668558121e-02 -6.840567570179700851e-03 -1.552104949951171875e-02 -7.167788688093423843e-03 -1.450909487903118134e-02 -1.236902642995119095e-02 -1.097731944173574448e-02 5.546862957999110222e-04 1.465294510126113892e-01 2.062310278415679932e-01 -5.516760051250457764e-03 -5.038030445575714111e-02 1.087541505694389343e-02 1.486942544579505920e-02 -6.026848684996366501e-03 -2.674853205680847168e-01 -2.876246348023414612e-02 9.443970769643783569e-02 -4.312730208039283752e-02 -5.941112339496612549e-02 -8.834652602672576904e-03
8.732201904058456421e-02 3.895786404609680176e-02 4.270105808973312378e-02 -4.643674474209547043e-03 1.291623618453741074e-02 1.192680466920137405e-02 1.294060703366994858e-02 -9.007667191326618195e-03 -1.769454590976238251e-02 -1.604062505066394806e-02 8.748485706746578217e-03 1.857138797640800476e-02 2.640258893370628357e-02 1.309793558903038502e-03 -6.524458527565002441e-03 -8.994838222861289978e-03 -1.097257598303258419e-03 1.413157861679792404e-02 2.333163842558860779e-02 6.256178487092256546e-03 -1.081314589828252792e-02 9.062892757356166840e-03 -3.327221143990755081e-03 6.282126065343618393e-03 8.112827315926551819e-03 -8.188919164240360260e-03 -5.902406293898820877e-03 4.566189367324113846e-03 -4.187413956969976425e-03 4.337880760431289673e-03 1.045700162649154663e-02 8.506387472152709961e-02 4.108105227351188660e-02 3.590373322367668152e-02 -4.299232736229896545e-03 1.284902077168226242e-02 1.119685359299182892e-02 1.285218168050050735e-02 -9.974561631679534912e-03 -1.757688820362091064e-02 -1.490882597863674164e-02 8.558587171137332916e-03 1.856351271271705627e-02 2.638730593025684357e-02 1.412929617799818516e-03 -6.009693723171949387e-03 -5.911578424274921417e-03 -3.573874710127711296e-03 1.125275809317827225e-02 2.364180982112884521e-02 9.510554373264312744e-04 -8.750722743570804596e-03 3.655212000012397766e-03 -6.182863842695951462e-03 4.472754895687103271e-03 6.457338575273752213e-03 -8.378949016332626343e-03 -3.082187846302986145e-03 4.198686219751834869e-03 -4.604021552950143814e-03 3.267242573201656342e-03 1.095368620008230209e-02 8.237291872501373291e-02 4.438774660229682922e-02 2.952766604721546173e-02 -4.222658928483724594e-03 1.220075692981481552e-02 1.244851108640432358e-02 1.371022034436464310e-02 -9.026783518493175507e-03 -1.906850934028625488e-02 -1.537683606147766113e-02 8.151802234351634979e-03 1.853530481457710266e-02 2.663146145641803741e-02 8.967987378127872944e-04 -7.040668744593858719e-03 -4.669585265219211578e-03 2.050404204055666924e-03 9.316283278167247772e-03 2.792979404330253601e-02 -2.954469528049230576e-03 -5.674601998180150986e-03 1.014707522699609399e-04 -1.568724773824214935e-02 3.660407848656177521e-03 6.743646226823329926e-03 -7.271450012922286987e-03 -5.341146141290664673e-03 1.426463481038808823e-03 -3.552787704393267632e-03 4.262088332325220108e-03 1.082544028759002686e-02 7.777772098779678345e-02 5.029816925525665283e-02 2.054603211581707001e-02 -4.181484226137399673e-03 1.259397063404321671e-02 1.209197845309972763e-02 1.400007866322994232e-02 -8.829370141029357910e-03 -1.821668073534965515e-02 -1.414059661328792572e-02 7.148671429604291916e-03 1.925356686115264893e-02 2.559131942689418793e-02 1.513782073743641376e-03 -7.445062510669231415e-03 -3.009086474776268005e-03 6.430665962398052216e-03 3.498441306874155998e-03 3.142390027642250061e-02 -6.855241023004055023e-03 -5.053923232480883598e-04 -3.845803148578852415e-04 -1.942380890250205994e-02 1.999814528971910477e-03 1.020227931439876556e-02 -8.180363103747367859e-03 -5.576075986027717590e-03 -1.594979257788509130e-04 -2.090154914185404778e-03 1.994961872696876526e-03 1.075814943760633469e-02 7.501997798681259155e-02 4.753526672720909119e-02 1.069571170955896378e-02 -4.925051238387823105e-03 1.067229546606540680e-02 1.223991159349679947e-02 1.429672911763191223e-02 -7.773689460009336472e-03 -1.408404950052499771e-02 -1.342267822474241257e-02 1.016146969050168991e-02 2.008606679737567902e-02 2.382988855242729187e-02 5.925016594119369984e-04 -1.106528844684362411e-02 -3.167520335409790277e-04 1.053313165903091431e-02 7.292374037206172943e-03 2.540020458400249481e-02 -6.148685701191425323e-03 -1.375288702547550201e-03 2.599155064672231674e-03 -2.046153508126735687e-02 5.189063027501106262e-03 9.046290069818496704e-03 -4.552186932414770126e-03 -7.993112318217754364e-03 -4.316198464948683977e-04 -1.249850913882255554e-02 1.306458655744791031e-02 3.427343908697366714e-03 1.331013999879360199e-02 -4.410706833004951477e-02 1.286032050848007202e-02 4.481451958417892456e-02 -9.405123069882392883e-03 -7.286820560693740845e-02 -1.765232160687446594e-02 -8.654070086777210236e-03 2.137412130832672119e-02 2.198763936758041382e-02 2.156553231179714203e-02 6.862218957394361496e-03 -3.123523853719234467e-02 6.724823731929063797e-03 -4.157202690839767456e-02 1.954368688166141510e-02 3.712138161063194275e-02 -9.093329310417175293e-03 -7.675708830356597900e-02 -1.347004342824220657e-02 3.606076352298259735e-04 1.946382597088813782e-02 2.996083721518516541e-02 2.521582506597042084e-02 1.200132071971893311e-02 -3.242494910955429077e-02 -5.227949004620313644e-03 -5.050752311944961548e-02 3.787684068083763123e-02 3.489358350634574890e-02 -1.121744047850370407e-02 -8.001001924276351929e-02 -5.719864275306463242e-03 2.526464127004146576e-02 2.796908654272556305e-02 1.771586388349533081e-02 1.070637023076415062e-03 2.163585089147090912e-02 -3.494546562433242798e-02 4.074006527662277222e-02 -6.748728454113006592e-02 1.144499853253364563e-01 -1.088017970323562622e-01 8.409389108419418335e-02 -6.023417040705680847e-02 2.536113932728767395e-02 1.609995514154434204e-01 5.650545470416545868e-03 3.542205318808555603e-02 -8.978413045406341553e-02 7.446875423192977905e-02 -3.872310742735862732e-02
-7.510392367839813232e-02 -4.804806783795356750e-02 2.358672581613063812e-02 3.566895797848701477e-02 -5.710275843739509583e-03 -2.737481892108917236e-02 3.509694244712591171e-03 1.251601520925760269e-02 -3.389894554857164621e-04 1.457998901605606079e-02 5.375668872147798538e-03 -2.749262005090713501e-02 -2.989396825432777405e-02 -1.608015969395637512e-02 3.812185488641262054e-03 -6.529977079480886459e-03 -1.011112146079540253e-02 -1.392206177115440369e-02 -1.362027600407600403e-02 1.148228626698255539e-02 -3.218776779249310493e-03 -4.590178374201059341e-03 2.516786195337772369e-02 -1.386942900717258453e-02 1.428594905883073807e-02 -2.631337009370326996e-02 -7.619873620569705963e-03 1.609601825475692749e-02 -4.244715441018342972e-03 1.332772988826036453e-02 3.603314282372593880e-03 -7.156788557767868042e-02 -3.435355797410011292e-02 3.066607378423213959e-02 3.524108603596687317e-02 -4.457485862076282501e-03 -2.731529064476490021e-02 1.023909542709589005e-03 1.183718908578157425e-02 -2.011308912187814713e-03 1.415907312184572220e-02 6.817089859396219254e-03 -2.763527631759643555e-02 -3.078286349773406982e-02 -1.678135246038436890e-02 4.343935754150152206e-03 2.154821559088304639e-04 -1.007992587983608246e-02 -8.667388930916786194e-03 -9.935772977769374847e-03 9.603765793144702911e-03 -5.312665831297636032e-03 4.707100451923906803e-04 2.069618552923202515e-02 -1.220927853137254715e-02 -2.002694411203265190e-03 -2.345552109181880951e-02 -2.580891828984022141e-03 1.613956317305564880e-02 -4.409058950841426849e-03 1.279619988054037094e-02 4.053517710417509079e-03 -6.652321666479110718e-02 -1.884510368108749390e-02 4.007420316338539124e-02 3.553242236375808716e-02 -6.068009883165359497e-03 -2.734863758087158203e-02 -1.188623602502048016e-03 1.258022710680961609e-02 -2.641035011038184166e-03 1.446080952882766724e-02 4.941154271364212036e-03 -2.767229266464710236e-02 -3.075514547526836395e-02 -1.716895401477813721e-02 4.778784699738025665e-03 -4.093994386494159698e-03 -4.217392764985561371e-03 -4.440267570316791534e-03 -3.058985574170947075e-03 1.134782470762729645e-02 -2.589258830994367599e-03 -2.148696687072515488e-03 1.236506365239620209e-02 -9.541284292936325073e-03 -1.674740016460418701e-02 -1.818776875734329224e-02 -4.708493128418922424e-03 1.549662649631500244e-02 -3.228510031476616859e-03 1.089701242744922638e-02 4.229047801345586777e-03 -6.089756265282630920e-02 -3.081706119701266289e-03 5.138717591762542725e-02 3.457572683691978455e-02 -6.025688722729682922e-03 -2.647142484784126282e-02 -1.428243238478899002e-03 1.260072272270917892e-02 -1.700070919468998909e-03 1.381631102412939072e-02 6.444424390792846680e-03 -2.730114385485649109e-02 -3.131464123725891113e-02 -1.775185950100421906e-02 5.292826332151889801e-03 3.913925029337406158e-03 -7.455006707459688187e-03 -6.894488615216687322e-05 2.517039654776453972e-03 1.361194159835577011e-02 2.020300598815083504e-03 -5.517567624337971210e-04 8.172093890607357025e-03 -1.164152007550001144e-02 -3.391328454017639160e-02 -2.383561804890632629e-03 -9.469014592468738556e-03 1.856148988008499146e-02 -2.943142550066113472e-03 8.609077893197536469e-03 3.405727911740541458e-03 -5.547618865966796875e-02 1.553272362798452377e-02 6.330308318138122559e-02 3.481945767998695374e-02 -4.487633705139160156e-03 -2.780056744813919067e-02 -8.594571409048512578e-05 1.220995932817459106e-02 -3.818841651082038879e-03 1.475966814905405045e-02 5.847810301929712296e-03 -2.880379371345043182e-02 -3.174807876348495483e-02 -1.761220209300518036e-02 7.029265630990266800e-03 1.124675478786230087e-02 -1.223127008415758610e-03 -3.034581313841044903e-04 1.175963599234819412e-02 1.196838170289993286e-02 8.032947778701782227e-03 -5.342501681298017502e-03 6.353465374559164047e-03 -1.777131482958793640e-02 -3.573254868388175964e-02 6.101352628320455551e-03 -5.957488436251878738e-03 1.710030809044837952e-02 -1.227799453772604465e-03 7.274546194821596146e-03 4.092731047421693802e-03 1.878926344215869904e-02 -1.542460732161998749e-02 2.418486215174198151e-02 5.115219950675964355e-02 -2.926226519048213959e-02 -6.037677079439163208e-02 -4.333168640732765198e-02 -6.630225107073783875e-03 -1.867563277482986450e-02 3.232614602893590927e-03 1.167248748242855072e-02 4.211948439478874207e-02 -1.078899204730987549e-02 1.669014245271682739e-02 -1.887137070298194885e-02 2.257078327238559723e-02 5.055572092533111572e-02 -2.289707213640213013e-02 -6.223148107528686523e-02 -4.682134464383125305e-02 -1.100024394690990448e-02 -1.347203087061643600e-02 5.369037389755249023e-03 3.330699168145656586e-03 4.563225805759429932e-02 -2.310582995414733887e-02 1.568583026528358459e-02 -2.408709749579429626e-02 1.901524886488914490e-02 6.189575046300888062e-02 -1.789694279432296753e-02 -5.836796015501022339e-02 -3.380941227078437805e-02 -1.366889802739024162e-03 -3.969093039631843567e-02 1.815854944288730621e-02 9.146637283265590668e-03 4.131383821368217468e-02 -1.300756353884935379e-02 -8.893048763275146484e-02 1.608779467642307281e-02 9.532088786363601685e-02 1.727736145257949829e-01 -5.178804043680429459e-03 2.407567575573921204e-02 1.135037932544946671e-02 4.133478738367557526e-03 -1.169782504439353943e-01 6.592364609241485596e-02 -6.293444894254207611e-03 6.016630306839942932e-02 -1.123091578483581543e-02
