1.599029637873172760e-02
4.035844653844833374e-02
-1.042632665485143661e-02
6.334006041288375854e-02
5.085632577538490295e-02
6.401710212230682373e-02
2.114596404135227203e-02
-4.550876095890998840e-02
5.091153457760810852e-02
-2.736514806747436523e-02
-2.368657104671001434e-02
-9.238873026333749294e-04
-5.671512335538864136e-03
-2.011665888130664825e-02
4.832484200596809387e-02
5.947444587945938110e-02
1.029635313898324966e-02
1.058187684975564480e-03
5.333304405212402344e-02
-9.176547825336456299e-02
4.614181816577911377e-02
-6.059473846107721329e-03
-7.503028027713298798e-03
6.122488901019096375e-02
4.001758620142936707e-02
3.497601300477981567e-02
3.160440176725387573e-02
4.656812176108360291e-02
3.063153661787509918e-02
-1.171863451600074768e-02
4.599791392683982849e-02
8.935678750276565552e-03
-2.129486203193664551e-02
-8.271326310932636261e-03
3.465410321950912476e-03
2.336919680237770081e-02
5.336926877498626709e-02
6.859307736158370972e-02
1.636877097189426422e-02
6.265841424465179443e-02
2.516334131360054016e-02
3.113500587642192841e-02
5.564904212951660156e-02
3.025400638580322266e-02
-1.042864099144935608e-02
-7.308431435376405716e-03
2.354807592928409576e-02
-7.505559921264648438e-02
3.196433559060096741e-02
3.565833345055580139e-02
1.451746374368667603e-02
-3.663995116949081421e-02
2.041664160788059235e-02
2.247748151421546936e-02
4.359331727027893066e-02
-3.219151124358177185e-02
5.793527513742446899e-02
5.049129948019981384e-02
5.114433821290731430e-03
4.229793325066566467e-03
1.347571704536676407e-02
3.271806240081787109e-02
-5.761610344052314758e-03
-2.503097290173172951e-03
9.873234666883945465e-03
1.677812822163105011e-02
6.403880193829536438e-03
3.484746813774108887e-02
2.516039647161960602e-03
-1.252827513962984085e-02
5.745665356516838074e-02
6.568898260593414307e-02
2.371872961521148682e-02
-7.381959352642297745e-03
1.253486610949039459e-02
2.501828595995903015e-02
-1.404328458011150360e-02
5.596436187624931335e-02
-5.710784345865249634e-03
-1.925480435602366924e-03
-1.333305053412914276e-02
7.912258058786392212e-02
7.973132282495498657e-02
4.310751706361770630e-02
2.853113599121570587e-02
-1.416774187237024307e-02
6.756687909364700317e-02
2.945134602487087250e-02
3.140247613191604614e-02
-2.042905800044536591e-02
-1.237492775544524193e-03
5.370520986616611481e-03
3.802115097641944885e-03
2.996176294982433319e-02
5.907615646719932556e-02
1.570655405521392822e-02
5.920496955513954163e-02
-2.455854043364524841e-02
-2.167600393295288086e-02
1.025441475212574005e-02
8.828270435333251953e-02
-1.877584028989076614e-03
5.062966421246528625e-02
4.437303915619850159e-02
1.011634827591478825e-03
1.523026963695883751e-03
2.766879647970199585e-02
5.716324225068092346e-02
6.299320608377456665e-02
4.144735634326934814e-02
1.931289769709110260e-02
9.366494603455066681e-03
4.384703934192657471e-02
6.114148348569869995e-02
9.376751631498336792e-02
-8.209607005119323730e-02
7.427083700895309448e-02
9.710022713989019394e-04
3.607206419110298157e-02
8.829755708575248718e-03
5.185215547680854797e-02
8.479570969939231873e-03
2.053186297416687012e-02
1.880219392478466034e-02
3.187154978513717651e-02
-1.025649439543485641e-02
-1.336463354527950287e-02
-9.715783409774303436e-03
-5.042366217821836472e-03
4.608515277504920959e-02
1.318357978016138077e-02
4.187116026878356934e-02
4.912846535444259644e-02
1.542716939002275467e-02
-1.055707037448883057e-01
1.826881803572177887e-02
3.710814937949180603e-02
9.110430255532264709e-03
4.284249246120452881e-02
2.269533276557922363e-02
2.473911643028259277e-02
-2.437862381339073181e-02
-1.221182057633996010e-03
1.670674793422222137e-02
4.485891759395599365e-02
8.752661757171154022e-03
5.660576745867729187e-02
8.925545960664749146e-03
8.047723025083541870e-02
1.643478870391845703e-02
4.947013687342405319e-03
2.083811163902282715e-02
-2.384562790393829346e-02
3.509880602359771729e-02
5.917887017130851746e-02
6.930936127901077271e-02
6.482107192277908325e-02
-7.373528555035591125e-03
3.176210075616836548e-02
7.042292505502700806e-02
2.687966451048851013e-02
1.471462287008762360e-02
2.536245994269847870e-02
6.411265581846237183e-02
1.709461444988846779e-03
-7.923322729766368866e-03
2.608991041779518127e-02
5.454121902585029602e-02
7.389539480209350586e-02
-9.330582618713378906e-02
2.395925298333168030e-02
1.313432864844799042e-02
-2.780549973249435425e-02
1.919209584593772888e-02
3.787085413932800293e-02
1.334430743008852005e-02
-3.925609402358531952e-03
-1.029128022491931915e-02
4.461231455206871033e-02
-3.243779065087437630e-03
5.167247261852025986e-03
-4.485922865569591522e-03
3.558618947863578796e-02
4.552475363016128540e-02
5.602981429547071457e-03
4.267090559005737305e-02
5.282776057720184326e-02
4.374554008245468140e-02
1.480154320597648621e-02
-1.255416497588157654e-02
8.957264572381973267e-02
3.133995831012725830e-02
4.178643226623535156e-02
1.343518728390336037e-03
7.007117569446563721e-02
5.517456308007240295e-02
3.385374322533607483e-02
5.250011757016181946e-02
1.432188041508197784e-02
7.517878897488117218e-03
3.372108936309814453e-02
1.531111262738704681e-02
7.519287616014480591e-02
-1.341138593852519989e-02
2.491969242691993713e-02
2.151505276560783386e-02
1.702926866710186005e-02
6.382576376199722290e-02
-8.006564341485500336e-03
4.846792668104171753e-02
7.366076856851577759e-02
7.111592590808868408e-02
-5.861466750502586365e-02
2.876205369830131531e-02
4.563210904598236084e-02
5.727064982056617737e-02
6.624715775251388550e-02
1.724568940699100494e-02
3.035961464047431946e-02
1.148827932775020599e-02
-4.341908916831016541e-02
-9.774844348430633545e-02
-2.743304334580898285e-02
1.025456353090703487e-03
4.701749607920646667e-02
-4.332820326089859009e-02
1.033196225762367249e-02
1.559184771031141281e-02
-1.841720193624496460e-02
1.491173543035984039e-02
-1.592958159744739532e-02
8.263650350272655487e-03
3.432809561491012573e-02
2.160570770502090454e-02
1.165837049484252930e-02
4.843802005052566528e-02
8.628159016370773315e-02
6.836207211017608643e-02
2.086493559181690216e-02
-6.589635158888995647e-04
4.004795104265213013e-02
1.798934675753116608e-02
1.534302625805139542e-02
2.522061020135879517e-02
3.987216949462890625e-02
-1.081538498401641846e-01
-5.120544228702783585e-03
4.077782481908798218e-02
5.359588935971260071e-02
6.278327107429504395e-02
3.442295640707015991e-02
4.517946764826774597e-02
4.718656092882156372e-02
2.388694509863853455e-02
3.583911433815956116e-02
3.160943090915679932e-02
