-7.500797510147094727e-04 -4.614780191332101822e-03 3.009074134752154350e-03 -2.779836533591151237e-03 2.471953630447387695e-02 -4.998630378395318985e-03 -2.711550099775195122e-03 -8.525422890670597553e-04 -1.036877278238534927e-02 -3.970019146800041199e-02 4.176898673176765442e-02 -4.792599356733262539e-04 -9.879997378448024392e-06 6.071306765079498291e-03 6.435285788029432297e-03 -3.051278414204716682e-03 3.153292345814406872e-05 -6.627529393881559372e-03 -1.756964251399040222e-02 1.713340461719781160e-04 4.596124961972236633e-02 -2.398554608225822449e-02 6.457356503233313560e-04 -1.197545498143881559e-04 -5.106206983327865601e-03 -6.499282550066709518e-03 -1.097804866731166840e-02 -2.986866282299160957e-03 -7.142464164644479752e-03 4.507800936698913574e-02 1.259025558829307556e-02 -1.166107249446213245e-03 -5.660890601575374603e-04 -3.964500501751899719e-03 -6.888447795063257217e-03 -4.040641710162162781e-03 2.526346966624259949e-02 -1.742782257497310638e-02 -2.189708757214248180e-04 4.501868039369583130e-02 4.279730201233178377e-04 1.366431266069412231e-02 -5.695464555174112320e-03 1.080501917749643326e-02 -8.424227125942707062e-03 5.123772192746400833e-03 -5.927377496846020222e-04 3.092550032306462526e-04 1.016180380247533321e-03 -3.027540864422917366e-03 4.151161387562751770e-02 5.924871657043695450e-03 -3.459910294623114169e-05 8.656485588289797306e-04 4.053696058690547943e-03 -5.166551563888788223e-03 -2.524924930185079575e-04 -2.542043849825859070e-02 -1.969294855371117592e-03 -1.585656963288784027e-02 6.517635192722082138e-03 -2.052822237601503730e-04 1.222257036715745926e-02 4.426567102200351655e-05 2.816048823297023773e-02 -1.892616972327232361e-02 3.916954447049647570e-04 -5.133220925927162170e-03 -8.372649550437927246e-03 1.017243973910808563e-02 -5.839091725647449493e-03 3.550968365743756294e-03 1.176460459828376770e-02 -7.766998372972011566e-03 -2.907826819864567369e-05 -1.284008286893367767e-02 1.204803679138422012e-02 -6.334057543426752090e-03 -1.262948103249073029e-02 -6.858681445010006428e-04 -2.418428948658402078e-06 4.492379957810044289e-04 2.231853269040584564e-02 4.979855567216873169e-02 -8.938170969486236572e-03 -4.435748996911570430e-05 -1.712521887384355068e-03 -4.616560414433479309e-03 -1.717897132039070129e-02 -3.987198695540428162e-03 3.000044636428356171e-02 9.727997821755707264e-04 -7.159758359193801880e-03 7.582928054034709930e-03 1.240463694557547569e-03 -9.587042964994907379e-03 2.054497227072715759e-02 1.354873552918434143e-02 -1.165465917438268661e-02 8.343355148099362850e-04 4.214500222587957978e-05 2.824038453400135040e-02 3.513909876346588135e-02 5.324732628650963306e-04 -5.110650788992643356e-03 -2.545864507555961609e-02 1.889135316014289856e-02 -4.071005061268806458e-02 -4.746005404740571976e-03 -5.896908231079578400e-03 6.951624061912298203e-03 1.644819229841232300e-02 1.229188783327117562e-04 -4.379597085062414408e-04 -3.555929753929376602e-03 6.610945565626025200e-04 9.073773071577306837e-06 -1.341666793450713158e-04 -2.610821835696697235e-02 3.381785470992326736e-03 7.155603962019085884e-04 1.034426223486661911e-02 9.284324944019317627e-03 -4.168428713455796242e-04 -6.247496232390403748e-03 3.973511978983879089e-03 -1.375442650169134140e-02 2.539131231606006622e-02 -4.293356323614716530e-04 9.759670123457908630e-03 -1.420548092573881149e-02 1.819015014916658401e-03 3.656774759292602539e-02 -1.638226649447460659e-06 4.801391623914241791e-03 2.101434767246246338e-02 6.836338900029659271e-03 2.462550438940525055e-02 -6.684785708785057068e-03 -7.621201075380668044e-05 -1.813197159208357334e-04 6.836033891886472702e-03 -1.639914698898792267e-02 7.423461065627634525e-04 -1.588469371199607849e-02 1.680288929492235184e-03 1.505631301552057266e-02 -3.941220231354236603e-03 -2.720853546634316444e-03 -2.238929271697998047e-02 7.428036071360111237e-03 3.484175354242324829e-02 -3.707231371663510799e-04 -1.656877249479293823e-02 -6.909547373652458191e-04 -9.873082861304283142e-03 2.247318625450134277e-02 -6.071308162063360214e-03 -4.451585700735449791e-04 5.215340293943881989e-03 3.308803308755159378e-03 -2.066161110997200012e-02 -2.691155858337879181e-02 4.778225556947290897e-04 2.832055650651454926e-02 7.088760845363140106e-03 -1.757481880486011505e-02 -3.417795058339834213e-03 8.814634056761860847e-04 -2.893411088734865189e-03 1.861484907567501068e-02 -8.603347232565283775e-04 -5.341778974980115891e-03 -6.826013326644897461e-03 -1.943326368927955627e-02 1.844521798193454742e-02 -2.752400562167167664e-02 1.525418716482818127e-03 -1.769892312586307526e-02 1.452224515378475189e-02 -8.442999678663909435e-04 2.367755956947803497e-02 -1.766993105411529541e-02 -9.023334830999374390e-03 8.298269473016262054e-03 -8.561653085052967072e-03 1.039529964327812195e-02 7.819487946107983589e-04 1.192644238471984863e-03 -1.527974382042884827e-02 -3.755569225177168846e-03 5.152560770511627197e-04 2.144049108028411865e-02 -1.821514405310153961e-02 -6.647766102105379105e-03 7.734347018413245678e-04 1.157123129814863205e-02 8.293752558529376984e-03 -5.989877972751855850e-03 6.450223270803689957e-03 -6.342030246742069721e-04 -5.476531106978654861e-03 3.739587962627410889e-02 -1.510920841246843338e-02 7.462050998583436012e-04 7.315193652175366879e-04 2.653337083756923676e-02 4.731616750359535217e-02 -4.686262086033821106e-02 2.181440591812133789e-02 3.522451879689469934e-05 3.081212937831878662e-02 2.417392283678054810e-02 2.932210220023989677e-03 3.740138188004493713e-02 -2.029866166412830353e-02 1.749108172953128815e-02 -1.882766187191009521e-02 -4.353885538876056671e-03 -9.216684702550992370e-05 -1.455981470644474030e-02 2.162912301719188690e-02 -2.564435453678015620e-05 -1.244244514964520931e-03 -7.498627062886953354e-03 -1.032101083546876907e-02 6.258797366172075272e-03 7.379632443189620972e-04 7.430441677570343018e-03 -4.802105104317888618e-05 7.498658727854490280e-03 -1.957538723945617676e-02 -5.031286738812923431e-03 -1.098216976970434189e-02 6.752758054062724113e-04 2.186133293434977531e-03 -9.678905829787254333e-03 1.537451799958944321e-02 -3.981288755312561989e-04 1.169009134173393250e-02 2.678506821393966675e-02 1.318475138396024704e-02 -2.710188527998980135e-05 -5.386132397688925266e-05 5.141614819876849651e-04 2.572566154412925243e-04 -6.953956326469779015e-04 3.921907395124435425e-02 3.962601535022258759e-03 9.776268154382705688e-03 -8.274175226688385010e-03 -1.059824228286743164e-02 -1.445676293224096298e-02 -4.912779666483402252e-03 -8.823128417134284973e-03 7.006590603850781918e-04
7.450420525856316090e-04 -2.191473916172981262e-02 -3.170294314622879028e-02 2.067712508141994476e-02 -2.021192014217376709e-02 4.153795540332794189e-03 -4.973995964974164963e-03 -2.848490257747471333e-04 3.438564762473106384e-02 3.301556454971432686e-03 -4.374087147880345583e-04 -4.488930280786007643e-04 -1.004990990622900426e-04 3.346105292439460754e-02 -1.052604615688323975e-02 3.221136517822742462e-03 7.501901127398014069e-04 -7.271028123795986176e-03 2.306929789483547211e-02 3.242370075895451009e-05 3.031544014811515808e-02 4.221257567405700684e-02 3.713964542839676142e-04 -4.686411120928823948e-04 9.827889502048492432e-03 1.680826209485530853e-02 4.141748324036598206e-02 1.641263626515865326e-02 -7.090876344591379166e-03 -1.440769899636507034e-02 -6.873437762260437012e-02 1.754846889525651932e-04 3.009209758602082729e-04 -1.822604797780513763e-02 -3.644345328211784363e-03 -2.038674801588058472e-02 -4.610762000083923340e-02 -7.779109873808920383e-04 -5.353998858481645584e-04 3.908270969986915588e-03 -1.066402904689311981e-02 2.004566974937915802e-02 2.761763753369450569e-03 2.226748876273632050e-02 2.942496910691261292e-03 3.683568164706230164e-02 5.395634798333048820e-04 -1.949823054019361734e-04 -3.727864823304116726e-04 -1.534741278737783432e-02 1.452650595456361771e-02 -2.925056219100952148e-02 -1.992372272070497274e-04 2.491104241926223040e-04 2.061987109482288361e-02 3.176942840218544006e-02 -1.588485203683376312e-02 3.669599443674087524e-02 2.919709368143230677e-04 -6.926244590431451797e-03 -2.574280463159084320e-02 1.113352715037763119e-03 -1.003478001803159714e-02 -1.268129446543753147e-03 -4.692781250923871994e-03 1.690500788390636444e-02 -6.509954982902854681e-05 3.373089944943785667e-03 -4.570167046040296555e-03 1.645424589514732361e-02 1.831261999905109406e-02 -2.386082196608185768e-03 -4.828998353332281113e-03 2.998284064233303070e-02 4.139169759582728148e-04 1.571562699973583221e-02 -4.085690248757600784e-03 4.416476003825664520e-03 2.634355798363685608e-02 2.207889966666698456e-02 1.859232317656278610e-03 7.191179902292788029e-04 -1.068723481148481369e-02 -1.264413353055715561e-02 -3.570496104657649994e-03 -1.615983434021472931e-03 -2.818053215742111206e-02 -1.308798231184482574e-02 9.847121313214302063e-03 -4.567808937281370163e-03 8.972107432782649994e-03 -8.038516389206051826e-04 -1.493484154343605042e-02 2.086918987333774567e-02 -1.005999743938446045e-03 -5.109689198434352875e-03 -3.260089782997965813e-03 -1.966689713299274445e-02 2.259713970124721527e-02 -4.284717433620244265e-04 -9.907425555866211653e-05 3.050330653786659241e-02 7.668284699320793152e-03 -3.377891262061893940e-04 4.486974794417619705e-03 -2.648640796542167664e-02 1.132699381560087204e-02 -4.008576273918151855e-02 6.325346231460571289e-02 3.809430822730064392e-02 5.000308156013488770e-02 -3.405937924981117249e-03 -7.822193438187241554e-04 8.660904131829738617e-04 2.621345408260822296e-02 2.379638463025912642e-04 -1.350468024611473083e-03 8.751730201765894890e-04 -2.993827313184738159e-02 -1.752229989506304264e-03 -1.929662394104525447e-04 -3.506368398666381836e-02 -1.493253000080585480e-02 -1.776836143108084798e-05 -2.345557138323783875e-02 2.922348119318485260e-02 -2.602917142212390900e-02 -2.684925682842731476e-03 3.720397502183914185e-02 5.330627411603927612e-02 -1.310118008404970169e-03 1.285371137782931328e-03 3.005792386829853058e-02 2.907881280407309532e-04 -1.437448151409626007e-02 -1.067293994128704071e-02 -1.126084104180335999e-02 -7.693163119256496429e-03 -3.499580547213554382e-02 4.359780868981033564e-04 -2.042707137661636807e-06 -2.692566998302936554e-02 4.520079120993614197e-02 4.373678821139037609e-04 -2.027972973883152008e-02 -2.672896161675453186e-02 7.811603136360645294e-03 3.444491187110543251e-03 -6.757830735296010971e-03 -3.539571538567543030e-03 -1.702801138162612915e-02 5.671195220202207565e-03 6.864684837637469172e-05 2.843406982719898224e-02 2.946099848486483097e-04 4.778720438480377197e-02 -1.243362203240394592e-02 9.873918257653713226e-03 5.713128019124269485e-03 -1.352783385664224625e-02 3.016007132828235626e-02 -3.383587300777435303e-02 2.533945813775062561e-02 -2.226286334916949272e-03 -1.371989026665687561e-02 -2.769770473241806030e-02 4.555045440793037415e-02 5.335538089275360107e-02 -5.269898683764040470e-04 -2.773511968553066254e-02 5.511219054460525513e-02 -5.419197841547429562e-04 1.813803240656852722e-02 -4.826208576560020447e-03 9.151875972747802734e-03 -1.111964229494333267e-02 7.053017150610685349e-03 -3.375182859599590302e-04 3.391352668404579163e-02 -1.768224872648715973e-02 -3.263079375028610229e-02 -3.051691502332687378e-02 1.248183776624500751e-03 8.921237662434577942e-03 -1.933574862778186798e-02 -2.665807493031024933e-02 2.053931169211864471e-02 4.801449176738969982e-05 -1.780572929419577122e-03 3.974287211894989014e-02 -8.109938353300094604e-03 1.975948922336101532e-02 7.260501384735107422e-03 -2.666890062391757965e-02 -1.722825504839420319e-02 1.455187052488327026e-02 1.128216926008462906e-02 3.555286303162574768e-02 5.213116109371185303e-02 -2.032451145350933075e-02 -2.095881609420757741e-05 -4.213684424757957458e-02 1.627051271498203278e-02 -1.511352509260177612e-02 -2.219284651800990105e-03 -1.290959771722555161e-03 -2.430484257638454437e-02 2.384506398811936378e-03 4.185474943369626999e-03 -3.688595816493034363e-02 1.387651078402996063e-03 1.386293862015008926e-02 -6.850758194923400879e-02 8.913195692002773285e-03 5.507119931280612946e-03 -7.236003410071134567e-03 1.331065502017736435e-02 -1.201834995299577713e-02 1.946617849171161652e-02 2.993003872688859701e-04 2.372257411479949951e-03 3.620636183768510818e-03 -2.161753363907337189e-04 -3.141301916912198067e-03 8.200724609196186066e-03 8.250926621258258820e-03 3.770633833482861519e-03 -2.417053282260894775e-02 3.482019901275634766e-02 9.131327715294901282e-06 1.965771242976188660e-02 2.354014478623867035e-02 -1.003448851406574249e-03 6.954050157219171524e-03 1.574018038809299469e-03 2.641691453754901886e-02 -2.164163254201412201e-02 -2.591815078631043434e-03 -1.129465061239898205e-03 -1.558073703199625015e-02 1.135788206011056900e-02 -1.514153438620269299e-03 -6.477616261690855026e-03 -6.701405509375035763e-04 -3.634199383668601513e-04 3.397791806492023170e-05 4.025716625619679689e-04 3.335108235478401184e-02 -1.624677516520023346e-02 -4.039301071316003799e-03 -1.284087076783180237e-02 1.756223477423191071e-02 8.199589501600712538e-05 1.816921494901180267e-02 -1.167832501232624054e-02 1.020719204097986221e-02
-5.285621155053377151e-04 -1.048172079026699066e-02 5.296497046947479248e-02 -1.640268787741661072e-02 -4.265012592077255249e-02 1.796527765691280365e-02 -2.344656921923160553e-02 1.002420787699520588e-03 -3.733971342444419861e-02 1.413913350552320480e-02 2.267402969300746918e-02 2.552303776610642672e-04 -1.396031439071521163e-05 3.265874087810516357e-02 -3.384431125596165657e-03 3.958365414291620255e-04 -7.087574922479689121e-04 6.032347679138183594e-03 1.991982199251651764e-02 -2.499533293303102255e-04 9.297490469180047512e-04 2.653055265545845032e-02 -3.358831454534083605e-04 2.109739143634214997e-04 1.758759468793869019e-02 5.280126351863145828e-03 2.433970756828784943e-02 -1.907749334350228310e-03 -6.586293224245309830e-03 2.583543024957180023e-02 1.551353000104427338e-02 -1.148511772044003010e-03 8.168268832378089428e-04 2.113990858197212219e-02 -2.263127081096172333e-02 1.671798713505268097e-02 1.636316417716443539e-03 2.877712016925215721e-03 -9.250747098121792078e-06 2.041223086416721344e-02 1.361829694360494614e-02 -4.606969654560089111e-02 7.791709620505571365e-03 -7.387586403638124466e-03 -2.325067296624183655e-02 -4.292013496160507202e-02 -4.260476853232830763e-04 2.682130980247166008e-05 -9.662222582846879959e-04 -2.155067026615142822e-02 2.726819552481174469e-02 2.070944290608167648e-03 -4.365382774267345667e-04 8.079120307229459286e-04 2.501240372657775879e-02 2.811352722346782684e-02 -7.283667474985122681e-02 6.321221590042114258e-03 4.210057377349585295e-04 -2.171172527596354485e-03 1.823904737830162048e-02 -6.382686842698603868e-05 -1.543779484927654266e-02 1.626180019229650497e-04 -2.086101286113262177e-02 1.206715311855077744e-02 3.443729365244507790e-04 6.744398269802331924e-03 -9.101378382183611393e-04 -2.499198541045188904e-02 5.052524153143167496e-03 4.134308255743235350e-04 1.740036346018314362e-02 1.552705094218254089e-02 -5.641579045914113522e-04 8.701508864760398865e-03 -5.123558640480041504e-02 -2.228384278714656830e-02 -3.624694421887397766e-03 3.064009547233581543e-02 -3.433682722970843315e-04 6.469243089668452740e-04 -1.564313843846321106e-02 2.625756198540329933e-03 1.941446028649806976e-02 2.099491248372942209e-04 1.722908765077590942e-02 6.240469869226217270e-03 -3.078697191085666418e-04 -8.299365639686584473e-03 6.487696082331240177e-04 1.394916325807571411e-03 1.955456286668777466e-02 -7.968505844473838806e-03 1.560915843583643436e-04 1.126916520297527313e-02 -6.800930947065353394e-02 -4.596860334277153015e-02 2.782652713358402252e-02 6.469124346040189266e-04 2.658944285940378904e-04 2.580696158111095428e-02 3.394714742898941040e-02 -4.346196947153657675e-04 -1.694445684552192688e-02 3.618580102920532227e-02 -2.182346582412719727e-02 3.918698523193597794e-03 -3.357120230793952942e-02 3.987399488687515259e-02 1.750455610454082489e-02 -4.144806787371635437e-02 1.674491941230371594e-04 -5.199207807891070843e-04 1.886734925210475922e-02 3.867798950523138046e-04 7.782693865010514855e-05 -2.688321401365101337e-04 -2.071100287139415741e-02 2.227198146283626556e-02 1.248012762516736984e-03 1.297214068472385406e-02 -6.066675297915935516e-03 6.338320235954597592e-05 -2.466626651585102081e-02 -6.691816728562116623e-03 3.372025385033339262e-04 -2.600280568003654480e-02 -1.775679737329483032e-02 -1.259368099272251129e-02 2.430498832836747169e-03 -2.667320892214775085e-03 -7.989604026079177856e-03 -2.200357994297519326e-04 -1.249931473284959793e-02 -2.942213974893093109e-02 1.222143881022930145e-02 -3.780170157551765442e-02 -2.868206799030303955e-02 -4.090427246410399675e-04 7.190020405687391758e-04 -2.091528475284576416e-02 -2.853246219456195831e-02 2.363663516007363796e-04 -2.807511761784553528e-02 1.324229314923286438e-02 1.056403573602437973e-02 -2.169422432780265808e-02 -3.771859221160411835e-03 -1.258292235434055328e-02 7.795147597789764404e-03 -3.116762451827526093e-02 -1.960013614734634757e-04 2.045405283570289612e-02 -6.094217042118543759e-06 9.139275178313255310e-03 1.997913978993892670e-02 -8.112372830510139465e-03 1.718988828361034393e-02 -1.562987081706523895e-02 6.770031992346048355e-03 -1.504734996706247330e-02 6.468892563134431839e-03 -7.103472203016281128e-02 -8.419301360845565796e-03 1.176255382597446442e-02 3.348658978939056396e-02 2.044242434203624725e-02 -9.830133058130741119e-05 1.109214778989553452e-02 3.215172095224261284e-03 -8.350304560735821724e-04 -2.077483199536800385e-02 1.190429925918579102e-02 1.988954376429319382e-03 -6.160987075418233871e-03 2.142944606021046638e-03 3.801483253482729197e-04 -2.444938011467456818e-02 2.867529401555657387e-03 -3.186429617926478386e-03 1.152486889623105526e-03 4.079265054315328598e-03 -7.324413210153579712e-02 1.191874686628580093e-02 1.996661769226193428e-03 1.235580909997224808e-02 4.157671646680682898e-04 -1.162672764621675014e-03 -1.635904796421527863e-02 2.330860123038291931e-02 2.502520568668842316e-03 -8.927244693040847778e-03 4.388941079378128052e-02 1.897653751075267792e-02 -1.241874601691961288e-02 2.175172418355941772e-02 -3.994049504399299622e-02 7.422438357025384903e-03 -4.656325653195381165e-02 -4.343250766396522522e-04 3.041998296976089478e-02 -2.973000518977642059e-02 -8.311427198350429535e-03 -1.796802133321762085e-02 -3.325790748931467533e-04 -9.249898605048656464e-03 -2.954634092748165131e-02 -1.296040508896112442e-02 5.718420725315809250e-03 2.574771933723241091e-04 -1.038912404328584671e-02 5.612344946712255478e-03 -4.234778229147195816e-03 2.709872648119926453e-02 1.088345050811767578e-02 1.566486060619354248e-02 -1.852122135460376740e-02 -3.767473855987191200e-03 -1.704187161521986127e-04 -6.155576929450035095e-02 -6.583715789020061493e-03 -2.476747322361916304e-04 -6.670908071100711823e-03 2.519284933805465698e-02 -9.833696298301219940e-03 -5.642131436616182327e-03 -4.948806017637252808e-02 8.853566646575927734e-02 5.200117011554539204e-04 -5.354644730687141418e-03 -3.556043654680252075e-02 -2.775670029222965240e-02 -1.774816401302814484e-02 8.205648045986890793e-04 -1.683425158262252808e-03 2.640959061682224274e-02 1.464750384911894798e-04 -5.584462196566164494e-04 2.190882153809070587e-02 2.645724825561046600e-02 -8.876623585820198059e-03 -3.559356322512030602e-03 2.762570418417453766e-02 -7.903900113888084888e-04 -1.703961752355098724e-04 4.023367364425212145e-04 1.107463613152503967e-02 -6.418525706976652145e-03 1.993482001125812531e-02 -1.668723486363887787e-02 -3.102744929492473602e-02 -2.619224973022937775e-02 1.246322877705097198e-02 3.413856262341141701e-03 -2.460640855133533478e-02
-5.604330217465758324e-04 -2.724387310445308685e-02 2.420216565951704979e-03 1.237317826598882675e-02 -1.436673337593674660e-03 -1.419022586196660995e-02 2.964359335601329803e-02 -1.693882630206644535e-03 -3.918601199984550476e-02 -1.494976039975881577e-02 1.359824556857347488e-02 -4.263782466296106577e-04 1.665275427512824535e-03 1.513417344540357590e-02 5.447929725050926208e-03 -2.230057143606245518e-04 7.884659571573138237e-04 3.894263936672359705e-04 6.683792453259229660e-03 -2.720470947679132223e-04 2.315334230661392212e-02 -2.666378160938620567e-03 2.046263834927231073e-04 3.921323514077812433e-04 -2.120383083820343018e-02 1.894516870379447937e-02 3.128190338611602783e-02 1.239477284252643585e-02 2.266990952193737030e-02 -2.993930596858263016e-03 -4.526095092296600342e-02 -2.352619310840964317e-03 -2.901442639995366335e-04 1.096063642762601376e-03 8.911069482564926147e-03 -1.985645666718482971e-02 -7.360701565630733967e-04 3.300777077674865723e-02 8.489329484291374683e-04 3.626657882705330849e-03 1.657736115157604218e-02 1.227374654263257980e-02 1.796304248273372650e-02 -1.953657343983650208e-02 4.392009228467941284e-02 2.242333255708217621e-02 -1.356243737973272800e-04 1.120951128541491926e-04 3.529036766849458218e-04 1.834875904023647308e-02 3.927385434508323669e-03 -3.429593145847320557e-02 -1.126870338339358568e-04 -1.195903634652495384e-03 -5.405161529779434204e-02 -1.316658454015851021e-04 4.253869876265525818e-03 6.525917444378137589e-03 -2.332653239136561751e-04 1.067451387643814087e-02 -1.752255484461784363e-02 8.454874478047713637e-05 1.646893331781029701e-03 2.069573092740029097e-04 9.140893816947937012e-03 -1.563476026058197021e-02 1.184339998872019351e-04 3.380693495273590088e-02 1.498222537338733673e-02 -5.204793997108936310e-03 -5.629489198327064514e-03 -1.202557515352964401e-02 -2.063095942139625549e-02 -3.132846578955650330e-02 -3.647928824648261070e-04 -1.080455258488655090e-02 -2.958923764526844025e-02 3.510560840368270874e-02 -1.837671361863613129e-02 2.336422912776470184e-02 1.192174269817769527e-03 2.491726772859692574e-04 6.480192299932241440e-03 7.952249608933925629e-03 1.573441550135612488e-03 -7.607405423186719418e-04 -1.518824789673089981e-02 4.633201286196708679e-03 -3.426843881607055664e-02 -4.034329950809478760e-02 -1.826648600399494171e-02 7.049764099065214396e-05 -2.698268555104732513e-02 2.194444276392459869e-02 -8.597197593189775944e-04 7.801434490829706192e-03 -2.459865994751453400e-02 -1.176904607564210892e-02 4.187764134258031845e-03 9.776102378964424133e-04 -3.948242519982159138e-04 5.284210667014122009e-03 2.846771618351340294e-03 -9.888171916827559471e-04 -6.818400323390960693e-02 -4.344988241791725159e-02 -1.756096817553043365e-02 -3.257715329527854919e-02 2.478209882974624634e-02 -1.795220561325550079e-02 1.534945424646139145e-02 -1.438292581588029861e-02 2.208072401117533445e-04 -4.159335512667894363e-04 3.795462474226951599e-02 2.701602061279118061e-04 7.713164814049378037e-05 9.102664771489799023e-04 2.749970741569995880e-02 1.517155300825834274e-02 -5.231100367382168770e-04 3.033347195014357567e-03 -9.919317439198493958e-03 -2.093531511491164565e-04 -6.074622273445129395e-03 -1.360677275806665421e-02 1.011881884187459946e-02 -1.029390003532171249e-02 1.124378945678472519e-02 -3.474209457635879517e-02 -1.953235361725091934e-03 -1.407187228323891759e-04 -4.403216298669576645e-03 6.366730667650699615e-04 -2.878475701436400414e-03 -3.663536533713340759e-02 1.696561835706233978e-02 -5.210372619330883026e-03 1.092805247753858566e-02 -4.465723468456417322e-04 -5.453033372759819031e-04 -2.892314270138740540e-02 2.990183979272842407e-02 1.156140468083322048e-03 -6.865027826279401779e-03 -3.940533380955457687e-03 -2.667093183845281601e-03 3.065595217049121857e-02 1.873129978775978088e-02 8.411586284637451172e-03 -1.102595496922731400e-02 -1.293927710503339767e-02 1.011007931083440781e-03 7.202570326626300812e-03 4.143898840993642807e-04 -1.202288921922445297e-02 1.166020426899194717e-02 2.417266927659511566e-02 -5.325286183506250381e-03 -1.837244816124439240e-02 -1.247783470898866653e-02 3.118039574474096298e-03 2.482285490259528160e-04 -2.973437495529651642e-02 -4.907839000225067139e-02 -2.169341407716274261e-02 -2.306934259831905365e-02 3.746418282389640808e-03 -1.675313615123741329e-05 -3.236008342355489731e-03 -1.423612330108880997e-02 1.206079032272100449e-03 1.399465836584568024e-02 4.750316590070724487e-02 -2.158125117421150208e-02 2.189712598919868469e-02 -2.195838466286659241e-02 5.066447774879634380e-04 -3.372287005186080933e-02 2.278521656990051270e-02 -5.060641840100288391e-02 6.230073515325784683e-03 2.358755841851234436e-02 -2.537098713219165802e-02 -3.135816892609000206e-03 6.652265787124633789e-03 -1.494688633829355240e-02 -7.443219656124711037e-04 9.697588975541293621e-04 -1.059695240110158920e-02 -2.174863358959555626e-03 -4.741684719920158386e-02 6.191666703671216965e-03 1.550873555243015289e-02 4.800156690180301666e-03 -3.608520328998565674e-02 -2.292401855811476707e-03 3.992552682757377625e-02 -4.569421987980604172e-03 -8.945859968662261963e-03 -2.721831260714679956e-04 -4.352457821369171143e-02 4.136329516768455505e-02 -3.764759749174118042e-02 1.658465526998043060e-02 -1.171819894807413220e-05 -6.143775768578052521e-03 1.405160035938024521e-02 -3.583956742659211159e-03 -2.762773633003234863e-02 -2.544018789194524288e-04 -2.002063207328319550e-03 -8.790894411504268646e-03 -1.486855000257492065e-02 9.990911930799484253e-03 9.380173869431018829e-03 -9.536695666611194611e-03 -1.080683991312980652e-02 1.566323637962341309e-02 1.491120315222360659e-06 -3.776497766375541687e-02 -1.143225817941129208e-03 1.553820329718291759e-04 4.156355746090412140e-03 3.662964329123497009e-02 -1.555697340518236160e-02 -2.573818340897560120e-02 -2.813370199874043465e-03 5.580987036228179932e-02 1.203270163387060165e-03 -1.706421747803688049e-02 -1.699029281735420227e-02 3.378769010305404663e-02 -2.988201379776000977e-02 5.421979003585875034e-04 -2.302609011530876160e-02 2.287384355440735817e-03 1.930633373558521271e-02 -2.422427496640011668e-04 -1.371220871806144714e-02 -1.973517797887325287e-02 2.810311561916023493e-04 1.338014937937259674e-02 -7.269027177244424820e-03 -7.006498635746538639e-04 5.569724016822874546e-04 -7.592127658426761627e-04 1.828205771744251251e-03 1.892581023275852203e-02 7.445919793099164963e-03 -1.664294861257076263e-02 -4.200368374586105347e-02 1.883355900645256042e-02 -2.659272775053977966e-02 6.821126211434602737e-03 -1.404079049825668335e-02
1.151985605247318745e-03 1.075132098048925400e-02 -3.519846498966217041e-02 4.851527884602546692e-02 3.019463736563920975e-03 1.151911448687314987e-03 -2.782261697575449944e-03 -6.617164472118020058e-04 -3.767395392060279846e-02 5.269099492579698563e-03 1.752814091742038727e-02 -2.383271930739283562e-05 -6.602401263080537319e-04 4.909469559788703918e-02 1.654964126646518707e-02 -1.215903204865753651e-03 -4.469451087061315775e-04 3.531451337039470673e-03 2.381771337240934372e-03 2.144749123544897884e-05 1.060764640569686890e-01 -1.386310812085866928e-02 -1.953819737536832690e-04 1.482407096773386002e-04 -1.190832816064357758e-02 1.971916481852531433e-02 2.109752036631107330e-02 3.397122025489807129e-02 1.747365854680538177e-02 -3.238273411989212036e-02 -1.838850975036621094e-02 2.236264292150735855e-03 -3.830949717666953802e-04 -3.762758150696754456e-02 -2.636613324284553528e-02 4.755622148513793945e-02 -1.426192931830883026e-02 7.592429965734481812e-02 -4.755319605465047061e-05 2.968063391745090485e-02 -2.150515560060739517e-03 -3.042628616094589233e-02 -5.678102001547813416e-02 1.061983685940504074e-02 -1.719285547733306885e-02 1.681583747267723083e-02 -5.077252280898392200e-04 9.042238525580614805e-05 -4.543713585007935762e-04 -3.462308645248413086e-02 1.735846698284149170e-02 -5.011843517422676086e-03 -6.382318679243326187e-04 7.048179977573454380e-04 -9.659881889820098877e-02 -4.380690865218639374e-03 -2.535532414913177490e-02 1.247409265488386154e-02 -5.487021990120410919e-04 4.166731610894203186e-03 1.513654459267854691e-02 -4.875833401456475258e-04 -4.202296957373619080e-03 3.204878885298967361e-04 -2.822767570614814758e-02 -9.245555102825164795e-02 -2.324269153177738190e-04 -2.933849813416600227e-03 2.107592672109603882e-02 -4.978861659765243530e-02 1.077058352530002594e-02 1.428348384797573090e-02 -2.981800935231149197e-04 6.966938730329275131e-03 2.546253963373601437e-04 5.604339297860860825e-03 -3.877817094326019287e-02 6.828680634498596191e-03 1.749290525913238525e-02 -1.244140863418579102e-01 2.410562592558562756e-04 4.719672724604606628e-04 -5.459302291274070740e-02 7.295351475477218628e-03 7.305043283849954605e-03 -1.302552700508385897e-04 -1.272450760006904602e-02 3.147883107885718346e-03 1.766812056303024292e-02 1.698952168226242065e-02 6.328881718218326569e-04 5.794758326373994350e-04 -8.370721712708473206e-03 4.002321138978004456e-02 -7.702671573497354984e-04 6.181094329804182053e-03 1.561856549233198166e-02 3.245069831609725952e-02 -4.946196451783180237e-03 -1.508155692135915160e-04 2.410109882475808263e-04 2.437215298414230347e-02 3.400050336495041847e-03 8.360032807104289532e-04 -1.104864701628684998e-01 -1.090427115559577942e-02 1.344414614140987396e-02 9.708933066576719284e-04 -5.205876659601926804e-03 -2.287972159683704376e-02 1.663467148318886757e-03 6.592865567654371262e-03 -9.023632737807929516e-04 -9.697405039332807064e-04 2.542896894738078117e-03 2.668235683813691139e-04 -4.090956063009798527e-04 4.762267635669559240e-04 -8.262763917446136475e-02 2.298210188746452332e-02 9.977026638807728887e-05 -3.123341128230094910e-03 -1.776606030762195587e-02 -4.165109130553901196e-04 2.663477137684822083e-02 2.806082367897033691e-02 2.775430865585803986e-02 -8.259934373199939728e-03 -4.320105537772178650e-03 2.843242883682250977e-02 5.082827992737293243e-03 2.055488293990492821e-03 -7.470295764505863190e-03 -1.032472937367856503e-03 8.777070324867963791e-04 2.742706332355737686e-03 6.154932081699371338e-02 -1.857128553092479706e-02 -1.384706329554319382e-02 -4.090244474355131388e-04 1.464470551582053304e-04 7.075668778270483017e-03 1.541886013001203537e-02 -1.422131783328950405e-03 -7.549242582172155380e-03 -5.162167362868785858e-04 1.029206160455942154e-02 7.266227621585130692e-03 9.467967785894870758e-03 4.583768919110298157e-02 3.635889850556850433e-03 1.378645654767751694e-02 4.867158713750541210e-04 4.244207218289375305e-02 -4.329614966991357505e-05 4.862721252720803022e-04 1.334605365991592407e-02 5.626777186989784241e-03 1.508273649960756302e-03 -2.676899917423725128e-02 7.394286803901195526e-03 -3.970821388065814972e-03 2.532709762454032898e-02 -1.754098199307918549e-02 3.612072765827178955e-02 6.594622042030096054e-03 3.937719389796257019e-03 2.311496529728174210e-03 4.778868460562080145e-04 -7.605453487485647202e-03 -1.542287762276828289e-03 8.089242037385702133e-04 8.780652284622192383e-02 2.258234471082687378e-02 1.085035502910614014e-02 3.028474980965256691e-03 -3.120381012558937073e-02 6.797556998208165169e-04 2.246856311103329062e-04 1.799614913761615753e-02 5.452337861061096191e-02 -3.246346605010330677e-04 6.662634015083312988e-02 3.483673185110092163e-02 4.860405169893056154e-05 1.406984752975404263e-03 6.519273854792118073e-03 -2.053544885711744428e-04 1.667597563937306404e-03 -8.476866781711578369e-02 2.522268099710345268e-03 -6.640414148569107056e-02 -2.842674963176250458e-02 -4.735377151519060135e-03 3.529019281268119812e-02 -2.568008005619049072e-02 -7.754989434033632278e-03 -3.276727721095085144e-02 -1.970116794109344482e-02 7.737628649920225143e-03 2.738315961323678493e-04 -3.656256711110472679e-03 6.304481532424688339e-03 1.485657412558794022e-02 8.589955978095531464e-03 -7.168762385845184326e-05 -3.812963608652353287e-03 1.110713649541139603e-02 5.067091900855302811e-03 2.105563320219516754e-02 4.010107368230819702e-04 2.530574426054954529e-02 -2.559187449514865875e-02 -3.510782960802316666e-03 3.952634707093238831e-02 -8.666194975376129150e-03 9.539924212731420994e-04 3.591125085949897766e-02 -2.213198877871036530e-02 6.790129700675606728e-04 -6.100519374012947083e-02 -4.019699990749359131e-02 1.126970397308468819e-03 1.634785160422325134e-02 -1.442125346511602402e-02 7.889870554208755493e-03 1.142442226409912109e-02 1.627724966965615749e-03 1.398629788309335709e-02 -2.452032349538058043e-04 7.821125909686088562e-03 -1.536277495324611664e-02 -2.119049197062849998e-03 -2.582656964659690857e-02 -8.009475277503952384e-05 -4.431810230016708374e-02 1.299436786212027073e-03 3.916744142770767212e-02 2.980453064083121717e-05 -2.547711506485939026e-02 5.884197726845741272e-02 1.235627010464668274e-02 4.423246253281831741e-03 2.035252284258604050e-03 -8.903504931367933750e-05 3.890588122885674238e-04 -4.682166327256709337e-04 8.018838241696357727e-03 1.347000151872634888e-02 8.885129354894161224e-03 -1.082160510122776031e-02 -5.910961329936981201e-02 -2.044901624321937561e-02 1.605573110282421112e-02 3.297384828329086304e-02 -2.355615049600601196e-02
-3.726493450812995434e-04 1.910413801670074463e-02 -1.513879932463169098e-02 4.458041861653327942e-02 5.704627558588981628e-02 -3.633201355114579201e-03 -1.534549798816442490e-02 3.258801007177680731e-04 -4.924439825117588043e-03 9.562764316797256470e-03 -1.125712785869836807e-02 -3.867558552883565426e-04 -8.831029408611357212e-04 -8.261371403932571411e-03 -1.402615010738372803e-02 -2.162607124773785472e-04 -4.388680390547960997e-04 -2.368608303368091583e-02 -1.418880466371774673e-02 1.240701414644718170e-03 3.073674999177455902e-02 3.654748201370239258e-02 -3.809357003774493933e-04 -6.419697310775518417e-04 1.461730524897575378e-02 7.016475498676300049e-02 3.017478622496128082e-02 6.568882148712873459e-03 -1.250625215470790863e-02 1.511723734438419342e-02 4.230538383126258850e-03 2.467763988533988595e-05 -3.636416295194067061e-05 -4.096627235412597656e-03 4.769248887896537781e-02 3.212074190378189087e-02 -1.341821718961000443e-02 4.131351038813591003e-02 4.606602888088673353e-04 9.732554666697978973e-03 -1.684316992759704590e-02 1.606665737926959991e-02 5.629749968647956848e-02 -5.682407878339290619e-03 -4.399816039949655533e-03 -2.228231728076934814e-02 -8.338540646946057677e-05 1.504009356722235680e-03 -6.309658056125044823e-04 4.293689131736755371e-02 2.589338924735784531e-03 2.352890558540821075e-02 -3.686247800942510366e-04 7.737072301097214222e-04 -1.898564957082271576e-02 -6.422875914722681046e-03 7.800948340445756912e-03 1.365984044969081879e-02 -2.394503826508298516e-04 -1.686111465096473694e-02 9.275141055695712566e-04 -5.584973841905593872e-04 -5.093227606266736984e-03 3.257749485783278942e-04 1.165646780282258987e-02 1.398755703121423721e-03 2.460797841195017099e-04 3.898344933986663818e-02 -1.552025135606527328e-02 8.567516691982746124e-03 -7.838594727218151093e-03 -3.481885418295860291e-02 -1.655907835811376572e-03 1.478648185729980469e-02 -6.257154745981097221e-04 -1.895121857523918152e-02 1.008197106420993805e-02 -1.649647951126098633e-02 3.735879063606262207e-02 1.146731618791818619e-02 -1.006305450573563576e-03 1.273439265787601471e-04 -1.272892486304044724e-02 -2.867883816361427307e-02 -1.968796364963054657e-02 1.549394946778193116e-04 7.018316071480512619e-03 -1.784272678196430206e-02 -1.400276436470448971e-03 6.134084891527891159e-03 5.300058517605066299e-03 -5.957069224677979946e-04 8.365533314645290375e-03 -7.662741700187325478e-04 -8.286481606774032116e-04 -1.852772384881973267e-02 1.028902828693389893e-02 -2.994926087558269501e-02 -8.966106921434402466e-03 4.256298780092038214e-05 -3.654411120805889368e-04 1.047585532069206238e-02 6.982974242419004440e-03 5.083907162770628929e-04 -6.595053523778915405e-02 3.271648660302162170e-02 -3.421570407226681709e-03 8.159813284873962402e-02 -3.291163966059684753e-02 9.962048381567001343e-03 8.537151734344661236e-04 1.230568438768386841e-02 -4.683692168327979743e-05 -3.504671913105994463e-04 1.031781453639268875e-02 -1.347237994195893407e-04 7.515509787481278181e-05 -9.046241757459938526e-04 2.205045195296406746e-03 -2.774029038846492767e-03 -1.328091275354381651e-05 -2.001203782856464386e-02 -8.333324454724788666e-03 1.364495110465213656e-04 1.360850594937801361e-02 8.170180954039096832e-03 -1.165675558149814606e-02 -6.414959579706192017e-02 2.570612169802188873e-02 4.588165506720542908e-02 -9.595728479325771332e-03 -1.483724452555179596e-03 -2.996020950376987457e-02 8.767424733377993107e-04 -6.279022432863712311e-03 3.666248545050621033e-02 -3.321542218327522278e-02 6.826960947364568710e-03 -2.321852184832096100e-02 7.584597333334386349e-04 7.247782777994871140e-04 4.506158002186566591e-04 -7.232621312141418457e-03 1.478979538660496473e-05 -1.298948284238576889e-02 -1.033088471740484238e-02 -2.637314610183238983e-04 -1.667372882366180420e-02 -2.034424804151058197e-02 -1.441367156803607941e-02 4.767083004117012024e-02 3.694844990968704224e-02 2.227906516054645181e-04 1.453681383281946182e-03 -2.298948384122923017e-04 1.249376125633716583e-02 5.937773734331130981e-03 -2.946187369525432587e-02 8.673834614455699921e-03 -4.240507725626230240e-03 2.205688506364822388e-02 -9.091279469430446625e-03 -4.725104081444442272e-04 3.245249157771468163e-03 -2.864213846623897552e-02 1.540421601384878159e-02 -5.102353170514106750e-02 -3.967447672039270401e-03 -1.273399393539875746e-04 -3.174924524500966072e-03 3.059513121843338013e-02 4.220576374791562557e-04 -7.189118862152099609e-02 1.675668172538280487e-02 2.099614124745130539e-03 -2.382552623748779297e-02 3.528388217091560364e-02 9.127536904998123646e-04 2.233500033617019653e-02 -1.230327039957046509e-02 -2.839461155235767365e-02 -2.386278659105300903e-02 3.542387858033180237e-02 -2.892872504889965057e-02 -6.107902619987726212e-03 -6.474872585386037827e-03 1.741675846278667450e-02 5.216890713199973106e-04 -1.506851403973996639e-03 3.836605697870254517e-02 3.808951377868652344e-02 3.687781468033790588e-02 -1.063993852585554123e-02 2.620150335133075714e-03 -9.255005978047847748e-03 4.650387167930603027e-02 -2.326777204871177673e-02 1.678820513188838959e-02 -1.139911357313394547e-02 7.628980092704296112e-03 -4.944116226397454739e-04 6.348970532417297363e-02 8.446660637855529785e-02 1.293640304356813431e-02 -2.810908667743206024e-02 2.202441974077373743e-04 -3.511368483304977417e-02 -5.901892110705375671e-02 3.602857887744903564e-02 2.035719575360417366e-03 -6.453277310356497765e-04 1.474820263683795929e-02 2.127944305539131165e-02 1.514458097517490387e-02 2.776627242565155029e-02 -1.127690728753805161e-02 1.005873084068298340e-03 3.946612123399972916e-03 3.622008021920919418e-03 5.566407344304025173e-04 -2.366249449551105499e-03 1.377804670482873917e-02 -2.804328105412423611e-04 -1.638071797788143158e-02 3.173543512821197510e-02 4.005815368145704269e-03 -5.516420933417975903e-04 -7.968924008309841156e-03 -3.873501904308795929e-03 -6.898598512634634972e-04 -3.307947656139731407e-03 -6.860070279799401760e-04 -1.890359818935394287e-02 2.213084511458873749e-02 4.905566456727683544e-04 1.174590084701776505e-02 -1.911005750298500061e-02 5.379056092351675034e-03 -3.336097870487719774e-04 -2.259199507534503937e-03 1.010097283869981766e-02 5.121732130646705627e-03 -2.118335664272308350e-02 -1.300256699323654175e-02 4.073383170180022717e-04 -4.616408259607851505e-04 1.051830549840815365e-04 5.659686401486396790e-02 -1.581116765737533569e-02 -8.132307790219783783e-03 5.928621161729097366e-03 -1.932811364531517029e-02 4.809640347957611084e-02 -5.931760650128126144e-03 -2.958613261580467224e-02 3.040004754438996315e-03
-3.008544153999537230e-04 4.769888240844011307e-03 -3.593723103404045105e-02 1.108156051486730576e-02 -5.611503031104803085e-03 -1.597166992723941803e-02 1.324182003736495972e-02 5.335575551725924015e-04 -9.219076484441757202e-03 -1.157827768474817276e-02 -2.331446390599012375e-03 -4.399585304781794548e-05 1.410005963407456875e-03 -5.295121110975742340e-03 1.092183869332075119e-03 -1.317109679803252220e-03 1.359876769129186869e-04 1.001490181806730106e-05 7.068854290992021561e-03 4.271501966286450624e-04 -2.219809219241142273e-03 -6.725602434016764164e-04 -3.175078018102794886e-05 5.302794161252677441e-04 -2.259940095245838165e-02 2.177607733756303787e-03 4.865707363933324814e-03 -2.163989283144474030e-02 -5.460716318339109421e-03 -7.270257920026779175e-02 -1.896754693007096648e-04 8.031217148527503014e-04 4.389421956147998571e-04 8.397621102631092072e-03 -8.255590684711933136e-03 -1.723630726337432861e-02 -7.701530121266841888e-03 1.724536530673503876e-02 -2.867557923309504986e-04 6.434616632759571075e-03 1.369656063616275787e-03 -2.133650891482830048e-02 8.654108271002769470e-03 6.581078749150037766e-03 1.041073258966207504e-02 2.434125868603587151e-03 -8.725995576241984963e-05 7.536348421126604080e-04 2.502487914171069860e-04 -1.282203756272792816e-02 -7.051856722682714462e-03 1.871998421847820282e-02 4.389547393657267094e-04 1.332349638687446713e-04 -1.772851869463920593e-02 5.236314143985509872e-03 -9.610843844711780548e-03 -1.165735907852649689e-02 -2.477332600392401218e-04 -1.443569269031286240e-02 1.345587242394685745e-02 -3.252637397963553667e-04 6.732872687280178070e-03 2.622856700327247381e-04 6.945600733160972595e-03 1.333562005311250687e-02 1.637039677007123828e-04 8.278099820017814636e-03 -1.817889628000557423e-03 -1.972870668396353722e-03 4.585485439747571945e-03 3.560970351099967957e-02 2.748961746692657471e-02 -4.660459700971841812e-03 2.457378141116350889e-04 -8.668532595038414001e-03 3.688994562253355980e-03 1.033037528395652771e-02 -1.142575219273567200e-02 1.440073456615209579e-02 2.310696727363392711e-04 -1.781589671736583114e-04 1.576824672520160675e-02 -4.935628175735473633e-02 -1.598756387829780579e-02 -4.724080645246431231e-05 6.148153450340032578e-03 -7.323218043893575668e-03 -4.649355541914701462e-04 1.625227369368076324e-02 -3.613542765378952026e-03 2.033734490396454930e-04 1.242874283343553543e-02 4.483398050069808960e-03 3.285607963334769011e-04 -1.143290288746356964e-02 7.098888978362083435e-03 -1.429451815783977509e-02 6.104485597461462021e-03 -8.611292578279972076e-04 -2.490463666617870331e-04 -1.773159950971603394e-02 2.577779814600944519e-04 2.524937153793871403e-04 -1.237247511744499207e-02 -3.978493914473801851e-04 6.276919972151517868e-03 7.846306078135967255e-03 1.146305352449417114e-02 5.719022825360298157e-03 6.760402116924524307e-03 -5.562520585954189301e-03 -5.831295129610225558e-05 -1.143530244007706642e-03 -1.237691566348075867e-02 7.279006531462073326e-04 -1.589994644746184349e-03 9.961775504052639008e-04 2.150648832321166992e-02 -3.038073144853115082e-02 -1.052030129358172417e-03 -8.839686401188373566e-03 1.826375536620616913e-02 -6.588018732145428658e-05 2.027424052357673645e-03 -2.056667581200599670e-02 -4.549080971628427505e-03 -3.104400122538208961e-03 1.580182462930679321e-02 -1.698737777769565582e-02 -1.123603153973817825e-02 2.806522184982895851e-03 -4.792203009128570557e-02 3.032415697816759348e-04 1.739269122481346130e-03 -4.805885720998048782e-03 1.161702070385217667e-02 3.376454859972000122e-02 -4.090660251677036285e-03 2.489249745849519968e-04 -3.230367437936365604e-04 2.450551651418209076e-02 7.705005351454019547e-03 -3.697673091664910316e-04 4.982136934995651245e-02 2.161167003214359283e-02 1.421759743243455887e-02 1.459350716322660446e-02 4.564539995044469833e-03 5.380683392286300659e-02 3.422778798267245293e-03 -1.563902129419147968e-03 1.741072919685393572e-04 4.711469635367393494e-03 9.905175829771906137e-06 -3.667344339191913605e-03 6.647944450378417969e-03 1.209591422230005264e-02 7.807564456015825272e-03 6.947027053683996201e-03 4.719827324151992798e-03 1.394988968968391418e-03 -6.838011555373668671e-03 9.630836546421051025e-03 -1.542894635349512100e-03 -1.617012429051101208e-03 -5.022243130952119827e-03 8.959098486229777336e-04 -6.459790165536105633e-05 1.375467516481876373e-02 1.135482825338840485e-02 1.002112636342644691e-03 1.005725096911191940e-02 3.644041717052459717e-02 -9.070111438632011414e-03 5.145365837961435318e-03 2.436954900622367859e-02 2.397009957348927855e-04 8.796874433755874634e-03 -3.414016962051391602e-02 -2.119410410523414612e-02 -2.821949869394302368e-02 1.572409458458423615e-02 -3.658923320472240448e-03 -4.363402724266052246e-03 -3.716989234089851379e-02 1.781754195690155029e-03 2.933227806352078915e-04 -9.013104136101901531e-04 -1.323779113590717316e-02 -1.706306077539920807e-02 -1.029826351441442966e-03 3.600259497761726379e-02 -2.597230253741145134e-03 -2.197764441370964050e-02 1.174095645546913147e-02 -2.266060374677181244e-02 -1.778435893356800079e-02 -4.018245264887809753e-03 5.989267956465482712e-03 -2.055470249615609646e-04 -1.326327864080667496e-02 4.055184777826070786e-03 1.130214054137468338e-02 -1.555094681680202484e-02 3.829812048934400082e-04 6.423972547054290771e-03 -1.580099761486053467e-02 6.449479609727859497e-02 -1.029041316360235214e-02 -6.958421436138451099e-04 -1.247909199446439743e-02 -3.918437287211418152e-02 6.566373631358146667e-04 4.573718644678592682e-03 4.467315971851348877e-02 2.131104283034801483e-02 -1.207830477505922318e-02 1.191799994558095932e-03 6.558880559168756008e-04 3.486013738438487053e-03 9.593132883310317993e-03 -4.921500221826136112e-04 -1.364369876682758331e-02 -1.451612915843725204e-02 -1.080949977040290833e-02 -5.817808676511049271e-03 -2.458336204290390015e-02 -3.592791780829429626e-02 -2.034903445746749640e-05 7.469353731721639633e-03 -2.622375264763832092e-03 1.202525477856397629e-02 6.252684979699552059e-04 4.474296292755752802e-04 -2.982371486723423004e-02 5.001552868634462357e-03 -2.062094397842884064e-03 6.492272368632256985e-04 4.389666020870208740e-03 -2.013468742370605469e-02 1.114859804511070251e-02 -3.922063624486327171e-04 -2.923784311860799789e-03 6.521564500872045755e-05 -1.214440446346998215e-03 4.981316742487251759e-04 -2.713020192459225655e-03 4.499508067965507507e-03 -3.021119628101587296e-03 3.541154786944389343e-03 3.779084887355566025e-03 -5.321715492755174637e-03 1.638426096178591251e-03 -1.308467797935009003e-02 1.852213591337203979e-02
1.050028251484036446e-03 2.225605305284261703e-03 2.315420843660831451e-02 2.193947695195674896e-02 -1.219788566231727600e-03 -2.147082937881350517e-03 8.778716437518596649e-03 -4.844543000217527151e-04 1.757339341565966606e-03 -1.043611764907836914e-02 9.329770691692829132e-03 3.274479604442603886e-05 1.930663565872237086e-04 -1.359397172927856445e-02 -2.747149951756000519e-02 5.539608537219464779e-04 7.957593188621103764e-04 -3.679144382476806641e-02 -2.307022735476493835e-02 -1.962770184036344290e-04 3.419857099652290344e-02 -3.594742715358734131e-02 2.783097734209150076e-04 -2.148502680938690901e-04 -1.327464077621698380e-02 1.663449965417385101e-02 -3.732012957334518433e-02 1.456687878817319870e-02 -1.494163833558559418e-02 5.167718511074781418e-03 4.746137559413909912e-02 -8.379428763873875141e-04 1.868951949290931225e-05 1.072370260953903198e-02 -2.196072228252887726e-02 5.050377547740936279e-02 5.645446851849555969e-02 1.711690425872802734e-02 -1.344368647551164031e-04 1.609115116298198700e-02 -3.590574488043785095e-02 -1.300835236907005310e-02 -3.003909066319465637e-02 3.538741148076951504e-04 1.543969614431262016e-03 -1.203217078000307083e-02 1.810080430004745722e-04 -1.320575014688074589e-03 8.474019705317914486e-04 -1.935970783233642578e-02 -1.560052670538425446e-02 -2.971064299345016479e-02 -2.830720331985503435e-04 1.609020691830664873e-04 -3.519043326377868652e-03 -1.951257139444351196e-02 -1.973760314285755157e-02 3.931026149075478315e-04 -9.899960132315754890e-04 -2.260051295161247253e-02 2.627881709486246109e-03 -8.873032638803124428e-04 -4.526794329285621643e-02 8.858675719238817692e-04 -1.721250452101230621e-02 -1.481236889958381653e-02 2.141342702088877559e-04 -4.523382335901260376e-02 -3.000649064779281616e-02 -3.297009691596031189e-02 8.641194552183151245e-03 -3.675105422735214233e-02 -7.682359428144991398e-04 1.279038656502962112e-02 4.593997728079557419e-04 8.638703264296054840e-03 4.340033605694770813e-02 3.972974140197038651e-03 1.495358813554048538e-02 -2.825188450515270233e-02 -7.396665751002728939e-04 5.360110080800950527e-04 4.219995066523551941e-02 3.216161625459790230e-03 -2.397308684885501862e-02 6.105953943915665150e-04 -3.665680065751075745e-02 -2.688920684158802032e-02 -1.480523031204938889e-02 -2.663522213697433472e-02 -6.200752221047878265e-03 2.272749698022380471e-04 7.446784991770982742e-03 6.549576297402381897e-03 2.706281666178256273e-04 -3.920570760965347290e-02 8.817126043140888214e-03 -1.148453354835510254e-02 -2.549138478934764862e-02 -4.861520428676158190e-04 7.900776108726859093e-04 -1.729224622249603271e-02 4.941261839121580124e-03 2.341654326301068068e-04 2.236614190042018890e-02 1.951394416391849518e-02 1.060726679861545563e-02 2.774252742528915405e-02 -1.095147710293531418e-02 -6.090743932873010635e-03 2.638661675155162811e-02 2.793105505406856537e-02 -1.300494186580181122e-04 -5.196937127038836479e-05 1.954995654523372650e-02 -2.840868728526402265e-05 -6.269639125093817711e-04 1.200784463435411453e-04 -4.553897771984338760e-03 1.406820304691791534e-02 1.742355991154909134e-03 5.163098126649856567e-02 4.911196231842041016e-02 8.215431589633226395e-04 -1.105288788676261902e-02 -2.028227224946022034e-02 2.848418615758419037e-02 -2.069023437798023224e-02 -7.774910191074013710e-04 -2.088181301951408386e-02 -4.045045003294944763e-02 2.116808434948325157e-03 -1.752873696386814117e-02 -2.331641189812216908e-05 -4.204428941011428833e-02 4.333630949258804321e-02 1.013149600476026535e-02 2.152506960555911064e-03 4.172317683696746826e-02 8.525742487108800560e-06 5.419164081104099751e-04 -3.503162041306495667e-02 -1.260189432650804520e-02 1.334006228717043996e-04 -3.955222200602293015e-03 1.550625078380107880e-02 3.423459129408001900e-03 7.662772666662931442e-03 -2.332427725195884705e-02 4.037395992781966925e-04 2.176982723176479340e-02 1.190260425209999084e-02 8.164067403413355350e-04 -2.736950851976871490e-02 -2.464540593791753054e-04 1.126717589795589447e-02 2.619164064526557922e-03 1.548825483769178391e-02 -3.006215766072273254e-02 3.023672848939895630e-02 1.748553477227687836e-02 5.699601024389266968e-02 1.651895791292190552e-02 -3.558001667261123657e-02 1.806774176657199860e-02 4.322384018450975418e-03 1.705679669976234436e-02 1.835305988788604736e-02 7.657231763005256653e-04 -1.535853836685419083e-02 -1.618257910013198853e-02 9.088842780329287052e-04 -2.519481629133224487e-02 -6.074484065175056458e-02 -9.450682438910007477e-03 1.063287723809480667e-02 2.503010816872119904e-02 -3.850039793178439140e-04 -1.020512264221906662e-02 -2.582922112196683884e-03 4.793992266058921814e-02 4.915558174252510071e-02 8.275072090327739716e-03 -3.028671490028500557e-03 2.094787359237670898e-02 -2.258694963529706001e-03 4.915220662951469421e-03 -2.907805901486426592e-04 -1.303883735090494156e-03 1.654169894754886627e-02 1.986963860690593719e-02 -6.584013346582651138e-03 9.601139463484287262e-03 1.413407456129789352e-02 1.450480241328477859e-02 -1.351999212056398392e-02 -2.022445388138294220e-02 -4.882622510194778442e-02 -4.531853366643190384e-03 2.611691690981388092e-02 -9.212958684656769037e-05 2.245069853961467743e-02 3.529006615281105042e-02 7.930083665996789932e-04 -6.648332346230745316e-03 1.843606696638744324e-05 3.706777840852737427e-02 -6.414970010519027710e-02 -9.453946724534034729e-03 3.429010882973670959e-02 -1.188947426271624863e-04 8.532382547855377197e-03 3.605311736464500427e-02 1.257810392417013645e-03 3.242286155000329018e-03 1.402004063129425049e-02 1.108795683830976486e-02 3.293963894248008728e-02 -5.665421485900878906e-02 -7.494259625673294067e-04 -5.320840980857610703e-03 -3.967998176813125610e-02 -4.379730671644210815e-05 -1.873198524117469788e-02 -4.051255434751510620e-02 1.643209834583103657e-03 -9.481296874582767487e-03 -7.023694459348917007e-03 -1.744409836828708649e-02 1.142515102401375771e-04 -1.217236742377281189e-03 3.090543672442436218e-02 8.629285730421543121e-03 -2.297257632017135620e-02 3.389228368178009987e-04 -9.289012290537357330e-03 -1.730813458561897278e-02 -7.267283741384744644e-03 -9.033444803208112717e-04 9.085287339985370636e-03 -4.508933424949645996e-02 2.866404503583908081e-02 -3.104208223521709442e-02 -1.168334856629371643e-02 -4.657421377487480640e-04 6.910303491167724133e-04 -4.056206089444458485e-04 1.017888076603412628e-02 -1.359553728252649307e-02 -3.857715800404548645e-02 -4.465698078274726868e-02 2.695270814001560211e-03 1.482378412038087845e-02 -6.612132303416728973e-03 1.341871684417128563e-03 -1.282538194209337234e-02
7.062075892463326454e-04 8.636179380118846893e-03 -3.637159243226051331e-02 3.422402078285813332e-03 2.323308773338794708e-02 -2.149736322462558746e-02 -1.140642166137695312e-02 5.102114519104361534e-04 -3.590777143836021423e-02 -2.948622778058052063e-02 1.719676947686821222e-04 3.873618552461266518e-04 -3.806497843470424414e-04 1.495470758527517319e-02 -3.730147145688533783e-03 8.673309930600225925e-04 4.399295139592140913e-04 1.814132789149880409e-03 2.729532681405544281e-02 -3.187236725352704525e-04 3.374197520315647125e-03 -2.099384367465972900e-02 -8.910734904929995537e-04 -4.509424907155334949e-04 1.683005690574645996e-02 1.492878305725753307e-03 4.461817815899848938e-02 -1.686409302055835724e-02 -2.115431940183043480e-03 1.505325362086296082e-02 -1.419357582926750183e-02 -2.686812695174012333e-05 1.262040925212204456e-03 -2.679358609020709991e-02 -1.826793700456619263e-02 9.913975372910499573e-04 9.093392640352249146e-03 1.115173380821943283e-02 -1.036161906085908413e-03 3.825084771960973740e-03 -2.755955792963504791e-03 6.283086724579334259e-03 1.768359914422035217e-02 1.078242808580398560e-02 1.656849053688347340e-03 2.675987593829631805e-02 -6.984186475165188313e-04 1.031999243423342705e-03 7.151403697207570076e-04 -3.456284478306770325e-02 -2.337895147502422333e-02 4.800760652869939804e-03 -1.077696215361356735e-03 -1.799418669179431163e-06 -3.122696187347173691e-03 3.455239906907081604e-02 1.097458298318088055e-03 -7.598563563078641891e-03 -4.399815807119011879e-04 -3.799856174737215042e-03 -1.763697154819965363e-02 2.120475837728008628e-04 1.059710700064897537e-02 1.389047538395971060e-04 7.156248670071363449e-03 2.600582502782344818e-02 -3.671335289254784584e-04 1.295167300850152969e-02 -1.403270289301872253e-02 -3.411091864109039307e-02 2.072787377983331680e-03 -9.258802048861980438e-03 -2.448135986924171448e-02 -4.086561966687440872e-03 -2.721295095398090780e-05 3.566601779311895370e-03 8.333589136600494385e-02 -9.207544848322868347e-03 1.082082628272473812e-03 1.851766183972358704e-02 -1.255843439139425755e-03 7.400938193313777447e-04 3.084585536271333694e-03 -2.697569876909255981e-02 1.158006675541400909e-02 1.593482302268967032e-04 -1.621620915830135345e-02 -8.655792102217674255e-03 1.040735747665166855e-02 9.313257411122322083e-03 9.344502352178096771e-03 -3.320898686069995165e-04 -2.338307164609432220e-02 -1.544249057769775391e-02 -3.631407744251191616e-04 5.895620677620172501e-03 6.805961579084396362e-02 3.501033037900924683e-02 2.893078513443470001e-02 1.273470843443647027e-04 -5.627385689876973629e-04 -2.333201467990875244e-02 -1.965015567839145660e-02 -5.972284125164151192e-04 -2.337576821446418762e-03 -2.430360019207000732e-02 1.584714092314243317e-02 -1.264031324535608292e-02 8.893853984773159027e-03 1.273763645440340042e-02 1.327572390437126160e-04 5.189633369445800781e-02 -4.536086053121834993e-04 -3.259875229559838772e-04 -2.564077265560626984e-02 -1.157833976321853697e-04 7.201464613899588585e-04 -3.276887291576713324e-04 1.237687375396490097e-02 -2.729332074522972107e-02 9.077735012397170067e-04 -1.662403903901576996e-02 4.183549061417579651e-02 4.458090406842529774e-04 -4.078460391610860825e-03 -3.321917960420250893e-03 -9.103560820221900940e-03 1.773217320442199707e-02 -2.787580899894237518e-02 2.399377059191465378e-03 1.430196594446897507e-02 2.638125559315085411e-03 1.413463521748781204e-02 -9.077333379536867142e-04 1.638214662671089172e-02 5.129987746477127075e-02 1.363684982061386108e-02 4.025322943925857544e-02 1.979663968086242676e-02 9.345344005851075053e-05 2.028845628956332803e-04 1.044232118874788284e-02 1.869428716599941254e-02 -2.216026477981358767e-04 1.230897940695285797e-02 -3.774823248386383057e-02 -3.370689926669001579e-03 -1.302104070782661438e-02 1.811134512536227703e-03 5.215383600443601608e-03 2.932452782988548279e-02 4.871596395969390869e-02 -8.877242216840386391e-04 1.473881304264068604e-02 5.725744995288550854e-04 -3.065863391384482384e-03 -3.403295576572418213e-02 -1.776650198735296726e-03 3.738292306661605835e-02 3.211190551519393921e-02 -1.208938099443912506e-02 -1.864568889141082764e-02 -1.088940072804689407e-02 -3.796817734837532043e-03 2.084232866764068604e-03 -9.191033313982188702e-04 2.042813785374164581e-02 -2.362617058679461479e-03 -4.631376068573445082e-04 -2.029637247323989868e-02 -1.513176970183849335e-02 -8.749080006964504719e-04 2.347843907773494720e-02 -2.619149163365364075e-02 -5.065564997494220734e-03 3.895114362239837646e-02 -3.807853907346725464e-02 -7.369116065092384815e-05 -4.020056873559951782e-02 -2.031317166984081268e-02 -5.644102580845355988e-03 7.369286613538861275e-04 6.527216173708438873e-03 -9.887252934277057648e-03 -2.573356777429580688e-02 -3.380582900717854500e-03 -2.736924588680267334e-02 -7.146217394620180130e-04 -1.521443133242428303e-03 -4.787324462085962296e-03 -2.576235122978687286e-02 -2.380709163844585419e-02 2.819396927952766418e-02 -4.612893238663673401e-02 -4.433948919177055359e-02 -3.192821145057678223e-02 -1.599981449544429779e-02 3.267708700150251389e-03 3.962435945868492126e-02 4.573968052864074707e-02 8.033147605601698160e-05 -2.358367852866649628e-02 -2.390448935329914093e-03 1.303360145539045334e-02 2.428123261779546738e-03 3.720258828252553940e-04 6.926978938281536102e-03 -9.431489743292331696e-04 1.051938533782958984e-02 -2.989053260535001755e-03 5.488875904120504856e-04 -1.542029436677694321e-02 4.104946553707122803e-02 8.891311474144458771e-03 -4.864905495196580887e-03 -1.923200674355030060e-02 -3.237736225128173828e-02 -1.565694110468029976e-03 -5.292293429374694824e-02 3.106836520601063967e-04 -2.901211194694042206e-02 -5.145182367414236069e-03 1.944543910212814808e-04 2.895378042012453079e-03 4.684656485915184021e-02 9.323949925601482391e-03 6.374372169375419617e-03 4.070183634757995605e-02 -1.697507686913013458e-02 5.782485823146998882e-04 1.126312743872404099e-02 2.656742930412292480e-02 -8.396705612540245056e-03 -3.024060465395450592e-02 -4.203626667731441557e-05 6.420869380235671997e-03 -3.176353871822357178e-02 -1.085990201681852341e-02 -7.893915753811597824e-04 -2.553017064929008484e-02 -1.359063945710659027e-02 2.819443680346012115e-02 -2.014772733673453331e-03 -2.192672900855541229e-02 7.469231495633721352e-04 -5.026445433031767607e-05 3.648244819487445056e-05 8.652508258819580078e-03 -1.600128039717674255e-02 1.019409112632274628e-02 -6.425159052014350891e-03 -2.850808575749397278e-02 9.006222244352102280e-04 7.815549150109291077e-03 -1.908584125339984894e-02 -3.547492623329162598e-02
-4.423994687385857105e-04 -6.864068098366260529e-03 -6.511067505925893784e-03 2.779757976531982422e-02 -8.057132363319396973e-03 -2.792460471391677856e-02 3.909580036997795105e-02 1.974010141566395760e-03 8.540834300220012665e-03 -1.139964163303375244e-02 1.207783725112676620e-02 -5.171077646082267165e-05 -5.522374412976205349e-04 3.479188680648803711e-02 -1.226633042097091675e-02 2.055183518677949905e-03 6.935747805982828140e-04 -1.247011683881282806e-02 -6.830470636487007141e-03 1.273964298889040947e-03 4.336439445614814758e-02 6.606150418519973755e-03 8.227929356507956982e-04 9.557409157423535362e-07 3.775803744792938232e-02 8.027817122638225555e-03 1.558462623506784439e-02 6.557201500982046127e-03 -2.968393638730049133e-02 1.108769606798887253e-02 1.688812859356403351e-02 1.162696629762649536e-03 -3.605916281230747700e-04 1.298683322966098785e-02 -5.582552868872880936e-03 7.237006910145282745e-03 -4.752755537629127502e-02 6.338619627058506012e-03 3.067896468564867973e-04 1.429620012640953064e-02 -3.231377899646759033e-02 -3.861888125538825989e-02 -4.803197830915451050e-02 -2.079383097589015961e-02 4.525243118405342102e-02 -2.695049531757831573e-02 2.521011047065258026e-04 3.968646633438766003e-04 2.984073071274906397e-04 -1.897505111992359161e-02 -3.918724600225687027e-03 1.980011723935604095e-02 7.592269685119390488e-04 6.651061703450977802e-04 1.298109273193404078e-04 -1.542442291975021362e-02 -9.009617380797863007e-03 8.488741703331470490e-03 -8.435064228251576424e-04 -2.662431262433528900e-02 -2.193932607769966125e-02 -4.331491945777088404e-04 1.629226468503475189e-02 -3.509060770738869905e-04 -4.234774410724639893e-02 -3.467698406893759966e-04 -7.367097423411905766e-04 -1.899722404778003693e-02 -4.482937511056661606e-03 -3.710681572556495667e-02 -2.753156609833240509e-02 -3.193715587258338928e-03 6.628684699535369873e-03 2.333834022283554077e-02 -1.019867067952873185e-05 -3.348975628614425659e-02 9.098133072257041931e-03 4.525717720389366150e-02 2.210370264947414398e-02 -6.345782894641160965e-03 9.685699478723108768e-05 -9.292024769820272923e-04 -1.020557433366775513e-02 9.328419342637062073e-03 -1.424933224916458130e-02 -2.520972630009055138e-04 3.432049416005611420e-03 -1.172077842056751251e-02 -1.387043483555316925e-02 1.570123247802257538e-03 -3.679643943905830383e-02 3.797204117290675640e-04 1.331331301480531693e-02 -1.499681919813156128e-02 -7.357980939559638500e-05 -9.728002361953258514e-03 1.521338988095521927e-02 2.765191160142421722e-02 -4.130343440920114517e-03 3.263893595430999994e-04 4.956983029842376709e-04 -7.887750980444252491e-04 1.237530843354761600e-03 1.263640122488141060e-03 2.136215940117835999e-02 1.043520309031009674e-02 -1.643906533718109131e-02 -3.051401115953922272e-03 -2.025549300014972687e-03 1.868493482470512390e-02 -2.260286733508110046e-02 2.201326005160808563e-02 -3.880086587741971016e-04 2.020800311584025621e-04 -3.453633561730384827e-02 -5.147459451109170914e-04 -6.300659733824431896e-04 -4.741543380077928305e-04 -3.495664149522781372e-02 -1.142172235995531082e-02 3.604004086810164154e-05 -6.052505597472190857e-02 -3.319481760263442993e-02 3.636420296970754862e-04 -6.869150791317224503e-03 1.672352664172649384e-02 -2.206094749271869659e-02 9.522740729153156281e-03 -1.748811826109886169e-02 2.138721942901611328e-02 -3.774257609620690346e-03 5.946216406300663948e-04 3.083193302154541016e-02 1.874653826234862208e-04 -5.776197649538516998e-03 3.016232140362262726e-02 -2.264836337417364120e-03 8.615064434707164764e-03 -2.734193764626979828e-02 3.433325327932834625e-04 -2.783305244520306587e-04 9.038656018674373627e-03 -1.043841708451509476e-02 -4.124237166251987219e-04 2.266338281333446503e-02 -3.192870644852519035e-03 -3.012694604694843292e-02 3.737791627645492554e-02 -3.442999720573425293e-02 -1.044195704162120819e-02 -4.470501735340803862e-04 4.055992141366004944e-02 4.674913943745195866e-04 1.111989561468362808e-02 4.569525772240012884e-04 1.028194930404424667e-02 1.733250566758215427e-03 4.296918958425521851e-02 -8.287679520435631275e-04 3.076343797147274017e-02 1.489077322185039520e-02 -1.030781306326389313e-02 -9.580437093973159790e-03 1.067462470382452011e-02 1.622806303203105927e-02 -1.243751309812068939e-02 3.956906497478485107e-02 -1.641574315726757050e-02 -5.468471208587288857e-04 -2.941989107057452202e-03 -1.872109947726130486e-03 -5.188236536923795938e-05 2.175516262650489807e-02 -4.378160089254379272e-02 -1.985372230410575867e-02 -4.999000579118728638e-02 -7.749292533844709396e-03 -2.017669903580099344e-04 2.629896625876426697e-03 -3.512424975633621216e-02 1.899919472634792328e-02 -7.392439991235733032e-02 1.660108500800561160e-05 1.670235767960548401e-02 -5.558126419782638550e-02 2.700843289494514465e-02 1.192882843315601349e-02 4.989790031686425209e-04 -9.096684516407549381e-04 -9.638208430260419846e-04 1.868792250752449036e-02 1.290185842663049698e-02 -2.753159590065479279e-02 -1.454428769648075104e-02 -1.134732645004987717e-02 -7.474394515156745911e-03 -3.842767328023910522e-02 -1.439270097762346268e-02 3.846870362758636475e-02 1.862077414989471436e-02 2.189263468608260155e-04 1.220353692770004272e-02 9.592638351023197174e-03 9.377163834869861603e-03 -1.884407177567481995e-02 2.040966210188344121e-04 -1.461442932486534119e-02 5.978213623166084290e-03 -7.983339950442314148e-03 1.935747079551219940e-02 5.473368801176548004e-04 2.165730111300945282e-03 2.121736295521259308e-02 -2.333256602287292480e-02 2.080192416906356812e-02 -2.561078406870365143e-02 -1.562115969136357307e-03 2.313926257193088531e-02 -3.155542910099029541e-02 -4.996781353838741779e-04 -2.147894725203514099e-02 -5.910020321607589722e-02 3.445791662670671940e-05 -3.782228799536824226e-03 3.012884780764579773e-02 -2.214205637574195862e-02 -1.630639843642711639e-02 2.951764035969972610e-03 1.845458708703517914e-02 -4.294581012800335884e-04 -1.841073483228683472e-02 2.027736231684684753e-02 4.805510491132736206e-02 -8.985648863017559052e-03 -2.887136070057749748e-04 2.937320433557033539e-02 -1.102068461477756500e-02 -1.005851570516824722e-02 1.833630522014573216e-04 7.200461812317371368e-03 -3.509636595845222473e-02 -1.473683118820190430e-02 -1.206908002495765686e-02 -2.499406225979328156e-02 8.224913472076877952e-05 2.360397775191813707e-04 -1.026145691866986454e-04 1.085597090423107147e-02 -2.239576913416385651e-02 -2.101661637425422668e-03 -1.007344760000705719e-02 -1.402373146265745163e-02 -1.416100747883319855e-02 -2.625955082476139069e-02 -2.046493440866470337e-02 -1.959031634032726288e-02
3.933078842237591743e-04 7.622519042342901230e-03 1.070024445652961731e-02 -8.913391269743442535e-03 1.167479250580072403e-02 -1.497592125087976456e-02 1.590108126401901245e-02 -1.061987015418708324e-03 -8.500535972416400909e-03 -9.045241749845445156e-04 -2.859782800078392029e-02 -6.960645550861954689e-04 6.944627966731786728e-04 4.908096790313720703e-02 -7.434686645865440369e-03 -2.777962712571024895e-03 1.685900730080902576e-03 -1.827789470553398132e-02 -3.139457106590270996e-02 1.004834994091652334e-04 2.887165918946266174e-02 -5.524728294403757900e-06 -1.173605211079120636e-03 4.847646923735737801e-04 9.904653578996658325e-02 -2.200459502637386322e-02 2.880843915045261383e-02 -4.883305635303258896e-03 3.555458388291299343e-04 2.948157489299774170e-02 7.477908860892057419e-03 -4.732344241347163916e-04 1.307796919718384743e-03 4.013794660568237305e-02 1.348608359694480896e-02 -1.520627457648515701e-02 -4.912189766764640808e-02 1.541124889627099037e-03 -5.526446038857102394e-04 -3.389593958854675293e-02 2.297271229326725006e-02 4.984541796147823334e-03 -2.377320080995559692e-02 1.418453059159219265e-03 -1.023307049763388932e-04 -1.372108701616525650e-02 -6.920052692294120789e-04 3.092317201662808657e-04 3.988392709288746119e-04 2.013579383492469788e-02 -1.101500261574983597e-02 1.217050943523645401e-02 -1.387017800880130380e-05 5.281236371956765652e-04 2.832156233489513397e-02 -2.697556838393211365e-02 2.465682849287986755e-02 -1.803663372993469238e-02 -1.084621646441519260e-03 -7.990379817783832550e-04 -3.201140556484460831e-03 -7.125999545678496361e-04 5.547610670328140259e-02 3.838723641820251942e-04 6.076974794268608093e-02 -3.341591358184814453e-02 -1.424354617483913898e-03 4.179833829402923584e-02 -8.073252392932772636e-04 -6.527674943208694458e-02 -9.849732741713523865e-03 9.077763184905052185e-03 1.546847913414239883e-02 -1.782196573913097382e-02 9.926740312948822975e-04 -6.831337697803974152e-03 -4.030666127800941467e-02 2.036655880510807037e-02 -9.866702370345592499e-03 -4.371333122253417969e-02 5.945230368524789810e-04 1.318705180892720819e-04 4.503023251891136169e-02 -2.312542125582695007e-02 -3.583055734634399414e-02 9.555700817145407200e-04 3.506614267826080322e-02 1.721625158097594976e-04 1.160455401986837387e-03 1.964759547263383865e-03 -2.014953875914216042e-03 -3.295353963039815426e-05 1.303216535598039627e-02 -2.319625113159418106e-03 4.365097556728869677e-04 -1.825002580881118774e-02 1.900959201157093048e-02 -1.380385551601648331e-02 -3.355397284030914307e-02 9.967294317902997136e-06 5.268461536616086960e-04 -4.041808715555816889e-04 -2.433719485998153687e-02 5.852022441104054451e-04 -4.813108593225479126e-02 3.328609839081764221e-02 -3.701217705383896828e-03 1.997268758714199066e-02 4.350718518253415823e-04 -1.414035819470882416e-02 -3.335867775604128838e-03 -9.535792283713817596e-03 -2.898628008551895618e-04 -2.713928115554153919e-04 -1.492349151521921158e-02 -9.946225327439606190e-05 4.987737629562616348e-04 3.029875806532800198e-04 -4.659684747457504272e-02 -3.177470341324806213e-02 -2.496535016689449549e-04 -2.917385846376419067e-02 -1.411143690347671509e-02 -1.610403269296512008e-04 -5.441047251224517822e-02 -7.590899709612131119e-03 -1.992498338222503662e-02 2.202058769762516022e-02 -5.245544016361236572e-02 -1.163654495030641556e-02 -2.632615901529788971e-02 -2.222709357738494873e-03 4.297340661287307739e-02 3.688944270834326744e-04 -3.771037608385086060e-02 -2.287766896188259125e-02 2.324767410755157471e-02 2.535866340622305870e-03 -2.310768328607082367e-02 3.079015004914253950e-04 -4.411459958646446466e-04 9.320503100752830505e-03 4.498035646975040436e-03 -1.707113842712715268e-04 -1.407153438776731491e-02 3.770101442933082581e-02 -9.856638498604297638e-03 1.667107641696929932e-02 -6.476569687947630882e-04 -2.276672609150409698e-02 -2.990196831524372101e-02 -6.182358134537935257e-03 1.104046968976035714e-04 6.371346116065979004e-02 -4.164641723036766052e-05 -1.040977076627314091e-03 -5.471588578075170517e-03 2.144435420632362366e-03 -4.361089318990707397e-02 2.908347547054290771e-02 1.851531793363392353e-03 2.187704108655452728e-02 4.161397740244865417e-02 -3.814807534217834473e-02 -5.526234861463308334e-03 -2.336018532514572144e-02 1.917222887277603149e-02 4.505821969360113144e-03 6.177084287628531456e-04 2.307877130806446075e-02 -2.295758947730064392e-02 1.020632626023143530e-04 -1.100536901503801346e-02 -1.828756928443908691e-02 3.415473271161317825e-03 -3.106005024164915085e-03 2.662693150341510773e-02 -1.133346813730895519e-04 -2.770487219095230103e-03 -5.203738808631896973e-02 -8.762306533753871918e-03 1.350204739719629288e-02 -7.624765858054161072e-03 2.160114981234073639e-02 1.781560480594635010e-03 1.185614839196205139e-01 1.015234924852848053e-02 3.952972183469682932e-04 -1.419558248016983271e-04 8.010655641555786133e-03 -3.321618586778640747e-02 2.313883043825626373e-03 -2.033779397606849670e-02 -2.259683562442660332e-03 -1.826516538858413696e-02 -1.342134829610586166e-02 -2.505352604202926159e-04 1.986214146018028259e-02 2.482167445123195648e-02 -1.408647093921899796e-02 9.550904360366985202e-05 1.172364316880702972e-02 1.561256311833858490e-02 5.539444275200366974e-03 -2.097222954034805298e-03 -4.352090036263689399e-05 4.861434921622276306e-03 1.004137378185987473e-02 -1.674708910286426544e-02 -1.931439712643623352e-02 1.593701774254441261e-03 -4.093048628419637680e-03 2.996463514864444733e-02 7.840802893042564392e-03 -2.533354982733726501e-02 2.070961520075798035e-02 4.210030194371938705e-03 2.835660241544246674e-02 -6.644269824028015137e-02 2.130510256392881274e-04 -2.835820801556110382e-02 -7.333775516599416733e-03 -4.360706589068286121e-05 -2.272151038050651550e-02 9.145757555961608887e-02 7.780598942190408707e-03 5.414543673396110535e-03 7.725269999355077744e-03 4.592238366603851318e-02 -3.504114574752748013e-04 -1.377839013002812862e-03 -5.503686890006065369e-02 1.201475225389003754e-02 -3.050863370299339294e-02 -5.741570494137704372e-04 8.574560284614562988e-02 2.724840119481086731e-02 -9.553227573633193970e-03 -1.886078680399805307e-04 3.285505995154380798e-02 4.446040838956832886e-02 -8.720358833670616150e-03 -1.422131340950727463e-02 1.042644213885068893e-02 -2.396852214587852359e-04 1.260532066226005554e-03 -1.911141589516773820e-04 -2.679380029439926147e-02 1.040558051317930222e-02 -3.677485883235931396e-02 -5.360174924135208130e-02 -5.956184864044189453e-02 5.218592286109924316e-02 4.035177640616893768e-03 -3.189852461218833923e-02 -2.391457185149192810e-02
2.555894025135785341e-04 8.843149058520793915e-03 2.876654965803027153e-03 -2.801671624183654785e-03 3.659024834632873535e-02 -1.885347068309783936e-02 1.771809346973896027e-02 -8.835711050778627396e-04 -2.683995105326175690e-02 2.486954070627689362e-02 -1.314125489443540573e-03 -1.015299931168556213e-03 1.283974386751651764e-03 -3.442644700407981873e-02 -2.726967632770538330e-02 -1.142350141890347004e-03 5.354801542125642300e-04 -1.931328140199184418e-02 -2.375168725848197937e-03 -1.232160138897597790e-04 2.013268694281578064e-02 6.940553430467844009e-04 -4.291016084607690573e-04 -8.221651660278439522e-04 -1.964618824422359467e-02 7.150762714445590973e-03 -2.200603485107421875e-02 1.947409473359584808e-02 -1.872141845524311066e-02 -5.204816907644271851e-02 3.593041747808456421e-02 2.596483798697590828e-03 2.678887103684246540e-04 -1.659415103495121002e-02 2.763227745890617371e-02 1.527029671706259251e-03 -2.711212262511253357e-02 7.200542837381362915e-03 8.944823639467358589e-04 -1.251856423914432526e-02 -3.373822569847106934e-02 2.166270278394222260e-02 5.050133913755416870e-02 -1.852827728725969791e-03 1.860428974032402039e-02 -3.788788616657257080e-02 -1.751539821270853281e-04 7.398265879601240158e-04 1.180854887934401631e-04 1.929646171629428864e-02 -9.040183387696743011e-03 6.695901975035667419e-03 6.929575465619564056e-04 4.086254339199513197e-04 2.242520451545715332e-02 2.280613780021667480e-02 1.011727098375558853e-02 3.877539187669754028e-02 5.218523438088595867e-04 -1.864371448755264282e-02 1.905188336968421936e-02 3.538854361977428198e-04 -1.378265395760536194e-02 -6.527135847136378288e-04 5.460150539875030518e-02 -8.757873438298702240e-03 3.326973819639533758e-04 6.745354831218719482e-02 -2.474880032241344452e-02 -5.708493292331695557e-03 -3.319023177027702332e-03 4.393199924379587173e-03 -1.843570149503648281e-03 2.517772465944290161e-02 9.503682376816868782e-04 -1.100457087159156799e-02 -1.847173832356929779e-02 1.768205687403678894e-02 1.052905805408954620e-02 -1.344340294599533081e-02 1.744266483001410961e-04 -4.246070602675899863e-05 2.085497044026851654e-02 6.220392137765884399e-02 1.738813472911715508e-03 7.939203060232102871e-04 1.900579780340194702e-02 -3.042530082166194916e-02 2.944629639387130737e-03 2.176211215555667877e-02 1.286650076508522034e-02 2.054430951829999685e-04 2.364675700664520264e-02 2.172865672037005424e-03 9.342232369817793369e-04 -2.186366543173789978e-02 -2.573601435869932175e-03 -9.013522416353225708e-03 4.930272698402404785e-03 2.852469333447515965e-04 7.148767472244799137e-04 -2.461272664368152618e-02 -1.393463928252458572e-02 1.846904051490128040e-04 -2.028083242475986481e-02 1.128685846924781799e-02 -4.459906776901334524e-04 1.480940263718366623e-02 2.990198880434036255e-02 3.957278281450271606e-02 -1.394763938151299953e-03 2.324043773114681244e-03 5.490538314916193485e-04 7.605747669003903866e-04 1.086144521832466125e-02 -6.943529006093740463e-04 -1.079376015695743263e-04 1.323097618296742439e-03 -1.759416237473487854e-02 1.281702425330877304e-02 -5.887665902264416218e-04 -2.985428087413311005e-03 -5.829136073589324951e-02 1.289616688154637814e-03 -3.062864206731319427e-02 9.876703843474388123e-03 -6.557707674801349640e-03 5.288414657115936279e-02 -6.653897464275360107e-02 -1.594170928001403809e-02 -1.350732054561376572e-02 1.328293583355844021e-03 3.999534621834754944e-02 -4.814908024854958057e-04 -3.016845136880874634e-02 -6.394426338374614716e-03 3.636626154184341431e-02 -1.110796933062374592e-03 6.560899782925844193e-04 2.958521363325417042e-04 -4.950810107402503490e-04 -2.274525118991732597e-03 1.457975152879953384e-02 -1.300814037676900625e-04 -5.252937227487564087e-02 -5.676832515746355057e-03 1.447961479425430298e-02 1.086682267487049103e-02 -2.042121253907680511e-02 3.422522544860839844e-02 -4.641571640968322754e-02 1.516803447157144547e-02 -3.713995974976569414e-04 -8.377868682146072388e-03 2.291184791829437017e-04 1.942381635308265686e-02 -4.271553829312324524e-02 9.696566266939043999e-04 8.679023012518882751e-04 2.892929874360561371e-02 2.062061242759227753e-02 1.114077895181253552e-04 -2.587069757282733917e-02 -1.334771420806646347e-02 1.842068508267402649e-02 5.169062316417694092e-02 -4.359326884150505066e-02 1.704635564237833023e-03 2.292932767886668444e-04 -6.477315723896026611e-02 -2.893818914890289307e-02 -5.982561851851642132e-04 3.421494364738464355e-02 -5.904221907258033752e-02 2.191982697695493698e-03 8.588681812398135662e-04 -1.425222959369421005e-02 -3.435275284573435783e-04 -2.697139792144298553e-02 1.593809388577938080e-02 1.434723660349845886e-02 3.648421540856361389e-02 4.425129387527704239e-03 -1.087437849491834641e-02 1.627121679484844208e-02 -1.373300608247518539e-02 1.057158876210451126e-02 1.520289224572479725e-03 -3.552339421730721369e-06 -3.235562145709991455e-02 2.260498516261577606e-02 -6.576722022145986557e-03 4.195762798190116882e-02 -1.132824085652828217e-02 2.321022748947143555e-02 4.569331649690866470e-03 2.355910139158368111e-03 6.391508132219314575e-02 -6.911531090736389160e-02 1.020348208840005100e-04 1.199544276460073888e-04 2.216037921607494354e-02 -8.895093575119972229e-03 2.182616852223873138e-02 -4.000005871057510376e-02 2.910313778556883335e-04 1.930315420031547546e-02 5.381715670228004456e-02 -2.771795354783535004e-02 6.025531515479087830e-02 -1.186950685223564506e-04 2.140182070434093475e-02 -2.343956194818019867e-02 -1.400808338075876236e-02 -9.109865874052047729e-03 -3.208820242434740067e-03 2.753624506294727325e-02 -7.138729095458984375e-02 -2.473870478570461273e-02 1.087081735022366047e-03 -4.010028205811977386e-03 5.780819058418273926e-02 2.414941991446539760e-04 -2.818224579095840454e-02 3.525186702609062195e-02 -8.117730729281902313e-03 6.322698201984167099e-03 -6.763035804033279419e-02 -1.078961975872516632e-02 7.688420591875910759e-04 6.804124917834997177e-03 -2.046034112572669983e-02 2.417227812111377716e-02 -3.235494717955589294e-03 1.076477812603116035e-03 -2.012089826166629791e-02 -8.962619118392467499e-03 -2.861868031322956085e-02 -5.383362295106053352e-04 4.112165886908769608e-03 7.136472035199403763e-03 -6.374803837388753891e-03 -2.637544274330139160e-02 8.032308891415596008e-03 1.886009849840775132e-04 6.322457920759916306e-04 6.336248770821839571e-05 -1.218961551785469055e-02 -2.989971637725830078e-02 -2.789169736206531525e-02 -3.847295790910720825e-02 -2.228227071464061737e-02 -5.909117311239242554e-02 -2.061496255919337273e-03 2.941386774182319641e-02 -3.689913451671600342e-02
8.827354176901280880e-04 -1.303554233163595200e-02 4.438618943095207214e-02 2.061847224831581116e-02 -6.510934978723526001e-02 -4.136132821440696716e-02 -6.983587518334388733e-03 -4.150412278249859810e-04 1.145067811012268066e-02 1.788621582090854645e-02 8.994294330477714539e-03 2.228786906925961375e-04 1.136770937591791153e-03 5.209363531321287155e-03 -4.536568652838468552e-03 -2.226413926109671593e-03 -1.354928943328559399e-03 -1.642455230467021465e-03 2.589227259159088135e-02 -4.603578126989305019e-04 -2.105684764683246613e-02 -3.734120726585388184e-02 -3.867497434839606285e-04 5.799975479021668434e-04 -1.147781591862440109e-02 -2.700648084282875061e-02 7.459579966962337494e-03 3.059906512498855591e-02 1.526666572317481041e-03 2.090179827064275742e-03 1.022662967443466187e-02 3.364957228768616915e-04 -7.832872215658426285e-04 1.327768899500370026e-02 -8.978293277323246002e-03 -2.551876194775104523e-02 -2.663506753742694855e-02 -5.367830395698547363e-03 -2.651513495948165655e-04 3.699131542816758156e-03 1.356166601181030273e-02 -1.464037690311670303e-03 2.251408994197845459e-02 -1.627080142498016357e-03 -2.137662284076213837e-02 3.543858975172042847e-02 6.550325779244303703e-04 -4.013019788544625044e-04 -3.006052284035831690e-04 1.415262836962938309e-02 9.669917635619640350e-03 -1.749453693628311157e-02 1.054181717336177826e-03 -3.823324732366017997e-05 -4.247491434216499329e-02 -2.002297667786478996e-03 1.294050831347703934e-03 7.782966364175081253e-03 1.403855392709374428e-03 5.137075204402208328e-04 -3.111323900520801544e-02 -8.270393300335854292e-05 -1.666267029941082001e-02 -2.251991973025724292e-04 -7.411383092403411865e-03 1.170999184250831604e-02 7.832754054106771946e-04 9.089453960768878460e-04 1.744431629776954651e-02 -2.543166978284716606e-03 -1.407584641128778458e-02 1.981093920767307281e-02 1.207771711051464081e-02 -5.525070009753108025e-04 -2.524392330087721348e-04 6.655573844909667969e-03 6.171127036213874817e-02 -1.063848007470369339e-02 -2.493673749268054962e-02 1.398142706602811813e-02 -4.157788644079118967e-04 -1.245869789272546768e-03 1.172167807817459106e-02 3.576405718922615051e-02 -4.127691686153411865e-02 -1.101386806112714112e-04 -1.688437163829803467e-02 -1.309126522392034531e-02 1.327396929264068604e-02 -1.214555013575591147e-04 6.456035189330577850e-03 -5.965569289401173592e-05 -1.675872690975666046e-02 4.063084721565246582e-02 -3.134429862257093191e-04 3.989527001976966858e-03 -1.358535140752792358e-03 1.163185853511095047e-02 1.867260970175266266e-02 -4.437122552189975977e-04 -1.145455054938793182e-03 4.370956681668758392e-03 -1.591359823942184448e-02 -4.592897603288292885e-04 -7.502205669879913330e-02 1.241986174136400223e-02 -2.513267658650875092e-02 8.314309641718864441e-03 -3.105350956320762634e-02 1.197499874979257584e-02 -3.089260775595903397e-03 3.434547409415245056e-02 1.880747149698436260e-04 2.326516405446454883e-04 4.478489980101585388e-03 2.375442563788965344e-04 3.732805198524147272e-04 1.748149516060948372e-04 9.881611913442611694e-02 -7.717437576502561569e-03 -3.305778955109417439e-04 -1.449490245431661606e-02 -1.135466247797012329e-02 1.091212034225463867e-03 -3.664750978350639343e-02 2.442908845841884613e-02 -1.685542985796928406e-02 1.077918242663145065e-02 -2.136789448559284210e-02 2.355622872710227966e-02 -3.208647482097148895e-03 -2.429200103506445885e-03 -1.846398785710334778e-02 -1.062850496964529157e-04 -6.254034582525491714e-03 2.063076756894588470e-02 4.113142937421798706e-02 3.026139177381992340e-02 -4.752447083592414856e-02 -4.036134123452939093e-05 -9.450231445953249931e-04 -2.598290145397186279e-02 -3.562539815902709961e-02 -7.776358397677540779e-04 6.116490112617611885e-04 1.572997123003005981e-02 -5.278064683079719543e-02 -1.331447809934616089e-02 -5.851740133948624134e-04 7.982839830219745636e-03 -4.523741547018289566e-03 -7.780013140290975571e-03 7.210659678094089031e-04 4.595712758600711823e-03 -7.548601133748888969e-04 1.862865500152111053e-02 2.786468015983700752e-03 -1.286303810775279999e-02 -1.349771395325660706e-02 6.940862536430358887e-02 -2.187707461416721344e-03 1.047735131578519940e-04 -1.042560767382383347e-02 1.050715567544102669e-03 -8.850219659507274628e-03 -1.665591821074485779e-02 5.818246863782405853e-04 8.688741363584995270e-03 -6.069788360036909580e-04 -2.139312215149402618e-02 -5.180973559617996216e-02 -7.025075028650462627e-04 1.571669057011604309e-02 1.577888615429401398e-02 1.766162738204002380e-02 1.160879712551832199e-02 -7.345878053456544876e-03 -1.541257515782490373e-04 3.923888504505157471e-02 -3.855579346418380737e-02 -2.013750933110713959e-02 4.366111010313034058e-02 -1.676222123205661774e-02 2.485123835504055023e-02 1.035162247717380524e-02 5.166665650904178619e-03 9.111185790970921516e-04 -3.460124135017395020e-04 -1.228949637152254581e-03 -1.057467889040708542e-02 4.432807117700576782e-02 1.240901928395032883e-02 -2.934656105935573578e-03 3.800666332244873047e-02 4.680536803789436817e-04 2.323325164616107941e-02 -2.017659507691860199e-02 -2.282112091779708862e-02 -3.068337449803948402e-03 4.038581252098083496e-02 6.674036849290132523e-04 -1.362536381930112839e-02 -2.052323333919048309e-02 9.139145724475383759e-03 1.687373034656047821e-02 -1.754875556798651814e-04 -4.190187435597181320e-03 -4.115888848900794983e-03 -1.584814302623271942e-02 -3.250147402286529541e-02 8.024421404115855694e-04 4.720252752304077148e-02 5.026338249444961548e-02 2.056650444865226746e-02 1.029100641608238220e-02 1.230170670896768570e-02 3.043845645152032375e-04 -2.450835704803466797e-02 -2.241961099207401276e-02 8.790098945610225201e-04 4.166422877460718155e-03 -3.729664906859397888e-02 1.647719996981322765e-03 -3.480877261608839035e-03 2.000070363283157349e-02 2.042157575488090515e-02 -9.867211803793907166e-03 -4.217129573225975037e-02 1.468975469470024109e-02 6.573923747055232525e-04 9.644648991525173187e-03 -5.146706849336624146e-02 -1.211262401193380356e-02 2.348009683191776276e-02 6.440435536205768585e-04 -1.007038820534944534e-02 -4.061750136315822601e-03 1.862830296158790588e-02 5.786497786175459623e-05 -8.743858896195888519e-03 7.084706425666809082e-02 -1.800732500851154327e-02 4.319636616855859756e-03 -2.503393962979316711e-02 3.567321400623768568e-04 1.511635142378509045e-03 -5.119277630001306534e-04 3.746727248653769493e-03 4.463119432330131531e-03 -1.342222467064857483e-02 3.381096059456467628e-03 2.018481865525245667e-02 2.572598122060298920e-02 1.590828783810138702e-02 -1.250308938324451447e-02 2.789671719074249268e-02
