-9.006492614746093750e+00
1.087186694145202637e+00
-2.298235416412353516e+00
-2.511039257049560547e+00
2.968583822250366211e+00
-3.410912752151489258e+00
-1.675757598876953125e+01
1.949855446815490723e+00
-6.970629692077636719e+00
-5.133904933929443359e+00
-2.231770753860473633e+00
-1.660317182540893555e+00
6.557397365570068359e+00
2.410882234573364258e+00
4.664769172668457031e+00
-5.290090084075927734e+00
-8.422965049743652344e+00
-9.163658142089843750e+00
2.523205757141113281e+00
4.691519439220428467e-01
-1.475212454795837402e+00
3.592871904373168945e+00
-4.207551002502441406e+00
-4.953637719154357910e-01
3.148039340972900391e+00
-9.521245002746582031e+00
1.046377420425415039e+00
-4.720899105072021484e+00
-1.209992408752441406e+01
1.733841300010681152e+00
-8.310549736022949219e+00
-2.777891457080841064e-01
1.154009699821472168e-01
-6.147774219512939453e+00
-9.512928009033203125e+00
-1.117265796661376953e+01
4.076783657073974609e+00
2.911520719528198242e+00
-1.975317955017089844e+00
-2.538921594619750977e+00
-1.101093482971191406e+01
-2.771122455596923828e+00
-1.216024589538574219e+01
2.935245752334594727e+00
-2.120495080947875977e+00
-1.835819840431213379e+00
-7.094311237335205078e+00
4.468616008758544922e+00
-6.206444740295410156e+00
9.989175200462341309e-01
-1.304414653778076172e+01
-8.057942390441894531e+00
2.527343988418579102e+00
-2.137735128402709961e+00
-2.434418916702270508e+00
5.618582248687744141e+00
-1.128610515594482422e+01
3.501749992370605469e+00
-5.716092109680175781e+00
-6.657126426696777344e+00
-2.340427160263061523e+00
2.832056045532226562e+00
-4.028743743896484375e+00
2.666122913360595703e+00
