-7.500797510147094727e-04 3.197354730218648911e-03 5.245679989457130432e-03 5.867488682270050049e-03 5.178212374448776245e-02 -1.606032601557672024e-03 9.611775167286396027e-03 -8.525422890670597553e-04 -1.406489498913288116e-02 -3.536709398031234741e-02 4.831957817077636719e-02 -4.792599356733262539e-04 -9.879997378448024392e-06 -1.979969255626201630e-02 1.465585082769393921e-02 -2.882415894418954849e-03 -2.479262091219425201e-02 -4.143577534705400467e-03 -1.384388562291860580e-02 1.713340461719781160e-04 9.201890788972377777e-03 -1.793285831809043884e-02 2.500651590526103973e-02 -2.241698326542973518e-03 -5.737321451306343079e-03 -5.410017911344766617e-03 -2.408978529274463654e-02 -2.801311435177922249e-03 -9.642131626605987549e-03 4.790555685758590698e-02 5.939542097621597350e-05 -1.166107249446213245e-03 8.685545064508914948e-03 8.786921389400959015e-04 -6.425248284358531237e-05 -7.485144305974245071e-03 2.383160218596458435e-02 -1.334559358656406403e-02 3.115704457741230726e-04 3.554852679371833801e-02 3.854050999507308006e-03 1.580828800797462463e-02 -1.687953830696642399e-03 1.204606983810663223e-02 -1.397486403584480286e-02 2.901435829699039459e-03 -5.927377496846020222e-04 3.092550032306462526e-04 1.016180380247533321e-03 -4.807517863810062408e-03 4.080834984779357910e-02 -2.853948390111327171e-03 -2.052491327049210668e-04 2.661462128162384033e-02 9.223689325153827667e-03 -1.276982389390468597e-02 1.474047172814607620e-02 -2.064098231494426727e-02 -1.969294855371117592e-03 -1.832110621035099030e-02 9.854541160166263580e-03 -2.166813646908849478e-04 1.278979703783988953e-02 4.426567102200351655e-05 2.224119938910007477e-02 -1.370153110474348068e-02 3.916954447049647570e-04 -1.090502459555864334e-02 -7.220804691314697266e-03 -2.481963310856372118e-04 -1.105090044438838959e-02 1.014834619127213955e-03 5.224064923822879791e-03 -2.140563679859042168e-03 -2.907826819864567369e-05 5.120948888361454010e-03 -3.963822033256292343e-03 -3.103161463513970375e-03 -3.942337352782487869e-03 -1.289001666009426117e-02 -2.418428948658402078e-06 4.492379957810044289e-04 1.898517273366451263e-02 5.077799409627914429e-02 8.818199858069419861e-03 -1.111024685087613761e-04 1.232575066387653351e-02 1.291259657591581345e-03 -9.505869820713996887e-03 7.002103957347571850e-04 6.883330177515745163e-03 8.678650483489036560e-04 -5.619053263217210770e-03 4.061922430992126465e-03 1.237922115251421928e-03 2.906108042225241661e-03 1.567508839070796967e-02 6.516034249216318130e-03 -8.168900385499000549e-03 9.657880291342735291e-04 4.214500222587957978e-05 3.814206272363662720e-02 4.095956683158874512e-02 5.324732628650963306e-04 -5.063550081104040146e-03 -3.019432537257671356e-02 2.469656243920326233e-02 -3.615974634885787964e-02 -4.310476593673229218e-03 4.170075524598360062e-03 4.350424278527498245e-03 1.314209774136543274e-02 -2.637064972077496350e-05 -2.831569290719926357e-04 -1.027939189225435257e-02 6.610945565626025200e-04 9.073773071577306837e-06 7.651235137018375099e-06 -5.631543695926666260e-03 -5.568667314946651459e-03 7.078931666910648346e-04 9.875610703602433205e-04 4.632145166397094727e-03 -4.168428713455796242e-04 -1.722359284758567810e-02 -2.496287692338228226e-03 -2.116144075989723206e-02 2.612779475748538971e-02 1.596314273774623871e-02 -5.922351963818073273e-03 -8.553137071430683136e-03 1.819015014916658401e-03 3.080620802938938141e-02 -1.638226649447460659e-06 6.877375766634941101e-03 2.717071399092674255e-02 -1.492555532604455948e-02 1.738368906080722809e-02 -2.424853388220071793e-03 -7.621201075380668044e-05 -1.813197159208357334e-04 8.999606594443321228e-03 -1.220698188990354538e-02 7.423461065627634525e-04 1.484169811010360718e-02 3.814388997852802277e-03 2.767927944660186768e-02 -4.418701864778995514e-03 -6.554198451340198517e-03 -2.867669239640235901e-02 -8.926897309720516205e-03 7.639677729457616806e-03 -3.707231371663510799e-04 -1.511190179735422134e-02 -6.067914073355495930e-04 -9.794426150619983673e-03 2.721034549176692963e-02 -5.222394131124019623e-03 -3.149258554913103580e-04 1.092119235545396805e-02 7.474676705896854401e-03 -2.263086475431919098e-02 -2.390494011342525482e-02 -5.681662354618310928e-03 1.517195068299770355e-02 3.924012708012014627e-05 -2.727053500711917877e-02 -4.500997718423604965e-03 6.464896723628044128e-04 1.314514520345255733e-04 2.658166922628879547e-02 -8.603347232565283775e-04 -1.046649739146232605e-02 -5.273139569908380508e-03 -2.125374041497707367e-03 3.271488938480615616e-03 -2.129845879971981049e-02 1.525418716482818127e-03 -1.153882034122943878e-02 4.061900079250335693e-03 -6.337660830467939377e-03 -9.469852782785892487e-03 -1.737978868186473846e-02 1.023518852889537811e-02 7.830482209101319313e-04 -1.232869341038167477e-03 9.595116600394248962e-03 7.995861233212053776e-04 -1.355042215436697006e-02 -3.114719502627849579e-02 -2.414012851659208536e-04 1.153024006634950638e-02 1.367229688912630081e-02 -2.420785091817378998e-02 -1.212307251989841461e-02 7.206866517663002014e-03 -3.741118416655808687e-04 2.803060226142406464e-03 -2.914930135011672974e-02 -3.346305340528488159e-03 -6.339153042063117027e-04 -1.178334187716245651e-02 4.823814332485198975e-02 -6.201460957527160645e-03 -8.909209864214062691e-04 7.315193652175366879e-04 6.034642457962036133e-03 3.926442191004753113e-02 -4.354132711887359619e-02 1.324493624269962311e-02 3.522451879689469934e-05 3.179692476987838745e-02 3.084216639399528503e-02 1.573752961121499538e-03 6.775891780853271484e-02 -9.701211005449295044e-03 9.787532500922679901e-03 -8.440407924354076385e-03 1.018930878490209579e-02 -9.216684702550992370e-05 -1.051483396440744400e-02 3.107754886150360107e-02 -2.500027476344257593e-04 3.454991383478045464e-03 -9.798437356948852539e-03 2.678561722859740257e-03 5.181817337870597839e-03 7.390337996184825897e-03 4.036137834191322327e-02 -4.802105104317888618e-05 9.531306102871894836e-03 -3.415516018867492676e-02 -3.800762817263603210e-03 -5.078039132058620453e-03 6.752758054062724113e-04 6.877178326249122620e-03 -1.830897876061499119e-03 1.431118976324796677e-02 -3.981288755312561989e-04 1.590059511363506317e-02 -3.246996551752090454e-02 5.822884384542703629e-03 -3.892565611749887466e-03 6.808097939938306808e-03 5.141614819876849651e-04 2.572566154412925243e-04 2.002241648733615875e-02 3.766499459743499756e-02 1.186737674288451672e-03 3.482607193291187286e-03 -4.682330880314111710e-03 -6.905860733240842819e-03 -3.016851609572768211e-03 -5.414235056377947330e-04 -1.203285716474056244e-02 7.411086466163396835e-03
7.450420525856316090e-04 -2.131745591759681702e-02 -3.215520456433296204e-02 1.460769306868314743e-02 -2.637546882033348083e-02 -3.086771443486213684e-02 8.124700747430324554e-03 -2.848490257747471333e-04 4.502383992075920105e-02 5.249954760074615479e-03 5.974301020614802837e-04 -4.488930280786007643e-04 -1.004990990622900426e-04 3.504173085093498230e-02 -7.588260341435670853e-03 2.967173466458916664e-03 1.683375611901283264e-02 -4.115822259336709976e-03 2.560896240174770355e-02 3.242370075895451009e-05 -1.100904960185289383e-02 3.903708979487419128e-02 -7.001047197263687849e-05 -8.710343390703201294e-03 5.500542465597391129e-04 1.747896708548069000e-02 3.579464927315711975e-02 1.672825776040554047e-02 -7.279976736754179001e-03 -1.900680735707283020e-02 -8.292032033205032349e-02 1.754846889525651932e-04 1.362295169383287430e-02 -2.859878353774547577e-02 6.146750878542661667e-03 -3.026916645467281342e-02 -3.704526647925376892e-02 -1.110857725143432617e-02 -7.467083050869405270e-04 -7.755801198072731495e-04 -4.400744102895259857e-03 3.665561601519584656e-02 9.718515910208225250e-03 2.166372537612915039e-02 1.043374463915824890e-02 2.076931297779083252e-02 5.395634798333048820e-04 -1.949823054019361734e-04 -3.727864823304116726e-04 3.387774107977747917e-03 1.560815609991550446e-02 -3.770370036363601685e-02 -1.396976294927299023e-04 1.890946365892887115e-02 1.528904959559440613e-02 4.074615985155105591e-02 -3.029942512512207031e-02 3.212882205843925476e-02 2.919709368143230677e-04 -5.524627864360809326e-03 -3.377532213926315308e-02 1.104152412153780460e-03 -1.538225449621677399e-02 -1.268129446543753147e-03 -1.912036724388599396e-02 9.708880446851253510e-03 -6.509954982902854681e-05 -9.042985737323760986e-03 -4.793674219399690628e-03 -2.761291398201137781e-04 6.534157786518335342e-03 -7.436751853674650192e-03 -4.303464666008949280e-03 2.782908082008361816e-02 4.139169759582728148e-04 8.192023262381553650e-03 -2.123514935374259949e-02 -1.024100580252707005e-03 3.141961991786956787e-02 2.341193379834294319e-03 1.859232317656278610e-03 7.191179902292788029e-04 -2.148298174142837524e-02 5.795650184154510498e-03 7.514215074479579926e-03 -1.573128392919898033e-03 -1.895271241664886475e-02 -8.118797093629837036e-03 1.318893674761056900e-02 -2.955988980829715729e-03 1.313767302781343460e-02 -8.209972293116152287e-04 -1.586414501070976257e-02 1.650216802954673767e-02 -1.011891406960785389e-03 2.063760068267583847e-03 -3.630067780613899231e-02 -3.331382200121879578e-02 2.549318596720695496e-02 -3.588651306927204132e-04 -9.907425555866211653e-05 2.983753755688667297e-02 -1.672179205343127251e-04 -3.377891262061893940e-04 6.669401191174983978e-03 -3.228034824132919312e-02 3.049929160624742508e-03 -3.248110786080360413e-02 6.980362534523010254e-02 3.516227751970291138e-02 4.452988505363464355e-02 -1.276096235960721970e-02 -3.907093778252601624e-04 6.612765137106180191e-04 1.584989950060844421e-02 2.379638463025912642e-04 -1.350468024611473083e-03 6.520960596390068531e-04 -5.931974574923515320e-02 -2.984365681186318398e-03 -4.912535951007157564e-05 -3.081033565104007721e-02 -8.994203060865402222e-03 -1.776836143108084798e-05 -3.970550838857889175e-03 2.977054379880428314e-02 -2.647390775382518768e-02 1.102336216717958450e-02 3.419430553913116455e-02 7.223502546548843384e-02 3.856418421491980553e-03 1.285371137782931328e-03 2.703170292079448700e-02 2.907881280407309532e-04 -4.811213351786136627e-03 -1.866857893764972687e-02 2.839878387749195099e-02 -3.050019033253192902e-02 -2.511747367680072784e-02 4.359780868981033564e-04 -2.042707137661636807e-06 -1.830177381634712219e-02 4.272096604108810425e-02 4.373678821139037609e-04 -2.332894504070281982e-02 -3.750421479344367981e-02 1.086819637566804886e-02 2.366274129599332809e-03 -5.539588630199432373e-03 -5.551533773541450500e-03 -1.134387310594320297e-02 3.430483117699623108e-02 6.864684837637469172e-05 2.567551657557487488e-02 2.077961107715964317e-04 4.798845574259757996e-02 -2.397493459284305573e-02 8.280120790004730225e-03 1.264548394829034805e-02 -6.136606447398662567e-03 2.703385241329669952e-02 -3.696507588028907776e-02 2.555259503424167633e-02 3.347321646288037300e-03 -2.342490665614604950e-02 -1.442352030426263809e-02 5.242389813065528870e-02 5.197159573435783386e-02 -3.303067060187458992e-04 -3.625641763210296631e-02 7.433740049600601196e-02 -5.419197841547429562e-04 1.463183294981718063e-02 -8.239796385169029236e-03 9.479861706495285034e-03 -1.008739136159420013e-02 6.086409557610750198e-03 -3.375182859599590302e-04 6.125630065798759460e-02 -1.857923157513141632e-02 -4.375486075878143311e-02 -2.780563011765480042e-02 -6.605765316635370255e-03 1.024298090487718582e-02 -1.008898951113224030e-02 -1.954850740730762482e-02 1.972029916942119598e-02 3.559312244760803878e-05 -3.128942474722862244e-02 3.490961343050003052e-02 -1.003346755169332027e-03 2.434909902513027191e-02 2.308518392965197563e-03 -3.241705149412155151e-02 -1.649318262934684753e-02 2.408016286790370941e-02 6.946157198399305344e-03 1.122727990150451660e-02 5.241951718926429749e-02 -2.360397204756736755e-02 -2.124276034010108560e-05 -4.086131229996681213e-02 2.154315821826457977e-02 -1.257003843784332275e-02 -5.111263599246740341e-03 -1.290959771722555161e-03 -3.390787169337272644e-02 2.738333074375987053e-03 6.140406709164381027e-03 -3.325274959206581116e-02 1.387651078402996063e-03 1.249703206121921539e-02 -5.934524908661842346e-02 1.387190073728561401e-02 1.261926721781492233e-02 -1.087053492665290833e-02 1.846118457615375519e-02 -8.332866244018077850e-03 2.287606243044137955e-03 2.993003872688859701e-04 7.255460135638713837e-03 -1.725012669339776039e-03 2.799244830384850502e-04 4.353095777332782745e-03 -3.267287509515881538e-03 1.670137047767639160e-02 1.202814746648073196e-02 -1.530855521559715271e-02 5.171925947070121765e-02 9.131327715294901282e-06 2.258480899035930634e-02 1.186376623809337616e-02 -3.399277571588754654e-03 1.490333955734968185e-02 1.574018038809299469e-03 3.364592790603637695e-02 -2.428166009485721588e-02 -1.152114756405353546e-02 -1.129465061239898205e-03 -1.605754531919956207e-02 -3.727468475699424744e-02 -1.866494491696357727e-02 -7.544845808297395706e-03 5.779916886240243912e-03 -3.634199383668601513e-04 3.397791806492023170e-05 2.305800095200538635e-03 9.278253652155399323e-03 -1.942725665867328644e-02 1.890368293970823288e-03 -2.494409913197159767e-03 2.329926565289497375e-02 2.350899390876293182e-02 1.909677684307098389e-02 -6.583482492715120316e-03 1.816654950380325317e-02
-5.285621155053377151e-04 -1.553749199956655502e-02 5.684172362089157104e-02 -1.898153312504291534e-02 -5.023500323295593262e-02 2.056174539029598236e-02 -1.999359205365180969e-02 1.002420787699520588e-03 -5.108057335019111633e-02 9.829981252551078796e-03 3.461237251758575439e-02 2.552303776610642672e-04 -1.396031439071521163e-05 2.590909413993358612e-02 -6.857189349830150604e-03 6.508704391308128834e-04 -1.417203713208436966e-02 1.352816447615623474e-02 2.719759009778499603e-02 -2.499533293303102255e-04 -1.721254549920558929e-02 1.548466552048921585e-02 -4.471465200185775757e-02 3.656721860170364380e-02 1.458227261900901794e-02 3.989265765994787216e-03 3.743441775441169739e-02 7.104551885277032852e-03 -7.447578944265842438e-03 2.101541310548782349e-02 2.036380022764205933e-02 -1.148511772044003010e-03 -4.614732787013053894e-02 3.510628268122673035e-02 -2.488725073635578156e-02 1.517884992063045502e-02 -1.016592234373092651e-02 -1.162293553352355957e-02 6.187718827277421951e-05 1.807260513305664062e-02 9.795448742806911469e-03 -5.609109625220298767e-02 1.120710652321577072e-02 -6.037989165633916855e-03 -1.814502850174903870e-02 -3.943056985735893250e-02 -4.260476853232830763e-04 2.682130980247166008e-05 -9.662222582846879959e-04 -2.149906568229198456e-02 3.515983372926712036e-02 4.651891533285379410e-03 -5.236967117525637150e-04 -4.280967265367507935e-02 2.506398409605026245e-02 6.644240766763687134e-02 -6.473724544048309326e-02 1.177246216684579849e-02 4.210057377349585295e-04 -3.009270876646041870e-03 2.977412752807140350e-02 -5.271251575322821736e-05 -1.851088926196098328e-02 1.626180019229650497e-04 -2.565077878534793854e-02 1.945694210007786751e-03 3.443729365244507790e-04 7.973633706569671631e-03 3.516640514135360718e-03 -2.183289267122745514e-02 1.310222875326871872e-02 1.352008990943431854e-02 2.051520720124244690e-02 1.206219848245382309e-02 -5.641579045914113522e-04 -2.191649051383137703e-03 -5.704197660088539124e-02 -2.176887355744838715e-02 9.461396984988823533e-05 1.684725284576416016e-02 -3.433682722970843315e-04 6.469243089668452740e-04 -7.418600143864750862e-04 4.394352436065673828e-03 1.460509188473224640e-02 2.343781816307455301e-04 6.654228549450635910e-03 7.339223287999629974e-03 -5.114496889291331172e-05 -8.750558830797672272e-03 -7.560926023870706558e-04 1.235556905157864094e-03 1.822726801037788391e-02 -7.594417314976453781e-03 1.593208726262673736e-04 1.645381562411785126e-02 -7.983288913965225220e-02 -3.006413578987121582e-02 3.477973118424415588e-02 5.782226799055933952e-04 2.658944285940378904e-04 3.909835591912269592e-02 4.578431323170661926e-02 -4.346196947153657675e-04 -2.781125344336032867e-02 4.375398904085159302e-02 -1.858538202941417694e-02 1.893449923954904079e-03 -3.291463851928710938e-02 3.258511051535606384e-02 1.811927743256092072e-02 -3.928992897272109985e-02 3.448741044849157333e-04 -3.309349121991544962e-04 2.039035409688949585e-02 3.867798950523138046e-04 7.782693865010514855e-05 -1.448000984964892268e-04 -5.665571615099906921e-02 2.589984610676765442e-02 1.200158032588660717e-03 9.977247565984725952e-03 -2.362436987459659576e-02 6.338320235954597592e-05 -3.499033302068710327e-02 -3.220468759536743164e-03 -7.485778187401592731e-04 -2.118505351245403290e-02 -8.198332972824573517e-03 3.359483089298009872e-03 1.230822037905454636e-02 -2.667320892214775085e-03 -1.204908452928066254e-02 -2.200357994297519326e-04 -2.776628825813531876e-03 -2.469269372522830963e-02 2.345714718103408813e-03 -2.785694599151611328e-02 -2.527635730803012848e-02 -4.090427246410399675e-04 7.190020405687391758e-04 -8.648681454360485077e-03 -3.887539356946945190e-02 2.363663516007363796e-04 4.670173395425081253e-03 1.171151828020811081e-02 7.564625702798366547e-03 -2.187456749379634857e-02 -2.551238285377621651e-03 -1.115397363901138306e-02 5.543017759919166565e-04 -5.487707629799842834e-02 -1.960013614734634757e-04 1.902170665562152863e-02 3.414513048483058810e-05 1.587589853443205357e-03 2.449856884777545929e-02 -6.935754790902137756e-03 2.385324053466320038e-02 -2.941872552037239075e-02 1.884683035314083099e-03 -1.886119320988655090e-02 -3.012316010426729918e-04 -6.887670606374740601e-02 -1.195937581360340118e-02 2.823052927851676941e-02 2.978994883596897125e-02 2.190924994647502899e-02 -3.470714436843991280e-04 8.747387677431106567e-03 9.495656006038188934e-03 -8.350304560735821724e-04 -2.816407568752765656e-02 1.674303039908409119e-02 4.711564979515969753e-04 2.885495545342564583e-03 -6.121662911027669907e-03 3.801483253482729197e-04 -3.278427198529243469e-02 1.827312866225838661e-03 -9.878528304398059845e-03 2.112236991524696350e-02 -8.166792802512645721e-03 -8.312134444713592529e-02 1.432482711970806122e-02 -8.234906010329723358e-03 7.700942456722259521e-03 4.112060996703803539e-04 1.996096037328243256e-02 -5.962165538221597672e-03 2.144260704517364502e-02 5.747132003307342529e-03 1.195041555911302567e-02 8.831489086151123047e-02 2.070855908095836639e-02 -1.241841353476047516e-02 1.250440068542957306e-02 -2.666299045085906982e-02 1.584778353571891785e-02 -4.752788320183753967e-02 -4.342852625995874405e-04 4.068155214190483093e-02 -1.883695274591445923e-02 -1.092298887670040131e-02 -1.724687218666076660e-02 -3.325790748931467533e-04 3.498372854664921761e-03 -2.199996635317802429e-02 -1.283871661871671677e-02 -2.316858153790235519e-03 2.574771933723241091e-04 -1.189243514090776443e-02 5.336957518011331558e-03 -3.738657804206013680e-03 2.686717547476291656e-02 1.212265528738498688e-02 1.415022742003202438e-02 -2.103713341057300568e-02 1.024939119815826416e-03 -1.704187161521986127e-04 -6.498073041439056396e-02 -1.728725992143154144e-02 9.901276644086465240e-05 4.463592078536748886e-03 1.180495973676443100e-02 -7.660553790628910065e-03 -7.228168193250894547e-03 -5.924054980278015137e-02 2.790760621428489685e-02 5.200117011554539204e-04 -2.584681613370776176e-03 -4.198380932211875916e-02 -2.446216344833374023e-02 -1.450617518275976181e-02 8.205648045986890793e-04 -5.559122073464095592e-04 1.664067804813385010e-02 3.436034079641103745e-03 -5.584462196566164494e-04 2.024055272340774536e-02 -4.945778101682662964e-02 -6.228681188076734543e-03 3.923449665307998657e-03 1.470935717225074768e-02 -7.903900113888084888e-04 -1.703961752355098724e-04 3.603564109653234482e-03 5.212232470512390137e-03 -8.428357541561126709e-03 1.287083886563777924e-02 -1.523667853325605392e-02 -2.991794049739837646e-02 -3.929695859551429749e-02 1.399920694530010223e-02 6.105885840952396393e-03 -2.653802558779716492e-02
-5.604330217465758324e-04 -2.840080298483371735e-02 4.413063637912273407e-03 2.871606964617967606e-03 -3.188872709870338440e-02 -1.297721266746520996e-02 4.701282083988189697e-02 -1.693882630206644535e-03 -3.810805827379226685e-02 -1.181860454380512238e-02 2.421367913484573364e-02 -4.263782466296106577e-04 1.665275427512824535e-03 6.854229606688022614e-03 1.968048140406608582e-02 -4.927151603624224663e-04 -1.204624772071838379e-02 6.141580524854362011e-04 7.544203195720911026e-03 -2.720470947679132223e-04 5.472251679748296738e-03 -8.411269634962081909e-03 -1.497649587690830231e-02 1.682507619261741638e-02 -4.736269637942314148e-02 1.530659105628728867e-02 1.487564202398061752e-02 -1.348441233858466148e-03 3.019209764897823334e-02 -2.055606571957468987e-03 -2.142403461039066315e-02 -2.352619310840964317e-03 -1.458271313458681107e-02 -8.049985393881797791e-03 1.394698768854141235e-02 -1.187416724860668182e-02 2.563822083175182343e-03 2.850135415792465210e-02 7.186645525507628918e-04 6.746358238160610199e-03 2.942256070673465729e-02 2.637516148388385773e-02 2.399151772260665894e-02 -1.745199598371982574e-02 5.311772599816322327e-02 2.273327484726905823e-02 -1.356243737973272800e-04 1.120951128541491926e-04 3.529036766849458218e-04 2.098857983946800232e-02 9.833390824496746063e-03 -3.323687613010406494e-02 -2.020829269895330071e-04 8.287779055535793304e-03 -5.852505564689636230e-02 1.452760654501616955e-03 -4.456205293536186218e-03 6.369454320520162582e-03 -2.332653239136561751e-04 1.388943381607532501e-02 -8.156723342835903168e-03 2.056682133115828037e-04 -1.486486988142132759e-03 2.069573092740029097e-04 1.804797723889350891e-02 -1.779814064502716064e-02 1.184339998872019351e-04 4.515186324715614319e-02 1.650352962315082550e-02 1.243852195329964161e-03 2.503388375043869019e-02 -1.384755969047546387e-02 -2.132201939821243286e-02 -2.555642835795879364e-02 -3.647928824648261070e-04 -2.096371958032250404e-03 -2.642201259732246399e-02 3.982281684875488281e-02 -2.056876942515373230e-02 -8.685283362865447998e-03 1.192174269817769527e-03 2.491726772859692574e-04 -6.198954768478870392e-03 1.354592014104127884e-02 -6.660875515080988407e-04 -7.216180092655122280e-04 -1.617132686078548431e-02 1.485362881794571877e-03 -3.386137261986732483e-02 -3.526972234249114990e-02 -1.531921233981847763e-02 2.057941019302234054e-04 -2.617581188678741455e-02 2.839175052940845490e-02 -8.244063938036561012e-04 1.268445234745740891e-02 -3.659689426422119141e-02 -2.274381555616855621e-02 5.286247935146093369e-03 8.610877557657659054e-04 -3.948242519982159138e-04 3.100996278226375580e-02 3.161450847983360291e-03 -9.888171916827559471e-04 -7.641773670911788940e-02 -2.490277960896492004e-02 -5.483005568385124207e-02 -2.991456538438796997e-02 2.248667925596237183e-02 -9.773193858563899994e-03 2.435748837888240814e-02 -1.960200257599353790e-02 4.872749559581279755e-04 -2.319381164852529764e-04 5.332838371396064758e-02 2.701602061279118061e-04 7.713164814049378037e-05 7.161735557019710541e-04 -1.837863959372043610e-02 1.353192050009965897e-02 -6.428515189327299595e-04 1.074823923408985138e-02 -1.752183772623538971e-03 -2.093531511491164565e-04 -1.296084932982921600e-02 -1.658391579985618591e-02 9.315510280430316925e-03 -2.620786428451538086e-03 3.784745465964078903e-03 -2.358266152441501617e-02 -5.375817418098449707e-03 -1.407187228323891759e-04 -7.794566918164491653e-03 6.366730667650699615e-04 -7.883111014962196350e-03 -5.524201691150665283e-02 3.692403063178062439e-02 -1.312254928052425385e-02 1.035225484520196915e-02 -4.465723468456417322e-04 -5.453033372759819031e-04 -2.013737894594669342e-02 3.527025505900382996e-02 1.156140468083322048e-03 -6.140331737697124481e-03 6.219717208296060562e-03 -1.757942838594317436e-03 3.153269365429878235e-02 2.224223315715789795e-02 7.282806094735860825e-03 -8.159234188497066498e-03 -2.334794588387012482e-02 1.011007931083440781e-03 9.399316273629665375e-03 4.417966702021658421e-04 -8.533461950719356537e-03 2.138181962072849274e-02 3.093480132520198822e-02 -7.730102166533470154e-03 -2.100153639912605286e-02 -1.495559886097908020e-02 9.492347948253154755e-03 5.681299138814210892e-03 -2.071429789066314697e-02 -3.519910946488380432e-02 -1.132952515035867691e-02 -2.180283330380916595e-02 7.855624891817569733e-03 1.896962639875710011e-04 -5.942794028669595718e-03 -1.388226170092821121e-02 1.206079032272100449e-03 1.870905980467796326e-02 5.240600928664207458e-02 -2.004679292440414429e-02 -3.888212377205491066e-04 -2.015030570328235626e-02 5.066447774879634380e-04 -1.821819692850112915e-02 2.069202624261379242e-02 -5.799102038145065308e-02 2.343967556953430176e-02 2.530419453978538513e-02 -1.976182684302330017e-02 1.317506376653909683e-02 3.485941560938954353e-03 -2.284937910735607147e-02 -7.627566810697317123e-04 7.688389159739017487e-03 3.910098224878311157e-03 1.645836234092712402e-02 -4.439540579915046692e-02 1.816002093255519867e-02 2.510912017896771431e-03 4.638815764337778091e-03 -3.461644053459167480e-02 -2.040308527648448944e-02 3.884453326463699341e-02 -5.762317683547735214e-03 -1.392370834946632385e-02 -2.705686783883720636e-04 -2.888168767094612122e-02 4.045727103948593140e-02 -3.221533447504043579e-02 2.377667836844921112e-02 -1.171819894807413220e-05 1.565808616578578949e-02 2.397782169282436371e-02 6.843159208074212074e-04 -5.606573820114135742e-02 -2.544018789194524288e-04 5.520327482372522354e-03 -1.874893344938755035e-02 -1.389158610254526138e-02 1.652773655951023102e-02 8.546816185116767883e-03 -1.156385708600282669e-02 -5.832186900079250336e-03 2.246249234303832054e-03 1.491120315222360659e-06 -3.786872327327728271e-02 1.731455884873867035e-02 2.008071605814620852e-04 -3.421417670324444771e-03 2.858741953969001770e-02 -1.675491780042648315e-02 -2.165755629539489746e-02 -5.515072960406541824e-03 -1.128478813916444778e-02 1.203270163387060165e-03 -1.718951016664505005e-02 -2.211797796189785004e-02 3.840430080890655518e-02 -2.853966876864433289e-02 5.421979003585875034e-04 -2.843426726758480072e-02 -4.934982396662235260e-03 2.889173477888107300e-02 -2.422427496640011668e-04 -1.474133599549531937e-02 -3.545082360506057739e-02 -1.988393254578113556e-02 1.370283309370279312e-02 -3.678482025861740112e-04 -7.006498635746538639e-04 5.569724016822874546e-04 -8.622545748949050903e-03 3.979191184043884277e-03 2.404643595218658447e-02 -1.436833175830543041e-03 -1.436671521514654160e-02 -4.129339009523391724e-02 2.515070326626300812e-02 -2.452937327325344086e-02 2.580697648227214813e-03 -1.047149766236543655e-02
1.151985605247318745e-03 2.302925661206245422e-02 -3.337677940726280212e-02 4.183923453092575073e-02 1.047181989997625351e-02 1.540202740579843521e-02 1.405143877491354942e-03 -6.617164472118020058e-04 -3.492023050785064697e-02 5.634556524455547333e-03 2.228243835270404816e-02 -2.383271930739283562e-05 -6.602401263080537319e-04 4.688669368624687195e-02 2.250919304788112640e-02 -9.360787807963788509e-04 5.375481676310300827e-03 4.617619328200817108e-03 -5.639513023197650909e-03 2.144749123544897884e-05 4.057767242193222046e-02 -6.360121071338653564e-03 6.951317656785249710e-03 -2.519053779542446136e-02 -3.233373537659645081e-02 3.177497535943984985e-02 5.205943249166011810e-03 3.682129830121994019e-02 1.998159661889076233e-02 -4.420993477106094360e-02 -2.664159983396530151e-03 2.236264292150735855e-03 1.338288653641939163e-02 -3.666758164763450623e-02 -2.791911363601684570e-02 4.516887292265892029e-02 -3.572828602045774460e-03 6.272128969430923462e-02 7.377693691523745656e-05 2.852260135114192963e-02 -5.338459275662899017e-03 -3.300389274954795837e-02 -5.722394213080406189e-02 1.117386762052774429e-02 -2.412630617618560791e-02 2.002750895917415619e-02 -5.077252280898392200e-04 9.042238525580614805e-05 -4.543713585007935762e-04 -2.180805429816246033e-02 1.488878857344388962e-02 -6.910567637532949448e-03 -7.687929319217801094e-04 4.127447679638862610e-02 -9.702081233263015747e-02 -2.032914571464061737e-02 -3.921688348054885864e-02 7.285944651812314987e-03 -5.487021990120410919e-04 6.530683953315019608e-03 1.289008092135190964e-02 -4.213985521346330643e-04 -9.815037250518798828e-03 3.204878885298967361e-04 -3.404725342988967896e-02 -7.529321312904357910e-02 -2.324269153177738190e-04 -2.349252626299858093e-02 2.303248830139636993e-02 -4.837086796760559082e-02 1.947971992194652557e-02 5.372459068894386292e-03 -6.112332339398562908e-04 1.076111104339361191e-02 2.546253963373601437e-04 4.496761597692966461e-03 -2.883449010550975800e-02 9.735221043229103088e-03 2.075479738414287567e-02 -8.186090737581253052e-02 2.410562592558562756e-04 4.719672724604606628e-04 -7.990694046020507812e-02 1.509971264749765396e-02 -6.894640624523162842e-03 -2.134986134478822351e-04 -1.445878949016332626e-02 8.577847853302955627e-03 2.062070183455944061e-02 2.007555961608886719e-02 1.146882120519876480e-02 5.567083135247230530e-04 -7.949009537696838379e-03 4.068960994482040405e-02 -7.426334195770323277e-04 -2.618307713419198990e-03 9.898500517010688782e-03 2.867303229868412018e-02 -8.398141711950302124e-03 -1.850026892498135567e-04 2.410109882475808263e-04 2.381440997123718262e-02 1.096364576369524002e-02 8.360032807104289532e-04 -1.108380183577537537e-01 -9.841935709118843079e-03 4.070394858717918396e-02 -5.158377345651388168e-03 -1.217093318700790405e-02 -1.615079306066036224e-02 -1.464112196117639542e-03 9.937859140336513519e-03 -6.584547809325158596e-04 -1.071457169018685818e-03 -1.327387429773807526e-02 2.668235683813691139e-04 -4.090956063009798527e-04 3.021587908733636141e-04 -5.006211996078491211e-02 2.487547509372234344e-02 -1.215100055560469627e-04 3.672249149531126022e-03 -1.653490029275417328e-02 -4.165109130553901196e-04 2.633660845458507538e-02 2.226925827562808990e-02 3.156809881329536438e-02 -9.611982852220535278e-03 -7.399822352454066277e-04 3.356083855032920837e-02 6.622225046157836914e-03 2.055488293990492821e-03 -1.512050442397594452e-02 -1.032472937367856503e-03 2.418882679194211960e-03 1.211856305599212646e-02 8.112056553363800049e-02 -3.084358386695384979e-02 -8.565378375351428986e-03 -4.090244474355131388e-04 1.464470551582053304e-04 9.879259392619132996e-03 1.139760017395019531e-02 -1.422131783328950405e-03 -6.441922741942107677e-04 -4.198447335511445999e-03 1.720264926552772522e-02 8.853698149323463440e-03 7.303218822926282883e-03 4.208820313215255737e-02 2.433566143736243248e-03 2.219175919890403748e-02 4.867158713750541210e-04 4.077664762735366821e-02 1.075614363799104467e-05 -1.343588926829397678e-03 1.433920394629240036e-02 1.149083767086267471e-02 -6.756759714335203171e-03 -1.692898757755756378e-02 1.597634516656398773e-02 -2.479102695360779762e-03 2.359772473573684692e-02 -5.113693885505199432e-03 2.692242152988910675e-02 -1.147779729217290878e-02 1.394307147711515427e-02 1.985856797546148300e-03 2.222928451374173164e-04 3.790007671341300011e-03 -4.671871196478605270e-03 8.089242037385702133e-04 8.419788628816604614e-02 1.135250832885503769e-02 1.608554832637310028e-02 1.089139404939487576e-04 -3.074631839990615845e-02 6.797556998208165169e-04 4.002705682069063187e-03 1.386260520666837692e-02 5.198623985052108765e-02 -4.464461468160152435e-03 6.160720810294151306e-02 3.420349955558776855e-02 -1.233189553022384644e-02 -5.730513948947191238e-03 9.589014574885368347e-03 -2.425839484203606844e-04 -6.165688857436180115e-03 -7.589421421289443970e-02 1.435895729809999466e-02 -7.030631601810455322e-02 -6.019532307982444763e-02 -7.660788949579000473e-03 3.691200166940689087e-02 -2.357845567166805267e-02 1.268308609724044800e-02 -3.130320832133293152e-02 1.614918559789657593e-02 6.865167059004306793e-03 2.731848508119583130e-04 -4.700059536844491959e-03 5.243402440100908279e-03 1.877749152481555939e-02 1.440010871738195419e-02 -7.168762385845184326e-05 -2.375621348619461060e-02 4.402937367558479309e-03 6.174360401928424835e-03 2.058163098990917206e-02 4.010107368230819702e-04 2.787243947386741638e-02 -1.818790845572948456e-02 1.094457507133483887e-02 2.801010943949222565e-02 -1.256717462092638016e-02 -8.794741006568074226e-04 3.816441446542739868e-02 -2.334965206682682037e-02 6.790129700675606728e-04 -6.466410309076309204e-02 -3.047988004982471466e-02 1.151027507148683071e-03 2.650099247694015503e-02 -2.601813897490501404e-02 1.352892164140939713e-02 1.381560694426298141e-02 4.578954540193080902e-03 -4.413457214832305908e-02 -2.452032349538058043e-04 8.955902419984340668e-03 -2.201782539486885071e-02 4.079289210494607687e-04 -2.665025740861892700e-02 -8.009475277503952384e-05 -5.444183573126792908e-02 8.087307214736938477e-03 4.604011774063110352e-02 2.980453064083121717e-05 -3.544250130653381348e-02 4.871465265750885010e-02 8.483180776238441467e-03 9.967246092855930328e-03 1.802494167350232601e-03 -8.903504931367933750e-05 3.890588122885674238e-04 1.587341772392392159e-03 5.346549674868583679e-03 2.075681090354919434e-02 1.569572603330016136e-03 -5.284288898110389709e-03 -6.040240451693534851e-02 -2.007775753736495972e-02 1.818932406604290009e-02 2.873111329972743988e-02 -1.971847563982009888e-02
-3.726493450812995434e-04 1.557709462940692902e-02 -2.361751906573772430e-02 3.566595911979675293e-02 3.332434594631195068e-02 1.481465063989162445e-02 -1.072803419083356857e-02 3.258801007177680731e-04 -6.760112009942531586e-03 3.347364719957113266e-03 -2.501372806727886200e-02 -3.867558552883565426e-04 -8.831029408611357212e-04 -1.686850935220718384e-02 -2.054706029593944550e-02 7.007134990999475121e-05 -1.536373980343341827e-02 -1.643890514969825745e-02 -1.036296505481004715e-02 1.240701414644718170e-03 2.195418439805507660e-02 3.743812069296836853e-02 2.861712500452995300e-02 -4.199626296758651733e-02 1.153931301087141037e-02 6.285500526428222656e-02 1.424972340464591980e-02 5.694855470210313797e-03 -8.337165229022502899e-03 -4.795806948095560074e-03 -2.134513668715953827e-02 2.467763988533988595e-05 9.452096186578273773e-03 -1.029025577008724213e-02 5.351771041750907898e-02 3.537826985120773315e-02 -9.146178490482270718e-04 3.830580413341522217e-02 7.311455556191504002e-04 9.159076958894729614e-03 -1.846352405846118927e-02 3.357395902276039124e-02 6.419139355421066284e-02 -1.235463423654437065e-03 5.555322859436273575e-03 -2.702109701931476593e-02 -8.338540646946057677e-05 1.504009356722235680e-03 -6.309658056125044823e-04 5.826394259929656982e-02 2.994057023897767067e-03 3.071796335279941559e-02 -3.284502308815717697e-04 -2.148785628378391266e-03 -2.351635880768299103e-02 -2.398309856653213501e-02 9.599954937584698200e-04 -1.064453274011611938e-02 -2.394503826508298516e-04 -1.178867463022470474e-02 -2.136316616088151932e-03 -6.071028765290975571e-04 -1.153756957501173019e-02 3.257749485783278942e-04 6.531397346407175064e-03 -6.189369596540927887e-03 2.460797841195017099e-04 4.435048624873161316e-02 -1.544342283159494400e-02 1.381930150091648102e-02 1.328965649008750916e-02 -1.296514738351106644e-02 -3.543863305822014809e-03 1.132384128868579865e-02 -6.257154745981097221e-04 -1.870356872677803040e-02 -2.696806937456130981e-02 -1.287660188972949982e-02 3.639199584722518921e-02 -1.375813502818346024e-02 -1.006305450573563576e-03 1.273439265787601471e-04 -1.453469134867191315e-02 -1.780053414404392242e-02 -1.481414493173360825e-02 1.117521678679622710e-04 1.274937391281127930e-02 -1.311391033232212067e-02 -1.307665370404720306e-03 4.984013270586729050e-03 -7.085401564836502075e-03 -7.065708050504326820e-04 3.838907461613416672e-03 -1.352550927549600601e-03 -8.143077138811349869e-04 -1.881572604179382324e-02 -2.023852663114666939e-03 -3.235338255763053894e-02 -9.170136414468288422e-03 -1.687751209829002619e-04 -3.654411120805889368e-04 2.361782267689704895e-02 4.891949705779552460e-03 5.083907162770628929e-04 -6.586245447397232056e-02 1.958063058555126190e-02 -2.101511694490909576e-02 9.086941927671432495e-02 -3.912727907299995422e-02 2.285542711615562439e-02 2.721916185691952705e-03 6.468720966950058937e-04 -1.025089877657592297e-04 -5.533393123187124729e-04 -5.469823256134986877e-03 -1.347237994195893407e-04 7.515509787481278181e-05 -1.032003550790250301e-03 -2.270622923970222473e-02 -6.721713580191135406e-03 1.720813888823613524e-04 -1.079888083040714264e-02 -1.000575162470340729e-02 1.364495110465213656e-04 5.176741629838943481e-03 5.335557507351040840e-04 -1.769466139376163483e-02 -7.672202587127685547e-02 3.210709616541862488e-02 5.388540029525756836e-02 -7.941823452711105347e-03 -1.483724452555179596e-03 -3.923638537526130676e-02 8.767424733377993107e-04 -9.336479008197784424e-03 2.665535174310207367e-02 -4.142015427350997925e-02 -2.349473722279071808e-02 -2.104449458420276642e-02 7.584597333334386349e-04 7.247782777994871140e-04 7.596260868012905121e-03 -1.296373549848794937e-03 1.478979538660496473e-05 -4.901343025267124176e-03 -9.754903614521026611e-03 -6.728847511112689972e-03 -8.890823461115360260e-03 -1.491708680987358093e-02 -1.217915024608373642e-02 4.481369256973266602e-02 -1.790779270231723785e-02 2.227906516054645181e-04 3.582217730581760406e-03 -3.074951819144189358e-04 6.419572047889232635e-03 1.304015051573514938e-02 -2.534048072993755341e-02 4.759336356073617935e-03 -1.725359447300434113e-02 1.925865374505519867e-02 -1.752885803580284119e-02 -4.540419671684503555e-03 1.650430960580706596e-03 -3.402035683393478394e-02 -5.759140942245721817e-03 -5.718428641557693481e-02 -3.140919608995318413e-03 1.408516400260850787e-04 -1.092626014724373817e-03 2.112882584333419800e-02 4.220576374791562557e-04 -4.028673097491264343e-02 1.432129088789224625e-02 -6.055739358998835087e-04 -3.199014067649841309e-02 3.245058655738830566e-02 9.127536904998123646e-04 2.209616079926490784e-02 -1.510483678430318832e-02 -3.098765946924686432e-02 -1.195661537349224091e-02 3.867796063423156738e-02 -3.403088077902793884e-02 -1.010310836136341095e-02 -1.585448347032070160e-02 9.142015129327774048e-03 5.028326413594186306e-04 -3.226140514016151428e-02 9.813781827688217163e-02 4.344271495938301086e-02 3.255742415785789490e-02 -1.694983616471290588e-02 2.486639190465211868e-03 -1.540983561426401138e-02 5.183486640453338623e-02 -1.737387850880622864e-02 1.339713111519813538e-02 -5.237064510583877563e-02 -1.533463946543633938e-03 -4.917662008665502071e-04 7.585722208023071289e-02 9.405738860368728638e-02 1.363638555631041527e-03 -2.326159365475177765e-02 2.202441974077373743e-04 -6.717915087938308716e-02 -6.497902423143386841e-02 4.051449522376060486e-02 -1.601908705197274685e-03 -6.453277310356497765e-04 2.732332609593868256e-02 -5.693330429494380951e-03 1.183504122309386730e-03 4.315607249736785889e-02 -1.817525178194046021e-02 -7.730231736786663532e-04 1.135180797427892685e-02 9.378299117088317871e-03 5.566407344304025173e-04 -9.410086204297840595e-04 9.965755045413970947e-03 1.197399469674564898e-04 -3.208873048424720764e-02 2.678074873983860016e-02 -2.422587946057319641e-03 -5.964958472759462893e-05 -1.845944859087467194e-02 -1.735151000320911407e-02 -6.898598512634634972e-04 -3.525686217471957207e-03 1.450086198747158051e-02 -1.428537722676992416e-02 2.679800242185592651e-02 4.905566456727683544e-04 1.244840119034051895e-02 -1.347947679460048676e-02 5.341078154742717743e-03 -3.336097870487719774e-04 -9.048352949321269989e-03 -3.300993144512176514e-02 -2.544059231877326965e-02 -1.589362882077693939e-02 -3.059258498251438141e-02 4.073383170180022717e-04 -4.616408259607851505e-04 -5.147643387317657471e-03 2.971712313592433929e-02 -1.044598594307899475e-02 -1.005929894745349884e-02 9.084525518119335175e-04 -1.340389810502529144e-02 4.598424956202507019e-02 -6.380565930157899857e-03 -3.423775732517242432e-02 8.379551582038402557e-03
-3.008544153999537230e-04 5.168050061911344528e-03 -4.133977368474006653e-02 1.220529884449206293e-04 -2.974020130932331085e-02 -3.445835039019584656e-02 4.833344835788011551e-03 5.335575551725924015e-04 -7.693567313253879547e-03 -1.285215280950069427e-02 5.093416199088096619e-03 -4.399585304781794548e-05 1.410005963407456875e-03 -6.244417745620012283e-04 -1.369782257825136185e-02 -1.585925929248332977e-03 1.284017227590084076e-02 -3.728344745468348265e-04 1.004170719534158707e-02 4.271501966286450624e-04 1.539755612611770630e-02 7.617647759616374969e-03 3.597413597162812948e-04 7.064417935907840729e-03 -2.677273005247116089e-02 -2.951684640720486641e-03 1.168688852339982986e-02 -1.344605535268783569e-02 -1.073078997433185577e-02 -5.821261554956436157e-02 6.087135523557662964e-03 8.031217148527503014e-04 8.787545375525951385e-03 7.398728746920824051e-03 -2.505440264940261841e-03 -1.640865765511989594e-02 -8.936487138271331787e-03 -8.060597465373575687e-04 1.332950632786378264e-04 9.452940896153450012e-03 -7.070318795740604401e-03 -2.308709360659122467e-02 1.097904983907938004e-02 8.057280443608760834e-03 1.560186734423041344e-03 1.274789217859506607e-02 -8.725995576241984963e-05 7.536348421126604080e-04 2.502487914171069860e-04 -9.026361629366874695e-03 -6.196147762238979340e-03 5.789762828499078751e-03 4.905668320134282112e-04 1.971454732120037079e-02 -1.744288578629493713e-02 2.136211283504962921e-02 -2.121636085212230682e-02 -7.934918627142906189e-03 -2.477332600392401218e-04 -1.146205887198448181e-02 1.367145404219627380e-02 -2.213425032095983624e-04 -7.843436673283576965e-03 2.622856700327247381e-04 5.790954921394586563e-03 1.337871979922056198e-02 1.637039677007123828e-04 6.719473749399185181e-03 -5.638875882141292095e-04 -1.050206180661916733e-02 -5.489094182848930359e-04 2.019832283258438110e-02 2.030732855200767517e-02 3.432813100516796112e-03 2.457378141116350889e-04 2.291296375915408134e-03 2.833830565214157104e-02 1.624058373272418976e-02 -5.851708352565765381e-03 4.851365461945533752e-03 2.310696727363392711e-04 -1.781589671736583114e-04 -1.516387681476771832e-03 -3.447972610592842102e-02 -2.435586974024772644e-02 -1.441453932784497738e-04 -2.105402527377009392e-03 -8.086835034191608429e-03 3.810647642239928246e-03 8.891304954886436462e-03 8.816858753561973572e-04 2.776087785605341196e-04 7.973849773406982422e-03 2.480491297319531441e-03 2.957329852506518364e-04 -1.901182346045970917e-02 2.748024463653564453e-02 1.368404948152601719e-03 1.120726577937602997e-02 -8.197904680855572224e-04 -2.490463666617870331e-04 -1.499724690802395344e-03 7.858307100832462311e-03 2.524937153793871403e-04 -1.015920657664537430e-02 -1.212786417454481125e-02 -5.350882653146982193e-03 2.088948822347447276e-04 1.065810862928628922e-02 1.524475682526826859e-02 1.367714535444974899e-02 -5.175712518393993378e-03 -2.010147873079404235e-04 -9.647834813222289085e-04 9.099255548790097237e-04 7.279006531462073326e-04 -1.589994644746184349e-03 8.383613312616944313e-04 -3.136233426630496979e-03 -2.697947248816490173e-02 -1.138616236858069897e-03 -1.715467544272542000e-03 9.351388551294803619e-03 -6.588018732145428658e-05 8.000541478395462036e-03 -1.536136586219072342e-02 -1.092570484615862370e-03 -2.011921256780624390e-02 1.922020316123962402e-02 -1.424671709537506104e-02 -9.320415556430816650e-03 2.806522184982895851e-03 -5.509468168020248413e-02 3.032415697816759348e-04 -6.565411575138568878e-03 -3.504890017211437225e-03 5.253479816019535065e-03 3.614893928170204163e-02 -2.506342425476759672e-04 2.489249745849519968e-04 -3.230367437936365604e-04 2.531532943248748779e-02 6.780611816793680191e-03 -3.697673091664910316e-04 4.864747449755668640e-02 1.724594272673130035e-02 5.301991477608680725e-03 1.995212584733963013e-02 1.647041644901037216e-03 5.256594344973564148e-02 1.167838834226131439e-02 -4.967992193996906281e-03 1.741072919685393572e-04 8.873651735484600067e-03 3.806743188761174679e-05 1.645328127779066563e-03 1.578672975301742554e-02 2.025152929127216339e-02 3.859750228002667427e-03 5.668840836733579636e-03 6.089928559958934784e-03 -7.780077867209911346e-04 -6.263913121074438095e-03 -6.486256141215562820e-03 1.993337832391262054e-02 5.185561720281839371e-03 -7.548402994871139526e-03 8.550836704671382904e-03 1.920623617479577661e-04 1.394034177064895630e-02 1.244606729596853256e-02 1.002112636342644691e-03 1.036141067743301392e-02 3.639132156968116760e-02 -2.025136956945061684e-03 6.863591261208057404e-03 2.559093758463859558e-02 2.397009957348927855e-04 -3.589807543903589249e-03 -2.349437959492206573e-02 -1.327174250036478043e-02 -1.215869747102260590e-02 9.614592418074607849e-04 -1.132328901439905167e-02 1.505607552826404572e-02 -4.281682521104812622e-02 6.900707725435495377e-03 3.015504044014960527e-04 2.008121274411678314e-02 -3.930928185582160950e-02 -2.689890936017036438e-02 -7.271868642419576645e-03 8.674195967614650726e-03 -1.796039752662181854e-02 -1.819274947047233582e-02 1.216411776840686798e-02 1.392802107147872448e-03 -1.915980316698551178e-02 -1.289593800902366638e-02 6.437355652451515198e-03 -2.040884137386456132e-04 -6.632573902606964111e-03 -2.696117386221885681e-02 -4.243738483637571335e-03 -8.630556985735893250e-03 3.829812048934400082e-04 -9.628018364310264587e-03 -1.719744130969047546e-02 6.776387989521026611e-02 -6.818582769483327866e-03 -6.958421436138451099e-04 -1.222766749560832977e-02 -3.973283246159553528e-02 -5.290350876748561859e-03 -7.082987111061811447e-03 3.931236267089843750e-02 1.907642185688018799e-02 2.874494530260562897e-03 1.443856279365718365e-03 6.558880559168756008e-04 1.452848780900239944e-03 1.136507280170917511e-02 -5.019656382501125336e-04 -1.789373718202114105e-02 -6.706391461193561554e-03 2.083892701193690300e-03 -3.610249841585755348e-03 -3.963836655020713806e-02 1.304836571216583252e-02 -2.034903445746749640e-05 1.028110459446907043e-02 1.185684837400913239e-02 1.642405241727828979e-02 8.073744829744100571e-04 4.474296292755752802e-04 -3.378060087561607361e-02 4.738154821097850800e-03 -2.013549441471695900e-03 6.492272368632256985e-04 -7.233337964862585068e-03 -4.765507951378822327e-02 9.967737831175327301e-03 -7.722362061031162739e-04 1.127445977181196213e-02 6.521564500872045755e-05 -1.214440446346998215e-03 1.873887702822685242e-02 1.890431530773639679e-02 9.139481117017567158e-04 -1.205988507717847824e-02 -2.263810165459290147e-05 5.875672679394483566e-03 -2.773686498403549194e-02 4.941070917993783951e-03 -1.287950109690427780e-02 2.054118178784847260e-02
1.050028251484036446e-03 -4.150532651692628860e-03 3.152957931160926819e-02 1.557713747024536133e-02 -7.326203864067792892e-03 1.109828427433967590e-02 3.490691073238849640e-03 -4.844543000217527151e-04 4.531410522758960724e-03 4.248223733156919479e-03 -1.336229965090751648e-02 3.274479604442603886e-05 1.930663565872237086e-04 -1.050036214292049408e-02 -3.274683281779289246e-02 8.329602424055337906e-04 7.322798017412424088e-03 -3.947464376688003540e-02 -2.560783550143241882e-02 -1.962770184036344290e-04 -1.455850712954998016e-02 -3.934266045689582825e-02 2.528897114098072052e-02 9.878225624561309814e-03 -7.532587274909019470e-03 1.444771327078342438e-02 -1.830277778208255768e-02 1.642810739576816559e-02 -1.111816894263029099e-02 9.254336357116699219e-03 3.118791431188583374e-02 -8.379428763873875141e-04 3.858845308423042297e-02 1.954117789864540100e-02 -1.813195087015628815e-02 4.737663641571998596e-02 5.797036364674568176e-02 2.020372077822685242e-02 -1.195609274873277172e-05 3.064581658691167831e-03 -3.760481625795364380e-02 -2.377070859074592590e-02 -3.094359114766120911e-02 -5.024590995162725449e-03 -2.545375144109129906e-03 -2.972059696912765503e-02 1.810080430004745722e-04 -1.320575014688074589e-03 8.474019705317914486e-04 -1.998315937817096710e-02 -1.621868833899497986e-02 -4.867923259735107422e-02 -1.467886177124455571e-04 -3.049926273524761200e-02 -5.498685408383607864e-03 -3.941683843731880188e-02 -5.521478131413459778e-02 2.684669103473424911e-03 -9.899960132315754890e-04 -2.095280773937702179e-02 7.608982268720865250e-03 -1.037483685649931431e-03 -5.082727223634719849e-02 8.858675719238817692e-04 -1.965149678289890289e-02 -3.099633380770683289e-03 2.141342702088877559e-04 -4.338238015770912170e-02 -3.239537775516510010e-02 -2.868715673685073853e-02 9.334219619631767273e-03 -5.061214789748191833e-02 -5.552773829549551010e-03 7.519430015236139297e-03 4.593997728079557419e-04 -1.594559173099696636e-03 8.057659491896629333e-03 -7.955262437462806702e-03 1.009397581219673157e-02 -2.973039168864488602e-03 -7.396665751002728939e-04 5.360110080800950527e-04 2.124557644128799438e-02 1.228054892271757126e-02 -1.446823775768280029e-02 6.104752537794411182e-04 -3.888390213251113892e-02 -2.894477173686027527e-02 -1.701005175709724426e-02 -2.894577383995056152e-02 -1.600451185368001461e-03 3.306393919046968222e-04 4.230101127177476883e-03 5.659585818648338318e-03 2.572740195319056511e-04 -3.725197166204452515e-02 4.931960254907608032e-03 -2.611257322132587433e-02 -2.729010954499244690e-02 -5.327536491677165031e-04 7.900776108726859093e-04 -1.240487303584814072e-02 -1.194884651340544224e-03 2.341654326301068068e-04 3.639732673764228821e-02 6.187515798956155777e-03 1.909369602799415588e-02 2.832044847309589386e-02 -2.355156000703573227e-03 -5.629070568829774857e-03 2.631055563688278198e-02 2.708878368139266968e-02 2.676421718206256628e-05 1.938670466188341379e-04 4.853004589676856995e-02 -2.840868728526402265e-05 -6.269639125093817711e-04 -1.094746185117401183e-04 -5.627886392176151276e-03 1.815454103052616119e-02 1.751815434545278549e-03 5.713575333356857300e-02 5.013525485992431641e-02 8.215431589633226395e-04 -7.620346732437610626e-03 -1.648222468793392181e-02 3.166226670145988464e-02 -1.505640521645545959e-02 -5.569541826844215393e-03 -1.813992485404014587e-02 -4.420542716979980469e-02 2.116808434948325157e-03 -2.055414393544197083e-02 -2.331641189812216908e-05 -4.232258349657058716e-02 4.449336975812911987e-02 -1.044419314712285995e-02 -5.435416474938392639e-03 3.596137836575508118e-02 8.525742487108800560e-06 5.419164081104099751e-04 -3.614517301321029663e-02 -4.075248725712299347e-03 1.334006228717043996e-04 -1.160388533025979996e-02 1.816865056753158569e-02 -4.006510600447654724e-03 -8.946999441832304001e-04 -2.414440549910068512e-02 -6.650826428085565567e-03 2.345285750925540924e-02 3.917993046343326569e-03 8.164067403413355350e-04 -3.274193778634071350e-02 -2.412722533335909247e-04 1.643228903412818909e-02 -3.876957576721906662e-03 9.857396595180034637e-03 -3.688502684235572815e-02 2.012235857546329498e-02 1.443365029990673065e-02 5.831956490874290466e-02 1.745302043855190277e-02 -2.779147028923034668e-02 1.850609784014523029e-03 1.637091115117073059e-02 2.408199198544025421e-02 1.839547231793403625e-02 5.486364243552088737e-04 -1.422368921339511871e-02 -4.080531001091003418e-02 9.088842780329287052e-04 -3.017788403667509556e-04 -6.368906795978546143e-02 -1.031317748129367828e-02 4.236186668276786804e-02 2.770188264548778534e-02 -3.850039793178439140e-04 -2.112126536667346954e-02 6.012906786054372787e-03 5.651410296559333801e-02 5.331790819764137268e-02 1.129385456442832947e-02 -1.732016913592815399e-02 5.101594701409339905e-02 1.730454154312610626e-03 1.123886648565530777e-02 -3.203937667421996593e-04 -7.220133207738399506e-03 4.367873817682266235e-02 2.531126327812671661e-02 -1.388717349618673325e-02 -8.473517373204231262e-03 2.568331547081470490e-02 1.602420955896377563e-02 -1.607819087803363800e-02 3.139328211545944214e-03 -5.264791846275329590e-02 6.908434908837080002e-03 3.219924494624137878e-02 -9.213876182911917567e-05 2.184918709099292755e-02 5.141141638159751892e-02 -2.425785409286618233e-03 -7.554663345217704773e-03 1.843606696638744324e-05 2.290777117013931274e-02 -5.904144421219825745e-02 -1.484492886811494827e-02 1.570825278759002686e-02 -1.188947426271624863e-04 1.789448969066143036e-02 4.047674313187599182e-02 1.210964168421924114e-03 3.173023695126175880e-03 1.199291460216045380e-02 1.117863319814205170e-02 3.698252886533737183e-02 -4.970427975058555603e-02 -7.494259625673294067e-04 -4.252906888723373413e-03 -2.969489432871341705e-02 -1.108050128095783293e-04 -2.687003836035728455e-02 -2.475196681916713715e-02 2.156683243811130524e-03 -8.093724027276039124e-03 -9.020424447953701019e-03 1.367040909826755524e-02 1.142515102401375771e-04 -6.043661851435899734e-03 2.416976913809776306e-02 -2.191889565438032150e-03 -2.572346106171607971e-02 3.389228368178009987e-04 -1.822120859287679195e-03 -1.173096895217895508e-02 -1.019637379795312881e-02 -9.033444803208112717e-04 5.522544030100107193e-03 1.934296824038028717e-02 1.828188635408878326e-02 -3.250246122479438782e-02 -1.950608566403388977e-02 -4.657421377487480640e-04 6.910303491167724133e-04 1.494059339165687561e-03 6.097410339862108231e-03 -1.020904164761304855e-02 -4.218560084700584412e-02 -4.898348078131675720e-02 1.669537741690874100e-03 7.356599438935518265e-03 -9.589666500687599182e-03 2.424850128591060638e-03 -1.748613454401493073e-02
7.062075892463326454e-04 1.254199771210551262e-03 -3.222444280982017517e-02 5.148313473910093307e-03 5.141666159033775330e-02 -3.360839094966650009e-03 -1.852563209831714630e-02 5.102114519104361534e-04 -4.783508181571960449e-02 -2.270025759935379028e-02 7.844912819564342499e-03 3.873618552461266518e-04 -3.806497843470424414e-04 1.385621260851621628e-02 -2.605823334306478500e-03 5.883751437067985535e-04 2.004263736307621002e-02 2.742206444963812828e-03 2.967256493866443634e-02 -3.187236725352704525e-04 -2.696026861667633057e-02 -2.281120978295803070e-02 2.802968770265579224e-02 -2.093089371919631958e-02 2.691565454006195068e-02 -5.438855849206447601e-03 4.736978933215141296e-02 -1.572760008275508881e-02 1.379761146381497383e-03 -4.659717669710516930e-04 -1.741325482726097107e-02 -2.686812695174012333e-05 7.442071288824081421e-02 -3.359356895089149475e-02 -2.365555800497531891e-02 -3.192687872797250748e-03 9.576955810189247131e-03 6.410975940525531769e-03 -1.131746801547706127e-03 -2.230224898084998131e-03 1.019838545471429825e-02 1.656154915690422058e-02 2.136529609560966492e-02 1.252765860408544540e-02 -1.656408421695232391e-02 1.725840941071510315e-02 -6.984186475165188313e-04 1.031999243423342705e-03 7.151403697207570076e-04 -2.790536545217037201e-02 -2.704274468123912811e-02 8.720889687538146973e-03 -1.076301326975226402e-03 5.118163302540779114e-02 6.009482312947511673e-03 3.894632309675216675e-02 1.322712283581495285e-02 -2.228482440114021301e-02 -4.399815807119011879e-04 1.512760296463966370e-03 -2.357989363372325897e-02 3.218111232854425907e-04 1.297323033213615417e-02 1.389047538395971060e-04 1.638389192521572113e-02 6.691429298371076584e-03 -3.671335289254784584e-04 1.895552687346935272e-02 -1.055026240646839142e-02 -4.581100493669509888e-02 2.118868380784988403e-02 -1.205827016383409500e-02 -2.544710226356983185e-02 -6.615998223423957825e-03 -2.721295095398090780e-05 -4.214297514408826828e-03 7.756929099559783936e-02 -1.340512186288833618e-02 -1.078532449901103973e-02 -8.001415990293025970e-03 -1.255843439139425755e-03 7.400938193313777447e-04 1.066583208739757538e-02 -3.744464740157127380e-02 9.621466509997844696e-03 1.584302372066304088e-04 -1.556540746241807938e-02 -8.522239513695240021e-03 1.306735537946224213e-02 9.679713402874767780e-04 2.577384933829307556e-03 -4.247797769494354725e-04 -2.841000631451606750e-02 -1.787096075713634491e-02 -3.625850076787173748e-04 1.446309499442577362e-02 7.424607872962951660e-02 9.682350791990756989e-03 2.914554066956043243e-02 1.589940220583230257e-04 -5.627385689876973629e-04 -1.745073497295379639e-02 -2.095140703022480011e-02 -5.972284125164151192e-04 -4.397751035867258906e-05 -2.748701721429824829e-02 2.685828693211078644e-02 -4.122464917600154877e-03 1.501884032040834427e-02 8.424694649875164032e-03 -4.204025492072105408e-03 5.635476857423782349e-02 -5.761028151027858257e-04 -7.690596248721703887e-05 -3.201900422573089600e-02 -1.157833976321853697e-04 7.201464613899588585e-04 -5.213009426370263100e-04 3.655416145920753479e-02 -2.763646654784679413e-02 7.913013687357306480e-04 -4.294754937291145325e-03 3.751559183001518250e-02 4.458090406842529774e-04 -8.065736852586269379e-03 -1.672402210533618927e-02 -9.702689014375209808e-03 2.805841900408267975e-02 -9.901629760861396790e-03 -4.651005379855632782e-03 1.194712705910205841e-02 2.638125559315085411e-03 2.062226459383964539e-02 -9.077333379536867142e-04 1.088891457766294479e-02 6.401316821575164795e-02 2.602072618901729584e-02 3.431510180234909058e-02 1.263165567070245743e-02 9.345344005851075053e-05 2.028845628956332803e-04 1.724874228239059448e-02 2.835664898157119751e-02 -2.216026477981358767e-04 6.179280113428831100e-03 -4.003302380442619324e-02 -8.264635689556598663e-03 -1.492714323103427887e-02 5.120699293911457062e-03 -1.585465623065829277e-03 3.104801848530769348e-02 9.076480567455291748e-02 -8.877242216840386391e-04 1.488033588975667953e-02 4.908025730401277542e-04 -2.544319722801446915e-03 -2.143683098256587982e-02 -6.395156495273113251e-03 3.264430537819862366e-02 5.670134723186492920e-02 -1.694061607122421265e-02 -2.322493493556976318e-02 -1.533787325024604797e-02 -1.026654988527297974e-02 7.719345390796661377e-03 -2.207574434578418732e-03 4.559577442705631256e-03 2.685306026251055300e-05 -2.396846393821761012e-04 -1.098347734659910202e-02 1.899000257253646851e-03 -8.749080006964504719e-04 7.175209000706672668e-03 -2.140575088560581207e-02 2.215677639469504356e-03 2.061199024319648743e-02 -4.136573523283004761e-02 -7.369116065092384815e-05 -3.620378300547599792e-02 -1.141429133713245392e-02 -6.739329546689987183e-03 -1.451704278588294983e-02 -3.060793271288275719e-03 -1.585734076797962189e-02 -1.956653036177158356e-02 -5.994595587253570557e-03 -3.366456553339958191e-02 -7.567992433905601501e-04 -3.017975017428398132e-02 1.026219615596346557e-05 -3.128105774521827698e-02 -2.587851323187351227e-02 2.733063697814941406e-02 -8.208379149436950684e-02 -4.460599645972251892e-02 -3.142233937978744507e-02 -6.307585630565881729e-03 1.711762137711048126e-02 7.355148438364267349e-03 4.631320759654045105e-02 8.072457421803846955e-05 -3.129904344677925110e-02 1.533284224569797516e-02 4.077361896634101868e-03 1.984789501875638962e-03 3.720258828252553940e-04 1.789994654245674610e-03 -7.433960679918527603e-03 1.218704320490360260e-02 -1.670665107667446136e-02 5.488875904120504856e-04 -1.285289321094751358e-02 3.345092758536338806e-02 1.065338309854269028e-02 1.661388017237186432e-02 -1.700709387660026550e-02 -3.665023297071456909e-02 -1.905583892948925495e-03 -4.723832011222839355e-02 3.106836520601063967e-04 -3.141761571168899536e-02 1.571019296534359455e-03 -1.958319480763748288e-04 -5.124577321112155914e-03 5.332864820957183838e-02 1.465667691081762314e-02 9.794805198907852173e-03 3.660479933023452759e-02 4.522417113184928894e-02 5.782485823146998882e-04 1.083186548203229904e-02 1.603257097303867340e-02 -1.465151552110910416e-02 -3.182123601436614990e-02 -4.203626667731441557e-05 2.104994095861911774e-02 -2.354753762483596802e-02 -1.024432759732007980e-02 -7.893915753811597824e-04 -2.783712930977344513e-02 -7.205603271722793579e-02 1.613592728972434998e-02 -2.195424633100628853e-03 -2.012625895440578461e-02 7.469231495633721352e-04 -5.026445433031767607e-05 1.577434246428310871e-03 2.644732361659407616e-03 -8.718063123524188995e-03 7.219819352030754089e-03 -2.336565405130386353e-03 -4.020502418279647827e-02 6.707046180963516235e-03 1.106202509254217148e-02 -2.465238980948925018e-02 -3.863698989152908325e-02
-4.423994687385857105e-04 -4.360761493444442749e-03 -5.887126084417104721e-03 1.945745199918746948e-02 2.520855749025940895e-03 -2.693476155400276184e-02 4.844819381833076477e-02 1.974010141566395760e-03 1.918757334351539612e-02 5.542822764255106449e-04 -5.516663659363985062e-03 -5.171077646082267165e-05 -5.522374412976205349e-04 3.365151956677436829e-02 -6.222078576683998108e-03 1.781279337592422962e-03 4.126815591007471085e-03 -1.131199579685926437e-02 -1.059230696409940720e-02 1.273964298889040947e-03 1.244033034890890121e-02 -3.656424814835190773e-03 3.482366353273391724e-02 3.440392389893531799e-02 4.426645487546920776e-02 5.269699264317750931e-03 2.637016214430332184e-02 1.422409247606992722e-02 -2.817096002399921417e-02 1.547957956790924072e-02 2.464226074516773224e-02 1.162696629762649536e-03 1.970979012548923492e-02 2.097863517701625824e-02 -6.945592351257801056e-03 -3.429347416386008263e-03 -5.966759100556373596e-02 9.660951327532529831e-04 -5.663467891281470656e-05 5.645928438752889633e-03 -3.557859361171722412e-02 -3.948757052421569824e-02 -5.453494563698768616e-02 -2.654296718537807465e-02 5.529579892754554749e-02 -2.802957966923713684e-02 2.521011047065258026e-04 3.968646633438766003e-04 2.984073071274906397e-04 -2.264520153403282166e-02 -8.625470101833343506e-03 1.433449611067771912e-02 6.572300335392355919e-04 7.168540731072425842e-03 -7.232566364109516144e-03 -1.098077092319726944e-02 -3.718249872326850891e-02 1.289223507046699524e-02 -8.435064228251576424e-04 -2.269451506435871124e-02 -1.295251771807670593e-02 -3.761248372029513121e-04 2.964156912639737129e-03 -3.509060770738869905e-04 -5.165097489953041077e-02 -1.234449818730354309e-02 -7.367097423411905766e-04 -2.273442596197128296e-02 2.142639830708503723e-03 -4.515615478157997131e-02 -7.025162875652313232e-02 1.292450912296772003e-02 7.414659950882196426e-03 2.064137905836105347e-02 -1.019867067952873185e-05 -3.225299715995788574e-02 6.280814297497272491e-03 4.165313765406608582e-02 1.604348234832286835e-02 -1.703136414289474487e-02 9.685699478723108768e-05 -9.292024769820272923e-04 -1.317327097058296204e-02 2.569998032413423061e-04 -1.720378734171390533e-02 -2.880804240703582764e-04 1.259473501704633236e-03 -8.584327064454555511e-03 -1.191825885325670242e-02 -1.193306059576570988e-03 -2.794424071907997131e-02 2.754097513388842344e-04 9.038381278514862061e-03 -1.073773205280303955e-02 -8.107754547381773591e-05 -1.018097903579473495e-02 1.673511788249015808e-02 3.266323730349540710e-02 -8.762338198721408844e-03 1.466806279495358467e-04 4.956983029842376709e-04 6.186754908412694931e-03 -1.169536728411912918e-02 1.263640122488141060e-03 2.271235734224319458e-02 2.157820202410221100e-02 -1.639338955283164978e-02 -5.997058469802141190e-03 4.484111850615590811e-04 3.277544304728507996e-02 -2.884406596422195435e-02 1.868008822202682495e-02 -2.282710629515349865e-04 3.901821910403668880e-04 -4.533298313617706299e-02 -5.147459451109170914e-04 -6.300659733824431896e-04 -2.501470444258302450e-04 -4.874026402831077576e-02 -1.144244801253080368e-02 -1.534201437607407570e-04 -6.846217811107635498e-02 -4.280965402722358704e-02 3.636420296970754862e-04 -9.948306716978549957e-03 2.247579023241996765e-02 -2.005099505186080933e-02 1.669783145189285278e-02 -1.834413036704063416e-02 4.679078236222267151e-02 -1.082301256246864796e-03 5.946216406300663948e-04 2.787427231669425964e-02 1.874653826234862208e-04 -4.962516948580741882e-03 2.448879182338714600e-02 3.827555105090141296e-02 6.027804687619209290e-03 -2.049881592392921448e-02 3.433325327932834625e-04 -2.783305244520306587e-04 3.816018998622894287e-02 -5.700650624930858612e-03 -4.124237166251987219e-04 7.867269217967987061e-03 1.836630515754222870e-02 -2.535709552466869354e-02 3.864195570349693298e-02 -3.438825905323028564e-02 -1.025443244725465775e-02 -6.477990187704563141e-03 4.844920709729194641e-02 4.674913943745195866e-04 1.665481738746166229e-02 3.840993158519268036e-04 1.239977683871984482e-02 2.406221115961670876e-03 4.591292887926101685e-02 -1.008109282702207565e-02 1.961841993033885956e-02 1.168428640812635422e-02 -4.284819122403860092e-03 6.931138224899768829e-03 1.580538041889667511e-02 1.006492320448160172e-02 -2.470872597768902779e-03 4.892940074205398560e-02 -1.721834018826484680e-02 -7.895788876339793205e-04 1.222465070895850658e-03 1.658442802727222443e-02 -5.188236536923795938e-05 1.288853958249092102e-02 -3.786603733897209167e-02 -1.931120827794075012e-02 -4.051303118467330933e-02 -4.816452506929636002e-03 -2.017669903580099344e-04 1.515041571110486984e-02 -3.215128183364868164e-02 2.217614091932773590e-02 -5.685639008879661560e-02 -5.940821487456560135e-03 3.515592217445373535e-02 -2.896504662930965424e-02 1.654778607189655304e-02 1.303638331592082977e-02 4.785582132171839476e-04 2.023406123043969274e-04 -2.489959821105003357e-02 -9.855624288320541382e-03 9.074207395315170288e-03 -3.320575878024101257e-02 -2.923683263361454010e-02 -6.791923660784959793e-03 -1.111851166933774948e-02 -1.914511434733867645e-02 -1.343530509620904922e-02 4.757897183299064636e-02 3.642163053154945374e-02 2.219613379565998912e-04 7.664182223379611969e-03 -5.810801405459642410e-03 2.277278900146484375e-02 -1.460249628871679306e-02 2.040966210188344121e-04 -5.931637133471667767e-04 4.636488854885101318e-03 -1.047446765005588531e-02 3.363553062081336975e-02 5.473368801176548004e-04 1.388209965080022812e-02 1.566064357757568359e-02 -2.459971606731414795e-02 6.908847019076347351e-03 -2.483248710632324219e-02 -3.246214706450700760e-03 1.160124689340591431e-02 -3.089946694672107697e-02 -4.996781353838741779e-04 -1.424757018685340881e-02 -5.391214415431022644e-02 -2.209041849710047245e-04 2.105861669406294823e-03 2.599840424954891205e-02 -2.556336484849452972e-02 -1.649357005953788757e-02 5.128990858793258667e-03 2.619661763310432434e-02 -4.294581012800335884e-04 -2.757891267538070679e-02 2.178912796080112457e-02 3.998601064085960388e-02 -1.177651528269052505e-02 -2.887136070057749748e-04 2.700738236308097839e-02 -6.933697499334812164e-03 -2.251374069601297379e-03 1.833630522014573216e-04 1.084943185560405254e-03 -2.838288433849811554e-02 -1.751506142318248749e-02 -1.387449167668819427e-02 -1.429514866322278976e-02 8.224913472076877952e-05 2.360397775191813707e-04 -5.722631700336933136e-03 7.715960964560508728e-03 -1.875772699713706970e-02 -4.027910996228456497e-03 -1.084149908274412155e-02 -1.802884601056575775e-02 -8.004716597497463226e-03 -2.492414601147174835e-02 -1.482156757265329361e-02 -2.234088629484176636e-02
3.933078842237591743e-04 -7.507286034524440765e-03 2.061288058757781982e-02 -1.322414632886648178e-02 4.232328012585639954e-02 1.570572331547737122e-02 1.197817549109458923e-02 -1.061987015418708324e-03 -6.324597168713808060e-03 -1.480552833527326584e-03 -3.639679402112960815e-02 -6.960645550861954689e-04 6.944627966731786728e-04 5.206142365932464600e-02 -1.161992736160755157e-02 -2.503578318282961845e-03 -4.035723686683923006e-04 -1.021245215088129044e-02 -2.836390584707260132e-02 1.004834994091652334e-04 5.885714292526245117e-02 8.333415724337100983e-03 -9.038372896611690521e-03 9.954062290489673615e-03 9.385471045970916748e-02 -2.351775765419006348e-02 4.109635949134826660e-02 -1.029771752655506134e-02 3.502811596263200045e-04 3.015160374343395233e-02 1.484699267894029617e-02 -4.732344241347163916e-04 1.410170458257198334e-03 5.028383433818817139e-02 1.241650618612766266e-02 -2.128312923014163971e-02 -2.960395440459251404e-02 -1.193433161824941635e-02 -4.715817049145698547e-04 -2.470260113477706909e-02 1.076330337673425674e-02 7.015084382146596909e-03 -2.309469506144523621e-02 2.840184606611728668e-03 -8.166361949406564236e-04 -2.594314901216421276e-05 -6.920052692294120789e-04 3.092317201662808657e-04 3.988392709288746119e-04 2.025317400693893433e-02 -7.234385702759027481e-03 8.503228425979614258e-03 5.172321471036411822e-05 -1.465354394167661667e-02 3.543783724308013916e-02 -4.626087471842765808e-02 1.906130276620388031e-02 -2.092602290213108063e-02 -1.084621646441519260e-03 3.529783105477690697e-03 -4.530732519924640656e-03 -5.895304493606090546e-04 5.676411092281341553e-02 3.838723641820251942e-04 5.666311085224151611e-02 -4.145847260951995850e-02 -1.424354617483913898e-03 3.984759747982025146e-02 2.585480222478508949e-03 -6.384224444627761841e-02 -4.713610745966434479e-03 1.336109731346368790e-02 2.017956599593162537e-02 -1.321591157466173172e-02 9.926740312948822975e-04 1.206511911004781723e-02 -3.823171555995941162e-02 1.904445514082908630e-02 -4.701790865510702133e-03 -4.439414292573928833e-02 5.945230368524789810e-04 1.318705180892720819e-04 4.786432534456253052e-02 -1.312618982046842575e-02 -4.185537621378898621e-02 9.691019658930599689e-04 3.079048544168472290e-02 -3.339264076203107834e-03 5.658102454617619514e-04 6.007345509715378284e-04 -5.026957485824823380e-03 -4.042917134938761592e-05 1.668904349207878113e-02 -2.933378331363201141e-03 4.522443632595241070e-04 -1.863401941955089569e-02 1.389567623846232891e-03 4.362158011645078659e-03 -2.831638976931571960e-02 5.579283970291726291e-05 5.268461536616086960e-04 -1.637486182153224945e-02 -2.675418555736541748e-02 5.852022441104054451e-04 -5.267914757132530212e-02 4.801560565829277039e-02 -2.456461079418659210e-02 8.264036849141120911e-03 4.239723552018404007e-03 -1.065979991108179092e-02 -4.936636425554752350e-03 -1.798771135509014130e-02 -6.054848199710249901e-04 -8.455089118797332048e-05 -2.285588346421718597e-02 -9.946225327439606190e-05 4.987737629562616348e-04 4.687567998189479113e-04 -5.647446960210800171e-02 -2.607281692326068878e-02 -4.752946260850876570e-04 -2.128863707184791565e-02 1.165515556931495667e-02 -1.610403269296512008e-04 -5.052777752280235291e-02 -7.674934342503547668e-03 -2.011988498270511627e-02 1.326792966574430466e-02 -2.355731651186943054e-02 -1.389580592513084412e-02 -1.895804889500141144e-02 -2.222709357738494873e-03 4.212310910224914551e-02 3.688944270834326744e-04 -2.714437805116176605e-02 -2.663973346352577209e-02 1.515235006809234619e-02 1.899697072803974152e-02 -2.584079280495643616e-03 3.079015004914253950e-04 -4.411459958646446466e-04 1.733349449932575226e-02 3.331332933157682419e-03 -1.707113842712715268e-04 4.808585625141859055e-03 4.828510060906410217e-02 -1.281394436955451965e-02 1.543868612498044968e-02 7.099010399542748928e-04 -2.437102049589157104e-02 -3.322962298989295959e-02 8.989284746348857880e-03 1.104046968976035714e-04 6.207465380430221558e-02 -8.985895692603662610e-05 -5.847292952239513397e-03 -6.672861985862255096e-03 -8.632214157842099667e-04 -4.009627550840377808e-02 1.589773036539554596e-02 9.286076761782169342e-03 2.565084211528301239e-02 3.939261287450790405e-02 -3.801889717578887939e-02 -1.690951734781265259e-02 -2.294083312153816223e-02 2.545447833836078644e-02 -1.266169128939509392e-03 7.960554794408380985e-04 1.997725106775760651e-02 -1.702111773192882538e-02 1.020632626023143530e-04 -2.982375584542751312e-02 -2.727632783353328705e-02 4.814411513507366180e-03 9.005100466310977936e-03 2.910787984728813171e-02 -1.133346813730895519e-04 -8.633431862108409405e-04 -4.584614187479019165e-02 -1.124567631632089615e-02 8.373243734240531921e-03 -2.222719974815845490e-02 1.695303246378898621e-02 1.558599527925252914e-02 1.191365420818328857e-01 7.911282591521739960e-03 4.176399379502981901e-04 4.533317871391773224e-03 -2.752307336777448654e-03 -1.388738956302404404e-02 1.690129563212394714e-02 5.282951984554529190e-03 9.007037617266178131e-03 -1.550946291536092758e-02 -1.274186000227928162e-02 -6.339669227600097656e-03 1.891013793647289276e-02 1.415917370468378067e-02 -9.180416353046894073e-03 9.134337597060948610e-05 1.612624898552894592e-02 2.498156204819679260e-02 3.105654614046216011e-03 6.882546469569206238e-03 -4.352090036263689399e-05 1.166094653308391571e-02 8.303187787532806396e-03 -2.030536346137523651e-02 -2.695556357502937317e-02 1.593701774254441261e-03 -5.153199192136526108e-03 3.105824626982212067e-02 3.929516766220331192e-03 -2.772788144648075104e-02 1.657332293689250946e-02 4.371305927634239197e-03 2.268996648490428925e-02 -7.401656359434127808e-02 2.130510256392881274e-04 -2.590124867856502533e-02 9.177521569654345512e-04 -2.766844991128891706e-04 -1.534458808600902557e-02 1.022512167692184448e-01 2.550225006416440010e-03 1.032630563713610172e-03 2.061451599001884460e-02 -1.769717037677764893e-02 -3.504114574752748013e-04 -9.629678097553551197e-04 -4.227754101157188416e-02 1.530646160244941711e-02 -2.924053743481636047e-02 -5.741570494137704372e-04 9.378253668546676636e-02 2.400200814008712769e-02 -9.247465990483760834e-03 -1.886078680399805307e-04 4.380121454596519470e-02 4.072274640202522278e-02 -8.806552737951278687e-03 -5.183800123631954193e-03 -3.956076223403215408e-03 -2.396852214587852359e-04 1.260532066226005554e-03 9.541415609419345856e-03 -1.033014710992574692e-02 1.304873730987310410e-02 -2.492964267730712891e-02 -4.674274846911430359e-02 -5.618524178862571716e-02 6.026608869433403015e-02 5.805508699268102646e-03 -3.722244501113891602e-02 -1.943008787930011749e-02
2.555894025135785341e-04 9.608292020857334137e-03 -8.590250276029109955e-03 5.700627341866493225e-03 2.772949449717998505e-02 -2.719763107597827911e-02 3.054404072463512421e-02 -8.835711050778627396e-04 -2.317644283175468445e-02 1.806669495999813080e-02 -2.545829163864254951e-03 -1.015299931168556213e-03 1.283974386751651764e-03 -2.519223280251026154e-02 -3.520140051841735840e-02 -8.673966513015329838e-04 2.897675707936286926e-02 -1.749164797365665436e-02 2.056043449556455016e-04 -1.232160138897597790e-04 1.758752763271331787e-02 -9.036995470523834229e-03 -2.321319654583930969e-02 3.239822341129183769e-03 -1.408255007117986679e-02 1.196909416466951370e-02 -4.621185828000307083e-03 1.546040829271078110e-02 -1.715770550072193146e-02 -4.279833659529685974e-02 1.766973547637462616e-02 2.596483798697590828e-03 -1.180834788829088211e-02 -1.357645727694034576e-02 3.392671421170234680e-02 2.993462607264518738e-03 -2.491152286529541016e-02 7.172473240643739700e-03 9.551641414873301983e-04 -2.438483387231826782e-02 -2.701083943247795105e-02 1.961811073124408722e-02 4.806597530841827393e-02 2.516358392313122749e-03 2.785352431237697601e-02 -3.426146507263183594e-02 -1.751539821270853281e-04 7.398265879601240158e-04 1.180854887934401631e-04 2.091433480381965637e-02 -4.219677299261093140e-03 -1.034174347296357155e-03 5.606109625659883022e-04 -7.361460477113723755e-03 1.211512740701436996e-02 2.837933786213397980e-02 9.496178478002548218e-03 2.899039536714553833e-02 5.218523438088595867e-04 -1.781134307384490967e-02 1.454606838524341583e-02 4.281568399164825678e-04 -4.375301767140626907e-03 -6.527135847136378288e-04 5.219702795147895813e-02 5.422258749604225159e-03 3.326973819639533758e-04 6.193245947360992432e-02 -1.860679872334003448e-02 1.286307815462350845e-02 -1.856620609760284424e-02 8.927361108362674713e-03 2.002367284148931503e-03 1.927613839507102966e-02 9.503682376816868782e-04 2.482239855453372002e-03 -2.935420721769332886e-02 2.093007229268550873e-02 1.379691343754529953e-02 4.922362044453620911e-03 1.744266483001410961e-04 -4.246070602675899863e-05 7.386977784335613251e-03 6.343729048967361450e-02 -6.754791829735040665e-03 8.411469752900302410e-04 1.493544783443212509e-02 -3.546509519219398499e-02 6.248871330171823502e-03 2.386704087257385254e-02 1.024227961897850037e-02 2.873834164347499609e-04 1.759215816855430603e-02 6.536369677633047104e-03 9.150002151727676392e-04 -2.070601098239421844e-02 2.362780796829611063e-04 -3.195598837919533253e-04 5.894985981285572052e-03 3.518423764035105705e-04 7.148767472244799137e-04 -8.876384235918521881e-03 -8.251874707639217377e-03 1.846904051490128040e-04 -3.177931904792785645e-02 1.646848209202289581e-02 -9.298160672187805176e-03 1.434766408056020737e-02 2.934879250824451447e-02 2.829377725720405579e-02 6.306615658104419708e-03 7.662823918508365750e-05 4.791785322595387697e-04 8.365691755898296833e-04 3.917958587408065796e-02 -6.943529006093740463e-04 -1.079376015695743263e-04 1.126291230320930481e-03 -3.712850064039230347e-02 1.277673151344060898e-02 -6.985135260038077831e-04 -2.362837112741544843e-04 -7.156307250261306763e-02 1.289616688154637814e-03 -3.076858073472976685e-02 2.311921864748001099e-02 -1.122707501053810120e-02 5.072992667555809021e-02 -4.529831185936927795e-02 -1.783135347068309784e-03 -8.585914969444274902e-03 1.328293583355844021e-03 4.811269789934158325e-02 -4.814908024854958057e-04 -2.750216983258724213e-02 -1.157264690846204758e-02 1.827580295503139496e-02 -1.954518258571624756e-02 -4.606006667017936707e-03 2.958521363325417042e-04 -4.950810107402503490e-04 -9.065569378435611725e-03 1.145979948341846466e-02 -1.300814037676900625e-04 -1.411204691976308823e-02 -1.593536138534545898e-02 7.783879991620779037e-03 1.666382700204849243e-02 -1.645407453179359436e-02 3.574893251061439514e-02 -5.810520425438880920e-02 -2.774870023131370544e-03 -3.713995974976569414e-04 -6.242694798856973648e-03 1.894381130114197731e-04 2.420778386294841766e-02 -3.192190080881118774e-02 9.673548862338066101e-03 6.374208722263574600e-03 2.143344469368457794e-02 2.150020562112331390e-02 -6.127865053713321686e-03 -2.323203161358833313e-02 1.837300485931336880e-03 2.924111671745777130e-02 7.663828134536743164e-02 -4.560236260294914246e-02 5.578934215009212494e-03 3.464172550593502820e-05 -3.725150227546691895e-02 -1.319901552051305771e-02 -5.982561851851642132e-04 2.355495840311050415e-02 -5.881763994693756104e-02 3.909689374268054962e-03 3.473663004115223885e-03 -1.587289571762084961e-02 -3.435275284573435783e-04 -2.270377427339553833e-02 1.179870124906301498e-02 1.926665136124938726e-04 1.498306868597865105e-03 7.373839616775512695e-03 3.080503083765506744e-03 2.275528945028781891e-02 -1.501928362995386124e-02 1.413309760391712189e-02 1.451966702006757259e-03 -3.997499495744705200e-02 -1.893903873860836029e-02 8.501456119120121002e-03 -1.047210954129695892e-02 5.960252881050109863e-02 -2.292027696967124939e-02 2.038816735148429871e-02 5.144380033016204834e-03 -1.538517535664141178e-03 7.950528711080551147e-02 -5.746475234627723694e-02 2.638227539137005806e-03 1.193083808175288141e-04 2.676036767661571503e-02 -9.932378306984901428e-03 3.077093139290809631e-02 -3.257162868976593018e-02 2.910313778556883335e-04 2.564176917076110840e-02 5.710181221365928650e-02 -2.647717297077178955e-02 4.622327629476785660e-03 -1.186950685223564506e-04 3.932219371199607849e-02 -2.664234116673469543e-02 -3.467275761067867279e-03 -2.857743995264172554e-03 -9.222161956131458282e-03 2.211565524339675903e-02 -4.559897258877754211e-02 -1.677994616329669952e-02 1.087081735022366047e-03 -2.584389876574277878e-03 9.237410128116607666e-02 3.350136976223438978e-04 -2.892183698713779449e-02 5.138621851801872253e-02 -7.085750985424965620e-05 4.846464842557907104e-03 -5.966072902083396912e-02 4.985157027840614319e-02 7.688420591875910759e-04 8.824201300740242004e-03 -2.599624171853065491e-02 2.319154329597949982e-02 -4.637609526980668306e-05 1.076477812603116035e-03 -1.772958785295486450e-02 -1.861922629177570343e-02 -2.049686945974826813e-02 -5.383362295106053352e-04 -3.869616426527500153e-03 1.694911532104015350e-02 1.949574914760887623e-03 -1.743611134588718414e-02 1.015788875520229340e-02 1.886009849840775132e-04 6.322457920759916306e-04 2.312209981027990580e-04 -1.871162839233875275e-02 -2.531979046761989594e-02 -3.720340877771377563e-02 -3.982180729508399963e-02 -2.299260906875133514e-02 -7.128836214542388916e-02 4.723133170045912266e-04 3.144421428442001343e-02 -3.205005079507827759e-02
8.827354176901280880e-04 -5.669034086167812347e-03 3.754472360014915466e-02 2.398976683616638184e-02 -6.253759562969207764e-02 -5.393701046705245972e-02 -1.333487033843994141e-02 -4.150412278249859810e-04 1.456399261951446533e-02 1.274106651544570923e-02 4.287006333470344543e-03 2.228786906925961375e-04 1.136770937591791153e-03 -4.519222304224967957e-03 4.440311749931424856e-04 -2.514368155971169472e-03 -1.888534426689147949e-02 -8.004621486179530621e-04 2.452157065272331238e-02 -4.603578126989305019e-04 -2.921439148485660553e-02 -3.209709748625755310e-02 -8.493842929601669312e-02 4.328305274248123169e-02 3.795395023189485073e-04 -1.722908765077590942e-02 2.663956955075263977e-03 1.994756609201431274e-02 8.416719734668731689e-03 4.337334632873535156e-02 8.691228926181793213e-03 3.364957228768616915e-04 -1.971589773893356323e-02 2.391638234257698059e-02 5.051079206168651581e-03 -2.827247790992259979e-02 -3.044632077217102051e-02 -1.352731231600046158e-02 1.376864383928477764e-04 -6.254083942621946335e-03 1.706535369157791138e-02 -1.324045821093022823e-03 2.163886837661266327e-02 5.277841351926326752e-03 -3.097672201693058014e-02 5.690386518836021423e-02 6.550325779244303703e-04 -4.013019788544625044e-04 -3.006052284035831690e-04 1.548217888921499252e-02 9.242990054190158844e-03 -3.117202594876289368e-02 1.007235958240926266e-03 2.185611799359321594e-02 -5.419709160923957825e-02 2.738193608820438385e-02 3.397165983915328979e-02 1.861383934738114476e-04 1.403855392709374428e-03 6.677914876490831375e-03 -4.890200123190879822e-02 2.567854426160920411e-05 -8.213955909013748169e-03 -2.251991973025724292e-04 -6.414616946130990982e-03 -1.873912406153976917e-03 7.832754054106771946e-04 7.656515226699411869e-04 2.313887886703014374e-02 3.513130592182278633e-03 -4.074202850461006165e-02 9.073605760931968689e-03 -6.084025371819734573e-03 3.448671195656061172e-03 -2.524392330087721348e-04 9.137941524386405945e-03 4.980597645044326782e-02 -6.901476066559553146e-03 -1.614901423454284668e-02 8.980038575828075409e-03 -4.157788644079118967e-04 -1.245869789272546768e-03 2.109360508620738983e-02 3.461807593703269958e-02 -5.325162038207054138e-02 -1.208606481668539345e-04 -1.360085979104042053e-02 -9.427770972251892090e-03 1.614124886691570282e-02 3.479210892692208290e-03 4.424121230840682983e-03 2.858418338291812688e-05 -1.728339307010173798e-02 3.952972963452339172e-02 -2.885880530811846256e-04 1.432909048162400723e-04 1.009188964962959290e-02 2.594047691673040390e-03 2.049058862030506134e-02 -3.992338315583765507e-04 -1.145455054938793182e-03 4.410075023770332336e-02 -2.279130369424819946e-02 -4.592897603288292885e-04 -6.528319418430328369e-02 2.594043686985969543e-02 2.116997493430972099e-03 4.116716980934143066e-02 -3.362963721156120300e-02 5.670607089996337891e-03 7.583905971841886640e-05 4.841486364603042603e-02 1.764528860803693533e-04 3.753730561584234238e-05 -1.455651130527257919e-03 2.375442563788965344e-04 3.732805198524147272e-04 2.676663862075656652e-04 3.660259023308753967e-02 -4.133360460400581360e-03 -1.655125670367851853e-04 -1.336572598665952682e-02 -2.705283649265766144e-02 1.091212034225463867e-03 -2.569819614291191101e-02 2.675866708159446716e-02 -1.466217357665300369e-02 -5.120960995554924011e-04 5.535247270017862320e-03 2.906613424420356750e-02 2.425496233627200127e-03 -2.429200103506445885e-03 -1.098360214382410049e-02 -1.062850496964529157e-04 3.722313558682799339e-04 2.702135965228080750e-02 1.598527655005455017e-02 1.611763425171375275e-02 -1.564497314393520355e-02 -4.036134123452939093e-05 -9.450231445953249931e-04 -2.447104267776012421e-02 -3.620978444814682007e-02 -7.776358397677540779e-04 4.623217508196830750e-03 1.413505338132381439e-02 -3.989870473742485046e-02 -1.287778653204441071e-02 5.177069921046495438e-03 6.960929837077856064e-03 -7.325976155698299408e-03 9.314804337918758392e-03 7.210659678094089031e-04 1.669198856689035892e-03 -8.830312872305512428e-04 2.437934279441833496e-02 -4.638168960809707642e-03 -1.744576729834079742e-02 -3.505827626213431358e-03 8.194111287593841553e-03 -5.824359133839607239e-03 8.633132092654705048e-03 -1.694389060139656067e-02 -2.353765303269028664e-03 3.148078452795743942e-03 -8.591718971729278564e-03 -3.397661261260509491e-03 1.487419102340936661e-02 -4.208081518299877644e-04 -3.403342561796307564e-03 -2.155485376715660095e-02 -7.025075028650462627e-04 -1.199162006378173828e-02 2.608590060845017433e-03 1.167651824653148651e-02 5.950649827718734741e-02 -5.133245140314102173e-03 -1.541257515782490373e-04 6.129512563347816467e-02 -3.443861380219459534e-02 -9.330300614237785339e-03 -2.789654023945331573e-02 -1.859682425856590271e-02 2.165208384394645691e-02 -9.335013106465339661e-03 1.216622255742549896e-02 2.191559411585330963e-03 -2.867496223188936710e-04 4.167044907808303833e-02 -8.551060222089290619e-03 1.050497964024543762e-02 1.678829267621040344e-02 1.752786338329315186e-02 5.036677233874797821e-03 -3.137935651466250420e-03 3.125079721212387085e-02 -9.641709737479686737e-03 -1.385141350328922272e-02 -1.012902706861495972e-02 5.053707957267761230e-02 6.649871938861906528e-04 1.269532553851604462e-02 -9.284165687859058380e-03 2.552041038870811462e-02 2.954827249050140381e-02 -1.754875556798651814e-04 -4.179459437727928162e-02 -2.122230827808380127e-02 -5.172479897737503052e-03 -4.722173139452934265e-02 8.024421404115855694e-04 5.329333245754241943e-02 4.199871793389320374e-02 1.137936487793922424e-02 -4.336511250585317612e-03 -2.622283762320876122e-03 -7.252722512930631638e-03 -9.694971144199371338e-03 -2.681817114353179932e-02 8.790098945610225201e-04 3.915074747055768967e-03 -4.298045858740806580e-02 1.020721509121358395e-03 -1.314892899245023727e-03 3.349718451499938965e-02 1.317586749792098999e-02 4.573849961161613464e-03 -2.693684585392475128e-02 7.108075171709060669e-02 6.573923747055232525e-04 1.108955033123493195e-02 -7.504162937402725220e-02 -7.205294445157051086e-03 2.889944985508918762e-02 6.440435536205768585e-04 7.376863504759967327e-04 -9.494358673691749573e-03 2.616148442029953003e-02 5.786497786175459623e-05 -1.301604602485895157e-02 9.113221429288387299e-03 2.122181840240955353e-02 1.378044486045837402e-02 -3.818236663937568665e-02 3.567321400623768568e-04 1.511635142378509045e-03 1.547589525580406189e-02 6.212153472006320953e-03 1.095300726592540741e-02 -2.685813605785369873e-02 1.032813638448715210e-02 1.794602908194065094e-02 1.720409095287322998e-02 1.481798756867647171e-02 -1.448008604347705841e-02 2.903948724269866943e-02
