-2.578907832503318787e-02 2.538463659584522247e-02 6.728162523359060287e-03 -1.954189874231815338e-02 1.597693935036659241e-02 -7.309726439416408539e-03 -3.485646471381187439e-02 3.862672671675682068e-02 -3.890293417498469353e-03 -1.681899419054389000e-03 -3.542589023709297180e-02 -5.065456498414278030e-03 -2.509880252182483673e-02 -3.263387363404035568e-03 5.344052985310554504e-02 5.745905917137861252e-03 7.635336369276046753e-03 1.657813042402267456e-02 -5.569305736571550369e-03 5.241631343960762024e-02 -5.574244423769414425e-04 -5.915653705596923828e-02 1.154819317162036896e-02 -2.941299602389335632e-02 -6.303726695477962494e-04 1.676921173930168152e-02 5.980379413813352585e-03 -3.746205708011984825e-03 4.274912178516387939e-03 -2.918227948248386383e-02 -2.354743331670761108e-02 -1.164583722129464149e-03 5.224927514791488647e-02 -8.091214112937450409e-03 1.771582663059234619e-02 -1.952622644603252411e-02 -4.153063520789146423e-03 -9.276885539293289185e-03 -4.408713802695274353e-02 4.873538389801979065e-03 3.649478033185005188e-02 -1.156457141041755676e-02 -4.477458540350198746e-03 4.083979874849319458e-03 -1.379721425473690033e-02 4.068185389041900635e-02 1.007489114999771118e-02 7.500077784061431885e-02 -1.221216376870870590e-02 -4.722107667475938797e-03 -4.339475184679031372e-03 8.795648813247680664e-03 -6.588233634829521179e-03 -1.142237614840269089e-02 2.854230627417564392e-02 2.251586318016052246e-02 -1.997986808419227600e-03 -5.805015098303556442e-04 -2.671373309567570686e-03 -2.137047797441482544e-02 1.537579856812953949e-02 -8.228526567108929157e-04 -3.430093452334403992e-02 3.725778777152299881e-03 2.220307476818561554e-03 -1.815052935853600502e-03 -4.901508614420890808e-02 -2.727079577744007111e-02 2.268433943390846252e-02 -2.474138699471950531e-02 -1.142656896263360977e-02 1.101062912493944168e-02 6.359130144119262695e-03 3.847857937216758728e-02 5.804115906357765198e-03 -1.490295678377151489e-02 -2.100781351327896118e-02 4.217375069856643677e-03 2.933978475630283356e-02 3.492293879389762878e-02 3.552413312718272209e-03 -1.410952536389231682e-03 -1.465045730583369732e-03 -1.123573980294167995e-03 1.215162780135869980e-02 -1.033077202737331390e-02 1.102307462133467197e-03 6.355762947350740433e-03 -2.527296543121337891e-02 2.717301994562149048e-02 -1.881912117823958397e-03 5.888924351893365383e-04 -3.292555734515190125e-02 2.475464530289173126e-02 -1.328721921890974045e-02 9.746829047799110413e-03 -5.168309435248374939e-03 4.034086130559444427e-03 6.035729311406612396e-03 -3.048122301697731018e-02 -2.804708667099475861e-03 3.744440851733088493e-03 6.314802914857864380e-02 -5.886711180210113525e-03 -2.610629657283425331e-03 -1.792574301362037659e-02 2.606274932622909546e-02 -7.846663938835263252e-04 5.397819355130195618e-02 -1.639038696885108948e-02 7.355497032403945923e-02 -2.557549159973859787e-04 8.130429312586784363e-03 -1.819693483412265778e-03 2.069745026528835297e-02 -9.186988696455955505e-03 -9.958168491721153259e-03 3.195229545235633850e-02 9.529355913400650024e-03 3.070913662668317556e-04 -2.884051017463207245e-02 8.451047353446483612e-03 1.724372804164886475e-02 1.872180588543415070e-02 -7.698535919189453125e-03 -1.807448081672191620e-02 -7.440008688718080521e-03 9.369304403662681580e-03 1.031176745891571045e-02 8.820074610412120819e-03 -4.486022982746362686e-03 -4.585159942507743835e-03 -7.061205338686704636e-03 -2.528401650488376617e-02 9.887468069791793823e-03 -2.766584791243076324e-02 -3.295145928859710693e-02 1.542101148515939713e-02 2.239770488813519478e-03 -3.689361736178398132e-02 1.164739020168781281e-02 -6.059769075363874435e-03 2.206206694245338440e-02 6.756461225450038910e-03 5.541145335882902145e-03 -6.662580650299787521e-03 -4.890436306595802307e-03 -3.637383226305246353e-03 -5.457995925098657608e-03 9.588717669248580933e-02 1.489373855292797089e-02 6.690839072689414024e-04 -2.527782926335930824e-03 -2.193230949342250824e-02 -2.078274497762322426e-03 1.238684402778744698e-03 7.808501366525888443e-03 1.028476282954216003e-02 -1.883960142731666565e-02 -3.619927540421485901e-02 -4.281603544950485229e-02 1.543346513062715530e-02 1.722176745533943176e-02 6.889215204864740372e-03 2.485770499333739281e-03 -1.747595518827438354e-02 1.349603198468685150e-02 1.500598248094320297e-02 2.105888538062572479e-02 1.319228485226631165e-02 9.319437667727470398e-03 1.033437531441450119e-02 -1.968972757458686829e-02 -2.306087687611579895e-02 2.029423043131828308e-02 -3.775060875341296196e-03 9.048721753060817719e-03 2.817616565153002739e-03 -1.852834038436412811e-02 2.260449342429637909e-02 -1.623529556127323303e-06 2.687936276197433472e-02 2.241206355392932892e-02 -1.325943600386381149e-02 3.030809573829174042e-02 1.202985760755836964e-03 -8.022418245673179626e-03 3.678872808814048767e-02 -1.853523775935173035e-03 -2.039614133536815643e-03 -9.934101253747940063e-03 -7.018516957759857178e-02 -4.938669735565781593e-04 -1.561115588992834091e-02 1.725785806775093079e-02 -8.820478687994182110e-04 -3.717508167028427124e-02 1.187506597489118576e-02 -7.948821410536766052e-03 8.069333620369434357e-03 4.735302925109863281e-02 1.495937909930944443e-02 -5.003915168344974518e-03 -5.357352085411548615e-03 1.181873260065913200e-03 -1.159215997904539108e-02 -1.812149654142558575e-03 1.019550580531358719e-02 5.979490932077169418e-03 -3.123138658702373505e-02 -2.512452192604541779e-03 -1.378489378839731216e-02 2.020918531343340874e-03 9.613052010536193848e-03 -4.836189094930887222e-03 -1.547859702259302139e-02 2.764327079057693481e-02 3.982561454176902771e-02 -2.564129652455449104e-03 5.453121848404407501e-03 4.424708709120750427e-02 -2.662006206810474396e-02 2.202722989022731781e-02 -2.564688213169574738e-02 -1.051075663417577744e-02 2.407027408480644226e-02 -3.348803892731666565e-02 -3.097197040915489197e-02 2.250414900481700897e-02 2.214201353490352631e-02 -2.922874875366687775e-02 6.287599448114633560e-03 1.617438904941082001e-02 8.268077857792377472e-03 1.995426975190639496e-02 -3.319618850946426392e-02 -2.188995108008384705e-02 -9.057243354618549347e-03 -2.508930303156375885e-02 -1.036187913268804550e-02 2.859658794477581978e-03 3.915456181857734919e-04 2.801495976746082306e-02 2.951907552778720856e-02 -2.118068048730492592e-03 -5.706797912716865540e-02 -4.731792956590652466e-03 2.152821607887744904e-02 -4.590960219502449036e-03 -3.587112762033939362e-03 4.328664857894182205e-03 9.466361254453659058e-03 7.716460153460502625e-03 1.148833800107240677e-02 4.434020072221755981e-02 5.610244348645210266e-02
1.041131932288408279e-02 5.677517130970954895e-02 -2.048305608332157135e-02 5.919157341122627258e-02 -5.509845539927482605e-02 -1.080370415002107620e-02 -1.286120153963565826e-02 4.108382016420364380e-02 -3.688294067978858948e-02 1.577498950064182281e-02 1.307494565844535828e-02 2.602613996714353561e-03 1.934616267681121826e-02 2.454553358256816864e-02 -3.257179632782936096e-03 -6.297001987695693970e-02 -8.527802303433418274e-03 5.037812516093254089e-03 -8.751548826694488525e-03 3.551327064633369446e-02 -2.749592997133731842e-02 6.278841942548751831e-02 -1.729476079344749451e-02 1.974750496447086334e-02 2.969598956406116486e-02 -3.829593211412429810e-02 -4.780392348766326904e-02 2.266295487061142921e-03 -5.543757230043411255e-02 -2.547225169837474823e-02 8.643370121717453003e-02 6.176144233904778957e-05 3.551578149199485779e-02 -2.745779044926166534e-02 -2.326400578022003174e-02 4.416581708937883377e-03 -2.223843894898891449e-02 -1.275123562663793564e-02 6.340290606021881104e-02 -7.315657287836074829e-02 -4.189818724989891052e-02 9.391720592975616455e-02 -2.135930955410003662e-02 -1.124852243810892105e-02 -4.694765433669090271e-02 1.396154314279556274e-01 -3.636742755770683289e-02 -3.851043805480003357e-02 4.264504462480545044e-02 -8.517019450664520264e-02 -2.217356301844120026e-02 -6.857284810394048691e-03 1.127471029758453369e-02 4.791626334190368652e-02 -1.326381787657737732e-02 2.652397565543651581e-02 -7.649301551282405853e-03 -8.854060433804988861e-03 1.129593467339873314e-03 4.548611119389533997e-03 -5.925394594669342041e-02 -5.869908630847930908e-02 4.932763054966926575e-02 2.274604048579931259e-03 -2.359014190733432770e-02 -7.529493421316146851e-02 -2.603065781295299530e-02 1.126012876629829407e-01 1.546223927289247513e-02 -1.542242709547281265e-02 -5.128320772200822830e-03 -1.792697818018496037e-03 -3.875164315104484558e-02 1.482588332146406174e-02 -2.052748017013072968e-02 6.295073311775922775e-03 -3.728573769330978394e-02 3.125877305865287781e-02 -2.636771649122238159e-02 -1.525209750980138779e-03 -7.790443021804094315e-03 -3.884483873844146729e-02 2.809143811464309692e-02 -4.419989883899688721e-02 -6.450461223721504211e-03 -6.498035043478012085e-02 4.854165948927402496e-03 -1.319549162872135639e-03 2.861240878701210022e-02 1.876552216708660126e-02 -2.222987823188304901e-02 -3.078501112759113312e-02 -3.980197012424468994e-02 3.035741392523050308e-03 -3.488601418212056160e-03 4.741789773106575012e-03 5.230956245213747025e-03 1.611780375242233276e-02 6.732890615239739418e-04 -6.607075780630111694e-02 -9.795057587325572968e-03 -4.350132495164871216e-02 -2.055163495242595673e-03 1.648553460836410522e-02 -6.873183418065309525e-03 6.310848146677017212e-02 2.188101224601268768e-02 -1.075612660497426987e-02 8.187188208103179932e-02 1.102218963205814362e-02 1.049176417291164398e-02 -4.386249929666519165e-03 -2.004664577543735504e-02 8.230875246226787567e-03 6.616208702325820923e-02 1.608078740537166595e-02 1.318157184869050980e-02 2.670450322329998016e-02 5.190902203321456909e-02 -7.339745759963989258e-03 -1.894309557974338531e-02 3.839254379272460938e-02 2.477966994047164917e-02 4.118429124355316162e-02 4.747524112462997437e-02 -4.065510630607604980e-02 4.499985836446285248e-03 -1.321232039481401443e-02 1.857010275125503540e-02 -5.123775824904441833e-02 -6.952950358390808105e-02 -4.490619990974664688e-03 1.258283969946205616e-03 -5.462909862399101257e-02 4.299233667552471161e-03 3.302349895238876343e-02 5.136750265955924988e-02 -3.121387585997581482e-02 -4.990778397768735886e-03 8.277073502540588379e-02 3.716080263257026672e-02 -1.647651009261608124e-02 -1.622151397168636322e-02 1.547799352556467056e-02 -5.109179392457008362e-02 2.316641062498092651e-02 -1.520804595202207565e-02 -1.757145859301090240e-02 3.270848188549280167e-03 -2.943615615367889404e-02 3.653804585337638855e-02 -1.069579180330038071e-02 7.422710768878459930e-03 1.285597402602434158e-02 1.656530424952507019e-02 6.386714428663253784e-02 -3.840957581996917725e-02 7.842963677830994129e-04 4.165566712617874146e-02 2.294710464775562286e-02 3.708473872393369675e-03 -1.287316624075174332e-02 -4.327740520238876343e-02 7.586277555674314499e-03 2.905980125069618225e-02 3.511075302958488464e-02 -4.880544170737266541e-02 3.576830029487609863e-02 -3.367047989740967751e-03 5.785198137164115906e-02 1.667511649429798126e-02 -1.378663629293441772e-02 -4.498247429728507996e-02 4.990131780505180359e-02 5.799040663987398148e-03 3.093302808701992035e-02 -3.073272295296192169e-02 4.412567242980003357e-02 1.040300726890563965e-02 -5.056765512563288212e-04 -2.764164656400680542e-02 -2.662161737680435181e-02 8.968424797058105469e-02 -2.570040337741374969e-02 1.416397467255592346e-02 1.905419677495956421e-02 1.218297332525253296e-02 9.307119064033031464e-03 -1.673293113708496094e-02 5.095876753330230713e-02 2.338118292391300201e-02 -7.002351433038711548e-02 3.241166099905967712e-02 2.526315860450267792e-02 1.800526492297649384e-02 -5.607774015516042709e-03 5.205898080021142960e-03 6.151312589645385742e-02 -8.754003793001174927e-03 -3.103933064267039299e-03 -2.110302075743675232e-02 5.902678892016410828e-02 -7.176015991717576981e-03 -3.470375016331672668e-02 -4.944536834955215454e-02 -1.689479313790798187e-02 1.955324411392211914e-02 3.038169071078300476e-02 -5.193248763680458069e-02 -1.199428457766771317e-02 -2.848724834620952606e-03 5.861033126711845398e-02 -1.443233620375394821e-02 -6.688731163740158081e-02 -2.545370021834969521e-03 -1.142720412462949753e-02 1.156955510377883911e-01 -3.027182817459106445e-02 -1.876939274370670319e-02 -1.028155535459518433e-02 2.214382588863372803e-02 -1.497783977538347244e-02 8.942280709743499756e-02 -5.855705216526985168e-02 -1.939453557133674622e-02 -2.341859415173530579e-02 2.714619040489196777e-02 -4.668074194341897964e-03 7.981531322002410889e-02 -4.626668523997068405e-03 1.564261503517627716e-02 -7.229339331388473511e-03 -3.772940114140510559e-02 3.262760862708091736e-02 1.095027104020118713e-01 -1.735108904540538788e-02 -2.074454911053180695e-02 7.941370457410812378e-02 -2.276070974767208099e-02 2.033579908311367035e-02 1.456533279269933701e-02 1.059221685864031315e-03 2.303185407072305679e-03 1.784981787204742432e-02 -1.943665556609630585e-02 4.014214873313903809e-02 2.022204734385013580e-02 1.040577515959739685e-02 2.594705112278461456e-02 5.177145358175039291e-03 -3.223792463541030884e-02 5.921188741922378540e-02 -3.784603625535964966e-02 -3.158643143251538277e-03 -3.889247542247176170e-03 7.914017885923385620e-02
6.624182686209678650e-03 2.896898193284869194e-03 2.662023762241005898e-03 -2.051384933292865753e-02 6.963858753442764282e-02 -1.679993979632854462e-02 3.291961550712585449e-02 1.479968545027077198e-03 1.835484057664871216e-02 -5.414025392383337021e-03 2.595987357199192047e-02 2.590665360912680626e-03 4.228653013706207275e-02 -1.494003459811210632e-02 -5.190655961632728577e-02 -1.608712598681449890e-02 -9.946006350219249725e-03 -3.407222684472799301e-04 -2.843467332422733307e-02 1.852746470831334591e-03 -4.459048213902860880e-04 -1.546054147183895111e-02 -2.413504570722579956e-02 -2.215297706425189972e-02 9.691558778285980225e-03 -4.343083128333091736e-02 -4.208445549011230469e-02 -1.201712992042303085e-03 -7.478880695998668671e-03 9.599395096302032471e-03 6.474512815475463867e-02 -1.469556335359811783e-02 -5.442431941628456116e-02 3.348286077380180359e-02 -1.511398050934076309e-02 -4.358261078596115112e-02 -3.911668900400400162e-03 1.033619884401559830e-02 3.006365709006786346e-02 5.373860243707895279e-03 -1.928671612404286861e-03 4.375994578003883362e-02 -3.606658894568681717e-03 -1.552471611648797989e-02 7.052723318338394165e-02 -6.358094513416290283e-02 -7.192105404101312160e-04 3.979380428791046143e-02 2.666316181421279907e-02 3.901998698711395264e-02 5.898815579712390900e-03 -1.608444936573505402e-02 -1.866678707301616669e-02 4.706016276031732559e-03 -5.520247854292392731e-03 3.698216751217842102e-02 -1.121400110423564911e-02 3.754420578479766846e-02 3.630504012107849121e-02 -2.765347994863986969e-02 1.011263132095336914e-01 1.377054117619991302e-02 -4.928026814013719559e-03 -7.241524290293455124e-03 1.726083457469940186e-03 2.229335345327854156e-02 5.692441761493682861e-02 2.892067842185497284e-02 2.208974037785083055e-04 1.769321784377098083e-02 8.290270343422889709e-03 -1.276988536119461060e-02 4.892569407820701599e-02 4.619359970092773438e-02 1.940312609076499939e-02 7.186429575085639954e-03 1.309390645474195480e-02 -2.198404446244239807e-02 -1.815131492912769318e-02 4.309671372175216675e-02 4.830994457006454468e-02 -5.267518386244773865e-02 -2.050338499248027802e-02 -2.236112765967845917e-02 4.594620317220687866e-03 -2.690853364765644073e-02 1.167514361441135406e-03 6.020548171363770962e-04 3.568185865879058838e-02 -6.087456364184617996e-03 -1.222578715533018112e-02 3.028940595686435699e-02 1.108573563396930695e-02 -3.868739679455757141e-02 4.939656332135200500e-02 2.229430899024009705e-02 -2.466451749205589294e-02 -5.901227123104035854e-04 2.305484609678387642e-03 -9.493214078247547150e-03 1.418686285614967346e-02 7.740096654742956161e-03 -5.461229756474494934e-02 -4.619030654430389404e-02 4.009101912379264832e-02 1.839534938335418701e-02 4.034527111798524857e-03 -8.702798746526241302e-03 -8.315265178680419922e-03 1.389383617788553238e-02 -1.145417243242263794e-02 1.063934434205293655e-02 2.371386811137199402e-02 4.478941671550273895e-03 -4.810667596757411957e-03 1.536008808761835098e-02 -1.615052111446857452e-03 -1.216619554907083511e-02 4.707174375653266907e-02 -1.509088277816772461e-02 3.026222996413707733e-02 8.922363631427288055e-03 -3.134400025010108948e-02 5.007975548505783081e-02 -3.472147881984710693e-02 -4.724684730172157288e-02 -3.692881762981414795e-02 7.151529192924499512e-03 -2.086899243295192719e-02 -6.322932988405227661e-02 3.919738531112670898e-02 -3.318112343549728394e-03 -1.429784018546342850e-02 9.497512131929397583e-03 7.004710379987955093e-03 4.879339411854743958e-02 3.000806085765361786e-03 -1.698903739452362061e-02 4.974034149199724197e-03 4.753134399652481079e-02 -2.065201662480831146e-02 -1.048591360449790955e-02 -5.020441859960556030e-02 -8.198842406272888184e-03 3.093148348852992058e-03 -2.343112044036388397e-02 -6.717960932292044163e-04 2.210237458348274231e-02 -1.429109368473291397e-02 -4.701933637261390686e-02 -8.810915052890777588e-03 -1.235311850905418396e-02 -6.602346897125244141e-02 -2.166326530277729034e-02 -2.805865928530693054e-02 3.662117198109626770e-02 2.256754087284207344e-03 -4.047166928648948669e-02 -1.184176746755838394e-02 1.643892377614974976e-02 -9.046053141355514526e-02 -2.705323137342929840e-02 5.119160935282707214e-02 1.340325106866657734e-03 2.429162710905075073e-02 -2.153702080249786377e-02 -7.547291461378335953e-03 8.325750380754470825e-02 -2.359044924378395081e-02 3.301985189318656921e-02 8.630394004285335541e-03 -4.008891060948371887e-03 -2.328735776245594025e-02 7.461532950401306152e-03 -4.875640943646430969e-02 2.057291567325592041e-02 -2.527922019362449646e-02 -4.833777621388435364e-02 4.574947431683540344e-02 -3.226999565958976746e-02 -2.430796623229980469e-02 -2.323809824883937836e-02 -1.361680100671947002e-03 -7.050432264804840088e-02 7.756868004798889160e-02 1.684615761041641235e-02 4.875564575195312500e-02 -3.124907612800598145e-02 -3.355288133025169373e-02 4.197484254837036133e-02 2.251788275316357613e-03 -5.877995863556861877e-02 7.900604046881198883e-03 -2.527656499296426773e-03 -2.636274881660938263e-02 1.154120452702045441e-02 5.254000425338745117e-03 -1.712911017239093781e-02 1.307144388556480408e-02 2.965389564633369446e-02 2.649099938571453094e-02 -1.696312427520751953e-02 -2.390248700976371765e-02 -3.733622375875711441e-03 -5.349135957658290863e-03 -4.007178172469139099e-02 -4.302269220352172852e-02 2.821515686810016632e-02 -6.042625289410352707e-03 4.991513490676879883e-02 -1.380879990756511688e-02 3.048353828489780426e-02 4.032848402857780457e-02 -2.956647798418998718e-02 2.090658619999885559e-02 4.021299630403518677e-02 -4.348596557974815369e-02 1.568799652159214020e-02 2.404475584626197815e-02 9.427822194993495941e-03 2.495921775698661804e-02 5.347987264394760132e-02 -1.749170757830142975e-02 7.705243304371833801e-03 1.281171385198831558e-02 5.490942671895027161e-02 1.070279255509376526e-02 2.266519935801625252e-03 2.500089444220066071e-02 5.978127010166645050e-03 -8.211266249418258667e-03 -1.996079459786415100e-02 -1.423032768070697784e-02 -4.665644094347953796e-02 4.607914015650749207e-03 2.118377014994621277e-02 -1.577056944370269775e-02 -1.560314930975437164e-02 -1.068572029471397400e-01 -1.382047543302178383e-03 -5.348028987646102905e-02 -3.587268292903900146e-02 -3.889796510338783264e-02 -4.510303214192390442e-02 1.420896407216787338e-02 1.487689465284347534e-02 -3.431853605434298515e-03 -3.291006013751029968e-02 -2.721966803073883057e-02 -1.353037264198064804e-02 -2.262059412896633148e-02 -2.028195373713970184e-02 4.883527010679244995e-02 -2.480842731893062592e-02 -4.762778803706169128e-02 -2.524123527109622955e-02
3.843806684017181396e-02 -7.279593963176012039e-03 -8.214947883971035480e-04 1.260463520884513855e-02 3.212296217679977417e-02 5.308938398957252502e-02 -2.777594840154051781e-03 4.732924979180097580e-03 4.320164211094379425e-03 1.058582309633493423e-02 -4.220348224043846130e-02 -4.334360733628273010e-02 6.152174994349479675e-02 -1.033535134047269821e-02 -1.740997843444347382e-02 2.565957419574260712e-02 -3.720463428180664778e-04 -3.706902638077735901e-02 -1.406069565564393997e-02 4.286741837859153748e-03 -1.610957458615303040e-02 2.871717885136604309e-02 7.088045589625835419e-03 -1.300380192697048187e-02 -9.515662677586078644e-03 5.971271544694900513e-02 3.552434034645557404e-03 -4.272821024642325938e-05 -1.318686828017234802e-02 6.493056658655405045e-03 -2.098989859223365784e-02 -1.248638983815908432e-02 2.633693255484104156e-02 1.557820569723844528e-02 -2.398433350026607513e-02 -2.864438283722847700e-04 4.882726818323135376e-02 -3.387406468391418457e-02 8.125257678329944611e-03 -5.844196304678916931e-02 -2.516612410545349121e-03 8.195386268198490143e-03 -3.993211314082145691e-03 1.071538683027029037e-02 5.595247447490692139e-02 3.589982166886329651e-02 4.472103342413902283e-02 -1.388335973024368286e-02 1.052584405988454819e-02 2.154277078807353973e-02 4.034756124019622803e-02 -3.971067443490028381e-02 1.375214010477066040e-02 -8.177080191671848297e-03 -2.271343255415558815e-03 1.030583959072828293e-02 -3.246456384658813477e-02 -2.330433810129761696e-03 -4.161750525236129761e-02 -5.346986651420593262e-02 2.383826673030853271e-02 -3.593403100967407227e-02 -1.741446182131767273e-02 8.378726779483258724e-04 -1.475594006478786469e-02 3.178765624761581421e-02 2.906089276075363159e-02 -9.856057353317737579e-03 -5.895394831895828247e-03 3.757898136973381042e-02 3.308655321598052979e-02 -3.673756122589111328e-02 3.796961158514022827e-02 1.653729006648063660e-02 6.506477016955614090e-03 -9.854436852037906647e-03 1.967555284500122070e-02 -2.695996128022670746e-02 3.762763738632202148e-02 2.043162845075130463e-02 2.761730924248695374e-02 -2.772205695509910583e-02 2.031786553561687469e-02 6.160571239888668060e-03 9.427092038094997406e-03 2.541124820709228516e-02 8.693801239132881165e-03 1.525032520294189453e-02 -5.062773078680038452e-02 1.312534417957067490e-02 -1.687857508659362793e-02 2.709613181650638580e-02 2.744622528553009033e-03 6.358896847814321518e-03 8.541326038539409637e-03 -3.534624353051185608e-03 -4.108412563800811768e-02 2.004490233957767487e-03 2.138684503734111786e-02 1.333252154290676117e-02 4.248993471264839172e-03 1.290749944746494293e-02 7.729321252554655075e-03 8.541444316506385803e-03 4.519898816943168640e-02 -2.127057686448097229e-02 -6.409626454114913940e-02 2.195421978831291199e-02 5.005368217825889587e-02 -2.904136478900909424e-02 1.054786797612905502e-02 4.001772776246070862e-02 2.204423770308494568e-02 -2.005139924585819244e-02 -3.704011067748069763e-02 -1.442112261429429054e-03 1.170203369110822678e-02 -3.535261005163192749e-02 2.577772550284862518e-02 1.902988296933472157e-03 3.545827046036720276e-02 -7.764509879052639008e-03 4.158616065979003906e-02 3.398264199495315552e-02 -2.254783734679222107e-02 -7.892505964264273643e-04 1.137772807851433754e-03 2.468990534543991089e-02 3.213026374578475952e-02 2.243009395897388458e-02 1.755562424659729004e-02 1.833691447973251343e-02 1.934721483848989010e-03 1.583633385598659515e-02 7.504762150347232819e-03 -2.058641612529754639e-02 2.275843359529972076e-02 1.229749433696269989e-02 -4.018200095742940903e-03 1.855280809104442596e-02 -1.691595069132745266e-03 -1.607363484799861908e-02 -1.324196811765432358e-02 -2.027252316474914551e-02 -1.735614053905010223e-02 -1.339046657085418701e-02 1.367156207561492920e-02 1.643449626863002777e-02 4.840701818466186523e-03 7.688297331333160400e-02 1.575740613043308258e-02 8.269881829619407654e-03 -7.665792852640151978e-02 6.707122921943664551e-02 6.400461308658123016e-03 2.883747406303882599e-02 -8.522027730941772461e-02 -1.306730788201093674e-03 -3.768942877650260925e-02 2.902143634855747223e-03 -7.569152116775512695e-02 8.737466298043727875e-03 1.175627671182155609e-02 2.226205542683601379e-03 6.793413311243057251e-02 -2.012764103710651398e-02 7.224209140986204147e-03 2.325801178812980652e-03 -2.032636292278766632e-02 5.462863296270370483e-02 4.742462188005447388e-03 -6.975730881094932556e-03 -9.985960088670253754e-03 -2.173345163464546204e-02 -1.850127987563610077e-02 2.669415436685085297e-02 2.170662162825465202e-03 -2.104114182293415070e-02 5.295598134398460388e-02 -1.093868240714073181e-01 -1.419671438634395599e-02 1.007465645670890808e-02 -5.388776585459709167e-02 -4.593266174197196960e-02 2.032470330595970154e-02 6.584525853395462036e-02 2.292629145085811615e-02 -2.209038846194744110e-02 -1.902347616851329803e-02 2.516627311706542969e-02 5.547709763050079346e-02 -6.522522121667861938e-02 2.639689482748508453e-02 1.472159754484891891e-03 -9.276280179619789124e-03 2.179732779040932655e-03 1.948608644306659698e-02 -1.492971368134021759e-02 -4.152285691816359758e-05 9.000942111015319824e-02 8.429933339357376099e-02 -6.395445019006729126e-02 -2.007275633513927460e-02 1.180599443614482880e-03 -1.564952661283314228e-03 -4.096172377467155457e-02 -1.400842517614364624e-02 3.710205107927322388e-02 6.859940011054277420e-03 3.054432943463325500e-02 -4.327222239226102829e-03 1.065405737608671188e-02 -2.316274307668209076e-02 5.606664344668388367e-03 1.313099730759859085e-02 -3.053152374923229218e-02 2.176946587860584259e-02 -7.154492195695638657e-03 1.279917825013399124e-02 1.742475666105747223e-02 -8.253481984138488770e-02 3.550479561090469360e-02 2.486536465585231781e-02 -1.968181692063808441e-02 6.664627231657505035e-03 -5.053856875747442245e-03 -1.520790904760360718e-02 1.513852272182703018e-02 7.424938958138227463e-03 1.287145260721445084e-02 -9.938570670783519745e-03 1.323282998055219650e-02 -3.793068975210189819e-02 -2.665163017809391022e-02 9.140676818788051605e-03 8.232184685766696930e-03 -2.166750654578208923e-02 -8.126781322062015533e-03 1.138749271631240845e-01 -6.168309133499860764e-03 -7.563661038875579834e-02 9.314019698649644852e-04 -3.289164602756500244e-02 5.276523297652602196e-04 -1.787896081805229187e-02 -8.678882382810115814e-03 2.000808017328381538e-03 6.386826746165752411e-03 2.865023165941238403e-02 1.144249644130468369e-02 2.293409593403339386e-02 1.372334361076354980e-02 -2.458007773384451866e-03 -1.486405730247497559e-02 3.658932074904441833e-02 -2.645485289394855499e-02
-1.964566111564636230e-02 1.838852092623710632e-02 -8.145285397768020630e-02 -2.661291742697358131e-03 6.264988332986831665e-02 -1.876992359757423401e-02 1.427650265395641327e-02 1.086282953619956970e-01 -3.640508744865655899e-03 1.201297249644994736e-02 8.873205631971359253e-03 -1.367205637507140636e-03 -7.840642705559730530e-03 8.804088458418846130e-03 8.039791136980056763e-02 4.014367982745170593e-02 4.677005577832460403e-03 -1.279685087502002716e-02 3.161999583244323730e-02 3.978425264358520508e-02 -2.884476445615291595e-02 -4.466872289776802063e-02 8.529667556285858154e-02 1.054814271628856659e-02 -2.110799029469490051e-02 -4.341106116771697998e-02 2.029906585812568665e-02 8.062821812927722931e-03 -2.239108085632324219e-02 -8.663406968116760254e-02 -5.233818292617797852e-02 -3.699234919622540474e-03 2.882231399416923523e-02 -3.830018267035484314e-02 -4.731420055031776428e-02 2.679434977471828461e-02 7.784995436668395996e-02 -3.596161305904388428e-02 4.153341054916381836e-02 -9.442224167287349701e-03 4.059368371963500977e-02 -5.311297252774238586e-02 -1.727003417909145355e-02 -1.376491412520408630e-02 4.178938455879688263e-03 -6.473121792078018188e-02 5.981899425387382507e-02 4.263501148670911789e-03 -5.190803669393062592e-03 -6.048963218927383423e-02 7.082012295722961426e-02 -2.186318859457969666e-02 -1.971686072647571564e-02 -5.369831994175910950e-02 -1.824160665273666382e-02 -1.513990294188261032e-02 1.495628058910369873e-02 -5.809600930660963058e-03 -2.514635398983955383e-02 -6.649250537157058716e-02 -4.081222042441368103e-02 1.245277817361056805e-03 4.201921983622014523e-04 -2.442886121571063995e-02 -1.465992443263530731e-02 1.041282899677753448e-02 1.532693486660718918e-02 -4.789978638291358948e-02 3.411541134119033813e-02 -5.122584407217800617e-04 -1.752437651157379150e-02 -2.213355153799057007e-02 -2.168991044163703918e-02 1.997179910540580750e-02 -2.995825139805674553e-03 -4.743489250540733337e-02 1.581923477351665497e-02 -3.547405824065208435e-02 -2.428770251572132111e-02 -4.672918841242790222e-02 -5.421402305364608765e-02 6.039931438863277435e-03 2.942369133234024048e-02 1.592121645808219910e-02 -4.980911035090684891e-03 -8.267388329841196537e-04 -4.579470027238130569e-03 -8.369035203941166401e-04 -1.642854651436209679e-03 -1.665426604449748993e-02 -1.910067722201347351e-02 -1.195866643683984876e-04 -2.631102129817008972e-02 -2.761200815439224243e-02 -3.615402849391102791e-03 1.502996310591697693e-02 -8.153446763753890991e-02 -5.629174411296844482e-02 1.030786801129579544e-02 3.238339922972954810e-05 -7.301924284547567368e-03 9.156120009720325470e-03 -1.014645956456661224e-02 2.141356840729713440e-02 2.440666779875755310e-02 1.524742692708969116e-02 -6.102517992258071899e-02 3.102714382112026215e-02 4.496383294463157654e-02 9.826036170125007629e-03 1.411833427846431732e-02 -1.350447069853544235e-02 5.897882580757141113e-02 -1.095795072615146637e-02 -6.502607464790344238e-02 1.320664957165718079e-02 1.138295556302182376e-04 7.494887709617614746e-02 1.000809855759143829e-02 2.978549338877201080e-03 1.319283712655305862e-02 -8.950200863182544708e-03 -3.763432847335934639e-03 2.134375087916851044e-02 1.824063621461391449e-02 -1.850738935172557831e-02 -4.724179208278656006e-02 -1.560347527265548706e-02 6.310781836509704590e-02 1.084178034216165543e-02 6.071919947862625122e-02 7.880797237157821655e-02 1.358979754149913788e-02 2.623294480144977570e-02 9.020121768116950989e-03 -5.190670117735862732e-02 2.047328837215900421e-02 2.262885915115475655e-03 -9.605593048036098480e-03 6.195886526256799698e-03 4.450639337301254272e-02 -2.169799990952014923e-02 -2.431568875908851624e-02 -2.984737744554877281e-03 -2.083334140479564667e-02 3.449872136116027832e-03 -2.567209675908088684e-02 -1.032744999974966049e-02 1.794669404625892639e-02 -9.609724394977092743e-03 6.468744017183780670e-03 2.556396648287773132e-02 -5.883916839957237244e-02 6.646147370338439941e-02 7.300746627151966095e-03 -9.871890768408775330e-03 -1.123606506735086441e-02 -2.287472784519195557e-02 -4.751761630177497864e-02 -2.499284408986568451e-02 -3.088808618485927582e-02 7.293314207345247269e-03 -8.946517854928970337e-02 -1.019547227770090103e-02 -3.018773905932903290e-02 -3.259059786796569824e-02 -3.085125423967838287e-02 -7.289554178714752197e-02 -2.292051911354064941e-02 -2.435641549527645111e-02 1.263660565018653870e-02 -1.782107725739479065e-02 -5.282120313495397568e-03 -2.434913069009780884e-02 -1.562994532287120819e-02 -2.368295192718505859e-02 -1.585314236581325531e-02 -3.298922255635261536e-02 2.220427617430686951e-02 -2.202481962740421295e-03 -7.496489584445953369e-02 -9.647232480347156525e-03 1.285275723785161972e-02 -8.059323579072952271e-02 -9.376674145460128784e-02 -1.437587384134531021e-02 1.446308218874037266e-03 1.794959418475627899e-02 -5.229892954230308533e-02 4.919317737221717834e-02 -9.834337979555130005e-03 -4.326143115758895874e-02 1.886766031384468079e-02 1.873377338051795959e-02 3.565844381228089333e-03 -5.143543705344200134e-03 -5.337782669812440872e-03 2.010050974786281586e-02 7.138497196137905121e-03 4.332267120480537415e-02 2.460091374814510345e-02 -8.535715192556381226e-02 -3.354592248797416687e-02 -7.362305186688899994e-04 8.788923878455534577e-05 1.839547790586948395e-02 6.870050914585590363e-03 -1.954410038888454437e-02 -7.413355167955160141e-03 -1.746986620128154755e-02 5.635868292301893234e-03 1.360974926501512527e-02 -5.886408500373363495e-03 1.663785800337791443e-02 -4.574642516672611237e-04 -4.651228711009025574e-02 -1.806979998946189880e-02 6.866784393787384033e-02 3.213411662727594376e-03 1.593254273757338524e-03 4.425030201673507690e-02 1.398522779345512390e-02 3.640001267194747925e-02 1.994904875755310059e-02 -1.293172128498554230e-02 -8.897175639867782593e-02 1.351395994424819946e-02 3.297343850135803223e-02 -5.943567026406526566e-03 -4.591321107000112534e-03 7.856238633394241333e-02 5.806398577988147736e-03 -1.826746884034946561e-04 -3.786496445536613464e-02 -1.316086947917938232e-02 -3.939110785722732544e-03 -2.345549315214157104e-02 -2.536483108997344971e-02 -7.079462055116891861e-03 5.402023717761039734e-02 -3.827245905995368958e-02 -5.476069636642932892e-04 2.206785231828689575e-02 2.008343115448951721e-02 1.575097069144248962e-02 -4.187285527586936951e-02 -1.947024650871753693e-02 1.282220333814620972e-02 5.328847095370292664e-03 7.428737357258796692e-03 1.842754147946834564e-02 -2.500470168888568878e-02 -1.138733327388763428e-02 -1.500041782855987549e-02 -8.521866984665393829e-03 2.342619374394416809e-02
-3.545913472771644592e-02 2.993846870958805084e-02 -1.591328531503677368e-02 1.456208247691392899e-02 2.911532111465930939e-02 -5.278928205370903015e-02 3.528025746345520020e-02 -2.166935056447982788e-02 3.422960173338651657e-03 3.662123577669262886e-03 3.287159278988838196e-02 -6.799259781837463379e-02 -4.460620135068893433e-02 -3.458194434642791748e-03 1.408279687166213989e-02 -8.344474248588085175e-03 -1.498978864401578903e-02 -4.890851676464080811e-02 2.666665054857730865e-02 6.735738832503557205e-03 -6.308968365192413330e-02 -2.433142997324466705e-02 -3.700859099626541138e-02 5.800139904022216797e-02 2.835040725767612457e-02 -5.022681877017021179e-02 -1.182016544044017792e-02 3.847218351438641548e-03 1.515305042266845703e-02 4.548813402652740479e-02 -3.057701513171195984e-02 -1.807766268029808998e-03 7.662270218133926392e-02 3.865410387516021729e-02 -3.182324767112731934e-02 -4.570150002837181091e-02 -4.113342612981796265e-02 1.457199733704328537e-02 -2.002842910587787628e-02 9.496540762484073639e-03 2.530689723789691925e-02 1.100764711736701429e-04 -1.239311508834362030e-02 2.584965433925390244e-03 -6.621392071247100830e-02 3.820154117420315742e-03 2.718850411474704742e-02 2.615784853696823120e-02 1.069858390837907791e-02 8.100738748908042908e-03 -2.532883547246456146e-02 -2.614063024520874023e-02 -3.395218029618263245e-02 3.960699588060379028e-02 4.009827505797147751e-03 -3.826383873820304871e-02 2.254067733883857727e-02 2.431400585919618607e-03 5.759925395250320435e-02 7.392408698797225952e-02 -9.322668192908167839e-04 -3.854020312428474426e-02 2.771165920421481133e-03 -7.224600296467542648e-03 1.131440978497266769e-02 -3.859250992536544800e-02 -1.663043722510337830e-02 2.255688793957233429e-02 -4.923946689814329147e-03 4.616706818342208862e-02 -3.671415895223617554e-02 -2.484315074980258942e-02 -8.030626922845840454e-03 -1.189343631267547607e-02 -7.905833423137664795e-03 -4.901162348687648773e-03 -3.395895706489682198e-03 1.990280346944928169e-03 1.469067391008138657e-02 -2.617427147924900055e-02 -1.857227087020874023e-02 -6.061431486159563065e-03 -6.258426234126091003e-03 -4.935340024530887604e-03 -8.899683132767677307e-03 -7.365468889474868774e-03 8.449029177427291870e-03 -1.107136532664299011e-02 2.176041528582572937e-02 -3.400871157646179199e-02 1.975265517830848694e-02 -1.459500170312821865e-03 -6.370630580931901932e-03 -8.541609346866607666e-02 -8.688777685165405273e-02 -1.221211906522512436e-02 1.924676634371280670e-02 -2.618222124874591827e-02 -8.653033524751663208e-03 -5.060467403382062912e-03 1.175643038004636765e-02 -1.538604730740189552e-03 -6.335254013538360596e-02 -1.740371063351631165e-02 -1.042510289698839188e-02 6.591264158487319946e-02 -4.268858581781387329e-03 1.403111312538385391e-02 -1.722452417016029358e-02 4.862070782110095024e-04 6.634097546339035034e-02 3.768735565245151520e-03 -6.485997233539819717e-03 -5.564314778894186020e-03 -5.779337137937545776e-02 3.897201642394065857e-02 6.224505603313446045e-03 -2.897577732801437378e-02 2.253096550703048706e-02 -7.269381545484066010e-03 -1.053834632039070129e-01 -1.310735568404197693e-02 1.395930163562297821e-02 -2.340951003134250641e-02 2.116751298308372498e-02 -1.918052509427070618e-02 -1.734723336994647980e-02 2.443374879658222198e-02 -4.944116249680519104e-02 -1.132918596267700195e-01 1.908055273815989494e-04 -6.372232455760240555e-04 3.773931181058287621e-03 1.367000979371368885e-03 -1.617239229381084442e-02 2.405798062682151794e-02 5.172106623649597168e-02 6.339897401630878448e-03 -1.005321554839611053e-02 3.498867899179458618e-02 -1.587478443980216980e-02 1.496037468314170837e-02 -8.746456354856491089e-03 9.773445315659046173e-03 -1.766745001077651978e-02 -2.125455625355243683e-02 -1.349713280797004700e-02 -1.778168044984340668e-02 4.946039989590644836e-03 1.669252105057239532e-02 5.798552930355072021e-02 -1.094863750040531158e-02 5.597501248121261597e-02 1.618679054081439972e-02 -2.224312350153923035e-02 3.036185353994369507e-02 -2.043006941676139832e-02 -3.256068378686904907e-02 4.169655591249465942e-02 -2.899410016834735870e-02 -2.590877376496791840e-02 -1.910376176238059998e-02 -3.054931387305259705e-02 2.170808846130967140e-03 -2.864654734730720520e-02 1.513769151642918587e-03 2.062820829451084137e-02 -1.916999928653240204e-02 -7.340548187494277954e-02 -1.500838808715343475e-02 1.080921199172735214e-02 4.992438014596700668e-03 -2.739892899990081787e-02 4.761859029531478882e-02 4.832412581890821457e-03 -1.850967109203338623e-02 5.126319080591201782e-02 4.084113985300064087e-03 -6.945113651454448700e-03 1.803732477128505707e-02 2.407417446374893188e-02 -4.076413065195083618e-02 4.190847277641296387e-03 -4.548293352127075195e-02 2.437158487737178802e-02 2.983078127726912498e-03 -3.070540353655815125e-02 5.928647518157958984e-02 -9.035339206457138062e-02 3.651131689548492432e-02 3.425198793411254883e-02 -1.576293632388114929e-02 8.725575171411037445e-03 -5.317076295614242554e-02 1.003840118646621704e-01 2.097426448017358780e-03 -1.444084569811820984e-03 -3.121527656912803650e-02 -3.237344790250062943e-03 -1.806600764393806458e-02 -5.877824127674102783e-02 9.299757890403270721e-03 2.481180429458618164e-02 -1.223010197281837463e-02 2.350316382944583893e-02 -1.170513778924942017e-02 -4.437671508640050888e-03 -2.081758156418800354e-02 1.253991294652223587e-02 -1.388287870213389397e-03 1.525088329799473286e-03 2.522207424044609070e-02 -1.113629061728715897e-02 -4.942714050412178040e-02 -5.228324327617883682e-03 -3.550913417711853981e-03 -3.048370406031608582e-02 3.591650724411010742e-02 3.356742963660508394e-04 -3.447406692430377007e-03 -3.944157063961029053e-02 2.303648367524147034e-02 -1.157554984092712402e-02 8.613511919975280762e-03 8.069287287071347237e-04 -1.924401335418224335e-02 4.658953845500946045e-02 -1.810017600655555725e-02 -2.917739935219287872e-02 -2.514636330306529999e-02 -4.124195873737335205e-02 -1.853144727647304535e-02 2.501158788800239563e-02 -3.238681331276893616e-02 -5.520279519259929657e-04 -5.194284021854400635e-03 -9.267776273190975189e-03 -1.110761798918247223e-02 -1.093531772494316101e-02 2.728900127112865448e-02 -1.111186295747756958e-02 -2.944088540971279144e-03 5.045178695581853390e-04 -9.422076493501663208e-02 -3.812384232878684998e-02 2.930130064487457275e-02 2.748556062579154968e-02 1.798366010189056396e-02 -1.187146548181772232e-02 1.360150752589106560e-03 8.508276194334030151e-03 1.506687887012958527e-02 5.839416291564702988e-03 -5.410714447498321533e-02 -2.272766642272472382e-02 5.831288173794746399e-02
-1.796168275177478790e-02 -1.530519220978021622e-02 -1.474163495004177094e-02 9.576332755386829376e-03 5.050605908036231995e-02 4.219974204897880554e-02 1.627480052411556244e-02 -4.419779032468795776e-02 1.342382514849305153e-03 7.229659240692853928e-03 2.003111690282821655e-02 2.378575503826141357e-03 4.508446529507637024e-02 1.347678154706954956e-02 -4.695229697972536087e-03 1.128066331148147583e-02 -6.457690149545669556e-03 -1.990501396358013153e-02 -1.920703449286520481e-03 -2.609814703464508057e-02 -5.106182768940925598e-03 4.282124713063240051e-02 5.576343834400177002e-02 1.963689178228378296e-02 -5.977542139589786530e-03 4.309612512588500977e-02 -3.965009376406669617e-02 -1.637136563658714294e-03 6.577648222446441650e-03 -3.634460270404815674e-02 6.276686675846576691e-03 -1.206295005977153778e-02 4.610789567232131958e-02 8.879574015736579895e-03 -2.599699189886450768e-03 -1.491659204475581646e-03 5.101651418954133987e-03 3.846565959975123405e-04 3.721262142062187195e-02 1.505160890519618988e-02 6.604207307100296021e-02 3.851724416017532349e-02 1.816870272159576416e-02 -2.599802799522876740e-03 -3.115356201305985451e-03 -4.245043732225894928e-03 4.214514046907424927e-02 7.435250096023082733e-03 -1.976846950128674507e-03 1.145334634929895401e-02 7.498136255890130997e-03 -1.911139814183115959e-03 1.230341196060180664e-02 -1.548081752844154835e-03 8.664276450872421265e-03 7.070197258144617081e-03 2.534889150410890579e-03 -6.822521798312664032e-03 3.408547118306159973e-02 2.279303036630153656e-02 5.067349411547183990e-03 2.249356918036937714e-02 5.986584350466728210e-02 -2.594506833702325821e-03 -7.699654670432209969e-04 -6.331306416541337967e-03 6.290153134614229202e-03 2.661390788853168488e-02 -3.511191345751285553e-03 2.418969571590423584e-02 9.263665415346622467e-03 -8.344304747879505157e-03 4.998655244708061218e-02 -5.190941691398620605e-02 -1.964844850590452552e-04 -4.959995392709970474e-03 1.158328074961900711e-02 4.315330646932125092e-03 3.699542582035064697e-02 -1.642335555516183376e-03 -2.381708240136504173e-03 -5.569988861680030823e-03 2.665718272328376770e-02 7.175270002335309982e-03 -8.337918552570044994e-04 1.461397204548120499e-02 -4.876193124800920486e-03 -4.583247471600770950e-03 6.787902675569057465e-04 -3.799114376306533813e-02 -3.619415452703833580e-03 -9.007474407553672791e-03 4.299627244472503662e-02 -2.543545514345169067e-02 -5.335262045264244080e-03 2.348511852324008942e-02 -7.526671513915061951e-03 -4.082653671503067017e-03 3.058523125946521759e-02 -7.170181255787611008e-03 -1.496512349694967270e-02 -6.589334923774003983e-03 -6.449475884437561035e-03 1.364045590162277222e-02 2.097355015575885773e-02 8.624310139566659927e-04 8.701040409505367279e-03 4.043222870677709579e-03 1.135311182588338852e-02 2.189854346215724945e-02 6.925059482455253601e-03 8.441094309091567993e-03 2.184209972620010376e-02 -1.918563037179410458e-03 -3.078051097691059113e-02 -1.307208440266549587e-04 4.460393916815519333e-03 -1.611432619392871857e-02 -2.645014319568872452e-03 -9.370635263621807098e-03 2.650309912860393524e-02 -2.050744369626045227e-02 -1.782564329914748669e-03 -1.442508026957511902e-02 1.101882848888635635e-02 -2.606068737804889679e-02 4.278383031487464905e-02 1.363870967179536819e-02 1.219848170876502991e-02 5.965033546090126038e-03 -7.652247790247201920e-03 8.084441535174846649e-03 2.191485650837421417e-02 1.616659015417098999e-02 7.476740982383489609e-03 -2.798606455326080322e-02 -3.810777142643928528e-02 -2.338378690183162689e-02 3.413286292925477028e-03 2.948846854269504547e-02 -7.146158721297979355e-03 9.488598443567752838e-03 -3.311179578304290771e-02 5.940184346400201321e-04 8.925066329538822174e-03 1.402699016034603119e-02 1.664456538856029510e-02 -1.187541428953409195e-02 4.396546632051467896e-03 -1.315929088741540909e-02 -6.349093746393918991e-03 -9.336938150227069855e-03 -1.750459149479866028e-02 -5.384230241179466248e-02 -9.757119230926036835e-03 -2.719468809664249420e-02 -8.661699295043945312e-02 -3.440840402618050575e-03 8.240875788033008575e-03 4.838024079799652100e-02 -2.576060220599174500e-02 -1.557598169893026352e-02 -9.569770842790603638e-02 5.820943042635917664e-03 -1.652742177248001099e-02 1.462435908615589142e-02 -4.508345574140548706e-02 -1.222163625061511993e-02 -4.428600147366523743e-02 1.158157084137201309e-02 4.711825028061866760e-02 -5.634041735902428627e-04 1.579815149307250977e-02 1.485982351005077362e-02 -7.263606879860162735e-03 -5.189033225178718567e-02 -3.863828955218195915e-03 2.459718286991119385e-02 3.190810605883598328e-02 -4.994641640223562717e-04 1.681742072105407715e-02 -3.363968431949615479e-02 -2.029517106711864471e-02 -4.127365350723266602e-02 -2.965447865426540375e-02 -1.567873358726501465e-02 -1.316842250525951385e-02 -2.900776686146855354e-03 1.261773332953453064e-02 8.166760206222534180e-03 5.765790864825248718e-02 1.654354296624660492e-02 2.831605961546301842e-04 4.260660149157047272e-03 -6.025538221001625061e-02 -4.031043965369462967e-03 1.704845950007438660e-02 1.029506698250770569e-02 3.850386478006839752e-03 -3.315971698611974716e-03 -2.394638210535049438e-02 -3.095701104030013084e-03 2.371908538043498993e-02 -3.602694952860474586e-03 4.953574389219284058e-03 -2.290997421368956566e-03 -3.256494877859950066e-03 -1.249699667096138000e-02 -7.077017799019813538e-03 1.051003113389015198e-03 -8.720478042960166931e-03 1.521436870098114014e-02 1.158565841615200043e-02 -2.026028372347354889e-02 -3.580702934414148331e-03 -1.963165961205959320e-02 4.549872875213623047e-02 -9.748369455337524414e-03 -4.718069103546440601e-04 -9.139795787632465363e-03 5.433760583400726318e-02 4.067706316709518433e-02 1.651878841221332550e-02 1.803178153932094574e-02 5.171835422515869141e-03 -2.130553685128688812e-02 1.264343410730361938e-02 4.251858964562416077e-02 -4.291180893778800964e-02 -2.177865803241729736e-02 -2.009289804846048355e-03 -2.497955225408077240e-03 -9.492977522313594818e-03 1.190675515681505203e-02 -1.338745001703500748e-02 1.205995772033929825e-02 -7.838729070499539375e-04 -3.376464825123548508e-03 1.529227849096059799e-02 -3.386017400771379471e-03 3.032473288476467133e-02 -1.462483429349958897e-03 -4.195105656981468201e-02 5.863622575998306274e-02 -1.347170304507017136e-02 4.014642909169197083e-03 4.576715640723705292e-03 -1.124360505491495132e-02 5.489675095304846764e-04 2.498671598732471466e-02 1.288905087858438492e-02 -1.689680479466915131e-02 -7.678293623030185699e-03 2.926095388829708099e-03 -3.483946621417999268e-02 -1.389008201658725739e-02
3.580413013696670532e-02 -7.755474001169204712e-02 -1.726785558275878429e-03 -3.592094406485557556e-02 7.724837213754653931e-02 -7.522629946470260620e-02 2.773419953882694244e-02 -7.319942116737365723e-02 2.162483520805835724e-02 5.207579582929611206e-03 2.494779415428638458e-02 -2.393667382420971990e-04 -1.220155321061611176e-02 -3.874137997627258301e-02 -8.188918232917785645e-02 -2.961977198719978333e-02 -1.318886131048202515e-02 3.575225546956062317e-02 4.230547696352005005e-02 1.825741305947303772e-02 2.066291496157646179e-02 -3.569865599274635315e-02 3.271945938467979431e-02 3.839163109660148621e-02 -2.659091725945472717e-02 -2.231347002089023590e-02 2.490768441930413246e-03 -1.229236647486686707e-02 1.712688058614730835e-02 -2.105490490794181824e-02 -1.959799788892269135e-02 -7.964374125003814697e-02 -1.297221239656209946e-02 -7.718331366777420044e-02 -4.715717211365699768e-02 3.130548447370529175e-02 4.737843945622444153e-02 2.747883647680282593e-02 9.189429692924022675e-03 5.244599282741546631e-02 3.193258866667747498e-02 -3.292062506079673767e-02 8.376565761864185333e-03 -1.838165894150733948e-02 3.839960321784019470e-03 -5.185634270310401917e-02 4.224945604801177979e-02 5.816269293427467346e-02 -3.434767713770270348e-03 2.764184772968292236e-02 5.834375508129596710e-03 8.017397485673427582e-03 -5.657557398080825806e-03 -5.514040961861610413e-02 -4.519140720367431641e-02 4.978512972593307495e-02 -3.587135579437017441e-03 3.481874242424964905e-02 6.605056673288345337e-02 -2.438308857381343842e-02 -1.705405185930430889e-03 4.585110396146774292e-02 -7.117150723934173584e-02 7.679026108235120773e-03 3.827269002795219421e-02 3.033691644668579102e-02 2.706121280789375305e-02 -3.328766673803329468e-02 3.650879114866256714e-02 7.691397517919540405e-02 -7.720191963016986847e-03 -3.124736435711383820e-02 7.207806687802076340e-03 -2.549644373357295990e-02 -3.458405379205942154e-03 6.646395660936832428e-03 3.763074427843093872e-02 3.796706721186637878e-02 -4.900030046701431274e-02 1.790165156126022339e-02 -2.134740725159645081e-02 2.922025322914123535e-02 2.797133289277553558e-02 2.544275717809796333e-03 3.173715202137827873e-03 -1.637043990194797516e-02 5.630778614431619644e-03 -1.137578953057527542e-02 -2.826578728854656219e-02 1.012133248150348663e-02 5.038916599005460739e-03 3.796653822064399719e-02 -6.742236018180847168e-02 -1.864910684525966644e-02 1.867084018886089325e-02 -3.038048930466175079e-02 1.179487258195877075e-02 -3.130698110908269882e-03 3.114552423357963562e-02 -1.124533191323280334e-01 2.522735111415386200e-02 2.714118361473083496e-02 4.103637859225273132e-02 4.013238847255706787e-02 -1.442106673493981361e-03 -7.415125146508216858e-03 -1.269256696105003357e-02 1.156535185873508453e-02 1.955512724816799164e-02 -1.558828204870223999e-01 -5.630481243133544922e-02 -4.360809177160263062e-02 6.224926561117172241e-02 1.826381310820579529e-02 -3.404869511723518372e-02 2.959206327795982361e-02 -1.512554939836263657e-02 -4.061877354979515076e-02 1.374000031501054764e-02 -6.983127444982528687e-03 -7.928527146577835083e-02 -3.010435774922370911e-02 -2.752880938351154327e-02 5.673025734722614288e-03 -3.403570130467414856e-02 -6.652368605136871338e-02 3.185358643531799316e-02 -4.637878388166427612e-03 3.507335111498832703e-02 2.239395864307880402e-02 2.138063684105873108e-02 -3.083965741097927094e-02 -1.175195444375276566e-02 2.536049112677574158e-02 -1.458303723484277725e-02 1.386317773722112179e-03 -4.270542412996292114e-02 -1.334717962890863419e-02 1.331541803665459156e-03 -1.188343539834022522e-01 -4.506445955485105515e-03 -1.999620534479618073e-02 3.828202188014984131e-02 -9.071651846170425415e-03 2.159284241497516632e-02 -1.044210791587829590e-02 -2.655100077390670776e-03 2.296054549515247345e-02 -1.858657039701938629e-02 -5.475587770342826843e-02 -4.828179720789194107e-03 3.094339929521083832e-02 -5.041102319955825806e-02 1.002452988177537918e-02 -3.177683427929878235e-02 1.842093095183372498e-02 3.935112059116363525e-02 -7.298418786376714706e-03 -1.301989890635013580e-02 -4.694974422454833984e-02 -8.047234266996383667e-03 -2.216030098497867584e-02 -5.990963429212570190e-02 -8.634870871901512146e-03 -7.785798050463199615e-03 -1.110415067523717880e-02 7.153791934251785278e-02 2.628948725759983063e-02 7.078904658555984497e-02 9.315554983913898468e-03 2.351446636021137238e-02 1.537820696830749512e-02 3.602463752031326294e-02 3.598294034600257874e-02 -1.710571162402629852e-02 1.169903203845024109e-01 6.512121856212615967e-02 3.329803794622421265e-02 -6.325523555278778076e-02 5.759431049227714539e-02 2.444332651793956757e-02 2.503240481019020081e-03 4.866049066185951233e-02 2.697617281228303909e-03 -5.574352666735649109e-02 1.061279140412807465e-02 -2.293015085160732269e-02 -6.222858652472496033e-02 1.049861218780279160e-02 -3.283183323219418526e-03 4.505851864814758301e-02 -4.891537502408027649e-02 -7.256804406642913818e-02 -1.757705118507146835e-03 -7.066114991903305054e-02 3.860254655592143536e-04 -7.183448225259780884e-02 -3.503296896815299988e-02 4.076971672475337982e-03 -3.624290227890014648e-02 8.702368941158056259e-04 -5.799560621380805969e-02 8.455915004014968872e-02 6.160743068903684616e-03 -1.950405538082122803e-02 2.420640923082828522e-02 -1.486416440457105637e-02 -1.799507439136505127e-02 3.166732937097549438e-02 -9.123741835355758667e-02 4.130383313167840242e-04 1.398128340952098370e-03 -4.315293580293655396e-02 -4.011119902133941650e-02 -4.862892441451549530e-03 2.499514073133468628e-02 -6.460034847259521484e-02 3.052765689790248871e-02 2.143747871741652489e-03 2.493468346074223518e-04 -1.175395771861076355e-02 4.934347793459892273e-02 -5.544738844037055969e-02 -3.933923318982124329e-02 -2.185503207147121429e-02 6.540526449680328369e-02 -2.170458994805812836e-02 -1.306235510855913162e-02 -6.795289367437362671e-02 1.894861273467540741e-02 2.742350846529006958e-02 8.061385713517665863e-03 -3.296314552426338196e-02 -1.082211583852767944e-01 -7.010531262494623661e-04 5.755605176091194153e-02 -4.995341598987579346e-02 -1.501812506467103958e-02 5.602227896451950073e-02 1.372232288122177124e-02 -4.753320664167404175e-02 -1.261554472148418427e-02 4.655779525637626648e-02 -4.465732723474502563e-02 4.511932656168937683e-02 -2.450242266058921814e-02 -3.443007543683052063e-02 1.531544141471385956e-02 -2.589717134833335876e-02 -3.840261325240135193e-02 6.880287081003189087e-03 -1.050605624914169312e-02 9.848151355981826782e-03 -2.461553364992141724e-02 -1.441541872918605804e-02 -1.026344718411564827e-03
-6.063961889594793320e-03 1.800162717700004578e-02 -1.717244274914264679e-02 1.047841738909482956e-02 6.951347924768924713e-03 -4.104341566562652588e-02 5.501146242022514343e-02 3.528647869825363159e-02 -4.210049752146005630e-03 1.133611891418695450e-02 -2.021270245313644409e-02 -1.165537256747484207e-02 4.850936681032180786e-02 -2.141319774091243744e-02 4.923067614436149597e-02 5.486553162336349487e-02 -2.896649762988090515e-02 -1.047197170555591583e-02 1.095620542764663696e-02 -1.513493061065673828e-02 -3.691367432475090027e-02 3.172999247908592224e-02 9.992394596338272095e-03 -3.379766130819916725e-03 -9.021486155688762665e-03 -2.115330100059509277e-02 6.446637213230133057e-02 6.698105018585920334e-03 6.893130950629711151e-03 -1.926820911467075348e-02 -5.645461380481719971e-02 1.455110870301723480e-02 4.833763465285301208e-02 3.514847531914710999e-02 -2.561781369149684906e-02 -8.444387465715408325e-03 1.393518410623073578e-02 -1.827697828412055969e-02 -2.003406174480915070e-02 -1.266956422477960587e-02 1.966775022447109222e-02 -1.434027403593063354e-02 2.234669961035251617e-02 4.132723435759544373e-02 -7.258099969476461411e-03 -1.974781230092048645e-02 -8.099965751171112061e-02 -1.194670274853706360e-01 5.927765741944313049e-03 -4.662304744124412537e-02 8.717101998627185822e-03 -5.228169611655175686e-04 1.080651506781578064e-01 5.769661511294543743e-04 2.282674424350261688e-03 3.158931434154510498e-02 2.216773107647895813e-02 -2.110776118934154510e-02 6.977719068527221680e-02 3.672130033373832703e-02 -3.611709550023078918e-02 4.848213121294975281e-02 -2.939425176009535789e-03 5.997389554977416992e-03 -2.119539491832256317e-02 1.482480019330978394e-02 7.851024158298969269e-03 -3.633030876517295837e-02 7.133876904845237732e-03 -2.636482939124107361e-02 2.488932944834232330e-02 -1.149968593381345272e-04 -2.875602431595325470e-02 -2.179425396025180817e-02 -3.302613273262977600e-02 -2.782941982150077820e-02 -8.354074321687221527e-03 -1.278940355405211449e-03 1.517567969858646393e-02 -7.072827219963073730e-02 4.355445504188537598e-02 3.070411644876003265e-02 1.096173073165118694e-03 2.763302065432071686e-02 6.579093169420957565e-04 5.119505152106285095e-02 3.871402237564325333e-03 -1.769186696037650108e-03 -6.932495534420013428e-02 5.538931116461753845e-02 3.598790615797042847e-03 8.163168095052242279e-03 -5.336615815758705139e-02 5.188851803541183472e-02 -8.254279196262359619e-02 1.789691857993602753e-02 2.583308517932891846e-02 -3.380134468898177147e-03 1.623775623738765717e-02 -3.413267806172370911e-02 3.076808294281363487e-03 3.540627658367156982e-03 3.125678002834320068e-02 -1.471745129674673080e-02 2.644291706383228302e-02 -1.725572347640991211e-02 -5.732824653387069702e-02 -5.154065322130918503e-03 -7.976123131811618805e-03 1.952490583062171936e-02 2.021494135260581970e-02 -7.220188621431589127e-03 -6.526591628789901733e-02 2.096726372838020325e-02 7.365258783102035522e-02 -2.579784207046031952e-02 -1.610720902681350708e-02 3.004628978669643402e-02 -1.333659701049327850e-02 1.201369985938072205e-02 3.566472977399826050e-02 6.253428757190704346e-03 -2.397579140961170197e-02 -4.461218044161796570e-02 4.625120013952255249e-02 2.577825449407100677e-02 5.201144516468048096e-02 3.693256061524152756e-03 2.343217842280864716e-02 -2.354740351438522339e-02 1.407989859580993652e-02 7.237154059112071991e-03 -5.804423126392066479e-04 1.257569342851638794e-02 -5.175847560167312622e-03 3.440542146563529968e-02 3.514797240495681763e-02 4.684983287006616592e-03 -6.094567012041807175e-03 1.960553787648677826e-02 2.352794632315635681e-02 3.944917116314172745e-03 4.267132654786109924e-02 2.680557593703269958e-02 -2.465518936514854431e-02 1.977379992604255676e-02 -7.903430610895156860e-03 -3.260672464966773987e-02 -9.719443507492542267e-03 -9.248957037925720215e-03 1.649451814591884613e-02 -9.036917239427566528e-03 4.341420903801918030e-02 -3.831212595105171204e-02 -1.358171924948692322e-02 -1.308556739240884781e-02 1.979243475943803787e-03 -8.286810480058193207e-04 1.599087612703442574e-03 6.988337635993957520e-02 4.308658838272094727e-02 -2.476914320141077042e-03 -4.519996047019958496e-02 -3.580323886126279831e-03 -4.505536053329706192e-04 -1.255861669778823853e-02 1.908351667225360870e-02 1.094082091003656387e-02 -1.263938378542661667e-02 -4.188948497176170349e-02 -8.014743775129318237e-02 1.435891818255186081e-02 -5.093017593026161194e-03 -1.373657491058111191e-02 8.830760605633258820e-03 -2.077530510723590851e-02 -3.354003280401229858e-02 -2.506473474204540253e-02 5.088830366730690002e-03 8.167378604412078857e-02 -8.644132874906063080e-03 2.156395092606544495e-02 -2.407798916101455688e-02 1.621345244348049164e-02 -4.888540878891944885e-02 3.891659434884786606e-03 -3.273211047053337097e-02 -8.339763432741165161e-02 3.477252647280693054e-02 -1.100817322731018066e-02 -4.900721460580825806e-02 -3.956840559840202332e-02 -3.710610792040824890e-02 1.123008038848638535e-02 -6.015548482537269592e-02 -9.480826556682586670e-04 6.702774018049240112e-02 1.922742836177349091e-02 -8.524501696228981018e-03 1.973277516663074493e-02 1.719568669795989990e-02 -2.696250192821025848e-02 -7.529659662395715714e-03 -4.772387444972991943e-03 3.601469099521636963e-02 7.554067764431238174e-03 3.813841938972473145e-02 -1.284721028059720993e-02 -3.510913345962762833e-03 -6.289808545261621475e-03 6.980569101870059967e-03 1.680642366409301758e-03 2.584003843367099762e-02 2.017682790756225586e-02 -1.759264431893825531e-02 -3.010569326579570770e-02 -2.022866904735565186e-02 -1.537450472824275494e-03 -7.132643833756446838e-03 -1.606583222746849060e-02 -5.359826143831014633e-03 3.123699873685836792e-02 -3.896587342023849487e-02 -6.056299898773431778e-03 -9.995039552450180054e-03 -1.285208612680435181e-01 -2.344051748514175415e-02 1.121694454923272133e-03 3.187398612499237061e-02 -1.450917962938547134e-02 -9.710115939378738403e-02 9.448629571124911308e-04 -2.766177989542484283e-02 5.075904075056314468e-03 1.977200247347354889e-02 8.713548304513096809e-04 -4.642632789909839630e-03 -1.651322469115257263e-02 -3.099886327981948853e-02 7.943845354020595551e-03 -6.817565299570560455e-03 3.404582291841506958e-02 -7.213050033897161484e-03 5.399568006396293640e-02 9.391519241034984589e-03 -7.465208321809768677e-02 3.400837304070591927e-03 -2.019247598946094513e-02 -2.927271882072091103e-03 7.051246240735054016e-03 -5.893968627788126469e-04 -1.103921141475439072e-02 -1.739237271249294281e-02 1.879522344097495079e-03 -1.549829915165901184e-02 7.180952280759811401e-02
-1.446719095110893250e-02 -9.213508106768131256e-03 5.340881180018186569e-03 2.873783931136131287e-02 2.721129357814788818e-02 3.650399670004844666e-02 -8.143736631609499454e-04 1.008077338337898254e-02 9.686764329671859741e-03 -1.971937343478202820e-02 3.139350563287734985e-02 1.470148656517267227e-02 -1.992449909448623657e-02 -3.265607403591275215e-03 -9.776672348380088806e-03 8.454798720777034760e-03 1.360733527690172195e-02 -1.241347193717956543e-02 6.936409045010805130e-03 3.510997816920280457e-02 -3.774724155664443970e-02 -3.388880938291549683e-02 -9.174752049148082733e-03 2.967227250337600708e-02 8.925566449761390686e-03 2.538933232426643372e-02 7.192745059728622437e-02 5.697297863662242889e-03 -3.285344690084457397e-02 -1.382643543183803558e-02 -1.824444346129894257e-02 9.998810477554798126e-03 1.868808828294277191e-02 -2.853548526763916016e-02 2.991264453157782555e-03 2.033458277583122253e-02 -5.758857005275785923e-04 1.612757705152034760e-02 -1.172295492142438889e-02 1.232096273452043533e-02 -7.712576771154999733e-04 -3.033441118896007538e-02 2.437429875135421753e-02 2.522271126508712769e-02 4.978645965456962585e-02 -8.394854515790939331e-02 -3.307387232780456543e-02 -3.385109826922416687e-02 -1.051231753081083298e-02 -4.863987490534782410e-02 3.721683286130428314e-03 1.647544279694557190e-02 -7.437437307089567184e-03 3.061713650822639465e-02 5.910974740982055664e-02 -2.809001505374908447e-02 9.010981768369674683e-03 -9.460620582103729248e-03 -2.706643380224704742e-02 -2.129431581124663353e-03 -9.935801476240158081e-02 -2.346940338611602783e-02 1.906878501176834106e-02 2.249216428026556969e-03 7.028830703347921371e-03 -3.385521471500396729e-03 -1.344856061041355133e-02 -2.188427187502384186e-02 -3.512345952913165092e-03 -1.413496211171150208e-02 1.785346120595932007e-02 1.783388666808605194e-02 1.685082912445068359e-02 2.954045310616493225e-02 -1.173859927803277969e-02 7.037119474261999130e-03 2.981144469231367111e-03 9.201990440487861633e-03 -1.403444726020097733e-02 -2.580065093934535980e-02 -4.250607453286647797e-03 -1.556541118770837784e-02 -1.108422502875328064e-02 -3.555283416062593460e-03 -2.082232385873794556e-02 4.060282558202743530e-02 5.295580718666315079e-03 -1.789267733693122864e-02 1.154206041246652603e-02 2.736020088195800781e-02 -2.362654311582446098e-03 1.174377929419279099e-02 -5.805094167590141296e-02 2.693585492670536041e-02 -7.450044900178909302e-02 -1.117968000471591949e-02 7.837894372642040253e-03 4.626786336302757263e-03 -1.528543885797262192e-02 2.853502891957759857e-02 3.103518858551979065e-03 -1.881441473960876465e-02 -4.315234720706939697e-02 9.791276417672634125e-03 9.630328044295310974e-03 -4.891671240329742432e-03 -2.120623551309108734e-02 -2.167207747697830200e-02 3.429060056805610657e-02 3.737042192369699478e-03 -6.811767071485519409e-02 -2.767067775130271912e-02 8.931625634431838989e-03 -4.785238299518823624e-03 1.649147644639015198e-02 -2.242942573502659798e-03 -9.270378388464450836e-03 5.507919192314147949e-02 3.496783087030053139e-03 1.217437069863080978e-02 6.871033459901809692e-02 -1.104152575135231018e-02 1.117664948105812073e-02 -6.598905660212039948e-03 3.005920536816120148e-02 4.114724695682525635e-02 6.382191553711891174e-03 1.618620194494724274e-02 1.967511698603630066e-02 -7.556175347417593002e-03 6.132737919688224792e-02 5.950657650828361511e-03 -3.118399530649185181e-02 -1.159958448261022568e-02 -1.548294164240360260e-02 -2.963562309741973877e-02 8.591515012085437775e-03 2.208365872502326965e-02 2.428244333714246750e-03 -1.564345322549343109e-02 2.759389020502567291e-02 1.236949115991592407e-02 -3.705001994967460632e-02 1.112641114741563797e-02 -3.282019495964050293e-02 2.354824729263782501e-02 2.708614617586135864e-02 -3.500909311696887016e-03 1.048380881547927856e-02 -2.310352958738803864e-02 1.532191969454288483e-02 -3.671672195196151733e-02 1.958393305540084839e-02 -2.878461219370365143e-02 2.101249434053897858e-02 -1.934784837067127228e-02 -1.574147259816527367e-03 -1.238988339900970459e-02 2.944445936009287834e-03 2.828718535602092743e-02 2.228068374097347260e-02 9.690227918326854706e-03 -2.707155048847198486e-02 9.788112714886665344e-03 1.052360050380229950e-02 1.730708405375480652e-03 -8.500921539962291718e-03 -1.434394251555204391e-02 -1.368648838251829147e-02 -2.251003123819828033e-02 4.490697383880615234e-02 -3.288733586668968201e-02 -1.964310556650161743e-02 -9.584554471075534821e-03 2.382263168692588806e-02 -5.974979605525732040e-03 -2.850950229912996292e-03 -3.599417954683303833e-02 4.024886712431907654e-02 4.650530405342578888e-03 -5.434299260377883911e-02 1.376921534538269043e-01 3.353051468729972839e-02 4.491619393229484558e-02 5.926085263490676880e-02 1.901585608720779419e-02 -1.127485372126102448e-02 1.244224794209003448e-02 4.561486653983592987e-03 6.958201061934232712e-03 2.612598799169063568e-02 -4.377821087837219238e-02 -1.169228181242942810e-02 -2.482274547219276428e-03 6.346873007714748383e-03 -7.344624464167281985e-05 3.242717310786247253e-02 3.340391907840967178e-03 -5.057174246758222580e-03 -5.013109743595123291e-02 -2.745794691145420074e-02 7.965723983943462372e-03 -3.473299369215965271e-02 2.799354551825672388e-04 -8.070169715210795403e-04 -1.357935951091349125e-03 6.454873830080032349e-02 -9.437749162316322327e-03 -1.683882810175418854e-02 -1.614833064377307892e-02 -5.430615320801734924e-02 -2.773006819188594818e-02 1.638636551797389984e-02 2.844484895467758179e-02 3.187343105673789978e-02 -2.684749290347099304e-02 4.075558483600616455e-02 2.782976441085338593e-02 -5.811201408505439758e-02 -1.674614101648330688e-02 -6.427934765815734863e-02 -7.774545997381210327e-02 -9.865750558674335480e-03 3.448852524161338806e-02 1.401202660053968430e-02 2.422651648521423340e-02 -7.544746249914169312e-02 -1.070007681846618652e-02 -3.201422840356826782e-02 1.741532585583627224e-03 -3.396291285753250122e-02 5.226979497820138931e-03 -7.610775995999574661e-03 2.990041673183441162e-02 3.507975488901138306e-02 3.759881481528282166e-02 -2.499931724742054939e-03 -6.757857277989387512e-03 2.372794598340988159e-02 3.970011323690414429e-02 6.011274456977844238e-02 1.428582239896059036e-02 -2.015952765941619873e-02 1.661940850317478180e-02 -1.120956003433093429e-04 5.066506564617156982e-02 3.642776980996131897e-03 -5.789300426840782166e-03 -1.244452036917209625e-02 -2.192107588052749634e-02 -1.024836022406816483e-02 5.715316627174615860e-03 5.541326943784952164e-03 2.177967131137847900e-02 8.001224137842655182e-03 2.759683877229690552e-02
8.861238509416580200e-02 3.536921739578247070e-02 -3.559614997357130051e-03 7.031847257167100906e-03 1.456871628761291504e-02 -8.201751857995986938e-03 1.886666566133499146e-02 3.602415323257446289e-02 1.694514229893684387e-02 5.373004823923110962e-03 5.400331318378448486e-02 -1.236336072906851768e-03 -5.694944784045219421e-02 1.137983240187168121e-02 -5.112823098897933960e-02 4.102871567010879517e-02 7.384477183222770691e-03 -4.428676515817642212e-02 -2.157266571884974837e-04 5.630427971482276917e-02 -9.432910010218620300e-04 2.204616554081439972e-02 2.483926946297287941e-03 -2.726874686777591705e-02 3.944342024624347687e-03 -2.634761296212673187e-02 3.553055599331855774e-02 1.039251312613487244e-02 9.940059855580329895e-03 6.857879459857940674e-02 2.106992527842521667e-03 8.769932319410145283e-04 -3.674007952213287354e-02 6.852031499147415161e-02 -1.947898976504802704e-02 -7.906426675617694855e-03 -6.903896573930978775e-03 1.219587773084640503e-02 -1.788545213639736176e-02 4.945786297321319580e-02 1.046514809131622314e-01 3.117177076637744904e-02 2.806351985782384872e-03 2.638616599142551422e-02 1.646670512855052948e-02 -2.294481359422206879e-02 3.559089824557304382e-02 -4.406755324453115463e-03 -2.251174859702587128e-02 8.284407667815685272e-03 -4.425802268087863922e-03 -1.042377436533570290e-03 -9.031944721937179565e-02 6.233534775674343109e-03 -1.091305073350667953e-02 3.763280808925628662e-02 -2.087352424860000610e-02 3.138937754556536674e-04 3.869174048304557800e-02 1.662795431911945343e-02 3.697763755917549133e-02 5.948615446686744690e-02 2.354256249964237213e-02 8.510291576385498047e-03 -5.315769836306571960e-02 -9.253914467990398407e-03 4.583160579204559326e-02 -8.589202910661697388e-02 1.494796833867440000e-05 4.384706541895866394e-02 2.679686434566974640e-02 -9.816870093345642090e-03 -1.069019511342048645e-01 3.242241218686103821e-02 -4.455574974417686462e-02 8.072743192315101624e-03 -1.001366414129734039e-02 -5.774350371211767197e-03 -8.610410988330841064e-02 -5.882341414690017700e-02 4.569574445486068726e-02 -4.832734167575836182e-02 3.309084847569465637e-02 -3.085811855271458626e-03 -6.171723082661628723e-02 7.938236929476261139e-03 2.019339799880981445e-02 8.330060169100761414e-03 -6.042210734449326992e-04 1.241891528479754925e-03 -2.161991037428379059e-02 3.917128965258598328e-02 -2.047267742455005646e-02 3.571527823805809021e-02 -6.864633411169052124e-02 2.502688439562916756e-03 7.005032617598772049e-03 -1.183229032903909683e-02 6.044972222298383713e-03 4.191247373819351196e-02 4.521191492676734924e-02 2.292149234563112259e-03 2.546161599457263947e-02 -6.346156448125839233e-02 5.872037261724472046e-02 -1.529718632809817791e-03 1.088014524430036545e-02 7.675855420529842377e-03 3.663070965558290482e-03 -4.882956854999065399e-03 1.699625886976718903e-02 1.899016089737415314e-02 -1.201026840135455132e-03 -3.418060764670372009e-02 1.114001963287591934e-02 1.123394002206623554e-03 1.037330925464630127e-02 5.269146058708429337e-03 -8.164588361978530884e-03 -9.981397539377212524e-03 3.473191335797309875e-02 2.331391349434852600e-02 8.297494053840637207e-02 -6.407823821064084768e-05 8.646363765001296997e-02 2.936492301523685455e-02 -1.216297149658203125e-01 -4.919736646115779877e-03 -1.758127473294734955e-02 8.443254046142101288e-03 -5.731506273150444031e-03 2.574833051767200232e-04 -4.767031595110893250e-02 4.881898313760757446e-02 1.290294807404279709e-02 5.398827418684959412e-02 -2.425125055015087128e-02 3.214099630713462830e-02 2.892303280532360077e-02 -3.699762746691703796e-02 -2.355651557445526123e-02 -4.796992987394332886e-03 -3.714275360107421875e-02 1.733760349452495575e-02 -1.884394884109497070e-02 2.055130898952484131e-02 2.509954199194908142e-02 -2.911399863660335541e-02 7.422778010368347168e-02 4.861734062433242798e-02 -5.371980834752321243e-03 2.156209014356136322e-02 6.529171019792556763e-02 7.189699262380599976e-02 -1.186999026685953140e-02 6.116016581654548645e-02 -3.570201992988586426e-02 -3.357619047164916992e-02 -2.309732371941208839e-03 6.040409789420664310e-04 1.243773661553859711e-02 6.130108144134283066e-03 1.148453634232282639e-02 -5.823654681444168091e-02 -1.124125067144632339e-02 -6.463961303234100342e-02 -1.973862759768962860e-02 5.539600551128387451e-02 3.676038980484008789e-02 -5.419882014393806458e-02 9.600750170648097992e-03 -1.719063892960548401e-02 -5.986411124467849731e-02 -6.909586489200592041e-03 -2.389798313379287720e-02 -8.470228314399719238e-02 1.745986985042691231e-03 1.005229540169239044e-03 -2.768897078931331635e-02 -6.000533327460289001e-02 4.009018093347549438e-02 -3.638890758156776428e-02 -3.389682620763778687e-02 1.764189451932907104e-02 -1.587051711976528168e-02 1.046346966177225113e-02 -1.227388065308332443e-02 4.724043980240821838e-02 -1.042348816990852356e-01 -4.194593988358974457e-03 1.979971490800380707e-02 -8.936638943850994110e-03 -4.093763977289199829e-02 -9.743518196046352386e-03 3.714870288968086243e-02 8.695252472534775734e-04 -7.345875352621078491e-02 -2.975107356905937195e-02 3.325350955128669739e-02 4.694956913590431213e-02 8.525032550096511841e-02 6.614170502871274948e-03 7.378691341727972031e-03 -1.868963800370693207e-02 -2.459985390305519104e-02 -2.267940714955329895e-02 4.761749878525733948e-02 -2.681567706167697906e-02 -1.307274773716926575e-02 1.495592854917049408e-02 -7.094039767980575562e-02 4.465598613023757935e-02 3.862496698275208473e-03 3.895447775721549988e-02 7.045335322618484497e-02 3.560554981231689453e-02 -5.461012572050094604e-02 -2.501450851559638977e-02 -4.893157631158828735e-03 1.650321413762867451e-03 -3.537093475461006165e-02 -2.344150096178054810e-03 6.675573438405990601e-02 7.016268372535705566e-02 -5.821733735501766205e-03 -4.641280695796012878e-02 5.615987628698348999e-02 -7.904606312513351440e-02 7.479364424943923950e-02 -1.519085094332695007e-02 -1.325613725930452347e-02 -1.690574362874031067e-02 -9.580833837389945984e-03 -1.134361233562231064e-02 -4.654918611049652100e-02 -2.620607800781726837e-02 5.971153732389211655e-04 -2.752055786550045013e-02 -6.461755931377410889e-02 4.611053317785263062e-02 -3.220341354608535767e-02 -1.515869051218032837e-02 1.214355323463678360e-02 7.098577171564102173e-02 4.646837245672941208e-03 -2.666496671736240387e-02 7.453334517776966095e-03 -3.018450550734996796e-02 -3.898944705724716187e-02 -1.714395172894001007e-02 2.963978983461856842e-02 -2.566013485193252563e-02 1.941266586072742939e-03 5.814033560454845428e-03 -6.204169988632202148e-02 5.461343750357627869e-02
5.401406809687614441e-02 -2.556080557405948639e-02 1.260570157319307327e-02 1.953796716406941414e-03 1.068851072341203690e-02 3.182419016957283020e-02 -2.410091646015644073e-02 1.543002203106880188e-02 6.452774163335561752e-03 -6.531607359647750854e-03 -1.307676546275615692e-03 9.716091444715857506e-04 8.303755894303321838e-03 -6.991778966039419174e-03 7.369810342788696289e-02 4.161560535430908203e-02 -2.306897193193435669e-02 2.681501768529415131e-02 2.164295129477977753e-02 -9.162922948598861694e-02 -1.616889797151088715e-02 2.874010987579822540e-02 1.548057980835437775e-02 -8.617879822850227356e-03 -3.250057576224207878e-03 -3.427882865071296692e-02 2.586906962096691132e-02 -1.351390127092599869e-02 5.927830468863248825e-03 -6.442334502935409546e-02 5.804827064275741577e-02 -5.833141878247261047e-02 -5.802547093480825424e-03 3.115715272724628448e-02 2.602849900722503662e-02 3.001900762319564819e-02 2.314772456884384155e-03 -9.627647697925567627e-03 -3.638833016157150269e-02 8.774275891482830048e-03 4.868976026773452759e-02 -2.705245465040206909e-02 -2.633726969361305237e-02 -4.225594177842140198e-02 5.604171380400657654e-02 -2.832918614149093628e-02 2.251983247697353363e-02 -7.216323167085647583e-02 7.344423979520797729e-02 -1.614447319298051298e-05 -8.004919625818729401e-03 6.806533783674240112e-04 1.867228001356124878e-02 2.214604057371616364e-02 -3.829129040241241455e-02 2.828689105808734894e-02 4.104014858603477478e-02 -3.920368850231170654e-02 -3.336929529905319214e-02 -3.803170844912528992e-02 -2.961745671927928925e-02 4.024302214384078979e-02 4.618298262357711792e-02 -1.388352364301681519e-02 1.704669371247291565e-02 -3.102698177099227905e-02 9.634609334170818329e-03 6.934916973114013672e-02 -2.407301915809512138e-03 -2.068480849266052246e-02 6.050712428987026215e-03 -3.425810486078262329e-02 -5.058852583169937134e-02 -4.868914932012557983e-02 -2.878251112997531891e-02 2.564663067460060120e-02 -4.343501478433609009e-02 7.545939646661281586e-03 5.382341146469116211e-02 -2.238824777305126190e-02 -6.252270191907882690e-03 -2.043480239808559418e-02 4.160881415009498596e-02 -2.451105415821075439e-02 -3.120749816298484802e-02 2.859332039952278137e-02 -1.562134083360433578e-02 2.399553079158067703e-03 3.236618824303150177e-03 2.926287800073623657e-02 -2.803670940920710564e-04 -1.585906557738780975e-02 6.097278371453285217e-02 -2.717042528092861176e-02 -4.660781472921371460e-03 2.985665574669837952e-02 1.074111368507146835e-02 -4.348031361587345600e-04 -9.812414646148681641e-04 -5.882597528398036957e-03 4.041670635342597961e-02 4.838475491851568222e-03 4.179798811674118042e-02 6.607425864785909653e-03 -2.497957088053226471e-02 -2.840896777343004942e-04 6.752791255712509155e-02 3.158031776547431946e-02 2.132567949593067169e-02 -2.205503173172473907e-02 -2.824422204867005348e-03 1.914447359740734100e-02 2.363120578229427338e-02 -2.681281045079231262e-02 9.392192587256431580e-03 1.087906397879123688e-02 -5.384440999478101730e-03 1.438619568943977356e-02 5.049433559179306030e-03 -1.690273638814687729e-03 -1.789493858814239502e-02 2.364661311730742455e-03 -3.835448622703552246e-02 -7.743195630609989166e-03 3.459071042016148567e-03 -3.057664819061756134e-02 1.669662632048130035e-02 1.216150447726249695e-02 4.746952094137668610e-03 -4.767085984349250793e-02 3.715737024322152138e-03 -1.182962674647569656e-02 2.180127892643213272e-03 -1.634563133120536804e-02 -4.553312808275222778e-02 -1.264372840523719788e-02 -3.493888303637504578e-02 -5.596031993627548218e-02 -1.663870178163051605e-02 -1.103576272726058960e-02 6.449021864682435989e-03 -1.190909091383218765e-02 6.806392688304185867e-03 -2.886489406228065491e-02 -1.636417023837566376e-02 -6.876953877508640289e-03 -2.951510623097419739e-02 4.488211125135421753e-02 7.158490270376205444e-02 -2.868662960827350616e-02 -3.713944228366017342e-03 -1.486920192837715149e-02 9.869098663330078125e-03 3.663869947195053101e-02 3.799512982368469238e-03 4.095916450023651123e-02 2.644621068611741066e-03 1.085689477622509003e-02 -1.050373353064060211e-02 -8.716288022696971893e-03 -1.892926730215549469e-02 5.585211794823408127e-03 -4.314951226115226746e-02 1.114831771701574326e-02 -1.177940610796213150e-02 2.009417302906513214e-02 1.865969784557819366e-02 -7.872791029512882233e-03 9.562705457210540771e-02 4.317241907119750977e-02 -3.796831879299134016e-04 3.401087969541549683e-02 -5.012145731598138809e-03 -2.872014231979846954e-02 1.415494270622730255e-02 -4.408435430377721786e-03 7.640043273568153381e-03 4.294841084629297256e-03 4.885644838213920593e-02 -3.361552581191062927e-02 -2.511803619563579559e-02 -3.617160394787788391e-02 -1.612732373178005219e-02 -4.236444085836410522e-02 1.468152506276965141e-03 5.922051519155502319e-02 -4.301582463085651398e-03 4.745682701468467712e-02 -3.059866838157176971e-02 -1.947754807770252228e-02 6.820277776569128036e-03 -1.897351630032062531e-02 -4.766305536031723022e-02 8.542157709598541260e-03 4.627721011638641357e-02 6.990805268287658691e-02 1.112341973930597305e-02 1.815934851765632629e-02 -1.279648579657077789e-02 -5.428267642855644226e-02 4.273078218102455139e-02 9.485657326877117157e-03 1.959768123924732208e-02 -6.832264363765716553e-03 -3.546639159321784973e-02 3.482452780008316040e-02 7.638364285230636597e-02 -2.883659303188323975e-02 -2.293618861585855484e-03 -7.833971828222274780e-02 4.179736971855163574e-02 -2.321862056851387024e-02 2.461227774620056152e-02 -1.963996142148971558e-02 -1.292099803686141968e-02 3.636678680777549744e-02 3.851703181862831116e-02 -1.882508024573326111e-02 -3.106635063886642456e-02 -2.675634622573852539e-02 2.006172202527523041e-03 -9.370319545269012451e-02 -8.624943904578685760e-03 -2.047621086239814758e-02 -2.853530691936612129e-03 -9.873469918966293335e-02 -3.887551277875900269e-02 -6.244150549173355103e-02 5.578859522938728333e-02 1.329248957335948944e-02 1.387039106339216232e-02 1.889473199844360352e-02 -6.286912132054567337e-03 -1.316726114600896835e-02 1.129905460402369499e-03 -2.570545487105846405e-02 -1.246727444231510162e-02 4.723622649908065796e-02 -5.811808258295059204e-02 -3.606142476201057434e-02 -1.586739718914031982e-02 1.332311797887086868e-02 4.382900428026914597e-03 5.022298917174339294e-02 3.106086049228906631e-03 3.675014898180961609e-02 2.815162995830178261e-03 -6.669285893440246582e-02 -1.948644220829010010e-02 -4.639779403805732727e-02 -1.194692589342594147e-02 2.686128392815589905e-02 2.984826453030109406e-02 -8.070405572652816772e-02 -5.100783426314592361e-03 -1.043773535639047623e-02
-8.505969308316707611e-03 -1.124328561127185822e-02 1.992329210042953491e-02 3.535526618361473083e-02 6.083844229578971863e-02 7.708868943154811859e-03 -2.749535068869590759e-02 -4.651532974094152451e-03 1.337452381849288940e-01 -1.073517277836799622e-01 -6.721112877130508423e-02 -6.330543546937406063e-04 -1.472068019211292267e-03 1.794612705707550049e-01 3.934149816632270813e-02 2.566930279135704041e-02 1.384411938488483429e-02 6.047264859080314636e-02 4.554739594459533691e-02 -6.576047092676162720e-02 -7.978132367134094238e-02 8.399672061204910278e-02 -6.406176835298538208e-02 2.082238718867301941e-02 1.817688196897506714e-01 5.224393680691719055e-02 -1.108817160129547119e-01 -1.060696691274642944e-01 -4.135577008128166199e-02 -5.813193973153829575e-03 2.678169123828411102e-02 -2.446095831692218781e-02 6.713708490133285522e-02 5.768699198961257935e-02 -1.013421043753623962e-01 1.042576283216476440e-01 1.992368325591087341e-02 6.329247355461120605e-02 3.366608917713165283e-02 -2.054860740900039673e-01 3.792351856827735901e-02 2.364629879593849182e-02 1.243837550282478333e-01 3.425332903861999512e-02 4.618651419878005981e-02 -5.803480371832847595e-02 2.854505740106105804e-02 -1.952932216227054596e-02 -1.042722538113594055e-01 5.979297310113906860e-02 2.048953436315059662e-02 -6.541137397289276123e-02 -5.488063022494316101e-02 -8.745772391557693481e-02 2.981652691960334778e-02 -5.750404088757932186e-04 7.374371588230133057e-02 -5.418578162789344788e-02 9.929751046001911163e-03 -9.011802077293395996e-02 4.483514279127120972e-02 4.614085424691438675e-03 5.045209825038909912e-02 1.511749476194381714e-01 -2.534106373786926270e-02 -1.176287680864334106e-01 -4.338821396231651306e-02 3.414281085133552551e-02 -1.347068347968161106e-03 -7.956679910421371460e-02 -1.855151206254959106e-01 1.616007685661315918e-01 -4.272191971540451050e-02 -2.243469096720218658e-02 9.650179184973239899e-03 6.463727355003356934e-02 8.682999014854431152e-02 9.447921067476272583e-02 -1.925972523167729378e-03 -3.638713620603084564e-03 -1.158113684505224228e-02 -2.256540395319461823e-02 -1.092112660408020020e-01 1.339789777994155884e-01 2.180590108036994934e-02 6.662259995937347412e-02 -9.594519436359405518e-02 1.022478416562080383e-01 7.756597548723220825e-02 -1.119428202509880066e-01 1.131595969200134277e-01 -5.312106758356094360e-02 6.948011368513107300e-02 4.002270847558975220e-02 2.744555473327636719e-03 2.690161019563674927e-02 -3.640356287360191345e-02 -2.386546880006790161e-02 1.607918366789817810e-02 -1.535059213638305664e-01 1.737727038562297821e-02 -9.585680812597274780e-02 2.344410121440887451e-02 9.014944732189178467e-02 6.749635934829711914e-02 -3.143250010907649994e-03 -2.238997444510459900e-02 -5.927212163805961609e-02 -4.227456077933311462e-02 -8.384495042264461517e-03 -8.734139055013656616e-02 -2.425644174218177795e-02 -4.758438095450401306e-02 9.883737191557884216e-03 -1.356828212738037109e-01 5.104244500398635864e-02 -5.831353366374969482e-02 -2.297289855778217316e-02 -1.704669557511806488e-02 8.970106393098831177e-02 7.391986250877380371e-02 1.518987119197845459e-02 -1.068530511111021042e-02 -1.012786757200956345e-02 -2.496410533785820007e-02 9.881129488348960876e-03 -6.667392444796860218e-04 -2.336606942117214203e-02 -4.334401711821556091e-02 1.702958159148693085e-02 2.962715178728103638e-02 1.081585139036178589e-02 -6.982347369194030762e-02 -5.000783875584602356e-02 -1.501719802618026733e-01 4.318801686167716980e-02 -9.161456674337387085e-02 -4.304950684309005737e-02 1.408237516880035400e-01 -1.722630113363265991e-03 2.982392534613609314e-02 -1.155884936451911926e-01 -4.821669310331344604e-02 -5.112298578023910522e-02 -6.199726369231939316e-03 1.146404445171356201e-02 2.224768139421939850e-02 -2.913611382246017456e-02 -8.945337496697902679e-03 6.375842262059450150e-03 2.963121049106121063e-02 -2.551278285682201385e-02 9.224941022694110870e-03 2.077067643404006958e-02 2.540617436170578003e-02 -3.556789457798004150e-02 -8.691310137510299683e-02 -5.028401315212249756e-02 -6.133325397968292236e-02 2.269008569419384003e-02 3.752370248548686504e-04 7.114614546298980713e-02 -2.398600056767463684e-02 -9.946823120117187500e-03 5.848564952611923218e-02 1.730825006961822510e-01 -4.236560687422752380e-02 -1.608402351848781109e-03 3.301540762186050415e-02 4.332609847187995911e-02 8.891968429088592529e-02 -4.586303979158401489e-02 -7.523088157176971436e-02 -2.300703525543212891e-01 8.151037245988845825e-02 -4.606919363141059875e-02 -1.772457957267761230e-01 1.879973709583282471e-02 3.055913373827934265e-02 3.858974436298012733e-03 -2.685274370014667511e-02 -4.114719107747077942e-03 -8.815832436084747314e-03 6.784646958112716675e-02 2.308069728314876556e-03 -2.489640749990940094e-02 4.064980149269104004e-02 -2.976232580840587616e-02 -3.187812492251396179e-02 1.053120717406272888e-01 -5.441008880734443665e-02 -2.602736465632915497e-02 -5.881168413907289505e-03 -2.617428312078118324e-03 -2.408330561593174934e-03 3.243591263890266418e-02 -3.555155545473098755e-02 -1.515361368656158447e-01 5.543810874223709106e-02 -4.128560423851013184e-02 -1.353098452091217041e-02 4.594232887029647827e-02 1.735256314277648926e-01 -1.461335569620132446e-01 -8.648887276649475098e-02 -2.217167057096958160e-02 -7.238115370273590088e-02 6.981606036424636841e-02 -1.216380968689918518e-01 -6.953150033950805664e-02 6.960118655115365982e-03 -4.877326637506484985e-02 2.669213339686393738e-02 -1.026721671223640442e-01 5.937092751264572144e-02 -1.153027713298797607e-01 4.134218394756317139e-02 8.757057785987854004e-02 5.474044755101203918e-02 6.771302968263626099e-02 -3.228198364377021790e-02 1.727559119462966919e-01 -2.213782817125320435e-02 3.098683618009090424e-02 9.096209704875946045e-02 4.556703194975852966e-02 -1.525473222136497498e-02 -9.665238112211227417e-02 5.075779184699058533e-02 -3.842950612306594849e-02 6.563444621860980988e-03 -6.217137724161148071e-02 -9.132087230682373047e-03 8.496616780757904053e-02 -6.746295839548110962e-02 1.963294297456741333e-02 -2.749994955956935883e-02 6.832176446914672852e-02 -1.089470610022544861e-01 -1.116561591625213623e-01 -9.769860655069351196e-02 2.369253337383270264e-02 -6.045872345566749573e-02 2.030115202069282532e-02 -4.553522542119026184e-02 -1.380401402711868286e-01 1.181000098586082458e-01 -1.797775179147720337e-02 6.966124475002288818e-02 1.027401257306337357e-02 -1.143214851617813110e-01 -4.967568814754486084e-02 2.249205572297796607e-04 -1.336189825087785721e-02 -3.830452635884284973e-02 3.265709150582551956e-03
