-1.756112463772296906e-02 1.039222069084644318e-02 -2.795788645744323730e-02 -6.103601772338151932e-03 -2.946062199771404266e-02 -6.245361268520355225e-02 -3.994204103946685791e-03 -2.367133833467960358e-02 -2.444033883512020111e-02 1.327431201934814453e-02 -1.003418397158384323e-02 -3.663541004061698914e-02 -9.081167168915271759e-03 -9.297994896769523621e-03 2.090487442910671234e-02 1.270196400582790375e-03 5.689376592636108398e-02 -2.271117269992828369e-02 2.110758051276206970e-02 3.698708489537239075e-02 3.365518990904092789e-03 7.124182302504777908e-04 -2.920764498412609100e-02 1.576359011232852936e-02 6.655270606279373169e-02 -7.713173050433397293e-03 1.051653409376740456e-03 6.754513829946517944e-02 -8.787430822849273682e-03 -3.028080426156520844e-02 -1.194470655173063278e-02 3.363855928182601929e-02 1.619375124573707581e-02 1.147192344069480896e-02 4.536433890461921692e-02 -3.603985905647277832e-02 4.487546160817146301e-02 -3.040412999689579010e-02 -1.774728298187255859e-02 7.303691003471612930e-03 6.987057859078049660e-04 -7.084789685904979706e-03 3.147475421428680420e-02 5.130726844072341919e-02 4.227037541568279266e-03 2.699262276291847229e-02 -5.621115490794181824e-02 8.312413468956947327e-03 -3.220928087830543518e-02 1.996780373156070709e-02 1.614484935998916626e-02 1.114182174205780029e-02 3.751816460862755775e-03 4.796587862074375153e-03 -3.511156886816024780e-02 -4.086654633283615112e-02 -9.257881902158260345e-03 7.105004973709583282e-03 -1.522356062196195126e-03 1.406708359718322754e-02 1.187143381685018539e-02 3.517478005960583687e-03 1.400182303041219711e-02 4.763337783515453339e-03 5.633086431771516800e-03 1.804094761610031128e-02 1.815934851765632629e-02 4.055258817970752716e-03 4.399087745696306229e-03 8.527998626232147217e-02 3.642018511891365051e-02 6.008835043758153915e-03 1.597621291875839233e-02 2.101927064359188080e-02 -2.305117063224315643e-02 3.133616968989372253e-02 -4.349283874034881592e-02 1.053297333419322968e-02 -8.412808179855346680e-03 2.995907515287399292e-02 4.275377094745635986e-02 1.089297235012054443e-02 9.393670479767024517e-04 -2.326393499970436096e-02 -4.600041359663009644e-02 9.813325479626655579e-03 -8.565262891352176666e-03 -4.658821597695350647e-02 1.471675839275121689e-02 4.280406981706619263e-03 5.427528638392686844e-03 -3.050216473639011383e-02 1.127261668443679810e-02 -4.640663415193557739e-02 5.982751492410898209e-03 -2.372636832296848297e-02 -1.719477027654647827e-02 2.372900256887078285e-03 5.977262844680808485e-05 1.510801143012940884e-03 1.317064464092254639e-02 1.280161924660205841e-02 -4.173066467046737671e-02 8.497937582433223724e-03 4.026779904961585999e-02 -1.437639119103550911e-03 1.516757439821958542e-02 -8.633060380816459656e-03 7.239761296659708023e-03 -1.907478645443916321e-02 -4.229013994336128235e-02 -1.921841315925121307e-02 1.850106567144393921e-02 -3.423933312296867371e-02 -4.616283997893333435e-02 3.451710194349288940e-02 -6.839246302843093872e-02 -2.009511459618806839e-03 -1.133131887763738632e-02 -5.160312633961439133e-03 -3.537711873650550842e-02 1.207628753036260605e-02 2.256290242075920105e-02 1.312009338289499283e-02 -2.749691531062126160e-02 -6.004320923238992691e-03 -2.732623182237148285e-02 -2.467220462858676910e-02 2.659340854734182358e-03 -1.101690717041492462e-02 -1.186468452215194702e-02 -9.090418927371501923e-03 2.924357727169990540e-02 3.787275403738021851e-02 -1.471789274364709854e-02 4.273755766917020082e-04 2.440575882792472839e-02 -2.305434318259358406e-03 -2.007692493498325348e-02 1.453005941584706306e-03 -1.041209790855646133e-02 -2.665592730045318604e-02 1.111559849232435226e-02 -1.308711804449558258e-02 5.095799919217824936e-03 -6.710581947118043900e-04 4.987341817468404770e-03 -6.073348689824342728e-03 4.886323586106300354e-03 7.930647581815719604e-03 1.610508421435952187e-03 1.962830126285552979e-02 -5.614802241325378418e-03 -2.153664268553256989e-02 1.346739125438034534e-03 -4.692783951759338379e-02 5.097860097885131836e-02 -3.172007575631141663e-02 4.846398904919624329e-02 -5.545342713594436646e-02 4.160968586802482605e-02 -6.163856387138366699e-02 6.245709490031003952e-03 -2.832350088283419609e-03 1.684053614735603333e-02 -1.765939407050609589e-02 1.206368766725063324e-02 -1.911758258938789368e-02 -5.914548411965370178e-03 2.057734527625143528e-04 -1.294108666479587555e-02 -2.589322440326213837e-02 5.564032495021820068e-02 -1.564120501279830933e-02 -4.231836646795272827e-02 -4.640265926718711853e-02 -2.471251040697097778e-02 -2.264784090220928192e-02 -4.360561259090900421e-03 -3.755476325750350952e-02 -3.298139572143554688e-02 1.847572810947895050e-02 4.286991897970438004e-03 -1.895939558744430542e-02 2.397696115076541901e-02 -5.782071966677904129e-03 2.695702388882637024e-02 -2.574110217392444611e-02 3.783360123634338379e-02 -7.926470134407281876e-04 -1.695886068046092987e-02 -7.142376154661178589e-02 -4.969184100627899170e-02 -9.642393328249454498e-03 -4.042673110961914062e-02 -7.085274159908294678e-02 -8.305459469556808472e-02 1.947155594825744629e-02 2.717307582497596741e-02 2.621393837034702301e-02 7.984699308872222900e-02 3.719056490808725357e-03 6.938765943050384521e-02 -1.577074173837900162e-03 3.728399286046624184e-03 2.921272534877061844e-03 -4.397084005177021027e-03 1.653451099991798401e-02 -7.303326856344938278e-03 1.571734249591827393e-02 2.722809556871652603e-03 1.402400713413953781e-02 6.183437537401914597e-03 -2.341574616730213165e-02 1.236664131283760071e-02 1.278368383646011353e-02 -8.167018182575702667e-03 -1.959842070937156677e-02 -6.331144366413354874e-03 -3.226317465305328369e-02 3.870693594217300415e-02 6.388217955827713013e-02 -4.011990036815404892e-03 7.286081556230783463e-03 -1.417020428925752640e-02 1.511870790272951126e-02 1.213183626532554626e-02 -3.306357562541961670e-02 4.763898439705371857e-03 3.172841295599937439e-02 -3.002530708909034729e-02 -6.166549865156412125e-03 -1.251844502985477448e-02 2.578229829668998718e-02 1.617230102419853210e-02 -6.252757459878921509e-02 -5.912485532462596893e-03 -2.579303272068500519e-02 -5.814896151423454285e-02 2.059522084891796112e-02 4.498911276459693909e-02 -3.896292764693498611e-03 -3.398334840312600136e-03 1.911349594593048096e-02 2.463706070557236671e-03 -1.337567344307899475e-02 -1.369161438196897507e-02 1.076072640717029572e-02 -8.554718457162380219e-03 -4.791264422237873077e-03 -9.530914016067981720e-03 -6.914193928241729736e-02 -6.698545999825000763e-03 -2.050540782511234283e-02 1.249061431735754013e-02 5.745345726609230042e-02
1.624598726630210876e-02 -3.586060926318168640e-02 -5.354620516300201416e-02 2.477417141199111938e-02 -9.526419639587402344e-02 8.020730689167976379e-03 -8.168336749076843262e-02 2.438793703913688660e-02 -3.714585676789283752e-02 2.805443853139877319e-02 -5.204936861991882324e-02 1.439278721809387207e-01 1.731277443468570709e-02 -2.692053280770778656e-02 5.236805230379104614e-02 -2.340900152921676636e-02 5.704970657825469971e-02 8.914756588637828827e-03 -1.372888982295989990e-01 -1.174990609288215637e-01 7.473664358258247375e-03 -7.865275256335735321e-03 1.966338045895099640e-02 -1.889980770647525787e-02 2.859599329531192780e-02 -7.675174623727798462e-02 2.331301569938659668e-03 4.062173888087272644e-02 7.278351113200187683e-03 -5.400912463665008545e-02 -4.713360965251922607e-02 5.271146446466445923e-02 7.160121947526931763e-02 7.543738186359405518e-02 8.842628449201583862e-02 2.414793893694877625e-02 -8.671919815242290497e-03 3.362003481015563011e-03 2.873877808451652527e-02 1.739929802715778351e-02 4.235434159636497498e-02 -1.251528114080429077e-01 -5.113138630986213684e-02 7.127237319946289062e-02 -9.809315949678421021e-02 -2.774892142042517662e-03 6.551305763423442841e-03 1.006149426102638245e-01 6.676394492387771606e-02 2.805304341018199921e-02 -6.033647805452346802e-02 -7.188323885202407837e-02 1.232272479683160782e-02 2.498309314250946045e-02 -6.208187341690063477e-02 -2.006826363503932953e-02 5.328154191374778748e-02 -2.518517524003982544e-02 3.853748366236686707e-02 -1.713700033724308014e-02 -1.999339461326599121e-02 2.716385573148727417e-02 -5.979065783321857452e-03 -3.833238407969474792e-02 -8.886045217514038086e-02 8.450254797935485840e-03 -1.834583282470703125e-02 -3.560853749513626099e-02 -1.710804179310798645e-02 8.370170689886435866e-05 -1.287948340177536011e-01 2.689331211149692535e-02 3.438370302319526672e-02 3.666936606168746948e-02 -6.745649129152297974e-02 1.281119324266910553e-02 3.940753638744354248e-03 1.083695292472839355e-01 4.038571845740079880e-03 4.430494457483291626e-02 4.067241773009300232e-02 3.831998258829116821e-02 -1.870458014309406281e-02 8.275268226861953735e-02 9.089120477437973022e-02 -1.264007762074470520e-02 2.018055133521556854e-02 -3.803429752588272095e-02 1.105192862451076508e-02 2.850302495062351227e-02 6.863486021757125854e-03 -4.000187665224075317e-02 -8.504713326692581177e-02 -3.249190002679824829e-02 -1.541868895292282104e-01 -1.502208033343777061e-04 8.201289176940917969e-02 6.616534292697906494e-02 -4.626345634460449219e-02 -1.551423192722722888e-04 -4.837785381823778152e-03 -9.731330908834934235e-03 7.661282271146774292e-02 1.767362467944622040e-02 7.754346355795860291e-03 -5.769606307148933411e-02 2.977215684950351715e-02 8.587747067213058472e-02 -6.238552927970886230e-02 -1.131251174956560135e-02 -2.442551963031291962e-02 -8.279313333332538605e-03 -2.669520117342472076e-02 -3.710329160094261169e-02 -3.625490888953208923e-02 5.486785620450973511e-02 -4.373538866639137268e-02 3.345342352986335754e-02 -9.658074378967285156e-02 3.634252399206161499e-02 -3.864234313368797302e-02 -1.598478062078356743e-03 -2.266196720302104950e-02 3.096168860793113708e-02 -6.000969558954238892e-02 -4.135003313422203064e-02 -2.394085563719272614e-02 1.288438215851783752e-02 -4.864167794585227966e-02 2.096027322113513947e-02 -1.419112924486398697e-02 -6.342880427837371826e-02 3.930828720331192017e-02 8.370483294129371643e-03 -4.981641657650470734e-03 5.748065561056137085e-02 -3.048335388302803040e-02 -2.001981809735298157e-02 5.491317063570022583e-02 -7.693722844123840332e-02 -3.184863552451133728e-02 -5.533991381525993347e-02 5.220766365528106689e-02 3.416549414396286011e-02 -3.377945721149444580e-02 -6.587899476289749146e-02 -1.779950596392154694e-02 -7.036062330007553101e-02 1.910203881561756134e-02 -1.811318658292293549e-02 -1.345722284168004990e-02 -1.260645221918821335e-02 -3.211015369743108749e-03 7.505580037832260132e-02 9.922942146658897400e-03 -2.127826027572154999e-02 3.316614776849746704e-02 8.159461617469787598e-02 1.306700855493545532e-01 -2.179174683988094330e-02 -4.344436526298522949e-02 3.716632351279258728e-02 -1.140992157161235809e-02 -5.869177728891372681e-02 5.940618738532066345e-02 2.089518308639526367e-02 -6.485288590192794800e-02 -5.218259990215301514e-02 1.071269158273935318e-02 8.821775205433368683e-03 -9.494870156049728394e-02 -5.303533375263214111e-02 9.314468130469322205e-03 -9.217429161071777344e-02 -4.989041481167078018e-03 3.255509957671165466e-02 -5.583944730460643768e-03 1.159117743372917175e-02 -2.608401142060756683e-02 1.314861606806516647e-02 5.973524227738380432e-02 -1.410681661218404770e-02 1.484868768602609634e-02 1.190696656703948975e-02 -3.764218091964721680e-02 1.197542529553174973e-02 1.335620433092117310e-01 -3.126362338662147522e-03 3.899854421615600586e-02 -2.781682647764682770e-02 1.366026103496551514e-01 -5.282864440232515335e-03 5.898902192711830139e-03 -4.224051535129547119e-02 1.285638380795717239e-02 -1.235279627144336700e-02 -4.543222486972808838e-02 -3.526167711243033409e-03 7.430609315633773804e-02 -5.912984535098075867e-02 -4.786417412105947733e-04 -9.576667100191116333e-02 -6.514363735914230347e-02 2.000770159065723419e-02 -1.105725392699241638e-02 2.589671686291694641e-02 3.076227195560932159e-02 2.501246146857738495e-02 7.022268325090408325e-02 -1.292555313557386398e-02 1.618674956262111664e-02 8.633885532617568970e-02 -4.144874401390552521e-03 3.186516929417848587e-03 6.580909341573715210e-02 8.306584507226943970e-02 4.043031856417655945e-02 8.586529642343521118e-02 4.418862238526344299e-02 1.460549049079418182e-02 1.062301844358444214e-01 3.975056856870651245e-02 5.017378926277160645e-02 2.614947594702243805e-02 -4.758989438414573669e-02 3.765831142663955688e-02 -3.912017121911048889e-02 -1.301235109567642212e-01 -6.570432335138320923e-03 -1.584021933376789093e-02 -1.645803302526473999e-01 2.356648258864879608e-02 -4.309485666453838348e-03 1.900417543947696686e-02 -5.192219838500022888e-02 2.013904042541980743e-02 -8.440653793513774872e-03 6.533673964440822601e-03 -1.566085219383239746e-02 4.068024829030036926e-02 -3.107833117246627808e-02 -2.572226524353027344e-02 1.199771389365196228e-01 1.364354416728019714e-02 3.587419912219047546e-02 -5.681871995329856873e-02 -1.761484891176223755e-02 2.347172237932682037e-02 4.077114909887313843e-02 1.306630820035934448e-01 5.934219807386398315e-03 9.314090013504028320e-02 3.228219598531723022e-02 2.137023396790027618e-02 -3.970379382371902466e-02 6.679885089397430420e-02
1.432798150926828384e-02 -3.259833902120590210e-02 -3.424888104200363159e-02 1.478911470621824265e-02 -9.965249896049499512e-02 -7.787409424781799316e-02 -5.135111138224601746e-02 3.387185558676719666e-02 3.638930618762969971e-02 1.437002210877835751e-03 -5.929226800799369812e-02 2.339598489925265312e-03 3.733452409505844116e-02 -1.385132875293493271e-02 3.879400342702865601e-02 9.969570674002170563e-04 -1.340813040733337402e-01 -2.874262630939483643e-02 6.247039511799812317e-02 -9.604722261428833008e-02 -3.165500611066818237e-02 -6.238979753106832504e-03 -7.370273023843765259e-02 -3.201293945312500000e-02 2.660058997571468353e-02 -4.835523292422294617e-02 -2.858645282685756683e-02 -9.532942622900009155e-02 6.035945378243923187e-03 -8.278477936983108521e-03 -2.879722043871879578e-03 -5.934481695294380188e-02 -6.503743678331375122e-02 8.853577077388763428e-03 5.299276486039161682e-02 -6.554901599884033203e-03 1.613619737327098846e-03 2.464586123824119568e-02 -4.838313534855842590e-02 -2.595919743180274963e-02 -2.374671958386898041e-02 1.461688429117202759e-01 -8.564937859773635864e-02 -6.449476815760135651e-03 -3.627978637814521790e-02 1.029522418975830078e-01 3.134076669812202454e-02 9.019457735121250153e-03 5.792228132486343384e-02 2.418236993253231049e-02 2.583047747611999512e-02 6.591039150953292847e-02 2.782424911856651306e-02 -1.658547553233802319e-03 -6.363632529973983765e-02 -4.629702493548393250e-02 -8.206450939178466797e-02 3.323651850223541260e-02 8.190877735614776611e-03 6.043570116162300110e-02 -1.438922621309757233e-02 -2.576357917860150337e-03 -5.923929158598184586e-03 -5.417712032794952393e-03 3.772858157753944397e-02 2.886281535029411316e-02 -5.486340261995792389e-03 -4.835649207234382629e-02 -1.811348460614681244e-02 -2.355969697237014771e-02 -1.299594994634389877e-02 2.366327680647373199e-02 3.471191599965095520e-02 -1.097253058105707169e-02 4.100798815488815308e-02 2.278929017484188080e-02 -1.572589576244354248e-02 1.352184824645519257e-02 -9.793126024305820465e-03 -6.870619952678680420e-02 -2.809519693255424500e-02 -4.169175401329994202e-03 1.037701498717069626e-02 1.987287029623985291e-02 -8.136012405157089233e-02 -1.980043947696685791e-02 7.321827113628387451e-03 -3.610538318753242493e-02 -5.034770816564559937e-02 -5.715748667716979980e-02 2.274487353861331940e-02 9.852001070976257324e-02 -2.030720375478267670e-02 -5.750999599695205688e-02 5.060846358537673950e-02 -6.378464866429567337e-03 8.001351356506347656e-02 3.905206220224499702e-03 1.657864265143871307e-02 1.054806075990200043e-02 5.908529832959175110e-02 -5.889196880161762238e-03 1.121302507817745209e-02 7.743872702121734619e-02 -2.435677312314510345e-02 -3.390825586393475533e-03 -6.266526412218809128e-03 -1.198671832680702209e-01 1.049823965877294540e-02 2.469334565103054047e-02 8.616410195827484131e-03 5.076606757938861847e-03 2.703329734504222870e-02 3.725453466176986694e-02 -1.022796705365180969e-02 -1.134910387918353081e-03 6.379520893096923828e-02 7.113724201917648315e-02 2.810625359416007996e-02 -1.465041469782590866e-02 3.015243075788021088e-02 5.286547821015119553e-03 -2.016613259911537170e-02 -5.927547067403793335e-02 -3.914701193571090698e-02 -4.599308222532272339e-02 -5.601246654987335205e-02 -5.434930697083473206e-02 -1.206627767533063889e-02 -5.130268633365631104e-02 6.630179286003112793e-02 1.685393415391445160e-02 -6.560647487640380859e-02 -8.831527084112167358e-02 2.241742983460426331e-02 -6.076304242014884949e-02 -1.697057858109474182e-02 -4.574967548251152039e-02 5.360642820596694946e-02 -3.749951720237731934e-02 1.711655594408512115e-02 7.889654487371444702e-02 1.766543835401535034e-02 6.213613669387996197e-04 1.304454356431961060e-02 -2.776388265192508698e-02 8.003233931958675385e-03 1.210048235952854156e-02 -2.741081453859806061e-02 -8.674385957419872284e-03 -6.685780826956033707e-03 2.804842963814735413e-02 -1.441049296408891678e-02 1.568056270480155945e-02 7.886417210102081299e-02 -7.474400568753480911e-03 3.592733666300773621e-02 -2.953770756721496582e-02 -7.339601963758468628e-02 5.139279365539550781e-02 -6.912779062986373901e-02 -5.813421215862035751e-03 -3.845817968249320984e-02 1.759465783834457397e-02 -1.350459549576044083e-02 -1.425030175596475601e-02 -1.233769115060567856e-03 3.318569436669349670e-02 -3.201253712177276611e-02 -8.799572475254535675e-03 1.981702074408531189e-02 6.382711231708526611e-03 -7.089015841484069824e-02 3.188593685626983643e-02 1.039124932140111923e-02 4.769689589738845825e-02 3.619887866079807281e-03 -4.552255943417549133e-02 -3.853155300021171570e-02 4.138959944248199463e-02 -3.087803348898887634e-02 -4.210294410586357117e-02 -1.076651737093925476e-02 -8.956220699474215508e-04 1.571493782103061676e-02 -2.441745949909090996e-03 -9.888301044702529907e-02 -6.565415114164352417e-02 -5.204185470938682556e-02 6.632869690656661987e-02 3.046494722366333008e-02 3.014836832880973816e-02 3.597776591777801514e-02 1.602849550545215607e-02 8.772601932287216187e-02 1.611691340804100037e-02 -1.682227663695812225e-02 -6.070718169212341309e-02 6.939453538507223129e-03 -1.600784063339233398e-02 -5.508005991578102112e-02 5.458363890647888184e-02 -6.322511285543441772e-02 -9.054726688191294670e-04 -7.668540347367525101e-03 -2.955107763409614563e-02 2.009604685008525848e-02 -2.411327324807643890e-02 3.721408313140273094e-03 -6.914907693862915039e-02 3.164355456829071045e-02 -1.763933524489402771e-02 6.242789095267653465e-04 7.621074561029672623e-03 3.258923068642616272e-03 1.900952309370040894e-02 5.279853474348783493e-03 -8.189575746655464172e-03 1.102527789771556854e-02 3.359816595911979675e-02 6.195666268467903137e-02 4.561213031411170959e-02 1.260754093527793884e-02 -5.693197995424270630e-02 -2.487051533535122871e-03 4.012970998883247375e-02 2.301217801868915558e-02 -4.762504994869232178e-02 6.005755160003900528e-03 -3.447877615690231323e-02 8.337403833866119385e-02 -1.393454801291227341e-02 1.663274830207228661e-03 4.221759364008903503e-02 -3.605791926383972168e-02 -6.956134457141160965e-03 1.107836514711380005e-02 -2.795977890491485596e-02 1.155793480575084686e-02 1.869324781000614166e-02 3.460676595568656921e-02 5.339052528142929077e-03 -2.839306741952896118e-02 6.442010868340730667e-03 3.433572873473167419e-02 -3.324886411428451538e-02 1.802834123373031616e-02 -6.673851516097784042e-03 3.778894245624542236e-02 -7.404919713735580444e-02 6.327723711729049683e-02 7.832787930965423584e-03 4.551259428262710571e-02 3.776075690984725952e-02 5.189551506191492081e-03 -1.000214517116546631e-01
2.848082967102527618e-02 -3.547692298889160156e-02 3.010604530572891235e-02 1.438675168901681900e-02 2.301044762134552002e-02 -1.120384316891431808e-02 -3.900434449315071106e-02 2.835357002913951874e-02 -6.166207790374755859e-02 3.149418532848358154e-02 -9.192160516977310181e-02 -4.940715059638023376e-02 -4.902813583612442017e-02 5.621783807873725891e-02 -2.346857823431491852e-02 1.763143017888069153e-02 -6.398153305053710938e-02 -4.202820360660552979e-03 -7.923214882612228394e-02 -3.847546130418777466e-02 -4.291251301765441895e-02 2.378976205363869667e-03 4.639461636543273926e-02 2.877069404348731041e-03 3.746787831187248230e-02 6.367879919707775116e-03 4.502185154706239700e-03 2.372026629745960236e-02 1.914473809301853180e-02 -2.423398755490779877e-02 -3.589924797415733337e-02 1.809165813028812408e-02 -1.730512082576751709e-02 5.031077936291694641e-02 5.037327483296394348e-02 1.594299823045730591e-02 3.907832130789756775e-02 -4.035876318812370300e-02 3.912363026756793261e-04 -3.989656688645482063e-04 -1.627846434712409973e-02 -5.710279941558837891e-02 1.028480846434831619e-02 1.176642719656229019e-02 1.167664397507905960e-02 1.995319128036499023e-02 -8.899348787963390350e-03 -6.750799366272985935e-04 -5.129173863679170609e-03 5.911280214786529541e-02 2.369495481252670288e-02 7.216042140498757362e-04 3.730445727705955505e-02 2.128701470792293549e-02 -1.138772349804639816e-02 -7.552997022867202759e-02 1.321852207183837891e-02 3.671212866902351379e-02 9.920077770948410034e-02 8.022718876600265503e-02 -1.134405471384525299e-02 -1.152760535478591919e-02 1.031293999403715134e-02 6.215421855449676514e-02 1.626976206898689270e-02 -3.401009133085608482e-03 -4.025494679808616638e-02 -7.097040303051471710e-03 -3.423565626144409180e-02 8.807523176074028015e-03 3.481402993202209473e-03 2.685970067977905273e-02 5.621788278222084045e-02 -2.989034913480281830e-02 -4.207838326692581177e-02 1.111762248910963535e-04 8.409988880157470703e-02 1.211777515709400177e-02 -2.722307853400707245e-02 -3.095569554716348648e-03 8.783775568008422852e-02 1.226948574185371399e-03 1.215795427560806274e-02 -1.043712068349123001e-02 1.244737021625041962e-02 6.741950637660920620e-04 -9.995813481509685516e-03 5.688189715147018433e-02 6.585231423377990723e-02 1.370660122483968735e-02 1.332248467952013016e-02 -1.330938283354043961e-02 -3.416060283780097961e-02 1.136854197829961777e-02 -4.209205135703086853e-02 4.360634833574295044e-02 -8.682104945182800293e-02 -1.201873272657394409e-02 1.202455535531044006e-02 4.760874062776565552e-02 3.875189274549484253e-02 -1.477712951600551605e-02 -1.505374629050493240e-02 -2.030250802636146545e-02 1.554748043417930603e-02 -4.834747686982154846e-02 -5.218650028109550476e-02 -1.278457418084144592e-02 -1.252070162445306778e-02 -1.940940506756305695e-02 2.573289349675178528e-02 1.671312935650348663e-02 1.720800995826721191e-02 -7.776613533496856689e-02 -1.818923093378543854e-02 -8.362791500985622406e-03 2.418053895235061646e-02 -6.706040352582931519e-02 8.136665821075439453e-02 1.862593926489353180e-02 7.745649665594100952e-02 -5.470742285251617432e-02 -2.614766359329223633e-02 5.136636644601821899e-02 -7.832973450422286987e-02 -6.731493026018142700e-02 1.234941370785236359e-02 3.378672292456030846e-03 1.944344304502010345e-02 -1.085473690181970596e-03 -1.082418486475944519e-02 -3.539194539189338684e-02 -6.163213402032852173e-02 1.324575743637979031e-03 6.021188199520111084e-02 -7.054117321968078613e-02 9.042915888130664825e-03 -3.467997908592224121e-02 7.815017364919185638e-03 9.275144897401332855e-03 3.902963176369667053e-02 4.315063357353210449e-02 1.543911546468734741e-02 7.704647257924079895e-03 -1.969081908464431763e-02 -4.564689472317695618e-02 8.343854919075965881e-03 -9.451778605580329895e-03 5.166624858975410461e-02 -1.563875819556415081e-03 5.835260450839996338e-02 7.449178397655487061e-02 4.357972182333469391e-03 2.729574590921401978e-02 4.252520948648452759e-02 7.927346974611282349e-02 3.796509467065334320e-03 -3.425478935241699219e-02 -1.675019226968288422e-02 2.382443845272064209e-02 -3.293544426560401917e-02 -1.661427202634513378e-03 3.113664314150810242e-02 1.265310216695070267e-02 1.070216670632362366e-02 -9.629759937524795532e-03 7.435610145330429077e-02 -6.730144470930099487e-02 -1.236208155751228333e-02 -2.586298622190952301e-02 3.083523549139499664e-02 4.309338703751564026e-02 2.481648698449134827e-02 -1.934574730694293976e-02 -3.119684383273124695e-02 8.196341991424560547e-02 -7.072095759212970734e-03 -1.544018741697072983e-02 -1.367759425193071365e-02 -5.576298572123050690e-03 7.120958529412746429e-03 8.706041611731052399e-03 -1.006258055567741394e-01 1.663062907755374908e-02 5.957000423222780228e-03 -4.674898087978363037e-02 5.447953194379806519e-02 -2.028040215373039246e-02 -6.251107901334762573e-02 3.422347828745841980e-02 -1.611208170652389526e-02 -8.513111621141433716e-02 3.145861625671386719e-02 -9.061056189239025116e-03 -4.347455874085426331e-02 -4.133838415145874023e-02 7.004005461931228638e-02 -1.436279062181711197e-02 2.547654882073402405e-02 4.027450829744338989e-02 -4.998267395421862602e-04 -6.643217988312244415e-03 3.595720510929822922e-03 -1.073180045932531357e-02 -8.220068179070949554e-03 -3.543932735919952393e-02 2.561564790084958076e-03 -3.285389393568038940e-02 -3.529132157564163208e-02 -7.494912296533584595e-02 -2.361410111188888550e-02 -8.065570145845413208e-03 2.447907067835330963e-02 -2.767486684024333954e-02 1.759584434330463409e-02 -1.265935506671667099e-02 1.663508452475070953e-02 9.893351048231124878e-02 1.110329013317823410e-02 5.655203759670257568e-02 2.583179809153079987e-02 -2.244455553591251373e-02 1.656860113143920898e-02 3.633288666605949402e-02 5.516843125224113464e-02 -7.848362438380718231e-03 -1.217475160956382751e-02 -4.671189188957214355e-02 -6.269653141498565674e-02 1.424267422407865524e-02 -3.623639000579714775e-03 9.145121439360082150e-04 -1.429290417581796646e-02 4.897796735167503357e-02 9.952818974852561951e-03 4.704291746020317078e-02 1.933190971612930298e-02 -1.510522142052650452e-02 3.229504078626632690e-02 8.454963564872741699e-02 8.322755992412567139e-02 -1.263194158673286438e-02 2.531468635424971581e-03 5.087827891111373901e-02 -2.277400530874729156e-02 -1.422285474836826324e-02 -1.034744735807180405e-02 1.301655080169439316e-02 1.721293106675148010e-02 -5.732750147581100464e-02 -3.790493309497833252e-02 4.794513806700706482e-02 4.252802208065986633e-02 2.249715849757194519e-03 -2.941607963293790817e-03 -1.657388545572757721e-02
1.294915843755006790e-02 5.783833935856819153e-02 -8.113471418619155884e-02 -2.533762948587536812e-03 -1.317912805825471878e-02 3.197861835360527039e-02 6.611145287752151489e-02 -5.269320309162139893e-02 1.948505640029907227e-02 9.209470450878143311e-02 -3.191183879971504211e-02 -1.297317072749137878e-02 1.493966206908226013e-02 2.876008301973342896e-02 -1.506520807743072510e-02 7.073759287595748901e-02 -1.523245312273502350e-02 -5.348799005150794983e-02 -8.403131365776062012e-02 -5.263963341712951660e-02 -8.042524755001068115e-02 1.124959904700517654e-02 1.765510439872741699e-02 -1.305608358234167099e-02 -3.616784233599901199e-03 -3.889290383085608482e-03 -3.791895136237144470e-02 -1.290634367614984512e-02 4.147055000066757202e-02 7.622778881341218948e-03 -6.402339786291122437e-03 1.504364144057035446e-02 -4.896933957934379578e-02 7.385194301605224609e-02 5.557985603809356689e-02 4.216438531875610352e-02 4.254535585641860962e-02 -1.586874946951866150e-02 4.001472145318984985e-02 -2.361817099153995514e-02 7.314301095902919769e-03 4.360974207520484924e-02 1.732100918889045715e-02 6.815651897341012955e-03 -6.470455322414636612e-03 6.712147593498229980e-02 6.500072777271270752e-02 -2.974707074463367462e-02 4.477570950984954834e-02 -3.151915222406387329e-02 8.970557153224945068e-02 5.063233152031898499e-02 -2.729600667953491211e-02 1.137578859925270081e-01 8.428739756345748901e-02 -7.295121997594833374e-02 3.032260388135910034e-02 4.169708583503961563e-03 1.472312510013580322e-01 -3.333767503499984741e-02 -1.290555894374847412e-01 -4.706021770834922791e-02 -2.102493681013584137e-02 -4.621849581599235535e-02 -6.208090484142303467e-02 7.127930875867605209e-04 -5.653370171785354614e-02 -2.505395095795392990e-03 2.555564790964126587e-02 8.124404400587081909e-02 2.786870114505290985e-02 1.886312663555145264e-02 2.833360806107521057e-03 -4.234708473086357117e-02 -4.223822429776191711e-02 -1.259770542383193970e-01 3.351589292287826538e-02 4.506038501858711243e-02 2.621673047542572021e-02 6.929126381874084473e-02 7.664393633604049683e-02 -4.369928967207670212e-03 -1.520862709730863571e-02 1.653700321912765503e-02 4.044277220964431763e-02 5.484936293214559555e-03 -2.046155184507369995e-02 8.924146182835102081e-03 5.790279060602188110e-02 5.135492980480194092e-02 -8.962827268987894058e-05 1.749980635941028595e-02 9.045879356563091278e-03 -4.253016784787178040e-02 -6.920654792338609695e-03 3.551816195249557495e-02 4.380089417099952698e-02 6.265385076403617859e-03 -4.843199625611305237e-02 1.042672395706176758e-01 2.830592356622219086e-02 1.127129537053406239e-03 -6.419657915830612183e-02 4.083153791725635529e-03 4.565732553601264954e-02 -1.344630587846040726e-02 -3.746607154607772827e-02 2.313104644417762756e-02 1.645277626812458038e-02 -2.431412413716316223e-02 6.270844489336013794e-03 -2.597291953861713409e-02 2.938088402152061462e-02 -3.501516953110694885e-02 -1.365327369421720505e-02 -7.096496224403381348e-02 -8.950861543416976929e-02 -6.893403362482786179e-03 4.755144566297531128e-02 2.662610076367855072e-02 3.226486267521977425e-03 1.303864177316427231e-02 -2.948497887700796127e-03 2.427943050861358643e-02 8.794693276286125183e-03 -6.107439473271369934e-02 6.296379119157791138e-02 -8.315201103687286377e-02 -4.443334415555000305e-02 -1.034964527934789658e-02 1.167358551174402237e-02 -2.033038623631000519e-02 8.696636185050010681e-03 5.514211580157279968e-02 -5.707081779837608337e-02 1.246833205223083496e-01 6.859790533781051636e-02 -6.261245906352996826e-02 7.435546070337295532e-02 -2.473195083439350128e-02 3.174560517072677612e-02 2.384000457823276520e-02 -6.863644346594810486e-03 3.927213139832019806e-03 3.556199604645371437e-03 6.496174633502960205e-02 5.002926103770732880e-03 -7.657902687788009644e-02 1.263525802642107010e-02 -1.535079721361398697e-02 4.912972450256347656e-02 5.004751146771013737e-04 -1.280256430618464947e-03 6.435700505971908569e-02 6.684716045856475830e-02 -1.677521131932735443e-02 2.061432786285877228e-02 -1.644178666174411774e-02 9.019097685813903809e-02 6.390922516584396362e-02 1.235224585980176926e-02 -4.712773114442825317e-02 7.221004925668239594e-04 -2.752063423395156860e-02 5.418605729937553406e-02 -3.931412473320960999e-03 -6.442580372095108032e-02 -2.288514189422130585e-02 1.313764322549104691e-02 -1.149193570017814636e-02 -8.629842661321163177e-03 -1.033613178879022598e-02 -9.479858912527561188e-03 -2.567875571548938751e-02 -4.269564233254641294e-04 -2.859193645417690277e-02 3.520114719867706299e-02 -6.325396895408630371e-02 3.974300250411033630e-02 6.728262640535831451e-03 -5.000961944460868835e-03 5.380063876509666443e-02 -3.353670611977577209e-02 1.879049278795719147e-02 -1.335990615189075470e-02 2.864876948297023773e-02 -4.967936314642429352e-03 3.128134831786155701e-02 -1.223214566707611084e-01 6.554430723190307617e-02 -1.167130842804908752e-02 -4.938491061329841614e-02 3.109725378453731537e-02 -2.235871925950050354e-02 -9.027087688446044922e-02 4.141769930720329285e-02 -8.767681196331977844e-03 -1.265610940754413605e-02 -4.064559563994407654e-02 3.899514302611351013e-02 1.619240827858448029e-02 -1.574413478374481201e-02 1.569405049085617065e-01 7.947288453578948975e-03 -1.734547689557075500e-02 -5.153730139136314392e-02 2.194473892450332642e-02 4.316059872508049011e-02 -6.215646862983703613e-03 -1.090882942080497742e-01 -2.654101699590682983e-02 7.202863693237304688e-02 1.396000012755393982e-02 2.983862347900867462e-02 8.268625289201736450e-02 -2.945552207529544830e-02 2.453058771789073944e-02 9.968223981559276581e-03 5.981435254216194153e-02 -1.899044588208198547e-02 3.826129063963890076e-02 1.875707507133483887e-02 3.608771041035652161e-02 -5.331997200846672058e-02 3.980016335844993591e-02 -8.529015816748142242e-03 2.216408587992191315e-02 -1.817346923053264618e-02 -6.732744164764881134e-03 -4.978131502866744995e-02 5.948845669627189636e-02 -3.462177142500877380e-02 -3.435744717717170715e-02 -4.764751996845006943e-03 -5.037846788763999939e-02 4.022479429841041565e-02 2.952110255137085915e-03 -9.671993553638458252e-02 5.541013181209564209e-02 -9.738336317241191864e-03 7.118111848831176758e-02 1.141776889562606812e-02 2.570214215666055679e-03 4.439806565642356873e-02 -9.508400410413742065e-02 4.565775766968727112e-02 7.029853761196136475e-03 1.912057772278785706e-02 7.664134260267019272e-03 1.543376781046390533e-02 -4.790502041578292847e-02 -5.720320623368024826e-03 2.469469234347343445e-02 -5.825944244861602783e-02 -2.522061578929424286e-02 -4.392724484205245972e-02
4.431845992803573608e-02 6.807054579257965088e-02 -4.360654950141906738e-02 -1.928949356079101562e-02 1.034285686910152435e-02 2.880288101732730865e-02 -3.613342705648392439e-04 5.093511566519737244e-02 2.193030901253223419e-02 1.462871022522449493e-02 -7.064928300678730011e-03 -1.532157137989997864e-02 7.586640771478414536e-03 -3.757886961102485657e-02 6.722378730773925781e-02 4.314113873988389969e-03 -7.566140592098236084e-02 -3.395686298608779907e-02 -2.992404624819755554e-02 -4.639553371816873550e-03 1.641543023288249969e-02 3.338699415326118469e-02 2.176178805530071259e-02 3.002047166228294373e-02 2.944611385464668274e-02 6.139430683106184006e-03 6.092154886573553085e-03 -1.110886968672275543e-02 2.880516462028026581e-02 1.916339062154293060e-02 2.868469804525375366e-02 3.205393208190798759e-03 5.328700691461563110e-02 -2.901309914886951447e-02 9.412602521479129791e-03 -5.068486556410789490e-02 1.267891749739646912e-02 -1.817996054887771606e-02 -6.057868152856826782e-02 -6.494420580565929413e-03 -1.173028815537691116e-02 2.489683218300342560e-02 1.554583478718996048e-02 -3.976412117481231689e-02 -1.129668857902288437e-02 1.202524174004793167e-02 -5.363465100526809692e-02 -1.717871055006980896e-02 -5.992932710796594620e-04 -8.792775869369506836e-02 1.579969003796577454e-02 8.104695007205009460e-03 -6.151386070996522903e-03 6.858421489596366882e-03 -1.355372555553913116e-02 -4.794499650597572327e-02 -1.096347868442535400e-01 3.280505910515785217e-02 4.368864744901657104e-02 1.348538249731063843e-01 -1.402267348021268845e-02 -5.243108421564102173e-02 -1.055326219648122787e-02 -1.961345225572586060e-02 2.440466545522212982e-02 -1.553633064031600952e-02 3.244973346590995789e-02 4.047977551817893982e-02 2.848585136234760284e-02 7.370185852050781250e-02 -1.256705541163682938e-02 8.276591077446937561e-03 -2.030624076724052429e-02 2.186231315135955811e-02 -5.634733662009239197e-02 -4.379082098603248596e-02 7.786534726619720459e-02 -4.476312920451164246e-02 -4.439927637577056885e-03 3.139029070734977722e-02 -3.460230305790901184e-02 -1.313710585236549377e-02 3.809908404946327209e-02 3.239858523011207581e-02 4.527236148715019226e-02 2.880667569115757942e-03 9.769503958523273468e-03 -1.079391986131668091e-01 -1.172900758683681488e-02 5.226363427937030792e-03 4.572226025629788637e-04 3.855239599943161011e-02 6.496672332286834717e-02 -5.277659744024276733e-02 -6.254860758781433105e-02 4.241924267262220383e-03 -5.797965452075004578e-02 -1.454241853207349777e-02 -4.054347798228263855e-02 -6.018115673214197159e-03 2.466721646487712860e-02 1.654483191668987274e-02 -5.404502619057893753e-03 6.729938089847564697e-02 5.071269720792770386e-02 -1.686690747737884521e-02 3.854602202773094177e-02 -4.282862693071365356e-02 -6.260367110371589661e-03 2.896861359477043152e-02 -1.459628343582153320e-02 -1.507141068577766418e-02 2.489406429231166840e-02 1.843956299126148224e-02 -4.317371919751167297e-02 4.163015261292457581e-02 4.899142310023307800e-02 -7.150039821863174438e-02 -5.463742092251777649e-02 -1.403944846242666245e-02 1.925840973854064941e-02 -4.862552881240844727e-02 2.228729985654354095e-02 -5.007466673851013184e-02 5.014480557292699814e-03 2.539996989071369171e-02 -2.017377875745296478e-02 1.012558117508888245e-02 -1.020073797553777695e-02 3.469932824373245239e-02 5.049337446689605713e-02 5.159823689609766006e-03 2.460669912397861481e-02 6.289740651845932007e-02 -4.019199311733245850e-02 1.022459566593170166e-02 4.143011569976806641e-02 -2.323153614997863770e-02 -2.434597909450531006e-02 6.935959681868553162e-03 -7.373636588454246521e-03 -3.624216094613075256e-02 -5.171236582100391388e-03 -1.042153313755989075e-02 -3.724537091329693794e-03 -9.190501645207405090e-03 -3.526173997670412064e-03 4.906632937490940094e-03 1.058357954025268555e-02 -2.851255610585212708e-02 5.553963594138622284e-03 -4.879967495799064636e-02 1.299209520220756531e-02 7.861292921006679535e-03 1.634339429438114166e-02 -1.897474192082881927e-02 -3.738870844244956970e-02 -5.870145931839942932e-02 1.249637641012668610e-02 1.137520298361778259e-01 1.174722914583981037e-03 -1.643077842891216278e-02 1.124538946896791458e-03 -6.796608795411884785e-04 -3.209469094872474670e-02 -4.748312290757894516e-03 -1.893789693713188171e-02 -2.335843816399574280e-02 1.920325867831707001e-02 1.184463128447532654e-02 -3.220950067043304443e-02 -4.140529315918684006e-03 -3.076802939176559448e-02 -4.610777646303176880e-02 1.089606732130050659e-01 7.595440745353698730e-02 4.721209406852722168e-03 -2.192367240786552429e-02 -1.851990702562034130e-03 8.213111013174057007e-02 3.092703782021999359e-02 -4.425954539328813553e-03 2.311230823397636414e-02 -2.240436337888240814e-02 6.428651511669158936e-02 2.228304371237754822e-02 -2.549921721220016479e-02 -1.181225851178169250e-02 -3.870618343353271484e-02 -7.515998557209968567e-03 1.139844115823507309e-02 -3.945939615368843079e-02 7.025703042745590210e-02 -8.261954039335250854e-02 3.025783412158489227e-02 3.124321810901165009e-02 -2.290435507893562317e-02 -2.329847402870655060e-02 -7.618438918143510818e-03 -3.780618682503700256e-02 -1.173168607056140900e-02 1.039965301752090454e-01 3.554542362689971924e-02 1.388477627187967300e-02 -1.159702893346548080e-02 -2.037665620446205139e-02 1.419251691550016403e-02 -1.939666923135519028e-03 1.079207360744476318e-01 -5.939318332821130753e-03 -2.494845166802406311e-02 2.712685614824295044e-03 -2.111273817718029022e-02 1.571658998727798462e-02 -6.883966922760009766e-02 -4.318280518054962158e-02 -3.282058611512184143e-02 -2.080566808581352234e-02 -5.900286603718996048e-03 -2.702543139457702637e-02 -2.022764086723327637e-02 -2.783709019422531128e-02 6.693918723613023758e-03 9.328436106443405151e-02 -1.401966810226440430e-02 -2.080038934946060181e-02 1.084179617464542389e-02 -4.721543937921524048e-02 -1.306477701291441917e-03 -6.207972764968872070e-02 -2.859241515398025513e-02 -2.530234307050704956e-02 6.604626774787902832e-03 2.297631092369556427e-02 -4.407889768481254578e-02 6.839293986558914185e-02 6.116528064012527466e-03 -1.988760009407997131e-02 -9.178847819566726685e-02 2.900199778378009796e-02 -5.849539302289485931e-04 -1.740176114253699780e-03 -1.276138145476579666e-02 -1.413849294185638428e-01 -2.074517868459224701e-02 -2.466257102787494659e-02 -3.364926669746637344e-03 -3.102543996647000313e-03 1.626885641599074006e-04 1.012303307652473450e-02 5.175525322556495667e-02 3.398778662085533142e-02 -6.091056857258081436e-03 1.281662937253713608e-02 1.771454885601997375e-02 1.687085442245006561e-02
1.083547808229923248e-02 -7.925240322947502136e-03 8.147447556257247925e-02 2.245252579450607300e-02 4.517139494419097900e-02 -5.265413969755172729e-02 4.175669699907302856e-02 3.015968017280101776e-02 3.036332316696643829e-02 -8.091787458397448063e-04 9.445709176361560822e-03 3.408172167837619781e-03 -8.252291940152645111e-03 -8.404034189879894257e-03 -3.393617225810885429e-03 2.306030690670013428e-02 1.704757846891880035e-02 4.916231706738471985e-02 -5.064236465841531754e-03 -1.071399226784706116e-01 3.423970192670822144e-03 -2.294977428391575813e-03 -4.672749713063240051e-02 -6.362962070852518082e-03 2.679158700630068779e-03 1.447592116892337799e-02 1.888241618871688843e-02 5.024772137403488159e-02 -2.963154402095824480e-04 3.893666714429855347e-02 1.787023432552814484e-02 1.551271323114633560e-02 3.815447539091110229e-02 7.210948504507541656e-03 -7.728042453527450562e-02 -3.594908490777015686e-02 -3.946772590279579163e-02 4.101921804249286652e-03 -1.326337456703186035e-02 -9.518336504697799683e-03 -9.917085058987140656e-03 -9.971798397600650787e-03 -1.138334814459085464e-02 2.516908757388591766e-02 6.829015910625457764e-04 -3.345125168561935425e-02 3.624426573514938354e-02 -1.095389109104871750e-02 4.531168378889560699e-03 -8.297729305922985077e-03 -4.221921414136886597e-02 1.098163332790136337e-02 -3.914124332368373871e-03 1.079548837878974155e-05 -6.318539846688508987e-03 -7.509659044444561005e-03 -7.598948478698730469e-02 7.736560702323913574e-02 -2.895432896912097931e-02 -1.010477319359779358e-01 1.610617339611053467e-02 1.469455100595951080e-02 -7.000072393566370010e-03 -5.897054821252822876e-02 -1.768386177718639374e-02 1.388742402195930481e-02 5.358121544122695923e-02 9.132864885032176971e-03 -1.044381689280271530e-02 -2.400895394384860992e-02 1.719968952238559723e-02 2.275395439937710762e-03 -9.862198494374752045e-03 -1.238146238029003143e-02 1.296062860637903214e-02 -5.745214596390724182e-02 4.311721399426460266e-02 6.064656376838684082e-02 9.790863841772079468e-03 3.577675670385360718e-03 -4.394253715872764587e-02 1.750329509377479553e-02 -1.434803754091262817e-02 1.242407318204641342e-02 -5.685935728251934052e-03 -1.866942830383777618e-02 -7.907690596766769886e-04 -4.248628392815589905e-02 3.454541787505149841e-02 -6.066264584660530090e-03 -1.308418158441781998e-02 2.684804983437061310e-02 -2.266198769211769104e-02 5.244240164756774902e-02 4.286504816263914108e-03 3.107476606965065002e-02 5.188629776239395142e-02 5.000201519578695297e-03 2.197924256324768066e-02 1.095817144960165024e-02 -1.390555989928543568e-03 -6.352224387228488922e-03 -2.028254233300685883e-02 -2.315455931238830090e-04 -1.095689386129379272e-01 -1.354171149432659149e-02 -9.719801135361194611e-03 1.631505787372589111e-03 1.421545818448066711e-02 5.524766817688941956e-02 2.360441535711288452e-02 2.050892822444438934e-02 -2.749671414494514465e-02 3.691088408231735229e-02 1.320712827146053314e-02 -1.342075690627098083e-02 -2.088918909430503845e-02 3.459640219807624817e-02 1.689056307077407837e-02 1.114076375961303711e-02 1.587705500423908234e-02 -2.372361486777663231e-03 -1.396207511425018311e-02 1.193483360111713409e-02 -3.165877982974052429e-02 2.067322470247745514e-02 4.719971120357513428e-02 4.716379567980766296e-03 -2.337037399411201477e-02 5.202441662549972534e-02 1.109176781028509140e-02 -7.150427903980016708e-03 1.476251892745494843e-02 2.622201852500438690e-02 2.084745652973651886e-02 -1.998521573841571808e-02 -2.365070395171642303e-02 1.170068979263305664e-02 -3.990574926137924194e-02 1.374343782663345337e-02 2.723383018746972084e-03 5.937669426202774048e-03 -2.176399715244770050e-02 2.383467555046081543e-02 -3.672346472740173340e-03 3.557019680738449097e-02 1.399205648340284824e-04 -2.796761132776737213e-02 7.755651138722896576e-03 -1.804694416932761669e-03 1.319081522524356842e-02 -7.428158540278673172e-03 3.659981302917003632e-03 -3.126147389411926270e-02 -1.461024302989244461e-02 -2.201488055288791656e-02 -7.747088372707366943e-02 1.123790442943572998e-02 -4.429421201348304749e-02 5.994771048426628113e-02 -9.668097831308841705e-03 2.357472293078899384e-02 -6.729252636432647705e-03 -6.176351569592952728e-03 -2.576807141304016113e-02 1.901726610958576202e-02 -3.204476460814476013e-02 3.182239015586674213e-04 8.761721663177013397e-03 -7.650558836758136749e-03 -1.397722586989402771e-02 4.452792461961507797e-03 -4.980502650141716003e-02 2.680943720042705536e-02 3.602299140766263008e-03 -8.977934718132019043e-03 -5.481489468365907669e-03 8.546208031475543976e-03 1.115188468247652054e-02 -1.140925753861665726e-02 2.039445191621780396e-02 -7.314217276871204376e-03 2.223927294835448265e-03 -2.605301141738891602e-02 -1.554594282060861588e-02 4.492025077342987061e-02 -7.838545367121696472e-03 -1.831802725791931152e-02 -5.231622979044914246e-02 2.121029421687126160e-02 -5.003778263926506042e-03 2.399631775915622711e-02 1.781956641934812069e-03 -9.796174708753824234e-04 5.690283607691526413e-03 4.733918979763984680e-02 3.054537251591682434e-02 -1.351240742951631546e-02 3.579657059162855148e-03 -7.576609496027231216e-03 1.266098581254482269e-02 -4.392728582024574280e-02 -6.184988655149936676e-03 -7.541821803897619247e-03 -8.288470096886157990e-03 8.623081259429454803e-03 9.969543665647506714e-02 5.899784155189990997e-03 -9.160742163658142090e-03 -1.969904266297817230e-02 -7.847543805837631226e-03 8.516635745763778687e-03 -4.465514793992042542e-03 6.924908608198165894e-03 4.338383208960294724e-03 -1.898244582116603851e-02 -1.443972811102867126e-02 -1.849519088864326477e-02 9.046183899044990540e-03 1.919730193912982941e-02 -1.715447939932346344e-02 -2.580542117357254028e-03 2.073467150330543518e-02 6.113028153777122498e-02 2.521791495382785797e-02 4.618238192051649094e-03 -7.441832218319177628e-03 5.528457090258598328e-02 -5.250256974250078201e-03 -1.099111977964639664e-02 4.549956414848566055e-03 -3.052269807085394859e-03 -2.927367761731147766e-02 2.875896915793418884e-02 -3.565638512372970581e-02 -1.831848989240825176e-03 -8.040176704525947571e-03 6.099716760218143463e-03 3.304479271173477173e-02 -1.610502041876316071e-02 3.728927299380302429e-02 -5.235057324171066284e-03 -1.178938709199428558e-02 4.073292762041091919e-02 -3.669678792357444763e-02 1.943450979888439178e-02 1.128567196428775787e-02 -3.720520762726664543e-03 -2.575661428272724152e-02 4.177916422486305237e-02 -5.098372325301170349e-02 2.222368307411670685e-02 3.841576166450977325e-03 2.458619885146617889e-02 -1.913416385650634766e-02 4.267673939466476440e-02
4.071447253227233887e-02 2.161975391209125519e-02 1.417120546102523804e-01 1.572708785533905029e-02 6.916983425617218018e-02 -1.539602316915988922e-02 -1.242806296795606613e-02 8.022021502256393433e-02 -5.068471282720565796e-02 2.046098560094833374e-02 3.471668064594268799e-02 -6.355957686901092529e-02 4.022006411105394363e-03 -4.532010480761528015e-02 -2.686908841133117676e-02 3.723118081688880920e-02 3.374020382761955261e-02 -8.352027088403701782e-02 -4.083186388015747070e-03 -4.785811179317533970e-04 -2.150872023776173592e-03 1.973810605704784393e-02 -8.735888451337814331e-02 -1.172040775418281555e-02 -1.296805404126644135e-02 -4.382639005780220032e-02 -1.026014145463705063e-02 -4.580811038613319397e-02 -4.087997972965240479e-02 1.009896099567413330e-01 -2.556379325687885284e-02 -9.621383249759674072e-02 1.111120209097862244e-01 1.261949166655540466e-02 -6.455262005329132080e-02 -7.866783067584037781e-03 1.016557812690734863e-01 4.723162576556205750e-02 4.431089758872985840e-02 -4.283039271831512451e-02 -1.734228618443012238e-02 2.178360708057880402e-02 3.293162956833839417e-02 -7.119701057672500610e-02 -3.319573402404785156e-02 3.016166388988494873e-02 -5.361152067780494690e-02 -5.719012022018432617e-02 -6.429354101419448853e-02 1.423787791281938553e-02 -6.182213872671127319e-02 -1.165681257843971252e-01 -1.254606409929692745e-03 -1.254751253873109818e-02 1.578622497618198395e-02 -1.867688819766044617e-02 1.535461656749248505e-02 4.402060806751251221e-02 -5.215143319219350815e-03 2.304962836205959320e-02 -1.173863839358091354e-02 -3.218891471624374390e-02 -2.997978590428829193e-03 -7.497620582580566406e-02 2.275727130472660065e-02 -3.687815368175506592e-02 1.899753138422966003e-02 -4.485283978283405304e-03 -3.713764250278472900e-03 -4.091783985495567322e-02 3.570987284183502197e-02 -5.383175984025001526e-02 -4.591935873031616211e-02 2.093447744846343994e-02 2.541675232350826263e-02 -4.073201678693294525e-03 -2.849616855382919312e-02 4.823757708072662354e-02 -1.256678719073534012e-02 6.713488698005676270e-02 -1.631512120366096497e-02 2.700892463326454163e-02 9.074553847312927246e-03 -5.867428332567214966e-02 -1.557024754583835602e-02 -2.725795283913612366e-02 -4.308293014764785767e-02 2.984793297946453094e-02 5.493480246514081955e-03 6.602209992706775665e-03 3.512645512819290161e-02 1.651489734649658203e-02 5.931198969483375549e-02 -9.244064986705780029e-02 1.103342100977897644e-01 -1.787762856110930443e-03 3.979197517037391663e-02 -3.526642452925443649e-03 -2.853801101446151733e-02 -1.335280574858188629e-02 2.488946914672851562e-02 1.706062629818916321e-02 1.212620511651039124e-01 1.008918229490518570e-02 1.098235696554183960e-02 1.400085538625717163e-02 2.997807040810585022e-02 -5.223372951149940491e-02 4.593012854456901550e-02 -3.509705886244773865e-02 -2.908488363027572632e-02 -1.452544704079627991e-02 -1.033691316843032837e-01 -5.987237766385078430e-02 9.577279537916183472e-02 -2.021791040897369385e-02 4.886189475655555725e-02 4.534429684281349182e-02 4.124334454536437988e-02 -2.498480677604675293e-02 -6.386052817106246948e-02 -4.414140246808528900e-03 7.130838930606842041e-03 -2.694694697856903076e-02 3.346646949648857117e-02 1.990215666592121124e-02 -1.336864680051803589e-01 -4.969058930873870850e-02 1.109096631407737732e-01 4.578251857310533524e-03 -3.691109642386436462e-02 -3.316695988178253174e-02 -1.236831955611705780e-02 -6.387274246662855148e-03 9.301174432039260864e-03 -3.496454737614840269e-04 9.853544831275939941e-02 5.214812234044075012e-02 3.065793775022029877e-02 5.238313227891921997e-02 4.219550266861915588e-02 -7.798407226800918579e-02 -3.498411923646926880e-02 -6.718120723962783813e-02 2.356298454105854034e-02 4.918991029262542725e-02 9.385652840137481689e-03 5.672582238912582397e-02 -8.176945894956588745e-02 -1.766812056303024292e-02 6.745968014001846313e-02 -1.935130730271339417e-02 1.930000819265842438e-02 -6.801597774028778076e-02 -2.943190746009349823e-02 -7.216867804527282715e-02 1.159908547997474670e-01 -4.303310066461563110e-02 -4.921349510550498962e-02 -3.294329345226287842e-02 6.644458323717117310e-02 1.019636839628219604e-01 6.017572013661265373e-04 4.817548021674156189e-02 -4.831110313534736633e-02 -3.087884560227394104e-02 1.728545315563678741e-02 -1.948916539549827576e-02 1.317939907312393188e-02 7.692514918744564056e-03 4.922755435109138489e-02 -3.844497841782867908e-04 1.846989244222640991e-02 9.111166745424270630e-02 -1.149965077638626099e-02 5.707553774118423462e-02 -8.154935389757156372e-02 1.919099316000938416e-02 2.265006862580776215e-02 8.729744702577590942e-02 -4.807631671428680420e-02 2.266964875161647797e-02 1.207385025918483734e-02 -5.042978096753358841e-03 -9.197899699211120605e-02 6.283117085695266724e-02 1.466411724686622620e-02 -3.588254749774932861e-02 1.145433634519577026e-03 -5.231947079300880432e-02 -4.265902563929557800e-02 1.021489780396223068e-02 -2.455348335206508636e-02 8.665426075458526611e-02 -5.292560439556837082e-03 3.871403634548187256e-02 -2.601226791739463806e-02 4.369027446955442429e-03 -1.594141125679016113e-02 -1.080683059990406036e-02 -1.133923158049583435e-01 8.776322007179260254e-02 7.823146879673004150e-03 -5.555443093180656433e-02 3.081155754625797272e-02 2.460713265463709831e-03 -4.465225618332624435e-03 3.892955556511878967e-02 -1.888390257954597473e-02 4.486731439828872681e-02 -1.797397248446941376e-02 -6.416426599025726318e-02 -1.360071171075105667e-02 8.990452438592910767e-02 -4.513116925954818726e-02 -3.552218154072761536e-02 2.739913575351238251e-02 2.797075174748897552e-02 -3.275608271360397339e-02 8.151952177286148071e-03 -4.734024405479431152e-02 -3.102658502757549286e-02 -3.128390386700630188e-02 5.516929179430007935e-02 -8.481185138225555420e-02 7.026012241840362549e-02 -1.239379961043596268e-02 2.210157550871372223e-02 -9.290029294788837433e-03 -3.528347611427307129e-02 6.188656389713287354e-02 -1.869423687458038330e-02 5.172900483012199402e-02 -8.607434481382369995e-02 2.797465957701206207e-02 5.250912159681320190e-02 -2.792752534151077271e-02 -8.738116174936294556e-02 9.015761315822601318e-03 -9.596086293458938599e-02 -4.781551659107208252e-02 2.123626880347728729e-02 -6.833350658416748047e-02 5.907356971874833107e-04 3.351612016558647156e-02 2.182655967772006989e-03 4.657051339745521545e-02 1.828086562454700470e-02 2.230412513017654419e-02 -6.584651023149490356e-02 1.504222154617309570e-01 -8.872634172439575195e-02 -4.411822184920310974e-02 -7.313150912523269653e-02 1.324940659105777740e-02 -1.657060347497463226e-02
-1.900873146951198578e-02 -7.378789782524108887e-02 -8.895819075405597687e-03 -1.256117410957813263e-02 4.871270060539245605e-02 5.452656373381614685e-02 5.386241152882575989e-02 8.555159717798233032e-02 1.093875989317893982e-02 1.492116227746009827e-02 -2.379420772194862366e-02 -4.262364003807306290e-03 1.668445579707622528e-02 -2.177733369171619415e-02 -3.357423841953277588e-02 -8.678435347974300385e-03 -4.352695774286985397e-03 2.087954618036746979e-02 -8.087296038866043091e-03 2.868105284869670868e-02 3.821706026792526245e-02 8.612815290689468384e-03 -1.016492769122123718e-01 -2.628221176564693451e-03 1.189708244055509567e-02 3.174361214041709900e-02 3.503481671214103699e-02 -1.089542359113693237e-01 -3.504747897386550903e-02 -3.934261575341224670e-02 -1.019291672855615616e-02 -5.615342408418655396e-02 7.613916386617347598e-05 4.150816798210144043e-02 6.506857462227344513e-03 -9.252307564020156860e-02 4.977797716856002808e-02 -2.310125157237052917e-02 3.514124825596809387e-02 2.317237481474876404e-02 -2.833965048193931580e-02 -4.501899704337120056e-02 4.102705046534538269e-02 7.559777051210403442e-02 5.488818511366844177e-02 -2.790619060397148132e-02 -2.151680551469326019e-02 -5.240261089056730270e-03 -3.241270035505294800e-02 -2.419839799404144287e-02 2.503057383000850677e-02 -8.434980362653732300e-02 8.092167554423213005e-04 1.677437126636505127e-02 5.961713939905166626e-02 4.032820835709571838e-02 -5.116441845893859863e-02 -2.949628047645092010e-02 2.876345254480838776e-02 -5.982042476534843445e-02 2.565398626029491425e-02 -8.170180080924183130e-05 4.775337001774460077e-04 -6.688874214887619019e-02 -1.496915239840745926e-02 1.099070813506841660e-02 -5.681744962930679321e-02 -8.815406821668148041e-03 8.372325450181961060e-03 -5.796685442328453064e-02 -3.961822763085365295e-02 -4.024520143866539001e-02 -1.887812092900276184e-02 7.630861364305019379e-04 -2.027025073766708374e-02 1.333148591220378876e-02 -1.983249746263027191e-02 -1.659342274069786072e-02 -4.599948879331350327e-03 9.044024161994457245e-03 1.648505032062530518e-02 1.185267884284257889e-02 8.430043235421180725e-03 -4.311987757682800293e-02 -1.200549304485321045e-04 -2.180942334234714508e-02 -2.093137241899967194e-02 7.695251703262329102e-02 2.511676773428916931e-02 7.275016047060489655e-03 -2.813044935464859009e-02 -8.397611975669860840e-02 1.876869425177574158e-02 7.580780982971191406e-02 -3.344340622425079346e-02 3.455950878560543060e-03 -2.959687029942870140e-03 2.267043292522430420e-02 2.791865170001983643e-02 -3.559295320883393288e-03 3.780365455895662308e-03 -3.732247743755578995e-03 3.175837686285376549e-03 -2.747341804206371307e-02 -3.489395231008529663e-02 -7.436157763004302979e-02 -5.311554297804832458e-03 7.044904865324497223e-03 1.511611882597208023e-02 2.656619064509868622e-02 -1.501043420284986496e-02 -4.468335211277008057e-02 -8.857200294733047485e-02 -3.457478433847427368e-02 5.755440518260002136e-02 5.285081639885902405e-02 -7.231243699789047241e-02 -6.813409179449081421e-02 -7.131627202033996582e-02 4.678943194448947906e-03 -4.569879267364740372e-03 -2.268536016345024109e-02 3.725713863968849182e-02 3.694104775786399841e-02 3.968759998679161072e-02 3.005759045481681824e-02 4.176086513325572014e-04 1.234986167401075363e-02 5.557626858353614807e-02 5.388012155890464783e-02 1.211826875805854797e-02 2.682658657431602478e-02 -5.316945165395736694e-02 9.604812413454055786e-02 7.936193048954010010e-02 3.361137211322784424e-02 -2.332357876002788544e-02 2.626391500234603882e-02 2.627289481461048126e-02 -1.298564951866865158e-03 -4.921418800950050354e-02 -8.516974747180938721e-02 -1.504265330731868744e-02 2.267802134156227112e-02 -3.893814608454704285e-02 -3.703369945287704468e-02 -3.223467990756034851e-02 -4.519847407937049866e-02 6.463315337896347046e-03 1.919536478817462921e-02 -2.347288280725479126e-02 4.750490561127662659e-02 -8.714089170098304749e-03 5.452205240726470947e-02 -4.650222137570381165e-03 1.801689900457859039e-02 2.694162726402282715e-02 3.715273365378379822e-02 1.307060718536376953e-01 -7.557068765163421631e-02 5.331191793084144592e-02 5.070390179753303528e-03 3.228722512722015381e-02 -3.331552445888519287e-02 -1.195819396525621414e-02 4.762895405292510986e-03 -7.747362251393496990e-04 -7.613854110240936279e-02 2.027399837970733643e-02 -1.133067533373832703e-02 -6.532206386327743530e-02 -4.103375226259231567e-02 9.893985092639923096e-02 -6.164798140525817871e-02 -3.135221451520919800e-02 -8.761457353830337524e-02 -6.921843439340591431e-02 -5.485639721155166626e-02 2.566561475396156311e-02 -3.683899343013763428e-02 -8.450481109321117401e-03 6.731163710355758667e-02 -3.283911617472767830e-03 5.858583003282546997e-02 -8.602316677570343018e-02 2.770474366843700409e-02 -1.038528904318809509e-01 6.453763693571090698e-02 -8.524305187165737152e-03 -1.791227422654628754e-02 -4.161316901445388794e-02 6.906152120791375637e-04 -5.730474740266799927e-02 -2.085826918482780457e-02 6.824549287557601929e-02 -3.099593520164489746e-02 4.341848567128181458e-02 1.965566724538803101e-02 3.391724079847335815e-02 1.933458447456359863e-02 3.867466002702713013e-02 -4.353728611022233963e-03 1.053129285573959351e-01 -8.930828422307968140e-03 1.792383939027786255e-02 2.396430820226669312e-02 1.994053646922111511e-02 -3.277559578418731689e-02 -1.890324614942073822e-02 -3.017308376729488373e-02 -3.516228462103754282e-04 4.144254326820373535e-02 2.011817879974842072e-02 5.017431825399398804e-02 5.278041213750839233e-02 -3.554024919867515564e-02 -5.937343090772628784e-02 2.785809896886348724e-02 -1.604731753468513489e-02 -1.415515039116144180e-02 9.071242064237594604e-02 1.946626044809818268e-02 7.730476558208465576e-03 3.645238280296325684e-02 -2.813453599810600281e-02 8.178465813398361206e-02 -2.820453234016895294e-02 1.162724453024566174e-03 3.080035559833049774e-02 1.625842787325382233e-02 4.435256123542785645e-02 -2.412620186805725098e-02 7.505997270345687866e-02 -7.190667092800140381e-02 -7.095961272716522217e-02 6.132210791110992432e-02 -1.574782468378543854e-02 -4.022694379091262817e-02 -2.033398300409317017e-02 3.599160909652709961e-02 3.111991845071315765e-02 -1.635384396649897099e-04 -4.531623423099517822e-02 -1.884880848228931427e-02 -9.017761051654815674e-02 -1.689572236500680447e-03 1.241313060745596886e-03 -2.788293408229947090e-03 -2.911466173827648163e-02 2.696448005735874176e-02 -1.899749785661697388e-02 -1.556977164000272751e-02 -3.503649309277534485e-02 1.555301621556282043e-02 -1.369785796850919724e-02 -8.105605095624923706e-02
2.838839590549468994e-02 -5.989002063870429993e-03 -6.042923778295516968e-02 2.495251595973968506e-03 3.240206092596054077e-02 3.034622967243194580e-02 -5.464546009898185730e-02 -3.118290565907955170e-02 -6.733942776918411255e-02 3.676062682643532753e-03 2.883212454617023468e-02 -1.963433623313903809e-02 1.143795438110828400e-02 5.192033480852842331e-03 -2.237073844298720360e-03 -2.268636040389537811e-02 -1.870223693549633026e-02 2.123133279383182526e-02 9.829652495682239532e-03 1.737637817859649658e-02 1.329829264432191849e-02 -2.191472053527832031e-02 -1.083106454461812973e-02 4.037000983953475952e-02 6.246868148446083069e-02 1.267052441835403442e-02 -1.688670739531517029e-02 7.995735853910446167e-02 1.624289527535438538e-02 1.533277891576290131e-02 -3.195830434560775757e-02 3.791858628392219543e-02 -3.661227971315383911e-02 -6.181988492608070374e-02 -2.657080814242362976e-02 -6.823886185884475708e-02 -2.294421754777431488e-02 2.146071009337902069e-02 -7.290183100849390030e-03 3.653069213032722473e-02 1.265740394592285156e-02 -2.310253493487834930e-02 5.720429494976997375e-02 2.041988074779510498e-02 -2.871675416827201843e-02 5.998887121677398682e-02 -7.112890481948852539e-02 -1.720073632895946503e-02 -4.584143310785293579e-02 4.631710797548294067e-02 -2.819173038005828857e-03 6.143405567854642868e-03 1.761643029749393463e-02 1.405600109137594700e-03 2.856774488463997841e-03 -4.213129170238971710e-03 1.540683116763830185e-02 2.183988131582736969e-02 3.712224960327148438e-02 3.281522169709205627e-02 -6.729977577924728394e-02 6.589395552873611450e-02 -2.153137326240539551e-02 -1.971511915326118469e-02 1.822760514914989471e-02 -2.239887835457921028e-03 7.934318482875823975e-02 -2.472397685050964355e-02 -2.878485433757305145e-02 5.574069544672966003e-02 -1.043505966663360596e-03 -3.882662579417228699e-02 -3.511350229382514954e-02 -2.563150785863399506e-02 1.507948059588670731e-02 6.978641450405120850e-02 6.172845605760812759e-03 9.432873129844665527e-02 -2.283788286149501801e-03 -4.162271320819854736e-02 3.840058809146285057e-03 -4.139960184693336487e-02 -1.006210688501596451e-02 -1.345056667923927307e-02 -1.304470095783472061e-02 8.937990292906761169e-03 1.554382592439651489e-02 -2.896561054512858391e-03 3.340129926800727844e-02 2.151761576533317566e-02 -1.412567775696516037e-02 2.181337587535381317e-02 -7.205059751868247986e-03 -9.239374659955501556e-03 -5.146763101220130920e-02 4.343276098370552063e-02 -6.482157111167907715e-02 -5.646228790283203125e-03 9.446844458580017090e-03 3.317259997129440308e-02 7.840420119464397430e-03 -6.173567846417427063e-02 2.158007770776748657e-02 -1.949186064302921295e-02 1.404095161706209183e-02 -4.686237126588821411e-02 -3.803011029958724976e-02 3.510768583510071039e-04 -3.019380941987037659e-02 5.629640817642211914e-02 3.478803206235170364e-03 -7.158441096544265747e-02 3.946281969547271729e-02 2.914948202669620514e-02 -1.291378866881132126e-03 -3.301485255360603333e-02 -2.268079295754432678e-02 -1.267147511243820190e-01 -4.184116050601005554e-02 6.673121824860572815e-03 -1.321259886026382446e-02 -9.801658801734447479e-03 -8.440937101840972900e-02 -1.699690334498882294e-02 3.156431764364242554e-02 1.113075166940689087e-01 3.225946798920631409e-02 3.180718049407005310e-02 -9.143882244825363159e-02 -3.296092897653579712e-02 -1.494323834776878357e-03 3.744675964117050171e-02 -7.506928592920303345e-02 1.211746037006378174e-02 -1.250312030315399170e-01 5.343415308743715286e-03 -1.728739775717258453e-02 -3.448805958032608032e-02 3.150099143385887146e-02 -3.624343546107411385e-03 1.869940944015979767e-02 -1.310947258025407791e-02 -8.964777924120426178e-03 1.903688162565231323e-02 -6.832136213779449463e-02 -6.280317157506942749e-02 1.244246400892734528e-02 1.815865933895111084e-02 -2.967900782823562622e-02 9.356853552162647247e-04 1.924609579145908356e-02 3.413260728120803833e-02 -1.487229950726032257e-02 4.192968830466270447e-02 -1.760502159595489502e-02 1.550274156033992767e-02 -8.341250568628311157e-02 -4.038865491747856140e-02 1.203877851366996765e-02 4.182492941617965698e-02 1.765247061848640442e-02 2.422493882477283478e-02 9.400902688503265381e-02 2.358209341764450073e-03 -1.316812075674533844e-02 9.513081051409244537e-03 -5.638214293867349625e-03 2.457682508975267410e-03 1.181970001198351383e-03 -4.655083641409873962e-03 -4.473643749952316284e-02 -3.240862116217613220e-02 3.547603636980056763e-02 -1.156024560332298279e-01 -4.228840023279190063e-02 1.880853064358234406e-02 -3.602507337927818298e-02 -2.524302527308464050e-02 -1.547879911959171295e-02 -5.964145436882972717e-02 -7.156984880566596985e-03 -1.296254899352788925e-02 -1.027879416942596436e-01 -1.166892237961292267e-02 -7.762792706489562988e-02 -1.374816428869962692e-02 -5.671991780400276184e-02 -1.832654140889644623e-02 -2.659535221755504608e-02 -2.555226348340511322e-02 -1.394126564264297485e-02 5.823349207639694214e-02 -2.328523993492126465e-02 1.532040908932685852e-02 2.335465885698795319e-02 -3.198461234569549561e-02 -1.725494675338268280e-02 5.609125643968582153e-02 -8.958675712347030640e-02 4.316811915487051010e-03 4.873514175415039062e-02 -5.617782846093177795e-02 5.282381922006607056e-02 -2.703549526631832123e-02 2.745606936514377594e-02 -1.796079240739345551e-02 3.921571373939514160e-02 1.178056560456752777e-02 4.203157871961593628e-02 7.094396650791168213e-02 -4.156537726521492004e-02 1.903445646166801453e-02 1.118277292698621750e-02 -5.320364236831665039e-02 3.537480160593986511e-02 -4.217635467648506165e-02 2.502251975238323212e-02 1.536223478615283966e-02 -3.228105604648590088e-02 4.191598296165466309e-02 2.462073229253292084e-02 2.954456955194473267e-03 1.035193540155887604e-02 7.128241471946239471e-03 -3.632444888353347778e-02 1.956697553396224976e-02 -4.757546633481979370e-02 -4.720960184931755066e-02 -1.172589045017957687e-02 7.886593043804168701e-02 6.208021938800811768e-02 -1.520916447043418884e-02 9.400887414813041687e-03 6.238386034965515137e-02 -3.401063755154609680e-02 9.422967582941055298e-02 3.526147454977035522e-02 -2.349860407412052155e-02 6.058722734451293945e-02 8.880568295717239380e-02 1.807827502489089966e-02 9.114857763051986694e-03 -9.805877692997455597e-03 -3.167427703738212585e-02 2.950972318649291992e-02 -9.126039803959429264e-04 -2.390071563422679901e-02 7.524575106799602509e-03 -1.885405182838439941e-02 -6.207475904375314713e-03 -9.211499243974685669e-02 -2.863143943250179291e-02 -1.852274872362613678e-02 1.527366973459720612e-02 4.612438846379518509e-03 -3.398395329713821411e-02
8.077412098646163940e-02 7.581872493028640747e-02 8.024104870855808258e-03 -2.197360433638095856e-02 -2.197237499058246613e-02 1.031671371310949326e-02 1.596298627555370331e-02 -6.369767338037490845e-02 2.890605479478836060e-02 -6.162717007100582123e-03 -2.356668934226036072e-02 -1.918564736843109131e-02 -2.838780544698238373e-02 -1.636631973087787628e-02 -1.768225058913230896e-02 -1.982050016522407532e-02 2.548272535204887390e-02 1.358433626592159271e-02 -3.455573692917823792e-02 -1.046543102711439133e-02 2.335207723081111908e-02 -1.311902981251478195e-02 6.055229157209396362e-02 5.863703787326812744e-03 -8.071339689195156097e-03 -4.070762917399406433e-02 -1.993065327405929565e-02 3.972695767879486084e-02 -1.847124844789505005e-02 -4.004135355353355408e-02 -1.202750802040100098e-01 -3.993666917085647583e-02 -3.040667623281478882e-02 2.439101412892341614e-02 -1.131393667310476303e-02 1.003976538777351379e-01 -5.644946172833442688e-02 1.286031585186719894e-02 -1.233343593776226044e-02 2.556210011243820190e-02 -7.085767108947038651e-03 -6.624829024076461792e-02 9.808116406202316284e-02 -4.708854854106903076e-02 -1.833761692978441715e-03 -3.550189360976219177e-02 1.739573478698730469e-02 -1.499079167842864990e-03 5.209623277187347412e-02 -3.316743671894073486e-02 5.027012526988983154e-02 -1.787490956485271454e-02 -9.858475066721439362e-03 -1.257646642625331879e-02 -1.108774095773696899e-01 -2.354523865506052971e-03 -6.784785538911819458e-02 -9.836842864751815796e-02 1.016406528651714325e-02 8.181309700012207031e-02 -3.717286512255668640e-02 2.144244499504566193e-02 -2.336262725293636322e-02 4.382124915719032288e-02 2.710278518497943878e-02 -2.631534356623888016e-03 -2.189447917044162750e-02 1.956960558891296387e-02 4.919666051864624023e-02 -4.007541574537754059e-03 -1.071395501494407654e-01 -1.322691235691308975e-02 -5.449578911066055298e-02 -2.216224744915962219e-02 -1.180196274071931839e-02 4.703935980796813965e-02 -1.814287714660167694e-02 8.577480167150497437e-02 8.681187406182289124e-03 4.113826155662536621e-02 -5.000662803649902344e-02 -9.811929613351821899e-02 -4.897899925708770752e-03 -1.651210896670818329e-02 -2.415015734732151031e-02 4.763001203536987305e-02 3.759166598320007324e-02 8.427077904343605042e-03 -7.772766798734664917e-02 1.263799965381622314e-01 -6.776350736618041992e-02 -5.091924965381622314e-02 4.845210351049900055e-03 9.189341962337493896e-02 1.062384992837905884e-01 2.788598649203777313e-02 4.869712144136428833e-02 1.262015011161565781e-02 -1.783646829426288605e-02 -3.510672249831259251e-04 2.678367495536804199e-02 -6.385295186191797256e-03 -1.348780691623687744e-01 -3.495721518993377686e-02 4.436525329947471619e-02 9.876776486635208130e-02 1.297324430197477341e-02 -6.819958984851837158e-02 -1.591491326689720154e-02 7.281766273081302643e-03 1.139967143535614014e-02 -5.092165898531675339e-03 -9.320413321256637573e-02 -3.150681033730506897e-02 1.861486025154590607e-02 5.388152226805686951e-02 -1.379958819597959518e-02 5.383419618010520935e-02 5.895564705133438110e-02 -1.326036523096263409e-03 3.009186126291751862e-02 8.816016488708555698e-04 6.149284169077873230e-02 1.754122041165828705e-02 1.283265836536884308e-02 3.821276500821113586e-02 -9.889602661132812500e-03 1.073450502008199692e-02 -1.108046472072601318e-01 -3.363692015409469604e-02 1.250208355486392975e-02 -2.365988865494728088e-02 -1.422596536576747894e-02 -3.445229306817054749e-02 -3.383372724056243896e-02 -1.108075957745313644e-02 -4.918892681598663330e-02 -5.051548592746257782e-03 4.473355785012245178e-02 1.733884401619434357e-02 -1.112829335033893585e-02 -5.280869081616401672e-02 -6.278209853917360306e-03 1.936554722487926483e-02 -5.464524775743484497e-02 1.602899283170700073e-02 1.250508590601384640e-03 -2.986094169318675995e-02 -3.489091992378234863e-02 1.465800311416387558e-02 -5.738740786910057068e-03 3.526303172111511230e-02 -6.629732996225357056e-02 6.072060670703649521e-03 3.383234515786170959e-02 -6.522548198699951172e-02 -7.294256985187530518e-02 -1.570240408182144165e-02 6.098864134401082993e-03 -5.731781944632530212e-03 -6.071165576577186584e-02 1.025181449949741364e-02 7.935115694999694824e-02 -2.655654959380626678e-02 2.747175097465515137e-02 8.128581196069717407e-02 9.202984161674976349e-03 -1.071838196367025375e-02 -1.278602983802556992e-03 -5.224495660513639450e-03 -2.480362541973590851e-02 -6.764011085033416748e-02 -4.984056111425161362e-03 -3.427188470959663391e-02 -7.892966270446777344e-02 9.762793779373168945e-02 -2.231837250292301178e-02 -8.277498185634613037e-03 -9.952628053724765778e-03 -1.840621046721935272e-02 2.603637240827083588e-02 -7.706480566412210464e-03 2.714592590928077698e-02 2.861047862097620964e-03 2.897505182772874832e-03 6.579647888429462910e-04 -6.664053350687026978e-02 -3.088453598320484161e-02 -3.503274172544479370e-02 6.590453535318374634e-02 4.252341110259294510e-03 -7.650543004274368286e-02 3.491402417421340942e-02 5.881315842270851135e-02 -4.533845186233520508e-02 -1.418231241405010223e-02 -1.399115007370710373e-02 2.758581005036830902e-02 -1.860736310482025146e-02 2.208674559369683266e-03 -1.934027485549449921e-02 2.530093118548393250e-02 -1.138800662010908127e-02 -4.466728121042251587e-02 6.174469739198684692e-02 -1.553205493837594986e-02 9.644201397895812988e-02 -3.539925441145896912e-03 -1.635859906673431396e-02 1.273798290640115738e-02 2.332119643688201904e-02 4.778745025396347046e-02 4.016020894050598145e-02 1.215800736099481583e-02 1.568480208516120911e-02 -7.516103982925415039e-02 -3.843870712444186211e-03 -1.387665700167417526e-02 -2.088903822004795074e-02 -6.256548222154378891e-03 -6.234086304903030396e-02 -4.171562194824218750e-02 2.134191105142235756e-03 4.493004828691482544e-02 -1.563929468393325806e-01 1.958506554365158081e-02 -2.525061182677745819e-02 1.056709513068199158e-02 1.101240739226341248e-01 -2.641227911226451397e-05 2.640220709145069122e-02 8.352266624569892883e-03 -8.895752951502799988e-03 5.509410798549652100e-02 -7.150301337242126465e-02 9.423669427633285522e-02 4.370063915848731995e-02 -4.495515301823616028e-02 -1.351229008287191391e-02 2.606041543185710907e-02 -4.694253206253051758e-02 -9.158695116639137268e-03 8.379152975976467133e-03 -2.092650532722473145e-02 3.899502754211425781e-02 3.656731173396110535e-02 -1.548986881971359253e-02 -4.876124486327171326e-02 3.678223490715026855e-02 -2.275647595524787903e-02 -6.585185974836349487e-02 2.408572938293218613e-03 8.463397622108459473e-03 -4.281596094369888306e-02 -1.020751427859067917e-02 -1.093991473317146301e-01
5.992268398404121399e-02 1.939119026064872742e-02 -3.090550936758518219e-02 1.331146806478500366e-02 5.293892696499824524e-03 -4.398954287171363831e-02 -2.326568029820919037e-02 -1.043883487582206726e-01 -2.164443139918148518e-05 4.884650930762290955e-03 -2.885873243212699890e-02 3.463054448366165161e-02 8.587823249399662018e-03 3.880348429083824158e-02 6.188533827662467957e-02 7.720649242401123047e-02 -4.466941580176353455e-02 9.662955254316329956e-02 -9.240740537643432617e-02 8.112048357725143433e-02 -1.012322865426540375e-02 1.971678063273429871e-02 -1.110119186341762543e-02 -4.524347372353076935e-03 3.458751738071441650e-02 8.130229078233242035e-03 -2.430602675303816795e-03 3.570321574807167053e-02 9.979961439967155457e-03 -2.075638803944457322e-05 -2.787104807794094086e-02 -2.401838451623916626e-02 2.357551455497741699e-02 1.386829465627670288e-01 -6.895425915718078613e-02 3.957743570208549500e-02 -2.704083174467086792e-02 2.437020279467105865e-02 -1.989424228668212891e-03 2.027913229539990425e-03 1.401084847748279572e-02 -6.067770998924970627e-03 4.431604407727718353e-03 3.931136056780815125e-02 -2.961602061986923218e-02 2.588608860969543457e-02 2.926954627037048340e-02 -2.599456347525119781e-02 6.290600169450044632e-03 6.614218652248382568e-02 -4.512500762939453125e-02 -4.249586910009384155e-02 -1.627207966521382332e-03 -2.498897165060043335e-02 -5.346775799989700317e-02 -3.086451254785060883e-02 -7.761251926422119141e-02 -3.955318406224250793e-02 -3.187720105051994324e-02 1.081551332026720047e-02 -5.694008246064186096e-02 -5.678269080817699432e-03 -1.034863758832216263e-02 -8.418450504541397095e-02 -6.678761448711156845e-03 4.148100689053535461e-02 1.858415454626083374e-02 1.615318842232227325e-02 -2.937016263604164124e-02 4.454109817743301392e-02 -1.847345754504203796e-02 -3.485375642776489258e-02 -6.388790439814329147e-03 1.051829010248184204e-02 1.146692666225135326e-03 -2.045958116650581360e-02 -3.604371473193168640e-02 2.450454048812389374e-02 -2.128206752240657806e-02 1.248445082455873489e-02 5.347393080592155457e-02 1.610161736607551575e-02 -1.617112779058516026e-03 3.927686437964439392e-02 -1.015461087226867676e-01 2.394635602831840515e-02 -5.155213549733161926e-02 6.080622225999832153e-02 7.813827134668827057e-03 -7.591712474822998047e-02 -1.148435007780790329e-02 -6.973376870155334473e-02 5.293465219438076019e-03 -5.178760364651679993e-02 -3.587158629670739174e-03 -3.044253401458263397e-02 -2.273196168243885040e-02 -1.747266016900539398e-02 -1.024225633591413498e-02 -1.990810222923755646e-02 -6.483980920165777206e-03 2.999702095985412598e-02 -4.232503846287727356e-02 1.718407310545444489e-02 -1.642757467925548553e-02 -5.266382545232772827e-02 2.392341848462820053e-03 5.260222125798463821e-03 -3.965730220079421997e-02 -7.497222721576690674e-02 2.078501507639884949e-02 5.128689575940370560e-03 1.417191978543996811e-02 -5.659680813550949097e-02 2.607925049960613251e-02 2.590508945286273956e-02 6.338435411453247070e-02 3.868254274129867554e-02 1.121783554553985596e-01 7.289204746484756470e-03 2.420957759022712708e-02 -1.517488155514001846e-02 4.454274103045463562e-02 -2.849855087697505951e-02 5.143486429005861282e-03 8.583024889230728149e-02 -1.842100359499454498e-02 -7.042024284601211548e-02 -2.748020924627780914e-02 1.100727356970310211e-02 -8.300374448299407959e-02 -1.016476377844810486e-02 -3.525003045797348022e-02 -7.327678054571151733e-02 3.255764394998550415e-02 1.041563525795936584e-01 8.742102235555648804e-02 -1.437038742005825043e-02 -1.146167283877730370e-03 -3.087593987584114075e-02 9.276985190808773041e-03 -4.041754826903343201e-02 -1.337856519967317581e-02 1.365122199058532715e-02 -2.981693297624588013e-02 -6.451593339443206787e-02 -3.633447363972663879e-02 -5.870650988072156906e-03 -9.512826800346374512e-02 -2.403151988983154297e-02 -7.293385453522205353e-03 -4.542174749076366425e-03 8.997040241956710815e-02 3.179067745804786682e-02 1.638271845877170563e-02 -3.117783181369304657e-02 -2.383275656029582024e-03 -1.824322342872619629e-02 1.256966870278120041e-02 -6.012765690684318542e-02 -4.566528275609016418e-02 1.369548290967941284e-01 -4.655078426003456116e-02 1.735437847673892975e-02 -2.726087719202041626e-02 -5.583089776337146759e-03 5.435188766568899155e-03 -1.236744597554206848e-02 4.555684514343738556e-03 3.873797249980270863e-04 6.270286440849304199e-02 1.003693230450153351e-02 4.400853067636489868e-03 3.675691038370132446e-02 3.951945900917053223e-02 4.920068383216857910e-02 -3.684496134519577026e-02 1.800994761288166046e-02 -6.518668960779905319e-03 3.599170222878456116e-02 2.175112813711166382e-02 -1.452066469937562943e-02 3.976253326982259750e-03 1.481606531888246536e-02 -3.273525461554527283e-02 9.450163692235946655e-03 -1.193200647830963135e-01 -3.956441581249237061e-02 1.951359212398529053e-02 -3.193191811442375183e-02 -1.722843013703823090e-02 -3.630551695823669434e-02 -8.231454528868198395e-03 1.124406699091196060e-02 6.313054263591766357e-02 -5.210603028535842896e-02 9.958644397556781769e-03 8.415636606514453888e-03 -9.299732744693756104e-03 -3.976145014166831970e-02 3.094194456934928894e-02 2.626018226146697998e-02 -1.922428607940673828e-02 8.425816195085644722e-04 -5.015252158045768738e-02 -1.657347567379474640e-02 -5.656412988901138306e-02 -2.039876766502857208e-02 -1.523271203041076660e-03 -2.821948379278182983e-02 2.986133331432938576e-03 -4.042128473520278931e-02 -3.473758324980735779e-02 -3.651985898613929749e-02 8.761079981923103333e-03 1.203858777880668640e-01 -4.592601209878921509e-03 3.677212446928024292e-02 1.260947715491056442e-02 -2.563144639134407043e-02 2.034287340939044952e-02 5.252675712108612061e-02 5.577773787081241608e-03 -8.957876265048980713e-02 -2.717006020247936249e-02 9.403601288795471191e-02 -1.886903680860996246e-02 -4.571185261011123657e-02 7.177601754665374756e-02 -1.439025253057479858e-02 3.394460678100585938e-02 -3.334149718284606934e-03 1.400066446512937546e-02 3.341892361640930176e-02 -1.703576929867267609e-02 2.605931647121906281e-02 9.605522267520427704e-03 -4.835771769285202026e-02 1.725666038691997528e-02 6.519330199807882309e-03 -1.047445312142372131e-01 -2.490440756082534790e-02 4.240639042109251022e-03 1.729038357734680176e-02 1.441905461251735687e-02 2.362408861517906189e-02 3.342827409505844116e-02 1.016313955187797546e-02 9.815497696399688721e-02 6.719608604907989502e-02 -2.453529648482799530e-02 -3.397120162844657898e-02 2.221504924818873405e-03 -2.604799717664718628e-02 -1.196085475385189056e-03 -6.343179196119308472e-02
-7.848469913005828857e-02 -7.370590418577194214e-02 3.202882036566734314e-02 6.009982526302337646e-02 1.162349060177803040e-01 -2.926502609625458717e-03 -4.317027330398559570e-02 -1.136684864759445190e-01 2.007056586444377899e-02 -3.474471345543861389e-02 2.117774076759815216e-02 -2.837700024247169495e-02 1.161853745579719543e-01 -2.017383724451065063e-01 -4.161287506576627493e-05 3.045894391834735870e-02 -1.017893478274345398e-01 4.058700427412986755e-02 -1.862290129065513611e-02 -1.133869662880897522e-01 -1.941471360623836517e-02 -1.209226325154304504e-01 -6.842132657766342163e-02 1.155940964818000793e-01 -1.163624599575996399e-01 6.838373839855194092e-02 3.755962848663330078e-02 -2.719443058595061302e-03 1.292207092046737671e-01 -1.296655833721160889e-01 -8.828523568809032440e-03 1.366612035781145096e-02 -6.474429275840520859e-03 -6.393139064311981201e-02 7.995665073394775391e-02 4.712510481476783752e-02 2.143977954983711243e-02 1.082865335047245026e-02 -1.155310720205307007e-01 6.404867023229598999e-02 5.836715456098318100e-03 4.212525114417076111e-02 6.081972271203994751e-02 7.477789372205734253e-02 9.745749831199645996e-02 -1.390533708035945892e-02 -1.303241821005940437e-03 1.377707421779632568e-01 -4.074628651142120361e-02 -3.877973929047584534e-02 -6.829207390546798706e-02 -4.190853238105773926e-02 9.543956257402896881e-03 -1.492425501346588135e-01 7.611739635467529297e-02 -7.189541310071945190e-02 -3.400809317827224731e-02 8.883426338434219360e-02 1.191994547843933105e-02 3.369950875639915466e-02 9.685696102678775787e-03 7.418405264616012573e-02 1.011660546064376831e-01 4.278054833412170410e-02 -6.418430246412754059e-03 2.382656186819076538e-02 5.463556945323944092e-02 -1.391201559454202652e-02 6.370834261178970337e-02 -5.707643553614616394e-02 -5.362788215279579163e-03 1.454019546508789062e-01 3.975553903728723526e-03 -2.294076979160308838e-02 -7.538329064846038818e-02 1.853208243846893311e-02 3.802357614040374756e-02 7.987961173057556152e-02 -1.024449095129966736e-01 6.792309135198593140e-02 -5.231226328760385513e-03 1.891466975212097168e-02 -2.325198054313659668e-01 -1.136881560087203979e-01 -1.028684154152870178e-01 -6.290275603532791138e-03 3.974638134241104126e-02 -6.973528861999511719e-02 -6.851832568645477295e-02 1.313468813896179199e-02 4.455038905143737793e-02 -6.444663554430007935e-02 9.716964513063430786e-02 -1.126046329736709595e-01 -1.318449527025222778e-01 1.156081259250640869e-01 3.774698451161384583e-02 -2.694721147418022156e-02 4.118619021028280258e-03 -1.166598498821258545e-02 3.928798064589500427e-02 2.603529253974556923e-03 -1.102385967969894409e-01 -8.350373059511184692e-02 1.107451394200325012e-01 -1.419560462236404419e-01 2.680387534201145172e-02 2.133729495108127594e-02 1.039191149175167084e-02 1.379362344741821289e-01 -2.608922682702541351e-02 8.770832791924476624e-03 -5.950588360428810120e-02 -1.776733808219432831e-02 -1.650748848915100098e-01 3.818101435899734497e-02 5.048880726099014282e-02 3.851074725389480591e-02 3.857813403010368347e-02 2.650680206716060638e-02 -6.367141008377075195e-02 3.775155916810035706e-02 -1.351188868284225464e-01 -1.058050058782100677e-02 5.012223497033119202e-02 -1.539669814519584179e-03 -2.628039382398128510e-02 3.732661250978708267e-03 -6.453958898782730103e-02 -5.454748123884201050e-02 4.526600241661071777e-02 -2.088027819991111755e-02 -6.972746551036834717e-02 3.163244109600782394e-03 -4.227998480200767517e-02 3.707747533917427063e-02 8.450967073440551758e-02 2.000657096505165100e-02 1.564002037048339844e-02 6.854847073554992676e-02 3.958251699805259705e-02 -5.359899997711181641e-02 3.156241029500961304e-02 -3.120489791035652161e-02 -2.992201782763004303e-02 -6.308098137378692627e-02 1.634952723979949951e-01 1.558367460966110229e-01 3.589183092117309570e-02 1.132469996809959412e-01 1.681981841102242470e-03 5.081551615148782730e-03 2.099406532943248749e-02 8.661662787199020386e-02 -1.264087408781051636e-01 3.121496178209781647e-02 -1.206428091973066330e-02 -1.389910578727722168e-01 -1.870297081768512726e-02 -9.105930477380752563e-02 -6.535068154335021973e-02 4.512839764356613159e-02 -3.548592701554298401e-02 6.997664924710988998e-03 1.536973118782043457e-01 2.242246642708778381e-02 2.430054731667041779e-02 1.051489412784576416e-01 1.386957913637161255e-01 1.150716319680213928e-01 6.605335511267185211e-03 -8.478187024593353271e-02 1.330461632460355759e-02 1.575898728333413601e-03 -3.676702827215194702e-02 5.829972028732299805e-02 -2.824714966118335724e-02 5.881974101066589355e-02 -6.489761918783187866e-02 -6.771920248866081238e-03 -4.627288877964019775e-02 -9.535989910364151001e-02 5.564227700233459473e-02 2.835793234407901764e-02 -7.206925749778747559e-02 1.742858439683914185e-01 -3.560625761747360229e-02 3.520606830716133118e-02 -1.212023198604583740e-01 1.209842935204505920e-01 -1.090781539678573608e-01 -2.323861047625541687e-02 -2.961771190166473389e-02 1.637125015258789062e-02 3.714095428586006165e-02 1.189210568554699421e-03 -2.930511534214019775e-02 1.734721846878528595e-02 -4.781895875930786133e-02 1.510572712868452072e-02 -4.472924023866653442e-02 -4.242253024131059647e-03 7.325996458530426025e-02 1.104184612631797791e-01 -9.116466157138347626e-03 -8.201386779546737671e-02 7.646440714597702026e-02 1.094134598970413208e-01 4.380123689770698547e-03 -8.284319192171096802e-03 1.324161887168884277e-01 -2.483064681291580200e-02 -6.480996310710906982e-02 8.768735080957412720e-02 8.028203994035720825e-02 -1.073435768485069275e-01 -4.619468748569488525e-02 -3.147500008344650269e-02 -3.720066742971539497e-03 -1.367872674018144608e-02 3.262658789753913879e-02 8.444958925247192383e-02 -6.767900288105010986e-02 6.975500582484528422e-05 4.837733879685401917e-02 -1.474540978670120239e-01 2.307745814323425293e-02 -3.213484212756156921e-02 5.602975375950336456e-03 -9.254112839698791504e-03 3.331077471375465393e-02 -2.899707527831196785e-03 6.706002354621887207e-02 1.497183647006750107e-02 6.638500094413757324e-02 -1.591755747795104980e-01 6.562253087759017944e-02 -3.536475589498877525e-03 3.868759796023368835e-02 -8.134935982525348663e-03 3.264242317527532578e-03 -1.444466114044189453e-01 2.275865711271762848e-02 7.785572856664657593e-02 -8.748849853873252869e-03 -3.226595744490623474e-02 -1.454107016324996948e-01 -2.806149236857891083e-02 9.957285597920417786e-03 -1.470715850591659546e-01 5.431742221117019653e-02 -1.233788281679153442e-01 -4.483248665928840637e-02 3.537014871835708618e-02 -2.437172085046768188e-01 -8.161011151969432831e-03
