5.775098688900470734e-03 -1.334874687017872930e-04 -4.488275852054357529e-03 -7.838059100322425365e-04 -8.195869624614715576e-03 8.902443572878837585e-03 -8.382457308471202850e-03 1.247489824891090393e-02 5.821003578603267670e-03 -1.765116862952709198e-02 -7.527850684709846973e-04 -3.536063479259610176e-03 1.326066628098487854e-02 -5.393613173509947956e-05 6.713074981234967709e-04 -8.367689326405525208e-03 9.206869639456272125e-03 -2.425468992441892624e-03 -9.957605041563510895e-03 5.591630470007658005e-04 1.331943739205598831e-02 1.288525760173797607e-02 3.542588790878653526e-03 1.103486120700836182e-02 -4.462282231543213129e-04 -2.703066216781735420e-03 -1.921990537084639072e-03 9.059796109795570374e-03 8.128156885504722595e-03 -4.322193854022771120e-04 -8.089439943432807922e-03 4.622222855687141418e-03 -2.474129432812333107e-03 -9.888533502817153931e-03 -4.252836108207702637e-03 7.624048739671707153e-03 -1.740955398418009281e-03 -5.228523630648851395e-03 4.206302575767040253e-03 1.174055784940719604e-02 4.474398680031299591e-03 -5.980039481073617935e-03 -2.193026989698410034e-02 3.252960741519927979e-03 -8.235495770350098610e-04 -1.911733113229274750e-02 6.584147457033395767e-03 2.821241971105337143e-03 5.271649570204317570e-04 -8.707114611752331257e-04 1.188762951642274857e-03 -4.138548858463764191e-03 -4.572272766381502151e-03 -2.226046519353985786e-03 3.929194994270801544e-03 1.266802381724119186e-02 -7.845384068787097931e-03 3.416587831452488899e-03 8.617537096142768860e-04 -3.395030042156577110e-03 -1.069863978773355484e-02 5.741493310779333115e-03 2.631687326356768608e-03 -7.638938259333372116e-03 1.671924628317356110e-02 -7.219811086542904377e-04 9.439889341592788696e-03 2.354941889643669128e-02 5.603082245215773582e-04 1.154409605078399181e-03 1.898960792459547520e-03 1.351359300315380096e-02 1.101882779039442539e-03 4.586106806527823210e-04 -6.518319714814424515e-03 -8.425377309322357178e-03 -3.201220417395234108e-03 8.968806825578212738e-03 -1.081586908549070358e-02 -5.818856880068778992e-03 1.158164534717798233e-02 5.871697212569415569e-04 9.860033169388771057e-04 -1.823124126531183720e-03 -1.223702076822519302e-02 -3.884937847033143044e-03 5.638475995510816574e-03 1.085924101062119007e-03 -2.450171159580349922e-03 -9.570898488163948059e-03 -6.822136696428060532e-03 1.040991279296576977e-03 -1.707242452539503574e-03 3.352680942043662071e-03 1.937984838150441647e-03 -2.711688401177525520e-03 1.072175917215645313e-03 5.743740126490592957e-03 -3.299167845398187637e-03 3.465075511485338211e-03 -6.502205505967140198e-04 2.987864427268505096e-03 -1.861361972987651825e-02 5.033148918300867081e-04 -4.656782373785972595e-03 1.727261231280863285e-03 -1.629552687518298626e-03 1.109374104999005795e-03 -3.315175417810678482e-03 4.100285004824399948e-03 -4.875670187175273895e-03 1.961788861081004143e-03 8.337201434187591076e-04 2.504234202206134796e-03 -3.108473494648933411e-03 -5.514648510143160820e-04 2.116112969815731049e-03 4.616921301931142807e-03 2.440582029521465302e-03 7.427005562931299210e-03 -3.147987183183431625e-03 -3.154990263283252716e-03 2.914348850026726723e-03 3.553394926711916924e-03 -2.941691491287201643e-04 5.456240032799541950e-04 2.342951775062829256e-04 -9.400153649039566517e-04 -4.217154346406459808e-03 -1.637002802453935146e-03 -3.595553425839170814e-05 5.434721242636442184e-04 1.002907869406044483e-03 -1.036671106703579426e-03 -5.255481228232383728e-04 8.997693657875061035e-03 4.773210268467664719e-03 -7.907390594482421875e-03 -4.666927270591259003e-03 -4.690035246312618256e-03 7.818654994480311871e-04 -1.959714107215404510e-03 -1.992545090615749359e-03 1.223416998982429504e-03 -6.575107690878212452e-04 4.303271416574716568e-03 1.311805751174688339e-02 -1.783838262781500816e-03 3.845376428216695786e-03 3.720777574926614761e-03 5.527892499230802059e-04 -9.425766766071319580e-03 3.524364365148358047e-05 -2.461770491208881140e-04 -1.040179468691349030e-02 -5.333945155143737793e-04 -5.612754262983798981e-03 -3.519563237205147743e-03 4.936755634844303131e-03 7.455729413777589798e-03 3.874111454933881760e-03 -5.348181352019309998e-03 3.984831273555755615e-03 3.122219117358326912e-03 1.098301634192466736e-02 -1.808942033676430583e-04 9.749488905072212219e-03 1.051398925483226776e-02 1.539510092698037624e-03 1.702243578620254993e-03 -1.466852729208767414e-03 2.257093787193298340e-03 -2.041083760559558868e-02 3.742619417607784271e-03 -5.211194045841693878e-03 7.482661865651607513e-03 8.536244858987629414e-04 7.215970195829868317e-03 -3.506760345771908760e-03 -9.505287744104862213e-03 3.039495088160037994e-03 3.333807736635208130e-02 3.126817289739847183e-03 3.854971611872315407e-03 1.821829064283519983e-04 9.866235777735710144e-03 -5.620587617158889771e-04 -3.131879027932882309e-03 6.075288401916623116e-04 1.840792945586144924e-03 -1.157557475380599499e-03 -5.968493642285466194e-04 4.215868655592203140e-03 -7.889291155152022839e-04 -1.301861926913261414e-02 -1.464130938984453678e-03 -7.076478097587823868e-03 -5.387999117374420166e-03 -2.001837361603975296e-03 1.022118143737316132e-03 3.766883863136172295e-03 -3.614044049754738808e-03 2.371042501181364059e-03 2.333740703761577606e-03 -7.731562363915145397e-04 -6.783197168260812759e-04 -2.726075472310185432e-04 -3.716433420777320862e-03 -5.399480578489601612e-04 -2.417756244540214539e-03 1.023762859404087067e-03 1.238200441002845764e-02 -9.006538428366184235e-03 2.649005502462387085e-03 -2.966010011732578278e-03 1.170640578493475914e-03 3.486360423266887665e-03 3.212807001546025276e-03 -1.066263299435377121e-03 1.528584281913936138e-03 -6.490253843367099762e-03 1.604828401468694210e-03 -1.348784775473177433e-03 9.297977201640605927e-03 -2.899290528148412704e-03 7.040320429950952530e-03 -1.311793224886059761e-03 9.901977144181728363e-03 -1.046700868755578995e-03 7.073468994349241257e-03 -5.440853055915795267e-05 -3.073794941883534193e-04 -4.017048515379428864e-03 3.276127390563488007e-03 -1.346072740852832794e-02 -5.169327836483716965e-03 2.855762140825390816e-03 -1.326392963528633118e-02 -3.134867409244179726e-03 2.340952400118112564e-03 -9.623061865568161011e-03 3.608534112572669983e-03 8.883199654519557953e-03 -5.019603762775659561e-03 1.516470406204462051e-02 -5.285066552460193634e-03 5.589301697909832001e-03 -4.605365451425313950e-03 -6.204676348716020584e-03 -6.579654756933450699e-03 -1.675801817327737808e-03 4.868284333497285843e-03 1.873260014690458775e-03 -3.464148845523595810e-03 3.413527272641658783e-03 -5.084487609565258026e-03
-1.476180087774991989e-02 -2.343928627669811249e-02 9.096818976104259491e-03 4.397277254611253738e-03 5.876721814274787903e-03 -1.560417097061872482e-02 -6.937921512871980667e-03 5.030366126447916031e-03 1.038928795605897903e-02 5.396062042564153671e-04 -7.839336176402866840e-04 -2.351753879338502884e-03 -2.763812430202960968e-03 6.384528242051601410e-03 -4.517514724284410477e-03 -8.891530334949493408e-03 2.548434073105454445e-03 6.069572409614920616e-04 1.302985241636633873e-03 -4.571193829178810120e-03 -2.922069095075130463e-02 -1.610735664144158363e-03 3.344251587986946106e-02 1.652582734823226929e-02 1.652547623962163925e-03 -1.043096370995044708e-02 4.540853668004274368e-03 1.219760626554489136e-02 -1.734842918813228607e-02 -5.120870657265186310e-03 -9.723202674649655819e-04 -9.803328663110733032e-03 -8.444689214229583740e-03 1.899242587387561798e-02 1.404756866395473480e-02 -2.029745467007160187e-02 1.568931038491427898e-03 1.527564250864088535e-03 -2.988070249557495117e-03 2.191611379384994507e-02 -9.412836283445358276e-03 2.574245911091566086e-03 4.137092735618352890e-03 -1.839772239327430725e-02 1.723662763833999634e-02 -1.186640188097953796e-02 8.578611537814140320e-03 -4.482407122850418091e-03 1.194582413882017136e-02 -3.400645917281508446e-03 1.023196708410978317e-02 1.405187323689460754e-02 3.633652580901980400e-03 2.735395450145006180e-03 2.505488693714141846e-03 2.031394280493259430e-02 9.783183224499225616e-03 -8.156480267643928528e-03 1.528867520391941071e-02 5.371104460209608078e-03 3.228712081909179688e-02 1.273301080800592899e-03 3.738993545994162560e-03 -2.806323580443859100e-03 -3.567717224359512329e-02 3.566585946828126907e-03 -3.029877087101340294e-03 -2.271535061299800873e-02 7.626932580024003983e-03 1.124815829098224640e-02 -1.728804595768451691e-02 -3.917469084262847900e-02 2.750145504251122475e-03 3.368272911757230759e-03 4.899042192846536636e-03 -1.137813832610845566e-02 3.614454763010144234e-03 7.685342337936162949e-03 -1.124996971338987350e-02 -4.236730281263589859e-03 3.418539837002754211e-02 1.664204336702823639e-02 3.318210830911993980e-03 1.899950578808784485e-02 2.170530147850513458e-02 1.514288038015365601e-02 -1.284501980990171432e-02 1.315051130950450897e-02 -8.854126557707786560e-03 1.129246689379215240e-02 1.444676052778959274e-02 1.123518683016300201e-02 1.929770107381045818e-03 -1.397451851516962051e-03 1.469239313155412674e-02 -1.684879884123802185e-02 4.779149778187274933e-03 7.555984891951084137e-03 3.207097295671701431e-03 2.691802941262722015e-02 2.928167581558227539e-03 1.354202977381646633e-03 -2.969336230307817459e-03 -2.925775712355971336e-03 1.604942418634891510e-02 -6.734312046319246292e-03 4.043909721076488495e-03 1.831760257482528687e-02 9.421635186299681664e-04 -1.767173968255519867e-02 1.577292568981647491e-02 1.218129880726337433e-02 -3.188976272940635681e-02 5.657853558659553528e-03 8.270757272839546204e-03 -3.627964062616229057e-03 2.276608161628246307e-02 -2.116193296387791634e-03 2.782292896881699562e-03 9.132380597293376923e-03 -1.622982509434223175e-02 -1.161243859678506851e-02 -4.049827344715595245e-03 -5.261164158582687378e-03 1.171129290014505386e-02 5.775676574558019638e-03 9.700425900518894196e-03 6.640205625444650650e-03 1.114133093506097794e-02 6.030496209859848022e-03 -3.276301504229195416e-05 1.287742867134511471e-03 4.266381263732910156e-03 9.658539667725563049e-03 6.218841299414634705e-03 1.092211157083511353e-02 2.847088733687996864e-03 9.360434487462043762e-03 1.053104177117347717e-02 5.207378417253494263e-03 -8.627215400338172913e-03 5.817366298288106918e-03 3.082791343331336975e-02 -5.964343901723623276e-03 -8.752001449465751648e-03 3.590086475014686584e-02 7.980835624039173126e-03 2.191548421978950500e-02 2.340131206437945366e-03 2.091276459395885468e-02 -2.800879767164587975e-03 -2.684748917818069458e-02 -1.080985530279576778e-03 4.215650260448455811e-03 8.317793719470500946e-03 9.279563091695308685e-03 1.128141209483146667e-02 2.289307676255702972e-02 -1.412751618772745132e-02 4.563219263218343258e-04 5.504020489752292633e-03 -1.448838156647980213e-03 -1.655712723731994629e-02 -4.382911138236522675e-03 5.019498639740049839e-04 -7.615442387759685516e-03 7.716290652751922607e-03 -1.239556819200515747e-02 3.052033483982086182e-03 1.201425120234489441e-02 -3.573832102119922638e-03 4.200166556984186172e-03 2.332883700728416443e-02 8.356277830898761749e-03 3.982382360845804214e-03 2.564902789890766144e-02 3.672084771096706390e-03 -1.576450280845165253e-02 -6.447610910981893539e-03 -9.892325615510344505e-04 2.240073494613170624e-02 -2.845152339432388544e-04 8.126878179609775543e-03 2.111673168838024139e-02 1.860475353896617889e-02 6.261796690523624420e-03 -6.779792252928018570e-03 -3.076947992667555809e-03 4.397390875965356827e-03 -3.320971271023154259e-03 -5.114859435707330704e-03 8.390923961997032166e-03 3.922393545508384705e-03 5.732420831918716431e-03 1.457582507282495499e-02 1.369671197608113289e-03 -8.900869637727737427e-03 -7.408707868307828903e-03 5.656115245074033737e-04 -3.131432458758354187e-03 2.580886706709861755e-03 2.647520042955875397e-03 3.528308356180787086e-03 1.643488742411136627e-02 -6.754398345947265625e-03 -2.847201656550168991e-03 -9.630979038774967194e-04 -2.264274656772613525e-02 1.166681572794914246e-02 5.208940638112835586e-05 -1.561547745950520039e-03 -2.443530783057212830e-02 -3.101764479652047157e-03 -1.843424513936042786e-02 3.713196376338601112e-03 1.335868239402770996e-02 1.771732815541327000e-03 -2.921787463128566742e-02 -4.802130162715911865e-03 1.243471726775169373e-02 -3.856201888993382454e-03 7.527754642069339752e-03 1.997708901762962341e-02 -2.475085854530334473e-02 -3.104503499343991280e-03 4.139377735555171967e-03 3.648321377113461494e-03 9.713785257190465927e-04 2.750450512394309044e-03 4.023644141852855682e-03 4.550300538539886475e-03 -3.942923212889581919e-04 -3.275707364082336426e-03 -1.433566026389598846e-02 -2.273303642868995667e-02 9.216833859682083130e-03 -8.394664153456687927e-03 -1.440910249948501587e-02 -1.007871143519878387e-02 3.499491373077034950e-03 7.444874849170446396e-03 -3.807048778980970383e-03 -8.048683404922485352e-03 1.188236929010599852e-04 -1.686600036919116974e-02 -1.825280301272869110e-02 -6.515306886285543442e-03 9.870874695479869843e-03 -2.015104703605175018e-02 -7.670538034290075302e-04 -2.707677427679300308e-03 -1.296390313655138016e-02 3.632890060544013977e-02 4.203500226140022278e-03 -7.189463824033737183e-03 1.940451934933662415e-02
7.273952942341566086e-03 -1.256491336971521378e-02 -1.600646041333675385e-02 -7.750780787318944931e-04 2.171620726585388184e-02 2.360501885414123535e-02 -4.257633816450834274e-03 3.228129353374242783e-03 9.273798204958438873e-04 1.063827238976955414e-02 -8.027552627027034760e-03 8.403857238590717316e-03 1.873244903981685638e-02 -5.099641624838113785e-03 9.772928431630134583e-03 -8.565008640289306641e-03 1.659732311964035034e-02 4.161443095654249191e-03 -5.598929710686206818e-04 -7.281039375811815262e-03 1.076420955359935760e-02 -1.088441628962755203e-02 5.616604816168546677e-03 -2.106039226055145264e-02 1.673558144830167294e-03 1.025994890369474888e-03 1.225010212510824203e-02 -7.649505510926246643e-03 4.974922630935907364e-04 1.084271701984107494e-03 -8.150141802616417408e-04 1.044006552547216415e-02 2.582959830760955811e-03 -1.249902881681919098e-02 8.094145450741052628e-04 5.359890870749950409e-03 -1.386626623570919037e-02 -4.960969090461730957e-03 -1.427866891026496887e-02 -8.843933232128620148e-03 -1.235819049179553986e-02 -2.957509132102131844e-03 -1.570425368845462799e-02 -6.125500891357660294e-03 -4.449167754501104355e-03 -7.233562879264354706e-03 -2.258908702060580254e-03 4.876355640590190887e-03 9.978696471080183983e-04 4.087595734745264053e-03 -3.544973675161600113e-03 7.259913254529237747e-03 5.350801162421703339e-03 -3.504994791001081467e-03 -3.912381827831268311e-03 -6.963576190173625946e-03 5.518839228898286819e-03 3.084949776530265808e-02 1.330606639385223389e-02 -6.051700096577405930e-03 -1.168369594961404800e-02 -1.163009088486433029e-02 4.306409042328596115e-03 -1.947089657187461853e-02 1.127694640308618546e-02 2.420458942651748657e-02 6.781375501304864883e-03 -5.526156746782362461e-04 -2.849714132025837898e-03 5.587073042988777161e-03 -2.708956971764564514e-02 1.519437320530414581e-02 -2.077117562294006348e-02 4.747754428535699844e-03 2.424902515485882759e-03 -5.547108594328165054e-04 -1.128866430371999741e-02 7.071552332490682602e-03 -5.802200175821781158e-03 9.646688122302293777e-04 -1.725928741507232189e-03 -2.702666446566581726e-02 7.814420969225466251e-04 -1.486202795058488846e-02 1.165124494582414627e-02 -3.955931868404150009e-03 1.083398424088954926e-02 -2.845191629603505135e-03 6.402835249900817871e-03 6.301695015281438828e-03 -1.229814835824072361e-03 1.679756678640842438e-02 2.116221701726317406e-03 8.267355151474475861e-03 2.573066391050815582e-02 -1.419272366911172867e-02 -9.770867414772510529e-03 1.956931874155998230e-02 -6.776672787964344025e-03 3.065730631351470947e-02 4.059070255607366562e-03 6.886834744364023209e-03 5.996392574161291122e-03 -1.269741100259125233e-03 -2.833923697471618652e-02 6.387944798916578293e-03 -1.341934432275593281e-03 1.586119830608367920e-02 7.664713542908430099e-03 -4.546813666820526123e-02 -3.401999548077583313e-02 6.175650283694267273e-03 -8.751770481467247009e-03 -1.536435354501008987e-02 1.139263506047427654e-03 4.707861226052045822e-03 -2.784483600407838821e-03 1.697826944291591644e-02 9.146301075816154480e-03 -1.246738596819341183e-03 -5.359193775802850723e-03 -6.853123195469379425e-03 1.576058450154960155e-03 -2.383749932050704956e-02 -8.269652025774121284e-04 -2.082583028823137283e-03 -5.583043210208415985e-03 2.146303653717041016e-03 5.448068026453256607e-03 -1.266014762222766876e-03 1.520243356935679913e-03 -5.878668744117021561e-04 -8.449727669358253479e-03 -3.959889058023691177e-03 1.218675170093774796e-02 -3.447795985266566277e-03 2.022334560751914978e-02 -5.720242857933044434e-03 -4.326011054217815399e-03 -1.403987698722630739e-04 1.751726260408759117e-03 1.091319136321544647e-02 1.204914972186088562e-02 -1.279937801882624626e-03 -1.784420944750308990e-02 -1.168735139071941376e-02 -6.987271830439567566e-03 2.603300381451845169e-03 7.053810404613614082e-04 -1.139326579868793488e-02 -3.313070163130760193e-03 -1.309946645051240921e-03 1.885102130472660065e-02 1.049644965678453445e-02 2.652771398425102234e-02 1.885046949610114098e-03 1.220937166363000870e-02 -3.140343818813562393e-03 -1.389870326966047287e-02 5.709990859031677246e-03 2.464460441842675209e-03 1.579866046085953712e-03 6.872952450066804886e-03 -4.527768120169639587e-03 -2.679044753313064575e-02 -1.012712623924016953e-02 2.888265624642372131e-02 9.750760160386562347e-03 -2.233781106770038605e-02 5.344305653125047684e-03 -6.663181819021701813e-03 8.054434874793514609e-05 -1.592572778463363647e-02 -5.359966773539781570e-03 -2.167748752981424332e-03 -7.841714657843112946e-03 -1.569825340993702412e-03 6.223338190466165543e-03 -1.064085215330123901e-02 -6.277496926486492157e-03 3.816709388047456741e-03 6.158409640192985535e-03 -9.208410978317260742e-03 1.661618473008275032e-03 1.577980071306228638e-02 -1.453923527151346207e-02 4.356477802502922714e-05 -1.091402675956487656e-02 7.401308976113796234e-03 -1.357460976578295231e-03 1.938937231898307800e-02 -8.030916564166545868e-03 2.060020342469215393e-02 -6.346041802316904068e-03 -2.438258193433284760e-02 4.062307998538017273e-03 -4.968165419995784760e-03 -3.042448870837688446e-02 4.308386240154504776e-03 8.283199742436408997e-03 1.681326702237129211e-02 -9.118712507188320160e-03 6.733707152307033539e-03 -1.422221492975950241e-02 6.454387403209693730e-06 1.742570893839001656e-03 -1.153029734268784523e-03 -9.219340863637626171e-04 -5.642824340611696243e-03 5.855270428583025932e-04 -3.622700460255146027e-03 1.909193210303783417e-02 1.699635386466979980e-02 5.294799339026212692e-03 1.701858825981616974e-02 -2.241549268364906311e-02 2.266096649691462517e-03 1.188580994494259357e-03 1.381393428891897202e-02 -7.681100163608789444e-03 1.353556476533412933e-02 -2.011505328118801117e-02 4.632420896086841822e-04 -1.242656540125608444e-02 -5.174335092306137085e-03 -1.196409203112125397e-02 -7.465954869985580444e-03 2.218376658856868744e-02 4.385594802442938089e-04 -1.101648667827248573e-03 -6.893761456012725830e-03 -5.456319078803062439e-03 8.972696028649806976e-03 -1.803307980298995972e-02 -1.971116289496421814e-02 -6.873814854770898819e-03 -1.238164259120821953e-03 1.341136731207370758e-02 -2.260804548859596252e-02 4.459279123693704605e-03 -1.153097022324800491e-02 4.845956806093454361e-03 -1.080652978271245956e-02 2.266294555738568306e-03 8.424584753811359406e-03 -6.474057212471961975e-03 2.985812909901142120e-02 -1.439628656953573227e-02 2.928087487816810608e-03 -6.704535335302352905e-03 -1.818011747673153877e-03 -1.789842359721660614e-02 1.590449549257755280e-02 -1.262813620269298553e-02 2.200954593718051910e-03 -2.271921001374721527e-02
-1.684107817709445953e-02 -5.047454033046960831e-03 -9.439245797693729401e-03 1.302296528592705727e-03 3.217119956389069557e-03 4.413479473441839218e-03 -1.125635299831628799e-02 -2.236889442428946495e-03 -8.679141290485858917e-03 -7.846618973417207599e-05 -1.657621748745441437e-02 2.426944114267826080e-02 1.705258712172508240e-02 -8.161045610904693604e-03 6.838510744273662567e-03 -1.177349779754877090e-02 5.497715901583433151e-03 -1.938185305334627628e-03 -2.058440074324607849e-02 2.979235025122761726e-03 -1.757849240675568581e-03 -3.587139071896672249e-03 -3.068331396207213402e-03 -4.273365717381238937e-03 -5.200564861297607422e-03 -4.218610934913158417e-03 4.984517581760883331e-03 2.679704222828149796e-03 -5.780255887657403946e-03 -1.138330553658306599e-03 -2.775813452899456024e-03 1.027147099375724792e-02 1.586044090799987316e-03 -6.455911789089441299e-04 7.188188377767801285e-03 1.328609883785247803e-02 -1.883497112430632114e-03 -5.130714736878871918e-03 -4.124125465750694275e-03 2.095363289117813110e-02 3.048405051231384277e-03 -9.105142205953598022e-03 -8.970097638666629791e-03 3.155646845698356628e-04 3.195661585777997971e-03 7.857835851609706879e-03 -7.526906672865152359e-03 -1.298618968576192856e-03 -5.791389849036931992e-03 4.175217356532812119e-03 9.360222611576318741e-04 -2.004498243331909180e-02 1.647518947720527649e-03 -3.580350428819656372e-03 -2.991404151543974876e-03 1.062536053359508514e-02 2.582144770713057369e-05 1.550362724810838699e-02 9.683983400464057922e-03 2.183006610721349716e-03 1.648180186748504639e-02 -4.155717324465513229e-03 2.355602337047457695e-03 -2.250122465193271637e-02 -8.280148729681968689e-03 6.979208556003868580e-04 1.059155445545911789e-03 -6.681132130324840546e-03 -1.735081197693943977e-03 7.609582506120204926e-03 -2.320307493209838867e-02 1.083115115761756897e-03 -1.879604160785675049e-02 3.760576015338301659e-03 9.236415498889982700e-04 -1.087349490262567997e-03 -5.257982760667800903e-03 -7.317875279113650322e-04 -4.866918548941612244e-03 4.957814700901508331e-03 2.256752923130989075e-02 3.324640449136495590e-03 -1.112295198254287243e-03 2.471353486180305481e-02 -2.969596767798066139e-03 -7.087394129484891891e-03 -4.000714514404535294e-03 1.489864662289619446e-03 -1.604074728675186634e-03 -1.076954230666160583e-02 1.493828254751861095e-03 1.121502928435802460e-02 2.762841759249567986e-03 3.677209839224815369e-03 -6.668766494840383530e-03 -2.262628823518753052e-02 -3.745357505977153778e-03 -1.026254380121827126e-03 1.129100378602743149e-02 1.285998895764350891e-02 1.794702745974063873e-02 -2.501195482909679413e-02 -5.717589054256677628e-03 -2.662856422830373049e-04 -1.470550708472728729e-02 -1.082677976228296757e-03 -3.213641000911593437e-03 5.320854485034942627e-03 -5.913294386118650436e-03 -5.030288826674222946e-03 -9.179297834634780884e-03 1.851920597255229950e-02 1.402584253810346127e-03 -2.082023071125149727e-03 1.412910874933004379e-03 1.198920421302318573e-03 -4.639723338186740875e-03 4.272691905498504639e-03 4.416952375322580338e-03 -6.671933457255363464e-03 -1.181098632514476776e-03 -4.888231866061687469e-03 4.763902164995670319e-03 -7.413437590003013611e-03 9.411985054612159729e-03 -7.284265011548995972e-04 -3.504677675664424896e-03 9.571355767548084259e-03 3.172663040459156036e-03 -2.130322391167283058e-03 -8.751390123507007957e-05 1.627595908939838409e-02 -3.418728010728955269e-03 3.352654166519641876e-03 2.121568890288472176e-03 -3.930833190679550171e-03 2.609389647841453552e-02 -5.066999001428484917e-04 1.014354359358549118e-02 -4.181971307843923569e-03 1.436974015086889267e-02 6.591637618839740753e-03 1.011474616825580597e-02 -1.447312184609472752e-03 -8.018841966986656189e-03 8.533585933037102222e-04 -3.584353253245353699e-03 1.208667550235986710e-02 -1.251346315257251263e-03 4.384835716336965561e-03 6.117554847151041031e-03 4.141717217862606049e-03 9.526364505290985107e-03 -6.643248721957206726e-03 6.611259188503026962e-03 -1.532359601696953177e-04 -2.129518799483776093e-02 -6.040217354893684387e-03 -6.048670504242181778e-03 2.250055782496929169e-03 3.550387045834213495e-04 -1.131847151555120945e-03 5.608720239251852036e-03 -5.083125084638595581e-03 3.740877611562609673e-03 2.646890061441808939e-04 1.697157695889472961e-02 -1.042330404743552208e-03 -5.771614611148834229e-03 1.764461770653724670e-02 -4.108190187253057957e-04 3.702610498294234276e-03 -1.147726364433765411e-02 -2.888237824663519859e-03 -3.583150682970881462e-03 -1.338570844382047653e-02 -6.202034419402480125e-04 1.734989136457443237e-02 -3.324471879750490189e-03 -1.027056947350502014e-02 -2.221241826191544533e-03 1.203764043748378754e-02 5.233976524323225021e-03 -7.153222337365150452e-03 -6.177133414894342422e-03 3.893965913448482752e-04 -1.427584677003324032e-03 -5.953938234597444534e-04 -2.558893989771604538e-03 5.223640240728855133e-03 -4.824713338166475296e-03 -6.081379950046539307e-03 4.798083566129207611e-03 1.334438472986221313e-02 8.184384554624557495e-03 2.310238080099225044e-03 -1.245744898915290833e-02 -2.491671591997146606e-02 -9.487861767411231995e-03 5.921787582337856293e-03 4.327654838562011719e-03 -2.628738759085536003e-03 7.196519989520311356e-03 -2.429160056635737419e-03 -4.801526374649256468e-04 2.980492776259779930e-03 1.586146187037229538e-03 5.883629433810710907e-03 -3.817398799583315849e-03 -1.922058290801942348e-03 -4.328416194766759872e-03 -6.229875143617391586e-04 1.305862143635749817e-02 8.920005522668361664e-03 1.313224900513887405e-02 -7.383963093161582947e-03 2.499699359759688377e-03 -4.059357568621635437e-03 -1.331525202840566635e-02 -4.328552633523941040e-03 1.387033797800540924e-02 -9.820410050451755524e-03 -7.012197747826576233e-04 1.369637669995427132e-03 -8.777670445851981640e-04 -9.696054272353649139e-03 3.516078926622867584e-03 -1.297666504979133606e-02 3.413903294131159782e-03 -7.646099547855556011e-04 -9.416054934263229370e-03 1.297464943490922451e-03 7.072429871186614037e-04 -8.705469779670238495e-03 4.435147158801555634e-03 -4.803141579031944275e-03 -8.748188614845275879e-03 9.700468741357326508e-03 -1.942168734967708588e-02 6.233808118849992752e-03 -1.670313812792301178e-02 1.032921671867370605e-02 5.958139430731534958e-03 1.065001342794857919e-04 6.919065024703741074e-03 -1.394989155232906342e-02 2.439835108816623688e-02 -1.482313126325607300e-02 -3.784113563597202301e-03 -1.101773697882890701e-03 -1.591365598142147064e-02 -1.759351603686809540e-02 1.026120875030755997e-02 -1.443345751613378525e-02 -1.118786982260644436e-03 -1.960959285497665405e-02
1.131180441007018089e-03 -2.710658684372901917e-02 -1.831324072554707527e-03 2.242473419755697250e-03 -2.812528517097234726e-03 1.361016836017370224e-02 -5.498267244547605515e-03 -1.182076637633144855e-03 -8.242784067988395691e-03 8.917819708585739136e-03 1.566113345324993134e-02 -2.119875699281692505e-02 -1.416748296469449997e-02 -4.176636692136526108e-03 -2.056872704997658730e-03 -1.149770058691501617e-02 1.308044698089361191e-02 -1.847764797275885940e-04 -1.346752233803272247e-02 2.974201459437608719e-03 8.554968982934951782e-03 -8.350793272256851196e-03 4.687426611781120300e-03 -5.353055428713560104e-03 -3.606918035075068474e-04 -4.332360113039612770e-04 5.292822141200304031e-03 -8.225320838391780853e-03 1.708197034895420074e-02 -1.460016239434480667e-03 8.646864444017410278e-03 2.091758651658892632e-03 1.854273839853703976e-03 -9.692107327282428741e-03 -5.677284207195043564e-03 -8.689515292644500732e-03 6.472958717495203018e-03 -1.732455752789974213e-02 -2.537666587159037590e-03 8.961804211139678955e-03 3.156348364427685738e-03 -1.696259528398513794e-02 7.231799419969320297e-03 -2.328957431018352509e-02 -1.314518880099058151e-02 1.215391792356967926e-02 -5.484961904585361481e-03 -1.197419711388647556e-03 -8.181205950677394867e-03 6.226012483239173889e-03 -8.047764189541339874e-03 7.664184551686048508e-03 1.785492204362526536e-04 -1.420077518559992313e-03 1.288670231588184834e-03 1.637342385947704315e-02 -3.517159260809421539e-03 1.860479451715946198e-02 6.944777444005012512e-03 6.414345931261777878e-03 4.545217379927635193e-03 2.458703937008976936e-03 4.325021523982286453e-03 9.401869028806686401e-03 4.203249700367450714e-03 1.071023475378751755e-02 -2.820521825924515724e-03 -2.278164960443973541e-03 -1.919869217090308666e-03 7.531815674155950546e-03 -3.568340558558702469e-03 -1.718601584434509277e-02 4.824525211006402969e-03 5.056271795183420181e-03 -5.080046830698847771e-04 -4.984850529581308365e-03 -1.860669068992137909e-02 5.225447006523609161e-03 1.585868932306766510e-02 -2.340447856113314629e-03 -2.196997869759798050e-03 3.472811542451381683e-03 -2.189844613894820213e-03 3.523679450154304504e-02 1.226985361427068710e-03 8.805762045085430145e-04 -2.418717369437217712e-03 8.595897816121578217e-03 -1.668736338615417480e-02 -2.099993289448320866e-04 6.565431598573923111e-03 1.655489392578601837e-02 9.145904914475977421e-04 -7.552293594926595688e-03 -5.582551937550306320e-03 -1.521832775324583054e-02 2.000211505219340324e-03 -1.177698024548590183e-03 4.192471969872713089e-03 -6.840937305241823196e-03 -1.107330713421106339e-02 4.896764177829027176e-03 1.059297379106283188e-02 -3.972616512328386307e-03 -1.401631534099578857e-02 3.156195161864161491e-03 -3.439179388806223869e-03 -6.209957879036664963e-03 2.739599207416176796e-03 -1.991356490179896355e-03 -2.215678989887237549e-02 3.403204958885908127e-03 -9.529674425721168518e-03 -1.470798067748546600e-02 -1.312310341745615005e-03 -1.714038895443081856e-03 2.926604356616735458e-03 -1.610488747246563435e-03 -7.271819282323122025e-03 -7.244892884045839310e-03 5.746007431298494339e-03 -1.480380259454250336e-02 -2.068989351391792297e-02 7.916635833680629730e-03 -1.068366342224180698e-03 -1.055999964592047036e-04 -6.103712134063243866e-03 -1.754671917296946049e-03 1.446001231670379639e-02 -9.738601744174957275e-03 3.737822640687227249e-03 -6.918733473867177963e-03 1.329727965639904141e-04 -4.780741408467292786e-03 -1.578360213898122311e-03 -6.979860365390777588e-03 -6.902008783072233200e-03 -3.117181127890944481e-03 -1.858964189887046814e-02 -4.779360722750425339e-03 1.084809657186269760e-02 -8.327304385602474213e-03 6.626716814935207367e-03 5.506735760718584061e-03 -1.340758800506591797e-02 -2.451393939554691315e-02 -1.807044260203838348e-02 -4.918144084513187408e-03 -1.591847103554755449e-04 1.027204748243093491e-02 4.807392135262489319e-03 -7.099720649421215057e-03 -7.459264248609542847e-03 -1.103371474891901016e-02 6.901227869093418121e-03 1.096808630973100662e-02 -1.179529912769794464e-02 1.541862497106194496e-03 -8.143397979438304901e-03 -1.122258952818810940e-03 1.063038827851414680e-03 -1.787873188732191920e-04 5.153846461325883865e-03 -5.772194825112819672e-03 -3.972707199864089489e-04 2.408023457974195480e-03 -5.437499377876520157e-03 9.558439254760742188e-03 -1.236702082678675652e-03 -4.820439964532852173e-03 1.753389486111700535e-03 -3.751938464120030403e-03 -1.938344351947307587e-02 8.093227734207175672e-06 -2.776302397251129150e-03 -3.700185567140579224e-03 -4.033199045807123184e-03 2.479708753526210785e-03 -8.975455537438392639e-03 1.518818549811840057e-02 -1.778182107955217361e-03 -4.355125711299479008e-04 5.195067264139652252e-03 -1.030174782499670982e-03 -6.671735551208257675e-03 -2.513549663126468658e-02 2.863722620531916618e-04 5.028308834880590439e-03 -1.776324352249503136e-03 -2.890196163207292557e-03 -8.315067738294601440e-03 -2.165520330891013145e-03 -8.502476848661899567e-03 -5.362509284168481827e-03 -4.910872783511877060e-03 -1.145821224781684577e-04 -1.333924569189548492e-02 -4.222570918500423431e-03 -3.711438272148370743e-03 3.751402022317051888e-03 -1.507151313126087189e-02 -3.852210706099867821e-03 5.019659642130136490e-03 9.522153064608573914e-03 -4.165020305663347244e-03 3.077552886679768562e-03 1.711676362901926041e-03 -1.805043220520019531e-02 1.024701632559299469e-02 -3.361809300258755684e-03 -7.153403013944625854e-03 -1.190679031424224377e-03 -3.708242671564221382e-03 -6.989557296037673950e-03 -1.170839555561542511e-02 -2.235251106321811676e-02 -2.026770671363919973e-04 -1.537786610424518585e-02 2.019076840952038765e-03 -5.331262946128845215e-03 2.507524332031607628e-04 1.318683847784996033e-02 -1.770311617292463779e-03 3.303918754681944847e-03 2.118216129019856453e-03 -1.049584522843360901e-02 5.565093597397208214e-04 -6.461438722908496857e-03 -4.656455479562282562e-03 -4.061175975948572159e-03 1.948879449628293514e-03 3.851580899208784103e-03 3.065865486860275269e-03 -9.731831029057502747e-03 8.896001381799578667e-04 -8.245976641774177551e-03 -2.200779039412736893e-03 1.716796308755874634e-03 -5.328243132680654526e-03 8.411785587668418884e-03 -1.369696203619241714e-02 -2.262919954955577850e-02 -7.403170457109808922e-05 2.283025160431861877e-02 2.202341798692941666e-03 -1.084922254085540771e-02 1.984114013612270355e-02 2.235122956335544586e-02 -2.341175219044089317e-03 4.472698550671339035e-03 2.688548061996698380e-03 -1.928563578985631466e-03 -3.972154110670089722e-03 -8.535405620932579041e-03 -3.229878610000014305e-03 6.807447411119937897e-03
-6.504281423985958099e-03 1.030095946043729782e-02 -9.554807096719741821e-03 -9.284670464694499969e-03 6.618069019168615341e-03 3.325653448700904846e-02 -5.878346506506204605e-03 2.483864547684788704e-03 1.983452215790748596e-02 -1.123978290706872940e-02 -9.423010982573032379e-03 -6.097448989748954773e-03 1.271272194571793079e-03 5.430263467133045197e-03 -3.685723291710019112e-03 8.594694547355175018e-03 3.920449875295162201e-03 -2.123077400028705597e-03 -3.596209455281496048e-03 2.654569922015070915e-03 -4.249406978487968445e-03 -1.115020550787448883e-02 -7.762654218822717667e-03 -1.561835315078496933e-02 -7.946465164422988892e-03 6.468012928962707520e-03 3.047862555831670761e-03 -6.540146190673112869e-03 -1.062301080673933029e-02 -4.018546314910054207e-04 -1.292382925748825073e-02 6.596851628273725510e-03 -5.790438968688249588e-03 2.052103355526924133e-02 -3.701467649079859257e-04 2.294961363077163696e-03 -2.270139986649155617e-03 -3.380266483873128891e-03 9.587056003510951996e-03 5.304321646690368652e-03 3.589598461985588074e-03 -5.210907664149999619e-03 -1.086130738258361816e-02 8.126268163323402405e-03 -7.147986907511949539e-03 -3.522991901263594627e-03 -4.144445993006229401e-04 1.790125505067408085e-03 5.950575228780508041e-03 -1.145642483606934547e-03 5.767860449850559235e-03 -2.000669389963150024e-02 9.221103973686695099e-03 -1.057619811035692692e-03 5.199896171689033508e-03 -2.895711688324809074e-03 5.022206809371709824e-03 1.002191752195358276e-02 2.844008849933743477e-03 5.600512493401765823e-03 -4.719099029898643494e-03 8.502461132593452930e-04 4.075680393725633621e-03 -9.009386412799358368e-03 5.688694771379232407e-03 1.940395124256610870e-02 8.575647138059139252e-03 1.288914866745471954e-02 6.194262532517313957e-04 1.410779356956481934e-02 1.399803534150123596e-02 -7.021011319011449814e-03 1.991789031308144331e-04 2.384653082117438316e-03 -9.857871336862444878e-04 -3.040417563170194626e-03 1.067357510328292847e-02 2.035395056009292603e-02 1.958581618964672089e-02 1.251450972631573677e-03 -1.267056073993444443e-02 1.332440995611250401e-03 -3.711218480020761490e-03 8.446550928056240082e-04 1.445921231061220169e-02 1.003230456262826920e-02 7.276836549863219261e-05 6.636968348175287247e-03 -2.879969589412212372e-02 6.771296611987054348e-04 1.253629568964242935e-03 7.756079139653593302e-05 -7.864893996156752110e-04 -1.118011493235826492e-02 -1.152318995445966721e-02 -1.138558704406023026e-02 6.151927635073661804e-03 8.039294742047786713e-03 1.882677897810935974e-03 1.180290710180997849e-03 -3.013177309185266495e-03 4.433413036167621613e-03 -1.601869473233819008e-03 1.421751920133829117e-03 7.247549947351217270e-03 -8.561633527278900146e-03 -1.069031539373099804e-03 -2.880847547203302383e-03 1.360165048390626907e-02 -9.460731409490108490e-03 5.145201459527015686e-03 -2.455654030200093985e-04 -8.750285953283309937e-03 2.668147440999746323e-03 9.671784937381744385e-04 -1.360031310468912125e-03 -1.618254464119672775e-03 -3.482545493170619011e-03 5.437421612441539764e-03 3.548036911524832249e-04 -4.428684711456298828e-03 -1.843794435262680054e-02 -1.121118105947971344e-02 -1.188423018902540207e-02 4.687504842877388000e-03 -1.734361168928444386e-03 1.005923375487327576e-02 -1.674255705438554287e-03 -3.543889615684747696e-03 1.160602085292339325e-03 -1.737433951348066330e-03 -3.918375354260206223e-03 -1.407574675977230072e-02 9.740419685840606689e-03 7.326194900088012218e-04 1.938292756676673889e-02 -2.205172087997198105e-03 1.503308012615889311e-04 -1.121400017291307449e-02 -6.799667607992887497e-03 -2.262551104649901390e-03 -1.545677776448428631e-03 -8.784887380897998810e-03 -5.251276772469282150e-03 2.647392684593796730e-03 -6.380015984177589417e-03 -5.367693025618791580e-03 8.996078977361321449e-04 4.400853067636489868e-03 -8.003216236829757690e-03 2.351757604628801346e-03 2.646676264703273773e-03 -9.078740840777754784e-04 -4.011656623333692551e-03 7.490234449505805969e-03 -7.741886656731367111e-03 -1.442638132721185684e-02 -4.810480866581201553e-03 2.593125915154814720e-03 1.467215595766901970e-03 -9.734134073369204998e-04 4.729344509541988373e-03 -1.100645586848258972e-02 -5.447105504572391510e-03 2.533096075057983398e-02 -2.666958607733249664e-04 3.796182107180356979e-03 1.482055056840181351e-02 -4.380403552204370499e-03 2.560451976023614407e-04 -3.427742281928658485e-03 -4.664838314056396484e-03 1.097279693931341171e-02 -6.894764490425586700e-03 1.488917507231235504e-03 7.888540625572204590e-03 2.621748135425150394e-04 2.364393696188926697e-02 1.942686503753066063e-03 -2.677598223090171814e-02 1.149649173021316528e-02 -1.202613860368728638e-02 1.101283170282840729e-02 -5.359984468668699265e-03 4.655670782085508108e-04 3.114973427727818489e-03 -2.631835523061454296e-04 2.969339024275541306e-03 9.907872881740331650e-04 6.831162609159946442e-04 -5.229655289440415800e-05 2.933438227046281099e-04 1.705740951001644135e-02 3.600961994379758835e-03 5.554020870476961136e-03 4.255933687090873718e-03 -7.915958762168884277e-03 -8.751362329348921776e-04 2.152939792722463608e-03 -5.840294761583209038e-04 -2.442865865305066109e-03 -8.299653418362140656e-03 2.176018198952078819e-03 -8.857152424752712250e-03 9.844105225056409836e-04 -4.697130993008613586e-03 -3.278205869719386101e-03 2.862410619854927063e-03 -7.052318193018436432e-03 4.902182612568140030e-03 -5.294164875522255898e-04 -2.001937711611390114e-03 4.480327945202589035e-03 -3.800831269472837448e-03 -7.460549823008477688e-04 1.139152212999761105e-03 -1.528846565634012222e-03 -3.756170719861984253e-02 -1.111983228474855423e-02 7.396483793854713440e-03 8.570122532546520233e-03 -1.428631320595741272e-02 -1.053793728351593018e-02 -2.826982818078249693e-04 1.640380942262709141e-03 -5.969000048935413361e-03 -2.565342932939529419e-03 -3.662938019260764122e-03 1.163560082204639912e-03 3.988319542258977890e-03 -6.232711893972009420e-05 -2.046335255727171898e-03 -4.134084563702344894e-03 -1.278728339821100235e-02 -9.078410454094409943e-03 2.490357437636703253e-04 -5.538489669561386108e-03 2.769286278635263443e-03 2.102527394890785217e-02 5.471191252581775188e-04 -7.484199479222297668e-03 -2.330966293811798096e-03 -2.499846043065190315e-03 -3.598315524868667126e-04 -4.746076650917530060e-03 1.851100102066993713e-02 -9.932494722306728363e-04 5.979018285870552063e-03 9.049080312252044678e-03 -1.508755143731832504e-03 2.261048881337046623e-03 -2.088445937260985374e-03 2.061774255707859993e-03 1.228907611221075058e-02 -3.092112252488732338e-03 1.986968563869595528e-03
-7.745747920125722885e-03 2.238833531737327576e-02 6.904263864271342754e-04 -1.863061916083097458e-03 -8.761500939726829529e-03 -6.524329539388418198e-03 1.276775961741805077e-03 -3.752756863832473755e-03 1.002581976354122162e-02 -7.099852082319557667e-04 1.813502050936222076e-02 1.253765728324651718e-02 -1.088404189795255661e-02 5.828882101923227310e-03 4.127654712647199631e-03 3.565361024811863899e-03 -1.638261042535305023e-02 -2.882182365283370018e-03 4.136317002121359110e-04 -1.148660900071263313e-03 8.214009925723075867e-03 2.972695976495742798e-03 -2.344699110835790634e-03 -7.539963116869330406e-04 -3.285627812147140503e-03 4.518591798841953278e-03 -1.034919056110084057e-03 -3.529461100697517395e-03 7.838283665478229523e-03 -1.699675573036074638e-03 1.248520566150546074e-03 1.878593175206333399e-04 1.718592946417629719e-03 8.502360287820920348e-05 1.957016065716743469e-03 1.978160435101017356e-05 3.548269392922520638e-03 6.662048399448394775e-03 5.545675288885831833e-03 -1.547320373356342316e-02 2.983188489452004433e-03 3.551370464265346527e-03 -5.281381309032440186e-04 9.361310862004756927e-03 -3.665358526632189751e-03 9.806376183405518532e-04 -2.381210506428033113e-04 1.648167381063103676e-04 1.008770661428570747e-03 4.523287992924451828e-03 -6.835093721747398376e-03 -6.487824022769927979e-03 3.389249322935938835e-04 -1.562998630106449127e-03 -2.294739475473761559e-03 2.672859409358352423e-04 -1.262295874767005444e-03 9.642259217798709869e-03 -1.049118582159280777e-04 1.019923831336200237e-03 1.581227593123912811e-02 -7.994765182957053185e-04 2.141785109415650368e-03 -2.068925416097044945e-03 -1.404378097504377365e-02 -9.976933710277080536e-03 6.490367464721202850e-03 -9.721582755446434021e-03 -1.266655744984745979e-03 -1.629526494070887566e-03 6.342982873320579529e-03 1.140575669705867767e-02 5.567411426454782486e-03 2.127273008227348328e-03 1.914347987622022629e-03 -4.817867651581764221e-03 -3.751731943339109421e-03 -7.387438789010047913e-03 2.913022413849830627e-03 -8.851903317008691374e-07 3.455551923252642155e-04 1.129693072289228439e-02 -6.097621517255902290e-04 -4.979644902050495148e-03 2.188477665185928345e-03 3.039529314264655113e-03 -5.968902260065078735e-03 -4.074429161846637726e-03 5.673973355442285538e-03 -2.446070080623030663e-03 1.038779038935899734e-02 -3.172480966895818710e-03 -5.826545529998838902e-04 1.474275602959096432e-03 1.551537308841943741e-02 -5.243809428066015244e-03 1.780389342457056046e-03 -1.475336030125617981e-02 -7.511738687753677368e-03 -5.853249691426753998e-03 -3.124056616798043251e-03 1.142423413693904877e-02 -8.630923693999648094e-04 4.569665528833866119e-03 8.520754054188728333e-03 -2.377543365582823753e-03 -2.538381610065698624e-03 -5.016802810132503510e-03 3.949258942157030106e-03 9.973737411201000214e-03 -5.752885714173316956e-03 -7.289433851838111877e-03 5.096993409097194672e-03 -1.044418103992938995e-02 1.264871913008391857e-03 2.123451093211770058e-03 3.504640655592083931e-03 -2.113919705152511597e-02 -3.769064787775278091e-03 -1.111343968659639359e-03 -4.479540511965751648e-03 -1.156140398234128952e-02 8.227385580539703369e-03 3.545908257365226746e-03 -5.506172892637550831e-04 8.517964743077754974e-04 -1.717094448395073414e-03 -5.741462577134370804e-03 -5.433835554867982864e-03 -5.567779880948364735e-04 2.079928759485483170e-03 3.303665202111005783e-03 3.686474636197090149e-03 1.037881057709455490e-02 2.604648470878601074e-04 1.542045938549563289e-04 -4.661248996853828430e-03 -4.590902477502822876e-03 -5.186127498745918274e-03 2.993305679410696030e-03 3.298541065305471420e-03 6.269323639571666718e-03 -6.378953810781240463e-03 2.212754217907786369e-03 -1.085546892136335373e-02 7.939557544887065887e-03 -1.376201119273900986e-02 5.091732833534479141e-03 1.083453069441020489e-03 -1.546514220535755157e-03 1.713020959869027138e-03 1.293892040848731995e-03 8.736450399737805128e-05 -1.802989165298640728e-03 5.971618462353944778e-03 -8.566820994019508362e-03 6.112129427492618561e-03 -1.841975492425262928e-03 -2.938789315521717072e-03 3.866043698508292437e-04 6.186569575220346451e-03 -5.302024510456249118e-05 -9.121974930167198181e-03 -1.162078464403748512e-03 -9.362637996673583984e-03 6.995578878559172153e-04 -2.420944394543766975e-03 -1.137032639235258102e-02 4.022470209747552872e-03 -1.305179856717586517e-02 2.745536854490637779e-03 4.735817667096853256e-03 1.852700952440500259e-03 -4.925053566694259644e-03 1.455301884561777115e-03 -4.769505932927131653e-03 -8.613800164312124252e-04 1.764757209457457066e-03 -3.801141574513167143e-04 2.546742325648665428e-03 -3.450644202530384064e-03 -9.010055102407932281e-03 1.197572983801364899e-02 1.020301226526498795e-02 1.090325322002172470e-02 2.219234593212604523e-03 -1.161413849331438541e-03 2.520535374060273170e-03 9.260184597223997116e-04 -2.955378149636089802e-04 -6.308196578174829483e-03 -5.870194872841238976e-04 7.734669838100671768e-03 -9.588395245373249054e-03 -1.946411654353141785e-02 -1.567977946251630783e-03 -5.901641212403774261e-03 7.728280033916234970e-04 -1.112329307943582535e-03 5.098408553749322891e-03 1.250094384886324406e-03 1.162957772612571716e-02 4.765706398757174611e-05 -5.368132144212722778e-03 -3.286726772785186768e-03 -4.919133614748716354e-03 -4.071353760082274675e-04 -5.099807865917682648e-03 7.760803680866956711e-03 -1.763901906087994576e-03 1.543299295008182526e-03 1.365221850574016571e-02 -4.108886234462261200e-03 -8.548612706363201141e-03 -3.054398577660322189e-03 1.299529243260622025e-02 -3.955514635890722275e-03 1.636975910514593124e-03 -2.897097263485193253e-03 -8.342314395122230053e-04 -5.954971071332693100e-03 3.378902096301317215e-03 6.191297434270381927e-03 2.105641644448041916e-03 1.168284798040986061e-03 8.624091744422912598e-03 -3.431658726185560226e-03 6.689595989882946014e-03 7.225517183542251587e-04 -4.744639154523611069e-03 3.433450357988476753e-03 -6.909343414008617401e-03 -1.412014476954936981e-03 5.897010210901498795e-03 -1.748403417877852917e-03 -2.327428956050425768e-04 -1.508248783648014069e-02 -4.304150119423866272e-03 9.544778615236282349e-03 1.660799258388578892e-03 1.359262131154537201e-02 -8.087445050477981567e-03 4.053878132253885269e-03 3.522749757394194603e-03 -1.589707797393202782e-03 7.263957988470792770e-03 2.402315847575664520e-03 -9.611761197447776794e-04 1.401610486209392548e-02 6.282182584982365370e-05 4.794072359800338745e-03 6.971620605327188969e-04 1.897223293781280518e-03 3.626350779086351395e-03 5.368328420445322990e-04 6.021811161190271378e-03
-1.131848804652690887e-02 1.501245191320776939e-03 -7.031803950667381287e-03 4.006758797913789749e-03 1.616642065346240997e-02 -6.045602262020111084e-03 -2.263322100043296814e-02 2.984151616692543030e-02 -1.965128444135189056e-02 -7.463890360668301582e-04 5.514599848538637161e-03 2.646163478493690491e-02 7.808962254785001278e-05 3.338180249556899071e-03 -2.209363505244255066e-03 1.554498262703418732e-02 4.016818478703498840e-03 -3.650890430435538292e-03 -3.179753664880990982e-03 -3.564235521480441093e-04 3.522784635424613953e-02 5.444144364446401596e-03 -1.345969457179307938e-02 1.499765831977128983e-02 1.139833778142929077e-02 -4.053580574691295624e-03 2.864192239940166473e-03 1.375032030045986176e-02 6.865607574582099915e-03 1.443526591174304485e-03 -1.730382069945335388e-02 1.757114566862583160e-02 4.294606857001781464e-03 -5.660030525177717209e-03 1.563337072730064392e-02 2.333116903901100159e-02 9.625348262488842010e-03 -5.666680168360471725e-03 2.708263881504535675e-02 -3.313105180859565735e-02 1.755458675324916840e-02 -8.612479083240032196e-03 1.099557988345623016e-02 2.178920805454254150e-02 9.598807431757450104e-03 -2.010251395404338837e-02 1.683538034558296204e-02 -2.283545909449458122e-03 9.087768383324146271e-03 1.860184478573501110e-03 -1.133956573903560638e-02 -1.999483257532119751e-02 -3.663320327177643776e-03 -5.693559069186449051e-03 5.147295072674751282e-03 -1.252328790724277496e-02 3.245453815907239914e-03 3.113581566140055656e-03 -4.572250414639711380e-03 -4.674387455452233553e-04 -1.238714717328548431e-02 1.576914568431675434e-03 -2.383563696639612317e-04 2.151477336883544922e-02 -1.210162765346467495e-03 1.571669802069664001e-02 -2.575251972302794456e-03 1.207878720015287399e-02 1.528332359157502651e-03 -1.209419500082731247e-02 3.252738714218139648e-02 1.413101889193058014e-02 -3.634675638750195503e-03 -8.855050429701805115e-03 -1.036432851105928421e-02 -7.015902083367109299e-03 1.581926643848419189e-02 -2.648759447038173676e-02 -2.259305492043495178e-02 1.048528496176004410e-02 -1.067889854311943054e-03 -6.200534291565418243e-03 -3.731737378984689713e-03 -2.220407128334045410e-02 -3.456105664372444153e-02 -1.272403635084629059e-02 1.949469931423664093e-02 -1.409881166182458401e-03 -3.648056089878082275e-02 -5.729314871132373810e-04 2.125270292162895203e-02 3.391726315021514893e-02 1.643796917051076889e-03 -1.218287553638219833e-02 7.445142138749361038e-03 -1.059492491185665131e-02 1.463580038398504257e-02 -8.748268708586692810e-03 -1.525344094261527061e-03 -8.396232500672340393e-03 1.379991136491298676e-02 -3.889034036546945572e-03 -8.342312648892402649e-04 -6.002181209623813629e-03 -1.683611422777175903e-02 4.175335634499788284e-03 -1.003596466034650803e-02 -2.062031440436840057e-02 1.671548560261726379e-02 2.448670193552970886e-02 -1.034648250788450241e-02 1.544836070388555527e-02 1.148400548845529556e-02 -5.230610258877277374e-03 -9.612482972443103790e-03 -1.795148942619562149e-03 1.078208093531429768e-03 8.439489640295505524e-03 1.747548696584999561e-03 -1.700936071574687958e-02 -4.608917981386184692e-03 9.174536913633346558e-03 5.933663807809352875e-03 2.240049419924616814e-03 5.170960444957017899e-03 2.575971418991684914e-03 -4.981883801519870758e-03 3.024784848093986511e-03 -3.182594478130340576e-02 -4.508173558861017227e-03 -8.176069706678390503e-03 8.666701614856719971e-04 1.415602583438158035e-02 1.095030829310417175e-02 -2.821074798703193665e-03 -3.111156448721885681e-02 -2.388204634189605713e-02 1.244541257619857788e-02 -2.794995158910751343e-02 -3.634262830018997192e-03 9.884224273264408112e-03 3.474526165518909693e-04 2.421837067231535912e-03 -9.273057803511619568e-03 1.918963529169559479e-02 -3.211680427193641663e-02 3.089303150773048401e-02 3.313403576612472534e-03 6.665338296443223953e-03 2.978354459628462791e-03 5.486344918608665466e-03 -1.646119542419910431e-02 -6.852029357105493546e-03 -2.377784065902233124e-02 -8.094179444015026093e-03 6.930692587047815323e-03 6.760349031537771225e-03 -3.031181544065475464e-02 5.923582706600427628e-03 8.695519063621759415e-04 -1.857329532504081726e-02 -2.996089169755578041e-03 1.932979747653007507e-02 -1.440345658920705318e-03 2.420216053724288940e-02 1.175549905747175217e-02 1.708920113742351532e-02 -6.461787037551403046e-03 -2.008593454957008362e-02 -1.740939170122146606e-02 6.173094734549522400e-03 -5.384693853557109833e-03 -1.330134645104408264e-02 1.285462640225887299e-02 -5.786668974906206131e-03 -2.990103699266910553e-02 -8.405617554672062397e-04 1.565810479223728180e-02 -7.452411111444234848e-03 1.688184402883052826e-02 -1.359124854207038879e-02 -1.636911765672266483e-03 -1.648626662790775299e-02 -1.313611026853322983e-02 -1.330722402781248093e-02 8.981863968074321747e-03 -2.882855013012886047e-03 8.028627489693462849e-04 -1.233873702585697174e-02 -2.573252422735095024e-03 1.199155673384666443e-02 -9.656664333306252956e-04 6.256699562072753906e-03 1.684284419752657413e-03 1.277684932574629784e-03 -1.993721583858132362e-03 7.904457859694957733e-03 -1.024452224373817444e-02 -1.946629025042057037e-02 1.724143698811531067e-02 9.847844019532203674e-03 2.539586275815963745e-02 -4.776131827384233475e-03 -6.752373185008764267e-03 -1.537000201642513275e-02 5.111307837069034576e-03 -9.197350591421127319e-03 6.515008397400379181e-03 -1.851466484367847443e-02 4.918748745694756508e-04 8.653235621750354767e-03 4.680123180150985718e-03 -3.921795170754194260e-03 1.669765263795852661e-02 1.067183446139097214e-02 -2.902294136583805084e-02 -7.023819256573915482e-03 -2.511689066886901855e-02 -2.794559858739376068e-02 -8.604269474744796753e-03 1.731180353090167046e-03 -7.372210733592510223e-03 -8.894915692508220673e-03 1.628700084984302521e-02 7.734194514341652393e-04 8.012984879314899445e-03 -9.003152139484882355e-03 3.967620432376861572e-03 -7.784526329487562180e-03 -2.538644336163997650e-02 -3.872574015986174345e-04 4.629782401025295258e-03 1.057887493516318500e-04 1.632715947926044464e-02 1.435552071779966354e-02 -4.135270603001117706e-03 7.904792204499244690e-03 7.716858293861150742e-03 2.014112100005149841e-02 2.169494284316897392e-03 -3.697877004742622375e-02 -4.299329966306686401e-02 4.433241672813892365e-03 -1.133644673973321915e-02 7.742693182080984116e-03 1.204315666109323502e-02 7.534264586865901947e-03 5.885208956897258759e-03 5.443498864769935608e-02 -1.629829239391256124e-05 -1.117244735360145569e-02 -9.892609901726245880e-03 -2.327021583914756775e-02 -1.167217828333377838e-02 -1.754741743206977844e-02 4.912901204079389572e-03
-9.218401275575160980e-03 -1.024040626361966133e-03 6.969828158617019653e-03 1.452055387198925018e-02 -2.055194973945617676e-02 -1.943122595548629761e-02 -1.360390149056911469e-02 -5.908414721488952637e-03 -7.537873461842536926e-04 1.301815500482916832e-03 1.357024535536766052e-02 1.675223698839545250e-03 1.217302307486534119e-02 -1.664029317907989025e-03 -4.137634299695491791e-03 1.205502543598413467e-02 -1.058305706828832626e-02 4.526681732386350632e-03 5.758206360042095184e-03 -2.197744557633996010e-03 -1.415073033422231674e-02 -1.304643228650093079e-02 6.361439358443021774e-03 -1.416732836514711380e-02 -2.345112152397632599e-02 -5.979409907013177872e-03 4.601023101713508368e-04 1.771213114261627197e-02 2.503107860684394836e-02 -2.819523448124527931e-03 5.940620321780443192e-04 3.419417655095458031e-03 -8.105398155748844147e-03 4.905838519334793091e-03 1.007970888167619705e-02 6.819483824074268341e-04 5.440421868115663528e-03 -9.421420283615589142e-03 4.355691839009523392e-03 -1.501349452883005142e-02 7.332911482080817223e-04 7.194561418145895004e-03 -1.450962666422128677e-02 -1.100406143814325333e-02 -2.474277652800083160e-02 -1.272588595747947693e-02 1.890804414870217443e-04 -6.673152092844247818e-03 -8.322403766214847565e-03 -1.638899091631174088e-03 1.520905294455587864e-03 -5.135776475071907043e-03 -2.462544478476047516e-02 6.833352614194154739e-03 3.760292660444974899e-03 2.414976805448532104e-02 2.204074524343013763e-03 -8.013682672753930092e-04 8.197838906198740005e-04 6.858034757897257805e-04 1.358357723802328110e-02 1.824650797061622143e-03 1.936100074090063572e-03 -1.763193495571613312e-02 2.284270245581865311e-03 -1.865374296903610229e-02 1.853601820766925812e-02 -6.115107680670917034e-04 -1.216477947309613228e-03 5.406884010881185532e-03 -8.064507506787776947e-03 2.233937010169029236e-02 -6.222834344953298569e-03 -9.379330091178417206e-03 5.509386304765939713e-03 1.062002312391996384e-02 -1.772741973400115967e-02 4.055949102621525526e-04 -2.174207009375095367e-02 -6.939390441402792931e-04 2.942745387554168701e-02 1.761736162006855011e-02 1.239936100319027901e-03 -8.815112523734569550e-03 -1.344279386103153229e-02 3.944761119782924652e-03 1.169320940971374512e-02 -5.556933465413749218e-04 -1.350535731762647629e-02 -4.404787439852952957e-03 1.880201138556003571e-02 -4.510131664574146271e-03 -5.353493615984916687e-03 -1.711242087185382843e-02 -9.655985981225967407e-03 4.984155762940645218e-03 3.034825902432203293e-03 1.178832352161407471e-02 -1.855073147453367710e-03 3.860386554151773453e-03 -9.713582694530487061e-03 2.537854015827178955e-02 -9.667378850281238556e-03 1.412787358276546001e-03 -2.124840684700757265e-04 4.317625425755977631e-03 -2.026176953222602606e-04 -8.664166554808616638e-03 -8.074809797108173370e-03 1.149975787848234177e-02 -1.073164213448762894e-02 -1.131426822394132614e-02 -2.306882524862885475e-03 6.218674127012491226e-03 1.227659871801733971e-03 7.514542434364557266e-03 -1.713482080958783627e-03 -2.678925637155771255e-03 -5.471846554428339005e-03 -3.651150502264499664e-03 8.700425736606121063e-03 -3.953820560127496719e-03 1.670514419674873352e-02 -3.243589075282216072e-03 6.351339630782604218e-03 3.382218303158879280e-03 8.611410856246948242e-03 -1.034432463347911835e-02 2.476959675550460815e-02 1.932252547703683376e-03 3.639904389274306595e-05 -1.630886574275791645e-03 4.474709276109933853e-03 3.160588443279266357e-03 -8.067467249929904938e-03 -2.246595174074172974e-02 1.493328745709732175e-04 -1.329673174768686295e-02 -2.059875801205635071e-02 9.586267988197505474e-04 1.463239453732967377e-02 8.679119870066642761e-03 -8.862029761075973511e-03 3.758794860914349556e-03 2.297402732074260712e-02 9.280809201300144196e-03 6.344615016132593155e-03 4.398942110128700733e-04 -7.155881728976964951e-03 -1.126804854720830917e-03 1.088407542556524277e-02 9.590095723979175091e-04 3.050940856337547302e-02 -1.800517668016254902e-03 -8.536563836969435215e-04 -4.312514793127775192e-03 4.880783613771200180e-03 5.934987217187881470e-03 -1.182556524872779846e-02 -3.132642945274710655e-03 -6.298750638961791992e-03 -4.387583117932081223e-03 -1.574622280895709991e-02 2.731132786720991135e-03 6.306307041086256504e-04 4.539236892014741898e-03 -7.256291341036558151e-03 2.499313093721866608e-02 8.508399128913879395e-03 -6.003638263791799545e-03 5.666649900376796722e-03 2.915907651185989380e-03 -2.622842788696289062e-03 1.597076538018882275e-03 1.602425938472151756e-03 1.757067628204822540e-02 6.691101472824811935e-03 -1.742376945912837982e-02 4.708529449999332428e-03 -3.391009569168090820e-02 2.070423588156700134e-02 1.387107931077480316e-02 4.106767941266298294e-03 4.411567933857440948e-03 3.055526176467537880e-03 -1.455773878842592239e-02 2.203659620136022568e-03 8.348045870661735535e-03 -7.667778525501489639e-03 -4.184162709861993790e-03 1.799847465008497238e-03 -1.302444958128035069e-03 -3.646543622016906738e-02 -2.691797167062759399e-02 -2.699478296563029289e-03 -1.194775849580764771e-02 1.395758986473083496e-02 -4.808472469449043274e-03 2.516255481168627739e-03 -5.335537716746330261e-03 1.110546942800283432e-02 1.174665521830320358e-02 -1.298976945690810680e-03 -1.584722194820642471e-03 -1.272851228713989258e-02 -8.809462189674377441e-03 5.977250169962644577e-03 -3.721543180290609598e-04 1.886114664375782013e-02 8.530155755579471588e-04 7.584230974316596985e-03 -1.221089065074920654e-02 6.576689891517162323e-03 -7.244498468935489655e-03 -1.707728207111358643e-02 -2.776836231350898743e-02 1.071234885603189468e-02 1.279540918767452240e-02 -2.204892784357070923e-02 1.026102923788130283e-03 1.680920133367180824e-03 1.130986027419567108e-02 -1.172920037060976028e-02 -4.051048774272203445e-03 7.866524159908294678e-03 2.115330658853054047e-02 -2.223628107458353043e-03 -1.195754855871200562e-02 -1.052610389888286591e-02 -2.004771493375301361e-02 -1.171887665987014771e-02 8.149798028171062469e-03 -8.032689802348613739e-03 -1.272780727595090866e-02 9.218391962349414825e-03 7.921420037746429443e-03 -9.964626282453536987e-03 -4.067094624042510986e-02 -1.346365269273519516e-02 -3.073638537898659706e-03 -1.279206294566392899e-02 -4.407501313835382462e-03 1.401053182780742645e-02 3.029001131653785706e-02 1.368760410696268082e-02 -1.129730138927698135e-02 4.349209833890199661e-03 8.772158995270729065e-03 -1.908087730407714844e-02 7.737206295132637024e-03 1.451342552900314331e-02 2.702813036739826202e-02 -1.084431167691946030e-02 1.152755599468946457e-02 -4.839495290070772171e-03 -4.206259269267320633e-03
6.572456099092960358e-03 1.064425305230543017e-04 7.890369743108749390e-03 7.133571431040763855e-03 -5.938961112406104803e-05 -2.912272326648235321e-02 1.612766878679394722e-03 -1.497771404683589935e-02 4.506229015532881021e-04 -1.506746467202901840e-02 7.453680504113435745e-03 1.267960295081138611e-02 5.105874966830015182e-03 -3.243820508942008018e-03 -1.311505096964538097e-03 5.180009640753269196e-03 -1.220970507711172104e-02 1.227802014909684658e-03 -2.149308472871780396e-02 -7.918329909443855286e-03 -9.943781420588493347e-03 1.084633916616439819e-02 3.671863814815878868e-03 -5.649833008646965027e-03 -4.728559404611587524e-03 -5.774369928985834122e-03 3.193285549059510231e-03 6.133606657385826111e-03 1.254686526954174042e-02 -7.002507918514311314e-04 -4.529740661382675171e-03 -4.547711287159472704e-04 -6.302246474660933018e-04 8.715022355318069458e-03 -2.837464679032564163e-03 2.733103698119521141e-03 -2.007413888350129128e-03 -1.447740290313959122e-02 -1.362671982496976852e-02 -8.989972993731498718e-03 1.285437727347016335e-03 2.566010691225528717e-03 -6.030034739524126053e-03 -8.046857081353664398e-03 -1.407457701861858368e-02 -6.114230956882238388e-03 -3.299393574707210064e-05 5.900028627365827560e-03 -2.159339142963290215e-03 2.565717091783881187e-03 5.348016042262315750e-03 7.834000512957572937e-03 -1.611746288836002350e-02 3.901121905073523521e-03 3.816695534624159336e-04 4.326339345425367355e-03 1.330596744082868099e-03 -4.167714214418083429e-04 -5.932064261287450790e-03 7.862814818508923054e-04 4.911605734378099442e-03 4.035442136228084564e-03 3.805610584095120430e-03 -1.273199333809316158e-03 8.608984760940074921e-03 -2.633128874003887177e-02 2.507069613784551620e-03 -1.075647678226232529e-02 -1.840353128500282764e-03 5.478250328451395035e-03 4.873958532698452473e-04 2.488771080970764160e-02 3.750693751499056816e-03 -4.484524019062519073e-03 5.175655707716941833e-03 8.843428804539144039e-04 -1.172416191548109055e-02 5.441108252853155136e-03 5.004420876502990723e-03 3.817728254944086075e-03 -1.778766163624823093e-04 3.406081721186637878e-02 1.848584506660699844e-03 1.946908887475728989e-03 8.628677576780319214e-03 2.615796402096748352e-03 -2.288747578859329224e-03 3.449045820161700249e-03 -1.123650930821895599e-03 -1.856933534145355225e-02 4.479212220758199692e-03 -2.728308085352182388e-03 -2.317668870091438293e-03 -4.548511467874050140e-03 -1.609691418707370758e-02 5.495503428392112255e-04 -2.481157192960381508e-03 3.771986113861203194e-03 1.599089708179235458e-03 6.690534763038158417e-03 -1.914269669214263558e-04 -9.091681800782680511e-03 -1.056953449733555317e-03 -1.628766418434679508e-03 -6.962744984775781631e-03 1.134766079485416412e-02 2.947641303762793541e-03 -1.351144257932901382e-02 -7.816777797415852547e-04 2.031650207936763763e-02 -1.188645418733358383e-02 -8.118852972984313965e-03 9.385957382619380951e-04 1.549144042655825615e-03 -1.281161908991634846e-03 3.832586109638214111e-03 1.883676624856889248e-03 1.572226989082992077e-03 6.952724652364850044e-04 -5.240780767053365707e-03 3.992868587374687195e-03 -1.502238214015960693e-03 -1.449372246861457825e-02 1.163468509912490845e-02 5.268898792564868927e-03 -1.193509087897837162e-03 2.597203245386481285e-03 -6.976230535656213760e-03 6.310201250016689301e-03 2.574118087068200111e-03 -5.143015296198427677e-04 1.393482787534594536e-03 -1.024653669446706772e-03 6.126736290752887726e-03 -9.264731779694557190e-03 5.787499831058084965e-04 3.841733851004391909e-04 -1.269362866878509521e-02 -1.968844607472419739e-02 1.431766315363347530e-03 2.306182309985160828e-02 1.658510975539684296e-02 1.453337608836591244e-03 1.259048003703355789e-03 2.208102523582056165e-04 3.691916354000568390e-03 1.028449460864067078e-02 6.111188326030969620e-03 -4.283938615117222071e-04 -5.170744843780994415e-03 2.833386184647679329e-03 -1.019875239580869675e-02 2.094833366572856903e-02 1.185215543955564499e-02 6.334711331874132156e-03 -1.669457880780100822e-03 2.711574314162135124e-03 3.362247487530112267e-03 9.059888543561100960e-04 1.333579421043395996e-03 -8.247976191341876984e-03 1.512952707707881927e-02 1.137864030897617340e-02 5.216525867581367493e-03 -6.516327150166034698e-03 -1.763755572028458118e-03 4.947024397552013397e-03 -6.493774708360433578e-03 1.152429357171058655e-02 -1.686582458205521107e-03 1.876104157418012619e-03 -2.331588184460997581e-04 9.730377234518527985e-03 2.562909154221415520e-03 9.914728434523567557e-05 5.606396123766899109e-03 5.967694334685802460e-03 -1.331339776515960693e-02 -4.342644388088956475e-05 -1.220840495079755783e-02 4.703641403466463089e-03 8.545091375708580017e-03 7.419899920932948589e-04 -8.834381587803363800e-03 7.471145596355199814e-03 -1.282377820461988449e-02 2.113529480993747711e-03 8.488110324833542109e-05 -6.595564540475606918e-03 1.654252177104353905e-03 -9.023080579936504364e-03 3.847306594252586365e-03 -2.065067924559116364e-02 -6.720387842506170273e-03 -1.736909151077270508e-02 -9.609349071979522705e-03 -8.324855938553810120e-03 -2.988241147249937057e-03 -4.844006616622209549e-03 -3.691625548526644707e-03 1.599768362939357758e-02 -5.804124288260936737e-03 -1.995835220441222191e-03 3.283029654994606972e-03 -4.729917272925376892e-03 -5.137827247381210327e-03 1.964714610949158669e-03 2.052846178412437439e-02 2.944052033126354218e-02 4.261236463207751513e-04 -4.246673779562115669e-04 -7.444646209478378296e-03 6.262273527681827545e-03 1.072008628398180008e-03 -4.330166615545749664e-03 -1.482921279966831207e-02 1.154699362814426422e-03 -7.047401741147041321e-03 9.798228740692138672e-03 6.173158995807170868e-03 -2.114942763000726700e-03 3.323628101497888565e-03 -1.447097398340702057e-02 -1.463424996472895145e-03 1.236790907569229603e-03 1.272460073232650757e-02 -3.070877632126212120e-03 -2.114462107419967651e-02 -1.656135427765548229e-03 1.497548073530197144e-02 -8.269969373941421509e-03 3.605920588597655296e-03 3.249048721045255661e-03 5.660761613398790359e-03 1.963962614536285400e-02 4.628659517038613558e-04 4.713071975857019424e-03 3.434726735576987267e-03 5.325843114405870438e-03 1.647550147026777267e-03 -1.588579267263412476e-03 -1.527627278119325638e-02 3.860771423205733299e-03 8.296029642224311829e-03 -2.304773544892668724e-03 2.060808474197983742e-03 1.548614911735057831e-02 1.968097873032093048e-02 -1.914535881951451302e-03 2.237390261143445969e-03 4.968461580574512482e-03 1.803026162087917328e-02 -1.304832007735967636e-02 3.251131391152739525e-03 -5.478939041495323181e-03 -7.139978697523474693e-04
-1.538759563118219376e-03 -7.622620556503534317e-03 -8.982437662780284882e-03 1.687371730804443359e-02 4.148637875914573669e-03 1.331901922821998596e-02 -1.415607146918773651e-02 -1.255490351468324661e-02 5.779027938842773438e-03 -7.853676564991474152e-03 -3.002412151545286179e-03 1.262863818556070328e-02 1.209531724452972412e-02 3.659338108263909817e-05 -3.172467229887843132e-03 5.078034009784460068e-03 -1.118164602667093277e-02 -3.207136178389191628e-03 -5.766222719103097916e-03 3.955356776714324951e-03 -2.081591449677944183e-02 1.427273359149694443e-02 -1.756865344941616058e-02 -1.442821882665157318e-02 -9.804373839870095253e-04 -1.503722276538610458e-03 -1.900689530884847045e-04 8.326356299221515656e-03 -9.190416894853115082e-03 3.675394691526889801e-04 8.916318183764815331e-04 -7.962466217577457428e-03 3.131184028461575508e-03 2.240476943552494049e-02 5.375531036406755447e-03 1.207081787288188934e-02 2.978676231577992439e-03 8.784619159996509552e-03 1.119522750377655029e-02 -1.710346154868602753e-02 -2.067564520984888077e-03 -4.291530698537826538e-03 7.695845561102032661e-04 -6.896598264575004578e-03 -1.022865436971187592e-02 1.705144532024860382e-02 -7.957512512803077698e-03 2.328838221728801727e-03 1.679033972322940826e-03 -2.297535073012113571e-03 7.414977066218852997e-03 6.393894553184509277e-03 -2.002735389396548271e-03 4.536430817097425461e-03 -3.533335868269205093e-03 -1.072239596396684647e-02 6.641177926212549210e-03 5.146588664501905441e-03 4.135591909289360046e-03 -1.123512280173599720e-03 1.648046658374369144e-03 -3.013040171936154366e-03 3.513363422825932503e-03 -4.672995302826166153e-03 7.641096599400043488e-03 -1.476977951824665070e-02 2.095504850149154663e-02 -1.963023841381072998e-02 3.592134453356266022e-03 -8.807697333395481110e-03 -2.468093065544962883e-03 9.014464914798736572e-03 1.372779137454926968e-03 -1.987963449209928513e-03 1.676451531238853931e-03 1.547662075608968735e-02 -8.117438293993473053e-03 -1.289288979023694992e-02 6.618995219469070435e-03 7.664390373975038528e-03 9.115823544561862946e-03 4.048573318868875504e-03 2.871418138965964317e-03 1.931956852786242962e-03 -1.059900689870119095e-02 -2.885943045839667320e-03 1.222317013889551163e-02 4.846080264542251825e-05 -7.580986246466636658e-03 -3.793809562921524048e-03 1.486331224441528320e-02 -5.939177353866398335e-04 -2.188148209825158119e-03 8.497505448758602142e-03 2.498477138578891754e-02 -1.576131768524646759e-02 -4.704644903540611267e-03 2.921895124018192291e-03 5.450225435197353363e-03 1.033651549369096756e-02 4.954378120601177216e-03 1.874098554253578186e-02 7.194328587502241135e-03 1.362223993055522442e-04 1.736004836857318878e-02 4.353733733296394348e-03 -1.732678385451436043e-03 -2.150188013911247253e-02 -2.397804521024227142e-02 2.625213563442230225e-02 -1.604028232395648956e-02 -1.637348206713795662e-03 2.856473438441753387e-03 -3.197886515408754349e-03 -3.285237587988376617e-03 1.852004788815975189e-03 -1.757580088451504707e-03 -1.776114106178283691e-02 4.010394681245088577e-03 3.858437994495034218e-03 1.890348154120147228e-03 -8.217912167310714722e-03 1.446715556085109711e-02 -1.176877412945032120e-02 1.001236401498317719e-02 1.395844155922532082e-03 -4.812766797840595245e-03 -5.237216595560312271e-03 1.344206836074590683e-02 2.279255772009491920e-03 1.139210653491318226e-03 3.524149302393198013e-03 4.951317096129059792e-04 4.072099458426237106e-03 1.078864000737667084e-02 4.777669440954923630e-03 -2.174606779590249062e-03 -6.408665794879198074e-04 6.612632889300584793e-03 -3.947711549699306488e-03 -1.143767405301332474e-02 9.215490892529487610e-03 -9.380518458783626556e-03 -3.228303743526339531e-03 1.355114020407199860e-02 2.196121029555797577e-03 -7.673898711800575256e-03 8.063043467700481415e-03 -7.362111937254667282e-04 3.386788768693804741e-03 2.494117710739374161e-03 -1.414136867970228195e-02 -5.724986549466848373e-03 -1.024544890969991684e-02 2.828139113262295723e-03 1.327859051525592804e-02 -4.459185525774955750e-03 1.984756998717784882e-02 1.197895500808954239e-02 -7.573346956633031368e-04 4.893466364592313766e-03 -3.430340439081192017e-03 -3.231768729165196419e-03 -2.249209675937891006e-03 1.335111912339925766e-02 5.774340126663446426e-03 1.449359953403472900e-02 3.031682223081588745e-03 -1.871048286557197571e-02 6.954441778361797333e-03 6.089537870138883591e-03 -3.732201177626848221e-03 1.307154912501573563e-02 4.585492890328168869e-03 3.666753415018320084e-03 -5.732654826715588570e-04 8.454623632133007050e-03 9.561484330333769321e-04 8.268064819276332855e-03 2.748819861153606325e-05 7.321132812649011612e-03 1.353683532215654850e-03 -2.120231464505195618e-02 2.001648768782615662e-03 3.599024610593914986e-03 -8.014284074306488037e-03 1.358254812657833099e-03 -2.968809334561228752e-03 -8.051657117903232574e-03 6.497459951788187027e-03 -4.614970821421593428e-04 4.110446665436029434e-03 -7.373175583779811859e-03 -3.206467663403600454e-04 1.449370570480823517e-02 -8.239159360527992249e-03 1.790639758110046387e-02 -1.355348248034715652e-02 5.828061257489025593e-04 -6.539313471876084805e-04 -5.849114153534173965e-03 2.351135760545730591e-02 -1.517023076303303242e-03 5.940188188105821609e-03 3.785441396757960320e-03 2.323513035662472248e-04 2.583148190751671791e-03 -1.680579409003257751e-02 -7.014090078882873058e-04 2.300126478075981140e-03 -4.888338502496480942e-03 -5.683680064976215363e-03 1.685920404270291328e-03 -2.271822281181812286e-02 -6.028201896697282791e-03 -6.328082643449306488e-03 -3.665927797555923462e-03 7.334035355597734451e-03 1.103088608942925930e-03 -4.147028084844350815e-03 3.401687601581215858e-03 -7.150374818593263626e-03 5.843512713909149170e-03 -1.917961798608303070e-02 1.211860799230635166e-03 8.002289570868015289e-03 -6.117446813732385635e-03 9.969954378902912140e-03 -1.956498017534613609e-03 5.351324100047349930e-03 1.955252606421709061e-03 3.704508533701300621e-03 -1.057484187185764313e-03 5.520623177289962769e-03 1.504894811660051346e-02 -8.865708485245704651e-03 2.874204656109213829e-03 -1.414508838206529617e-02 -1.988864131271839142e-02 -4.757065325975418091e-03 3.913385153282433748e-04 -2.454203926026821136e-02 8.875154890120029449e-03 1.796765066683292389e-02 4.823487717658281326e-03 -4.380340222269296646e-03 1.971211843192577362e-02 7.339566014707088470e-03 -1.888132188469171524e-03 8.015726925805211067e-04 -2.328717522323131561e-02 -4.887680523097515106e-03 -1.760104112327098846e-02 1.516104023903608322e-02 9.404873126186430454e-04 -1.707408577203750610e-03
-1.639037020504474640e-02 8.323320187628269196e-03 -3.803137922659516335e-03 1.537923817522823811e-03 7.804004941135644913e-03 -5.528536159545183182e-03 3.660732647404074669e-03 7.010251749306917191e-03 9.676489047706127167e-03 -1.494068652391433716e-03 4.619160201400518417e-03 1.760500366799533367e-03 -1.199050061404705048e-02 2.933712210506200790e-03 -1.856037066318094730e-03 -1.088804379105567932e-02 1.941316947340965271e-02 3.902164753526449203e-03 1.769553753547370434e-03 1.147341262549161911e-02 -3.447293769568204880e-03 -3.580260454327799380e-05 3.804248059168457985e-03 -3.145384788513183594e-02 -7.339525036513805389e-03 -3.579639364033937454e-03 9.739279048517346382e-04 1.244653016328811646e-02 5.291289649903774261e-03 7.308607455343008041e-04 -2.249146811664104462e-03 1.647127792239189148e-02 -1.753698103129863739e-03 1.865051337517797947e-03 -1.537652802653610706e-03 2.478076890110969543e-02 6.638336926698684692e-03 -5.223569925874471664e-03 4.619377665221691132e-03 -2.472604392096400261e-03 1.194673683494329453e-02 9.191348799504339695e-04 -1.269522216171026230e-02 -5.111901089549064636e-03 1.048574317246675491e-02 1.255554705858230591e-02 1.055540889501571655e-02 3.892843378707766533e-03 2.181215398013591766e-02 2.319338265806436539e-03 8.138080127537250519e-03 -7.379868067800998688e-03 7.006351952441036701e-04 1.750673283822834492e-03 3.763957880437374115e-03 3.489930648356676102e-03 9.445528499782085419e-03 -1.573162339627742767e-02 -3.439324442297220230e-03 2.199425129219889641e-03 1.090755779296159744e-02 7.530109141953289509e-04 -3.720060223713517189e-03 -2.914428245276212692e-03 -1.625312841497361660e-03 -1.947723142802715302e-02 7.152312900871038437e-03 -9.499164298176765442e-03 1.469093724153935909e-03 1.159302517771720886e-02 -1.673764083534479141e-03 -6.712392903864383698e-03 -8.017513900995254517e-04 -2.411295892670750618e-03 3.924002870917320251e-03 -6.911212112754583359e-03 5.195613019168376923e-03 -1.112051424570381641e-03 -3.423989191651344299e-02 -9.804943110793828964e-04 -1.648609153926372528e-02 2.544527314603328705e-02 -1.569579908391460776e-04 4.081915132701396942e-03 -9.614574722945690155e-03 1.141519052907824516e-03 2.335982164368033409e-03 -5.137687548995018005e-03 -4.495609086006879807e-03 3.145499387755990028e-03 -1.024853345006704330e-02 -5.428282544016838074e-03 2.552466467022895813e-03 -1.580598391592502594e-02 9.890619665384292603e-03 3.189949551597237587e-03 6.111166439950466156e-03 -5.649598781019449234e-03 9.664666838943958282e-03 2.439839998260140419e-03 2.089508809149265289e-03 -9.631062857806682587e-03 3.189773065969347954e-03 3.685414558276534081e-03 1.536914799362421036e-02 2.325590030523017049e-04 -8.448474109172821045e-03 5.513671319931745529e-03 1.256390661001205444e-02 5.072360858321189880e-03 -3.813718678429722786e-03 1.425370201468467712e-02 3.531209076754748821e-04 2.381630940362811089e-03 -2.028634538874030113e-03 4.822829505428671837e-04 8.208114653825759888e-03 -1.796939759515225887e-03 1.246436778455972672e-02 -8.420751546509563923e-04 5.072594620287418365e-03 1.178377028554677963e-02 2.081709168851375580e-02 4.363946150988340378e-03 7.487672381103038788e-03 -1.026254962198436260e-03 3.341374918818473816e-03 1.200033118948340416e-03 -6.267306860536336899e-03 2.175322035327553749e-03 -2.831361722201108932e-03 -4.976783413439989090e-03 -5.860418896190822124e-04 5.843493621796369553e-03 -1.851039379835128784e-02 -1.210043486207723618e-02 1.711189001798629761e-02 -1.000865246169269085e-03 -9.625260136090219021e-04 -7.482711807824671268e-04 1.501104328781366348e-02 -1.034771651029586792e-02 -3.837696509435772896e-03 -2.149596111848950386e-03 1.418986474163830280e-03 -1.332365791313350201e-03 2.053298614919185638e-02 5.227864719927310944e-03 3.205815330147743225e-03 -3.142506629228591919e-02 2.002121647819876671e-03 -1.667688367888331413e-03 -1.718957792036235332e-03 1.405809540301561356e-02 -4.653517156839370728e-03 2.452636137604713440e-03 1.695260219275951385e-02 -1.731950044631958008e-02 2.503726398572325706e-03 1.507723121903836727e-03 1.020551007241010666e-02 1.872681779786944389e-03 9.160523768514394760e-04 2.324161119759082794e-03 -3.651416394859552383e-03 7.771989796310663223e-03 -1.414664182811975479e-02 -4.991904832422733307e-03 9.741725400090217590e-03 -1.817090623080730438e-02 1.816572737880051136e-03 -6.782803684473037720e-03 1.937512075528502464e-03 4.358396399766206741e-03 -5.709819030016660690e-03 -6.596511229872703552e-03 -6.199647206813097000e-03 1.221049204468727112e-02 7.803568616509437561e-03 -1.435436401516199112e-02 1.228447537869215012e-02 1.888532750308513641e-02 8.541947230696678162e-03 -1.875558495521545410e-02 -8.915585349313914776e-04 -4.184791818261146545e-03 3.560706740245223045e-03 -1.828336855396628380e-03 -7.734238635748624802e-03 -1.183499931357800961e-03 9.037187322974205017e-03 -8.210611529648303986e-03 1.734320260584354401e-02 1.730867847800254822e-02 -3.300500800833106041e-03 5.839602090418338776e-03 5.563101265579462051e-03 6.578247528523206711e-03 -9.293677285313606262e-04 7.198508363217115402e-03 2.147038001567125320e-03 1.558836083859205246e-02 3.442236920818686485e-03 -2.360410243272781372e-02 2.378633478656411171e-03 9.188679046928882599e-03 9.723264956846833229e-04 8.034336380660533905e-03 -8.967863395810127258e-03 2.179450821131467819e-03 3.624357283115386963e-03 1.280932966619729996e-02 7.311566732823848724e-03 3.977030282840132713e-04 -2.408078638836741447e-03 -9.951951913535594940e-03 7.346458733081817627e-05 -1.126699429005384445e-02 -6.663119886070489883e-03 -4.749111540149897337e-04 -2.015621634200215340e-03 -8.660538122057914734e-03 -6.889430806040763855e-03 2.103612385690212250e-02 1.368863275274634361e-03 6.277006585150957108e-03 -7.743248250335454941e-03 -2.426373306661844254e-03 -3.605374367907643318e-03 1.292350236326456070e-03 4.978634387953206897e-05 -2.621025312691926956e-03 -3.060682676732540131e-03 -1.269048172980546951e-02 1.028261054307222366e-02 1.129154465161263943e-03 2.332228235900402069e-02 1.494300318881869316e-03 1.359504822175949812e-04 5.277829244732856750e-03 -7.075310684740543365e-03 -1.559767057187855244e-03 2.317257691174745560e-03 8.923395536839962006e-03 2.713124267756938934e-04 -2.640148624777793884e-02 -1.751415780745446682e-03 3.934090025722980499e-03 -1.314271427690982819e-02 8.027629228308796883e-04 3.737124847248196602e-03 1.166378147900104523e-02 2.083456143736839294e-03 2.808995195664465427e-04 1.557988434797152877e-04 -6.700169178657233715e-04
-6.873409263789653778e-03 -1.693476177752017975e-02 2.355826273560523987e-02 -8.846436440944671631e-02 -3.658802434802055359e-02 -1.596128754317760468e-02 1.369926985353231430e-02 1.855253428220748901e-02 7.008796557784080505e-03 3.959406912326812744e-02 -2.592456713318824768e-02 3.734361007809638977e-02 3.456966206431388855e-02 6.074444577097892761e-02 4.564921557903289795e-02 2.507769502699375153e-02 3.727419301867485046e-02 4.421844333410263062e-02 -1.940915826708078384e-03 -3.365735057741403580e-03 -2.348499931395053864e-02 -6.125103216618299484e-03 2.211499772965908051e-02 -3.763463813811540604e-03 3.522297739982604980e-02 2.570701763033866882e-02 4.222599323838949203e-03 -2.177454531192779541e-02 3.448814526200294495e-02 1.261096745729446411e-01 -3.741806745529174805e-02 -1.233626529574394226e-02 -3.549111774191260338e-03 -2.581889368593692780e-02 -2.148547768592834473e-02 2.342668361961841583e-02 -3.765078634023666382e-02 -7.593544572591781616e-02 2.852108143270015717e-02 -1.928790844976902008e-02 1.473509706556797028e-02 5.534255132079124451e-02 -1.341820508241653442e-02 1.839311793446540833e-02 -6.323487311601638794e-02 -2.309682592749595642e-02 -2.884148433804512024e-02 5.537588894367218018e-02 1.039891503751277924e-02 1.434847153723239899e-02 -1.760551892220973969e-02 -4.089417401701211929e-03 3.573445603251457214e-02 9.797380864620208740e-02 8.676460385322570801e-02 4.340773820877075195e-02 1.506945118308067322e-02 3.022199310362339020e-02 4.378516227006912231e-02 4.013221338391304016e-02 -3.968868404626846313e-03 -1.836789026856422424e-02 1.412395015358924866e-02 -8.073023054748773575e-04 2.369575016200542450e-02 -9.634657762944698334e-03 -2.698972262442111969e-02 1.361769158393144608e-02 1.059144288301467896e-01 2.187880873680114746e-02 -1.378466095775365829e-02 4.597145691514015198e-02 -1.379541587084531784e-03 2.388704940676689148e-02 3.674053400754928589e-02 6.316180527210235596e-02 1.817309297621250153e-02 6.668811291456222534e-02 -3.722017281688749790e-04 5.264870822429656982e-02 -1.214167755097150803e-02 7.085635792464017868e-03 7.727749645709991455e-02 2.420097589492797852e-02 3.087426349520683289e-02 -3.316106041893362999e-03 -5.001673847436904907e-02 2.396396547555923462e-02 1.696076430380344391e-02 1.801947690546512604e-02 1.905659399926662445e-02 2.827233076095581055e-02 6.730868667364120483e-02 3.839760646224021912e-02 -1.796501129865646362e-02 4.823252931237220764e-02 3.566420078277587891e-02 -1.802993379533290863e-02 -2.016793005168437958e-02 -1.307806372642517090e-02 1.276104594580829144e-03 2.097188495099544525e-02 -4.803091287612915039e-02 5.690870434045791626e-02 -3.094464726746082306e-02 2.815773896872997284e-02 -1.880658976733684540e-02 4.381800442934036255e-02 -3.506720764562487602e-03 3.381370007991790771e-02 -1.393529493361711502e-02 4.924208298325538635e-02 6.884048134088516235e-02 4.169730842113494873e-02 2.430726075544953346e-03 1.376273483037948608e-02 -1.921140821650624275e-03 3.905969485640525818e-02 4.662759602069854736e-02 -1.731152459979057312e-02 7.423397619277238846e-03 4.834981635212898254e-02 1.513332966715097427e-02 -1.932297134771943092e-03 -4.492647573351860046e-02 6.794030964374542236e-02 -2.123436890542507172e-02 -3.274622932076454163e-02 -2.748261950910091400e-02 -2.325153350830078125e-02 1.137952953577041626e-01 -3.788485750555992126e-02 2.869067611754871905e-05 8.095168322324752808e-02 2.079980820417404175e-02 5.333139374852180481e-02 -1.901038736104965210e-02 -2.997909300029277802e-02 -2.410444663837552071e-03 -6.026591360569000244e-02 -1.960768178105354309e-02 8.232795633375644684e-03 -3.997347876429557800e-02 -7.070676982402801514e-02 -7.336322218179702759e-03 3.327301517128944397e-02 -2.143914066255092621e-02 4.999421536922454834e-02 7.018172182142734528e-03 1.805779524147510529e-02 8.458865433931350708e-02 5.188483744859695435e-02 -7.324810605496168137e-03 1.011345069855451584e-02 9.322126396000385284e-03 4.301083832979202271e-02 -1.117259496822953224e-03 -1.113413833081722260e-02 6.250462681055068970e-02 -4.592050332576036453e-03 -6.274650245904922485e-02 -3.253574669361114502e-02 2.540471777319908142e-02 -5.473861843347549438e-02 -3.678075596690177917e-02 -1.409396762028336525e-03 1.135762408375740051e-02 -1.958380453288555145e-02 2.402646653354167938e-02 -2.501231990754604340e-02 -8.619882166385650635e-03 2.894229069352149963e-02 -2.102877758443355560e-02 -7.042632251977920532e-02 -9.828033857047557831e-03 6.969196349382400513e-02 2.017358317971229553e-02 2.378030493855476379e-02 -3.290577605366706848e-02 -4.065275192260742188e-02 -2.977316267788410187e-02 -2.173202671110630035e-02 -9.210137650370597839e-04 2.459429949522018433e-02 3.992094844579696655e-02 -1.221009716391563416e-02 8.256573230028152466e-02 -3.856606082990765572e-03 -6.079535931348800659e-02 -1.704021356999874115e-02 -5.965207889676094055e-02 5.214566364884376526e-02 4.465600475668907166e-02 -1.202814280986785889e-02 2.020305953919887543e-02 -2.102946117520332336e-02 7.782709598541259766e-02 9.191057644784450531e-03 -3.255539759993553162e-02 5.387155711650848389e-02 4.166507348418235779e-02 -4.257616773247718811e-02 5.263677984476089478e-02 -2.216204442083835602e-02 -3.526419773697853088e-02 3.039884008467197418e-02 -5.666628107428550720e-02 1.452077366411685944e-02 1.421743538230657578e-02 8.433072268962860107e-02 -2.183626033365726471e-02 7.952456362545490265e-03 -1.321717351675033569e-02 3.695042803883552551e-02 -3.189469501376152039e-02 -4.158996418118476868e-02 -1.807795092463493347e-02 9.580044075846672058e-03 -4.718899261206388474e-03 -1.646111905574798584e-02 -4.567887261509895325e-02 7.297276705503463745e-02 1.176343392580747604e-02 8.060283958911895752e-02 -5.153673235327005386e-03 2.165005076676607132e-03 7.278099656105041504e-02 2.292799204587936401e-02 -5.270907655358314514e-02 2.581332810223102570e-02 -4.866280779242515564e-02 4.053436685353517532e-03 4.500543326139450073e-02 -5.139666143804788589e-03 1.510586775839328766e-02 -5.200694873929023743e-02 -3.249153867363929749e-02 1.705395616590976715e-02 6.944083422422409058e-02 -4.205610230565071106e-02 -2.254758030176162720e-02 1.463864278048276901e-02 -5.679487064480781555e-02 -5.906487256288528442e-02 4.408885166049003601e-02 1.866702176630496979e-02 1.584989018738269806e-02 1.768261007964611053e-02 1.415208820253610611e-02 4.718637838959693909e-02 -2.191798202693462372e-02 1.273258030414581299e-02 6.731374189257621765e-03 -4.027114808559417725e-02 -5.038041993975639343e-02 2.314383722841739655e-02
