6.881578359752893448e-03 7.544493768364191055e-03 -4.520501941442489624e-03 -7.919231429696083069e-03 1.130028348416090012e-02 -1.415381114929914474e-02 3.174378070980310440e-03 4.497560206800699234e-03 -1.251136302016675472e-03 -6.364513654261827469e-03 -1.648934558033943176e-02 1.751386374235153198e-02 1.026039849966764450e-02 -4.162686690688133240e-02 7.891467772424221039e-03 1.326889381743967533e-03 -1.093190279789268970e-03 5.630105733871459961e-03 2.748924540355801582e-03 1.276653166860342026e-02 -4.385632462799549103e-03 -7.346227299422025681e-03 -1.326441764831542969e-03 -9.506293572485446930e-03 -1.679737865924835205e-02 7.231963332742452621e-03 -2.078757435083389282e-02 -1.641256734728813171e-02 -5.118729546666145325e-03 -8.871465688571333885e-04 -8.748734369874000549e-03 3.354755695909261703e-03 1.721929293125867844e-03 -3.831231500953435898e-03 -2.711846493184566498e-02 -3.162807971239089966e-02 -8.487023413181304932e-03 -5.647045560181140900e-03 2.528869314119219780e-03 -1.148761902004480362e-02 -6.729161366820335388e-03 6.339028012007474899e-03 -1.523096673190593719e-02 -2.380283549427986145e-03 4.898256435990333557e-02 1.331074070185422897e-02 -4.265805333852767944e-02 4.460595082491636276e-03 6.010890938341617584e-03 -2.318716840818524361e-03 -5.126329604536294937e-03 2.890145173296332359e-03 -1.132527552545070648e-02 -1.790400594472885132e-02 -9.597439318895339966e-03 -2.884931676089763641e-02 1.349024660885334015e-02 2.039403188973665237e-03 3.448434174060821533e-03 -1.179143670015037060e-03 4.474746994674205780e-03 1.576768793165683746e-02 -9.528895025141537189e-04 -6.152105052024126053e-04 1.259422511793673038e-03 1.106759440153837204e-02 -6.487736944109201431e-03 -5.081775132566690445e-03 -9.188522584736347198e-03 -1.472581550478935242e-02 -1.963311247527599335e-02 -2.884040400385856628e-02 1.652384363114833832e-02 -3.790091956034302711e-03 -1.855351217091083527e-02 -3.385138697922229767e-03 2.617978723719716072e-03 3.987712785601615906e-03 -2.362939529120922089e-03 1.476614456623792648e-02 9.421232156455516815e-03 1.633993088034912944e-04 3.641241928562521935e-04 -1.768286689184606075e-03 -1.429067831486463547e-02 6.423009559512138367e-03 1.960627362132072449e-02 6.129145622253417969e-04 -1.207235641777515411e-02 -7.455366197973489761e-03 -4.214042332023382187e-03 -8.293329738080501556e-03 -1.877968898043036461e-03 2.402828447520732880e-02 1.674891263246536255e-02 1.278665615245699883e-03 2.219296433031558990e-02 2.053817035630345345e-03 8.627693168818950653e-03 -1.721470616757869720e-03 7.207766175270080566e-03 1.797446981072425842e-02 3.075708635151386261e-03 4.090453498065471649e-03 6.357111968100070953e-03 8.637201040983200073e-03 1.399160828441381454e-02 6.303927861154079437e-03 -2.354005351662635803e-02 -5.100676571601070464e-05 1.345306076109409332e-02 -5.754816229455173016e-04 -1.066498737782239914e-02 2.778115449473261833e-03 -2.409118227660655975e-02 -1.435870118439197540e-02 1.331823877990245819e-03 1.324732205830514431e-03 3.123146109282970428e-02 -2.169765532016754150e-03 8.366038091480731964e-03 -2.652931027114391327e-02 6.289739161729812622e-03 -2.356274053454399109e-02 -7.762988680042326450e-04 -1.806647703051567078e-02 2.418955788016319275e-02 1.277381088584661484e-02 -1.834848336875438690e-02 7.286965847015380859e-03 -4.392577800899744034e-03 4.566849092952907085e-04 9.768493473529815674e-03 6.104334723204374313e-03 1.113197766244411469e-02 -6.356976926326751709e-03 -2.626167552080005407e-04 -1.966334879398345947e-02 2.806252567097544670e-03 8.883745176717638969e-04 2.316003199666738510e-03 3.936335910111665726e-03 -2.063399879261851311e-03 3.440996166318655014e-03 2.295356616377830505e-02 -6.810475606471300125e-03 3.469507908448576927e-03 -4.126453306525945663e-03 -4.029929637908935547e-03 2.875953796319663525e-04 1.919566537253558636e-03 -7.767118513584136963e-03 2.348966524004936218e-02 -6.735422648489475250e-03 1.531820744276046753e-02 1.311226980760693550e-03 2.215579897165298462e-02 2.531054662540555000e-03 -1.791115291416645050e-02 5.523153813555836678e-04 -1.208045333623886108e-02 9.361462434753775597e-04 2.560581080615520477e-02 -2.099894918501377106e-03 2.710083872079849243e-02 -1.100564841181039810e-03 -2.444753190502524376e-03 -1.627640984952449799e-02 1.045700861141085625e-03 -1.251546386629343033e-02 8.206803351640701294e-03 3.340465482324361801e-03 4.744146950542926788e-03 2.767963567748665810e-03 1.080576237291097641e-02 -2.767676301300525665e-02 -1.196807250380516052e-02 2.190244197845458984e-02 -2.880242420360445976e-03 3.284295322373509407e-03 -7.491500116884708405e-03 6.300125271081924438e-03 -2.102361619472503662e-02 1.328759081661701202e-02 1.133541576564311981e-03 -8.253654465079307556e-03 -4.553356207907199860e-03 1.968214847147464752e-02 -3.336001653224229813e-03 -5.455039441585540771e-03 -9.715938940644264221e-03 2.448314614593982697e-02 -4.645668901503086090e-03 3.538925899192690849e-03 6.356702651828527451e-03 2.045143395662307739e-03 1.691660098731517792e-02 -1.198728475719690323e-02 -1.186319044791162014e-03 -5.037320312112569809e-03 -1.633342914283275604e-02 -3.632731502875685692e-03 2.037800848484039307e-03 3.428599331527948380e-03 1.918253954499959946e-03 1.918452791869640350e-03 1.628116355277597904e-03 1.101670227944850922e-02 6.992964074015617371e-03 2.198833413422107697e-02 3.095139982178807259e-03 -1.445880532264709473e-02 2.105654403567314148e-02 -1.428046077489852905e-02 -9.734682738780975342e-03 -6.087701767683029175e-03 -2.194463275372982025e-02 -1.118184626102447510e-02 -1.969682238996028900e-02 -1.521192863583564758e-02 1.211774442344903946e-02 8.387016132473945618e-03 -9.103298070840537548e-04 8.396876510232686996e-04 -3.627585712820291519e-03 -3.160535171627998352e-02 1.004699990153312683e-02 6.513972766697406769e-03 -4.828558303415775299e-03 1.395055092871189117e-03 6.689135916531085968e-03 -2.017747424542903900e-02 -7.263601291924715042e-03 -1.198457647114992142e-02 -8.708758396096527576e-04 -8.329046890139579773e-03 6.678168429061770439e-04 1.686925068497657776e-03 -1.360471267253160477e-02 -3.493762388825416565e-02 -4.649900365620851517e-03 4.439352080225944519e-03 2.324603730812668800e-03 4.820972215384244919e-03 -1.590080093592405319e-03 -2.294052392244338989e-02 6.577699445188045502e-03 -7.721811532974243164e-03 2.021949272602796555e-03 -2.102560538332909346e-04 -3.507717512547969818e-03 1.122802775353193283e-02 -1.962632313370704651e-02 1.728678494691848755e-02 -9.680797345936298370e-03 -8.122956380248069763e-03
4.885044880211353302e-03 3.080323804169893265e-03 2.520756796002388000e-02 5.055136978626251221e-03 2.717409096658229828e-02 3.029750194400548935e-03 1.548478286713361740e-02 1.036625448614358902e-02 -8.987146429717540741e-03 9.049013257026672363e-03 -1.279172766953706741e-02 1.879991497844457626e-03 -1.262909080833196640e-02 -3.316936641931533813e-02 -1.986702904105186462e-02 -3.671614220365881920e-03 1.510757394134998322e-02 3.911258280277252197e-02 1.762752793729305267e-02 -5.338016781024634838e-04 -3.546776017174124718e-03 1.897809654474258423e-02 -1.133372634649276733e-02 2.145259641110897064e-02 2.582655474543571472e-02 7.084275595843791962e-03 1.228040363639593124e-02 8.442673832178115845e-03 -3.135894658043980598e-03 -1.071855425834655762e-02 -5.686324089765548706e-03 -1.328876148909330368e-02 -6.071340292692184448e-03 2.732910588383674622e-02 -2.116537885740399361e-03 2.082378603518009186e-03 1.395372580736875534e-02 1.704453304409980774e-02 -1.167022809386253357e-02 1.622343994677066803e-02 -2.098209410905838013e-02 3.789226757362484932e-03 1.266510109417140484e-03 1.712503284215927124e-02 1.022744923830032349e-02 2.340446785092353821e-02 -7.129819598048925400e-03 -1.057701464742422104e-02 -2.137269452214241028e-02 1.487771701067686081e-02 2.641309425234794617e-02 -8.082678541541099548e-03 2.242085523903369904e-02 -1.101483404636383057e-02 3.803625004366040230e-03 7.653868757188320160e-03 6.114237476140260696e-03 -2.362987725064158440e-03 -2.066824771463871002e-02 8.375273086130619049e-03 2.537831198424100876e-03 -1.396603323519229889e-02 -1.066518854349851608e-02 3.056546859443187714e-02 -1.433393917977809906e-02 -4.296689294278621674e-03 -4.853231832385063171e-03 1.776612713001668453e-03 1.507059857249259949e-02 -7.740695495158433914e-03 -1.082815788686275482e-02 5.035000853240489960e-03 -1.114536449313163757e-02 -1.889837346971035004e-02 8.844081312417984009e-03 -4.073825664818286896e-03 -8.281829766929149628e-03 -1.424117828719317913e-03 6.321538705378770828e-03 8.882311172783374786e-03 -2.727175503969192505e-02 -1.903988188132643700e-03 1.104689110070466995e-02 5.400527268648147583e-02 6.137723103165626526e-03 -2.847396209836006165e-02 4.743554163724184036e-03 -6.601850967854261398e-03 -8.555646636523306370e-04 1.133226673118770123e-03 6.781769916415214539e-03 -1.464625634253025055e-02 2.082368882838636637e-04 6.536097265779972076e-03 1.582461223006248474e-02 9.174728766083717346e-03 3.287135064601898193e-02 4.712001886218786240e-03 4.825156647711992264e-03 1.533607020974159241e-03 -5.423966795206069946e-03 -1.194769516587257385e-02 -8.191707544028759003e-03 -2.314321231096982956e-03 6.052392534911632538e-03 5.436860956251621246e-03 -1.297499705106019974e-02 -1.294515468180179596e-02 -2.086429297924041748e-02 -1.781014166772365570e-02 -2.810702659189701080e-02 -3.188379807397723198e-03 -1.270477101206779480e-02 -4.728158935904502869e-03 -2.591748908162117004e-02 5.520143359899520874e-02 -2.940314449369907379e-02 -5.406406708061695099e-03 -1.065595541149377823e-02 -4.476747999433428049e-04 -1.358427107334136963e-02 -4.246792942285537720e-02 2.339816838502883911e-02 2.420666627585887909e-02 -1.713136211037635803e-02 2.816051477566361427e-03 2.050744928419589996e-02 -3.370256349444389343e-02 -1.367763383314013481e-03 -8.338372223079204559e-03 8.742550271563231945e-04 1.368154305964708328e-02 -6.102173589169979095e-03 1.755244843661785126e-02 1.455869711935520172e-02 -3.088860400021076202e-02 7.128969300538301468e-03 -6.807509344071149826e-03 6.416787859052419662e-03 -3.915877081453800201e-03 -2.086611231788992882e-03 -2.104917541146278381e-02 -1.294753141701221466e-02 -8.914344944059848785e-03 -1.465007290244102478e-02 2.282094210386276245e-03 -3.591772541403770447e-02 -2.124024089425802231e-03 6.544565316289663315e-03 -4.907183814793825150e-03 5.766128189861774445e-03 -1.253520697355270386e-02 2.792840823531150818e-02 -4.247870296239852905e-03 1.214903686195611954e-02 1.101351901888847351e-02 7.927357219159603119e-03 -3.061415394768118858e-03 -1.897358708083629608e-02 -4.861869383603334427e-03 7.618498057126998901e-03 1.285216771066188812e-02 3.417828120291233063e-03 1.223844103515148163e-02 1.736150472424924374e-03 3.034062683582305908e-02 -1.235354971140623093e-02 -2.105466648936271667e-02 -6.328560411930084229e-03 2.672047726809978485e-02 1.084891054779291153e-02 5.786767229437828064e-03 -1.463200058788061142e-02 4.420188721269369125e-03 1.584354601800441742e-02 9.904551552608609200e-04 -3.624749602749943733e-03 2.014413289725780487e-02 1.932008191943168640e-02 -3.048609709367156029e-03 1.661794446408748627e-02 3.561458317562937737e-03 1.075056940317153931e-02 5.088134668767452240e-03 1.124068256467580795e-02 7.498328108340501785e-03 -5.570882000029087067e-03 -9.872038848698139191e-03 1.069536805152893066e-02 5.884910002350807190e-03 1.262018270790576935e-02 1.162131549790501595e-03 1.165470201522111893e-02 -1.687919721007347107e-02 3.813850134611129761e-02 -1.041141897439956665e-02 -2.321417850907891989e-04 -2.521987073123455048e-02 -1.270653121173381805e-02 3.598499111831188202e-03 1.305199600756168365e-02 6.050910800695419312e-03 -1.748793385922908783e-02 5.312324967235326767e-03 1.592720486223697662e-02 1.961938478052616119e-02 -2.206155098974704742e-02 3.732164949178695679e-02 -1.462181005626916885e-02 1.266105379909276962e-02 8.696714416146278381e-03 -1.751215383410453796e-02 -2.259395644068717957e-02 1.382702263072133064e-03 -8.639569394290447235e-03 -3.801271086558699608e-03 9.763764217495918274e-03 1.470589544624090195e-02 7.833165116608142853e-03 3.350878832861781120e-03 -1.963537215488031507e-04 9.562605991959571838e-03 5.535770207643508911e-03 -8.807272650301456451e-03 1.557263825088739395e-02 1.573420502245426178e-02 -2.614791737869381905e-03 -6.733622867614030838e-03 -5.738982465118169785e-03 1.181232184171676636e-02 3.509897040203213692e-03 -4.015274811536073685e-03 6.530860438942909241e-03 4.007152747362852097e-03 -1.633825711905956268e-02 -3.607771918177604675e-02 3.279835451394319534e-03 5.728931864723563194e-04 -3.106929920613765717e-02 -2.159479074180126190e-02 3.486186964437365532e-03 1.424508262425661087e-02 -1.536422502249479294e-02 -2.523460425436496735e-02 -2.559880726039409637e-02 -2.908392995595932007e-02 1.207116874866187572e-03 -2.122366614639759064e-02 1.347215007990598679e-02 3.308641025796532631e-04 -7.519528269767761230e-03 -1.129484735429286957e-03 -9.565220680087804794e-04 2.898140111938118935e-03 -1.540663465857505798e-02 -1.584817469120025635e-02
-2.356820926070213318e-02 1.411328371614217758e-02 5.050587002187967300e-03 -8.319679182022809982e-04 -1.990404445677995682e-03 -1.896170154213905334e-02 -1.203225832432508469e-02 7.241077255457639694e-03 -8.628730662167072296e-03 8.122275583446025848e-03 5.136637389659881592e-02 2.162984339520335197e-03 1.197876036167144775e-02 1.451866142451763153e-02 1.585434749722480774e-02 1.214783638715744019e-03 -1.645586267113685608e-02 -4.045838490128517151e-02 -7.920802570879459381e-03 5.835189484059810638e-03 1.251504942774772644e-02 1.369954552501440048e-02 -1.919157058000564575e-02 5.096625909209251404e-02 9.357373346574604511e-04 -9.495253674685955048e-03 -1.303241774439811707e-02 -4.029249830637127161e-04 1.358580216765403748e-02 7.994655519723892212e-03 -1.047170907258987427e-02 -7.436500163748860359e-04 1.562034012749791145e-03 2.475204877555370331e-02 -7.159592583775520325e-03 2.202697796747088432e-03 1.224454026669263840e-02 -6.152800284326076508e-03 -1.856544427573680878e-02 -1.130549609661102295e-02 -1.720152096822857857e-03 9.278776124119758606e-03 -3.412329824641346931e-03 9.533051525068003684e-06 -8.933695498853921890e-04 4.093574825674295425e-03 1.742136105895042419e-02 7.393120788037776947e-03 2.024332620203495026e-02 -1.443930435925722122e-02 -1.853974908590316772e-02 1.302046515047550201e-02 -4.484245146159082651e-04 -3.635499859228730202e-03 1.577796787023544312e-02 1.477320492267608643e-02 -1.156398002058267593e-02 -1.041528582572937012e-02 5.898495670408010483e-03 -6.944615859538316727e-03 1.209931168705224991e-02 -5.952195730060338974e-03 2.118144370615482330e-02 2.640892006456851959e-02 -1.118318084627389908e-02 -1.475281640887260437e-02 -3.374512074515223503e-03 -3.426753450185060501e-03 -2.084467560052871704e-03 1.488318294286727905e-02 2.074517076835036278e-03 2.093484997749328613e-02 -1.744108158163726330e-03 -4.430163186043500900e-03 1.287466939538717270e-02 1.291515491902828217e-02 1.207926217466592789e-02 4.407685250043869019e-03 -2.185689285397529602e-02 -2.640825463458895683e-03 1.502201147377490997e-02 2.079916559159755707e-02 8.225371129810810089e-03 -1.765021122992038727e-02 2.395299635827541351e-02 1.853781379759311676e-02 6.715894211083650589e-03 -4.448959138244390488e-03 -1.590869762003421783e-02 -5.317237228155136108e-03 5.347883328795433044e-03 -1.421320717781782150e-02 -9.799381718039512634e-03 -3.188288584351539612e-02 2.117686672136187553e-03 5.124073941260576248e-03 -4.669688642024993896e-03 1.428226195275783539e-02 -4.024746641516685486e-02 3.853813279420137405e-03 -1.203907467424869537e-02 -2.036762610077857971e-02 -7.034807000309228897e-03 -1.780012063682079315e-02 9.000070393085479736e-03 1.277260389178991318e-02 -6.811305414885282516e-03 2.016219310462474823e-02 -6.714425515383481979e-03 -2.381369471549987793e-02 2.990223292727023363e-04 -1.513194013386964798e-02 2.585959620773792267e-02 9.577942080795764923e-03 1.484466250985860825e-02 1.108507346361875534e-02 3.029647516086697578e-03 8.946343325078487396e-03 2.550177089869976044e-02 -4.872871562838554382e-03 2.829593047499656677e-02 -2.039501070976257324e-02 -1.944499649107456207e-02 1.190307270735502243e-02 2.790185064077377319e-02 1.984993182122707367e-02 5.820916267111897469e-04 1.891853101551532745e-02 -2.583848685026168823e-02 -1.550776697695255280e-02 -3.816780401393771172e-03 -9.489994496107101440e-03 -4.537173081189393997e-03 -1.055383239872753620e-03 -2.069271728396415710e-02 -4.563089460134506226e-03 2.771793864667415619e-02 1.242218445986509323e-02 9.756072424352169037e-03 -2.916675060987472534e-03 2.575096674263477325e-02 -1.605913043022155762e-02 5.124743562191724777e-03 2.267606742680072784e-02 1.038766186684370041e-02 2.125276438891887665e-02 -2.063386514782905579e-02 -1.551673933863639832e-02 1.060486491769552231e-02 -6.655265577137470245e-03 -4.691472277045249939e-03 -2.041611634194850922e-02 -1.001816894859075546e-02 -1.175255514681339264e-02 8.765810169279575348e-03 1.429285760968923569e-02 -9.591432288289070129e-03 1.209542062133550644e-02 -4.851824138313531876e-03 6.035351660102605820e-03 2.593539282679557800e-02 3.574148518964648247e-03 -1.044034375809133053e-03 1.991441287100315094e-02 1.850118715083226562e-04 -4.205519706010818481e-02 -8.750516921281814575e-03 2.753314189612865448e-02 -2.532729879021644592e-02 1.258544716984033585e-02 1.227901899255812168e-03 -3.073958680033683777e-03 -2.596677653491497040e-02 5.014786496758460999e-03 -8.517451584339141846e-03 7.353124208748340607e-03 1.244099624454975128e-02 9.907467290759086609e-03 1.010129041969776154e-02 -6.348181981593370438e-03 9.238462895154953003e-03 -6.453022360801696777e-03 1.053851656615734100e-02 -4.800005815923213959e-03 1.541465055197477341e-02 -1.993582025170326233e-02 -1.401006709784269333e-02 -4.797526169568300247e-03 1.410885248333215714e-02 -1.528095733374357224e-02 -7.318093907088041306e-03 6.060455052647739649e-05 7.422471884638071060e-03 -1.544828177429735661e-03 9.303958155214786530e-03 2.470272034406661987e-02 -1.546762511134147644e-02 6.967099849134683609e-03 -2.908116672188043594e-03 8.798384107649326324e-03 -1.774367690086364746e-02 -1.577269472181797028e-02 1.687602885067462921e-02 -7.098854985088109970e-03 -2.064925618469715118e-03 -2.392639033496379852e-02 3.594404086470603943e-03 -1.113996282219886780e-02 -1.180020254105329514e-02 1.589808799326419830e-02 1.582471840083599091e-02 -8.687222725711762905e-04 -1.704367063939571381e-02 1.159711834043264389e-02 7.507828064262866974e-03 -1.922105555422604084e-03 -1.485303603112697601e-02 -1.256161928176879883e-02 -5.813906900584697723e-03 -1.861400785855948925e-03 -7.997209206223487854e-03 2.637216588482260704e-03 -1.078254543244838715e-02 -1.179354358464479446e-02 -6.716436240822076797e-03 1.769584417343139648e-02 -4.123243037611246109e-03 3.610582323744893074e-03 -2.103963866829872131e-02 4.468983039259910583e-02 1.387399970553815365e-03 -4.417333751916885376e-02 -1.186636928468942642e-02 8.261574432253837585e-03 -1.521377172321081161e-02 -2.777438145130872726e-03 4.398400429636240005e-03 1.574528031051158905e-02 2.741178497672080994e-02 8.653252385556697845e-03 1.319831889122724533e-02 -8.876834064722061157e-03 8.330828510224819183e-03 -1.867188885807991028e-02 4.451137967407703400e-03 -7.350554689764976501e-03 9.377216920256614685e-03 -9.610233828425407410e-03 -1.539837289601564407e-02 -1.551601011306047440e-02 7.725952193140983582e-03 -1.575567945837974548e-02 1.232174970209598541e-02 -1.243979018181562424e-02 -1.003584079444408417e-02 3.658956661820411682e-02
-1.104552485048770905e-02 -1.304881734540686011e-04 -3.784400224685668945e-02 -6.601483561098575592e-03 3.295134752988815308e-02 -1.924819126725196838e-02 -2.863022126257419586e-02 -2.231832593679428101e-02 6.599962362088263035e-04 4.646487534046173096e-03 -1.970438286662101746e-03 8.601813577115535736e-03 1.239520125091075897e-02 -1.137066073715686798e-02 1.755783893167972565e-02 3.366695716977119446e-03 -5.937537644058465958e-03 -1.979984529316425323e-02 -4.403037019073963165e-03 -4.780988208949565887e-03 -1.906004361808300018e-02 1.302823796868324280e-02 -4.677753429859876633e-03 -1.603666320443153381e-02 -3.189026843756437302e-03 1.034905575215816498e-02 -1.657866314053535461e-02 -1.423789374530315399e-02 3.009897656738758087e-03 7.435039617121219635e-03 2.945934189483523369e-03 3.783557191491127014e-02 1.568894274532794952e-02 3.402190515771508217e-03 -4.193902015686035156e-03 -2.451090514659881592e-02 1.024092547595500946e-02 6.495600973721593618e-05 1.325813401490449905e-02 1.931236125528812408e-02 2.306164475157856941e-03 8.627872914075851440e-03 -1.453467458486557007e-02 -2.795875817537307739e-02 1.084486767649650574e-02 -1.736864261329174042e-02 -2.156363055109977722e-02 1.109481323510408401e-02 1.538439770229160786e-03 -1.802399381995201111e-02 1.841842755675315857e-02 3.754241019487380981e-02 2.376575488597154617e-03 1.629370497539639473e-03 7.821007631719112396e-03 2.644735574722290039e-02 2.117004804313182831e-02 -7.548920344561338425e-03 -3.475187812000513077e-03 -1.992757245898246765e-02 6.425477098673582077e-03 7.797558326274156570e-03 -1.143545005470514297e-02 1.732761156745254993e-03 1.288393139839172363e-02 3.440433740615844727e-02 3.594743832945823669e-02 -4.462904855608940125e-02 8.650028612464666367e-04 9.720969013869762421e-03 -9.325384162366390228e-03 -1.954090781509876251e-02 -2.625972265377640724e-03 7.536456920206546783e-03 -7.434566039592027664e-03 4.112016037106513977e-02 9.246682748198509216e-03 -3.996798302978277206e-03 1.090042199939489365e-02 -1.387873478233814240e-02 -8.291747421026229858e-03 -2.404833212494850159e-03 7.555766031146049500e-03 -1.728434674441814423e-02 -8.107093162834644318e-03 1.323922257870435715e-02 1.226404309272766113e-02 2.129031345248222351e-02 -5.676347296684980392e-03 -4.571650177240371704e-03 -1.928973197937011719e-02 -7.907692342996597290e-03 5.653921980410814285e-03 1.535280607640743256e-02 1.626965776085853577e-02 9.489105083048343658e-03 -2.792039886116981506e-02 2.463951334357261658e-02 1.163852175523061305e-06 9.444872848689556122e-03 3.483312204480171204e-03 -4.277530126273632050e-03 -1.667674258351325989e-02 1.207112986594438553e-02 9.607788175344467163e-03 -2.120007760822772980e-02 4.518499597907066345e-03 3.987129032611846924e-02 5.075134802609682083e-03 -9.381747804582118988e-03 1.531799230724573135e-02 -9.768886491656303406e-03 2.106012217700481415e-02 -1.766920462250709534e-02 -8.137430064380168915e-03 4.266083240509033203e-02 -2.834714017808437347e-03 1.228373125195503235e-02 4.415956139564514160e-02 -2.187912352383136749e-03 3.110524266958236694e-04 -9.498919360339641571e-03 2.556283771991729736e-02 3.453944250941276550e-02 2.960532344877719879e-02 2.074120752513408661e-02 1.347991451621055603e-02 2.168435044586658478e-02 -5.146034993231296539e-03 -1.952612958848476410e-02 2.221681922674179077e-02 -4.375268472358584404e-04 3.947747871279716492e-03 -3.806732129305601120e-03 -2.052623033523559570e-02 -7.204547058790922165e-03 1.393059175461530685e-02 9.056771174073219299e-03 -3.777098376303911209e-03 1.107069477438926697e-02 9.402989409863948822e-03 7.430586032569408417e-03 2.526143379509449005e-02 -2.134356088936328888e-02 9.463610127568244934e-03 -4.193777218461036682e-03 -2.386851795017719269e-02 -1.912202569656074047e-03 -1.987479254603385925e-02 -5.102810449898242950e-03 -1.772985793650150299e-03 -4.052177071571350098e-03 -3.921887371689081192e-03 6.660172948613762856e-04 5.698534194380044937e-03 1.188847143203020096e-02 -5.763494875282049179e-03 -4.320920445024967194e-03 2.317074686288833618e-02 4.758853930979967117e-03 1.760086044669151306e-02 6.881648208945989609e-03 -4.497804213315248489e-03 3.259639255702495575e-03 -1.239033322781324387e-02 -1.890730927698314190e-03 -5.694238003343343735e-03 1.802222570404410362e-03 -7.349327672272920609e-03 -3.034591861069202423e-02 -1.554194930940866470e-02 -2.799582481384277344e-02 -1.832813397049903870e-02 -9.239550679922103882e-03 -1.993034593760967255e-02 -7.199784740805625916e-04 -1.037199143320322037e-02 -3.285459056496620178e-02 -5.394336767494678497e-03 2.303745783865451813e-02 1.075444277375936508e-02 -1.021059788763523102e-02 -1.663659885525703430e-02 1.902301330119371414e-03 1.467847824096679688e-02 8.611358702182769775e-03 2.594774030148983002e-02 -1.623509638011455536e-02 -1.595917856320738792e-03 -1.067946758121252060e-02 3.226946340873837471e-03 1.006707083433866501e-03 1.751115173101425171e-02 -5.558310542255640030e-03 -4.979888908565044403e-04 1.083256676793098450e-03 2.010193886235356331e-03 -1.453941408544778824e-02 1.398005988448858261e-02 -4.491193220019340515e-02 -1.325936336070299149e-02 1.265611778944730759e-02 1.840200088918209076e-02 -1.122474018484354019e-02 -5.920186173170804977e-03 -2.058748714625835419e-02 -5.916793365031480789e-03 -1.294358260929584503e-02 -8.234682492911815643e-03 2.517661545425653458e-03 1.233457351190736517e-05 1.771199703216552734e-02 2.750064060091972351e-02 5.767719820141792297e-03 1.344422926194965839e-03 -3.671571321319788694e-04 8.630780503153800964e-03 1.011090259999036789e-02 8.620097301900386810e-03 -1.090544369071722031e-02 1.480230421293526888e-04 2.753214165568351746e-02 1.255736779421567917e-02 -4.316565580666065216e-03 5.878620781004428864e-03 3.067030385136604309e-02 1.365221664309501648e-02 4.435675684362649918e-03 -1.556050591170787811e-02 1.024649757891893387e-02 1.071677356958389282e-02 -7.150460034608840942e-03 2.620933810248970985e-03 5.448947194963693619e-03 1.301930192857980728e-02 2.754237502813339233e-02 -2.108782343566417694e-02 6.010167300701141357e-03 -5.139336362481117249e-02 2.650674199685454369e-03 9.500684216618537903e-03 -2.182504720985889435e-02 2.384036779403686523e-02 2.957304380834102631e-02 1.901280693709850311e-02 -3.479850245639681816e-03 6.449078209698200226e-03 3.883996745571494102e-03 -7.906436920166015625e-03 1.329126022756099701e-02 5.214354954659938812e-03 -3.524664090946316719e-03 -2.605896256864070892e-02 -3.808852517977356911e-03 -2.429907908663153648e-03 1.160424668341875076e-02
-1.257479749619960785e-02 6.720143370330333710e-03 6.904598325490951538e-03 1.306317979469895363e-03 3.358887135982513428e-02 -1.884851604700088501e-02 -1.515663135796785355e-02 -3.184358123689889908e-03 7.370812818408012390e-03 -1.358314882963895798e-03 1.716562360525131226e-02 8.409631438553333282e-03 1.182791311293840408e-03 2.825052291154861450e-02 1.887630112469196320e-02 -2.305528149008750916e-03 6.616156082600355148e-03 2.297527529299259186e-02 -2.425104752182960510e-02 2.123745944118127227e-04 -2.940791193395853043e-03 -9.291461668908596039e-03 5.040923133492469788e-04 -2.097863331437110901e-02 9.584072045981884003e-03 -1.969788782298564911e-02 1.672125235199928284e-02 -1.091597368940711021e-03 1.339994650334119797e-02 -7.637636736035346985e-03 8.669958449900150299e-03 4.182462766766548157e-02 1.328061893582344055e-02 -2.096849493682384491e-02 -2.678559347987174988e-02 8.091730065643787384e-03 3.436162834987044334e-03 -3.034679917618632317e-03 8.751166053116321564e-03 -1.779586263000965118e-02 1.544125191867351532e-02 -4.956070333719253540e-03 1.670252345502376556e-02 -3.247140720486640930e-02 -2.889406867325305939e-02 -1.025453209877014160e-02 4.686758853495121002e-03 -8.666565641760826111e-03 6.573815830051898956e-03 -3.845210419967770576e-03 -4.122840240597724915e-03 1.853300817310810089e-02 -2.658402547240257263e-02 -1.465884502977132797e-02 1.065411232411861420e-02 3.349950909614562988e-02 2.752934210002422333e-02 2.747209277004003525e-03 5.117314867675304413e-03 5.429198499768972397e-04 1.057956553995609283e-02 -9.017362608574330807e-04 -7.288461085408926010e-03 3.193393722176551819e-02 -3.009645827114582062e-02 7.267741952091455460e-03 -2.369673456996679306e-03 2.445599064230918884e-03 -9.112342377193272114e-05 2.164195058867335320e-03 -1.173146069049835205e-02 8.481509983539581299e-03 -8.613282814621925354e-03 -3.173376619815826416e-02 1.000752486288547516e-02 1.180027727968990803e-03 -1.819037715904414654e-03 -1.185362599790096283e-02 -2.915625274181365967e-02 1.171299256384372711e-02 6.227439269423484802e-03 -1.757310517132282257e-02 -2.200905047357082367e-02 -2.116476744413375854e-02 1.942596398293972015e-02 -1.954997330904006958e-02 -6.510671973228454590e-02 6.764725316315889359e-03 1.139588747173547745e-02 9.838038124144077301e-03 -9.927058592438697815e-03 -8.360250853002071381e-03 8.813656168058514595e-04 -1.365745253860950470e-02 -3.095623292028903961e-02 -1.919427141547203064e-02 1.280883606523275375e-02 1.506766770035028458e-02 -2.578140236437320709e-02 -1.490275096148252487e-02 2.184618642786517739e-04 2.475910075008869171e-02 -1.731244474649429321e-02 2.173442766070365906e-02 -1.649870909750461578e-02 -1.376338768750429153e-02 3.095082938671112061e-02 6.790345069020986557e-03 -1.905499026179313660e-02 -2.322081476449966431e-02 -1.769947633147239685e-02 1.507846522144973278e-03 2.169175073504447937e-02 -4.058303311467170715e-03 1.004642341285943985e-02 -4.307603929191827774e-03 -1.657552667893469334e-03 3.029055427759885788e-03 1.762331277132034302e-02 -3.877642564475536346e-03 8.105008862912654877e-03 3.215263038873672485e-02 2.550033107399940491e-02 -3.721153736114501953e-02 6.024247407913208008e-02 1.180434040725231171e-02 2.894181571900844574e-02 -5.718248337507247925e-02 2.083577215671539307e-02 7.960982620716094971e-03 3.273847326636314392e-02 7.668399251997470856e-03 7.798003498464822769e-04 -4.343485925346612930e-03 -4.337115958333015442e-02 4.290218465030193329e-03 2.372255176305770874e-02 -1.069033052772283554e-03 8.535189554095268250e-03 -9.410671889781951904e-03 1.332722604274749756e-02 1.645465497858822346e-03 -2.819293737411499023e-02 -4.394672811031341553e-03 3.896645735949277878e-03 8.165209554135799408e-03 3.528518602252006531e-03 -7.860329002141952515e-03 1.207701023668050766e-02 9.511879645287990570e-03 -3.641690127551555634e-03 2.377213351428508759e-02 1.193852536380290985e-02 9.703891701065003872e-04 5.959906149655580521e-03 1.336109917610883713e-02 -9.156502783298492432e-03 -3.101037116721272469e-03 -1.942876912653446198e-02 3.762841923162341118e-03 1.316238543950021267e-03 -1.755668967962265015e-02 3.700125962495803833e-02 -2.454937063157558441e-02 6.377912592142820358e-03 -2.347778156399726868e-02 -1.233007875271141529e-03 -2.484761364758014679e-02 1.255545392632484436e-02 -7.224817294627428055e-03 -2.082028426229953766e-02 4.168237093836069107e-03 -2.415675111114978790e-02 8.870860561728477478e-03 3.707810537889599800e-03 -2.579503227025270462e-03 -3.746015252545475960e-03 -6.633982528001070023e-03 3.166915103793144226e-02 3.539275377988815308e-02 9.369880426675081253e-04 2.068301662802696228e-03 2.850358374416828156e-02 2.021569292992353439e-03 -1.087327394634485245e-02 -4.211489111185073853e-03 4.338091611862182617e-02 -4.696803912520408630e-02 -4.930397961288690567e-03 1.949199102818965912e-02 -8.485495112836360931e-03 4.735175520181655884e-03 1.055461121723055840e-03 2.865992486476898193e-02 8.650232106447219849e-03 -3.118478506803512573e-02 -1.939063146710395813e-02 3.841140307486057281e-03 -5.911119282245635986e-03 -6.129246670752763748e-03 8.267169818282127380e-03 -4.404493048787117004e-02 -1.623357646167278290e-02 1.300685014575719833e-02 -5.034666508436203003e-03 -4.040038678795099258e-03 2.211342006921768188e-02 -6.179108167998492718e-04 1.895841956138610840e-02 -1.748409867286682129e-02 -5.291895940899848938e-03 -3.694027196615934372e-03 -3.733409941196441650e-02 5.425403360277414322e-03 -1.841522753238677979e-02 -1.350340712815523148e-02 2.890294417738914490e-02 2.185898460447788239e-02 1.913529558805748820e-04 -1.433880813419818878e-02 8.516508154571056366e-03 -2.237541042268276215e-02 -1.565207494422793388e-03 1.457904651761054993e-02 2.404496632516384125e-02 3.016702271997928619e-02 1.186360605061054230e-02 -2.617403492331504822e-02 3.616460366174578667e-03 2.845678105950355530e-02 1.081878878176212311e-02 6.340864580124616623e-03 -2.942875958979129791e-02 3.649032115936279297e-02 2.511296793818473816e-02 -1.067839562892913818e-02 -1.912083104252815247e-02 -8.015948347747325897e-03 1.679203100502490997e-02 2.324051409959793091e-02 2.648248337209224701e-04 1.406704355031251907e-02 -7.759945932775735855e-03 1.695258356630802155e-02 -8.530484512448310852e-03 2.264980785548686981e-02 -1.371033303439617157e-02 7.869143970310688019e-03 5.492820404469966888e-03 5.589736253023147583e-02 1.288351230323314667e-02 -1.345205958932638168e-02 -1.067218184471130371e-02 -1.369817648082971573e-02 -1.764371804893016815e-02 -1.257502846419811249e-02
1.321219652891159058e-02 4.896348807960748672e-03 -5.162592232227325439e-02 2.143679000437259674e-02 -2.679617842659354210e-03 -1.285547018051147461e-02 -1.295735407620668411e-02 1.656542718410491943e-02 -9.228092618286609650e-03 7.847800850868225098e-03 -2.084883861243724823e-02 2.979809604585170746e-02 7.738012354820966721e-03 -1.612009108066558838e-02 1.116544939577579498e-02 -6.548552308231592178e-03 2.489704638719558716e-03 1.355571020394563675e-02 -4.376307502388954163e-02 9.583099745213985443e-03 -1.062196958810091019e-02 -1.052142214030027390e-02 -1.483474206179380417e-02 1.500169746577739716e-02 -2.982637612149119377e-03 -1.943207159638404846e-02 -1.451570633798837662e-02 -2.271947264671325684e-02 -1.121448446065187454e-02 1.201420277357101440e-02 -2.489582402631640434e-03 -1.972107030451297760e-02 -6.936043500900268555e-03 2.118433080613613129e-02 1.164958579465746880e-03 -4.146425426006317139e-02 1.866292022168636322e-02 7.067062892019748688e-03 6.006290204823017120e-03 -5.796588491648435593e-03 3.458949795458465815e-04 -1.658063195645809174e-02 8.561079390347003937e-03 -1.997503684833645821e-03 -8.286904776468873024e-04 8.841152302920818329e-03 -3.996841982007026672e-02 1.277657691389322281e-02 3.192075993865728378e-03 1.171146426349878311e-02 1.360527426004409790e-02 2.744703087955713272e-03 -5.819533020257949829e-03 -1.450304035097360611e-02 -1.814552024006843567e-02 2.577052824199199677e-02 -7.553501054644584656e-03 -7.610330358147621155e-04 -4.435308743268251419e-03 -1.725801452994346619e-02 -1.740491576492786407e-02 8.917602710425853729e-03 -3.232118615414947271e-04 2.643371233716607094e-03 -9.002326987683773041e-03 -1.228405255824327469e-02 -1.509357057511806488e-02 -8.464657585136592388e-04 5.504264961928129196e-03 -1.463716477155685425e-02 1.485828589648008347e-02 1.367913675494492054e-03 2.345547452569007874e-02 -7.630337495356798172e-03 -5.116836726665496826e-02 -9.588180691935122013e-04 6.240099202841520309e-03 7.385439239442348480e-03 5.028223153203725815e-03 -1.125751808285713196e-02 -1.310005085542798042e-03 -2.277484163641929626e-03 4.845732823014259338e-03 2.935319021344184875e-02 -1.130091492086648941e-02 1.967933587729930878e-02 -2.755279839038848877e-02 -5.748951807618141174e-03 4.828139208257198334e-03 -1.015865150839090347e-02 -4.478842485696077347e-03 -1.196539960801601410e-02 -7.479806430637836456e-03 1.543948333710432053e-02 -5.447865929454565048e-03 -3.132392186671495438e-03 -1.202768646180629730e-02 1.884483918547630310e-02 -6.140851601958274841e-02 -1.192531082779169083e-02 2.410408854484558105e-02 -1.302170101553201675e-02 4.440906923264265060e-03 -2.982750302180647850e-03 -1.711537875235080719e-02 -5.775372497737407684e-03 3.916796762496232986e-03 9.850726462900638580e-03 -4.616010002791881561e-03 2.345028519630432129e-02 3.736740443855524063e-03 -8.960171253420412540e-04 -2.521597035229206085e-02 2.698864974081516266e-02 -4.849617369472980499e-03 2.163610234856605530e-02 1.127594988793134689e-02 2.296317601576447487e-03 3.275211900472640991e-02 1.925507443957030773e-03 -2.280777506530284882e-02 -1.660155365243554115e-03 -1.943482272326946259e-02 -3.082031384110450745e-02 -7.674814201891422272e-03 -1.358266081660985947e-02 -1.309240702539682388e-02 2.275540307164192200e-02 1.095383707433938980e-02 3.818641230463981628e-02 1.840085349977016449e-02 -2.346653258427977562e-03 9.810115210711956024e-03 -3.061709459871053696e-03 1.201512571424245834e-02 1.057033799588680267e-02 -2.342859469354152679e-02 -2.550449594855308533e-02 -6.891349330544471741e-04 2.030889503657817841e-02 -1.286159269511699677e-02 -7.796672638505697250e-03 -1.402439665980637074e-04 -1.617261953651905060e-02 1.046981010586023331e-02 -1.960676535964012146e-02 1.162727363407611847e-02 -2.214504173025488853e-03 1.463940460234880447e-02 1.535000861622393131e-03 3.201898559927940369e-02 3.490691306069493294e-03 1.664762571454048157e-02 4.117270000278949738e-03 9.191215969622135162e-03 -1.016464177519083023e-02 -2.892208285629749298e-02 3.653417807072401047e-03 9.727911092340946198e-03 1.610437524504959583e-03 1.217162143439054489e-02 5.284969694912433624e-03 4.809801932424306870e-03 -3.209068253636360168e-02 -3.035571193322539330e-03 -2.611107658594846725e-03 7.078065536916255951e-03 2.485869452357292175e-02 4.880882625002413988e-04 -1.788172684609889984e-02 7.099039852619171143e-03 -3.272115811705589294e-02 -8.057421073317527771e-03 9.643664583563804626e-03 3.891233121976256371e-03 -8.865933632478117943e-04 4.074205178767442703e-03 2.687359414994716644e-02 1.272540632635354996e-02 8.053603814914822578e-04 -3.457429353147745132e-03 -7.904796861112117767e-03 2.047671191394329071e-02 -7.623090874403715134e-03 1.387650799006223679e-02 8.241861127316951752e-03 7.118186447769403458e-03 7.404643576592206955e-03 -2.069867681711912155e-03 4.668268840759992599e-03 -2.701521385461091995e-03 2.182532288134098053e-02 -6.387617904692888260e-03 -2.683452703058719635e-02 1.924930699169635773e-02 -9.426489472389221191e-03 4.901165957562625408e-04 9.470481425523757935e-03 -7.219591643661260605e-03 -2.044865861535072327e-02 -1.091812271624803543e-02 -1.789890602231025696e-02 1.783242565579712391e-03 7.811887189745903015e-04 -5.894406698644161224e-03 6.275502033531665802e-03 -2.257832093164324760e-03 -2.923769690096378326e-02 -3.730610478669404984e-03 1.008487120270729065e-02 -1.847984618507325649e-03 -3.376080654561519623e-03 7.004180923104286194e-03 -4.949884954839944839e-03 1.753448508679866791e-03 1.703475252725183964e-03 3.585766768082976341e-03 -1.294272113591432571e-02 -2.397144027054309845e-02 2.056435681879520416e-02 2.181107876822352409e-03 2.167453058063983917e-02 -2.189248241484165192e-02 -6.711550056934356689e-03 -1.037284638732671738e-02 -2.089980430901050568e-02 -3.751244628801941872e-03 -8.425015956163406372e-03 -4.573583602905273438e-03 1.372269634157419205e-02 9.724571718834340572e-04 -1.644709706306457520e-02 2.291802130639553070e-02 1.327985711395740509e-02 -8.117723278701305389e-03 -1.508202331024222076e-05 1.270083524286746979e-02 -3.613497596234083176e-03 -1.351338904350996017e-02 -2.857280895113945007e-02 -3.659880603663623333e-04 -2.070644870400428772e-03 -1.218926440924406052e-02 -1.986605580896139145e-03 7.451914250850677490e-03 -3.887758404016494751e-02 -8.991002105176448822e-03 -2.432466251775622368e-03 -9.812033735215663910e-03 -1.757076568901538849e-02 3.809954505413770676e-03 2.936176210641860962e-02 -4.269822966307401657e-03 9.817228652536869049e-03 -1.393095683306455612e-02 2.881501801311969757e-03
-1.592336106114089489e-03 2.033123746514320374e-03 1.924979500472545624e-02 1.071837451308965683e-02 -3.362899180501699448e-03 -1.952893100678920746e-03 3.517870092764496803e-03 2.714464627206325531e-02 2.091347472742199898e-03 2.463681157678365707e-03 2.901140600442886353e-02 1.852783747017383575e-02 5.284949671477079391e-03 -6.594446953386068344e-03 -1.722205057740211487e-02 6.026328075677156448e-03 -6.713255308568477631e-03 2.804268384352326393e-03 -1.400195411406457424e-03 7.031385321170091629e-04 -2.356417942792177200e-03 3.579949727281928062e-03 -1.557603129185736179e-03 -4.376110155135393143e-03 -2.792559750378131866e-02 1.721447706222534180e-02 2.446491457521915436e-02 1.616074331104755402e-02 -3.573091526050120592e-04 -7.152923382818698883e-03 3.574775066226720810e-03 5.930763669312000275e-03 5.179975647479295731e-03 2.884868532419204712e-03 -1.675102487206459045e-02 5.472121411003172398e-04 -1.631347648799419403e-02 6.828626617789268494e-03 2.111368114128708839e-03 4.147338680922985077e-03 -1.956692710518836975e-02 1.881755515933036804e-02 1.046032179147005081e-02 -1.036456599831581116e-02 4.520252812653779984e-03 -1.029037404805421829e-02 1.271288469433784485e-02 -1.653578714467585087e-03 9.129036217927932739e-03 -1.603711582720279694e-02 1.456141937524080276e-02 -5.381315015256404877e-03 -3.929755184799432755e-03 6.499682087451219559e-03 2.003273181617259979e-02 -3.635913133621215820e-02 3.920297138392925262e-03 7.143183611333370209e-04 -4.226369783282279968e-03 -2.239244931843131781e-04 -4.230702295899391174e-03 1.987607218325138092e-03 -1.285128202289342880e-02 1.944462768733501434e-02 2.340410836040973663e-02 -2.665811218321323395e-03 -2.578923478722572327e-03 -7.277604192495346069e-03 1.150951534509658813e-02 2.505418658256530762e-02 5.309409927576780319e-03 6.150271277874708176e-03 1.978725194931030273e-03 -4.721748176962137222e-03 5.287294741719961166e-03 3.863948164507746696e-03 -1.448697783052921295e-02 6.556839682161808014e-03 -1.401299494318664074e-03 -4.190468695014715195e-03 -7.882640929892659187e-04 5.897173192352056503e-03 -1.900302432477474213e-02 -8.990287897177040577e-04 4.048470407724380493e-03 7.770244032144546509e-03 1.913562603294849396e-02 4.436940420418977737e-03 -5.036064889281988144e-03 -9.991587139666080475e-03 -7.561706006526947021e-03 -3.277518786489963531e-03 -5.395121406763792038e-03 7.519170176237821579e-03 -1.924664014950394630e-03 -5.316796246916055679e-03 -1.161065883934497833e-03 8.799050934612751007e-03 -6.148812361061573029e-03 -9.087340906262397766e-03 1.197671284899115562e-03 7.722869515419006348e-03 7.694215048104524612e-03 2.829989185556769371e-03 -1.083029527217149734e-02 -5.721660796552896500e-03 -8.555713109672069550e-03 -8.318869397044181824e-03 -1.168566383421421051e-02 3.089107631240040064e-04 1.250608591362833977e-03 -5.440637934952974319e-03 1.256152801215648651e-02 -1.795121654868125916e-02 -7.777315098792314529e-03 -1.148814707994461060e-02 4.814047366380691528e-03 -4.381519742310047150e-03 -3.359581460244953632e-04 -1.020357385277748108e-02 5.652524530887603760e-03 2.076940797269344330e-02 2.712045237421989441e-02 6.932397373020648956e-03 3.269766690209507942e-03 -9.929212974384427071e-04 -2.105833403766155243e-02 -1.467272359877824783e-02 2.844280004501342773e-02 -2.598946681246161461e-03 1.694188802503049374e-03 -6.136333104223012924e-03 9.321397170424461365e-03 8.237805217504501343e-03 1.792402938008308411e-03 -5.385173717513680458e-04 -5.439607426524162292e-03 3.761942207347601652e-04 -5.841210950165987015e-03 1.625527068972587585e-02 -7.446604780852794647e-03 1.530228555202484131e-02 1.389542501419782639e-02 1.394891738891601562e-02 1.969031523913145065e-03 -2.148124203085899353e-02 1.127295196056365967e-02 2.220973139628767967e-03 -2.011971082538366318e-04 1.047416217625141144e-02 -4.560756497085094452e-03 -7.633933331817388535e-03 -5.221100989729166031e-03 1.281806733459234238e-02 -1.068216655403375626e-02 -9.428242221474647522e-03 -3.547271480783820152e-03 -6.752563174813985825e-03 -3.910704981535673141e-03 2.609866904094815254e-03 -7.700273301452398300e-03 -8.109950460493564606e-03 2.445226069539785385e-03 -1.069749519228935242e-02 1.621240004897117615e-02 7.098280359059572220e-03 1.351682469248771667e-02 3.075551614165306091e-02 -6.149725057184696198e-03 -2.406850922852754593e-03 1.509856199845671654e-03 4.097081255167722702e-03 6.785694975405931473e-03 1.676055486313998699e-03 -2.151033608242869377e-03 -1.007287669926881790e-02 -6.453233771026134491e-03 -1.094043813645839691e-02 -1.390115078538656235e-02 -2.717353170737624168e-03 7.423403207212686539e-03 -1.953186467289924622e-03 -8.305473253130912781e-03 8.348922245204448700e-03 -1.209024572744965553e-03 -5.349958315491676331e-03 -3.707086900249123573e-03 -2.970340661704540253e-03 -6.076859310269355774e-03 -5.560829769819974899e-03 -8.625440299510955811e-03 1.411296054720878601e-02 -9.300800040364265442e-03 -3.075875109061598778e-03 1.105921715497970581e-02 1.540038641542196274e-02 -7.417041924782097340e-04 1.120079681277275085e-02 -3.019695356488227844e-02 -2.019723691046237946e-02 -1.589016243815422058e-02 2.178562339395284653e-03 -7.764169480651617050e-03 1.274340087547898293e-03 -1.133725605905056000e-02 3.158834879286587238e-04 4.058712511323392391e-04 8.287177770398557186e-04 1.347876526415348053e-02 -1.160059962421655655e-02 1.074007805436849594e-02 2.878013765439391136e-03 1.270007062703371048e-02 5.139059387147426605e-03 -1.967581361532211304e-02 7.032423745840787888e-03 1.839341036975383759e-02 -2.571631781756877899e-02 4.973332397639751434e-03 -1.261660247109830379e-03 5.791885778307914734e-03 3.812432987615466118e-03 -1.263489294797182083e-02 4.129875916987657547e-03 -6.504371762275695801e-03 -4.902963526546955109e-03 1.192285213619470596e-02 5.943947471678256989e-03 2.550080046057701111e-02 -3.298499388620257378e-03 -1.924140378832817078e-02 -2.025133743882179260e-02 -1.183347310870885849e-02 1.561646233312785625e-03 -7.063954602926969528e-03 2.314753830432891846e-03 -1.282376796007156372e-02 9.044086560606956482e-03 -1.109415385872125626e-02 -1.898818835616111755e-02 1.377307577058672905e-03 -8.669411763548851013e-03 -3.839212469756603241e-03 -1.115650963038206100e-02 6.386346649378538132e-03 -8.979736827313899994e-03 -6.058974657207727432e-03 1.023754104971885681e-02 6.360222119837999344e-03 -4.173061752226203680e-04 1.037675188854336739e-03 2.025161404162645340e-03 4.316944105084985495e-04 3.472345182672142982e-03 -1.704022474586963654e-02 1.237223017960786819e-02
-2.579647814854979515e-03 7.865249179303646088e-03 4.276300594210624695e-02 1.554355490952730179e-03 -2.495173178613185883e-02 -1.428683171980082989e-03 1.240908168256282806e-02 -7.712797261774539948e-03 -3.396708052605390549e-03 -1.538836490362882614e-02 -4.740878473967313766e-03 7.618846575496718287e-05 7.551836897619068623e-04 9.129188954830169678e-03 -2.405803184956312180e-03 2.951224159915000200e-04 5.480800755321979523e-03 -8.022384718060493469e-03 -4.994445480406284332e-03 -1.607711799442768097e-02 2.209374308586120605e-02 -2.163637802004814148e-02 -1.693464256823062897e-02 -1.524903066456317902e-02 4.214750602841377258e-03 1.945763651747256517e-04 1.788995577953755856e-03 3.250045701861381531e-03 4.795166198164224625e-03 1.491097733378410339e-02 2.449704334139823914e-02 2.953210100531578064e-02 1.911904849112033844e-02 8.584928582422435284e-04 -6.086270324885845184e-03 -4.592303652316331863e-03 -3.300232347100973129e-03 -2.424927661195397377e-03 -9.729508310556411743e-03 -2.064381539821624756e-02 1.158907078206539154e-02 1.546793244779109955e-02 4.089557565748691559e-03 -2.679688483476638794e-02 -1.273526530712842941e-02 -1.582592539489269257e-02 -6.935772020369768143e-03 -3.283741185441613197e-03 2.833972126245498657e-02 -2.062435634434223175e-02 8.538147434592247009e-03 5.017565097659826279e-03 3.848025575280189514e-02 -6.099495571106672287e-03 1.378194894641637802e-02 -2.295387536287307739e-02 1.233806274831295013e-02 3.689912846311926842e-03 -1.200620830059051514e-02 1.533886650577187538e-03 -5.950966384261846542e-03 -2.619743347167968750e-02 -2.276190929114818573e-02 -1.225584466010332108e-02 2.515106834471225739e-02 -1.622611284255981445e-02 -7.913711480796337128e-03 -6.000615190714597702e-03 -3.250463679432868958e-02 2.315338142216205597e-02 -2.010464435443282127e-03 2.736452035605907440e-02 -2.119357697665691376e-02 2.474951744079589844e-02 1.487076561897993088e-02 5.649955477565526962e-03 -8.342847228050231934e-03 -1.767413690686225891e-02 1.444787438958883286e-02 -7.201272994279861450e-03 8.791436441242694855e-03 -5.947118625044822693e-04 -6.760456599295139313e-03 -1.328729372471570969e-02 1.799553632736206055e-02 -1.058654021471738815e-02 -2.079050801694393158e-02 -4.569194745272397995e-03 -2.379986830055713654e-02 -2.085646986961364746e-02 9.350258857011795044e-03 1.610294729471206665e-02 1.462897937744855881e-02 4.407566506415605545e-03 -1.461852621287107468e-02 -7.356864400207996368e-03 -2.346898801624774933e-02 -6.598489359021186829e-03 7.112037856131792068e-04 3.136279061436653137e-02 -1.113591901957988739e-02 -1.956825610250234604e-03 2.710599219426512718e-03 1.078328490257263184e-02 3.430781187489628792e-03 -5.231747869402170181e-03 -1.680428721010684967e-02 -9.367225575260818005e-04 2.649782923981547356e-03 -2.817799570038914680e-03 3.314707195386290550e-03 2.298910636454820633e-03 2.600252442061901093e-02 9.908171370625495911e-03 1.114878104999661446e-03 -8.649690076708793640e-03 -1.465043867938220501e-03 8.695103228092193604e-03 -6.338786799460649490e-03 -3.303482383489608765e-02 1.439584535546600819e-03 2.249117940664291382e-02 3.279929235577583313e-02 1.286594383418560028e-02 1.009052805602550507e-02 9.857345372438430786e-03 -9.727625874802470207e-04 -6.462492048740386963e-03 1.229125168174505234e-02 -1.256238855421543121e-02 6.135700270533561707e-03 1.403925754129886627e-02 -3.299080953001976013e-02 7.194195059128105640e-04 -9.422298171557486057e-04 1.382798235863447189e-02 -1.197819784283638000e-02 8.246848359704017639e-03 -9.567995555698871613e-03 -1.925846561789512634e-02 1.957398280501365662e-02 -3.861108794808387756e-03 1.715467660687863827e-03 -7.819011807441711426e-03 -9.687514975666999817e-04 -1.598346978425979614e-02 1.770980469882488251e-02 -1.530779642052948475e-03 -9.750500321388244629e-03 -5.032099317759275436e-03 -1.177142746746540070e-02 1.434163469821214676e-02 -5.611932836472988129e-03 8.594757877290248871e-03 -1.976833678781986237e-03 3.404524875804781914e-03 2.853153087198734283e-02 -2.439953386783599854e-03 3.029483137652277946e-03 -1.735278032720088959e-02 7.466496899724006653e-03 2.257517771795392036e-03 -1.449287496507167816e-02 3.039414063096046448e-03 -1.465043611824512482e-02 2.879159757867455482e-03 -5.380005110055208206e-03 1.042867451906204224e-02 8.485614322125911713e-03 7.433722727000713348e-03 2.028730232268571854e-03 -1.594543457031250000e-02 -4.855380859225988388e-03 -7.655613590031862259e-03 1.059720944613218307e-02 -1.332153286784887314e-02 3.219316946342587471e-03 -7.895640097558498383e-03 -2.097761444747447968e-02 9.257390163838863373e-03 2.168185776099562645e-03 -2.665826352313160896e-03 2.271794155240058899e-02 -6.219051778316497803e-03 1.115856878459453583e-02 -1.134338881820440292e-02 1.223351806402206421e-02 -8.877162821590900421e-03 -9.918977506458759308e-03 1.889641745947301388e-03 2.528497576713562012e-02 -2.015203982591629028e-02 1.173378527164459229e-02 -8.454094640910625458e-03 -2.611882612109184265e-02 -3.638200869318097830e-04 -1.176844164729118347e-02 3.401564061641693115e-02 -2.164350636303424835e-02 1.604977436363697052e-02 -5.934950429946184158e-03 4.391991067677736282e-03 2.257907297462224960e-03 -1.163510140031576157e-02 -1.080884039402008057e-02 5.769776646047830582e-03 1.743122749030590057e-02 3.763694781810045242e-03 -1.636111922562122345e-02 -8.012947626411914825e-03 3.259768709540367126e-03 -7.884924300014972687e-03 -2.521671541035175323e-02 -1.984679698944091797e-02 8.110354654490947723e-03 1.449160336051136255e-04 1.638970896601676941e-02 1.382447872310876846e-02 -9.699405170977115631e-03 1.767945848405361176e-02 -1.329153403639793396e-02 5.786640569567680359e-03 8.737917989492416382e-03 1.191508863121271133e-02 -1.383944973349571228e-02 5.771635565906763077e-03 1.208871323615312576e-02 -9.512386284768581390e-03 -5.912069696933031082e-03 -1.325960643589496613e-02 -7.197001483291387558e-03 4.049673210829496384e-03 -5.821151193231344223e-03 8.309266529977321625e-03 2.025105204666033387e-04 3.954979591071605682e-03 3.600665368139743805e-03 -1.558422576636075974e-02 -1.578955911099910736e-02 -1.542425015941262245e-03 -1.712498255074024200e-02 -4.849614051636308432e-04 1.824504509568214417e-02 1.126980502158403397e-02 -6.554548162966966629e-03 -1.502613443881273270e-02 5.152327939867973328e-03 -4.447992891073226929e-03 -1.980399014428257942e-03 1.636293902993202209e-02 -1.517179980874061584e-02 -1.146703492850065231e-02 1.635766960680484772e-02 -1.151646208018064499e-02 -6.294024176895618439e-03 2.775719389319419861e-02
2.517949230968952179e-02 -4.410814959555864334e-03 1.896076463162899017e-02 -9.696288965642452240e-03 9.290331043303012848e-03 5.954685155302286148e-03 1.622193492949008942e-02 -1.111214514821767807e-03 -1.778547652065753937e-02 8.736710995435714722e-03 -1.279130205512046814e-02 -9.565357118844985962e-03 4.539842251688241959e-03 -2.508334117010235786e-03 -1.245073508471250534e-02 -1.826567575335502625e-02 -3.225516760721802711e-03 8.368166163563728333e-03 2.730339532718062401e-03 -1.319943927228450775e-02 -5.627002101391553879e-03 -1.814041868783533573e-03 -1.049086358398199081e-02 1.782824844121932983e-02 1.474490505643188953e-03 6.028842646628618240e-03 5.993781611323356628e-03 -4.898460465483367443e-04 3.769604256376624107e-03 2.015874162316322327e-02 1.185705140233039856e-02 1.118069398216903210e-03 1.062387833371758461e-03 -2.546753734350204468e-03 1.316673960536718369e-02 2.411800995469093323e-02 -6.807713303714990616e-03 9.007601998746395111e-03 1.384044735459610820e-04 6.184658850543200970e-04 -5.269554443657398224e-03 -7.006339728832244873e-03 1.708258874714374542e-02 2.871449664235115051e-02 1.725924387574195862e-02 -6.962761748582124710e-03 1.370404567569494247e-02 9.380282834172248840e-03 -1.089112367480993271e-02 1.986344344913959503e-02 4.798257723450660706e-03 1.973551698029041290e-02 8.425668813288211823e-03 -2.605613553896546364e-03 5.822359118610620499e-03 1.424963958561420441e-02 -6.595314480364322662e-03 -1.795815303921699524e-02 1.255905628204345703e-02 3.454077523201704025e-04 -1.117373630404472351e-02 1.393566653132438660e-02 -1.578557537868618965e-03 -1.421871967613697052e-02 1.859075017273426056e-02 2.061395160853862762e-02 7.152478676289319992e-03 2.403970435261726379e-02 -6.232170388102531433e-03 -3.483533393591642380e-03 -1.387351658195257187e-02 1.192210614681243896e-02 1.761064678430557251e-02 1.650853641331195831e-02 -1.710506156086921692e-02 -2.508579194545745850e-02 -1.702865585684776306e-02 -3.024668060243129730e-02 1.414815662428736687e-03 6.473883055150508881e-03 6.718671415001153946e-03 3.120640292763710022e-02 8.893879130482673645e-03 -1.956138527020812035e-03 -3.390055149793624878e-03 -2.025805786252021790e-02 -2.257149852812290192e-02 2.106853201985359192e-02 1.222336140926927328e-04 -1.723244599997997284e-02 -6.786583457142114639e-03 5.056788679212331772e-03 2.240963466465473175e-02 -1.201548986136913300e-02 3.081863932311534882e-02 -1.207370683550834656e-02 -2.300344221293926239e-02 -5.587054416537284851e-03 -6.954787531867623329e-04 -5.003434140235185623e-03 -1.667783223092556000e-02 -6.932562682777643204e-03 3.947787359356880188e-02 -2.098571322858333588e-02 3.394533321261405945e-02 -1.120947860181331635e-02 -2.111557871103286743e-02 8.968424983322620392e-03 2.655325457453727722e-02 4.822133574634790421e-03 1.316688867518678308e-04 -1.998374611139297485e-02 7.029993925243616104e-03 2.002481743693351746e-02 3.917555324733257294e-03 -2.311813179403543472e-03 -1.883577322587370872e-03 6.075487544876523316e-05 2.214218024164438248e-03 -2.334055723622441292e-03 2.181415446102619171e-02 1.889904029667377472e-02 9.303227066993713379e-03 -3.996326401829719543e-02 -1.569432765245437622e-02 -1.694078184664249420e-02 -3.068670816719532013e-02 -2.495987573638558388e-03 -2.925992384552955627e-02 2.131662517786026001e-02 1.502371486276388168e-02 3.679314628243446350e-03 4.747778177261352539e-03 2.841850183904170990e-02 9.306169115006923676e-03 -1.457256264984607697e-02 -2.419037930667400360e-02 -5.290275439620018005e-03 -1.536605041474103928e-02 -6.327515002340078354e-03 8.625915274024009705e-03 -1.442326977849006653e-02 -1.636024378240108490e-02 -9.612740017473697662e-03 -6.207019905559718609e-04 -3.460197476670145988e-03 1.879838295280933380e-02 -1.458344329148530960e-02 -2.561037614941596985e-02 -1.310452446341514587e-02 -1.080802269279956818e-02 -2.742783166468143463e-03 7.498032879084348679e-03 1.133067905902862549e-02 4.068318754434585571e-03 -1.895376131869852543e-03 6.338298320770263672e-03 -9.586047381162643433e-04 4.809968173503875732e-03 -1.340898964554071426e-02 -5.829407367855310440e-03 1.309880893677473068e-02 2.286750823259353638e-02 5.047563835978507996e-02 -1.648831553757190704e-02 -9.228645823895931244e-03 3.407313674688339233e-02 -6.578871514648199081e-03 2.376035973429679871e-02 1.427854294888675213e-03 3.442493733018636703e-03 4.066029097884893417e-03 1.032230095006525517e-03 6.465509068220853806e-03 7.446960080415010452e-03 2.638518344610929489e-03 -1.641811430454254150e-02 4.136074334383010864e-02 -3.283802187070250511e-03 1.053174305707216263e-02 1.103219576179981232e-03 3.399939090013504028e-02 -1.957789994776248932e-02 5.544946063309907913e-03 -4.637590143829584122e-03 4.422461148351430893e-03 -9.791023097932338715e-03 -7.171678822487592697e-03 1.016290672123432159e-02 -9.662646916694939137e-04 3.418033476918935776e-03 -5.480332300066947937e-03 -1.323362812399864197e-02 1.685015857219696045e-02 9.349679574370384216e-03 -3.489212598651647568e-03 1.711014658212661743e-02 1.619135774672031403e-02 -1.880596205592155457e-02 1.577565073966979980e-02 9.345271624624729156e-03 1.415015850216150284e-02 -3.243577666580677032e-03 1.881600543856620789e-02 9.595700539648532867e-03 1.301734987646341324e-02 -1.085999794304370880e-02 -6.971671711653470993e-03 3.193393722176551819e-02 4.808747209608554840e-03 4.225693643093109131e-03 1.488986425101757050e-02 2.273383922874927521e-02 -2.782771922647953033e-02 -6.049890536814928055e-03 9.312591515481472015e-03 -2.806169213727116585e-03 -9.002009406685829163e-03 -3.223606944084167480e-02 1.813975721597671509e-02 -1.196672394871711731e-02 -8.876394480466842651e-03 -1.515114121139049530e-02 2.278927713632583618e-02 1.917058601975440979e-03 -1.048775576055049896e-02 -1.417786162346601486e-02 -7.699227426201105118e-03 1.717140339314937592e-02 -1.378849986940622330e-02 -1.866134069859981537e-02 -7.457642816007137299e-03 -3.411869332194328308e-02 4.889696370810270309e-03 2.288617938756942749e-02 -1.422442801413126290e-05 -6.555276922881603241e-03 1.057781558483839035e-02 -1.307604275643825531e-02 -6.502319592982530594e-03 -1.281194854527711868e-02 1.650263555347919464e-02 -3.633280983194708824e-03 4.514733795076608658e-03 -1.232246682047843933e-02 2.051038853824138641e-02 -2.364009246230125427e-02 9.919443167746067047e-03 9.561509825289249420e-03 -4.136917646974325180e-03 -3.096350934356451035e-03 -1.840736251324415207e-03 -8.232346735894680023e-03 2.006177045404911041e-02 8.196519920602440834e-04 -1.276346575468778610e-02
1.238161511719226837e-02 -1.950859650969505310e-02 2.417468931525945663e-03 1.286790985614061356e-02 1.013298705220222473e-02 1.227566692978143692e-02 1.985291717574000359e-03 4.113920032978057861e-03 7.162132766097784042e-03 -1.303102076053619385e-02 1.918728463351726532e-02 -1.064157392829656601e-02 -9.001855738461017609e-03 -2.260398864746093750e-02 -1.198379136621952057e-02 -2.535769715905189514e-02 -1.838788762688636780e-02 3.242927137762308121e-03 7.177039980888366699e-03 2.054140157997608185e-02 -6.574828643351793289e-03 -6.841806462034583092e-04 5.403316114097833633e-03 1.036286167800426483e-02 -3.314745554234832525e-04 -9.889048524200916290e-03 -1.265752036124467850e-02 -4.568144679069519043e-03 1.136905606836080551e-02 2.063800953328609467e-02 5.198101513087749481e-03 1.223583612591028214e-02 -3.306912630796432495e-02 -7.126844022423028946e-03 1.721010892651975155e-03 -8.245591074228286743e-03 1.577166095376014709e-02 -9.727217257022857666e-03 -1.969249173998832703e-02 -2.705651335418224335e-02 1.985151134431362152e-02 -6.840201094746589661e-03 -1.141766086220741272e-02 -2.175880782306194305e-02 1.160345226526260376e-02 3.389707300812005997e-03 -6.877865176647901535e-03 9.304174222052097321e-03 -1.813026890158653259e-02 2.942356653511524200e-02 2.601619111374020576e-03 2.054086327552795410e-02 -3.632846986874938011e-03 -1.705424278043210506e-03 -1.956894434988498688e-02 3.252692520618438721e-02 -8.224477060139179230e-03 -1.402603345923125744e-03 -9.687091223895549774e-03 1.299702469259500504e-02 6.060211453586816788e-03 -8.455175906419754028e-03 1.582536473870277405e-02 -7.394096814095973969e-03 -8.276985026895999908e-03 -4.660867620259523392e-03 -1.003714371472597122e-02 2.734684385359287262e-03 -1.274922210723161697e-02 -5.036173388361930847e-03 -5.137153901159763336e-03 2.786320168524980545e-03 1.648281328380107880e-02 1.012590061873197556e-02 3.911485837306827307e-04 -3.877420676872134209e-03 -1.182166486978530884e-02 2.006870694458484650e-02 -6.009326782077550888e-03 -1.794303650967776775e-03 1.345509197562932968e-03 6.244050804525613785e-03 6.358039099723100662e-03 9.425871074199676514e-03 5.496844183653593063e-03 -6.829026620835065842e-03 3.815918415784835815e-02 1.062485668808221817e-02 6.536220666021108627e-03 1.158255059272050858e-02 -3.723270958289504051e-03 -1.301765255630016327e-02 1.448184344917535782e-02 -7.537357043474912643e-03 1.602352783083915710e-02 -1.154890377074480057e-02 7.791663520038127899e-03 2.018793299794197083e-02 -1.653898507356643677e-02 1.855094917118549347e-02 -1.213826891034841537e-02 1.883388962596654892e-03 1.135304477065801620e-02 2.495020395144820213e-03 1.976334676146507263e-02 -2.933448739349842072e-02 -4.465361312031745911e-02 -2.175833843648433685e-02 -7.535052951425313950e-03 1.820626854896545410e-02 -9.884333238005638123e-03 2.075887657701969147e-02 2.586035116109997034e-04 2.796491794288158417e-02 2.502615936100482941e-02 1.607242785394191742e-02 3.516620490700006485e-03 3.360128030180931091e-03 1.528389565646648407e-02 1.373746246099472046e-02 2.701036445796489716e-02 3.269270993769168854e-03 3.927742596715688705e-03 -3.018072247505187988e-02 -1.295547280460596085e-02 1.247227046405896544e-04 -4.764873010572046041e-04 9.193299920298159122e-04 -1.017648144625127316e-03 2.481129718944430351e-03 1.061467826366424561e-02 -1.042491942644119263e-02 5.643934011459350586e-03 9.766635484993457794e-04 -1.133316848427057266e-02 -1.850472018122673035e-02 -1.673542521893978119e-02 -4.843802656978368759e-03 -7.476131897419691086e-03 3.493505343794822693e-02 7.954484783113002777e-03 5.528829526156187057e-03 1.542540849186480045e-04 6.632586475461721420e-03 -1.506265602074563503e-03 -2.705027535557746887e-02 3.632030636072158813e-02 -1.489046216011047363e-02 -8.554349653422832489e-03 -4.643155261874198914e-03 -1.128665823489427567e-02 3.472765162587165833e-02 1.900817384012043476e-03 9.807769209146499634e-03 3.118238411843776703e-03 -2.331171743571758270e-02 2.433513849973678589e-02 2.132584899663925171e-02 8.578133769333362579e-03 2.934191003441810608e-02 -8.037668652832508087e-03 3.877071430906653404e-03 1.807513996027410030e-03 -2.649305388331413269e-03 5.809233523905277252e-03 -2.289533615112304688e-02 4.351263924036175013e-04 7.575030322186648846e-04 7.236023433506488800e-03 -1.092623267322778702e-02 -1.024935394525527954e-02 -2.681682817637920380e-03 6.411801092326641083e-03 2.462451346218585968e-03 1.806028001010417938e-02 -5.249846726655960083e-03 1.266636978834867477e-02 -1.220854581333696842e-03 1.566756051033735275e-03 9.990056045353412628e-03 2.318999543786048889e-02 2.548123896121978760e-02 -9.950318373739719391e-03 -2.520623616874217987e-03 -1.568008214235305786e-02 1.177707221359014511e-02 -1.440875791013240814e-02 -7.374484557658433914e-03 2.032719086855649948e-03 2.529770135879516602e-04 -6.303345318883657455e-03 -3.383917268365621567e-03 8.683457970619201660e-03 1.166953146457672119e-02 3.618718124926090240e-03 4.232866223901510239e-03 -3.502258565276861191e-03 -1.317410147748887539e-03 -1.646191463805735111e-03 -2.069114416372030973e-04 3.629014594480395317e-03 -5.983893293887376785e-03 -2.347247442230582237e-03 -1.070651598274707794e-02 2.227846300229430199e-03 -4.907589405775070190e-02 -4.771927779074758291e-04 -2.129481360316276550e-02 1.817235373891890049e-03 1.931088627316057682e-03 8.375939796678721905e-04 -3.098646923899650574e-02 -1.984978467226028442e-02 -2.409150265157222748e-02 -9.990897960960865021e-03 -1.452207099646329880e-03 -7.960703223943710327e-03 1.508647389709949493e-02 -9.983713738620281219e-03 1.247756462544202805e-02 4.657685756683349609e-03 -1.331218983978033066e-03 8.397105149924755096e-03 5.348640959709882736e-03 1.506025437265634537e-02 -1.467325072735548019e-02 4.909543786197900772e-03 -1.968343742191791534e-02 -6.595206446945667267e-03 -5.717441905289888382e-03 1.759083941578865051e-02 -1.023349259048700333e-02 5.974239669740200043e-03 1.068191602826118469e-02 4.877929110080003738e-03 -1.574729755520820618e-02 -7.760153617709875107e-03 -1.190574187785387039e-02 -2.666192827746272087e-03 -7.838090881705284119e-03 -3.521952405571937561e-02 -8.186559192836284637e-03 5.402676761150360107e-03 -4.034266248345375061e-02 -2.493346109986305237e-02 3.319536149501800537e-02 4.881470464169979095e-03 1.725262962281703949e-02 -1.033676974475383759e-02 -2.410252112895250320e-03 -6.085569038987159729e-03 -7.817527279257774353e-03 3.745002672076225281e-03 5.239438265562057495e-03 -2.317070029675960541e-02 3.120067995041608810e-03
-1.574537158012390137e-02 1.038685999810695648e-02 -2.775656990706920624e-02 -1.035772357136011124e-02 -3.789868950843811035e-02 -1.024746103212237358e-03 5.886073689907789230e-03 -7.791246753185987473e-03 -1.327580027282238007e-02 7.606894709169864655e-03 7.435576524585485458e-03 1.137058995664119720e-02 -2.800854481756687164e-02 -3.168808668851852417e-02 -1.577900350093841553e-02 6.513393949717283249e-03 1.071078516542911530e-02 4.924987256526947021e-02 -9.119104593992233276e-03 -1.733422861434519291e-03 -3.288143500685691833e-02 -1.430754084140062332e-02 2.184719080105423927e-03 -2.086237631738185883e-02 -1.393302530050277710e-02 1.229695044457912445e-02 -1.416635047644376755e-02 2.047260105609893799e-02 3.200855106115341187e-02 4.106346145272254944e-02 1.688350364565849304e-02 7.628232240676879883e-03 -5.439065024256706238e-02 5.610712105408310890e-04 -1.473157666623592377e-03 -9.794503450393676758e-03 -9.689075872302055359e-03 5.855725146830081940e-03 2.552168257534503937e-02 -5.891743116080760956e-03 2.622033096849918365e-02 -9.095906279981136322e-03 -1.201579929329454899e-03 1.912384480237960815e-02 1.437858026474714279e-02 -1.615484943613409996e-03 4.048064723610877991e-02 -2.572846040129661560e-02 -1.192083768546581268e-02 8.636309648863971233e-04 -4.741390701383352280e-03 -4.084839485585689545e-03 -1.231085602194070816e-02 6.551959551870822906e-03 -1.828869245946407318e-02 -7.282185368239879608e-03 -2.363421767950057983e-02 8.016939318622462451e-06 1.615258120000362396e-02 -1.458954717963933945e-02 -2.777492394670844078e-03 6.109270732849836349e-03 -2.523896470665931702e-02 9.120915085077285767e-03 -1.738947629928588867e-02 -1.172926463186740875e-02 2.263982221484184265e-02 5.369547754526138306e-03 9.103371761739253998e-03 6.419850047677755356e-03 1.084082387387752533e-02 6.892920471727848053e-03 1.904200180433690548e-03 -3.722023684531450272e-03 -3.295724978670477867e-03 -2.121243858709931374e-03 -1.118806377053260803e-02 1.262874528765678406e-02 8.493619970977306366e-03 -2.307393215596675873e-02 8.503945544362068176e-03 -2.923078136518597603e-03 -4.764815792441368103e-03 3.911918029189109802e-03 -1.625254191458225250e-02 2.301787026226520538e-03 -1.368353608995676041e-02 -1.303555630147457123e-02 7.040337077341973782e-04 8.088421891443431377e-04 7.782961707562208176e-03 -1.807434600777924061e-04 -1.199861057102680206e-02 1.609798520803451538e-02 -1.163541059941053391e-02 2.512386301532387733e-03 2.410678192973136902e-02 -2.321012131869792938e-02 1.218504644930362701e-02 -1.082990597933530807e-02 2.877718769013881683e-02 -5.605304148048162460e-03 1.192015968263149261e-02 -2.260519657284021378e-03 -2.163557149469852448e-02 8.395390585064888000e-03 -1.272265333682298660e-02 -1.034145895391702652e-02 6.683953106403350830e-02 -1.032543601468205452e-03 3.509325673803687096e-03 -2.006497932597994804e-03 -2.404897287487983704e-02 -4.078247770667076111e-02 3.447428718209266663e-02 -3.520790860056877136e-02 3.518507117405533791e-03 7.201490458101034164e-03 -1.797571964561939240e-02 -1.205664221197366714e-02 -1.267453748732805252e-02 3.282734251115471125e-04 2.706686221063137054e-02 -2.307630842551589012e-03 -7.879825308918952942e-03 -3.210046561434864998e-03 -1.299227401614189148e-02 -1.273979526013135910e-02 1.963836513459682465e-02 -4.190962295979261398e-03 8.728157728910446167e-03 1.722571067512035370e-02 -5.412829341366887093e-04 -1.298170816153287888e-02 1.091449614614248276e-02 -9.738874621689319611e-03 -3.488776087760925293e-02 1.495568547397851944e-02 1.723852753639221191e-02 -6.575105246156454086e-03 5.403812509030103683e-03 -4.286925774067640305e-03 2.157165668904781342e-02 -2.118377573788166046e-02 -1.642052829265594482e-02 -1.489713601768016815e-02 -8.314732462167739868e-03 -1.891595497727394104e-02 7.567593362182378769e-03 -9.006817825138568878e-03 -2.081388607621192932e-03 -2.293230965733528137e-02 1.063475105911493301e-02 -9.063045494258403778e-03 9.477037936449050903e-03 -8.085633628070354462e-03 6.672855466604232788e-03 1.332769636064767838e-02 9.225028916262090206e-04 9.271118789911270142e-03 -8.954574353992938995e-03 2.597365761175751686e-03 -1.077732443809509277e-02 -1.350668165832757950e-02 -4.689905326813459396e-03 -1.848511747084558010e-03 1.801906526088714600e-02 -9.751454927027225494e-03 -8.152168244123458862e-03 1.545064710080623627e-02 1.754592172801494598e-02 6.399207282811403275e-03 -1.231956179253757000e-03 -3.150937613099813461e-03 3.981955815106630325e-03 -8.855642750859260559e-03 -7.165607064962387085e-03 -6.797236856073141098e-03 4.057109821587800980e-03 3.166295820847153664e-03 8.780810981988906860e-03 2.133726514875888824e-02 -1.128880586475133896e-02 -3.289430588483810425e-02 4.806298762559890747e-03 -2.548031695187091827e-02 1.335576549172401428e-02 1.662473514443263412e-04 5.141890142112970352e-03 -1.562629826366901398e-03 6.275905761867761612e-03 6.804852164350450039e-04 1.291182078421115875e-02 -1.445359271019697189e-02 -1.386097259819507599e-02 2.734957076609134674e-02 -1.871114829555153847e-03 -3.381167771294713020e-03 -6.571257486939430237e-03 -1.383237307891249657e-03 6.152206566184759140e-03 -4.307146649807691574e-03 -1.528364326804876328e-02 -3.296294016763567924e-03 3.366174641996622086e-03 -3.401135280728340149e-02 -1.036008819937705994e-02 -1.796879991888999939e-02 1.471290364861488342e-02 2.725007571280002594e-02 9.759015403687953949e-03 1.830291375517845154e-02 1.435447856783866882e-02 -1.313218567520380020e-02 -1.557339355349540710e-02 -5.265060812234878540e-03 3.146166214719414711e-03 -2.839936688542366028e-02 1.011131447739899158e-03 1.855853386223316193e-02 -1.922913477756083012e-03 -2.828740747645497322e-03 -9.796512313187122345e-03 -3.028237493708729744e-03 -1.742124371230602264e-02 -2.743200212717056274e-02 5.164326354861259460e-02 3.848315449431538582e-03 7.745305076241493225e-03 5.350921768695116043e-03 1.719558797776699066e-02 7.709375116974115372e-03 -3.211152553558349609e-02 -7.236132863909006119e-03 -5.739289335906505585e-04 -1.524701341986656189e-02 -1.168443169444799423e-02 -9.433307684957981110e-03 1.186759490519762039e-02 4.500283394008874893e-03 -1.179704815149307251e-02 1.148975640535354614e-02 -1.386446785181760788e-02 -4.626299720257520676e-03 2.681894414126873016e-02 5.613331682980060577e-03 3.366623446345329285e-02 5.184552446007728577e-02 -8.957001380622386932e-03 2.516429312527179718e-02 2.850265800952911377e-02 -3.708302043378353119e-03 -5.554089788347482681e-03 3.003849834203720093e-02 1.091659348458051682e-02 1.530387252569198608e-02
-3.444774076342582703e-03 8.219691226258873940e-04 -1.230601780116558075e-02 -5.859502591192722321e-03 -7.284328807145357132e-03 7.779385894536972046e-03 8.992836810648441315e-03 2.179424278438091278e-02 5.012546665966510773e-03 1.979177817702293396e-03 1.582094468176364899e-03 1.510741095989942551e-02 2.583062462508678436e-02 1.114279963076114655e-02 1.278873253613710403e-02 -5.887762643396854401e-03 2.237188629806041718e-03 2.034122357144951820e-03 4.741833545267581940e-03 2.526495605707168579e-03 -1.944632828235626221e-02 -6.913480348885059357e-03 -4.549802746623754501e-03 -2.766982279717922211e-02 -1.292555686086416245e-02 -1.462219562381505966e-02 -2.348281629383563995e-02 -4.667947534471750259e-03 -3.051710873842239380e-02 6.159481126815080643e-03 -1.284974347800016403e-02 7.893828675150871277e-03 1.330186612904071808e-02 -1.273876708000898361e-02 -2.616542391479015350e-02 2.827911870554089546e-03 1.246916409581899643e-02 -1.677341992035508156e-03 1.286414265632629395e-02 -3.746545314788818359e-02 -8.207560516893863678e-03 -1.752120209857821465e-03 8.043207228183746338e-03 -6.228119134902954102e-03 4.034574702382087708e-02 -1.025725901126861572e-02 -9.859794750809669495e-03 1.024992577731609344e-02 2.456826716661453247e-02 -1.636199839413166046e-02 1.373734208755195141e-03 4.549743607640266418e-03 1.724548265337944031e-02 4.616834223270416260e-03 -9.474976919591426849e-03 -1.674234750680625439e-03 1.593891903758049011e-02 1.511426875367760658e-03 1.863733306527137756e-02 1.045868732035160065e-02 2.943229163065552711e-03 1.559856813400983810e-02 4.545934963971376419e-03 7.610049098730087280e-03 1.313647069036960602e-02 -6.752013228833675385e-03 -4.081730730831623077e-03 -6.061934400349855423e-03 -2.751373685896396637e-02 -2.819943241775035858e-03 1.704420335590839386e-02 -5.383585114032030106e-03 3.516784927342087030e-04 -3.174212574958801270e-02 8.261827169917523861e-04 4.957398399710655212e-03 -6.001518107950687408e-03 3.678194480016827583e-03 1.880976185202598572e-02 -6.443439517170190811e-03 2.092294953763484955e-02 -4.285161849111318588e-03 -1.523826085031032562e-02 -3.046170342713594437e-03 5.631169769912958145e-03 1.709356345236301422e-02 -7.165603339672088623e-03 1.112622767686843872e-02 -2.301526023074984550e-03 -1.033923961222171783e-02 1.506011374294757843e-02 4.969652742147445679e-03 -1.125134434551000595e-02 1.286689843982458115e-02 2.945040352642536163e-02 -8.918667212128639221e-03 2.904344815760850906e-03 3.271509706974029541e-02 2.140213921666145325e-02 -2.089619869366288185e-03 5.015522707253694534e-03 -1.359799411147832870e-02 2.281781984493136406e-03 2.274129539728164673e-02 4.336654208600521088e-03 3.130028489977121353e-03 -1.024023815989494324e-02 -9.646558202803134918e-03 -9.284936822950839996e-03 3.640990471467375755e-03 7.288506603799760342e-04 2.377924742177128792e-03 1.917321234941482544e-03 -8.574521169066429138e-03 1.994797028601169586e-02 -1.765792258083820343e-02 -1.809412147849798203e-03 -1.132389344274997711e-02 2.926746848970651627e-03 -1.538388803601264954e-02 1.140393409878015518e-02 1.396462507545948029e-02 2.137423027306795120e-03 -1.362406299449503422e-03 -7.812055991962552071e-04 3.974617458879947662e-03 1.386335212737321854e-02 -2.082640677690505981e-02 -1.819997653365135193e-02 9.970488026738166809e-03 2.602745371405035257e-04 2.145532518625259399e-02 2.834160067141056061e-02 -5.348710343241691589e-03 -5.079564172774553299e-03 6.668299902230501175e-03 -2.635603398084640503e-02 -3.812023438513278961e-03 1.110844966024160385e-02 1.349653862416744232e-02 5.706395022571086884e-03 3.320878371596336365e-03 4.156927764415740967e-02 -3.079744521528482437e-03 6.081380415707826614e-03 -7.842299528419971466e-03 -1.721927337348461151e-02 5.323925986886024475e-03 5.503314081579446793e-03 2.496738452464342117e-03 7.021050434559583664e-03 -1.505677774548530579e-02 9.257701225578784943e-03 -8.288898505270481110e-03 4.476185888051986694e-03 1.290535274893045425e-02 2.675065537914633751e-03 -1.156277209520339966e-02 -1.031060237437486649e-02 -2.636562800034880638e-03 -1.341751427389681339e-03 6.218385882675647736e-03 -5.821273662149906158e-03 -1.962854526937007904e-02 5.683698225766420364e-03 1.324186380952596664e-02 -9.251839481294155121e-03 1.611917745321989059e-03 4.356408026069402695e-04 4.460408911108970642e-02 3.795716166496276855e-02 1.780843129381537437e-03 -1.601930148899555206e-02 -3.391674906015396118e-02 1.219391170889139175e-02 -1.879366673529148102e-02 -2.421613037586212158e-02 1.137112826108932495e-02 -1.452634343877434731e-03 2.158465422689914703e-02 4.951125476509332657e-03 1.841329410672187805e-02 -4.269536002539098263e-04 2.760961838066577911e-02 1.036863031913526356e-04 -6.718477234244346619e-04 -4.923971835523843765e-03 -3.519369661808013916e-02 -8.383272215723991394e-03 -5.950557533651590347e-03 -3.148683579638600349e-03 -9.200516156852245331e-03 7.996601634658873081e-04 7.592950481921434402e-03 2.120934077538549900e-04 -1.800450682640075684e-02 1.661938265897333622e-03 -9.346643462777137756e-03 -1.572829484939575195e-02 6.041173823177814484e-03 -7.645217701792716980e-03 5.703000351786613464e-03 2.631916664540767670e-02 -5.856331903487443924e-03 -1.663631945848464966e-02 2.251306362450122833e-02 -1.563753001391887665e-02 2.426646649837493896e-03 -3.605816513299942017e-03 -1.629515178501605988e-02 -1.361475675366818905e-03 3.732368815690279007e-03 4.945038352161645889e-03 9.065288119018077850e-03 4.437504708766937256e-02 2.236487343907356262e-02 -2.237212844192981720e-03 1.631491445004940033e-02 3.730697184801101685e-02 2.376219956204295158e-03 1.102002919651567936e-03 -3.982665017247200012e-03 4.432810237631201744e-04 -4.558302680379711092e-05 -1.561635453253984451e-02 -1.813690736889839172e-02 2.825589291751384735e-02 5.937668960541486740e-03 1.454912312328815460e-02 1.252413843758404255e-03 -1.070079021155834198e-02 3.288537636399269104e-02 1.175582688301801682e-02 -8.418810553848743439e-03 -7.860195823013782501e-03 2.721775323152542114e-02 -8.647486567497253418e-03 -3.081826493144035339e-02 2.414646791294217110e-03 -1.230854634195566177e-02 -8.598442189395427704e-03 -6.926443427801132202e-03 1.928349770605564117e-02 4.645419307053089142e-03 -1.849605119787156582e-03 1.704460941255092621e-02 -1.808135025203227997e-02 8.378925733268260956e-03 -4.107233136892318726e-03 9.953876957297325134e-03 -3.171737492084503174e-02 9.871227666735649109e-03 7.767880335450172424e-03 -1.208818145096302032e-02 1.066914387047290802e-02 3.395900595933198929e-03
-1.546130864880979061e-03 4.688161890953779221e-03 1.127307396382093430e-02 -6.451746914535760880e-03 -2.297162637114524841e-02 5.288877524435520172e-03 -1.442810427397489548e-02 5.148468189872801304e-04 4.768845625221729279e-03 -5.402800743468105793e-04 2.379528060555458069e-02 -1.004169322550296783e-02 -5.654510110616683960e-03 -1.281556952744722366e-02 1.129379309713840485e-02 4.876649472862482071e-03 -1.671616104431450367e-03 -9.193661622703075409e-03 6.637256010435521603e-04 -3.302213037386536598e-03 -1.271035405807197094e-03 1.303705479949712753e-02 -8.025688119232654572e-03 1.084690564312040806e-03 1.428564265370368958e-02 -1.280256197787821293e-03 -1.133240759372711182e-03 -8.668418973684310913e-03 -6.197765003889799118e-03 -3.777350764721632004e-03 2.709063934162259102e-03 2.019748836755752563e-02 -5.000960081815719604e-03 5.290130618959665298e-03 -2.351366449147462845e-03 -6.210837978869676590e-03 7.428030949085950851e-03 5.901404074393212795e-04 3.617454553022980690e-03 -1.880913972854614258e-03 -3.954250423703342676e-04 -2.809259109199047089e-02 -5.178793799132108688e-03 -1.668863371014595032e-02 1.963635534048080444e-02 6.776383612304925919e-03 -1.432110089808702469e-02 1.171256066299974918e-03 2.209220547229051590e-03 4.545525182038545609e-03 -1.133868563920259476e-02 -5.735401064157485962e-03 6.663017440587282181e-03 -8.651140145957469940e-03 -1.177383307367563248e-02 1.344981510192155838e-02 2.070658095180988312e-02 1.019425876438617706e-02 -2.397394040599465370e-03 -6.491721142083406448e-03 6.411867216229438782e-04 -2.075698925182223320e-03 -1.486615743488073349e-03 -3.094517160207033157e-03 -7.103552576154470444e-03 7.641193922609090805e-03 -9.762631729245185852e-03 -2.440113574266433716e-03 -1.713864132761955261e-02 -1.504678931087255478e-02 -8.433785289525985718e-03 -6.104105617851018906e-03 5.596133880317211151e-03 8.114530704915523529e-03 -8.783106750342994928e-05 8.696512319147586823e-03 3.322230419144034386e-03 1.487582572735846043e-03 -1.114270929247140884e-02 4.634390119463205338e-03 1.136612799018621445e-02 1.170545816421508789e-02 1.071805134415626526e-02 9.836384095251560211e-03 -1.367656514048576355e-02 1.147823128849267960e-02 -1.929291337728500366e-02 1.890515908598899841e-03 9.861751459538936615e-03 -2.143862657248973846e-02 -1.864661811850965023e-03 4.499278496950864792e-03 -1.867654267698526382e-03 -1.889392174780368805e-02 -1.024581026285886765e-02 4.539954010397195816e-03 -3.028857335448265076e-02 -1.761352410539984703e-03 6.178347975946962833e-04 3.111173165962100029e-03 -3.643781645223498344e-03 1.854001777246594429e-03 2.055530808866024017e-02 6.548053119331598282e-03 6.402771454304456711e-03 -3.306721337139606476e-03 3.519096877425909042e-03 1.215001801028847694e-03 4.533466417342424393e-03 2.421290148049592972e-03 1.031183637678623199e-04 -1.593081746250391006e-03 1.450933888554573059e-02 -2.618521638214588165e-02 -1.727131567895412445e-02 8.819735608994960785e-03 -9.505336172878742218e-03 -1.256491639651358128e-03 -1.847497187554836273e-02 1.501301862299442291e-02 -1.225265394896268845e-02 -1.180480420589447021e-02 -1.633939333260059357e-02 5.761775653809309006e-03 5.179429892450571060e-03 -1.311397738754749298e-02 8.461716934107244015e-04 -2.370832226006314158e-04 8.551421575248241425e-03 -2.388346183579415083e-05 1.300955307669937611e-03 6.855402141809463501e-03 3.557487390935420990e-03 3.882004646584391594e-03 9.152709390036761761e-04 1.856146380305290222e-03 2.875727368518710136e-03 9.869884699583053589e-03 1.771296840161085129e-03 -3.064824733883142471e-03 -6.538968533277511597e-03 -6.046864436939358711e-04 -1.339049730449914932e-02 -8.344936184585094452e-03 1.150397397577762604e-02 -1.747022941708564758e-02 -7.231493480503559113e-03 1.635844237171113491e-03 -1.296059810556471348e-03 -8.370314608328044415e-04 8.705464191734790802e-03 -1.167021598666906357e-02 1.227767392992973328e-02 1.232465147040784359e-03 -2.989420667290687561e-03 -1.029307302087545395e-02 1.503842975944280624e-02 4.028365947306156158e-03 -5.517269950360059738e-03 -1.531924237497150898e-03 -4.548086784780025482e-03 -2.868219977244734764e-03 -1.351945381611585617e-02 7.782519795000553131e-03 -2.672445029020309448e-02 -1.290055271238088608e-02 3.211170202121138573e-03 -4.314262047410011292e-02 -4.032035823911428452e-03 1.290453877300024033e-02 7.768834941089153290e-03 -3.355570603162050247e-03 6.218817085027694702e-03 3.727713599801063538e-03 -4.369551315903663635e-03 3.856799565255641937e-03 -6.166955456137657166e-03 -3.003376163542270660e-02 1.672002952545881271e-03 -1.084069255739450455e-03 5.111695267260074615e-03 3.994345664978027344e-03 3.160523250699043274e-03 -3.404960501939058304e-03 -1.375708915293216705e-02 7.386673707515001297e-03 -3.551264293491840363e-03 1.755071431398391724e-02 -2.404706552624702454e-03 -1.317178644239902496e-02 -4.324760753661394119e-03 3.780844621360301971e-03 3.882264252752065659e-03 6.355324760079383850e-03 1.111767720431089401e-02 -9.828761219978332520e-03 -2.395277377218008041e-03 -6.676898337900638580e-03 3.788640955463051796e-03 8.628058247268199921e-03 4.113069269806146622e-03 5.893462221138179302e-04 6.588138174265623093e-03 1.350012794137001038e-02 -1.046691439114511013e-03 1.748077571392059326e-02 6.303683388978242874e-03 -1.996116712689399719e-02 -1.105062756687402725e-02 1.144361309707164764e-02 7.666925666853785515e-04 -3.091508289799094200e-03 -1.236748974770307541e-02 4.692910297308117151e-04 -1.133539335569366813e-04 9.952356107532978058e-03 -8.238084614276885986e-03 3.945291973650455475e-03 -3.499650396406650543e-03 7.508985698223114014e-03 1.901868032291531563e-03 6.452727247960865498e-04 -6.587309762835502625e-03 -9.494620375335216522e-03 3.180715022608637810e-03 4.210799001157283783e-03 -2.031968906521797180e-03 8.041098713874816895e-03 1.236376701854169369e-03 4.894247394986450672e-04 -4.764112178236246109e-03 5.052579566836357117e-03 4.088957794010639191e-04 8.804313838481903076e-03 7.395419757813215256e-03 1.220159418880939484e-02 9.072608663700520992e-04 -7.598779164254665375e-03 1.919993781484663486e-03 2.636073157191276550e-03 8.073948323726654053e-03 4.140171222388744354e-03 -7.925224490463733673e-03 1.114775892347097397e-02 -4.627230111509561539e-03 9.266156703233718872e-03 5.790048744529485703e-04 2.576548140496015549e-03 7.316478993743658066e-03 6.962820421904325485e-03 2.423486672341823578e-03 -9.234151802957057953e-04 2.595754805952310562e-03 -8.554224856197834015e-03 8.391113020479679108e-03 5.472627468407154083e-03
-6.231668405234813690e-03 -1.252427138388156891e-02 -6.556785665452480316e-03 -7.406295742839574814e-03 1.021882984787225723e-03 2.037206850945949554e-02 9.428743273019790649e-03 -3.735225275158882141e-02 -3.363132942467927933e-03 -2.854914870113134384e-03 1.264337264001369476e-02 9.936815127730369568e-03 5.311557557433843613e-03 8.238112553954124451e-03 -3.646572353318333626e-03 -4.981434904038906097e-04 2.167573571205139160e-02 -7.299976423382759094e-03 -2.157670824090018868e-04 -4.062148218508809805e-04 1.124062226153910160e-03 1.291251857765018940e-03 1.323699764907360077e-02 -2.376820519566535950e-02 4.031646996736526489e-03 6.304487033048644662e-05 2.256588824093341827e-02 1.330239605158567429e-02 5.017747171223163605e-03 -7.068717968650162220e-04 5.724395159631967545e-03 8.979165577329695225e-04 -1.139931919169612229e-04 -2.224880643188953400e-02 -8.653225377202033997e-03 -2.185465209186077118e-02 4.846393130719661713e-03 7.727230899035930634e-03 4.136418458074331284e-03 -2.446613507345318794e-03 5.375304259359836578e-03 -3.458557277917861938e-02 1.032175729051232338e-03 1.741703599691390991e-02 8.472671732306480408e-03 -1.055165752768516541e-02 -7.272400893270969391e-03 -5.995939951390028000e-03 -5.760038271546363831e-03 -4.844180773943662643e-03 4.330568481236696243e-03 -1.718877628445625305e-02 1.269473601132631302e-02 -1.692125573754310608e-03 4.820437636226415634e-03 -1.756233163177967072e-02 -4.397764496388845146e-05 -6.609281408600509167e-04 -6.188215687870979309e-03 -5.845738574862480164e-03 1.835031085647642612e-03 1.029111910611391068e-03 1.639722147956490517e-03 7.655289489775896072e-03 -4.123770166188478470e-03 6.153397262096405029e-03 -5.112167913466691971e-03 -1.159114763140678406e-03 1.072690915316343307e-02 1.649621501564979553e-02 7.233459036797285080e-03 -1.530205714516341686e-03 -5.420766770839691162e-03 4.189142026007175446e-03 -5.901196040213108063e-03 2.839426044374704361e-03 -8.523080497980117798e-03 6.266470998525619507e-03 2.948694862425327301e-03 4.906058777123689651e-03 1.634905301034450531e-02 2.893091645091772079e-03 5.522133782505989075e-03 3.424237656872719526e-04 4.614895733539015055e-04 -7.846992230042815208e-04 -6.582696456462144852e-03 -3.895490430295467377e-03 -3.822004655376076698e-04 1.535058487206697464e-02 4.398389719426631927e-03 3.894675988703966141e-03 -9.143748902715742588e-04 2.568504214286804199e-02 -7.914744317531585693e-03 -1.517548784613609314e-02 3.114043502137064934e-03 -4.458911251276731491e-03 8.079748600721359253e-03 3.085434203967452049e-03 -3.553295042365789413e-03 4.234111867845058441e-03 -1.435982849216088653e-04 2.816285705193877220e-03 -1.589182391762733459e-02 1.483802101574838161e-03 -5.120781715959310532e-03 -1.836890727281570435e-02 -1.379241235554218292e-02 -8.088056929409503937e-03 6.053914315998554230e-03 6.201764103025197983e-03 -1.287743449211120605e-02 -1.820417679846286774e-02 1.889659464359283447e-02 -2.579868026077747345e-02 -2.216127701103687286e-03 -5.617658142000436783e-03 7.548469584435224533e-04 -1.515052979812026024e-03 8.850474841892719269e-03 1.914979144930839539e-02 -2.878530323505401611e-02 9.055580012500286102e-03 9.296840988099575043e-03 -3.373906388878822327e-02 7.139699882827699184e-04 5.856976378709077835e-03 1.699553243815898895e-02 1.347183063626289368e-02 7.304922211915254593e-03 3.022716380655765533e-03 -5.748484400101006031e-04 -5.740190390497446060e-03 1.228409726172685623e-02 -4.680711310356855392e-03 1.672693900763988495e-02 7.985078729689121246e-03 -5.183660541661083698e-04 -1.430191472172737122e-02 -7.855406962335109711e-03 1.853466220200061798e-02 1.552687212824821472e-02 1.868802355602383614e-03 -1.580509915947914124e-02 5.015427712351083755e-03 -1.568688079714775085e-02 7.480606436729431152e-03 -1.409609150141477585e-02 1.027878373861312866e-02 1.287069288082420826e-03 -9.603715501725673676e-03 1.022815820761024952e-03 -7.691691629588603973e-03 -4.976098425686359406e-03 -1.484299264848232269e-02 -5.520322360098361969e-03 5.687197553925216198e-04 -3.968036617152392864e-04 1.104769296944141388e-02 2.133135683834552765e-03 -8.219608105719089508e-03 -3.113846061751246452e-03 9.883668273687362671e-03 -1.237399969249963760e-02 3.050952777266502380e-02 1.009999657981097698e-03 -1.762887928634881973e-03 2.724120160564780235e-03 -1.099684927612543106e-02 1.278539886698126793e-03 -6.880930159240961075e-03 1.018416602164506912e-02 -5.017939023673534393e-03 3.290228778496384621e-03 5.057433154433965683e-03 2.750086784362792969e-02 6.439971737563610077e-03 -2.853487851098179817e-03 3.760371124371886253e-03 -3.051912179216742516e-03 6.121204700320959091e-03 6.651625502854585648e-03 2.974499948322772980e-03 -4.387006265460513532e-05 -5.589971784502267838e-03 1.883740420453250408e-03 2.839812543243169785e-03 5.944033619016408920e-03 -3.005837555974721909e-03 4.409746034070849419e-04 9.909648448228836060e-03 1.047917455434799194e-02 -3.931971266865730286e-03 -1.075102109462022781e-02 -1.879062317311763763e-02 1.904184580780565739e-03 -2.469775080680847168e-02 1.945757679641246796e-02 -1.262209028936922550e-03 -5.371451377868652344e-03 8.742467500269412994e-03 -2.470083767548203468e-03 1.292320527136325836e-02 -6.846210453659296036e-04 -4.237561486661434174e-03 5.862903781235218048e-03 1.688330247998237610e-02 -1.070778351277112961e-02 8.259274065494537354e-03 -8.857779903337359428e-04 1.729275099933147430e-03 -7.160226814448833466e-04 -2.295432845130562782e-03 8.214347064495086670e-03 -1.293952390551567078e-02 4.360211896710097790e-04 7.088105194270610809e-03 1.188502926379442215e-02 -6.633707787841558456e-03 -4.230083432048559189e-03 3.152439894620329142e-04 1.064161676913499832e-02 -5.158710991963744164e-04 6.273049511946737766e-04 6.821187213063240051e-03 -1.117017678916454315e-02 5.404516588896512985e-03 6.949940579943358898e-04 -5.867715459316968918e-03 1.898057525977492332e-03 7.389429025352001190e-03 -1.499637030065059662e-02 2.403198741376399994e-03 -4.603588022291660309e-04 -1.807490922510623932e-02 1.007895451039075851e-03 -1.418148865923285484e-03 -3.368919016793370247e-03 1.298676524311304092e-02 -8.853429928421974182e-03 6.991242989897727966e-03 -2.864667330868542194e-04 -7.832375355064868927e-03 3.754557576030492783e-03 2.570022642612457275e-02 2.407733350992202759e-03 -6.951672956347465515e-03 7.011225447058677673e-03 1.494799461215734482e-02 2.777135232463479042e-04 4.465502221137285233e-03 -7.219344843178987503e-03 -2.970939502120018005e-03 4.358954727649688721e-03 -1.510809455066919327e-02
-8.512296713888645172e-03 2.805582713335752487e-03 -8.771022781729698181e-03 4.624429158866405487e-03 -3.069449216127395630e-03 3.453199286013841629e-03 -5.309470929205417633e-03 4.214507993310689926e-03 -9.632651926949620247e-04 -3.019588068127632141e-03 3.545163944363594055e-02 2.048035524785518646e-02 -1.120855007320642471e-02 -1.399801205843687057e-02 9.127344936132431030e-03 -2.426468301564455032e-03 7.251189555972814560e-03 7.737922132946550846e-04 8.121239952743053436e-03 6.346124224364757538e-03 -1.177050359547138214e-02 3.553481539711356163e-03 -1.177848316729068756e-02 -1.012713648378849030e-02 3.171674907207489014e-03 1.261635683476924896e-02 1.138358563184738159e-02 -1.084029208868741989e-03 3.576200455427169800e-03 6.126000545918941498e-03 1.728131319396197796e-04 1.121544558554887772e-02 1.186138950288295746e-02 6.015228107571601868e-03 -1.526822801679372787e-02 3.416851395741105080e-03 -1.525730174034833908e-02 -5.269397981464862823e-03 -1.644034869968891144e-02 4.364474676549434662e-03 -2.858431078493595123e-03 1.937935448950156569e-04 3.105400828644633293e-03 -1.499599684029817581e-02 -3.679016372188925743e-03 -1.609276048839092255e-03 4.111993126571178436e-03 -1.012276552501134574e-04 -7.597379153594374657e-04 1.163821574300527573e-02 4.245275165885686874e-03 -1.125558651983737946e-02 5.361951887607574463e-03 -7.162358146160840988e-03 -2.586473478004336357e-03 -1.645690016448497772e-02 1.879330538213253021e-02 2.458489034324884415e-03 1.150752534158527851e-03 -4.202990792691707611e-03 5.129779223352670670e-03 -5.533226765692234039e-03 2.877229708246886730e-04 4.204116761684417725e-03 1.759761362336575985e-03 -5.327510181814432144e-03 -1.167509611696004868e-02 -7.886439561843872070e-03 -1.465237140655517578e-02 1.714682206511497498e-02 -8.501083590090274811e-03 -1.207053381949663162e-02 -7.131877820938825607e-03 -1.750444248318672180e-02 -7.042907644063234329e-03 -3.603745019063353539e-03 1.249354332685470581e-02 -1.244424469769001007e-02 6.922386237420141697e-04 2.074724470730870962e-04 1.274539390578866005e-03 -2.891944535076618195e-02 3.323840210214257240e-03 2.255735686048865318e-03 6.312011275440454483e-03 1.064331177622079849e-02 -4.487327765673398972e-03 -4.372842959128320217e-04 -1.496429368853569031e-02 -8.591958321630954742e-03 2.315280726179480553e-03 9.904779726639389992e-04 1.113049918785691261e-03 3.190481290221214294e-02 1.059281080961227417e-02 7.368103601038455963e-03 3.514568554237484932e-03 -1.883815973997116089e-02 9.868329390883445740e-03 -7.761718588881194592e-04 -3.200587583705782890e-03 1.515381620265543461e-03 -1.319333165884017944e-02 5.433530895970761776e-04 1.152775064110755920e-02 -2.895976649597287178e-03 5.617116577923297882e-03 2.493354678153991699e-02 -7.080671377480030060e-03 -1.275096903555095196e-03 -8.358121849596500397e-03 -3.111314726993441582e-03 3.188538923859596252e-02 2.204986056312918663e-03 3.532576374709606171e-03 4.768057726323604584e-03 -1.092804782092571259e-02 -9.997378801926970482e-04 1.692830398678779602e-02 -8.571012876927852631e-03 -1.611528359353542328e-02 2.032362669706344604e-02 7.041102740913629532e-03 -7.785161025822162628e-03 1.539372000843286514e-02 3.574190288782119751e-02 -7.503914646804332733e-03 3.270845860242843628e-03 -2.634778805077075958e-02 -1.006822567433118820e-02 7.782884640619158745e-04 8.283172734081745148e-03 -7.371841929852962494e-03 7.647081278264522552e-03 5.882635712623596191e-03 -1.116955466568470001e-02 2.562124573159962893e-04 -6.906530325068160892e-05 3.665468655526638031e-03 -6.023410707712173462e-03 1.144483685493469238e-02 -1.261304225772619247e-02 -7.692880928516387939e-03 -2.227508462965488434e-02 9.633560664951801300e-03 6.409827619791030884e-04 -7.452986668795347214e-03 3.056713147088885307e-03 -2.865397371351718903e-02 4.853093530982732773e-03 1.021623425185680389e-02 -4.798739403486251831e-02 2.995084738358855247e-03 -7.392188999801874161e-04 3.913246095180511475e-03 -3.159905783832073212e-03 4.420368466526269913e-03 -6.115837953984737396e-03 1.571487262845039368e-02 -6.563825067132711411e-03 4.384099971503019333e-03 1.147407107055187225e-03 3.083808906376361847e-02 -1.417986676096916199e-02 1.223426125943660736e-02 -7.492274511605501175e-03 -3.152436693198978901e-04 -2.899174205958843231e-02 9.050224907696247101e-04 -3.185772150754928589e-02 -7.642550393939018250e-03 5.185436923056840897e-03 -4.865473136305809021e-03 7.182823959738016129e-03 1.394228823482990265e-02 -2.283287234604358673e-03 -1.333684939891099930e-02 1.053076423704624176e-02 -6.116099189966917038e-03 -6.492272950708866119e-03 7.212216965854167938e-03 -1.474996656179428101e-02 -9.292487055063247681e-03 -1.072389259934425354e-02 3.253883682191371918e-03 2.790713915601372719e-03 -9.620765224099159241e-03 2.456961758434772491e-02 -1.063860580325126648e-02 2.500255941413342953e-04 7.644996047019958496e-03 -5.570454057306051254e-03 -1.613310305401682854e-03 -8.850798010826110840e-03 1.173254009336233139e-02 1.702890699561976362e-06 -5.985343363136053085e-03 -1.214367337524890900e-02 -7.297183386981487274e-03 1.724443398416042328e-02 6.691494956612586975e-03 -6.156002054922282696e-04 -1.650404010433703661e-04 -2.148703485727310181e-02 -7.235018536448478699e-03 4.653796181082725525e-02 8.664439432322978973e-03 -1.607594452798366547e-02 -1.260951720178127289e-02 -1.980001479387283325e-02 3.839720040559768677e-03 -7.699199952185153961e-03 7.015082053840160370e-03 -3.867612918838858604e-03 -1.721072755753993988e-02 -1.900116214528679848e-03 -7.389104459434747696e-03 -9.623914025723934174e-03 -1.458306610584259033e-02 -7.363248150795698166e-04 -5.457793362438678741e-03 7.118192967027425766e-03 7.215736899524927139e-03 -7.161944638937711716e-03 -2.532007172703742981e-03 -4.066566936671733856e-03 -6.719841621816158295e-03 -1.138375978916883469e-02 4.868454299867153168e-03 4.556406929623335600e-04 -1.137759909033775330e-02 2.612228505313396454e-03 1.050836173817515373e-03 2.256647218018770218e-03 5.270958878099918365e-03 -1.118466351181268692e-02 2.518864348530769348e-04 -3.939073998481035233e-03 7.926122285425662994e-03 1.429615356028079987e-02 -5.491646472364664078e-03 2.876627026125788689e-03 1.320566050708293915e-02 9.530867449939250946e-03 -9.362895041704177856e-03 -2.058243006467819214e-02 1.811596564948558807e-02 3.718098159879446030e-03 -5.397836677730083466e-03 -1.507447217591106892e-03 -4.439176060259342194e-03 -3.328071907162666321e-03 -1.041119103319942951e-03 6.116208620369434357e-03 5.638799630105495453e-03 -1.497101387940347195e-03
