-5.023518577218055725e-03 2.061597770079970360e-03 8.268653415143489838e-03 2.971960930153727531e-03 -1.934306696057319641e-02 -5.714819300919771194e-03 4.753645509481430054e-03 -1.258486695587635040e-02 -1.447899499908089638e-03 5.403903312981128693e-03 -2.563619054853916168e-03 -8.052614517509937286e-03 1.123360358178615570e-02 -1.119904592633247375e-02 -8.403744548559188843e-03 -9.550444083288311958e-04 -5.350783467292785645e-03 -7.417592685669660568e-03 -9.213116718456149101e-04 2.626656740903854370e-02 1.154779735952615738e-02 1.403279788792133331e-02 3.419919405132532120e-03 -1.482332125306129456e-02 4.408937820699065924e-04 -3.669975558295845985e-03 -1.502845995128154755e-02 -1.069545000791549683e-02 -4.025704227387905121e-03 -1.095475628972053528e-02 -1.839521154761314392e-02 1.533921808004379272e-02 -1.425725058652460575e-03 -1.162388455122709274e-02 1.209414470940828323e-02 -1.510431431233882904e-02 -1.293026027269661427e-03 1.569263264536857605e-02 -1.039348728954792023e-02 -1.300378469750285149e-03 -2.554365666583180428e-03 1.448280923068523407e-02 7.848705165088176727e-03 4.391363821923732758e-03 7.691119331866502762e-03 1.262812223285436630e-02 -1.417267508804798126e-02 1.349518075585365295e-02 -8.281738497316837311e-03 -7.969081401824951172e-03 5.474730278365314007e-04 -2.523134090006351471e-02 9.403650648891925812e-03 -7.657197420485317707e-04 -1.752640702761709690e-03 1.616719411686062813e-03 9.058548137545585632e-03 -1.323811011388897896e-04 9.566117078065872192e-04 5.424656439572572708e-03 6.920950836502015591e-04 -7.289173547178506851e-03 3.134766593575477600e-03 -5.892902612686157227e-03 3.967626485973596573e-03 1.025511417537927628e-02 2.527810866013169289e-03 1.137099321931600571e-02 5.485965521074831486e-04 9.423097944818437099e-04 -9.020897559821605682e-04 -1.802911236882209778e-02 2.639283891767263412e-03 6.491701118648052216e-03 6.681345403194427490e-03 1.992278359830379486e-02 2.683036029338836670e-03 -1.085332687944173813e-02 5.752311088144779205e-03 6.886116228997707367e-03 3.031969070434570312e-03 -6.655966863036155701e-04 4.483540542423725128e-03 8.659803424961864948e-04 -9.901650249958038330e-03 2.996422350406646729e-03 3.711618483066558838e-03 -3.675887593999505043e-03 -6.862979847937822342e-03 6.079159211367368698e-03 -2.923793392255902290e-03 -1.793654076755046844e-02 -2.718409290537238121e-03 -7.867346517741680145e-03 1.312445476651191711e-02 1.522921118885278702e-02 -2.472514845430850983e-02 7.564683910459280014e-04 6.878225132822990417e-03 -1.767024770379066467e-02 2.708455780521035194e-03 -4.571696743369102478e-03 7.079188246279954910e-03 1.012417487800121307e-02 -6.175342423375695944e-05 7.617943920195102692e-04 -4.683905746787786484e-03 4.115248564630746841e-03 -9.161863476037979126e-03 2.116157207638025284e-03 -1.591957057826220989e-03 -4.157329909503459930e-03 1.590620912611484528e-02 -2.965827472507953644e-03 -3.294103080406785011e-03 1.956365257501602173e-02 -1.322687044739723206e-02 3.389489604160189629e-03 1.146875787526369095e-02 -1.208909694105386734e-02 1.005587168037891388e-03 7.234814576804637909e-03 -4.315565340220928192e-03 7.315996102988719940e-03 2.458567032590508461e-03 2.044908702373504639e-03 2.248195698484778404e-03 4.577560815960168839e-03 -4.060635343194007874e-03 7.124478463083505630e-03 -3.940298047382384539e-04 1.154138613492250443e-02 -7.533998694270849228e-03 -2.561030164361000061e-02 6.058563012629747391e-03 5.965661330264993012e-05 4.451617132872343063e-03 -5.159290507435798645e-03 -1.156186219304800034e-03 -5.228888709098100662e-03 2.116748830303549767e-03 6.344914436340332031e-03 5.045485682785511017e-03 5.884920246899127960e-03 -8.307124953716993332e-04 -1.882810029201209545e-03 4.422271624207496643e-03 -1.243223156780004501e-02 -1.580347307026386261e-02 1.702541485428810120e-02 9.743729606270790100e-03 -4.148973617702722549e-03 -6.601601839065551758e-03 -5.987080745398998260e-03 -1.417682226747274399e-02 -2.508754096925258636e-02 2.216264838352799416e-03 -2.996426308527588844e-03 -1.085095689631998539e-03 -3.691291902214288712e-03 -6.736089009791612625e-03 3.795853350311517715e-03 -2.604334440547972918e-04 -7.305879145860671997e-03 4.391561378724873066e-04 -1.715894788503646851e-02 1.229409361258149147e-03 -1.774832606315612793e-02 3.800096688792109489e-03 -3.143151057884097099e-03 -4.110414534807205200e-03 3.419743850827217102e-03 1.275879610329866409e-02 8.609012700617313385e-03 9.656517766416072845e-03 1.426004432141780853e-02 1.243936596438288689e-03 -1.309577724896371365e-03 1.850559562444686890e-02 1.086071133613586426e-02 -3.912610933184623718e-03 8.406227454543113708e-03 -6.263643444981426001e-05 -3.516680561006069183e-03 4.406233783811330795e-03 -6.039833649992942810e-03 6.805974990129470825e-03 -4.959120415151119232e-03 4.388896282762289047e-03 -1.565251615829765797e-03 1.143398042768239975e-02 1.144328434020280838e-02 4.864438436925411224e-03 -1.616006903350353241e-02 8.979463018476963043e-03 -8.761768229305744171e-03 1.576154865324497223e-02 -4.239789210259914398e-03 2.285531489178538322e-03 1.017459668219089508e-02 -3.824325744062662125e-03 1.317048445343971252e-02 6.237545050680637360e-03 -5.419749300926923752e-03 1.248683128505945206e-02 -7.892387919127941132e-03 6.706660147756338120e-03 -2.481024479493498802e-03 4.452575929462909698e-03 -9.902694262564182281e-03 -1.204704120755195618e-02 1.384436432272195816e-02 5.274816881865262985e-03 -7.763191126286983490e-03 1.813300512731075287e-02 -1.759477891027927399e-03 -6.650030147284269333e-03 5.693558603525161743e-03 -7.614892092533409595e-04 -6.167887244373559952e-03 -2.513807849027216434e-04 -3.820762271061539650e-03 1.895433105528354645e-02 -2.769361482933163643e-03 5.090681836009025574e-03 1.761585008352994919e-03 5.154600832611322403e-03 2.885363064706325531e-03 -6.429108325392007828e-04 1.435974030755460262e-03 -3.077553410548716784e-04 -1.366813294589519501e-02 9.841287508606910706e-03 2.162473741918802261e-03 1.047434285283088684e-03 -8.439655415713787079e-03 2.253122162073850632e-03 1.404832955449819565e-02 -2.817677450366318226e-04 1.013920456171035767e-02 -1.878125406801700592e-02 9.983749128878116608e-03 2.271062461659312248e-03 1.433301996439695358e-02 -1.088833785615861416e-03 -1.329187676310539246e-02 -2.326207701116800308e-03 1.258187810890376568e-03 5.096936598420143127e-03 -1.959103159606456757e-02 -9.462122805416584015e-03 1.204673200845718384e-02 2.201781608164310455e-03 1.057317946106195450e-02 1.090508885681629181e-02 -8.939777500927448273e-03
2.229052037000656128e-02 -2.813314460217952728e-02 8.814360946416854858e-03 -2.608011849224567413e-02 -5.427564959973096848e-03 4.036401957273483276e-02 4.530513659119606018e-03 3.116034343838691711e-02 -9.854712523519992828e-03 2.042890153825283051e-02 -6.106562912464141846e-03 -6.859096232801675797e-03 -1.796382851898670197e-02 -1.473893783986568451e-02 -2.639281330630183220e-03 7.588698528707027435e-03 1.856283866800367832e-03 -3.677461529150605202e-03 1.409215200692415237e-02 1.391485333442687988e-02 3.169044386595487595e-03 -1.957478234544396400e-03 -1.471649575978517532e-02 -2.526488155126571655e-03 -5.187498405575752258e-03 6.138207972981035709e-04 -1.331446971744298935e-02 6.152909714728593826e-03 -9.423994459211826324e-03 -8.071037591435015202e-04 5.374838411808013916e-02 1.732302829623222351e-02 1.815437572076916695e-03 -1.224466017447412014e-03 1.029486116021871567e-02 2.489132061600685120e-02 6.374419666826725006e-03 6.073338910937309265e-03 -1.324709970504045486e-02 -1.426897849887609482e-02 1.856953650712966919e-02 7.731585763394832611e-03 -2.659030724316835403e-03 1.066654175519943237e-02 9.679045528173446655e-03 -5.711461883038282394e-03 -1.857933029532432556e-02 2.088654972612857819e-02 1.195131568238139153e-03 -1.957655325531959534e-02 -2.874465845525264740e-02 2.143193967640399933e-02 -1.800472475588321686e-02 2.732307650148868561e-02 -1.271602977067232132e-02 4.189868457615375519e-03 1.812672987580299377e-02 -4.381174687296152115e-03 2.048173919320106506e-02 1.832019910216331482e-02 1.600765041075646877e-03 1.587335206568241119e-02 6.426335778087377548e-03 1.037578005343675613e-02 1.989892311394214630e-02 3.406291827559471130e-03 1.070672553032636642e-02 2.308501116931438446e-02 2.699246630072593689e-03 -4.262985195964574814e-03 -8.970149792730808258e-03 3.633529692888259888e-02 -9.814755059778690338e-03 -1.747113652527332306e-02 -2.413639053702354431e-02 -5.079644688521511853e-05 -1.045567728579044342e-02 1.261579524725675583e-02 -4.655013792216777802e-03 -1.520460098981857300e-02 1.819616183638572693e-03 -1.211094390600919724e-02 1.290487032383680344e-02 5.079353228211402893e-03 8.322559297084808350e-03 -2.556279767304658890e-03 1.129302382469177246e-02 8.062110282480716705e-03 -1.283915806561708450e-02 1.918528974056243896e-02 -1.207395177334547043e-02 1.371301058679819107e-02 4.887321032583713531e-03 -1.514570438303053379e-03 1.612616889178752899e-02 1.903249323368072510e-02 -1.282519381493330002e-02 1.900575123727321625e-02 6.766353268176317215e-03 -4.313601180911064148e-03 2.622450515627861023e-02 -1.314487680792808533e-02 -1.811535283923149109e-02 7.110160775482654572e-03 -9.386258199810981750e-03 -4.007352050393819809e-03 -1.311757136136293411e-02 2.256902679800987244e-02 4.107433836907148361e-03 -5.611072760075330734e-03 1.290868688374757767e-02 4.535282962024211884e-03 1.885000057518482208e-02 -5.435744766145944595e-03 -2.098676376044750214e-02 -4.617720376700162888e-03 1.821612939238548279e-02 -5.558779928833246231e-03 1.682027429342269897e-02 -3.458649851381778717e-03 -6.089945789426565170e-03 2.605042234063148499e-02 -3.166208416223526001e-02 -1.985224336385726929e-02 -2.090317383408546448e-02 6.761278025805950165e-03 -3.973457030951976776e-03 5.933443084359169006e-03 4.577672574669122696e-03 9.104302152991294861e-03 -1.911927387118339539e-02 -1.509230956435203552e-02 2.714451635256409645e-03 -7.928987033665180206e-03 -4.610535688698291779e-03 1.466071326285600662e-02 2.184569649398326874e-02 -4.206780344247817993e-03 1.776709593832492828e-02 6.238056812435388565e-03 1.648369058966636658e-02 -1.697182282805442810e-02 -6.465354468673467636e-03 -5.334485322237014771e-03 -9.698199108242988586e-03 -4.079332109540700912e-03 -6.776945199817419052e-03 7.266653236001729965e-03 -6.709200795739889145e-03 -7.121291942894458771e-03 9.836054407060146332e-03 -1.899171434342861176e-02 8.699550293385982513e-03 2.077189646661281586e-02 2.311539091169834137e-02 -6.474233232438564301e-04 2.062558382749557495e-02 1.160732097923755646e-02 4.623295366764068604e-02 1.401292625814676285e-02 -6.126664113253355026e-03 3.065251745283603668e-02 1.776087097823619843e-02 -1.041144784539937973e-02 -2.137833740562200546e-03 1.499201916158199310e-02 1.634359359741210938e-02 7.835253141820430756e-03 7.927576662041246891e-04 -6.208335049450397491e-03 -2.019289182499051094e-03 -4.833005834370851517e-03 -6.771162617951631546e-03 1.071972888894379139e-03 1.651978492736816406e-02 -4.983507096767425537e-03 1.130866166204214096e-02 2.629110589623451233e-03 2.106320858001708984e-02 -7.193058263510465622e-03 3.081302624195814133e-03 -3.267301653977483511e-04 2.067579887807369232e-02 -3.841464174911379814e-03 3.063085605390369892e-04 3.451244533061981201e-02 -2.104415558278560638e-03 1.164547633379697800e-02 3.872524201869964600e-02 5.130453500896692276e-03 -3.999022766947746277e-03 7.140495814383029938e-03 -6.486249156296253204e-03 1.783524826169013977e-02 -6.735353730618953705e-03 -9.156646206974983215e-03 1.631466858088970184e-02 1.667357049882411957e-02 3.042233176529407501e-02 2.001856081187725067e-02 -2.451238781213760376e-02 -5.918703973293304443e-04 -2.919126534834504128e-03 -1.519001089036464691e-02 -6.104988977313041687e-03 -3.745325841009616852e-03 1.129087433218955994e-02 -2.542085945606231689e-02 -1.130573917180299759e-02 -7.777026854455471039e-03 3.287876024842262268e-03 2.235442213714122772e-02 1.606222009286284447e-03 -4.445884749293327332e-02 1.398579915985465050e-03 5.534904450178146362e-02 -1.115175895392894745e-02 2.050008997321128845e-02 2.033121697604656219e-02 9.462669491767883301e-03 2.037311717867851257e-02 3.161239624023437500e-02 -2.804732322692871094e-02 1.104790531098842621e-02 -1.609921338967978954e-03 2.650705724954605103e-02 5.961216986179351807e-03 2.057037316262722015e-02 -2.640006132423877716e-02 1.178390718996524811e-02 -1.919996924698352814e-02 2.601198852062225342e-02 1.000530272722244263e-02 -8.020913228392601013e-03 -4.531203303486108780e-03 1.760974898934364319e-02 -8.066530339419841766e-03 2.017430774867534637e-02 -3.377801622264087200e-04 -1.249110419303178787e-02 2.340497076511383057e-02 1.536070834845304489e-02 -3.178058192133903503e-03 9.143453091382980347e-03 9.068970568478107452e-03 -1.584476232528686523e-02 1.115676574409008026e-02 -6.127145141363143921e-03 -1.992011908441781998e-03 -1.887913607060909271e-02 1.443528570234775543e-02 -3.270626440644264221e-02 1.085125934332609177e-02 -4.939083941280841827e-03 5.567903630435466766e-03 1.202696096152067184e-02
-7.930130697786808014e-03 2.125957980751991272e-03 1.773826894350349903e-03 1.398225128650665283e-02 6.782968528568744659e-03 7.093899883329868317e-03 3.536724951118230820e-03 -1.987047260627150536e-03 -7.258150260895490646e-03 -3.542086109519004822e-02 8.917774073779582977e-03 1.367041002959012985e-02 -3.052891045808792114e-02 1.660377532243728638e-02 1.547055318951606750e-02 7.008719723671674728e-03 -2.765649929642677307e-02 1.073775254189968109e-02 -1.563559100031852722e-02 -1.927014440298080444e-02 -1.730298041366040707e-03 3.110238164663314819e-02 -1.511608902364969254e-02 -1.330514345318078995e-02 -2.267989516258239746e-02 5.777119193226099014e-03 5.122409202158451080e-03 -1.230048108845949173e-02 -1.293030194938182831e-02 1.601468399167060852e-02 -5.657631438225507736e-03 -3.195249661803245544e-02 1.669042371213436127e-02 -1.515259779989719391e-02 1.021437440067529678e-02 1.783166453242301941e-02 -1.041230931878089905e-02 2.090964652597904205e-02 -1.968800090253353119e-02 1.358389039523899555e-03 4.152913112193346024e-03 -5.574865499511361122e-04 9.301189333200454712e-03 1.514405198395252228e-02 -1.136067695915699005e-02 -7.393795065581798553e-03 6.336651276797056198e-03 -1.955052465200424194e-02 4.087557084858417511e-03 -5.515387965715490282e-05 7.532006595283746719e-03 9.840794838964939117e-03 -2.068722248077392578e-02 2.094991132616996765e-02 6.263582035899162292e-03 -1.892737857997417450e-02 -2.269832184538245201e-03 2.673962153494358063e-02 -2.050244947895407677e-03 1.584508828818798065e-02 1.493449509143829346e-02 1.483407337218523026e-02 2.387019805610179901e-03 -7.137253996916115284e-04 3.048999980092048645e-02 -3.755425103008747101e-03 -4.076482728123664856e-03 -8.368502371013164520e-03 2.435470372438430786e-02 -7.958363741636276245e-03 -1.366835646331310272e-02 2.164974436163902283e-02 9.167927317321300507e-03 -2.163785509765148163e-02 9.579163976013660431e-03 7.466434501111507416e-03 -2.012357674539089203e-02 -7.187496870756149292e-03 3.807955887168645859e-03 -9.499008767306804657e-03 -3.663671668618917465e-03 2.290235273540019989e-02 1.289095729589462280e-02 -1.990949735045433044e-02 -2.163012512028217316e-03 -6.289136945270001888e-04 -4.069948103278875351e-03 -1.448465697467327118e-02 9.584872983396053314e-03 2.575667388737201691e-02 -2.829176839441061020e-03 1.568264327943325043e-02 3.622842952609062195e-03 -5.988088436424732208e-03 -6.436977069824934006e-03 -3.460583044216036797e-03 7.761724758893251419e-03 2.656753547489643097e-02 6.621615495532751083e-03 1.300259027630090714e-02 9.495413862168788910e-03 3.738028230145573616e-03 -8.203784935176372528e-03 -3.500070795416831970e-02 9.035523049533367157e-03 -9.957464411854743958e-03 2.793262479826807976e-03 -1.240457128733396530e-02 -1.418272219598293304e-02 1.245848461985588074e-02 -4.156628157943487167e-03 -4.157684277743101120e-03 3.744779620319604874e-03 1.262238062918186188e-02 -1.009522937238216400e-02 -8.466110564768314362e-03 3.988163080066442490e-03 4.767173435539007187e-03 1.243485324084758759e-02 2.312418539077043533e-03 -3.087868727743625641e-02 5.209472030401229858e-03 -1.510067377239465714e-02 -1.462570205330848694e-02 1.264560967683792114e-02 1.178816426545381546e-02 1.733138784766197205e-02 9.254331700503826141e-03 -2.025790745392441750e-03 -2.854712773114442825e-03 2.059635519981384277e-02 3.482666611671447754e-02 -7.598903495818376541e-03 3.165722265839576721e-02 1.535808574408292770e-02 -1.423172280192375183e-02 -1.063684001564979553e-02 1.737440563738346100e-02 6.304424256086349487e-03 3.363842144608497620e-03 9.362102486193180084e-03 1.479694154113531113e-02 2.053750678896903992e-03 3.862309083342552185e-02 1.246746350079774857e-02 -1.752554625272750854e-02 1.891032047569751740e-02 2.668425440788269043e-04 -2.285632118582725525e-02 1.278254017233848572e-02 -5.192033480852842331e-03 9.173735044896602631e-03 -1.864106766879558563e-02 -1.888434775173664093e-02 -6.483261473476886749e-03 1.464961189776659012e-02 2.304078452289104462e-02 1.392830349504947662e-02 5.029219668358564377e-03 2.180829411372542381e-03 -3.358895191922783852e-03 8.290244266390800476e-03 1.629436574876308441e-02 5.586340092122554779e-03 -2.831819700077176094e-03 -2.150443149730563164e-03 4.014641046524047852e-02 2.422504825517535210e-03 -2.845353912562131882e-03 -1.255026273429393768e-02 -3.790790447965264320e-03 1.181468460708856583e-02 1.789821079000830650e-03 9.644808247685432434e-03 -2.892072126269340515e-02 -1.130249351263046265e-02 -1.002423651516437531e-02 -2.392612583935260773e-02 -2.366493083536624908e-02 7.998405955731868744e-03 1.405220292508602142e-02 -4.226639866828918457e-03 -3.111795522272586823e-03 2.254966646432876587e-02 -1.542933005839586258e-02 -1.683802530169487000e-02 2.305586589500308037e-03 -2.806753665208816528e-02 -1.837088726460933685e-02 9.751905687153339386e-03 2.645326778292655945e-03 9.713475592434406281e-03 -2.950180508196353912e-02 -1.220324309542775154e-03 -2.175591653212904930e-03 1.102487277239561081e-02 -5.772211588919162750e-03 2.488548634573817253e-03 -9.525425732135772705e-03 -8.101938292384147644e-03 -5.179094150662422180e-03 1.056439359672367573e-03 2.273527206853032112e-03 -1.892064325511455536e-02 5.289821419864892960e-03 3.759441431611776352e-03 -6.458216346800327301e-03 1.179354544728994370e-02 -5.490050185471773148e-03 -1.549055799841880798e-02 -2.934946306049823761e-02 1.798929460346698761e-02 -2.492015808820724487e-02 3.139968262985348701e-03 -1.716653257608413696e-02 7.904885336756706238e-03 1.726140268146991730e-02 1.275963615626096725e-02 -1.577128656208515167e-02 -6.601751316338777542e-03 -3.422313369810581207e-03 -1.075180154293775558e-02 7.024085614830255508e-03 -3.194945678114891052e-02 -7.732374593615531921e-03 4.150246735662221909e-03 -7.835304364562034607e-03 -1.544430386275053024e-02 1.676911488175392151e-02 -3.606839338317513466e-03 4.430227447301149368e-03 5.584781989455223083e-03 1.035133004188537598e-02 -4.922777879983186722e-03 -6.271732039749622345e-03 -2.929909154772758484e-03 -9.674248285591602325e-03 2.012474834918975830e-02 -4.790539678651839495e-04 2.731383778154850006e-03 -3.482143580913543701e-02 -1.202779938466846943e-03 -7.544516702182590961e-04 -3.060198156163096428e-03 -1.178425457328557968e-02 -1.247924473136663437e-02 5.531000206246972084e-04 -1.558692287653684616e-02 1.324258465319871902e-02 -2.532877400517463684e-02 -3.402539063245058060e-03 -2.696730569005012512e-02 -1.864751614630222321e-02 1.503544021397829056e-02 -7.929865270853042603e-03 -1.322807464748620987e-02
-7.810972165316343307e-04 -1.768361963331699371e-02 1.883651479147374630e-03 -2.609796822071075439e-03 -7.002842612564563751e-04 2.737709321081638336e-03 1.647398993372917175e-02 2.048787474632263184e-02 -1.662350073456764221e-02 1.420882809907197952e-02 1.335211913101375103e-03 -3.685664385557174683e-02 -2.748356200754642487e-02 2.936774166300892830e-03 2.644998766481876373e-02 4.934074357151985168e-03 8.772565983235836029e-03 1.637226343154907227e-02 -2.131424285471439362e-02 3.673700266517698765e-04 1.251103915274143219e-02 -2.365414239466190338e-02 9.361117146909236908e-03 2.562709618359804153e-03 -1.080042123794555664e-02 -5.673561245203018188e-03 -9.960065595805644989e-03 -2.907524444162845612e-02 -1.164106652140617371e-02 -4.864956717938184738e-03 -1.076724845916032791e-02 -1.687392778694629669e-02 1.336119603365659714e-02 -9.039754979312419891e-03 1.612952910363674164e-02 -1.828209497034549713e-03 9.994017891585826874e-03 -1.093502156436443329e-02 5.961143877357244492e-03 -4.821031354367733002e-03 5.884293466806411743e-03 5.763454362750053406e-03 -4.086995031684637070e-03 -7.424857001751661301e-03 3.673061728477478027e-03 -2.026276849210262299e-02 1.360258460044860840e-02 -2.343022450804710388e-02 3.137232735753059387e-03 1.274067908525466919e-02 4.868783871643245220e-04 -1.117765810340642929e-02 -4.385934211313724518e-03 -3.145236056298017502e-03 1.984611619263887405e-03 -1.840183627791702747e-03 1.390606723725795746e-02 1.790338195860385895e-02 -1.066646145773120224e-04 -9.040153585374355316e-03 -1.650040596723556519e-02 1.485156174749135971e-02 -1.128921844065189362e-02 2.338240854442119598e-02 -1.269223447889089584e-02 4.369816277176141739e-03 -1.567321945913136005e-03 1.908733043819665909e-03 -2.303796820342540741e-02 -1.213974878191947937e-02 -5.558067467063665390e-03 5.489503499120473862e-03 1.528870966285467148e-02 -1.168782263994216919e-02 -1.618907041847705841e-02 9.279914665967226028e-04 7.180273998528718948e-03 -9.910885244607925415e-03 -1.025806181132793427e-03 -1.399196102283895016e-03 2.156277745962142944e-02 9.351605549454689026e-03 -2.197339758276939392e-02 -3.031504747923463583e-04 -1.455589756369590759e-02 2.366319997236132622e-03 1.854351162910461426e-02 -4.418669268488883972e-03 -4.833998158574104309e-03 1.101705990731716156e-02 -8.655102923512458801e-03 5.468687508255243301e-03 -1.111844670958817005e-03 -5.266254302114248276e-03 -3.487355541437864304e-03 3.088320139795541763e-03 4.835986532270908356e-03 1.951205311343073845e-03 1.392727904021739960e-02 4.063377156853675842e-03 8.798350580036640167e-03 -1.125193946063518524e-02 -1.940452121198177338e-02 -1.295975223183631897e-02 -1.535720285028219223e-02 2.752779237926006317e-02 -4.293023142963647842e-03 1.122366357594728470e-02 -6.593889556825160980e-03 -2.293683646712452173e-04 -1.583527959883213043e-02 1.301751658320426941e-02 -6.675526034086942673e-03 7.067107595503330231e-03 -2.631676616147160530e-04 -1.140533108264207840e-02 5.127150565385818481e-03 -1.494930125772953033e-02 -8.781173964962363243e-04 -7.166936062276363373e-03 -1.896010339260101318e-02 4.332814831286668777e-03 7.813381031155586243e-03 8.255193009972572327e-03 -1.921294606290757656e-03 1.202841382473707199e-02 1.894737407565116882e-02 -1.177438069134950638e-03 4.367224406450986862e-03 -1.026403158903121948e-02 4.207227379083633423e-03 1.879855990409851074e-03 2.019118051975965500e-03 2.422872744500637054e-02 -1.750837452709674835e-02 -9.576217271387577057e-03 6.107443477958440781e-04 -1.151989214122295380e-02 -1.179020758718252182e-02 2.884807763621211052e-04 7.216280791908502579e-03 1.828205212950706482e-02 -2.144877798855304718e-02 7.539033889770507812e-03 -3.473912179470062256e-02 -2.037226920947432518e-03 4.045044537633657455e-03 8.151195943355560303e-03 -1.318278163671493530e-02 -1.610947959125041962e-02 1.564516685903072357e-02 -4.040651547256857157e-04 5.934559740126132965e-03 -9.673235006630420685e-03 -8.321254514157772064e-03 7.244924549013376236e-03 1.548001542687416077e-02 -4.075421486049890518e-03 1.872486062347888947e-02 1.127388328313827515e-02 -8.893962949514389038e-03 5.280658137053251266e-03 9.727970696985721588e-03 -2.411483414471149445e-02 1.764449663460254669e-02 -7.073854561895132065e-03 1.923553459346294403e-02 -6.424593739211559296e-03 -3.026093821972608566e-03 -4.871467594057321548e-03 7.466470822691917419e-03 -2.383361384272575378e-02 -5.103244446218013763e-03 4.810854792594909668e-03 -3.395432839170098305e-03 2.366253361105918884e-02 -1.131255924701690674e-02 -2.317545004189014435e-02 -2.987951273098587990e-03 5.497922655194997787e-03 4.368045832961797714e-03 -9.766516741365194321e-04 5.790621042251586914e-03 9.180190972983837128e-03 6.293417885899543762e-03 1.409982331097126007e-02 -8.009863086044788361e-03 -1.487249508500099182e-02 2.071701362729072571e-02 -8.533836342394351959e-03 -1.944613270461559296e-02 -2.567451214417815208e-03 -2.631800808012485504e-02 -3.124343696981668472e-03 3.935355693101882935e-03 1.110739260911941528e-02 2.550401724874973297e-02 2.546907344367355108e-04 1.347508002072572708e-02 -3.131534531712532043e-02 -1.932196505367755890e-02 -3.297662362456321716e-02 4.982229322195053101e-03 -2.570095472037792206e-02 3.943976014852523804e-03 -1.347507163882255554e-02 -2.205254323780536652e-02 4.460816271603107452e-03 5.074120592325925827e-03 7.098130299709737301e-04 -3.263115137815475464e-02 2.608323702588677406e-03 1.651606336236000061e-02 -3.503575176000595093e-02 1.002045581117272377e-03 1.314246794208884239e-03 -2.082295715808868408e-03 -9.366654558107256889e-04 -1.466117985546588898e-02 1.264015398919582367e-02 -7.921122945845127106e-03 2.102451771497726440e-02 1.839475147426128387e-02 2.071370399789884686e-04 -7.721011992543935776e-03 1.228231098502874374e-02 -3.841710509732365608e-03 -1.550599467009305954e-02 1.008033752441406250e-02 -4.633608274161815643e-03 -7.579372730106115341e-03 1.109447702765464783e-02 -2.956003881990909576e-03 -2.228833176195621490e-02 4.536126926541328430e-02 1.853777095675468445e-02 -2.761938236653804779e-02 -1.119077205657958984e-02 1.741212047636508942e-02 2.712168032303452492e-03 2.250051684677600861e-02 1.554947160184383392e-02 8.342429995536804199e-03 6.781200412660837173e-03 -1.223646197468042374e-02 -7.664412260055541992e-03 1.022188737988471985e-02 -9.668052196502685547e-03 1.096974126994609833e-02 -1.049899123609066010e-02 -2.252491377294063568e-02 3.940879553556442261e-02 1.143945381045341492e-02 2.026779949665069580e-02 -1.050554914399981499e-03 1.986181735992431641e-02
-6.911449134349822998e-03 -1.840987615287303925e-02 -6.398996338248252869e-03 -1.053706370294094086e-02 -1.805704436264932156e-03 9.641818702220916748e-03 1.404490601271390915e-02 1.657704357057809830e-03 7.763677276670932770e-03 2.779650967568159103e-03 1.251330506056547165e-02 -1.133448537439107895e-02 -1.209793053567409515e-02 4.420195240527391434e-03 5.751304794102907181e-03 4.613310564309358597e-03 1.436830498278141022e-02 2.623923122882843018e-02 3.925002645701169968e-03 -1.303380355238914490e-02 -8.427103981375694275e-03 -2.486043982207775116e-02 -2.170787565410137177e-02 5.057427566498517990e-03 3.397683426737785339e-02 -3.155505657196044922e-02 -6.072564050555229187e-03 -8.637841790914535522e-03 -1.294107176363468170e-02 4.406739491969347000e-03 -1.353876385837793350e-02 -1.753774844110012054e-02 1.971014775335788727e-02 6.747618899680674076e-04 3.268488124012947083e-02 2.226298302412033081e-02 -2.205583639442920685e-02 -2.191263437271118164e-02 1.155987964011728764e-03 9.013021364808082581e-03 3.149594739079475403e-02 1.846482604742050171e-02 -2.780408365651965141e-03 -7.483498193323612213e-03 -1.239861641079187393e-02 -3.616163972765207291e-03 1.389929093420505524e-02 -4.246502183377742767e-03 -1.879829168319702148e-02 2.350747771561145782e-02 6.546021439135074615e-03 -3.176060318946838379e-02 -1.963980309665203094e-02 -1.940415706485509872e-03 -2.006557583808898926e-02 1.228849310427904129e-02 -5.600541364401578903e-03 -7.966200821101665497e-03 3.038714407011866570e-03 -7.621473632752895355e-03 -8.045430295169353485e-03 1.388558186590671539e-02 -1.084358152002096176e-02 3.377273911610245705e-03 -3.614768153056502342e-03 -1.018230686895549297e-03 -1.963368989527225494e-02 5.071821622550487518e-03 1.056565809994935989e-02 -1.526545034721493721e-03 -1.813552342355251312e-03 -1.706447568722069263e-03 1.797879580408334732e-03 1.481814868748188019e-02 -8.482907898724079132e-03 -1.079028844833374023e-02 -5.842971149832010269e-03 -3.921899944543838501e-03 2.572047989815473557e-03 3.309395164251327515e-03 1.617754995822906494e-02 7.414184976369142532e-03 -4.641502164304256439e-03 1.061299163848161697e-02 1.380461174994707108e-02 4.015869274735450745e-02 -2.051239646971225739e-02 -3.077815845608711243e-02 7.513897959142923355e-03 2.547549456357955933e-02 6.375975906848907471e-03 6.158030591905117035e-03 1.999534480273723602e-02 -6.439692340791225433e-03 -4.239646717905998230e-02 7.890217006206512451e-03 2.978699281811714172e-03 9.325132705271244049e-03 3.652574960142374039e-04 1.538871601223945618e-02 1.238776370882987976e-03 -8.834292180836200714e-03 -2.666996046900749207e-02 -3.012498654425144196e-02 -6.646099966019392014e-03 2.478016540408134460e-02 -3.158586099743843079e-02 1.785974204540252686e-02 6.179168354719877243e-03 3.612098516896367073e-03 2.294115722179412842e-03 -1.828025653958320618e-02 -1.311392709612846375e-02 -1.315755583345890045e-02 1.339279580861330032e-03 1.187022309750318527e-02 1.773706823587417603e-02 1.118310727179050446e-02 2.148156426846981049e-02 2.869898825883865356e-02 -2.820934355258941650e-02 6.581661757081747055e-03 -5.468754097819328308e-03 -1.249138358980417252e-02 5.801222287118434906e-03 4.092480242252349854e-02 2.722828648984432220e-03 -2.152149379253387451e-02 1.128108799457550049e-02 -1.832683570683002472e-02 1.603680662810802460e-02 4.703404009342193604e-02 -8.364777080714702606e-03 3.010662831366062164e-02 -4.995762836188077927e-03 8.035715669393539429e-03 -1.352650020271539688e-02 5.097639746963977814e-03 7.306741084903478622e-03 -5.070090293884277344e-03 1.153437606990337372e-02 1.687904074788093567e-02 2.972520422190427780e-03 1.249840389937162399e-02 -3.859681775793433189e-03 8.839789777994155884e-03 -1.796641014516353607e-02 -7.433759164996445179e-04 1.825960166752338409e-02 4.318180494010448456e-03 -1.727648451924324036e-02 4.151539411395788193e-03 -1.070225983858108521e-02 -1.599380746483802795e-02 2.777963690459728241e-02 -8.635776117444038391e-03 -7.495092693716287613e-03 -1.303338352590799332e-02 2.332253009080886841e-02 -2.452296670526266098e-03 8.326566778123378754e-03 -2.599536906927824020e-03 -6.709803710691630840e-04 -2.241891436278820038e-02 -1.770787499845027924e-02 6.716962088830769062e-04 -7.077286019921302795e-03 -5.005673039704561234e-03 9.672534652054309845e-03 -2.602470107376575470e-03 -1.420618966221809387e-02 3.909854684025049210e-03 1.913854293525218964e-02 2.359462156891822815e-02 1.488031074404716492e-02 1.121267676353454590e-02 -7.070906925946474075e-03 -2.696168236434459686e-02 -1.640152186155319214e-02 1.965412497520446777e-02 -7.668524049222469330e-03 -9.870443493127822876e-03 -1.748907007277011871e-02 -3.806462045758962631e-03 -3.175141662359237671e-02 -6.629155832342803478e-04 -1.337093953043222427e-02 -1.720974920317530632e-03 3.030390013009309769e-03 1.462997402995824814e-03 -1.250661630183458328e-02 8.437301032245159149e-03 -1.418531127274036407e-02 -2.090725675225257874e-02 1.316788978874683380e-02 1.408415194600820541e-02 3.037641942501068115e-02 3.143963217735290527e-02 -2.310746535658836365e-02 1.002101134508848190e-02 2.528022974729537964e-02 -2.559591270983219147e-02 2.343808533623814583e-03 1.150031294673681259e-02 -7.820235565304756165e-03 -1.875058002769947052e-02 2.062755450606346130e-02 2.716691931709647179e-03 -1.341018546372652054e-02 8.176178671419620514e-03 -1.939775981009006500e-02 2.077560499310493469e-02 2.273893216624855995e-03 4.754342138767242432e-03 -6.558595690876245499e-03 1.018087659031152725e-02 2.298668958246707916e-02 1.123205851763486862e-02 -4.160806071013212204e-03 -1.445809844881296158e-02 -2.058358490467071533e-02 7.882077246904373169e-03 1.479476597160100937e-02 1.052760984748601913e-02 -1.089154370129108429e-02 -3.642376139760017395e-02 -1.539299264550209045e-03 -4.712989553809165955e-02 -1.274753455072641373e-02 -2.602029964327812195e-02 -8.017467334866523743e-03 -1.032862346619367599e-02 5.184872075915336609e-03 -2.211739495396614075e-02 1.838408783078193665e-02 1.395565341226756573e-03 -4.154159687459468842e-03 -5.961440503597259521e-03 -6.122918799519538879e-03 3.514571115374565125e-03 3.054513037204742432e-02 2.472283877432346344e-02 -2.003278210759162903e-02 -4.182202741503715515e-03 -1.376504264771938324e-02 3.747307695448398590e-03 -1.889956183731555939e-02 4.394145216792821884e-03 2.165062353014945984e-02 3.119784966111183167e-02 -2.079814858734607697e-02 -1.904388517141342163e-02 -1.997163752093911171e-03 -1.698733121156692505e-02 -3.685924410820007324e-02 2.797944843769073486e-02
4.962838254868984222e-03 -9.854668751358985901e-03 1.135049853473901749e-02 4.952620249241590500e-03 -4.313560493756085634e-04 -1.769746840000152588e-02 8.814257569611072540e-03 -2.540226560086011887e-03 1.018840633332729340e-02 3.128023119643330574e-03 -6.604165770113468170e-03 -2.008525421842932701e-03 -8.154116570949554443e-03 8.247457444667816162e-03 -3.954218700528144836e-03 8.765298407524824142e-04 -1.117636449635028839e-02 -1.780643127858638763e-02 1.578419096767902374e-02 -2.315773628652095795e-02 1.354534062556922436e-03 1.077696215361356735e-02 5.521596409380435944e-03 -1.807089149951934814e-02 6.296803709119558334e-03 -7.092443760484457016e-03 -1.307408791035413742e-02 3.658952889963984489e-03 -8.983033709228038788e-03 -4.463296383619308472e-03 2.962664887309074402e-02 2.296373434364795685e-02 2.902024984359741211e-02 -1.948949415236711502e-03 1.673584454692900181e-03 -2.089728601276874542e-03 3.562010591849684715e-03 -1.347779575735330582e-02 -7.810372393578290939e-03 -9.622610523365437984e-04 -2.715636789798736572e-02 1.330989506095647812e-02 3.754690987989306450e-03 -2.694405429065227509e-02 4.244484473019838333e-03 -1.285329833626747131e-02 4.300282336771488190e-03 1.561856549233198166e-02 1.786143705248832703e-02 2.444035932421684265e-02 4.937015008181333542e-03 1.722336001694202423e-02 -2.262032590806484222e-02 1.452646963298320770e-02 -2.552075684070587158e-02 -5.847048014402389526e-03 -3.433453617617487907e-03 1.021736487746238708e-02 -5.441092071123421192e-06 1.827370189130306244e-02 -1.072849426418542862e-02 1.278503797948360443e-02 -2.337606064975261688e-02 1.558786258101463318e-02 2.812478505074977875e-02 -8.014994673430919647e-03 2.627178328111767769e-03 4.219222441315650940e-02 -1.240197889273986220e-04 -1.376063469797372818e-02 2.192240580916404724e-02 1.483417768031358719e-02 -8.644180372357368469e-03 4.174942150712013245e-03 -1.012148801237344742e-02 -4.043659195303916931e-03 -7.039893884211778641e-03 -9.560362435877323151e-03 -7.541615515947341919e-03 3.262985032051801682e-03 -1.685048628132790327e-04 -3.080887952819466591e-03 -8.408159948885440826e-03 2.057840174529701471e-05 -3.701680526137351990e-02 1.321127451956272125e-02 1.277213077992200851e-02 -1.069999113678932190e-02 2.777582220733165741e-02 -1.145134959369897842e-02 2.015414275228977203e-02 -1.860556937754154205e-02 1.280261948704719543e-02 9.764884598553180695e-03 -1.327564287930727005e-02 -6.542569957673549652e-03 -3.277477342635393143e-03 2.521371701732277870e-03 1.919873431324958801e-02 -1.530615985393524170e-02 -1.530192792415618896e-02 1.636368781328201294e-02 5.330072250217199326e-03 1.562859304249286652e-02 -1.911670155823230743e-02 -2.863619849085807800e-02 -1.462844107300043106e-02 8.262102492153644562e-03 -1.428931672126054764e-02 -1.392314117401838303e-02 1.349072158336639404e-02 2.757586771622300148e-03 1.529559865593910217e-02 -4.494019784033298492e-03 -1.986443810164928436e-02 -1.151029765605926514e-02 6.495206151157617569e-03 -2.614754810929298401e-02 5.863411352038383484e-03 1.805755076929926872e-03 -2.558926120400428772e-03 -1.889772713184356689e-02 -8.526102639734745026e-03 -2.244311012327671051e-02 8.005113340914249420e-03 -1.180036272853612900e-02 -2.666161744855344296e-04 2.400609105825424194e-02 1.468799542635679245e-03 -4.566670395433902740e-03 6.374741438776254654e-03 5.470289848744869232e-03 -3.025524318218231201e-03 8.099063299596309662e-03 -2.989973127841949463e-02 -7.974191976245492697e-05 2.785849943757057190e-02 -5.302885919809341431e-02 -3.263118211179971695e-03 1.059247553348541260e-02 4.498371854424476624e-03 -3.945490345358848572e-03 -1.175179053097963333e-02 -7.763928268104791641e-03 -5.172987002879381180e-03 -9.148379787802696228e-03 4.793243482708930969e-03 -9.983270429074764252e-03 1.704358309507369995e-02 1.903479918837547302e-02 1.618918590247631073e-02 -3.570425906218588352e-04 1.078861672431230545e-02 2.803529147058725357e-03 7.871825248003005981e-03 4.055707715451717377e-03 -6.716243457049131393e-03 -2.418878674507141113e-02 3.026827238500118256e-02 -1.894076704047620296e-03 -2.394662005826830864e-03 1.422611251473426819e-02 -1.924684084951877594e-02 1.515870448201894760e-02 -8.218545466661453247e-03 -4.040820151567459106e-02 1.097588520497083664e-02 -1.567738130688667297e-02 1.278985384851694107e-02 2.544748131185770035e-03 -4.187583981547504663e-04 -2.404751488938927650e-03 -3.361735865473747253e-02 2.147445268929004669e-02 7.442810572683811188e-03 -1.207233220338821411e-02 -1.980764791369438171e-02 -8.010819554328918457e-03 -6.696858908981084824e-03 3.278480144217610359e-03 1.142885163426399231e-02 6.684657186269760132e-03 1.703580282628536224e-02 -1.253733970224857330e-02 -2.372870780527591705e-02 6.402052007615566254e-03 2.697255834937095642e-02 2.405796665698289871e-03 -2.074873819947242737e-02 -1.574053429067134857e-02 4.927180241793394089e-03 3.374745137989521027e-03 -7.297393865883350372e-03 -2.065731398761272430e-02 -7.952103391289710999e-03 1.298161456361413002e-03 -1.162207801826298237e-03 -2.642872277647256851e-03 8.962486870586872101e-03 2.377950400114059448e-02 -8.307427167892456055e-03 1.781111396849155426e-02 1.641672221012413502e-03 2.742010541260242462e-02 2.033576602116227150e-03 -9.915636852383613586e-03 -8.061122149229049683e-03 -4.793843720108270645e-03 -1.147567108273506165e-02 1.452253200113773346e-03 1.092858705669641495e-02 1.149742212146520615e-02 -1.213711686432361603e-02 -2.336784731596708298e-03 -1.949069090187549591e-02 -4.358941223472356796e-03 -5.504458677023649216e-03 -8.026153780519962311e-03 -9.671824984252452850e-03 -1.024076831527054310e-03 2.385866083204746246e-02 3.316862042993307114e-03 2.284225309267640114e-03 1.067273784428834915e-03 4.379812628030776978e-03 -1.169228693470358849e-03 1.917003467679023743e-02 5.398194189183413982e-04 -5.837739910930395126e-03 1.730240136384963989e-02 1.194119825959205627e-02 -9.984271600842475891e-03 2.156863687559962273e-03 -1.822792738676071167e-02 4.096385091543197632e-03 3.534436970949172974e-02 -3.817220218479633331e-03 -3.678514156490564346e-03 -3.534574643708765507e-04 -2.396152354776859283e-02 1.057686749845743179e-04 -6.496670655906200409e-03 9.680011309683322906e-03 -2.316979318857192993e-02 -2.167498460039496422e-03 5.935282446444034576e-03 1.449124887585639954e-02 -1.048261485993862152e-02 -6.595340091735124588e-03 -8.506296202540397644e-03 6.218658294528722763e-03 -3.849040716886520386e-03 2.003657631576061249e-03 -4.331135377287864685e-02 3.780941665172576904e-02 -6.188241299241781235e-03
-7.321714656427502632e-04 -1.087726000696420670e-02 -7.505356334149837494e-03 3.674817085266113281e-02 1.774550043046474457e-02 -7.236474193632602692e-03 1.789767667651176453e-02 3.863334422931075096e-03 3.840013872832059860e-03 -8.321610279381275177e-03 3.567828098312020302e-03 -6.283856462687253952e-03 -3.047344274818897247e-03 1.216562651097774506e-02 -1.656700042076408863e-03 -8.095288067124783993e-04 1.135564525611698627e-03 -1.987869851291179657e-02 7.993715815246105194e-03 -8.777636103332042694e-03 -1.916648237966001034e-03 1.108260173350572586e-02 7.304700557142496109e-03 -2.473343396559357643e-03 4.125216510146856308e-03 1.079963520169258118e-03 -4.407953005284070969e-03 -1.251392159610986710e-02 1.200078148394823074e-02 -1.613309979438781738e-02 -1.636412180960178375e-02 -4.261356312781572342e-03 -1.266903895884752274e-02 3.243618644773960114e-03 4.536961205303668976e-03 -2.314574085175991058e-03 9.654757566750049591e-03 3.324600169435143471e-03 -1.236433279700577259e-03 -1.048623211681842804e-02 -3.460372798144817352e-03 -8.801520802080631256e-03 -2.621187129989266396e-03 -6.120420992374420166e-03 -1.204716600477695465e-02 -3.013229463249444962e-03 -1.144038978964090347e-03 5.977780092507600784e-04 2.946508303284645081e-02 4.813584964722394943e-03 -7.937228307127952576e-03 -1.690428704023361206e-03 -2.796768024563789368e-02 9.560842881910502911e-04 -1.269645337015390396e-02 -5.806189728900790215e-04 4.689184948801994324e-03 -1.086617913097143173e-02 -2.451567910611629486e-03 -1.289802510291337967e-02 -1.899402588605880737e-02 2.057177713140845299e-03 6.868576165288686752e-04 -1.267272140830755234e-02 -6.679829210042953491e-03 -2.176375826820731163e-03 1.357753202319145203e-02 1.165596954524517059e-02 8.673436241224408150e-04 -3.575139911845326424e-03 1.564517617225646973e-02 -9.694644832052290440e-04 -3.184906672686338425e-03 -5.606726277619600296e-03 -4.179607611149549484e-03 -6.549054523929953575e-04 6.743243284290656447e-05 2.065839432179927826e-02 1.070276740938425064e-02 7.785111200064420700e-03 -4.595147911459207535e-03 -2.416498260572552681e-03 -3.671552753075957298e-03 2.672451315447688103e-03 8.630542084574699402e-03 -2.399059711024165154e-03 1.107852440327405930e-03 2.830901555716991425e-02 -8.868548087775707245e-03 1.028979476541280746e-02 -1.267148833721876144e-02 4.056361503899097443e-03 -1.348303258419036865e-02 -1.223243161803111434e-04 -9.877387201413512230e-04 -7.191497134044766426e-04 -3.669612109661102295e-03 1.660172361880540848e-03 6.922194734215736389e-03 1.137653365731239319e-02 -1.125933229923248291e-02 -7.925149402581155300e-04 2.870052494108676910e-02 1.139760669320821762e-02 1.739340135827660561e-03 -1.497966796159744263e-02 -2.276161219924688339e-03 6.168897729367017746e-03 -2.221434377133846283e-03 -7.257421966642141342e-03 2.213662676513195038e-02 1.563498936593532562e-02 1.076064631342887878e-02 9.586458094418048859e-03 -5.365632241591811180e-04 2.042357996106147766e-02 1.175447739660739899e-02 8.040681481361389160e-03 6.473173387348651886e-03 -1.044482225552201271e-03 4.545701667666435242e-03 1.457164646126329899e-03 1.058166380971670151e-02 1.477434067055583000e-03 -3.997125662863254547e-03 2.171755069866776466e-03 -3.733127377927303314e-03 1.112698018550872803e-02 6.123371422290802002e-03 1.669484376907348633e-02 -1.176080945879220963e-02 1.129481196403503418e-02 -3.012875793501734734e-03 2.307831123471260071e-02 -2.792933722957968712e-03 1.835337467491626740e-02 1.503040269017219543e-02 -2.601473033428192139e-02 5.562151782214641571e-04 1.543723233044147491e-02 4.010693635791540146e-03 -1.606471836566925049e-02 -6.151941604912281036e-03 1.503756828606128693e-02 -4.987945780158042908e-03 8.056151680648326874e-03 -4.640471655875444412e-03 -5.943064112216234207e-03 5.752618890255689621e-03 -4.472667817026376724e-03 -3.703259397298097610e-03 4.954966250807046890e-03 -7.283694110810756683e-03 -1.388586591929197311e-02 -1.097366563044488430e-03 1.533746602945029736e-03 3.145594615489244461e-03 -4.184299614280462265e-03 -6.005717907100915909e-03 4.009540658444166183e-03 -7.291547954082489014e-03 -7.992228493094444275e-03 -7.364681921899318695e-03 1.709992880932986736e-03 -6.358490325510501862e-03 1.012932229787111282e-02 -2.777232229709625244e-02 7.157673593610525131e-03 -1.571800746023654938e-02 4.590761382132768631e-03 -3.614918561652302742e-03 1.118441694416105747e-03 -1.093751634471118450e-03 1.222955342382192612e-02 -5.688758566975593567e-03 -1.326175779104232788e-02 7.208986207842826843e-04 4.037075676023960114e-03 1.675255596637725830e-03 8.208002895116806030e-03 7.646576501429080963e-03 -1.313518034294247627e-03 1.810385100543498993e-02 -1.248897053301334381e-02 1.020424254238605499e-02 -2.214526943862438202e-02 8.764078840613365173e-03 -1.672158949077129364e-02 7.845387794077396393e-03 1.070816349238157272e-02 3.189529292285442352e-03 1.053235144354403019e-03 9.747603908181190491e-03 -1.489383634179830551e-03 -8.264306001365184784e-03 1.214512158185243607e-02 -7.080133538693189621e-03 -4.466810263693332672e-03 1.136085670441389084e-02 2.671031979843974113e-03 2.879463508725166321e-02 -2.235665218904614449e-03 -6.603423971682786942e-03 -2.842270303517580032e-03 -3.590847831219434738e-03 -1.027441117912530899e-03 -2.602213760837912560e-03 6.203784607350826263e-03 -2.435774775221943855e-03 1.697698608040809631e-03 -1.059931982308626175e-02 -1.282344944775104523e-02 2.051082206889986992e-03 -1.877297461032867432e-02 7.766426075249910355e-03 2.057218924164772034e-02 -4.407623782753944397e-03 -3.824017941951751709e-03 2.989878645166754723e-03 2.736676950007677078e-03 5.079549271613359451e-03 2.081108093261718750e-02 -1.280339527875185013e-02 9.410041384398937225e-03 3.609015257097780704e-04 4.521454684436321259e-03 5.723840557038784027e-03 1.136096753180027008e-02 -1.233714167028665543e-02 5.911451764404773712e-03 1.028444897383451462e-02 4.608226474374532700e-03 -1.369692385196685791e-02 9.567656554281711578e-03 3.395930863916873932e-03 -8.348164148628711700e-03 4.313257057219743729e-03 1.973014732357114553e-04 -8.398152422159910202e-04 -2.851991681382060051e-03 -2.988787554204463959e-02 -1.196436583995819092e-02 -1.550547499209642410e-02 -1.215222477912902832e-02 -1.306166220456361771e-02 6.474636960774660110e-03 6.245342665351927280e-04 -4.446275066584348679e-03 -6.745119579136371613e-03 1.567367464303970337e-02 2.942899940535426140e-03 4.059501457959413528e-03 1.552359666675329208e-02 4.380196798592805862e-03 4.928531125187873840e-03 -1.067807711660861969e-02
2.440112829208374023e-02 3.634085180237889290e-03 -7.336320821195840836e-03 -2.135491929948329926e-02 -7.835735566914081573e-03 -3.090803511440753937e-02 -6.696121767163276672e-03 -1.743175275623798370e-02 1.408270467072725296e-02 7.042771205306053162e-03 1.778691448271274567e-02 -5.602368153631687164e-03 -1.184350228868424892e-03 -2.255352679640054703e-03 -1.743599027395248413e-02 1.113402657210826874e-02 -4.792895633727312088e-03 1.757886202540248632e-04 -1.377974636852741241e-02 -9.638646617531776428e-03 1.062005385756492615e-02 -6.045649293810129166e-03 -4.347043577581644058e-03 -5.754398647695779800e-03 8.951527997851371765e-03 1.949921622872352600e-02 7.053003646433353424e-03 1.649932935833930969e-02 -1.319447904825210571e-02 -9.018637938424944878e-04 1.540899276733398438e-02 -1.441166736185550690e-02 -1.169459428638219833e-02 -2.099203132092952728e-02 8.416230790317058563e-03 -4.033845290541648865e-02 -1.081285811960697174e-02 1.122358161956071854e-02 5.857671611011028290e-03 -4.293150268495082855e-03 2.237582346424460411e-03 -1.673130504786968231e-02 -5.008056294173002243e-03 -1.221122685819864273e-02 -1.950413919985294342e-02 -1.384183880873024464e-03 -1.621421542949974537e-03 -6.699225632473826408e-04 -3.032314591109752655e-02 2.848358079791069031e-02 -2.374325413256883621e-03 9.849672205746173859e-03 5.427950527518987656e-04 -9.443789720535278320e-03 3.641227725893259048e-03 1.836901344358921051e-02 -7.248220033943653107e-03 -1.046450692228972912e-03 -1.905994862318038940e-02 1.529427338391542435e-02 -2.077553793787956238e-02 -2.901404164731502533e-03 -5.420234519988298416e-03 -5.077407509088516235e-02 -3.853692859411239624e-02 1.168361678719520569e-02 3.050363156944513321e-04 -1.022241171449422836e-02 3.860302502289414406e-03 2.559679374098777771e-02 1.257845479995012283e-02 -2.821464440785348415e-04 -2.489104494452476501e-02 -4.517099820077419281e-03 2.610690426081418991e-03 -8.991447277367115021e-03 -9.100840426981449127e-03 -5.102299619466066360e-03 3.229815338272601366e-04 2.583131566643714905e-02 -1.043987367302179337e-02 -1.317304931581020355e-02 2.026980742812156677e-02 6.422010483220219612e-05 -4.962292034178972244e-03 8.843789808452129364e-03 -1.607174985110759735e-02 -2.146310359239578247e-02 -5.764602217823266983e-03 -3.202163800597190857e-02 -8.751695975661277771e-03 1.356652658432722092e-02 -1.983940973877906799e-02 1.107927318662405014e-02 -1.304231025278568268e-02 8.082652464509010315e-03 3.466597199440002441e-02 -1.492178300395607948e-03 -2.378414571285247803e-02 -1.344851963222026825e-02 8.129358291625976562e-03 -1.731917145662009716e-03 -5.321266595274209976e-03 -2.378212101757526398e-02 -1.012600772082805634e-02 -8.708062581717967987e-03 -4.448098596185445786e-03 -1.158687099814414978e-02 1.030149776488542557e-02 -3.906093537807464600e-02 -3.652934450656175613e-03 -2.705685235559940338e-02 3.359689610078930855e-03 -7.959043607115745544e-03 -1.115452684462070465e-02 -1.542526297271251678e-03 -7.091193925589323044e-03 -1.187263336032629013e-02 -1.229558978229761124e-02 -8.105426095426082611e-03 -7.469648960977792740e-03 1.393610611557960510e-02 1.124805212020874023e-02 5.136259365826845169e-03 1.692488789558410645e-03 -9.973365813493728638e-03 3.556036856025457382e-03 -3.301923722028732300e-02 2.464477345347404480e-02 1.318807899951934814e-02 -5.369664635509252548e-03 1.119512831792235374e-03 1.661587134003639221e-02 8.508873172104358673e-03 1.146658230572938919e-02 1.828568801283836365e-02 -1.966133713722229004e-02 7.096671033650636673e-03 9.652245789766311646e-03 -1.693443208932876587e-02 -1.054716110229492188e-02 1.388854812830686569e-02 1.306052133440971375e-02 -1.796165108680725098e-02 1.584031991660594940e-02 -8.029643446207046509e-03 -1.825128495693206787e-02 7.306661922484636307e-03 -5.451937671750783920e-03 -1.596719026565551758e-02 6.436643656343221664e-03 1.513741537928581238e-02 -2.916347693826537579e-05 -1.735894009470939636e-02 2.325488720089197159e-03 -3.012891858816146851e-02 5.163445137441158295e-03 8.728833869099617004e-03 -3.979276400059461594e-03 -8.795326575636863708e-03 -3.120695613324642181e-02 -9.131511673331260681e-03 1.860903948545455933e-02 -7.466333918273448944e-03 1.352354418486356735e-02 9.549339301884174347e-03 -5.296809598803520203e-03 4.066499241162091494e-04 -8.142542093992233276e-03 2.967055886983871460e-03 -3.158014640212059021e-02 -1.422427315264940262e-02 3.194328397512435913e-02 8.644480258226394653e-03 -1.801726408302783966e-02 -3.076998144388198853e-02 6.816581822931766510e-03 -7.649528328329324722e-03 -5.016332119703292847e-02 -1.277330052107572556e-02 -1.557936519384384155e-02 -1.517268363386392593e-02 -2.677835896611213684e-02 -2.168412879109382629e-02 -7.055908441543579102e-03 -6.646936759352684021e-03 -9.640517644584178925e-03 -1.429694518446922302e-02 -1.385448593646287918e-02 6.030253134667873383e-03 9.584188461303710938e-03 1.071493956260383129e-03 -1.148843020200729370e-02 7.208809256553649902e-03 -3.453331813216209412e-02 4.047188907861709595e-03 -7.925047539174556732e-03 -7.449057418853044510e-03 8.535396307706832886e-03 -3.917255904525518417e-03 -2.442139945924282074e-02 -7.537895347923040390e-03 1.923983916640281677e-02 -3.214155789464712143e-03 -8.600227534770965576e-03 1.375552639365196228e-02 3.550832858309149742e-03 -4.930304829031229019e-03 -4.314357938710600138e-04 3.594635054469108582e-03 6.863165181130170822e-03 -8.285621181130409241e-03 1.216394826769828796e-02 8.007231168448925018e-03 1.964368484914302826e-02 -1.530801970511674881e-02 3.878669347614049911e-03 4.517645109444856644e-03 -2.065706811845302582e-02 -1.996473595499992371e-02 -3.534892341122031212e-03 -4.774325713515281677e-02 6.375348661094903946e-03 -4.746958613395690918e-03 -1.913702301681041718e-02 -1.235428266227245331e-02 2.223472576588392258e-03 -6.338426377624273300e-03 -6.134253926575183868e-03 1.335540693253278732e-02 1.430405955761671066e-02 -2.491793420631438494e-04 -1.848963089287281036e-02 1.459135767072439194e-02 9.880189783871173859e-03 -1.610839553177356720e-02 -2.228184975683689117e-02 -7.871363312005996704e-03 -8.177509531378746033e-03 -4.319223575294017792e-03 -1.447311509400606155e-02 1.705292798578739166e-02 8.542815223336219788e-03 1.385607663542032242e-02 3.738474799320101738e-03 1.934796199202537537e-02 8.128139190375804901e-03 1.091706752777099609e-02 -1.926019904203712940e-03 1.873872987926006317e-02 -8.237521164119243622e-03 -3.049093484878540039e-02 -2.104935608804225922e-02 -4.522801842540502548e-03 -5.203287117183208466e-03 9.342694655060768127e-03
9.294660761952400208e-03 2.049584500491619110e-02 -3.199577331542968750e-03 1.536937803030014038e-02 8.450049906969070435e-03 -8.027243427932262421e-03 1.007684506475925446e-03 2.755976654589176178e-02 -6.448152125813066959e-04 -6.384493783116340637e-03 -1.042116992175579071e-02 -1.552246627397835255e-03 3.280173614621162415e-02 -1.005593873560428619e-02 -7.324388250708580017e-03 1.354203186929225922e-02 -1.074118446558713913e-02 1.608664914965629578e-02 -4.650248680263757706e-03 -1.160888560116291046e-02 2.971274778246879578e-03 2.504836581647396088e-02 1.796773448586463928e-02 -1.478748209774494171e-02 -1.737099327147006989e-02 8.903340436518192291e-03 -1.828858256340026855e-02 1.183423865586519241e-02 2.200692333281040192e-02 6.308012176305055618e-03 9.891170077025890350e-03 2.490467391908168793e-02 -1.385913789272308350e-02 8.202990866266191006e-04 1.643478171899914742e-03 -3.470614552497863770e-02 1.814641989767551422e-02 4.284678958356380463e-03 -1.262496598064899445e-02 2.347957342863082886e-03 3.929407335817813873e-03 -2.886025048792362213e-02 -7.015105802565813065e-03 2.792700193822383881e-02 2.510686218738555908e-02 8.178517222404479980e-03 6.066269241273403168e-03 1.517458446323871613e-02 -1.709729433059692383e-02 -3.194609889760613441e-03 -1.020238269120454788e-03 -8.466815575957298279e-03 2.543052472174167633e-02 4.840574692934751511e-03 -1.576309092342853546e-02 -1.852337270975112915e-02 1.513079926371574402e-02 5.761715583503246307e-03 7.555533666163682938e-03 -5.929642356932163239e-03 5.994117818772792816e-03 4.228755459189414978e-02 -2.123024500906467438e-02 1.412700396031141281e-03 -3.296136483550071716e-02 3.280795936007052660e-04 1.716549275442957878e-03 -7.144066505134105682e-03 -1.550332177430391312e-02 -8.275107480585575104e-03 2.170295192627236247e-04 -1.781789772212505341e-02 -9.705398231744766235e-03 2.833146601915359497e-02 -1.016294304281473160e-02 -1.478923222748562694e-04 -4.498526453971862793e-03 1.986004039645195007e-02 -1.664027012884616852e-02 1.289158873260021210e-02 -2.024436742067337036e-02 -2.517731860280036926e-02 -5.833192262798547745e-03 1.826358959078788757e-02 -1.816956140100955963e-02 -1.979031227529048920e-02 3.700978413689881563e-04 -1.989041455090045929e-03 -3.444816451519727707e-03 1.894576102495193481e-02 -2.899489924311637878e-02 1.105380943045020103e-03 -1.633455976843833923e-03 2.739323535934090614e-03 1.174893975257873535e-02 1.065229903906583786e-02 1.425585709512233734e-02 -1.115689147263765335e-02 -1.382275368086993694e-03 -2.469221502542495728e-02 8.990929462015628815e-03 1.648684265092015266e-03 -8.198934607207775116e-03 -1.131834695115685463e-03 1.849177409894764423e-03 3.977703861892223358e-03 -1.499605737626552582e-02 -9.680754505097866058e-03 1.305742841213941574e-02 1.936239749193191528e-02 -3.592343535274267197e-03 -1.017287839204072952e-02 1.230176445096731186e-02 1.207936462014913559e-02 1.447005942463874817e-02 5.512549541890621185e-03 -1.322913216426968575e-03 8.336908183991909027e-03 2.832124242559075356e-03 1.507599558681249619e-02 1.980312727391719818e-02 4.148522391915321350e-03 2.102620899677276611e-02 -6.785267964005470276e-03 -3.580735530704259872e-03 -3.558216616511344910e-03 8.023669011890888214e-03 -1.129335607402026653e-03 -4.022885113954544067e-03 4.770032595843076706e-03 -1.415569428354501724e-02 1.033603586256504059e-02 -4.184258170425891876e-03 -3.298429073765873909e-03 1.809218199923634529e-03 2.916803210973739624e-02 -2.277330681681632996e-02 -1.281137671321630478e-02 -4.664211533963680267e-03 -1.225445419549942017e-02 -2.295508747920393944e-03 -2.102559618651866913e-02 -2.429310791194438934e-02 8.220714516937732697e-03 -4.602416977286338806e-02 -7.370711769908666611e-03 -3.875262336805462837e-03 1.369489077478647232e-02 -6.937782280147075653e-03 3.078399226069450378e-03 -1.179250422865152359e-02 2.246105298399925232e-02 1.150342728942632675e-02 2.024082280695438385e-02 -1.908639818429946899e-02 -2.309232763946056366e-02 1.803137734532356262e-02 -8.685732027515769005e-04 -5.240961909294128418e-03 -5.686537362635135651e-03 -1.145327929407358170e-02 -4.990589804947376251e-03 1.119916606694459915e-02 1.655014045536518097e-02 2.485316991806030273e-02 -1.210874994285404682e-03 -1.608832739293575287e-02 -1.287734042853116989e-02 2.279843389987945557e-02 1.591312885284423828e-02 -1.602916233241558075e-02 1.666588522493839264e-02 -3.912828862667083740e-03 -6.504175253212451935e-03 7.123718969523906708e-03 1.900770515203475952e-02 1.686312817037105560e-02 3.816355485469102859e-03 -2.831885404884815216e-02 -2.365577965974807739e-02 -7.383186370134353638e-03 2.540398016571998596e-02 -3.031088598072528839e-02 7.862767204642295837e-03 2.754175290465354919e-02 1.410110155120491982e-03 -6.836322601884603500e-03 -3.036682028323411942e-03 3.114042989909648895e-02 6.025250069797039032e-03 1.162598934024572372e-02 -6.990404799580574036e-03 -3.315754607319831848e-02 2.031346596777439117e-02 1.252078916877508163e-02 -5.138789303600788116e-03 -3.208284033462405205e-04 -1.806626468896865845e-02 7.344940211623907089e-03 1.692575588822364807e-02 2.271047327667474747e-03 1.190204173326492310e-02 5.341038107872009277e-03 -6.046614609658718109e-03 2.172361128032207489e-03 8.519757539033889771e-03 -3.123234957456588745e-03 1.146086025983095169e-03 -1.756276190280914307e-02 6.766484584659337997e-04 -3.771742805838584900e-03 -2.294666133821010590e-03 -8.792266249656677246e-03 -2.231959626078605652e-02 1.702095754444599152e-02 1.381365023553371429e-02 -1.120194606482982635e-02 5.710049998015165329e-03 4.787999670952558517e-03 -8.089775219559669495e-03 9.901192970573902130e-03 8.899897802621126175e-04 -8.875326253473758698e-03 2.003096230328083038e-02 -1.569904014468193054e-02 -2.046476816758513451e-03 -1.352689974009990692e-02 -1.228258386254310608e-02 1.281684264540672302e-02 -9.734516963362693787e-03 2.926851622760295868e-02 -6.010898388922214508e-03 -1.638971269130706787e-03 -6.161827128380537033e-03 -1.116765942424535751e-02 -1.481233164668083191e-02 -1.023440435528755188e-02 -2.152437530457973480e-02 -2.320952713489532471e-02 1.828126609325408936e-02 -3.464145818725228310e-03 1.827165856957435608e-02 -6.734857335686683655e-03 -4.531791433691978455e-03 -6.775491056032478809e-04 2.177886199206113815e-03 -7.493054959923028946e-03 -9.010889567434787750e-03 -4.136174544692039490e-02 1.191358081996440887e-02 2.147923689335584641e-03 -2.088646031916141510e-02 3.568361699581146240e-02 5.677144974470138550e-03 1.027624402195215225e-02 2.474045904818922281e-04
-6.250790785998106003e-03 4.795200657099485397e-03 -2.843572758138179779e-03 -4.158574622124433517e-03 1.338410377502441406e-02 9.361977572552859783e-04 -6.170418579131364822e-03 6.182830547913908958e-04 5.429075565189123154e-03 2.048712456598877907e-03 1.252770889550447464e-02 -9.111724793910980225e-03 1.729400083422660828e-02 -1.475788466632366180e-02 -1.071809697896242142e-02 -2.877266611903905869e-03 6.741057732142508030e-04 -1.017015427350997925e-02 1.119242887943983078e-02 1.988781616091728210e-03 -1.124667655676603317e-02 -1.964270137250423431e-02 9.282891638576984406e-03 2.732569351792335510e-03 2.421874366700649261e-02 -1.269356627017259598e-02 -3.502512350678443909e-03 1.282160822302103043e-02 1.689228974282741547e-02 2.181142754852771759e-02 4.012221004813909531e-03 3.677750751376152039e-02 -1.211045496165752411e-02 -2.161630801856517792e-02 -3.343742282595485449e-04 -1.429583970457315445e-02 -1.889529824256896973e-02 -2.045162953436374664e-02 -1.257314812391996384e-02 -2.613482531160116196e-03 1.271753944456577301e-02 2.372831478714942932e-02 -3.066139761358499527e-03 -5.500695202499628067e-03 -6.922800093889236450e-03 9.159938432276248932e-03 -2.313279733061790466e-02 1.008395757526159286e-02 1.125756744295358658e-02 -8.655382320284843445e-03 -6.311909761279821396e-03 -1.484266482293605804e-02 -2.742770500481128693e-02 5.374261643737554550e-03 -5.741852335631847382e-03 -2.589950338006019592e-02 -2.097940631210803986e-02 -1.193468365818262100e-02 7.544982247054576874e-03 2.110990881919860840e-02 -1.216672174632549286e-02 1.610872149467468262e-02 -6.200536154210567474e-03 -1.345682074315845966e-03 9.240603074431419373e-03 8.879272267222404480e-03 1.652321219444274902e-02 1.026232261210680008e-03 -3.428511554375290871e-03 6.026359274983406067e-03 1.582603156566619873e-02 -6.617628969252109528e-03 6.003529299050569534e-03 -1.271720603108406067e-02 -1.403365004807710648e-02 -1.646469347178936005e-02 3.194759786128997803e-02 2.017081715166568756e-03 -8.142268052324652672e-04 -2.320573665201663971e-02 9.400929557159543037e-04 -3.807596489787101746e-02 -1.534219132736325264e-03 -1.363091170787811279e-02 -2.710097841918468475e-02 5.438338965177536011e-03 -1.617502421140670776e-02 1.529298909008502960e-02 2.268775599077343941e-03 1.847524382174015045e-02 6.353585980832576752e-03 -1.221455447375774384e-02 -1.023995783179998398e-02 -2.058777399361133575e-02 -3.192792413756251335e-03 -2.062613144516944885e-03 4.969862289726734161e-03 2.151501830667257309e-03 9.998132474720478058e-03 -7.896756753325462341e-03 -3.303176164627075195e-02 7.428762037307024002e-03 1.086206547915935516e-02 -4.712940135505050421e-04 4.029237199574708939e-03 9.786884300410747528e-03 6.794683868065476418e-04 -5.325157195329666138e-03 1.626096293330192566e-02 1.416851859539747238e-02 1.340063475072383881e-02 -1.400162931531667709e-02 9.549695067107677460e-03 2.966044470667839050e-03 2.799224294722080231e-02 -1.359645277261734009e-02 1.848054118454456329e-02 6.833315826952457428e-03 -7.400921545922756195e-03 -4.118726588785648346e-03 7.687613368034362793e-03 -9.589021094143390656e-03 -1.339551992714405060e-02 -1.422040257602930069e-02 -1.484859641641378403e-02 3.989833872765302658e-03 -7.172212470322847366e-03 -3.232633229345083237e-03 1.824145438149571419e-03 -1.203329768031835556e-02 1.657287590205669403e-02 8.225889876484870911e-03 5.157144623808562756e-04 1.665285788476467133e-02 9.723457507789134979e-03 -6.093017291277647018e-03 9.016886353492736816e-03 9.618007577955722809e-03 1.046463008970022202e-02 -1.052595861256122589e-02 -5.831772927194833755e-03 -1.619262620806694031e-02 -3.876998648047447205e-02 -2.466598339378833771e-02 -3.016969747841358185e-02 5.557428579777479172e-03 1.084979716688394547e-02 -2.133795805275440216e-02 -1.749523729085922241e-02 1.038137357681989670e-02 -4.165031015872955322e-03 1.760437153279781342e-02 4.131511319428682327e-03 4.267501179128885269e-03 1.962783746421337128e-02 -1.310573332011699677e-02 8.354165591299533844e-03 -5.362548865377902985e-03 2.357295015826821327e-03 5.532734096050262451e-03 5.967801189399324358e-05 8.970712311565876007e-03 -3.459488227963447571e-02 2.574704028666019440e-02 -2.250031009316444397e-02 -3.585621342062950134e-02 -2.996975556015968323e-02 1.395459845662117004e-02 -1.190994028002023697e-02 1.341965142637491226e-02 2.247265307232737541e-03 -7.136462256312370300e-03 -9.033695794641971588e-03 8.667756919749081135e-04 -1.777425786713138223e-04 -1.204974297434091568e-02 5.609416402876377106e-03 3.024357138201594353e-03 -3.725545108318328857e-02 1.031563337892293930e-02 -4.258134867995977402e-03 2.824947470799088478e-03 4.228254780173301697e-03 3.088547382503747940e-03 4.887487739324569702e-03 1.378224347718060017e-03 4.301113542169332504e-03 -5.797866731882095337e-03 6.780242983950302005e-05 -2.670533955097198486e-03 6.951749324798583984e-03 -5.087547469884157181e-03 -5.159015767276287079e-03 1.804530434310436249e-02 2.654356649145483971e-03 -1.259366050362586975e-02 1.218719594180583954e-02 2.478648349642753601e-02 1.903862692415714264e-02 -2.087144646793603897e-03 -1.870522461831569672e-02 -7.904769852757453918e-03 -1.310039497911930084e-02 1.857547275722026825e-02 2.959396503865718842e-02 -1.159060653299093246e-02 3.055480495095252991e-02 2.952102571725845337e-03 -1.156082469969987869e-02 -2.788601676002144814e-03 2.588275820016860962e-03 -1.469495613127946854e-02 -1.406930759549140930e-02 -3.052435256540775299e-02 -1.490236353129148483e-02 2.383478917181491852e-02 -2.152238599956035614e-02 -1.891333051025867462e-02 -2.117376960813999176e-02 -1.302728056907653809e-02 -6.385859567672014236e-03 -2.800774946808815002e-02 1.789886271581053734e-03 1.352472417056560516e-02 -1.621116511523723602e-02 1.109321136027574539e-02 -1.897834590636193752e-03 -6.324401590973138809e-03 2.232433529570698738e-03 2.011527121067047119e-02 1.769772171974182129e-02 -2.426954545080661774e-02 -1.565091870725154877e-02 9.274031035602092743e-03 -5.965219344943761826e-03 5.763708613812923431e-03 -1.868840120732784271e-02 -1.542849373072385788e-02 3.498626174405217171e-03 1.767754205502569675e-03 -1.132031716406345367e-02 -4.553713835775852203e-03 9.323806501924991608e-03 -2.663780935108661652e-03 1.203816733323037624e-03 3.786276280879974365e-02 -2.357485331594944000e-02 8.156164549291133881e-03 -3.471667692065238953e-02 1.269267778843641281e-02 -1.833849027752876282e-02 -1.573299639858305454e-03 -1.478052139282226562e-02 2.230537869036197662e-02 -1.118547655642032623e-02 -7.971024140715599060e-03
-8.106579189188778400e-04 2.204884216189384460e-02 -5.188615527004003525e-03 -1.469458546489477158e-02 1.191340666264295578e-02 -1.310210209339857101e-02 1.726087299175560474e-03 -9.262626059353351593e-03 -7.545554544776678085e-03 -1.168258953839540482e-03 1.351393572986125946e-02 -1.418766658753156662e-02 3.408531425520777702e-03 4.056053236126899719e-03 -3.614086657762527466e-02 8.253122679889202118e-03 1.204204838722944260e-02 7.005317602306604385e-03 1.483151689171791077e-02 -8.306943811476230621e-03 2.196843735873699188e-02 -4.875710234045982361e-02 3.233635425567626953e-02 -2.055623754858970642e-02 -8.922797627747058868e-03 -2.703017741441726685e-02 1.463587302714586258e-02 -1.304097473621368408e-03 -1.041871961206197739e-02 -1.941837253980338573e-03 -1.239115837961435318e-02 -2.254532417282462120e-03 9.311290923506021500e-04 1.582058757776394486e-04 3.194892080500721931e-03 7.079583592712879181e-04 2.768099866807460785e-02 7.308838423341512680e-03 -9.296144358813762665e-03 6.853878032416105270e-03 1.068636588752269745e-02 5.881504155695438385e-03 -2.329846657812595367e-02 -1.659747213125228882e-02 1.339516881853342056e-02 -7.210747338831424713e-03 1.391910947859287262e-02 2.320393547415733337e-02 4.760221054311841726e-04 1.272750366479158401e-02 1.073074620217084885e-02 -1.505094114691019058e-02 5.356767214834690094e-03 -3.579260082915425301e-03 -7.022872567176818848e-03 2.563054487109184265e-02 -3.172229602932929993e-02 8.879035711288452148e-03 -8.117485413094982505e-05 1.808045618236064911e-02 -8.675011806190013885e-03 8.241755887866020203e-03 -2.647870965301990509e-02 9.725417941808700562e-03 -1.083573885262012482e-02 2.837906405329704285e-02 1.644882932305335999e-02 -2.413257490843534470e-03 1.608435623347759247e-02 8.239815942943096161e-03 1.766185462474822998e-02 -1.304079405963420868e-02 -1.208652555942535400e-02 -8.203385514207184315e-04 -1.248140446841716766e-02 -5.283482372760772705e-03 3.912736475467681885e-02 -4.067683592438697815e-03 -2.437719702720642090e-02 1.699249260127544403e-02 2.493367530405521393e-03 -4.061472788453102112e-02 9.516607969999313354e-03 -1.390653755515813828e-02 2.007153443992137909e-02 1.405154913663864136e-02 -1.691464334726333618e-02 -1.980987004935741425e-02 5.159075837582349777e-03 -2.280590683221817017e-02 -2.223985735327005386e-03 2.187830954790115356e-02 -2.316682040691375732e-02 -3.114668419584631920e-03 -2.602032572031021118e-02 -1.782812923192977905e-02 1.585397869348526001e-02 7.901203352957963943e-04 -5.273741669952869415e-03 -1.979811675846576691e-02 5.276031792163848877e-03 4.188269667793065310e-04 2.881006104871630669e-03 2.961817197501659393e-02 1.753457635641098022e-02 1.054714247584342957e-02 -8.240137249231338501e-04 -4.191698506474494934e-03 -2.406565286219120026e-02 -1.032719388604164124e-03 1.245879381895065308e-02 1.362903695553541183e-02 -2.563628368079662323e-03 1.495148614048957825e-02 3.353254497051239014e-02 1.597855798900127411e-02 3.868321422487497330e-03 1.212342549115419388e-02 -3.100009635090827942e-03 -3.950324654579162598e-02 2.690485678613185883e-02 -2.039133571088314056e-02 8.956949226558208466e-03 -3.822934813797473907e-03 2.598410937935113907e-03 -8.575105457566678524e-04 -2.143181487917900085e-02 1.284424914047122002e-03 -1.838718727231025696e-02 -2.320845238864421844e-02 9.906885214149951935e-03 -8.511615917086601257e-03 6.019681226462125778e-03 -1.166314724832773209e-02 1.580228470265865326e-02 1.447185128927230835e-02 1.451254822313785553e-02 -6.780618801712989807e-03 -3.624651115387678146e-03 9.408513433299958706e-04 6.513036787509918213e-03 -3.747265040874481201e-02 -2.480142004787921906e-02 -1.278197485953569412e-02 -2.153157815337181091e-02 1.774660125374794006e-02 3.113202378153800964e-02 3.912306856364011765e-03 5.390746984630823135e-03 6.894585210829973221e-03 -5.361031740903854370e-03 1.642752997577190399e-02 1.384158711880445480e-02 -2.640681108459830284e-03 -2.322540618479251862e-02 1.900093443691730499e-02 -3.440156069700606167e-05 -3.990606404840946198e-03 -7.629790809005498886e-03 1.557830814272165298e-02 -1.985189737752079964e-03 6.830885540693998337e-03 -3.610777435824275017e-03 5.760649219155311584e-03 -2.613118558656424284e-04 -3.443572670221328735e-03 -2.808260032907128334e-03 7.533193565905094147e-03 -1.186077669262886047e-02 1.901896856725215912e-02 -1.076838467270135880e-02 -1.215322595089673996e-02 1.546943280845880508e-02 1.798737328499555588e-03 1.543721184134483337e-02 -1.150357257574796677e-02 -2.190604992210865021e-02 -1.299469545483589172e-02 -1.441562175750732422e-02 3.102229163050651550e-02 -2.906418964266777039e-02 -1.853788271546363831e-02 -1.711766980588436127e-02 1.681393012404441833e-03 7.282708305865526199e-03 2.782738208770751953e-02 -6.235762033611536026e-03 1.975888386368751526e-02 3.846190811600536108e-04 -9.454256854951381683e-03 2.106660231947898865e-02 1.461214385926723480e-02 -1.190814562141895294e-02 -6.311226170510053635e-03 1.475975103676319122e-02 -3.030713414773344994e-03 -1.351568149402737617e-03 -2.820904739201068878e-02 -1.118154637515544891e-02 -1.891700923442840576e-02 4.492622683756053448e-04 -2.077315002679824829e-03 -2.833027765154838562e-02 9.630800341255962849e-04 4.506596922874450684e-02 -1.146653294563293457e-02 -2.083851397037506104e-02 1.668691751547157764e-03 -1.015064027160406113e-02 -8.561642840504646301e-03 2.599530853331089020e-03 -1.029638387262821198e-02 -5.333785898983478546e-03 -1.754605211317539215e-03 -2.208256395533680916e-03 1.816334575414657593e-02 -2.182402182370424271e-03 5.404086317867040634e-03 -6.919062696397304535e-03 -5.323134828358888626e-03 -2.128983102738857269e-02 -2.407385222613811493e-02 1.877345703542232513e-02 1.732023991644382477e-02 -8.735645562410354614e-03 -6.151555106043815613e-03 -5.024954676628112793e-03 -6.279901135712862015e-03 -1.068664342164993286e-02 3.203343134373426437e-03 3.725473582744598389e-02 -1.952458545565605164e-02 -1.704270578920841217e-02 9.309262968599796295e-03 1.812293380498886108e-02 -3.261263947933912277e-03 -1.590383984148502350e-02 2.251280471682548523e-02 -3.411272913217544556e-02 6.536250468343496323e-03 -2.346581965684890747e-02 8.971105329692363739e-03 3.350105881690979004e-02 3.834472445305436850e-04 5.790780764073133469e-03 -1.889998465776443481e-02 2.717767609283328056e-03 -3.901391848921775818e-02 -2.639021538197994232e-02 2.078395895659923553e-02 1.565050892531871796e-02 1.599367149174213409e-02 2.037828415632247925e-02 6.227575242519378662e-03 -5.649688653647899628e-03 -2.458843169733881950e-03
-3.224244806915521622e-03 -1.838097348809242249e-02 -6.316292099654674530e-03 2.585065178573131561e-02 -6.384410429745912552e-03 1.254526618868112564e-02 -1.340494398027658463e-02 -1.707936264574527740e-02 1.131535507738590240e-02 -7.092847023159265518e-03 9.466309100389480591e-03 2.253226935863494873e-03 -8.846146054565906525e-03 3.347634803503751755e-03 2.465996704995632172e-02 1.224926579743623734e-02 -7.920682430267333984e-03 1.701880432665348053e-02 -9.815883822739124298e-03 3.343487391248345375e-03 -5.096810855320654809e-05 3.993725404143333435e-02 2.988386340439319611e-02 -1.799894124269485474e-02 7.728986907750368118e-03 4.157006368041038513e-02 -2.172578933823388070e-05 -1.790761947631835938e-02 2.083874680101871490e-02 -9.584445506334304810e-03 -8.814974687993526459e-03 -6.741463672369718552e-03 6.865493021905422211e-03 3.865842521190643311e-02 7.680277805775403976e-03 -1.475040614604949951e-02 -1.381948031485080719e-02 -5.692949984222650528e-03 -2.677146345376968384e-02 2.578228479251265526e-03 2.213927917182445526e-02 -1.513956085545942187e-04 3.657486522570252419e-03 5.527389701455831528e-03 3.862703684717416763e-03 -8.248756639659404755e-03 1.361353322863578796e-02 -9.128749370574951172e-03 -2.343791909515857697e-02 5.541388876736164093e-03 -1.728096790611743927e-02 -1.625307276844978333e-02 -2.247818559408187866e-02 2.933904062956571579e-03 1.231368724256753922e-02 9.568534791469573975e-03 9.807209484279155731e-03 -2.410124521702528000e-03 -9.726483374834060669e-03 2.138712629675865173e-02 -5.323611199855804443e-03 -1.825318089686334133e-03 2.289933338761329651e-02 -1.106532849371433258e-02 5.514132790267467499e-03 -1.624064333736896515e-02 3.322594799101352692e-03 1.623296551406383514e-02 7.591182366013526917e-03 4.040132742375135422e-03 -9.809613227844238281e-03 -1.013102568686008453e-02 -1.125792739912867546e-03 -1.021238313114736229e-05 -3.112070262432098389e-02 9.991376660764217377e-03 -1.682249084115028381e-02 1.440751273185014725e-02 1.730176620185375214e-02 1.334016676992177963e-02 9.461734443902969360e-03 -1.782393828034400940e-02 1.787197217345237732e-02 -3.653754247352480888e-03 -1.005127094686031342e-02 5.313405301421880722e-03 -3.027503192424774170e-02 1.939009758643805981e-03 1.184007711708545685e-02 8.340521715581417084e-03 1.310587162151932716e-03 6.368874572217464447e-03 1.071716565638780594e-02 1.298341900110244751e-02 2.201610943302512169e-03 2.299917489290237427e-02 9.678006172180175781e-03 -1.756518147885799408e-02 -9.773041121661663055e-03 -2.144177816808223724e-02 -1.556635275483131409e-02 -1.065226551145315170e-02 4.837089218199253082e-03 1.667312346398830414e-02 4.847703967243432999e-03 -6.961890030652284622e-03 2.073462493717670441e-02 7.254512049257755280e-03 1.035744883120059967e-02 -1.310306135565042496e-02 -9.920548647642135620e-03 1.304574124515056610e-02 -1.134867686778306961e-02 -1.348367612808942795e-02 2.732723485678434372e-03 -1.024159137159585953e-02 -8.402881212532520294e-03 6.638150196522474289e-03 -1.174750737845897675e-02 1.260179281234741211e-02 7.321296259760856628e-03 7.405769545584917068e-03 1.900335773825645447e-02 7.795599754899740219e-03 4.437203984707593918e-03 -1.357602421194314957e-02 3.433063253760337830e-02 7.648091297596693039e-03 -8.300101384520530701e-03 -5.313016474246978760e-03 3.187837079167366028e-02 -5.736560560762882233e-03 -2.357843331992626190e-02 4.010475706309080124e-03 -2.293394412845373154e-03 3.031539963558316231e-03 -6.186374463140964508e-03 1.809713314287364483e-03 1.439380552619695663e-02 1.203041430562734604e-02 2.422269247472286224e-02 3.251602407544851303e-03 -8.443505503237247467e-03 1.250661350786685944e-02 -8.257373236119747162e-03 1.309788413345813751e-02 -1.900422759354114532e-02 -4.920618142932653427e-03 1.218516100198030472e-02 3.402535337954759598e-03 -6.613671313971281052e-03 -2.292600832879543304e-02 1.891174167394638062e-02 -3.511917963624000549e-02 -3.497638317639939487e-05 -5.691576283425092697e-03 5.485122557729482651e-03 2.320915693417191505e-03 -2.777948277071118355e-03 3.520844504237174988e-02 8.494065143167972565e-03 -1.371290069073438644e-02 4.913086071610450745e-03 1.759126898832619190e-03 1.342322584241628647e-02 -1.982011273503303528e-02 -7.325737969949841499e-04 3.655498381704092026e-03 3.179329913109540939e-03 1.361286826431751251e-02 -5.544313695281744003e-03 1.404247828759253025e-03 1.345401164144277573e-02 3.046194789931178093e-03 3.696833970025181770e-03 3.759640827775001526e-02 6.372455041855573654e-03 -3.045878256671130657e-04 -5.715278675779700279e-04 -8.577719330787658691e-03 -2.880603447556495667e-02 -1.430131774395704269e-02 1.361100235953927040e-03 -2.011085487902164459e-02 -5.335257854312658310e-03 -2.309813164174556732e-03 -4.551506426651030779e-04 1.205707713961601257e-02 -5.766383372247219086e-03 -8.471659966744482517e-04 -3.762089414522051811e-03 1.202829834073781967e-02 1.456124801188707352e-02 1.064782310277223587e-02 -2.977709285914897919e-03 1.489019114524126053e-02 -9.844221174716949463e-03 -1.586446352303028107e-02 -2.174563519656658173e-02 2.878674678504467010e-02 -7.163811940699815750e-03 -5.593130830675363541e-03 -1.226332504302263260e-02 1.386190485209226608e-02 2.570564160123467445e-03 1.883768849074840546e-02 1.477531064301729202e-02 -3.699705703184008598e-03 -1.244764775037765503e-03 -9.492384269833564758e-03 8.460214012302458286e-04 -2.878507133573293686e-03 -2.193224988877773285e-02 7.923108525574207306e-03 1.446342212148010731e-03 5.989042576402425766e-03 3.371407510712742805e-04 -1.731911301612854004e-02 -4.408314824104309082e-03 -1.148974802345037460e-02 -4.040869418531656265e-03 -3.983081132173538208e-02 1.323108375072479248e-02 -5.648275837302207947e-03 -1.523824408650398254e-02 -1.300531346350908279e-02 1.950531080365180969e-02 -1.957134110853075981e-03 1.964821852743625641e-02 5.441306275315582752e-04 -9.602483361959457397e-03 -2.975639654323458672e-03 9.715403430163860321e-03 -6.800949107855558395e-03 8.496040478348731995e-03 -1.005086768418550491e-02 -3.654993139207363129e-03 4.566333722323179245e-03 -2.105743251740932465e-02 1.839833520352840424e-02 -4.355382639914751053e-03 4.032402299344539642e-03 9.168300777673721313e-03 2.941542305052280426e-02 -2.663281746208667755e-02 -2.312294766306877136e-02 5.038759205490350723e-03 6.214757915586233139e-03 3.899707226082682610e-03 -2.731672115623950958e-02 -2.313650213181972504e-03 -1.054899673908948898e-02 1.003199815750122070e-02 3.358020633459091187e-02 1.510846195742487907e-04 1.208594907075166702e-02
-1.424942351877689362e-02 1.311128586530685425e-02 3.444297239184379578e-02 -1.650280691683292389e-02 3.715039044618606567e-02 6.138557102531194687e-03 -1.791303232312202454e-02 8.823969401419162750e-03 6.738521158695220947e-02 -5.944507196545600891e-03 5.818482115864753723e-02 4.183442518115043640e-02 -3.912481665611267090e-02 2.728683128952980042e-02 1.386294513940811157e-02 3.138652816414833069e-02 8.413261733949184418e-03 1.931718364357948303e-02 2.359645254909992218e-02 5.057659000158309937e-03 -5.804494023323059082e-03 1.589488238096237183e-02 -2.570676151663064957e-03 3.901599207893013954e-03 1.030684681609272957e-03 -5.597190931439399719e-02 2.149161137640476227e-02 2.395422384142875671e-02 4.244433715939521790e-03 3.917021211236715317e-03 -1.441932190209627151e-02 1.070814952254295349e-02 -3.918527066707611084e-02 -8.861161768436431885e-03 -1.202333252876996994e-02 1.619576849043369293e-02 1.132310088723897934e-02 7.876616902649402618e-03 -3.990471735596656799e-02 5.586045607924461365e-02 2.375413291156291962e-02 -3.867698460817337036e-02 3.567861765623092651e-02 -4.586746543645858765e-02 4.121868312358856201e-02 -9.213159792125225067e-03 -2.889275737106800079e-02 1.691721938550472260e-02 -6.696095224469900131e-03 3.185462579131126404e-02 1.492813788354396820e-02 -1.041111443191766739e-02 -1.125286053866147995e-02 -9.819584898650646210e-03 6.053319200873374939e-03 4.231360275298357010e-03 3.033074550330638885e-02 -4.539534077048301697e-02 3.111333400011062622e-02 -2.590383635833859444e-03 1.097282767295837402e-02 2.438489720225334167e-02 1.588522456586360931e-02 1.773240044713020325e-02 1.530853286385536194e-02 -1.476389123126864433e-03 7.875949377194046974e-04 -3.055608831346035004e-02 6.734014023095369339e-03 5.057768896222114563e-02 3.367010504007339478e-02 3.195015341043472290e-02 3.857857733964920044e-02 -4.086076223757117987e-04 5.957491230219602585e-04 -2.737484127283096313e-02 2.030205167829990387e-02 -4.844991024583578110e-03 4.310544580221176147e-02 -2.127091772854328156e-02 2.829273976385593414e-02 -1.966676302254199982e-02 -6.307926960289478302e-03 -5.165102332830429077e-02 -4.950826987624168396e-02 4.032945260405540466e-03 -2.798550948500633240e-02 3.903059661388397217e-02 -1.293977256864309311e-02 2.373054623603820801e-02 9.417218156158924103e-03 5.448591336607933044e-02 1.998825930058956146e-02 -1.078953687101602554e-02 1.466648001223802567e-02 2.336369827389717102e-02 3.450896218419075012e-02 2.020751126110553741e-02 3.041708469390869141e-02 -3.631949890404939651e-03 2.606515213847160339e-02 1.675628870725631714e-02 1.716116257011890411e-02 -2.548024244606494904e-02 -5.669534672051668167e-03 5.641947034746408463e-03 1.543808076530694962e-02 -8.082652464509010315e-03 -4.128123447299003601e-02 1.446647802367806435e-04 1.705065183341503143e-02 9.888557717204093933e-03 2.631722949445247650e-02 -2.011105790734291077e-02 1.605705916881561279e-02 1.778237149119377136e-02 2.701279008761048317e-03 -9.143202565610408783e-03 -1.641122251749038696e-02 1.172514539211988449e-02 -9.316008538007736206e-03 1.537907309830188751e-02 -2.582682995125651360e-03 3.616247326135635376e-02 5.915028974413871765e-02 -1.271212194114923477e-02 -2.662996575236320496e-02 6.004881113767623901e-02 2.324781380593776703e-02 2.667058072984218597e-02 1.385639887303113937e-02 1.660276576876640320e-02 -1.805520802736282349e-02 -1.289200386963784695e-03 2.378023043274879456e-02 1.871100999414920807e-02 5.329808220267295837e-03 6.116938311606645584e-03 1.170359551906585693e-03 -2.005927078425884247e-02 5.693256482481956482e-02 -2.016642596572637558e-03 8.793239481747150421e-03 -7.979409769177436829e-03 -4.481890797615051270e-02 1.469465345144271851e-02 4.855299741029739380e-02 2.757516689598560333e-02 -2.295142784714698792e-02 -1.698524691164493561e-02 1.783440448343753815e-02 2.378085069358348846e-02 -5.707269534468650818e-03 -1.768791489303112030e-02 7.103545591235160828e-03 2.888842113316059113e-02 1.914141513407230377e-02 -1.427569240331649780e-02 1.017326116561889648e-02 -4.218557476997375488e-02 6.191901396960020065e-03 3.220397979021072388e-02 -2.890432998538017273e-02 2.093150839209556580e-02 7.653816137462854385e-03 -4.118326678872108459e-02 -1.968404650688171387e-02 2.316938899457454681e-02 4.100868105888366699e-02 -6.744870450347661972e-03 1.374020893126726151e-02 2.566457539796829224e-02 2.302776090800762177e-03 4.057849198579788208e-02 2.048055874183773994e-03 1.264241058379411697e-02 3.988531976938247681e-02 -3.105317428708076477e-02 1.316267717629671097e-02 -1.614241302013397217e-02 1.515581924468278885e-02 -3.254029527306556702e-02 2.258533053100109100e-02 7.595302537083625793e-03 -4.412346705794334412e-02 2.902742847800254822e-02 -3.737071156501770020e-02 -1.682675071060657501e-02 -8.912442252039909363e-03 4.261166974902153015e-02 2.800188213586807251e-02 4.289847612380981445e-02 -1.495578885078430176e-02 -2.302668057382106781e-02 1.903530955314636230e-02 3.544633463025093079e-02 -1.615603640675544739e-02 -2.367428317666053772e-02 -8.758418262004852295e-03 1.562235318124294281e-02 -1.189768221229314804e-02 -2.409304492175579071e-02 -1.063379179686307907e-02 1.162729226052761078e-02 3.557323710992932320e-03 -5.398106575012207031e-02 -3.531619906425476074e-03 2.003500051796436310e-02 -4.947859793901443481e-02 -1.854987232945859432e-03 1.376112177968025208e-02 3.271184116601943970e-02 5.497825518250465393e-02 3.805143013596534729e-02 4.741968214511871338e-02 -1.892008935101330280e-03 -1.635645888745784760e-02 -1.713744737207889557e-02 3.154889121651649475e-02 -3.967310301959514618e-03 -2.760290354490280151e-02 1.703039370477199554e-02 -3.463117405772209167e-02 1.736683771014213562e-03 -6.758254952728748322e-03 6.326832342892885208e-03 3.245800733566284180e-02 -1.517519634217023849e-02 -1.805504225194454193e-02 -5.116736516356468201e-02 2.301394380629062653e-02 3.261483833193778992e-02 1.936759799718856812e-02 2.395168691873550415e-02 1.160855311900377274e-02 -1.709997840225696564e-02 1.605272106826305389e-02 2.650866284966468811e-02 1.755272597074508667e-02 4.897218942642211914e-02 -4.849329963326454163e-02 -1.125818677246570587e-02 -9.466915391385555267e-03 1.066020503640174866e-02 2.681455947458744049e-02 -1.541500166058540344e-02 1.119073294103145599e-02 1.812122575938701630e-02 -3.002327121794223785e-02 -1.013253256678581238e-02 1.977650448679924011e-02 -3.534208983182907104e-02 -1.061333715915679932e-02 -5.783049855381250381e-03 3.214558959007263184e-02 1.813611760735511780e-02
