7.717852294445037842e-02
-1.713677942752838135e-01
-2.542222791817039251e-04
1.414937376976013184e-01
2.072949856519699097e-01
-1.877471338957548141e-03
1.574572622776031494e-01
-3.883651923388242722e-03
-9.364219382405281067e-03
1.443447768688201904e-01
1.102456152439117432e-01
5.167607590556144714e-02
-3.038634546101093292e-03
-4.968010354787111282e-03
-9.713836945593357086e-03
-4.097063094377517700e-03
-2.953060669824481010e-03
1.292896419763565063e-01
-2.906234236434102058e-03
-1.892093196511268616e-02
-4.906090907752513885e-03
-5.592900793999433517e-03
1.201778054237365723e-01
-1.477825827896595001e-02
-1.802347600460052490e-02
9.010307490825653076e-02
5.164102464914321899e-02
6.030131876468658447e-02
8.755548298358917236e-02
1.048014760017395020e-01
-2.543255500495433807e-02
1.398558616638183594e-01
1.540612280368804932e-01
4.377840086817741394e-02
9.189597517251968384e-02
-9.224695153534412384e-03
-2.959697041660547256e-03
4.528719931840896606e-02
1.112434491515159607e-01
1.190153211355209351e-01
1.042769327759742737e-01
7.907222956418991089e-02
-1.424571312963962555e-02
3.892208263278007507e-02
-7.496377453207969666e-03
1.171091720461845398e-01
-4.400950856506824493e-03
3.049909695982933044e-02
-1.473241858184337616e-02
-1.872042194008827209e-02
1.041028946638107300e-01
-3.103031544014811516e-03
8.421069383621215820e-02
-1.154567673802375793e-02
7.369050383567810059e-02
8.777299523353576660e-02
3.393095359206199646e-02
-4.680046811699867249e-03
7.285050302743911743e-02
-2.542165108025074005e-03
6.606215238571166992e-02
7.557446369901299477e-04
5.214446038007736206e-02
2.063962966203689575e-01
-5.230571143329143524e-03
4.092643558979034424e-01
5.790365859866142273e-02
-7.291647139936685562e-03
6.802403181791305542e-02
-1.737016998231410980e-02
-2.119251154363155365e-02
1.617487818002700806e-01
-1.933980919420719147e-02
1.052500605583190918e-01
-7.401471957564353943e-03
-2.501760376617312431e-03
1.744506210088729858e-01
-3.614359069615602493e-03
-2.514120936393737793e-02
8.495645225048065186e-02
-2.995169255882501602e-03
-3.165050875395536423e-03
2.003744393587112427e-01
1.456463783979415894e-01
-1.659543812274932861e-02
-3.145667258650064468e-03
1.349403113126754761e-01
-5.658050999045372009e-03
-9.259980171918869019e-03
-3.300050040706992149e-03
7.521788030862808228e-02
6.293197721242904663e-02
6.987306475639343262e-02
-1.178979873657226562e-02
2.084736973047256470e-01
-3.265417879447340965e-03
5.819442495703697205e-02
-5.241715349256992340e-03
2.371503263711929321e-01
-4.152929410338401794e-03
-4.004772286862134933e-03
-2.083914726972579956e-02
-9.322346188127994537e-03
1.597732454538345337e-01
-3.041102783754467964e-03
-2.870035357773303986e-03
1.236826106905937195e-01
9.679078310728073120e-02
8.123369514942169189e-02
2.781609445810317993e-02
-5.200293380767107010e-03
1.940326839685440063e-01
1.064249053597450256e-01
-1.277699600905179977e-02
7.455518841743469238e-02
-3.139714943245053291e-03
1.575775891542434692e-01
-5.192656069993972778e-03
-2.957373159006237984e-03
-7.790064904838800430e-03
1.055011451244354248e-01
8.875162899494171143e-02
-5.932830739766359329e-03
4.860579222440719604e-02
-5.624513607472181320e-03
-8.775924332439899445e-03
-2.296718955039978027e-02
-3.121237503364682198e-03
-4.040100611746311188e-03
3.598166704177856445e-01
-1.424696203321218491e-02
3.416473418474197388e-02
-2.976442454382777214e-03
-1.567179337143898010e-02
7.947164773941040039e-02
-2.640196820721030235e-03
-4.842445999383926392e-02
3.192426264286041260e-02
4.078871011734008789e-02
1.845549046993255615e-01
1.263569742441177368e-01
-1.180400419980287552e-02
-3.682585898786783218e-03
-5.413462873548269272e-03
-2.924273489043116570e-03
8.641675859689712524e-02
-7.374434731900691986e-03
2.400109730660915375e-02
-4.563010763376951218e-03
4.553601518273353577e-02
1.072247177362442017e-01
1.002549082040786743e-01
4.399935156106948853e-02
-2.960287965834140778e-03
-1.304964069277048111e-02
8.454759418964385986e-02
-3.853193484246730804e-03
-3.206397639587521553e-03
9.976857900619506836e-02
-7.189966738224029541e-03
-6.710173562169075012e-03
-3.603050019592046738e-03
3.259285166859626770e-02
-6.143824197351932526e-03
-1.487588509917259216e-02
1.937147527933120728e-01
-8.031344041228294373e-03
6.852824985980987549e-02
-6.925343535840511322e-03
-1.572204567492008209e-02
-9.479781612753868103e-03
-2.946064574643969536e-03
4.169159382581710815e-02
1.030335575342178345e-01
3.308886289596557617e-02
-3.980355337262153625e-03
-3.565159160643815994e-03
-3.623739816248416901e-03
1.639214903116226196e-01
1.345603466033935547e-01
-4.115205723792314529e-03
-3.216972807422280312e-03
1.111553534865379333e-01
-1.820020610466599464e-03
1.224869191646575928e-01
-6.439283024519681931e-03
8.400994539260864258e-02
1.738254539668560028e-02
-7.670986466109752655e-03
1.748107671737670898e-01
6.397067010402679443e-02
-5.083446856588125229e-03
-2.790050813928246498e-03
-3.442736342549324036e-03
5.768839642405509949e-02
8.864127099514007568e-02
1.080278903245925903e-01
-3.228223184123635292e-03
1.995013505220413208e-01
-3.584480611607432365e-03
1.693996787071228027e-01
-8.200053125619888306e-03
-1.876291818916797638e-02
6.981438398361206055e-02
-4.398845136165618896e-03
-3.321376862004399300e-03
-3.943206276744604111e-03
-2.326509356498718262e-02
-1.927010715007781982e-02
1.183032765984535217e-01
1.055050045251846313e-01
-2.427885867655277252e-02
1.710955202579498291e-01
8.264145255088806152e-02
-4.246656782925128937e-03
-3.036279464140534401e-03
-1.326951570808887482e-02
-4.908252507448196411e-03
9.189917147159576416e-02
9.134674817323684692e-02
1.204725056886672974e-01
1.057690605521202087e-01
-3.283144906163215637e-03
1.269234269857406616e-01
2.661811411380767822e-01
1.408623605966567993e-01
7.405751943588256836e-02
2.330602556467056274e-01
-1.436254289001226425e-02
-3.478526836261153221e-03
1.036747992038726807e-01
9.015397727489471436e-02
-3.248498076573014259e-03
6.901883333921432495e-02
1.340692788362503052e-01
-2.303000073879957199e-03
2.246668040752410889e-01
-3.183003515005111694e-03
1.346073001623153687e-01
3.346801176667213440e-02
-3.471365664154291153e-03
-2.935277065262198448e-03
8.311465382575988770e-02
-3.666545962914824486e-03
1.392816007137298584e-01
7.289336621761322021e-02
-3.505012020468711853e-03
5.310883745551109314e-02
-5.409842822700738907e-03
-6.366422865539789200e-03
8.090648055076599121e-02
-3.220919752493500710e-03
-3.625196171924471855e-03
2.413138449192047119e-01
1.736631095409393311e-01
1.021616831421852112e-01
