5.673974752426147461e-02 1.230623293668031693e-02 -7.645594328641891479e-02 3.363816067576408386e-02 -6.636329740285873413e-02 -9.847670048475265503e-02 4.557942971587181091e-02 1.010200455784797668e-01 5.098939314484596252e-02 -4.180775955319404602e-02 -9.493311867117881775e-03 1.537002772092819214e-01 -2.230706959962844849e-01 -5.800203606486320496e-02 9.331792593002319336e-02 5.975476652383804321e-02 1.487065851688385010e-02 -1.408489495515823364e-01 -7.450580596923828125e-02 -7.080088555812835693e-02 5.110163241624832153e-02 -2.724871784448623657e-02 3.700809553265571594e-02 7.128082215785980225e-02 1.011717170476913452e-01 1.228286325931549072e-02 -8.542099036276340485e-03 7.775419950485229492e-02 4.031177237629890442e-02 -8.104152977466583252e-03 6.577830016613006592e-02 -7.880994118750095367e-03 6.502576172351837158e-02 -7.512411475181579590e-02 -1.106612458825111389e-01 -6.024641171097755432e-02 5.004145577549934387e-02 4.116062074899673462e-02 -8.487738668918609619e-02 5.932873487472534180e-02 4.425207898020744324e-02 -6.218779832124710083e-02 -1.810941398143768311e-01 2.826701849699020386e-02 1.361689064651727676e-02 -1.703928783535957336e-02 -9.961984120309352875e-03 -7.307388633489608765e-02 1.460817456245422363e-01 6.519474834203720093e-02 1.523153185844421387e-01 3.924189507961273193e-02 1.691019982099533081e-01 1.625316217541694641e-02 -1.250165253877639771e-01 -2.457234263420104980e-02 -5.881994217634201050e-02 -1.419196370989084244e-02 3.247797116637229919e-02 9.013580530881881714e-02 2.044231817126274109e-02 5.021737888455390930e-02 -1.049760058522224426e-01 -6.005422025918960571e-02 -7.819093763828277588e-03 -7.185088098049163818e-02 -8.888769149780273438e-02 8.533433824777603149e-02 -1.849842444062232971e-02 -9.412892907857894897e-02 1.306929625570774078e-02 -5.490251630544662476e-02 -9.927343577146530151e-03 1.199360787868499756e-01 1.131766941398382187e-02 -2.641055732965469360e-02 -5.086821317672729492e-02 -2.090528793632984161e-02 -4.972323030233383179e-02 4.410612396895885468e-03 -6.209359318017959595e-02 -1.509657353162765503e-01 -2.354025840759277344e-02 7.788304984569549561e-02 -7.640829682350158691e-02 -2.679179236292839050e-02 3.959386423230171204e-02 4.327110573649406433e-02 3.638460487127304077e-02 1.050573494285345078e-02 -1.248442102223634720e-02 -3.942817077040672302e-02 7.369001954793930054e-02 -2.574386261403560638e-02 -1.786954104900360107e-01 -9.664370119571685791e-02 -8.520480245351791382e-02 -8.530512452125549316e-02 1.053292900323867798e-01 1.013247072696685791e-01 1.730616390705108643e-01 1.655224561691284180e-01 2.909903600811958313e-02 7.693247497081756592e-02 1.005615070462226868e-01 -1.088795531541109085e-02 2.392050810158252716e-02 -6.513844430446624756e-02 2.127905143424868584e-03 -1.531642973423004150e-01 -1.468448713421821594e-02 -3.262271285057067871e-01 -2.898594364523887634e-02 -3.295818343758583069e-02 -1.102091446518898010e-01 -1.042481213808059692e-01 -5.540630966424942017e-02 2.839688444510102272e-03 -3.170732781291007996e-02 -7.122243754565715790e-03 8.758154511451721191e-02 1.870645284652709961e-01 -7.003416866064071655e-02 1.402521729469299316e-01 6.213723123073577881e-02 2.052677795290946960e-02 -5.954163614660501480e-03 1.182736083865165710e-02 -4.381071031093597412e-02 1.190609950572252274e-02 -8.613333106040954590e-02 5.241338163614273071e-03 2.084509730339050293e-01 -6.486918032169342041e-02 -1.435634195804595947e-01 -5.394385755062103271e-02 5.664722062647342682e-03 3.319300711154937744e-02 2.630570530891418457e-01 -1.083335727453231812e-01 -5.544471740722656250e-02 -4.616238176822662354e-02 2.213376574218273163e-02 -6.552510708570480347e-02 -9.052342176437377930e-02 -1.206722110509872437e-02 -6.251696031540632248e-03 -1.521617919206619263e-01 -1.229652985930442810e-01 -6.416863203048706055e-02 -3.696624934673309326e-02 -5.042368546128273010e-02 -1.510926801711320877e-02 -2.385820820927619934e-02 1.470849616453051567e-03 9.215774014592170715e-03 1.377287507057189941e-01 -2.070149183273315430e-01 5.826082825660705566e-02 1.434670090675354004e-01 3.887556865811347961e-02 -3.566531091928482056e-02 1.022171676158905029e-01 -2.764439582824707031e-02 2.275107242166996002e-02 -8.498255163431167603e-02 7.117273658514022827e-02 3.195893764495849609e-02 -5.518996715545654297e-02 1.199096888303756714e-01 -1.436384171247482300e-01 4.549239948391914368e-02 -1.534087359905242920e-01 5.766106769442558289e-02 -1.161516904830932617e-01 -4.387512803077697754e-02 -1.540791839361190796e-01 -7.852024398744106293e-03 9.034104645252227783e-03 6.991926580667495728e-02 -1.810036748647689819e-01 -7.600721716880798340e-02 -4.142048582434654236e-02 6.873547285795211792e-02 7.670799642801284790e-02 -5.941747874021530151e-02 -1.778288185596466064e-02 -4.748411849141120911e-02 1.075278595089912415e-01 1.137942671775817871e-01 -9.251444041728973389e-02 -1.198470890522003174e-01 1.748852548189461231e-03 6.904369220137596130e-03 7.896239310503005981e-02 7.766506075859069824e-02 1.952737569808959961e-01 -1.176869571208953857e-01 3.752808785066008568e-03 1.559751927852630615e-01 2.249159365892410278e-01 -6.135780364274978638e-02 -1.401086896657943726e-01 -7.291056215763092041e-02 -1.547483205795288086e-01 6.365000456571578979e-02 -1.109758242964744568e-01 -1.174825951457023621e-01 -5.262072384357452393e-02 1.341761946678161621e-01 -8.252046257257461548e-02 2.474660985171794891e-02 2.826560847461223602e-02 -1.285958737134933472e-01 4.474490880966186523e-02 1.543601304292678833e-01 -3.017487563192844391e-02 6.979328393936157227e-02 -9.212125837802886963e-02 -1.386503875255584717e-01 2.840721979737281799e-02 -1.107277572154998779e-01 -4.415198415517807007e-02 -2.517572045326232910e-02 -1.011442840099334717e-01 -1.451846491545438766e-02 -1.139728948473930359e-01 3.862373903393745422e-02 -6.552483886480331421e-02 -3.032250888645648956e-02 1.011181622743606567e-01 -5.744302645325660706e-02 1.385425310581922531e-02 8.285367488861083984e-02 7.040207087993621826e-02 1.541118230670690536e-02 -3.764091432094573975e-02 -1.349327564239501953e-01 -1.154487952589988708e-01 2.319019846618175507e-02 -1.451096683740615845e-01 2.590957656502723694e-02 -9.672460705041885376e-02 -2.844016253948211670e-02 -8.942056447267532349e-02 -1.193252727389335632e-01 -3.135626390576362610e-02 -1.340862959623336792e-01 -6.111111119389533997e-02 -6.724109500646591187e-02 8.467179536819458008e-02 -1.060317531228065491e-01 -8.813229203224182129e-02 8.127833157777786255e-02 1.712247282266616821e-01 2.177097648382186890e-01
-2.244519069790840149e-02 1.656384319067001343e-01 -5.289106070995330811e-02 3.406320884823799133e-02 -2.956311590969562531e-02 1.752428859472274780e-01 1.430545300245285034e-01 -1.031070500612258911e-01 -6.896056979894638062e-02 1.438836008310317993e-01 7.642032206058502197e-02 -5.638268962502479553e-02 -1.903648115694522858e-02 3.023205092176795006e-03 -5.482255294919013977e-02 8.019617944955825806e-02 1.106299534440040588e-01 1.052258685231208801e-01 -2.246896177530288696e-02 -6.817366182804107666e-02 6.306798011064529419e-02 6.204038113355636597e-02 1.889908313751220703e-01 1.043559834361076355e-01 -1.097085624933242798e-01 -1.466033458709716797e-01 -1.980525627732276917e-02 8.987076580524444580e-02 -6.746891140937805176e-02 -1.343881338834762573e-01 -1.507290750741958618e-01 -5.243520135991275311e-04 -6.411404162645339966e-02 -1.855301670730113983e-03 -7.208238542079925537e-02 -6.486742291599512100e-03 4.836682695895433426e-03 -9.582768380641937256e-02 6.223213300108909607e-02 -2.940147928893566132e-02 -6.287331879138946533e-02 1.443074084818363190e-03 6.160421296954154968e-02 -1.138654649257659912e-01 1.719800010323524475e-02 -4.696919769048690796e-02 -5.447080358862876892e-02 -4.822424054145812988e-02 -1.218510493636131287e-01 1.283448841422796249e-02 -4.918050020933151245e-02 -1.151023283600807190e-01 1.682293042540550232e-02 -7.330664247274398804e-02 4.312578961253166199e-02 -9.267012774944305420e-02 6.182922422885894775e-02 1.363067608326673508e-02 -6.184781342744827271e-02 -2.515378221869468689e-02 7.974681258201599121e-02 -1.322424318641424179e-02 -2.295639067888259888e-01 -1.275202035903930664e-01 -7.429673522710800171e-02 4.732108116149902344e-02 3.257469041272997856e-03 8.046880364418029785e-02 4.926869645714759827e-02 2.489490061998367310e-01 1.339834332466125488e-01 -8.549345284700393677e-02 -4.942450672388076782e-02 -9.591014683246612549e-02 -1.536382734775543213e-01 1.938381642103195190e-01 -3.901524841785430908e-02 1.393350809812545776e-01 -9.267532266676425934e-03 -7.510688900947570801e-02 -7.917194068431854248e-02 -2.261361293494701385e-02 -1.369632780551910400e-01 5.418823659420013428e-02 -6.812666542828083038e-03 -9.657603502273559570e-02 -2.541672997176647186e-02 -1.241493597626686096e-01 4.174888134002685547e-02 -4.149216413497924805e-02 -8.172913640737533569e-02 -1.271523237228393555e-01 6.055502220988273621e-02 1.113987192511558533e-01 6.148269027471542358e-02 1.536749452352523804e-01 -3.974206000566482544e-02 2.272660844027996063e-02 -2.579711377620697021e-02 1.468970533460378647e-02 -5.848984792828559875e-02 1.016136631369590759e-02 -6.343497335910797119e-02 -1.241134852170944214e-02 -1.430217456072568893e-02 -4.471445456147193909e-02 2.013217099010944366e-02 6.141890957951545715e-02 -1.394333839416503906e-01 -4.337486624717712402e-02 2.505034767091274261e-02 -4.749722778797149658e-02 -4.674852825701236725e-03 -1.004361212253570557e-01 -1.389345228672027588e-01 2.021273970603942871e-02 5.864938348531723022e-02 -2.177508547902107239e-02 -5.295626446604728699e-02 -7.808154821395874023e-02 -8.530779927968978882e-02 -6.566031277179718018e-02 -7.120110839605331421e-02 -6.235001608729362488e-02 2.055093050003051758e-01 6.657303124666213989e-02 1.023136302828788757e-01 8.800127357244491577e-02 -9.779077023267745972e-03 -1.497414857149124146e-01 -1.016635075211524963e-02 6.846837699413299561e-02 8.967266976833343506e-02 -6.520739942789077759e-02 -1.024776510894298553e-02 -4.994804784655570984e-02 -3.259099647402763367e-02 2.196499705314636230e-01 1.213657017797231674e-02 1.474137902259826660e-01 7.624347507953643799e-02 -1.329795923084020615e-02 -3.317756205797195435e-02 2.527322433888912201e-02 -3.344380855560302734e-02 3.496823459863662720e-02 -3.603418171405792236e-02 7.467868179082870483e-02 -9.761074930429458618e-02 3.509553521871566772e-02 9.265107661485671997e-02 -1.330057084560394287e-01 2.306679822504520416e-02 9.908109903335571289e-02 9.469056874513626099e-02 1.043187081813812256e-01 -9.490172564983367920e-02 -1.929825358092784882e-02 -3.460256755352020264e-02 1.992714107036590576e-01 -1.623525284230709076e-02 -6.399369239807128906e-02 -4.447086155414581299e-02 -5.873614177107810974e-02 3.709367662668228149e-02 -6.035840883851051331e-02 -1.865870505571365356e-01 3.182226419448852539e-02 1.080714389681816101e-01 -7.854962348937988281e-02 -1.298440843820571899e-01 4.073445498943328857e-02 4.176985099911689758e-02 -2.772435080260038376e-03 8.330073207616806030e-02 -2.463678456842899323e-02 -5.923338234424591064e-02 1.783372312784194946e-01 -8.193625509738922119e-02 4.381027445197105408e-02 -1.235774382948875427e-01 5.148601159453392029e-02 4.811340570449829102e-02 -7.676664739847183228e-02 2.703463844954967499e-02 2.303899228572845459e-01 -1.659139804542064667e-02 -5.304690450429916382e-03 5.607362091541290283e-02 -6.324168294668197632e-02 -1.062133312225341797e-01 9.588480740785598755e-02 2.547249794006347656e-01 6.944623589515686035e-02 -6.615687161684036255e-02 -6.204849481582641602e-02 -2.300402373075485229e-01 3.437173366546630859e-02 -3.336252644658088684e-02 1.256645023822784424e-01 -2.376896515488624573e-02 -1.416708827018737793e-01 7.591219246387481689e-02 -1.915128156542778015e-02 -1.492285728454589844e-01 5.678057670593261719e-02 5.809976160526275635e-02 6.313418596982955933e-02 5.832281336188316345e-02 -8.089761435985565186e-02 -1.896330714225769043e-01 -6.327758729457855225e-02 -1.222719550132751465e-01 3.470454737544059753e-02 -7.640065252780914307e-02 1.124866604804992676e-01 -6.869260966777801514e-02 -7.728273048996925354e-03 -6.071414798498153687e-02 3.269773907959461212e-03 3.446648269891738892e-02 3.781605511903762817e-02 1.316289510577917099e-02 -4.516460001468658447e-02 -1.099237203598022461e-01 5.175438150763511658e-02 3.384719043970108032e-02 7.781190425157546997e-02 6.004972755908966064e-02 -2.327281795442104340e-02 9.585417062044143677e-02 8.240333944559097290e-02 1.348675694316625595e-02 -6.020129472017288208e-02 3.289850056171417236e-02 -6.871620565652847290e-02 -1.962257735431194305e-02 -2.432691678404808044e-02 -4.676441475749015808e-02 -5.173827707767486572e-02 4.748867824673652649e-02 1.315249204635620117e-01 8.308324962854385376e-02 8.357306569814682007e-02 -1.224293373525142670e-02 -5.768594890832901001e-02 8.787429891526699066e-03 -1.709165424108505249e-01 -9.179735183715820312e-02 -5.143005400896072388e-02 1.233457308262586594e-02 -4.858266934752464294e-02 -1.752392202615737915e-01 -5.546228028833866119e-03 -1.067660450935363770e-01 -6.048620492219924927e-02
-1.300550103187561035e-01 7.127597182989120483e-02 2.361248284578323364e-01 8.503997325897216797e-02 -1.988842850551009178e-04 -1.648352146148681641e-01 9.869540482759475708e-02 1.845921739004552364e-03 -1.811033859848976135e-02 -1.857037283480167389e-02 -2.710311859846115112e-02 7.459131628274917603e-02 2.730550058186054230e-02 -4.889428243041038513e-02 -2.631511725485324860e-02 7.244097441434860229e-02 2.865836396813392639e-02 -1.035599485039710999e-01 1.119587719440460205e-01 2.333299443125724792e-02 1.497195810079574585e-01 9.888006001710891724e-02 -1.409087777137756348e-01 -6.902842223644256592e-02 3.815248236060142517e-02 1.887936294078826904e-01 1.094578653573989868e-01 1.197797507047653198e-01 -4.715148359537124634e-02 1.069170087575912476e-01 -1.568864732980728149e-01 1.056717336177825928e-01 -1.048928722739219666e-01 -2.934974804520606995e-02 -1.607544422149658203e-01 1.237034350633621216e-01 -6.135013885796070099e-03 -1.468648482114076614e-02 1.468814462423324585e-01 -1.592998951673507690e-02 -1.730362772941589355e-01 7.533641904592514038e-02 2.456695027649402618e-02 -2.117817476391792297e-02 -2.074055932462215424e-02 -1.009180247783660889e-01 1.379638910293579102e-01 9.200882911682128906e-02 4.725271835923194885e-02 -7.940446957945823669e-03 1.554314885288476944e-02 2.806426957249641418e-02 -1.616589725017547607e-01 -7.167940586805343628e-02 1.365749984979629517e-01 9.452612698078155518e-02 6.752084940671920776e-02 -8.741602301597595215e-02 1.514215301722288132e-02 9.800803381949663162e-04 1.703171283006668091e-01 1.784237660467624664e-02 -1.580394804477691650e-02 1.675890386104583740e-01 8.818074315786361694e-02 -3.017934225499629974e-02 -1.977063119411468506e-01 -5.548955127596855164e-02 1.245980523526668549e-02 -5.788015550933778286e-04 -6.349327974021434784e-03 1.398301422595977783e-01 1.787058822810649872e-02 6.517750769853591919e-02 6.174295675009489059e-03 5.383231490850448608e-02 2.216109260916709900e-02 1.081599742174148560e-01 -7.624497264623641968e-02 4.459854960441589355e-02 -3.466171026229858398e-02 -1.697170361876487732e-02 -1.397354602813720703e-01 1.313375495374202728e-02 1.214769780635833740e-01 7.425305992364883423e-02 -7.050116360187530518e-02 -1.364245861768722534e-01 -6.884126365184783936e-02 8.463474363088607788e-02 -5.110371857881546021e-02 2.315640635788440704e-02 -5.212569609284400940e-02 -3.213031217455863953e-02 2.522145956754684448e-02 6.739595532417297363e-02 4.606821388006210327e-02 4.855240881443023682e-02 7.904401421546936035e-02 -8.505309373140335083e-02 -6.751609034836292267e-04 1.436000913381576538e-01 -1.118544489145278931e-02 -1.241502612829208374e-01 -9.289865940809249878e-02 8.685105480253696442e-03 1.513456255197525024e-01 -2.447573095560073853e-02 -1.044213622808456421e-01 -5.970656499266624451e-02 6.423401087522506714e-02 4.766876995563507080e-02 5.025998502969741821e-02 8.835941553115844727e-02 5.539459735155105591e-02 1.128852516412734985e-01 -1.750112622976303101e-01 1.085674040950834751e-03 -6.907269358634948730e-02 -7.865884155035018921e-02 1.132927238941192627e-01 -7.514884322881698608e-02 6.007720157504081726e-02 -8.307342976331710815e-02 1.042406484484672546e-01 4.081120714545249939e-02 -2.530963532626628876e-02 1.071056425571441650e-01 -3.893562033772468567e-02 8.977116644382476807e-02 6.588374078273773193e-02 -1.527369488030672073e-03 2.708526514470577240e-02 4.081264138221740723e-02 -1.207735165953636169e-01 7.204861938953399658e-02 5.772306397557258606e-02 1.411525309085845947e-01 1.623446345329284668e-01 -2.071043476462364197e-03 -4.805390164256095886e-02 -4.134354181587696075e-03 -1.788742840290069580e-02 5.075960978865623474e-02 2.445799298584461212e-02 1.786028444766998291e-01 7.571249455213546753e-02 -8.917091786861419678e-02 -6.902278214693069458e-02 -1.262057721614837646e-01 5.027235671877861023e-02 -2.181572169065475464e-01 2.006880193948745728e-02 -1.940338313579559326e-02 -1.604313105344772339e-01 -8.453694730997085571e-02 -4.779575392603874207e-02 -1.983464695513248444e-02 -3.614234551787376404e-02 3.051524795591831207e-02 -9.724243730306625366e-02 -1.310044825077056885e-01 -1.439971104264259338e-02 -9.908657521009445190e-03 -7.155928015708923340e-02 -1.222957074642181396e-01 -2.936421660706400871e-03 -3.175031859427690506e-03 1.238656938076019287e-01 -1.048668194562196732e-02 -1.797751933336257935e-01 -6.663117557764053345e-02 -7.324238121509552002e-02 -3.526243194937705994e-02 5.214941129088401794e-02 1.627264544367790222e-02 -1.108600199222564697e-01 -1.010137498378753662e-01 -1.129272580146789551e-02 7.543981075286865234e-02 1.561974287033081055e-01 7.255557179450988770e-02 -9.589477628469467163e-02 1.215682625770568848e-01 -5.905853211879730225e-02 5.862552300095558167e-02 -8.515746891498565674e-02 6.179974973201751709e-02 6.137128453701734543e-03 -2.154767140746116638e-02 6.326714158058166504e-02 -3.145036101341247559e-02 -2.207398116588592529e-01 4.795251414179801941e-02 -6.756377965211868286e-02 1.191201061010360718e-02 -1.119642034173011780e-01 1.043305173516273499e-02 1.474257856607437134e-01 -2.350502163171768188e-01 1.197962909936904907e-01 -6.944967806339263916e-02 9.536842256784439087e-02 4.261335823684930801e-03 2.537656016647815704e-02 1.605123579502105713e-01 1.341380327939987183e-01 -6.066767871379852295e-02 6.433486193418502808e-02 -1.411197036504745483e-01 8.441221714019775391e-02 -5.394162610173225403e-02 -1.855999790132045746e-02 3.146494925022125244e-02 4.778098315000534058e-02 -8.735028654336929321e-02 -6.438546348363161087e-03 -1.180405691266059875e-01 7.386916875839233398e-02 -9.433510899543762207e-02 -6.318215280771255493e-02 -1.367553621530532837e-01 -1.137653440237045288e-01 7.475955039262771606e-02 1.921445503830909729e-02 -1.364822965115308762e-02 1.538258343935012817e-01 1.104234680533409119e-01 3.106541000306606293e-02 -6.598316133022308350e-02 -3.726743534207344055e-02 -2.809974364936351776e-02 -4.983720928430557251e-02 1.674883365631103516e-01 4.792404174804687500e-02 -1.018486823886632919e-02 -1.060665599652566016e-04 -1.187636181712150574e-01 5.865818634629249573e-02 1.012267246842384338e-01 3.307096660137176514e-02 -2.210919372737407684e-02 -2.154758386313915253e-02 2.314693331718444824e-01 5.776931717991828918e-02 -9.627503901720046997e-02 2.178545296192169189e-02 -1.705509610474109650e-02 -4.551827907562255859e-02 -5.506773293018341064e-02 9.317441284656524658e-02 -7.146356254816055298e-02 -3.149799257516860962e-02 8.651591092348098755e-02 8.043423295021057129e-02 3.418488800525665283e-02
-1.115956827998161316e-01 -3.388666361570358276e-02 -1.005035266280174255e-01 1.183867231011390686e-01 -1.458033174276351929e-01 -8.460061997175216675e-02 -2.295468300580978394e-01 1.520399004220962524e-02 -7.173805683851242065e-02 5.094018951058387756e-02 -1.533649712800979614e-01 -5.150287970900535583e-02 1.236011609435081482e-01 1.159318238496780396e-01 8.882869035005569458e-03 7.271697372198104858e-02 -1.413318067789077759e-01 -1.286456137895584106e-01 -1.608569733798503876e-02 -1.806109026074409485e-02 8.399987220764160156e-02 -6.669809669256210327e-02 -5.370584502816200256e-02 8.280400931835174561e-02 -2.744066417217254639e-01 1.009941101074218750e-01 -7.564632222056388855e-03 -7.565543055534362793e-02 -9.785479307174682617e-02 -1.523625850677490234e-01 -1.141864657402038574e-01 -1.405059397220611572e-01 3.498174250125885010e-02 5.658467859029769897e-02 -8.369506150484085083e-02 5.015987902879714966e-02 4.355808719992637634e-02 -1.004444882273674011e-01 2.289798855781555176e-02 7.390333712100982666e-02 7.881584018468856812e-02 3.097089566290378571e-02 -2.158651314675807953e-02 1.168950870633125305e-01 -1.181258335709571838e-01 -1.838963944464921951e-03 -1.107336059212684631e-01 -8.353606611490249634e-02 -1.693709380924701691e-02 -9.227271378040313721e-02 5.722439661622047424e-02 -1.053672730922698975e-01 -4.093327000737190247e-02 -8.277811855077743530e-02 8.313591033220291138e-02 1.039351522922515869e-02 6.002935767173767090e-02 6.945458054542541504e-02 -5.099993944168090820e-02 7.992722839117050171e-02 9.510581195354461670e-02 -1.261779665946960449e-01 -6.414684653282165527e-02 -3.405521810054779053e-02 1.769265346229076385e-02 1.682027801871299744e-02 6.248084083199501038e-02 -1.218957826495170593e-01 -7.682623714208602905e-02 7.979951798915863037e-02 1.020904928445816040e-01 -9.365560486912727356e-03 -8.852265030145645142e-02 1.145562273450195789e-03 -1.621349751949310303e-01 2.708908403292298317e-03 -1.831639111042022705e-01 -2.215795032680034637e-02 3.364369273185729980e-02 -7.419875264167785645e-02 1.931560039520263672e-02 4.878536239266395569e-02 6.387925893068313599e-02 3.835167735815048218e-02 3.503292426466941833e-02 -1.558359265327453613e-01 1.265062093734741211e-01 1.158187538385391235e-02 1.616083271801471710e-02 1.262465678155422211e-02 3.905339166522026062e-02 -1.745608747005462646e-01 -1.593756489455699921e-02 -1.478077471256256104e-01 -2.362472191452980042e-02 -1.246567592024803162e-01 2.512484043836593628e-02 2.638016827404499054e-02 -1.683076098561286926e-02 2.673702314496040344e-02 2.415903471410274506e-02 1.452967673540115356e-01 -4.537979140877723694e-03 6.477040797472000122e-02 9.814199060201644897e-02 -4.773097485303878784e-02 -1.947709731757640839e-02 7.324098795652389526e-02 -7.184647023677825928e-02 7.766556739807128906e-02 2.528034150600433350e-02 -8.456452935934066772e-02 -5.999490991234779358e-02 -2.615091800689697266e-01 2.950342372059822083e-02 9.886942058801651001e-02 8.164113759994506836e-02 -2.332704328000545502e-02 -1.156415939331054688e-01 9.861646592617034912e-02 9.126483649015426636e-02 1.192387863993644714e-01 2.321739867329597473e-02 -1.014821929857134819e-03 -6.949427723884582520e-02 2.699538320302963257e-02 1.294964365661144257e-02 1.151001602411270142e-01 -3.381841629743576050e-02 -6.921332329511642456e-02 -3.976922109723091125e-02 -4.741462320089340210e-02 -1.692994311451911926e-02 -3.540530055761337280e-02 -1.571822911500930786e-01 -6.482325494289398193e-02 1.470752526074647903e-02 2.783074043691158295e-02 -7.362651079893112183e-02 8.088300377130508423e-02 -3.030104190111160278e-02 7.609397917985916138e-02 -1.079275980591773987e-01 7.253018766641616821e-02 1.329614222049713135e-01 2.443658187985420227e-02 4.773904383182525635e-02 -1.166505441069602966e-01 9.881483763456344604e-02 3.506006672978401184e-02 8.944212645292282104e-02 -1.739329285919666290e-02 -5.492617562413215637e-02 -7.073376327753067017e-02 -2.010980993509292603e-02 -9.034155309200286865e-02 -1.634776592254638672e-01 7.426318526268005371e-02 2.879181131720542908e-02 1.209999062120914459e-02 -1.050655096769332886e-01 3.985024243593215942e-02 2.109011113643646240e-01 4.552355408668518066e-02 7.731477171182632446e-02 1.916314810514450073e-01 -5.022260919213294983e-02 -1.740233302116394043e-01 -5.028724297881126404e-02 2.689242735505104065e-02 -1.498085558414459229e-01 -6.684829946607351303e-03 1.960670053958892822e-01 -4.391839355230331421e-02 4.586006328463554382e-02 -1.112742647528648376e-01 8.208294399082660675e-03 -1.823414713144302368e-01 4.335040226578712463e-03 5.712854862213134766e-02 1.194302141666412354e-01 -9.235486388206481934e-02 -9.464824944734573364e-02 5.876198783516883850e-02 1.084595695137977600e-01 -1.187686398625373840e-01 -6.655769050121307373e-02 -1.132973283529281616e-01 2.076194807887077332e-02 -4.723734036087989807e-02 1.326109170913696289e-01 6.261831521987915039e-02 -2.088034451007843018e-01 8.335735648870468140e-02 -2.794569917023181915e-02 -1.509017348289489746e-01 -6.277292966842651367e-02 -3.619211539626121521e-02 -7.147894799709320068e-02 -4.720215871930122375e-02 -9.456541389226913452e-03 -3.337645903229713440e-02 -7.824968546628952026e-02 -8.014339208602905273e-02 -2.423513866961002350e-02 4.884357005357742310e-02 2.175538390874862671e-01 -2.799200639128684998e-02 -1.443911250680685043e-02 1.527198702096939087e-01 8.742511272430419922e-02 4.014035686850547791e-02 -4.065346717834472656e-02 -3.228559391573071480e-03 6.662180274724960327e-02 -1.376388221979141235e-01 -2.818009257316589355e-02 -1.279895938932895660e-02 -1.417572945356369019e-01 -7.854396104812622070e-02 8.948567509651184082e-02 5.500471591949462891e-02 8.765858411788940430e-02 -5.855078250169754028e-02 -2.772891148924827576e-02 -7.240986824035644531e-02 9.940738230943679810e-02 -6.855168193578720093e-02 -3.415022045373916626e-02 1.305333673954010010e-01 -3.343681991100311279e-02 -1.261334121227264404e-01 -1.557919085025787354e-01 1.636780798435211182e-01 -1.693777367472648621e-02 2.646624669432640076e-02 1.006392017006874084e-01 6.898270547389984131e-02 6.790991406887769699e-03 4.025473445653915405e-02 7.288946770131587982e-03 6.637258827686309814e-02 -3.746620938181877136e-02 -1.069830730557441711e-01 -2.168902158737182617e-01 5.060978978872299194e-02 1.036009117960929871e-01 -5.745493993163108826e-02 -1.815067231655120850e-01 4.073843732476234436e-02 -1.331097539514303207e-02 -1.019515544176101685e-01 1.030559390783309937e-01 -2.719563059508800507e-02 4.069863259792327881e-02 1.079598516225814819e-01
5.179896205663681030e-02 -6.813028454780578613e-02 1.249633654952049255e-01 -2.503379248082637787e-03 -3.407394140958786011e-02 9.771977365016937256e-02 -5.764590576291084290e-02 -4.054697696119546890e-03 1.609265357255935669e-01 -1.813576370477676392e-01 6.422956287860870361e-02 3.493440523743629456e-02 9.209807962179183960e-02 2.431003935635089874e-02 4.253290966153144836e-02 -1.098064854741096497e-01 8.471812307834625244e-02 7.057898212224245071e-03 2.330132015049457550e-02 -7.381904125213623047e-02 -7.099142298102378845e-03 3.639243915677070618e-02 -6.731173396110534668e-02 7.583236787468194962e-03 -1.126697659492492676e-02 -7.541731745004653931e-02 2.052839696407318115e-01 -1.480706781148910522e-02 5.709968134760856628e-02 -1.104977503418922424e-01 8.328430354595184326e-03 -6.323993951082229614e-02 3.543666796758770943e-03 6.223232671618461609e-02 2.106498777866363525e-01 1.921134442090988159e-01 -3.707714611664414406e-03 5.403766408562660217e-02 8.960529230535030365e-03 -1.572505682706832886e-01 4.727946594357490540e-02 4.923132434487342834e-02 -8.532199263572692871e-02 -7.793371379375457764e-02 1.128325685858726501e-01 1.291464567184448242e-01 -3.026929870247840881e-02 -5.715367197990417480e-02 1.647585257887840271e-02 9.011340141296386719e-02 -1.137817203998565674e-01 -4.390855133533477783e-02 -1.732233464717864990e-01 2.085456252098083496e-02 1.176451370120048523e-01 -5.005702376365661621e-02 -1.408860087394714355e-01 8.602994680404663086e-02 1.612479984760284424e-01 -5.541233345866203308e-02 -1.664600819349288940e-01 1.026234626770019531e-01 4.129936173558235168e-02 1.426381245255470276e-02 -5.741671472787857056e-02 -9.243314713239669800e-02 -6.996811181306838989e-02 1.017579622566699982e-02 3.072551265358924866e-02 1.150848343968391418e-01 -9.522134810686111450e-02 -5.636717006564140320e-02 5.751900002360343933e-02 6.606347113847732544e-02 4.462813376449048519e-04 -6.811214983463287354e-02 -2.593396604061126709e-02 9.701641649007797241e-02 3.278004378080368042e-02 1.322008483111858368e-02 -8.242087811231613159e-02 -2.366643846035003662e-01 4.300676286220550537e-02 2.999829128384590149e-02 1.008621379733085632e-01 -2.148127183318138123e-02 -1.558718457818031311e-02 -6.954636424779891968e-02 2.664323896169662476e-02 5.936591327190399170e-02 1.359107345342636108e-01 -8.145481348037719727e-02 1.218669638037681580e-01 8.055701851844787598e-02 4.895237833261489868e-02 -1.448028534650802612e-02 1.535152941942214966e-01 5.146770924329757690e-02 -1.453848630189895630e-01 8.910150267183780670e-03 -7.021475583314895630e-02 -1.274238689802587032e-03 1.448455899953842163e-01 4.348203912377357483e-02 1.502514928579330444e-01 5.689929798245429993e-02 -5.684442445635795593e-02 -3.192161396145820618e-02 -4.617388173937797546e-02 -7.432097196578979492e-02 -2.689984813332557678e-02 2.166831400245428085e-03 -7.281237095594406128e-02 9.041998535394668579e-02 -1.713375910185277462e-03 -1.261329501867294312e-01 -5.816709250211715698e-03 7.881063967943191528e-02 -3.306730464100837708e-02 4.360350966453552246e-02 1.728430986404418945e-01 1.192509233951568604e-01 -4.737675935029983521e-02 -7.055895775556564331e-02 -1.384368091821670532e-01 2.315364964306354523e-02 -1.293432265520095825e-01 -3.835118934512138367e-02 -1.327358186244964600e-01 -5.811382457613945007e-02 -7.088743895292282104e-02 -8.284552022814750671e-03 -9.875644743442535400e-02 -1.289505627937614918e-03 1.334185302257537842e-01 -1.121249422430992126e-01 -5.685772001743316650e-02 1.858309097588062286e-02 -2.273051068186759949e-02 1.044213324785232544e-01 1.181996837258338928e-01 -1.627271473407745361e-01 -1.328167021274566650e-01 8.852456510066986084e-02 1.617929041385650635e-01 3.576367394998669624e-03 5.918577685952186584e-02 -2.204844355583190918e-01 1.844445057213306427e-02 -1.838503330945968628e-01 4.653234779834747314e-02 1.806944459676742554e-01 -7.172576733864843845e-04 1.341575831174850464e-01 2.896198444068431854e-02 1.122583001852035522e-01 9.383079595863819122e-03 -1.074751541018486023e-01 9.093283116817474365e-02 3.675132617354393005e-02 -1.345102395862340927e-02 -2.905945293605327606e-02 8.648202568292617798e-02 -2.259771525859832764e-02 1.669072918593883514e-02 -3.338413313031196594e-02 1.026715412735939026e-01 -5.910804495215415955e-02 -2.281396277248859406e-02 -7.309704273939132690e-02 -3.677567467093467712e-03 -3.789582476019859314e-02 -2.000511437654495239e-01 5.385962128639221191e-02 1.884337700903415680e-02 -6.895855069160461426e-02 -3.592188283801078796e-02 -7.238920778036117554e-02 2.910451777279376984e-02 -1.203973405063152313e-02 1.056983768939971924e-01 2.464387379586696625e-02 -1.756067574024200439e-02 5.146186798810958862e-03 5.032765120267868042e-02 -8.422153443098068237e-02 -1.022588834166526794e-02 2.831317298114299774e-02 1.094825044274330139e-01 7.069614529609680176e-02 -7.233354449272155762e-02 -1.074085608124732971e-01 1.313318312168121338e-01 1.306596398353576660e-01 -2.426005303859710693e-01 -9.461575001478195190e-02 7.700218819081783295e-03 5.549331009387969971e-02 -9.714958816766738892e-02 1.077502127736806870e-02 -1.897004060447216034e-02 -7.249932736158370972e-02 6.145010888576507568e-02 -1.583608388900756836e-01 1.211072057485580444e-01 2.989238500595092773e-02 -1.585063636302947998e-01 -5.760143697261810303e-02 9.483388811349868774e-02 -7.028189953416585922e-03 -5.789360404014587402e-02 -4.146507475525140762e-03 -3.903356939554214478e-02 -5.022852495312690735e-02 2.936515398323535919e-02 -8.468589745461940765e-03 -2.183127403259277344e-02 1.143878251314163208e-01 -7.847772538661956787e-02 1.557208131998777390e-02 -1.242460533976554871e-01 1.898642331361770630e-01 4.373580589890480042e-02 8.196900039911270142e-02 7.788020372390747070e-02 5.528241768479347229e-02 -4.835435375571250916e-02 2.841760776937007904e-02 5.555016919970512390e-02 -2.840658128261566162e-01 -3.786988183856010437e-02 2.418669126927852631e-02 2.972210384905338287e-02 1.071675270795822144e-01 -8.624576032161712646e-02 2.552281320095062256e-02 -1.190234273672103882e-01 -4.567069560289382935e-02 4.288495983928442001e-03 5.848193168640136719e-02 -1.002744026482105255e-02 -1.238029822707176208e-01 -6.174572929739952087e-02 1.184210740029811859e-02 -1.361231803894042969e-01 6.983651965856552124e-02 2.260391712188720703e-01 -6.787631660699844360e-02 -2.588877081871032715e-02 1.148122362792491913e-02 -2.031951677054166794e-03 1.074510719627141953e-02 4.172768071293830872e-02 -9.423305280506610870e-03 -2.343687228858470917e-02 4.565238952636718750e-02
4.681766778230667114e-02 7.035584002733230591e-02 -1.778124645352363586e-02 -6.364746391773223877e-02 -2.554033324122428894e-02 4.979638382792472839e-02 -5.314952507615089417e-02 8.826030790805816650e-02 1.485712174326181412e-02 -1.997103542089462280e-02 1.231428682804107666e-01 -7.301520556211471558e-02 1.425757706165313721e-01 -2.131315506994724274e-02 1.214536204934120178e-01 -8.576516807079315186e-02 -3.866633400321006775e-02 -7.025830564089119434e-04 -3.894638642668724060e-02 1.076913326978683472e-01 -7.354916632175445557e-02 -1.260827332735061646e-01 6.093680486083030701e-02 -1.708297282457351685e-01 1.013956312090158463e-02 -1.295538842678070068e-01 6.727921217679977417e-02 -1.789376139640808105e-02 -3.046828880906105042e-02 -3.589481115341186523e-02 -8.287138305604457855e-03 4.275442287325859070e-02 7.317558862268924713e-03 8.344668149948120117e-02 2.477228082716464996e-02 1.954571530222892761e-02 -4.177646478638052940e-04 -9.732729941606521606e-02 -2.708743326365947723e-02 1.009521037340164185e-01 6.762441247701644897e-02 -7.278326153755187988e-02 -1.225709798745810986e-03 1.256017684936523438e-01 1.051664631813764572e-02 -1.171195507049560547e-01 -9.710257500410079956e-02 -5.896701291203498840e-02 1.046279892325401306e-01 8.876350708305835724e-03 2.380831539630889893e-01 -1.512250304222106934e-01 3.561923280358314514e-02 -2.011140137910842896e-01 9.100014343857765198e-03 -3.509509377181529999e-03 -2.014966867864131927e-02 1.819201931357383728e-02 -2.475912868976593018e-01 1.517631858587265015e-01 3.757946938276290894e-02 2.792718075215816498e-02 9.212423861026763916e-02 1.684624119661748409e-03 1.360052544623613358e-02 4.761931300163269043e-02 -5.027455277740955353e-03 -1.028842926025390625e-01 -6.755728274583816528e-03 -1.862229257822036743e-01 -8.514621853828430176e-02 -1.546365022659301758e-01 -3.015340538695454597e-03 3.237375989556312561e-02 -8.782284706830978394e-02 -1.121071353554725647e-01 5.749419704079627991e-02 1.016404777765274048e-01 1.196490135043859482e-02 -1.381438523530960083e-01 -1.158623844385147095e-01 -3.652316704392433167e-02 -5.169514939188957214e-02 -1.841125190258026123e-01 -5.574422329664230347e-02 -3.572975518181920052e-03 -5.962907895445823669e-02 -1.646238565444946289e-02 -1.894370652735233307e-02 5.444715498015284538e-04 6.300538778305053711e-02 1.345759928226470947e-01 1.246412843465805054e-01 -3.655808791518211365e-02 -9.434837102890014648e-02 5.898344516754150391e-02 -1.196497827768325806e-01 -4.306278005242347717e-02 2.891517430543899536e-02 8.522626757621765137e-02 -1.083035245537757874e-01 1.654637306928634644e-01 1.182806268334388733e-01 1.079918816685676575e-01 -9.988225251436233521e-02 -1.646540313959121704e-02 -1.429142355918884277e-01 3.320192918181419373e-02 -1.716173253953456879e-02 1.219094395637512207e-01 1.765659265220165253e-02 6.835530046373605728e-03 2.249881438910961151e-02 2.178529836237430573e-02 1.018265634775161743e-02 -5.055313184857368469e-02 -1.432309299707412720e-01 -6.335625797510147095e-02 5.162925459444522858e-03 -4.825405776500701904e-02 -7.835845649242401123e-02 -1.490386575460433960e-01 6.144422292709350586e-02 -8.205927163362503052e-02 5.994683131575584412e-02 -6.638974882662296295e-03 3.539080172777175903e-02 -8.925168961286544800e-02 -4.317750036716461182e-02 1.427795854397118092e-03 -5.504110828042030334e-02 -2.392754517495632172e-02 7.021182775497436523e-02 -1.112341731786727905e-01 1.575012803077697754e-01 1.067305281758308411e-01 -9.482022374868392944e-02 1.171632632613182068e-01 2.558756060898303986e-02 1.088192407041788101e-02 -5.895134806632995605e-02 -5.437761545181274414e-02 -1.090652719140052795e-01 7.923429459333419800e-02 -8.165124803781509399e-03 9.808737784624099731e-02 3.121158666908740997e-02 6.114721763879060745e-04 -5.572683364152908325e-02 -9.791957214474678040e-03 9.616133570671081543e-02 -1.011354848742485046e-01 -2.516717463731765747e-02 6.303101032972335815e-02 -1.571336239576339722e-01 9.777073562145233154e-02 -4.057911410927772522e-02 -1.173601150512695312e-01 -1.040053181350231171e-02 3.278625011444091797e-02 -6.173139065504074097e-02 6.844019517302513123e-03 -1.150990501046180725e-01 -1.289625465869903564e-01 -9.082549065351486206e-02 -7.337910681962966919e-02 3.496044781059026718e-03 2.161251567304134369e-02 4.433989524841308594e-03 -3.254945576190948486e-02 8.766628056764602661e-02 6.864818278700113297e-03 -6.931585818529129028e-02 -7.547371834516525269e-02 -8.442036807537078857e-02 6.998705863952636719e-02 -2.000122368335723877e-01 2.336565963923931122e-02 -7.749610394239425659e-02 -5.025636404752731323e-02 -6.122061237692832947e-02 1.066393852233886719e-01 -8.368112891912460327e-02 -1.130852103233337402e-01 -1.760004088282585144e-03 -6.011600047349929810e-02 -9.987938404083251953e-02 -1.188477203249931335e-01 3.121656132861971855e-03 7.301056385040283203e-02 -9.039673954248428345e-02 2.812889590859413147e-02 1.643445491790771484e-01 1.323610246181488037e-01 -2.275311648845672607e-01 2.524660155177116394e-02 1.977979764342308044e-02 -8.771788328886032104e-02 -7.477742433547973633e-02 -1.299136132001876831e-01 -4.476591944694519043e-02 -7.220906019210815430e-02 -5.491675436496734619e-02 -3.929634019732475281e-02 1.183448079973459244e-02 3.540507704019546509e-02 5.712200701236724854e-02 3.452504426240921021e-02 -3.618277981877326965e-02 -2.432865649461746216e-02 4.932551458477973938e-02 1.206724420189857483e-01 1.119326278567314148e-01 -2.138776183128356934e-01 4.979591071605682373e-02 -1.220264472067356110e-02 8.402000367641448975e-02 8.583446592092514038e-02 5.248822644352912903e-02 1.995122283697128296e-01 1.113860532641410828e-01 6.822732090950012207e-02 4.004207625985145569e-02 1.067939847707748413e-01 3.183612227439880371e-02 -2.488759309053421021e-01 -1.653106883168220520e-02 1.438615750521421432e-02 7.826546207070350647e-03 2.346228659152984619e-01 -6.397394835948944092e-02 -3.537438809871673584e-02 -1.906170845031738281e-01 1.718878597021102905e-01 -5.541129037737846375e-03 -7.542942464351654053e-02 -1.035268902778625488e-01 1.984229385852813721e-01 -1.328720301389694214e-01 -1.687564551830291748e-01 8.394039422273635864e-02 1.359570622444152832e-01 -1.439064294099807739e-01 7.646698504686355591e-02 6.416846066713333130e-02 -1.484993379563093185e-02 1.084929853677749634e-01 -1.358368992805480957e-01 1.555876731872558594e-01 -8.209808729588985443e-03 -1.576958596706390381e-01 1.693419553339481354e-02 -3.313285484910011292e-02 -8.908268064260482788e-02 4.656383767724037170e-03 -8.768029510974884033e-02
8.039925247430801392e-02 2.881469391286373138e-02 -8.880993723869323730e-02 5.489473789930343628e-02 -6.941811740398406982e-02 2.515820041298866272e-02 4.605449363589286804e-02 -1.222439631819725037e-01 2.004017084836959839e-01 6.026995833963155746e-03 4.764442890882492065e-02 -6.771747022867202759e-02 4.810486733913421631e-02 1.519957631826400757e-01 6.833080202341079712e-02 -3.886494785547256470e-02 -6.311659514904022217e-02 -5.642645061016082764e-02 2.997807599604129791e-02 -5.914250016212463379e-02 9.788195788860321045e-02 -5.678832996636629105e-03 4.178902879357337952e-02 -1.536917090415954590e-01 -2.798352763056755066e-02 6.650819629430770874e-02 9.121818095445632935e-02 7.453289628028869629e-02 4.934647679328918457e-02 -9.726575016975402832e-02 -4.672298673540353775e-03 5.150377750396728516e-02 9.262162446975708008e-02 -2.107797190546989441e-02 1.065575052052736282e-03 -6.003996729850769043e-02 1.259286254644393921e-01 -1.488092541694641113e-01 -5.124912038445472717e-02 -3.648017346858978271e-02 3.433923050761222839e-02 -2.388024702668190002e-02 1.514319702982902527e-02 -8.339492231607437134e-02 -7.887026667594909668e-02 -1.152063310146331787e-01 1.375196874141693115e-01 -9.704420715570449829e-02 -1.249044686555862427e-01 -1.737623512744903564e-01 -1.976871863007545471e-02 1.010489091277122498e-01 -8.324231207370758057e-02 -2.854047343134880066e-02 -1.763201653957366943e-01 -1.256884783506393433e-01 -2.336414158344268799e-01 1.324383914470672607e-01 -6.288940086960792542e-03 1.342687755823135376e-01 -1.497509889304637909e-02 -9.192676842212677002e-02 -1.088137403130531311e-01 7.045473158359527588e-02 -1.978912800550460815e-01 -7.145129889249801636e-02 8.375325798988342285e-02 -1.358340233564376831e-01 -6.239154562354087830e-02 1.213600859045982361e-02 -6.831281632184982300e-02 1.241625323891639709e-01 -2.791822142899036407e-02 -8.615183085203170776e-02 5.648734048008918762e-02 -7.618635147809982300e-02 1.678525353781878948e-03 -1.331721693277359009e-01 -3.986891359090805054e-02 -7.200899720191955566e-02 3.267295658588409424e-02 5.354401655495166779e-03 -4.821985960006713867e-02 2.932065166532993317e-02 -8.010035753250122070e-02 1.075936704874038696e-01 -2.752534449100494385e-01 9.379408322274684906e-03 6.638403236865997314e-02 2.195101827383041382e-01 -5.046135187149047852e-02 -1.323714256286621094e-01 -3.907736390829086304e-03 -4.203886538743972778e-02 4.503180738538503647e-03 8.321821689605712891e-02 2.277358248829841614e-02 1.586220599710941315e-02 1.047339215874671936e-01 7.956676930189132690e-02 -5.707008764147758484e-02 -2.388775348663330078e-03 1.326940655708312988e-01 4.043347761034965515e-02 3.732477128505706787e-02 -1.406810283660888672e-01 1.374118179082870483e-01 1.029897015541791916e-02 6.780494470149278641e-03 -8.283153176307678223e-02 -7.301507145166397095e-02 1.200872361660003662e-01 1.313208937644958496e-01 -3.040057234466075897e-02 5.676968395709991455e-02 -1.479017827659845352e-02 -7.626633346080780029e-02 -1.256969571113586426e-01 1.786176674067974091e-02 -1.179276406764984131e-02 -1.807887852191925049e-01 -6.500510871410369873e-02 6.062504276633262634e-02 2.406277321279048920e-02 -1.177539005875587463e-01 -6.486248970031738281e-02 1.577949225902557373e-01 -4.494946077466011047e-02 -5.646652355790138245e-02 -6.012609228491783142e-02 -2.307897061109542847e-02 6.028462201356887817e-02 3.409176692366600037e-02 -1.500192731618881226e-01 9.411246329545974731e-02 -9.384184330701828003e-02 -1.834327131509780884e-01 5.843977909535169601e-03 1.147555857896804810e-01 4.763210192322731018e-02 -1.001408398151397705e-01 2.644322626292705536e-02 4.096250515431165695e-03 -2.637595832347869873e-01 -1.504431813955307007e-01 3.306304104626178741e-03 2.575000002980232239e-02 -2.362030558288097382e-03 -1.372696310281753540e-01 2.973796613514423370e-02 2.425219491124153137e-02 9.130543470382690430e-02 -6.929200887680053711e-02 -2.019692063331604004e-01 1.528847217559814453e-01 -1.132154390215873718e-01 -5.286119505763053894e-02 6.465852726250886917e-03 -2.362143248319625854e-03 -2.786212600767612457e-02 -1.500650048255920410e-01 -1.056005433201789856e-01 -8.967661857604980469e-02 7.941894233226776123e-02 -1.510572247207164764e-02 -5.141267552971839905e-02 -5.501077324151992798e-02 -1.267526671290397644e-02 9.192894399166107178e-02 -1.464334577322006226e-01 6.371663510799407959e-02 3.333118930459022522e-02 9.072759747505187988e-02 4.208323732018470764e-02 -1.067371442914009094e-01 -1.009188592433929443e-02 -1.331499069929122925e-01 -3.951016440987586975e-02 3.007385320961475372e-02 -8.000244200229644775e-02 5.599594488739967346e-02 7.786997407674789429e-02 1.420858502388000488e-01 4.356894642114639282e-02 1.358861103653907776e-02 -8.494399487972259521e-02 1.043687909841537476e-01 -5.161242187023162842e-02 6.004017218947410583e-02 2.542188018560409546e-02 -1.348994392901659012e-02 -1.331420801579952240e-02 -1.359992027282714844e-01 6.205403804779052734e-02 -1.132204234600067139e-01 -1.212699636816978455e-01 4.139440134167671204e-02 -6.366614997386932373e-02 -1.287144422531127930e-02 8.009257167577743530e-02 -4.917978867888450623e-02 -1.196309328079223633e-01 6.250404566526412964e-02 -1.348766833543777466e-01 1.003360282629728317e-02 -4.162686690688133240e-02 -1.248772218823432922e-01 9.061616659164428711e-02 -1.308165304362773895e-02 4.329467564821243286e-02 3.053241781890392303e-02 7.635968178510665894e-02 -1.212179437279701233e-01 1.396967191249132156e-02 -1.360785067081451416e-01 -2.067446708679199219e-02 1.748544573783874512e-01 -1.517004892230033875e-02 -2.523006126284599304e-02 -1.355304121971130371e-01 -1.133371796458959579e-02 -1.539271771907806396e-01 -1.190847605466842651e-01 1.464092880487442017e-01 1.782098114490509033e-01 -3.401422873139381409e-02 7.909322530031204224e-02 -1.469582505524158478e-02 6.780448555946350098e-02 1.757858134806156158e-02 -6.608094274997711182e-02 3.114744462072849274e-02 4.143846407532691956e-02 1.368818432092666626e-02 -1.031327620148658752e-01 1.220836713910102844e-01 4.866955429315567017e-02 -1.631257832050323486e-01 5.830017849802970886e-02 -5.092751607298851013e-02 -6.604038178920745850e-02 -6.350939720869064331e-02 3.720216080546379089e-02 -5.912062525749206543e-02 -1.091734915971755981e-01 -6.140651926398277283e-02 2.183052897453308105e-02 -1.068148687481880188e-01 -3.834736347198486328e-02 -9.377831220626831055e-02 -6.000704690814018250e-02 -9.019066393375396729e-02 1.441182047128677368e-01 6.838350743055343628e-02 -9.592108428478240967e-02 5.046724900603294373e-02
1.002919394522905350e-02 7.552875578403472900e-02 2.058852910995483398e-01 -8.298206329345703125e-02 -6.954923272132873535e-02 2.557748928666114807e-02 -1.494887564331293106e-02 5.888214707374572754e-02 1.202815398573875427e-02 1.341418623924255371e-01 5.937867984175682068e-02 6.478939205408096313e-03 6.933014094829559326e-02 -1.525567919015884399e-01 2.293144119903445244e-03 -1.295303255319595337e-01 1.966748759150505066e-02 -5.984788760542869568e-02 8.239379525184631348e-02 -3.568195179104804993e-02 1.774136722087860107e-01 -3.460769727826118469e-02 -1.100055202841758728e-01 -7.114204019308090210e-02 1.084453891962766647e-02 1.949897967278957367e-02 -3.546874597668647766e-02 2.426803484559059143e-02 -1.763497740030288696e-01 3.410083800554275513e-02 -1.478445231914520264e-01 -4.876079782843589783e-02 9.898536652326583862e-02 9.370914101600646973e-02 8.279053866863250732e-02 4.552608355879783630e-02 5.659068748354911804e-02 -7.415847480297088623e-02 -6.878302991390228271e-02 6.657124310731887817e-02 4.216327145695686340e-02 -7.901073247194290161e-02 -1.577709615230560303e-01 -1.019414737820625305e-01 -1.753457784652709961e-01 9.687949204817414284e-04 -5.083438381552696228e-02 -1.989017240703105927e-02 -3.914692997932434082e-02 1.063657701015472412e-01 1.237124353647232056e-01 5.739857256412506104e-02 1.404617913067340851e-02 -1.027613785117864609e-02 4.164577275514602661e-02 1.710948050022125244e-01 1.491101384162902832e-01 -8.032363653182983398e-02 2.466288208961486816e-02 -8.257178962230682373e-02 -5.525583028793334961e-02 -1.645041555166244507e-01 -3.737469378393143415e-04 5.278930068016052246e-03 -2.249607294797897339e-01 -9.835793823003768921e-02 1.540096253156661987e-01 1.369370967149734497e-01 7.342953234910964966e-02 -1.558312922716140747e-01 -3.481320664286613464e-02 1.113984268158674240e-02 -7.102622836828231812e-02 6.964891403913497925e-02 5.607513338327407837e-02 -7.601244002580642700e-02 1.543882638216018677e-01 -3.129437193274497986e-02 8.608029037714004517e-02 2.207457572221755981e-01 -6.931442767381668091e-02 5.079051852226257324e-02 7.708570361137390137e-02 -5.835103616118431091e-02 5.693744751624763012e-04 -5.906826257705688477e-02 8.089628815650939941e-02 -1.168272495269775391e-01 -2.498639747500419617e-02 -5.148559436202049255e-02 1.346766203641891479e-01 -2.980302379000931978e-04 5.030712112784385681e-02 -1.889080158434808254e-03 4.427126795053482056e-02 -3.438126994296908379e-03 -6.830078363418579102e-02 -1.076718121767044067e-01 1.380651444196701050e-02 -6.639461498707532883e-03 -1.337827593088150024e-01 -1.185099035501480103e-01 -1.023289337754249573e-01 1.834965124726295471e-02 2.463609911501407623e-02 1.038550287485122681e-01 8.902723900973796844e-03 -6.953939795494079590e-02 -3.022909536957740784e-02 -1.318415999412536621e-01 -7.883268594741821289e-02 -8.593723922967910767e-02 9.031611680984497070e-02 1.591403782367706299e-02 1.094150356948375702e-02 -1.336002349853515625e-02 1.508358716964721680e-01 -5.766356736421585083e-02 -3.783086314797401428e-02 1.916964910924434662e-02 1.075788140296936035e-01 -8.432570099830627441e-02 1.013227831572294235e-02 -7.494594156742095947e-02 -1.405894436175003648e-04 -6.530506536364555359e-03 2.199530042707920074e-02 7.387483119964599609e-02 -2.634486649185419083e-03 -6.263050436973571777e-02 7.630884647369384766e-02 -1.033667773008346558e-01 1.189005970954895020e-01 9.873333387076854706e-03 4.437202215194702148e-02 2.623080275952816010e-02 2.444132044911384583e-02 5.417717620730400085e-02 1.527383085340261459e-02 1.809453009627759457e-03 1.837233453989028931e-01 1.433279812335968018e-01 -3.658880293369293213e-02 4.978562146425247192e-02 -2.479722052812576294e-01 -3.135733678936958313e-02 1.676415838301181793e-02 1.099464949220418930e-03 -6.925118714570999146e-02 3.279669210314750671e-02 -5.489645898342132568e-02 -1.071409229189157486e-02 1.043172776699066162e-01 -3.961015120148658752e-02 1.787571236491203308e-02 -1.189573705196380615e-01 1.240368559956550598e-02 -1.415676623582839966e-01 -1.099985558539628983e-03 -1.241897791624069214e-02 -1.128453016281127930e-01 -9.712097793817520142e-02 -1.593887805938720703e-01 6.083448883146047592e-03 8.973188698291778564e-02 4.401802644133567810e-02 -3.916004300117492676e-02 1.106274724006652832e-01 -1.470414698123931885e-01 -9.258394129574298859e-03 1.451195329427719116e-01 3.884520754218101501e-02 1.005162596702575684e-01 1.884988993406295776e-01 3.685394069179892540e-03 -7.969206571578979492e-02 -1.183678358793258667e-01 4.449733719229698181e-02 1.290096342563629150e-01 -2.951413579285144806e-02 -1.617722958326339722e-02 -8.744200691580772400e-03 -6.608466804027557373e-02 6.295613199472427368e-02 1.536456197500228882e-01 -7.280503399670124054e-03 -1.370436400175094604e-01 -8.331972360610961914e-02 3.481545671820640564e-02 1.408471614122390747e-01 -3.999189659953117371e-02 1.744660735130310059e-01 1.393753848969936371e-02 -4.164060950279235840e-02 2.919555269181728363e-02 4.336122050881385803e-02 -7.472774386405944824e-02 -2.059801295399665833e-02 8.848682045936584473e-02 5.923679843544960022e-02 -3.475468605756759644e-02 8.686115324962884188e-05 6.766549195162951946e-04 -4.889069497585296631e-02 2.364824116230010986e-01 1.376617550849914551e-01 8.627706766128540039e-02 -4.648999869823455811e-02 2.650783024728298187e-02 3.548524901270866394e-02 1.738772145472466946e-03 -1.602121293544769287e-01 8.209432126022875309e-04 -4.691603034734725952e-02 7.698294520378112793e-02 7.886312901973724365e-02 1.842391639947891235e-01 -7.057194411754608154e-02 -1.512680947780609131e-01 -1.653181761503219604e-01 -8.517906814813613892e-02 5.618085619062185287e-03 -5.524362996220588684e-02 -1.111995242536067963e-02 1.054523810744285583e-01 -7.034805417060852051e-02 2.314475551247596741e-02 -4.068252071738243103e-02 2.202426455914974213e-02 -1.122220680117607117e-01 1.486756652593612671e-02 1.353326588869094849e-01 7.726490963250398636e-03 -6.287883967161178589e-02 -7.416757196187973022e-02 -8.929356187582015991e-02 -7.221730798482894897e-02 1.751875430345535278e-01 2.028160393238067627e-01 -2.073195390403270721e-02 9.593348205089569092e-02 -7.856807671487331390e-03 3.846778720617294312e-02 -7.571151852607727051e-02 -2.031724750995635986e-01 1.070510149002075195e-01 -6.319347769021987915e-02 3.870557993650436401e-03 2.967591956257820129e-02 -1.792727783322334290e-02 -3.252923116087913513e-02 2.112363092601299286e-02 -1.385665833950042725e-01 -1.888291537761688232e-01 -7.631830871105194092e-02 -7.149034738540649414e-02
9.589046239852905273e-03 -7.412831485271453857e-02 5.568540096282958984e-02 -9.497988224029541016e-02 1.606005616486072540e-02 -5.185823142528533936e-02 1.053028553724288940e-01 4.866479337215423584e-02 3.266227990388870239e-02 2.568492665886878967e-02 1.901123323477804661e-03 -1.784524880349636078e-02 6.690829247236251831e-02 1.560141053050756454e-02 -1.835496723651885986e-01 -1.110670939087867737e-01 -5.140018463134765625e-02 -1.248380541801452637e-02 2.943827584385871887e-02 1.434761881828308105e-01 1.033571176230907440e-02 -1.759584397077560425e-01 -6.974255293607711792e-02 6.276923418045043945e-02 -2.164819687604904175e-01 5.774605553597211838e-03 -2.206949517130851746e-02 -1.800869405269622803e-02 3.773892670869827271e-02 1.219815909862518311e-01 1.482572406530380249e-01 -3.475708514451980591e-02 -1.202761456370353699e-01 5.432694032788276672e-02 -6.412301957607269287e-02 -2.669367007911205292e-02 1.253658235073089600e-01 -7.067338377237319946e-02 -1.926849633455276489e-01 2.129109576344490051e-02 1.578566581010818481e-01 -1.281284093856811523e-01 2.515286440029740334e-03 -6.219661608338356018e-02 -1.112966686487197876e-01 6.914930883795022964e-03 -2.234002016484737396e-02 -4.768815357238054276e-03 -9.298781305551528931e-02 2.997925691306591034e-02 1.096870377659797668e-02 -2.109054923057556152e-01 1.154624074697494507e-01 6.297213258221745491e-04 -5.458935722708702087e-02 1.120941936969757080e-01 -5.552440881729125977e-02 -1.539311408996582031e-01 1.536637195385992527e-03 -1.147506176494061947e-03 9.676069952547550201e-03 5.850747227668762207e-02 -5.627753585577011108e-02 -1.171332597732543945e-02 -1.626701205968856812e-01 -9.414950758218765259e-02 -1.433413773775100708e-01 -7.909835129976272583e-02 -3.598450683057308197e-03 -3.447705507278442383e-02 9.355606883764266968e-02 6.976895034313201904e-02 3.903739899396896362e-02 1.042723581194877625e-01 5.118024721741676331e-02 1.048876345157623291e-01 -2.038532122969627380e-02 -9.767919033765792847e-02 -4.969934467226266861e-03 9.848473966121673584e-02 1.724742725491523743e-02 3.256198391318321228e-02 -5.200157687067985535e-02 2.118452079594135284e-02 1.105960384011268616e-01 -5.611363053321838379e-02 -1.575991511344909668e-02 3.548631817102432251e-02 -4.169626533985137939e-02 -1.675053387880325317e-01 -1.290608197450637817e-01 -2.837469428777694702e-02 1.852000132203102112e-02 -1.180594600737094879e-02 1.322099566459655762e-01 -2.434455789625644684e-02 -9.881380945444107056e-02 1.529062446206808090e-02 1.065890714526176453e-01 -2.209022082388401031e-02 -5.462250113487243652e-02 -1.322035938501358032e-01 7.044487446546554565e-02 -2.515849471092224121e-01 9.612295031547546387e-02 -3.003757074475288391e-02 4.170014709234237671e-02 -1.048786044120788574e-01 -1.145024150609970093e-01 1.073283255100250244e-01 1.952055282890796661e-02 1.448953449726104736e-01 1.728980541229248047e-01 -1.254939585924148560e-01 9.453510865569114685e-03 2.141870744526386261e-02 -1.837077364325523376e-02 3.195174038410186768e-02 2.521611191332340240e-02 2.114999853074550629e-02 -3.144993260502815247e-02 3.098693676292896271e-02 7.858809828758239746e-02 2.043259143829345703e-01 3.270886139944195747e-03 -9.676575660705566406e-02 -8.012244850397109985e-02 7.402230985462665558e-03 -4.148485511541366577e-02 1.667931973934173584e-01 9.373410139232873917e-04 -5.790876969695091248e-02 -2.397970482707023621e-02 -9.387962520122528076e-02 -1.128506194800138474e-02 1.151785179972648621e-01 -1.424899101257324219e-01 3.627025708556175232e-02 -7.628151029348373413e-02 9.535209089517593384e-02 8.069982379674911499e-02 -3.606970980763435364e-02 1.250471621751785278e-01 -7.284592092037200928e-02 1.788408756256103516e-01 8.265328407287597656e-02 5.585081502795219421e-02 -1.502303332090377808e-01 1.293116807937622070e-01 -6.481068581342697144e-02 -1.143248826265335083e-01 2.742054872214794159e-02 3.682563826441764832e-02 4.416501894593238831e-02 -3.943585231900215149e-02 5.594006273895502090e-03 5.903356894850730896e-02 2.315892651677131653e-02 5.431571602821350098e-02 8.702863752841949463e-02 -4.320939630270004272e-02 1.218500062823295593e-01 -7.553947716951370239e-02 6.449311971664428711e-02 6.227568164467811584e-02 2.757263742387294769e-02 -1.029537543654441833e-01 -9.950035065412521362e-02 -1.163106970489025116e-02 7.322011888027191162e-02 -1.485508382320404053e-01 -1.842679828405380249e-02 -2.030857950448989868e-01 1.216443032026290894e-01 -7.227414287626743317e-03 -5.801672860980033875e-02 -6.519812159240245819e-04 -1.035630255937576294e-01 -4.678469151258468628e-03 9.489536285400390625e-02 -8.365935832262039185e-02 1.650869473814964294e-02 -1.477294601500034332e-02 -1.598034799098968506e-01 4.498952999711036682e-02 3.503334522247314453e-02 -1.289654374122619629e-01 -1.407441310584545135e-02 -3.806819766759872437e-02 5.444397404789924622e-02 1.527488529682159424e-01 1.140416227281093597e-02 9.483778476715087891e-02 1.096407696604728699e-01 -6.084422022104263306e-02 -4.183731228113174438e-02 7.785496115684509277e-02 -5.977192148566246033e-02 4.777289181947708130e-02 2.025583237409591675e-01 -1.547226905822753906e-01 -4.348846524953842163e-02 -4.132265597581863403e-02 -8.326310664415359497e-02 -2.445753291249275208e-02 8.746518939733505249e-02 7.176364772021770477e-03 3.315445035696029663e-02 6.915684044361114502e-02 -7.639858871698379517e-02 -5.923178419470787048e-02 2.177904248237609863e-01 -1.305796802043914795e-01 -7.956836372613906860e-02 -4.030098021030426025e-02 -4.879615455865859985e-02 -2.039183303713798523e-02 -8.449172228574752808e-02 -1.233728006482124329e-01 7.647922635078430176e-02 6.824217736721038818e-02 -1.312177330255508423e-01 -8.500037342309951782e-02 -1.886036619544029236e-02 -6.048196554183959961e-02 -1.482693850994110107e-01 -3.988073393702507019e-02 -6.632785499095916748e-02 -2.234663255512714386e-02 1.112725469283759594e-03 2.474903687834739685e-02 -1.302936524152755737e-01 4.755929857492446899e-02 3.690116852521896362e-02 -6.609678268432617188e-02 -1.146436259150505066e-01 -1.142190694808959961e-01 -7.992623001337051392e-02 5.271686241030693054e-02 -1.156309503130614758e-03 -2.793639525771141052e-02 -4.534711316227912903e-02 -2.075661718845367432e-01 -2.799515612423419952e-02 -2.056121379137039185e-01 -1.684413254261016846e-01 -1.516790688037872314e-01 1.179006546735763550e-01 9.975550323724746704e-02 3.762738779187202454e-02 5.883502215147018433e-02 7.595561910420656204e-03 2.207485213875770569e-02 1.169585585594177246e-01 6.275382637977600098e-02 -1.265530940145254135e-02
-1.361187398433685303e-01 1.721709072589874268e-01 -2.521383203566074371e-02 -1.835947483777999878e-02 -3.572604805231094360e-02 9.547024220228195190e-02 -5.291202664375305176e-02 -7.475608494132757187e-03 -4.640699550509452820e-02 -9.706755727529525757e-02 1.066425964236259460e-01 -2.430008351802825928e-02 4.868480190634727478e-02 9.684745967388153076e-02 1.745170950889587402e-01 1.294987201690673828e-01 -1.399006843566894531e-01 4.258708562701940536e-03 -7.058005779981613159e-02 -1.230023652315139771e-01 -1.182932755909860134e-03 1.138175055384635925e-01 6.298512965440750122e-02 -3.745974600315093994e-02 -1.305378228425979614e-01 1.601233184337615967e-01 1.169170904904603958e-02 -7.687252759933471680e-02 -1.004248932003974915e-01 1.542837768793106079e-01 6.707842648029327393e-02 3.895654156804084778e-02 1.617971807718276978e-02 -6.200296804308891296e-02 -5.479134246706962585e-02 1.029675602912902832e-01 5.912558361887931824e-02 1.018611490726470947e-01 1.071281381882727146e-03 1.576938033103942871e-01 -8.387204259634017944e-03 -9.769024699926376343e-02 -7.332076132297515869e-02 -2.285739220678806305e-02 5.059106275439262390e-02 1.000259295105934143e-01 3.389841318130493164e-02 -9.483033791184425354e-03 -1.532180886715650558e-02 -6.220243871212005615e-02 4.864118993282318115e-03 -1.063076332211494446e-01 -9.960271418094635010e-02 6.781479716300964355e-02 -1.043723896145820618e-01 -8.630299568176269531e-02 5.153998360037803650e-02 8.022304624319076538e-02 -1.359072863124310970e-03 -4.941104352474212646e-02 3.675145283341407776e-02 1.539087574928998947e-02 1.666281968355178833e-01 5.364882573485374451e-02 1.039524003863334656e-01 -6.983579695224761963e-02 -5.169961974024772644e-02 -6.400851067155599594e-03 -1.207360848784446716e-01 -4.214815050363540649e-02 -2.486494369804859161e-02 -1.235914789140224457e-02 -1.902821511030197144e-01 4.737083241343498230e-02 -1.077700629830360413e-01 -1.639315485954284668e-02 5.935943499207496643e-02 3.755909204483032227e-02 -1.095142662525177002e-01 -1.894437074661254883e-01 -1.532809343189001083e-02 -1.031069308519363403e-01 -1.146919280290603638e-01 -1.296763308346271515e-02 1.379007101058959961e-02 5.225819069892168045e-03 6.794182956218719482e-02 3.318544849753379822e-02 -4.931679740548133850e-02 -9.952668100595474243e-02 -9.465122967958450317e-02 3.083659149706363678e-02 5.685294792056083679e-02 1.058116741478443146e-02 6.948170065879821777e-02 4.762118309736251831e-02 -6.939043104648590088e-02 -7.713977247476577759e-02 2.407061681151390076e-02 -3.534511104226112366e-02 -4.901770129799842834e-02 -2.322713285684585571e-02 -1.117174178361892700e-01 1.690449118614196777e-01 -1.503773629665374756e-01 7.022365182638168335e-02 3.803804516792297363e-02 -1.115118414163589478e-01 4.003674536943435669e-02 2.369460463523864746e-02 1.725275814533233643e-01 2.451624954119324684e-03 1.507298648357391357e-01 -9.883976727724075317e-02 -3.697517886757850647e-02 -4.674604162573814392e-02 5.947799235582351685e-02 1.883673667907714844e-01 -4.606600105762481689e-02 4.432810097932815552e-02 -3.966682404279708862e-02 5.768270045518875122e-02 -1.426563318818807602e-02 6.070679426193237305e-02 1.000675112009048462e-01 -2.992046996951103210e-02 4.394811764359474182e-02 -6.407516449689865112e-02 9.066709131002426147e-02 -1.128188595175743103e-01 -2.247942425310611725e-02 -8.052106946706771851e-02 -1.793246418237686157e-01 -1.529261283576488495e-02 7.169476151466369629e-02 -1.047520339488983154e-02 1.022242680191993713e-01 1.477829297073185444e-03 1.391299813985824585e-01 -1.031471341848373413e-01 8.386685699224472046e-02 6.410627067089080811e-02 -1.202795095741748810e-02 6.260958313941955566e-02 -7.474077492952346802e-02 -2.851984798908233643e-01 1.662907302379608154e-01 -6.692571938037872314e-02 1.226183325052261353e-01 2.532409504055976868e-02 -7.793707400560379028e-02 5.836261063814163208e-02 -1.515755057334899902e-01 -4.975810181349515915e-03 -2.053184211254119873e-01 -1.631149202585220337e-01 -2.072555758059024811e-02 -1.136974841356277466e-01 -1.205943673849105835e-01 -8.717689663171768188e-03 -1.102873831987380981e-01 3.021818771958351135e-02 -7.405674457550048828e-02 1.357926577329635620e-01 -2.120174095034599304e-02 -8.927211910486221313e-02 1.411657482385635376e-01 8.830776065587997437e-02 -5.524184554815292358e-02 -1.912183500826358795e-02 8.871372789144515991e-02 2.145091630518436432e-02 1.049435064196586609e-01 -5.624729394912719727e-02 -1.469971388578414917e-01 -9.299468994140625000e-02 5.304966121912002563e-02 -1.785160787403583527e-02 -1.004712563008069992e-02 -2.525361068546772003e-02 8.367207832634449005e-03 -7.845383882522583008e-02 -1.464401334524154663e-01 1.039899792522192001e-02 8.912070840597152710e-02 8.402109146118164062e-02 2.734094858169555664e-02 6.186005473136901855e-02 1.445020139217376709e-01 -1.140027120709419250e-01 1.088229715824127197e-01 -2.369041554629802704e-03 1.896798014640808105e-01 4.590906668454408646e-03 -3.718902170658111572e-02 -1.309464126825332642e-01 -7.026383280754089355e-02 -9.692690521478652954e-02 8.424178510904312134e-02 3.332854434847831726e-02 1.641991734504699707e-01 -9.586158394813537598e-02 -2.528786472976207733e-02 -7.825708389282226562e-02 -1.448052376508712769e-01 6.878723949193954468e-02 -3.635995090007781982e-02 -2.959069609642028809e-02 -3.323491290211677551e-02 -1.048755459487438202e-02 -5.542883276939392090e-02 5.294429883360862732e-02 -5.812200903892517090e-02 -4.999585449695587158e-03 -7.941652089357376099e-02 5.987390875816345215e-02 -8.026602119207382202e-02 -1.109174340963363647e-01 -1.187375411391258240e-01 -3.252742812037467957e-02 -1.223239302635192871e-02 -9.411101345904171467e-04 -2.604506723582744598e-02 1.815638691186904907e-01 -1.307298243045806885e-01 -1.078316867351531982e-01 2.454331843182444572e-03 1.235197484493255615e-02 1.906648129224777222e-01 1.642363495193421841e-04 1.185781806707382202e-01 -1.506106704473495483e-01 -4.145869612693786621e-02 -2.302328310906887054e-02 -8.517850190401077271e-02 -8.141049742698669434e-02 -8.499004691839218140e-02 -1.515246778726577759e-01 8.428129553794860840e-02 8.215790987014770508e-02 -9.279003739356994629e-02 -1.181103140115737915e-01 -9.611953049898147583e-02 -1.164593175053596497e-01 8.114941418170928955e-02 9.799011051654815674e-03 -5.612287670373916626e-02 3.242291882634162903e-02 7.011929899454116821e-02 6.123929750174283981e-03 -3.650465514510869980e-03 2.361881174147129059e-02 3.423416242003440857e-02 1.475118994712829590e-01 -7.995171844959259033e-02 -1.071640551090240479e-01
9.739348292350769043e-02 -6.103678140789270401e-03 4.540542513132095337e-02 4.617065936326980591e-02 6.734101474285125732e-02 -1.040016859769821167e-01 -6.521345674991607666e-02 1.520876288414001465e-01 4.311470314860343933e-02 6.845249980688095093e-02 1.186969969421625137e-02 4.172820970416069031e-02 -7.302665710449218750e-02 1.473356187343597412e-01 -1.109648309648036957e-02 1.821609586477279663e-02 6.932105123996734619e-02 1.130169630050659180e-01 5.515347048640251160e-02 1.953885406255722046e-01 9.413851797580718994e-02 -5.640115588903427124e-02 6.841991841793060303e-02 8.930243551731109619e-02 1.483424454927444458e-01 -1.344781219959259033e-01 -1.735586374998092651e-01 1.496715657413005829e-02 -1.311552077531814575e-01 -5.400861054658889771e-02 3.744047135114669800e-02 4.905576258897781372e-02 -7.920092903077602386e-03 5.595684517174959183e-03 4.251478239893913269e-02 -3.024261444807052612e-02 -1.880640983581542969e-01 2.045969106256961823e-02 3.904003649950027466e-03 -5.783132277429103851e-03 -4.838951304554939270e-02 -1.134100928902626038e-01 -5.437811464071273804e-02 -1.883362047374248505e-02 -6.140765547752380371e-02 -1.156695857644081116e-01 -8.251728489995002747e-03 9.451705031096935272e-03 -6.072107702493667603e-02 1.285049170255661011e-01 3.220372647047042847e-02 -9.590447880327701569e-03 -8.903055638074874878e-02 1.032079458236694336e-01 2.526210807263851166e-02 9.088620543479919434e-02 1.393691748380661011e-01 -1.588054001331329346e-01 4.668137989938259125e-03 8.930934220552444458e-02 5.988239496946334839e-02 -4.677220061421394348e-02 -3.059742227196693420e-02 8.814238943159580231e-03 -1.061863265931606293e-02 9.770602919161319733e-03 -9.626685082912445068e-02 1.418649703264236450e-01 6.715951114892959595e-02 -2.271373011171817780e-02 1.435169279575347900e-01 -2.479471266269683838e-02 -5.545816197991371155e-02 -8.036684989929199219e-02 2.006749063730239868e-02 -2.351860702037811279e-01 -4.837907850742340088e-02 -2.473051659762859344e-02 -5.509743839502334595e-02 -2.644478576257824898e-03 6.751517206430435181e-02 -4.578642547130584717e-02 -9.542738646268844604e-02 6.110946461558341980e-02 -6.831687688827514648e-02 1.477996557950973511e-01 -6.619034707546234131e-02 6.280709803104400635e-02 -1.768368482589721680e-01 7.305909693241119385e-02 -2.578023672103881836e-01 1.223537139594554901e-02 -1.015921682119369507e-01 3.955087438225746155e-02 -1.120536923408508301e-01 -8.674070239067077637e-03 5.008340626955032349e-02 -4.339686036109924316e-02 -1.244314536452293396e-01 -5.052171647548675537e-03 -1.374885626137256622e-02 6.841702014207839966e-02 -3.111958317458629608e-02 -3.802771121263504028e-02 2.211453393101692200e-02 4.787089303135871887e-02 -3.058131970465183258e-02 -1.680845320224761963e-01 6.193867698311805725e-02 -1.153703629970550537e-01 1.147300004959106445e-01 2.980618365108966827e-02 3.283003717660903931e-02 -1.053237691521644592e-01 5.370148271322250366e-02 -3.780965507030487061e-02 3.676811605691909790e-02 -4.705771338194608688e-03 -1.027141958475112915e-01 4.167640209197998047e-02 -3.137622028589248657e-02 7.856077700853347778e-02 1.370741426944732666e-02 -4.162768647074699402e-02 -7.903199642896652222e-02 -1.770374737679958344e-02 4.935086891055107117e-02 -2.132956832647323608e-01 3.661920549347996712e-03 -1.070636287331581116e-01 2.320655435323715210e-02 -2.596492506563663483e-02 5.143876001238822937e-02 3.942712768912315369e-02 3.245500102639198303e-02 -4.783115163445472717e-02 6.714800000190734863e-02 1.855661906301975250e-02 -1.260659936815500259e-02 -1.090162172913551331e-01 -8.216521888971328735e-02 2.461996860802173615e-02 5.878148134797811508e-03 4.763650649692863226e-04 2.084972262382507324e-01 6.381117552518844604e-02 9.018517285585403442e-02 9.895289689302444458e-02 1.872102320194244385e-01 -5.126279965043067932e-02 -6.622783839702606201e-04 -5.672791227698326111e-02 -7.923866063356399536e-02 -1.174183636903762817e-01 3.821728006005287170e-02 -1.922579407691955566e-01 -1.001358479261398315e-01 -8.734777569770812988e-02 8.977712690830230713e-02 1.112697571516036987e-01 -1.014917274005711079e-03 1.453316211700439453e-02 9.078468382358551025e-02 3.186997026205062866e-02 1.837203800678253174e-01 -2.183732092380523682e-01 4.449018277227878571e-03 -7.754874229431152344e-02 4.331632703542709351e-02 -8.847224712371826172e-02 8.091319352388381958e-03 -1.896266937255859375e-01 -2.187980115413665771e-01 -2.612834423780441284e-02 1.004779338836669922e-01 6.563217937946319580e-02 -9.670353680849075317e-02 -7.876163348555564880e-03 -9.324000775814056396e-02 -6.823792308568954468e-02 -5.266237631440162659e-02 -8.191963285207748413e-02 5.796664208173751831e-02 -4.319497570395469666e-02 2.682819589972496033e-02 -1.766050457954406738e-01 1.695742905139923096e-01 -8.020297437906265259e-02 -1.950439810752868652e-02 -1.702199578285217285e-01 3.915590047836303711e-02 5.373227596282958984e-02 -1.767849735915660858e-02 -1.764714866876602173e-01 -4.145836085081100464e-02 1.012545973062515259e-01 -1.368597894906997681e-01 -1.181532219052314758e-01 -1.804106682538986206e-01 -5.168564990162849426e-02 -3.361549228429794312e-02 9.342823177576065063e-03 -1.648473143577575684e-01 -3.543383255600929260e-02 3.096314333379268646e-02 -8.557912707328796387e-02 1.251834165304899216e-02 -1.094343662261962891e-01 -1.080263108015060425e-01 -2.127768844366073608e-02 -7.836337387561798096e-02 1.135013103485107422e-01 -9.505940973758697510e-02 4.563637822866439819e-02 -3.635105118155479431e-02 7.774534821510314941e-02 2.428055740892887115e-02 -1.367584317922592163e-01 -7.317472249269485474e-02 -1.972855180501937866e-01 3.688908368349075317e-02 2.005508989095687866e-01 -1.340410485863685608e-02 -1.734794001094996929e-03 -9.265426546335220337e-02 4.549342766404151917e-02 -1.170180514454841614e-01 -1.319836173206567764e-02 1.267030239105224609e-01 -1.160009726881980896e-01 -5.621276050806045532e-02 8.496548235416412354e-02 1.765992608852684498e-03 4.746489226818084717e-02 -1.459743827581405640e-01 -3.077743016183376312e-02 -5.756700783967971802e-02 2.719485945999622345e-02 1.088417991995811462e-01 -1.053133234381675720e-01 6.501716375350952148e-02 -2.166516892611980438e-02 -1.784626394510269165e-02 4.645555466413497925e-02 4.448121041059494019e-02 4.137773066759109497e-02 3.711735829710960388e-02 2.909808419644832611e-02 7.029112428426742554e-02 2.824878320097923279e-02 -1.185365840792655945e-01 -5.059799551963806152e-02 6.294026970863342285e-02 5.037267506122589111e-02 -1.726363301277160645e-01 1.281687170267105103e-01
-8.179783821105957031e-03 1.069768592715263367e-01 -2.652052976191043854e-02 -5.415885150432586670e-02 -8.574254810810089111e-02 2.295031445100903511e-03 1.155055407434701920e-02 -8.815976977348327637e-02 -8.109419047832489014e-02 1.002389788627624512e-01 -1.069447100162506104e-01 -1.430148035287857056e-01 -1.135599836707115173e-01 -1.200269684195518494e-01 1.353164017200469971e-01 1.400074660778045654e-01 2.213924750685691833e-02 -2.414873801171779633e-02 7.475846912711858749e-03 -7.380731403827667236e-02 -1.130754053592681885e-01 -1.961182355880737305e-01 -1.736878156661987305e-01 -8.970265276730060577e-03 2.729564346373081207e-02 5.045876372605562210e-03 6.479017436504364014e-02 9.335581213235855103e-02 8.707015961408615112e-02 -1.390793919563293457e-01 4.124705493450164795e-02 -5.045308172702789307e-02 -1.243973672389984131e-01 6.963164359331130981e-02 1.046763584017753601e-01 -1.067315712571144104e-01 -2.552993409335613251e-02 -4.383138567209243774e-02 -9.613035619258880615e-02 1.090639755129814148e-01 -4.213063791394233704e-02 6.221846863627433777e-02 1.848775660619139671e-03 -5.589267984032630920e-02 -6.578375119715929031e-03 3.356257081031799316e-02 1.868572272360324860e-02 -1.546826511621475220e-01 -1.356297917664051056e-02 -1.202996149659156799e-01 -1.577740311622619629e-01 -6.536061316728591919e-02 -1.186993941664695740e-01 -6.111326441168785095e-02 3.042783122509717941e-03 1.479993108659982681e-02 -8.236688375473022461e-02 7.458468526601791382e-02 -1.264219582080841064e-01 1.209840402007102966e-01 6.609592586755752563e-02 4.522899165749549866e-02 -8.448795229196548462e-02 9.925217926502227783e-02 2.629914283752441406e-01 -6.340951472520828247e-02 1.064599454402923584e-01 -6.680701673030853271e-02 7.342180609703063965e-02 -7.544958591461181641e-02 6.006664410233497620e-02 -2.450279891490936279e-02 -1.117717549204826355e-01 8.576657623052597046e-02 1.087110191583633423e-01 -7.850037515163421631e-02 -5.186251364648342133e-03 -1.334295123815536499e-01 1.116161197423934937e-01 -1.213243529200553894e-01 -3.855388239026069641e-02 2.493494888767600060e-03 -3.374639153480529785e-02 -9.382865577936172485e-02 -4.921083897352218628e-02 2.278663963079452515e-02 1.794133335351943970e-01 -1.747121848165988922e-02 1.460041105747222900e-01 -9.346491843461990356e-02 1.099565718322992325e-02 2.812393195927143097e-02 3.538549691438674927e-02 -3.565809875726699829e-02 -1.381886005401611328e-01 1.208547726273536682e-01 3.859098255634307861e-02 -2.032914385199546814e-02 -1.159765645861625671e-01 -8.211987465620040894e-02 -1.596014499664306641e-01 8.821278810501098633e-02 -6.101575493812561035e-02 1.864074356853961945e-02 -1.740964502096176147e-01 -1.392878592014312744e-01 2.618639543652534485e-02 6.045675277709960938e-02 -1.988255828619003296e-01 -9.134177863597869873e-02 -6.264889240264892578e-02 6.992367655038833618e-02 -8.826320618391036987e-02 2.036898583173751831e-02 4.024636745452880859e-02 -5.768778175115585327e-02 -1.355434209108352661e-01 7.050064951181411743e-02 -7.919644005596637726e-03 1.172368153929710388e-01 -6.261850893497467041e-02 2.026030570268630981e-01 1.380106657743453979e-01 -5.845227837562561035e-02 1.301123052835464478e-01 1.039681136608123779e-01 -3.353428840637207031e-02 -9.587304294109344482e-02 9.601395577192306519e-02 -6.111235171556472778e-02 3.064196556806564331e-02 5.589523538947105408e-02 1.408805847167968750e-01 -1.061954125761985779e-01 -1.418975889682769775e-01 -6.697072833776473999e-02 -1.188733130693435669e-01 -1.039854809641838074e-01 -3.741858154535293579e-02 -9.828624129295349121e-02 -3.553615882992744446e-02 4.851597175002098083e-02 -2.406218945980072021e-01 2.204545959830284119e-02 -1.717763394117355347e-02 2.191947959363460541e-02 -1.425137650221586227e-02 5.431718006730079651e-02 1.608213037252426147e-01 -9.517187625169754028e-02 1.858133450150489807e-02 4.268561303615570068e-02 7.208921760320663452e-02 6.718055903911590576e-02 7.873886078596115112e-02 -1.619367748498916626e-01 9.105105698108673096e-02 -2.637841366231441498e-02 -1.779897361993789673e-01 -9.593891911208629608e-03 3.731184825301170349e-02 1.220327019691467285e-01 -5.169864743947982788e-02 -2.352712303400039673e-02 -4.702948499470949173e-03 6.606669723987579346e-02 -6.512522697448730469e-02 -7.980225980281829834e-02 5.492139142006635666e-03 1.282630711793899536e-01 -7.619205117225646973e-02 7.864038646221160889e-02 -7.679706066846847534e-02 -6.140018999576568604e-02 -6.345082074403762817e-02 -3.939055278897285461e-02 -6.229666620492935181e-02 3.663757815957069397e-02 1.830272227525711060e-01 -1.497369110584259033e-01 4.943105950951576233e-02 -9.962254017591476440e-02 -1.633075624704360962e-01 -2.266013026237487793e-01 9.451520629227161407e-03 -1.955984393134713173e-03 -1.887209713459014893e-01 -6.083125621080398560e-02 -5.428155884146690369e-02 3.493715450167655945e-02 -3.811375424265861511e-02 -1.365311763947829604e-04 -3.977311775088310242e-02 -9.451679140329360962e-02 -4.215705022215843201e-02 1.080964729189872742e-01 4.006861150264739990e-02 -5.536550283432006836e-02 -1.771503686904907227e-01 1.035809963941574097e-01 -7.377513498067855835e-02 1.297603845596313477e-01 -2.870427630841732025e-02 2.196009457111358643e-02 -4.664463549852371216e-02 2.721904963254928589e-02 -6.121961772441864014e-02 1.031291298568248749e-02 8.772798627614974976e-02 -6.450565904378890991e-02 -1.122253909707069397e-01 -1.410141736268997192e-01 -2.851374819874763489e-02 -4.635880142450332642e-02 -8.964388817548751831e-02 -1.508128046989440918e-01 -1.169443223625421524e-02 -1.041590049862861633e-01 6.864583492279052734e-02 -7.567659765481948853e-02 -7.266736775636672974e-02 -1.335140224546194077e-02 3.127379715442657471e-02 1.585776656866073608e-01 -9.009549021720886230e-02 9.610235691070556641e-02 -8.359763771295547485e-02 -1.272799074649810791e-01 2.138705551624298096e-02 -1.074517592787742615e-01 3.649416938424110413e-02 -3.675998002290725708e-02 9.193151444196701050e-02 -1.018890812993049622e-01 -1.403519231826066971e-02 -1.623156517744064331e-01 -2.956501208245754242e-02 -1.998549513518810272e-02 9.890718013048171997e-02 -1.236040294170379639e-01 4.029479250311851501e-02 2.252446254715323448e-03 -3.760897740721702576e-02 1.597496867179870605e-01 -5.164793506264686584e-02 -6.055748462677001953e-02 -5.440334230661392212e-02 7.286361884325742722e-03 -8.352672308683395386e-02 1.423613447695970535e-02 -1.079930663108825684e-01 3.910526260733604431e-02 1.535943746566772461e-01 -4.875789210200309753e-02 -1.003694683313369751e-01 -1.725143939256668091e-02
-3.478238731622695923e-02 -5.200000852346420288e-02 -1.230619549751281738e-01 3.496116399765014648e-02 -1.175979003310203552e-01 3.496314585208892822e-02 -2.703309990465641022e-03 6.225793063640594482e-02 3.681322187185287476e-02 2.330215461552143097e-02 1.232332922518253326e-02 9.854922443628311157e-02 -1.114653497934341431e-01 -1.474431902170181274e-02 -3.397060930728912354e-02 1.188825964927673340e-01 1.001813784241676331e-01 -5.067735537886619568e-02 6.662204861640930176e-02 -7.888878695666790009e-03 -1.075672358274459839e-01 -7.438050210475921631e-02 3.597482293844223022e-02 -3.376349061727523804e-02 -1.982084289193153381e-02 -3.416643664240837097e-02 4.671720042824745178e-02 -4.760763794183731079e-02 -1.106185317039489746e-01 -5.827229097485542297e-02 -1.925557444337755442e-04 1.564183086156845093e-01 1.212464347481727600e-01 1.205037981271743774e-01 3.881780058145523071e-02 -6.909569725394248962e-03 2.746488153934478760e-02 -7.363563776016235352e-02 7.362997531890869141e-02 -8.844460546970367432e-02 -2.696693129837512970e-02 -1.194030493497848511e-01 -1.097344681620597839e-01 -1.645186096429824829e-01 -1.006191782653331757e-02 -4.194156453013420105e-02 2.216508388519287109e-01 -1.591680943965911865e-01 -1.907754689455032349e-02 -2.310683019459247589e-03 -6.171038374304771423e-02 -6.246700882911682129e-02 1.617022044956684113e-02 -6.194835528731346130e-02 2.154255807399749756e-01 -2.307867072522640228e-02 1.759532652795314789e-02 -2.591878175735473633e-02 -4.769409820437431335e-02 -2.369552850723266602e-02 1.111012101173400879e-01 -4.211462289094924927e-02 -3.668980672955513000e-02 -1.491478979587554932e-01 -1.525658648461103439e-02 9.370937943458557129e-02 2.997393533587455750e-02 -1.879255920648574829e-01 -1.214814856648445129e-01 2.068923041224479675e-02 -1.336788684129714966e-01 -5.587103590369224548e-02 1.251670569181442261e-01 2.155843377113342285e-02 -1.013303548097610474e-01 1.673099845647811890e-01 -6.041029840707778931e-02 -3.135874867439270020e-02 1.102021262049674988e-01 -3.665829822421073914e-02 7.771784812211990356e-02 1.600124314427375793e-02 -7.679697126150131226e-02 -2.479532361030578613e-01 9.312152117490768433e-02 1.745546311140060425e-01 2.133471332490444183e-02 4.840883426368236542e-03 -1.887297630310058594e-01 -8.506560325622558594e-02 9.462004154920578003e-02 -2.775103412568569183e-02 -1.175693422555923462e-01 -1.913784630596637726e-02 -4.997638240456581116e-02 -2.861943840980529785e-02 -1.560599207878112793e-01 -1.154660433530807495e-01 2.176850475370883942e-02 -5.531369894742965698e-02 1.168930307030677795e-01 5.036843568086624146e-02 -5.737455934286117554e-02 -1.368456929922103882e-01 2.801665849983692169e-02 -3.463464090600609779e-03 1.584296524524688721e-01 -1.424822062253952026e-01 -1.103214323520660400e-01 -7.895271480083465576e-02 1.189887430518865585e-02 8.593737334012985229e-02 -7.098986301571130753e-03 5.644112825393676758e-02 1.309168934822082520e-01 -7.055179774761199951e-02 2.803964540362358093e-02 7.076255232095718384e-02 -1.130350306630134583e-02 1.140892282128334045e-01 1.151140313595533371e-02 -1.263765841722488403e-01 -3.826963528990745544e-02 5.915815010666847229e-02 -1.833162084221839905e-02 7.716776430606842041e-02 1.412718892097473145e-01 -1.917420625686645508e-01 -7.052551954984664917e-02 6.998522207140922546e-03 -4.136417433619499207e-02 -3.662791475653648376e-02 -1.385642290115356445e-01 4.565305635333061218e-02 7.165539264678955078e-02 5.849228054285049438e-02 3.931439295411109924e-02 -8.430996537208557129e-02 6.922428309917449951e-02 -4.197530075907707214e-02 -4.379110038280487061e-02 1.376489829272031784e-02 -1.092417612671852112e-01 -9.382229298353195190e-02 -7.156977802515029907e-02 -7.438629865646362305e-02 1.461730897426605225e-01 -4.305317532271146774e-03 -2.526292018592357635e-02 -2.961865440011024475e-02 -3.098168969154357910e-02 9.176658838987350464e-02 -8.522563427686691284e-02 3.395985066890716553e-02 3.181245177984237671e-02 5.965539440512657166e-02 3.503232449293136597e-02 -3.638118878006935120e-02 -3.351693227887153625e-02 1.070672646164894104e-02 5.404321849346160889e-02 1.766671240329742432e-01 7.556919008493423462e-02 -3.723863512277603149e-02 3.642052039504051208e-02 -6.093019992113113403e-02 -8.979532122611999512e-02 -6.508372724056243896e-02 -2.662771940231323242e-02 -1.102616172283887863e-02 -1.460386365652084351e-01 -3.196927253156900406e-03 1.820292510092258453e-02 1.585282832384109497e-01 -1.631230302155017853e-02 3.285672515630722046e-03 5.336702987551689148e-02 -2.325474284589290619e-02 4.753363505005836487e-02 -1.060171127319335938e-01 -1.172867938876152039e-01 1.122535318136215210e-01 -1.444508731365203857e-01 1.246405690908432007e-01 -5.264766141772270203e-02 5.651770904660224915e-02 -6.017720699310302734e-02 -1.834890432655811310e-02 2.734686620533466339e-02 -8.306733332574367523e-03 -9.195790439844131470e-02 1.362639814615249634e-01 -6.233395263552665710e-02 -1.662947833538055420e-01 -6.785830110311508179e-02 -1.308902055025100708e-01 -1.215965151786804199e-01 1.564631611108779907e-02 1.040579378604888916e-01 4.498451203107833862e-02 5.293234810233116150e-02 -2.181343436241149902e-01 4.593190923333168030e-02 -1.761727221310138702e-02 1.694352775812149048e-01 -2.072045356035232544e-01 1.281739175319671631e-01 -3.593877702951431274e-02 2.008267119526863098e-02 1.383539438247680664e-01 1.455102562904357910e-01 -1.471226662397384644e-01 -5.032471381127834320e-03 -8.337841928005218506e-02 -1.119320373982191086e-02 -9.113392233848571777e-02 -1.776660978794097900e-01 4.817909002304077148e-02 -4.892450943589210510e-02 7.561247795820236206e-02 7.780549675226211548e-02 1.074911579489707947e-01 -1.776591315865516663e-02 5.176528170704841614e-02 -1.493824739009141922e-02 5.214873701333999634e-02 -1.516274660825729370e-01 -1.630801409482955933e-01 -1.026163399219512939e-01 1.719070672988891602e-01 -8.670315146446228027e-02 2.868165075778961182e-02 1.553657501935958862e-01 8.555062860250473022e-02 -3.993601724505424500e-02 3.997292369604110718e-02 -6.717424094676971436e-02 -8.979151397943496704e-02 -1.059123035520315170e-02 2.114583924412727356e-02 -3.861124441027641296e-02 -8.294211328029632568e-02 -1.168983429670333862e-01 -3.330002352595329285e-02 6.608424335718154907e-02 8.562856912612915039e-02 -6.246502697467803955e-02 8.549929410219192505e-02 3.853948414325714111e-02 3.154808422550559044e-03 2.867612242698669434e-02 -2.808886207640171051e-02 -8.669424802064895630e-03 -4.474463686347007751e-02 9.847784787416458130e-02 1.155055463314056396e-01
-1.690091378986835480e-02 -7.101174443960189819e-02 -1.521812826395034790e-01 -7.205664366483688354e-02 -8.252906054258346558e-02 7.462023943662643433e-02 -2.095874585211277008e-02 1.171152144670486450e-01 -9.163998812437057495e-02 -2.168926969170570374e-02 -1.203563623130321503e-02 2.502905018627643585e-02 -6.621429324150085449e-02 1.363038867712020874e-01 -5.013527348637580872e-02 1.262689530849456787e-01 6.566310767084360123e-03 -2.041462361812591553e-01 1.185713037848472595e-01 -1.251658946275711060e-01 -3.293935954570770264e-02 -1.094701364636421204e-01 -5.317748710513114929e-02 -1.282910704612731934e-01 -8.048486895859241486e-03 8.716836571693420410e-02 1.779906451702117920e-01 6.565207242965698242e-02 -1.327565219253301620e-02 7.259595394134521484e-02 -7.075129449367523193e-02 -5.379170179367065430e-02 3.633405268192291260e-02 2.451972849667072296e-02 -9.298956394195556641e-02 -7.691597193479537964e-02 1.499382257461547852e-01 1.817254535853862762e-02 -8.219118416309356689e-02 -2.046381356194615364e-03 -7.218124717473983765e-02 -6.183318793773651123e-02 1.750385761260986328e-01 4.713640362024307251e-02 -1.934296451508998871e-02 1.695224270224571228e-02 1.133126616477966309e-01 -7.699628919363021851e-02 -3.539329394698143005e-02 -2.520481348037719727e-01 2.415480613708496094e-01 -7.573682069778442383e-02 1.195227205753326416e-01 -6.397829949855804443e-02 -5.087365210056304932e-02 8.540263772010803223e-02 -3.808092325925827026e-03 -1.886186301708221436e-01 -8.701431006193161011e-02 -4.868611320853233337e-02 1.041800826787948608e-01 1.963532567024230957e-01 -1.159383729100227356e-01 1.054278165102005005e-01 1.652856618165969849e-01 -1.023922041058540344e-01 9.849350899457931519e-02 1.298188865184783936e-01 2.411169186234474182e-02 2.351531758904457092e-02 -1.091838814318180084e-03 1.562656909227371216e-01 3.934097476303577423e-03 -1.010880619287490845e-01 -6.851029396057128906e-02 -2.805654518306255341e-02 -6.367371231317520142e-02 -6.818461115472018719e-04 1.748818345367908478e-02 -9.103890508413314819e-02 -2.919683419167995453e-02 6.149752810597419739e-02 4.713761061429977417e-02 4.867502301931381226e-02 -1.070754826068878174e-01 -7.064192742109298706e-02 -5.792485922574996948e-02 1.214513834565877914e-02 8.951059542596340179e-03 9.928658604621887207e-03 7.075868081301450729e-03 -1.759017817676067352e-02 -1.214049383997917175e-02 8.978398889303207397e-02 -1.874488033354282379e-02 -1.373399421572685242e-02 1.421585977077484131e-01 -4.380921274423599243e-02 -2.182234227657318115e-01 2.971460111439228058e-02 -3.804359957575798035e-02 2.270921133458614349e-02 -5.224252119660377502e-02 1.436997018754482269e-02 -1.585447341203689575e-01 1.034373939037322998e-01 -8.955007418990135193e-03 4.640149325132369995e-02 1.814092695713043213e-02 -2.304678224027156830e-02 -7.108747493475675583e-03 6.675192713737487793e-02 5.812353268265724182e-02 1.881886087357997894e-02 -1.461657732725143433e-01 2.238185890018939972e-02 4.584947600960731506e-02 -6.264786422252655029e-02 1.109778657555580139e-01 -2.054646760225296021e-01 9.104763716459274292e-02 -2.371068485081195831e-02 -5.354398488998413086e-02 6.530618667602539062e-02 3.640431165695190430e-02 7.452801801264286041e-03 -3.537976369261741638e-02 9.958912432193756104e-02 2.807050384581089020e-02 -2.008959650993347168e-03 2.584541775286197662e-02 6.978172063827514648e-02 3.666077740490436554e-03 4.967930167913436890e-02 6.541660428047180176e-02 -1.286398768424987793e-01 1.332358270883560181e-01 -5.780648440122604370e-02 -9.087318927049636841e-02 -3.957647457718849182e-02 -8.681615442037582397e-02 -6.313742697238922119e-02 -2.259975299239158630e-02 -1.190309301018714905e-01 -1.159843057394027710e-01 -4.496452864259481430e-03 -2.868388034403324127e-02 -8.379213511943817139e-03 -1.505926437675952911e-02 7.246305234730243683e-03 -5.920365080237388611e-02 -2.724754158407449722e-03 4.700656980276107788e-02 -6.281931698322296143e-02 1.717119291424751282e-02 -3.416268900036811829e-02 -1.279983390122652054e-02 2.507225843146443367e-03 2.031567273661494255e-03 -1.011909823864698410e-02 1.750919222831726074e-01 2.612220942974090576e-01 1.808875240385532379e-02 -6.786209531128406525e-03 -6.659373641014099121e-02 -2.741196379065513611e-02 2.995423786342144012e-02 -1.865159720182418823e-01 3.375432267785072327e-02 -1.336529403924942017e-01 -1.602079719305038452e-02 -1.560531854629516602e-01 -2.031683772802352905e-01 5.662189424037933350e-02 3.650323720648884773e-03 -6.514585763216018677e-02 1.342613901942968369e-02 1.155849173665046692e-01 -2.852696552872657776e-02 5.355202127248048782e-03 -2.477966435253620148e-02 1.091279760003089905e-01 -1.086778640747070312e-01 6.904762238264083862e-02 1.196173653006553650e-01 1.683092676103115082e-02 2.499672025442123413e-02 5.619267467409372330e-03 5.089928209781646729e-02 1.513562537729740143e-02 -1.361507549881935120e-02 -3.090265579521656036e-02 8.867076784372329712e-02 -6.424614787101745605e-02 -1.175553947687149048e-01 -1.297548711299896240e-01 -7.544767111539840698e-02 1.739252125844359398e-03 -3.104431554675102234e-02 7.232217490673065186e-02 -3.141267225146293640e-03 9.530515968799591064e-02 6.030840054154396057e-02 -1.544828806072473526e-02 -3.434906899929046631e-02 1.285010874271392822e-01 -4.860037937760353088e-02 1.280271168798208237e-02 6.788612157106399536e-02 -2.639523334801197052e-02 -1.670876890420913696e-01 -3.907466307282447815e-02 1.735243797302246094e-01 7.803019881248474121e-02 1.044559404253959656e-01 -3.900063037872314453e-02 -1.704406887292861938e-01 1.131577864289283752e-01 -1.346257328987121582e-01 -3.131522797048091888e-03 1.165220290422439575e-01 -6.921233236789703369e-02 -3.021704591810703278e-02 -1.164772957563400269e-01 1.618777215480804443e-02 -2.175874114036560059e-01 6.740787648595869541e-04 -2.431391552090644836e-02 -4.279841855168342590e-02 -5.551284179091453552e-02 -2.593909204006195068e-01 9.476763010025024414e-02 -1.235773488879203796e-01 3.611871227622032166e-02 5.490909889340400696e-02 -3.304042294621467590e-02 -1.365328133106231689e-01 -3.713523596525192261e-02 3.922671545296907425e-03 -7.539226114749908447e-02 1.658782660961151123e-01 -8.773905038833618164e-02 1.596098244190216064e-01 -8.289334364235401154e-03 -1.661371439695358276e-01 -2.958082128316164017e-03 -6.171820312738418579e-02 1.354917883872985840e-01 -6.207428500056266785e-02 6.403646618127822876e-02 -7.906085252761840820e-02 -4.891419410705566406e-02 -6.954438518732786179e-03 -7.897600531578063965e-02 -1.019644960761070251e-01 2.482939511537551880e-02
-8.304736018180847168e-02 8.630982786417007446e-02 -1.897802203893661499e-01 2.304804325103759766e-02 6.204042956233024597e-02 -1.283451914787292480e-01 2.557704038918018341e-02 -9.268669039011001587e-02 1.584704369306564331e-01 9.268358349800109863e-02 1.141347214579582214e-01 -6.663070619106292725e-02 -7.537775486707687378e-02 -1.403588801622390747e-01 9.392020106315612793e-02 2.634554728865623474e-02 9.698659181594848633e-02 -4.496081173419952393e-02 -7.034890353679656982e-02 -2.579402178525924683e-02 -1.288826018571853638e-01 1.753590814769268036e-02 -4.992646351456642151e-02 -4.350635036826133728e-02 5.505416169762611389e-02 1.026280745863914490e-01 1.902083680033683777e-02 -1.198105607181787491e-02 1.843071170151233673e-02 -1.609578356146812439e-02 6.119715049862861633e-02 -8.306981623172760010e-02 1.048175841569900513e-01 8.213060349225997925e-02 1.015577614307403564e-01 5.933868139982223511e-02 2.514100633561611176e-02 1.111696287989616394e-01 -1.794101111590862274e-02 -1.109865605831146240e-01 -2.446558177471160889e-01 -1.560569554567337036e-01 1.698833703994750977e-01 1.187055185437202454e-01 3.745597600936889648e-02 7.116070948541164398e-03 5.406459793448448181e-03 -6.986053776927292347e-04 1.173110008239746094e-01 -1.918946951627731323e-01 -1.153366789221763611e-01 9.232470393180847168e-02 2.500919066369533539e-02 2.200051583349704742e-02 2.589765749871730804e-02 -2.526311203837394714e-02 1.160778403282165527e-01 -9.733560681343078613e-02 -7.518674433231353760e-02 -9.441428631544113159e-02 8.602252602577209473e-02 1.254889070987701416e-01 2.054382115602493286e-01 -1.346417814493179321e-01 2.568352594971656799e-02 -8.646751521155238152e-04 -1.265183240175247192e-01 1.624841690063476562e-01 5.103338044136762619e-03 1.386597901582717896e-01 -8.014418929815292358e-02 2.170070260763168335e-02 2.202161960303783417e-02 7.064773887395858765e-02 6.720728427171707153e-02 1.839261502027511597e-01 6.198510527610778809e-02 4.716545343399047852e-02 -5.055231973528862000e-03 -1.226224377751350403e-02 7.361168414354324341e-02 8.761965483427047729e-02 4.760105162858963013e-02 -8.182058483362197876e-02 8.600860834121704102e-02 -4.090015962719917297e-02 -5.493811145424842834e-02 1.052769050002098083e-01 -5.999775603413581848e-02 6.087193638086318970e-02 -6.909422576427459717e-02 8.874671906232833862e-02 7.302370667457580566e-02 9.239142760634422302e-03 -2.116290852427482605e-02 2.275968872709199786e-04 7.598053663969039917e-02 -1.283959001302719116e-01 -1.278306990861892700e-01 6.233407184481620789e-02 -4.152813553810119629e-02 5.484646186232566833e-02 9.985897690057754517e-02 1.935352943837642670e-02 1.189760211855173111e-02 -1.079643890261650085e-01 -1.212338358163833618e-01 -1.890947222709655762e-01 6.726840976625680923e-03 5.561315268278121948e-02 2.071461454033851624e-02 5.019431188702583313e-02 9.929133951663970947e-02 1.871306821703910828e-02 4.609780386090278625e-03 -5.765217356383800507e-03 1.649814248085021973e-01 1.796872355043888092e-02 -2.524257637560367584e-02 -1.715101674199104309e-02 1.176463440060615540e-01 6.023095920681953430e-02 9.686559438705444336e-02 1.585116796195507050e-02 -7.556357979774475098e-02 -1.289561688899993896e-01 1.438148971647024155e-02 1.373905688524246216e-01 -3.719054162502288818e-02 -1.105050817131996155e-01 -1.065537333488464355e-01 -2.885268628597259521e-02 1.777256652712821960e-02 -6.423743814229965210e-02 2.180785813834518194e-04 -8.716569095849990845e-02 -2.302757799625396729e-01 -7.888258993625640869e-02 3.108846209943294525e-02 6.077359244227409363e-02 -6.238275021314620972e-02 -1.145310401916503906e-01 -3.148476779460906982e-02 1.049325317144393921e-01 -6.352903321385383606e-03 5.727796349674463272e-03 -1.155283004045486450e-01 5.939758569002151489e-02 5.286194384098052979e-02 1.048251241445541382e-01 7.372107356786727905e-02 6.548198312520980835e-02 1.752575188875198364e-01 -5.005195364356040955e-02 -7.328505814075469971e-02 -4.739182442426681519e-02 1.869903644546866417e-03 -1.160547733306884766e-01 1.299639940261840820e-01 1.511196941137313843e-01 -1.323269158601760864e-01 -1.094070523977279663e-01 -2.237432450056076050e-02 -1.055432409048080444e-01 -4.617607221007347107e-02 1.602731458842754364e-02 -1.339252740144729614e-01 -3.201689943671226501e-02 2.186564728617668152e-02 2.264471352100372314e-02 -1.687673479318618774e-02 -3.939533978700637817e-02 -5.079298838973045349e-02 6.726487725973129272e-02 -2.698091045022010803e-02 1.389069110155105591e-01 -1.209660060703754425e-02 -1.739604515023529530e-03 3.093691356480121613e-02 8.094272925518453121e-04 -6.884642690420150757e-02 -7.401977479457855225e-02 8.024508506059646606e-02 1.504066493362188339e-02 9.206169098615646362e-02 -7.853833958506584167e-03 -7.895451784133911133e-02 1.639600470662117004e-02 8.233053237199783325e-02 -3.467975556850433350e-02 -1.097637414932250977e-01 2.107033133506774902e-01 -9.247314184904098511e-02 -8.540876209735870361e-03 -5.554390326142311096e-02 4.163171723484992981e-02 6.395690888166427612e-02 1.394050940871238708e-02 1.527981907129287720e-01 1.001876741647720337e-01 -1.033954694867134094e-01 2.180727384984493256e-02 -5.284241586923599243e-02 1.199266240000724792e-01 -2.755897343158721924e-01 -6.706084311008453369e-02 8.055642247200012207e-02 -1.976968199014663696e-01 6.440639495849609375e-02 1.534782815724611282e-02 9.464795887470245361e-02 -5.898257344961166382e-02 -3.254526853561401367e-02 -1.223745122551918030e-01 8.349122852087020874e-02 -4.763447213917970657e-03 -8.019459992647171021e-02 -1.687750071287155151e-01 1.409986764192581177e-01 -6.926569342613220215e-02 1.451386064291000366e-01 -2.834584377706050873e-02 -4.536169022321701050e-02 -3.403031453490257263e-02 -2.211663685739040375e-02 -4.987132549285888672e-02 -2.272675000131130219e-02 -9.379269927740097046e-02 -9.575225412845611572e-02 1.079136803746223450e-01 -4.040192067623138428e-02 -1.504184603691101074e-01 4.064162075519561768e-02 -6.750964373350143433e-02 -3.838097304105758667e-02 -1.907187141478061676e-02 -5.075444281101226807e-02 -1.306004240177571774e-03 1.054218336939811707e-01 -6.820702552795410156e-02 -4.599149525165557861e-02 -2.473160624504089355e-01 -4.493558034300804138e-02 -4.526829719543457031e-02 -6.431302428245544434e-02 1.235294789075851440e-01 -1.168292481452226639e-02 -1.219857037067413330e-01 3.773913532495498657e-02 -6.471190601587295532e-02 5.426197126507759094e-02 1.355672534555196762e-02 2.468412742018699646e-02 -1.727799326181411743e-01 -1.083995476365089417e-01 -5.571432784199714661e-02
