-2.010253816843032837e-01
-4.392944276332855225e-01
-3.514939546585083008e-01
-4.105560183525085449e-01
3.297488391399383545e-01
4.244892895221710205e-01
3.124692738056182861e-01
3.862633705139160156e-01
2.743272185325622559e-01
4.394572079181671143e-01
4.250388443470001221e-01
2.097812891006469727e-01
3.586187064647674561e-01
1.185516044497489929e-01
-3.811995983123779297e-01
3.919938206672668457e-01
-4.636219143867492676e-01
-4.118532538414001465e-01
-3.178695738315582275e-01
4.481949210166931152e-01
-3.251177668571472168e-01
4.189270734786987305e-01
3.095296621322631836e-01
-4.512253105640411377e-01
2.661235332489013672e-01
2.242585420608520508e-01
4.829480648040771484e-01
4.813740849494934082e-01
-3.305358290672302246e-01
-4.204281866550445557e-01
4.821729958057403564e-01
-1.293057948350906372e-01
-1.324298381805419922e-01
-5.905085057020187378e-02
4.566558003425598145e-01
1.031929533928632736e-02
-3.948988318443298340e-01
2.797153592109680176e-01
5.074993371963500977e-01
3.199184536933898926e-01
2.327980548143386841e-01
3.660755753517150879e-01
-3.805660009384155273e-01
-4.310501515865325928e-01
-2.761818766593933105e-01
1.222402974963188171e-02
-1.809026300907135010e-01
-2.792244851589202881e-01
2.177844494581222534e-01
1.578049063682556152e-01
-3.162959814071655273e-01
3.556145727634429932e-01
2.553257346153259277e-01
2.886837720870971680e-01
-4.588648378849029541e-01
4.738050997257232666e-01
2.211999744176864624e-01
2.783047556877136230e-01
4.561853110790252686e-01
4.837368726730346680e-01
5.124507471919059753e-03
-3.978343904018402100e-01
2.693844139575958252e-01
3.410261571407318115e-01
2.454812228679656982e-01
2.036098688840866089e-01
2.455547451972961426e-01
-2.569986581802368164e-01
3.378609716892242432e-01
2.571626305580139160e-01
3.976375162601470947e-01
4.332786500453948975e-01
-3.936284780502319336e-01
4.129573106765747070e-01
1.783738881349563599e-01
-4.694255590438842773e-01
1.942487806081771851e-01
-3.746937215328216553e-01
-3.227799832820892334e-01
-3.320393860340118408e-01
3.819392621517181396e-01
-3.351031541824340820e-01
1.351413279771804810e-01
4.626775085926055908e-01
-3.339579105377197266e-01
3.546028435230255127e-01
2.075207382440567017e-01
-3.150062561035156250e-01
3.538635373115539551e-01
1.983636319637298584e-01
-1.345933601260185242e-02
4.272481203079223633e-01
4.625909924507141113e-01
2.631662487983703613e-01
2.862226665019989014e-01
4.482137560844421387e-01
-2.960422635078430176e-01
1.402097940444946289e-01
3.729464411735534668e-01
-3.784870207309722900e-01
2.265940904617309570e-01
-1.675558392889797688e-03
-1.955583989620208740e-01
-4.106932282447814941e-01
2.734881937503814697e-01
-3.174757361412048340e-01
3.824459910392761230e-01
3.740748465061187744e-01
3.033713102340698242e-01
4.107092022895812988e-01
-4.155557155609130859e-01
2.797164022922515869e-01
-1.816978007555007935e-01
-3.695879280567169189e-01
3.382747173309326172e-01
1.590326726436614990e-01
3.142859339714050293e-01
4.942206144332885742e-01
2.363834828138351440e-01
1.792936027050018311e-01
4.629949331283569336e-01
-2.808251082897186279e-01
4.648014008998870850e-01
-3.605039715766906738e-01
3.737305104732513428e-01
4.444016516208648682e-01
-3.347845077514648438e-01
1.111066318117082119e-03
3.653093874454498291e-01
3.653769493103027344e-01
4.721806943416595459e-01
-4.870397150516510010e-01
2.679171562194824219e-01
-2.986557483673095703e-01
5.008066296577453613e-01
3.575614392757415771e-01
3.245893716812133789e-01
4.334751069545745850e-01
3.468027412891387939e-01
2.879340350627899170e-01
3.931606411933898926e-01
1.727643311023712158e-01
4.437766969203948975e-01
-1.277171075344085693e-01
3.166799843311309814e-01
4.873039722442626953e-01
2.452519834041595459e-01
-4.269404113292694092e-01
4.344395995140075684e-01
-3.574338555335998535e-01
4.878840744495391846e-01
3.906373977661132812e-01
3.300179839134216309e-01
3.716364800930023193e-01
-4.429953992366790771e-01
-1.235407814383506775e-01
3.097260892391204834e-01
4.661574363708496094e-01
3.033015429973602295e-01
4.251993298530578613e-01
2.916919589042663574e-01
5.163142681121826172e-01
-4.281342327594757080e-01
5.491364002227783203e-01
3.023628294467926025e-01
-3.329828977584838867e-01
2.540489733219146729e-01
-3.032193183898925781e-01
3.689960539340972900e-01
3.749172687530517578e-01
4.012703895568847656e-01
2.923525869846343994e-01
-3.568123281002044678e-01
3.288682103157043457e-01
3.248278498649597168e-01
-2.633592784404754639e-01
-3.417426943778991699e-01
2.831225693225860596e-01
3.279506862163543701e-01
4.763400554656982422e-01
1.826676279306411743e-01
-3.512456119060516357e-01
4.239309132099151611e-01
2.492544949054718018e-01
2.316941171884536743e-01
-1.975310593843460083e-01
-2.971481382846832275e-01
-4.011676609516143799e-01
2.822040915489196777e-01
3.279017210006713867e-01
-4.469862580299377441e-01
3.473998308181762695e-01
-4.587595164775848389e-01
3.782314658164978027e-01
-1.404279321432113647e-01
2.962556481361389160e-01
2.343744933605194092e-01
3.087566792964935303e-01
4.118284583091735840e-01
2.970404922962188721e-01
3.305362761020660400e-01
-1.709562093019485474e-01
-2.904283702373504639e-01
3.273661136627197266e-01
2.942998707294464111e-01
3.166236877441406250e-01
4.578842520713806152e-01
-1.915088742971420288e-01
2.070195823907852173e-01
-6.586750596761703491e-02
2.515608370304107666e-01
4.158529937267303467e-01
4.504117369651794434e-01
4.696469008922576904e-01
3.109124302864074707e-01
4.118042290210723877e-01
-2.165971994400024414e-01
4.069837331771850586e-01
-2.920737862586975098e-01
-1.050588265061378479e-01
3.285459280014038086e-01
3.575937449932098389e-01
3.735768795013427734e-01
2.681844830513000488e-01
-2.310371845960617065e-01
3.221443593502044678e-01
-4.448184967041015625e-01
4.512548148632049561e-01
3.842028081417083740e-01
-3.021697402000427246e-01
3.115448653697967529e-01
3.748248219490051270e-01
3.156719505786895752e-01
3.743671774864196777e-01
1.108199506998062134e-01
1.066135391592979431e-01
4.251905679702758789e-01
2.924811840057373047e-01
-3.367626965045928955e-01
2.563129067420959473e-01
-4.128893911838531494e-01
2.924901843070983887e-01
4.666222929954528809e-01
7.401787489652633667e-02
-2.008040696382522583e-01
3.759252429008483887e-01
3.759864866733551025e-01
1.551248431205749512e-01
4.494965672492980957e-01
-3.302797079086303711e-01
-3.542532324790954590e-01
-1.374427825212478638e-01
1.130506396293640137e-01
2.157306373119354248e-01
3.871880769729614258e-01
3.292437493801116943e-01
