1.298052370548248291e-01
1.984644085168838501e-01
2.203961908817291260e-01
1.607306450605392456e-01
-1.692690711934119463e-04
3.159270882606506348e-01
1.835546195507049561e-01
-2.982654049992561340e-02
1.549439430236816406e-01
2.084336578845977783e-01
2.476721256971359253e-01
2.547884881496429443e-01
-2.030308917164802551e-02
1.690601557493209839e-01
2.671446800231933594e-01
1.093773096799850464e-01
1.820713430643081665e-01
3.973952680826187134e-02
1.368151456117630005e-01
1.973835378885269165e-02
1.917458027601242065e-01
-2.574977576732635498e-01
1.172712445259094238e-01
2.131813764572143555e-01
-1.309821158647537231e-01
-4.258271157741546631e-01
1.043139174580574036e-01
-1.482826918363571167e-01
1.618987172842025757e-01
5.077747628092765808e-02
2.017423510551452637e-01
7.215862721204757690e-02
3.124184310436248779e-01
1.640862226486206055e-01
-5.969852209091186523e-02
2.998495697975158691e-01
6.275841593742370605e-02
3.161662220954895020e-01
-1.308971047401428223e-01
9.540705382823944092e-02
7.283262163400650024e-02
-2.288793912157416344e-03
1.904137134552001953e-01
8.504486083984375000e-02
4.177990183234214783e-02
-2.680889070034027100e-01
1.838967502117156982e-01
-1.558651626110076904e-01
2.770081460475921631e-01
3.443113565444946289e-01
1.185737922787666321e-01
1.956397145986557007e-01
1.813866198062896729e-01
3.509887680411338806e-02
2.529241442680358887e-01
1.871558278799057007e-02
-1.303834766149520874e-01
2.932057976722717285e-01
1.881025545299053192e-02
1.445673257112503052e-01
1.474460214376449585e-01
1.738369613885879517e-01
2.478000521659851074e-01
-1.363252848386764526e-01
1.850873418152332306e-02
7.807822525501251221e-02
1.307591497898101807e-01
3.599511086940765381e-02
1.835510730743408203e-01
5.005890130996704102e-02
-9.443560242652893066e-02
7.288365159183740616e-03
-5.417713522911071777e-02
-2.862445712089538574e-01
-2.181202322244644165e-01
-1.101695522665977478e-01
1.194166913628578186e-01
-1.324292868375778198e-01
2.199593186378479004e-01
1.647312752902507782e-02
3.261914253234863281e-01
2.106507420539855957e-01
2.205594629049301147e-02
-2.845706976950168610e-02
2.747056484222412109e-01
1.030009761452674866e-01
4.605606663972139359e-03
1.955735832452774048e-01
-6.810089945793151855e-02
-2.963661551475524902e-01
-3.204081952571868896e-01
-2.641003206372261047e-02
-5.508930236101150513e-02
2.581956386566162109e-01
-2.561832405626773834e-02
1.256505250930786133e-01
1.757132560014724731e-01
1.461204141378402710e-01
2.351515553891658783e-02
3.194628953933715820e-01
2.016848623752593994e-01
2.212463468313217163e-01
-1.613274216651916504e-01
-6.278305500745773315e-02
1.469978839159011841e-01
-1.335660666227340698e-01
3.327066600322723389e-01
1.380742639303207397e-01
2.452715784311294556e-01
-2.036694586277008057e-01
-1.678559929132461548e-01
-1.465620659291744232e-02
-6.410552561283111572e-02
-9.438712149858474731e-02
1.395867466926574707e-01
-7.896731048822402954e-02
8.763086982071399689e-03
-1.720017194747924805e-01
-1.441446244716644287e-01
8.093930035829544067e-02
6.470158696174621582e-02
2.308607287704944611e-02
3.029187321662902832e-01
7.321187108755111694e-02
2.295260131359100342e-01
2.950657308101654053e-01
1.867456883192062378e-01
-2.395678497850894928e-02
-5.528409406542778015e-02
-2.527415007352828979e-02
5.453871190547943115e-02
1.793784648180007935e-01
2.888304591178894043e-01
-7.212176918983459473e-02
3.277922868728637695e-01
2.584992349147796631e-01
-4.538280144333839417e-02
2.286832779645919800e-01
-2.859329581260681152e-01
-3.028987646102905273e-01
2.425249516963958740e-01
-1.750876158475875854e-01
-1.571482270956039429e-01
1.246865391731262207e-01
-2.572828233242034912e-01
2.001623511314392090e-01
2.549046874046325684e-01
3.005929291248321533e-02
2.494336962699890137e-01
1.994878351688385010e-01
2.408134192228317261e-01
1.367003321647644043e-01
1.818183511495590210e-01
1.561848372220993042e-01
-3.149251937866210938e-01
1.226620972156524658e-01
-1.118421778082847595e-01
1.177516430616378784e-01
-4.967991709709167480e-01
2.233942300081253052e-01
3.298479616641998291e-01
9.431873261928558350e-02
6.985776126384735107e-02
2.392310351133346558e-01
9.817354381084442139e-02
-2.143931984901428223e-01
1.540211737155914307e-01
-7.656245678663253784e-02
1.305888593196868896e-01
1.540220826864242554e-01
-1.328727453947067261e-01
3.765411078929901123e-01
7.630025595426559448e-02
2.634175121784210205e-01
7.781188189983367920e-02
2.730891406536102295e-01
2.652822732925415039e-01
-1.573050767183303833e-01
1.896773427724838257e-01
2.876933515071868896e-01
1.349641680717468262e-01
2.197118103504180908e-01
2.361413985490798950e-01
1.408230811357498169e-01
-1.645143479108810425e-01
3.368097543716430664e-01
2.297809273004531860e-01
-4.944065958261489868e-02
1.395867168903350830e-01
2.889727950096130371e-01
2.535699009895324707e-01
-2.002257406711578369e-01
3.216880261898040771e-01
8.303085714578628540e-02
1.277603954076766968e-01
-1.785406321287155151e-01
2.480527460575103760e-01
-3.944931179285049438e-02
3.470941781997680664e-01
2.634685635566711426e-01
3.384358063340187073e-02
-1.889252513647079468e-01
-7.169352844357490540e-03
2.058917731046676636e-01
1.306518316268920898e-01
2.756197154521942139e-01
1.386442594230175018e-02
2.485686391592025757e-01
1.849408447742462158e-01
-7.021510601043701172e-02
-1.014187932014465332e-01
-2.715033292770385742e-01
-7.354067265987396240e-02
-3.613910675048828125e-01
1.715843081474304199e-01
1.017357558012008667e-01
1.662138849496841431e-01
9.756734222173690796e-02
-5.761207267642021179e-02
2.214064747095108032e-01
1.467057764530181885e-01
-2.295741252601146698e-02
-1.908063441514968872e-01
2.829961180686950684e-01
2.107537686824798584e-01
-2.054101973772048950e-01
-4.679446518421173096e-01
3.240388631820678711e-02
-1.823396235704421997e-02
-1.404846459627151489e-01
-7.359638344496488571e-03
2.302689701318740845e-01
2.094784379005432129e-02
2.308628410100936890e-01
6.302835047245025635e-02
-1.533850096166133881e-02
2.273859828710556030e-01
-8.116830140352249146e-02
2.609147727489471436e-01
2.444314360618591309e-01
1.665772348642349243e-01
2.421837896108627319e-01
1.430094093084335327e-01
7.517415285110473633e-02
9.636712074279785156e-02
1.619803160429000854e-01
-2.790242433547973633e-01
-4.795878529548645020e-01
2.933464646339416504e-01
9.502255357801914215e-03
-4.454514384269714355e-01
1.298378854990005493e-01
1.756335496902465820e-01
4.710004329681396484e-01
2.946631610393524170e-01
1.834105104207992554e-01
