2.623337507247924805e-01 1.230296306312084198e-02 4.848214983940124512e-02 1.917889155447483063e-02 -1.321660131216049194e-01 -1.468165218830108643e-01 -3.972270339727401733e-02 -2.651002071797847748e-02 4.844516888260841370e-02 8.555525541305541992e-02 1.135005727410316467e-01 -4.459615424275398254e-02 1.902498304843902588e-01 1.047330815345048904e-02 1.083186548203229904e-02 -5.517656449228525162e-03 -2.691294997930526733e-02 -9.673145413398742676e-02 8.731617033481597900e-02 -5.524592474102973938e-03 -5.232793465256690979e-02 9.899475611746311188e-03 1.960383169353008270e-02 9.637732803821563721e-02 4.128725826740264893e-02 -7.269526273012161255e-02 -3.361909836530685425e-02 -2.225117944180965424e-02 8.363056927919387817e-03 -1.226231828331947327e-02 -1.211348362267017365e-02 6.116798147559165955e-03 -5.601271986961364746e-02 -2.037185057997703552e-02 -3.834937140345573425e-02 -2.732431143522262573e-02 -2.313658781349658966e-02 2.318243682384490967e-01 -7.776811718940734863e-02 1.040877327322959900e-01 1.014226451516151428e-01 -1.136372238397598267e-01 -1.012325584888458252e-01 4.359924420714378357e-02 -7.319186627864837646e-02 -3.912838175892829895e-02 2.583198249340057373e-02 1.740585416555404663e-01 1.954379677772521973e-02 -3.064912185072898865e-02 3.378280997276306152e-02 4.482904821634292603e-02 -1.108067948371171951e-02 -6.357884500175714493e-03 2.000578679144382477e-03 7.664961367845535278e-02 -5.139300972223281860e-02 6.320465356111526489e-02 2.144729252904653549e-03 1.307711750268936157e-02 -3.350102528929710388e-02 8.194787055253982544e-02 4.856180772185325623e-02 -5.173030309379100800e-03 -8.958019316196441650e-03 1.275569647550582886e-01 -9.735761582851409912e-02 -2.828203141689300537e-02 2.111248439177870750e-03 2.660568431019783020e-02 1.052146311849355698e-02 2.867788262665271759e-02 -3.069469239562749863e-03 2.701353468000888824e-02 7.851000130176544189e-02 -5.333933979272842407e-02 7.500535249710083008e-02 -5.367261916399002075e-02 -2.266843765974044800e-01 -1.122284755110740662e-01 -1.205245219171047211e-02 -8.674227446317672729e-02 6.902776658535003662e-02 2.234091050922870636e-02 1.306649744510650635e-01 -2.270110324025154114e-02 1.117732748389244080e-01 2.990100719034671783e-02 1.353983879089355469e-01 -3.522308834362775087e-04 -5.065183341503143311e-02 4.152521863579750061e-02 2.275199443101882935e-02 2.276853099465370178e-02 -5.766670405864715576e-02 1.146111753769218922e-03 6.368161737918853760e-02 -4.579474683851003647e-03 1.165551319718360901e-01 -2.298755012452602386e-02 3.348507359623908997e-02 3.484698012471199036e-02 2.075593685731291771e-03 -3.260746598243713379e-02 -8.356436342000961304e-02 -4.731007385998964310e-03 -4.539011046290397644e-02 2.292995341122150421e-02 -4.249185323715209961e-02 -1.492995023727416992e-02 1.106833107769489288e-02 1.454115062952041626e-01 -4.320296645164489746e-02 4.661226645112037659e-02 -3.351976349949836731e-02 -1.160971298813819885e-01 4.215608537197113037e-02 -7.431010156869888306e-02 -1.638756506145000458e-02 4.934295266866683960e-02 -4.233952611684799194e-02 1.153998002409934998e-01 2.658249065279960632e-02 9.213266521692276001e-02 1.339865624904632568e-01 2.607039175927639008e-02 -1.549837179481983185e-02 -6.274747848510742188e-02 -4.212881624698638916e-02 1.243772730231285095e-02 3.432568907737731934e-02 -9.047141298651695251e-03 2.063570357859134674e-02 1.688796794041991234e-03 5.619012191891670227e-02 6.187114119529724121e-02 -4.777965322136878967e-02 -9.110106155276298523e-03 -1.853678077459335327e-01 -9.040059149265289307e-02 4.323818907141685486e-02 -5.687848851084709167e-02 -2.020992152392864227e-02 6.565763615071773529e-03 -2.646637521684169769e-02 1.451722253113985062e-02 -1.902094483375549316e-02 -1.283035380765795708e-04 2.956285886466503143e-02 2.339818887412548065e-02 8.090467005968093872e-02 2.780709601938724518e-02 -2.410575747489929199e-01 4.839087277650833130e-02 4.952143505215644836e-02 -1.333962567150592804e-02 -9.120134264230728149e-02 1.165771950036287308e-02 1.415577083826065063e-01 1.788834482431411743e-02 5.862316861748695374e-02 4.543495178222656250e-02 1.628873869776725769e-02 9.514494799077510834e-03 6.536984816193580627e-03 -8.782899379730224609e-02 6.450503133237361908e-03 -2.290371991693973541e-02 4.070646688342094421e-02 -1.344519294798374176e-02 5.497453268617391586e-03 7.355409115552902222e-02 3.427307587116956711e-03 4.080354794859886169e-02 -1.855956204235553741e-02 5.653601139783859253e-02 3.851210698485374451e-02 -5.513406544923782349e-02 -5.092959105968475342e-02 6.694892887026071548e-03 -6.181059405207633972e-02 3.075332939624786377e-02 -4.943912848830223083e-02 -1.171652693301439285e-02 1.022548135370016098e-02 -1.119021419435739517e-02 -9.446478635072708130e-02 1.283281147480010986e-01 -2.946993336081504822e-02 -1.038359627127647400e-01 -5.867790430784225464e-02 1.087246462702751160e-01 1.112367957830429077e-02 -1.072393432259559631e-01 4.643043503165245056e-02 2.722175121307373047e-01 2.966912649571895599e-02 9.449541568756103516e-02 -4.535415768623352051e-02 4.315079376101493835e-02 -2.135674655437469482e-02 -1.600466668605804443e-02 -2.732954546809196472e-02 8.176711387932300568e-03 3.911924734711647034e-02 -3.611011058092117310e-02 1.793841272592544556e-02 2.075583441182971001e-03 -3.064869344234466553e-02 2.767858281731605530e-02 2.010980155318975449e-03 2.866072580218315125e-03 -4.690478742122650146e-02 -1.278669238090515137e-01 -1.154852192848920822e-02 -1.089785024523735046e-01 4.350493662059307098e-03 1.951263635419309139e-03 4.991052299737930298e-02 5.496799945831298828e-02 -8.435350842773914337e-03 7.185607403516769409e-02 -8.106480538845062256e-02 1.399576663970947266e-01 1.016237363219261169e-01 9.358661621809005737e-02 -1.093581840395927429e-01 1.357423067092895508e-01 8.723665028810501099e-02 1.484174877405166626e-01 7.583015412092208862e-02 -2.120331116020679474e-02 1.856940388679504395e-01 1.507428660988807678e-02 3.242059424519538879e-02 3.610644489526748657e-02 7.867956161499023438e-02 4.010676871985197067e-03 -8.339866995811462402e-02 -2.369382651522755623e-03 1.707454957067966461e-02 2.689613029360771179e-03 6.195608526468276978e-03 4.633984994143247604e-03 3.022349253296852112e-02 2.447289042174816132e-02 3.698992729187011719e-02 -4.008428379893302917e-02 1.316636614501476288e-02 1.711248159408569336e-01 3.156519681215286255e-02 1.029509902000427246e-01 -1.056819781661033630e-02 -9.367021732032299042e-03 -1.412370707839727402e-02 2.256372570991516113e-02 -1.429068576544523239e-02 -1.135881803929805756e-02 5.823862738907337189e-03 -1.301893591880798340e-01 2.834145911037921906e-02 3.978747501969337463e-02 8.749782294034957886e-02 -1.664322614669799805e-01 4.869234934449195862e-02 9.081135690212249756e-02 -5.766059458255767822e-02 8.264601230621337891e-03 2.384981326758861542e-02 7.811554521322250366e-02 2.849203720688819885e-02 -9.267418645322322845e-03 3.759004548192024231e-02 -4.300556704401969910e-02 -2.054852619767189026e-02 -4.086717963218688965e-02 -6.469273567199707031e-02 6.423775106668472290e-02 6.670408416539430618e-03 -2.624101005494594574e-03 2.803287934511899948e-03 3.097457438707351685e-02 6.283645052462816238e-03 -1.818816177546977997e-02 2.467323467135429382e-02 1.488143205642700195e-02 1.895374059677124023e-02 -1.284214407205581665e-01 -5.993449594825506210e-03 2.610652148723602295e-02 1.479399623349308968e-03 -1.863121241331100464e-02 -8.153817616403102875e-03 4.485896229743957520e-02 -1.395292300730943680e-02 3.239646181464195251e-02 -1.764269322156906128e-01 -9.915073961019515991e-02 2.332371771335601807e-01 -3.701322153210639954e-02 -1.135565936565399170e-01 -3.440658375620841980e-02 6.409302353858947754e-02 1.073911413550376892e-01 1.127342805266380310e-01 9.764350019395351410e-03 1.975363492965698242e-01 3.687455505132675171e-02 -2.865322632715106010e-03 1.195421591401100159e-01 -4.315675795078277588e-02 2.365939551964402199e-03 -1.004615873098373413e-01 -9.912724792957305908e-02 -8.207641541957855225e-02 4.666177555918693542e-02 -3.291809558868408203e-02 5.873772315680980682e-03 2.771554328501224518e-02 -7.758857216686010361e-03 4.733160138130187988e-02 -4.144225269556045532e-03 -1.759504154324531555e-02 1.675329208374023438e-01 5.743874981999397278e-02 -6.066044792532920837e-02 9.703647345304489136e-02 2.992633031681180000e-03 -2.262182906270027161e-02 1.543399877846240997e-02 8.636111021041870117e-02 -2.325659990310668945e-02 2.694726362824440002e-02 -2.802467942237854004e-01 1.759734936058521271e-02 -9.064711630344390869e-02 -9.095629304647445679e-02 -1.822765618562698364e-01 3.754017874598503113e-02 1.157730445265769958e-02 6.046590581536293030e-02 1.068733632564544678e-01 -2.021469548344612122e-02 9.562061727046966553e-02 5.374039057642221451e-03 1.895336806774139404e-02 -4.818064346909523010e-02 -3.068602643907070160e-02 -1.712914183735847473e-02 -8.317726850509643555e-02 1.195894181728363037e-02 -1.340805739164352417e-01 -3.549605980515480042e-02 1.282649580389261246e-02 1.866086572408676147e-02 6.443042308092117310e-02 -5.418436601758003235e-03 -6.455687433481216431e-02 4.412154853343963623e-02 3.540112078189849854e-02 5.007544532418251038e-02 -1.054629683494567871e-02 2.732580341398715973e-02 -9.029973298311233521e-02 1.493711210787296295e-02 4.802922904491424561e-02 1.322227250784635544e-02 8.296502381563186646e-02 -3.149426076561212540e-03 5.170737206935882568e-02 -6.512708216905593872e-02 -7.490721344947814941e-02 -1.016832590103149414e-01 2.869744598865509033e-01 -1.420835703611373901e-01 -3.589264303445816040e-02 1.412325650453567505e-01 1.337115615606307983e-01 5.178483948111534119e-02 1.503049433231353760e-01 -1.765590459108352661e-01 -7.566592842340469360e-02 -2.564847469329833984e-01 -1.304854452610015869e-02 3.321154043078422546e-02 -9.843494743108749390e-02 3.344526588916778564e-01 -1.077680736780166626e-01 1.630771346390247345e-02 1.045188978314399719e-01 9.192300587892532349e-02 -1.869072206318378448e-02 2.219245284795761108e-01 -6.096775457262992859e-02 -3.906839713454246521e-02 -3.116233646869659424e-01 4.212823510169982910e-02 -8.009120821952819824e-02 -1.353684812784194946e-02 2.650488018989562988e-01 -1.250744462013244629e-01 -7.213345170021057129e-02 1.043665483593940735e-01 1.704061776399612427e-01 -1.086000427603721619e-01 2.443350404500961304e-01 -1.162311136722564697e-01 1.491705328226089478e-01 -1.627257466316223145e-01 2.984861657023429871e-02 4.036810249090194702e-02 -3.445190191268920898e-02 2.838918566703796387e-01 -1.274181604385375977e-01 -7.571562379598617554e-02 5.966193974018096924e-03 2.417026609182357788e-01 4.034935683012008667e-02 1.575324684381484985e-01 -1.644531786441802979e-01 -1.396779343485832214e-02 -2.204758822917938232e-01 -1.655818708240985870e-02 -5.258835479617118835e-02 -8.446710556745529175e-02 3.133372366428375244e-01 -8.401481062173843384e-02 -1.523769944906234741e-01 3.246933594346046448e-02 2.736263275146484375e-01 3.599473461508750916e-02 1.217659115791320801e-01 -8.263410627841949463e-02 -1.065130531787872314e-01 -2.632886767387390137e-01 1.243450567126274109e-01 2.293890714645385742e-02 -3.501254692673683167e-02 2.545171976089477539e-01 -1.240037903189659119e-01 -8.488976210355758667e-02 1.119501367211341858e-01 2.091758996248245239e-01 2.392587624490261078e-02 2.056600898504257202e-01 -1.207014545798301697e-01 2.224649535492062569e-03 -2.759786248207092285e-01 -1.122682075947523117e-02 -1.403155475854873657e-01 -9.978169202804565430e-02 2.894287705421447754e-01 -9.319914877414703369e-02 -7.023835182189941406e-02 -2.722194418311119080e-03 3.017047643661499023e-01 1.949105225503444672e-02 1.513340324163436890e-01 -6.982617825269699097e-02 4.283602908253669739e-02 -2.709158957004547119e-01 8.458982408046722412e-02 -1.736750453710556030e-01 -1.696228235960006714e-02 2.784492969512939453e-01 -1.120608299970626831e-02 -1.100554615259170532e-01 1.040687933564186096e-01 3.002581298351287842e-01 -7.683545351028442383e-02 1.106167137622833252e-01 9.737646207213401794e-03 1.448778994381427765e-02 -3.884912133216857910e-01 3.870290517807006836e-02 -2.214871197938919067e-01 1.919037476181983948e-02 1.089978814125061035e-01 -5.434780195355415344e-02 -1.461138669401407242e-02 4.189695045351982117e-02 3.335914313793182373e-01 -7.727597840130329132e-03 2.160553932189941406e-01 4.942388087511062622e-02 1.731397211551666260e-01 -3.496630787849426270e-01
-1.263556361198425293e+00 4.778809249401092529e-01 -1.879785768687725067e-02 -3.468028828501701355e-02 7.737390697002410889e-02 3.209377452731132507e-02 -2.049092017114162445e-02 -8.728931099176406860e-02 6.630600988864898682e-02 -9.143682569265365601e-02 -1.600304059684276581e-02 1.408718079328536987e-01 2.694142982363700867e-03 -1.406227704137563705e-02 -2.986698411405086517e-02 -1.857603783719241619e-03 -2.384905889630317688e-02 -2.351227961480617523e-02 -1.824310421943664551e-02 -3.698673099279403687e-02 -5.309506785124540329e-03 1.038312818855047226e-02 1.157263107597827911e-02 -4.420290887355804443e-02 -6.814130395650863647e-02 -5.632825777865946293e-04 2.001028507947921753e-02 -6.947216391563415527e-02 -5.821114405989646912e-02 -8.388596773147583008e-02 2.557353116571903229e-02 5.139505374245345592e-04 1.888059079647064209e-02 -3.196065127849578857e-02 -3.403545916080474854e-02 -4.981265868991613388e-03 8.762116543948650360e-03 -8.570159077644348145e-01 3.282015025615692139e-01 7.202503830194473267e-02 -2.088276483118534088e-02 1.172150368802249432e-03 4.241900052875280380e-03 3.198920562863349915e-02 1.439510658383369446e-02 1.041393280029296875e-01 4.882510006427764893e-02 -1.023044288158416748e-01 -1.959598064422607422e-02 -3.806661441922187805e-02 6.526614725589752197e-02 -1.768264733254909515e-02 3.621441777795553207e-03 -3.223275393247604370e-02 -5.527100060135126114e-03 -1.102473661303520203e-01 2.147523127496242523e-02 6.441190373152494431e-03 -3.159358631819486618e-03 2.942198142409324646e-02 2.148986421525478363e-02 -4.580587521195411682e-02 -3.512820461764931679e-03 -1.446889434009790421e-02 6.148629356175661087e-03 7.667876780033111572e-02 -8.847361057996749878e-02 -2.178081311285495758e-02 -5.523621104657649994e-03 -1.856034062802791595e-02 5.155625566840171814e-02 5.486438050866127014e-02 1.210638508200645447e-02 1.148193702101707458e-02 -6.262208223342895508e-01 3.075723350048065186e-01 1.370476651936769485e-02 1.484523527324199677e-02 5.364271253347396851e-02 7.463099807500839233e-02 -9.402016177773475647e-03 -1.643205061554908752e-02 -6.672741472721099854e-02 1.253576483577489853e-02 -2.399472147226333618e-02 9.620201587677001953e-02 -6.912078242748975754e-03 -4.942537099123001099e-02 -9.450677037239074707e-02 -2.823384478688240051e-03 4.096975550055503845e-02 -5.101906880736351013e-02 -5.655498709529638290e-03 -2.467540092766284943e-03 1.999982446432113647e-02 3.899507690221071243e-03 -3.548869863152503967e-02 9.955579414963722229e-03 5.086732283234596252e-02 -1.982274092733860016e-02 -1.240499899722635746e-03 -6.482246518135070801e-02 4.713009577244520187e-03 2.214759215712547302e-02 -1.271019782871007919e-02 -1.463970448821783066e-02 -9.864962659776210785e-03 -6.168523337692022324e-03 -4.873103927820920944e-03 1.475137937813997269e-02 7.798942737281322479e-03 -5.094851851463317871e-01 1.274345815181732178e-01 4.646347835659980774e-02 -1.312431530095636845e-03 1.206272542476654053e-01 9.820207953453063965e-02 1.477603018283843994e-01 -1.676146313548088074e-02 2.099504228681325912e-03 -9.459701925516128540e-02 -6.935939891263842583e-04 -1.852927380241453648e-03 -4.002267867326736450e-02 4.285996779799461365e-03 5.086301267147064209e-02 4.687864333391189575e-03 2.901128679513931274e-02 -1.969704963266849518e-02 -3.236623480916023254e-02 -1.922529190778732300e-02 -5.463821347802877426e-03 -3.930713515728712082e-03 2.390576712787151337e-02 5.701849982142448425e-02 2.132394164800643921e-02 4.912376031279563904e-02 1.330929808318614960e-02 -8.370272815227508545e-02 3.755769878625869751e-02 -1.781921088695526123e-02 -7.333374023437500000e-02 9.213060140609741211e-03 9.885001927614212036e-03 6.803248543292284012e-03 -2.136373706161975861e-02 -2.745716366916894913e-03 2.612486481666564941e-03 -1.129856482148170471e-01 7.538115978240966797e-02 -2.428696025162935257e-03 9.240225702524185181e-02 2.145843580365180969e-02 2.961997501552104950e-02 -9.922248311340808868e-03 1.186127811670303345e-01 -4.243597015738487244e-02 -3.329268097877502441e-02 -1.430783271789550781e-01 1.406126562505960464e-02 6.378838419914245605e-02 1.062163989990949631e-02 3.631629049777984619e-02 9.474761900492012501e-04 1.666543306782841682e-03 -3.250208497047424316e-02 -8.006748743355274200e-03 -1.020892988890409470e-02 -1.230499520897865295e-02 4.469481296837329865e-03 2.663329243659973145e-03 2.798903360962867737e-02 -2.128593251109123230e-02 -3.139948099851608276e-02 5.047807935625314713e-03 -1.406272053718566895e-01 -2.006044611334800720e-02 2.041855268180370331e-02 6.936956942081451416e-02 -9.174051810987293720e-04 -9.859345853328704834e-03 1.386398635804653168e-02 -5.294478032737970352e-03 1.419328246265649796e-02 7.966830395162105560e-03 1.599557548761367798e-01 2.956410124897956848e-02 1.873379498720169067e-01 -4.330432415008544922e-02 9.406480938196182251e-02 -7.253625243902206421e-02 -3.094984032213687897e-02 2.322542015463113785e-03 -5.699216201901435852e-02 3.223461285233497620e-02 -3.720749542117118835e-02 -2.716853842139244080e-02 -6.149332039058208466e-03 -3.944867476820945740e-02 5.783591419458389282e-03 -2.957771997898817062e-03 8.572202175855636597e-03 7.050633430480957031e-03 2.534868940711021423e-02 -2.138995192945003510e-02 3.989759087562561035e-02 1.616167952306568623e-03 -1.498345937579870224e-02 1.321608573198318481e-02 5.074240034446120262e-04 7.715526502579450607e-03 -1.968802511692047119e-02 -1.306829415261745453e-02 3.236702457070350647e-02 -1.701026223599910736e-02 8.775570988655090332e-02 2.845588605850934982e-03 -1.881250063888728619e-03 -4.595621488988399506e-03 4.474499728530645370e-03 7.544605527073144913e-03 1.631253957748413086e-02 5.121846795082092285e-01 -7.866009324789047241e-02 -6.584597378969192505e-02 -1.110976282507181168e-02 5.393869802355766296e-02 -3.568048588931560516e-03 4.153263568878173828e-02 6.535490602254867554e-02 -4.770267382264137268e-02 -4.461602866649627686e-02 -4.048660770058631897e-02 -5.175733938813209534e-03 3.749969974160194397e-02 8.612777292728424072e-02 1.367888152599334717e-01 1.009461097419261932e-02 2.795861288905143738e-02 3.289783000946044922e-02 -1.554763037711381912e-02 1.272076554596424103e-02 -2.640820853412151337e-02 -7.639186456799507141e-03 1.975443959236145020e-02 8.526087738573551178e-03 -6.989029794931411743e-02 -5.965646356344223022e-02 -3.055137349292635918e-03 -4.034874588251113892e-02 -2.590060420334339142e-02 3.107082843780517578e-02 6.831028033047914505e-03 -2.722110832110047340e-03 7.852069102227687836e-03 -1.042517181485891342e-02 2.182029373943805695e-02 2.161209657788276672e-02 2.860723994672298431e-02 8.803576827049255371e-01 -2.713488340377807617e-01 -5.501036345958709717e-02 -4.093196615576744080e-02 1.418663263320922852e-01 2.142166718840599060e-02 4.223562031984329224e-02 -3.725721687078475952e-02 2.263881079852581024e-02 6.632956862449645996e-02 -1.759883202612400055e-02 5.919925123453140259e-02 -7.389180827885866165e-03 1.173567492514848709e-02 -2.851627580821514130e-02 -6.846580654382705688e-03 1.260769460350275040e-02 3.534793853759765625e-02 7.633068598806858063e-03 -2.800523536279797554e-03 5.227123619988560677e-05 8.464701473712921143e-03 -3.972142562270164490e-02 -5.546927079558372498e-02 1.583336107432842255e-02 4.913694784045219421e-02 1.321072597056627274e-02 6.350564956665039062e-02 2.435319311916828156e-02 4.805901274085044861e-02 -1.963790506124496460e-02 -2.229744335636496544e-03 6.493184249848127365e-03 2.256108075380325317e-02 -2.462648041546344757e-02 1.061376370489597321e-02 1.214162446558475494e-02 1.144063353538513184e+00 -3.272024393081665039e-01 -5.849620327353477478e-02 -2.361598610877990723e-02 1.181641593575477600e-01 3.410480543971061707e-02 -8.305185288190841675e-02 4.976215772330760956e-03 3.819279000163078308e-02 -2.346289902925491333e-02 1.147574037313461304e-01 1.081280857324600220e-01 2.350214868783950806e-02 6.938532739877700806e-02 -3.302872180938720703e-02 -2.169703831896185875e-03 2.755640260875225067e-02 -2.390681579709053040e-02 -1.397817768156528473e-02 3.953192383050918579e-02 2.092775143682956696e-02 3.629515878856182098e-03 1.436825748533010483e-02 7.494278252124786377e-02 5.696306750178337097e-02 5.939409136772155762e-03 5.617982824333012104e-04 3.936539217829704285e-02 6.970384716987609863e-02 -1.024862304329872131e-01 -4.291250556707382202e-02 7.957629859447479248e-03 3.057217039167881012e-02 4.881725646555423737e-03 -2.823021262884140015e-02 7.861310616135597229e-03 1.423930097371339798e-02 1.585680127143859863e+00 -5.102734565734863281e-01 7.087842375040054321e-02 -9.159496426582336426e-02 1.594497561454772949e-01 9.906741231679916382e-02 7.684867084026336670e-02 -1.027518510818481445e-02 1.317144334316253662e-01 -1.179152280092239380e-01 2.632496645674109459e-03 3.373712766915559769e-03 6.696527451276779175e-02 -1.518655847758054733e-02 -4.347249120473861694e-02 9.706863202154636383e-03 1.117660291492938995e-02 3.323684632778167725e-02 1.034861952066421509e-01 -2.178360149264335632e-02 -9.719916619360446930e-03 -3.356799017637968063e-03 -2.286034263670444489e-02 5.792101845145225525e-02 7.309223711490631104e-02 8.768554107518866658e-05 -6.415006238967180252e-03 -8.928853273391723633e-02 -1.380123780108988285e-03 1.561570614576339722e-01 1.492870505899190903e-03 -1.975866593420505524e-02 -3.237882629036903381e-02 2.633610740303993225e-02 1.601251587271690369e-02 1.611494086682796478e-02 2.609996870160102844e-02 -2.244381420314311981e-02 2.158207446336746216e-02 3.894750401377677917e-02 -9.489073604345321655e-02 -1.960683614015579224e-02 -1.345939096063375473e-02 -1.168857049196958542e-02 -4.781813174486160278e-02 -4.478547722101211548e-02 -4.417745396494865417e-02 -7.215265650302171707e-03 -2.496998012065887451e-02 8.938633650541305542e-02 1.293436158448457718e-02 3.097831644117832184e-02 -1.245778203010559082e-01 -7.849531620740890503e-02 6.755853444337844849e-02 -7.653078064322471619e-03 -5.255970731377601624e-02 5.646868422627449036e-02 -1.267284601926803589e-01 -7.457367144525051117e-03 4.060054197907447815e-02 4.108235985040664673e-02 -1.571733132004737854e-02 -3.919938206672668457e-02 -1.321173831820487976e-02 -6.545866280794143677e-02 -9.608688205480575562e-02 5.502714216709136963e-02 4.454889148473739624e-02 -3.047705441713333130e-02 4.519820585846900940e-02 -5.485476925969123840e-02 -1.099338382482528687e-01 6.008459720760583878e-03 5.584070086479187012e-02 -1.230018679052591324e-03 1.158558763563632965e-03 8.555593341588973999e-02 -7.827802002429962158e-02 -8.555375784635543823e-02 1.442738808691501617e-02 -3.379892185330390930e-02 -2.105305902659893036e-02 -4.029224161058664322e-03 -3.447685856372117996e-03 -5.611327290534973145e-02 1.285821292549371719e-02 8.714148402214050293e-02 6.707820296287536621e-02 -6.015150249004364014e-02 4.385593533515930176e-02 -1.117866486310958862e-01 -6.171142682433128357e-02 -2.269245311617851257e-02 8.168470114469528198e-02 -6.139188632369041443e-02 2.315072529017925262e-02 -2.725257351994514465e-02 -1.007676571607589722e-01 -4.687212780117988586e-02 -3.803102672100067139e-02 2.879696711897850037e-02 -9.523922577500343323e-03 3.125032782554626465e-02 -3.461626917123794556e-02 9.356973692774772644e-03 -9.361635893583297729e-02 4.918565973639488220e-04 -6.546103954315185547e-02 -4.585325345396995544e-02 3.493709862232208252e-02 -1.916790306568145752e-01 -8.089634776115417480e-02 -9.907798469066619873e-02 9.127050638198852539e-02 -4.531253129243850708e-02 4.952470771968364716e-03 -2.973422780632972717e-02 -1.392524540424346924e-01 2.632783167064189911e-02 -7.021167874336242676e-02 -1.681561954319477081e-02 -9.076094627380371094e-02 2.341416291892528534e-02 -1.483352482318878174e-01 -1.504058018326759338e-02 -2.848155796527862549e-02 7.665113080292940140e-03 -9.691208600997924805e-02 1.151840854436159134e-02 2.002806030213832855e-02 -7.405736297369003296e-02 3.059372492134571075e-02 2.788997069001197815e-02 5.283269286155700684e-02 4.695399105548858643e-02 7.527711242437362671e-02 -1.739090681076049805e-01 -3.167255595326423645e-02 -4.350686818361282349e-02 1.379323005676269531e-01 -6.336557120084762573e-02 -5.383617058396339417e-02 -6.344670057296752930e-02 -4.822903126478195190e-02 3.468946740031242371e-02 -5.653144046664237976e-02 -5.117909237742424011e-02 -1.154728010296821594e-01 8.139178156852722168e-03 -2.476228401064872742e-02 -8.181508630514144897e-02 -2.336902357637882233e-02 1.483280025422573090e-02
3.799354732036590576e-01 -2.176858484745025635e-02 4.293273389339447021e-02 -1.925322785973548889e-02 1.096319630742073059e-01 8.582624793052673340e-02 -4.464642843231558800e-04 -3.234547749161720276e-02 -1.250908523797988892e-02 3.729835525155067444e-02 -4.355238005518913269e-02 1.425094306468963623e-01 -6.395553238689899445e-03 -1.173707619309425354e-01 9.822389110922813416e-03 -3.479740582406520844e-03 8.952832780778408051e-03 -3.231026604771614075e-02 -1.746049150824546814e-02 3.618330461904406548e-03 -2.298110863193869591e-03 -8.101589046418666840e-03 -1.384297572076320648e-02 -3.289919719099998474e-02 -1.022454500198364258e-01 -1.428395509719848633e-03 -9.907746687531471252e-03 -5.879797413945198059e-02 -2.963452786207199097e-02 -1.981646567583084106e-02 7.650731503963470459e-02 -2.571500279009342194e-02 -9.182930923998355865e-03 1.503529259935021400e-03 1.637860946357250214e-02 1.053166389465332031e-02 -1.009557116776704788e-02 4.448960721492767334e-01 3.635212033987045288e-02 -1.970903575420379639e-02 -9.930762648582458496e-02 -1.714068464934825897e-02 -1.197614124976098537e-03 -7.804155349731445312e-03 3.205532953143119812e-02 -3.670977056026458740e-02 -1.047830805182456970e-01 6.251878291368484497e-02 5.705457180738449097e-02 3.438678011298179626e-02 3.188779950141906738e-02 8.698035031557083130e-02 -9.621375240385532379e-03 -1.030082255601882935e-02 -9.088419377803802490e-02 -1.326968520879745483e-01 -5.300565622746944427e-03 2.229020744562149048e-02 1.412749383598566055e-02 2.043994329869747162e-02 -9.175287187099456787e-02 4.815302789211273193e-03 -2.465871535241603851e-02 1.628350280225276947e-02 8.802926540374755859e-02 -7.073350995779037476e-02 -4.743552207946777344e-02 -4.140160232782363892e-02 7.277410477399826050e-03 1.193062961101531982e-02 3.504460304975509644e-02 3.209806978702545166e-03 -3.735851962119340897e-03 3.869462525472044945e-03 4.292964339256286621e-01 1.402081102132797241e-01 5.591102689504623413e-02 1.005813106894493103e-01 -9.788394905626773834e-03 1.314370334148406982e-02 5.068786069750785828e-02 5.304558202624320984e-03 -2.837594784796237946e-02 4.727910738438367844e-03 3.049932979047298431e-02 1.850320696830749512e-01 8.917086571455001831e-02 3.392319381237030029e-02 -3.994024917483329773e-02 1.752742391545325518e-04 7.226696470752358437e-05 -2.953688986599445343e-02 -1.855255477130413055e-02 -3.535268828272819519e-02 -2.445803210139274597e-02 -1.800909824669361115e-02 1.705324463546276093e-02 8.749616146087646484e-02 -5.523182451725006104e-02 5.073363333940505981e-02 2.012750320136547089e-02 1.739389635622501373e-02 -6.007982417941093445e-02 -4.350419715046882629e-02 -5.334668233990669250e-02 1.737639866769313812e-02 2.391852810978889465e-02 3.440284170210361481e-03 -5.874178372323513031e-03 1.375722233206033707e-02 -5.499633029103279114e-03 2.455031871795654297e-01 1.539652198553085327e-01 7.256112992763519287e-02 -5.064004659652709961e-02 -9.041620045900344849e-02 1.968210786581039429e-01 -7.457810640335083008e-02 -3.832587599754333496e-02 1.391850858926773071e-01 4.008471593260765076e-02 1.663042455911636353e-01 1.762629598379135132e-01 2.119178883731365204e-02 -1.956277713179588318e-02 7.164046168327331543e-03 -1.486935466527938843e-02 2.106978499796241522e-04 2.278653532266616821e-02 3.474912606179714203e-03 3.242162615060806274e-02 6.889265961945056915e-03 1.363903470337390900e-02 -1.502440404146909714e-02 -5.219668149948120117e-02 2.479714155197143555e-02 -3.727020323276519775e-02 -5.653057247400283813e-03 -4.172627255320549011e-02 -8.062293380498886108e-02 -5.624155048280954361e-03 2.736427821218967438e-02 -1.412511803209781647e-02 -5.945499986410140991e-03 -3.761537373065948486e-02 3.585086017847061157e-02 9.096003137528896332e-03 2.001417241990566254e-02 1.826714724302291870e-01 1.695035994052886963e-01 -3.389857336878776550e-02 -7.584841549396514893e-02 1.950662583112716675e-02 -1.551407668739557266e-02 -2.379534579813480377e-02 -3.689734963700175285e-03 -3.701469302177429199e-02 3.069225884974002838e-02 1.481153536587953568e-02 6.438980810344219208e-03 5.368639528751373291e-02 4.535860382020473480e-03 3.632511012256145477e-03 1.086498145014047623e-02 -5.824435129761695862e-02 -3.408178314566612244e-02 3.991012647747993469e-02 -3.515158966183662415e-02 2.027820795774459839e-02 -8.319973945617675781e-03 4.461972787976264954e-02 3.281816467642784119e-02 3.954891115427017212e-03 9.527356363832950592e-03 3.486833348870277405e-02 -6.045261025428771973e-02 -1.443847864866256714e-01 -6.597316265106201172e-02 3.289755433797836304e-02 1.490251626819372177e-02 5.880767013877630234e-03 2.348747104406356812e-02 1.030966453254222870e-02 6.358176469802856445e-04 8.073975332081317902e-04 1.844816803932189941e-01 2.026024609804153442e-01 7.066801935434341431e-02 -1.507483422756195068e-01 3.515296056866645813e-02 7.745824754238128662e-02 5.561490356922149658e-02 -2.066385895013809204e-01 -9.725186973810195923e-03 -1.437820792198181152e-01 4.518423229455947876e-02 -1.169989034533500671e-01 1.953962631523609161e-02 6.515806168317794800e-02 -3.355382382869720459e-02 -1.787285134196281433e-02 8.919140323996543884e-03 -1.653881743550300598e-02 -2.459592744708061218e-02 5.201449617743492126e-02 -5.661343690007925034e-03 7.102996110916137695e-03 -1.886374130845069885e-02 5.154961347579956055e-02 1.972639933228492737e-02 -7.331151980906724930e-03 -5.780072137713432312e-02 -9.174587577581405640e-02 -4.842757433652877808e-02 3.190301731228828430e-02 1.343552581965923309e-02 4.749087151139974594e-03 4.289971198886632919e-03 -1.395742036402225494e-02 1.534920651465654373e-03 -5.325387232005596161e-03 1.315534114837646484e-02 2.299762889742851257e-02 2.776199281215667725e-01 -1.886766962707042694e-02 5.726408958435058594e-02 -5.285380408167839050e-03 6.248406693339347839e-02 -2.454225905239582062e-03 -1.458181906491518021e-02 3.613078966736793518e-02 -8.564811944961547852e-02 5.314233526587486267e-02 9.936343133449554443e-02 2.629928104579448700e-02 1.011777855455875397e-02 2.441459707915782928e-02 1.112173497676849365e-02 -6.748634856194257736e-03 -7.180007640272378922e-03 2.785786613821983337e-02 -2.496991679072380066e-02 4.071378149092197418e-03 -7.017759140580892563e-03 4.615523293614387512e-02 6.185595877468585968e-03 -1.006735861301422119e-02 -2.724986895918846130e-02 6.924411654472351074e-02 -2.537146909162402153e-03 -1.488188747316598892e-02 -4.115703701972961426e-02 1.094561591744422913e-01 7.087313570082187653e-03 1.683739945292472839e-02 3.125070780515670776e-02 7.382854353636503220e-03 -1.798149384558200836e-02 9.609050117433071136e-03 -1.009331196546554565e-01 4.128729701042175293e-01 -4.472213983535766602e-02 -1.191952452063560486e-01 5.614052340388298035e-02 2.397190406918525696e-02 3.441416844725608826e-02 1.280763745307922363e-01 -2.863433584570884705e-02 1.615215241909027100e-01 7.196672260761260986e-03 -8.286882191896438599e-02 1.603156328201293945e-02 1.028793677687644958e-01 -1.841635629534721375e-02 -2.416502498090267181e-02 1.689976453781127930e-02 -8.599920198321342468e-03 -5.090197175741195679e-02 -2.255888842046260834e-02 -5.163173656910657883e-03 1.450651790946722031e-02 -9.876750409603118896e-03 -1.947843097150325775e-02 2.381059154868125916e-02 4.431297630071640015e-02 -2.334264107048511505e-03 4.840080067515373230e-02 -3.088860586285591125e-02 -5.820435471832752228e-03 4.728496819734573364e-02 -4.930489696562290192e-03 -8.560344576835632324e-03 1.225975714623928070e-02 6.235546618700027466e-02 -2.804304705932736397e-03 2.316281199455261230e-02 -1.621073484420776367e-01 5.168510079383850098e-01 -5.417667329311370850e-02 2.865772321820259094e-02 1.034514978528022766e-01 -4.615278448909521103e-03 1.798537373542785645e-02 1.008100733160972595e-01 9.717220813035964966e-02 -1.932221651077270508e-02 -9.150237590074539185e-02 8.674062043428421021e-02 1.202948391437530518e-02 -7.518257200717926025e-02 -8.914912119507789612e-03 5.196735262870788574e-03 -3.907558508217334747e-03 -5.542865954339504242e-03 -4.448212310671806335e-02 -1.855459436774253845e-02 2.731051295995712280e-02 -1.611068099737167358e-02 3.814120590686798096e-02 2.986902557313442230e-02 1.453855447471141815e-02 3.781009092926979065e-02 2.975644776597619057e-03 -3.802327066659927368e-02 -1.328174322843551636e-01 -5.198381468653678894e-02 -3.674706444144248962e-02 7.416264154016971588e-03 -1.088026817888021469e-02 -1.194525789469480515e-02 5.060089379549026489e-02 -3.649422666057944298e-03 -2.850814489647746086e-03 -3.656103909015655518e-01 5.071516036987304688e-01 -1.764319241046905518e-01 -1.200961470603942871e-01 9.988060593605041504e-02 6.785736232995986938e-02 8.926445990800857544e-02 1.201857998967170715e-02 4.818728566169738770e-02 3.022917173802852631e-02 3.440556302666664124e-02 4.104488343000411987e-02 -5.935890972614288330e-02 -6.570710986852645874e-02 7.498924434185028076e-02 -9.226159192621707916e-03 -4.799663554877042770e-03 9.476562589406967163e-02 1.014032214879989624e-01 -2.962860651314258575e-02 -1.226133294403553009e-02 3.543554106727242470e-03 6.475977599620819092e-02 6.734609603881835938e-02 -8.038197644054889679e-03 -2.473407797515392303e-02 1.413440052419900894e-02 -6.081688031554222107e-02 -9.943773038685321808e-03 -2.150853350758552551e-02 4.843458533287048340e-02 1.525119412690401077e-02 6.376149132847785950e-03 1.782928779721260071e-02 3.983534127473831177e-02 1.491927914321422577e-02 9.381022304296493530e-03 5.595773085951805115e-02 -1.603456586599349976e-01 -1.632582843303680420e-01 -1.185318455100059509e-01 1.026281863451004028e-01 -5.506578460335731506e-02 1.282655894756317139e-01 4.536985885351896286e-03 -1.867046356201171875e-01 2.953159390017390251e-03 3.773594275116920471e-02 -5.201167613267898560e-02 3.311587497591972351e-02 -6.645665853284299374e-04 -3.753432258963584900e-02 -1.962865889072418213e-01 -4.502807557582855225e-02 1.988280378282070160e-02 -5.466604605317115784e-02 -2.183981006965041161e-03 -5.809779092669487000e-02 -1.740611046552658081e-01 -1.022070124745368958e-01 9.610426425933837891e-02 8.166227489709854126e-02 4.238518327474594116e-02 -2.392280846834182739e-02 -1.181593686342239380e-01 -1.137895435094833374e-01 -9.856287389993667603e-02 5.795182660222053528e-02 2.469478733837604523e-02 9.904666244983673096e-02 2.026514150202274323e-02 -2.135937660932540894e-01 3.655780479311943054e-02 -7.464931346476078033e-03 -1.500462554395198822e-02 1.165020279586315155e-02 1.199163794517517090e-01 -1.434831023216247559e-01 -1.265986263751983643e-01 -9.975999593734741211e-02 5.123980715870857239e-02 4.653118923306465149e-02 1.330380886793136597e-01 -5.362619459629058838e-02 -2.076367139816284180e-01 1.448071189224720001e-02 5.466943606734275818e-02 8.234269171953201294e-02 -1.327119320631027222e-01 1.239103637635707855e-02 -1.808103621006011963e-01 -9.025391936302185059e-02 3.353011235594749451e-02 7.126399874687194824e-02 7.231202721595764160e-02 1.151255816221237183e-01 -7.949323207139968872e-02 -1.358586251735687256e-01 1.315425783395767212e-01 -1.827058382332324982e-02 -2.865942753851413727e-02 4.123143386095762253e-03 4.904282093048095703e-02 -1.105833798646926880e-01 -1.316494047641754150e-01 2.992554334923624992e-03 1.253357827663421631e-01 6.839016824960708618e-02 1.226907968521118164e-01 -7.282950729131698608e-02 -2.075903266668319702e-01 4.881529137492179871e-02 -8.772041648626327515e-02 -3.927963227033615112e-02 -2.109685912728309631e-02 8.444460481405258179e-02 -8.742208778858184814e-02 -9.361629188060760498e-02 7.699950784444808960e-02 1.105709820985794067e-01 -3.388567594811320305e-03 2.077998071908950806e-01 -3.770451992750167847e-02 -1.762097775936126709e-01 7.230244576930999756e-02 -5.841465294361114502e-02 5.018250644207000732e-02 4.717904329299926758e-02 -2.188263088464736938e-02 -6.368540227413177490e-02 -7.165181636810302734e-02 3.298682719469070435e-02 1.212775986641645432e-02 5.646350607275962830e-02 1.414660662412643433e-01 2.830432960763573647e-03 -9.919903427362442017e-02 6.279889494180679321e-02 6.792451441287994385e-02 -2.662050165235996246e-02 5.222789198160171509e-02 -1.725585572421550751e-02 -9.969088248908519745e-03 5.252365395426750183e-02 1.174920052289962769e-01 -3.718460351228713989e-02 1.340804845094680786e-01 1.288038939237594604e-01 4.619725421071052551e-02 8.481315523386001587e-02 -8.929821103811264038e-02 -5.401999223977327347e-03 2.079096809029579163e-02 -9.459818899631500244e-02
5.768390744924545288e-02 -8.642951399087905884e-02 -9.445439279079437256e-02 8.307059854269027710e-02 9.093481302261352539e-02 -3.606255864724516869e-03 -1.042383164167404175e-01 8.404964208602905273e-02 6.794201582670211792e-02 -6.993467360734939575e-02 -8.641734719276428223e-03 8.967728912830352783e-02 2.532753534615039825e-02 4.331501573324203491e-02 -5.658358708024024963e-02 -1.317537389695644379e-02 2.283276990056037903e-02 -6.524522602558135986e-02 -1.354810595512390137e-01 -1.837721094489097595e-02 -1.434524171054363251e-02 7.059947587549686432e-03 -3.427463816478848457e-04 4.489788785576820374e-02 -1.922806352376937866e-02 -1.720034331083297729e-02 8.970851078629493713e-03 -1.472219526767730713e-01 1.775398999452590942e-01 -2.841536328196525574e-02 -5.925222858786582947e-02 1.852606609463691711e-02 4.504054784774780273e-02 -3.244164213538169861e-02 -2.888862229883670807e-02 4.467837139964103699e-02 1.757989823818206787e-02 -6.459131836891174316e-02 -1.773387491703033447e-01 1.499844621866941452e-02 1.126171350479125977e-01 -1.143891289830207825e-01 1.682602241635322571e-02 4.162505269050598145e-02 -7.866555452346801758e-02 -2.086752466857433319e-02 -3.562258929014205933e-02 -1.702707522781565785e-04 1.090381741523742676e-01 -5.683439970016479492e-02 1.617185043869540095e-04 1.111906170845031738e-01 -2.662576036527752876e-03 -2.637655101716518402e-02 4.992909356951713562e-02 1.333736628293991089e-01 6.593170762062072754e-02 3.419296815991401672e-03 2.168827503919601440e-02 -3.299388289451599121e-02 3.383454459253698587e-04 -2.359779365360736847e-02 -2.804354298859834671e-03 -4.112324863672256470e-02 -3.657265007495880127e-02 1.693475693464279175e-01 4.272922128438949585e-02 7.649812102317810059e-02 -2.132427878677845001e-02 -6.813206523656845093e-02 3.694454208016395569e-02 -3.032680973410606384e-02 -3.068133071064949036e-02 -5.292676761746406555e-02 -4.031588509678840637e-02 -2.270246157422661781e-03 5.218703299760818481e-02 -1.131906285881996155e-01 8.523285388946533203e-02 -1.521311104297637939e-01 -1.023505907505750656e-02 -9.071066975593566895e-02 -1.054815277457237244e-01 -1.090904921293258667e-01 -1.057575419545173645e-01 -5.605355650186538696e-02 1.759233884513378143e-02 -5.425737705081701279e-03 -1.732477359473705292e-02 2.609021216630935669e-02 2.508922852575778961e-02 2.613153681159019470e-02 -4.637783858925104141e-03 -7.509926706552505493e-02 1.629257202148437500e-02 -5.187146738171577454e-02 2.079513296484947205e-02 -1.213861107826232910e-01 -5.469186231493949890e-03 5.036247149109840393e-02 4.987369850277900696e-02 -1.505182683467864990e-01 2.087551951408386230e-01 -1.734892837703227997e-02 7.353356480598449707e-02 -2.782372198998928070e-02 4.304872453212738037e-02 -8.181513845920562744e-02 2.919879928231239319e-02 7.618722505867481232e-03 4.471719637513160706e-02 -1.302837859839200974e-02 -5.734654143452644348e-02 8.254017680883407593e-02 3.505772352218627930e-02 1.785197854042053223e-02 -4.065330326557159424e-02 5.341467633843421936e-02 -6.590552628040313721e-02 -1.043345108628273010e-01 -2.557452535256743431e-03 -4.465250298380851746e-02 -1.063570678234100342e-01 5.856139212846755981e-02 -1.300431508570909500e-02 -3.558355569839477539e-02 -2.768395934253931046e-03 4.098106175661087036e-02 1.025690063834190369e-01 1.060532312840223312e-02 2.370355837047100067e-02 -4.157299548387527466e-02 -5.988445598632097244e-03 -3.012248547747731209e-03 3.489002212882041931e-02 -8.033246733248233795e-03 -3.505766391754150391e-02 -1.939215697348117828e-02 -1.561842858791351318e-01 3.294082283973693848e-01 -3.436561301350593567e-02 -1.203032489866018295e-02 4.416077584028244019e-02 -1.212403550744056702e-02 5.980968847870826721e-02 1.523111574351787567e-02 -2.635021321475505829e-02 2.932215807959437370e-03 -7.046115119010210037e-03 -7.583331316709518433e-02 4.225128144025802612e-02 -6.833358108997344971e-02 3.484413400292396545e-02 1.213665455579757690e-01 -9.469700604677200317e-02 7.265287637710571289e-02 2.897586673498153687e-02 1.541261095553636551e-02 -2.524175681173801422e-02 -2.324645407497882843e-02 4.643044620752334595e-02 3.813669458031654358e-02 1.081195995211601257e-01 -3.353887936100363731e-03 -3.961261734366416931e-02 -2.252200990915298462e-02 1.620968990027904510e-02 -2.768113091588020325e-02 5.130045115947723389e-02 2.101095765829086304e-02 -2.117734961211681366e-02 -2.551121078431606293e-02 -4.706852510571479797e-02 -2.026134170591831207e-02 -6.546454969793558121e-03 -8.815387636423110962e-02 1.525606364011764526e-01 -1.996473595499992371e-02 -2.928043901920318604e-02 3.885831311345100403e-02 -2.239639312028884888e-02 1.689316821284592152e-03 -4.041339457035064697e-02 -1.272506546229124069e-02 9.583664359524846077e-04 -5.013264343142509460e-02 -6.188039481639862061e-02 9.425577521324157715e-02 -5.812393128871917725e-02 4.601564258337020874e-02 -1.094249337911605835e-01 -1.033016964793205261e-01 1.574822217226028442e-01 7.924292981624603271e-02 1.822059624828398228e-03 4.343544319272041321e-02 -5.164789780974388123e-02 -2.328526973724365234e-02 1.799120218493044376e-03 -8.112937957048416138e-02 -3.871437907218933105e-02 5.082442983984947205e-02 -3.134613111615180969e-02 2.893616445362567902e-02 6.824708729982376099e-02 -5.047041177749633789e-02 3.079917840659618378e-02 2.858874574303627014e-02 -3.755948692560195923e-02 6.669264752417802811e-03 4.832265898585319519e-02 -3.688674420118331909e-02 -1.246908828616142273e-01 3.744112849235534668e-01 6.572073698043823242e-02 -1.780752651393413544e-02 1.083941292017698288e-02 2.140480864909477532e-05 1.498812530189752579e-02 -5.241361912339925766e-03 5.266799032688140869e-02 4.259948804974555969e-02 2.661046385765075684e-02 6.658136844635009766e-02 2.187896892428398132e-02 -3.264897037297487259e-03 6.387940794229507446e-02 -3.841441497206687927e-02 1.296405047178268433e-01 2.866790629923343658e-02 9.200216084718704224e-02 -7.722253352403640747e-02 -1.947520649991929531e-03 -7.906550168991088867e-02 4.481993615627288818e-02 2.323505654931068420e-02 -4.268613457679748535e-02 3.113672137260437012e-02 4.379205405712127686e-02 1.115865353494882584e-02 3.614053130149841309e-02 1.594246132299304008e-04 2.167683839797973633e-02 -2.794760093092918396e-02 -7.916416972875595093e-02 3.405296057462692261e-02 1.281370315700769424e-02 7.906368002295494080e-03 5.350895971059799194e-02 -1.009725779294967651e-01 2.063356190919876099e-01 7.776445150375366211e-02 -5.457139015197753906e-02 -4.582940414547920227e-02 -1.735952123999595642e-02 -3.265239298343658447e-02 -3.558737039566040039e-02 -2.796155028045177460e-02 -3.643871098756790161e-02 -2.318218909204006195e-02 2.077405899763107300e-02 -3.442025184631347656e-02 7.773576304316520691e-03 -7.051151245832443237e-02 -2.069017477333545685e-02 2.865592017769813538e-02 -5.570560693740844727e-02 1.008183322846889496e-02 8.058126270771026611e-02 -6.592014431953430176e-02 3.956119343638420105e-02 -2.350783720612525940e-02 -5.204452201724052429e-02 -1.305464655160903931e-01 -7.438569795340299606e-03 1.223450247198343277e-02 2.507798187434673309e-02 -3.495093062520027161e-02 -1.597334630787372589e-02 2.756346948444843292e-02 -1.539953146129846573e-02 -4.453651979565620422e-02 6.146537885069847107e-02 1.146761700510978699e-03 -4.249771684408187866e-02 -1.974635943770408630e-02 -1.533014178276062012e-01 1.643166244029998779e-01 -2.936366014182567596e-02 2.363317832350730896e-02 3.678540512919425964e-02 6.848633289337158203e-02 2.015714906156063080e-02 7.992044091224670410e-02 -4.231768101453781128e-02 -1.748886890709400177e-02 6.538741290569305420e-02 3.367257118225097656e-02 2.497848821803927422e-03 -2.220353297889232635e-02 -4.165713861584663391e-02 1.186850965023040771e-01 1.697371900081634521e-02 5.880257114768028259e-02 3.866042196750640869e-02 7.877986133098602295e-02 2.400365285575389862e-02 -6.813360005617141724e-02 -1.198540180921554565e-01 -1.766119338572025299e-02 -3.582514356821775436e-03 1.293293200433254242e-02 -2.626593410968780518e-02 -6.419034302234649658e-02 -6.386314332485198975e-02 -6.232078373432159424e-02 -3.567217616364359856e-03 1.621486269868910313e-03 7.664909213781356812e-02 -6.145926192402839661e-02 -4.286862909793853760e-02 -3.658879175782203674e-02 -1.558322645723819733e-02 -5.446476489305496216e-02 2.114801853895187378e-01 -2.868711762130260468e-02 -5.359489470720291138e-02 1.734261214733123779e-02 4.214939102530479431e-02 -3.066656552255153656e-02 -5.951063334941864014e-02 -2.157005015760660172e-03 3.736925497651100159e-02 -2.190553024411201477e-02 1.554169207811355591e-01 3.814977034926414490e-02 -3.488487750291824341e-02 -9.682483971118927002e-02 6.852417439222335815e-02 1.885123737156391144e-02 -1.325940340757369995e-01 -1.661471277475357056e-02 3.449042141437530518e-02 5.917250365018844604e-02 2.418186701834201813e-02 -5.901130288839340210e-02 -1.917076855897903442e-02 7.145830988883972168e-02 -1.441056653857231140e-02 -9.305553510785102844e-03 -2.301918715238571167e-02 -1.922629028558731079e-02 1.439484301954507828e-02 -1.532499119639396667e-02 -9.758073836565017700e-03 -1.548398751765489578e-02 8.912876993417739868e-02 1.234200671315193176e-01 5.753803998231887817e-02 -8.546662516891956329e-03 -1.182523593306541443e-01 1.799386292695999146e-01 -3.795234486460685730e-02 2.747715637087821960e-02 -3.897988796234130859e-02 -8.630332350730895996e-02 -5.464197136461734772e-03 1.361083704978227615e-04 -2.970525622367858887e-02 -3.138715028762817383e-02 -1.987049728631973267e-02 -3.445171192288398743e-02 -1.038153283298015594e-02 -3.449071571230888367e-02 2.829281985759735107e-02 -2.454369142651557922e-02 4.872705414891242981e-02 -4.152291920036077499e-03 6.088482681661844254e-03 2.688254415988922119e-02 3.488540882244706154e-03 -4.288713634014129639e-02 -2.206176053732633591e-03 -3.743588179349899292e-02 -1.289049237966537476e-01 -3.254823759198188782e-02 -3.002016618847846985e-02 -3.321484476327896118e-02 3.769393265247344971e-02 -9.752789139747619629e-02 -4.763697460293769836e-02 1.386568993330001831e-01 -5.243378877639770508e-02 6.595065444707870483e-02 -3.334571421146392822e-02 -7.904074154794216156e-03 -7.554830517619848251e-03 5.151932314038276672e-02 7.408957928419113159e-02 -1.263925582170486450e-01 2.391981147229671478e-02 -3.580218926072120667e-02 -1.598695516586303711e-01 -9.499845653772354126e-02 -8.363198488950729370e-02 -3.716669604182243347e-02 1.836012676358222961e-02 5.011579394340515137e-02 -3.768267482519149780e-02 3.505969047546386719e-02 9.406497329473495483e-02 -1.397600118070840836e-02 -8.021858520805835724e-03 6.078954413533210754e-02 -3.413762897253036499e-02 -5.468920990824699402e-02 -4.664998501539230347e-03 1.022863294929265976e-02 -5.403217673301696777e-02 3.011061809957027435e-02 -7.018575072288513184e-02 7.081537507474422455e-03 -1.328396145254373550e-03 6.782434135675430298e-02 -5.599245429039001465e-03 1.180524355731904507e-03 -3.380465880036354065e-02 -5.264014005661010742e-02 6.683795154094696045e-02 5.047449097037315369e-02 -6.046439707279205322e-02 -1.918526180088520050e-02 3.650018572807312012e-02 -2.910262346267700195e-02 1.467191148549318314e-02 -5.891789868474006653e-02 -2.934846654534339905e-02 1.320029050111770630e-02 4.805754870176315308e-02 1.797914654016494751e-01 2.677406556904315948e-02 1.157882064580917358e-01 7.359822094440460205e-02 -3.499356657266616821e-02 -1.550779938697814941e-01 4.544233903288841248e-02 5.692393705248832703e-02 2.454616874456405640e-02 -3.864499926567077637e-02 -2.446362189948558807e-02 -2.950792387127876282e-02 2.648362889885902405e-02 4.874616861343383789e-02 1.265058666467666626e-01 1.596265472471714020e-02 4.549861326813697815e-02 3.004159778356552124e-02 -5.916528776288032532e-02 -3.207661956548690796e-02 1.203994899988174438e-01 -6.143629550933837891e-03 6.722130626440048218e-02 5.622842535376548767e-02 2.746989252045750618e-03 1.771748438477516174e-02 -1.093749143183231354e-02 5.889338999986648560e-02 2.587532810866832733e-02 -9.749527275562286377e-02 -6.091676279902458191e-02 -2.807751670479774475e-02 8.050425350666046143e-02 -2.867141738533973694e-02 5.856966599822044373e-02 3.281974419951438904e-02 -1.368674822151660919e-02 3.128370735794305801e-03 1.773584447801113129e-02 6.374599039554595947e-02 -1.462946645915508270e-03 -9.268100559711456299e-02 -1.974690007045865059e-03 -4.210651665925979614e-02 -7.972736656665802002e-02 5.241258069872856140e-02 5.139884352684020996e-02 5.203557014465332031e-02
8.592644333839416504e-02 5.786354839801788330e-02 -4.684924334287643433e-02 7.590523362159729004e-02 -8.060501515865325928e-02 1.648843102157115936e-02 -5.419991444796323776e-03 2.676468342542648315e-03 2.365596359595656395e-03 -2.210554480552673340e-02 -4.596613347530364990e-02 9.634996205568313599e-02 -1.283963769674301147e-02 5.229736678302288055e-03 1.480332463979721069e-01 2.138189598917961121e-02 -2.176763489842414856e-02 -4.254808276891708374e-02 -7.194471359252929688e-02 -1.535222213715314865e-02 -2.732564881443977356e-02 -2.074312418699264526e-02 1.362054143100976944e-02 -1.354056503623723984e-02 -2.488825283944606781e-02 -2.231974387541413307e-03 2.935471385717391968e-02 -1.388471690006554127e-03 -2.029819190502166748e-01 6.527736783027648926e-02 3.133616596460342407e-02 1.903581991791725159e-02 7.294390350580215454e-03 4.629410430788993835e-02 2.379575930535793304e-02 1.083980314433574677e-02 1.571190729737281799e-02 7.458112388849258423e-02 -4.257730324752628803e-04 4.796830937266349792e-02 6.967984139919281006e-02 6.974160671234130859e-02 2.404966019093990326e-02 -6.985696405172348022e-02 1.561797130852937698e-02 -9.825967997312545776e-02 -3.721109032630920410e-02 2.851963788270950317e-02 -5.953770875930786133e-02 4.253037646412849426e-02 -4.097241535782814026e-02 -7.737944368273019791e-03 -3.153721243143081665e-02 -2.906043082475662231e-03 1.311549823731184006e-02 -1.023061946034431458e-02 -3.168917074799537659e-02 5.611068010330200195e-02 2.024951949715614319e-02 2.082364633679389954e-03 9.678782522678375244e-02 4.319288954138755798e-02 2.168658003211021423e-02 -1.467387378215789795e-02 7.478830963373184204e-02 -1.948207616806030273e-01 -3.424689546227455139e-02 1.209271140396595001e-03 -1.069868542253971100e-02 1.451410353183746338e-02 -2.142675034701824188e-02 -3.025767393410205841e-02 4.693422466516494751e-02 4.993910342454910278e-02 6.262828409671783447e-02 5.128121003508567810e-02 -3.280276805162429810e-02 -1.048718020319938660e-01 -1.014423370361328125e-02 1.176412254571914673e-01 -1.799645461142063141e-02 -1.444073021411895752e-01 -3.047745302319526672e-02 -6.554501596838235855e-03 -4.167855158448219299e-02 4.761528223752975464e-02 -1.420629173517227173e-01 -5.516839027404785156e-02 -1.314256526529788971e-02 3.158183768391609192e-02 -1.659396477043628693e-02 9.650039672851562500e-02 6.482496857643127441e-02 7.829922833479940891e-04 -3.195717558264732361e-02 -2.837534807622432709e-02 -6.342364009469747543e-03 -6.597547233104705811e-02 -3.467475995421409607e-02 -1.842943578958511353e-02 -2.233267016708850861e-02 3.547524288296699524e-02 -2.457553595304489136e-01 2.106233499944210052e-02 -2.049569040536880493e-02 -1.710407622158527374e-02 -3.555272240191698074e-03 -4.068737104535102844e-02 5.286753643304109573e-03 -3.110902570188045502e-02 -1.226121839135885239e-02 -1.478004083037376404e-02 5.955834686756134033e-02 -6.750496570020914078e-03 5.081937462091445923e-02 3.477050457149744034e-03 5.455810949206352234e-02 8.156611025333404541e-02 4.558053985238075256e-02 4.317382350564002991e-02 -4.000061377882957458e-02 8.408842235803604126e-02 4.816786199808120728e-02 6.091508269309997559e-02 3.019665740430355072e-02 -1.841341257095336914e-01 -1.455056108534336090e-02 6.996307522058486938e-02 -5.872163921594619751e-02 -4.914895072579383850e-02 3.783078864216804504e-02 1.528205699287354946e-03 2.742890268564224243e-02 2.775497036054730415e-03 2.970941178500652313e-02 -2.771332859992980957e-03 -3.573753172531723976e-03 7.119586318731307983e-02 1.060866191983222961e-01 -2.773258984088897705e-01 -2.564837038516998291e-02 9.801939129829406738e-02 3.487924858927726746e-02 -1.919322996400296688e-03 -1.100752223283052444e-02 -3.633784875273704529e-02 2.124614268541336060e-02 2.443056739866733551e-02 -9.312818199396133423e-02 -3.859943896532058716e-02 2.223288454115390778e-02 -2.833835966885089874e-02 -1.175570115447044373e-01 -1.014162078499794006e-01 -2.301218733191490173e-02 1.078483369201421738e-02 2.056523226201534271e-02 -5.262179300189018250e-03 -1.638079732656478882e-01 -9.965391829609870911e-03 6.372942775487899780e-02 2.334137912839651108e-03 -1.073643378913402557e-02 1.848073489964008331e-02 -6.668903678655624390e-02 5.877913162112236023e-02 1.463592052459716797e-02 -5.357584357261657715e-02 -1.860581710934638977e-02 -3.500730544328689575e-02 3.670921176671981812e-02 -1.833033282309770584e-03 4.389885440468788147e-02 3.477256372570991516e-02 -6.104932725429534912e-02 1.359093040227890015e-01 -3.062210083007812500e-01 -4.791988432407379150e-02 -4.199313744902610779e-02 1.875885389745235443e-02 3.636232286226004362e-04 -2.420991222606971860e-04 2.821922244038432837e-04 -1.028837636113166809e-02 -4.971452429890632629e-02 -7.635275274515151978e-02 5.841723829507827759e-02 -1.400702632963657379e-02 1.090137846767902374e-02 5.883368849754333496e-02 4.800876975059509277e-02 7.748633623123168945e-02 -1.070380490273237228e-02 -1.760542858392000198e-03 -1.132864505052566528e-03 1.539726182818412781e-02 -4.250308871269226074e-02 -4.608344286680221558e-03 9.102245420217514038e-02 -3.361806273460388184e-02 -1.537079736590385437e-02 -4.710067063570022583e-02 -7.770157605409622192e-02 -2.926440164446830750e-02 -2.047241199761629105e-03 3.674565814435482025e-03 2.250247448682785034e-02 1.263828296214342117e-02 1.942019350826740265e-02 -8.270450681447982788e-02 6.661119405180215836e-03 4.528657719492912292e-02 3.267469257116317749e-02 -2.268856018781661987e-01 -1.029100175946950912e-02 6.767582148313522339e-02 -9.316113777458667755e-03 -2.685624361038208008e-02 -2.330242283642292023e-02 -7.886050734668970108e-04 1.946470886468887329e-02 1.987009681761264801e-02 -9.998432546854019165e-02 1.385782212018966675e-01 -7.282648701220750809e-03 1.095680445432662964e-01 -1.038413271307945251e-01 -9.884548932313919067e-02 3.923556581139564514e-02 -4.200103878974914551e-02 7.579381763935089111e-02 3.585515171289443970e-02 3.804042935371398926e-02 -6.357352435588836670e-02 6.631689518690109253e-02 6.900919973850250244e-02 2.438247203826904297e-02 2.369347214698791504e-02 6.574190221726894379e-03 5.623836070299148560e-02 2.808058261871337891e-02 4.888791590929031372e-02 8.100295439362525940e-03 -1.030144561082124710e-02 -4.236816894263029099e-03 -8.665833622217178345e-03 1.994324289262294769e-02 1.743304915726184845e-02 7.830633781850337982e-03 7.602389156818389893e-02 -1.759372055530548096e-01 -5.907201021909713745e-02 -9.848941862583160400e-02 -6.879151333123445511e-03 3.820560406893491745e-03 -1.062318682670593262e-01 -9.210074320435523987e-03 1.237490866333246231e-02 4.996832087635993958e-02 1.619025133550167084e-02 -6.448335200548171997e-02 1.058529019355773926e-01 3.156154882162809372e-03 -7.123052328824996948e-02 -3.190921992063522339e-02 -8.915936946868896484e-02 -2.344989217817783356e-02 -8.783176541328430176e-02 6.058841198682785034e-02 -5.621898453682661057e-03 3.644015640020370483e-02 -1.158772110939025879e-01 1.324500739574432373e-01 2.263819053769111633e-02 -1.066225115209817886e-02 1.513488683849573135e-02 8.806058205664157867e-03 4.526976495981216431e-03 -8.411118388175964355e-02 -1.989831216633319855e-02 -1.898100785911083221e-02 -2.010664716362953186e-02 5.518182739615440369e-02 8.767156302928924561e-02 -1.759062707424163818e-02 -1.092675421386957169e-02 1.358171999454498291e-01 -7.053630053997039795e-02 1.212411597371101379e-01 2.596463635563850403e-02 5.236481502652168274e-02 -6.750063970685005188e-03 7.711021229624748230e-03 1.515122875571250916e-02 3.823497565463185310e-03 -2.104042656719684601e-02 -2.483738027513027191e-02 2.143113315105438232e-02 -4.998100921511650085e-02 -3.283002972602844238e-02 -9.778653830289840698e-02 7.379794865846633911e-02 1.059168130159378052e-01 3.695971891283988953e-02 -3.288290649652481079e-02 -7.744152098894119263e-02 4.461925849318504333e-02 -3.512136638164520264e-02 2.656897157430648804e-02 -1.258787512779235840e-01 -9.926802664995193481e-02 -1.334364991635084152e-02 8.716938085854053497e-03 5.557118356227874756e-02 5.843545868992805481e-02 7.629732042551040649e-02 1.613682508468627930e-02 4.125537350773811340e-02 1.481640152633190155e-02 1.301157608395442367e-04 -1.532092224806547165e-03 3.576740995049476624e-02 2.888919971883296967e-02 9.369474835693836212e-03 -2.050345540046691895e-01 1.682359352707862854e-02 -1.210034824907779694e-02 -1.806197129189968109e-02 -9.888732805848121643e-03 1.535658258944749832e-03 -3.521015867590904236e-02 -2.903212234377861023e-02 -1.782407239079475403e-02 -1.073203310370445251e-01 1.719869971275329590e-01 4.806012660264968872e-02 4.315049573779106140e-02 1.481891721487045288e-01 -4.161607846617698669e-02 3.358817473053932190e-02 2.747529372572898865e-02 8.668244699947535992e-04 -9.926521778106689453e-02 -2.998701669275760651e-02 3.313394263386726379e-02 2.599142724648118019e-03 5.483285337686538696e-02 -4.478664323687553406e-02 1.715654693543910980e-02 -3.342640772461891174e-02 -2.865884639322757721e-02 -1.485103182494640350e-02 -4.826870188117027283e-02 -2.566871792078018188e-02 -3.651044517755508423e-02 3.964880015701055527e-03 4.672299697995185852e-02 6.672953069210052490e-02 5.699831619858741760e-02 -6.440119817852973938e-03 -3.835304826498031616e-02 -1.437956988811492920e-01 -1.101204156875610352e-01 3.443677350878715515e-02 2.861869335174560547e-02 2.074523270130157471e-02 9.474349021911621094e-02 -4.325005784630775452e-02 -1.912286132574081421e-02 2.264354377985000610e-02 -1.194059252738952637e-01 -9.641343355178833008e-02 -5.952616035938262939e-02 -7.043764740228652954e-02 -3.577791899442672729e-02 4.997054114937782288e-02 -7.001014053821563721e-02 -7.646684348583221436e-02 2.072645910084247589e-02 -9.159883111715316772e-02 6.758411414921283722e-03 4.219448193907737732e-02 7.431786507368087769e-02 7.396430708467960358e-03 -1.185759156942367554e-01 4.109461605548858643e-02 -4.875583946704864502e-02 -7.312491536140441895e-02 5.655901879072189331e-02 -8.130503445863723755e-02 5.744383204728364944e-03 9.810179471969604492e-02 -9.636002033948898315e-02 -3.653811290860176086e-02 -7.758699357509613037e-02 6.820312887430191040e-02 4.895488917827606201e-02 9.263992309570312500e-03 1.761450991034507751e-02 2.808357961475849152e-02 5.367455631494522095e-02 4.908227548003196716e-02 9.526048600673675537e-02 -1.343234069645404816e-02 4.323147237300872803e-02 -4.578329995274543762e-02 -5.523898079991340637e-02 -5.384696647524833679e-03 8.717095851898193359e-02 1.334581431001424789e-02 -3.015097044408321381e-02 2.770717255771160126e-02 -9.470820426940917969e-02 1.182998120784759521e-01 7.758818566799163818e-02 -7.032024860382080078e-02 -7.505754381418228149e-02 -6.376820802688598633e-02 2.270322665572166443e-02 3.694540634751319885e-02 -3.966771997511386871e-03 4.917350132018327713e-03 -1.738001708872616291e-03 -9.285170584917068481e-03 -8.982552587985992432e-02 -8.935183286666870117e-02 -2.164991199970245361e-02 5.066966637969017029e-02 2.014604583382606506e-02 6.042814999818801880e-02 -4.746428504586219788e-02 -9.040343761444091797e-02 -5.286750942468643188e-02 -5.605730414390563965e-02 2.662157267332077026e-02 9.207478165626525879e-02 2.083294838666915894e-02 2.621789835393428802e-02 -4.414260759949684143e-02 3.499207273125648499e-02 1.149583235383033752e-01 6.559942662715911865e-02 -5.759658664464950562e-02 -3.974335268139839172e-02 -1.766163855791091919e-01 1.698025688529014587e-02 2.517123939469456673e-03 -2.877185866236686707e-02 2.746569924056529999e-02 -9.524567425251007080e-02 -5.951130762696266174e-02 -2.715632691979408264e-02 -6.626307219266891479e-02 2.232934348285198212e-03 -6.178189814090728760e-02 -5.968719348311424255e-02 5.110927298665046692e-02 -3.975937515497207642e-02 3.101629763841629028e-02 1.583467982709407806e-02 -1.200410258024930954e-02 2.697666548192501068e-02 -4.417484742589294910e-04 -5.783774890005588531e-03 -4.000818729400634766e-02 1.565892845392227173e-01 5.549222975969314575e-02 1.918759644031524658e-01 7.502311468124389648e-02 4.480097815394401550e-02 -5.856639146804809570e-02 8.648461103439331055e-02 1.881198212504386902e-02 -7.225755136460065842e-03 1.583652198314666748e-02 -5.470782890915870667e-02 1.616050861775875092e-02 -3.533712029457092285e-02 8.619683235883712769e-02 2.309019118547439575e-02 2.750311419367790222e-02 -9.843651950359344482e-02 9.257599711418151855e-02 -1.417935341596603394e-01 -1.137881428003311157e-01 3.345707058906555176e-02 6.943247467279434204e-02
-1.510836631059646606e-01 1.474411189556121826e-01 -1.292850375175476074e-01 1.058079078793525696e-01 -7.007522881031036377e-02 1.250842306762933731e-02 7.434198260307312012e-02 1.462478563189506531e-02 -3.210935101378709078e-04 1.258243322372436523e-01 1.955196857452392578e-01 9.960569441318511963e-02 1.704312302172183990e-02 -4.264445509761571884e-03 8.207390457391738892e-02 2.107470296323299408e-02 -2.971479855477809906e-02 -7.380677852779626846e-03 -7.373704761266708374e-02 -2.899111062288284302e-02 -2.331175655126571655e-02 -2.521748282015323639e-02 2.373479306697845459e-02 1.167904492467641830e-02 4.473147168755531311e-02 -5.277114734053611755e-02 -2.440751343965530396e-02 -2.084476500749588013e-01 -1.153243333101272583e-01 3.698231652379035950e-02 -4.121950641274452209e-02 1.644110679626464844e-02 -6.892043352127075195e-02 3.943511843681335449e-02 -4.726239293813705444e-02 1.992191188037395477e-02 -1.156258862465620041e-02 -8.450270444154739380e-02 1.065821498632431030e-01 -6.713823974132537842e-02 -5.566142499446868896e-02 -3.503211960196495056e-02 -3.040280379354953766e-02 -1.150004565715789795e-02 -4.052275791764259338e-02 -4.094038903713226318e-02 4.897978622466325760e-03 -1.317562013864517212e-01 7.808457314968109131e-02 -7.330859452486038208e-02 -1.767461001873016357e-02 -6.126525998115539551e-02 -2.477014996111392975e-02 -3.169098123908042908e-02 -1.283856760710477829e-02 4.498586803674697876e-02 4.480160027742385864e-02 1.910635270178318024e-02 4.262177646160125732e-02 -2.774767344817519188e-03 9.763585403561592102e-03 -5.747016519308090210e-02 1.335292682051658630e-02 2.726585231721401215e-02 -1.660764813423156738e-01 -1.054017320275306702e-01 -1.382681876420974731e-01 6.440565735101699829e-02 1.050246320664882660e-02 6.008077040314674377e-02 -3.554655611515045166e-02 -2.738871984183788300e-02 -3.245460987091064453e-02 1.971612125635147095e-02 -4.998552426695823669e-02 8.293040841817855835e-02 -3.195649385452270508e-02 -3.594310954213142395e-02 3.971932828426361084e-02 -4.047160223126411438e-02 3.568553552031517029e-02 1.063485071063041687e-01 6.551817804574966431e-02 2.245465666055679321e-02 1.202591061592102051e-01 1.020345650613307953e-02 7.268796674907207489e-03 -3.494033962488174438e-02 4.052254557609558105e-02 -7.607270497828722000e-03 3.835336863994598389e-02 -4.517098516225814819e-02 -6.730867177248001099e-02 3.254797542467713356e-03 -1.146927382797002792e-02 -6.967463996261358261e-03 -4.906117543578147888e-02 -1.233533490449190140e-02 -1.380927022546529770e-02 -1.799446158111095428e-02 1.015943940728902817e-02 -2.418480962514877319e-01 -1.103977113962173462e-01 4.899086430668830872e-02 -5.664109066128730774e-02 -2.189659141004085541e-02 -3.173885168507695198e-03 5.312122404575347900e-02 1.163117960095405579e-02 4.379808157682418823e-02 2.856008335947990417e-02 -5.266766250133514404e-02 -1.852127723395824432e-02 -1.197045817971229553e-01 8.336792886257171631e-02 2.636301890015602112e-02 -1.764585375785827637e-01 -2.707036957144737244e-02 -4.735158011317253113e-02 3.347383067011833191e-02 1.628021337091922760e-02 -2.591821923851966858e-02 5.933830887079238892e-02 3.005713038146495819e-02 -2.785508707165718079e-02 5.850644409656524658e-02 2.065872587263584137e-02 2.063396945595741272e-02 -8.077410608530044556e-02 -6.055490672588348389e-02 -4.414218664169311523e-02 1.168970111757516861e-02 2.580963820219039917e-02 -3.035954944789409637e-02 1.096551343798637390e-01 2.912681549787521362e-02 3.585231676697731018e-02 -3.387912362813949585e-02 -1.964278817176818848e-01 -2.173929363489151001e-01 2.715105935931205750e-02 -6.938394159078598022e-02 -4.384995996952056885e-02 -4.997505620121955872e-02 3.294741734862327576e-02 -5.925144627690315247e-02 -1.381783373653888702e-02 -1.371055003255605698e-02 -1.447696238756179810e-01 1.136981993913650513e-01 8.521291613578796387e-02 4.226171970367431641e-02 5.742887035012245178e-02 -3.465396910905838013e-02 -5.420290678739547729e-02 -5.071924999356269836e-02 -3.151822835206985474e-02 1.421935949474573135e-02 -1.125014107674360275e-02 1.043455228209495544e-01 2.964177355170249939e-02 -1.064916723407804966e-03 1.003616303205490112e-01 1.180247683078050613e-02 -3.760533779859542847e-02 -1.687074452638626099e-02 -2.485397271811962128e-02 6.901249289512634277e-03 -1.827436266466975212e-03 -4.957040771842002869e-02 6.893324851989746094e-02 -5.988964065909385681e-02 4.121724143624305725e-02 -7.901066914200782776e-03 2.545880153775215149e-02 -1.133866533637046814e-01 -1.734641939401626587e-01 -7.659564726054668427e-03 2.589491195976734161e-02 -2.559463493525981903e-03 1.796669326722621918e-02 8.468683809041976929e-03 5.113453790545463562e-02 -6.856098771095275879e-03 1.980016939342021942e-02 -7.610275596380233765e-02 8.395669609308242798e-02 3.485106863081455231e-03 -6.002512946724891663e-02 -7.254695985466241837e-03 3.635887429118156433e-02 -6.031777337193489075e-02 9.775863960385322571e-03 4.291832447052001953e-02 -1.080218479037284851e-01 1.122624650597572327e-01 -2.135576121509075165e-02 -2.469687163829803467e-02 5.617856979370117188e-02 -7.629285007715225220e-02 2.126958861481398344e-04 -2.277882769703865051e-02 -4.331493377685546875e-02 1.968044787645339966e-03 -2.136103063821792603e-02 1.124676928156986833e-04 3.456933051347732544e-02 -4.978556185960769653e-03 -1.372648961842060089e-02 2.469603158533573151e-02 -5.813023447990417480e-02 3.619113995227962732e-04 -1.928722858428955078e-02 -4.392510280013084412e-02 2.652898617088794708e-02 -1.771624083630740643e-03 5.738078802824020386e-02 1.678605563938617706e-02 -4.162844270467758179e-02 -3.106707893311977386e-02 4.257101938128471375e-02 4.792549461126327515e-02 8.991184830665588379e-02 8.515842491760849953e-04 -1.218737196177244186e-02 5.707527697086334229e-02 1.177549734711647034e-01 4.897113889455795288e-03 -1.064268592745065689e-02 -2.579003572463989258e-02 1.169529836624860764e-02 -6.876138597726821899e-02 1.119580864906311035e-02 6.638173758983612061e-02 5.492908135056495667e-02 1.006775572896003723e-01 2.666242234408855438e-02 5.041237454861402512e-03 -1.194596756249666214e-02 8.210643380880355835e-02 1.329453475773334503e-02 3.993332758545875549e-02 -4.203465580940246582e-02 -3.876007162034511566e-03 -1.044638548046350479e-02 -3.545636311173439026e-02 -1.451257430016994476e-02 4.114733636379241943e-02 4.235689714550971985e-02 -2.862422168254852295e-01 -3.808884322643280029e-02 -2.802908979356288910e-02 9.013680368661880493e-02 2.380438707768917084e-02 3.729631379246711731e-02 -1.498887967318296432e-02 -1.946729421615600586e-02 3.154904814437031746e-03 1.018878631293773651e-02 -2.636733464896678925e-02 -9.638205170631408691e-02 -1.347401365637779236e-02 -4.645672626793384552e-03 1.095039695501327515e-01 2.589153125882148743e-03 1.514531020075082779e-02 -6.785842031240463257e-02 -6.872856616973876953e-02 -2.170101739466190338e-02 -5.060586705803871155e-02 -1.031083911657333374e-01 8.566049486398696899e-02 1.124172508716583252e-01 7.494121044874191284e-02 2.323278924450278282e-03 -5.768841132521629333e-03 5.607676133513450623e-02 -4.652432724833488464e-02 -2.007931098341941833e-02 4.576229304075241089e-02 -1.221863739192485809e-02 -2.936537843197584152e-03 1.997069455683231354e-02 3.324132785201072693e-02 -7.104074954986572266e-02 -8.862575516104698181e-03 -1.820560097694396973e-01 -1.945876330137252808e-01 1.546902395784854889e-02 3.493413701653480530e-02 -4.479670897126197815e-02 -1.902115903794765472e-02 3.423742949962615967e-02 1.718696951866149902e-02 4.141210019588470459e-02 4.794371873140335083e-02 8.073979616165161133e-02 -5.923541635274887085e-02 9.750001877546310425e-02 5.062168464064598083e-02 -7.919578813016414642e-03 2.477013878524303436e-02 9.180363267660140991e-02 -3.571045026183128357e-02 7.496851962059736252e-03 5.008890759199857712e-03 -6.647048145532608032e-02 -6.772608309984207153e-02 2.457876317203044891e-02 -6.550940126180648804e-02 -7.399258017539978027e-02 3.416482126340270042e-03 -5.852290615439414978e-02 -3.119006194174289703e-02 5.436522886157035828e-02 7.314874324947595596e-03 -4.180929064750671387e-02 3.442396596074104309e-02 7.162171602249145508e-02 -3.497000038623809814e-02 -2.015702426433563232e-02 3.604771569371223450e-02 -2.667076885700225830e-02 -1.619412153959274292e-01 -2.988014370203018188e-02 5.988878384232521057e-02 4.528855904936790466e-02 3.679702430963516235e-02 -4.352267831563949585e-02 8.084135502576828003e-02 5.747520364820957184e-03 1.237829960882663727e-02 6.899323780089616776e-03 7.816126197576522827e-02 -6.793735921382904053e-02 8.070491254329681396e-03 -1.931685395538806915e-02 -2.187247015535831451e-02 4.511643201112747192e-02 -2.139553194865584373e-03 5.165701732039451599e-04 -1.786539889872074127e-02 -1.991048082709312439e-02 -2.681646868586540222e-02 8.924035727977752686e-02 -2.898859977722167969e-02 -3.310810774564743042e-02 -2.760749496519565582e-02 1.949241198599338531e-02 -2.921877801418304443e-02 -6.054128333926200867e-02 1.609726995229721069e-02 2.395592816174030304e-02 2.194143272936344147e-02 -1.894283667206764221e-02 -4.974430054426193237e-02 -2.833027578890323639e-02 -4.524973034858703613e-02 -1.202052365988492966e-02 4.301706701517105103e-02 -1.435284614562988281e-01 -3.347392007708549500e-02 -6.475715339183807373e-02 -9.104927629232406616e-02 -4.296954721212387085e-02 1.593027263879776001e-02 -4.908175393939018250e-02 1.977290725335478783e-03 -2.053801203146576881e-03 3.607144206762313843e-02 -1.898299320600926876e-03 1.159458383917808533e-01 -4.080209136009216309e-02 6.374662369489669800e-02 -9.672079235315322876e-02 -3.686058893799781799e-02 2.632113173604011536e-02 -4.163972567766904831e-03 3.170838207006454468e-02 -1.438371241092681885e-01 -3.612932935357093811e-02 -8.895637840032577515e-02 -2.755369059741497040e-02 -7.173035293817520142e-02 2.597660198807716370e-02 4.457722604274749756e-02 5.308249592781066895e-02 2.709312736988067627e-02 6.221063900738954544e-03 8.698219060897827148e-02 -3.433583676815032959e-02 2.624612674117088318e-02 -5.474102124571800232e-02 -1.016146093606948853e-01 7.920457283034920692e-04 -6.179761141538619995e-03 1.966233551502227783e-02 -7.163374125957489014e-02 -4.793385788798332214e-02 -5.741727724671363831e-02 -4.610967636108398438e-02 -7.889951579272747040e-03 1.559698283672332764e-01 -1.268891338258981705e-02 -1.396082993596792221e-02 -1.352418214082717896e-01 -1.392905600368976593e-02 1.378936693072319031e-02 7.475008815526962280e-02 4.333248070906847715e-04 1.321870535612106323e-01 -6.326469779014587402e-02 -5.364112555980682373e-02 3.953643515706062317e-02 1.131540834903717041e-01 -9.498132392764091492e-03 4.782747849822044373e-02 4.744915664196014404e-02 -7.771719992160797119e-02 8.332540839910507202e-02 -1.131550297141075134e-01 1.356339547783136368e-02 8.201475255191326141e-03 8.373643457889556885e-02 3.109403699636459351e-02 -8.798274397850036621e-02 -5.274463444948196411e-02 1.111315097659826279e-02 -3.889008611440658569e-02 3.979355469346046448e-02 -1.004322394728660583e-01 -5.868930742144584656e-02 -3.231633082032203674e-02 4.223192483186721802e-02 7.160884886980056763e-02 -5.021355301141738892e-02 4.623378440737724304e-02 1.720451191067695618e-02 -3.352454805281013250e-04 -8.219449222087860107e-02 6.068703718483448029e-03 3.597593307495117188e-02 1.931952126324176788e-02 -9.477654844522476196e-02 -5.652759969234466553e-02 -4.848139733076095581e-02 8.641896396875381470e-02 -5.688132951036095619e-04 -1.053849756717681885e-01 1.028603389859199524e-01 -1.299892924726009369e-02 -6.626775115728378296e-02 -6.794416904449462891e-02 -1.049177944660186768e-01 -8.997251093387603760e-02 -1.473735552281141281e-02 -1.833435334265232086e-02 1.342139206826686859e-02 -5.706262961030006409e-02 9.192759543657302856e-02 4.662018269300460815e-02 -7.317030429840087891e-02 3.147558495402336121e-02 8.515499532222747803e-02 -9.091873466968536377e-02 -5.274814739823341370e-02 -2.373117458773776889e-04 -1.768393814563751221e-02 8.266935497522354126e-02 -5.771740525960922241e-02 2.065149135887622833e-02 -3.405375033617019653e-02 -2.996231056749820709e-02 8.151203393936157227e-02 -4.610860720276832581e-02 2.029228955507278442e-02 4.000334814190864563e-02 -1.318062096834182739e-01 5.041822046041488647e-02 8.290203986689448357e-04 8.841174095869064331e-02 2.634429745376110077e-02 -2.595849893987178802e-02 2.297843433916568756e-02 -1.353056728839874268e-02 1.102464739233255386e-02 -2.810305729508399963e-02
1.999212354421615601e-01 4.112867265939712524e-02 -8.418506383895874023e-02 2.857673913240432739e-02 1.391317415982484818e-02 3.802969679236412048e-02 -2.138805016875267029e-02 -2.611492015421390533e-02 5.576044321060180664e-02 5.633143335580825806e-02 6.849877536296844482e-02 -2.428059838712215424e-02 -1.085403840988874435e-02 -9.388896077871322632e-02 6.035472080111503601e-02 -1.484416145831346512e-02 6.443375349044799805e-02 6.587415933609008789e-02 -2.243790309876203537e-03 1.937539433129131794e-03 2.905927039682865143e-02 -1.515567582100629807e-02 -9.829527139663696289e-02 -4.873811826109886169e-02 -3.646232932806015015e-02 8.742360025644302368e-02 2.653230354189872742e-02 -5.681756511330604553e-02 -1.053195521235466003e-01 5.840764939785003662e-02 -6.220764294266700745e-02 -7.326108962297439575e-02 -1.777715608477592468e-02 -1.026395708322525024e-01 3.142171353101730347e-02 -2.166955731809139252e-02 -2.517884410917758942e-02 2.361861020326614380e-01 -1.890780031681060791e-02 2.888570912182331085e-02 -4.058086499571800232e-02 4.803690314292907715e-02 1.542760897427797318e-02 -4.051224142313003540e-02 -2.587763220071792603e-02 -9.198652114719152451e-04 -3.648652508854866028e-02 1.485025510191917419e-02 1.912932470440864563e-02 -1.117094084620475769e-01 1.168892607092857361e-01 9.210982918739318848e-02 1.067397301085293293e-03 -2.660748083144426346e-03 -9.844294935464859009e-02 2.196812070906162262e-03 3.309625014662742615e-02 2.845684357453137636e-04 1.997885853052139282e-02 1.094483304768800735e-02 5.489378701895475388e-03 1.776209846138954163e-02 -9.173673391342163086e-02 -5.893348902463912964e-02 4.264135379344224930e-03 -2.121596932411193848e-01 -2.631027810275554657e-02 5.249358713626861572e-02 -3.795706201344728470e-03 -2.197696082293987274e-02 7.266998291015625000e-02 1.992232911288738251e-02 1.947944425046443939e-02 2.311303839087486267e-02 1.906393915414810181e-01 -9.000204503536224365e-02 1.982603594660758972e-02 7.402137666940689087e-02 -3.677016496658325195e-02 -4.004895687103271484e-02 7.642070949077606201e-02 2.955668792128562927e-02 -1.696439273655414581e-02 2.622920833528041840e-02 9.196309000253677368e-02 -9.050410240888595581e-02 -5.385321006178855896e-02 4.694247618317604065e-02 -4.158772528171539307e-02 3.851523157209157944e-03 -2.333063259720802307e-02 -2.209330443292856216e-03 -7.763114571571350098e-02 -4.899575188755989075e-02 6.191644817590713501e-03 -5.133012682199478149e-02 4.247296601533889771e-02 9.011481702327728271e-02 4.487534519284963608e-03 -4.303000122308731079e-02 3.314187005162239075e-02 -8.520613610744476318e-02 -8.595421910285949707e-02 -2.747849561274051666e-02 -2.489937655627727509e-02 -3.205715119838714600e-02 -5.025944858789443970e-02 -3.721416741609573364e-02 -6.114510074257850647e-02 -3.579637408256530762e-02 -4.589853435754776001e-02 1.170317754149436951e-01 -2.379389479756355286e-02 8.541627228260040283e-02 -2.809519413858652115e-03 -1.260969787836074829e-02 7.143629714846611023e-03 -6.040707230567932129e-02 2.879891358315944672e-02 -1.027467697858810425e-01 -4.383599013090133667e-02 -9.817040525376796722e-03 2.463928982615470886e-02 -6.428413093090057373e-02 -2.083761245012283325e-02 1.071095187216997147e-02 -3.028775379061698914e-02 -1.210211310535669327e-03 1.537830452434718609e-03 -2.850142493844032288e-02 4.294899478554725647e-02 -2.920258091762661934e-03 4.408844187855720520e-02 1.132540125399827957e-02 -7.823839038610458374e-02 5.074371583759784698e-04 4.161431640386581421e-02 -1.756971515715122223e-02 -2.076990157365798950e-02 -2.688899934291839600e-01 3.927161917090415955e-02 7.368513941764831543e-02 1.700646616518497467e-02 -1.822742051444947720e-03 -4.454610124230384827e-02 -7.193613052368164062e-02 -2.268962329253554344e-03 1.547767408192157745e-02 1.474758833646774292e-01 -9.116599708795547485e-02 1.106313988566398621e-01 9.352514520287513733e-03 -3.564361482858657837e-02 -1.826919987797737122e-02 7.549811853095889091e-04 -5.669506639242172241e-02 -1.683366671204566956e-02 -8.793631196022033691e-02 1.086418405175209045e-01 4.064051434397697449e-02 1.296977549791336060e-01 4.346714820712804794e-03 3.594958782196044922e-02 1.177204679697751999e-02 4.136643931269645691e-02 -3.238825127482414246e-02 -3.892880678176879883e-02 2.240150794386863708e-02 7.726477924734354019e-03 -2.477411180734634399e-02 -5.327142030000686646e-02 7.248452305793762207e-02 1.498900167644023895e-02 4.757381230592727661e-02 1.192068401724100113e-02 -1.715470105409622192e-02 -2.475341707468032837e-01 1.495705079287290573e-02 -9.086589328944683075e-03 -4.025056958198547363e-02 2.676988020539283752e-02 -1.745854876935482025e-02 3.168575465679168701e-02 8.283298462629318237e-03 -1.052013132721185684e-02 7.354699075222015381e-02 5.973096936941146851e-02 6.317364517599344254e-03 -2.958364970982074738e-02 1.163804084062576294e-01 -6.075284630060195923e-02 -4.872758314013481140e-02 9.952560998499393463e-03 1.850131340324878693e-02 -1.509620156139135361e-02 5.023469775915145874e-02 7.345071434974670410e-02 8.013879507780075073e-02 -1.480191349983215332e-01 1.324791368097066879e-02 -2.432838268578052521e-02 -2.302050776779651642e-02 3.345701843500137329e-02 7.999347150325775146e-02 -6.053288653492927551e-02 -3.685869451146572828e-04 -1.265470962971448898e-02 -3.957947716116905212e-02 -2.919642440974712372e-02 2.542441897094249725e-02 -6.039984524250030518e-03 -4.692425578832626343e-02 -7.018266618251800537e-02 -1.842878609895706177e-01 8.628711849451065063e-02 -4.050293564796447754e-02 2.817349322140216827e-02 -9.907329455018043518e-03 5.019916221499443054e-02 -8.282891660928726196e-02 -1.665712147951126099e-02 -5.500701256096363068e-03 7.287842780351638794e-02 4.288312979042530060e-03 -2.190918475389480591e-02 -6.298748403787612915e-02 1.609635166823863983e-02 -1.744237355887889862e-02 -4.143048543483018875e-03 -8.614838123321533203e-02 -5.283841863274574280e-03 1.470611547119915485e-03 -5.087082833051681519e-02 -5.431141331791877747e-02 9.266643226146697998e-02 1.022506598383188248e-02 1.420139148831367493e-02 -1.105085108429193497e-02 8.475314080715179443e-02 -3.669878467917442322e-03 5.203190445899963379e-02 -2.907198853790760040e-03 1.210200972855091095e-02 2.309534326195716858e-02 -6.369402259588241577e-02 1.095425896346569061e-02 -2.082074619829654694e-02 7.901233434677124023e-02 5.465760827064514160e-02 1.928878761827945709e-02 -2.252039462327957153e-01 -4.610459785908460617e-03 -2.461211755871772766e-02 -2.483056299388408661e-02 2.872375957667827606e-02 -4.717274103313684464e-03 3.381559252738952637e-02 -2.317519672214984894e-02 -4.918752983212471008e-02 -1.097921505570411682e-01 -1.211591735482215881e-01 2.412230893969535828e-02 -2.469420619308948517e-02 -3.544548992067575455e-03 -1.120873820036649704e-02 -1.127310469746589661e-01 1.521635917015373707e-03 -7.096303254365921021e-02 4.805164039134979248e-02 1.861515641212463379e-02 -4.381021112203598022e-02 -3.082873113453388214e-02 -5.296090245246887207e-02 -4.516636952757835388e-02 1.977033726871013641e-02 -1.738372258841991425e-03 -2.959540486335754395e-02 -6.855844706296920776e-02 3.955716267228126526e-02 6.695021875202655792e-03 -2.740709111094474792e-02 4.761441051959991455e-02 -1.045338227413594723e-03 -1.505530206486582756e-03 -1.313974559307098389e-01 -2.398954518139362335e-02 6.455744802951812744e-02 -1.907433122396469116e-01 1.439385488629341125e-02 7.576305419206619263e-02 -2.339891344308853149e-02 -4.789471626281738281e-02 1.024916768074035645e-02 2.660040557384490967e-02 -2.781412098556756973e-03 1.858473755419254303e-02 -1.733283251523971558e-01 1.208897680044174194e-01 2.149377390742301941e-02 -1.088138371706008911e-01 8.501742035150527954e-02 2.165943011641502380e-02 1.016721874475479126e-01 2.006084322929382324e-01 -3.403029637411236763e-03 -5.713880062103271484e-02 -7.257903367280960083e-02 3.476744145154953003e-02 -2.836599200963973999e-02 9.831615537405014038e-02 -4.082632064819335938e-02 -3.575874865055084229e-02 6.761984527111053467e-02 -6.796761881560087204e-03 -5.379315093159675598e-02 2.380685694515705109e-02 -1.361346058547496796e-02 4.845093004405498505e-03 -4.148674756288528442e-02 -5.732553452253341675e-02 5.062953755259513855e-02 -3.838347271084785461e-02 -2.720099315047264099e-02 -3.939289227128028870e-02 -1.547995507717132568e-01 -1.110225766897201538e-01 -5.886573716998100281e-02 -2.789608947932720184e-02 3.549026697874069214e-02 3.739945963025093079e-02 -1.323937252163887024e-02 -3.244521096348762512e-02 2.015796722844243050e-03 -2.814800441265106201e-01 1.429899130016565323e-02 -1.358352880924940109e-02 1.140023842453956604e-01 -5.098475515842437744e-02 3.894236404448747635e-03 -5.550595372915267944e-02 9.191367775201797485e-02 5.666260048747062683e-02 6.762516219168901443e-03 9.810221195220947266e-02 9.490733593702316284e-02 -9.844414144754409790e-02 2.897281199693679810e-02 -5.393590405583381653e-02 -5.036130547523498535e-03 -1.494483184069395065e-02 -3.061120398342609406e-02 5.059304460883140564e-02 -4.220894351601600647e-02 3.264630958437919617e-02 8.008291013538837433e-03 -7.113463431596755981e-02 -8.779430761933326721e-03 -2.760728076100349426e-02 4.198366031050682068e-02 -6.187820807099342346e-03 -2.921520359814167023e-02 -1.215419173240661621e-01 -4.820326343178749084e-02 3.755218163132667542e-02 -3.677965700626373291e-02 -8.945121429860591888e-03 -2.208522334694862366e-02 4.041003808379173279e-02 3.381490334868431091e-02 3.400144632905721664e-03 -6.061737239360809326e-02 -9.402423352003097534e-02 -1.033685053698718548e-03 -1.182481870055198669e-01 2.523938566446304321e-02 -7.693970948457717896e-02 2.394985780119895935e-02 -2.912514843046665192e-02 -9.558167308568954468e-02 6.851644068956375122e-02 9.924725629389286041e-03 6.605418026447296143e-02 4.472142085433006287e-02 4.173526540398597717e-03 -9.337621182203292847e-02 6.919331848621368408e-02 -7.432415336370468140e-02 6.894826889038085938e-02 5.849048122763633728e-02 2.805775962769985199e-02 3.357138019055128098e-03 -2.401402406394481659e-02 2.533533051609992981e-02 -2.125178696587681770e-03 3.905361145734786987e-02 9.332709759473800659e-02 -2.710015513002872467e-02 7.289389520883560181e-02 2.148778550326824188e-02 -6.500329822301864624e-02 3.748468589037656784e-04 4.588084295392036438e-02 9.062755852937698364e-02 1.424826215952634811e-02 2.612082101404666901e-02 1.090233307331800461e-02 1.297263428568840027e-02 -3.129928081762045622e-04 -4.135502874851226807e-02 -7.185240834951400757e-02 -3.787015005946159363e-02 1.161463707685470581e-01 -7.006439566612243652e-02 7.454589009284973145e-02 3.607974946498870850e-02 -2.714828215539455414e-02 4.067516326904296875e-02 7.046294957399368286e-02 -1.332097798585891724e-01 9.138252586126327515e-02 -1.113893464207649231e-02 -5.984276905655860901e-02 -9.863089770078659058e-02 -2.800197107717394829e-03 1.055359020829200745e-01 -7.836312055587768555e-02 5.035119876265525818e-02 -4.368799179792404175e-02 -1.929841190576553345e-01 7.072985172271728516e-02 4.307497665286064148e-02 -9.159815497696399689e-03 8.372231572866439819e-02 -6.187027692794799805e-02 -2.320505492389202118e-02 -7.812847197055816650e-02 8.733348920941352844e-03 8.520356565713882446e-02 -8.310971409082412720e-02 8.960083127021789551e-02 9.949108958244323730e-02 -8.172959089279174805e-02 2.009768411517143250e-02 8.973194658756256104e-02 -1.122300513088703156e-02 2.189416885375976562e-01 4.476388276088982821e-04 -2.779544703662395477e-02 3.950411826372146606e-02 1.164017319679260254e-01 6.717585772275924683e-02 -3.343724086880683899e-02 3.298650681972503662e-02 4.365189746022224426e-02 9.524834342300891876e-03 -1.798924058675765991e-02 1.025881990790367126e-01 -1.629944145679473877e-01 9.464551694691181183e-03 1.471759984269738197e-03 1.081436220556497574e-02 1.323395688086748123e-02 7.169687747955322266e-02 8.706495910882949829e-02 -5.443337932229042053e-02 -3.622540086507797241e-02 2.395580895245075226e-02 -1.357163637876510620e-01 1.239929050207138062e-01 -3.181439265608787537e-02 -5.180787295103073120e-02 5.105648934841156006e-02 4.395579919219017029e-02 -6.448539346456527710e-02 -5.443894490599632263e-02 -6.667882949113845825e-02 -3.529997542500495911e-02 8.450001478195190430e-02 -8.232755586504936218e-03 1.063129156827926636e-01 -5.531611666083335876e-02 1.140010636299848557e-02 2.178764529526233673e-02 5.951783061027526855e-02 -6.805104762315750122e-02 -1.146362721920013428e-01 1.139597371220588684e-01
1.102265343070030212e-01 2.119101732969284058e-01 -5.060815811157226562e-02 -5.167543515563011169e-02 3.569499030709266663e-02 -3.177512437105178833e-03 -6.791779398918151855e-02 -2.565868571400642395e-02 -1.801356486976146698e-02 1.030652038753032684e-02 -4.764679446816444397e-02 5.136157944798469543e-02 9.757419675588607788e-02 -6.676651071757078171e-03 6.246201694011688232e-02 6.079869344830513000e-03 1.201847754418849945e-02 -3.608585521578788757e-02 -1.066001057624816895e-01 -5.856848787516355515e-03 -3.084268420934677124e-03 -6.464661564677953720e-03 2.201805263757705688e-02 -2.059493213891983032e-02 -1.960787735879421234e-02 1.680448278784751892e-02 1.581901684403419495e-02 2.196346595883369446e-02 -2.189486026763916016e-01 -4.052149504423141479e-02 3.133600577712059021e-02 -3.641661256551742554e-02 -1.365730632096529007e-02 3.957745432853698730e-02 5.911941453814506531e-02 -2.100450545549392700e-02 -1.097842864692211151e-02 1.963896676898002625e-02 3.481177985668182373e-01 -1.346981972455978394e-01 -1.850776560604572296e-02 -6.048164516687393188e-02 9.699836373329162598e-03 3.722877055406570435e-02 1.224509328603744507e-01 1.266166716814041138e-01 -6.733033061027526855e-02 -1.012084353715181351e-02 -2.549778297543525696e-02 -1.514045521616935730e-02 3.699814900755882263e-02 8.307791501283645630e-02 3.000169293954968452e-03 -2.225816063582897186e-02 1.086220517754554749e-02 5.411978065967559814e-02 3.510608524084091187e-02 6.673102267086505890e-03 8.709371089935302734e-03 2.041094750165939331e-02 -4.661723971366882324e-02 -6.062600761651992798e-02 -2.867890149354934692e-02 -1.844868250191211700e-02 6.744042038917541504e-02 -2.269597649574279785e-01 2.649292722344398499e-02 5.001346766948699951e-02 5.740343034267425537e-02 9.749467484652996063e-03 2.123442711308598518e-03 1.502635516226291656e-02 1.769003830850124359e-02 -2.570508513599634171e-04 1.461356431245803833e-01 2.890713810920715332e-01 -1.439798064529895782e-02 -9.140358120203018188e-02 1.064342334866523743e-01 1.141781061887741089e-01 -4.649747535586357117e-02 -1.486055105924606323e-01 2.410924294963479042e-03 5.310010910034179688e-02 -4.026841372251510620e-02 -5.963626503944396973e-02 -2.944887056946754456e-02 -2.988776005804538727e-02 1.286043524742126465e-01 1.670340192504227161e-03 -1.225834712386131287e-03 2.839980833232402802e-02 -1.315546408295631409e-02 -1.774659007787704468e-02 1.970806345343589783e-02 -1.099408045411109924e-02 2.859652601182460785e-02 5.268271267414093018e-02 -4.509086906909942627e-02 3.090318851172924042e-02 -1.875535026192665100e-02 -6.613217294216156006e-03 -1.150400415062904358e-01 1.071894690394401550e-01 5.894321575760841370e-02 -2.894540317356586456e-03 -3.465498099103569984e-03 7.704937015660107136e-04 4.139989614486694336e-02 1.610616967082023621e-02 2.903048414736986160e-03 8.472093939781188965e-02 2.046213895082473755e-01 -1.146550029516220093e-01 -8.256641775369644165e-02 1.226560771465301514e-01 7.937097549438476562e-02 -2.963623031973838806e-02 -7.699084281921386719e-02 3.516374155879020691e-02 5.014185979962348938e-02 1.030921712517738342e-01 2.660878002643585205e-02 3.186454996466636658e-02 -9.835211187601089478e-02 -3.038187511265277863e-03 -1.135811675339937210e-02 -3.751410171389579773e-02 5.070607364177703857e-02 2.680704742670059204e-02 -4.791281744837760925e-02 -4.388137534260749817e-02 1.859123073518276215e-02 9.190082550048828125e-03 2.787469699978828430e-02 2.127971500158309937e-02 -2.533493749797344208e-02 3.182741254568099976e-02 1.070150360465049744e-01 -7.399699091911315918e-02 -6.159052997827529907e-02 -5.376491695642471313e-02 -4.404854774475097656e-02 -1.213441696017980576e-02 -4.857023805379867554e-02 6.768688093870878220e-03 3.787840157747268677e-02 5.703935772180557251e-02 1.586356312036514282e-01 1.129252165555953979e-01 3.571903333067893982e-02 2.842833474278450012e-02 4.531276971101760864e-02 2.990034781396389008e-02 -3.416032716631889343e-02 -1.731392368674278259e-02 4.203608841635286808e-04 -4.942559823393821716e-02 1.002060715109109879e-02 1.502544283866882324e-01 1.301928460597991943e-01 -8.433566987514495850e-02 -6.088386848568916321e-02 2.793360734358429909e-03 3.855332359671592712e-02 -8.073450997471809387e-03 1.012009102851152420e-02 4.462063685059547424e-02 4.768399521708488464e-02 1.066263881511986256e-03 -5.838921666145324707e-02 -3.682950278744101524e-03 6.342034786939620972e-02 -1.478736475110054016e-02 1.689521782100200653e-02 5.204416066408157349e-02 -2.246944159269332886e-01 5.371521413326263428e-02 1.545859873294830322e-02 -2.880976302549242973e-03 7.608852814882993698e-03 1.510194409638643265e-02 2.331768162548542023e-02 -9.842456318438053131e-03 2.472498686984181404e-03 2.554375212639570236e-03 1.153699606657028198e-01 3.542545437812805176e-02 1.278138607740402222e-01 -4.817046970129013062e-02 7.875225692987442017e-02 -9.648039937019348145e-02 -1.170004718005657196e-02 -1.218845024704933167e-01 -1.083998475223779678e-02 -1.231703162193298340e-01 -1.338571123778820038e-02 -4.847975447773933411e-02 6.157447397708892822e-02 7.640160620212554932e-02 -1.127951545640826225e-03 8.545063436031341553e-02 1.522743236273527145e-02 2.677000500261783600e-02 -1.641372963786125183e-02 -2.679629065096378326e-02 -1.713142171502113342e-02 1.513553876429796219e-02 2.185099013149738312e-02 2.595554478466510773e-02 -5.115004628896713257e-02 -7.271788083016872406e-03 1.096334680914878845e-01 -1.796717196702957153e-01 1.141320616006851196e-01 5.851428024470806122e-03 -4.925025627017021179e-03 -3.324341401457786560e-02 6.404536217451095581e-02 -5.156196281313896179e-02 2.723854966461658478e-02 4.499326925724744797e-03 3.631612658500671387e-02 -2.006636001169681549e-02 8.178209513425827026e-02 -5.873230844736099243e-02 1.128430664539337158e-01 5.911740660667419434e-02 -6.480970233678817749e-02 -3.871043398976325989e-02 -5.668199155479669571e-03 -7.931214757263660431e-03 -1.155873294919729233e-02 -5.965523794293403625e-02 1.223788782954216003e-01 -6.633230298757553101e-02 -2.551699057221412659e-02 -6.458560936152935028e-03 -2.037181146442890167e-02 2.936582453548908234e-02 5.705278366804122925e-02 -1.528490334749221802e-02 3.388784080743789673e-02 2.059179171919822693e-02 -4.489086940884590149e-02 -8.648868650197982788e-03 -7.106629014015197754e-02 5.259105563163757324e-02 -9.451102465391159058e-02 1.673655062913894653e-01 -2.877179384231567383e-01 -1.082206028513610363e-03 -3.101042704656720161e-03 -8.408207446336746216e-03 3.772997856140136719e-02 -1.767067424952983856e-02 -3.763413801789283752e-02 -4.161630291491746902e-03 -2.404063194990158081e-02 1.820690929889678955e-02 -7.176861166954040527e-02 -8.122098445892333984e-02 1.127516254782676697e-01 3.722753608599305153e-04 -5.642676725983619690e-02 4.936988116241991520e-04 -3.274067118763923645e-02 -1.185861881822347641e-02 6.627322733402252197e-02 9.913235902786254883e-02 9.846083819866180420e-02 8.654902875423431396e-02 2.005133964121341705e-02 6.299910694360733032e-02 1.004218403249979019e-02 4.025244340300559998e-02 2.346574887633323669e-02 -6.484925281256437302e-03 5.293925106525421143e-02 2.297386154532432556e-02 -2.016672864556312561e-02 2.681494317948818207e-02 5.055179446935653687e-02 8.001533150672912598e-02 -1.651617698371410370e-02 7.396480441093444824e-02 5.689620599150657654e-02 -1.936225593090057373e-01 -6.216448266059160233e-03 5.060524865984916687e-02 -2.571707591414451599e-02 1.586589589715003967e-02 -4.142080619931221008e-02 -1.970027014613151550e-02 -4.085845872759819031e-02 4.535043239593505859e-02 -1.276555955410003662e-01 -1.912297308444976807e-01 7.132986932992935181e-02 1.221329048275947571e-01 1.291816234588623047e-01 -4.818264022469520569e-02 -6.216027215123176575e-02 -5.527222901582717896e-02 1.006894409656524658e-01 -1.518839318305253983e-02 -1.877954788506031036e-02 -4.745873808860778809e-02 1.549327047541737556e-03 -3.852820023894309998e-02 -1.260648369789123535e-01 -3.676457703113555908e-02 1.601213775575160980e-02 9.915943443775177002e-02 -3.425734862685203552e-02 -1.614153385162353516e-02 -1.860996708273887634e-02 2.363800071179866791e-02 -6.804975867271423340e-02 -4.387425258755683899e-02 3.474381566047668457e-02 1.404474023729562759e-02 7.798917591571807861e-03 1.760520488023757935e-01 -1.436721831560134888e-01 -2.020285837352275848e-02 9.853220544755458832e-03 4.352005198597908020e-02 1.652133092284202576e-02 3.723483905196189880e-02 2.217852696776390076e-02 5.777831003069877625e-02 1.924112811684608459e-02 -6.300746649503707886e-02 -2.070921957492828369e-01 6.059067323803901672e-02 -2.607109956443309784e-02 3.831935301423072815e-02 -6.284745782613754272e-02 4.074576497077941895e-02 5.662546679377555847e-02 -1.239454373717308044e-02 6.266778707504272461e-02 3.230430930852890015e-02 5.802794918417930603e-02 -4.417692124843597412e-02 8.826535195112228394e-02 -4.493531584739685059e-02 1.755996048450469971e-02 -1.617543958127498627e-02 -6.400623917579650879e-02 -3.140801936388015747e-02 -5.884432420134544373e-02 1.018417067825794220e-02 -2.862204797565937042e-03 3.231375291943550110e-02 2.217006310820579529e-02 -8.239874616265296936e-03 -4.357347264885902405e-02 -2.959203347563743591e-02 2.235659211874008179e-02 -1.952509135007858276e-01 -8.550540357828140259e-02 -4.136301577091217041e-02 -4.283383861184120178e-02 -3.871763870120048523e-02 3.442769171670079231e-03 -3.887528926134109497e-02 3.707046387717127800e-03 -2.254524454474449158e-02 8.719676733016967773e-02 -1.136887818574905396e-01 -5.357521027326583862e-02 -7.523676007986068726e-02 1.176657602190971375e-01 7.513981312513351440e-02 -3.165607899427413940e-02 2.503108046948909760e-02 -6.456357240676879883e-02 3.704285249114036560e-02 3.256221115589141846e-02 -1.450390648096799850e-02 -3.459355607628822327e-02 4.166949074715375900e-03 -8.436013758182525635e-02 -4.284934699535369873e-02 -4.320480860769748688e-03 1.309551596641540527e-01 7.979664951562881470e-02 -1.123142428696155548e-02 -1.265080422163009644e-01 -1.359709631651639938e-02 -5.966632440686225891e-02 7.888677716255187988e-02 -5.667774751782417297e-02 -3.004292771220207214e-02 9.723130613565444946e-03 -5.725597962737083435e-02 -2.520770952105522156e-02 -9.380099177360534668e-02 -8.771643042564392090e-02 1.494727190583944321e-02 -5.675103515386581421e-03 -7.850350439548492432e-02 2.497193031013011932e-02 -1.120933070778846741e-01 7.622722536325454712e-02 -1.056399289518594742e-02 6.182995066046714783e-02 8.705528825521469116e-02 -1.030135080218315125e-01 -4.693742841482162476e-02 -4.317575320601463318e-02 2.512230072170495987e-03 -2.087743254378437996e-03 4.810151830315589905e-02 2.595302648842334747e-02 -5.547642335295677185e-02 -2.439111657440662384e-02 2.539242804050445557e-02 1.616021990776062012e-01 -2.174855396151542664e-02 -5.026154592633247375e-02 -1.273309439420700073e-01 1.351573690772056580e-02 2.922495268285274506e-02 5.109939351677894592e-02 -5.038250610232353210e-02 5.064599961042404175e-02 -7.556892186403274536e-02 -1.106954831629991531e-02 1.981974020600318909e-02 -8.625023812055587769e-02 3.476689383387565613e-02 7.095393538475036621e-02 1.069237887859344482e-01 1.415494456887245178e-02 -9.722406975924968719e-03 -2.376385219395160675e-02 -5.438518151640892029e-02 8.236599713563919067e-02 8.668521791696548462e-02 5.222122371196746826e-02 1.282704435288906097e-02 -1.163293123245239258e-01 7.422015815973281860e-02 -7.420294731855392456e-02 7.759542763233184814e-02 1.207928452640771866e-02 -5.535787716507911682e-02 -4.026754572987556458e-02 -7.730172574520111084e-02 1.110005602240562439e-01 6.788995116949081421e-02 2.944402769207954407e-02 1.533762961626052856e-01 -9.309199638664722443e-03 -6.740040332078933716e-02 -2.404872514307498932e-02 3.038075938820838928e-02 1.187009387649595737e-03 -1.464474946260452271e-01 -5.523097235709428787e-03 4.335685446858406067e-02 -4.694893024861812592e-03 8.337893337011337280e-02 8.980187028646469116e-02 -3.872791305184364319e-02 5.480468273162841797e-02 8.592250198125839233e-02 -3.452582284808158875e-02 -2.449491294100880623e-03 1.081552654504776001e-01 3.303174301981925964e-02 -2.662081457674503326e-02 9.477385901845991611e-04 -1.087913140654563904e-01 -6.887596845626831055e-02 1.579805649816989899e-02 -1.567318290472030640e-02 3.906119382008910179e-03 9.369261562824249268e-03 -4.143946245312690735e-02 1.724207699298858643e-01 7.983125746250152588e-02 3.811271861195564270e-02 8.276557177305221558e-02
