-3.338594734668731689e-01 -6.991137862205505371e-01 1.697663068771362305e-01 -1.060305628925561905e-02 6.657247245311737061e-02 -3.819991834461688995e-03 6.792297214269638062e-02 -6.541641056537628174e-02 5.652439966797828674e-02 -1.382136791944503784e-01 -1.063824594020843506e-01 2.409202307462692261e-01 2.834334075450897217e-01 3.854069709777832031e-01 -4.600030928850173950e-02 -2.812386490404605865e-03 -2.751215733587741852e-02 -4.467460513114929199e-02 -1.849259063601493835e-02 5.470647942274808884e-03 -7.687035482376813889e-03 3.454840742051601410e-03 2.469898387789726257e-02 8.000453561544418335e-02 8.821088075637817383e-02 1.756496541202068329e-02 -3.334415378049015999e-04 -3.958091139793395996e-03 -2.267426811158657074e-02 -4.800119623541831970e-02 1.437024679034948349e-02 -1.062937155365943909e-01 -2.784622907638549805e-01 7.676075398921966553e-02 4.476353153586387634e-02 -2.225185371935367584e-02 -7.968341559171676636e-02 9.633482247591018677e-02 -3.078646399080753326e-02 1.196334231644868851e-02 3.838972747325897217e-02 6.006507202982902527e-02 1.344175934791564941e-01 2.263618856668472290e-01 9.720305353403091431e-02 -1.573752462863922119e-01 -3.418792271986603737e-03 7.876834832131862640e-03 2.259500510990619659e-02 5.351702682673931122e-03 -6.258103530853986740e-03 6.684695370495319366e-03 -1.460899598896503448e-02 3.229042049497365952e-03 -4.258324578404426575e-02 -2.666480466723442078e-02 3.309044614434242249e-02 -1.912112906575202942e-02 -6.151987705379724503e-03 -5.768301710486412048e-02 4.726354777812957764e-02 -4.908703267574310303e-02 -3.929452896118164062e-01 -7.197787612676620483e-02 5.375054851174354553e-02 -1.493930537253618240e-02 -3.662525117397308350e-02 5.850150436162948608e-02 1.661861836910247803e-01 9.833524376153945923e-02 -1.930411756038665771e-01 1.705263182520866394e-02 -2.316328138113021851e-01 1.827653199434280396e-01 6.595370173454284668e-02 3.786869347095489502e-02 -1.027819141745567322e-01 1.307012978941202164e-03 1.937916874885559082e-02 -4.700725153088569641e-02 -2.005972899496555328e-02 -6.693413015455007553e-03 -2.523095114156603813e-03 -3.525972599163651466e-03 -3.843704704195261002e-03 1.157712265849113464e-01 1.050107628107070923e-01 3.936945647001266479e-02 -2.327115461230278015e-02 1.576509326696395874e-02 -5.487528815865516663e-02 -2.374603040516376495e-02 4.580000415444374084e-03 -3.127593398094177246e-01 5.464605689048767090e-01 -2.232473641633987427e-01 -4.139705374836921692e-02 -1.571273952722549438e-01 1.191519200801849365e-01 3.763272985816001892e-02 -2.745097875595092773e-02 1.025832891464233398e-01 3.899962082505226135e-02 -1.228884309530258179e-01 1.149017270654439926e-02 5.380612611770629883e-02 1.961705982685089111e-01 -1.879128813743591309e-01 -4.032347351312637329e-03 -1.701347716152667999e-02 -4.966834187507629395e-02 -2.109358273446559906e-02 -1.176291797310113907e-02 -7.704296614974737167e-03 -5.954952212050557137e-04 6.731065455824136734e-03 9.661357104778289795e-02 1.097485050559043884e-01 4.195435345172882080e-02 -1.208923757076263428e-02 1.982069164514541626e-01 1.202109009027481079e-01 -4.865277186036109924e-02 -1.738123223185539246e-02 -3.263905644416809082e-02 9.570012092590332031e-01 -1.963720917701721191e-01 -5.691884085536003113e-03 9.699654579162597656e-02 1.389295309782028198e-01 -2.734515443444252014e-02 1.367437392473220825e-01 1.147657036781311035e-01 7.304525375366210938e-02 -1.406761556863784790e-01 1.672645360231399536e-01 1.854305565357208252e-01 2.168651670217514038e-01 -7.080528140068054199e-02 -5.668013822287321091e-03 1.672799699008464813e-02 5.268397927284240723e-02 7.979770749807357788e-02 7.689307443797588348e-03 -1.677939784713089466e-03 -9.642675868235528469e-04 9.267007932066917419e-03 1.426512748003005981e-01 2.655390202999114990e-01 9.844595938920974731e-02 -3.573402762413024902e-02 2.200660295784473419e-02 6.866433471441268921e-02 7.502088323235511780e-03 -2.379242703318595886e-02 1.311801075935363770e-01 -7.523266226053237915e-02 -6.517119705677032471e-03 1.511629372835159302e-01 -3.497591614723205566e-02 -3.496069228276610374e-03 1.078221127390861511e-01 -4.384823888540267944e-02 3.043465316295623779e-02 -6.073524709790945053e-03 2.937520109117031097e-02 7.341925799846649170e-02 -2.322095213457942009e-03 2.274666540324687958e-02 -2.228906005620956421e-02 -7.466735690832138062e-02 7.686667144298553467e-02 -2.545564249157905579e-02 9.649245440959930420e-02 -5.368872359395027161e-02 -1.638473011553287506e-02 -4.459267482161521912e-02 -8.183152228593826294e-02 1.110693514347076416e-01 5.481076240539550781e-02 -9.376920014619827271e-02 4.979318007826805115e-02 -5.409284494817256927e-03 -5.476196110248565674e-02 5.164536833763122559e-02 4.162597656250000000e-02 7.838279753923416138e-02 -3.919234499335289001e-02 1.120966970920562744e-01 -2.993112616240978241e-02 -2.035258263349533081e-01 1.393917798995971680e-01 1.467473246157169342e-02 -5.091314017772674561e-02 2.308470197021961212e-02 -1.064922362565994263e-01 -2.161348462104797363e-01 -4.505120217800140381e-03 2.422500029206275940e-02 9.369203448295593262e-02 -2.501375228166580200e-02 -6.219315808266401291e-03 -2.601024210453033447e-01 -2.103156000375747681e-01 1.083930209279060364e-01 6.714373826980590820e-02 -9.773702919483184814e-02
-3.897259831428527832e-01 -1.443165987730026245e-01 -1.857527196407318115e-01 6.225605681538581848e-02 -3.886980190873146057e-02 -7.145200669765472412e-02 1.582164764404296875e-01 6.715293857268989086e-04 5.184185132384300232e-02 1.752615571022033691e-01 1.292182207107543945e-01 2.250478044152259827e-02 -6.394618004560470581e-02 -5.764987692236900330e-02 4.455056972801685333e-03 -1.531641813926398754e-03 1.924050785601139069e-02 9.405011683702468872e-02 7.758518308401107788e-02 1.446421258151531219e-02 -8.126707747578620911e-03 -3.942028619349002838e-03 5.171362776309251785e-03 -2.335875853896141052e-02 -9.624084457755088806e-03 1.077574584633111954e-02 7.835617871023714542e-04 -1.177002415060997009e-01 -1.156111657619476318e-01 1.233353316783905029e-01 1.050439327955245972e-01 -3.985032439231872559e-01 -2.229300737380981445e-01 1.359354238957166672e-02 -3.904391080141067505e-02 -7.096092402935028076e-02 4.667710140347480774e-02 -8.096455782651901245e-02 -3.504594415426254272e-02 1.106389090418815613e-01 3.585985302925109863e-02 1.289664357900619507e-01 -8.955658972263336182e-02 -2.239476442337036133e-01 9.641546756029129028e-02 -1.451809704303741455e-01 -8.948343456722795963e-04 1.175134256482124329e-02 -4.992540180683135986e-02 6.020761281251907349e-02 1.957400329411029816e-02 1.367711648344993591e-02 -6.698042270727455616e-04 3.448378993198275566e-03 5.959274992346763611e-02 -9.207661263644695282e-03 -2.895408682525157928e-02 -9.013249538838863373e-03 -2.585655450820922852e-01 -2.125860750675201416e-01 6.526335328817367554e-02 -1.242549493908882141e-01 -9.505733847618103027e-02 -1.457878500223159790e-01 -9.937156736850738525e-02 -1.463493257761001587e-01 -5.090774968266487122e-02 -7.858877629041671753e-02 -1.820296980440616608e-02 1.155316457152366638e-02 4.462258517742156982e-02 -1.215088274329900742e-02 2.016977593302726746e-02 -2.828004211187362671e-02 1.668697893619537354e-01 3.969760984182357788e-02 4.160252865403890610e-03 -1.646049134433269501e-02 3.473263978958129883e-02 8.512256294488906860e-02 3.826121985912322998e-02 2.992932498455047607e-02 2.721665054559707642e-02 1.084335613995790482e-02 3.611893206834793091e-02 -6.132065504789352417e-02 -7.321745157241821289e-02 1.467801630496978760e-02 1.044262549839913845e-03 -1.345917731523513794e-01 -1.005939915776252747e-01 -3.161713853478431702e-02 6.684954464435577393e-02 1.026441901922225952e-01 3.512927517294883728e-02 -1.576852202415466309e-01 2.816208638250827789e-02 -6.804739683866500854e-02 -1.053890362381935120e-01 1.566208600997924805e-01 5.554506927728652954e-02 9.114672243595123291e-02 -5.102099478244781494e-02 4.432740155607461929e-03 -5.043157190084457397e-02 -8.497907221317291260e-02 4.182889312505722046e-02 6.268604658544063568e-03 -9.839404374361038208e-03 6.664487719535827637e-02 8.333761990070343018e-02 1.394083350896835327e-01 2.589379623532295227e-02 2.641465142369270325e-02 9.179168380796909332e-03 -4.222467541694641113e-02 5.097797606140375137e-03 -2.170741558074951172e-03 -2.439644932746887207e-02 -2.410009503364562988e-02 -1.722630299627780914e-02 -1.334830820560455322e-01 -2.191867679357528687e-01 2.757087536156177521e-02 5.646002888679504395e-01 2.375983744859695435e-01 2.080425918102264404e-01 1.364830136299133301e-01 -4.689189791679382324e-02 1.113781984895467758e-02 2.931010350584983826e-02 5.060735857114195824e-04 -1.409217864274978638e-01 5.682165175676345825e-02 -1.168358996510505676e-01 7.313044369220733643e-02 -6.124487519264221191e-02 1.425689756870269775e-01 2.393583208322525024e-01 -3.793410258367657661e-03 6.284778565168380737e-02 5.555307492613792419e-02 1.274424046277999878e-01 5.827480554580688477e-02 3.748221695423126221e-02 1.174435578286647797e-02 -3.143165260553359985e-02 -9.857800602912902832e-02 -1.974661946296691895e-01 6.014494225382804871e-03 -1.460923627018928528e-02 -1.988304704427719116e-01 -1.063849590718746185e-02 1.930788345634937286e-02 5.673841014504432678e-02 4.190293699502944946e-02 3.068479150533676147e-02 1.711202710866928101e-01 3.700247406959533691e-02 -5.801311880350112915e-02 -8.504184335470199585e-02 -4.265051707625389099e-02 -4.435953497886657715e-02 1.810967326164245605e-01 1.624089330434799194e-01 1.354800611734390259e-01 -4.440630599856376648e-02 -1.702872104942798615e-02 7.069604098796844482e-02 -8.070151507854461670e-02 1.177730932831764221e-01 1.620844006538391113e-01 -6.798498332500457764e-02 -1.088043209165334702e-02 -1.366602480411529541e-01 9.522125124931335449e-03 1.816741377115249634e-02 1.335152983665466309e-01 -1.603565961122512817e-01 -1.607986688613891602e-01 -8.725602924823760986e-02 2.641103975474834442e-02 5.115709733217954636e-03 4.848084598779678345e-02 1.224846988916397095e-01 -1.938814483582973480e-02 3.334995359182357788e-02 -6.815093755722045898e-02 1.401001680642366409e-02 8.610286749899387360e-03 1.260049939155578613e-01 1.132714450359344482e-01 -9.676347486674785614e-03 -5.808700993657112122e-02 -1.330180093646049500e-02 -3.647396713495254517e-02 2.498933821916580200e-01 4.042359814047813416e-02 -1.330378949642181396e-01 -5.971749499440193176e-02 3.479373082518577576e-02 -1.994928717613220215e-01 9.129137545824050903e-02 4.172877967357635498e-01 -8.576946705579757690e-02 -5.458407849073410034e-02 -7.629439234733581543e-02
2.907010316848754883e-01 -1.362493038177490234e-01 1.794430054724216461e-02 -1.047632694244384766e-01 1.934391446411609650e-02 -2.481842041015625000e-02 1.258740387856960297e-02 -4.559784010052680969e-02 -1.845676302909851074e-01 4.941469803452491760e-02 5.477647483348846436e-02 7.061874866485595703e-02 -1.008439902216196060e-02 -1.180243715643882751e-01 -5.098581686615943909e-02 5.627530044876039028e-04 -2.124431170523166656e-02 -4.143974557518959045e-02 -7.902985066175460815e-02 -1.466567814350128174e-02 -1.860460266470909119e-02 -7.858473807573318481e-03 3.612555190920829773e-02 2.867987938225269318e-02 4.704574123024940491e-02 -5.397174507379531860e-03 1.573392935097217560e-02 -8.737174421548843384e-02 -7.745034992694854736e-02 9.390898793935775757e-02 -1.925411075353622437e-01 2.147353440523147583e-02 -7.503390312194824219e-02 -1.495082974433898926e-01 -1.344859153032302856e-01 -1.290336698293685913e-01 -7.105851918458938599e-02 4.445517435669898987e-02 -3.197248280048370361e-02 -9.947104007005691528e-02 -7.957039028406143188e-02 1.721990853548049927e-02 -1.275468170642852783e-01 -1.018217355012893677e-01 1.811237186193466187e-01 1.842182315886020660e-02 -9.265920147299766541e-03 4.275076463818550110e-02 9.350773878395557404e-03 -2.827371843159198761e-02 -1.012017391622066498e-02 -1.841566339135169983e-02 7.715249899774789810e-03 -4.289384931325912476e-02 -2.191475406289100647e-02 -2.102950355038046837e-03 5.911511369049549103e-03 -2.362080151215195656e-03 -3.205911815166473389e-01 -1.548778731375932693e-03 2.255959659814834595e-01 3.070587292313575745e-02 -4.278853908181190491e-02 3.434316068887710571e-02 5.060666799545288086e-02 1.249339729547500610e-01 6.988810747861862183e-02 -1.995756477117538452e-01 5.028863903135061264e-03 -7.434692978858947754e-02 -4.990526475012302399e-03 -6.976814568042755127e-02 1.008270531892776489e-01 6.907837092876434326e-02 -2.931046485900878906e-02 -1.904819905757904053e-01 -2.289866656064987183e-02 3.188329283148050308e-03 -1.691710576415061951e-02 2.511461731046438217e-03 -1.976508274674415588e-02 -3.496290370821952820e-02 -2.030611783266067505e-02 -1.039414294064044952e-02 2.411316521465778351e-02 -1.109420042484998703e-02 -3.847796842455863953e-02 9.885470382869243622e-03 7.228211034089326859e-03 -6.854008883237838745e-02 7.938056439161300659e-02 1.595520414412021637e-02 1.087848246097564697e-01 9.136116132140159607e-03 2.208831757307052612e-01 1.705812662839889526e-02 6.254170835018157959e-02 -9.703822433948516846e-03 -3.668888285756111145e-02 9.166847169399261475e-02 -5.334705486893653870e-02 3.325863741338253021e-03 5.008723214268684387e-02 6.314724683761596680e-02 5.838314071297645569e-02 7.184315938502550125e-03 -2.395728789269924164e-02 -4.866529721766710281e-03 -8.166623301804065704e-03 -6.455293297767639160e-02 -2.579659223556518555e-02 3.702360019087791443e-02 9.058501571416854858e-03 -4.166371747851371765e-02 -8.823728188872337341e-03 4.103547334671020508e-02 4.240416735410690308e-02 5.945258960127830505e-02 2.259731292724609375e-02 1.859613507986068726e-02 -1.400084793567657471e-01 9.094839915633201599e-03 -2.308621108531951904e-01 1.155297160148620605e-01 -3.341064453125000000e-01 4.922182559967041016e-01 1.337989419698715210e-01 4.096399992704391479e-02 8.468379266560077667e-03 6.748569756746292114e-02 1.159856468439102173e-02 2.951468899846076965e-02 1.716177463531494141e-01 1.641025543212890625e-01 -9.951579570770263672e-02 -2.477435022592544556e-02 -8.195891231298446655e-02 -1.971457526087760925e-02 1.367355287075042725e-01 6.443810183554887772e-03 -1.234354730695486069e-02 2.467135712504386902e-02 7.832752168178558350e-02 -6.448933482170104980e-02 -2.252650633454322815e-02 -8.468655869364738464e-03 2.526012249290943146e-02 6.400152575224637985e-03 -5.904899165034294128e-02 -1.874249242246150970e-02 -1.255834940820932388e-03 -1.700792312622070312e-01 7.716582715511322021e-02 -1.254883557558059692e-01 -5.222257226705551147e-02 -3.682032600045204163e-02 -5.781124904751777649e-02 -1.780401617288589478e-01 1.147409155964851379e-01 -1.150933131575584412e-01 -8.339646458625793457e-02 -8.397969603538513184e-02 -2.102285437285900116e-02 -3.172067180275917053e-02 1.094843372702598572e-01 -1.223386600613594055e-01 1.445952337235212326e-02 -1.309837102890014648e-01 -1.029687970876693726e-01 4.144538938999176025e-02 -9.963476657867431641e-02 1.303341332823038101e-02 3.036682121455669403e-02 -2.628029696643352509e-02 1.219619140028953552e-01 4.107806831598281860e-02 -1.023148074746131897e-01 8.196411281824111938e-02 -1.820397078990936279e-01 5.311544239521026611e-02 -6.787484884262084961e-02 -1.451126579195261002e-02 2.925869822502136230e-02 -1.471081823110580444e-01 -1.863752864301204681e-02 -6.032251939177513123e-02 1.616850048303604126e-01 8.723691105842590332e-02 -4.485619137994945049e-05 -1.470609158277511597e-01 -7.595527451485395432e-03 -2.586579881608486176e-02 -6.339400261640548706e-02 -8.811340481042861938e-02 -1.751178056001663208e-01 -7.918815314769744873e-02 -2.712235748767852783e-01 5.277000367641448975e-02 1.855707019567489624e-01 -5.142210051417350769e-02 -8.487132936716079712e-02 -5.400860682129859924e-02 -9.738403558731079102e-02 3.746619680896401405e-03 1.038135290145874023e-01 7.715526223182678223e-02 -4.431324079632759094e-02
-2.880223691463470459e-01 7.736860513687133789e-01 -1.401895284652709961e-01 3.370863944292068481e-02 6.295705586671829224e-02 -1.859819740056991577e-01 1.920321136713027954e-01 -1.517782360315322876e-02 -4.384533688426017761e-02 5.384353548288345337e-02 -1.426073489710688591e-03 -8.267908543348312378e-02 4.930267482995986938e-02 7.677842676639556885e-02 2.597207203507423401e-02 -7.761143147945404053e-03 5.592615157365798950e-02 -2.419766597449779510e-02 3.215996548533439636e-02 -7.259310223162174225e-03 1.169766858220100403e-02 3.120678011327981949e-03 -5.617310106754302979e-02 7.828423404134809971e-04 -9.513770043849945068e-02 -9.627145715057849884e-03 9.913150221109390259e-03 2.002974897623062134e-01 2.347972989082336426e-01 1.543158143758773804e-01 -4.919982515275478363e-03 -1.356306374073028564e-01 2.394707351922988892e-01 -7.763115316629409790e-02 6.514643132686614990e-02 -9.621768444776535034e-02 4.840803891420364380e-02 2.121865302324295044e-01 1.939620673656463623e-01 -1.133722811937332153e-01 9.216709434986114502e-02 -1.238693669438362122e-01 -2.849975228309631348e-01 -6.814827211201190948e-03 -9.415318071842193604e-02 -1.289388984441757202e-01 -2.152517903596162796e-03 2.863908931612968445e-02 -2.546237222850322723e-02 5.720770359039306641e-02 2.062503620982170105e-02 -7.698054891079664230e-03 -7.127755321562290192e-03 -4.659394547343254089e-02 -9.120893478393554688e-02 -7.753966003656387329e-02 -4.171913489699363708e-02 -8.836735971271991730e-03 -4.222942888736724854e-02 -1.822686381638050079e-02 -1.197120025753974915e-01 -4.385650902986526489e-02 1.315557658672332764e-01 -4.128119051456451416e-01 1.831139437854290009e-03 -2.519101649522781372e-02 1.238888427615165710e-01 7.471309602260589600e-02 5.977957323193550110e-02 3.531717509031295776e-02 1.166968643665313721e-01 -1.228615790605545044e-01 -2.631302177906036377e-02 -9.030108898878097534e-02 -6.826838850975036621e-02 1.895188540220260620e-01 -4.382270947098731995e-02 -1.075898180715739727e-03 -2.130741439759731293e-02 -5.127978324890136719e-02 7.217542268335819244e-03 4.253102466464042664e-03 1.521397661417722702e-02 3.950326237827539444e-03 3.772825375199317932e-02 -2.589730173349380493e-02 -3.944011032581329346e-02 -6.387470755726099014e-03 1.641696877777576447e-02 3.210855647921562195e-02 -1.284618955105543137e-02 5.649640783667564392e-02 -2.663379535079002380e-02 2.878522276878356934e-01 -9.230546355247497559e-01 -6.263317167758941650e-02 -4.962781444191932678e-02 7.648114860057830811e-02 -9.631172567605972290e-02 6.607595086097717285e-02 2.082577347755432129e-01 -2.942480444908142090e-01 1.396960616111755371e-01 -1.057643741369247437e-01 -3.924763202667236328e-02 -2.727555669844150543e-02 4.422296956181526184e-02 -1.789160817861557007e-01 -1.372069492936134338e-02 6.806883960962295532e-02 -4.751253500580787659e-02 5.726844444870948792e-02 1.788454130291938782e-02 1.902495883405208588e-02 8.288623765110969543e-03 -6.573323160409927368e-02 -5.276498198509216309e-02 -1.067721545696258545e-01 -5.459626764059066772e-02 -9.516019374132156372e-03 1.290939599275588989e-01 -2.640246786177158356e-02 7.942894101142883301e-02 8.352749049663543701e-02 5.417391657829284668e-01 -1.697790145874023438e+00 2.736260741949081421e-02 -3.454590588808059692e-02 1.124892383813858032e-01 7.964225858449935913e-02 1.638288982212543488e-02 1.100011095404624939e-01 4.408320412039756775e-02 -3.218294307589530945e-02 -9.303470142185688019e-03 -6.175579875707626343e-02 -9.554618597030639648e-02 8.370635658502578735e-02 -9.525432437658309937e-02 -3.033298533409833908e-03 1.486492226831614971e-03 -1.761415600776672363e-02 8.327265828847885132e-02 5.789206922054290771e-02 1.249280665069818497e-02 1.158967893570661545e-02 -1.382071059197187424e-02 -1.337348520755767822e-01 -2.564293742179870605e-01 -6.686843931674957275e-02 -1.659044250845909119e-02 3.728231042623519897e-02 1.031445786356925964e-01 -7.941518723964691162e-02 6.481238454580307007e-02 3.864309564232826233e-02 1.250829268246889114e-02 1.452889740467071533e-01 2.381101250648498535e-01 -4.541972279548645020e-02 6.342886388301849365e-02 1.449738591909408569e-01 5.185943096876144409e-02 2.211890071630477905e-01 -5.150585994124412537e-02 2.807926833629608154e-01 1.135428100824356079e-01 -7.457170635461807251e-02 2.002783119678497314e-02 -1.250466704368591309e-01 -5.984899471513926983e-04 2.608517110347747803e-01 3.403556719422340393e-02 -8.897114545106887817e-02 -9.898986667394638062e-02 -9.701356291770935059e-02 3.861123323440551758e-02 1.458542644977569580e-01 1.533363014459609985e-01 8.404263108968734741e-02 -1.889680773019790649e-01 1.131356433033943176e-01 -1.304730027914047241e-01 1.253378391265869141e-01 2.369027435779571533e-01 -7.317353785037994385e-02 8.435150235891342163e-02 2.508257701992988586e-02 2.675834577530622482e-03 2.158618122339248657e-01 7.997745275497436523e-02 2.303915917873382568e-01 1.344520598649978638e-01 -1.183215901255607605e-01 -1.687879264354705811e-01 -1.097069531679153442e-01 2.373708784580230713e-01 2.462833523750305176e-01 -4.269520938396453857e-02 4.950222745537757874e-02 1.112532839179039001e-01 2.529930882155895233e-02 2.972137928009033203e-01 2.159024626016616821e-01 1.816934323869645596e-03 1.035399511456489563e-01 -1.624465435743331909e-01
3.803865015506744385e-01 3.358023464679718018e-01 -3.701108694076538086e-02 5.126547184772789478e-04 -1.875669509172439575e-02 5.908054113388061523e-02 1.319738626480102539e-01 1.512108296155929565e-01 -9.699903428554534912e-02 9.415542334318161011e-02 -2.512622624635696411e-02 9.793009608983993530e-03 -7.135368883609771729e-02 -1.452889591455459595e-01 -6.782994419336318970e-02 -4.678575322031974792e-03 -6.013867259025573730e-02 -2.806982025504112244e-02 1.817949302494525909e-02 -2.845215797424316406e-02 -1.366016268730163574e-02 1.283733639866113663e-02 5.351896956562995911e-02 2.867949940264225006e-02 1.602706871926784515e-02 2.518258756026625633e-03 2.968781068921089172e-02 3.279503285884857178e-01 1.075357273221015930e-01 4.326188063714653254e-04 -8.174918591976165771e-02 3.135284185409545898e-01 -1.123491004109382629e-01 3.812000155448913574e-02 2.130032703280448914e-02 9.686660021543502808e-02 -5.755954422056674957e-03 5.894454568624496460e-02 4.061695933341979980e-02 4.012037068605422974e-02 -1.840685144998133183e-03 -2.159198373556137085e-01 -9.560902416706085205e-02 1.774726808071136475e-01 7.050627470016479492e-02 -6.201029196381568909e-02 8.875554427504539490e-03 5.663548037409782410e-02 -8.975168317556381226e-02 -1.309300512075424194e-01 2.124172402545809746e-03 5.211832933127880096e-03 -1.296152453869581223e-02 -4.675717651844024658e-02 -5.024261772632598877e-03 -1.961359381675720215e-02 1.167443697340786457e-03 -3.066214174032211304e-02 2.387184798717498779e-01 1.291524916887283325e-01 2.020535618066787720e-02 4.617005586624145508e-02 2.487697750329971313e-01 -1.432178765535354614e-01 4.126980528235435486e-02 -3.218349069356918335e-02 1.173001527786254883e-01 1.206261478364467621e-02 -7.807704061269760132e-02 -3.579859808087348938e-02 -2.932122536003589630e-02 -1.518125534057617188e-01 -8.136922121047973633e-02 7.625966798514127731e-03 8.533899486064910889e-02 -4.374778270721435547e-02 5.117182433605194092e-02 7.133105769753456116e-03 4.511640593409538269e-02 -3.439902514219284058e-02 4.621563106775283813e-02 -4.754439368844032288e-02 -1.509226160123944283e-03 -6.969548296183347702e-03 -5.580072477459907532e-02 -4.910658299922943115e-02 -9.551467746496200562e-02 -1.557984389364719391e-02 6.294234190136194229e-03 3.055952787399291992e-01 1.303104311227798462e-01 4.808219149708747864e-02 -7.943087816238403320e-02 4.652668163180351257e-02 6.954378634691238403e-02 5.398705229163169861e-02 -1.391912400722503662e-01 -3.364758938550949097e-02 2.657188661396503448e-02 -1.037395969033241272e-01 1.541284844279289246e-02 1.948848962783813477e-01 -1.967894285917282104e-02 1.601685136556625366e-01 7.284278422594070435e-02 1.108609139919281006e-01 1.294392645359039307e-01 -1.597177051007747650e-02 -1.149792340584099293e-03 2.351732924580574036e-02 7.521872222423553467e-02 2.100449986755847931e-02 -2.780162356793880463e-02 1.737590506672859192e-02 -8.733987808227539062e-03 4.664809093810617924e-04 -9.013768285512924194e-02 -5.007630959153175354e-02 1.433462928980588913e-02 3.500715596601366997e-03 2.484102398157119751e-01 1.803269796073436737e-02 -5.369460955262184143e-02 8.250082284212112427e-02 -1.923359930515289307e-01 -1.144232824444770813e-01 -4.956588521599769592e-02 1.934383250772953033e-02 1.078395545482635498e-02 -1.262356806546449661e-02 -6.171923503279685974e-02 4.888121038675308228e-02 -4.767142608761787415e-02 -2.336318418383598328e-02 3.786138817667961121e-02 3.473603725433349609e-02 -1.339048296213150024e-01 -1.176551878452301025e-01 -1.965074688196182251e-01 1.281144935637712479e-02 4.567002132534980774e-02 -5.689265672117471695e-03 3.394365310668945312e-02 -2.145491912961006165e-02 -6.320550572127103806e-03 -1.513400766998529434e-02 -5.348806083202362061e-02 -4.207096621394157410e-02 -4.057586193084716797e-02 3.131764009594917297e-02 -3.653100132942199707e-02 1.802389174699783325e-01 -1.538396161049604416e-02 -3.700413927435874939e-02 1.541391480714082718e-02 -5.699573829770088196e-02 -2.070627920329570770e-02 9.265225380659103394e-02 7.149101048707962036e-02 -1.216393634676933289e-01 9.697799687273800373e-04 8.559080958366394043e-02 -1.118458136916160583e-01 6.470008753240108490e-03 1.798782646656036377e-01 1.184786260128021240e-01 1.680320650339126587e-01 9.272830188274383545e-02 -5.426769331097602844e-02 6.730083376169204712e-03 2.231979221105575562e-01 -2.851425483822822571e-02 2.395021170377731323e-02 -4.844314977526664734e-02 -1.355127245187759399e-01 1.100286282598972321e-02 -7.028313353657722473e-03 1.214078217744827271e-01 1.551205758005380630e-03 8.160116150975227356e-03 -5.579937994480133057e-02 -5.008978769183158875e-02 2.662512287497520447e-02 4.869212210178375244e-02 1.938458979129791260e-01 -1.381070017814636230e-01 -7.512100040912628174e-02 -1.580928713083267212e-01 -1.170035731047391891e-02 1.206311769783496857e-02 2.824917808175086975e-02 -7.226161658763885498e-02 6.792799383401870728e-02 -1.159527599811553955e-01 -1.505674421787261963e-01 3.598540276288986206e-02 -6.007396057248115540e-02 1.905902624130249023e-01 -8.307158946990966797e-02 7.578848302364349365e-02 4.993040114641189575e-02 1.137245297431945801e-01 2.280194014310836792e-01 -6.929761171340942383e-02 -9.455779194831848145e-02 4.366947337985038757e-02 8.831956237554550171e-02
1.217736482620239258e+00 -3.402689099311828613e-01 -7.646611332893371582e-02 -5.152935627847909927e-03 -2.647701501846313477e-01 1.926675140857696533e-01 -5.484588071703910828e-02 8.117961883544921875e-02 -6.104071438312530518e-02 -7.113532721996307373e-02 1.320687821134924889e-03 -1.089771389961242676e-01 7.259667664766311646e-02 7.589461654424667358e-02 -4.496143385767936707e-02 8.241054601967334747e-03 -3.746392950415611267e-02 -2.382995933294296265e-02 -4.556785151362419128e-02 -3.074904379900544882e-04 6.330264266580343246e-03 5.653440020978450775e-03 5.618635192513465881e-02 -1.843000203371047974e-02 -2.234645001590251923e-02 2.780587878078222275e-03 9.625629521906375885e-03 -1.240287348628044128e-01 -7.297195959836244583e-03 -1.734196767210960388e-02 -7.214631140232086182e-02 6.441049575805664062e-01 -1.112793087959289551e-01 2.803088165819644928e-02 7.306731492280960083e-02 -1.719811260700225830e-01 1.241649463772773743e-01 7.465557754039764404e-02 6.561095267534255981e-02 -1.860737241804599762e-02 -1.450197696685791016e-01 -1.247426122426986694e-01 1.709707677364349365e-01 -1.595342997461557388e-03 1.767478287220001221e-01 -1.845542155206203461e-02 1.122193783521652222e-02 -1.021200418472290039e-02 5.226492136716842651e-02 1.399811264127492905e-02 6.217433605343103409e-03 6.023042369633913040e-03 -1.172942668199539185e-02 -4.388775303959846497e-02 9.703545831143856049e-03 1.350689679384231567e-02 3.574327332898974419e-03 -8.399805054068565369e-03 5.843852087855339050e-02 -8.935237675905227661e-02 9.144914336502552032e-03 4.492754489183425903e-02 6.810884177684783936e-02 1.679502278566360474e-01 4.257120937108993530e-02 -2.700873911380767822e-01 8.393746614456176758e-02 3.583098202943801880e-02 8.866081386804580688e-02 -1.348568685352802277e-02 -1.522941440343856812e-01 -1.251577120274305344e-02 -1.347344741225242615e-02 -9.155275300145149231e-03 8.833415806293487549e-03 7.988284528255462646e-02 1.220185682177543640e-01 -8.437942713499069214e-03 -5.408873315900564194e-03 6.228325143456459045e-02 1.446785777807235718e-02 1.534467004239559174e-02 -3.783441206905990839e-04 -4.162431694567203522e-03 -4.796383157372474670e-02 -6.234104931354522705e-02 -6.045253202319145203e-02 1.958674006164073944e-02 -4.699832294136285782e-03 3.918852284550666809e-02 4.405418038368225098e-02 -4.787502437829971313e-02 6.496535986661911011e-02 -6.218013167381286621e-01 6.716091036796569824e-01 -4.593217745423316956e-02 8.896401152014732361e-03 -9.781822562217712402e-02 1.426881849765777588e-01 7.957515865564346313e-02 1.828609220683574677e-02 -9.945390373468399048e-02 7.739403098821640015e-02 -1.730476617813110352e-01 2.451626509428024292e-01 2.068616263568401337e-02 -7.524175941944122314e-02 -1.098006516695022583e-01 1.057726144790649414e-02 -5.534757673740386963e-02 -1.487743295729160309e-02 -4.843215271830558777e-02 5.014348309487104416e-03 -1.249912311322987080e-03 -1.033969968557357788e-02 1.401659101247787476e-02 6.961367279291152954e-02 4.582840204238891602e-02 2.678442746400833130e-02 1.071782223880290985e-02 2.928248047828674316e-02 -7.273721508681774139e-03 -7.330971211194992065e-02 -1.217392738908529282e-02 -1.313115835189819336e+00 7.887811064720153809e-01 -2.668054215610027313e-02 -2.142582647502422333e-02 -7.839787751436233521e-02 -1.864986307919025421e-02 1.710944920778274536e-01 -1.205439195036888123e-01 -1.499726921319961548e-01 1.315186470746994019e-01 -6.552290171384811401e-02 1.734291017055511475e-02 1.003596261143684387e-01 -1.325577497482299805e-01 -6.628371030092239380e-02 -5.705474410206079483e-03 -8.173566311597824097e-02 6.912817060947418213e-02 7.629901915788650513e-02 8.576791515224613249e-06 -3.627486526966094971e-02 4.818532150238752365e-03 -3.726263763383030891e-03 1.899058930575847626e-02 4.399741068482398987e-02 7.225191220641136169e-04 -3.918305505067110062e-03 -1.873993314802646637e-02 1.953437030315399170e-01 2.424890920519828796e-02 2.082363888621330261e-02 -5.487985163927078247e-02 5.730216205120086670e-02 -1.715647429227828979e-01 -7.692111283540725708e-02 1.022805124521255493e-01 2.593183331191539764e-02 7.956001907587051392e-02 1.206988617777824402e-01 -1.180325150489807129e-01 -2.090207338333129883e-01 2.508958578109741211e-01 3.741259500384330750e-02 1.031794175505638123e-01 -2.871933951973915100e-02 -5.716599524021148682e-02 6.425233092159032822e-03 -1.282626390457153320e-01 5.255603417754173279e-02 2.992553450167179108e-02 -6.137386709451675415e-02 -4.336657375097274780e-02 -5.349571350961923599e-03 -7.814012467861175537e-02 9.456746280193328857e-02 1.075921878218650818e-01 3.244109079241752625e-02 -2.348805367946624756e-01 3.728114068508148193e-02 -6.715535372495651245e-02 -1.280040442943572998e-01 1.173507794737815857e-01 2.300328575074672699e-03 -1.272941231727600098e-01 4.571731761097908020e-02 -5.314110964536666870e-02 -1.602679193019866943e-01 1.470034718513488770e-01 8.141649514436721802e-02 3.633605316281318665e-02 -4.642076045274734497e-02 1.534338742494583130e-01 -2.321214973926544189e-01 -2.223947271704673767e-02 3.839385509490966797e-02 3.954157978296279907e-02 -1.568245291709899902e-01 2.302260249853134155e-01 -3.917035087943077087e-02 -3.431253135204315186e-01 1.956746429204940796e-01 9.688021987676620483e-02 9.473387151956558228e-02
-5.313010215759277344e-01 8.091782331466674805e-01 3.978969156742095947e-02 -1.707052290439605713e-01 4.069283977150917053e-02 -1.872179098427295685e-02 5.160340294241905212e-02 1.234794408082962036e-01 -5.683842301368713379e-02 3.206185251474380493e-02 2.489891946315765381e-01 -2.993664145469665527e-01 9.563051164150238037e-02 1.221620589494705200e-01 1.538826525211334229e-02 -6.228530313819646835e-03 2.003078989218920469e-04 -2.194233052432537079e-02 -2.076347917318344116e-02 1.742157328408211470e-04 3.852729219943284988e-03 -2.438418101519346237e-03 -1.365099661052227020e-02 3.172516822814941406e-02 1.642742939293384552e-02 1.244681328535079956e-02 -4.781643219757825136e-04 1.089902371168136597e-01 2.284737825393676758e-01 -4.001489654183387756e-02 -8.730338513851165771e-02 -1.058542430400848389e-01 5.104326009750366211e-01 -8.970361948013305664e-02 4.212159290909767151e-02 -5.363376811146736145e-02 -4.518697038292884827e-02 -2.108910083770751953e-01 1.673316061496734619e-01 1.725700646638870239e-01 -1.671675741672515869e-01 1.102845594286918640e-01 -5.235100165009498596e-02 -1.247018761932849884e-02 -1.042827665805816650e-01 1.399473696947097778e-01 -6.302352994680404663e-03 1.152574364095926285e-02 -5.490872263908386230e-02 -9.863061830401420593e-03 3.386307507753372192e-02 7.269995752722024918e-03 -3.685397328808903694e-03 3.178412094712257385e-02 -5.838244408369064331e-02 -6.139865145087242126e-02 -1.181344408541917801e-02 -2.203967655077576637e-03 6.477476656436920166e-02 1.334817856550216675e-01 1.388865150511264801e-02 3.441723063588142395e-02 2.508400976657867432e-01 -8.357819914817810059e-02 -2.040941417217254639e-01 -2.136640250682830811e-02 2.812226861715316772e-02 5.443475674837827682e-03 -1.229628571309149265e-03 -1.386403143405914307e-01 -2.699967026710510254e-01 1.063372567296028137e-02 2.168846130371093750e-01 -1.008177548646926880e-02 -4.776229616254568100e-03 1.142376214265823364e-01 -1.212641689926385880e-02 1.397093408741056919e-03 3.802890656515955925e-03 -1.398088410496711731e-02 -5.079190060496330261e-02 8.613513782620429993e-03 -3.734078723937273026e-03 -3.714914899319410324e-03 5.518462136387825012e-02 -7.856755703687667847e-02 -6.954580545425415039e-02 -1.095806621015071869e-02 1.563983596861362457e-02 9.396584331989288330e-02 -1.025439426302909851e-01 1.690476387739181519e-02 -2.278355881571769714e-02 6.073571443557739258e-01 -1.101350903511047363e+00 -7.582756131887435913e-02 2.857010625302791595e-02 2.403285168111324310e-02 -5.377564579248428345e-02 6.066082045435905457e-02 4.304366186261177063e-02 8.795499801635742188e-02 1.094157397747039795e-01 1.708576828241348267e-01 8.721585385501384735e-03 -2.271423675119876862e-02 -1.733146607875823975e-02 8.987185545265674591e-03 -1.300624338909983635e-03 4.565811902284622192e-02 -3.250288963317871094e-02 1.172742620110511780e-02 3.623303724452853203e-03 -2.477580215781927109e-03 -8.420575410127639771e-03 -8.258130401372909546e-03 -8.426185697317123413e-02 -7.212797552347183228e-02 -4.659927915781736374e-03 3.524030093103647232e-03 -4.778387956321239471e-03 6.021073833107948303e-02 -8.511397987604141235e-02 6.863544136285781860e-02 1.029555797576904297e+00 -2.108269214630126953e+00 1.920906268060207367e-02 -1.876161433756351471e-03 6.217287108302116394e-02 2.425183802843093872e-01 -3.304031118750572205e-02 1.107147857546806335e-01 6.876602768898010254e-03 -3.692348022013902664e-03 2.059760689735412598e-02 -2.586481869220733643e-01 -7.681316882371902466e-02 -6.659733504056930542e-02 -4.142730962485074997e-03 -8.993965573608875275e-03 3.460405021905899048e-02 -1.991357095539569855e-02 -7.035245001316070557e-02 2.386209927499294281e-02 4.059807397425174713e-04 9.066609665751457214e-03 1.910665817558765411e-02 -1.470613181591033936e-01 -1.545545905828475952e-01 -4.398799315094947815e-02 1.206624507904052734e-02 6.252183020114898682e-02 -9.089405089616775513e-02 -9.425521641969680786e-02 -8.916128426790237427e-02 5.398320779204368591e-02 -2.297475934028625488e-01 2.838874459266662598e-01 -8.457907289266586304e-02 2.758980917860753834e-05 -1.789048686623573303e-02 -7.225512713193893433e-02 -1.628960669040679932e-01 1.970132589340209961e-01 1.147368475794792175e-01 1.046672463417053223e-01 1.839286535978317261e-01 -8.694250136613845825e-02 -2.273350022733211517e-02 -1.855213940143585205e-01 -6.848822347819805145e-03 1.070498116314411163e-02 1.193939968943595886e-01 1.843499206006526947e-02 -1.590838432312011719e-01 6.682551931589841843e-03 1.101968064904212952e-01 9.329465217888355255e-03 2.412972599267959595e-02 -3.615306317806243896e-02 -1.330130845308303833e-01 1.640430688858032227e-01 -1.277908980846405029e-01 1.744788140058517456e-01 -1.987881585955619812e-02 -3.432075306773185730e-02 -1.330459053860977292e-04 3.781453892588615417e-02 5.269839242100715637e-02 2.477397918701171875e-01 -1.143889036029577255e-02 -1.300231833010911942e-02 -3.163750842213630676e-02 -9.346722066402435303e-02 9.503437578678131104e-02 -1.288391053676605225e-01 2.369846254587173462e-01 2.717339619994163513e-02 -9.994111955165863037e-02 8.188007771968841553e-02 -2.828011214733123779e-01 -9.866963140666484833e-03 3.578077256679534912e-01 6.301750987768173218e-02 -2.251373976469039917e-02 1.379869580268859863e-01 -1.094766706228256226e-01
6.920125484466552734e-01 -1.115381568670272827e-01 4.474755004048347473e-02 -1.755342483520507812e-01 8.851449191570281982e-02 -2.214732021093368530e-02 -2.129704318940639496e-02 6.203370913863182068e-02 8.607418090105056763e-02 8.819219656288623810e-03 2.021826803684234619e-01 1.618345528841018677e-01 9.204190969467163086e-02 1.888768225908279419e-01 8.362042158842086792e-02 6.212790962308645248e-03 2.039417997002601624e-02 1.601930335164070129e-02 4.627969861030578613e-02 2.296793460845947266e-02 3.596773312892764807e-04 -1.307825651019811630e-02 1.444325898773968220e-03 -3.163845837116241455e-02 -4.341265186667442322e-02 -4.222068004310131073e-03 7.706404197961091995e-03 2.779981121420860291e-03 -1.939102411270141602e-01 9.455689787864685059e-02 6.106689944863319397e-02 6.639829874038696289e-01 1.260125041007995605e-01 -1.798164993524551392e-01 -6.593874841928482056e-02 4.222231358289718628e-02 -9.057652205228805542e-03 1.030367910861968994e-01 -6.506428122520446777e-02 1.404899507761001587e-01 -4.119746852666139603e-03 4.826670046895742416e-03 1.270013749599456787e-01 2.809371650218963623e-01 1.295951455831527710e-01 -4.013489186763763428e-02 -1.107735279947519302e-02 -1.658970490097999573e-02 -1.826873049139976501e-02 2.205829136073589325e-02 2.305453643202781677e-02 1.312448456883430481e-02 -1.381024951115250587e-03 9.583898819983005524e-03 8.875722438097000122e-02 2.388452179729938507e-02 9.070663712918758392e-03 6.246989127248525620e-03 -6.739409267902374268e-02 -1.700337529182434082e-01 5.505719035863876343e-02 7.447203993797302246e-02 2.789458334445953369e-01 1.853553652763366699e-01 3.142776712775230408e-02 -7.936617732048034668e-02 -6.040447205305099487e-02 7.433736696839332581e-03 1.044052690267562866e-01 1.424593627452850342e-01 2.670238353312015533e-02 1.863714493811130524e-02 6.168350577354431152e-02 7.237244397401809692e-02 2.279740571975708008e-01 7.043586671352386475e-02 2.817086689174175262e-02 -3.676792839542031288e-03 -8.397182822227478027e-02 -6.529900431632995605e-02 -4.357518628239631653e-02 1.429645996540784836e-02 1.669224724173545837e-02 -3.404545132070779800e-03 6.316528469324111938e-02 5.798421055078506470e-02 1.034439355134963989e-01 1.491061504930257797e-02 1.753328926861286163e-02 -1.272944957017898560e-01 1.317461114376783371e-02 -5.249383673071861267e-02 -9.879696369171142578e-02 -1.346852481365203857e-01 2.945334613323211670e-01 -6.768964976072311401e-02 1.645753085613250732e-01 1.553506255149841309e-01 3.503591194748878479e-02 -1.732770726084709167e-02 4.797186329960823059e-02 7.940588146448135376e-02 3.709342330694198608e-02 6.886234134435653687e-02 1.733890734612941742e-02 2.104230523109436035e-01 -1.367439422756433487e-02 -2.385687781497836113e-03 -9.660753421485424042e-03 2.427497878670692444e-02 -3.878014907240867615e-02 -2.140191383659839630e-03 3.501813486218452454e-02 1.496396772563457489e-02 1.132274791598320007e-02 -4.367595165967941284e-02 4.124755412340164185e-02 -1.493882387876510620e-02 -1.388310920447111130e-03 8.166079409420490265e-03 1.108747441321611404e-02 4.338454082608222961e-02 -2.947146259248256683e-02 -5.596318515017628670e-04 -5.510555505752563477e-01 3.362652957439422607e-01 -6.554768234491348267e-02 6.713666766881942749e-02 7.884912937879562378e-02 2.089386135339736938e-01 1.037994846701622009e-01 1.553865894675254822e-02 2.165657430887222290e-01 -3.302325308322906494e-02 1.646034717559814453e-01 1.901096552610397339e-01 7.421416789293289185e-02 -5.393828824162483215e-02 -1.332316398620605469e-01 6.733338814228773117e-03 -4.052910953760147095e-02 -3.343249484896659851e-02 -7.037920877337455750e-03 3.710699826478958130e-02 5.183379352092742920e-02 1.515565323643386364e-03 2.866688929498195648e-02 2.423407509922981262e-02 7.081700861454010010e-02 2.992118475958704948e-03 5.452397279441356659e-03 -1.479811221361160278e-01 -1.681312769651412964e-01 -2.133025974035263062e-02 -3.268578648567199707e-02 1.158091574907302856e-01 4.186460003256797791e-02 -1.177884861826896667e-01 1.658958345651626587e-01 -4.131418839097023010e-02 -1.388531178236007690e-01 -2.315932661294937134e-01 5.061291903257369995e-02 -2.727603353559970856e-02 2.221558541059494019e-01 1.239037662744522095e-01 -1.483563520014286041e-02 2.606357820332050323e-02 6.959878373891115189e-03 1.087693311274051666e-02 7.458873093128204346e-02 1.600563377141952515e-01 1.534993411041796207e-03 -7.983706146478652954e-02 -8.895933628082275391e-02 8.397078514099121094e-02 2.041257619857788086e-01 2.200915291905403137e-02 2.473490312695503235e-02 -1.151630803942680359e-01 -2.035810425877571106e-02 -9.337221086025238037e-02 -7.400133460760116577e-02 2.515955641865730286e-02 7.862100005149841309e-02 -5.300607904791831970e-02 -7.059097290039062500e-02 -1.680627912282943726e-01 -1.080674491822719574e-02 9.978188574314117432e-02 2.759699821472167969e-01 -1.543478854000568390e-02 -4.598573222756385803e-02 -4.048550501465797424e-02 -9.768885374069213867e-02 8.375582098960876465e-02 7.239968329668045044e-02 1.095737069845199585e-01 -6.839505396783351898e-03 -2.417991161346435547e-01 -1.448179967701435089e-02 3.225844353437423706e-02 2.522211074829101562e-01 2.171049080789089203e-02 9.258733689785003662e-02 -3.862151876091957092e-03 -8.489874005317687988e-02
-6.720102578401565552e-02 2.865085601806640625e-01 1.355587244033813477e-01 7.708669453859329224e-02 5.700307898223400116e-03 4.875816777348518372e-02 3.397843986749649048e-02 -2.443117797374725342e-01 -3.349841758608818054e-02 7.073564082384109497e-02 -1.021365970373153687e-01 -1.650747060775756836e-01 2.949151955544948578e-02 -1.820874661207199097e-01 8.135111629962921143e-02 2.380643272772431374e-03 3.628229023888707161e-04 -7.237718999385833740e-02 -1.255263388156890869e-01 -5.325324460864067078e-02 4.822497721761465073e-03 -1.351988408714532852e-03 -1.550396438688039780e-02 -4.491613712161779404e-03 -5.461801216006278992e-02 3.219526028260588646e-03 -4.099484998732805252e-03 1.877321749925613403e-01 1.660853177309036255e-01 -2.092432789504528046e-02 8.221811801195144653e-02 -1.366079412400722504e-02 1.117266193032264709e-01 -1.641057431697845459e-02 1.851901225745677948e-02 -3.516141325235366821e-02 1.958028972148895264e-01 6.913735065609216690e-03 3.691041842103004456e-02 1.668154448270797729e-01 1.153300926089286804e-01 -1.260859146714210510e-02 -1.021690517663955688e-01 4.865590110421180725e-02 -5.293589085340499878e-02 -2.079285494983196259e-02 -1.755039440467953682e-03 -5.339104309678077698e-02 9.282007813453674316e-02 1.561311073601245880e-02 -3.542396053671836853e-02 1.060000853613018990e-03 2.408558269962668419e-03 6.158075854182243347e-02 -8.340423554182052612e-02 -6.818395107984542847e-02 -3.920350968837738037e-02 2.188203297555446625e-02 2.572557032108306885e-01 1.699337512254714966e-01 -6.895687431097030640e-02 1.216758508235216141e-02 9.179960936307907104e-02 1.094424650073051453e-01 5.945829674601554871e-02 2.444737404584884644e-02 -8.465391583740711212e-03 9.569994360208511353e-02 5.062659829854965210e-02 -1.016358379274606705e-02 7.856641709804534912e-02 6.960712373256683350e-03 7.170303165912628174e-02 -2.519068121910095215e-01 -3.681151662021875381e-03 7.013210654258728027e-02 -2.479398623108863831e-02 1.195307262241840363e-02 -4.696500301361083984e-02 -3.129645483568310738e-04 8.738725632429122925e-02 -2.991982363164424896e-02 -4.026302136480808258e-03 1.050481852144002914e-02 -6.822942290455102921e-03 -3.885020315647125244e-02 -5.009524151682853699e-02 -1.585472491569817066e-03 -8.773144334554672241e-03 1.796013414859771729e-01 6.916533410549163818e-02 8.839690126478672028e-03 8.445876091718673706e-02 3.541133925318717957e-02 5.215033143758773804e-02 -4.784144461154937744e-02 -1.385709922760725021e-02 1.033490523695945740e-01 3.624087944626808167e-02 -3.612152487039566040e-02 -1.126653701066970825e-01 -2.975827082991600037e-02 1.673105731606483459e-02 7.326529920101165771e-02 2.244972996413707733e-02 -9.723555296659469604e-02 -1.257541477680206299e-01 -7.981098443269729614e-02 7.950501749292016029e-04 -3.337416425347328186e-02 2.726330980658531189e-02 -2.616222202777862549e-02 -2.945833839476108551e-02 1.434525847434997559e-02 4.691023379564285278e-03 2.113002352416515350e-02 -6.518369168043136597e-02 -7.605807483196258545e-02 -2.219379507005214691e-02 -3.431574907153844833e-03 2.409382462501525879e-01 2.808979749679565430e-01 -2.427890338003635406e-02 -7.621412724256515503e-02 1.073652356863021851e-01 -3.446867465972900391e-01 1.943013072013854980e-01 -3.963739797472953796e-02 4.981836676597595215e-02 -7.438845187425613403e-02 5.877083912491798401e-02 7.857500016689300537e-02 -1.067366101779043674e-04 -3.390989452600479126e-02 2.475245483219623566e-02 3.743169829249382019e-02 2.721556834876537323e-02 -5.068871006369590759e-02 8.621648699045181274e-02 9.919700212776660919e-03 -1.278117857873439789e-02 8.247640915215015411e-03 -3.599142655730247498e-02 -4.243697598576545715e-02 6.750305648893117905e-03 2.980060176923871040e-03 -1.511921733617782593e-02 -8.266325294971466064e-02 1.697060465812683105e-02 -7.080066204071044922e-02 -3.114403598010540009e-02 3.314551711082458496e-01 1.524615734815597534e-01 -4.319522902369499207e-02 -5.960467830300331116e-02 1.049060523509979248e-01 7.727200631052255630e-03 -2.097832113504409790e-01 -8.182983845472335815e-02 -8.618507534265518188e-02 -9.223698079586029053e-02 -8.416189253330230713e-02 -1.148662436753511429e-02 -8.570420742034912109e-02 2.915046736598014832e-02 -4.133069515228271484e-02 8.600650727748870850e-02 -5.118731036782264709e-02 -2.214943021535873413e-01 6.075813621282577515e-02 -4.191617295145988464e-02 -6.679531186819076538e-02 -8.266278542578220367e-03 -7.165866345167160034e-02 -6.593097001314163208e-02 6.577433645725250244e-02 2.753609977662563324e-02 -3.710431978106498718e-02 -1.769255548715591431e-01 1.172927990555763245e-01 -3.331799805164337158e-02 6.574220210313796997e-02 1.590824872255325317e-02 -2.450831681489944458e-01 1.435333639383316040e-01 -1.495187729597091675e-01 -7.837519049644470215e-02 8.721380680799484253e-02 5.492958799004554749e-02 -1.934688910841941833e-02 2.374035678803920746e-02 -1.535977236926555634e-02 -8.963596075773239136e-02 8.723406121134757996e-03 -6.523890048265457153e-02 -3.139312192797660828e-02 -1.946438550949096680e-01 4.245798662304878235e-02 -1.398111879825592041e-01 1.354342252016067505e-01 -4.686285927891731262e-02 1.015298888087272644e-01 1.539457887411117554e-01 -2.206218242645263672e-01 -2.976193837821483612e-02 1.219333484768867493e-01 -7.881864905357360840e-02
-1.318550944328308105e+00 2.621592581272125244e-01 -1.077573671936988831e-01 1.554726902395486832e-02 4.320706427097320557e-02 1.988023333251476288e-02 -3.157281503081321716e-02 -9.545966982841491699e-03 -1.084226742386817932e-01 9.515066444873809814e-02 -8.851724863052368164e-02 -1.065663173794746399e-01 -5.944894254207611084e-02 -3.938678279519081116e-02 -1.641226001083850861e-02 -2.986727282404899597e-03 2.375217713415622711e-02 -2.529917052015662193e-03 1.202291459776461124e-03 1.176032330840826035e-02 -2.609081333503127098e-03 1.204873528331518173e-02 -3.999100252985954285e-02 1.592586189508438110e-02 -1.480881217867136002e-02 -1.115160621702671051e-02 -1.380559988319873810e-02 1.350628882646560669e-01 -1.144084483385086060e-01 -6.926337629556655884e-02 -1.361804269254207611e-02 -1.233170390129089355e+00 2.780483365058898926e-01 -2.560681998729705811e-01 7.815723802195861936e-05 1.170190349221229553e-01 6.545282900333404541e-02 -2.828448452055454254e-02 -1.483572926372289658e-02 1.538170427083969116e-01 -7.936595939099788666e-03 -3.767598420381546021e-02 -1.189019083976745605e-01 -1.826229691505432129e-01 -1.120104044675827026e-01 1.002244353294372559e-01 -9.495870210230350494e-03 3.026332147419452667e-02 1.276394352316856384e-03 -6.371949613094329834e-02 -1.507266610860824585e-02 4.473156761378049850e-03 1.509943697601556778e-02 2.842588908970355988e-02 -7.385113835334777832e-02 -5.238621309399604797e-02 -3.467344865202903748e-02 6.056195124983787537e-03 2.243929170072078705e-02 -2.451060265302658081e-01 -3.173008188605308533e-02 -3.277845680713653564e-02 -4.263589084148406982e-01 1.083345524966716766e-02 1.633718758821487427e-01 2.328573353588581085e-02 -1.017846688628196716e-01 1.129478141665458679e-01 7.275890558958053589e-03 -7.937937229871749878e-02 -9.729981422424316406e-03 1.606715470552444458e-01 -9.962991625070571899e-02 5.059855803847312927e-02 -8.011360466480255127e-02 -2.311245724558830261e-02 8.549774996936321259e-03 9.814000688493251801e-03 1.162356510758399963e-01 6.712809205055236816e-03 -8.721381425857543945e-03 -4.187067039310932159e-03 1.832978427410125732e-02 7.386940531432628632e-03 -5.598692968487739563e-02 -1.353485044091939926e-02 -8.665055036544799805e-02 -2.657530456781387329e-02 -1.116405799984931946e-02 1.052770689129829407e-01 -5.060479044914245605e-02 1.506534754298627377e-03 -8.487189561128616333e-02 1.714006662368774414e-01 -7.294473238289356232e-03 4.055741727352142334e-01 5.516504496335983276e-02 -1.514837332069873810e-02 -1.375219672918319702e-01 4.382842779159545898e-02 1.291895518079400063e-03 5.652916058897972107e-02 6.623889505863189697e-02 2.138579264283180237e-02 -6.988237053155899048e-02 -1.438722908496856689e-01 -4.506580159068107605e-02 8.709767460823059082e-02 -5.274940282106399536e-03 8.637309819459915161e-02 3.262192383408546448e-02 -7.850999943912029266e-03 1.846881466917693615e-03 1.447141915559768677e-02 1.145383249968290329e-02 8.318249136209487915e-03 -8.638130873441696167e-02 -6.466040760278701782e-02 -3.459458425641059875e-02 5.952455569058656693e-03 -4.527493845671415329e-03 3.693067282438278198e-02 4.753452911972999573e-02 1.275343820452690125e-02 1.190478682518005371e+00 -1.663322001695632935e-01 8.032481670379638672e-01 -1.235184147953987122e-01 -1.108775138854980469e-01 9.978108108043670654e-02 -7.291903719305992126e-03 6.841595470905303955e-02 1.539117544889450073e-01 1.166644133627414703e-02 8.623666316270828247e-02 -1.931921988725662231e-01 -4.500859603285789490e-02 -5.394477024674415588e-02 -3.204343840479850769e-02 -5.898519419133663177e-03 1.412215232849121094e-01 4.145645722746849060e-02 5.291178822517395020e-03 -1.487761083990335464e-02 4.053321480751037598e-02 6.694109179079532623e-03 -3.072526864707469940e-02 -1.138596162199974060e-01 -1.431044787168502808e-01 -5.267161130905151367e-02 -3.260491648688912392e-03 -2.688511088490486145e-02 -3.526309505105018616e-02 5.670775845646858215e-02 7.271390408277511597e-02 1.278217732906341553e-01 -1.166950762271881104e-01 -6.084271520376205444e-02 -7.353378832340240479e-02 9.989750385284423828e-02 -8.556350134313106537e-03 2.211135998368263245e-02 -2.768879756331443787e-02 -1.101163551211357117e-01 -5.670140311121940613e-02 -3.833819180727005005e-02 5.178198590874671936e-02 6.981012225151062012e-02 -1.191014871001243591e-01 -9.439962357282638550e-02 -8.013553172349929810e-02 -1.189909353852272034e-01 1.102392096072435379e-02 6.075332406908273697e-03 4.176195338368415833e-02 1.420181896537542343e-02 -1.189453080296516418e-01 6.630253046751022339e-03 -5.842593684792518616e-02 -6.630997359752655029e-02 1.022767741233110428e-02 1.512916237115859985e-01 -1.904189288616180420e-01 4.051041975617408752e-02 -2.440903186798095703e-01 1.136313974857330322e-01 -5.946585536003112793e-02 -2.424184605479240417e-02 -1.076837256550788879e-01 4.458849132061004639e-02 -1.639343053102493286e-01 6.706207990646362305e-02 -7.900826632976531982e-02 1.019608750939369202e-01 -3.244924545288085938e-02 -1.138723418116569519e-01 1.808528900146484375e-01 -2.682179212570190430e-01 1.819030344486236572e-01 -1.501978188753128052e-02 -2.542070299386978149e-02 -9.592971950769424438e-02 -8.103276789188385010e-02 4.854569211602210999e-02 -1.115671023726463318e-01 -1.131220534443855286e-02 2.753665857017040253e-02
8.846551179885864258e-01 7.351828217506408691e-01 1.496543288230895996e-01 7.616391032934188843e-02 -2.471822947263717651e-01 1.596591919660568237e-01 -1.242098435759544373e-01 8.493155241012573242e-02 -1.143815070390701294e-01 -7.165118306875228882e-02 2.624840438365936279e-01 4.633781313896179199e-02 1.068106815218925476e-01 -2.419957891106605530e-02 1.493389159440994263e-01 -3.970043326262384653e-04 1.700439490377902985e-03 -1.569758355617523193e-02 -2.816495113074779510e-02 -1.929117366671562195e-02 4.344146000221371651e-04 1.502818427979946136e-03 -5.630876868963241577e-03 -5.603989213705062866e-02 -8.341655880212783813e-02 -9.788366965949535370e-03 -1.537847914732992649e-03 -1.567039340734481812e-01 1.353649646043777466e-01 1.158761158585548401e-01 -3.719293698668479919e-02 6.392686963081359863e-01 2.975017130374908447e-01 -1.519920211285352707e-02 -6.119574978947639465e-02 -3.547550365328788757e-02 2.224158197641372681e-01 1.123040914535522461e-01 3.657957538962364197e-02 2.847926616668701172e-01 5.876046419143676758e-02 9.192906320095062256e-02 1.225401088595390320e-01 1.729059815406799316e-01 1.426502019166946411e-01 -2.309056371450424194e-02 2.236203290522098541e-03 2.033294411376118660e-03 -7.645002007484436035e-02 -1.268048137426376343e-01 8.777864277362823486e-03 1.395399123430252075e-02 -1.717437640763819218e-03 -3.413713350892066956e-02 2.502819756045937538e-03 3.557353466749191284e-02 1.274493336677551270e-02 -6.117748562246561050e-03 1.111500412225723267e-01 1.261495333164930344e-02 7.933393865823745728e-02 6.566603202372789383e-03 1.980884075164794922e-01 2.382994443178176880e-01 1.045663803815841675e-01 -1.660405285656452179e-02 1.922966167330741882e-02 4.531080275774002075e-02 1.897393018007278442e-01 7.918116450309753418e-02 -9.411739557981491089e-02 -9.127521514892578125e-02 1.473388224840164185e-01 3.578165173530578613e-02 -2.695525623857975006e-02 -1.745721399784088135e-01 1.299475133419036865e-01 1.094930688850581646e-03 -2.555912174284458160e-02 -4.073863476514816284e-02 -3.549762070178985596e-02 1.093773636966943741e-02 8.286739699542522430e-03 1.714413054287433624e-03 6.257575470954179764e-03 1.071881502866744995e-02 1.151153724640607834e-02 -5.748686846345663071e-03 2.002326073125004768e-03 -1.817482709884643555e-01 4.087188281118869781e-03 -1.100689321756362915e-01 -5.450211465358734131e-02 -2.307416200637817383e-01 -1.132119670510292053e-01 1.155090890824794769e-02 -1.266521066427230835e-01 3.420663997530937195e-03 6.068858504295349121e-02 8.704517967998981476e-04 9.439473599195480347e-02 -8.834965527057647705e-02 -3.793371096253395081e-02 1.598224043846130371e-01 -1.333546638488769531e-01 3.890008851885795593e-02 -4.500821605324745178e-02 -3.116606734693050385e-02 -1.459618681110441685e-03 -1.578050293028354645e-02 -5.250730365514755249e-02 -1.475891657173633575e-02 8.452899754047393799e-03 8.954006625572219491e-05 -7.414966356009244919e-03 -1.116059068590402603e-02 8.246087469160556793e-03 3.690450266003608704e-02 4.743172321468591690e-03 7.067878730595111847e-03 -1.975787132978439331e-01 5.292183160781860352e-02 6.621626019477844238e-02 -9.531908482313156128e-02 -6.029987335205078125e-01 -3.150346279144287109e-01 -1.975347101688385010e-01 -1.094211786985397339e-01 1.007790267467498779e-01 -3.288411349058151245e-02 -8.680992573499679565e-02 -2.269004285335540771e-02 8.453465998172760010e-02 1.318125575780868530e-01 2.371036559343338013e-01 1.093373969197273254e-01 3.391943499445915222e-02 -6.948584318161010742e-02 2.105274051427841187e-02 -9.995809523388743401e-04 -5.436657741665840149e-02 -1.404823660850524902e-01 -1.269537508487701416e-01 2.445703931152820587e-02 5.376640241593122482e-03 6.609534844756126404e-03 7.006803154945373535e-02 1.437076646834611893e-02 4.221204295754432678e-02 -2.736123092472553253e-02 -4.185052588582038879e-03 6.632951647043228149e-02 -7.371686398983001709e-02 1.716862022876739502e-01 -6.893442571163177490e-02 3.332890942692756653e-02 -2.123341150581836700e-02 3.420741297304630280e-03 -4.648433625698089600e-02 -7.207241654396057129e-02 -5.242722481489181519e-02 -1.557241752743721008e-02 8.679492771625518799e-02 5.375857651233673096e-02 -1.948093622922897339e-01 6.025134772062301636e-02 1.809284277260303497e-02 -9.702296927571296692e-03 6.306566763669252396e-03 -1.352690756320953369e-01 -1.074061449617147446e-02 -2.005860358476638794e-01 3.018357791006565094e-03 -4.868025332689285278e-02 2.013703575357794762e-03 1.452379673719406128e-02 -4.184186831116676331e-02 -1.119682565331459045e-01 5.171190202236175537e-02 3.480456769466400146e-02 1.671425998210906982e-02 3.082046471536159515e-02 -5.827206373214721680e-02 7.985072582960128784e-02 -1.408653408288955688e-01 -3.991948440670967102e-02 -8.395972102880477905e-02 5.980339646339416504e-02 3.174074366688728333e-02 4.819508269429206848e-02 -1.454280018806457520e-01 8.166053146123886108e-02 1.374920308589935303e-01 -1.817245967686176300e-02 -7.168807089328765869e-02 -4.383368045091629028e-02 2.267911285161972046e-01 1.395452115684747696e-02 -1.222350075840950012e-01 -3.836516290903091431e-02 -9.872154891490936279e-02 2.583691850304603577e-03 2.509012818336486816e-01 -1.113394051790237427e-01 1.849279403686523438e-01 3.198356032371520996e-01 -1.674092188477516174e-02
-1.060234308242797852e-01 9.533765316009521484e-01 -4.576497524976730347e-02 -4.929956048727035522e-02 1.608190834522247314e-01 -2.871636301279067993e-02 -3.930655494332313538e-02 -9.256474673748016357e-02 -6.159538775682449341e-02 1.693342626094818115e-02 2.314275130629539490e-02 -4.293321073055267334e-02 3.392524644732475281e-02 1.364202946424484253e-01 1.634587906301021576e-02 -6.938326987437903881e-04 1.042530522681772709e-03 6.302008777856826782e-02 4.154611378908157349e-02 -3.172670956701040268e-03 -1.196874585002660751e-02 -2.522764727473258972e-03 1.000862848013639450e-02 -7.287740707397460938e-02 -5.248342454433441162e-02 2.606782596558332443e-03 2.301428234204649925e-03 1.478400975465774536e-01 -8.382985740900039673e-02 -8.630535751581192017e-02 -1.840259432792663574e-01 -8.045802265405654907e-02 5.788687467575073242e-01 9.284020215272903442e-02 4.818261042237281799e-02 -4.046823829412460327e-02 -4.795939102768898010e-02 2.327715046703815460e-02 1.243288293480873108e-01 5.313358083367347717e-02 4.696805402636528015e-02 -4.488879069685935974e-02 -9.937895834445953369e-02 -1.378548145294189453e-01 3.087206557393074036e-02 -9.072570502758026123e-02 -5.736780585721135139e-04 1.566910743713378906e-02 -3.127399459481239319e-02 -8.875892497599124908e-03 -1.033768896013498306e-02 -3.239977639168500900e-03 -2.150413056369870901e-04 -5.895697511732578278e-03 3.196405246853828430e-02 3.240931406617164612e-02 2.131227403879165649e-02 1.338177709840238094e-03 8.573799580335617065e-02 2.728843502700328827e-02 -1.761577427387237549e-01 2.263808622956275940e-02 2.851962298154830933e-02 2.437918633222579956e-01 6.727904081344604492e-02 -5.019952356815338135e-02 2.119508385658264160e-01 -1.989503204822540283e-01 -2.705646865069866180e-02 8.050701767206192017e-02 3.344115614891052246e-02 1.098297815769910812e-02 -1.068666651844978333e-01 -6.699279695749282837e-02 1.023614779114723206e-01 -2.950536832213401794e-02 1.425319314002990723e-01 -3.782601794227957726e-03 1.150859706103801727e-02 -2.652718313038349152e-02 -3.566254675388336182e-02 5.241865757852792740e-03 -5.335209891200065613e-03 6.451067049056291580e-03 2.836177311837673187e-02 -4.366661980748176575e-02 -9.281848557293415070e-03 1.399897504597902298e-02 2.812873572111129761e-03 -2.972341142594814301e-02 -6.291081011295318604e-02 -3.752439916133880615e-01 7.914436981081962585e-03 -3.380610048770904541e-02 -5.182898640632629395e-01 -1.094873994588851929e-01 -1.309842169284820557e-01 -3.542871400713920593e-02 1.023581624031066895e-01 -8.071239106357097626e-03 -1.928157545626163483e-02 2.564236335456371307e-02 6.012449413537979126e-02 2.141952980309724808e-03 4.577665403485298157e-02 -3.513972088694572449e-02 3.671557176858186722e-03 -3.144834190607070923e-02 -7.029818953014910221e-04 3.673818660899996758e-03 -3.931920230388641357e-02 -1.968351192772388458e-02 2.243764000013470650e-03 -6.852149032056331635e-03 -6.180204218253493309e-04 8.487896062433719635e-03 -8.155684173107147217e-02 -6.112699955701828003e-02 -1.674487488344311714e-03 4.754298366606235504e-03 -1.526146233081817627e-01 -1.557431966066360474e-01 -2.560218572616577148e-01 1.362324785441160202e-02 1.507644727826118469e-02 -1.096120595932006836e+00 1.958226561546325684e-01 1.378677487373352051e-01 -4.247579351067543030e-02 6.518013775348663330e-02 -6.204700842499732971e-02 -9.347620606422424316e-02 6.876370310783386230e-02 -8.659028261899948120e-02 -5.026081576943397522e-02 -1.793536096811294556e-01 -1.240845471620559692e-01 4.794366657733917236e-02 -5.822437629103660583e-02 -3.286977298557758331e-03 6.058568134903907776e-02 -5.954648554325103760e-02 -6.497768312692642212e-02 -1.785372756421566010e-02 7.536733523011207581e-03 2.322714775800704956e-03 -3.348980844020843506e-02 -9.865783154964447021e-02 -4.780635610222816467e-02 1.642674766480922699e-02 -8.424033410847187042e-03 -6.230859458446502686e-02 1.109050512313842773e-01 -4.082171916961669922e-01 -1.561863813549280167e-02 4.004089534282684326e-02 1.209790445864200592e-02 9.784697741270065308e-02 2.228975109755992889e-02 6.885202229022979736e-02 1.305573503486812115e-03 6.013722345232963562e-02 -1.669454015791416168e-02 5.813589692115783691e-02 2.556633949279785156e-02 1.057901978492736816e-02 -1.281328499317169189e-03 -5.476142466068267822e-02 -1.508694887161254883e-02 -6.332687288522720337e-02 1.726639866828918457e-01 4.841915518045425415e-02 1.575697399675846100e-02 3.243256732821464539e-02 -3.073710575699806213e-02 -8.188837021589279175e-02 2.215263545513153076e-01 2.370602823793888092e-02 -1.570642367005348206e-02 5.867324769496917725e-02 -5.336742103099822998e-02 -3.246550261974334717e-02 5.972650647163391113e-02 3.318952918052673340e-01 -9.146855771541595459e-02 1.038674563169479370e-01 -2.000753767788410187e-03 7.816592603921890259e-02 4.271740093827247620e-02 3.319337666034698486e-01 -3.576602786779403687e-02 -4.281071946024894714e-02 -3.648333251476287842e-02 -3.871935233473777771e-02 1.647043600678443909e-02 -6.917946040630340576e-03 3.828607797622680664e-01 3.388035297393798828e-02 3.649321943521499634e-02 -2.713256515562534332e-02 -1.329294126480817795e-02 -2.410218119621276855e-02 3.787721097469329834e-01 2.062948793172836304e-02 -8.686257153749465942e-02 5.465186666697263718e-03 1.225346582941710949e-03
1.044517233967781067e-01 3.495431542396545410e-01 -1.024967804551124573e-01 1.044461801648139954e-01 -2.067317217588424683e-01 -2.104205265641212463e-02 4.916394501924514771e-02 1.258660014718770981e-02 2.077423483133316040e-01 -4.972540214657783508e-02 1.162739396095275879e-01 1.264021694660186768e-01 -4.796047136187553406e-02 -6.894806027412414551e-02 -1.159669533371925354e-01 8.538309484720230103e-03 2.643114514648914337e-02 1.204427517950534821e-02 7.708489149808883667e-02 3.165935352444648743e-02 -1.350229047238826752e-02 -1.289074961096048355e-02 -2.664511278271675110e-02 2.901725843548774719e-02 5.651732441037893295e-03 -6.080291047692298889e-02 -1.566145196557044983e-02 1.478288769721984863e-01 -1.281422674655914307e-01 -1.281443797051906586e-02 -8.680167794227600098e-02 2.303966507315635681e-02 2.062705904245376587e-01 -3.030098378658294678e-01 3.849077224731445312e-02 1.062623932957649231e-01 -2.089680545032024384e-02 5.698019266128540039e-02 6.216657161712646484e-02 -4.540124908089637756e-02 4.011677950620651245e-02 9.217662736773490906e-03 -1.109010055661201477e-01 1.335340738296508789e-01 1.205101981759071350e-01 8.184587955474853516e-02 1.457470282912254333e-02 -2.740158699452877045e-02 -5.883718840777873993e-03 5.705130472779273987e-02 2.764070779085159302e-02 5.361693445593118668e-03 -1.666070893406867981e-02 -2.077795192599296570e-02 -4.824288189411163330e-02 -1.037234589457511902e-01 -3.360358253121376038e-02 -1.325559429824352264e-02 2.302658110857009888e-01 -2.582326531410217285e-01 1.516533493995666504e-01 -2.782429754734039307e-02 -1.769694536924362183e-01 2.932041287422180176e-01 -1.644280925393104553e-02 -9.445303119719028473e-03 -6.620328873395919800e-02 1.349902302026748657e-01 -8.951998315751552582e-03 -1.055927425622940063e-01 -1.817761063575744629e-01 3.286693617701530457e-02 -2.647138014435768127e-02 1.401734948158264160e-01 1.253229230642318726e-01 1.319072861224412918e-02 -5.746882408857345581e-02 -1.274589262902736664e-02 -6.346944719552993774e-02 -7.580248638987541199e-03 1.883842051029205322e-02 3.119231760501861572e-02 -2.480126358568668365e-02 -1.304063596762716770e-03 3.836985677480697632e-02 -5.023662745952606201e-02 -8.559941314160823822e-03 -1.809538458473980427e-03 2.487653866410255432e-03 6.644394248723983765e-02 -1.170181930065155029e-01 1.862951181828975677e-02 1.256841421127319336e-01 -2.032246291637420654e-01 -6.212462112307548523e-02 -7.310893386602401733e-02 -9.782480448484420776e-02 7.712729275226593018e-02 8.259245008230209351e-02 -5.387123208492994308e-03 -2.398226596415042877e-02 -2.518571354448795319e-02 -5.267391912639141083e-03 1.095847859978675842e-01 -1.147705875337123871e-02 1.058250889182090759e-01 -1.435768976807594299e-02 -1.196089833974838257e-01 2.634402178227901459e-02 -4.582405462861061096e-02 -2.288753166794776917e-02 9.931186214089393616e-03 -1.692233374342322350e-03 -1.335583813488483429e-02 -1.794105023145675659e-02 2.942179143428802490e-02 -2.531082741916179657e-02 -3.739163279533386230e-02 -1.581991463899612427e-02 -2.024105750024318695e-02 1.160977259278297424e-01 -1.293067932128906250e-01 2.728130854666233063e-02 4.536321386694908142e-02 -3.827111124992370605e-01 -2.070647478103637695e-02 1.855951845645904541e-01 3.154705092310905457e-02 -5.907751247286796570e-02 -1.149560436606407166e-01 -6.524344533681869507e-02 7.355197332799434662e-03 -9.104054421186447144e-02 6.435229629278182983e-02 4.917965829372406006e-02 5.607078783214092255e-03 -4.854144062846899033e-03 -4.626331105828285217e-02 6.470517814159393311e-02 1.646704599261283875e-02 -2.601214312016963959e-02 3.070965968072414398e-02 1.116105914115905762e-01 3.814069181680679321e-02 -2.667452208697795868e-02 -7.026658859103918076e-03 -1.318147033452987671e-02 -1.210442706942558289e-01 -9.837331622838973999e-02 -1.266062725335359573e-02 5.816872231662273407e-03 9.545755572617053986e-03 -1.048702970147132874e-01 -1.371774375438690186e-01 -5.846608802676200867e-02 -9.889918565750122070e-02 2.998384088277816772e-02 1.046159490942955017e-01 1.464260965585708618e-01 -7.839219272136688232e-02 -1.699027121067047119e-01 -7.783042639493942261e-02 1.317388750612735748e-02 5.664755776524543762e-02 1.183572337031364441e-01 -1.386468112468719482e-01 -1.567294150590896606e-01 -7.929290831089019775e-02 2.202437520027160645e-01 1.025336459279060364e-01 4.377608373761177063e-02 1.791489273309707642e-01 -8.735830895602703094e-03 7.799560576677322388e-02 -7.776909321546554565e-02 -7.923877239227294922e-02 1.414739806205034256e-02 1.520763784646987915e-01 -1.540498528629541397e-02 1.207786146551370621e-02 -1.344675756990909576e-02 -1.992202699184417725e-01 7.246448099613189697e-02 6.323891133069992065e-02 1.415055394172668457e-01 5.174439400434494019e-02 -1.128870099782943726e-01 -1.180392727255821228e-01 6.383762508630752563e-02 -1.883590966463088989e-02 1.876861304044723511e-01 -2.545797824859619141e-02 -5.786908417940139771e-02 -6.729964166879653931e-02 -3.052715584635734558e-02 1.301352679729461670e-01 -4.533040896058082581e-02 1.630865037441253662e-01 1.882412470877170563e-02 -6.096329912543296814e-02 -2.673516571521759033e-01 -4.932938888669013977e-02 6.918170303106307983e-02 -1.151795964688062668e-02 -1.175796389579772949e-01 -2.262105792760848999e-01 -1.989021897315979004e-02
7.839164882898330688e-02 -1.366189569234848022e-01 -1.433172449469566345e-02 -1.155788525938987732e-01 4.152439907193183899e-02 1.432945579290390015e-01 -9.125219285488128662e-02 6.065538898110389709e-02 1.331685185432434082e-01 1.523436456918716431e-01 -1.295484900474548340e-01 -9.276389330625534058e-02 1.186913549900054932e-01 -9.571216255426406860e-02 -1.827682852745056152e-01 3.281801007688045502e-03 -4.848745837807655334e-02 2.604715898633003235e-02 2.381444908678531647e-02 1.093584112823009491e-02 -9.559450671076774597e-03 -4.687604960054159164e-03 8.642341941595077515e-02 1.207337435334920883e-02 1.033055409789085388e-01 4.544720798730850220e-02 3.483274579048156738e-02 3.405789434909820557e-01 9.165173023939132690e-02 2.187445014715194702e-02 1.255525052547454834e-01 -4.709758237004280090e-02 -2.800744771957397461e-01 3.024187311530113220e-02 9.058234095573425293e-02 -1.377761214971542358e-01 -4.277143627405166626e-02 7.271254807710647583e-02 2.348312735557556152e-02 2.805896103382110596e-02 5.353329703211784363e-02 -1.441280916333198547e-02 -1.158512681722640991e-01 4.892960563302040100e-02 -2.378388121724128723e-02 -3.121385350823402405e-02 -4.401890560984611511e-03 -5.697504431009292603e-02 2.695074118673801422e-02 2.716815285384654999e-02 -1.639654114842414856e-02 -1.671598851680755615e-02 4.794470150955021381e-04 2.595865540206432343e-02 -6.305234134197235107e-02 -4.153373464941978455e-02 -1.761595532298088074e-02 5.145817529410123825e-03 2.031980007886886597e-01 5.242129322141408920e-03 -1.117178350687026978e-01 1.270296517759561539e-02 -1.063312590122222900e-02 -7.566265016794204712e-02 2.094610780477523804e-01 -5.559678375720977783e-02 -1.922414004802703857e-01 -1.394413709640502930e-01 1.218351721763610840e-01 2.199688851833343506e-01 -3.033188171684741974e-02 -1.941293478012084961e-02 -1.336987018585205078e-01 5.527906492352485657e-02 1.843730956315994263e-01 -5.236590281128883362e-02 7.447326555848121643e-03 -9.756494313478469849e-03 -2.559459023177623749e-02 2.647170051932334900e-02 -1.445496734231710434e-02 6.715476512908935547e-02 -9.639774798415601254e-04 5.022185854613780975e-03 4.128854349255561829e-02 -7.387934625148773193e-02 -3.207124827895313501e-04 -8.567634969949722290e-03 3.577956557273864746e-02 3.243272304534912109e-01 9.502990543842315674e-02 1.186281070113182068e-01 3.463922813534736633e-02 1.154690049588680267e-02 1.212818250060081482e-01 -1.705122143030166626e-01 2.908394485712051392e-02 1.641829013824462891e-01 5.212190560996532440e-03 1.180645301938056946e-01 3.781848400831222534e-02 -3.823256865143775940e-02 -1.071927975863218307e-02 -8.764836238697171211e-04 -1.685063727200031281e-02 -9.174337983131408691e-02 -3.892081603407859802e-02 -1.262332648038864136e-01 1.321371085941791534e-02 -5.074966698884963989e-02 -4.821476340293884277e-02 6.760571151971817017e-02 1.997128315269947052e-02 -2.801956795156002045e-02 -1.050061360001564026e-02 8.930689655244350433e-03 9.876628220081329346e-02 1.604222208261489868e-01 1.197497360408306122e-02 1.972149359062314034e-03 3.518943488597869873e-01 1.749158799648284912e-01 6.604201346635818481e-02 7.094068452715873718e-03 2.958247661590576172e-01 5.930070951581001282e-02 -9.113590419292449951e-02 4.297546669840812683e-02 -4.681871831417083740e-02 7.561703026294708252e-02 -5.168673023581504822e-02 -4.046173766255378723e-02 1.358450856059789658e-03 -2.472376264631748199e-02 -7.987077534198760986e-02 -7.456511259078979492e-02 -1.493963971734046936e-02 -2.450483851134777069e-02 7.374185323715209961e-02 -4.155388101935386658e-03 -9.748352319002151489e-02 -2.691458724439144135e-02 -5.621447227895259857e-03 5.338907241821289062e-02 -1.765373721718788147e-02 3.619045484811067581e-03 4.212201014161109924e-02 -2.567338012158870697e-02 6.153074279427528381e-02 1.620572805404663086e-02 -2.360262209549546242e-03 1.799011230468750000e-01 -1.024027317762374878e-01 -1.001494452357292175e-01 -1.110788360238075256e-01 4.377089440822601318e-03 5.236720293760299683e-02 3.156421333551406860e-02 1.643268913030624390e-01 -9.022045135498046875e-02 2.975461073219776154e-02 -1.061285585165023804e-01 8.150855451822280884e-02 3.386252745985984802e-02 5.214603245258331299e-02 -4.431087896227836609e-02 6.650228053331375122e-02 -1.232417747378349304e-01 -1.049559284001588821e-02 -9.103393182158470154e-03 9.632413275539875031e-03 4.126296564936637878e-02 -1.679906547069549561e-01 -1.272599250078201294e-01 -8.447556942701339722e-02 6.750465184450149536e-02 6.055901572108268738e-02 6.560961157083511353e-02 -6.638993322849273682e-02 -3.857162781059741974e-03 -8.437635749578475952e-02 -9.228074550628662109e-02 1.564868986606597900e-01 -1.069551780819892883e-01 -3.004314843565225601e-03 3.069039667025208473e-04 3.184444829821586609e-02 4.773905128240585327e-02 2.398687228560447693e-02 -2.392473252257332206e-04 -1.233117356896400452e-01 -1.253702212125062943e-02 1.186066120862960815e-02 -3.980557247996330261e-02 -8.752495795488357544e-02 1.802770346403121948e-01 -2.927357144653797150e-02 2.401889711618423462e-01 -1.464966535568237305e-01 -1.307784616947174072e-01 -6.984774023294448853e-02 2.999120950698852539e-02 -8.303297311067581177e-02 1.453481614589691162e-01 7.470038835890591145e-04 1.476035714149475098e-01 -8.039963245391845703e-02
6.292079091072082520e-01 -1.604709625244140625e-01 5.534789711236953735e-02 -2.470257692039012909e-02 1.795117408037185669e-01 -1.413778364658355713e-01 3.481672331690788269e-02 3.145716711878776550e-02 1.757012754678726196e-01 5.654219537973403931e-02 -8.748826384544372559e-02 5.037764459848403931e-02 -8.493071049451828003e-02 -2.115023881196975708e-02 -1.816502772271633148e-02 5.851635709404945374e-03 2.192249894142150879e-02 1.369364652782678604e-02 -3.695518244057893753e-03 -4.370917379856109619e-02 -2.486564218997955322e-03 -5.821775645017623901e-03 -2.769336104393005371e-02 2.062155678868293762e-02 1.085903719067573547e-01 1.713110506534576416e-02 -2.521039685234427452e-03 8.526087552309036255e-02 2.720921337604522705e-01 9.134125895798206329e-03 7.765866816043853760e-02 3.681690394878387451e-01 -1.643275022506713867e-01 9.524425119161605835e-02 1.060899794101715088e-01 2.204244136810302734e-01 -6.449729949235916138e-02 1.217512227594852448e-02 1.139914914965629578e-01 1.503622829914093018e-01 5.334768071770668030e-02 -6.421531736850738525e-02 -8.975364267826080322e-02 -1.466990411281585693e-01 -5.929829552769660950e-02 -3.584897145628929138e-02 1.701067201793193817e-02 -7.734494656324386597e-02 8.333562873303890228e-04 5.497345328330993652e-02 -1.158997416496276855e-02 6.852966267615556717e-03 -2.437191084027290344e-03 4.765984788537025452e-02 -5.246885120868682861e-03 -3.675973042845726013e-02 1.340284477919340134e-03 9.776583872735500336e-03 3.646771237254142761e-02 2.071953117847442627e-01 -7.911850698292255402e-03 1.305538117885589600e-01 3.507957756519317627e-01 -1.492287069559097290e-01 -4.269952769391238689e-04 3.912845626473426819e-02 6.664671748876571655e-02 4.452342167496681213e-02 5.295396223664283752e-02 6.710378080606460571e-02 4.904098063707351685e-02 3.333126381039619446e-02 -8.994390815496444702e-02 5.205204337835311890e-02 -1.792510226368904114e-02 3.090947680175304413e-02 -6.031223386526107788e-02 7.518176455050706863e-03 1.652746647596359253e-02 -1.399707328528165817e-02 -1.004727184772491455e-02 -1.626797579228878021e-02 1.393121760338544846e-02 -5.986935459077358246e-03 -7.112086564302444458e-02 3.015441074967384338e-02 2.142236381769180298e-02 -1.323811989277601242e-02 -5.646144598722457886e-02 4.738857038319110870e-03 1.149904634803533554e-02 -9.758318960666656494e-02 -1.138636991381645203e-01 -1.674701720476150513e-01 -8.675985038280487061e-02 2.274077832698822021e-01 2.105165738612413406e-03 2.206372022628784180e-01 3.563997894525527954e-02 -1.909440942108631134e-02 -1.384832337498664856e-02 4.776003584265708923e-02 -3.592188283801078796e-02 9.025741368532180786e-02 -1.128852963447570801e-01 1.086478233337402344e-01 2.389723621308803558e-02 -2.966207824647426605e-02 1.238301489502191544e-02 4.953915253281593323e-02 -3.479534760117530823e-02 -1.837422326207160950e-02 1.156811369583010674e-03 2.533319219946861267e-02 -7.774970494210720062e-03 -8.283198624849319458e-02 7.247352600097656250e-02 1.533708423376083374e-01 3.356174007058143616e-02 -2.232499048113822937e-02 -6.174182519316673279e-02 6.303788721561431885e-02 3.450173512101173401e-02 -1.395457237958908081e-01 -4.807024300098419189e-01 2.392378896474838257e-01 -1.460931152105331421e-01 -1.579379439353942871e-01 3.528575971722602844e-02 6.502751260995864868e-02 1.719467043876647949e-01 6.100623309612274170e-02 -3.857762739062309265e-02 5.670863389968872070e-02 -8.039869368076324463e-02 -2.045532688498497009e-02 -9.438790730200707912e-04 -5.189632251858711243e-02 -2.366796433925628662e-01 1.412544678896665573e-02 -3.918782621622085571e-02 3.858085721731185913e-02 2.677598036825656891e-02 -9.577183984220027924e-03 4.912861157208681107e-03 -1.847208850085735321e-02 2.119377255439758301e-02 -5.412850528955459595e-02 2.412052080035209656e-02 -2.485943492501974106e-03 -3.851702064275741577e-02 -5.948432534933090210e-02 2.306542545557022095e-01 9.106674045324325562e-02 5.581735447049140930e-02 -2.472420409321784973e-02 9.660686919232830405e-05 8.698259294033050537e-02 1.859236061573028564e-01 4.125743359327316284e-02 -1.049375012516975403e-01 2.799101173877716064e-02 1.104736328125000000e-01 1.002286300063133240e-01 1.788396388292312622e-01 -2.149215713143348694e-02 1.389527171850204468e-01 -1.918617486953735352e-01 6.681390851736068726e-02 -4.012676328420639038e-02 -3.112125908955931664e-03 8.116806298494338989e-02 1.230631098151206970e-01 1.700010709464550018e-02 1.070335581898689270e-01 9.359023533761501312e-03 6.787134706974029541e-02 1.974970661103725433e-02 5.999035760760307312e-02 1.776544153690338135e-01 -2.302540987730026245e-01 -1.792073133401572704e-03 -1.157977357506752014e-01 8.206062018871307373e-03 1.760319471359252930e-01 3.951796889305114746e-02 -2.115432359278202057e-02 6.225059181451797485e-02 4.795940592885017395e-02 7.866093516349792480e-02 1.952710151672363281e-01 1.904343813657760620e-02 -1.137058213353157043e-01 -3.328137993812561035e-01 3.221881017088890076e-02 -1.145234555006027222e-01 6.089640781283378601e-03 2.700141370296478271e-01 5.920609086751937866e-02 9.526412189006805420e-02 -2.858288586139678955e-02 1.516542281024158001e-03 4.485684260725975037e-02 1.287788301706314087e-01 1.458714809268712997e-02 1.982131898403167725e-01 -2.201931178569793701e-01
1.178650140762329102e+00 -1.172250747680664062e+00 9.043863974511623383e-03 -2.966684475541114807e-02 6.417830288410186768e-02 -2.391732484102249146e-01 -2.107985615730285645e-01 -1.084200292825698853e-01 1.379414051771163940e-01 -7.476205378770828247e-02 1.020320579409599304e-01 9.096626192331314087e-03 1.237656623125076294e-01 -2.292185788974165916e-03 3.433500230312347412e-02 -1.370646408759057522e-03 3.863790258765220642e-02 -4.553821310400962830e-02 -1.224633380770683289e-01 -4.145441576838493347e-02 1.611513289390131831e-04 5.029211286455392838e-03 -2.453694818541407585e-03 -4.992684349417686462e-02 -8.498729765415191650e-02 -5.715760402381420135e-03 -1.272466406226158142e-02 -6.275641173124313354e-02 2.537905424833297729e-02 8.181890472769737244e-03 2.806481346487998962e-02 9.051382541656494141e-01 -8.437126874923706055e-01 1.467463374137878418e-01 -9.258023649454116821e-02 9.190682321786880493e-02 -1.705637127161026001e-01 -2.429193854331970215e-01 -8.014158159494400024e-02 1.539948284626007080e-01 4.494112450629472733e-03 9.304995834827423096e-02 8.577523380517959595e-02 7.805726677179336548e-02 1.825843378901481628e-02 -7.594636827707290649e-02 6.789265666157007217e-03 -2.003867737948894501e-02 1.378239989280700684e-01 7.623282074928283691e-02 -2.128378301858901978e-02 6.790474988520145416e-03 -1.272510830312967300e-02 -3.163429722189903259e-02 -1.270647644996643066e-01 -1.101941540837287903e-01 -1.852098479866981506e-02 -1.290729362517595291e-02 -1.348564922809600830e-01 9.761869907379150391e-03 -1.060440242290496826e-01 -1.277800351381301880e-01 2.943973541259765625e-01 -1.493890136480331421e-01 3.790859505534172058e-02 1.060201600193977356e-01 9.690020233392715454e-02 -1.536241322755813599e-01 -2.843418717384338379e-01 -1.106018871068954468e-01 -1.662186719477176666e-02 1.041607931256294250e-01 2.553754299879074097e-02 -7.271236181259155273e-02 2.997384220361709595e-02 -3.478429466485977173e-02 3.849180787801742554e-02 -8.564142510294914246e-03 -9.259223937988281250e-02 -6.527744699269533157e-03 -4.250536113977432251e-02 -3.784872218966484070e-02 -7.324150297790765762e-03 1.225700322538614273e-02 3.664224222302436829e-02 5.992700904607772827e-02 5.376967787742614746e-02 9.318297728896141052e-03 3.284071572124958038e-03 -3.476105630397796631e-02 1.986498236656188965e-01 -4.750051349401473999e-02 1.486655622720718384e-01 -2.706532776355743408e-01 2.695749104022979736e-01 9.372390061616897583e-02 -1.940100826323032379e-02 -1.243436560034751892e-01 -4.266363754868507385e-02 1.950795948505401611e-02 3.172350302338600159e-02 3.446362912654876709e-02 4.696241393685340881e-02 -1.512168813496828079e-02 7.789885252714157104e-02 4.435655102133750916e-02 8.383221179246902466e-02 1.708969026803970337e-01 1.086378749459981918e-02 -9.598696976900100708e-02 8.233989775180816650e-02 8.203265815973281860e-02 -1.862426847219467163e-02 -1.644772104918956757e-02 -9.362088516354560852e-03 2.837266027927398682e-02 5.527302995324134827e-02 2.980824746191501617e-02 -7.312633097171783447e-03 1.636678818613290787e-03 3.805681690573692322e-02 5.232961103320121765e-02 -6.523594260215759277e-02 -3.755790367722511292e-02 -1.130066990852355957e+00 6.695875525474548340e-01 7.062242925167083740e-02 -6.237358227372169495e-02 -1.718194037675857544e-02 -1.913180798292160034e-01 -1.746475994586944580e-01 1.406907010823488235e-02 4.214298352599143982e-02 1.042672395706176758e-01 6.609979900531470776e-04 5.389163270592689514e-03 -2.558088861405849457e-02 1.497917808592319489e-02 -5.621068179607391357e-02 -7.857395103201270103e-04 -1.050826311111450195e-01 8.847968280315399170e-02 7.872372120618820190e-02 -2.349794656038284302e-02 -2.167809195816516876e-02 3.439982887357473373e-03 1.410786900669336319e-02 1.283008977770805359e-02 5.294468253850936890e-02 1.073884777724742889e-02 9.397775866091251373e-03 -6.839399039745330811e-02 2.029898762702941895e-02 7.833369076251983643e-02 -2.482378669083118439e-02 -2.411495149135589600e-01 2.083710283041000366e-01 -1.670370399951934814e-01 -1.244191080331802368e-01 -9.363742545247077942e-03 -1.311043649911880493e-01 1.273746602237224579e-02 3.175092637538909912e-01 -4.147252067923545837e-02 -1.970886737108230591e-01 1.460420638322830200e-01 -1.451539397239685059e-01 -2.099494077265262604e-02 -1.351140737533569336e-01 7.990147173404693604e-02 -1.032089218497276306e-01 -2.441188097000122070e-01 -3.696559742093086243e-02 -6.083776056766510010e-02 -1.961948275566101074e-01 1.067702621221542358e-01 -1.181632652878761292e-01 -3.590284660458564758e-02 6.107415631413459778e-02 -1.717777997255325317e-01 -1.898740977048873901e-02 -2.425203919410705566e-01 6.448704749345779419e-02 -3.046006858348846436e-01 -1.778144985437393188e-01 3.511804342269897461e-02 -1.163844019174575806e-01 1.088073775172233582e-01 1.686936616897583008e-01 -1.460937112569808960e-01 -1.422607898712158203e-01 8.210879564285278320e-02 -3.743433579802513123e-02 -2.693853899836540222e-02 -1.746466010808944702e-01 1.958264261484146118e-01 -3.223955333232879639e-01 -6.408350914716720581e-02 -2.634598128497600555e-02 -1.011449843645095825e-01 1.606389321386814117e-02 1.968349665403366089e-01 4.487619549036026001e-02 -1.755876690149307251e-01 2.514668181538581848e-02 -1.528070569038391113e-01 -4.139624908566474915e-02
-8.809951543807983398e-01 -4.959778785705566406e-01 -1.822137832641601562e-01 -4.523974284529685974e-02 4.959260113537311554e-03 -5.761632695794105530e-02 -4.410334303975105286e-02 -1.457055956125259399e-01 1.040540039539337158e-01 -1.349219772964715958e-02 -2.295351214706897736e-02 -4.751948267221450806e-02 -9.904191642999649048e-02 3.855016827583312988e-02 -1.301226019859313965e-02 1.257893629372119904e-03 4.031353816390037537e-02 1.114852204918861389e-01 1.663462221622467041e-01 1.491446699947118759e-02 2.705692686140537262e-02 6.751581095159053802e-04 -4.663807898759841919e-02 -6.900403648614883423e-02 -1.986021175980567932e-02 -2.567093586549162865e-03 -1.090876292437314987e-02 -1.697465181350708008e-01 -9.039258211851119995e-02 -1.648327149450778961e-02 2.967174351215362549e-02 -4.205103814601898193e-01 -2.767101228237152100e-01 -8.365043252706527710e-02 -1.236870959401130676e-01 5.475542321801185608e-02 -7.166775315999984741e-02 -1.727954298257827759e-01 6.501077860593795776e-02 -1.907541044056415558e-02 4.397277906537055969e-02 5.181843042373657227e-02 7.993274927139282227e-02 1.106065884232521057e-01 9.608235955238342285e-02 2.321582473814487457e-02 -1.496842782944440842e-02 8.866828680038452148e-02 1.323491334915161133e-01 1.279409825801849365e-01 1.834982656873762608e-03 4.150319099426269531e-02 1.400217413902282715e-02 -3.820933029055595398e-02 -6.769375503063201904e-02 -4.008056968450546265e-02 7.042725570499897003e-03 -8.917498402297496796e-03 -2.423804253339767456e-01 1.487439125776290894e-01 8.158125728368759155e-02 1.771049648523330688e-01 -6.725158542394638062e-02 -1.364490669220685959e-02 -3.297188505530357361e-02 -1.253254562616348267e-01 -2.275011502206325531e-02 -1.097486075013875961e-02 -4.246971569955348969e-03 -4.263116046786308289e-02 1.167813912034034729e-01 -5.868943873792886734e-03 -4.345695301890373230e-02 2.069666385650634766e-01 5.617102608084678650e-02 2.023315727710723877e-01 -6.370837241411209106e-02 -2.037477307021617889e-02 8.116442710161209106e-02 1.469542533159255981e-01 2.255857437849044800e-01 3.335309028625488281e-02 5.008069425821304321e-02 1.677425391972064972e-02 -5.089035257697105408e-02 -1.092651560902595520e-01 -1.444850414991378784e-01 -1.197785045951604843e-02 -1.491643767803907394e-02 -3.620618581771850586e-02 1.695540547370910645e-02 -1.640018075704574585e-01 -9.982324391603469849e-02 6.258365511894226074e-01 1.775388866662979126e-01 -8.193133026361465454e-02 -1.963403820991516113e-02 -2.070556627586483955e-03 -7.601963728666305542e-02 -1.447108685970306396e-01 -6.564559042453765869e-02 -7.575707882642745972e-02 -1.089363545179367065e-01 2.466495148837566376e-02 8.665566891431808472e-02 -3.178428485989570618e-02 3.521337732672691345e-02 7.810812443494796753e-02 -1.723646186292171478e-02 1.150160804390907288e-01 6.652259081602096558e-02 1.031726002693176270e-01 8.099457249045372009e-03 3.153650090098381042e-02 1.268494129180908203e-02 -7.566545158624649048e-02 8.052293211221694946e-03 7.989494130015373230e-03 5.305316299200057983e-02 -1.081993710249662399e-02 -3.733772411942481995e-02 -7.827259600162506104e-02 -9.976012259721755981e-02 3.903782740235328674e-02 1.373534917831420898e+00 8.528628945350646973e-01 3.038298487663269043e-01 2.235588133335113525e-01 8.346483856439590454e-02 -7.706038188189268112e-03 1.898680441081523895e-02 7.415836304426193237e-02 1.072778832167387009e-02 4.991887137293815613e-02 -8.113215863704681396e-02 -5.824501160532236099e-03 1.008787080645561218e-01 -1.782156759873032570e-03 5.872393399477005005e-02 -1.191397197544574738e-02 5.946397408843040466e-02 1.235291883349418640e-01 1.376059502363204956e-01 1.972030103206634521e-02 3.155369311571121216e-02 4.399647936224937439e-03 6.340707652270793915e-03 1.707135699689388275e-02 2.728592790663242340e-02 1.052511669695377350e-02 8.045746944844722748e-03 -1.797128766775131226e-01 -1.728939265012741089e-01 1.002459302544593811e-01 -1.122664734721183777e-01 2.298749685287475586e-01 -1.600734889507293701e-01 -9.498179703950881958e-02 -3.777017444372177124e-02 1.142101809382438660e-01 6.131989508867263794e-02 3.939235210418701172e-02 -2.588490396738052368e-02 -8.564236760139465332e-02 2.758390270173549652e-02 6.260284036397933960e-02 -1.038465052843093872e-01 5.278372392058372498e-02 1.073920503258705139e-01 -3.905778378248214722e-02 6.654877681285142899e-03 9.035585820674896240e-02 5.037200823426246643e-02 3.354257345199584961e-02 -2.316262200474739075e-02 1.573398262262344360e-01 -5.299812555313110352e-02 7.255447655916213989e-02 3.817194700241088867e-02 2.892019785940647125e-02 1.074884179979562759e-02 -2.289101295173168182e-02 -1.377614140510559082e-01 -1.843024343252182007e-01 9.829594194889068604e-02 5.308462679386138916e-02 1.429696828126907349e-01 1.300312131643295288e-01 9.618163853883743286e-02 -2.776584774255752563e-02 4.356075823307037354e-02 1.713863201439380646e-02 -6.704036891460418701e-02 -9.439644962549209595e-02 -1.122614275664091110e-02 -2.881132960319519043e-01 -2.502829134464263916e-01 -1.079777330160140991e-01 7.095965743064880371e-02 7.916172966361045837e-03 4.305316507816314697e-02 -7.070498168468475342e-02 -3.144817054271697998e-01 6.289827823638916016e-02 7.440564036369323730e-02 -1.079402640461921692e-01 -6.103489175438880920e-02
-1.098701357841491699e+00 3.673382699489593506e-01 7.755752652883529663e-02 8.677654713392257690e-02 1.086605042219161987e-01 -1.881857402622699738e-02 1.710841953754425049e-01 1.247468441724777222e-01 9.904028847813606262e-03 1.067409813404083252e-01 -1.187759339809417725e-01 -1.569755524396896362e-01 -8.665319532155990601e-02 7.419665902853012085e-02 -6.746666133403778076e-02 -2.732090186327695847e-03 -4.813236370682716370e-02 3.084381483495235443e-02 5.589967966079711914e-02 8.099565282464027405e-03 1.718741725198924541e-03 -4.216679953970015049e-04 1.916300505399703979e-02 -6.967742741107940674e-02 -9.386671334505081177e-02 -4.082635790109634399e-02 -1.782947801984846592e-03 7.896829396486282349e-02 -1.205418631434440613e-01 -8.426669985055923462e-02 4.073231667280197144e-02 -3.708563745021820068e-01 1.790214180946350098e-01 -5.547371506690979004e-02 -1.370018124580383301e-01 1.376653276383876801e-02 1.123777404427528381e-01 8.003044873476028442e-02 -7.887388579547405243e-03 -1.976648578420281410e-03 -2.062612399458885193e-02 -1.018527895212173462e-01 -1.330512762069702148e-02 -9.097483754158020020e-02 -7.893276400864124298e-03 1.403208728879690170e-02 -4.806628450751304626e-03 9.249044954776763916e-02 -4.745635390281677246e-02 -7.049114257097244263e-02 1.669370383024215698e-02 7.961130701005458832e-03 1.066636294126510620e-03 -8.726053684949874878e-02 -1.065109670162200928e-02 2.367339562624692917e-03 -8.272410370409488678e-03 3.947151999454945326e-04 1.156482696533203125e-01 1.126258671283721924e-01 -7.424535602331161499e-02 6.937786936759948730e-02 -2.483635023236274719e-02 -2.823997139930725098e-01 6.835266947746276855e-02 -3.175728768110275269e-02 -4.748464748263359070e-02 4.330133087933063507e-03 -2.110764198005199432e-02 -1.362710352987051010e-02 2.425119467079639435e-02 -3.334921551868319511e-03 2.057900577783584595e-01 -5.666488409042358398e-02 2.028218843042850494e-02 3.886868245899677277e-03 -7.666816562414169312e-02 -9.106418117880821228e-03 -1.321076694875955582e-02 -4.161787033081054688e-02 1.671073958277702332e-02 7.542537059634923935e-03 6.195840891450643539e-03 1.290586218237876892e-02 8.941327035427093506e-02 3.794106096029281616e-02 6.290419260039925575e-04 -1.662722229957580566e-02 2.133378013968467712e-02 2.975874543190002441e-01 7.388126105070114136e-02 -7.535152137279510498e-02 -3.203391283750534058e-02 6.757442355155944824e-01 -6.451326608657836914e-01 1.559326648712158203e-01 -3.024373762309551239e-02 -2.998969890177249908e-02 -1.146280616521835327e-01 -6.336221098899841309e-02 6.583971902728080750e-03 2.703193575143814087e-02 6.665989756584167480e-02 -1.323435604572296143e-01 -2.259019464254379272e-01 1.011102348566055298e-01 -1.086959708482027054e-02 -2.951772212982177734e-01 -1.631294935941696167e-02 1.755419885739684105e-03 -6.926304847002029419e-02 -6.826882809400558472e-02 1.486617489717900753e-03 -1.380298403091728687e-03 3.532613394781947136e-03 3.499671071767807007e-02 3.986886516213417053e-02 2.465472184121608734e-02 -2.952623926103115082e-02 8.629442192614078522e-03 9.734782390296459198e-03 1.113234683871269226e-01 3.095607971772551537e-03 -8.471096307039260864e-02 1.354124903678894043e+00 -1.149452209472656250e+00 1.259011328220367432e-01 7.447308301925659180e-02 -3.969464451074600220e-02 5.256974138319492340e-03 -1.027966886758804321e-01 -1.002480015158653259e-01 9.442465752363204956e-02 -1.327662728726863861e-03 1.166134420782327652e-02 -1.541654616594314575e-01 -6.900437921285629272e-02 8.201160281896591187e-02 -3.675567731261253357e-02 -2.925877459347248077e-03 1.468235813081264496e-02 -1.142652407288551331e-01 -9.192486852407455444e-02 -7.037339382804930210e-04 2.993109170347452164e-03 -4.325994756072759628e-03 4.670704528689384460e-02 2.875212766230106354e-02 -5.754681304097175598e-02 -2.016614750027656555e-02 -2.298148348927497864e-02 1.153446361422538757e-02 8.160500973463058472e-02 4.349960759282112122e-02 1.931761391460895538e-02 5.693240091204643250e-02 -2.630763053894042969e-01 4.685889929533004761e-02 1.089079901576042175e-01 -1.884867399930953979e-01 9.598743915557861328e-02 1.598523743450641632e-02 -5.486548691987991333e-02 -2.859154343605041504e-02 1.696826368570327759e-01 -8.133846521377563477e-02 -1.012365594506263733e-01 7.303217425942420959e-03 2.345917560160160065e-02 -2.149323970079421997e-01 2.625726908445358276e-02 -1.008100286126136780e-01 -1.114997118711471558e-01 -1.018147543072700500e-01 3.033222071826457977e-02 -1.927021443843841553e-01 -9.295282512903213501e-02 2.276838868856430054e-01 -9.129682183265686035e-02 5.626024305820465088e-02 -2.050851471722126007e-02 7.389584183692932129e-02 -2.538861520588397980e-02 -1.160290092229843140e-02 7.037318497896194458e-02 -2.151349484920501709e-01 -3.803204372525215149e-02 1.796058118343353271e-01 -5.713758617639541626e-02 3.012598119676113129e-02 1.538059860467910767e-01 -1.095661669969558716e-01 9.053960442543029785e-02 6.357624381780624390e-02 -6.292031705379486084e-02 -3.295917212963104248e-01 1.665922105312347412e-01 -7.249917089939117432e-02 -2.140684872865676880e-01 -1.195402145385742188e-01 1.194127723574638367e-01 -2.495787888765335083e-01 1.876306682825088501e-01 2.860633432865142822e-01 -6.679551303386688232e-02 8.907078951597213745e-02 -2.060738392174243927e-02
