-2.442048117518424988e-02
2.084716968238353729e-02
-2.172986418008804321e-02
3.379708155989646912e-02
1.993934996426105499e-02
-7.503718603402376175e-03
-2.947841770946979523e-02
1.253818627446889877e-02
1.459406316280364990e-02
1.206886470317840576e-01
2.768227364867925644e-03
1.164276245981454849e-02
-2.483202144503593445e-02
4.696251451969146729e-02
-2.016937360167503357e-02
-3.775570541620254517e-02
5.167239531874656677e-02
-6.583270430564880371e-02
-6.639938056468963623e-02
-6.888573616743087769e-02
9.667608886957168579e-03
5.865842849016189575e-02
-2.783168666064739227e-02
-1.617656834423542023e-02
2.086042612791061401e-02
-4.269225150346755981e-02
-1.623621769249439240e-02
6.090732058510184288e-04
4.500394687056541443e-02
-3.707937896251678467e-02
3.826082497835159302e-02
3.354709595441818237e-02
6.264605373144149780e-02
5.692569166421890259e-02
4.436431080102920532e-02
4.393296840135008097e-04
-2.752036228775978088e-02
3.407980781048536301e-03
-2.238230220973491669e-02
-6.163544580340385437e-02
-3.550408408045768738e-02
1.025071181356906891e-02
4.744473099708557129e-02
-5.137288197875022888e-02
2.214468782767653465e-03
4.149751737713813782e-02
2.971207909286022186e-02
-5.693918559700250626e-03
5.352861713618040085e-03
-5.028136819601058960e-02
-5.730244144797325134e-02
-2.060427144169807434e-02
-3.999588638544082642e-02
1.101048197597265244e-02
-3.667340427637100220e-02
-1.416447758674621582e-02
-5.911016371101140976e-03
-1.523489877581596375e-02
1.166432164609432220e-02
3.378600254654884338e-02
-6.282215937972068787e-03
9.175408631563186646e-04
2.177118510007858276e-02
1.713284291326999664e-02
-6.129030138254165649e-02
4.361233860254287720e-02
2.360765449702739716e-02
-4.658950492739677429e-02
-6.393419206142425537e-02
8.999583311378955841e-03
-3.451315313577651978e-02
6.245687976479530334e-02
3.924416005611419678e-02
-2.784609049558639526e-02
8.999393880367279053e-02
-7.074174284934997559e-02
4.091315343976020813e-02
-3.395780548453330994e-02
-7.865644060075283051e-03
1.369719300419092178e-02
-2.615461498498916626e-02
5.089442431926727295e-02
-4.938359931111335754e-02
1.647851429879665375e-02
-3.591559827327728271e-02
1.025936659425497055e-02
-1.637423038482666016e-02
-7.626882195472717285e-02
-1.472126320004463196e-02
-5.266054719686508179e-02
-2.359105087816715240e-02
1.444244198501110077e-02
4.282255470752716064e-02
-6.650929152965545654e-02
-1.806129515171051025e-02
-4.171384498476982117e-02
1.451360527426004410e-02
2.233757078647613525e-02
-5.411948263645172119e-02
-6.365529261529445648e-04
-1.965209469199180603e-02
5.796580761671066284e-02
-1.756874099373817444e-02
-4.407500848174095154e-02
-4.299451783299446106e-02
1.544153783470392227e-02
-4.583762213587760925e-02
-8.161345124244689941e-02
2.315090037882328033e-02
2.196767367422580719e-02
4.706077650189399719e-02
-6.974700093269348145e-02
-4.064212366938591003e-02
-6.332290917634963989e-02
2.739274315536022186e-02
3.213300555944442749e-02
-1.457986049354076385e-02
-1.134536135941743851e-02
7.226908951997756958e-02
4.282720386981964111e-02
4.446871951222419739e-02
-3.746129199862480164e-02
-2.238434180617332458e-02
1.030826102942228317e-02
-4.808184504508972168e-02
1.906180754303932190e-02
1.133232470601797104e-02
6.745176017284393311e-02
-3.746761754155158997e-02
-2.983351238071918488e-02
1.247928198426961899e-02
-1.765657402575016022e-02
-9.935762733221054077e-03
3.389615193009376526e-02
-4.079774022102355957e-02
-3.056987561285495758e-02
3.022374957799911499e-02
-2.122020348906517029e-02
-1.183073781430721283e-02
1.425727363675832748e-02
-2.281586267054080963e-02
-3.218615055084228516e-02
-3.708247095346450806e-02
2.292800322175025940e-02
-1.826105057261884212e-03
-5.672926828265190125e-02
4.398424178361892700e-02
-4.267167299985885620e-02
-6.147735565900802612e-02
1.336717233061790466e-02
-7.170451432466506958e-02
-1.994189061224460602e-02
1.158502534963190556e-03
3.324656561017036438e-02
-2.069657854735851288e-02
1.863954961299896240e-02
5.793869495391845703e-02
-3.641583025455474854e-03
-2.474390715360641479e-02
2.954902127385139465e-03
-1.334101078100502491e-03
-3.200750052928924561e-02
3.879209235310554504e-02
3.145561320707201958e-03
-1.489124540239572525e-02
-9.467219933867454529e-04
1.708312518894672394e-02
3.362545371055603027e-02
3.713436890393495560e-03
-4.388273879885673523e-02
4.214318469166755676e-03
5.466558039188385010e-02
-2.178827300667762756e-02
1.682520471513271332e-02
-7.703127712011337280e-02
-6.038353219628334045e-02
4.707957804203033447e-02
6.332718767225742340e-03
-6.297815591096878052e-03
1.480393670499324799e-02
1.873462274670600891e-02
-1.243800297379493713e-02
-1.984057016670703888e-03
-1.288785506039857864e-02
-4.637334868311882019e-02
-5.689754709601402283e-02
3.128366172313690186e-02
4.144300520420074463e-02
-8.807197958230972290e-02
5.212956294417381287e-02
4.510903730988502502e-02
2.242297306656837463e-02
2.988200634717941284e-02
7.352915406227111816e-02
-5.757192149758338928e-02
1.252174284309148788e-02
-1.783966273069381714e-02
-6.243319809436798096e-02
-3.151204437017440796e-02
-2.711465768516063690e-02
2.697902731597423553e-03
-5.533403903245925903e-02
-4.767314530909061432e-03
-3.940064460039138794e-02
-1.168051175773143768e-02
3.041296964511275291e-03
8.385799825191497803e-02
-1.388152595609426498e-02
7.592225447297096252e-03
-4.814465064555406570e-03
2.144637331366539001e-02
5.344005674123764038e-02
6.593815237283706665e-02
3.014634735882282257e-02
8.015907555818557739e-02
3.289848566055297852e-02
-2.234053798019886017e-03
1.435769163072109222e-02
-8.508757688105106354e-03
2.293722331523895264e-02
-6.089528650045394897e-02
-8.216387778520584106e-02
8.241249620914459229e-02
4.006916284561157227e-02
4.578835517168045044e-02
2.940507419407367706e-02
2.264201082289218903e-02
-3.040483966469764709e-02
-2.506463043391704559e-02
7.631239946931600571e-03
-6.120720133185386658e-02
4.197936132550239563e-02
3.209338709712028503e-02
2.369024045765399933e-02
1.313294935971498489e-02
6.128649692982435226e-05
-1.807471551001071930e-02
-1.793550886213779449e-02
3.213598206639289856e-02
2.060706913471221924e-02
-6.941469758749008179e-02
-9.539757855236530304e-03
4.543823748826980591e-02
3.473601862788200378e-02
3.359951823949813843e-02
2.487539686262607574e-02
1.835529506206512451e-02
-4.062584787607192993e-02
-3.078679181635379791e-02
-8.682443946599960327e-02
1.598338969051837921e-02
-4.720178991556167603e-02
5.481384694576263428e-02
-7.847252301871776581e-03
6.981129944324493408e-02
5.400833487510681152e-02
