-1.032275240868330002e-02
-1.406041160225868225e-02
-1.384192612022161484e-02
1.924598217010498047e-02
1.204970991238951683e-03
1.400438044220209122e-02
1.250797231477918103e-05
1.548696542158722878e-03
2.939283289015293121e-02
3.268063440918922424e-02
-1.018719747662544250e-02
1.308385562151670456e-02
7.654321379959583282e-03
2.565823961049318314e-03
-3.162422776222229004e-02
-1.229987572878599167e-02
-1.988470926880836487e-02
-6.097379140555858612e-03
-2.579838968813419342e-02
-6.322083994746208191e-03
2.243155799806118011e-02
-1.055954862385988235e-02
-9.105315431952476501e-03
-1.190124638378620148e-02
8.854636922478675842e-03
3.446732414886355400e-03
1.320873014628887177e-02
3.511006385087966919e-02
2.795812860131263733e-02
-1.300832815468311310e-02
1.466170419007539749e-02
-6.243178620934486389e-03
-7.407971192151308060e-03
-2.092795446515083313e-03
-3.890047548338770866e-03
-4.768780618906021118e-02
1.194805558770895004e-02
-2.543642185628414154e-04
1.442963909357786179e-02
6.875006947666406631e-03
-7.715111132711172104e-03
2.038279082626104355e-03
-4.649455659091472626e-03
-1.716038398444652557e-02
-4.314017295837402344e-02
-2.369720488786697388e-02
-1.943650655448436737e-02
1.093238126486539841e-02
-1.978537999093532562e-02
-1.167379971593618393e-02
-5.769759789109230042e-02
-1.672320067882537842e-02
1.420417800545692444e-02
-4.500020295381546021e-04
9.436467662453651428e-03
-4.635662212967872620e-02
6.538999266922473907e-03
8.023740723729133606e-03
-5.895120091736316681e-03
2.844555675983428955e-02
-2.454518899321556091e-02
-1.252047531306743622e-02
-1.460492890328168869e-02
2.081064507365226746e-02
-2.028686739504337311e-02
-2.415918279439210892e-03
-2.808317355811595917e-02
-1.777834817767143250e-02
3.355026617646217346e-02
1.319030206650495529e-02
1.923105306923389435e-02
4.734289273619651794e-02
-3.152233362197875977e-02
7.599467877298593521e-03
-1.417137216776609421e-02
-1.520089246332645416e-02
1.255346462130546570e-02
-1.530511118471622467e-02
2.273216843605041504e-02
-1.088929083198308945e-02
-6.308124400675296783e-03
-1.465871557593345642e-02
-2.353112958371639252e-02
4.688051063567399979e-03
-7.167899515479803085e-03
1.070808432996273041e-02
2.232089405879378319e-03
-1.995433494448661804e-02
-3.055543825030326843e-02
-3.153558354824781418e-03
-4.646354354918003082e-03
1.993274502456188202e-02
-1.962769962847232819e-02
-2.186361700296401978e-02
-1.162847911473363638e-04
4.858430009335279465e-03
1.657829619944095612e-02
-2.272304147481918335e-02
1.568872667849063873e-02
-1.842269115149974823e-02
1.303820032626390457e-02
-4.864588845521211624e-03
1.623231731355190277e-02
-1.076963543891906738e-02
-1.884233765304088593e-02
-2.897624671459197998e-02
-1.917154714465141296e-02
1.323690731078386307e-02
3.950370848178863525e-02
3.797482000663876534e-03
-3.304435173049569130e-03
-5.134273320436477661e-03
3.848700225353240967e-02
-1.003536209464073181e-02
1.203033141791820526e-02
1.682605221867561340e-02
2.190272137522697449e-02
1.910596899688243866e-02
-2.850060816854238510e-03
4.850172437727451324e-03
-3.425870835781097412e-02
-2.610156685113906860e-02
-1.054437962011434138e-04
-3.527411445975303650e-02
2.264516614377498627e-02
-6.867681629955768585e-03
2.000559034058824182e-04
-1.686688885092735291e-02
1.224692352116107941e-02
-2.209138823673129082e-03
-1.746386289596557617e-02
-1.008741091936826706e-02
2.869371883571147919e-02
-6.266341661103069782e-04
-2.101249247789382935e-02
6.122697610408067703e-03
3.701876383274793625e-03
1.752430945634841919e-02
1.045475434511899948e-02
1.528579276055097580e-03
-5.936084315180778503e-03
2.741106040775775909e-02
-8.059415034949779510e-03
8.192000910639762878e-03
6.838430650532245636e-03
-9.976105764508247375e-03
1.202336791902780533e-02
-1.415477716363966465e-03
-1.107045076787471771e-02
8.760930038988590240e-03
6.755124195478856564e-04
2.006057277321815491e-02
3.618803806602954865e-03
-1.866201311349868774e-02
5.556749179959297180e-03
4.244812764227390289e-03
-1.162568666040897369e-02
3.870944492518901825e-03
-2.283771056681871414e-03
8.151723071932792664e-03
-8.650479838252067566e-03
4.999579861760139465e-03
-1.565064303576946259e-02
-2.698848396539688110e-02
-8.234899491071701050e-03
2.500307746231555939e-02
-1.272412016987800598e-02
-6.137316580861806870e-03
9.088546968996524811e-03
-1.953363046050071716e-02
1.782141439616680145e-02
-1.469364110380411148e-02
-1.643376611173152924e-02
-8.159180171787738800e-03
-3.190814331173896790e-02
-8.563973940908908844e-03
-7.399438414722681046e-03
-2.435934543609619141e-02
1.916099525988101959e-02
-7.977773435413837433e-03
1.226976886391639709e-02
-4.171019792556762695e-02
7.696326822042465210e-03
-1.556109078228473663e-02
-1.782891154289245605e-02
8.260105969384312630e-04
1.441879477351903915e-02
1.631535962224006653e-02
1.191806700080633163e-02
-1.019197609275579453e-02
1.337767299264669418e-02
4.064768552780151367e-02
4.271388053894042969e-03
1.168929878622293472e-02
1.486307848244905472e-02
1.300976425409317017e-02
-4.934767726808786392e-03
-1.122563146054744720e-02
2.305022440850734711e-03
-1.118596922606229782e-02
2.282651141285896301e-02
-7.635668385773897171e-03
-1.443421840667724609e-02
3.759273514151573181e-02
4.620570316910743713e-02
-4.178883391432464123e-04
1.258056610822677612e-02
-1.075342856347560883e-02
-3.890637308359146118e-02
6.375147495418787003e-03
-1.987817324697971344e-02
-8.448002859950065613e-03
-9.151741862297058105e-03
8.052653865888714790e-04
-6.283794343471527100e-02
1.425384171307086945e-02
-1.595620438456535339e-02
4.716653842478990555e-03
-1.221603341400623322e-02
-3.021384961903095245e-02
-1.802680827677249908e-02
2.249090699478983879e-03
-1.085004396736621857e-02
-2.032864652574062347e-02
-1.481125596910715103e-02
8.500301279127597809e-03
1.846911944448947906e-02
-1.899984106421470642e-02
1.306616328656673431e-02
-1.265994831919670105e-02
-1.362425740808248520e-02
3.853744640946388245e-02
1.220285240560770035e-02
8.295520208775997162e-03
2.062245085835456848e-02
6.040373817086219788e-03
-3.760044462978839874e-03
-1.420401968061923981e-02
9.286837652325630188e-03
-2.238991856575012207e-02
-5.307160317897796631e-03
6.810089107602834702e-03
-1.697475090622901917e-02
1.628137193620204926e-02
6.925716996192932129e-03
6.587677635252475739e-03
-1.365954522043466568e-02
-5.481323227286338806e-03
1.077179610729217529e-02
-2.162669086828827858e-03
1.105376705527305603e-02
-2.449407428503036499e-02
-1.050945185124874115e-02
-4.018258303403854370e-03
-2.719250740483403206e-03
4.945004731416702271e-02
