-1.047627162188291550e-02
2.742481185123324394e-03
-1.444900222122669220e-02
1.115722022950649261e-02
3.043905831873416901e-02
2.399944327771663666e-02
1.990992343053221703e-03
1.075822743587195873e-03
-1.541312038898468018e-02
2.456492371857166290e-02
-3.098320588469505310e-02
4.634372889995574951e-03
-2.422652952373027802e-02
1.699386164546012878e-02
-7.278694305568933487e-03
-2.778174728155136108e-02
-7.176577346399426460e-04
2.169436030089855194e-02
-2.148672379553318024e-02
-1.178959943354129791e-02
1.269198395311832428e-02
2.459379099309444427e-02
-1.937655359506607056e-02
3.119930811226367950e-02
1.172682922333478928e-02
-6.833313498646020889e-03
-2.756819361820816994e-03
-1.424260786734521389e-03
-9.151620790362358093e-03
-1.930278725922107697e-02
-6.751677952706813812e-03
-6.277618929743766785e-03
5.896765273064374924e-03
-2.040523849427700043e-02
-2.771913819015026093e-02
-7.636175956577062607e-03
-2.795575931668281555e-02
2.243957947939634323e-03
1.265020575374364853e-02
-1.348404120653867722e-02
2.705733990296721458e-03
1.682723686099052429e-02
-2.473153360188007355e-02
4.643638676498085260e-04
7.998568005859851837e-03
1.506246905773878098e-02
-1.775252050720155239e-03
-8.602846413850784302e-03
2.522351965308189392e-02
-8.741108700633049011e-03
-8.652869611978530884e-03
4.011411685496568680e-03
3.535728435963392258e-03
1.893101434689015150e-04
-1.120720151811838150e-02
1.476685423403978348e-02
-7.249032612890005112e-03
8.425615727901458740e-03
1.094089448451995850e-02
1.371369347907602787e-03
-1.772799901664257050e-02
2.164207957684993744e-02
1.930001750588417053e-02
-3.073338977992534637e-02
1.206489838659763336e-02
-2.906970214098691940e-03
1.000791508704423904e-02
7.468250114470720291e-03
3.042367845773696899e-02
1.745443209074437618e-03
-3.951030969619750977e-02
-2.854699082672595978e-02
-5.469690077006816864e-03
-2.127204462885856628e-02
2.379761263728141785e-02
2.595097571611404419e-02
4.992693196982145309e-03
1.952284947037696838e-03
-4.572245525196194649e-04
-9.961556643247604370e-03
1.214978750795125961e-02
-1.631282083690166473e-02
5.363262258470058441e-03
9.332471527159214020e-03
-1.034428458660840988e-02
4.203469492495059967e-03
-3.455198928713798523e-02
9.945891797542572021e-03
-6.218134891241788864e-03
1.297652442008256912e-02
-4.242860013619065285e-04
-1.356394682079553604e-02
-1.710049249231815338e-02
-2.804410643875598907e-02
-5.148767028003931046e-03
-4.897024016827344894e-03
-2.174108475446701050e-02
-1.426872424781322479e-02
1.077449228614568710e-02
4.366103094071149826e-03
2.555490005761384964e-03
-1.148537360131740570e-02
-3.245980013161897659e-03
1.167500577867031097e-02
-1.940039917826652527e-02
1.041309349238872528e-02
-9.270740672945976257e-03
1.093009021133184433e-02
-1.317024510353803635e-02
-2.540894225239753723e-02
7.936635054647922516e-03
-1.058527640998363495e-02
-9.601749479770660400e-03
-2.388685970799997449e-04
1.388791203498840332e-02
-2.394366450607776642e-02
-1.778622530400753021e-02
-6.743111182004213333e-03
-2.213358134031295776e-02
-4.128105472773313522e-03
-1.513747125864028931e-02
-3.499349579215049744e-02
-9.883127175271511078e-03
1.253800932317972183e-02
3.948931116610765457e-03
1.118079759180545807e-02
-2.347368188202381134e-02
-6.809259764850139618e-03
-8.962946943938732147e-03
1.380255678668618202e-03
5.749522242695093155e-03
2.483866736292839050e-02
-2.134927175939083099e-02
-1.029166486114263535e-02
1.004560105502605438e-02
-2.242457121610641479e-02
-9.366325102746486664e-03
-2.360349055379629135e-03
6.223408970981836319e-03
-6.121017038822174072e-03
-8.393695577979087830e-03
-2.570439130067825317e-03
2.001182921230792999e-02
3.337262663990259171e-03
1.136428210884332657e-02
-1.925472915172576904e-02
-1.682187989354133606e-02
-1.587876677513122559e-02
9.995600208640098572e-03
-3.073853813111782074e-02
-2.585268393158912659e-02
-5.762000102549791336e-03
6.012659519910812378e-03
-2.436638576909899712e-03
1.659576781094074249e-02
-1.569828018546104431e-02
6.524521857500076294e-03
-1.550126075744628906e-02
3.866124153137207031e-02
-2.541659958660602570e-02
-1.003361213952302933e-02
1.373354904353618622e-02
3.656515327747911215e-04
1.829617097973823547e-02
-3.328087553381919861e-02
-3.163007274270057678e-02
-4.108651541173458099e-03
1.296142698265612125e-03
-1.852992177009582520e-02
-1.341168489307165146e-02
1.036134362220764160e-02
1.883686706423759460e-02
-3.717695130035281181e-03
-2.537411823868751526e-02
1.393039245158433914e-02
2.326801419258117676e-02
-8.946307934820652008e-03
-4.001623019576072693e-03
-1.293272804468870163e-02
8.088670670986175537e-03
4.072886891663074493e-03
3.741268068552017212e-02
1.876963861286640167e-02
-1.339177950285375118e-03
-1.046275533735752106e-02
1.666468009352684021e-02
-1.036338321864604950e-02
-1.111063454300165176e-02
-2.935882098972797394e-02
-3.161845030263066292e-03
-1.309509202837944031e-02
-2.380537055432796478e-02
3.664192976430058479e-03
1.202656608074903488e-02
1.348423538729548454e-03
-1.456394605338573456e-02
-2.488432219251990318e-03
-1.139065716415643692e-03
4.837957967538386583e-04
3.165548294782638550e-02
8.218552917242050171e-03
-1.202351786196231842e-02
-1.244590803980827332e-02
1.381049398332834244e-02
4.540810827165842056e-03
-1.134304422885179520e-02
-1.499813981354236603e-02
1.556400954723358154e-02
-2.114431001245975494e-02
-3.928391728550195694e-03
-6.003712303936481476e-03
-4.861377179622650146e-03
-2.118696458637714386e-02
-1.605559885501861572e-02
1.001847535371780396e-02
3.315632231533527374e-03
1.889305561780929565e-02
-3.573922440409660339e-03
-1.587917795404791832e-03
-1.571655459702014923e-02
-2.392912982031702995e-03
-3.773226216435432434e-02
-1.455648988485336304e-02
-5.173534154891967773e-04
-9.102300740778446198e-03
2.263846248388290405e-02
-1.937517430633306503e-03
-8.217426948249340057e-03
2.893706411123275757e-02
3.323559835553169250e-02
2.604423556476831436e-03
6.007288582623004913e-03
-2.412284165620803833e-02
2.708072774112224579e-03
1.294653490185737610e-02
3.910694643855094910e-02
1.134010497480630875e-02
3.553545102477073669e-04
-9.440919384360313416e-03
1.396908517926931381e-02
-7.147410884499549866e-03
-5.806616041809320450e-03
3.103082813322544098e-02
-1.301383506506681442e-02
2.291026525199413300e-02
2.322866115719079971e-03
4.201761446893215179e-03
-1.990291289985179901e-02
-2.077660989016294479e-03
-1.407627295702695847e-02
-1.512164250016212463e-02
-5.638733273372054100e-04
-1.569183543324470520e-03
-7.626940030604600906e-03
-2.106212452054023743e-02
-8.165199309587478638e-03
