8.953598327934741974e-03
3.557731583714485168e-02
4.525911994278430939e-03
1.893090456724166870e-02
1.583329774439334869e-02
1.051565539091825485e-02
-1.886323466897010803e-02
-6.385948043316602707e-03
3.354088589549064636e-02
-9.975567460060119629e-03
-6.764501798897981644e-03
4.212278872728347778e-02
1.557999756187200546e-02
3.853355348110198975e-02
-3.862170735374093056e-03
-1.748658530414104462e-02
-8.829385042190551758e-03
9.326054714620113373e-03
8.636642247438430786e-03
4.055408388376235962e-02
-2.133220992982387543e-02
2.705962397158145905e-02
-3.206124529242515564e-02
-1.625692844390869141e-02
1.048831455409526825e-02
3.176432102918624878e-02
3.089129459112882614e-03
3.244499862194061279e-02
-3.833212703466415405e-02
-8.224497432820498943e-04
3.294380754232406616e-02
-1.668899320065975189e-02
1.563158119097352028e-03
3.223168104887008667e-02
1.275346428155899048e-02
-8.120747283101081848e-03
1.701391115784645081e-02
3.474003449082374573e-02
2.433637343347072601e-02
-2.206789329648017883e-02
-7.642870303243398666e-03
-1.083170622587203979e-02
1.398132182657718658e-02
-1.805282011628150940e-02
-3.317973762750625610e-02
1.833228394389152527e-02
-1.858879439532756805e-02
2.956092357635498047e-02
2.315166871994733810e-03
7.729219272732734680e-03
-3.878384130075573921e-03
4.071370512247085571e-02
-1.829007291235029697e-03
1.393818482756614685e-02
1.656607352197170258e-02
1.478171348571777344e-02
-2.615524642169475555e-02
3.114936314523220062e-02
-5.477406550198793411e-03
-8.093206211924552917e-03
-4.446051083505153656e-03
3.326196968555450439e-02
-2.076578140258789062e-02
1.294020563364028931e-02
4.783132299780845642e-02
3.946188464760780334e-02
1.335414499044418335e-02
5.459314212203025818e-02
4.935920611023902893e-02
-5.174759030342102051e-02
-9.948127903044223785e-03
-2.039292640984058380e-02
4.724249243736267090e-03
-1.418550591915845871e-02
2.306672185659408569e-02
2.141545759513974190e-03
1.205774489790201187e-03
-5.955119850113987923e-04
1.639588177204132080e-02
4.617103189229965210e-02
-1.544925197958946228e-02
5.367408320307731628e-02
4.161056876182556152e-02
2.074193907901644707e-03
5.398210138082504272e-02
8.635263890027999878e-03
-1.695606671273708344e-02
-2.758659794926643372e-02
-1.144181843847036362e-02
-2.113197185099124908e-02
4.186505451798439026e-03
-3.309497842565178871e-03
-7.138522341847419739e-03
2.449566870927810669e-02
2.994510345160961151e-02
2.402525953948497772e-02
-1.272053923457860947e-02
2.664121985435485840e-02
3.703157603740692139e-02
1.322446577250957489e-02
3.033858537673950195e-02
3.589881584048271179e-02
3.247400373220443726e-02
6.240623816847801208e-02
1.054513268172740936e-02
-2.618629659991711378e-04
6.074380595237016678e-03
3.517580917105078697e-03
2.680992474779486656e-03
2.358147501945495605e-02
-1.526718214154243469e-02
-8.312408812344074249e-03
-1.023050211369991302e-02
2.473843842744827271e-02
-2.529146522283554077e-02
-1.497129997005686164e-04
5.210428498685359955e-03
-1.936357095837593079e-02
9.072636812925338745e-02
1.949992775917053223e-02
-5.466063041239976883e-03
4.090564325451850891e-02
1.262226793915033340e-02
1.020611729472875595e-02
-5.791474133729934692e-03
-4.563464317470788956e-03
-2.625197730958461761e-02
3.807756677269935608e-02
4.223090037703514099e-02
7.155316323041915894e-02
-7.700277492403984070e-03
5.291904881596565247e-02
9.624660946428775787e-03
1.872322335839271545e-02
5.246521905064582825e-02
4.724416881799697876e-02
3.472569212317466736e-02
1.999793201684951782e-02
2.552871359512209892e-03
2.179852314293384552e-02
6.459102034568786621e-03
-4.842425696551799774e-03
5.392591282725334167e-02
3.375496715307235718e-02
7.652449607849121094e-02
-1.201427634805440903e-02
-1.281679142266511917e-02
-6.233491934835910797e-03
6.266434490680694580e-02
-4.955444950610399246e-03
2.350360155105590820e-02
3.667551279067993164e-02
5.466457456350326538e-03
3.703541681170463562e-02
-1.384080294519662857e-02
-5.595854017883539200e-03
2.584849111735820770e-02
3.335167840123176575e-02
4.148697014898061752e-03
-1.750233955681324005e-02
-1.180050056427717209e-02
-1.948767341673374176e-02
-1.800225675106048584e-02
3.966984525322914124e-02
5.390353966504335403e-03
-1.099738664925098419e-02
1.792664639651775360e-02
9.410080499947071075e-03
6.799936760216951370e-03
-5.156558938324451447e-03
-2.208762802183628082e-03
2.112028375267982483e-02
2.325939200818538666e-02
-7.002430967986583710e-03
7.941287010908126831e-03
4.013714380562305450e-03
-3.779346588999032974e-03
3.791527450084686279e-02
3.041659248992800713e-03
2.629159018397331238e-02
4.560743644833564758e-02
1.805920526385307312e-02
2.804344147443771362e-02
-1.096588093787431717e-03
2.263633906841278076e-02
1.841434836387634277e-02
-2.878403477370738983e-02
8.908017538487911224e-03
-1.727681257762014866e-03
-1.071743667125701904e-02
8.042521774768829346e-03
-7.391457911580801010e-03
5.790108814835548401e-03
1.384216477163136005e-03
-1.580961421132087708e-02
-7.597271353006362915e-03
7.152189034968614578e-03
-2.042186213657259941e-03
2.388547919690608978e-02
2.072423696517944336e-02
-9.671556763350963593e-03
1.668293960392475128e-02
-1.828174479305744171e-02
5.437481030821800232e-02
-8.053752593696117401e-03
3.142099454998970032e-02
-2.022573724389076233e-02
6.857181899249553680e-03
2.032069256529211998e-03
-2.689523249864578247e-02
8.690208196640014648e-02
-2.655466087162494659e-04
2.589719602838158607e-03
8.353189565241336823e-03
-4.243803769350051880e-02
-1.168203447014093399e-02
1.172537170350551605e-02
1.106847170740365982e-02
4.393484070897102356e-02
-2.273252233862876892e-03
4.702642932534217834e-02
3.266530483961105347e-02
-1.693727797828614712e-03
-1.760963350534439087e-02
3.201573342084884644e-02
9.658519411459565163e-04
-1.624311320483684540e-03
1.493518147617578506e-02
-1.066543068736791611e-02
-2.042489126324653625e-03
4.336358979344367981e-02
-1.092838495969772339e-02
1.694107893854379654e-03
5.270536988973617554e-02
-5.917713977396488190e-03
1.471350900828838348e-02
5.206888914108276367e-02
-9.112807922065258026e-03
1.468994095921516418e-02
4.421277437359094620e-03
-3.572183661162853241e-03
-3.320230403915047646e-03
-1.668599620461463928e-02
-4.154502600431442261e-02
3.857683017849922180e-02
-1.673283986747264862e-02
4.271580837666988373e-03
-9.057436138391494751e-03
-4.565519280731678009e-03
-3.837479976937174797e-03
3.293552249670028687e-02
-1.214407570660114288e-02
-3.262287471443414688e-03
1.364387338981032372e-03
7.027915120124816895e-02
3.237327095121145248e-03
