5.794602259993553162e-02
2.156227678060531616e-01
2.403735965490341187e-01
1.438857764005661011e-01
5.124029144644737244e-02
2.820899523794651031e-02
1.711569428443908691e-01
2.943056821823120117e-02
2.754374146461486816e-01
1.864256560802459717e-01
-6.432042270898818970e-02
2.171228229999542236e-01
1.212290823459625244e-01
2.016135156154632568e-01
2.023007571697235107e-01
-1.438525021076202393e-01
-1.691787689924240112e-01
8.080493658781051636e-02
1.129669696092605591e-01
-5.424356088042259216e-02
2.112581208348274231e-02
1.554817557334899902e-01
-5.938955396413803101e-02
1.054771244525909424e-01
4.327218234539031982e-02
3.062283098697662354e-01
-1.644800007343292236e-01
2.473424524068832397e-01
1.322792768478393555e-01
1.288048774003982544e-01
5.806951969861984253e-02
1.483864933252334595e-01
6.465297937393188477e-02
2.358681857585906982e-01
-2.281677722930908203e-01
1.731348186731338501e-01
2.474301606416702271e-01
2.546711266040802002e-01
2.010317444801330566e-01
1.187964230775833130e-01
-1.170382499694824219e-01
9.404986165463924408e-03
6.464132666587829590e-02
2.482347935438156128e-01
-5.589774996042251587e-02
1.255153715610504150e-01
9.472135454416275024e-02
1.787852644920349121e-01
6.100923568010330200e-02
6.607093382626771927e-03
-1.046522408723831177e-01
4.545990750193595886e-02
1.349990516901016235e-01
-9.893623646348714828e-04
1.701897233724594116e-01
5.127142369747161865e-02
-9.212493896484375000e-02
2.346999198198318481e-01
-1.935974881052970886e-02
9.470871835947036743e-02
1.883388012647628784e-01
2.106032073497772217e-01
1.631273627281188965e-01
-2.355203218758106232e-02
-2.971379086375236511e-02
1.104857027530670166e-01
2.217449247837066650e-01
1.436349153518676758e-01
1.803979277610778809e-01
1.795129477977752686e-01
1.772236227989196777e-01
6.319428235292434692e-02
-5.824295803904533386e-02
1.499061882495880127e-01
1.006072908639907837e-01
1.346295326948165894e-01
8.330520242452621460e-02
1.484038382768630981e-01
1.009947061538696289e-01
1.980130523443222046e-01
1.481995582580566406e-01
7.070573419332504272e-02
6.403584033250808716e-02
2.004975527524948120e-01
6.948614958673715591e-03
1.444796174764633179e-01
7.281893491744995117e-02
4.904220253229141235e-02
-1.493452489376068115e-01
-1.064984826371073723e-03
2.742389775812625885e-02
-3.107437863945960999e-02
-4.510508105158805847e-02
6.524080038070678711e-02
-4.658712074160575867e-02
1.212093606591224670e-01
1.559650748968124390e-01
-4.659025371074676514e-02
1.094161048531532288e-01
9.877157211303710938e-02
-4.504534229636192322e-02
1.234263479709625244e-01
-3.590516746044158936e-03
1.004812940955162048e-01
1.482452005147933960e-01
1.838684380054473877e-01
1.336506456136703491e-01
1.509260237216949463e-01
2.586484253406524658e-01
5.727916955947875977e-02
1.848233491182327271e-01
1.979845613241195679e-01
2.413893491029739380e-01
-1.347582489252090454e-01
1.035361066460609436e-01
3.439106047153472900e-02
-1.978374645113945007e-02
2.559742331504821777e-01
6.409701704978942871e-02
-5.340609326958656311e-02
5.424800887703895569e-02
1.646170616149902344e-01
-1.624556779861450195e-01
6.487878412008285522e-02
3.081469610333442688e-02
2.051586359739303589e-01
3.205759916454553604e-03
6.162708252668380737e-02
-4.899741709232330322e-02
1.595094650983810425e-01
2.192209810018539429e-01
2.278260886669158936e-01
3.667493909597396851e-02
2.432534545660018921e-01
-3.079333715140819550e-02
3.398539870977401733e-02
1.306705176830291748e-01
-2.302645705640316010e-02
-1.291842013597488403e-01
2.810756266117095947e-01
-6.518323719501495361e-02
2.201714962720870972e-01
-1.106633320450782776e-01
-2.883736044168472290e-02
2.638508006930351257e-02
2.503053247928619385e-01
3.653835505247116089e-02
2.387072890996932983e-01
1.870602816343307495e-01
7.002287358045578003e-02
1.840821802616119385e-01
1.114159077405929565e-01
1.430457830429077148e-01
4.182387143373489380e-03
-1.107247099280357361e-01
1.514400839805603027e-01
-4.986019339412450790e-03
-8.310901373624801636e-02
-4.181278124451637268e-02
1.902963072061538696e-01
8.500897139310836792e-02
-1.445254832506179810e-01
1.861727982759475708e-01
1.009679585695266724e-02
-9.653604030609130859e-02
6.626714766025543213e-02
3.376008570194244385e-02
7.916144281625747681e-02
6.211743876338005066e-02
-1.104141399264335632e-01
7.658626884222030640e-03
1.560691148042678833e-01
1.262140870094299316e-01
9.551785141229629517e-02
1.750478744506835938e-01
2.577843070030212402e-01
1.236366182565689087e-01
2.461831644177436829e-02
2.221806496381759644e-01
-6.128390505909919739e-02
-1.130471527576446533e-01
1.929714232683181763e-01
2.494658678770065308e-01
1.845492571592330933e-01
2.233846038579940796e-01
1.061545778065919876e-02
1.782857030630111694e-01
-8.510107547044754028e-02
-8.661399036645889282e-02
1.295315176248550415e-01
2.076952606439590454e-01
-1.123174205422401428e-01
1.851121038198471069e-01
1.671446859836578369e-01
-3.234130516648292542e-02
8.642423897981643677e-02
-9.344854392111301422e-03
1.042157709598541260e-01
-6.013184785842895508e-02
-2.231997251510620117e-02
-2.119482159614562988e-01
-9.742359071969985962e-02
9.206683188676834106e-02
1.212341804057359695e-02
1.275235265493392944e-01
-4.135171696543693542e-02
3.758982196450233459e-02
4.648319631814956665e-02
2.263475507497787476e-01
2.973639592528343201e-02
-5.142938718199729919e-02
2.713457308709621429e-02
3.875952214002609253e-02
8.914229273796081543e-02
1.721857339143753052e-01
-2.048718184232711792e-01
3.012201189994812012e-02
2.305974066257476807e-01
2.533624470233917236e-01
5.507081374526023865e-02
2.203808724880218506e-01
2.517570182681083679e-02
-1.823172867298126221e-01
6.210716813802719116e-02
1.857764571905136108e-01
4.792375862598419189e-02
-1.466972082853317261e-01
8.624764159321784973e-03
1.745511293411254883e-01
-1.106126010417938232e-01
-1.584165357053279877e-02
2.010657824575901031e-02
2.613617181777954102e-01
1.321005225181579590e-01
1.128082424402236938e-01
-1.453227102756500244e-01
-3.125865012407302856e-02
-7.089162617921829224e-02
-4.912624508142471313e-02
-1.653471738100051880e-01
1.158883720636367798e-01
1.060850825160741806e-02
1.677173376083374023e-01
1.553816348314285278e-01
2.173182219266891479e-01
-1.146404165774583817e-02
-1.793618351221084595e-01
-9.770146012306213379e-02
6.962469220161437988e-02
-1.131093651056289673e-01
-1.314277201890945435e-01
-1.427931338548660278e-01
2.041892409324645996e-01
1.244462355971336365e-01
1.122431457042694092e-01
1.833928823471069336e-01
