3.534692823886871338e-01 -6.064839363098144531e-01 -3.213266283273696899e-02 2.710261568427085876e-02 -4.226980730891227722e-02 3.314193710684776306e-02 -6.197215616703033447e-02 3.936582244932651520e-03 -3.449670970439910889e-02 1.797223463654518127e-02 1.617763489484786987e-01 -5.980499088764190674e-02 -2.186459004878997803e-01 8.332739025354385376e-02 -5.498401075601577759e-02 2.483343239873647690e-03 -2.349847741425037384e-02 -9.223427623510360718e-03 2.543484047055244446e-02 1.022674608975648880e-02 2.814736217260360718e-03 -5.038840230554342270e-03 -2.856717212125658989e-03 -1.299942657351493835e-02 -2.294638939201831818e-02 5.129136890172958374e-02 -1.073803752660751343e-02 -7.573997229337692261e-02 -2.084504365921020508e-01 2.779022045433521271e-02 7.400628924369812012e-02 -5.554168671369552612e-02 -4.759524762630462646e-02 2.549445489421486855e-03 -7.315552979707717896e-02 4.896106570959091187e-02 2.004358917474746704e-02 2.760986387729644775e-01 -2.780001759529113770e-01 7.149227708578109741e-02 2.506583742797374725e-02 -3.595235059037804604e-03 -1.019890308380126953e-01 6.570451892912387848e-03 -2.884953841567039490e-02 9.287710487842559814e-02 -1.987926512956619263e-01 -1.242336910218000412e-02 -8.743321150541305542e-02 1.334149837493896484e-01 -4.552498087286949158e-02 -4.585975036025047302e-02 -1.040208851918578148e-03 -6.013374309986829758e-03 -4.981650039553642273e-02 -5.475871264934539795e-02 4.508900456130504608e-03 -4.375233128666877747e-02 -1.593351946212351322e-03 1.482784096151590347e-02 1.525374501943588257e-01 2.245367765426635742e-01 -5.384498089551925659e-02 -8.291384205222129822e-03 7.145325839519500732e-02 -2.194213420152664185e-01 9.173855930566787720e-02 1.850199699401855469e-01 -1.267532724887132645e-02 -9.387428872287273407e-03 -1.667983084917068481e-02 1.850739680230617523e-02 -2.793695218861103058e-02 -2.284299209713935852e-02 2.250301092863082886e-01 -1.773703992366790771e-01 1.552462875843048096e-01 6.231577321887016296e-02 2.314315587282180786e-01 1.199445407837629318e-02 3.171844780445098877e-02 -1.084673851728439331e-01 -1.657606661319732666e-02 1.299128234386444092e-01 -1.226866804063320160e-02 -6.668139994144439697e-02 -4.876973479986190796e-02 -1.758105307817459106e-02 -9.347756206989288330e-02 -2.950018970295786858e-03 -6.616107653826475143e-03 2.780351787805557251e-02 -4.819576069712638855e-02 -2.156835235655307770e-02 -3.094517998397350311e-02 -5.871863104403018951e-03 1.997078955173492432e-02 -2.083997428417205811e-02 -2.858963236212730408e-02 1.194834858179092407e-01 6.158476695418357849e-03 3.847026824951171875e-02 -2.477005422115325928e-01 -7.230385392904281616e-02 -9.409891068935394287e-02 3.514578193426132202e-02 8.422883693128824234e-04 4.230270534753799438e-02 1.599760912358760834e-02 -1.118936482816934586e-02 2.493962831795215607e-02 1.503935903310775757e-01 -6.034507974982261658e-02 1.765359640121459961e-01 -2.586003392934799194e-02 8.989084511995315552e-02 1.312717646360397339e-01 9.698352962732315063e-02 2.024705335497856140e-02 -3.844675049185752869e-02 -1.820640824735164642e-02 1.556548029184341431e-01 8.216278627514839172e-03 -1.686360873281955719e-02 3.535173460841178894e-02 -2.077199332416057587e-02 -6.498269271105527878e-03 6.746976170688867569e-03 -5.206459760665893555e-02 5.375748127698898315e-02 -9.057603776454925537e-02 -1.825743354856967926e-02 -1.505044475197792053e-02 -2.141077257692813873e-02 5.446040257811546326e-02 -3.870442882180213928e-02 -6.446651183068752289e-03 5.107936635613441467e-02 -4.354371875524520874e-02 -2.880142331123352051e-01 -1.961614936590194702e-03 1.365692019462585449e-01 -4.838269576430320740e-02 -3.459811909124255180e-03 -2.937640238087624311e-04 -1.090356428176164627e-02 2.531038783490657806e-02 -2.119432948529720306e-02 1.141974031925201416e-01 2.978135645389556885e-01 -9.498983621597290039e-02 -9.101537615060806274e-02 5.308951810002326965e-02 -3.033309243619441986e-02 2.291132882237434387e-02 1.181637346744537354e-01 -3.977128490805625916e-02 -2.900506369769573212e-02 -4.217538237571716309e-02 9.889584034681320190e-02 -4.323164001107215881e-02 4.764331504702568054e-02 -9.148260951042175293e-02 -4.578121472150087357e-03 1.111977454274892807e-02 -9.480345249176025391e-02 -4.703920334577560425e-02 1.491902023553848267e-01 1.985439099371433258e-02 -3.339708317071199417e-03 -1.104916166514158249e-02 2.510654926300048828e-02 2.705385722219944000e-02 7.297518849372863770e-02 -6.134488806128501892e-02 -3.186634555459022522e-02 -2.551378607749938965e-01 6.515984982252120972e-02 -2.295391857624053955e-01 -3.946838900446891785e-02 -1.862937398254871368e-02 -5.050389468669891357e-02 -1.112105231732130051e-02 -3.125440701842308044e-02 -7.207241142168641090e-04 8.651854842901229858e-02 2.815059013664722443e-02 3.342344611883163452e-02 5.351247638463973999e-02 2.032711729407310486e-02 7.048958539962768555e-02 1.594926789402961731e-02 -6.819207221269607544e-02 -6.351818889379501343e-02 2.429014816880226135e-02 -4.105009511113166809e-02 -6.523712724447250366e-02 -3.248526901006698608e-02 5.087938532233238220e-02 1.409469693899154663e-01 1.055774688720703125e-01 1.426537986844778061e-02 2.912602573633193970e-02 -1.532599925994873047e-01 3.454944584518671036e-03 -4.987329617142677307e-02 5.656651780009269714e-02 5.057446286082267761e-02 2.833893522620201111e-02 -2.077604085206985474e-01 7.698974572122097015e-03 -2.279721572995185852e-02 -4.129623621702194214e-02 -1.520108245313167572e-02 -3.825402632355690002e-02 -6.403038650751113892e-02 -5.075946077704429626e-02 -1.139694526791572571e-01 -3.602510318160057068e-02 3.267817944288253784e-02 -3.089489415287971497e-02 2.894728817045688629e-02 -7.385416328907012939e-02 3.545271977782249451e-02 -5.023925751447677612e-02 5.455205217003822327e-02 -1.296519041061401367e-01 -3.072559274733066559e-02 1.134310383349657059e-02 2.783366246148943901e-03 -8.560328930616378784e-02 -6.745343655347824097e-02 4.822131246328353882e-02 -7.544326037168502808e-02 4.126277938485145569e-02 -6.117477640509605408e-02 1.519664190709590912e-02
-1.502017378807067871e-01 7.660643458366394043e-01 -1.304490715265274048e-01 -5.036353133618831635e-03 1.719156652688980103e-01 6.357457954436540604e-03 -3.254993855953216553e-01 -2.796007394790649414e-01 9.351221472024917603e-02 1.268230974674224854e-01 -8.252600207924842834e-03 -1.084157079458236694e-01 -3.786336630582809448e-02 -1.807374320924282074e-02 1.222683936357498169e-01 -3.532040282152593136e-04 -5.043181125074625015e-03 1.657683253288269043e-01 1.481637209653854370e-01 2.850024960935115814e-02 -1.680658198893070221e-02 -5.218297243118286133e-03 3.208921104669570923e-02 -7.615228742361068726e-02 -2.416765838861465454e-01 -1.079262122511863708e-01 -2.468692511320114136e-02 1.209945008158683777e-01 -2.108723968267440796e-01 -4.764065146446228027e-02 7.746481150388717651e-02 8.530659228563308716e-02 -8.288992941379547119e-02 -8.316550403833389282e-03 -1.414173189550638199e-02 1.809721626341342926e-02 -1.519617252051830292e-02 3.387792035937309265e-02 4.143781363964080811e-01 5.266967415809631348e-02 -6.282154470682144165e-02 6.259521842002868652e-02 -1.124508604407310486e-01 6.338878720998764038e-02 -9.932503104209899902e-03 -1.272279070690274239e-03 -2.368151955306529999e-02 3.056715615093708038e-02 -8.898247778415679932e-02 2.036006655544042587e-03 2.568509429693222046e-02 -9.506938606500625610e-02 3.795437223743647337e-04 -1.774308085441589355e-02 5.392649024724960327e-02 6.967838853597640991e-02 -2.967461012303829193e-02 -2.253936976194381714e-02 -3.927669487893581390e-03 4.720750823616981506e-02 -9.097396582365036011e-02 -1.398073136806488037e-01 1.135110575705766678e-02 2.701843902468681335e-02 1.503339856863021851e-01 -9.268125146627426147e-02 -8.479820564389228821e-03 5.551148951053619385e-02 7.117384672164916992e-02 -3.309775516390800476e-02 4.859517142176628113e-02 2.885425463318824768e-03 -7.314259186387062073e-03 -2.164235152304172516e-02 2.424904257059097290e-01 -6.676825135946273804e-02 3.358560055494308472e-02 -6.932287663221359253e-02 -4.012369550764560699e-03 -2.594011127948760986e-01 7.897511124610900879e-03 1.760827302932739258e-01 9.538468718528747559e-02 4.185841232538223267e-02 -2.314523607492446899e-02 3.079940006136894226e-02 -1.557021141052246094e-01 7.296930998563766479e-02 9.831275790929794312e-03 -6.396717391908168793e-03 -4.295625537633895874e-02 4.658641666173934937e-02 1.338412463665008545e-01 -1.114051714539527893e-01 -1.001146063208580017e-02 -2.508912933990359306e-03 7.392515242099761963e-02 -2.251460254192352295e-01 -1.350761502981185913e-01 5.581186339259147644e-02 -2.038142271339893341e-02 -1.482656598091125488e-02 -2.481991052627563477e-01 3.370355814695358276e-02 -2.508512884378433228e-02 6.398425251245498657e-02 -5.625154823064804077e-02 2.052427735179662704e-03 -1.419677049852907658e-03 -8.830985054373741150e-03 -1.889036782085895538e-02 2.370696365833282471e-01 -7.170389890670776367e-01 5.368090793490409851e-02 1.330934837460517883e-02 -1.258977204561233521e-01 -1.053161099553108215e-01 -3.566139936447143555e-02 -1.050692498683929443e-01 2.216745167970657349e-02 -1.189731433987617493e-01 1.843613386154174805e-01 6.622784771025180817e-03 -5.808421596884727478e-02 -1.955292522907257080e-01 -8.715908229351043701e-02 9.884133003652095795e-03 -3.776946570724248886e-03 -3.563660010695457458e-02 3.502778708934783936e-02 6.664782762527465820e-02 3.565668128430843353e-03 -1.391465961933135986e-02 4.939946904778480530e-02 -2.247404605150222778e-01 -8.220047503709793091e-02 -5.069170612841844559e-03 1.061118580400943756e-02 9.810794144868850708e-02 -1.551795098930597305e-02 2.621152997016906738e-01 -7.602330297231674194e-02 1.348882075399160385e-02 -2.090581692755222321e-02 2.869459334760904312e-03 -2.574273757636547089e-02 -8.019616827368736267e-03 -5.395606905221939087e-02 3.889477849006652832e-01 -1.081287264823913574e+00 2.421934753656387329e-01 3.044723346829414368e-02 -4.016462340950965881e-02 -1.610360443592071533e-01 -7.664117962121963501e-02 -9.448571503162384033e-02 -1.110921651124954224e-01 1.496780943125486374e-02 8.515534549951553345e-02 -1.116279065608978271e-01 -1.144979819655418396e-01 6.991485506296157837e-02 -8.435515314340591431e-02 6.759277894161641598e-04 1.187943946570158005e-02 -3.233714774250984192e-02 -5.199814960360527039e-02 -7.912334799766540527e-02 -1.204649172723293304e-02 -2.491785585880279541e-02 5.758326500654220581e-02 -3.415841460227966309e-01 -2.255711704492568970e-01 2.934130840003490448e-02 1.507076062262058258e-02 6.319750100374221802e-03 -5.583430454134941101e-02 -6.082433089613914490e-02 5.516015738248825073e-02 5.308427382260560989e-03 -1.854132115840911865e-02 1.281418255530297756e-03 -4.276801273226737976e-02 -6.077165249735116959e-03 -4.253309220075607300e-02 7.831084541976451874e-03 -2.915460765361785889e-01 1.530997455120086670e-01 1.410046964883804321e-01 6.729654222726821899e-02 -1.208069249987602234e-01 -4.477854818105697632e-03 -1.101649478077888489e-01 1.624711602926254272e-01 -3.835337981581687927e-02 -7.687064819037914276e-03 -2.902831695973873138e-02 -2.425670251250267029e-02 -1.425359304994344711e-02 -2.223671525716781616e-01 1.440906524658203125e-01 7.343424111604690552e-02 -9.262895584106445312e-02 -3.390779718756675720e-02 -1.640654052607715130e-03 -2.370982989668846130e-02 1.717989742755889893e-01 -1.389023475348949432e-02 -9.309439361095428467e-02 -6.868568714708089828e-03 6.326198577880859375e-02 -1.034058071672916412e-02 -2.831842601299285889e-01 7.389666885137557983e-02 5.480744317173957825e-02 -1.308973878622055054e-01 -3.911523893475532532e-02 1.863472722470760345e-02 2.517321705818176270e-02 2.018944323062896729e-01 8.625697344541549683e-03 -6.225962191820144653e-03 -3.631819272413849831e-03 -8.736073225736618042e-02 3.198567032814025879e-02 -2.498772144317626953e-01 7.021309807896614075e-03 5.057277530431747437e-02 -7.833287119865417480e-02 2.452706359326839447e-02 -3.446881100535392761e-02 -1.380378101021051407e-02 1.696860939264297485e-01 -2.605360187590122223e-02 -1.134377419948577881e-01 3.756907954812049866e-02 -3.073879517614841461e-03
-3.512973189353942871e-01 3.626821637153625488e-01 -2.114800177514553070e-02 -5.522039160132408142e-02 4.057208076119422913e-03 1.038438156247138977e-01 3.389205783605575562e-02 -3.192579373717308044e-03 8.173193037509918213e-02 3.482830151915550232e-02 1.399037428200244904e-02 5.614444240927696228e-02 1.984506286680698395e-02 -2.114761769771575928e-01 -2.436418458819389343e-02 5.436547566205263138e-03 -3.057584352791309357e-02 -3.602356463670730591e-02 2.861986868083477020e-02 -1.198259461671113968e-02 2.721298485994338989e-02 -7.381163304671645164e-04 -1.475695148110389709e-02 -8.564507961273193359e-02 -2.515416406095027924e-02 9.725805371999740601e-03 -2.943896315991878510e-02 1.452116966247558594e-01 -4.969139024615287781e-02 -5.031489953398704529e-02 4.043636843562126160e-02 3.797052428126335144e-02 3.435362875461578369e-02 2.169864997267723083e-02 3.500849008560180664e-02 -7.732352707535028458e-03 -2.641735039651393890e-02 -5.107236281037330627e-02 1.941846013069152832e-01 1.416790485382080078e-01 -2.965973131358623505e-02 -9.991798549890518188e-02 1.730052568018436432e-02 6.076137535274028778e-03 -5.043652281165122986e-02 5.782300978899002075e-02 9.922108799219131470e-02 -1.882527396082878113e-02 4.399633407592773438e-02 6.897068023681640625e-02 1.287186611443758011e-02 -1.380115747451782227e-01 1.573034795001149178e-03 -2.714743092656135559e-02 -5.895052105188369751e-03 1.402252074331045151e-02 -3.831202164292335510e-02 -4.372081905603408813e-02 -5.352012231014668941e-04 3.246998647227883339e-03 -3.919536620378494263e-02 5.196068808436393738e-02 -1.239940151572227478e-02 1.467364095151424408e-02 2.711560763418674469e-02 4.238115251064300537e-02 -2.964171208441257477e-02 -5.654407665133476257e-03 -6.054264958947896957e-03 2.266283705830574036e-02 -7.924092933535575867e-03 2.535796724259853363e-02 1.841337420046329498e-02 -2.410453371703624725e-02 3.796049207448959351e-02 2.049298435449600220e-01 -3.613205254077911377e-02 -1.999534294009208679e-02 8.506058156490325928e-02 1.824918091297149658e-01 -6.740306317806243896e-02 -4.127389565110206604e-02 -4.324798472225666046e-03 -5.051248893141746521e-02 1.668067276477813721e-01 1.195035688579082489e-02 -1.791768223047256470e-01 -5.071153119206428528e-02 -5.551693588495254517e-02 -8.076666854321956635e-03 -3.266863152384757996e-02 5.413582175970077515e-02 -1.160356029868125916e-01 4.618169367313385010e-02 -1.103518344461917877e-02 4.498181864619255066e-03 1.118908636271953583e-02 1.610635593533515930e-02 -9.361185878515243530e-02 4.454378783702850342e-02 2.386949956417083740e-02 1.983051449060440063e-01 -9.144073724746704102e-02 1.176221575587987900e-02 -9.459909051656723022e-02 -4.605647549033164978e-02 1.148035749793052673e-02 -2.491958439350128174e-02 -5.003445316106081009e-03 2.160827629268169403e-02 1.299035968258976936e-03 3.655320107936859131e-01 -7.565696537494659424e-02 -2.907227873802185059e-01 -8.546356111764907837e-02 -6.286164373159408569e-02 -1.511882990598678589e-02 -3.872811421751976013e-02 -8.355403691530227661e-02 7.185303419828414917e-02 2.076212549582123756e-03 1.217492222785949707e-01 4.837042838335037231e-02 -7.136002182960510254e-02 8.296424895524978638e-02 8.500337600708007812e-02 5.738755688071250916e-03 6.040518358349800110e-02 6.140000373125076294e-02 5.007046461105346680e-02 -2.285833470523357391e-02 6.402016431093215942e-02 9.043083409778773785e-04 2.968468330800533295e-02 -9.176720865070819855e-03 -1.869126595556735992e-02 7.402640581130981445e-02 2.298807725310325623e-02 6.683644652366638184e-02 -1.213641762733459473e-01 4.186291247606277466e-02 1.584230549633502960e-02 1.747610233724117279e-02 4.173167794942855835e-02 -3.017141111195087433e-02 -1.107452251017093658e-02 7.126148045063018799e-02 -2.784049510955810547e-02 5.107169747352600098e-01 -4.821719229221343994e-02 -6.024796888232231140e-02 -5.064527038484811783e-03 -2.122672507539391518e-03 6.670599337667226791e-03 -3.358922153711318970e-02 1.582194268703460693e-01 2.092959731817245483e-02 1.006546244025230408e-01 4.312616214156150818e-02 -1.584841907024383545e-01 -1.404493600130081177e-01 -1.416094154119491577e-01 -1.625338196754455566e-02 -5.067356396466493607e-03 -9.612122550606727600e-03 3.021853417158126831e-02 -3.055133111774921417e-02 -6.354710459709167480e-02 2.984448522329330444e-02 -2.787273610010743141e-03 1.497574150562286377e-02 8.787550777196884155e-02 -1.432785671204328537e-02 -1.621942222118377686e-01 -2.095303498208522797e-02 -5.131243262439966202e-03 -9.265853464603424072e-02 1.031825467944145203e-01 6.219412386417388916e-02 1.097387447953224182e-02 1.458198763430118561e-02 -3.344532847404479980e-02 6.219829898327589035e-03 4.069886729121208191e-02 1.378586166538298130e-03 9.388231486082077026e-02 -1.182062551379203796e-01 -8.166364580392837524e-02 -6.333929300308227539e-02 7.285074889659881592e-02 1.142186298966407776e-01 3.611719235777854919e-02 -1.185162141919136047e-01 -1.138645410537719727e-01 -9.818521887063980103e-02 -5.072079598903656006e-02 -4.812148585915565491e-02 -4.038910195231437683e-02 8.490906655788421631e-02 -1.108168661594390869e-01 -6.325069814920425415e-02 -8.714513480663299561e-02 -5.051006004214286804e-02 -1.636222936213016510e-02 3.656651079654693604e-02 -4.342865198850631714e-02 -1.314043849706649780e-01 -1.628977991640567780e-02 2.789611183106899261e-02 -3.338304162025451660e-02 6.340414285659790039e-02 -6.601596716791391373e-03 -1.589769870042800903e-01 2.051466517150402069e-02 -1.070653945207595825e-01 -1.561570912599563599e-01 2.594805881381034851e-02 6.563634425401687622e-02 -1.975988894701004028e-01 -5.882295966148376465e-02 -1.582963019609451294e-01 -3.723467513918876648e-02 3.104870393872261047e-02 -3.472454845905303955e-02 -8.551321923732757568e-03 -3.857868537306785583e-02 -4.018470644950866699e-02 -1.229075416922569275e-01 -3.179988637566566467e-02 6.452357023954391479e-02 1.730987429618835449e-01 9.471525438129901886e-03 -1.635317690670490265e-02 -5.771215260028839111e-02 -8.384754508733749390e-02 4.691129177808761597e-02 -9.259796887636184692e-02
-1.042262613773345947e-01 -4.058002680540084839e-02 4.690952971577644348e-02 2.144429646432399750e-02 -5.438265204429626465e-02 -5.175028741359710693e-02 -1.861096359789371490e-02 4.780843481421470642e-02 1.356393992900848389e-01 -9.482074528932571411e-02 3.590315580368041992e-02 6.181262060999870300e-02 -1.139588579535484314e-01 -2.725788578391075134e-02 -2.692583575844764709e-02 -4.698341712355613708e-03 -3.185781091451644897e-02 -9.387597441673278809e-03 6.036783754825592041e-02 -2.882304787635803223e-02 1.524361409246921539e-02 -1.986988075077533722e-02 4.199754819273948669e-02 -6.619037687778472900e-02 -1.730035245418548584e-02 -3.785802796483039856e-02 -2.715481631457805634e-02 6.189431250095367432e-02 -2.374634146690368652e-01 -8.776332437992095947e-02 -4.337541759014129639e-03 1.890952698886394501e-02 1.268570683896541595e-02 -6.940580159425735474e-02 -3.073158673942089081e-02 2.362124621868133545e-02 -3.249049652367830276e-03 -3.553753718733787537e-02 4.314777627587318420e-02 -1.437495499849319458e-01 -5.204753577709197998e-02 -1.528970301151275635e-01 -1.618712693452835083e-01 -3.207381442189216614e-02 -9.614150226116180420e-02 -1.366181951016187668e-02 -4.540023207664489746e-02 -3.705905005335807800e-02 -1.984382271766662598e-01 -1.112920120358467102e-01 1.671530902385711670e-01 4.876363649964332581e-02 -3.718413878232240677e-03 -4.079236090183258057e-02 1.420081108808517456e-01 -7.115779817104339600e-02 3.094413317739963531e-03 5.246793851256370544e-03 -4.608344752341508865e-03 7.195562869310379028e-02 -9.255447238683700562e-02 -8.921429514884948730e-02 -8.176270872354507446e-02 2.241128496825695038e-02 -5.958314239978790283e-02 -7.183695584535598755e-02 -8.464722335338592529e-02 -5.927206948399543762e-02 -1.076178252696990967e-02 -7.300525903701782227e-03 -7.949463278055191040e-02 -2.326266467571258545e-02 -1.684880256652832031e-02 -5.420692265033721924e-03 1.797849535942077637e-01 -9.540311247110366821e-02 7.568398863077163696e-02 1.180924475193023682e-01 -2.003224492073059082e-01 7.908748835325241089e-02 3.339223191142082214e-02 -3.427583491429686546e-03 2.980119735002517700e-02 4.815791919827461243e-02 1.667547523975372314e-01 -1.788813322782516479e-01 -3.959360066801309586e-03 7.175105065107345581e-02 1.525960713624954224e-01 -1.205786596983671188e-02 -4.262704774737358093e-02 5.518539622426033020e-02 1.629831790924072266e-01 1.301336735486984253e-01 1.476150657981634140e-02 -1.209788583219051361e-02 1.961115375161170959e-02 -1.560335159301757812e-01 -1.667280048131942749e-01 -4.524011164903640747e-02 3.872840479016304016e-02 -6.376241799443960190e-03 -1.755652874708175659e-01 5.821753665804862976e-02 -5.955655500292778015e-02 -6.855076644569635391e-03 1.078414358198642731e-02 -8.218797296285629272e-02 -5.103333387523889542e-03 7.004219107329845428e-03 1.088803354650735855e-02 -9.735898114740848541e-03 -2.673555016517639160e-01 -5.344676598906517029e-02 -5.334371700882911682e-02 -1.928216069936752319e-01 -2.928427979350090027e-02 1.576238125562667847e-01 -1.769182831048965454e-02 -3.807459771633148193e-02 5.043581128120422363e-02 1.319636851549148560e-01 -8.956062048673629761e-02 -2.452666871249675751e-03 -4.149306938052177429e-02 6.204336136579513550e-02 -3.184700384736061096e-03 -2.745291963219642639e-02 1.242915764451026917e-01 -1.825774647295475006e-02 -5.449904128909111023e-02 -1.093951519578695297e-02 -2.107053808867931366e-02 1.777410320937633514e-02 -1.281410753726959229e-01 -9.700933843851089478e-02 2.072841674089431763e-02 1.981351524591445923e-02 9.413465857505798340e-02 -9.897627681493759155e-02 1.017004698514938354e-01 1.719134859740734100e-02 4.148722812533378601e-02 1.619184948503971100e-02 -9.510274231433868408e-02 -1.427306793630123138e-02 1.361754164099693298e-02 -3.330073133111000061e-02 9.613834321498870850e-02 -5.976074934005737305e-01 9.315898269414901733e-02 -1.536781527101993561e-02 -3.439676761627197266e-02 8.085609972476959229e-02 2.935192920267581940e-02 -3.280310705304145813e-02 1.108222678303718567e-01 1.340495347976684570e-01 1.231377013027667999e-02 -3.278729915618896484e-01 -7.481172680854797363e-02 1.032079532742500305e-01 6.808869540691375732e-02 -8.758862502872943878e-03 -6.904045492410659790e-02 9.750018268823623657e-02 1.218141466379165649e-01 -7.945156842470169067e-02 2.911919541656970978e-02 -4.158890619874000549e-02 -8.887224830687046051e-03 -2.610633671283721924e-01 -1.526255607604980469e-01 -4.780019819736480713e-02 3.758624079637229443e-04 6.325552612543106079e-02 -5.799827724695205688e-02 2.367665320634841919e-01 1.082634553313255310e-01 4.174711927771568298e-02 3.731925413012504578e-02 -1.097434908151626587e-01 -6.092399824410676956e-03 4.784726351499557495e-02 -5.960239470005035400e-02 1.926623098552227020e-02 1.171797066926956177e-01 -1.234602481126785278e-01 1.729457527399063110e-01 -5.974932014942169189e-02 -2.488952130079269409e-02 -6.201168894767761230e-02 8.321838825941085815e-02 -5.342534556984901428e-02 2.205513119697570801e-01 5.423101410269737244e-02 1.108415797352790833e-01 -1.746263653039932251e-01 3.725524619221687317e-02 9.692975133657455444e-02 2.687871269881725311e-02 1.802544854581356049e-02 1.570891030132770538e-02 -6.331114470958709717e-02 -2.968399226665496826e-02 6.358543783426284790e-02 -1.193070411682128906e-01 1.423233151435852051e-01 -6.897810101509094238e-02 8.980531990528106689e-02 -4.413045570254325867e-02 -1.953896433115005493e-01 4.796356335282325745e-02 -1.448043389245867729e-03 3.723132237792015076e-02 6.431606411933898926e-02 -3.084823302924633026e-02 -1.440903693437576294e-01 9.225582331418991089e-02 -2.459029704332351685e-01 1.239994689822196960e-01 -4.382335394620895386e-02 6.590480357408523560e-02 -1.378256976604461670e-01 -8.330188691616058350e-02 8.975610136985778809e-02 4.576111584901809692e-02 4.212424159049987793e-02 1.222664117813110352e-01 -1.784578859806060791e-01 -1.551562398672103882e-01 -6.423929240554571152e-03 -4.075947701930999756e-01 -5.479373410344123840e-02 -1.150975376367568970e-01 -6.455633789300918579e-02 -1.491602510213851929e-01
-1.257188558578491211e+00 2.326888144016265869e-01 -1.866634003818035126e-02 -1.276844739913940430e-02 -1.885040998458862305e-01 -7.619899511337280273e-02 -6.076490506529808044e-02 -6.046256516128778458e-03 4.052158072590827942e-02 -4.707135260105133057e-02 -4.406761005520820618e-02 -1.168413832783699036e-01 -1.958035230636596680e-01 -4.626055806875228882e-02 1.611251085996627808e-01 2.271463628858327866e-03 1.939995773136615753e-02 -3.067161887884140015e-04 1.583769731223583221e-02 1.979140564799308777e-02 1.449765916913747787e-02 2.724681515246629715e-03 -3.616478294134140015e-02 1.352931931614875793e-02 8.084665983915328979e-02 -1.991197280585765839e-02 -5.678430199623107910e-03 -1.824601367115974426e-02 -5.886898376047611237e-03 4.025589302182197571e-02 6.037105992436408997e-02 -2.008971758186817169e-03 6.852298974990844727e-03 3.438554331660270691e-02 2.757027512416243553e-03 1.182905747555196285e-03 5.865873768925666809e-03 -5.593866705894470215e-01 2.040738016366958618e-01 5.521880090236663818e-02 -4.085430875420570374e-02 -9.063408523797988892e-02 -2.868440188467502594e-02 -1.006468757987022400e-02 -2.709936164319515228e-02 -5.742607172578573227e-03 -6.951946415938436985e-04 -9.819173067808151245e-02 8.606060594320297241e-02 8.227933198213577271e-02 6.095330789685249329e-02 -1.203644424676895142e-01 2.468915408826433122e-05 2.079326100647449493e-02 1.188348513096570969e-02 1.197647652588784695e-03 -6.701812148094177246e-02 -2.307028323411941528e-02 4.767824430018663406e-04 8.827495388686656952e-03 -8.519900590181350708e-02 -3.026307001709938049e-02 5.825071409344673157e-02 3.110344149172306061e-02 4.753734171390533447e-02 -8.854187279939651489e-02 8.290004730224609375e-02 -7.008619606494903564e-02 -2.163168974220752716e-02 9.391302010044455528e-04 -6.195485219359397888e-02 2.374826744198799133e-02 3.148451820015907288e-02 5.750347394496202469e-03 5.142955109477043152e-02 -1.464769430458545685e-02 -3.998635802417993546e-03 -3.356094658374786377e-02 6.020336225628852844e-02 -1.355017721652984619e-01 -8.464087545871734619e-02 9.974907152354717255e-03 -1.367935240268707275e-01 -2.144637983292341232e-03 1.120533198118209839e-01 5.036361888051033020e-02 8.702783286571502686e-02 2.010452002286911011e-02 5.519142746925354004e-02 2.811515296343713999e-04 2.958317287266254425e-02 -6.099991500377655029e-02 -4.053032025694847107e-02 2.319909259676933289e-02 1.034329365938901901e-02 -7.591059897094964981e-03 2.316422574222087860e-02 7.046610116958618164e-02 -1.805426627397537231e-01 -7.765339314937591553e-02 -2.853730134665966034e-02 2.638011239469051361e-02 -2.240805029869079590e-01 1.635694876313209534e-02 6.850223988294601440e-02 2.425853535532951355e-02 1.790834963321685791e-02 7.436291780322790146e-03 -2.901028841733932495e-03 1.401566620916128159e-02 2.652906114235520363e-03 7.192916274070739746e-01 -4.061228930950164795e-01 1.073236465454101562e-01 -5.293233320116996765e-02 1.307294815778732300e-01 8.948291093111038208e-02 -6.708805263042449951e-02 2.508167177438735962e-02 7.216515392065048218e-02 -3.850711882114410400e-02 7.585813850164413452e-02 -1.065759435296058655e-01 -1.201041415333747864e-01 8.377537131309509277e-03 7.931443303823471069e-02 -7.284810766577720642e-03 2.935335226356983185e-02 -6.977333873510360718e-02 1.625702530145645142e-02 1.479574386030435562e-02 -2.358238026499748230e-02 1.466532819904386997e-03 -1.629533432424068451e-02 -5.628816410899162292e-02 -5.686565861105918884e-02 5.820225179195404053e-02 2.268302999436855316e-02 -8.875929750502109528e-03 -1.728311181068420410e-01 -4.884054884314537048e-03 -5.979000404477119446e-02 -1.188833359628915787e-02 -1.293353922665119171e-02 -5.672251805663108826e-03 4.537501186132431030e-02 -3.005485050380229950e-02 2.173305675387382507e-02 1.400556325912475586e+00 -5.251210927963256836e-01 8.262936025857925415e-02 3.543058037757873535e-02 2.352036386728286743e-01 5.135688930749893188e-03 -1.681523956358432770e-02 -2.847763337194919586e-02 9.155409038066864014e-02 6.909060478210449219e-02 2.060733437538146973e-01 -6.404345482587814331e-02 -1.372485011816024780e-01 -1.654855310916900635e-01 -4.557327181100845337e-02 -2.242440590634942055e-03 2.192815206944942474e-02 5.233256146311759949e-02 9.891157597303390503e-02 7.571239024400711060e-02 1.681350357830524445e-02 1.027609501034021378e-02 2.290857210755348206e-02 -3.117146156728267670e-02 2.851268462836742401e-02 -7.755517493933439255e-03 2.503294125199317932e-02 6.421364843845367432e-02 -3.809777274727821350e-02 -9.767147153615951538e-02 4.017998278141021729e-02 4.293331876397132874e-03 -2.111167833209037781e-02 4.803685471415519714e-02 -5.390809103846549988e-02 2.088789641857147217e-02 -4.466855525970458984e-02 1.828307285904884338e-02 -1.239091157913208008e-01 -4.175527021288871765e-02 -5.311392992734909058e-02 -9.099312126636505127e-02 8.810941874980926514e-02 3.759994357824325562e-02 -2.452226877212524414e-01 3.861638158559799194e-02 -9.479973465204238892e-03 1.140712667256593704e-02 2.033219672739505768e-02 -4.065817687660455704e-03 -3.859006613492965698e-02 2.317740954458713531e-02 8.922990411520004272e-03 -9.381657093763351440e-02 -2.638351917266845703e-02 2.768093533813953400e-02 7.803964614868164062e-02 -6.668634712696075439e-02 -8.248097449541091919e-02 -8.154208958148956299e-02 6.914430111646652222e-02 1.963458396494388580e-02 4.260049015283584595e-02 8.304934948682785034e-02 1.014498900622129440e-02 -3.146937116980552673e-02 -4.133300110697746277e-02 8.022193610668182373e-02 -1.177481859922409058e-01 -4.091270733624696732e-03 -1.626968532800674438e-01 1.943058520555496216e-02 -1.234812736511230469e-01 7.999543845653533936e-02 -1.160482540726661682e-01 -5.073604360222816467e-02 -1.509216800332069397e-02 -6.320290267467498779e-02 -5.514124035835266113e-02 -4.151139780879020691e-02 5.017197877168655396e-02 -8.603531122207641602e-02 3.550657257437705994e-02 -4.559058696031570435e-02 -2.902428992092609406e-02 -7.997480034828186035e-02 1.260439455509185791e-01 2.859847806394100189e-02 -1.842155121266841888e-02
-2.000195384025573730e-01 -1.645671725273132324e-01 9.722875803709030151e-02 -4.512894898653030396e-02 -3.360177576541900635e-01 -3.765859827399253845e-02 4.711214452981948853e-03 -1.367878727614879608e-02 -1.296793073415756226e-01 2.210911735892295837e-02 1.496724337339401245e-01 -1.737301796674728394e-02 9.837377583608031273e-04 4.623867943882942200e-02 3.649638220667839050e-02 4.434554837644100189e-03 -3.919797763228416443e-02 -1.471456792205572128e-02 -1.312219798564910889e-01 -4.034221544861793518e-02 8.991363574750721455e-05 -7.776853628456592560e-03 5.468459054827690125e-02 9.347186423838138580e-03 1.017143763601779938e-02 2.705532126128673553e-02 5.974026396870613098e-02 9.470665454864501953e-02 -1.567072123289108276e-01 2.664291858673095703e-02 -6.673981249332427979e-02 1.289014331996440887e-02 -2.781374752521514893e-02 1.702626794576644897e-02 2.580063883215188980e-03 -1.595376431941986084e-02 -3.462327271699905396e-02 -6.215729285031557083e-03 -6.540106609463691711e-03 2.162323892116546631e-02 -2.778499200940132141e-02 -1.954939961433410645e-01 1.410456001758575439e-01 -6.177989393472671509e-02 -6.650906801223754883e-02 8.173876442015171051e-03 4.935312643647193909e-02 2.703314721584320068e-01 1.165098324418067932e-01 8.000513166189193726e-02 -2.127512395381927490e-01 4.151148349046707153e-02 6.370068527758121490e-03 -6.126238405704498291e-02 -5.652444064617156982e-02 -1.050293259322643280e-02 2.580626495182514191e-02 2.106044441461563110e-02 -5.731903016567230225e-03 6.437113136053085327e-02 -1.997205801308155060e-02 -5.381686240434646606e-02 -8.036468178033828735e-02 5.323860421776771545e-02 -7.375586777925491333e-03 -6.084484606981277466e-02 1.247383952140808105e-01 -7.769836485385894775e-02 2.215499244630336761e-02 7.381923031061887741e-03 -4.011288285255432129e-02 -3.211325407028198242e-02 -2.175685763359069824e-02 8.700622245669364929e-03 -2.534908354282379150e-01 1.191039979457855225e-01 7.001248002052307129e-02 -1.282142009586095810e-02 -2.645497620105743408e-01 9.002419561147689819e-02 6.341479718685150146e-02 -5.687900632619857788e-02 -4.665706306695938110e-02 1.745741516351699829e-01 4.569659531116485596e-01 -4.342119023203849792e-02 5.877226963639259338e-02 -1.217396408319473267e-01 4.154291935265064240e-03 1.284154597669839859e-02 -6.024632975459098816e-02 -3.903242945671081543e-02 -1.301916837692260742e-01 -1.895053684711456299e-02 -3.640529513359069824e-02 -1.362628210335969925e-02 7.463626563549041748e-02 -6.157166510820388794e-02 9.496744722127914429e-02 -2.148429118096828461e-02 5.495008826255798340e-02 -4.780126735568046570e-02 -1.243020817637443542e-01 -9.622350335121154785e-02 -3.761470690369606018e-02 -1.066675037145614624e-02 -3.675546869635581970e-02 1.230429392307996750e-02 -2.154155448079109192e-02 -2.695898897945880890e-02 2.344120852649211884e-02 -7.643912732601165771e-02 -2.478214725852012634e-02 2.500560134649276733e-02 3.676827996969223022e-02 -4.266756400465965271e-02 -2.148249596357345581e-01 1.992198675870895386e-01 -4.453751817345619202e-02 -5.418746918439865112e-02 -1.167119853198528290e-02 1.662575155496597290e-01 -6.427530199289321899e-02 7.085397839546203613e-02 -5.443831160664558411e-02 1.258848607540130615e-01 1.394935976713895798e-02 -7.054399698972702026e-02 -1.938345097005367279e-02 1.452785432338714600e-01 -4.563261941075325012e-02 -7.551493123173713684e-03 -2.797821164131164551e-02 1.009816750884056091e-01 4.433451592922210693e-02 -1.685936376452445984e-02 -2.861185558140277863e-02 3.703935444355010986e-02 -1.934189945459365845e-01 -2.277853190898895264e-01 1.435431465506553650e-02 1.577874124050140381e-01 1.448251120746135712e-02 -3.225306421518325806e-02 -3.942580893635749817e-02 7.370349485427141190e-03 -1.608261466026306152e-02 -1.360615622252225876e-02 -1.513145118951797485e-01 -3.718742728233337402e-02 -5.627009645104408264e-02 5.978935398161411285e-03 -1.849679797887802124e-01 1.094229053705930710e-02 1.185090318322181702e-01 -7.276660203933715820e-02 -5.752316676080226898e-03 -4.440966248512268066e-02 3.028088808059692383e-01 -6.011036783456802368e-02 1.190185919404029846e-01 2.403403399512171745e-03 1.485100984573364258e-01 8.309730328619480133e-03 -1.274399161338806152e-01 -3.217230737209320068e-02 -6.496548186987638474e-03 -5.395484622567892075e-04 -1.054715290665626526e-01 -4.579954594373703003e-02 1.567084938287734985e-01 -1.481896918267011642e-02 1.687443256378173828e-01 2.030601166188716888e-02 5.080723017454147339e-02 -7.649543881416320801e-02 -1.234908774495124817e-01 -1.421187818050384521e-01 7.282098289579153061e-03 1.012327447533607483e-01 2.634261734783649445e-03 -3.613957017660140991e-02 5.992899648845195770e-03 1.503955852240324020e-02 -3.253872040659189224e-03 -2.510258555412292480e-02 -1.412178277969360352e-01 5.402913689613342285e-02 -8.270655758678913116e-03 3.367923945188522339e-02 -6.676462292671203613e-02 -3.949587419629096985e-02 5.781790241599082947e-02 2.060347050428390503e-01 -5.729923769831657410e-02 -8.124953508377075195e-02 9.229000657796859741e-02 -3.889272212982177734e-01 -5.257231369614601135e-02 -1.833301633596420288e-01 -4.785154759883880615e-02 -1.855547539889812469e-02 6.422274559736251831e-02 -8.064123243093490601e-02 -1.326854377985000610e-01 3.051514364778995514e-02 1.486546397209167480e-01 -8.529876917600631714e-02 -1.941805779933929443e-01 1.086532771587371826e-01 -2.237817347049713135e-01 -1.494322121143341064e-01 -2.913995087146759033e-01 -4.738920927047729492e-02 -3.745027352124452591e-03 5.346781760454177856e-02 -1.550768911838531494e-01 -1.433472782373428345e-01 1.465926617383956909e-01 1.225722879171371460e-01 5.453374609351158142e-02 -6.532783061265945435e-02 2.163264341652393341e-02 -2.120392918586730957e-01 -2.587706744670867920e-01 -4.436167776584625244e-01 -2.733077481389045715e-02 -7.496106904000043869e-03 7.223615050315856934e-02 -2.106927931308746338e-01 -1.548484265804290771e-01 1.635333597660064697e-01 7.399403303861618042e-02 4.163596779108047485e-03 -1.777013204991817474e-02 -2.331014350056648254e-02 -4.027873277664184570e-01
-3.365555703639984131e-01 -3.399472832679748535e-01 9.229462593793869019e-02 -1.269927714020013809e-02 -6.704161316156387329e-02 1.210033670067787170e-01 -2.198932878673076630e-02 -4.141061101108789444e-03 1.396075487136840820e-01 6.460484117269515991e-02 -7.409453392028808594e-02 1.148161217570304871e-01 1.259695831686258316e-02 -1.385853141546249390e-01 -1.212710291147232056e-01 2.450820058584213257e-03 -3.624457865953445435e-02 -6.208790838718414307e-02 -1.119417995214462280e-01 -2.606862410902976990e-02 -1.599984057247638702e-02 -1.715047657489776611e-02 -9.308148175477981567e-03 -7.071956247091293335e-02 -6.526921689510345459e-02 7.549570500850677490e-02 -1.154155004769563675e-02 -8.944182842969894409e-02 2.447222941555082798e-04 1.795539632439613342e-02 -3.912728279829025269e-03 -3.210627660155296326e-02 -6.977237015962600708e-02 1.050707977265119553e-02 7.532214280217885971e-03 -1.038542296737432480e-02 1.780555397272109985e-02 -2.423913329839706421e-01 -2.464243769645690918e-01 9.882711619138717651e-02 -4.304837435483932495e-02 4.647239297628402710e-02 -8.672828972339630127e-02 -8.083650469779968262e-02 -7.915373891592025757e-02 -6.734208017587661743e-02 9.476536884903907776e-03 1.396474987268447876e-01 7.541066408157348633e-02 -4.274167120456695557e-02 -5.087361484766006470e-02 -7.562975399196147919e-03 -5.838246084749698639e-03 -3.364615887403488159e-02 -1.985620334744453430e-02 8.574470877647399902e-02 4.937193356454372406e-03 1.154811680316925049e-02 -5.918726790696382523e-03 6.013377755880355835e-02 -2.140539139509201050e-02 -3.752886503934860229e-02 -4.213512316346168518e-02 1.121190935373306274e-02 7.469691336154937744e-02 -8.255029469728469849e-02 7.091430574655532837e-02 9.895143657922744751e-02 -9.677204303443431854e-03 1.224776729941368103e-02 1.465185312554240227e-03 3.506628051400184631e-02 4.888578783720731735e-03 9.858825244009494781e-03 2.496341466903686523e-01 -5.879953876137733459e-02 5.113167688250541687e-02 5.089666694402694702e-02 -6.098763644695281982e-02 -1.204250473529100418e-02 4.036731552332639694e-03 -1.208294108510017395e-01 -9.892069548368453979e-02 -4.010677803307771683e-03 1.285233646631240845e-01 -1.108044609427452087e-01 -4.630919545888900757e-02 2.187008559703826904e-01 1.347795426845550537e-01 2.541140420362353325e-03 -4.679489880800247192e-02 -2.875182032585144043e-02 -6.946112029254436493e-03 -3.588692098855972290e-02 -6.132192537188529968e-02 -5.393019528128206730e-04 7.084878534078598022e-02 3.392121568322181702e-02 -1.308005116879940033e-02 4.051120486110448837e-03 1.386683527380228043e-02 -2.033670097589492798e-01 -1.068306937813758850e-01 -1.381139550358057022e-02 -1.205552443861961365e-01 -4.004967212677001953e-02 4.568475484848022461e-02 -2.807567827403545380e-02 6.787771824747323990e-03 -9.214808233082294464e-03 -2.056497149169445038e-02 2.907560169696807861e-01 1.202174462378025055e-02 5.253734067082405090e-02 -8.997970074415206909e-02 -7.099940627813339233e-02 3.139319596812129021e-04 -6.685490161180496216e-02 2.186120115220546722e-02 2.025250159204006195e-02 -3.089958801865577698e-02 1.576784253120422363e-01 -2.877556532621383667e-02 3.359136730432510376e-02 6.020379811525344849e-02 -1.072173286229372025e-02 1.027756091207265854e-02 -4.764384776353836060e-02 1.865266356617212296e-03 8.686267770826816559e-03 -5.066452547907829285e-03 1.678071799688041210e-03 1.332513755187392235e-03 8.479347825050354004e-02 -1.699510216712951660e-02 -8.191493153572082520e-02 -5.845053121447563171e-02 -4.546993970870971680e-02 1.010984778404235840e-01 -1.854852885007858276e-01 3.859366755932569504e-03 1.064409837126731873e-01 3.364681731909513474e-03 -5.236430838704109192e-02 4.061782360076904297e-02 -9.018757380545139313e-03 5.083948746323585510e-02 -1.133944280445575714e-02 6.359431743621826172e-01 2.955287694931030273e-01 1.817842721939086914e-01 -1.142013538628816605e-02 -6.415734440088272095e-02 2.535215765237808228e-02 -9.074678272008895874e-02 -1.371240057051181793e-02 -4.610067978501319885e-02 -5.828251317143440247e-02 2.344625145196914673e-01 4.958628490567207336e-02 9.810069203376770020e-02 -9.234981611371040344e-03 3.549161925911903381e-02 -8.306844159960746765e-03 -1.435552351176738739e-02 1.911842226982116699e-01 -6.325158476829528809e-02 -1.923100501298904419e-01 -9.748994559049606323e-02 -2.832836471498012543e-03 1.024617329239845276e-01 9.809365123510360718e-02 1.781978271901607513e-02 8.657188713550567627e-02 -4.403593018651008606e-02 -4.457354918122291565e-02 -1.411804258823394775e-01 -1.159275099635124207e-01 -1.306760162115097046e-01 4.916464909911155701e-02 7.375233620405197144e-02 -2.412720024585723877e-02 5.897118523716926575e-02 6.902334839105606079e-02 3.483935073018074036e-02 3.955731168389320374e-02 -2.028515636920928955e-01 -6.842859089374542236e-02 -1.236869543790817261e-01 -6.596247106790542603e-02 -2.247567847371101379e-02 -6.615500152111053467e-02 -1.342244744300842285e-01 -1.280722320079803467e-01 4.139618575572967529e-02 1.946370452642440796e-01 5.805364251136779785e-02 -8.546382188796997070e-02 -7.678058743476867676e-02 -1.949475407600402832e-01 -1.032987534999847412e-01 -6.961307674646377563e-02 3.933020308613777161e-02 1.328245997428894043e-01 -7.341792434453964233e-02 -4.979896172881126404e-02 -2.548950538039207458e-02 -1.568330228328704834e-01 1.508234590291976929e-01 4.393110424280166626e-02 -5.784815922379493713e-02 -1.060321107506752014e-01 -1.637223958969116211e-01 -1.397698372602462769e-01 -1.595382094383239746e-01 -3.698871005326509476e-03 -8.016959577798843384e-02 -7.406534999608993530e-02 8.563226088881492615e-03 -1.524660736322402954e-01 -1.186423096805810928e-02 1.846003234386444092e-01 1.260906308889389038e-01 -1.200532242655754089e-01 -1.141750812530517578e-01 -2.879890799522399902e-01 -1.453638523817062378e-01 -1.253153979778289795e-01 -1.072702407836914062e-01 1.835274323821067810e-02 -8.496858179569244385e-03 4.509559646248817444e-02 -9.920828044414520264e-02 -1.511934250593185425e-01 5.781880021095275879e-02 -2.455700747668743134e-02 -1.782854348421096802e-01
-2.460817396640777588e-01 1.567323803901672363e-01 -4.520558938384056091e-02 3.803209634497761726e-03 5.835849419236183167e-02 -2.502123080193996429e-02 -3.608263283967971802e-02 9.527149796485900879e-02 5.204085633158683777e-02 1.015864536166191101e-01 -2.609579265117645264e-01 2.232626639306545258e-02 -4.655668511986732483e-02 7.255963981151580811e-02 -5.531515553593635559e-02 -1.510967221111059189e-02 2.571316901594400406e-03 -4.500788450241088867e-02 -1.094284728169441223e-01 -9.009233862161636353e-02 -1.314051542431116104e-02 -1.310293679125607014e-03 8.062710985541343689e-03 -4.174166917800903320e-02 -3.497202694416046143e-02 -3.115543723106384277e-02 -4.527994431555271149e-03 3.722255676984786987e-02 5.684420093894004822e-02 7.791417837142944336e-02 -5.759989097714424133e-02 6.026411429047584534e-03 2.406136132776737213e-02 -3.846576809883117676e-02 1.143494620919227600e-02 1.426914893090724945e-02 3.326806426048278809e-02 -3.829550147056579590e-01 2.416328340768814087e-01 -8.485449105501174927e-02 1.342657804489135742e-01 6.394150853157043457e-02 1.372506469488143921e-01 -5.772100761532783508e-02 -1.279831677675247192e-01 -9.399288892745971680e-02 -5.288974940776824951e-02 -1.047560870647430420e-01 5.745531246066093445e-02 4.622478038072586060e-02 -3.681840375065803528e-02 9.736853092908859253e-02 2.186098834499716759e-03 1.897159777581691742e-02 -6.711610406637191772e-02 9.100219234824180603e-03 6.114041060209274292e-02 4.583561420440673828e-02 1.284205354750156403e-02 2.789260074496269226e-02 1.333816908299922943e-02 1.798168011009693146e-02 -7.047395408153533936e-02 3.289758414030075073e-02 -1.716906949877738953e-02 8.734548836946487427e-02 -4.811234772205352783e-02 1.390277687460184097e-02 -1.609568670392036438e-02 3.372564166784286499e-02 -2.626281231641769409e-03 1.787461154162883759e-02 1.694736257195472717e-02 -1.010822970420122147e-02 -2.792742550373077393e-01 2.226689457893371582e-01 4.899607598781585693e-02 -1.657694280147552490e-01 -1.296707391738891602e-01 2.381858415901660919e-02 -1.746841967105865479e-01 -5.560176074504852295e-02 1.310881227254867554e-01 4.478009790182113647e-02 -5.602836608886718750e-02 9.224163740873336792e-02 2.160035306587815285e-03 -1.815717853605747223e-02 -1.280471030622720718e-02 3.406465519219636917e-03 2.982784062623977661e-02 1.283265184611082077e-02 -6.023207213729619980e-03 4.562194272875785828e-02 -3.561889007687568665e-02 -5.071830935776233673e-03 -2.660340256989002228e-02 -7.570356130599975586e-02 7.064432650804519653e-02 -2.121657691895961761e-02 -2.341298758983612061e-02 3.537648916244506836e-02 7.853540009818971157e-04 5.194006953388452530e-03 5.503836274147033691e-02 1.207479368895292282e-02 -6.363297253847122192e-02 3.797847032546997070e-02 3.098908346146345139e-03 -4.158551618456840515e-02 3.817413700744509697e-03 -3.688555955886840820e-01 -4.457297036424279213e-04 -1.286913454532623291e-01 1.183468922972679138e-01 -4.597140476107597351e-02 1.068584397435188293e-01 1.949277669191360474e-01 2.014830708503723145e-01 -1.990535669028759003e-02 2.027369104325771332e-02 -1.900569349527359009e-01 -9.946285188198089600e-02 2.677530795335769653e-02 -1.029194593429565430e-01 3.268427029252052307e-02 -1.863602199591696262e-03 -3.171314951032400131e-03 1.005217283964157104e-01 -4.900516942143440247e-03 -5.667879059910774231e-02 3.328921645879745483e-02 4.623789340257644653e-03 -4.302175715565681458e-02 -1.600420218892395496e-04 -3.547363448888063431e-03 8.114899694919586182e-02 5.505608767271041870e-02 -1.645468473434448242e-01 1.599005460739135742e-01 -4.569381102919578552e-02 -6.725866347551345825e-02 2.664732933044433594e-02 -2.030096948146820068e-02 2.587297186255455017e-02 4.458583425730466843e-03 5.825614929199218750e-02 -4.263243637979030609e-03 -4.214358329772949219e-01 -8.870895951986312866e-02 -3.972192853689193726e-02 5.375087726861238480e-03 2.769510634243488312e-02 -3.044157288968563080e-02 -8.160556852817535400e-02 3.437434509396553040e-02 -1.675423681735992432e-01 6.569945812225341797e-02 -4.927730653434991837e-03 8.686012774705886841e-02 2.985721919685602188e-03 2.060866355895996094e-02 6.123165413737297058e-02 1.011436991393566132e-02 -2.163351885974407196e-02 9.762397408485412598e-02 -4.864373710006475449e-03 8.588775247335433960e-02 1.791128702461719513e-02 -4.737575072795152664e-04 -9.896059334278106689e-02 -9.655361622571945190e-02 -7.170778512954711914e-02 5.778500810265541077e-02 1.186814531683921814e-02 -1.035773977637290955e-01 -7.677490264177322388e-02 -9.059409610927104950e-03 -7.483841478824615479e-02 -1.983947306871414185e-02 3.256764635443687439e-02 3.595999255776405334e-02 -1.698354445397853851e-02 -4.884605761617422104e-03 -2.971960976719856262e-02 -1.025677993893623352e-01 1.782471239566802979e-01 1.991244219243526459e-02 5.224636942148208618e-02 -5.757823586463928223e-02 1.458878964185714722e-01 -6.106700748205184937e-02 1.703353598713874817e-02 -1.171369776129722595e-01 -1.142535358667373657e-01 -9.585803747177124023e-02 -8.047294802963733673e-03 3.609998896718025208e-02 2.168028056621551514e-02 1.342332214117050171e-01 2.479998953640460968e-02 -9.228393435478210449e-02 6.999569386243820190e-02 1.756902635097503662e-01 4.445255175232887268e-02 3.557319566607475281e-02 -1.345928609371185303e-01 -8.920346945524215698e-02 -5.372630059719085693e-02 1.248203963041305542e-02 2.241131290793418884e-02 3.093044087290763855e-02 1.820567548274993896e-01 1.271820068359375000e-01 -4.239258915185928345e-02 -4.626211151480674744e-02 -2.845761179924011230e-02 -7.281561940908432007e-02 4.400904849171638489e-02 -8.607527613639831543e-02 -9.538520127534866333e-03 -6.455860286951065063e-02 -9.802462905645370483e-02 1.217018067836761475e-01 3.913319110870361328e-02 1.313284039497375488e-01 1.115021631121635437e-01 -8.131024241447448730e-02 -6.160922721028327942e-02 8.659867942333221436e-02 -1.135208061896264553e-03 -9.311913698911666870e-02 -9.620746225118637085e-02 5.394315347075462341e-02 6.063454784452915192e-03 -1.188111081719398499e-01 3.030691295862197876e-02
-2.917402237653732300e-02 1.001094698905944824e+00 1.109882742166519165e-01 5.097156763076782227e-02 -5.213027354329824448e-03 1.993336342275142670e-02 -3.489686176180839539e-02 2.382322847843170166e-01 -8.371601253747940063e-02 2.137538045644760132e-02 1.044540293514728546e-02 2.808303236961364746e-01 2.902871929109096527e-02 9.700956940650939941e-02 -3.467749431729316711e-02 6.260951049625873566e-03 1.412621978670358658e-02 -1.651201024651527405e-02 5.129703320562839508e-03 1.840684935450553894e-02 2.983419457450509071e-03 7.882487843744456768e-04 -9.497298859059810638e-03 1.417214702814817429e-02 -3.043287806212902069e-02 1.318032015115022659e-02 -2.503089047968387604e-02 -5.090003833174705505e-02 -3.524988517165184021e-02 -1.400407589972019196e-02 4.991794750094413757e-02 9.993383660912513733e-03 -2.677098847925662994e-02 -8.164431783370673656e-04 -5.611483007669448853e-02 7.174476049840450287e-03 -1.511693559587001801e-02 -9.286519885063171387e-02 5.360230803489685059e-01 -1.143320575356483459e-01 -7.241360098123550415e-02 -2.513550221920013428e-01 -7.436444610357284546e-02 -4.537613596767187119e-03 -6.390286237001419067e-02 3.816787153482437134e-02 4.185805469751358032e-02 -5.179682374000549316e-02 1.146851107478141785e-02 2.830255776643753052e-02 1.100188270211219788e-01 -8.924122899770736694e-02 2.945354441180825233e-03 -8.711247704923152924e-03 -2.901819348335266113e-02 -3.719756379723548889e-02 -1.646450348198413849e-02 -1.959155080839991570e-03 -9.008307824842631817e-05 1.796191930770874023e-02 6.681042909622192383e-02 1.237802393734455109e-02 -4.481423646211624146e-02 1.038729399442672729e-02 -2.614677697420120239e-02 -2.100566215813159943e-02 -1.074191778898239136e-01 -9.617609530687332153e-02 6.874739192426204681e-03 -6.564868614077568054e-03 1.211659237742424011e-02 2.050791168585419655e-03 4.523476120084524155e-03 3.891731030307710171e-04 -5.488201044499874115e-03 -1.970255076885223389e-01 -1.120609417557716370e-01 7.985806092619895935e-03 1.458028703927993774e-01 -1.155926957726478577e-01 -3.885979577898979187e-02 3.287916257977485657e-02 9.375891834497451782e-02 -7.613766193389892578e-02 -1.441750675439834595e-01 -3.392510116100311279e-02 -3.123801574110984802e-02 3.606706112623214722e-02 5.078993737697601318e-02 6.523919291794300079e-04 1.339942123740911484e-02 -4.549158364534378052e-02 -6.074532493948936462e-02 8.852732926607131958e-02 -1.820961013436317444e-02 -1.172369462437927723e-03 -1.682788133621215820e-02 -1.607424020767211914e-02 -6.966967135667800903e-02 3.913395479321479797e-02 1.995168160647153854e-03 1.524120569229125977e-01 -1.791868731379508972e-02 4.000371322035789490e-02 -1.648602038621902466e-01 9.844660758972167969e-03 4.438744857907295227e-03 -7.889806292951107025e-03 -1.820263452827930450e-02 -1.400912646204233170e-02 -8.480079472064971924e-03 -7.016837596893310547e-02 -9.038753509521484375e-01 -7.337313145399093628e-02 7.333931978791952133e-03 8.927821367979049683e-02 -2.233317494392395020e-01 3.322479082271456718e-03 -3.965249657630920410e-02 1.628324761986732483e-02 -4.146250709891319275e-02 1.081649288535118103e-01 -1.603555381298065186e-01 -2.029333561658859253e-01 -7.850275188684463501e-02 -5.882750824093818665e-02 -2.294437494128942490e-03 6.794149521738290787e-03 -1.047658622264862061e-01 -8.987446874380111694e-02 -5.162628367543220520e-03 2.258417010307312012e-02 6.810083868913352489e-04 1.023126859217882156e-02 -2.240783534944057465e-02 -4.758267849683761597e-02 9.292989270761609077e-04 -4.937638062983751297e-03 -2.274927049875259399e-01 -1.129043549299240112e-01 8.338989317417144775e-02 1.314565986394882202e-01 4.625660367310047150e-03 -2.868825336918234825e-03 7.177619845606386662e-04 -4.503661021590232849e-02 -2.311811223626136780e-02 6.527246907353401184e-03 1.844355165958404541e-01 -1.494341731071472168e+00 -1.106899157166481018e-01 -3.301392123103141785e-02 -4.480441287159919739e-02 -1.338452287018299103e-02 -1.496804952621459961e-01 -1.462253481149673462e-01 -1.664150804281234741e-01 -1.570233143866062164e-02 9.742905199527740479e-02 -8.929388970136642456e-02 -1.788480952382087708e-02 2.409105561673641205e-02 -1.514903455972671509e-01 -3.135933540761470795e-03 -1.194023294374346733e-03 -2.304229438304901123e-01 -1.080285683274269104e-01 1.346818823367357254e-02 -1.538531854748725891e-02 3.010072745382785797e-03 3.729548305273056030e-03 8.071467280387878418e-03 -4.220825433731079102e-02 1.621203869581222534e-02 7.227797177620232105e-04 -1.681124120950698853e-01 -2.025905065238475800e-03 1.413527429103851318e-01 5.028475448489189148e-02 4.367538914084434509e-02 -1.895012892782688141e-02 -2.002284862101078033e-03 -3.510753810405731201e-02 -6.638732552528381348e-02 -4.483469761908054352e-03 5.418061465024948120e-02 4.238833859562873840e-02 1.185879483819007874e-01 9.173052757978439331e-02 4.794509336352348328e-02 -1.108682947233319283e-03 9.721905738115310669e-02 -1.051103919744491577e-01 1.874659359455108643e-01 6.100990623235702515e-02 4.100401327013969421e-02 -5.564354360103607178e-02 7.890561968088150024e-02 7.880307734012603760e-02 -3.476065350696444511e-03 1.471436321735382080e-01 2.314845845103263855e-02 4.796457663178443909e-02 4.974653571844100952e-02 9.630838036537170410e-02 -1.321639418601989746e-01 2.291242927312850952e-01 5.858565121889114380e-02 4.228809848427772522e-02 -8.677079528570175171e-02 -7.255744189023971558e-03 4.543983563780784607e-02 -1.801646687090396881e-02 8.889107406139373779e-02 -3.972337022423744202e-02 1.164445802569389343e-01 -2.743121422827243805e-02 9.781727194786071777e-02 -1.027529314160346985e-01 2.054309993982315063e-01 -2.278488827869296074e-03 8.577590808272361755e-03 -7.790935784578323364e-02 6.489480286836624146e-02 1.881040073931217194e-02 6.053929403424263000e-02 2.616376616060733795e-02 -2.992446534335613251e-02 1.089278683066368103e-01 5.701662600040435791e-02 1.229576617479324341e-01 -1.180483698844909668e-01 1.605347692966461182e-01 3.810446336865425110e-02 3.782784938812255859e-02 -1.220269501209259033e-01 1.291587203741073608e-01
-5.041249394416809082e-01 6.431827545166015625e-01 -1.220326963812112808e-02 -5.252053216099739075e-02 -8.640617877244949341e-02 9.724719822406768799e-02 2.490431629121303558e-02 4.099924117326736450e-02 5.084372684359550476e-02 8.260316401720046997e-02 -9.240957908332347870e-03 1.267125606536865234e-01 3.154073655605316162e-02 4.074022173881530762e-02 9.148953109979629517e-02 -1.666109776124358177e-03 7.669434696435928345e-02 -1.275822371244430542e-01 -1.208145469427108765e-01 -6.163678318262100220e-02 7.874200493097305298e-02 5.228291265666484833e-04 -6.014063954353332520e-03 3.757430613040924072e-02 6.662669777870178223e-02 -6.825637072324752808e-02 7.479859981685876846e-03 -3.820731937885284424e-01 6.870894227176904678e-03 -5.786183103919029236e-02 -5.437649413943290710e-02 -8.670008927583694458e-02 4.992837458848953247e-02 -2.090836688876152039e-02 5.359360948204994202e-02 7.663543336093425751e-03 1.676704734563827515e-02 -5.064007639884948730e-01 3.804018795490264893e-01 1.531228870153427124e-01 -1.293141208589076996e-02 -3.364376425743103027e-01 -8.057077974081039429e-02 6.248335167765617371e-02 8.961104601621627808e-02 -1.212099865078926086e-01 -1.771452128887176514e-01 -5.467873066663742065e-03 -5.428338889032602310e-03 4.583686217665672302e-02 2.013709209859371185e-02 -5.020430684089660645e-02 4.186296369880437851e-03 8.867404609918594360e-02 -1.774982511997222900e-01 -6.409741938114166260e-02 3.912633284926414490e-03 3.503558412194252014e-02 6.811348721385002136e-04 -4.762150719761848450e-02 1.271936744451522827e-01 6.559224426746368408e-02 1.052264347672462463e-01 4.373591765761375427e-02 -1.638269126415252686e-01 1.928637735545635223e-02 -1.016872934997081757e-02 5.123043805360794067e-02 -2.887501008808612823e-02 6.044512987136840820e-02 1.935643726028501987e-03 2.620313130319118500e-02 -6.731655914336442947e-03 7.458129432052373886e-03 -1.526597738265991211e-01 -7.198927924036979675e-03 -4.570161923766136169e-02 2.536523155868053436e-02 -6.635127216577529907e-02 4.393260180950164795e-02 -2.134381793439388275e-02 1.699250005185604095e-02 -1.069839373230934143e-01 -1.218028292059898376e-01 1.737503856420516968e-01 -1.695836312137544155e-03 -2.304054051637649536e-02 5.447742715477943420e-02 6.939836591482162476e-02 1.419061794877052307e-02 4.754209890961647034e-02 -1.218948215246200562e-01 -2.385456562042236328e-01 -2.693644165992736816e-02 2.216237597167491913e-02 -1.187852700240910053e-03 -2.436194568872451782e-02 1.336685731075704098e-03 9.821055084466934204e-02 -7.278431206941604614e-02 -5.502103269100189209e-02 -4.931368306279182434e-02 1.950082182884216309e-02 8.525790274143218994e-02 -3.626479208469390869e-02 -6.860677897930145264e-02 5.202653119340538979e-05 3.602114319801330566e-02 6.903809309005737305e-02 2.377543039619922638e-02 6.745786522515118122e-04 7.445175945758819580e-02 -3.168828487396240234e-01 1.773328036069869995e-01 1.033874973654747009e-02 -1.123706549406051636e-01 7.985714473761618137e-04 -4.714405909180641174e-02 3.219336643815040588e-02 -2.352367155253887177e-02 1.645845472812652588e-01 1.119543239474296570e-01 -3.041174635291099548e-02 1.330368686467409134e-02 3.524455428123474121e-02 2.930446155369281769e-02 2.282988280057907104e-03 3.499742224812507629e-02 -2.117946743965148926e-01 -1.103312522172927856e-01 3.155887871980667114e-02 5.406811088323593140e-02 1.363471150398254395e-02 -4.178354982286691666e-03 8.480671048164367676e-02 3.510305285453796387e-02 -4.351481050252914429e-02 5.652439221739768982e-02 -2.377976030111312866e-01 1.445120126008987427e-01 6.168353836983442307e-03 5.219665542244911194e-02 -1.562915276736021042e-03 4.455405473709106445e-02 -1.446423493325710297e-02 8.521062880754470825e-02 2.253852784633636475e-02 -1.259099133312702179e-02 4.804037809371948242e-01 -6.458427309989929199e-01 1.213618181645870209e-02 8.531174808740615845e-02 3.261141479015350342e-01 -1.001317352056503296e-01 -8.610613644123077393e-02 -3.278604149818420410e-02 1.397814154624938965e-01 6.166544556617736816e-02 -8.222398348152637482e-03 -3.465016186237335205e-02 1.463240832090377808e-01 1.107890233397483826e-01 7.343777269124984741e-02 1.083227689377963543e-03 1.961640082299709320e-02 -8.454014360904693604e-02 -1.226148381829261780e-01 -9.973261505365371704e-03 -4.322416707873344421e-02 -1.723662391304969788e-02 1.156646478921175003e-02 -2.564709261059761047e-02 5.136039480566978455e-02 9.034173563122749329e-03 3.312783315777778625e-02 -2.260630279779434204e-01 -2.032532915472984314e-02 2.283902652561664581e-02 2.660832600668072701e-03 -3.246590867638587952e-02 -4.483470227569341660e-03 -7.898076437413692474e-03 4.870684817433357239e-02 1.151018496602773666e-02 -3.618726134300231934e-02 -8.279929868876934052e-03 -7.484454661607742310e-02 -1.760128326714038849e-02 5.669088661670684814e-02 -1.225015968084335327e-01 1.636895537376403809e-02 -4.523638635873794556e-02 1.255866140127182007e-01 2.562270686030387878e-02 9.152913838624954224e-02 -1.021706685423851013e-01 -2.871943451464176178e-02 -1.370958387851715088e-01 1.301113422960042953e-02 -8.816104964353144169e-04 -3.134183352813124657e-03 2.596575766801834106e-02 9.291827445849776268e-04 -1.037477478384971619e-01 -8.422748744487762451e-02 2.474827468395233154e-01 -2.724380418658256531e-02 9.582888334989547729e-02 -3.267237916588783264e-02 5.823027342557907104e-02 -1.144446898251771927e-02 -2.571503818035125732e-02 -9.553661942481994629e-02 -6.015231087803840637e-02 2.244447730481624603e-02 7.415787130594253540e-02 -1.001799292862415314e-02 -8.804433792829513550e-02 2.561005353927612305e-01 -3.051713481545448303e-02 7.647723704576492310e-02 -9.001027792692184448e-02 3.553700074553489685e-02 1.517890207469463348e-02 -9.416162967681884766e-02 -1.134471595287322998e-01 2.529967948794364929e-02 -3.283249388914555311e-04 1.809093803167343140e-01 6.450363993644714355e-02 -7.337996363639831543e-02 2.731257677078247070e-01 -1.405743211507797241e-01 6.250418722629547119e-02 -3.027353249490261078e-02 1.649773865938186646e-01 -1.193494275212287903e-01
-4.531238079071044922e-01 6.751897931098937988e-01 6.004029139876365662e-02 9.779389202594757080e-02 -8.379907160997390747e-02 1.384018957614898682e-01 3.365598618984222412e-03 2.378006726503372192e-01 3.206798061728477478e-02 1.648651063442230225e-01 1.190174520015716553e-01 6.780430674552917480e-02 -7.172150909900665283e-02 -1.091702282428741455e-01 2.251677662134170532e-01 -6.241023540496826172e-03 2.047515474259853363e-02 4.501138627529144287e-02 -6.039199233055114746e-02 -4.140574857592582703e-02 3.192268684506416321e-02 8.081949315965175629e-03 -9.249057038687169552e-04 -8.108421228826045990e-03 6.722941529005765915e-03 -3.159143403172492981e-02 1.500864792615175247e-02 -9.430560469627380371e-02 1.829592138528823853e-02 3.607514128088951111e-02 -8.336021751165390015e-02 5.814874079078435898e-03 6.449712440371513367e-03 -4.102976061403751373e-03 -1.184589043259620667e-02 4.148520063608884811e-03 3.604501113295555115e-02 -2.123137414455413818e-01 3.241173028945922852e-01 5.886648222804069519e-02 2.094324119389057159e-02 6.494681537151336670e-02 1.262774914503097534e-01 1.209095790982246399e-01 -2.534386515617370605e-02 -3.297954052686691284e-02 -1.706968694925308228e-01 1.299020927399396896e-02 -6.092415750026702881e-02 9.091392904520034790e-02 -1.246976852416992188e-02 -1.866291016340255737e-01 -9.708667173981666565e-03 -6.555625237524509430e-03 -2.556379139423370361e-02 8.078909665346145630e-02 4.691262915730476379e-02 -6.037241313606500626e-03 1.143073569983243942e-02 2.633829228579998016e-02 -4.143619909882545471e-02 5.878824368119239807e-02 -3.730857372283935547e-02 -3.927790373563766479e-02 -1.838939189910888672e-01 -8.577260375022888184e-02 -6.879133731126785278e-02 8.507426083087921143e-02 -9.757258929312229156e-03 -2.538617514073848724e-02 -9.978311136364936829e-03 3.136210888624191284e-02 2.194383367896080017e-02 -1.109208818525075912e-02 1.349927205592393875e-02 1.480110138654708862e-01 3.819465637207031250e-02 -9.382270276546478271e-02 1.484950780868530273e-01 9.903880953788757324e-02 -4.237792268395423889e-02 -6.481657922267913818e-02 -1.089818496257066727e-02 -1.066260505467653275e-02 -6.267705559730529785e-02 9.582563489675521851e-02 3.069058433175086975e-02 1.034563928842544556e-01 9.303495287895202637e-02 -7.874154485762119293e-03 -1.614894252270460129e-03 -8.484330959618091583e-03 1.263947319239377975e-02 3.154475614428520203e-02 -1.263291225768625736e-03 9.029223583638668060e-03 2.426918968558311462e-02 -8.073048666119575500e-03 2.399102225899696350e-02 4.777500778436660767e-02 -9.502623230218887329e-03 -1.186949685215950012e-01 -1.039296165108680725e-01 -5.536093562841415405e-02 4.334806278347969055e-02 5.273591261357069016e-03 -1.193004287779331207e-02 -2.331362664699554443e-02 3.051747754216194153e-02 -1.180189661681652069e-03 2.634339220821857452e-02 7.228883355855941772e-02 -1.508745104074478149e-01 2.479947507381439209e-01 -2.942689321935176849e-02 1.392447054386138916e-01 9.463896043598651886e-03 6.669567525386810303e-02 5.727280303835868835e-02 -1.847515930421650410e-03 -1.547510176897048950e-01 2.084249863401055336e-03 2.828053236007690430e-01 -1.231584921479225159e-01 1.229695510119199753e-02 -1.398098468780517578e-01 6.449279375374317169e-03 1.374161429703235626e-02 -4.046089574694633484e-02 -1.042177975177764893e-01 8.159224689006805420e-02 -5.883968900889158249e-03 -7.663596770726144314e-04 1.198400370776653290e-02 1.518144086003303528e-02 -8.019754290580749512e-02 9.532563388347625732e-02 3.259155154228210449e-02 -8.079669624567031860e-02 -7.202898710966110229e-02 2.270907349884510040e-02 -5.926436930894851685e-02 1.074107736349105835e-02 1.440504286438226700e-02 -2.371268783463165164e-04 -1.741318218410015106e-02 1.177538465708494186e-02 2.504090964794158936e-02 4.459191858768463135e-01 -3.518017232418060303e-01 2.901948988437652588e-01 2.582429908215999603e-02 2.648173868656158447e-01 6.742822378873825073e-02 -9.953126311302185059e-03 -8.390882611274719238e-02 -2.798206917941570282e-02 1.797332428395748138e-02 1.185907330363988876e-02 -9.730710834264755249e-02 -4.321599379181861877e-02 -7.462431211024522781e-03 7.050648331642150879e-02 2.193151885876432061e-04 1.828226074576377869e-02 -2.483193576335906982e-02 -6.572442501783370972e-02 6.249917671084403992e-02 1.682464964687824249e-02 8.888400159776210785e-03 2.979527227580547333e-02 -5.993465334177017212e-02 -4.744311794638633728e-02 -2.912361733615398407e-02 5.408702418208122253e-02 -1.472202688455581665e-01 1.347399055957794189e-01 -2.156148552894592285e-01 5.634474754333496094e-02 -6.648216396570205688e-02 -2.585128694772720337e-02 -2.625569701194763184e-02 -2.250060439109802246e-02 9.708241559565067291e-04 2.713135816156864166e-02 1.006056438200175762e-03 7.570799440145492554e-03 6.462230533361434937e-02 -5.153396353125572205e-02 -5.474049132317304611e-03 2.742374315857887268e-02 2.388215623795986176e-02 7.435347884893417358e-02 -2.107498422265052795e-02 -7.191697508096694946e-02 -3.825019672513008118e-02 -5.245430767536163330e-02 -3.275714069604873657e-02 -3.991647809743881226e-02 3.539722412824630737e-02 -5.225845798850059509e-02 8.373463898897171021e-02 4.906567186117172241e-02 -2.791187725961208344e-02 4.123971611261367798e-02 1.372447423636913300e-02 -6.205179914832115173e-02 -4.428931511938571930e-03 -1.693527214229106903e-03 -9.574390202760696411e-02 -1.993662677705287933e-02 -1.224741563200950623e-01 3.843002766370773315e-02 -5.299912299960851669e-03 3.493874892592430115e-02 1.007010936737060547e-01 -5.141910538077354431e-02 -1.217263191938400269e-02 3.397125750780105591e-02 -1.539839711040258408e-02 -3.855194896459579468e-02 -1.483398228883743286e-01 -6.830353289842605591e-02 -1.428772956132888794e-01 5.070136487483978271e-02 1.043223589658737183e-02 3.587749972939491272e-02 5.985786393284797668e-02 2.763403952121734619e-01 5.972006171941757202e-02 -3.070232458412647247e-02 4.912200383841991425e-03 -1.242147684097290039e-01 -1.334529519081115723e-01 -1.667273789644241333e-02 8.879744261503219604e-02 -9.752318263053894043e-03
1.321743279695510864e-01 -7.375966310501098633e-01 -2.140299379825592041e-01 1.012948155403137207e-01 5.610991641879081726e-02 -9.367604553699493408e-02 -9.924843162298202515e-02 6.661292165517807007e-02 8.786064386367797852e-02 1.492281109094619751e-01 6.729555875062942505e-02 3.225966915488243103e-02 3.172764927148818970e-02 9.110555052757263184e-02 -2.143818512558937073e-02 1.342285051941871643e-02 -5.846703425049781799e-03 -2.639384707435965538e-03 1.247587352991104126e-01 -5.179677531123161316e-02 -2.273624762892723083e-02 -2.362984791398048401e-02 2.135747857391834259e-02 1.002617254853248596e-01 9.264717996120452881e-02 3.049892548006027937e-04 6.163898855447769165e-03 -1.781620532274246216e-01 -1.538584940135478973e-02 3.832258656620979309e-02 2.407676726579666138e-02 -1.741116121411323547e-02 1.111746393144130707e-02 -4.244433715939521790e-02 3.423368325456976891e-03 1.992822438478469849e-02 2.322993241250514984e-02 -2.080346830189228058e-02 -5.267761945724487305e-01 -6.032075360417366028e-02 9.697820246219635010e-02 7.162181288003921509e-02 -3.775233775377273560e-02 2.778944000601768494e-02 -5.651521682739257812e-02 2.610809728503227234e-02 6.982707884162664413e-03 -1.165079101920127869e-01 -3.137622401118278503e-02 -8.864922076463699341e-02 6.248763203620910645e-02 3.647928591817617416e-03 -5.327436141669750214e-03 2.055408619344234467e-02 -2.407279564067721367e-03 -1.457490026950836182e-01 -1.179846283048391342e-02 2.012196369469165802e-02 2.360623888671398163e-02 3.042385168373584747e-02 -1.159504726529121399e-01 -4.719187319278717041e-02 1.693831197917461395e-02 -4.013433679938316345e-02 -1.298867911100387573e-01 -2.356614172458648682e-01 1.923482567071914673e-01 -4.282554984092712402e-02 1.029115263372659683e-02 -9.454085491597652435e-03 6.827161461114883423e-02 2.615644130855798721e-03 3.942569345235824585e-02 -3.770032897591590881e-02 -1.149736493825912476e-01 -8.688260614871978760e-02 -1.127238124608993530e-01 -2.147529870271682739e-01 5.947797093540430069e-03 -1.358286291360855103e-01 2.057273089885711670e-01 1.400938481092453003e-01 -2.392684668302536011e-02 -1.861084699630737305e-01 6.441813707351684570e-02 -1.318360865116119385e-01 -1.591914445161819458e-01 -3.476884216070175171e-02 -1.495664417743682861e-01 2.464120334479957819e-04 -1.357841212302446365e-02 -3.760194033384323120e-02 -1.400673687458038330e-01 4.772610589861869812e-02 1.982245966792106628e-02 1.302796415984630585e-03 2.904411405324935913e-02 6.771523039788007736e-04 1.454783789813518524e-02 -2.824588306248188019e-02 -9.662033058702945709e-03 -3.063298761844635010e-02 -1.659497246146202087e-02 -1.530029997229576111e-02 -8.895944803953170776e-02 5.205236747860908508e-02 5.075649358332157135e-03 -1.002008244395256042e-01 1.975149661302566528e-02 7.494065444916486740e-03 -2.668421901762485504e-02 -2.475385367870330811e-01 2.980199754238128662e-01 9.933363646268844604e-02 8.443556725978851318e-02 3.272740170359611511e-02 4.285670816898345947e-02 -4.095557145774364471e-03 1.712656170129776001e-01 1.071028783917427063e-01 7.992431521415710449e-02 -4.075639322400093079e-02 -2.884377352893352509e-02 -9.094680845737457275e-02 -1.323301196098327637e-01 4.508682340383529663e-02 2.248103730380535126e-02 2.162389084696769714e-02 2.049772627651691437e-02 2.752460353076457977e-02 -5.184169858694076538e-03 1.231396384537220001e-02 -3.452179580926895142e-02 3.454182995483279228e-03 6.768289953470230103e-03 -5.058361589908599854e-02 5.157094448804855347e-02 4.480055347084999084e-02 -8.771323412656784058e-02 -8.941768109798431396e-02 -1.300986260175704956e-01 7.183363288640975952e-02 -2.182308211922645569e-02 -1.269653625786304474e-02 5.895968060940504074e-03 -4.255780950188636780e-02 -2.041926421225070953e-02 3.266038000583648682e-02 -6.800541281700134277e-02 5.655872821807861328e-01 1.064734607934951782e-01 -3.354663774371147156e-02 -2.410462312400341034e-02 1.440190821886062622e-01 -1.650033704936504364e-02 4.674593359231948853e-02 -3.612725436687469482e-02 2.487145178020000458e-02 -1.443921476602554321e-01 -6.281776726245880127e-02 -9.739084541797637939e-02 -1.583633199334144592e-02 -9.018770419061183929e-03 6.544175557792186737e-04 1.122129708528518677e-02 -4.471749439835548401e-02 1.149191483855247498e-01 9.222766757011413574e-02 1.359472796320915222e-02 1.659839414060115814e-02 3.044142946600914001e-02 5.561176314949989319e-02 -6.099923700094223022e-02 3.201365098357200623e-02 -2.219342067837715149e-02 -6.475558876991271973e-02 1.553666591644287109e-01 -1.629125885665416718e-02 -3.494533151388168335e-02 -2.990487590432167053e-02 1.667325757443904877e-02 -1.333678606897592545e-02 -5.974686145782470703e-02 -2.660242095589637756e-02 -1.917191548272967339e-03 1.228897199034690857e-01 -5.988258495926856995e-02 1.136121079325675964e-01 1.013225689530372620e-01 -6.724536418914794922e-02 -5.151003599166870117e-02 -3.196449950337409973e-02 -2.017193846404552460e-02 7.500875741243362427e-02 4.667967185378074646e-02 1.482525616884231567e-01 -3.577965870499610901e-02 -6.961070746183395386e-02 -1.637752749957144260e-03 -5.632470920681953430e-02 -7.652929518371820450e-03 4.655617848038673401e-02 -1.089638322591781616e-01 -9.999623522162437439e-03 8.401009440422058105e-02 -8.391076326370239258e-02 2.724425494670867920e-02 7.665096316486597061e-03 -1.865795440971851349e-02 -9.425685554742813110e-02 -5.792712047696113586e-02 3.606495261192321777e-02 4.555248469114303589e-02 -8.612076938152313232e-02 -5.592844635248184204e-02 -8.582774549722671509e-02 1.333931684494018555e-01 1.073695346713066101e-01 4.881229251623153687e-03 -6.390371918678283691e-02 8.662647753953933716e-02 -8.675695955753326416e-02 -5.099677667021751404e-02 -1.394087970256805420e-01 4.850387945771217346e-02 1.681344583630561829e-02 -5.653868615627288818e-02 -9.751114062964916229e-03 -7.396453619003295898e-02 -3.296390175819396973e-02 -1.292191892862319946e-01 -6.883093714714050293e-02 -6.126297265291213989e-02 -4.866022989153862000e-02 -1.321740541607141495e-02 -2.695424109697341919e-02 1.146207749843597412e-02
-2.248620837926864624e-01 -5.896543618291616440e-03 7.301672548055648804e-02 -9.050656110048294067e-02 1.318615227937698364e-01 -4.249711334705352783e-02 2.008324302732944489e-02 -1.239199414849281311e-01 -4.914593324065208435e-02 5.465460196137428284e-02 -1.381230205297470093e-01 -1.012989580631256104e-01 -1.606891006231307983e-01 7.524866610765457153e-02 -1.418598741292953491e-01 1.235038414597511292e-02 4.521922767162322998e-02 8.405724912881851196e-02 -6.051898375153541565e-02 -2.960159629583358765e-02 3.824481740593910217e-02 3.749476978555321693e-03 2.374878525733947754e-02 -7.045410573482513428e-02 2.591662853956222534e-02 -1.086242124438285828e-01 4.448819532990455627e-02 2.244636230170726776e-02 3.293167650699615479e-01 -4.478567466139793396e-02 2.635275200009346008e-02 -5.297562852501869202e-02 -5.498324707150459290e-02 1.336759608238935471e-02 5.604161694645881653e-02 -5.318959010764956474e-04 9.583582170307636261e-03 -1.542159616947174072e-01 1.014586016535758972e-01 -6.721711903810501099e-02 3.600976616144180298e-02 -3.425221145153045654e-02 1.470996737480163574e-01 6.300611793994903564e-02 5.960285663604736328e-02 -5.113456025719642639e-02 3.544621914625167847e-02 -9.645456448197364807e-03 -1.212640404701232910e-01 5.936883389949798584e-02 -5.296077206730842590e-02 2.966811507940292358e-02 -3.830129513517022133e-03 3.516339231282472610e-03 -4.161309450864791870e-02 1.029266938567161560e-01 -1.946268603205680847e-02 -3.771930560469627380e-02 9.089441155083477497e-04 -5.264700949192047119e-02 -2.589177154004573822e-02 3.378559777047485113e-04 3.803502768278121948e-02 -5.814030766487121582e-02 6.187917664647102356e-02 7.754235714673995972e-02 9.175873547792434692e-02 -1.126511693000793457e-01 -1.348748989403247833e-02 2.554303966462612152e-02 -3.440693393349647522e-02 -5.353284627199172974e-02 3.820623084902763367e-02 1.839293353259563446e-02 -3.398540988564491272e-02 -1.236410439014434814e-01 4.870264977216720581e-02 -5.502746626734733582e-02 -3.701186552643775940e-02 1.330191642045974731e-01 -6.490778923034667969e-02 2.286830358207225800e-02 -4.216115549206733704e-02 1.268484164029359818e-02 -1.017688959836959839e-01 2.248100563883781433e-02 -3.211989067494869232e-03 3.122368641197681427e-02 6.578109459951519966e-04 -1.542101148515939713e-02 -7.176623214036226273e-03 -8.128771185874938965e-02 -6.900894641876220703e-02 4.203832894563674927e-02 5.719386413693428040e-02 1.555677596479654312e-02 -6.402745097875595093e-02 7.451660186052322388e-02 -2.512411959469318390e-02 1.692925766110420227e-02 -2.008827589452266693e-02 5.241282284259796143e-02 1.844034194946289062e-01 4.504062235355377197e-03 -1.731964573264122009e-02 9.629471227526664734e-03 2.544738352298736572e-02 -4.156736284494400024e-02 -3.103101626038551331e-02 -8.915169164538383484e-03 9.603659622371196747e-03 8.355711400508880615e-02 1.632414609193801880e-01 -4.246705397963523865e-02 -6.767593324184417725e-02 7.877124845981597900e-02 6.303747743368148804e-02 -1.364747583866119385e-01 6.631948053836822510e-02 1.646990329027175903e-01 5.560181662440299988e-02 -2.183375693857669830e-02 -1.234913244843482971e-02 4.315726459026336670e-02 -6.321823596954345703e-02 -4.650909081101417542e-02 8.218932896852493286e-03 2.176582440733909607e-02 1.339630782604217529e-01 1.333802789449691772e-01 -5.518724676221609116e-03 7.037143688648939133e-03 1.357523724436759949e-02 -4.244843870401382446e-02 2.073227800428867340e-02 1.896111108362674713e-02 8.308322727680206299e-02 3.504092618823051453e-02 1.249733269214630127e-01 1.108167469501495361e-01 -4.781200736761093140e-02 4.485633224248886108e-02 -8.661542087793350220e-03 1.376863196492195129e-02 2.828493341803550720e-02 -1.215904764831066132e-02 -1.723304507322609425e-03 -3.074952634051442146e-03 4.604783952236175537e-01 5.904722958803176880e-02 -1.644326560199260712e-02 -7.106914184987545013e-03 1.159437373280525208e-01 5.758838728070259094e-03 -1.268755737692117691e-02 -8.186813443899154663e-02 -5.560075864195823669e-03 -1.348639279603958130e-01 -1.241258811205625534e-02 -1.954555325210094452e-02 -2.062057852745056152e-01 4.627015441656112671e-03 6.965110450983047485e-02 -1.585300266742706299e-02 -6.189620122313499451e-03 -4.170912876725196838e-02 -1.545558571815490723e-01 6.172673031687736511e-02 -2.495969831943511963e-02 2.250398881733417511e-02 -6.768567860126495361e-02 -1.870480775833129883e-01 -4.080358520150184631e-02 -8.621947467327117920e-02 2.168416045606136322e-02 -6.234590336680412292e-02 2.073953151702880859e-01 -4.913983866572380066e-02 8.887291699647903442e-02 -1.937237754464149475e-02 3.628379851579666138e-02 5.199074000120162964e-02 -4.161719605326652527e-02 1.113363541662693024e-02 -2.348785474896430969e-02 1.344541013240814209e-01 1.992295831441879272e-01 5.867182835936546326e-02 -9.429454803466796875e-02 -1.454539299011230469e-01 8.120007812976837158e-03 9.323044680058956146e-03 3.578816354274749756e-02 -3.660220652818679810e-02 -3.492706269025802612e-02 7.355311419814825058e-03 -3.464559838175773621e-02 3.692337870597839355e-02 -9.455289691686630249e-03 1.105292141437530518e-01 2.784873358905315399e-02 -9.042197465896606445e-02 -1.277652289718389511e-02 4.616685956716537476e-02 -1.012909859418869019e-01 1.508205831050872803e-01 -8.514007553458213806e-03 4.505536332726478577e-02 5.205699801445007324e-02 -7.380118966102600098e-02 3.895026398822665215e-03 -1.300756782293319702e-01 2.656812034547328949e-02 2.503640018403530121e-02 -8.703955262899398804e-02 -1.565328836441040039e-01 9.835934638977050781e-02 -3.551204875111579895e-02 5.156526342034339905e-02 -5.429558455944061279e-02 -5.410789698362350464e-02 -1.429735403507947922e-02 -1.509005427360534668e-01 1.742447353899478912e-02 2.306437492370605469e-02 1.257424354553222656e-01 1.099002286791801453e-01 5.631198640912771225e-03 -1.055754646658897400e-01 4.838462918996810913e-02 8.804038912057876587e-02 5.369408428668975830e-02 4.467263817787170410e-03 1.355101075023412704e-02 -6.073325872421264648e-03 1.046556141227483749e-02 2.559775114059448242e-02
-2.793464250862598419e-02 6.199088692665100098e-01 7.729062438011169434e-02 -7.902140729129314423e-03 -1.827678680419921875e-01 -1.127254776656627655e-02 -1.993651837110519409e-01 6.587252765893936157e-02 1.164535433053970337e-02 -1.374734193086624146e-02 -7.729372382164001465e-02 4.760530591011047363e-02 -9.825701266527175903e-02 -3.246128931641578674e-02 7.279808819293975830e-02 -7.481990382075309753e-03 -1.335213519632816315e-02 -6.646505743265151978e-02 -5.245258286595344543e-02 -3.536514192819595337e-02 2.054348587989807129e-04 3.360850270837545395e-03 -3.752585034817457199e-03 -5.009343847632408142e-03 -1.946251653134822845e-02 -3.481780737638473511e-02 -2.387663722038269043e-02 5.935892090201377869e-02 2.079691179096698761e-02 -7.177340984344482422e-02 -2.374429255723953247e-02 3.704946720972657204e-03 2.684015966951847076e-02 -2.628114540129899979e-03 4.151649028062820435e-02 1.430694200098514557e-02 -2.640422247350215912e-02 -2.540815770626068115e-01 2.238524556159973145e-01 -4.866060614585876465e-02 -4.450165480375289917e-02 -3.291673064231872559e-01 -4.795650392770767212e-02 1.670045033097267151e-02 -1.750426590442657471e-01 -5.672221258282661438e-02 7.844726741313934326e-02 -1.278262436389923096e-01 5.143813043832778931e-02 -7.825479842722415924e-03 -7.254464924335479736e-02 2.972873486578464508e-02 -2.157419687137007713e-03 1.595579646527767181e-02 -9.442140907049179077e-02 -7.861240208148956299e-02 -2.964373677968978882e-02 -1.200278173200786114e-03 -3.484355111140757799e-04 -1.213706564158201218e-02 7.637713104486465454e-02 1.221642494201660156e-01 2.109691873192787170e-02 -1.516770664602518082e-02 1.134146470576524734e-02 9.374343603849411011e-02 -1.614282652735710144e-02 -1.899617537856101990e-02 -1.403501722961664200e-02 5.108808632940053940e-03 1.006998959928750992e-02 -1.259225793182849884e-02 6.953248288482427597e-03 -2.579447068274021149e-02 -4.897196888923645020e-01 -7.271494716405868530e-02 -6.923374533653259277e-02 2.428211644291877747e-02 -3.349703550338745117e-01 5.808443296700716019e-03 6.615988444536924362e-03 -1.042124256491661072e-01 -5.147237330675125122e-02 -6.996361911296844482e-02 -1.496291458606719971e-01 2.440203279256820679e-01 1.158624980598688126e-02 1.834093034267425537e-02 8.717303723096847534e-02 -5.409411969594657421e-04 -9.189067408442497253e-03 1.316352654248476028e-02 -1.573351584374904633e-02 -1.470112800598144531e-02 1.186232827603816986e-02 -6.948749069124460220e-03 -2.602598816156387329e-02 6.938914209604263306e-02 1.124208644032478333e-01 -2.448804443702101707e-03 7.065855432301759720e-03 -1.609728932380676270e-01 1.203004494309425354e-01 3.928512707352638245e-02 -1.336041986942291260e-01 -1.434513484127819538e-03 6.758080329746007919e-03 3.472514916211366653e-03 -1.265570335090160370e-02 2.064974280074238777e-03 -2.088017202913761139e-02 -6.043085455894470215e-01 -3.500985503196716309e-01 -1.162780225276947021e-01 -1.419358998537063599e-01 -1.565721184015274048e-01 8.281564712524414062e-02 -1.332565248012542725e-01 -8.020786195993423462e-02 -4.776219278573989868e-02 1.447230130434036255e-01 -3.060296922922134399e-02 -1.212382316589355469e-02 -3.680449351668357849e-02 -5.817826464772224426e-02 -1.676226556301116943e-01 -1.454362180083990097e-03 -2.697346732020378113e-03 -6.411825120449066162e-02 -1.141819283366203308e-01 -5.123340710997581482e-02 -1.170646212995052338e-02 -2.686740364879369736e-03 -3.036642633378505707e-02 3.187548741698265076e-02 8.497082162648439407e-04 6.662630289793014526e-02 -3.524147672578692436e-03 2.991015091538429260e-02 7.080367952585220337e-02 -4.447644948959350586e-02 9.405557066202163696e-02 5.585129372775554657e-03 1.488562673330307007e-02 -1.771208085119724274e-02 -3.476282954216003418e-02 1.671697478741407394e-03 -5.600683018565177917e-02 -8.119910359382629395e-01 -5.426249504089355469e-01 -2.251336872577667236e-01 5.746626481413841248e-02 -5.086836218833923340e-02 -4.067062586545944214e-02 6.197921186685562134e-02 -2.088619768619537354e-01 -3.359898924827575684e-02 3.252887353301048279e-02 -6.188774108886718750e-02 1.358448863029479980e-01 9.776680916547775269e-02 7.002864498645067215e-03 -1.899008154869079590e-01 -4.815175489056855440e-04 -2.748651057481765747e-02 2.353005111217498779e-03 -1.186413764953613281e-01 -2.365348488092422485e-02 1.720401458442211151e-02 -2.242030343040823936e-03 -5.781067535281181335e-02 1.254582703113555908e-01 5.684236530214548111e-03 3.138331696391105652e-02 -8.695688098669052124e-03 -5.028944462537765503e-02 1.741531342267990112e-01 4.781325533986091614e-02 -4.396527633070945740e-02 3.341120854020118713e-02 2.295870333909988403e-02 -3.369384258985519409e-02 -5.769092589616775513e-02 3.144747391343116760e-02 -6.714259088039398193e-02 -6.629230082035064697e-02 9.134271740913391113e-02 -1.106168851256370544e-01 1.007703598588705063e-02 5.570355802774429321e-02 2.514344267547130585e-02 7.310975342988967896e-02 6.383182108402252197e-02 3.925698250532150269e-02 -4.255935549736022949e-02 -9.628544747829437256e-02 -4.492157325148582458e-02 5.724402144551277161e-02 3.418222814798355103e-02 8.047533780336380005e-02 -1.839224845170974731e-01 -5.869066342711448669e-02 7.375226169824600220e-02 2.868801914155483246e-02 1.389063000679016113e-01 3.874618560075759888e-02 1.790647953748703003e-02 1.670069247484207153e-02 -1.349464654922485352e-01 1.922145672142505646e-02 2.787645533680915833e-02 3.716616332530975342e-02 5.927893891930580139e-02 -8.862100541591644287e-02 -1.201055347919464111e-01 -1.847487292252480984e-03 4.508200660347938538e-02 2.360497787594795227e-02 8.245258592069149017e-03 9.615390002727508545e-02 6.078378856182098389e-02 -1.912909187376499176e-02 6.919841468334197998e-02 -4.800450801849365234e-02 2.689213119447231293e-02 1.714144833385944366e-02 -1.490903794765472412e-01 -1.688886284828186035e-01 4.401877522468566895e-02 -8.347725868225097656e-02 1.332603424089029431e-04 -2.335987240076065063e-02 7.834420353174209595e-02 -2.584593603387475014e-03 3.563644737005233765e-02 -5.688766390085220337e-02 4.296911135315895081e-02
1.246201023459434509e-01 1.215980887413024902e+00 5.081677809357643127e-02 -1.779430061578750610e-01 3.058838425204157829e-03 -1.028214842081069946e-01 -2.209225445985794067e-01 -6.150534376502037048e-02 -1.390389800071716309e-01 -2.497678995132446289e-02 2.284483797848224640e-02 7.281722873449325562e-02 1.438791304826736450e-01 2.193337976932525635e-01 4.064837843179702759e-02 -5.323748337104916573e-04 -5.950309336185455322e-03 -2.093729749321937561e-02 -3.234125301241874695e-02 -9.385050274431705475e-03 -2.266597189009189606e-02 4.106113221496343613e-03 -5.128513090312480927e-03 4.420766606926918030e-03 2.507252618670463562e-03 2.564731054008007050e-02 3.136515384539961815e-03 1.499247252941131592e-01 5.314204096794128418e-02 -6.692547351121902466e-02 1.216874830424785614e-02 2.597835147753357887e-03 1.215167576447129250e-03 -1.523411134257912636e-03 -2.319983579218387604e-02 -2.274070167914032936e-03 -4.395130090415477753e-03 -1.741894334554672241e-01 3.579269945621490479e-01 -1.598323434591293335e-01 6.724401563405990601e-02 -1.485911756753921509e-01 3.651815280318260193e-02 -1.102056726813316345e-02 1.343852132558822632e-01 1.828605532646179199e-01 1.078077219426631927e-02 3.386020427569746971e-03 -4.727909713983535767e-02 8.982218056917190552e-02 -1.634017378091812134e-01 -8.763883262872695923e-02 -2.069030888378620148e-03 -1.742205396294593811e-02 -3.023773245513439178e-02 -9.891953319311141968e-02 5.315214861184358597e-03 5.080068018287420273e-03 -4.134438466280698776e-03 -1.115393359214067459e-02 3.068726323544979095e-02 7.231235504150390625e-02 5.797452852129936218e-02 8.232716470956802368e-03 -1.151604205369949341e-02 1.969437450170516968e-01 7.246524840593338013e-02 -7.215016335248947144e-02 -7.819489575922489166e-03 1.481130160391330719e-02 3.310943394899368286e-02 9.940738789737224579e-03 -7.251966744661331177e-03 -1.824099943041801453e-02 -3.289086222648620605e-01 -2.015274018049240112e-01 9.040545672178268433e-03 2.445199899375438690e-02 6.875325739383697510e-02 1.078200265765190125e-01 -8.246974647045135498e-02 8.779277652502059937e-02 7.640318572521209717e-02 -1.458430886268615723e-01 -2.700758166611194611e-02 2.285036258399486542e-02 -5.831939727067947388e-02 1.379539817571640015e-01 1.506113559007644653e-01 -9.139903821051120758e-03 -1.111918780952692032e-02 -1.151095107197761536e-01 -8.880052715539932251e-02 6.464317906647920609e-03 -1.746633276343345642e-02 -3.865952603518962860e-03 1.839942415244877338e-03 -4.238314577378332615e-04 8.890750259160995483e-02 -3.031735867261886597e-02 -4.026833921670913696e-03 -1.114406958222389221e-01 1.041270419955253601e-01 1.759080402553081512e-02 -3.210666030645370483e-02 -1.174341700971126556e-02 1.356076169759035110e-02 1.633367501199245453e-02 -4.987144842743873596e-02 -7.980307564139366150e-03 -1.497450284659862518e-02 -6.012639999389648438e-01 -9.446913003921508789e-01 -2.817547507584095001e-02 -1.047687325626611710e-02 -1.558497548103332520e-01 -1.813717931509017944e-01 2.511406876146793365e-02 -4.934798553586006165e-02 -4.819604754447937012e-02 5.631113424897193909e-02 6.113479286432266235e-02 -2.124151447787880898e-03 -9.957478940486907959e-02 9.078318625688552856e-02 -9.125266224145889282e-02 -1.380296889692544937e-02 8.426447398960590363e-03 -8.385561406612396240e-02 -9.391319751739501953e-02 -2.699468284845352173e-02 1.108896359801292419e-02 -7.263623178005218506e-03 3.758173808455467224e-02 7.305279374122619629e-02 3.496098518371582031e-02 1.004822179675102234e-01 1.533306553028523922e-03 1.146965771913528442e-01 2.496191672980785370e-02 -7.884830236434936523e-03 -3.646473214030265808e-02 -7.917381823062896729e-03 3.881427925080060959e-03 -1.109050773084163666e-02 2.662949822843074799e-02 -2.379501052200794220e-02 -1.676914654672145844e-02 -6.664325594902038574e-01 -1.610603213310241699e+00 -9.716981090605258942e-03 3.316431120038032532e-02 4.474673047661781311e-02 -8.272891491651535034e-02 -2.815135568380355835e-02 -5.986237525939941406e-02 -4.717097431421279907e-02 6.150425970554351807e-02 -5.151126161217689514e-02 -5.924626439809799194e-02 -9.037790820002555847e-03 -1.726166717708110809e-02 9.660200774669647217e-02 -2.060765214264392853e-02 9.140929207205772400e-03 -5.598467215895652771e-02 -1.378072351217269897e-01 -8.771775756031274796e-04 2.842382714152336121e-02 -4.684206563979387283e-03 4.285760596394538879e-02 -9.446294605731964111e-02 3.337936848402023315e-02 9.277674555778503418e-02 2.896323427557945251e-02 1.410839855670928955e-01 7.000967860221862793e-02 1.151942685246467590e-01 9.815643727779388428e-02 1.102623995393514633e-02 -1.453290879726409912e-02 6.717899441719055176e-02 -2.142259478569030762e-02 -1.382392644882202148e-02 -6.809374690055847168e-02 5.149175971746444702e-02 2.814857847988605499e-02 1.064274013042449951e-01 -4.816749319434165955e-02 4.488937184214591980e-02 -8.102599531412124634e-02 5.991609767079353333e-02 -5.791964009404182434e-02 1.679701954126358032e-01 3.743120236322283745e-03 7.298239320516586304e-02 3.453752433415502310e-04 1.012440621852874756e-01 3.560026735067367554e-02 1.327269524335861206e-02 1.338402181863784790e-01 -9.848356992006301880e-02 2.231338433921337128e-02 6.124984938651323318e-04 8.614940196275711060e-02 -1.089860051870346069e-01 2.388875484466552734e-01 2.405976317822933197e-02 7.554499059915542603e-02 -2.531795762479305267e-02 5.760340392589569092e-02 4.204573854804039001e-02 7.733216881752014160e-02 -2.024539373815059662e-02 -9.164424613118171692e-03 1.057132184505462646e-01 -2.769139967858791351e-02 4.473583027720451355e-02 -6.995154172182083130e-02 2.304681092500686646e-01 3.927818313241004944e-02 7.511110603809356689e-02 -4.301104322075843811e-02 8.518791198730468750e-02 6.428104639053344727e-02 5.698525533080101013e-02 -2.164568006992340088e-02 -1.411837246268987656e-02 3.655003383755683899e-03 -3.136637061834335327e-02 4.857787489891052246e-02 -2.437051571905612946e-02 2.568751871585845947e-01 6.062773615121841431e-02 1.617761254310607910e-01 -1.068519428372383118e-01 -1.477149222046136856e-02
5.901845693588256836e-01 -7.037561386823654175e-02 -2.357449382543563843e-02 -6.701897364109754562e-03 1.658423803746700287e-02 -1.282823085784912109e-01 -9.893419593572616577e-02 -2.229263633489608765e-02 1.129903867840766907e-01 -1.030685193836688995e-02 -3.113177372142672539e-04 -8.259577304124832153e-02 6.434243917465209961e-02 8.327889442443847656e-02 1.314555853605270386e-01 -3.498442936688661575e-03 -1.049147266894578934e-02 -1.625990495085716248e-02 -8.823043107986450195e-02 -3.845428302884101868e-02 2.235569991171360016e-02 5.200051236897706985e-03 -1.269247196614742279e-02 5.940897017717361450e-02 -2.556892111897468567e-02 8.409536629915237427e-02 1.656199246644973755e-02 -1.369768530130386353e-01 2.251884937286376953e-01 1.049454230815172195e-02 8.506428450345993042e-03 -1.453918125480413437e-02 3.341567516326904297e-02 -2.440526708960533142e-02 -8.825271390378475189e-03 -8.550410158932209015e-03 -5.500686354935169220e-03 2.417834997177124023e-01 1.683664135634899139e-02 6.310268491506576538e-02 -7.624577265232801437e-03 9.842037409543991089e-02 -6.765940040349960327e-02 -5.913551151752471924e-02 -2.216243185102939606e-02 5.740991234779357910e-02 -3.006571903824806213e-02 1.594593226909637451e-01 1.442513763904571533e-01 1.092495918273925781e-01 -2.565109170973300934e-02 1.329306960105895996e-01 7.469770498573780060e-03 -3.462146036326885223e-03 5.186240002512931824e-02 2.309816330671310425e-02 1.020309627056121826e-01 -1.512998994439840317e-02 -1.284917164593935013e-02 1.486656721681356430e-02 6.445623934268951416e-02 4.013483971357345581e-02 -1.217603385448455811e-01 2.060271427035331726e-02 -7.642284780740737915e-02 2.983118891716003418e-01 -6.446423474699258804e-03 -1.037985607981681824e-01 1.816375926136970520e-02 -1.432075072079896927e-02 6.002582237124443054e-02 1.594750024378299713e-02 7.529049646109342575e-03 7.770473603159189224e-03 4.465485736727714539e-02 -4.346804320812225342e-02 -1.418268084526062012e-01 4.260977357625961304e-02 4.075738601386547089e-03 -2.719363197684288025e-02 -9.542758762836456299e-02 3.842474520206451416e-02 -5.618254467844963074e-02 1.359217166900634766e-01 -6.177480332553386688e-03 1.387271732091903687e-01 2.203468047082424164e-02 2.271176688373088837e-02 -3.334638476371765137e-02 -1.257097814232110977e-02 -6.586539000272750854e-02 3.124667890369892120e-02 5.223611369729042053e-02 -1.311509683728218079e-02 -1.800174708478152752e-03 1.836744323372840881e-02 7.941357791423797607e-03 2.889401279389858246e-03 -1.396948657929897308e-02 -4.307937994599342346e-02 -5.613614991307258606e-02 1.446588151156902313e-02 1.075846776366233826e-01 1.998123228549957275e-01 1.360007822513580322e-01 1.918224245309829712e-02 2.094585262238979340e-02 5.521773919463157654e-02 8.013804256916046143e-02 -3.440573811531066895e-02 1.961735077202320099e-02 -1.774075031280517578e-01 1.070030555129051208e-01 8.991102688014507294e-03 -3.458712622523307800e-02 4.724612459540367126e-02 -1.089295372366905212e-02 4.276796430349349976e-02 -2.666931785643100739e-02 -1.351336985826492310e-01 2.259526588022708893e-02 8.764441311359405518e-02 2.188516855239868164e-01 -5.144934728741645813e-02 4.239051137119531631e-03 -1.814270913600921631e-01 2.010093157878145576e-04 3.720329329371452332e-02 -7.426065951585769653e-02 -5.552988871932029724e-02 8.857128024101257324e-02 3.385429829359054565e-02 -1.402548979967832565e-02 -1.593519188463687897e-02 -6.442122161388397217e-02 1.508523970842361450e-01 -3.133692964911460876e-02 4.013488814234733582e-02 -1.243155356496572495e-02 -2.618814446032047272e-02 -2.386246621608734131e-01 1.641539529373403639e-05 -9.932802058756351471e-03 1.707049831748008728e-02 1.071561053395271301e-01 1.230290275998413563e-03 -2.389002032577991486e-02 4.030600935220718384e-02 -2.099040299654006958e-01 -8.481107652187347412e-02 3.670615330338478088e-02 5.007717758417129517e-02 -1.277840435504913330e-01 1.083525046706199646e-01 3.244831459596753120e-03 3.565197065472602844e-02 -8.250372111797332764e-02 -1.085035279393196106e-01 2.486744970083236694e-01 -4.089553281664848328e-02 -2.760476060211658478e-02 -1.733818054199218750e-01 6.721237301826477051e-02 8.346501737833023071e-03 -2.359280735254287720e-02 2.902836538851261139e-02 -4.055121541023254395e-02 -2.831344865262508392e-02 -3.421681374311447144e-02 7.980311289429664612e-03 4.501949995756149292e-02 -5.828272178769111633e-02 -8.722063153982162476e-02 7.568409293889999390e-02 2.855278179049491882e-02 -9.433679282665252686e-02 1.553904712200164795e-01 9.487766772508621216e-02 -3.066851571202278137e-02 -3.149274736642837524e-02 3.607359156012535095e-02 -8.764388412237167358e-02 5.029344931244850159e-02 -3.009034134447574615e-02 1.433991361409425735e-02 -7.739991694688796997e-02 5.250515043735504150e-02 1.388840824365615845e-01 -3.874681890010833740e-02 -9.944796562194824219e-02 -7.033237069845199585e-02 4.079210013151168823e-02 -4.542826488614082336e-02 2.626693621277809143e-02 -1.153335645794868469e-01 8.134168386459350586e-02 3.203107789158821106e-02 2.386883134022355080e-03 -3.125077113509178162e-02 5.015258863568305969e-02 1.237078085541725159e-01 -4.544787853956222534e-02 -2.199589740484952927e-03 -5.033183097839355469e-02 -1.485449261963367462e-02 -7.402342557907104492e-02 2.438225038349628448e-02 -3.367125242948532104e-02 -8.294833824038505554e-03 -2.789670228958129883e-02 5.914575234055519104e-02 -1.017295047640800476e-01 1.777344569563865662e-02 1.754584759473800659e-01 -1.490715891122817993e-02 1.949641853570938110e-02 2.444192953407764435e-02 1.188695430755615234e-01 -5.255217850208282471e-02 9.724900126457214355e-02 -4.312381893396377563e-02 -6.854663044214248657e-02 -8.649865537881851196e-02 4.638296365737915039e-02 -4.130497574806213379e-02 -1.187966018915176392e-01 9.715463966131210327e-03 -5.815386399626731873e-02 6.568362005054950714e-03 -1.312787458300590515e-02 4.867262393236160278e-02 5.173639208078384399e-02 -6.218439340591430664e-02 1.241787970066070557e-01 5.619294242933392525e-04 -5.950340535491704941e-03 7.973607629537582397e-02
