-1.903151720762252808e-01
-6.126483157277107239e-02
3.629531562328338623e-01
-1.051053553819656372e-01
-2.575782537460327148e-01
3.424204289913177490e-01
2.867670059204101562e-01
-1.345736980438232422e-01
1.656899750232696533e-01
-2.193972319364547729e-01
-1.795362681150436401e-01
3.981585204601287842e-01
-2.070208340883255005e-01
-2.324546426534652710e-01
3.021668791770935059e-01
-2.991860210895538330e-01
-3.263384401798248291e-01
2.489549666643142700e-01
2.419739216566085815e-01
-1.266087740659713745e-01
2.619938552379608154e-01
2.995139658451080322e-01
3.082771599292755127e-01
2.814387083053588867e-01
-2.200402319431304932e-01
-2.772800922393798828e-01
3.246239721775054932e-01
3.246296644210815430e-01
3.638171255588531494e-01
2.509378492832183838e-01
-2.344044297933578491e-01
3.364746272563934326e-01
2.712708413600921631e-01
3.594998121261596680e-01
2.938713431358337402e-01
2.888073027133941650e-01
3.010210990905761719e-01
3.738729357719421387e-01
-2.667940855026245117e-01
2.203837782144546509e-01
2.039600461721420288e-01
2.915577590465545654e-01
-3.028574287891387939e-01
-1.964683532714843750e-01
-3.085708320140838623e-01
-2.921509444713592529e-01
3.004346489906311035e-01
-2.791427075862884521e-01
3.058468103408813477e-01
2.965066134929656982e-01
2.561766207218170166e-01
-2.673756778240203857e-01
-2.898879051208496094e-01
-2.572263479232788086e-01
2.570759952068328857e-01
2.817515730857849121e-01
-3.473361432552337646e-01
2.557840049266815186e-01
-2.047518044710159302e-01
-3.048131763935089111e-01
2.882163524627685547e-01
2.403220683336257935e-01
-2.584956586360931396e-01
2.999095022678375244e-01
3.439055979251861572e-01
1.748890615999698639e-02
-2.043268829584121704e-01
3.305900394916534424e-01
2.890998423099517822e-01
2.487443238496780396e-01
2.548445761203765869e-01
1.823675930500030518e-01
2.637856602668762207e-01
3.056260943412780762e-01
2.843098342418670654e-01
-1.587130129337310791e-01
-1.875677555799484253e-01
2.540299892425537109e-01
2.532111406326293945e-01
3.205715715885162354e-01
3.385499417781829834e-01
2.642651796340942383e-01
3.019956946372985840e-01
2.583816945552825928e-01
-2.790639996528625488e-01
2.835119962692260742e-01
2.941131591796875000e-01
2.351657003164291382e-01
-2.056526541709899902e-01
3.131929039955139160e-01
3.131400942802429199e-01
3.326067924499511719e-01
2.268885672092437744e-01
3.104008734226226807e-01
-3.387931883335113525e-01
-2.433639168739318848e-01
3.268500566482543945e-01
3.137151300907135010e-01
3.184613883495330811e-01
3.295979797840118408e-01
-2.980817481875419617e-02
2.756556272506713867e-01
2.089934945106506348e-01
3.040627539157867432e-01
3.270703554153442383e-01
3.195179402828216553e-01
-1.231463626027107239e-01
2.981603145599365234e-01
3.909726440906524658e-01
3.300784230232238770e-01
2.925631403923034668e-01
6.730189919471740723e-02
3.264302015304565430e-01
2.948929369449615479e-01
3.356600999832153320e-01
2.722401022911071777e-01
-2.930777966976165771e-01
-1.528510898351669312e-01
2.342055588960647583e-01
2.381935566663742065e-01
-3.488306701183319092e-01
4.721559584140777588e-02
-2.378002703189849854e-01
2.597298324108123779e-01
2.915486097335815430e-01
2.139019519090652466e-01
3.897226154804229736e-01
2.462840676307678223e-01
3.160393536090850830e-01
2.435181587934494019e-01
-2.345705926418304443e-01
2.700839936733245850e-01
2.631036639213562012e-01
-3.175547122955322266e-01
2.472911179065704346e-01
3.306965827941894531e-01
3.243725597858428955e-01
-2.530646026134490967e-01
2.771444022655487061e-01
2.689699232578277588e-01
1.325170323252677917e-02
-3.029038310050964355e-01
3.006979823112487793e-01
2.755430042743682861e-01
3.007546067237854004e-01
2.717756628990173340e-01
-2.484448701143264771e-01
2.782087624073028564e-01
2.747063040733337402e-01
-2.644805610179901123e-01
3.083348274230957031e-01
2.654579877853393555e-01
3.691575229167938232e-01
-3.131273388862609863e-01
1.908771507441997528e-02
3.348656296730041504e-01
2.486080229282379150e-01
3.267380893230438232e-01
-9.813249111175537109e-02
-2.083087712526321411e-01
2.659276723861694336e-01
3.331144452095031738e-01
-1.774535030126571655e-01
-3.713261783123016357e-01
3.146508932113647461e-01
3.357699215412139893e-01
2.767651379108428955e-01
3.070165812969207764e-01
2.618767321109771729e-01
-2.197809219360351562e-01
-3.307933211326599121e-01
-3.017774224281311035e-01
3.039326369762420654e-01
-2.052371352910995483e-01
2.483063787221908569e-01
-3.756653666496276855e-01
2.645266652107238770e-01
-1.957866549491882324e-01
2.237310409545898438e-01
3.057546615600585938e-01
3.121028542518615723e-01
2.705823183059692383e-01
3.123719990253448486e-01
2.829761207103729248e-01
2.393074482679367065e-01
2.996385395526885986e-01
3.060742914676666260e-01
2.432720661163330078e-01
2.081722468137741089e-01
3.522206246852874756e-01
2.922253608703613281e-01
2.341085374355316162e-01
2.408880889415740967e-01
3.641906380653381348e-01
2.957941293716430664e-01
-3.222157657146453857e-01
2.463596612215042114e-01
2.249345332384109497e-01
2.941653132438659668e-01
2.413509637117385864e-01
3.309663832187652588e-01
-2.102800905704498291e-01
2.930184304714202881e-01
3.054470121860504150e-01
-2.477934658527374268e-01
-2.001277953386306763e-01
3.195264935493469238e-01
-1.448868066072463989e-01
-2.095835506916046143e-01
2.923230528831481934e-01
2.552809715270996094e-01
-3.115305602550506592e-01
-1.614262014627456665e-01
1.464121043682098389e-01
-1.205620840191841125e-01
3.258251547813415527e-01
2.432226538658142090e-01
-1.079779863357543945e-01
2.185547202825546265e-01
-1.796068400144577026e-01
3.092298507690429688e-01
2.656069993972778320e-01
-2.033042460680007935e-01
2.121906280517578125e-01
2.815778851509094238e-01
3.312335014343261719e-01
2.832143902778625488e-01
-3.102400600910186768e-01
2.889427840709686279e-01
-3.453594744205474854e-01
-3.715653121471405029e-01
2.847623527050018311e-01
2.527535259723663330e-01
2.557035982608795166e-01
3.103610575199127197e-01
2.218822985887527466e-01
2.100096642971038818e-01
3.715496063232421875e-01
-3.359500467777252197e-01
2.745409011840820312e-01
2.161174118518829346e-01
-2.405334711074829102e-01
-1.968673318624496460e-01
-2.077111154794692993e-01
2.530595660209655762e-01
2.514335811138153076e-01
-1.162615269422531128e-01
2.688644826412200928e-01
3.696784675121307373e-01
2.421600818634033203e-01
2.371637225151062012e-01
-1.411436647176742554e-01
-2.992266714572906494e-01
2.611187696456909180e-01
3.534945547580718994e-01
3.250640928745269775e-01
