-3.991144895553588867e-01
-3.575900793075561523e-01
-1.858539879322052002e-01
-1.425185650587081909e-01
4.425168633460998535e-01
-3.376566469669342041e-01
-1.657382845878601074e-01
1.556325852870941162e-01
4.216820895671844482e-01
2.978399991989135742e-01
5.193451642990112305e-01
4.818522632122039795e-01
-2.784152626991271973e-01
1.011207252740859985e-01
3.800800442695617676e-01
-2.702316641807556152e-01
-3.019140660762786865e-01
2.791401743888854980e-01
2.400988042354583740e-01
-1.973097175359725952e-01
-2.021042406558990479e-01
-1.597444564104080200e-01
2.247747480869293213e-01
3.326391279697418213e-01
-2.551923096179962158e-01
4.994870424270629883e-01
-3.555473387241363525e-01
-2.490486055612564087e-01
-3.056639730930328369e-01
-3.323136866092681885e-01
-2.547713816165924072e-01
4.238707721233367920e-01
2.466246336698532104e-01
1.868667155504226685e-01
2.222767621278762817e-01
1.489805877208709717e-01
-4.468846917152404785e-01
-3.177970051765441895e-01
-1.564265787601470947e-01
4.208146929740905762e-01
-2.358524501323699951e-01
2.045661211013793945e-01
2.760950624942779541e-01
-1.998282372951507568e-01
9.208521991968154907e-02
3.084179461002349854e-01
-1.775181479752063751e-02
1.763720959424972534e-01
1.217902377247810364e-01
-3.535017967224121094e-01
3.264302313327789307e-01
3.951280713081359863e-01
-3.540609478950500488e-01
-3.054191470146179199e-01
-2.580260336399078369e-01
-3.476835787296295166e-01
-2.710433602333068848e-01
3.335210084915161133e-01
5.307412743568420410e-01
5.450861454010009766e-01
2.669238150119781494e-01
-3.983758389949798584e-02
-3.673303723335266113e-01
7.888870686292648315e-02
1.695342510938644409e-01
1.583929359912872314e-02
4.806863069534301758e-01
-1.646654456853866577e-01
-2.295988202095031738e-01
3.913675844669342041e-01
1.215395852923393250e-01
5.211021304130554199e-01
-1.319661438465118408e-01
-2.685847133398056030e-02
-1.669696569442749023e-01
-9.411270171403884888e-02
-4.353127181529998779e-01
-1.956772357225418091e-01
-2.396251410245895386e-01
3.685534000396728516e-01
2.835378348827362061e-01
2.422865629196166992e-01
3.123623132705688477e-01
-1.389265507459640503e-01
-3.806209564208984375e-01
3.180506229400634766e-01
-1.890172660350799561e-01
1.030579954385757446e-01
2.290102094411849976e-01
2.685876786708831787e-01
-2.582998573780059814e-01
-1.220693532377481461e-02
1.100427880883216858e-01
-3.414613306522369385e-01
3.881567716598510742e-02
4.982396960258483887e-01
-3.431643843650817871e-01
4.188905060291290283e-01
-7.768477499485015869e-02
-1.901921331882476807e-01
-2.964918613433837891e-01
3.319293856620788574e-01
2.043217718601226807e-01
2.944156527519226074e-01
-8.055371791124343872e-02
3.833440244197845459e-01
1.465539187192916870e-01
3.576223850250244141e-01
4.157681167125701904e-01
-1.468146443367004395e-01
-3.286801278591156006e-01
-2.743197046220302582e-02
4.220832511782646179e-02
3.680791854858398438e-01
3.936507999897003174e-01
5.739440768957138062e-02
4.172621965408325195e-01
-4.776587784290313721e-01
3.305586874485015869e-01
1.985745475394651294e-04
4.730327725410461426e-01
-3.526363372802734375e-01
-1.143699586391448975e-01
-5.307218059897422791e-02
-2.041615545749664307e-01
-8.256306499242782593e-02
2.086329609155654907e-01
1.415490955114364624e-01
-2.221412807703018188e-01
-1.131845340132713318e-01
-2.434924840927124023e-01
3.084914088249206543e-01
2.013929784297943115e-01
-1.032603383064270020e-01
-2.519786059856414795e-01
7.372149080038070679e-02
2.662760615348815918e-01
-2.925361990928649902e-01
4.622315168380737305e-01
-3.644728660583496094e-01
-2.334620207548141479e-01
2.562590241432189941e-01
-2.667803764343261719e-01
-3.744912445545196533e-01
3.569359481334686279e-01
-1.407399177551269531e-01
2.103798836469650269e-01
-3.988388478755950928e-01
2.427341789007186890e-01
-2.367289960384368896e-01
3.756565451622009277e-01
-2.238759994506835938e-01
2.603707015514373779e-01
-2.443504631519317627e-01
-2.876516878604888916e-01
-2.807034254074096680e-01
-2.970092371106147766e-02
-3.618288934230804443e-01
-1.543644964694976807e-01
3.558705747127532959e-01
-2.555841803550720215e-01
4.693891108036041260e-01
7.132384926080703735e-02
4.467703998088836670e-01
3.041334450244903564e-01
5.452944040298461914e-01
-4.432744085788726807e-01
-2.452281564474105835e-01
-2.991907894611358643e-01
4.810515642166137695e-01
8.876729756593704224e-02
-1.725986152887344360e-01
3.430703282356262207e-01
-9.456731379032135010e-02
3.629217445850372314e-01
4.209465682506561279e-01
-9.578230977058410645e-02
1.899294555187225342e-01
3.916692435741424561e-01
-1.560160368680953979e-01
-1.531318724155426025e-01
4.110243022441864014e-01
3.507753908634185791e-01
1.170723512768745422e-01
4.920234978199005127e-01
-2.526906132698059082e-01
1.833531856536865234e-01
3.108574748039245605e-01
-8.492735028266906738e-02
9.727960079908370972e-02
-2.374677956104278564e-01
4.233883619308471680e-01
4.866770803928375244e-01
-2.571102380752563477e-01
3.596021533012390137e-01
1.735040843486785889e-01
-1.706255786120891571e-02
3.830936551094055176e-01
4.305511116981506348e-01
2.462709993124008179e-01
-3.642921745777130127e-01
3.708969652652740479e-01
-1.710450649261474609e-01
-1.758696585893630981e-01
-4.453398883342742920e-01
2.946439683437347412e-01
-3.159767091274261475e-01
-3.599743843078613281e-01
-2.739917933940887451e-01
-3.118053376674652100e-01
2.274606078863143921e-01
8.312521874904632568e-02
-4.406989812850952148e-01
1.851747184991836548e-01
2.896226942539215088e-01
-5.464654564857482910e-01
5.863148570060729980e-01
-2.998827099800109863e-01
-2.614742219448089600e-01
5.828248709440231323e-02
4.747799038887023926e-01
2.515222430229187012e-01
3.339373469352722168e-01
-2.640742957592010498e-01
3.993906974792480469e-01
-2.755649089813232422e-01
-8.818057179450988770e-02
-2.635709345340728760e-01
3.555618226528167725e-01
-1.382131576538085938e-01
1.725260764360427856e-01
-3.388020396232604980e-01
1.351000219583511353e-01
4.355024397373199463e-01
2.529793977737426758e-01
-8.627390861511230469e-02
-2.160027027130126953e-01
-3.539013862609863281e-01
-2.282580584287643433e-01
-2.279874533414840698e-01
2.684360742568969727e-01
3.093066513538360596e-01
3.802704215049743652e-01
3.331820964813232422e-01
-3.019767999649047852e-01
-3.824477195739746094e-01
-3.931040167808532715e-01
-2.490561306476593018e-01
3.630453646183013916e-01
-3.404130041599273682e-01
3.797726035118103027e-01
-1.365926116704940796e-01
3.389263451099395752e-01
-2.966050803661346436e-01
2.657413482666015625e-01
3.045752942562103271e-01
