-1.540894061326980591e-02
-5.851087160408496857e-03
1.974758692085742950e-02
-3.256452269852161407e-03
-1.935004070401191711e-02
-1.434747036546468735e-02
-1.113331131637096405e-02
-1.332716457545757294e-02
-6.395517382770776749e-03
2.745755948126316071e-02
-9.205784648656845093e-03
1.703347428701817989e-03
9.081896394491195679e-03
-1.110866013914346695e-02
-3.144189249724149704e-03
-1.709893904626369476e-02
7.232701405882835388e-03
-6.241766735911369324e-03
7.230523624457418919e-04
-7.557239849120378494e-03
-2.677652984857559204e-02
-2.517560264095664024e-03
3.501696279272437096e-03
-2.610848657786846161e-02
-3.206691518425941467e-02
1.151761692017316818e-02
9.249102324247360229e-03
1.539899501949548721e-02
8.499179035425186157e-03
-1.882366649806499481e-02
7.629604078829288483e-03
1.361222006380558014e-02
-1.339612994343042374e-03
-4.745251033455133438e-03
-2.127928845584392548e-02
-1.798822171986103058e-02
-2.713095396757125854e-02
1.225217711180448532e-03
1.122380257584154606e-03
4.072534665465354919e-02
-3.936280030757188797e-03
1.311664935201406479e-02
-1.134524773806333542e-02
-7.094508502632379532e-03
-1.063321251422166824e-02
1.241300604306161404e-03
-2.559312619268894196e-03
2.334951236844062805e-02
-3.421432152390480042e-02
-8.434052579104900360e-03
-2.690511941909790039e-02
1.442750543355941772e-02
-2.575086243450641632e-02
-5.002459976822137833e-03
-2.128317393362522125e-02
1.029173610731959343e-03
-3.522044792771339417e-02
-1.890580542385578156e-02
4.675257951021194458e-03
-2.836171165108680725e-02
-1.316524483263492584e-02
-2.892840467393398285e-02
1.009958703070878983e-02
3.192626871168613434e-03
-3.597201546654105186e-03
-1.581629365682601929e-02
-3.013382479548454285e-02
1.771482639014720917e-02
1.191964466124773026e-02
-2.176688425242900848e-02
1.227522036060690880e-03
-4.872658755630254745e-03
1.161046884953975677e-02
5.253387615084648132e-03
-3.648521378636360168e-02
2.864737994968891144e-02
-2.136600576341152191e-02
-1.086243800818920135e-02
6.807979661971330643e-03
8.034032769501209259e-03
-4.925147630274295807e-03
1.838885806500911713e-02
-2.366070635616779327e-02
-1.594348810613155365e-02
-1.062621828168630600e-02
1.943655870854854584e-02
3.709578886628150940e-02
-9.788129478693008423e-03
-1.035934220999479294e-02
2.228395827114582062e-02
1.878288574516773224e-02
6.970013026148080826e-03
1.494665350764989853e-02
-9.261040017008781433e-03
1.433881744742393494e-02
-1.237388979643583298e-02
-7.169429212808609009e-03
-1.801825873553752899e-02
1.146075408905744553e-02
-6.063981913030147552e-03
-2.833461388945579529e-02
-6.615909747779369354e-03
-5.718637723475694656e-03
-1.011337526142597198e-02
-8.662250824272632599e-03
-9.498435072600841522e-03
-2.107478445395827293e-03
-2.169995941221714020e-02
-6.540188565850257874e-03
-2.403362654149532318e-02
-6.673300638794898987e-03
-1.088493037968873978e-02
-9.015379473567008972e-03
-8.890249766409397125e-03
-9.835056029260158539e-03
-6.775407586246728897e-03
-1.237782835960388184e-02
-2.521295659244060516e-02
-3.753485158085823059e-02
-2.060791105031967163e-02
1.561251189559698105e-02
3.875464666634798050e-03
1.887223869562149048e-02
-8.143197745084762573e-03
-8.299437351524829865e-03
1.369815552607178688e-03
-1.072180364280939102e-02
-1.039164373651146889e-03
4.450896754860877991e-03
-4.036951810121536255e-03
7.542291656136512756e-03
3.589021041989326477e-03
4.351362213492393494e-02
3.427900746464729309e-02
-2.794188819825649261e-02
-7.886108942329883575e-03
1.568879745900630951e-02
-5.107025150209665298e-03
-2.029764093458652496e-02
-1.885719713754951954e-03
-1.326140575110912323e-02
1.961294183274731040e-04
-1.185530237853527069e-02
2.095755934715270996e-02
1.416788436472415924e-02
1.282476633787155151e-02
-9.378946386277675629e-03
1.526936609297990799e-02
-1.719288527965545654e-03
-2.249665185809135437e-02
-2.458792645484209061e-03
6.881293840706348419e-03
1.783233508467674255e-02
9.835368255153298378e-04
3.789746901020407677e-03
8.270310238003730774e-03
-1.453414373099803925e-02
-7.347551174461841583e-03
1.472516637295484543e-02
1.814894564449787140e-02
-2.199026290327310562e-03
-8.058845065534114838e-03
-2.404314232990145683e-03
-1.271440647542476654e-02
-4.067498072981834412e-02
-1.442143321037292480e-02
7.641372736543416977e-03
-5.613885354250669479e-03
6.764681078493595123e-03
-3.252490714658051729e-04
1.442988961935043335e-02
-6.885694456286728382e-04
-1.002830173820257187e-02
-6.250521633774042130e-03
-2.844132483005523682e-02
-4.164733923971652985e-03
1.115823630243539810e-02
2.139488235116004944e-02
2.512662671506404877e-02
1.321461424231529236e-02
1.693067606538534164e-03
2.203592471778392792e-02
-1.211680937558412552e-02
-1.202807296067476273e-02
2.158145420253276825e-02
2.620589919388294220e-02
1.410983968526124954e-02
1.330690458416938782e-02
-1.801733672618865967e-02
-3.334440663456916809e-02
-1.300394069403409958e-02
-1.354768965393304825e-02
-8.447243832051753998e-03
1.489555463194847107e-03
4.909512936137616634e-04
-9.935144335031509399e-03
1.800896413624286652e-02
-2.232108265161514282e-02
-2.246148511767387390e-02
-1.203744206577539444e-02
3.653776133432984352e-03
1.756809651851654053e-02
-5.974525120109319687e-03
1.949852448888123035e-03
6.009933538734912872e-03
-5.352560430765151978e-03
1.031471416354179382e-03
-4.795031854882836342e-04
-2.159634605050086975e-02
-3.027057461440563202e-02
7.114134728908538818e-03
-4.105002153664827347e-03
1.038433169014751911e-03
-2.647322975099086761e-02
1.146376598626375198e-02
-2.378144301474094391e-02
6.387532223016023636e-03
-1.532003469765186310e-02
-2.488490380346775055e-02
-3.793825954198837280e-02
1.308766100555658340e-02
5.386395845562219620e-03
-2.044767513871192932e-02
-1.560643035918474197e-02
-2.598336711525917053e-02
1.422850601375102997e-02
-5.980614107102155685e-03
-7.921142503619194031e-03
2.275371551513671875e-02
-2.242536470293998718e-02
-1.414394658058881760e-02
-5.109596531838178635e-03
1.730366982519626617e-02
4.853066056966781616e-03
-2.251428551971912384e-02
-2.214885083958506584e-03
-9.296201169490814209e-03
7.453448488377034664e-04
-7.910056039690971375e-03
-7.075453642755746841e-03
-6.583095528185367584e-03
-1.545554306358098984e-02
4.453741479665040970e-03
-3.094923449680209160e-03
-2.153657376766204834e-02
5.274072755128145218e-04
-4.267007578164339066e-03
1.738651841878890991e-02
-1.056509744375944138e-02
-9.978014044463634491e-03
8.946014568209648132e-03
-3.291993215680122375e-02
1.083923317492008209e-02
-2.391056902706623077e-02
9.220491163432598114e-03
1.565203815698623657e-02
