3.816162943840026855e-01
3.032962679862976074e-01
3.673853278160095215e-01
-3.107097744941711426e-01
-9.605597704648971558e-02
-3.102937936782836914e-01
4.613160789012908936e-01
3.233920037746429443e-01
-1.223535016179084778e-01
4.153450727462768555e-01
2.169369906187057495e-01
2.942940890789031982e-01
4.677178859710693359e-01
-1.568917632102966309e-01
-2.183468639850616455e-01
1.397760212421417236e-01
-3.346877694129943848e-01
9.036636352539062500e-02
-1.354157626628875732e-01
3.182270526885986328e-01
2.826059162616729736e-01
3.279590010643005371e-01
7.738914340734481812e-02
-2.986804842948913574e-01
-1.512343585491180420e-01
-2.807177901268005371e-01
3.586856722831726074e-01
-3.554881513118743896e-01
3.777799010276794434e-01
2.291684448719024658e-01
-1.621791124343872070e-01
1.686649620532989502e-01
2.725135982036590576e-01
3.138519823551177979e-01
3.087251484394073486e-01
-4.320071339607238770e-01
3.357205092906951904e-01
-4.087215960025787354e-01
-1.377512663602828979e-01
2.207186222076416016e-01
3.414263129234313965e-01
-1.097372174263000488e-01
3.672919273376464844e-01
2.208300530910491943e-01
-4.206153750419616699e-01
2.208330035209655762e-01
4.215416312217712402e-01
4.205144643783569336e-01
-2.270282804965972900e-01
2.343409955501556396e-01
3.883658647537231445e-01
-4.098947048187255859e-01
3.079135119915008545e-01
2.710131108760833740e-01
1.971941143274307251e-01
4.066580235958099365e-01
-2.059668153524398804e-01
-4.435341805219650269e-02
-1.553419977426528931e-01
4.122158885002136230e-01
4.520471692085266113e-01
2.900814116001129150e-01
1.565967947244644165e-01
3.705819249153137207e-01
-2.681470811367034912e-01
2.937329411506652832e-01
-3.666061758995056152e-01
-2.314495146274566650e-01
-3.267008662223815918e-01
3.383695781230926514e-01
-3.815703988075256348e-01
3.371320664882659912e-01
-3.449984192848205566e-01
3.333615064620971680e-01
-2.410286515951156616e-01
3.608967661857604980e-01
-3.269593119621276855e-01
3.432597815990447998e-01
-2.780705988407135010e-01
2.360614985227584839e-01
2.493963986635208130e-01
-3.603437542915344238e-01
-3.385382890701293945e-01
-3.178434669971466064e-01
-2.808633744716644287e-01
-2.781114280223846436e-01
-2.339292913675308228e-01
1.975970715284347534e-01
2.561850249767303467e-01
-2.122892588376998901e-01
1.963856071233749390e-01
-4.249411225318908691e-01
4.293108582496643066e-01
-4.011504650115966797e-01
3.810860514640808105e-01
1.928460597991943359e-01
-1.059356927871704102e-01
-2.501961886882781982e-01
3.365068435668945312e-01
-3.706639409065246582e-01
4.529998004436492920e-01
-3.537560999393463135e-01
-3.582866489887237549e-01
3.840085268020629883e-01
-2.541463971138000488e-01
3.910238444805145264e-01
3.554713428020477295e-01
-4.425696134567260742e-01
3.966315686702728271e-01
-4.192033410072326660e-01
-7.691364269703626633e-03
2.667103409767150879e-01
2.409074306488037109e-01
4.016659855842590332e-01
-6.687094271183013916e-02
-4.247307479381561279e-01
-2.113409340381622314e-01
-3.369368612766265869e-01
-1.234103813767433167e-01
-4.493739306926727295e-01
2.296544462442398071e-01
1.893260031938552856e-01
4.745026826858520508e-01
-2.766751945018768311e-01
-1.254400759935379028e-01
-2.226216346025466919e-01
1.227742880582809448e-01
2.101148366928100586e-01
-3.595854640007019043e-01
2.493517994880676270e-01
3.480396866798400879e-01
3.360847234725952148e-01
4.626800119876861572e-01
3.203453123569488525e-01
1.479923129081726074e-01
3.984210193157196045e-01
1.878858655691146851e-01
1.527371704578399658e-01
2.280002683401107788e-01
1.596712768077850342e-01
2.218155711889266968e-01
2.796995937824249268e-01
-3.629025220870971680e-01
-1.531173139810562134e-01
4.072782695293426514e-01
1.951462477445602417e-01
4.225543737411499023e-01
4.655662178993225098e-01
-3.593142330646514893e-01
-2.208852767944335938e-01
2.476298213005065918e-01
2.627634406089782715e-01
-4.042674973607063293e-02
2.324038892984390259e-01
2.210350632667541504e-01
-2.036973387002944946e-01
4.548022449016571045e-01
2.102696150541305542e-01
-2.917023301124572754e-01
3.724918067455291748e-01
3.551946580410003662e-01
3.267024457454681396e-01
2.523776292800903320e-01
2.804707586765289307e-01
2.800131440162658691e-01
4.756867587566375732e-01
-3.285040557384490967e-01
3.995904326438903809e-01
1.852341443300247192e-01
-2.145497649908065796e-01
-4.039165675640106201e-01
3.365137577056884766e-01
3.790654838085174561e-01
-2.614423632621765137e-01
-2.448891401290893555e-01
3.347801566123962402e-01
8.561963587999343872e-02
3.155133724212646484e-01
2.328476160764694214e-01
3.150958716869354248e-01
2.717232108116149902e-01
-2.706754505634307861e-01
3.680146634578704834e-01
2.182764559984207153e-01
-2.737959623336791992e-01
-4.029468894004821777e-01
4.056259095668792725e-01
4.321577548980712891e-01
-3.323671221733093262e-01
3.324463963508605957e-01
4.354264438152313232e-01
4.359391331672668457e-01
3.835952281951904297e-01
3.232159316539764404e-01
3.035706579685211182e-01
2.903305292129516602e-01
2.548229396343231201e-01
3.310877084732055664e-01
3.120950162410736084e-01
-3.756162822246551514e-01
1.981720924377441406e-01
-1.396664679050445557e-01
2.344813346862792969e-01
3.994665443897247314e-01
-4.039120972156524658e-01
2.236023396253585815e-01
2.834184169769287109e-01
4.613649845123291016e-01
4.075828492641448975e-01
3.679255843162536621e-01
-4.551941454410552979e-01
-2.906277179718017578e-01
3.799684047698974609e-01
4.798026978969573975e-01
2.252842783927917480e-01
-3.922168612480163574e-01
4.594218432903289795e-01
1.821764409542083740e-01
3.399328887462615967e-01
3.677650690078735352e-01
-3.632180392742156982e-01
3.183289170265197754e-01
-1.388660222291946411e-01
4.923464655876159668e-01
1.183380708098411560e-01
-1.704600155353546143e-01
3.284498453140258789e-01
3.992163240909576416e-01
-3.131834864616394043e-01
1.866277605295181274e-01
3.624854385852813721e-01
-2.072385251522064209e-01
-3.948421478271484375e-01
2.493205368518829346e-01
1.856664568185806274e-01
-2.751392424106597900e-01
3.421831727027893066e-01
2.242416590452194214e-01
4.016170203685760498e-01
-4.055931866168975830e-01
3.676330447196960449e-01
3.343656659126281738e-01
2.851204872131347656e-01
2.700778543949127197e-01
4.043583571910858154e-01
4.430399835109710693e-01
-5.853818356990814209e-02
4.477169513702392578e-01
1.516852974891662598e-01
-3.811621963977813721e-01
-3.660010397434234619e-01
2.753932178020477295e-01
-5.751288961619138718e-03
4.047782123088836670e-01
4.565943479537963867e-01
-1.690864861011505127e-01
