4.895549714565277100e-01
5.728652477264404297e-01
-6.734032034873962402e-01
-4.038956463336944580e-01
3.709493875503540039e-01
-2.065181732177734375e-01
2.107748761773109436e-02
-4.625746011734008789e-01
5.422556400299072266e-01
-4.038372337818145752e-01
3.123487830162048340e-01
5.377374291419982910e-01
5.801874399185180664e-01
6.364336609840393066e-01
4.534813463687896729e-01
-4.603952467441558838e-01
5.161699056625366211e-01
-5.258096456527709961e-01
3.376333713531494141e-01
5.855310559272766113e-01
3.072273433208465576e-01
-1.622338145971298218e-01
6.041377186775207520e-01
5.615465044975280762e-01
5.405840873718261719e-01
-6.893400549888610840e-01
-4.310842752456665039e-01
5.735567212104797363e-01
-6.373327374458312988e-01
-3.820123672485351562e-01
-5.889059305191040039e-01
5.650414228439331055e-01
2.394320815801620483e-02
4.983501434326171875e-01
3.866818249225616455e-01
5.913681387901306152e-01
-2.720309197902679443e-01
4.043953418731689453e-01
5.125714540481567383e-01
-5.962148308753967285e-01
3.524946570396423340e-01
-2.997156381607055664e-01
-5.410613417625427246e-01
5.056440234184265137e-01
5.170544385910034180e-01
-4.637591838836669922e-01
5.487200617790222168e-01
4.049339294433593750e-01
4.475387930870056152e-01
5.594581365585327148e-01
6.065956354141235352e-01
3.703975379467010498e-01
-4.778344333171844482e-01
-5.423752069473266602e-01
5.687611103057861328e-01
2.565301954746246338e-01
5.559964776039123535e-01
5.502410531044006348e-01
-2.485089749097824097e-01
5.604456067085266113e-01
5.303524732589721680e-01
4.558824896812438965e-01
4.538323879241943359e-01
5.040881633758544922e-01
5.805993080139160156e-01
3.385045230388641357e-01
6.354658007621765137e-01
4.226965010166168213e-01
3.864070773124694824e-01
5.561366081237792969e-01
5.728268623352050781e-01
5.017408728599548340e-01
-5.964855551719665527e-01
-4.592821002006530762e-01
4.922646284103393555e-01
5.624639391899108887e-01
5.105379223823547363e-01
4.673067331314086914e-01
5.042595863342285156e-01
4.738201498985290527e-01
-3.741099834442138672e-01
5.114449262619018555e-01
5.214141607284545898e-01
3.528362810611724854e-01
5.595881342887878418e-01
-3.740271031856536865e-01
6.355348825454711914e-01
6.293193101882934570e-01
-3.910595476627349854e-01
6.693783402442932129e-01
4.158982336521148682e-01
6.412616968154907227e-01
6.152464151382446289e-01
6.677528470754623413e-02
-3.177244365215301514e-01
5.608415603637695312e-01
3.617554903030395508e-01
3.560231626033782959e-01
-3.959155976772308350e-01
5.256874561309814453e-01
5.318335890769958496e-01
3.706993460655212402e-01
4.697045385837554932e-01
5.421777367591857910e-01
4.773300588130950928e-01
4.023683369159698486e-01
6.222082376480102539e-01
4.667623043060302734e-01
4.375336170196533203e-01
5.840360522270202637e-01
-6.906036734580993652e-01
4.310549497604370117e-01
4.591864645481109619e-01
-2.015138119459152222e-01
4.024036526679992676e-01
4.993542730808258057e-01
5.643646121025085449e-01
-4.873206317424774170e-01
4.761998653411865234e-01
4.051720350980758667e-02
5.106183290481567383e-01
5.268985629081726074e-01
2.612096369266510010e-01
2.601854205131530762e-01
5.271581411361694336e-01
4.744914472103118896e-01
-3.675048947334289551e-01
5.249474048614501953e-01
-5.517828464508056641e-01
-3.784719407558441162e-01
-4.190928637981414795e-01
4.753508269786834717e-01
4.185151755809783936e-01
5.418274998664855957e-01
-4.382207393646240234e-01
4.720860123634338379e-01
2.720487117767333984e-01
-6.389498114585876465e-01
5.311283469200134277e-01
5.214411616325378418e-01
5.814549326896667480e-01
-2.426554262638092041e-01
4.849448800086975098e-01
-1.974280774593353271e-01
5.501782894134521484e-01
3.639905154705047607e-01
3.553722798824310303e-01
-4.895536899566650391e-01
5.806605219841003418e-01
5.233355164527893066e-01
4.612479209899902344e-01
5.771251916885375977e-01
5.652155280113220215e-01
5.834249258041381836e-01
-5.466750860214233398e-01
5.753760337829589844e-01
-3.357318937778472900e-01
1.611199378967285156e-01
-5.923173427581787109e-01
6.195958256721496582e-01
-3.627126812934875488e-01
5.810849666595458984e-01
6.740609407424926758e-01
6.549187302589416504e-01
-5.622904300689697266e-01
6.172029972076416016e-01
2.112099677324295044e-01
-4.857000112533569336e-01
4.773603379726409912e-01
-7.197661995887756348e-01
3.958592414855957031e-01
3.748783171176910400e-01
-1.241699904203414917e-01
-1.818422228097915649e-01
3.408840000629425049e-01
3.816216289997100830e-01
5.924957394599914551e-01
-2.817783951759338379e-01
5.711395144462585449e-01
4.022357165813446045e-01
6.337635517120361328e-01
4.126409292221069336e-01
5.190575718879699707e-01
-6.453538537025451660e-01
-6.894776225090026855e-01
2.988554835319519043e-01
4.816564321517944336e-01
-4.498937129974365234e-01
-6.471365224570035934e-03
4.019847214221954346e-01
3.843315541744232178e-01
4.312518537044525146e-01
5.557054281234741211e-01
3.479662537574768066e-01
2.809300422668457031e-01
-6.817075610160827637e-01
3.958211541175842285e-01
4.228519201278686523e-01
4.273559153079986572e-01
5.831301212310791016e-01
6.261249780654907227e-01
3.744311332702636719e-01
3.407212197780609131e-01
-2.709366083145141602e-01
5.483049750328063965e-01
5.863043665885925293e-01
5.716722011566162109e-01
6.227318644523620605e-01
4.840430021286010742e-01
-4.925626218318939209e-01
-4.077546000480651855e-01
5.336124300956726074e-01
4.252434968948364258e-01
6.764142513275146484e-01
4.185327887535095215e-01
6.397502422332763672e-01
3.787115514278411865e-01
-4.197037518024444580e-01
4.562641680240631104e-01
5.771005153656005859e-01
4.060794413089752197e-01
4.856834709644317627e-01
-5.545071363449096680e-01
-4.943659305572509766e-01
6.206210851669311523e-01
4.432449042797088623e-01
5.327761173248291016e-01
4.459644556045532227e-01
7.280340045690536499e-02
5.150172114372253418e-01
-3.578683435916900635e-01
-6.875686645507812500e-01
5.794556140899658203e-01
6.255575418472290039e-01
-2.945853173732757568e-01
3.592102527618408203e-01
4.915959835052490234e-01
-3.227977752685546875e-01
4.104873836040496826e-01
5.843737721443176270e-01
4.463160037994384766e-01
-4.729567468166351318e-01
4.521946012973785400e-01
-3.382962048053741455e-01
4.734180867671966553e-01
6.081567406654357910e-01
-5.525118708610534668e-01
-5.048629045486450195e-01
5.459370017051696777e-01
4.921130239963531494e-01
6.263857483863830566e-01
5.670362710952758789e-01
-5.883346796035766602e-01
1.387821882963180542e-01
-6.293638348579406738e-01
5.057350993156433105e-01
