1.701310463249683380e-02
-5.099218804389238358e-03
2.487727254629135132e-02
2.178281545639038086e-02
1.907259970903396606e-02
-1.918263919651508331e-02
-2.256416156888008118e-02
2.865131199359893799e-02
7.826055586338043213e-02
-2.847635559737682343e-02
4.022134467959403992e-02
2.673870138823986053e-02
-4.682082310318946838e-02
-2.880121022462844849e-02
1.005562022328376770e-03
-2.683903090655803680e-02
-4.348910599946975708e-02
-6.613931618630886078e-03
4.697367548942565918e-03
1.891223527491092682e-02
-1.861610822379589081e-02
1.965633220970630646e-02
2.453164570033550262e-02
-1.559980120509862900e-02
5.239237844944000244e-02
1.720467116683721542e-03
-2.948663942515850067e-02
5.750823020935058594e-02
5.605552811175584793e-03
-1.340105012059211731e-02
3.892378881573677063e-02
3.517688810825347900e-02
-6.069884169846773148e-03
9.843490086495876312e-03
-1.069919671863317490e-02
-1.808978244662284851e-02
1.797259226441383362e-02
4.318136256188154221e-03
3.001616895198822021e-02
5.852358415722846985e-02
2.998401410877704620e-02
-2.870687842369079590e-02
-3.369753807783126831e-02
2.810392715036869049e-02
4.702040925621986389e-02
9.803008288145065308e-03
6.115668918937444687e-03
2.601172216236591339e-02
1.412620395421981812e-02
1.550426427274942398e-02
-2.200499735772609711e-02
1.098861731588840485e-02
-2.311924472451210022e-02
3.260731697082519531e-02
3.560403734445571899e-02
5.392358452081680298e-02
-2.438443945720791817e-03
6.226596888154745102e-04
4.959915205836296082e-02
-1.252338849008083344e-02
2.196734212338924408e-02
3.415773436427116394e-02
-2.484712190926074982e-02
-1.078944653272628784e-02
-2.188884466886520386e-02
-3.001883253455162048e-02
7.947410456836223602e-03
4.229230433702468872e-02
3.559747338294982910e-02
1.249364018440246582e-02
-1.676473766565322876e-02
1.555778738111257553e-02
1.153279375284910202e-02
3.832890093326568604e-02
4.379678890109062195e-02
3.671431541442871094e-02
2.162833511829376221e-02
2.218371815979480743e-02
9.857637807726860046e-03
2.684073336422443390e-02
3.578109294176101685e-02
-1.617978513240814209e-02
3.999939560890197754e-02
4.010291397571563721e-02
-3.953813761472702026e-02
1.280806120485067368e-02
2.502281218767166138e-02
2.560407295823097229e-02
-3.285954706370830536e-03
2.777038142085075378e-03
-1.298942975699901581e-02
5.173594225198030472e-03
-2.066276408731937408e-02
3.055073134601116180e-02
-3.324056789278984070e-02
-3.211131319403648376e-02
4.721040278673171997e-02
-2.111901156604290009e-02
3.705209121108055115e-02
3.696815297007560730e-02
2.903318777680397034e-02
4.543970152735710144e-02
-8.443342521786689758e-03
4.739558324217796326e-02
2.645045891404151917e-02
1.594938710331916809e-02
2.953866263851523399e-03
3.697956446558237076e-03
3.880920121446251869e-03
-1.251253671944141388e-02
7.158997654914855957e-02
-3.133546561002731323e-02
-8.642906323075294495e-03
1.929089776240289211e-03
-4.387489333748817444e-02
-2.568408660590648651e-02
1.514228992164134979e-02
9.990904480218887329e-03
-2.457789145410060883e-02
8.334285579621791840e-03
-2.523455303162336349e-03
-1.955465041100978851e-02
2.155119553208351135e-03
3.935508430004119873e-02
-1.966296928003430367e-03
1.783741451799869537e-02
6.939653307199478149e-03
3.300857171416282654e-02
-1.757087768055498600e-03
-3.223538026213645935e-02
2.777264453470706940e-02
3.274944052100181580e-02
4.496206715703010559e-02
1.158137805759906769e-02
2.085751481354236603e-02
-2.387710288166999817e-02
2.836594916880130768e-02
-3.842563927173614502e-02
5.923175439238548279e-02
-5.345385055989027023e-03
-1.506218966096639633e-02
-1.549397129565477371e-04
4.387868568301200867e-02
1.955377124249935150e-02
2.269090898334980011e-02
2.445300482213497162e-02
-2.485465956851840019e-03
2.969375997781753540e-02
-4.939611069858074188e-03
-5.399854853749275208e-02
-2.014431171119213104e-02
1.253513060510158539e-02
2.567900903522968292e-02
3.254955634474754333e-02
1.512269838713109493e-03
3.769206628203392029e-02
-1.312701310962438583e-02
-1.543006673455238342e-02
7.179760932922363281e-02
1.545788813382387161e-02
-2.067342773079872131e-02
-6.895769620314240456e-04
-2.272852510213851929e-02
4.104993864893913269e-02
-2.367546223104000092e-02
7.382567040622234344e-03
3.202867880463600159e-02
-1.377484109252691269e-02
1.799536123871803284e-02
-4.246626794338226318e-02
4.449312761425971985e-02
-3.046977566555142403e-03
-4.276732914149761200e-03
7.154691033065319061e-03
3.658315911889076233e-02
-2.001734264194965363e-02
1.910224929451942444e-02
6.031062453985214233e-02
7.623632252216339111e-02
-1.573421992361545563e-02
-1.604954153299331665e-02
-4.272191226482391357e-02
3.997991327196359634e-03
-5.386729165911674500e-02
-1.663061673752963543e-03
1.993770152330398560e-02
-2.267720736563205719e-02
1.926772110164165497e-02
-2.384071424603462219e-02
1.067791134119033813e-03
-1.850282400846481323e-02
-2.422587200999259949e-02
-3.657555952668190002e-02
-1.580527424812316895e-02
4.407040402293205261e-02
1.397782657295465469e-02
-5.095679685473442078e-02
-6.601893808692693710e-03
-1.163060124963521957e-02
-7.850899710319936275e-04
7.137366384267807007e-02
3.012006636708974838e-03
-3.418286144733428955e-02
-1.485028956085443497e-02
-4.525015875697135925e-02
-1.032405346632003784e-02
5.340489093214273453e-03
-2.444823039695620537e-03
-3.017824888229370117e-02
3.889042418450117111e-03
2.496405318379402161e-02
6.155453994870185852e-02
-2.288832515478134155e-02
2.808249928057193756e-02
1.182838249951601028e-02
1.441360800527036190e-03
4.160489141941070557e-02
-7.521467749029397964e-03
6.045994162559509277e-02
4.231739416718482971e-02
-4.327535629272460938e-02
-7.269461173564195633e-03
-1.582138938829302788e-03
-4.275042098015546799e-03
-1.148571912199258804e-02
-1.858179830014705658e-02
-1.732265204191207886e-02
5.772388726472854614e-02
1.301673427224159241e-02
-3.786505013704299927e-02
1.743231900036334991e-02
2.905408293008804321e-02
9.526105597615242004e-03
-2.015387825667858124e-02
-1.034373510628938675e-02
1.817163825035095215e-02
-3.031724132597446442e-02
-2.270750142633914948e-02
-9.680416435003280640e-03
5.901769921183586121e-02
-2.737158164381980896e-02
-3.191208839416503906e-02
-2.093467116355895996e-02
-1.297784317284822464e-02
-1.051028631627559662e-02
-2.306578867137432098e-02
-1.983486302196979523e-02
-1.511405222117900848e-02
-6.694801896810531616e-02
-2.144731581211090088e-02
-6.362136919051408768e-03
-4.576230049133300781e-02
-9.773472324013710022e-03
2.484495565295219421e-02
-2.037990279495716095e-02
-6.357618421316146851e-02
