2.753825485706329346e-01
5.556252971291542053e-02
-1.031199991703033447e-01
6.527312099933624268e-03
2.788278460502624512e-01
-6.638673692941665649e-02
-7.026074826717376709e-02
1.339972019195556641e-01
1.706107109785079956e-01
-2.189434021711349487e-01
1.675336509943008423e-01
3.055354952812194824e-01
2.946430146694183350e-01
2.320162206888198853e-01
1.503486633300781250e-01
2.465709298849105835e-01
2.553509771823883057e-01
-4.570071771740913391e-02
-1.879975944757461548e-01
-7.672114670276641846e-02
-1.652802079916000366e-01
-7.557768840342760086e-03
-1.170852109789848328e-01
1.849964857101440430e-01
3.203707933425903320e-01
2.923873364925384521e-01
-1.030313745141029358e-01
6.546907871961593628e-02
-1.885071694850921631e-01
3.168712854385375977e-01
-7.892102748155593872e-02
1.006494984030723572e-01
2.780162096023559570e-01
-1.233363226056098938e-01
1.003861427307128906e-01
2.815152406692504883e-01
-3.848077729344367981e-02
-1.615211516618728638e-01
-1.664259433746337891e-01
2.644359469413757324e-01
1.281220465898513794e-01
1.853294819593429565e-01
-2.012303471565246582e-01
1.484230905771255493e-01
-1.824745982885360718e-01
3.094831407070159912e-01
9.348659776151180267e-03
-1.435776650905609131e-01
2.841619253158569336e-01
9.605159610509872437e-02
1.788002550601959229e-01
3.303680121898651123e-01
-1.062563210725784302e-01
-1.461725533008575439e-01
-3.204163163900375366e-02
-1.443952620029449463e-01
-1.686227768659591675e-01
-5.453984811902046204e-02
2.675674855709075928e-01
-2.476147189736366272e-02
-1.944491416215896606e-01
5.931404605507850647e-02
2.609304189682006836e-01
-6.232468783855438232e-02
-8.275362104177474976e-02
-1.002716347575187683e-01
2.192055284976959229e-01
2.223222404718399048e-01
-9.890905022621154785e-02
-1.142858043313026428e-01
-1.552709341049194336e-01
-3.933304175734519958e-02
2.502939663827419281e-02
-3.265152871608734131e-02
1.594858616590499878e-01
-1.188813149929046631e-01
1.207476407289505005e-01
-6.257830560207366943e-02
1.974733620882034302e-01
-9.716714918613433838e-02
2.641322612762451172e-01
-5.631375312805175781e-02
2.516343295574188232e-01
2.071371823549270630e-01
-7.661257684230804443e-02
2.811624109745025635e-01
-3.393862396478652954e-02
-1.891412436962127686e-01
8.852342516183853149e-02
2.083774209022521973e-01
1.778293550014495850e-01
-1.915243268013000488e-01
-3.049047850072383881e-02
-1.511787474155426025e-01
-1.715930402278900146e-01
-1.433960795402526855e-01
2.928451895713806152e-01
2.920104749500751495e-02
6.292588077485561371e-03
1.955028772354125977e-01
-1.315585225820541382e-01
1.311165243387222290e-01
8.773650974035263062e-02
-1.665971577167510986e-01
2.685405910015106201e-01
-4.477972909808158875e-02
-8.762919902801513672e-02
6.513416022062301636e-02
9.104918688535690308e-02
-2.010263204574584961e-01
1.362655311822891235e-01
-1.148050501942634583e-01
-1.116261929273605347e-01
-1.590316444635391235e-01
2.843997478485107422e-01
-3.589909523725509644e-02
1.396310925483703613e-01
-3.209541738033294678e-02
-7.493606954813003540e-02
3.101786971092224121e-01
-4.611127451062202454e-02
-1.856618970632553101e-01
3.345773518085479736e-01
1.139166653156280518e-01
-2.167943269014358521e-01
-3.179716691374778748e-02
1.658187508583068848e-01
-5.787349119782447815e-02
-7.122182846069335938e-02
9.514090418815612793e-02
7.688158005475997925e-02
-3.847202518954873085e-03
2.283331751823425293e-01
-1.280404180288314819e-01
-7.805716246366500854e-02
-1.309969276189804077e-01
-1.272973120212554932e-01
3.310238122940063477e-01
2.130136936902999878e-01
8.886237442493438721e-02
3.042258918285369873e-01
7.565017323940992355e-03
-1.777861863374710083e-01
6.246033310890197754e-02
1.495010405778884888e-01
2.365775704383850098e-01
3.104971051216125488e-01
1.530643999576568604e-01
1.280200481414794922e-01
-1.725465357303619385e-01
2.668764591217041016e-01
1.918744444847106934e-01
-1.162932217121124268e-01
-1.534305214881896973e-01
-1.186924055218696594e-01
-6.526632606983184814e-02
-7.786753028631210327e-02
-1.400152146816253662e-01
3.566965460777282715e-02
-4.304399341344833374e-02
-1.905772536993026733e-01
2.519752085208892822e-01
-1.454288512468338013e-01
-6.969259679317474365e-02
-1.139710620045661926e-01
1.949828565120697021e-01
-9.301744401454925537e-02
-1.175836324691772461e-01
-1.817828975617885590e-02
1.905978284776210785e-02
1.171296313405036926e-01
-1.253056675195693970e-01
-9.561605751514434814e-02
2.840764820575714111e-01
2.958599925041198730e-01
-1.903935670852661133e-01
-4.758373647928237915e-02
-4.823924973607063293e-02
2.482279390096664429e-01
1.566707491874694824e-01
2.352423369884490967e-01
2.620564103126525879e-01
6.493481248617172241e-02
4.423657804727554321e-02
3.021124899387359619e-01
2.247704416513442993e-01
-7.868541032075881958e-02
2.153748869895935059e-01
1.219958886504173279e-01
1.412228196859359741e-01
1.903686672449111938e-01
1.684311628341674805e-01
1.662480533123016357e-01
-9.922182559967041016e-02
8.020032942295074463e-02
2.731202356517314911e-02
3.002553582191467285e-01
-1.025608032941818237e-01
2.444977164268493652e-01
7.403393834829330444e-02
-1.162941604852676392e-01
-1.011256128549575806e-01
1.988998204469680786e-01
-1.330594569444656372e-01
2.531175315380096436e-01
-9.290475398302078247e-02
-1.349215209484100342e-01
2.436731010675430298e-01
-5.097100138664245605e-02
1.708393394947052002e-01
-4.086243733763694763e-02
-6.792508810758590698e-02
-1.196076795458793640e-01
2.664485573768615723e-01
1.826991885900497437e-01
-7.197691500186920166e-02
-1.461528986692428589e-01
-8.785109966993331909e-02
-1.365091949701309204e-01
-1.475504338741302490e-01
2.272949218750000000e-01
7.337658107280731201e-02
2.596566677093505859e-01
9.511934220790863037e-02
-1.254161149263381958e-01
2.678879201412200928e-01
-1.292776465415954590e-01
-3.987521305680274963e-02
2.417495548725128174e-01
-1.887750476598739624e-01
1.768107563257217407e-01
-1.363541781902313232e-01
3.131965175271034241e-02
6.056483462452888489e-02
-7.611637935042381287e-03
1.823562085628509521e-01
2.503794431686401367e-02
3.152990043163299561e-01
1.280871182680130005e-01
-9.890342503786087036e-02
-9.043628349900245667e-03
2.107458114624023438e-01
-8.147561550140380859e-02
-9.103284217417240143e-03
3.023205399513244629e-01
4.686200700234621763e-04
2.700586616992950439e-01
-1.577491909265518188e-01
-1.667166352272033691e-01
3.181699216365814209e-01
2.661163806915283203e-01
3.060437142848968506e-01
-1.297441124916076660e-01
-7.187556475400924683e-02
-2.395038492977619171e-03
-1.647373735904693604e-01
