1.893889009952545166e-01
9.097715467214584351e-02
-2.251638472080230713e-01
-1.850199401378631592e-01
-1.015919744968414307e-01
1.847650408744812012e-01
1.985708922147750854e-01
-1.358166337013244629e-01
-7.431032508611679077e-02
-1.907936781644821167e-01
-1.453973259776830673e-02
1.631743758916854858e-01
1.881581395864486694e-01
1.536351293325424194e-01
1.148611083626747131e-01
-1.398385763168334961e-01
1.838995665311813354e-01
-1.124516651034355164e-01
1.558576226234436035e-01
2.291634678840637207e-01
2.107983678579330444e-01
9.388270974159240723e-02
1.783913373947143555e-01
1.573534607887268066e-01
1.169901117682456970e-01
-1.671768724918365479e-01
-1.405751109123229980e-01
2.081076800823211670e-01
-1.567282825708389282e-01
1.606803238391876221e-01
-2.202654629945755005e-01
2.060481160879135132e-01
1.514566093683242798e-01
4.595221206545829773e-02
2.783022075891494751e-02
2.255964279174804688e-01
-1.733171492815017700e-01
9.766789525747299194e-02
1.892124265432357788e-01
-1.532322466373443604e-01
-1.302424520254135132e-01
-1.073478981852531433e-01
-1.441360563039779663e-01
1.106095761060714722e-01
1.494079083204269409e-01
3.749570623040199280e-02
-4.426762089133262634e-02
2.131848186254501343e-01
1.418331712484359741e-01
1.739570349454879761e-01
5.236397683620452881e-02
4.982697591185569763e-02
-2.027026377618312836e-02
-1.068834662437438965e-01
2.236221283674240112e-01
1.824825108051300049e-01
2.340528815984725952e-01
2.095596939325332642e-01
1.748111993074417114e-01
6.382870674133300781e-02
1.629933118820190430e-01
1.066021919250488281e-01
1.407422274351119995e-01
-5.206188932061195374e-02
1.486502140760421753e-01
1.257273554801940918e-01
1.880614906549453735e-01
1.679109930992126465e-01
1.260510683059692383e-01
1.743996441364288330e-01
2.393911927938461304e-01
1.771622449159622192e-01
-2.069209665060043335e-01
2.357884943485260010e-01
2.059862762689590454e-01
1.781204938888549805e-01
-1.981104165315628052e-01
9.497204422950744629e-02
2.433264404535293579e-01
1.431860476732254028e-01
-6.095089763402938843e-02
2.475830614566802979e-01
4.015234485268592834e-02
1.081233844161033630e-01
1.718837618827819824e-01
1.966185569763183594e-01
-4.097540304064750671e-02
2.049556374549865723e-01
-1.323636621236801147e-01
2.027038484811782837e-01
-1.644453704357147217e-01
-1.049805209040641785e-01
-5.186415836215019226e-02
1.130865588784217834e-01
2.291763573884963989e-01
2.157149612903594971e-01
1.386233866214752197e-01
1.182347908616065979e-01
9.005093574523925781e-02
1.028095483779907227e-01
-4.122235253453254700e-02
6.188986822962760925e-02
-1.613092571496963501e-01
1.934928745031356812e-01
1.470799595117568970e-01
1.614826023578643799e-01
1.914973258972167969e-01
1.463525146245956421e-01
-1.800838559865951538e-01
1.802762001752853394e-01
-1.916200518608093262e-01
2.276776283979415894e-01
1.645763516426086426e-01
-4.185563325881958008e-02
-1.752447187900543213e-01
1.338612884283065796e-01
-1.094106137752532959e-01
-2.150686830282211304e-01
6.747119873762130737e-02
1.515122801065444946e-01
1.230721250176429749e-01
9.865787625312805176e-02
1.709674149751663208e-01
-1.071488261222839355e-01
-3.930103033781051636e-02
1.642040461301803589e-01
-2.198678404092788696e-01
-7.960264384746551514e-02
-2.130982577800750732e-01
-9.019830822944641113e-02
-1.888297051191329956e-01
1.286585479974746704e-01
1.916448175907135010e-01
1.090635061264038086e-01
-1.149163171648979187e-01
1.429202109575271606e-01
1.932327449321746826e-01
-2.028725594282150269e-01
1.706339716911315918e-01
2.289539128541946411e-01
-1.647323952056467533e-03
9.715804457664489746e-02
9.143117815256118774e-02
2.359867244958877563e-01
1.850489079952239990e-01
1.064112260937690735e-01
-6.198176741600036621e-02
-9.626722335815429688e-02
2.356480360031127930e-01
1.089883297681808472e-01
-1.867892444133758545e-01
-1.893934011459350586e-01
1.913556456565856934e-01
-1.813053041696548462e-01
-1.858256161212921143e-01
-1.613388210535049438e-01
-1.715070456266403198e-01
1.604259163141250610e-01
1.037523299455642700e-01
1.637042313814163208e-01
-6.143949925899505615e-03
-7.724551833234727383e-04
2.289567142724990845e-01
1.997960507869720459e-01
-7.412797957658767700e-02
2.315944582223892212e-01
-1.359150707721710205e-01
-2.105818688869476318e-01
8.616752922534942627e-02
-2.137127369642257690e-01
1.101433336734771729e-01
1.491114199161529541e-01
-6.931228190660476685e-02
-8.098778128623962402e-02
-7.967907935380935669e-02
1.553699225187301636e-01
2.479855716228485107e-01
1.341709494590759277e-01
-1.110194772481918335e-01
1.082107797265052795e-01
1.954002380371093750e-01
2.128463834524154663e-01
-1.546880155801773071e-01
-2.105493843555450439e-01
-2.243529707193374634e-01
-6.750554591417312622e-02
4.478056728839874268e-02
-1.299722194671630859e-01
2.282414436340332031e-01
-1.486835181713104248e-01
1.799941509962081909e-01
7.019992172718048096e-02
1.627523154020309448e-01
1.256204992532730103e-01
1.453224569559097290e-01
-2.236486524343490601e-01
1.793354153633117676e-01
2.190082073211669922e-01
1.457890421152114868e-01
1.353874355554580688e-01
2.390181720256805420e-01
1.343546658754348755e-01
1.709816753864288330e-01
-3.542283177375793457e-02
2.284226417541503906e-01
1.248478889465332031e-01
1.632956564426422119e-01
1.790569722652435303e-01
1.039821356534957886e-01
-2.285201996564865112e-01
1.557478755712509155e-01
2.231256514787673950e-01
1.407841444015502930e-01
2.159668505191802979e-01
2.050242125988006592e-01
1.347702294588088989e-01
5.316744744777679443e-02
1.342394948005676270e-01
1.556764096021652222e-01
-1.526980251073837280e-01
1.237429007887840271e-01
-6.129220128059387207e-02
1.525062471628189087e-01
5.537405144423246384e-03
1.833836883306503296e-01
8.418163657188415527e-02
2.534506144002079964e-03
8.321064524352550507e-03
2.014517486095428467e-01
1.109630241990089417e-01
-1.498577445745468140e-01
-3.059552907943725586e-01
2.054342925548553467e-01
2.158270776271820068e-01
-6.816221773624420166e-02
1.875754632055759430e-02
-8.504541963338851929e-02
-1.062990874052047729e-01
1.619822084903717041e-01
5.638433992862701416e-02
7.717333734035491943e-02
2.535782158374786377e-01
2.061181962490081787e-01
1.371452361345291138e-01
1.020214110612869263e-01
-4.137545451521873474e-02
1.775526851415634155e-01
-1.249929815530776978e-01
1.989076882600784302e-01
2.465612441301345825e-01
2.224757075309753418e-01
-2.929568290710449219e-02
-2.656668722629547119e-01
1.279718279838562012e-01
-1.170535311102867126e-01
-4.761332273483276367e-02
