-3.570038676261901855e-01
2.521463036537170410e-01
3.603525161743164062e-01
3.985394537448883057e-01
-1.744654625654220581e-01
2.356805503368377686e-01
3.668659627437591553e-01
4.364095330238342285e-01
-2.803267836570739746e-01
-1.789573729038238525e-01
2.272474467754364014e-01
1.726725846529006958e-01
-1.732172220945358276e-01
1.423750519752502441e-01
-3.407812416553497314e-01
3.726513385772705078e-01
-3.252300918102264404e-01
3.786304295063018799e-01
-2.801977992057800293e-01
3.048139810562133789e-01
4.136929512023925781e-01
1.179445236921310425e-01
3.975873589515686035e-01
3.449083566665649414e-01
2.325641363859176636e-01
4.033493101596832275e-01
1.344563663005828857e-01
3.105673491954803467e-01
-3.529780209064483643e-01
-1.327551305294036865e-01
2.090793102979660034e-01
3.475893139839172363e-01
3.680585026741027832e-01
2.965418994426727295e-01
3.027762770652770996e-01
4.246371090412139893e-01
3.121086359024047852e-01
3.040491044521331787e-01
-3.453910052776336670e-01
2.831013798713684082e-01
2.164031118154525757e-01
4.519249498844146729e-01
3.444717526435852051e-01
-1.227048411965370178e-01
-3.622213900089263916e-01
-3.443129062652587891e-01
-1.658268719911575317e-01
-3.362128138542175293e-01
-1.598479598760604858e-01
-6.373383104801177979e-02
-2.982207238674163818e-01
2.838983237743377686e-01
2.979574501514434814e-01
7.604622095823287964e-02
3.308557569980621338e-01
-1.656137704849243164e-01
1.202896703034639359e-02
3.124814629554748535e-01
-4.064428508281707764e-01
4.276636838912963867e-01
3.913697302341461182e-01
-1.341093778610229492e-01
-2.981799542903900146e-01
-2.999029159545898438e-01
4.345603287220001221e-01
-2.783366441726684570e-01
1.909391134977340698e-01
4.025208652019500732e-01
2.601393163204193115e-01
2.745552062988281250e-01
4.393512904644012451e-01
3.144420981407165527e-01
2.292243987321853638e-01
2.190200537443161011e-01
2.351980209350585938e-01
-3.399041593074798584e-01
2.563666403293609619e-01
-1.603959798812866211e-01
-1.684364080429077148e-01
-2.187718302011489868e-01
-4.242488443851470947e-01
2.717928588390350342e-01
2.558844983577728271e-01
2.541566789150238037e-01
-3.115200102329254150e-01
3.582749664783477783e-01
3.677745461463928223e-01
-4.096856713294982910e-01
-3.302066028118133545e-02
1.110972017049789429e-01
3.962537646293640137e-01
3.876762092113494873e-01
3.230377435684204102e-01
-8.183690160512924194e-02
1.797274798154830933e-01
-3.367823362350463867e-01
3.726808726787567139e-01
-1.908889114856719971e-01
2.619556188583374023e-01
3.103399276733398438e-01
4.282261133193969727e-01
2.964856624603271484e-01
-2.370362170040607452e-02
2.799808084964752197e-01
-3.739717900753021240e-01
4.310114383697509766e-01
-9.242590516805648804e-02
-3.752052187919616699e-01
-2.557495832443237305e-01
4.452558755874633789e-01
-3.371452689170837402e-01
4.279348850250244141e-01
4.273502528667449951e-01
2.104723453521728516e-01
3.725288212299346924e-01
1.993020176887512207e-01
-3.817021250724792480e-01
-2.533283829689025879e-01
-2.554444074630737305e-01
-1.936796605587005615e-01
3.999898135662078857e-01
-1.067503318190574646e-01
-2.143839150667190552e-01
4.278494417667388916e-01
3.483795523643493652e-01
-3.697676062583923340e-01
-3.966781795024871826e-01
3.043017089366912842e-01
2.306668162345886230e-01
2.392213940620422363e-01
4.189580082893371582e-01
3.379797041416168213e-01
2.414856255054473877e-01
-3.496456444263458252e-01
1.669388115406036377e-01
3.194080293178558350e-01
-3.875023722648620605e-01
-1.671805232763290405e-01
3.214516043663024902e-01
-5.705344676971435547e-02
3.312196731567382812e-01
-4.315287768840789795e-01
-2.055374234914779663e-01
2.775952816009521484e-01
4.375848472118377686e-01
2.215798199176788330e-01
-3.298453688621520996e-01
2.878524363040924072e-01
3.299643099308013916e-01
-1.182762831449508667e-01
4.548165202140808105e-01
-5.202988535165786743e-02
3.368337154388427734e-01
4.261011481285095215e-01
3.179135620594024658e-01
2.538227736949920654e-01
3.921265602111816406e-01
3.268103301525115967e-01
2.705727815628051758e-01
-3.074753284454345703e-02
2.924620211124420166e-01
3.065828979015350342e-01
-2.960120439529418945e-01
2.854243516921997070e-01
-2.190139740705490112e-01
4.063580036163330078e-01
3.548481166362762451e-01
-7.604750990867614746e-02
3.442319631576538086e-01
3.985924124717712402e-01
-3.712262511253356934e-01
-1.778288185596466064e-01
-1.614847183227539062e-01
-1.534750163555145264e-01
-2.369782477617263794e-01
2.857646942138671875e-01
-2.626736462116241455e-01
-1.564792543649673462e-01
2.454326301813125610e-01
-3.698256313800811768e-01
-1.023013144731521606e-01
-1.719315797090530396e-01
4.397913813591003418e-01
-4.161725044250488281e-01
-1.265851855278015137e-01
3.248433470726013184e-01
-2.771851718425750732e-01
1.959370970726013184e-01
4.476203918457031250e-01
4.381546676158905029e-01
-1.911522597074508667e-01
2.674787342548370361e-01
4.076541364192962646e-01
4.251825213432312012e-01
-3.390592932701110840e-01
3.125062584877014160e-01
3.137804865837097168e-01
-2.861058115959167480e-01
2.806925773620605469e-01
4.426502883434295654e-01
2.929531633853912354e-01
-6.943391170352697372e-03
3.294059932231903076e-01
3.881680071353912354e-01
-3.536177277565002441e-01
-3.260715603828430176e-01
3.620976805686950684e-01
4.264768362045288086e-01
-6.719908863306045532e-02
-3.663202226161956787e-01
2.843254506587982178e-01
3.662649989128112793e-01
3.487979173660278320e-01
3.921177387237548828e-01
-3.600441813468933105e-01
2.889837920665740967e-01
2.993466258049011230e-01
-3.154010176658630371e-01
4.682536721229553223e-01
1.543564200401306152e-01
3.745160102844238281e-01
2.729260921478271484e-01
2.308168411254882812e-01
2.108862400054931641e-01
4.437678456306457520e-01
4.531379044055938721e-01
2.996487021446228027e-01
-2.033025175333023071e-01
3.182728886604309082e-01
-3.414801359176635742e-01
-4.215799868106842041e-01
-2.466052323579788208e-01
2.278961092233657837e-01
4.586016535758972168e-01
-2.085953950881958008e-01
1.842069625854492188e-01
2.194154411554336548e-01
3.044695556163787842e-01
-2.818694114685058594e-01
2.454569190740585327e-01
-3.702607452869415283e-01
3.824990987777709961e-01
-3.733283877372741699e-01
2.541497051715850830e-01
2.402500063180923462e-01
-1.378558427095413208e-01
3.794586658477783203e-01
-2.518300414085388184e-01
-1.519084125757217407e-01
3.250917196273803711e-01
4.312674403190612793e-01
4.197886586189270020e-01
-3.307305872440338135e-01
2.565208077430725098e-01
2.798712551593780518e-01
3.323374688625335693e-01
