-6.248014979064464569e-03
9.903817437589168549e-03
3.925442323088645935e-02
-2.796617522835731506e-02
-7.131836842745542526e-03
7.233087904751300812e-03
-3.198656020686030388e-03
-1.052864361554384232e-02
-1.204387098550796509e-02
4.871695861220359802e-02
-4.597758408635854721e-03
-1.753222080878913403e-03
-1.066862791776657104e-02
-6.054539699107408524e-03
-2.186172269284725189e-02
-2.539133653044700623e-02
2.804305590689182281e-02
-2.609293675050139427e-03
2.475626068189740181e-03
-3.396195918321609497e-02
1.353529468178749084e-02
3.466127440333366394e-03
2.687296457588672638e-02
-1.766670495271682739e-02
-8.661249652504920959e-03
-3.008982166647911072e-03
4.993044771254062653e-03
2.752978354692459106e-03
1.993742398917675018e-02
1.086056139320135117e-02
3.540369914844632149e-03
4.442892502993345261e-03
4.834238789044320583e-04
-2.410309389233589172e-02
-2.295361645519733429e-02
7.475063903257250786e-04
-1.361053157597780228e-02
1.590825058519840240e-02
2.451808936893939972e-02
-9.593095630407333374e-03
2.505728043615818024e-02
1.179218105971813202e-02
1.522728148847818375e-02
-1.382704824209213257e-03
5.582236917689442635e-04
3.601210191845893860e-02
-1.483238488435745239e-02
-8.431036956608295441e-03
-2.125354856252670288e-02
2.138348296284675598e-02
9.577922523021697998e-03
3.926956281065940857e-02
-2.228675596415996552e-02
-1.163412071764469147e-02
-1.407280284911394119e-02
-4.020390659570693970e-02
1.991869509220123291e-02
-3.477117419242858887e-02
-1.867966353893280029e-02
-3.278664872050285339e-02
-8.830664679408073425e-03
-7.138683926314115524e-03
5.304092541337013245e-02
-1.124433707445859909e-02
-4.726808052510023117e-03
4.781003575772047043e-03
1.069866959005594254e-02
5.341618089005351067e-04
2.191092446446418762e-02
7.162672933191061020e-03
2.612928859889507294e-02
2.800016955006867647e-04
2.962674573063850403e-02
-1.418365747667849064e-03
-3.065557032823562622e-02
3.249234333634376526e-02
5.120039451867341995e-03
1.628887839615345001e-02
-1.503216754645109177e-02
-9.674338623881340027e-03
5.042850226163864136e-02
3.216103836894035339e-02
6.441043689846992493e-03
1.048323232680559158e-02
3.003067104145884514e-03
-1.635647565126419067e-02
1.544892787933349609e-02
-1.315187942236661911e-02
-4.166164435446262360e-03
-1.736312918365001678e-02
2.131905034184455872e-02
7.983459159731864929e-03
1.868429221212863922e-02
2.462547086179256439e-02
3.879903256893157959e-02
-2.386294305324554443e-02
4.136002622544765472e-03
-1.827398873865604401e-02
-1.913241855800151825e-02
-2.193011605413630605e-04
-2.130972407758235931e-02
2.581651695072650909e-02
1.887287944555282593e-02
4.080417566001415253e-03
-1.531716622412204742e-02
2.162257209420204163e-02
-1.533376867882907391e-03
-1.551257725805044174e-02
4.096372053027153015e-02
-7.565839681774377823e-03
3.084504418075084686e-02
4.010234493762254715e-03
-8.142802864313125610e-03
-2.081110142171382904e-02
-1.440127473324537277e-02
3.676124289631843567e-02
-1.192203257232904434e-02
-4.037030786275863647e-02
9.063323959708213806e-03
-1.588712446391582489e-02
4.049121402204036713e-03
-1.874946989119052887e-02
2.649360895156860352e-02
-9.065390564501285553e-03
-7.348441518843173981e-03
-3.686758503317832947e-02
-7.980775088071823120e-03
4.118504375219345093e-02
1.785941235721111298e-02
-1.108468044549226761e-02
-2.831837162375450134e-02
8.913666941225528717e-03
1.639048568904399872e-02
6.673864275217056274e-02
-3.582465648651123047e-02
1.908055273815989494e-03
3.337192814797163010e-03
-1.392887625843286514e-02
-2.723281504586338997e-03
-3.413587110117077827e-03
-7.896569557487964630e-03
2.224389836192131042e-02
1.647822931408882141e-02
1.459226571023464203e-02
-1.759182428941130638e-03
3.132070973515510559e-02
2.349924854934215546e-02
1.994162425398826599e-02
-9.315700270235538483e-03
-1.180328894406557083e-02
-2.654632180929183960e-02
2.133880369365215302e-02
2.850523777306079865e-02
3.871672600507736206e-02
2.279869653284549713e-02
-4.463879857212305069e-03
4.373774863779544830e-03
1.421926822513341904e-02
4.313533194363117218e-03
-1.092964876443147659e-02
2.595720114186406136e-03
-9.406915865838527679e-03
8.145333267748355865e-03
1.418039295822381973e-02
-1.348781213164329529e-02
7.097688037902116776e-03
1.132581941783428192e-02
1.528771407902240753e-02
1.320844981819391251e-03
1.878044940531253815e-02
1.797073520720005035e-02
2.618013322353363037e-02
2.858487144112586975e-02
1.858502859249711037e-03
8.309997618198394775e-03
-2.354209776967763901e-03
-6.417074473574757576e-04
4.925685003399848938e-03
1.174836978316307068e-02
-8.492055349051952362e-03
1.728695444762706757e-02
4.036593437194824219e-02
-4.211964085698127747e-03
1.686455309391021729e-02
3.436420485377311707e-02
1.200301013886928558e-02
1.954468898475170135e-02
3.032362647354602814e-02
2.974636666476726532e-02
1.235554926097393036e-02
-1.053766999393701553e-02
2.203331561759114265e-03
2.434734342386946082e-04
2.193839102983474731e-02
2.056733472272753716e-03
-1.834022812545299530e-02
1.572859100997447968e-02
2.506353892385959625e-02
-2.156166825443506241e-03
-3.871327638626098633e-02
1.711072400212287903e-02
-8.965786546468734741e-03
-1.219266001135110855e-02
7.610391359776258469e-03
-1.833326369524002075e-02
-9.432555176317691803e-03
-5.380865652114152908e-03
7.322276476770639420e-03
-2.539938315749168396e-02
3.905808180570602417e-02
-8.036922663450241089e-03
3.534904448315501213e-03
1.023702975362539291e-02
-2.152595436200499535e-03
4.280122462660074234e-03
-3.517342498525977135e-03
4.309175536036491394e-03
-2.881867438554763794e-02
4.522906616330146790e-03
-1.632269099354743958e-02
5.539958365261554718e-03
1.046254765242338181e-02
-4.209528677165508270e-03
-1.085293712094426155e-03
-3.749899938702583313e-02
2.951178699731826782e-02
1.223451085388660431e-02
-2.016683574765920639e-03
6.465694401413202286e-03
1.724541001021862030e-02
2.578083192929625511e-03
1.858363486826419830e-02
7.822521962225437164e-03
1.088119205087423325e-02
-1.241184864193201065e-02
-6.043083500117063522e-03
-9.940085001289844513e-03
8.331204764544963837e-03
6.277329288423061371e-03
-6.624203640967607498e-03
1.708353124558925629e-02
-1.197827793657779694e-02
-3.394809085875749588e-03
2.152339741587638855e-02
2.611348871141672134e-03
1.643973635509610176e-03
1.171131618320941925e-02
-2.664340892806649208e-03
8.283967326860874891e-05
2.082142606377601624e-02
1.716077700257301331e-02
-3.380985930562019348e-02
3.591687604784965515e-02
5.679716821759939194e-03
1.654977211728692055e-03
2.083300380036234856e-03
