4.004964232444763184e-02
4.742574691772460938e-02
3.254425525665283203e-02
-3.451649390626698732e-04
1.671690493822097778e-02
1.219072379171848297e-02
-2.235644496977329254e-02
-4.831608384847640991e-03
6.098967511206865311e-03
-6.292579229921102524e-03
-2.346531488001346588e-02
5.164749454706907272e-03
6.043669953942298889e-02
-9.398495778441429138e-03
-1.074275188148021698e-02
-4.241855069994926453e-02
-1.638671755790710449e-02
2.856053225696086884e-02
-3.647143393754959106e-02
-2.752079628407955170e-02
-4.356879368424415588e-02
-2.058031782507896423e-02
2.405342087149620056e-02
-2.012967877089977264e-02
-1.260184030979871750e-02
-2.287735696882009506e-03
-2.478655241429805756e-02
4.380987212061882019e-02
3.527981042861938477e-02
-2.088595181703567505e-02
1.369941513985395432e-03
1.345252059400081635e-02
3.117028251290321350e-02
1.674451865255832672e-02
-2.119771763682365417e-02
3.012736514210700989e-02
-9.554156102240085602e-03
5.080055072903633118e-02
-2.710555121302604675e-02
1.070436649024486542e-02
4.329803213477134705e-02
1.736170612275600433e-02
-2.352744713425636292e-02
2.678511105477809906e-02
1.343280915170907974e-02
1.322987210005521774e-02
-2.578170783817768097e-02
-6.420802790671586990e-03
1.005020271986722946e-02
2.323554642498493195e-02
5.007672682404518127e-02
8.315818384289741516e-03
-3.121027722954750061e-02
2.401961572468280792e-02
-1.407695095986127853e-02
-2.639921847730875015e-03
1.409711199812591076e-03
-4.424554295837879181e-03
-1.600155420601367950e-02
-1.233894261531531811e-03
-2.284114807844161987e-02
-3.247666358947753906e-02
1.873676781542599201e-03
1.064621750265359879e-02
3.002375923097133636e-02
3.831637278199195862e-02
-3.295975923538208008e-02
-1.032796595245599747e-02
5.968096666038036346e-03
3.203896805644035339e-02
4.469498991966247559e-02
-1.235092710703611374e-02
5.518894270062446594e-02
-3.276918781921267509e-03
6.650266051292419434e-02
1.032983418554067612e-02
-1.058008428663015366e-02
2.014187630265951157e-03
-2.685723302420228720e-04
-2.120296284556388855e-02
4.122848063707351685e-02
-1.542422268539667130e-02
4.167104884982109070e-02
5.536667257547378540e-02
3.648593276739120483e-02
3.671752056106925011e-03
3.394338069483637810e-03
-4.731063731014728546e-03
3.491483628749847412e-02
-1.050209347158670425e-02
4.505787510424852371e-03
1.047251652926206589e-02
2.495424263179302216e-02
-3.455714881420135498e-02
9.482027962803840637e-03
-2.087881602346897125e-02
2.701263315975666046e-02
-7.749344222247600555e-03
2.015834487974643707e-02
1.864711195230484009e-02
3.383127739652991295e-03
-8.970737108029425144e-04
-5.050228210166096687e-04
-2.818539366126060486e-02
1.401169283781200647e-04
6.212910264730453491e-02
-6.115051801316440105e-04
-6.813351530581712723e-03
1.766030862927436829e-02
-5.856465548276901245e-03
3.425071761012077332e-02
-5.960037466138601303e-03
3.027007356286048889e-02
1.641428843140602112e-02
-8.170522749423980713e-03
-9.257148019969463348e-03
-1.438425481319427490e-02
-2.758026681840419769e-02
-1.572616212069988251e-02
2.853855863213539124e-02
-1.813043258152902126e-03
1.279584690928459167e-02
2.600382640957832336e-02
-2.554549276828765869e-02
3.016564063727855682e-02
3.064908832311630249e-02
1.891602575778961182e-02
-3.497742488980293274e-02
6.529058795422315598e-03
-7.451886631315574050e-06
-7.390914019197225571e-03
1.325252559036016464e-02
1.031232252717018127e-02
2.471250668168067932e-02
-1.689518801867961884e-02
1.727890223264694214e-02
5.061640217900276184e-02
-7.006136700510978699e-03
-1.600976451300084591e-03
8.552985265851020813e-03
-5.451822187751531601e-03
-1.242918428033590317e-02
8.355858735740184784e-03
3.493754193186759949e-02
1.927412115037441254e-02
3.514812141656875610e-02
-1.243028789758682251e-02
2.015052735805511475e-02
-6.214098073542118073e-03
-5.963771417737007141e-02
1.481101661920547485e-02
-1.574207469820976257e-02
4.083358123898506165e-02
2.975026704370975494e-02
2.647673524916172028e-02
6.764408200979232788e-03
6.753103341907262802e-03
-3.032198548316955566e-02
-1.323259552009403706e-03
-3.943564742803573608e-02
4.949924722313880920e-02
2.407003426924347878e-03
3.089308738708496094e-02
-1.993586681783199310e-02
2.938245423138141632e-03
1.430538669228553772e-02
-2.004916593432426453e-02
8.366557955741882324e-02
2.437071502208709717e-02
6.303973495960235596e-02
1.239491626620292664e-02
-3.050692379474639893e-03
4.413837566971778870e-02
-2.740347525104880333e-03
-6.036576814949512482e-03
-2.185386791825294495e-02
5.057449638843536377e-02
3.181093558669090271e-02
-5.596505943685770035e-03
-7.252027280628681183e-03
-8.422011509537696838e-03
4.383751749992370605e-02
8.143463172018527985e-03
-2.087902463972568512e-02
2.260494977235794067e-02
1.773112080991268158e-02
1.717958599328994751e-02
-1.324492041021585464e-02
3.268444538116455078e-02
1.698456890881061554e-02
-2.422276884317398071e-02
1.533268205821514130e-02
1.290185377001762390e-03
3.665390238165855408e-02
-6.280175596475601196e-02
-7.377808541059494019e-02
-8.264679461717605591e-03
1.017424371093511581e-02
2.834964357316493988e-02
-1.179243996739387512e-02
-6.204266566783189774e-03
1.744413748383522034e-02
-3.689870983362197876e-02
-4.356287792325019836e-02
-2.704548649489879608e-02
-1.889874786138534546e-02
-6.962002720683813095e-03
2.360963448882102966e-02
3.033818677067756653e-02
4.517217725515365601e-02
-5.026898346841335297e-03
-2.005903609097003937e-02
3.905327245593070984e-02
3.016886860132217407e-02
2.232008846476674080e-03
-6.262205541133880615e-03
-1.782519859261810780e-03
4.626809060573577881e-02
-3.761196741834282875e-03
-3.431255742907524109e-02
-4.518388304859399796e-03
-3.314610337838530540e-03
-6.071435636840760708e-04
7.128322962671518326e-03
1.712208986282348633e-02
4.496869817376136780e-02
1.612965576350688934e-02
1.467524096369743347e-02
-1.630605943500995636e-02
-8.256243541836738586e-03
6.026448216289281845e-03
-1.248861383646726608e-02
3.000727295875549316e-02
1.091477740556001663e-02
-4.248862620443105698e-03
-2.960662357509136200e-02
1.213616109453141689e-03
1.291517075151205063e-02
-6.836412008851766586e-03
-1.990724541246891022e-02
2.047170884907245636e-02
-6.060957908630371094e-02
-2.810152992606163025e-02
3.545473562553524971e-03
1.966894418001174927e-02
1.028561405837535858e-02
-4.870841652154922485e-02
8.616072125732898712e-03
-5.442608520388603210e-02
-4.548293538391590118e-03
4.370715934783220291e-03
2.839694730937480927e-02
3.264139220118522644e-02
-3.897697851061820984e-02
-2.911763638257980347e-02
-1.446451991796493530e-02
