5.557260941714048386e-03 1.301678866147994995e-01 9.917344897985458374e-02 -8.916940540075302124e-02 -1.221851557493209839e-01 1.391588747501373291e-01 -1.975827962160110474e-01 -1.163270138204097748e-02 -4.991973191499710083e-02 1.784957498311996460e-01 -4.954329505562782288e-02 1.076402608305215836e-02 -1.320981681346893311e-01 2.405484020709991455e-01 8.484783768653869629e-02 -2.537154406309127808e-02 -8.318122476339340210e-02 -1.163282915949821472e-01 2.770668640732765198e-02 -2.254358679056167603e-01 6.941727548837661743e-02 -2.236199798062443733e-03 -9.420569054782390594e-03 -3.336210502311587334e-03 5.269436538219451904e-02 -1.381522268056869507e-01 -6.749103218317031860e-02 -1.557713467627763748e-02 3.661648184061050415e-02 1.682182773947715759e-02 -3.736370429396629333e-02 1.284429877996444702e-01 1.408784538507461548e-01 -2.308755740523338318e-02 1.180638559162616730e-02 3.188952058553695679e-02 1.756440997123718262e-01 -5.169197171926498413e-02 -5.829928815364837646e-02 -8.688000589609146118e-02 -5.172862112522125244e-02 -3.681595250964164734e-02 -1.833611875772476196e-01 9.610319137573242188e-02 -6.508728861808776855e-02 2.119829691946506500e-02 1.846970617771148682e-02 -1.167108025401830673e-02 7.846489548683166504e-02 6.615602225065231323e-02 2.947358181700110435e-03 -2.505526244640350342e-01 1.861339784227311611e-03 3.573104739189147949e-03 -1.429364737123250961e-02 6.241652183234691620e-03 -3.044988960027694702e-02 2.284869104623794556e-01 -1.185115799307823181e-01 8.186063170433044434e-02 -2.615499496459960938e-02 1.018792390823364258e-01 2.047849595546722412e-01 -7.467956095933914185e-02 -9.885692596435546875e-02 -5.361422896385192871e-03 1.322710216045379639e-01 -3.726757317781448364e-02 -2.348757535219192505e-02 -1.845069378614425659e-01 -3.302678465843200684e-02 1.344168186187744141e-01 -3.734727203845977783e-02 2.307035960257053375e-02 1.510387361049652100e-01 1.031821742653846741e-01 8.925893157720565796e-02 -3.754956924240104854e-05 3.917241469025611877e-02 4.757942631840705872e-02 -1.617638617753982544e-01 1.624537706375122070e-01 7.726626936346292496e-04 9.309281408786773682e-02 1.745326258242130280e-02 -1.761711239814758301e-01 -6.036708131432533264e-03 -3.210312128067016602e-02 -4.630134254693984985e-02 -3.890671953558921814e-02 -1.536228954792022705e-01 7.126731425523757935e-02 -2.763532102108001709e-02 6.717568635940551758e-02 -8.304519206285476685e-02 7.084474712610244751e-02 2.000012248754501343e-02 1.209786012768745422e-01 -1.042277645319700241e-02 -5.254705250263214111e-02 6.147431675344705582e-03 -1.157983243465423584e-01 8.945076167583465576e-02 1.141179073601961136e-02 8.207137137651443481e-02 -1.981180906295776367e-02 -8.964116871356964111e-02 3.850098699331283569e-02 -4.892430827021598816e-02 -9.866625070571899414e-02 -2.961723133921623230e-02 1.271319668740034103e-02 -4.530927166342735291e-02 -1.480995956808328629e-02 -1.628907173871994019e-01 -6.523957103490829468e-02 -1.304336935281753540e-01 1.340100318193435669e-01 -1.875948905944824219e-02 1.276782620698213577e-02 1.152451336383819580e-01 4.172388464212417603e-02 7.808404415845870972e-02 -1.981701701879501343e-02 -1.352453529834747314e-01 1.052874624729156494e-01 1.260592490434646606e-01 1.349002588540315628e-02 -4.957416281104087830e-02 -9.782389551401138306e-02 2.362398430705070496e-02 2.693401649594306946e-03 -1.527668675407767296e-03 3.132944926619529724e-02 -1.668828912079334259e-02 -1.423039138317108154e-01 3.209672868251800537e-02 -1.558281481266021729e-01 -8.467923849821090698e-02 1.191306337714195251e-01 -2.084313929080963135e-01 1.733829081058502197e-02 6.269895471632480621e-03 -1.376157067716121674e-02 -8.348042517900466919e-02 8.475925028324127197e-02 -7.556565105915069580e-02 1.236491426825523376e-01 2.126313745975494385e-01 5.397377908229827881e-02 4.610062018036842346e-02 -5.625259876251220703e-02 -8.981453627347946167e-02 2.356921322643756866e-02 2.342337183654308319e-02 -7.590240985155105591e-02 -1.201517805457115173e-01 -7.141872495412826538e-02 -1.006983444094657898e-01 7.183595001697540283e-02 1.970227248966693878e-02 -5.889490619301795959e-02 1.425855904817581177e-01 5.365828052163124084e-02 -1.315111760050058365e-02 1.684358716011047363e-02 7.425274699926376343e-02 6.949247419834136963e-02 2.081777006387710571e-01 -4.810132458806037903e-02 -1.063723638653755188e-01 -9.546609967947006226e-02 7.423650939017534256e-03 -2.645170129835605621e-02 -2.577220648527145386e-02 7.043959945440292358e-02 -7.040504366159439087e-03 -4.392676427960395813e-02 2.705259062349796295e-02 -9.484957158565521240e-02 -8.521676808595657349e-02 -7.215627282857894897e-02 -7.395166158676147461e-02 -6.120041757822036743e-02 -1.318463822826743126e-03 4.506599530577659607e-02 -1.545849889516830444e-01 1.142978742718696594e-01 1.756658554077148438e-01 3.974836319684982300e-02 -3.756855055689811707e-02 -9.266689419746398926e-02 2.231898158788681030e-02 1.222695335745811462e-01 -1.908437721431255341e-02 5.523134395480155945e-02 1.215267404913902283e-01 -4.956343024969100952e-02 -7.279853522777557373e-02 -7.293827831745147705e-02 -8.541984856128692627e-02 -8.316424489021301270e-02 7.263337075710296631e-02 -1.541745066642761230e-01 -4.421048238873481750e-02 -1.084796502254903316e-03 1.624761708080768585e-02 -6.331893056631088257e-02 2.075541391968727112e-02 -1.439639925956726074e-01 -4.342379420995712280e-02 2.793107181787490845e-02 5.041567608714103699e-02 8.843450248241424561e-02 8.245478570461273193e-02 -6.391525734215974808e-03 -5.863323435187339783e-02 -1.381988637149333954e-03 -2.077667601406574249e-02 5.401522293686866760e-02 6.787526607513427734e-02 -1.283277273178100586e-01 3.185865283012390137e-02 7.799877226352691650e-02 2.983602927997708321e-03 1.265510357916355133e-02 1.857157563790678978e-03 3.630387037992477417e-02 -6.476981937885284424e-02 1.494424795964732766e-04 -1.083254963159561157e-01 -6.764740496873855591e-02 1.143140196800231934e-01 9.191017597913742065e-02 1.635233312845230103e-02 -1.270627230405807495e-01 4.277612548321485519e-03 -1.278062015771865845e-01 5.827189423143863678e-03 -3.619978204369544983e-02 8.451300859451293945e-02 -1.644256711006164551e-01 1.050112918019294739e-01 8.663923293352127075e-02 5.620954185724258423e-02 2.528466284275054932e-02 -1.973875761032104492e-01 -1.322829723358154297e-01 -1.068407446146011353e-01 6.532554049044847488e-03 1.452469378709793091e-01 -3.720267862081527710e-02 7.364829629659652710e-02 -1.045076623558998108e-01 9.500035643577575684e-02 -2.199676446616649628e-02
1.686355471611022949e-01 -1.673489958047866821e-01 -6.217943876981735229e-02 -1.917185336351394653e-01 1.435522735118865967e-01 -4.052270576357841492e-02 8.226933330297470093e-02 4.891359806060791016e-02 1.914999820291996002e-02 6.667086482048034668e-02 2.974855899810791016e-02 -1.653677225112915039e-01 5.608995258808135986e-02 2.153075486421585083e-02 -9.738645702600479126e-02 5.759931728243827820e-02 1.778219081461429596e-02 -1.134075000882148743e-01 -1.643554568290710449e-01 2.803206630051136017e-02 -1.439054869115352631e-02 4.708299040794372559e-02 1.224841251969337463e-01 -1.169833466410636902e-01 -4.750816896557807922e-02 7.288406044244766235e-02 1.041958555579185486e-01 -7.752177864313125610e-02 1.317508816719055176e-01 -1.196477934718132019e-01 1.339188516139984131e-01 -2.378905564546585083e-02 6.107790768146514893e-02 -3.565521165728569031e-02 -1.712985103949904442e-04 -6.252998113632202148e-02 -3.394765779376029968e-02 -1.165392249822616577e-01 1.223093736916780472e-02 -1.823085397481918335e-01 3.691422194242477417e-02 1.320522725582122803e-01 -1.608002185821533203e-02 -1.241734623908996582e-01 1.824334263801574707e-01 -1.315251085907220840e-02 -9.245764464139938354e-03 -2.445252798497676849e-02 -1.477818936109542847e-01 4.052653163671493530e-02 1.218256503343582153e-01 2.694036439061164856e-02 7.875827699899673462e-02 1.127256304025650024e-01 1.440489888191223145e-01 1.196688041090965271e-01 8.071757853031158447e-02 2.203279733657836914e-02 2.052556276321411133e-01 1.398906111717224121e-01 9.551075100898742676e-02 2.954378165304660797e-02 6.829063640907406807e-04 2.183605916798114777e-02 7.311523891985416412e-03 -4.800380021333694458e-02 -1.038793548941612244e-01 -3.435664623975753784e-02 -1.123587507754564285e-02 2.003297060728073120e-01 9.731995314359664917e-02 1.028857193887233734e-03 1.718666777014732361e-02 -1.285679358989000320e-02 2.702180482447147369e-02 7.831196486949920654e-02 -7.707512378692626953e-02 1.071443334221839905e-01 1.811101660132408142e-02 9.764770045876502991e-03 -5.048360209912061691e-03 -1.392799615859985352e-02 -2.008811011910438538e-02 7.027484476566314697e-02 6.240161135792732239e-02 -3.844892233610153198e-02 6.308834254741668701e-02 -6.169164180755615234e-02 1.346416175365447998e-01 -3.735222294926643372e-02 -8.164163678884506226e-03 2.924928367137908936e-01 1.097405981272459030e-02 3.116037137806415558e-02 1.787808239459991455e-01 2.302344888448715210e-02 8.979196101427078247e-02 -7.248738408088684082e-02 8.997596800327301025e-02 8.578604459762573242e-02 1.900623738765716553e-02 1.626978628337383270e-02 -1.995892077684402466e-02 -4.398394376039505005e-02 -2.936149016022682190e-02 1.273650210350751877e-02 -1.577380858361721039e-02 3.063402883708477020e-02 -4.305319860577583313e-02 1.623349040746688843e-01 -1.993467286229133606e-02 1.299656555056571960e-02 -1.792693510651588440e-02 1.216139122843742371e-01 3.595255687832832336e-02 -1.020413637161254883e-01 -3.527816385030746460e-02 -9.087238460779190063e-02 -2.758426778018474579e-02 1.326664835214614868e-01 1.994942128658294678e-01 -1.021583937108516693e-02 1.588028222322463989e-01 -5.182157456874847412e-02 2.151257544755935669e-02 -9.964875131845474243e-02 1.035570949316024780e-01 1.067331526428461075e-02 8.734469860792160034e-02 -2.988598309457302094e-02 8.814585208892822266e-02 -1.691746115684509277e-01 -2.472366020083427429e-02 -5.600793752819299698e-03 -7.587088644504547119e-02 2.222349941730499268e-01 -3.251259773969650269e-02 -4.708915203809738159e-02 5.118659138679504395e-02 -3.974376246333122253e-02 6.117257848381996155e-02 -6.495368480682373047e-02 2.494691312313079834e-01 -6.562155485153198242e-02 1.355379819869995117e-02 4.571944847702980042e-02 -8.218888938426971436e-02 -1.530771553516387939e-01 5.669704452157020569e-02 1.114155054092407227e-01 -5.833868309855461121e-02 2.292815409600734711e-02 -1.098379492759704590e-01 1.037450730800628662e-01 -4.071857035160064697e-02 -1.894707977771759033e-02 -6.365781277418136597e-02 -6.686664372682571411e-02 1.061721444129943848e-01 -4.701378196477890015e-02 6.725133955478668213e-02 6.758558750152587891e-02 1.047500669956207275e-01 -2.885976620018482208e-02 1.516303122043609619e-01 -3.403899818658828735e-02 -1.445725113153457642e-01 3.029283601790666580e-03 7.919340580701828003e-02 -1.397473812103271484e-01 7.882506400346755981e-02 -4.677970334887504578e-02 1.752962358295917511e-02 -3.266534209251403809e-02 -5.624924227595329285e-02 -4.861666634678840637e-02 -5.946035683155059814e-02 1.145215928554534912e-01 -1.509262919425964355e-01 5.928351357579231262e-02 7.434294372797012329e-02 -3.238693624734878540e-02 -8.059050142765045166e-02 1.720505207777023315e-01 -2.801042795181274414e-02 9.635785222053527832e-02 -2.382313541602343321e-04 1.022420823574066162e-01 -4.475808143615722656e-02 9.669858962297439575e-02 -1.704589277505874634e-01 -1.301140408031642437e-03 -2.283248677849769592e-02 5.586382374167442322e-02 2.229057997465133667e-01 1.061913967132568359e-01 -2.631808258593082428e-02 -6.879324465990066528e-02 3.600398451089859009e-02 1.756641715764999390e-01 -5.286252871155738831e-02 8.260728418827056885e-02 -9.719787538051605225e-02 8.885945379734039307e-02 1.949113793671131134e-02 1.678673028945922852e-01 1.550210118293762207e-01 2.446421533823013306e-01 7.357554277405142784e-04 -1.213371232151985168e-01 1.238028779625892639e-01 5.577970296144485474e-02 -1.083106920123100281e-01 7.144963368773460388e-03 -4.056318476796150208e-02 1.577542126178741455e-01 8.768179267644882202e-02 5.278548970818519592e-02 -1.343573536723852158e-02 1.105282232165336609e-01 -1.162854954600334167e-01 2.253003977239131927e-02 -5.569823831319808960e-02 3.534114453941583633e-03 -2.489716187119483948e-02 5.135808885097503662e-02 -8.127982914447784424e-02 1.503687649965286255e-01 -4.452298209071159363e-02 4.674727469682693481e-02 1.375882476568222046e-01 -1.323127746582031250e-01 -6.783394515514373779e-02 -7.041275501251220703e-02 -1.956845633685588837e-02 1.781796663999557495e-02 -2.913947589695453644e-02 2.786745429039001465e-01 1.246758997440338135e-01 -2.181973494589328766e-02 -4.743015393614768982e-02 2.565023489296436310e-02 1.084943413734436035e-01 -3.062301687896251678e-02 1.298017948865890503e-01 1.671298891305923462e-01 8.328249305486679077e-02 1.611930876970291138e-01 7.935585826635360718e-02 6.735051423311233521e-02 3.953983634710311890e-02 5.997360497713088989e-02 -7.810039818286895752e-02 -1.385169327259063721e-01 -3.663035482168197632e-02 2.565847709774971008e-02
-2.287570759654045105e-02 7.588437758386135101e-03 -5.047731101512908936e-03 -2.409677579998970032e-02 1.434863195754587650e-03 -1.056596450507640839e-02 -7.100655138492584229e-02 1.283594369888305664e-01 6.330115348100662231e-02 1.972678005695343018e-01 2.832629531621932983e-02 6.801994144916534424e-02 2.376825548708438873e-02 -9.267338365316390991e-02 -2.195917302742600441e-03 9.003350138664245605e-02 1.579347252845764160e-01 -6.664508581161499023e-02 7.315517961978912354e-02 -7.002257555723190308e-02 -4.333947971463203430e-02 5.665379762649536133e-02 -3.758199885487556458e-02 -3.302790597081184387e-02 5.853852629661560059e-02 3.859169408679008484e-02 5.111552029848098755e-02 1.062811389565467834e-01 3.262005001306533813e-02 -1.063621565699577332e-01 -1.261117681860923767e-02 6.737787276506423950e-02 -9.676025062799453735e-02 -5.803118646144866943e-02 1.676419228315353394e-01 -1.510112732648849487e-01 6.822859868407249451e-03 -2.228337340056896210e-02 4.680886119604110718e-02 -5.545096099376678467e-02 -6.317207217216491699e-02 3.477740660309791565e-02 -2.038737572729587555e-02 -2.930134721100330353e-02 2.547528147697448730e-01 -1.875030063092708588e-02 -5.904678255319595337e-02 4.835104569792747498e-02 1.268224716186523438e-01 -7.184385508298873901e-02 1.049050614237785339e-01 -3.717957809567451477e-02 1.270344108343124390e-01 1.710056960582733154e-01 1.827203631401062012e-01 1.601331233978271484e-01 2.166268676519393921e-01 -6.827598810195922852e-02 -2.375958301126956940e-02 6.043960899114608765e-02 -1.364939287304878235e-02 2.676889114081859589e-02 3.326395899057388306e-02 5.238403379917144775e-02 7.992365211248397827e-02 7.663750648498535156e-02 1.371455937623977661e-01 -4.498060420155525208e-02 3.996186703443527222e-02 -1.301283091306686401e-01 -8.039051294326782227e-02 -8.912172168493270874e-02 8.823022991418838501e-02 8.292529731988906860e-02 -2.780612371861934662e-02 8.039746433496475220e-03 -1.323343217372894287e-01 -3.270411118865013123e-02 1.262971293181180954e-02 -8.119728881865739822e-04 4.042352363467216492e-02 -7.497720420360565186e-02 -4.951430857181549072e-02 8.401317894458770752e-02 -1.196085140109062195e-01 -7.283446192741394043e-02 -1.174964681267738342e-01 1.590386629104614258e-01 -1.214467138051986694e-01 3.675427287817001343e-02 -1.278387382626533508e-03 -1.702681779861450195e-01 -4.108244925737380981e-02 -1.749570071697235107e-01 -6.977060437202453613e-02 -1.522889174520969391e-02 6.943879276514053345e-02 3.003226406872272491e-02 1.267660856246948242e-01 9.342893213033676147e-02 -3.739942237734794617e-02 -3.954883664846420288e-02 7.577367871999740601e-02 -4.203159734606742859e-02 -1.043759211897850037e-01 8.735890686511993408e-02 -1.516411080956459045e-02 6.530743092298507690e-02 1.602214388549327850e-02 -6.737674772739410400e-02 6.702532619237899780e-02 9.779591858386993408e-02 2.610429376363754272e-02 4.618107900023460388e-02 -6.143296882510185242e-02 -9.357659146189689636e-03 4.081902280449867249e-02 -1.002452000975608826e-01 -3.797549521550536156e-03 2.844394147396087646e-01 -6.248967256397008896e-04 -9.903179854154586792e-02 8.351821452379226685e-02 9.714666008949279785e-02 1.143370643258094788e-01 9.980906546115875244e-02 -1.052725501358509064e-02 -1.449967622756958008e-01 9.386686980724334717e-02 1.896602101624011993e-02 -7.378202676773071289e-02 1.239253878593444824e-01 -6.250023096799850464e-02 1.355896610766649246e-02 -4.662770405411720276e-02 1.471505463123321533e-01 -4.482161998748779297e-02 -1.895190775394439697e-01 5.010916292667388916e-02 -5.750395823270082474e-03 -2.512299269437789917e-02 -2.866522874683141708e-03 7.622066885232925415e-02 -7.735824584960937500e-02 -4.661147668957710266e-02 -1.175412070006132126e-02 1.037066057324409485e-01 2.182915434241294861e-02 3.443364799022674561e-02 9.170038998126983643e-02 8.659397810697555542e-02 -3.611546382308006287e-02 -1.857463866472244263e-01 3.924949467182159424e-02 1.444386690855026245e-01 -7.316690683364868164e-02 -1.828662157058715820e-01 6.791100651025772095e-02 -1.035431474447250366e-01 -1.732961274683475494e-02 -2.486282959580421448e-02 -1.415963917970657349e-01 5.916454643011093140e-02 1.097178459167480469e-01 -4.418630897998809814e-02 2.555606141686439514e-02 4.798353090882301331e-02 5.236322060227394104e-02 -1.835910826921463013e-01 1.264527887105941772e-01 -9.672971814870834351e-02 -8.389121294021606445e-02 1.074296087026596069e-01 -3.728650882840156555e-02 3.133814036846160889e-02 5.145101994276046753e-02 6.580603122711181641e-02 5.859040096402168274e-02 4.185257479548454285e-02 -2.662093751132488251e-02 -2.550337836146354675e-02 7.480753213167190552e-02 1.400486752390861511e-02 -1.260579377412796021e-01 9.534271061420440674e-02 -9.296642243862152100e-02 -7.672842592000961304e-02 -1.060615777969360352e-01 5.158746615052223206e-02 -1.510245054960250854e-01 4.883017018437385559e-02 -1.713097542524337769e-01 2.069943817332386971e-03 -2.110755303874611855e-03 2.141433209180831909e-01 1.475695222616195679e-01 1.723689436912536621e-01 9.585593827068805695e-03 -7.168059796094894409e-02 1.563506200909614563e-02 1.066061928868293762e-01 -2.561651542782783508e-02 -9.581020101904869080e-03 5.380276218056678772e-02 1.124232709407806396e-01 9.116479754447937012e-02 3.687777370214462280e-02 -1.193315815180540085e-02 1.027079951018095016e-02 -3.895845264196395874e-02 6.097949668765068054e-02 2.539972483646124601e-04 3.448482602834701538e-03 5.568076670169830322e-02 2.033196575939655304e-02 2.582966685295104980e-01 -4.620742052793502808e-02 9.065058082342147827e-02 1.343169063329696655e-01 -1.827648840844631195e-02 -5.400392692536115646e-04 2.229258865118026733e-01 1.903453320264816284e-01 2.140851467847824097e-01 1.020721048116683960e-01 -1.320141274482011795e-02 -5.911589413881301880e-02 3.437141701579093933e-02 -2.768648602068424225e-02 -3.774676844477653503e-02 1.527373958379030228e-02 -4.644001647830009460e-02 -2.765851281583309174e-02 1.692200303077697754e-01 -4.294925928115844727e-02 1.069681067019701004e-02 1.767861098051071167e-01 6.969032436609268188e-02 -1.060002744197845459e-01 5.137034505605697632e-02 5.414097011089324951e-02 1.024230793118476868e-01 -2.872991859912872314e-01 1.379307061433792114e-01 7.547640800476074219e-02 7.754882425069808960e-02 -7.751092314720153809e-03 -6.761982291936874390e-02 -1.457512378692626953e-01 -4.134425148367881775e-02 -5.044584721326828003e-02 2.693319506943225861e-02 1.226869076490402222e-01 -1.131687387824058533e-01 7.924803346395492554e-02 -2.747425250709056854e-02
1.392373442649841309e-01 -1.397864222526550293e-01 -1.289980709552764893e-01 -5.212216079235076904e-02 -2.742831595242023468e-02 5.122525244951248169e-02 4.938392341136932373e-02 -6.669817119836807251e-02 9.344272315502166748e-02 -1.352265626192092896e-01 1.139153540134429932e-01 2.789225615561008453e-02 -8.912546187639236450e-02 4.895703122019767761e-02 1.019788458943367004e-01 -3.980685770511627197e-02 -9.659672528505325317e-02 1.602312624454498291e-01 -3.243087977170944214e-02 1.648150235414505005e-01 -7.404909282922744751e-02 1.315717548131942749e-01 -5.604859814047813416e-02 -1.712307482957839966e-01 -2.377023100852966309e-01 -5.050444975495338440e-02 3.319510444998741150e-02 -4.278806596994400024e-02 -5.792786926031112671e-02 -3.789640218019485474e-02 6.856952607631683350e-02 -2.042419165372848511e-01 1.648265868425369263e-01 7.650484144687652588e-02 6.313320994377136230e-02 2.888520359992980957e-01 -3.092657029628753662e-02 -6.797191500663757324e-02 9.969096630811691284e-02 -1.119500547647476196e-01 -5.792221054434776306e-02 -3.590332716703414917e-02 -2.747369408607482910e-01 5.977831408381462097e-02 -1.710209250450134277e-01 -1.128894686698913574e-01 1.505179852247238159e-01 3.445264324545860291e-02 3.049502894282341003e-02 1.692768335342407227e-01 1.586947776377201080e-02 -3.656610846519470215e-01 -5.554541945457458496e-02 -2.132244557142257690e-01 6.895714998245239258e-02 5.193915963172912598e-02 -1.773792207241058350e-01 4.253225401043891907e-02 -2.144747227430343628e-01 -2.569330297410488129e-02 4.809539765119552612e-02 9.218169748783111572e-02 -8.783185854554176331e-03 -3.160885348916053772e-02 1.025077626109123230e-01 1.104771252721548080e-02 1.054595634341239929e-01 1.582735776901245117e-01 -3.332931175827980042e-02 -3.391844034194946289e-02 8.263348788022994995e-02 -6.187392398715019226e-02 -7.933767884969711304e-02 1.390582472085952759e-01 -2.033566497266292572e-02 1.104244124144315720e-02 -1.792749762535095215e-01 -2.238869667053222656e-02 -1.498905569314956665e-01 8.872868120670318604e-02 -1.983390003442764282e-02 -5.566326901316642761e-02 5.619481205940246582e-02 8.185881376266479492e-02 -1.149904578924179077e-01 -1.325694937258958817e-02 -2.275213450193405151e-01 -3.564358502626419067e-02 8.330189436674118042e-02 -1.893245130777359009e-01 3.103316389024257660e-02 1.931214779615402222e-01 -3.164378106594085693e-01 -5.139226838946342468e-02 -1.226577162742614746e-01 -9.689518809318542480e-02 1.231394931674003601e-01 -1.918610632419586182e-01 -8.784870803356170654e-02 -2.670665504410862923e-03 -1.335275918245315552e-01 -1.272604614496231079e-01 -1.338664814829826355e-02 -1.315457522869110107e-01 -1.094926744699478149e-01 2.019649147987365723e-01 9.896416217088699341e-03 2.175357076339423656e-04 -4.029914562124758959e-04 -1.752452254295349121e-01 2.124336361885070801e-01 2.083208858966827393e-01 5.154796689748764038e-02 3.096621111035346985e-02 -2.398896217346191406e-01 -1.698806881904602051e-02 2.485301643610000610e-01 1.121711134910583496e-01 6.152851879596710205e-02 -2.372517287731170654e-01 2.221534587442874908e-02 -5.888864025473594666e-02 -1.928859800100326538e-01 9.809061139822006226e-02 1.008736342191696167e-01 8.772125840187072754e-02 -3.203076720237731934e-01 -6.995002180337905884e-02 -9.635087847709655762e-02 1.650596708059310913e-01 6.194781884551048279e-02 -5.767866037786006927e-03 -1.138236224651336670e-01 1.049555465579032898e-01 1.786883361637592316e-02 3.568600118160247803e-02 -4.402396455407142639e-02 -6.548698991537094116e-02 5.474295839667320251e-02 -1.590315103530883789e-01 -1.753822714090347290e-01 7.366298139095306396e-02 3.574589639902114868e-02 -1.699057756923139095e-03 1.092832386493682861e-01 -2.715375460684299469e-02 1.822746545076370239e-01 1.629904806613922119e-01 -4.532070830464363098e-02 -1.465937197208404541e-01 -7.979781180620193481e-02 6.361760199069976807e-02 -7.284416258335113525e-02 1.421865522861480713e-01 5.607055872678756714e-02 1.671211235225200653e-02 -4.232935234904289246e-02 -2.229243367910385132e-01 -6.573471426963806152e-02 9.279210865497589111e-02 1.393306404352188110e-01 -6.885710638016462326e-03 -4.003229737281799316e-02 -6.812862306833267212e-02 9.372323006391525269e-02 -2.856060862541198730e-01 -1.261780411005020142e-01 7.618148624897003174e-02 2.265497297048568726e-01 -1.518806442618370056e-02 1.014191359281539917e-01 -2.070626020431518555e-01 8.351747691631317139e-02 -2.230814397335052490e-01 -1.920595467090606689e-01 3.083708509802818298e-02 8.881874382495880127e-03 2.090401202440261841e-01 3.556157648563385010e-02 3.145795688033103943e-02 1.427158713340759277e-01 6.188987288624048233e-03 -2.604453638195991516e-02 -9.724947810173034668e-02 -7.192368805408477783e-02 -4.985342547297477722e-02 -6.678125262260437012e-02 1.994064599275588989e-01 -2.613356802612543106e-03 -1.413249373435974121e-01 -1.228691115975379944e-01 -3.084244206547737122e-02 7.646306604146957397e-02 4.395243898034095764e-02 2.016773447394371033e-02 3.829655945301055908e-01 7.351481914520263672e-02 2.422441095113754272e-01 -1.042189076542854309e-01 9.006827324628829956e-02 3.251505270600318909e-02 -8.959596604108810425e-02 -3.831949457526206970e-02 3.970710188150405884e-02 2.897352539002895355e-02 6.267535686492919922e-02 -1.549707055091857910e-01 -4.962129518389701843e-02 4.608223959803581238e-02 -7.477323710918426514e-02 -3.400373458862304688e-02 5.994486063718795776e-02 1.241833865642547607e-01 -1.057553589344024658e-01 6.700019352138042450e-03 1.961823320016264915e-03 7.920801639556884766e-02 1.174712032079696655e-01 -2.578707784414291382e-02 -6.592408567667007446e-02 1.265929043292999268e-01 -1.834174543619155884e-01 8.582883514463901520e-03 -6.447515636682510376e-02 -2.001607790589332581e-02 -1.809696555137634277e-01 -1.842311173677444458e-01 -3.175124228000640869e-01 3.067113645374774933e-02 -2.392078787088394165e-01 4.668599739670753479e-02 -1.000045984983444214e-01 6.232896819710731506e-02 8.302226662635803223e-02 -2.065618038177490234e-01 -1.602699458599090576e-01 -4.490893334150314331e-02 -2.811633050441741943e-02 -1.050421372056007385e-01 7.118978351354598999e-02 -7.221380248665809631e-03 4.183013737201690674e-02 -2.534898221492767334e-01 7.455988228321075439e-02 -4.482327029109001160e-02 -5.056895315647125244e-02 1.345694959163665771e-01 1.885309815406799316e-02 5.644798278808593750e-03 -4.973595216870307922e-02 1.084891557693481445e-01 -1.176293119788169861e-01 1.962695717811584473e-01 -6.337341070175170898e-01 -5.927063152194023132e-02 -4.152724519371986389e-02
6.005703285336494446e-02 1.010254397988319397e-01 -3.987002372741699219e-02 3.030017577111721039e-02 1.101488843560218811e-01 -1.775892972946166992e-01 -3.625049293041229248e-01 4.032514244318008423e-02 1.824177056550979614e-02 -1.342120617628097534e-01 -1.240442171692848206e-01 1.311062425374984741e-01 -6.673835217952728271e-02 -8.744850754737854004e-02 6.318385899066925049e-02 2.807721681892871857e-02 -4.664375912398099899e-03 -7.665765285491943359e-02 2.320336550474166870e-02 4.077763110399246216e-02 -3.202018886804580688e-02 6.409619003534317017e-02 -1.359645090997219086e-02 1.734022796154022217e-02 1.583386212587356567e-02 3.221511095762252808e-02 5.308562889695167542e-02 -1.736417599022388458e-02 2.770414203405380249e-02 -5.050660967826843262e-01 4.496939107775688171e-02 -2.273029414936900139e-03 6.653897464275360107e-02 1.238363888114690781e-02 1.583185791969299316e-01 4.264212027192115784e-02 3.767791390419006348e-02 -6.847091764211654663e-02 4.711241275072097778e-02 -4.565310478210449219e-02 -1.244965847581624985e-02 7.485305517911911011e-02 -1.616649329662322998e-01 3.681280091404914856e-02 6.849430501461029053e-02 6.452111992985010147e-03 6.658054143190383911e-02 5.284011363983154297e-02 1.623258441686630249e-01 -6.822443567216396332e-03 5.278368946164846420e-03 -1.714335978031158447e-01 3.835856914520263672e-03 -1.586379408836364746e-01 -1.266412436962127686e-02 1.789822280406951904e-01 -2.650417387485504150e-01 1.475604437291622162e-02 -1.690631955862045288e-01 3.306821361184120178e-02 2.403334155678749084e-02 -1.627795957028865814e-02 8.758791536092758179e-02 2.405615895986557007e-02 9.552417322993278503e-03 8.112756162881851196e-02 6.766197830438613892e-02 -6.283463537693023682e-02 2.858006209135055542e-02 -1.044048070907592773e-01 3.852391242980957031e-02 -1.568862348794937134e-01 1.653300970792770386e-02 2.311303913593292236e-01 -1.676397174596786499e-01 -2.736661024391651154e-02 6.869698315858840942e-02 9.964432567358016968e-03 -9.267789125442504883e-02 -8.866789937019348145e-02 6.254485249519348145e-02 -3.790463134646415710e-02 5.684883799403905869e-03 -2.176398336887359619e-01 -8.512788265943527222e-02 2.378564514219760895e-02 -3.245499730110168457e-02 3.254809230566024780e-02 -7.487002760171890259e-03 -1.739560365676879883e-01 -1.897687651216983795e-02 1.148572191596031189e-01 -8.940190076828002930e-02 1.414256822317838669e-02 -1.012216731905937195e-01 -9.827987849712371826e-02 -8.323553204536437988e-02 3.179172426462173462e-02 -4.003789648413658142e-02 1.190298274159431458e-01 -1.410358697175979614e-01 -1.808884367346763611e-02 -7.232629228383302689e-03 -5.337601527571678162e-02 4.591913148760795593e-02 -1.827916689217090607e-02 -1.640889942646026611e-01 9.138607233762741089e-02 -2.385515719652175903e-02 -1.394469290971755981e-01 6.617797166109085083e-02 9.835769981145858765e-02 -5.158189311623573303e-02 -2.281204052269458771e-02 7.240134757012128830e-03 1.221106946468353271e-01 3.170644938945770264e-01 1.090251877903938293e-01 -1.591562479734420776e-01 -2.891505882143974304e-02 4.740110412240028381e-02 5.242769140750169754e-03 -6.877491623163223267e-02 5.092043429613113403e-02 1.999199390411376953e-03 8.298581093549728394e-02 1.235381979495286942e-02 1.945698447525501251e-02 -1.131022796034812927e-01 2.248306274414062500e-01 1.178273633122444153e-01 9.129185974597930908e-02 -1.378284245729446411e-01 -7.865141145884990692e-03 3.129492700099945068e-02 8.657445013523101807e-02 1.485311239957809448e-01 -6.498818751424551010e-03 1.707379370927810669e-01 -1.607778854668140411e-02 -1.908644735813140869e-01 4.980286955833435059e-02 5.832484364509582520e-02 6.170248985290527344e-02 2.868195995688438416e-02 2.063364684581756592e-01 1.219309344887733459e-01 -4.679229110479354858e-02 4.184383898973464966e-02 -1.267545577138662338e-02 -6.064859405159950256e-02 6.410445272922515869e-02 -4.043980315327644348e-02 1.103040128946304321e-01 -3.319795429706573486e-02 7.582586258649826050e-02 -3.729985654354095459e-02 -3.289503231644630432e-02 -8.454141020774841309e-02 2.691994979977607727e-02 -7.447857409715652466e-03 2.076386474072933197e-02 3.453964740037918091e-02 -6.215820461511611938e-02 6.677333265542984009e-02 -6.758205592632293701e-02 -1.642704568803310394e-02 7.424358278512954712e-02 7.003936171531677246e-02 -3.247187286615371704e-02 -1.199914738535881042e-01 -1.007955297827720642e-01 4.763473570346832275e-02 -2.112279683351516724e-01 -8.711883425712585449e-02 6.989495456218719482e-02 3.464873880147933960e-02 8.738458156585693359e-02 1.188999339938163757e-01 1.985587732633575797e-04 9.922031313180923462e-03 9.986945241689682007e-02 -5.643346533179283142e-02 -8.076923340559005737e-02 7.250280678272247314e-02 -5.674576759338378906e-02 -7.813663780689239502e-02 -6.243586540222167969e-02 -9.382493048906326294e-02 -1.230891421437263489e-01 -5.360717326402664185e-02 2.132402732968330383e-02 8.219062536954879761e-02 4.984517022967338562e-02 9.266106039285659790e-02 1.468563079833984375e-01 2.026947438716888428e-01 4.738376662135124207e-02 -1.159568354487419128e-01 -8.259437978267669678e-02 1.311597414314746857e-03 -5.553633719682693481e-02 1.079272702336311340e-01 -5.929348245263099670e-02 -9.955009073019027710e-02 1.035383436828851700e-02 -6.038959324359893799e-02 -1.312698274850845337e-01 1.558550894260406494e-01 1.984649151563644409e-02 -1.228022351861000061e-01 -5.919818952679634094e-02 3.803688287734985352e-02 8.626617491245269775e-03 -1.968447677791118622e-02 -5.964570119976997375e-02 -1.102604269981384277e-01 -7.850142568349838257e-02 -7.177636772394180298e-02 1.787576675415039062e-01 3.671695664525032043e-02 -4.984255507588386536e-02 -4.761204496026039124e-02 1.167904809117317200e-01 -3.788903728127479553e-02 -8.412666618824005127e-02 1.695816032588481903e-02 -5.236512422561645508e-02 8.111084997653961182e-02 -2.213311381638050079e-02 -2.431336976587772369e-02 2.175510488450527191e-02 1.208405662328004837e-02 2.553418278694152832e-03 -1.799765527248382568e-01 -1.146001666784286499e-01 -5.759491585195064545e-03 -1.587719768285751343e-01 -5.344164092093706131e-03 -6.982174515724182129e-02 -2.443269342184066772e-01 1.002836879342794418e-02 -9.209516644477844238e-02 1.486326009035110474e-01 7.966310717165470123e-03 6.684758514165878296e-02 -1.542580276727676392e-01 -3.050070255994796753e-02 -8.635849505662918091e-02 2.659195847809314728e-02 3.597536124289035797e-03 6.492180377244949341e-02 1.389437764883041382e-01 -3.270017504692077637e-01 1.055260226130485535e-01 -6.029167026281356812e-02
-1.283223181962966919e-02 5.816796049475669861e-02 8.686317503452301025e-02 -1.634296923875808716e-01 -9.268745034933090210e-02 1.876252144575119019e-02 -2.284445427358150482e-02 7.668466866016387939e-02 1.419637948274612427e-01 7.770297676324844360e-02 -1.000478491187095642e-01 1.970099210739135742e-01 -5.511787906289100647e-02 -7.701913267374038696e-02 7.302863895893096924e-02 -5.688880756497383118e-02 -9.291667491197586060e-02 -3.868178650736808777e-02 -7.103464752435684204e-02 -1.805098205804824829e-01 -1.074800565838813782e-01 5.187196284532546997e-02 -3.516295552253723145e-02 7.275745272636413574e-02 -7.452326267957687378e-02 -1.116468533873558044e-01 -1.226780116558074951e-01 4.721554741263389587e-02 -5.849120765924453735e-02 -7.593419402837753296e-02 6.648188829421997070e-02 3.278866037726402283e-02 -4.955219849944114685e-02 2.181540876626968384e-01 -1.871691942214965820e-01 5.175097659230232239e-02 -4.332315921783447266e-02 1.103322207927703857e-01 -9.079851955175399780e-02 -5.929859355092048645e-03 9.368516504764556885e-02 4.519486427307128906e-02 -2.111154422163963318e-02 4.363043233752250671e-02 -9.804359823465347290e-02 2.169374376535415649e-03 5.025214632041752338e-04 1.522933784872293472e-02 -1.288969907909631729e-02 1.905369199812412262e-02 -1.668158620595932007e-01 -1.497434526681900024e-01 -1.192596554756164551e-01 1.255660206079483032e-01 -9.303060919046401978e-02 1.029287502169609070e-01 -1.004379391670227051e-01 5.439864471554756165e-02 1.788653084076941013e-03 1.065396144986152649e-02 -3.895229101181030273e-02 -4.259126260876655579e-02 -7.806687057018280029e-02 7.814022898674011230e-02 -1.569734886288642883e-02 1.544546186923980713e-01 5.786297842860221863e-02 2.307234518229961395e-02 4.514903575181961060e-02 1.189754158258438110e-01 -6.137676164507865906e-02 -2.854273281991481781e-02 -3.156962245702743530e-02 1.196764037013053894e-01 -4.126166179776191711e-02 -2.179217040538787842e-01 -5.666443705558776855e-02 -1.465351432561874390e-01 -1.155162304639816284e-01 -1.583299972116947174e-02 1.096754148602485657e-02 1.095971558243036270e-02 6.082295626401901245e-02 1.189521923661231995e-01 -1.376129388809204102e-01 -5.924772843718528748e-02 -4.528457671403884888e-02 4.090888425707817078e-02 -3.999067470431327820e-02 -1.199191510677337646e-01 -3.220679983496665955e-02 7.880740612745285034e-02 5.078291520476341248e-03 1.079456973820924759e-02 -8.874556422233581543e-02 5.031255260109901428e-02 1.259523183107376099e-01 -4.885441437363624573e-02 -3.687443211674690247e-02 -2.646548114717006683e-02 1.786240041255950928e-01 2.935175038874149323e-02 7.438475638628005981e-02 -1.518527511507272720e-02 4.378283768892288208e-02 2.345131784677505493e-01 1.284638345241546631e-01 7.894707843661308289e-03 9.472343325614929199e-02 -2.901853807270526886e-02 3.794904425740242004e-02 1.137759387493133545e-01 -1.163283511996269226e-01 6.484753452241420746e-03 -5.753424018621444702e-03 8.717407286167144775e-02 8.182713389396667480e-02 1.608353704214096069e-01 -8.131645619869232178e-02 2.528735436499118805e-02 4.240544140338897705e-02 -1.134500205516815186e-01 -1.100587770342826843e-01 -1.198846027255058289e-01 1.272820234298706055e-01 2.233859710395336151e-02 -1.058856397867202759e-01 -1.479136496782302856e-01 -1.557092666625976562e-01 -9.454314410686492920e-02 -1.293858587741851807e-01 -8.511777222156524658e-02 6.144212931394577026e-02 1.600901484489440918e-01 1.222812086343765259e-01 4.561421275138854980e-02 6.026525050401687622e-02 8.281353861093521118e-02 -1.889465004205703735e-01 1.018828600645065308e-01 -2.566189765930175781e-01 7.822195440530776978e-02 1.216443777084350586e-01 8.750614523887634277e-02 -1.562245488166809082e-01 1.667254418134689331e-01 2.080175466835498810e-02 8.177853375673294067e-02 1.185919791460037231e-01 2.381735248491168022e-03 -8.661203086376190186e-02 5.789740011096000671e-02 2.198094036430120468e-03 -8.146852254867553711e-02 2.459425479173660278e-02 -5.422791838645935059e-02 1.448320411145687103e-02 -4.861638322472572327e-02 -6.853865087032318115e-02 -1.082023009657859802e-01 -4.340271465480327606e-03 -4.979193583130836487e-02 -3.166389465332031250e-02 -1.052409969270229340e-02 8.705572783946990967e-02 -2.911455929279327393e-02 -3.346227481961250305e-02 -1.154114082455635071e-01 9.009558707475662231e-03 -7.807554304599761963e-02 1.516520977020263672e-02 -1.224602311849594116e-01 -1.212442386895418167e-02 4.256393387913703918e-02 -8.640871196985244751e-02 1.016877964138984680e-01 7.504022866487503052e-02 -1.485864222049713135e-01 7.413175702095031738e-02 -3.321480005979537964e-02 1.813395917415618896e-01 3.622802719473838806e-02 2.141027711331844330e-02 8.825317770242691040e-02 3.435056656599044800e-02 4.508099332451820374e-02 2.550728619098663330e-02 -2.892187424004077911e-02 -3.868544474244117737e-02 -7.907235994935035706e-03 2.879798412322998047e-02 -8.781040459871292114e-02 -1.376896947622299194e-01 -3.949088230729103088e-02 -1.862841844558715820e-01 3.611725941300392151e-02 3.009772673249244690e-02 -8.966884016990661621e-02 2.443544939160346985e-02 1.132261827588081360e-01 -2.830657958984375000e-01 -2.848702296614646912e-02 1.090737432241439819e-01 8.815102279186248779e-02 -3.030741773545742035e-02 2.591193094849586487e-02 -1.167580708861351013e-01 1.407256424427032471e-01 -2.270575761795043945e-01 -7.831455767154693604e-02 -6.136971339583396912e-02 -2.718830667436122894e-02 5.756030604243278503e-02 -1.002725306898355484e-02 -3.624296188354492188e-02 1.982251927256584167e-02 1.588672772049903870e-02 9.363031387329101562e-02 -1.302859652787446976e-02 8.652879297733306885e-02 -4.570054635405540466e-02 -2.204241454601287842e-01 5.534303560853004456e-02 1.566676539368927479e-03 -4.902456700801849365e-02 6.657685339450836182e-02 -1.161477044224739075e-01 -1.965794153511524200e-02 1.464818418025970459e-02 1.435825824737548828e-01 2.290562354028224945e-02 6.112608686089515686e-02 4.373417794704437256e-02 1.137057691812515259e-02 -3.467024490237236023e-02 -4.283632617443799973e-03 1.185512468218803406e-01 -5.842080712318420410e-02 -2.043430693447589874e-02 3.125569969415664673e-02 3.173677250742912292e-02 -7.588969916105270386e-02 2.665643114596605301e-03 7.508798688650131226e-02 -9.501537680625915527e-02 1.125478893518447876e-01 -4.623549059033393860e-02 -4.575185477733612061e-02 -1.481742709875106812e-01 1.091629415750503540e-01 7.959824055433273315e-02 1.016728654503822327e-01 -2.480816841125488281e-02 -2.109629213809967041e-01 -5.351451225578784943e-03 5.470398813486099243e-02
-7.787054032087326050e-02 4.865968227386474609e-02 -6.485775858163833618e-02 -4.185475409030914307e-02 1.106794178485870361e-01 -9.418966621160507202e-02 -6.662030518054962158e-02 -1.369650214910507202e-01 2.343562059104442596e-02 1.127678807824850082e-02 -1.046277955174446106e-01 5.091702193021774292e-02 -1.172299385070800781e-01 -8.237694948911666870e-02 2.912326529622077942e-02 -1.762000173330307007e-01 5.961487442255020142e-02 1.172862499952316284e-01 1.001652330160140991e-01 8.928768336772918701e-03 8.189939707517623901e-02 -7.189451903104782104e-02 1.615582406520843506e-02 6.343436241149902344e-02 -7.675983011722564697e-02 -7.555329799652099609e-02 6.233255192637443542e-02 9.169562160968780518e-02 -5.481509491801261902e-02 -1.818832475692033768e-03 7.685666531324386597e-02 5.654662102460861206e-02 -2.303075641393661499e-01 1.824795305728912354e-01 -1.384297199547290802e-02 1.370288580656051636e-01 1.810241192579269409e-01 -1.010281872004270554e-02 -2.251071110367774963e-02 6.536537315696477890e-03 -8.119720034301280975e-03 -5.669646337628364563e-02 6.276961416006088257e-02 1.322683542966842651e-01 -8.386814594268798828e-02 4.659461975097656250e-02 -2.357021346688270569e-02 1.146069392561912537e-01 -5.997704342007637024e-03 -1.537118256092071533e-01 -5.216339230537414551e-02 -9.423558413982391357e-02 1.795900054275989532e-02 3.462319821119308472e-02 -1.036894842982292175e-01 1.768971383571624756e-01 -2.972348630428314209e-01 4.024908319115638733e-02 -5.251055955886840820e-02 -4.406477138400077820e-02 8.123391307890415192e-03 4.364550486207008362e-02 -3.420919552445411682e-02 -5.046980455517768860e-03 8.304163068532943726e-02 -1.459025889635086060e-01 1.399534940719604492e-01 -1.757092326879501343e-01 6.290852278470993042e-02 -2.735019288957118988e-02 -3.110147081315517426e-02 2.406253665685653687e-01 -1.224832907319068909e-01 -1.320751011371612549e-01 7.676966488361358643e-02 -1.252237558364868164e-01 9.037373960018157959e-02 5.713528022170066833e-02 8.512233383953571320e-03 1.740367859601974487e-01 4.007023945450782776e-02 8.426690101623535156e-02 3.285472095012664795e-02 7.152239233255386353e-02 5.373667925596237183e-02 1.875367760658264160e-01 3.491014242172241211e-02 1.216883882880210876e-01 1.823441386222839355e-01 -4.646097868680953979e-02 -6.552797555923461914e-02 -9.364774078130722046e-02 9.798886254429817200e-03 -1.089507807046175003e-02 9.014921635389328003e-02 9.366229921579360962e-02 3.801455721259117126e-03 5.152403563261032104e-02 5.247035622596740723e-02 -1.332387030124664307e-01 4.501375555992126465e-02 1.317834258079528809e-01 -1.512244492769241333e-01 -4.271129146218299866e-02 5.659633874893188477e-02 2.356101013720035553e-02 -1.450070738792419434e-02 1.120261922478675842e-01 1.352194845676422119e-01 5.182680487632751465e-02 -1.450942158699035645e-01 -1.703764349222183228e-01 1.045138388872146606e-01 5.125415325164794922e-02 -1.000051200389862061e-01 -1.399884559214115143e-02 3.014736250042915344e-02 4.718713834881782532e-02 5.702973157167434692e-02 7.271852344274520874e-02 1.629782766103744507e-01 -1.383034884929656982e-01 4.599067196249961853e-02 1.717592179775238037e-01 5.644613131880760193e-02 1.342979818582534790e-01 -8.319845050573348999e-02 -8.667943626642227173e-02 9.038016945123672485e-02 1.137227788567543030e-01 1.315092891454696655e-01 2.250338159501552582e-02 -1.756175905466079712e-01 7.392942905426025391e-02 -1.416951119899749756e-01 8.449039608240127563e-02 1.525102183222770691e-02 -2.760530821979045868e-02 1.037607714533805847e-01 1.510883565060794353e-03 -1.550935506820678711e-01 1.514173895120620728e-01 1.119154617190361023e-01 6.477459520101547241e-02 -9.160049259662628174e-02 5.837754532694816589e-02 -6.245664507150650024e-02 9.483614936470985413e-03 4.392835125327110291e-02 2.693095244467258453e-02 3.711700439453125000e-02 -6.213600188493728638e-02 -9.949062764644622803e-02 -4.229797422885894775e-02 6.113865599036216736e-02 -4.194496572017669678e-02 8.103206753730773926e-03 9.462241828441619873e-02 -1.204291656613349915e-01 1.068645268678665161e-01 6.003340333700180054e-02 1.129482761025428772e-01 4.290287941694259644e-02 7.511385530233383179e-02 4.051109030842781067e-02 1.664205193519592285e-01 -1.907312683761119843e-02 -3.117921203374862671e-02 1.623966149054467678e-03 -1.288761049509048462e-01 -3.088056668639183044e-02 -5.572191998362541199e-02 -7.326303422451019287e-02 5.769801139831542969e-02 -3.189368173480033875e-03 -1.966297626495361328e-02 -5.969167128205299377e-02 -3.774024546146392822e-02 -3.677679970860481262e-02 7.141274958848953247e-02 2.412542700767517090e-02 -8.221212774515151978e-02 -2.041869759559631348e-01 9.951506555080413818e-02 -7.792778313159942627e-02 -4.313032701611518860e-02 -4.448061808943748474e-02 -7.793739438056945801e-02 -4.913389310240745544e-02 -4.701496288180351257e-02 4.673878848552703857e-02 -1.688220165669918060e-02 -1.505374815315008163e-02 3.673011064529418945e-02 -2.120381454005837440e-03 3.204001858830451965e-02 -4.582035169005393982e-02 2.207964807748794556e-01 -1.381986960768699646e-02 6.763093918561935425e-02 1.506157517433166504e-01 -2.522791028022766113e-01 8.397438377141952515e-02 -8.583973161876201630e-03 1.114845052361488342e-01 -6.470067426562309265e-03 -8.958604186773300171e-02 -9.492397308349609375e-02 -7.318263500928878784e-02 -1.852214522659778595e-02 -8.553834259510040283e-02 8.957970142364501953e-02 -3.297130763530731201e-02 -1.082304641604423523e-01 4.790856316685676575e-02 3.165537118911743164e-02 -1.631089020520448685e-03 -1.416228618472814560e-02 -2.669206075370311737e-02 -6.814166158437728882e-02 -2.861341461539268494e-02 -2.380943484604358673e-02 2.382955513894557953e-02 1.271274089813232422e-01 -9.198746085166931152e-02 6.249529868364334106e-02 -1.573110371828079224e-02 -7.430159300565719604e-02 5.157222598791122437e-02 -5.435924604535102844e-02 -1.203015074133872986e-01 4.185979068279266357e-02 8.212379366159439087e-02 9.468579292297363281e-02 1.376422643661499023e-01 2.990004979074001312e-02 -2.035310566425323486e-01 1.151765584945678711e-01 -4.592469707131385803e-02 -3.307890892028808594e-02 -9.983164072036743164e-02 -5.225206539034843445e-02 1.470937579870223999e-02 1.745548546314239502e-01 -4.606994241476058960e-02 5.877650808542966843e-03 -1.050153449177742004e-01 8.606263995170593262e-02 -1.155584305524826050e-01 -6.138351187109947205e-02 6.766900885850191116e-03 7.551081478595733643e-02 1.252326648682355881e-02 -9.857608936727046967e-03 -1.202292833477258682e-02 4.212424904108047485e-02
7.848689705133438110e-02 1.045273840427398682e-01 1.636491417884826660e-01 -1.257171034812927246e-01 -2.122249305248260498e-01 -3.106590546667575836e-02 -2.560731768608093262e-01 -9.471261501312255859e-02 1.475443243980407715e-01 4.538578167557716370e-02 5.521915107965469360e-02 1.118817850947380066e-01 1.194853782653808594e-01 5.663110315799713135e-02 5.433426424860954285e-02 -1.121258363127708435e-01 -2.422881126403808594e-02 -4.540093243122100830e-02 -2.131353691220283508e-02 3.727877512574195862e-02 -6.656550616025924683e-02 9.027314931154251099e-02 -1.021918803453445435e-01 -5.133765563368797302e-02 -1.711020469665527344e-01 5.070400610566139221e-02 -5.214441940188407898e-02 7.232295721769332886e-02 -9.273561649024486542e-03 1.637767851352691650e-01 2.280506491661071777e-02 -1.268247235566377640e-02 -9.691131114959716797e-02 -8.715919405221939087e-02 8.583612740039825439e-02 1.244892925024032593e-01 -6.291539222002029419e-02 -1.701758801937103271e-02 9.776381403207778931e-02 2.745814025402069092e-01 -8.040529489517211914e-02 -5.253249406814575195e-02 7.250864058732986450e-02 -3.189207985997200012e-02 -8.018521964550018311e-02 -1.127047091722488403e-01 8.640930987894535065e-03 -1.996074430644512177e-02 -5.463553220033645630e-02 1.905098557472229004e-03 3.690469637513160706e-02 1.416347548365592957e-02 -5.048985779285430908e-02 1.024595871567726135e-01 -6.357488036155700684e-02 2.892137691378593445e-02 8.205519616603851318e-02 1.999007770791649818e-03 -1.766513451002538204e-03 2.025316283106803894e-02 4.926189035177230835e-02 -1.660723239183425903e-02 5.053518339991569519e-02 -1.444716304540634155e-01 9.130771458148956299e-02 -8.223521709442138672e-02 1.432354599237442017e-01 9.573383629322052002e-02 -5.205037444829940796e-02 6.197412684559822083e-02 1.060576736927032471e-01 -1.426112744957208633e-02 -3.549322858452796936e-02 -1.066559180617332458e-01 5.688097327947616577e-02 -2.398525364696979523e-02 -1.896513998508453369e-01 6.297255866229534149e-03 -2.201597206294536591e-02 -4.299560561776161194e-02 -2.428453601896762848e-02 -6.686555594205856323e-02 -1.325105689465999603e-02 -3.853318467736244202e-02 2.601330727338790894e-02 -4.617625102400779724e-02 -4.280449822545051575e-02 -1.343352496623992920e-01 3.221100196242332458e-02 -1.387550681829452515e-01 3.814232349395751953e-02 -2.455726079642772675e-02 -2.343394458293914795e-01 1.796122342348098755e-01 1.679772734642028809e-01 7.107833027839660645e-02 4.070943966507911682e-02 -1.153165921568870544e-01 3.924258425831794739e-02 6.135565042495727539e-02 -2.453962415456771851e-01 -1.707289218902587891e-01 -9.260507673025131226e-02 1.092792302370071411e-01 6.087297201156616211e-02 7.506852596998214722e-02 -7.300177216529846191e-02 -1.528686136007308960e-01 -5.099059641361236572e-02 3.978881612420082092e-02 -2.216058820486068726e-01 3.334164991974830627e-02 5.681791156530380249e-02 -1.459466665983200073e-01 3.713331744074821472e-02 1.103075817227363586e-01 1.146606635302305222e-02 -1.489911507815122604e-02 -4.525192081928253174e-02 -1.085456386208534241e-01 -8.926877379417419434e-02 -3.528121858835220337e-02 -1.651242822408676147e-01 -3.627071529626846313e-02 -3.982641734182834625e-03 9.064446389675140381e-02 -1.016127094626426697e-01 1.385015398263931274e-01 -3.608200550079345703e-01 1.362534239888191223e-02 3.074111603200435638e-02 -8.312828093767166138e-02 -8.680021390318870544e-03 -9.414740838110446930e-03 -5.588801577687263489e-02 -1.467625498771667480e-01 -2.810836024582386017e-02 -2.774792164564132690e-02 1.696982532739639282e-01 -1.159080937504768372e-01 -1.621733419597148895e-02 9.057123959064483643e-02 6.524577736854553223e-02 -5.709293484687805176e-02 1.024417355656623840e-01 5.461921170353889465e-02 -1.053474992513656616e-01 -9.684173017740249634e-02 -4.711852222681045532e-02 5.941177159547805786e-02 9.710549563169479370e-02 6.553068011999130249e-02 -4.865553602576255798e-02 1.382329128682613373e-02 -8.786981552839279175e-02 -1.183426454663276672e-01 8.328606188297271729e-02 -1.612441986799240112e-02 -6.981549412012100220e-02 8.037242293357849121e-02 -8.075580745935440063e-02 -9.735521674156188965e-02 -1.131599918007850647e-01 -6.397997494786977768e-03 -2.122122347354888916e-01 -1.267860382795333862e-01 -1.479783654212951660e-01 2.881412580609321594e-02 -1.461582025513052940e-03 8.853121101856231689e-02 -4.942578822374343872e-02 1.475990284234285355e-02 -2.821122109889984131e-02 7.270590215921401978e-02 6.771821994334459305e-03 4.306023567914962769e-02 6.622626911848783493e-03 -2.726589143276214600e-02 1.303049828857183456e-02 -1.208741664886474609e-01 1.220125034451484680e-01 -1.048613861203193665e-01 1.805100031197071075e-02 1.025014445185661316e-01 3.076219186186790466e-02 1.221288070082664490e-01 1.051580831408500671e-01 3.799375891685485840e-02 -4.857118800282478333e-02 1.352012157440185547e-01 -1.506417840719223022e-01 -1.425246745347976685e-01 1.673669517040252686e-01 5.378843471407890320e-02 -1.681676954030990601e-01 1.597323864698410034e-01 2.098009884357452393e-01 7.906708121299743652e-02 1.507280115038156509e-02 8.743575960397720337e-02 6.908152252435684204e-02 -2.837139368057250977e-02 1.292919069528579712e-01 -1.934109814465045929e-02 -1.974041201174259186e-02 -8.616542816162109375e-02 -1.286144703626632690e-01 5.855602398514747620e-02 -1.899271644651889801e-02 7.058715820312500000e-02 -1.576817184686660767e-01 3.824502229690551758e-02 9.101571887731552124e-02 1.036206819117069244e-02 -2.651716955006122589e-02 -4.960868135094642639e-02 7.494388264603912830e-04 -1.095443125814199448e-02 5.980111286044120789e-02 -1.550708338618278503e-02 5.996016785502433777e-02 -6.373773515224456787e-02 1.523187477141618729e-02 -3.158774226903915405e-02 4.677643999457359314e-02 5.758184567093849182e-02 -7.888420484960079193e-03 5.081068724393844604e-02 5.626131966710090637e-02 -2.723285555839538574e-01 -7.143879681825637817e-02 -3.070368990302085876e-02 -3.147345036268234253e-02 7.478237897157669067e-02 6.504669040441513062e-02 3.314647078514099121e-02 5.143819749355316162e-02 -9.879786521196365356e-02 -2.670992314815521240e-01 1.449271142482757568e-01 6.856787204742431641e-02 2.463587187230587006e-02 4.916479438543319702e-02 -9.767350554466247559e-02 2.150784581899642944e-01 1.447756658308207989e-03 -3.697878122329711914e-02 -2.763290889561176300e-02 5.464899539947509766e-02 1.505375504493713379e-01 -2.173357903957366943e-01 -1.223393902182579041e-02 9.211488813161849976e-02 -2.430112063884735107e-01 -3.239712491631507874e-02 -1.843299418687820435e-01
-1.087234169244766235e-01 3.470891714096069336e-02 -1.560120880603790283e-01 6.062331050634384155e-02 -1.037369742989540100e-01 9.435019455850124359e-03 6.222446262836456299e-02 3.533152490854263306e-02 -1.567614525556564331e-01 -6.229734048247337341e-03 5.516491830348968506e-02 4.279998317360877991e-02 6.772412918508052826e-03 -1.530637964606285095e-02 -3.346111997961997986e-02 -1.315992176532745361e-01 -9.278528392314910889e-02 3.707899898290634155e-02 -2.416693978011608124e-02 -1.445492655038833618e-01 -1.429193373769521713e-02 -3.122327327728271484e-01 1.349144130945205688e-01 -4.151131585240364075e-02 -8.505266159772872925e-02 -1.157310605049133301e-01 -1.280273795127868652e-01 -7.883325219154357910e-02 -4.714944586157798767e-02 1.906158328056335449e-01 -2.837246470153331757e-02 8.779183030128479004e-02 1.414500642567873001e-02 7.662457972764968872e-02 -4.161530733108520508e-02 -1.455723792314529419e-01 1.124325245618820190e-01 1.441357284784317017e-01 1.338286790996789932e-02 -5.352534353733062744e-02 -4.726071376353502274e-03 -3.191617876291275024e-02 1.465350687503814697e-01 -5.830421112477779388e-03 1.770974695682525635e-02 3.653772920370101929e-02 7.867380976676940918e-02 -1.829010434448719025e-02 -3.004765883088111877e-02 -4.314145073294639587e-02 -5.696316808462142944e-02 1.059635952115058899e-01 5.560434982180595398e-02 2.326088584959506989e-02 8.152907341718673706e-02 -1.577284336090087891e-01 -4.504157230257987976e-02 3.342921286821365356e-02 -3.484381362795829773e-02 -6.285780668258666992e-02 7.831944525241851807e-02 6.563453376293182373e-02 1.832828111946582794e-02 -1.708812825381755829e-02 5.634813010692596436e-02 -2.419519051909446716e-02 3.157605975866317749e-02 6.872136890888214111e-02 2.106761932373046875e-01 -3.326085582375526428e-02 4.149108380079269409e-02 -1.345012988895177841e-02 1.027950569987297058e-01 -6.828562170267105103e-02 1.082503125071525574e-01 -1.550006717443466187e-01 2.202918007969856262e-02 5.203646421432495117e-02 1.399255692958831787e-01 1.526174247264862061e-01 -4.742263257503509521e-02 -1.032790634781122208e-02 -3.836484998464584351e-02 5.785574018955230713e-02 3.157601505517959595e-02 -3.775020316243171692e-02 1.998506635427474976e-01 -3.907071426510810852e-02 -8.519908040761947632e-02 -9.877295792102813721e-02 1.582303196191787720e-01 -4.030712693929672241e-02 6.456438452005386353e-03 8.238179236650466919e-02 7.887753099203109741e-02 9.582616388797760010e-02 -2.364870160818099976e-01 -5.163576826453208923e-02 -1.457652077078819275e-03 -1.031815037131309509e-01 -2.671020291745662689e-02 3.792925039306282997e-03 -1.625292003154754639e-01 -4.813736304640769958e-02 1.231095753610134125e-02 7.396450638771057129e-02 -5.116657167673110962e-02 7.114068418741226196e-02 7.635579258203506470e-02 2.054904028773307800e-02 -1.004946380853652954e-01 -7.134924829006195068e-02 -2.287397161126136780e-03 -2.002041339874267578e-01 8.891636878252029419e-02 3.611817583441734314e-02 -1.728322207927703857e-01 2.879207022488117218e-04 -1.681670732796192169e-02 2.779894694685935974e-02 -1.238608658313751221e-01 7.136689126491546631e-02 -1.948051750659942627e-01 1.083337049931287766e-02 1.281758248805999756e-01 5.288648977875709534e-02 -1.842245273292064667e-02 9.327465295791625977e-02 2.860238216817378998e-02 -2.231748253107070923e-01 3.695444669574499130e-03 -1.243081986904144287e-01 8.113580197095870972e-02 8.080281317234039307e-02 1.575732082128524780e-01 -8.583347499370574951e-02 1.464618146419525146e-01 -2.499881573021411896e-02 -2.013124376535415649e-01 7.746668159961700439e-02 -1.493306271731853485e-02 1.130058988928794861e-02 -1.598027348518371582e-02 3.862433880567550659e-02 5.505193769931793213e-02 3.115809708833694458e-02 -1.074251830577850342e-01 -5.520784109830856323e-02 -4.914982244372367859e-02 3.734314814209938049e-03 1.430541872978210449e-01 -1.699147671461105347e-01 -4.388725850731134415e-03 7.511002570390701294e-02 7.227001246064901352e-03 2.559562213718891144e-02 2.444168925285339355e-02 -1.665376573801040649e-01 -2.914881110191345215e-01 1.043154299259185791e-01 -8.717058598995208740e-02 -9.531959146261215210e-02 1.683301478624343872e-01 3.692336380481719971e-03 -2.485096603631973267e-01 3.185997530817985535e-02 4.811684787273406982e-02 -5.591553822159767151e-02 -1.846127510070800781e-01 -2.878679707646369934e-02 -8.343101292848587036e-02 3.682637959718704224e-02 -3.281250968575477600e-02 5.736503005027770996e-02 -1.170629039406776428e-01 6.781230866909027100e-02 1.421513557434082031e-01 -1.175207197666168213e-01 6.530184298753738403e-02 -8.811135590076446533e-02 -1.092232018709182739e-01 1.061671748757362366e-01 -8.838036656379699707e-02 6.141266226768493652e-02 2.957099350169301033e-03 -1.388559211045503616e-02 4.293842613697052002e-02 -2.133383154869079590e-01 5.483333393931388855e-02 -4.682862013578414917e-02 3.524995967745780945e-02 4.102587327361106873e-02 -1.124514918774366379e-02 -1.083736941218376160e-01 -3.641953691840171814e-02 -5.482129380106925964e-02 -9.502004086971282959e-02 -6.804139912128448486e-02 3.889191150665283203e-02 -2.601457200944423676e-02 -1.411735266447067261e-01 -1.157185807824134827e-02 -2.277857391163706779e-03 -7.463404536247253418e-02 5.059112608432769775e-02 -1.238668337464332581e-01 -6.732346862554550171e-02 -8.181796409189701080e-03 -3.122386336326599121e-02 -5.331083666533231735e-03 9.978002868592739105e-03 -1.158399879932403564e-01 -9.603641182184219360e-02 -4.009807854890823364e-02 -7.856085896492004395e-02 1.814672350883483887e-02 -6.320556160062551498e-03 -1.193980500102043152e-01 4.509316757321357727e-02 5.707022175192832947e-02 -1.200968548655509949e-01 -2.932869791984558105e-01 1.012919172644615173e-01 -7.564725726842880249e-02 4.530402645468711853e-02 7.635877281427383423e-02 7.971498416736721992e-04 2.784296683967113495e-02 -1.109194010496139526e-01 1.690171808004379272e-01 -5.257514864206314087e-02 -6.011506542563438416e-02 5.095534771680831909e-02 -1.148318033665418625e-02 1.488886773586273193e-01 2.181367129087448120e-01 -1.034720465540885925e-01 -1.503402143716812134e-01 -1.706295758485794067e-01 1.115131825208663940e-01 -5.524987354874610901e-02 -3.736332058906555176e-02 2.091361731290817261e-01 -1.661687344312667847e-01 1.108800694346427917e-01 2.714742347598075867e-02 1.023354288190603256e-02 -1.164903864264488220e-01 -1.239762380719184875e-01 -1.392555683851242065e-01 -3.430176526308059692e-02 -8.097530156373977661e-02 -1.199170947074890137e-01 3.947813808917999268e-01 -2.260997705161571503e-02 1.645914018154144287e-01
-1.571826487779617310e-01 -7.950295694172382355e-03 1.864176988601684570e-02 -1.635772921144962311e-02 7.401858270168304443e-02 1.494289487600326538e-01 -6.892758607864379883e-02 2.950560860335826874e-02 -6.557375658303499222e-03 6.055091693997383118e-02 1.102461107075214386e-02 -1.997840590775012970e-02 2.097599357366561890e-01 -5.853684619069099426e-02 5.878103524446487427e-02 -8.451217412948608398e-02 7.509011030197143555e-02 4.315641149878501892e-02 3.594376146793365479e-02 7.715587317943572998e-02 -5.125566571950912476e-02 -2.596208453178405762e-01 -6.820443272590637207e-02 -1.990425772964954376e-02 2.141293138265609741e-02 -2.507368624210357666e-01 -5.529259517788887024e-02 1.625710874795913696e-01 4.831459000706672668e-02 -7.746576517820358276e-02 -7.706473022699356079e-02 3.577458485960960388e-02 -1.848021708428859711e-02 -1.288894712924957275e-01 1.165748108178377151e-02 -9.239669144153594971e-02 7.840953767299652100e-02 4.051331430673599243e-02 -1.636091470718383789e-01 1.616787463426589966e-01 -9.853611141443252563e-02 5.371021106839179993e-02 -5.046311393380165100e-02 1.029575150460004807e-02 6.627190858125686646e-02 -4.832421615719795227e-02 -3.020517900586128235e-02 8.267381787300109863e-02 6.258254498243331909e-02 -1.967629641294479370e-01 3.986446931958198547e-02 1.073010638356208801e-01 -1.003525033593177795e-01 -8.385008573532104492e-02 -1.019825786352157593e-02 -2.735098358243703842e-03 -1.339873075485229492e-01 1.552643924951553345e-01 -1.341329216957092285e-01 -1.982163190841674805e-01 1.323402374982833862e-01 -1.388573050498962402e-01 -1.832804642617702484e-02 -1.176826376467943192e-02 -2.318805828690528870e-02 1.536207795143127441e-01 -4.172516614198684692e-02 -2.124857157468795776e-02 1.414725780487060547e-01 5.633230134844779968e-02 1.561082433909177780e-02 6.884310394525527954e-02 -2.488170117139816284e-01 -5.672417208552360535e-02 -9.071451611816883087e-03 -2.708425559103488922e-02 7.659295946359634399e-02 2.340645901858806610e-02 7.123437523841857910e-02 -1.202341616153717041e-01 7.429464161396026611e-02 -3.323269262909889221e-02 2.826038189232349396e-02 4.807087779045104980e-02 -5.952715873718261719e-03 9.930579364299774170e-02 7.239583134651184082e-02 1.345001626759767532e-02 7.714184373617172241e-02 -1.421637088060379028e-02 1.060783118009567261e-01 4.548212140798568726e-02 7.492506504058837891e-02 -1.352464407682418823e-01 8.300271630287170410e-02 6.946628540754318237e-02 8.499927073717117310e-02 2.364325672388076782e-01 1.039375141263008118e-01 1.442269831895828247e-01 -4.575287550687789917e-02 -2.779047191143035889e-02 -1.677705347537994385e-01 -1.334967315196990967e-01 -1.850215159356594086e-02 -7.382377982139587402e-02 3.965483233332633972e-02 -5.694956704974174500e-02 -5.616501905024051666e-03 8.844016492366790771e-02 -5.434292182326316833e-02 -3.713478520512580872e-02 -1.086259782314300537e-01 1.577548533678054810e-01 5.985916778445243835e-02 2.024110406637191772e-01 7.351615466177463531e-03 4.204879514873027802e-03 6.025492399930953979e-02 6.720417737960815430e-02 1.260992977768182755e-02 -6.557399034500122070e-02 1.590836793184280396e-01 -1.020545139908790588e-01 4.890020936727523804e-02 -1.031614840030670166e-01 6.034202501177787781e-02 3.112833015620708466e-02 2.567379735410213470e-02 -1.054251492023468018e-01 5.756909772753715515e-02 5.065313354134559631e-02 2.195224612951278687e-01 -1.626310795545578003e-01 1.629991978406906128e-01 6.401394307613372803e-02 5.927963182330131531e-02 -4.090227931737899780e-02 -7.163238525390625000e-02 9.156525880098342896e-02 -6.168102379888296127e-03 -1.040687784552574158e-01 8.702946826815605164e-03 -2.919857949018478394e-02 -6.684259325265884399e-02 7.091046124696731567e-02 -4.750326275825500488e-02 4.676800221204757690e-02 -8.594447374343872070e-02 -1.751604489982128143e-02 1.146322414278984070e-01 8.013913035392761230e-02 3.041858784854412079e-02 7.202543318271636963e-03 -5.680026952177286148e-03 -2.979885903187096119e-04 -9.606793522834777832e-02 -2.530080825090408325e-02 -6.464527541538700461e-05 1.803880371153354645e-02 -6.606268137693405151e-02 1.184985935688018799e-01 -1.932783275842666626e-01 4.065455496311187744e-02 -4.534875601530075073e-02 8.371020108461380005e-02 -4.366783797740936279e-02 -9.947961568832397461e-02 8.836006745696067810e-03 -7.779595255851745605e-02 2.142952941358089447e-02 -1.130630895495414734e-01 1.941886395215988159e-01 5.734388530254364014e-02 4.961250349879264832e-02 6.140192970633506775e-02 1.005764827132225037e-01 -1.356993764638900757e-01 -2.971706539392471313e-02 2.951815724372863770e-01 1.331987231969833374e-01 2.639165148138999939e-02 -5.207540839910507202e-02 -9.702107869088649750e-03 5.319099873304367065e-02 -9.345791488885879517e-02 -2.400103211402893066e-02 1.271769106388092041e-01 -8.624377101659774780e-02 5.928182229399681091e-02 7.011058181524276733e-02 8.656949736177921295e-03 -3.475020453333854675e-02 -1.411011219024658203e-01 -7.685533910989761353e-02 6.234396994113922119e-02 2.121866121888160706e-02 -8.658392727375030518e-02 2.114416286349296570e-02 -1.024365276098251343e-01 4.843306913971900940e-02 4.474403802305459976e-03 -6.697855889797210693e-02 -6.376569159328937531e-03 -1.017733216285705566e-01 1.295734643936157227e-01 1.183267384767532349e-01 -1.918254196643829346e-01 8.009100705385208130e-02 5.263826996088027954e-02 -1.393924094736576080e-02 -1.842534169554710388e-02 7.422167807817459106e-02 -1.017212644219398499e-01 5.437204614281654358e-02 -1.491712033748626709e-01 -5.089503526687622070e-02 -5.644164606928825378e-02 4.302836023271083832e-03 -2.516368986107409000e-04 -5.797463934868574142e-03 -5.407296493649482727e-02 -6.255641579627990723e-02 -2.749738655984401703e-02 -2.926184237003326416e-02 2.267888933420181274e-01 -1.930289715528488159e-01 1.530181914567947388e-01 1.129091084003448486e-01 -1.870402507483959198e-02 -6.268821656703948975e-02 1.321582123637199402e-02 3.945498913526535034e-02 -5.195929482579231262e-02 4.160023853182792664e-02 1.049020662903785706e-01 1.070672348141670227e-01 -1.989050395786762238e-02 9.776767343282699585e-02 -1.663565188646316528e-01 1.482218801975250244e-01 -2.310648746788501740e-02 9.358102828264236450e-02 -1.116532459855079651e-02 -1.034327000379562378e-01 -5.021367967128753662e-02 4.970174655318260193e-02 -6.666655838489532471e-02 1.627258062362670898e-01 5.923481658101081848e-02 3.245792537927627563e-02 -1.193329617381095886e-01 9.416659921407699585e-02 -7.485666871070861816e-02 -2.904893271625041962e-02 -2.279750071465969086e-02
-1.119401212781667709e-02 -1.018071919679641724e-02 9.266600245609879494e-04 -1.022782102227210999e-01 -2.149426937103271484e-01 2.999152801930904388e-02 -9.433184564113616943e-02 -3.990522772073745728e-02 7.191686332225799561e-02 1.258204225450754166e-02 -1.041682250797748566e-02 -6.266447901725769043e-02 -4.050010442733764648e-02 7.647822052240371704e-02 8.885518461465835571e-02 -1.900163888931274414e-01 -2.562704496085643768e-03 -2.654245123267173767e-02 -2.428576536476612091e-02 1.072067841887474060e-01 -2.056009322404861450e-01 3.998172283172607422e-02 -9.999154508113861084e-02 -6.286641955375671387e-02 -4.567475989460945129e-02 -2.593104029074311256e-03 1.153633743524551392e-01 3.312161564826965332e-02 1.804047636687755585e-02 -8.386679738759994507e-02 1.097413897514343262e-01 -5.868147686123847961e-02 1.525500565767288208e-01 1.859471350908279419e-01 2.183542400598526001e-01 5.666108429431915283e-02 8.239552378654479980e-02 -7.704041898250579834e-02 3.616735711693763733e-02 2.920543774962425232e-02 1.215497776865959167e-01 5.312188714742660522e-02 -9.529840946197509766e-02 7.568278908729553223e-02 -7.465633749961853027e-02 -8.921878784894943237e-02 1.306034773588180542e-01 1.596104651689529419e-01 1.048953533172607422e-01 1.556008458137512207e-01 -1.583102494478225708e-01 -3.590884208679199219e-01 -1.083727031946182251e-01 4.881940409541130066e-02 8.128540962934494019e-02 1.849091649055480957e-01 -2.541294395923614502e-01 7.330540567636489868e-02 -8.900721371173858643e-02 -2.400875538587570190e-01 7.169931381940841675e-02 -1.212250366806983948e-01 -5.796790495514869690e-02 -7.635179907083511353e-03 -1.589345745742321014e-02 4.401890560984611511e-02 6.082090362906455994e-02 3.292097896337509155e-02 -1.049495339393615723e-01 -9.725319594144821167e-02 1.141428723931312561e-01 -1.495455056428909302e-01 4.776372760534286499e-02 1.007480844855308533e-01 -6.473006308078765869e-02 -1.161596998572349548e-01 -9.884220361709594727e-02 -8.952715247869491577e-02 -1.114846542477607727e-01 3.895941772498190403e-04 8.192016184329986572e-02 -5.847385898232460022e-02 1.341387033462524414e-01 2.908085298258811235e-04 -1.557807773351669312e-01 1.412732154130935669e-01 -1.225176546722650528e-02 -2.887764759361743927e-02 3.725581616163253784e-02 -2.995703518390655518e-01 -1.693337410688400269e-01 1.774377673864364624e-01 -2.821115553379058838e-01 -8.707412332296371460e-02 -1.394670009613037109e-01 -2.299002930521965027e-02 -9.761288762092590332e-02 1.378322299569845200e-02 -4.260876029729843140e-02 2.464688196778297424e-02 -1.645731329917907715e-01 -7.501271367073059082e-02 8.902051486074924469e-03 -4.460661858320236206e-02 1.621266305446624756e-01 1.028768271207809448e-01 9.964634478092193604e-02 1.240915805101394653e-01 -6.678600609302520752e-02 -1.262546926736831665e-01 3.635534644126892090e-02 1.997188329696655273e-01 7.509053684771060944e-03 -1.148848459124565125e-01 -6.368943303823471069e-02 2.089998722076416016e-01 1.450143307447433472e-01 2.921800129115581512e-02 -5.626493692398071289e-02 -2.707292139530181885e-01 6.639653444290161133e-02 -6.696235388517379761e-02 -3.851449787616729736e-01 -4.183755069971084595e-02 -3.078361740335822105e-03 1.186532974243164062e-01 -8.240229636430740356e-02 -7.825768738985061646e-02 9.196045808494091034e-03 1.399754732847213745e-01 6.861655414104461670e-02 2.034278004430234432e-04 8.045589551329612732e-03 2.676940150558948517e-02 -1.922226138412952423e-02 -3.694301843643188477e-02 -9.505386650562286377e-02 4.504095390439033508e-02 -4.841039702296257019e-02 -4.239906743168830872e-02 -2.682170569896697998e-01 -8.460914716124534607e-03 3.400076180696487427e-02 1.712246537208557129e-01 7.411432266235351562e-02 -3.848613798618316650e-02 5.581989139318466187e-02 6.909818202257156372e-02 -4.890490695834159851e-02 4.707662388682365417e-02 -4.788792692124843597e-03 1.352953491732478142e-03 -8.136182278394699097e-02 1.408992111682891846e-01 1.008384078741073608e-01 -1.224372070282697678e-02 1.261740643531084061e-02 6.808557361364364624e-02 -2.147706001996994019e-01 9.156277030706405640e-02 9.637400507926940918e-02 -9.981657564640045166e-02 6.627832353115081787e-02 1.074106339365243912e-02 -4.861056804656982422e-02 -5.425634980201721191e-02 -7.597412168979644775e-02 1.894680596888065338e-02 1.286200731992721558e-01 -6.662281602621078491e-02 -1.973194256424903870e-02 -1.768562048673629761e-01 6.260934751480817795e-03 -1.700302809476852417e-01 4.143569990992546082e-02 9.591925144195556641e-02 4.095905274152755737e-02 -1.617041230201721191e-02 2.962622046470642090e-02 -6.343368440866470337e-02 4.593679308891296387e-02 9.807957708835601807e-02 7.925815880298614502e-03 5.396274384111166000e-03 -2.649652399122714996e-02 -1.579802483320236206e-02 -2.210675552487373352e-02 -1.035135835409164429e-01 -1.185404509305953979e-01 3.193560242652893066e-02 -4.483988881111145020e-02 -7.338292896747589111e-02 2.379867136478424072e-01 -9.140581823885440826e-03 2.515980042517185211e-03 2.526913285255432129e-01 5.306380242109298706e-02 1.693961769342422485e-01 -7.695969939231872559e-02 1.459351181983947754e-01 -1.067593842744827271e-01 -6.079811975359916687e-02 -1.971941627562046051e-02 1.199019793421030045e-02 -7.529846578836441040e-02 1.591229587793350220e-01 -2.186367660760879517e-01 -9.377771988511085510e-03 -1.821087859570980072e-02 1.269345451146364212e-02 -6.058887764811515808e-02 -2.322206087410449982e-02 1.691649407148361206e-01 -3.646512329578399658e-02 -7.050623651593923569e-03 3.382407501339912415e-02 -2.410794049501419067e-02 2.618298530578613281e-01 7.896009087562561035e-02 -8.280842751264572144e-02 2.429172769188880920e-02 -4.786863029003143311e-01 2.453790418803691864e-02 -1.061880961060523987e-01 1.476027667522430420e-01 -2.891301810741424561e-01 -9.216863662004470825e-03 -1.792105734348297119e-01 -1.811693236231803894e-02 -2.628128528594970703e-01 -3.150001913309097290e-02 8.319211006164550781e-02 2.406361699104309082e-02 -2.266634488478302956e-03 -4.985130950808525085e-02 -5.711840391159057617e-01 -1.498089134693145752e-01 1.229684450663626194e-03 -9.787011891603469849e-02 1.269624084234237671e-01 2.660854719579219818e-02 -1.737100183963775635e-01 -1.804259568452835083e-01 1.456059813499450684e-01 1.195974200963973999e-01 9.439618326723575592e-03 -8.352160453796386719e-02 4.959162324666976929e-02 5.043508857488632202e-02 -4.341131716500967741e-04 -2.432957440614700317e-01 1.701533347368240356e-01 2.355818152427673340e-01 -5.009359121322631836e-01 -8.130490779876708984e-02 -1.299943774938583374e-01
-4.123607650399208069e-02 6.545607745647430420e-02 -1.628634780645370483e-01 -9.526243060827255249e-02 -1.070609837770462036e-01 1.229458674788475037e-01 -9.623838216066360474e-02 -6.081731617450714111e-02 -7.320043444633483887e-02 -4.609772562980651855e-02 -5.593309178948402405e-02 -1.282020956277847290e-01 6.233450397849082947e-02 -1.104855686426162720e-01 -2.959654107689857483e-02 -5.252512544393539429e-02 -2.438582014292478561e-03 6.371225416660308838e-02 -1.064324826002120972e-01 -6.602635979652404785e-02 -5.907041020691394806e-03 1.023249700665473938e-01 1.467249542474746704e-01 -1.183840930461883545e-01 1.987230628728866577e-01 1.187457665801048279e-01 -7.548977434635162354e-02 -9.226945042610168457e-02 7.810416072607040405e-02 -8.511435985565185547e-02 -3.065376728773117065e-02 9.259141981601715088e-02 7.443525642156600952e-02 1.002769097685813904e-01 -9.079418331384658813e-02 -2.400426752865314484e-02 1.783146895468235016e-02 3.131401538848876953e-02 1.826155930757522583e-01 1.568732559680938721e-01 -4.866144061088562012e-02 -1.517050899565219879e-02 -8.108211681246757507e-03 1.331250220537185669e-01 6.111736968159675598e-02 -6.314330548048019409e-02 -9.869564324617385864e-02 -1.396319270133972168e-01 3.650923958048224449e-03 1.683856733143329620e-02 1.772588193416595459e-01 -1.675053313374519348e-02 1.456773728132247925e-01 -1.596893072128295898e-01 -6.346808746457099915e-03 -1.229500323534011841e-01 -1.223589405417442322e-01 -3.833821788430213928e-02 -6.132313236594200134e-02 -6.414617598056793213e-02 -1.315914373844861984e-02 9.324818104505538940e-02 8.849377185106277466e-02 -8.872354030609130859e-02 2.863414213061332703e-02 2.244437672197818756e-02 9.582209587097167969e-02 -9.082738310098648071e-02 -9.555908292531967163e-02 -1.700613796710968018e-01 5.814082548022270203e-02 -3.357977420091629028e-02 -7.648456841707229614e-02 4.426122084259986877e-02 -1.926171034574508667e-02 -1.434461772441864014e-01 -4.484088718891143799e-02 8.254577964544296265e-02 8.671856671571731567e-02 3.570410772226750851e-04 -1.027645096182823181e-01 1.418401449918746948e-01 1.694553196430206299e-01 -9.679731726646423340e-02 -1.066066697239875793e-01 1.514789909124374390e-01 1.289506852626800537e-01 -3.685595467686653137e-02 -1.264636665582656860e-01 8.073383942246437073e-03 5.450757592916488647e-02 -9.503835439682006836e-02 6.110729277133941650e-02 3.506753221154212952e-02 5.045338347554206848e-02 -1.258820146322250366e-01 7.043456286191940308e-02 7.119733095169067383e-02 8.729156851768493652e-02 1.611430756747722626e-02 -4.534591361880302429e-02 -4.353871941566467285e-02 -1.371822506189346313e-01 1.441269065253436565e-03 -3.553478792309761047e-02 -9.477186203002929688e-02 -7.962431013584136963e-02 1.247892677783966064e-01 -4.043260216712951660e-02 -7.708051800727844238e-02 -1.211921721696853638e-01 -2.554141357541084290e-02 -1.174813956022262573e-01 3.193431347608566284e-02 -2.843171916902065277e-02 -1.107815876603126526e-01 4.284436255693435669e-02 -5.776315182447433472e-02 -2.656524479389190674e-01 9.834048151969909668e-02 7.399988174438476562e-02 9.785507619380950928e-02 -9.085806086659431458e-03 2.133251167833805084e-02 4.836203902959823608e-02 -4.979777149856090546e-03 -8.090823888778686523e-02 4.149582609534263611e-02 2.793161384761333466e-02 4.817324504256248474e-02 -2.238934338092803955e-01 -2.270449399948120117e-01 -1.195960342884063721e-01 -7.994148135185241699e-02 -4.684219509363174438e-02 1.824939437210559845e-02 -7.313809543848037720e-02 9.216786362230777740e-03 -1.229158695787191391e-02 -1.160003766417503357e-01 9.516572207212448120e-02 1.213143768836744130e-04 -1.296147406101226807e-01 4.348744824528694153e-02 -1.197254359722137451e-01 -5.417072027921676636e-02 -4.653099179267883301e-02 8.007130771875381470e-02 -3.286026185378432274e-03 4.305765032768249512e-02 -4.193319380283355713e-02 -5.331798642873764038e-02 5.738290026783943176e-02 -1.022112742066383362e-01 -5.279594659805297852e-02 -3.321795538067817688e-02 -5.398964136838912964e-02 -9.599263779819011688e-03 8.409599214792251587e-02 3.546157479286193848e-02 -1.542907655239105225e-01 1.779553294181823730e-01 -8.936172723770141602e-02 6.342701613903045654e-02 -1.992710493505001068e-02 1.993311010301113129e-02 -7.761070970445871353e-03 2.913537202402949333e-03 -1.372355073690414429e-01 1.898656599223613739e-02 -1.609884053468704224e-01 1.790672354400157928e-02 1.171807050704956055e-01 1.823914945125579834e-01 -4.468820244073867798e-02 -9.827435761690139771e-02 -1.611159592866897583e-01 -2.088657170534133911e-01 -1.432738751173019409e-01 -9.437104314565658569e-02 -5.893567111343145370e-03 3.159943222999572754e-02 -7.702641189098358154e-02 1.075042784214019775e-01 -1.347640249878168106e-02 1.641532778739929199e-02 1.101529449224472046e-01 4.132287949323654175e-02 -6.595073640346527100e-02 5.057601258158683777e-02 1.965559422969818115e-01 -6.531375646591186523e-02 1.543586552143096924e-01 3.530776500701904297e-02 -2.892504213377833366e-03 -4.182456433773040771e-02 -7.738903164863586426e-02 -2.119435183703899384e-02 8.547682315111160278e-02 -6.519104540348052979e-02 4.178618639707565308e-02 4.963200539350509644e-02 -8.530288189649581909e-02 -1.624123156070709229e-01 -4.926792904734611511e-02 4.339217673987150192e-03 1.189721226692199707e-01 -9.664754569530487061e-02 -2.072351286187767982e-03 2.756889350712299347e-02 -4.290587082505226135e-02 -7.566205412149429321e-02 -1.741626411676406860e-01 -6.224077939987182617e-02 1.250104308128356934e-01 -4.350994527339935303e-02 4.384922236204147339e-02 1.633294485509395599e-02 1.182724442332983017e-02 1.013959944248199463e-01 -6.570386886596679688e-02 -1.808459758758544922e-01 6.708990037441253662e-02 1.368645299226045609e-02 1.088656783103942871e-01 4.958298057317733765e-02 1.513873934745788574e-01 -3.313133120536804199e-02 8.277228474617004395e-02 2.255517840385437012e-01 4.194892570376396179e-02 5.589237902313470840e-03 -2.709213644266128540e-03 -1.475204825401306152e-01 1.084998697042465210e-01 -8.550293743610382080e-02 4.151662811636924744e-02 -6.007522717118263245e-02 5.931785330176353455e-03 1.013159975409507751e-01 -4.482781887054443359e-02 -9.817972034215927124e-02 1.254349797964096069e-01 7.289644330739974976e-02 -3.983262926340103149e-02 1.127061620354652405e-01 6.476549804210662842e-02 5.111826956272125244e-02 1.315608620643615723e-01 -1.644760221242904663e-01 -1.033085659146308899e-01 -3.738290071487426758e-02 -6.942952424287796021e-02 2.216905951499938965e-01 -2.495471946895122528e-02 2.770121581852436066e-02
7.447818294167518616e-03 -1.256845612078905106e-02 5.726569518446922302e-02 -4.611240327358245850e-02 -1.787600517272949219e-01 -1.091606449335813522e-02 -6.735111773014068604e-02 3.665057197213172913e-02 -4.230923950672149658e-02 1.049786210060119629e-01 -3.589715436100959778e-02 8.545965701341629028e-02 -5.929942056536674500e-02 -1.657323688268661499e-01 9.912732243537902832e-02 -8.480814099311828613e-02 1.186517253518104553e-02 1.027020290493965149e-01 -1.196647658944129944e-01 -1.723089665174484253e-01 -8.815595880150794983e-03 -6.436602026224136353e-02 -1.357271671295166016e-01 9.759426116943359375e-02 -2.027143351733684540e-02 1.249567717313766479e-01 -5.715560540556907654e-02 -5.172688886523246765e-02 2.246067821979522705e-01 -5.860911309719085693e-02 -2.706120349466800690e-02 -4.224081337451934814e-02 -2.546286955475807190e-02 -3.224368020892143250e-02 -1.659160554409027100e-01 -1.701685413718223572e-02 -1.319130212068557739e-01 -1.753697842359542847e-01 -9.059133939445018768e-03 9.294240176677703857e-02 3.031211905181407928e-02 -7.819047570228576660e-02 -7.332628592848777771e-03 5.781750008463859558e-02 -4.871550202369689941e-02 -1.929113827645778656e-02 -1.284771263599395752e-01 1.820154674351215363e-02 -2.947546914219856262e-02 -1.274650916457176208e-02 -1.383628100156784058e-01 -9.086568653583526611e-02 1.786768883466720581e-01 1.197853833436965942e-01 7.510311901569366455e-02 1.233703121542930603e-01 -3.397077322006225586e-01 1.834995299577713013e-01 -1.397995054721832275e-01 -1.835380345582962036e-01 1.162217259407043457e-01 4.130268469452857971e-02 3.039442934095859528e-02 1.479523442685604095e-02 8.418067544698715210e-02 1.164822429418563843e-01 3.207441791892051697e-02 1.521649509668350220e-01 2.910050190985202789e-02 -3.029573336243629456e-02 -3.181910887360572815e-02 6.035094708204269409e-02 -4.157668910920619965e-03 8.651236444711685181e-02 4.280133172869682312e-02 9.168417006731033325e-02 8.420798927545547485e-02 4.364232346415519714e-02 -6.885366048663854599e-03 -1.011293474584817886e-02 1.690634489059448242e-01 -4.847962036728858948e-02 -6.069800257682800293e-02 1.752047836780548096e-01 -1.330947577953338623e-01 6.234973296523094177e-02 1.508314311504364014e-01 8.745570480823516846e-02 -1.079779937863349915e-01 -2.550165951251983643e-01 -5.362357571721076965e-02 -4.050419479608535767e-02 -1.597907245159149170e-01 5.228049308061599731e-02 -8.619136177003383636e-03 1.337904036045074463e-01 -1.677153706550598145e-01 -1.405286788940429688e-02 -1.047077700495719910e-01 4.969674721360206604e-02 -2.292479015886783600e-02 1.196068711578845978e-02 9.610634297132492065e-02 1.039590090513229370e-01 -3.213084116578102112e-02 2.831669524312019348e-02 1.735605672001838684e-02 5.410145595669746399e-02 -9.962853975594043732e-03 -1.287590060383081436e-02 -1.820319890975952148e-02 -1.271395683288574219e-01 6.304334849119186401e-02 7.010065019130706787e-02 -1.192616149783134460e-01 2.052582986652851105e-02 2.660921588540077209e-02 -1.039832755923271179e-01 -1.893058568239212036e-01 -1.514192223548889160e-01 -5.983808543533086777e-03 -2.899692393839359283e-02 -1.562508791685104370e-01 4.541717097163200378e-02 7.633170485496520996e-02 1.476207077503204346e-01 7.449550554156303406e-03 4.708837717771530151e-02 5.357521772384643555e-02 3.924460709095001221e-02 7.048400491476058960e-02 -1.242287680506706238e-01 -9.482189081609249115e-03 5.971464142203330994e-02 -6.850882619619369507e-02 -7.080647349357604980e-02 4.331198707222938538e-02 -1.267047971487045288e-02 -1.131943762302398682e-01 -4.962297901511192322e-02 -1.468893587589263916e-01 1.292112320661544800e-01 -4.156797751784324646e-02 -1.374115645885467529e-01 -2.681997045874595642e-02 2.267185896635055542e-01 9.941552765667438507e-03 -4.953444376587867737e-02 -1.343062706291675568e-02 -2.145029790699481964e-02 -3.408019989728927612e-02 -8.557850122451782227e-02 3.325020521879196167e-02 2.538575232028961182e-02 -2.975047100335359573e-03 2.963868668302893639e-03 1.058761123567819595e-02 -7.072751224040985107e-02 -6.142580136656761169e-02 9.505985304713249207e-03 -9.220380336046218872e-03 -7.356915622949600220e-02 4.572520777583122253e-02 -5.354078859090805054e-02 -1.178145632147789001e-01 -8.406607061624526978e-02 3.143797069787979126e-02 1.187721118330955505e-01 1.216979920864105225e-01 -3.984100744128227234e-02 3.972575813531875610e-02 -3.528878465294837952e-02 -6.891087163239717484e-03 -5.049094185233116150e-02 6.085729598999023438e-02 -5.846473202109336853e-02 5.574400350451469421e-02 2.267773030325770378e-03 3.771411627531051636e-02 4.861169308423995972e-02 1.325793862342834473e-01 6.926318258047103882e-02 2.992772497236728668e-02 3.116812743246555328e-02 1.176962703466415405e-01 6.157899275422096252e-02 6.900694221258163452e-03 -2.106348127126693726e-01 6.012711301445960999e-02 -1.520768105983734131e-01 -2.212858758866786957e-02 1.634246297180652618e-02 -3.007922321557998657e-02 -5.673061683773994446e-02 -4.051648452877998352e-02 7.555191218852996826e-02 1.518482342362403870e-02 1.789136081933975220e-01 3.293715417385101318e-02 -1.129124984145164490e-01 -3.543001711368560791e-01 4.078633338212966919e-02 -4.375575482845306396e-02 2.825934812426567078e-02 2.237261831760406494e-01 -1.173681244254112244e-01 -1.074482351541519165e-01 -1.024724468588829041e-01 -4.809858649969100952e-02 6.245147809386253357e-02 -2.023668587207794189e-01 -8.053638786077499390e-02 -1.866526715457439423e-02 -6.473585218191146851e-02 1.116759032011032104e-01 1.009636074304580688e-01 -1.200284361839294434e-01 8.512850105762481689e-02 -1.468476932495832443e-02 5.219996348023414612e-02 1.749860867857933044e-02 -7.817892730236053467e-02 -5.511276889592409134e-03 -1.923736557364463806e-02 -8.477777242660522461e-02 4.469959437847137451e-02 -1.359785348176956177e-01 -7.413250207901000977e-02 6.494720280170440674e-02 -3.673599660396575928e-02 2.659925632178783417e-02 9.090989828109741211e-02 6.409030407667160034e-02 -4.533756151795387268e-02 4.218459594994783401e-03 -2.968330681324005127e-01 -1.798255294561386108e-01 -3.311035409569740295e-02 -4.750090837478637695e-02 1.759762316942214966e-01 7.339397072792053223e-02 -5.862991139292716980e-02 -7.471336051821708679e-03 -8.280762284994125366e-02 4.675335731008090079e-05 3.950588777661323547e-02 -8.808073401451110840e-02 -2.770097367465496063e-02 -2.814228273928165436e-02 -4.686059430241584778e-02 -9.793012402951717377e-03 -1.111866012215614319e-01 -2.814878337085247040e-02 -9.398692846298217773e-02 4.848890006542205811e-02 8.581680245697498322e-03
-4.160480946302413940e-02 7.577174156904220581e-02 -8.595650643110275269e-02 1.713000386953353882e-01 -4.792504757642745972e-02 2.062861621379852295e-02 8.321534842252731323e-02 1.568378359079360962e-01 3.307172283530235291e-02 -4.267498850822448730e-02 -6.495147943496704102e-02 -2.699213922023773193e-01 -1.174118220806121826e-01 7.253462076187133789e-02 -2.109498716890811920e-02 5.263641849160194397e-02 2.221159823238849640e-02 -1.226877607405185699e-02 -7.410277426242828369e-02 -6.997521966695785522e-02 1.214766725897789001e-01 -3.758096322417259216e-02 5.939131602644920349e-02 3.243888542056083679e-02 1.321564316749572754e-01 9.212887287139892578e-02 2.256880328059196472e-02 -4.873050376772880554e-02 -4.989299923181533813e-02 6.218256056308746338e-02 -3.978256136178970337e-02 1.132316216826438904e-01 -2.017880380153656006e-01 -1.731875687837600708e-01 6.777105480432510376e-02 -6.169397383928298950e-02 9.513926925137639046e-04 -2.357183955609798431e-02 6.218815967440605164e-02 -2.246425151824951172e-01 1.008781939744949341e-01 -3.427282720804214478e-02 -3.598671033978462219e-02 -1.030082628130912781e-01 1.786970533430576324e-02 -3.661501035094261169e-02 -5.592015385627746582e-02 1.267329882830381393e-02 -1.459804922342300415e-01 -7.792480289936065674e-02 1.369790136814117432e-01 -3.264246508479118347e-02 -9.809218347072601318e-02 -3.086514212191104889e-02 8.617277257144451141e-03 2.300851605832576752e-02 6.957322359085083008e-02 4.233878105878829956e-03 4.504490643739700317e-02 1.714793443679809570e-01 7.627350091934204102e-02 7.272236794233322144e-02 3.431622684001922607e-02 1.289728470146656036e-02 -1.864064484834671021e-02 -2.233525505289435387e-03 -1.189582794904708862e-01 -6.579329818487167358e-02 -1.405300498008728027e-01 1.814202964305877686e-01 1.246320158243179321e-01 7.661800086498260498e-02 -5.944530013948678970e-03 -1.383923832327127457e-02 -3.187110647559165955e-02 5.737616121768951416e-02 -1.340191811323165894e-02 -1.340750157833099365e-01 7.893281430006027222e-02 1.272620819509029388e-02 -2.522804029285907745e-02 -1.064352691173553467e-01 -8.972329087555408478e-03 5.442930757999420166e-02 7.704067230224609375e-02 -3.962156921625137329e-02 -8.179831318557262421e-03 1.118491888046264648e-01 1.121867895126342773e-01 7.507333159446716309e-02 8.530222624540328979e-02 3.469750657677650452e-02 1.888488233089447021e-02 -6.155657395720481873e-02 -3.494555130600929260e-02 -1.710085868835449219e-01 5.914443358778953552e-02 7.203019410371780396e-02 6.577589362859725952e-02 -4.296119138598442078e-02 1.104858890175819397e-01 -2.657745964825153351e-02 -1.135931611061096191e-01 2.725510671734809875e-02 1.159727647900581360e-01 -3.534778207540512085e-02 -8.288067579269409180e-02 -9.912679344415664673e-02 2.586829010397195816e-03 6.142292544245719910e-02 -2.697116881608963013e-02 1.156321261078119278e-02 -1.287777870893478394e-01 1.530044674873352051e-01 -1.163836754858493805e-02 -1.732293516397476196e-01 3.740238491445779800e-03 -5.999207869172096252e-02 1.320957299321889877e-02 4.480124637484550476e-02 -9.390306659042835236e-03 -1.278802752494812012e-01 5.930950492620468140e-02 -7.957337796688079834e-02 -1.006582006812095642e-01 -3.172482550144195557e-02 -7.422135770320892334e-02 1.173709258437156677e-01 1.148640960454940796e-01 -3.177810832858085632e-02 -2.388154268264770508e-01 -1.461911946535110474e-01 -6.381139159202575684e-02 1.142263039946556091e-02 2.410158328711986542e-02 -1.254610484465956688e-03 -8.325930684804916382e-05 2.106905728578567505e-02 -1.130259782075881958e-01 -6.470520049333572388e-02 1.304485946893692017e-01 -5.930417031049728394e-02 5.538664013147354126e-02 1.258372217416763306e-01 4.830865934491157532e-02 -1.698728278279304504e-02 -7.030591368675231934e-02 -1.002807635813951492e-02 1.116558238863945007e-01 -2.203592807054519653e-01 -6.607305724173784256e-03 1.372071728110313416e-02 -5.655864253640174866e-02 -7.108629494905471802e-02 -1.398911513388156891e-02 -5.622225627303123474e-02 -1.402295529842376709e-01 4.589603096246719360e-02 2.184573113918304443e-01 -9.428739547729492188e-02 1.871941685676574707e-01 1.100612878799438477e-01 4.827152192592620850e-02 -1.748344302177429199e-02 4.710734635591506958e-02 -5.090824561193585396e-04 1.129091382026672363e-01 -3.573380177840590477e-03 1.210221126675605774e-01 3.933916613459587097e-02 6.771561503410339355e-02 6.766164302825927734e-02 3.563028573989868164e-02 -5.204529501497745514e-03 4.683327674865722656e-02 9.216859191656112671e-02 1.222136467695236206e-01 2.686276473104953766e-02 -1.528869867324829102e-01 8.173062652349472046e-02 6.450792774558067322e-03 -1.397014316171407700e-02 -6.723172962665557861e-02 -7.965304702520370483e-02 6.864473968744277954e-02 -3.482392430305480957e-02 -2.953638136386871338e-02 -1.497236937284469604e-01 8.059425652027130127e-02 6.419182289391756058e-03 -7.203873246908187866e-03 6.044415384531021118e-02 -3.459855169057846069e-02 2.763194264844059944e-03 1.910166889429092407e-01 1.017246544361114502e-01 1.132536008954048157e-01 1.803558468818664551e-01 -1.535827070474624634e-01 5.217181518673896790e-02 2.278133928775787354e-01 1.385341733694076538e-01 1.224432811141014099e-01 1.310775279998779297e-01 -1.106862425804138184e-01 2.461401000618934631e-02 2.868235483765602112e-02 5.834295600652694702e-02 -3.882019594311714172e-02 4.379215091466903687e-02 8.641266077756881714e-02 1.678990274667739868e-01 -1.080455631017684937e-01 1.769706904888153076e-01 -6.169028952717781067e-02 3.585050255060195923e-02 8.457131683826446533e-02 -5.841818079352378845e-02 6.049722060561180115e-02 1.800927668809890747e-01 -1.293606907129287720e-01 -8.333982527256011963e-02 -8.826564252376556396e-02 3.689973801374435425e-02 1.084923446178436279e-01 1.309691928327083588e-02 9.748537093400955200e-02 3.967129811644554138e-02 -1.605092920362949371e-02 -6.505504995584487915e-02 -1.053425297141075134e-01 -9.566412121057510376e-02 7.444038987159729004e-02 -4.885346069931983948e-02 -2.183117270469665527e-01 1.203037649393081665e-01 8.499372750520706177e-02 -1.159532181918621063e-02 9.780775010585784912e-02 1.590738631784915924e-02 7.466576248407363892e-02 9.878631681203842163e-02 9.283586591482162476e-02 1.612856797873973846e-02 -5.408531799912452698e-02 1.738755404949188232e-01 2.757455222308635712e-02 5.632170289754867554e-02 5.438703298568725586e-02 -6.740275770425796509e-02 1.610934585332870483e-01 -6.730503588914871216e-02 -1.068230997771024704e-02 -3.774024080485105515e-04 4.731400622404180467e-05 -6.734723597764968872e-02
-1.077371165156364441e-01 3.455010429024696350e-02 -1.460620909929275513e-01 -1.019431203603744507e-01 1.453692466020584106e-01 -1.216977834701538086e-01 -1.709994673728942871e-01 1.024928390979766846e-01 7.523013651371002197e-02 -4.337908327579498291e-02 8.767455816268920898e-03 4.889043793082237244e-02 -4.510119929909706116e-02 -6.195617374032735825e-03 5.243995040655136108e-02 -8.832482993602752686e-02 -1.181055381894111633e-01 -2.398301102221012115e-02 -2.072404138743877411e-03 -1.362908929586410522e-01 2.445877529680728912e-02 2.706238441169261932e-02 8.573268353939056396e-02 1.685844957828521729e-01 -1.526367217302322388e-01 7.755646482110023499e-03 3.327391296625137329e-02 -3.483524546027183533e-02 1.090106219053268433e-01 -2.755661010742187500e-01 9.530862420797348022e-02 -4.369521886110305786e-02 5.272813886404037476e-02 -1.241624131798744202e-01 -1.054801885038614273e-02 -9.883406758308410645e-02 -5.637236684560775757e-02 1.762413382530212402e-01 -4.486946761608123779e-02 -1.480687409639358521e-02 -1.642769426107406616e-01 -4.466010630130767822e-02 -1.315953880548477173e-01 1.702727973461151123e-01 -5.787610262632369995e-02 4.790259152650833130e-02 -5.769794806838035583e-02 5.826470628380775452e-02 -1.278323866426944733e-02 -8.358917385339736938e-02 9.726057201623916626e-02 4.617634695023298264e-03 8.564956486225128174e-02 -2.533245384693145752e-01 1.097865253686904907e-01 1.761459000408649445e-02 7.221326977014541626e-02 -1.213603839278221130e-02 2.434341982007026672e-02 -9.314172714948654175e-02 -5.829429626464843750e-02 -4.186035133898258209e-03 5.901960656046867371e-02 8.242230117321014404e-02 2.669952518772333860e-04 -1.521762739866971970e-02 1.887113973498344421e-02 -3.132720664143562317e-02 -3.069067001342773438e-02 -2.100311964750289917e-02 -2.419150993227958679e-02 3.210638090968132019e-02 -2.237549982964992523e-03 -5.544412881135940552e-02 1.606847196817398071e-01 1.193336620926856995e-01 -1.156501621007919312e-01 -1.889964006841182709e-02 3.067796863615512848e-02 -2.681874670088291168e-02 1.723716035485267639e-02 4.747431352734565735e-02 3.006041236221790314e-02 9.644351154565811157e-02 -2.258562594652175903e-01 -8.722132444381713867e-02 -9.257367998361587524e-02 4.094764590263366699e-02 -4.110815003514289856e-03 9.464149177074432373e-02 -6.342817097902297974e-02 -4.314643889665603638e-02 -1.651749759912490845e-02 -5.906156450510025024e-02 1.323851048946380615e-01 -4.634832032024860382e-03 -1.684249192476272583e-01 1.079497858881950378e-02 -4.944135993719100952e-02 3.458243608474731445e-02 -1.464371290057897568e-02 5.749955400824546814e-02 -3.045147657394409180e-02 -2.826544828712940216e-02 3.594361245632171631e-02 -4.846971854567527771e-02 6.182468309998512268e-02 8.893318474292755127e-02 2.029796876013278961e-02 -8.905520080588757992e-04 -8.704538643360137939e-02 7.043453305959701538e-02 1.484636813402175903e-01 -2.040955238044261932e-02 9.318662434816360474e-02 4.187142476439476013e-02 1.743152886629104614e-01 1.459338422864675522e-02 -1.864058375358581543e-01 -3.382549853995442390e-03 -5.738906934857368469e-02 1.197019889950752258e-01 -7.561509311199188232e-02 1.702405884861946106e-02 -1.171599887311458588e-02 1.621605604887008667e-01 4.438697174191474915e-02 -3.586174547672271729e-02 1.331815570592880249e-01 6.880275160074234009e-02 4.649415612220764160e-02 -1.623978279531002045e-02 3.666641190648078918e-02 -2.832713350653648376e-02 -2.090468443930149078e-02 -9.029562026262283325e-02 -1.528198085725307465e-02 -9.783069789409637451e-02 -9.877572208642959595e-02 2.654038369655609131e-03 -1.031177192926406860e-01 1.421311944723129272e-01 5.769012123346328735e-02 2.360955253243446350e-02 5.473969504237174988e-02 5.376412719488143921e-02 4.896070808172225952e-02 2.161232978105545044e-01 -3.959226235747337341e-02 3.802351653575897217e-02 8.475321531295776367e-02 3.656869381666183472e-02 -1.408456712961196899e-01 -7.172555476427078247e-02 4.611063748598098755e-02 1.463501155376434326e-01 5.387702956795692444e-02 8.078192919492721558e-02 1.151143386960029602e-02 2.644333429634571075e-02 -3.840509802103042603e-02 1.068579480051994324e-01 -1.023374795913696289e-01 1.728702038526535034e-01 -3.057086141780018806e-03 2.463086992502212524e-01 1.391300857067108154e-01 -2.775155752897262573e-02 1.426956951618194580e-01 -6.150829046964645386e-02 -1.281572598963975906e-02 1.718240082263946533e-01 1.855939254164695740e-02 -1.773989200592041016e-02 4.421304538846015930e-02 7.675743848085403442e-02 1.165263280272483826e-01 -2.342655509710311890e-01 2.693867497146129608e-02 3.905054554343223572e-02 9.539121389389038086e-02 -2.018073387444019318e-02 -1.821168698370456696e-02 2.399658039212226868e-02 -9.667397290468215942e-02 -2.828875789418816566e-03 1.622827947139739990e-01 -1.346419658511877060e-02 -2.315886877477169037e-02 -1.929909884929656982e-01 6.954572349786758423e-02 1.510384678840637207e-01 1.296053081750869751e-01 -2.216252731159329414e-03 -1.231284961104393005e-01 -1.395017025060951710e-04 4.913882911205291748e-02 -5.734739452600479126e-02 7.958726584911346436e-02 1.213782932609319687e-02 -1.872989349067211151e-02 -7.569716125726699829e-02 8.207719773054122925e-02 -6.219107657670974731e-02 -5.185419321060180664e-02 -4.537830874323844910e-02 1.673177182674407959e-01 -9.318386763334274292e-02 -6.466191262006759644e-02 -2.325366623699665070e-02 -1.146163046360015869e-01 -1.121679618954658508e-01 9.920937567949295044e-02 7.585097849369049072e-02 2.402566522359848022e-01 -7.889913767576217651e-02 1.684052986092865467e-03 -3.768850490450859070e-02 -9.112420678138732910e-02 8.951567858457565308e-02 7.429917156696319580e-02 -2.620585858821868896e-01 8.307313174009323120e-02 2.088397443294525146e-01 -8.868834376335144043e-02 -2.996717393398284912e-02 -4.250244796276092529e-02 -7.516281306743621826e-02 3.943080827593803406e-02 9.990350343286991119e-03 -5.310589447617530823e-02 1.287415274418890476e-03 -6.695341318845748901e-02 -4.881180357187986374e-03 1.170631125569343567e-01 -3.062837198376655579e-02 -4.989618435502052307e-02 -1.820134930312633514e-02 1.486086845397949219e-01 2.482458800077438354e-01 -4.326749965548515320e-02 -9.653286635875701904e-02 4.218332841992378235e-02 -4.180027917027473450e-02 6.947742402553558350e-02 1.206452250480651855e-01 7.989121973514556885e-02 -1.253379732370376587e-01 -8.036648482084274292e-02 -4.915339127182960510e-02 -3.419602289795875549e-03 1.392714083194732666e-01 -7.685447111725807190e-03 -8.503248542547225952e-02 1.350804716348648071e-01 5.886213108897209167e-02
