7.863280363380908966e-03
2.425522729754447937e-02
-2.121143741533160210e-03
7.534398697316646576e-03
4.006100073456764221e-02
1.678125932812690735e-03
-3.027083119377493858e-03
-3.867505490779876709e-02
5.766472965478897095e-02
-8.191434666514396667e-03
-1.041329372674226761e-02
3.103731200098991394e-02
-9.238236583769321442e-03
4.902127198874950409e-03
-8.436651900410652161e-03
-1.458194851875305176e-02
-1.259757019579410553e-02
4.372710362076759338e-02
-3.133625723421573639e-03
1.990898884832859039e-02
-1.307483017444610596e-02
4.041428491473197937e-02
-1.526705641299486160e-02
-5.808087438344955444e-02
-1.103521883487701416e-02
5.209319293498992920e-02
-6.927459966391324997e-03
2.134046889841556549e-02
-1.373010408133268356e-02
-7.043975871056318283e-03
5.209044367074966431e-02
-6.153182126581668854e-03
1.579751633107662201e-02
3.826307132840156555e-02
3.287339583039283752e-02
-4.685007967054843903e-03
5.688311532139778137e-03
-2.129706181585788727e-02
5.796322971582412720e-02
-2.867281436920166016e-02
4.910905845463275909e-03
1.022214908152818680e-02
1.559566333889961243e-02
-1.594449020922183990e-02
-2.068326994776725769e-02
4.998719319701194763e-02
-5.399612244218587875e-03
3.399076685309410095e-02
-1.474734744988381863e-03
1.614062301814556122e-02
-3.750715171918272972e-03
8.265333622694015503e-02
4.601197782903909683e-03
-5.131383426487445831e-03
9.801867417991161346e-03
2.139353565871715546e-02
1.408807374536991119e-02
5.225013196468353271e-02
-3.054400347173213959e-02
-3.864837065339088440e-02
-4.736073315143585205e-03
2.189736254513263702e-02
-6.111210677772760391e-03
4.458097741007804871e-02
2.803584933280944824e-02
4.783479496836662292e-02
2.003121003508567810e-02
7.744362205266952515e-02
4.790543019771575928e-02
1.945434138178825378e-03
1.054106000810861588e-02
-1.178683154284954071e-02
2.212999388575553894e-03
-1.533026993274688721e-02
1.662274636328220367e-02
1.431358046829700470e-02
-3.214946016669273376e-02
-8.489923551678657532e-03
-2.100019529461860657e-02
4.955953359603881836e-02
-3.872024640440940857e-02
3.777549043297767639e-02
1.971253007650375366e-02
2.666987851262092590e-02
5.686465185135602951e-03
-2.065804619633127004e-05
-1.367775909602642059e-02
-2.116100490093231201e-02
-9.570910595357418060e-03
-1.227745693176984787e-02
7.682740106247365475e-04
-3.916517365723848343e-03
-1.296401023864746094e-02
5.586322769522666931e-02
-1.654885563766583800e-04
6.085656955838203430e-02
4.428996704518795013e-03
1.753077656030654907e-02
2.851856872439384460e-02
6.600540596991777420e-03
3.873794898390769958e-02
9.288303554058074951e-02
4.161234945058822632e-02
4.616835154592990875e-03
-1.781398616731166840e-02
1.892052032053470612e-02
-7.627531886100769043e-03
-3.760353103280067444e-02
5.301804468035697937e-02
3.247188776731491089e-02
-3.077710047364234924e-02
1.252105552703142166e-02
-1.187766809016466141e-02
1.093304529786109924e-02
-3.056931123137474060e-02
1.685513742268085480e-02
-3.459704667329788208e-02
-9.989136829972267151e-03
8.276711404323577881e-02
-6.380176637321710587e-03
2.188565582036972046e-02
1.733560301363468170e-02
7.328570354729890823e-03
3.272020816802978516e-02
1.002408098429441452e-02
-1.918979361653327942e-02
-3.830985352396965027e-02
-2.430344000458717346e-02
2.471665106713771820e-02
4.370617493987083435e-02
-1.934651285409927368e-02
6.750246137380599976e-02
4.926116205751895905e-03
3.919010981917381287e-02
2.992946095764636993e-02
4.171483218669891357e-02
1.766942813992500305e-02
3.625453263521194458e-02
-2.956034801900386810e-02
9.467172436416149139e-03
-1.401766575872898102e-02
-2.128151245415210724e-02
7.611255347728729248e-02
-1.347838435322046280e-02
7.331497222185134888e-02
-6.454471964389085770e-03
-1.699025370180606842e-02
-8.968211710453033447e-03
6.106254830956459045e-02
7.751715369522571564e-03
5.536231677979230881e-03
4.114824905991554260e-02
1.605241745710372925e-02
-3.620642423629760742e-02
1.321342308074235916e-02
-6.691305898129940033e-03
5.251397937536239624e-02
2.012274786829948425e-02
1.394476834684610367e-02
-6.348507106304168701e-02
2.277788892388343811e-02
-4.230891913175582886e-02
3.457858413457870483e-02
4.768908023834228516e-02
3.862170735374093056e-03
1.018853276036679745e-03
5.050043761730194092e-02
-1.781423762440681458e-02
-1.423958130180835724e-02
9.080239571630954742e-03
5.471386015415191650e-03
3.306740522384643555e-02
9.447522461414337158e-03
-1.039717812091112137e-02
9.719523601233959198e-03
2.178432792425155640e-02
5.329079553484916687e-02
3.046479448676109314e-02
-1.428914815187454224e-02
3.834394039586186409e-03
7.567670196294784546e-02
1.004706230014562607e-02
1.964452676475048065e-02
-1.745061203837394714e-02
1.464429870247840881e-02
2.912659943103790283e-02
-1.969741191715002060e-03
2.720755897462368011e-02
7.953741587698459625e-03
-4.705854691565036774e-03
-8.954437798820436001e-04
2.434057183563709259e-02
-3.222268447279930115e-02
3.311526263132691383e-03
1.685778261162340641e-03
7.139232009649276733e-03
-2.946313470602035522e-03
-2.307775244116783142e-02
-6.241283379495143890e-03
2.816749550402164459e-02
1.458421070128679276e-02
2.288341149687767029e-02
-5.189785361289978027e-02
3.994040563702583313e-02
-1.158856507390737534e-02
2.858892455697059631e-02
3.192958422005176544e-03
-2.203889191150665283e-02
2.517225407063961029e-02
1.392235979437828064e-02
1.129621192812919617e-01
1.183226052671670914e-02
4.217415582388639450e-03
3.466817736625671387e-02
-3.354750946164131165e-02
-2.754818089306354523e-02
5.142403021454811096e-02
5.619350820779800415e-02
1.018892377614974976e-01
7.479370106011629105e-04
4.205688834190368652e-02
2.456208318471908569e-02
-2.158480510115623474e-02
-4.452724382281303406e-02
4.221449047327041626e-02
-1.849339343607425690e-02
3.123506531119346619e-02
-6.855615880340337753e-03
-1.956076826900243759e-03
3.085120767354965210e-02
2.319793589413166046e-02
2.005335874855518341e-02
6.075387448072433472e-02
5.272025242447853088e-02
2.780149690806865692e-02
-1.229021116159856319e-03
1.052982732653617859e-01
-6.391355767846107483e-03
1.516618765890598297e-02
-2.300524525344371796e-02
2.658178471028804779e-02
2.129226736724376678e-02
1.169707998633384705e-02
-7.106902450323104858e-02
6.752306222915649414e-02
-2.175957523286342621e-02
-1.012655999511480331e-02
2.836793474853038788e-02
-4.589701071381568909e-02
3.442895412445068359e-02
1.996503397822380066e-02
-8.207873441278934479e-03
1.753522641956806183e-02
-9.462317451834678650e-03
6.171553581953048706e-02
1.057477435097098351e-03
