4.705870747566223145e-01
6.711524128913879395e-01
-4.850306510925292969e-01
1.776655018329620361e-01
6.115254163742065430e-01
-4.415856003761291504e-01
-6.456140279769897461e-01
4.078178703784942627e-01
5.327495336532592773e-01
-4.742115736007690430e-01
-4.145312905311584473e-01
4.169455468654632568e-01
5.617135167121887207e-01
-5.311916470527648926e-01
4.083516001701354980e-01
-4.277706742286682129e-01
-6.067733168601989746e-01
4.792769253253936768e-01
4.019582569599151611e-01
-6.235225200653076172e-01
1.750803738832473755e-01
4.184523820877075195e-01
5.578398704528808594e-01
5.632911920547485352e-01
6.719327569007873535e-01
-4.764003753662109375e-01
5.387828350067138672e-01
6.081573367118835449e-01
-5.321003198623657227e-01
4.493607282638549805e-01
6.091058254241943359e-01
4.085210859775543213e-01
6.767765283584594727e-01
-4.720557630062103271e-01
-2.848361432552337646e-01
4.916952848434448242e-01
4.323847293853759766e-01
-5.081874728202819824e-01
4.980944395065307617e-01
-4.262251853942871094e-01
5.280972123146057129e-01
-3.252947628498077393e-01
4.074445962905883789e-01
3.712910413742065430e-01
-3.582369387149810791e-01
6.203379034996032715e-01
5.210599899291992188e-01
4.896260499954223633e-01
6.550865769386291504e-01
5.094307661056518555e-01
-2.943859696388244629e-01
5.252920389175415039e-01
5.299155116081237793e-01
-3.453143239021301270e-01
-4.463959336280822754e-01
-4.787051975727081299e-01
-6.730556488037109375e-01
5.403914451599121094e-01
-2.235419750213623047e-01
3.922150731086730957e-01
6.087095141410827637e-01
-5.894199609756469727e-01
-3.733229935169219971e-01
6.589306592941284180e-01
-6.902434825897216797e-01
-3.379116952419281006e-01
-8.473767340183258057e-02
3.362244665622711182e-01
-4.974191784858703613e-01
3.360350131988525391e-01
-3.874598145484924316e-01
-6.852499842643737793e-01
3.996886909008026123e-01
3.023622632026672363e-01
-1.731758713722229004e-01
-3.592568039894104004e-01
-3.520911335945129395e-01
6.157276034355163574e-02
6.457093954086303711e-01
-4.381269216537475586e-01
-4.715188443660736084e-01
2.615137696266174316e-01
4.617019593715667725e-01
4.588658809661865234e-01
4.334702193737030029e-01
6.330186724662780762e-01
-5.516322255134582520e-01
3.158063888549804688e-01
4.293957054615020752e-01
5.262045860290527344e-01
-1.443662792444229126e-01
5.840297341346740723e-01
2.742876410484313965e-01
6.471874117851257324e-01
-6.199956536293029785e-01
-4.339848160743713379e-01
-5.207061767578125000e-01
-4.568038284778594971e-01
4.395361542701721191e-01
6.663377285003662109e-01
-6.579346060752868652e-01
5.915820002555847168e-01
6.676418185234069824e-01
4.672058522701263428e-01
-3.426531851291656494e-01
-3.817807137966156006e-01
5.979390740394592285e-01
-3.906491696834564209e-01
-5.124029517173767090e-01
3.551663458347320557e-01
-4.885369837284088135e-01
7.078875303268432617e-01
5.688722729682922363e-01
3.453793525695800781e-01
-6.497623324394226074e-01
4.698796272277832031e-01
5.919184088706970215e-01
5.866108536720275879e-01
4.221987724304199219e-02
-3.692736625671386719e-01
-3.806600570678710938e-01
-4.561740756034851074e-01
3.492732048034667969e-01
4.485352337360382080e-01
5.230830907821655273e-01
3.270547389984130859e-01
5.459420084953308105e-01
-4.230740666389465332e-01
-6.445692777633666992e-01
3.408307731151580811e-01
5.775012373924255371e-01
-3.478600978851318359e-01
3.610331714153289795e-01
6.195871829986572266e-01
5.623365640640258789e-01
-5.686515569686889648e-01
5.985406637191772461e-01
-6.423738598823547363e-01
-5.959537029266357422e-01
-4.000336825847625732e-01
4.980500042438507080e-01
-2.608777880668640137e-01
6.460669636726379395e-01
3.542564213275909424e-01
-5.233631730079650879e-01
6.038613319396972656e-01
6.673876047134399414e-01
6.611622869968414307e-03
-4.453054368495941162e-01
-4.125885665416717529e-01
5.706975460052490234e-01
6.705548167228698730e-01
-3.826113641262054443e-01
-2.658190131187438965e-01
-2.638598382472991943e-01
-6.138493418693542480e-01
-4.196261465549468994e-01
-1.836157739162445068e-01
-5.533229112625122070e-01
-6.556415557861328125e-01
-4.460431039333343506e-01
4.573120772838592529e-01
5.243448615074157715e-01
4.033698737621307373e-01
4.929710030555725098e-01
2.735706269741058350e-01
6.724777817726135254e-01
-3.275467753410339355e-01
5.018101930618286133e-01
-4.605665504932403564e-01
4.675061404705047607e-01
-4.225671589374542236e-01
-2.388236820697784424e-01
3.531011343002319336e-01
-6.010363698005676270e-01
5.336185097694396973e-01
4.507340490818023682e-01
3.689927160739898682e-01
6.161152124404907227e-01
-3.882448971271514893e-01
-3.449659943580627441e-01
4.389377236366271973e-01
4.324480891227722168e-01
3.905913531780242920e-01
-3.796194493770599365e-01
5.318720936775207520e-01
-4.954464137554168701e-01
4.902144670486450195e-01
-5.121656656265258789e-01
6.754121184349060059e-01
-6.179969310760498047e-01
-5.792945027351379395e-01
5.233724117279052734e-01
6.855327486991882324e-01
-5.214809775352478027e-01
-6.387692093849182129e-01
5.479344725608825684e-01
3.260091245174407959e-01
5.917665958404541016e-01
6.542086005210876465e-01
-4.391843974590301514e-01
6.923180818557739258e-01
2.830643653869628906e-01
-5.548215508460998535e-01
-4.188882112503051758e-01
6.155225038528442383e-01
3.687280714511871338e-01
1.081765890121459961e-01
5.238777399063110352e-01
7.950721681118011475e-02
-4.453384578227996826e-01
6.440778374671936035e-01
-4.983873963356018066e-01
-4.785807132720947266e-01
-2.243924885988235474e-01
2.946259081363677979e-01
-6.273682713508605957e-01
5.583603978157043457e-01
1.217868849635124207e-01
5.066927671432495117e-01
4.947192966938018799e-01
1.616884768009185791e-02
5.166501998901367188e-01
-5.912283062934875488e-01
5.960110425949096680e-01
5.663726329803466797e-01
3.762497305870056152e-01
5.041611790657043457e-01
-5.027071833610534668e-01
-6.137460470199584961e-01
4.302174746990203857e-01
6.555029153823852539e-01
6.335425972938537598e-01
3.649309575557708740e-01
-2.923291623592376709e-01
5.120470523834228516e-01
-4.147604703903198242e-01
6.730407476425170898e-01
4.724698960781097412e-01
-4.813957810401916504e-01
-6.426129937171936035e-01
-3.504891097545623779e-01
3.557019531726837158e-01
5.206378698348999023e-01
-3.466108143329620361e-01
-5.133136510848999023e-01
-1.228654906153678894e-01
-3.257713615894317627e-01
6.655195951461791992e-01
-4.212931692600250244e-01
5.316354036331176758e-01
5.971739292144775391e-01
5.851364135742187500e-01
-3.086192905902862549e-01
5.934188961982727051e-01
5.528258681297302246e-01
