-4.009116441011428833e-02
-8.839677274227142334e-02
3.127035871148109436e-02
-2.278839051723480225e-02
1.422410756349563599e-01
-7.877640426158905029e-02
-4.764293134212493896e-02
-3.259285911917686462e-02
-5.796224996447563171e-02
-2.934622392058372498e-02
-2.865541540086269379e-02
-7.149247080087661743e-02
2.629974484443664551e-02
-6.288191676139831543e-02
-1.050794050097465515e-01
-9.845911711454391479e-02
-7.447262108325958252e-02
-6.780362874269485474e-02
-1.007366478443145752e-01
-9.784714132547378540e-02
-8.217909187078475952e-02
-5.997013300657272339e-03
-6.660568714141845703e-02
-9.849016368389129639e-02
-1.049137189984321594e-01
-6.009186431765556335e-02
-7.545930147171020508e-02
-3.607958182692527771e-02
-1.138731092214584351e-01
-9.062192589044570923e-02
-2.492709271609783173e-02
-4.432358965277671814e-02
-8.074654638767242432e-02
6.302761379629373550e-03
2.211019955575466156e-02
-3.774261847138404846e-02
1.084471680223941803e-02
-1.633947156369686127e-02
-5.814693123102188110e-02
-9.109558165073394775e-02
-6.134958937764167786e-02
-2.374837733805179596e-02
-3.583880513906478882e-02
-6.332338601350784302e-02
-7.211381196975708008e-02
-3.701051697134971619e-02
-8.074478805065155029e-02
-3.135151416063308716e-02
-6.801580637693405151e-02
-7.490219175815582275e-02
-9.743463248014450073e-02
-7.016371190547943115e-02
-8.052641898393630981e-02
-3.926831483840942383e-02
-5.374862346798181534e-03
3.280736878514289856e-02
-1.458888780325651169e-02
-8.853079751133918762e-03
-6.550805270671844482e-02
-1.011688411235809326e-01
-2.680216915905475616e-02
5.534378811717033386e-02
-2.632012218236923218e-02
-2.905000699684023857e-03
-4.772832617163658142e-03
-2.378682419657707214e-02
-1.071298122406005859e-01
-4.545645788311958313e-02
-4.617981612682342529e-02
-7.149308919906616211e-02
-4.627368599176406860e-02
-1.253857314586639404e-01
-2.375217713415622711e-02
-1.011234894394874573e-01
-9.575113654136657715e-02
-5.221476778388023376e-02
-6.067680940032005310e-02
-5.789212882518768311e-02
-8.297328650951385498e-02
1.270303595811128616e-02
-3.410758078098297119e-02
-6.324588507413864136e-02
-2.119359001517295837e-02
6.353992223739624023e-02
8.567087352275848389e-02
-6.578744947910308838e-02
2.365432120859622955e-02
-8.253653347492218018e-02
-4.351355507969856262e-02
-8.546686172485351562e-02
-8.184111118316650391e-02
-5.729585140943527222e-02
-3.488704189658164978e-02
-2.734016813337802887e-02
1.218467764556407928e-02
-6.790591403841972351e-03
-6.107318028807640076e-02
-2.775173634290695190e-02
-1.247377134859561920e-02
-6.405038386583328247e-02
5.546941608190536499e-02
1.351934522390365601e-01
-4.628827795386314392e-03
1.637345552444458008e-02
-6.953340768814086914e-02
1.149464547634124756e-01
-2.363889478147029877e-02
6.310252845287322998e-02
-5.999322608113288879e-02
-3.608701750636100769e-02
-2.359751611948013306e-02
-1.566985622048377991e-02
-1.060144379734992981e-01
1.885264739394187927e-02
-4.886676743626594543e-02
4.138738662004470825e-02
-4.557134956121444702e-02
-1.203071027994155884e-01
5.388903990387916565e-02
-7.148529589176177979e-02
-3.209270164370536804e-02
-1.139420177787542343e-02
-1.245536357164382935e-01
2.735205292701721191e-01
-2.415169030427932739e-02
-2.152393944561481476e-02
-4.279656335711479187e-02
-4.916150122880935669e-02
-1.693732105195522308e-02
-5.956430360674858093e-02
-8.787539787590503693e-03
1.734919846057891846e-01
-7.898106426000595093e-02
-1.265489961951971054e-02
4.200406745076179504e-02
5.981745198369026184e-02
-2.989252656698226929e-02
-1.630058046430349350e-03
-7.346016168594360352e-02
2.375817112624645233e-02
-2.780164591968059540e-02
-1.085464283823966980e-01
2.328144572675228119e-02
-1.482925936579704285e-02
1.580720692873001099e-01
-5.361047014594078064e-02
-1.361699402332305908e-01
-4.180945828557014465e-02
5.198959261178970337e-02
-9.247510135173797607e-02
-4.254511743783950806e-02
2.751879990100860596e-01
-9.380899369716644287e-02
-2.985452115535736084e-02
-2.516004256904125214e-02
3.221230953931808472e-02
-6.875703483819961548e-02
-1.354456786066293716e-02
-3.803874552249908447e-02
-3.626468032598495483e-02
-8.150044083595275879e-02
-9.203533828258514404e-02
5.157718434929847717e-03
-4.174616560339927673e-02
-4.767042770981788635e-02
-2.780256792902946472e-02
-5.686204880475997925e-02
-8.017319440841674805e-02
-5.722606182098388672e-02
-6.294472515583038330e-02
5.413299053907394409e-02
1.413410902023315430e-01
-1.553470939397811890e-01
-1.495605409145355225e-01
-3.841096535325050354e-03
-3.133831545710563660e-02
-2.171889133751392365e-02
1.388944387435913086e-01
-2.396522089838981628e-02
7.000926136970520020e-02
-5.081488285213708878e-03
-5.987280607223510742e-02
-8.795707672834396362e-02
5.405827984213829041e-02
-3.596610575914382935e-02
-2.692989818751811981e-02
-5.754982680082321167e-02
-5.653349310159683228e-02
-8.280683308839797974e-03
-5.782547593116760254e-02
2.005603909492492676e-02
6.312970072031021118e-03
-7.224973291158676147e-02
2.598706819117069244e-02
-5.285255610942840576e-02
-2.973956521600484848e-03
8.927368617150932550e-05
2.266846597194671631e-02
-5.840104073286056519e-02
-5.379543453454971313e-02
-2.465598285198211670e-02
-4.849628731608390808e-02
-1.183775141835212708e-01
-4.968539625406265259e-02
-1.691146986559033394e-03
-8.480242639780044556e-02
-4.121058434247970581e-02
8.572109974920749664e-03
-6.188307330012321472e-02
-8.254659920930862427e-02
-2.511363662779331207e-02
-9.663103148341178894e-03
9.867695719003677368e-02
-1.642915420234203339e-02
-9.819120168685913086e-02
-4.661730304360389709e-02
-1.268650591373443604e-01
1.055719926953315735e-01
3.075481508858501911e-04
1.744006946682929993e-02
-9.872090071439743042e-02
-3.283820301294326782e-02
-3.996775299310684204e-02
-3.829277679324150085e-02
-1.493763178586959839e-01
-7.487355172634124756e-02
-5.126672610640525818e-02
-1.220322679728269577e-03
1.064274832606315613e-02
-9.194210916757583618e-02
-8.679810911417007446e-02
5.863749980926513672e-02
1.918902844190597534e-01
-4.151836410164833069e-02
-4.522419348359107971e-02
-9.717408567667007446e-02
-6.333859264850616455e-02
-3.969062119722366333e-02
-1.066667363047599792e-01
-8.705867826938629150e-02
-1.258523296564817429e-02
-2.592734992504119873e-02
1.306464150547981262e-02
-9.432008862495422363e-02
2.015442773699760437e-02
-1.840237900614738464e-02
8.683273941278457642e-02
1.704708114266395569e-02
-1.705588656477630138e-03
-7.101988047361373901e-02
1.099953129887580872e-01
3.177907690405845642e-02
-3.693917393684387207e-02
-3.365536779165267944e-02
-5.619384720921516418e-02
9.582729637622833252e-02
