-1.201996207237243652e-01
2.275288105010986328e-01
2.029315084218978882e-01
1.179232373833656311e-01
1.995570659637451172e-01
2.680340409278869629e-02
-2.271836549043655396e-01
-1.190257668495178223e-01
4.415433108806610107e-02
-4.501525685191154480e-02
2.185007482767105103e-01
1.664804071187973022e-01
1.768028736114501953e-01
1.491450518369674683e-01
2.218227833509445190e-01
-3.673965632915496826e-01
-1.156266629695892334e-01
8.896631747484207153e-02
1.638804078102111816e-01
2.010819911956787109e-01
9.352805465459823608e-02
2.044314593076705933e-01
1.144702360033988953e-01
7.226993795484304428e-03
2.322581559419631958e-01
-2.576620317995548248e-02
2.570376358926296234e-02
5.233360081911087036e-02
1.001907065510749817e-01
-2.514350600540637970e-02
-5.847376212477684021e-02
1.724998950958251953e-01
1.938223540782928467e-01
2.341131679713726044e-02
1.120550408959388733e-01
4.168925434350967407e-02
2.011140137910842896e-01
-2.915561795234680176e-01
1.932785212993621826e-01
1.627243310213088989e-01
2.366856038570404053e-01
-1.665791869163513184e-01
-9.754531085491180420e-02
4.099474102258682251e-02
2.232618033885955811e-01
2.116283923387527466e-01
6.499692797660827637e-02
-1.623751372098922729e-01
2.308293282985687256e-01
2.740297317504882812e-01
8.268328756093978882e-02
-1.643931865692138672e-01
9.760588407516479492e-02
1.237171068787574768e-01
-6.212540343403816223e-02
-4.117693603038787842e-01
-5.919355899095535278e-02
1.453791856765747070e-01
6.853363662958145142e-02
-8.503506332635879517e-02
1.696602106094360352e-01
7.453600317239761353e-02
-4.221860691905021667e-02
3.328190743923187256e-02
1.300079375505447388e-01
2.374255359172821045e-01
-1.884527504444122314e-01
-3.280926495790481567e-02
-5.146466568112373352e-02
-1.631243973970413208e-01
1.276416331529617310e-01
1.464900672435760498e-01
1.813370436429977417e-01
-7.677220553159713745e-02
1.454058438539505005e-01
-1.500500887632369995e-01
-4.186394438147544861e-02
-3.317309916019439697e-02
1.771722435951232910e-01
1.846355646848678589e-01
-1.120054125785827637e-01
-1.715013757348060608e-02
1.664576679468154907e-01
1.119925267994403839e-02
-2.083638869225978851e-02
-2.884083427488803864e-03
2.710947692394256592e-01
-1.620487570762634277e-01
6.916722655296325684e-02
1.708935797214508057e-01
1.946648210287094116e-01
1.813637912273406982e-01
4.186875000596046448e-02
-1.822346895933151245e-01
1.550448536872863770e-01
1.810096204280853271e-01
1.144478004425764084e-02
3.944882750511169434e-02
6.384181231260299683e-02
8.286935091018676758e-02
2.574138045310974121e-01
1.516250073909759521e-01
-4.567676223814487457e-03
2.121272385120391846e-01
1.538050472736358643e-01
1.592531800270080566e-01
-2.467198818922042847e-01
-6.535714119672775269e-02
-1.208499446511268616e-01
1.320801768451929092e-02
-1.314149349927902222e-01
1.872515082359313965e-01
-7.171393930912017822e-02
1.865576058626174927e-01
1.848202198743820190e-01
2.391782552003860474e-01
1.603891849517822266e-01
-1.965551450848579407e-02
2.389650940895080566e-01
-9.126320481300354004e-02
1.375136524438858032e-01
9.277005493640899658e-02
1.619825363159179688e-01
1.007887646555900574e-01
2.180075049400329590e-01
1.162794679403305054e-01
-1.231087073683738708e-01
-3.314569890499114990e-01
-1.447597593069076538e-01
-1.404674649238586426e-01
1.872225254774093628e-01
2.660979032516479492e-01
-1.183656230568885803e-01
1.714705605991184711e-03
1.695743054151535034e-01
-1.190756708383560181e-01
-1.032276153564453125e-01
1.055874228477478027e-01
7.725254446268081665e-02
1.723199337720870972e-01
1.849778741598129272e-01
-1.095539852976799011e-01
2.067357748746871948e-01
1.520770937204360962e-01
-1.349790543317794800e-01
1.820857822895050049e-01
-5.626111105084419250e-02
2.142879366874694824e-01
1.660943329334259033e-01
1.579323559999465942e-01
2.123250514268875122e-01
2.240183353424072266e-01
2.449343353509902954e-01
1.683048158884048462e-01
1.715175956487655640e-01
-2.384052723646163940e-01
1.664328128099441528e-01
2.862421795725822449e-02
-8.225686848163604736e-02
2.313901335000991821e-01
-1.312383264303207397e-01
1.486711502075195312e-01
1.802014559507369995e-01
2.126153409481048584e-01
-1.629828512668609619e-01
-8.196896314620971680e-02
1.186608970165252686e-01
2.314005792140960693e-01
1.935089589096605778e-03
9.704872220754623413e-02
1.629461199045181274e-01
-2.701736688613891602e-01
4.425431415438652039e-02
1.730173677206039429e-01
7.994282990694046021e-02
-8.946757763624191284e-02
1.233243495225906372e-01
1.911442279815673828e-01
2.391025722026824951e-01
-5.495325848460197449e-02
1.980402618646621704e-01
-1.122037973254919052e-02
-1.767545640468597412e-01
2.268735170364379883e-01
1.413555592298507690e-01
-1.543332785367965698e-01
1.743294596672058105e-01
1.112342700362205505e-01
-1.523486524820327759e-01
8.229333162307739258e-02
1.339663565158843994e-01
-1.019287705421447754e-01
-1.602462530136108398e-01
2.318581491708755493e-01
1.318752020597457886e-01
9.989084303379058838e-02
7.167125493288040161e-02
-1.516628265380859375e-01
1.354361772537231445e-01
1.445476412773132324e-01
1.777521669864654541e-01
-5.069702491164207458e-02
2.638844773173332214e-02
1.637966185808181763e-01
1.616770029067993164e-01
1.722736805677413940e-01
2.395641207695007324e-01
1.408360898494720459e-01
9.065600484609603882e-02
-8.819720894098281860e-02
2.041429132223129272e-01
1.982511579990386963e-01
-1.069252118468284607e-01
9.595362097024917603e-02
-1.102813854813575745e-01
-2.378569394350051880e-01
2.215026021003723145e-01
-2.058281600475311279e-01
2.147898375988006592e-01
1.285685002803802490e-01
1.210076957941055298e-01
-2.501529455184936523e-01
-2.365063726902008057e-01
-2.805074751377105713e-01
-1.072905808687210083e-01
3.262474900111556053e-03
-1.381720695644617081e-02
1.081030666828155518e-01
-5.360925942659378052e-02
1.777533441781997681e-01
1.167621389031410217e-01
2.479183822870254517e-01
1.210832782089710236e-02
-4.091633111238479614e-02
1.762169450521469116e-01
1.242413595318794250e-01
1.847472488880157471e-01
8.353816717863082886e-02
-5.575914680957794189e-02
-1.654636114835739136e-02
1.710365414619445801e-01
-2.240929054096341133e-03
-3.280521556735038757e-02
-3.684796392917633057e-01
2.076627910137176514e-01
2.294206172227859497e-01
2.400411218404769897e-01
-1.819713413715362549e-01
1.410294622182846069e-01
-1.201796606183052063e-01
2.334986925125122070e-01
-2.197245657444000244e-01
2.140523940324783325e-01
1.214906498789787292e-01
7.992505282163619995e-02
-3.926297649741172791e-02
