1.557501405477523804e-01
2.615865767002105713e-01
3.359986841678619385e-01
4.359444975852966309e-01
1.419193744659423828e-01
-1.951766200363636017e-02
-2.288268208503723145e-01
-6.806353107094764709e-03
4.615997374057769775e-01
-3.381488621234893799e-01
-4.586800187826156616e-02
-7.161384224891662598e-01
2.235400378704071045e-01
-1.086287200450897217e-01
4.020439684391021729e-01
-6.721338033676147461e-01
-3.786444067955017090e-01
-7.463771700859069824e-01
2.298804670572280884e-01
-5.115883946418762207e-01
3.627498447895050049e-01
2.087790071964263916e-01
-4.946763217449188232e-01
3.843595385551452637e-01
-3.996275365352630615e-01
4.360471963882446289e-01
-4.707910716533660889e-01
-5.263146162033081055e-01
1.027981862425804138e-01
1.846897900104522705e-01
-2.638275027275085449e-01
4.214232265949249268e-01
2.944227159023284912e-01
3.669054806232452393e-01
-1.434665918350219727e-01
3.643740713596343994e-01
-4.641477167606353760e-01
2.547300457954406738e-01
1.762190610170364380e-01
-2.258013486862182617e-01
-4.644122123718261719e-01
-6.757110357284545898e-01
-2.392739802598953247e-02
1.124563291668891907e-01
-4.777029454708099365e-01
2.232701927423477173e-01
3.419747352600097656e-01
3.792957067489624023e-01
2.799013555049896240e-01
-1.036893203854560852e-01
-1.667008697986602783e-01
2.086538076400756836e-01
2.074826955795288086e-01
-4.095677733421325684e-01
2.000243663787841797e-01
2.123344242572784424e-01
-2.075366228818893433e-01
-1.755694001913070679e-01
-2.468036264181137085e-01
-3.569910302758216858e-02
3.424665331840515137e-01
4.284531474113464355e-01
2.790947258472442627e-01
-1.414680480957031250e-01
-2.558920383453369141e-01
-3.707773685455322266e-01
1.661279350519180298e-01
2.466822117567062378e-01
2.863786518573760986e-01
-4.872212111949920654e-01
3.112096488475799561e-01
-4.778135940432548523e-02
-2.337201982736587524e-01
3.219736516475677490e-01
1.826135069131851196e-01
-2.728944718837738037e-01
-2.286184877157211304e-01
-3.640688061714172363e-01
-3.712290525436401367e-01
1.348672658205032349e-01
-7.741650938987731934e-02
1.597364246845245361e-01
3.016443550586700439e-01
3.530097305774688721e-01
-3.766093850135803223e-01
4.564625918865203857e-01
-6.463020443916320801e-01
-1.636461019515991211e-01
-3.048714995384216309e-01
2.769438922405242920e-02
6.225520744919776917e-02
-8.011051416397094727e-01
1.645362973213195801e-01
-3.952437043190002441e-01
-7.132648229598999023e-01
3.433692455291748047e-01
-3.547834455966949463e-01
3.566589355468750000e-01
8.819690346717834473e-02
4.569861888885498047e-01
-7.161312699317932129e-01
4.238618016242980957e-01
-1.715652048587799072e-01
-2.944316864013671875e-01
1.538690030574798584e-01
6.071247458457946777e-01
4.237542450428009033e-01
-2.570601403713226318e-01
6.899806112051010132e-02
-6.486014723777770996e-01
-3.831836581230163574e-01
3.631927073001861572e-02
-4.281517565250396729e-01
-1.753982752561569214e-01
9.674856066703796387e-02
-4.027040004730224609e-01
-4.647967219352722168e-01
1.338760852813720703e-01
3.163204491138458252e-01
-3.142572641372680664e-01
2.755586206912994385e-01
3.257867693901062012e-02
-5.668749287724494934e-02
3.251654207706451416e-01
-9.651999920606613159e-02
1.025341674685478210e-01
-2.471525073051452637e-01
1.336254477500915527e-01
1.657328307628631592e-01
-9.328535199165344238e-01
3.649444282054901123e-01
2.326801419258117676e-01
3.472600579261779785e-01
4.478106796741485596e-01
3.262766003608703613e-01
-5.451590418815612793e-01
2.455300837755203247e-01
3.433363735675811768e-01
1.108015179634094238e-01
6.294143199920654297e-02
-4.003294110298156738e-01
-4.011995792388916016e-01
-1.622077226638793945e-01
-2.143502980470657349e-01
-5.743394047021865845e-02
3.343210220336914062e-01
-9.572581201791763306e-02
5.759151577949523926e-01
7.563140243291854858e-02
4.099131524562835693e-01
3.866597414016723633e-01
-2.906721830368041992e-02
-2.187494486570358276e-01
-1.856279820203781128e-01
-2.585265636444091797e-01
-3.652783334255218506e-01
-5.435594916343688965e-02
4.788848161697387695e-01
-7.015856504440307617e-01
3.988900184631347656e-01
-4.663369357585906982e-01
-4.502955973148345947e-01
4.226405620574951172e-01
4.614202305674552917e-02
-7.532141208648681641e-01
-2.105919569730758667e-01
2.819765210151672363e-01
2.650094330310821533e-01
2.191421538591384888e-01
-2.080119103193283081e-01
-6.301053762435913086e-01
2.152555733919143677e-01
3.708697557449340820e-01
-2.340228408575057983e-01
-7.084180712699890137e-01
-3.424615412950515747e-02
-1.360069364309310913e-01
-9.455700963735580444e-02
3.922848403453826904e-01
-3.893175721168518066e-01
-8.362692594528198242e-01
2.680210769176483154e-01
3.007910847663879395e-01
1.468187123537063599e-01
-1.030833721160888672e-01
-8.840588480234146118e-02
-7.545815408229827881e-02
-1.693527102470397949e-01
-4.611512124538421631e-01
7.785147428512573242e-01
3.115708194673061371e-02
4.064527750015258789e-01
3.963663578033447266e-01
3.581845462322235107e-01
4.769360423088073730e-01
-8.596954345703125000e-01
-2.774618268013000488e-01
-8.231111168861389160e-01
-1.040011867880821228e-01
-4.028244316577911377e-01
-2.610383033752441406e-01
-1.190067753195762634e-01
3.152155578136444092e-01
-3.701938986778259277e-01
8.514090441167354584e-03
-5.883473157882690430e-01
2.782934308052062988e-01
-5.056349635124206543e-01
2.041566222906112671e-01
4.128460586071014404e-01
-4.540348649024963379e-01
2.028661072254180908e-01
-1.121434345841407776e-01
-3.407540544867515564e-02
3.035613000392913818e-01
-2.773320078849792480e-01
-4.550712406635284424e-01
4.689841866493225098e-01
4.662905335426330566e-01
3.635339438915252686e-01
-2.893259227275848389e-01
-2.424119114875793457e-01
6.196152046322822571e-02
-4.163399711251258850e-02
4.798866510391235352e-01
-9.105814993381500244e-02
-3.173445761203765869e-01
2.930110692977905273e-01
-1.349520981311798096e-01
2.267848849296569824e-01
-3.187707364559173584e-01
-3.769711256027221680e-01
-2.323857545852661133e-01
-4.986253753304481506e-02
4.659338891506195068e-01
-1.660472750663757324e-01
-2.367855161428451538e-01
-2.187181115150451660e-01
-6.539834141731262207e-01
3.002736568450927734e-01
2.005990147590637207e-01
-4.188895523548126221e-01
4.252687096595764160e-01
2.888916432857513428e-01
4.129402339458465576e-01
-7.149208188056945801e-01
1.428716443479061127e-02
-2.215053290128707886e-01
-7.420238256454467773e-01
-4.661847352981567383e-01
-2.192417532205581665e-01
-5.394032597541809082e-01
4.064270555973052979e-01
-2.768020927906036377e-01
-3.110047578811645508e-01
-1.532586067914962769e-01
