9.981417059898376465e-01 9.293674230575561523e-01 -1.778629064559936523e+00 1.296899437904357910e+00 3.166164636611938477e+00 -4.298041343688964844e+00 -5.134874343872070312e+00 -1.160330295562744141e+01 9.001078009605407715e-01 -1.878754973411560059e+00 1.489131927490234375e+00 7.902839779853820801e-01 1.046226263046264648e+00 7.303266525268554688e-01 8.802714943885803223e-01 -1.318612575531005859e+00 1.087803959846496582e+00 -2.459447669982910156e+01 9.905741214752197266e-01 1.615496277809143066e+00 1.350996017456054688e+00 8.708161115646362305e-01 3.153132677078247070e+00 1.471796035766601562e+00 4.205357432365417480e-01 -3.786308288574218750e+00 -1.236882805824279785e+00 3.176400899887084961e+00 -1.738440155982971191e+00 -2.064028739929199219e+00 -3.208498954772949219e+00 1.552254796028137207e+00 4.027770996093750000e+00 4.019334793090820312e+00 1.719331026077270508e+00 -1.871758937835693359e+00 -2.730058670043945312e+00 5.525394082069396973e-01 2.818006277084350586e+00 -1.167790174484252930e+00 -1.492767810821533203e+00 -1.669768095016479492e+00 -2.614699363708496094e+00 -2.050186538696289062e+01 -1.431456804275512695e+00 -2.400925636291503906e+01 -1.191170930862426758e+00 9.832150936126708984e-01 1.179452896118164062e+00 8.245217204093933105e-01 4.561586678028106689e-01 1.955415010452270508e+00 1.091649889945983887e+00 -9.100202918052673340e-01 9.038026332855224609e-01 1.373281478881835938e+00 -1.122704744338989258e+00 1.545016050338745117e+00 9.582938551902770996e-01 1.157778263092041016e+00 2.337415933609008789e+00 -1.923811316490173340e+00 1.598381280899047852e+00 1.060015201568603516e+00 3.367715120315551758e+00 2.660418272018432617e+00 -7.369941711425781250e+00 1.608640074729919434e+00 4.617173597216606140e-02 1.276005864143371582e+00 1.333257675170898438e+00 -2.519317388534545898e+00 -1.133529901504516602e+00 1.472740054130554199e+00 5.726378560066223145e-01 2.296892881393432617e+00 1.108106613159179688e+00 9.803805947303771973e-01 1.081126332283020020e+00 1.162441968917846680e+00 -1.094862818717956543e+00 3.584251403808593750e+00 1.234908103942871094e+00 4.964234232902526855e-01 4.150115549564361572e-01 5.707256317138671875e+00 2.770421504974365234e+00 1.847638249397277832e+00 -1.540170192718505859e+00 1.516451954841613770e+00 3.134602069854736328e+00 -2.297433376312255859e+00 -1.159195780754089355e+00 2.051246166229248047e+00 7.114930748939514160e-01 3.290360689163208008e+00 3.733987331390380859e+00 3.177308082580566406e+00 -2.881376743316650391e+00 1.998294949531555176e+00 7.754342555999755859e-01 1.284737944602966309e+00 1.412849187850952148e+00 1.175576925277709961e+00 1.759303510189056396e-01 -6.739601135253906250e+00 2.859871387481689453e-01 8.601548075675964355e-01 -1.319431066513061523e+00 2.372041225433349609e+00 -4.481775760650634766e+00 1.328982353210449219e+00 1.999718904495239258e+00 1.000617980957031250e+00 5.130387306213378906e+00 2.198897123336791992e+00 4.369843006134033203e+00 -3.604188680648803711e+00 1.194111824035644531e+00 4.466136932373046875e+00 6.510290503501892090e-01 7.590658068656921387e-01 2.980736494064331055e+00 -1.549392700195312500e+00 -5.167554378509521484e+00 2.329581737518310547e+00 -1.240648365020751953e+01 -2.656744718551635742e+00 9.290732741355895996e-01 6.605029106140136719e+00 -1.522106528282165527e+00 1.122078895568847656e+00 2.648297071456909180e+00 -9.355006814002990723e-01 -2.619473838806152344e+01 4.124073982238769531e+00 -1.010146045684814453e+01 -3.734176397323608398e+00 1.432699322700500488e+00 1.329481840133666992e+00 1.201116919517517090e+00 -1.970047593116760254e+00 8.459713459014892578e-01 2.038360595703125000e+00 5.216379165649414062e-01 -2.272850275039672852e+00 8.897005319595336914e-01 -1.072710037231445312e+00 9.488276839256286621e-01 1.761304378509521484e+00 -9.066851615905761719e+00 -1.502169013023376465e+00 2.313719034194946289e+00 1.274595737457275391e+00 -1.585235238075256348e+00 -3.575153589248657227e+00 3.634143829345703125e+00 1.115465044975280762e+00 -8.088629841804504395e-01 2.896133899688720703e+00 -1.320568680763244629e+00 -7.904698848724365234e-01 1.609251141548156738e+00 1.070431947708129883e+00 -9.418825507164001465e-01 -2.212400245666503906e+01 -2.122567653656005859e+00 -2.604871749877929688e+00 8.686211109161376953e-01 -8.359028816223144531e+00 1.650201201438903809e+00 1.226904988288879395e+00 -1.272861480712890625e+00 -7.998220443725585938e+00 -6.819938659667968750e+00 5.522086620330810547e-01 1.495320558547973633e+00 2.194309473037719727e+00 -3.304179668426513672e+00 5.567932128906250000e-01 2.116339206695556641e+00 1.802886247634887695e+00 9.959374070167541504e-01 -1.198210597038269043e+00 -1.388763308525085449e+00 -1.400220513343811035e+00 1.521561026573181152e+00 -1.143027973175048828e+01 -1.466173410415649414e+00 -2.228921175003051758e+00 7.494559764862060547e+00 7.705827355384826660e-01 1.783310532569885254e+00 1.800987362861633301e+00 7.066416740417480469e-01 -4.420256614685058594e+00 2.955406188964843750e+00 8.625202775001525879e-01 6.035566926002502441e-01 8.526539802551269531e-01 1.516827702522277832e+00 -3.948323965072631836e+00 9.799700379371643066e-01 -1.044638919830322266e+01 -3.920678377151489258e+00 6.324976682662963867e-01 -2.405452728271484375e+01 2.226821899414062500e+00 7.461183667182922363e-01 -8.204304575920104980e-01 9.750950336456298828e-01 2.522012710571289062e+00 9.292410016059875488e-01 2.269875764846801758e+00 7.390990257263183594e-01 1.763868331909179688e-02 8.833795189857482910e-01 9.714410901069641113e-01 1.164114832878112793e+00 1.423094511032104492e+00 1.285145640373229980e+00 -1.484996914863586426e+00 -1.819976568222045898e+00 -1.620949268341064453e+00 1.735886216163635254e+00 -1.136297821998596191e+00 9.408692717552185059e-01 8.337269425392150879e-01 4.491446495056152344e+00 1.069980025291442871e+00 -6.543028831481933594e+00 -7.874287962913513184e-01 7.348107695579528809e-01 1.657374143600463867e+00 1.337818026542663574e+00 7.167886495590209961e-01 1.397206902503967285e+00 -1.312567591667175293e+00 1.149983167648315430e+00 -8.195956349372863770e-01 6.269644498825073242e-01 8.946595191955566406e-01 1.447290182113647461e+00 5.473794341087341309e-01 1.018027782440185547e+00 -7.868498563766479492e-01 -1.046526432037353516e+00 -5.683164119720458984e+00 7.194735407829284668e-01 6.618470549583435059e-01 3.780530095100402832e-01 -2.079495906829833984e+00 -2.134052991867065430e+00 1.117628574371337891e+00 -3.800837278366088867e+00 7.728608846664428711e-01
