-1.326684951782226562e+00 8.712725043296813965e-01 6.000139117240905762e-01 -7.894470691680908203e-01 1.814443945884704590e+00 6.304916143417358398e-01 1.638391971588134766e+00 5.578565001487731934e-01 9.409200549125671387e-01 1.436367511749267578e+00 1.913446784019470215e+00 -1.140347862243652344e+01 8.772193789482116699e-01 5.177279710769653320e-01 -1.408635616302490234e+00 -2.003345251083374023e+00 8.738140463829040527e-01 -1.131875753402709961e+00 2.849328994750976562e+00 -1.401236057281494141e+01 -1.153809070587158203e+00 -1.202916502952575684e+00 -1.244735717773437500e+00 -2.772481918334960938e+00 -3.722077906131744385e-01 2.912101268768310547e+00 -3.792417764663696289e+00 4.548466205596923828e-01 8.855315446853637695e-01 7.362824082374572754e-01 -1.928620576858520508e+00 6.692123413085937500e-01 8.511892557144165039e-01 1.304925918579101562e+00 6.202518343925476074e-01 1.555373072624206543e+00 2.302633285522460938e+00 2.396104335784912109e+00 1.742280721664428711e+00 1.368663787841796875e+00 1.446227073669433594e+00 3.910759449005126953e+00 1.883963108062744141e+00 1.209196686744689941e+00 1.485386729240417480e+00 2.957628369331359863e-01 -3.797937393188476562e+00 -2.144954490661621094e+01 8.199260830879211426e-01 -1.254457712173461914e+00 8.046407699584960938e-01 4.277493953704833984e-01 8.991991877555847168e-01 9.339787364006042480e-01 -8.515591621398925781e+00 -6.438270568847656250e+00 -1.311952352523803711e+00 3.656019926071166992e+00 1.455462455749511719e+00 8.556063771247863770e-01 2.161741703748703003e-01 1.273284912109375000e+00 5.339812040328979492e-01 5.107860565185546875e-01 1.084107518196105957e+00 2.220108270645141602e+00 -2.132606744766235352e+00 -1.531434893608093262e+00 -3.292970895767211914e+00 7.987508177757263184e-01 -4.975981712341308594e+00 -7.429149746894836426e-01 4.385868608951568604e-01 -3.368211030960083008e+00 6.020473241806030273e-01 6.920347809791564941e-01 -9.671315550804138184e-01 3.070276737213134766e+00 -1.360133409500122070e+00 3.571527898311614990e-01 2.231092929840087891e+00 8.203783035278320312e-01 4.406934380531311035e-01 -1.287921071052551270e+00 9.944632649421691895e-02 6.548873186111450195e-01 1.093446016311645508e+00 -1.207624316215515137e+00 5.814591646194458008e-01 3.111049175262451172e+00 -2.859632968902587891e+00 8.944242000579833984e-01 5.886540412902832031e-01 6.459659337997436523e-01 1.255301594734191895e+00 6.005315184593200684e-01 7.437056303024291992e-01 -5.952355384826660156e+00 -9.247553944587707520e-01 4.436207711696624756e-01 -1.198402523994445801e+00 -1.534975767135620117e+00 5.697196722030639648e-01 7.080869197845458984e+00 -5.727143287658691406e-01 1.176975131034851074e+00 1.692515254020690918e+00 -1.750233888626098633e+00 4.426053166389465332e-01 3.357562720775604248e-01 2.665752410888671875e+00 8.460189104080200195e-01 -3.806816816329956055e+00 7.091887593269348145e-01 -1.808945465087890625e+01 1.001851916313171387e+00 -1.282401323318481445e+00 -1.100140333175659180e+00 -1.675851106643676758e+00 2.119580745697021484e+00 1.924814820289611816e+00 -3.545694351196289062e-01 1.813509583473205566e+00 7.992272973060607910e-01 -3.949095487594604492e+00 -1.417886018753051758e+00 6.431742310523986816e-01 6.144372224807739258e-01 -1.326439380645751953e+00 2.670465111732482910e-01 1.932901859283447266e+00 -7.090845584869384766e+00 6.550989747047424316e-01 -6.878995895385742188e-01 -2.131688833236694336e+00 1.267118692398071289e+00 1.273853778839111328e+00 1.339605331420898438e+00 5.131893157958984375e-01 -1.883008599281311035e+00 1.729128837585449219e+00 1.721018791198730469e+00 7.603975534439086914e-01 5.864942669868469238e-01 1.328262805938720703e+00 6.738487482070922852e-01 1.465698599815368652e+00 1.281478643417358398e+00 4.789249598979949951e-01 -6.774662494659423828e+00 -1.485232949256896973e+00 1.383510708808898926e+00 1.584634661674499512e+00 -1.888466477394104004e+00 2.171298980712890625e+00 6.156058311462402344e-01 2.680660724639892578e+00 1.007409572601318359e+00 6.274161934852600098e-01 8.936610221862792969e-01 6.899302601814270020e-01 -1.726902842521667480e+00 -1.540202426910400391e+01 2.368935346603393555e+00 1.191903829574584961e+00 2.919375658035278320e+00 8.790718317031860352e-01 -1.506985783576965332e+00 1.951033592224121094e+00 2.519918918609619141e+00 8.466723561286926270e-01 5.507541894912719727e-01 6.909348368644714355e-01 4.715742468833923340e-01 1.000435113906860352e+00 6.402865648269653320e-01 7.510092258453369141e-01 8.918723464012145996e-01 6.128575205802917480e-01 -1.870040512084960938e+01 5.557591319084167480e-01 -4.559809684753417969e+00 -2.085271358489990234e+00 5.468965172767639160e-01 -1.701251506805419922e+00 9.178405404090881348e-01 -8.158687949180603027e-01 4.305449128150939941e-01 7.966782450675964355e-01 5.335748195648193359e-01 -9.258181571960449219e+00 2.825988769531250000e+00 -1.635598540306091309e+00 3.436902284622192383e+00 -3.807032108306884766e-01 1.321732640266418457e+00 1.431450486183166504e+00 -8.059340119361877441e-01 1.016085982322692871e+00 -4.430559158325195312e+00 9.101719856262207031e-01 -1.467175722122192383e+00 1.138297796249389648e+00 -1.800846338272094727e+00 8.794348239898681641e-01 -3.353049039840698242e+00 6.237684488296508789e-01 -1.471689319610595703e+01 -6.035641193389892578e+00 1.967758178710937500e+00 8.687347173690795898e-01 2.812881171703338623e-01 3.836592435836791992e+00 6.461604237556457520e-01 1.385723114013671875e+00 1.630193233489990234e+00 -2.331809997558593750e+00 7.020650863647460938e+00 4.050237178802490234e+00 5.003234148025512695e-01 -6.693234443664550781e+00 -8.910866737365722656e+00 6.777065396308898926e-01 1.423546195030212402e+00 2.395026206970214844e+00 -3.411625862121582031e+00 -1.358908176422119141e+00 5.985172986984252930e-01 2.138020277023315430e+00 -1.144846796989440918e+00 -1.525837230682373047e+01 1.027518808841705322e-01 7.157462239265441895e-01 3.237754404544830322e-01 -1.352822589874267578e+01 4.696906805038452148e-01 5.798622369766235352e-01 -5.546911716461181641e+00 1.247731208801269531e+00 1.151330351829528809e+00 8.426327705383300781e-01 -8.927644491195678711e-01 -1.569698691368103027e+00 -6.821460247039794922e+00 9.325031042098999023e-01 -9.786727905273437500e+00 1.034086465835571289e+00 5.368273854255676270e-01 1.108762502670288086e+00 7.448747754096984863e-01 6.572821140289306641e-01 7.170017957687377930e-01 2.319763898849487305e+00 -3.077409982681274414e+00 7.793601155281066895e-01 -1.430579662322998047e+00
