2.496661663055419922e+00 1.469699740409851074e+00 -5.837607979774475098e-01 1.313429594039916992e+00 -1.392634272575378418e+00 8.843089342117309570e-01 1.497340321540832520e+00 -5.358310937881469727e-01 8.932356238365173340e-01 1.711107492446899414e+00 -6.578387618064880371e-01 7.301968336105346680e-01 1.670229077339172363e+00 5.594703555107116699e-01 -2.085352182388305664e+00 -9.870889782905578613e-01 1.743535876274108887e+00 -1.041529417037963867e+00 3.522851467132568359e-01 2.972336411476135254e-01 1.491006135940551758e+00 -4.094178199768066406e+00 4.759852290153503418e-01 2.059057235717773438e+00 1.333402991294860840e+00 3.074048161506652832e-01 -2.002923488616943359e+00 1.561283946037292480e+00 -1.355558991432189941e+00 -2.467616498470306396e-01 -1.971663355827331543e+00 2.839004039764404297e+00 5.877041220664978027e-01 -8.300148963928222656e+00 -1.928743720054626465e-01 4.420318305492401123e-01 -3.790103435516357422e+00 1.900956749916076660e+00 3.159850597381591797e+00 -1.776080131530761719e+00 -2.021153688430786133e+00 -4.876607418060302734e+00 -2.962693452835083008e+00 -1.757729053497314453e+00 -1.066511034965515137e+00 -1.967271924018859863e+00 4.031397998332977295e-01 -5.947295188903808594e+00 4.008504390716552734e+00 -4.039592146873474121e-01 -1.856888532638549805e+00 1.548302650451660156e+00 -5.968526840209960938e+00 -3.327882051467895508e+00 2.616279602050781250e+00 2.542222499847412109e+00 1.879893302917480469e+00 2.807639837265014648e+00 1.228563189506530762e+00 7.870316505432128906e-01 4.667628765106201172e+00 1.797974228858947754e+00 1.175715923309326172e+00 4.526020050048828125e+00 2.491976737976074219e+00 2.850389242172241211e+00 6.759866476058959961e-01 1.280155181884765625e+00 3.961395323276519775e-01 2.439370900392532349e-01 1.146738171577453613e+00 7.486253261566162109e+00 -7.570791721343994141e+00 1.065736651420593262e+00 3.855583369731903076e-01 -3.763424158096313477e+00 -2.073792457580566406e+00 1.724568963050842285e+00 2.791068792343139648e+00 4.704648554325103760e-01 -1.611516380310058594e+01 1.440341591835021973e+00 8.136410713195800781e-01 4.121283590793609619e-01 8.090797066688537598e-01 2.645680427551269531e+00 -2.717901945114135742e+00 2.034365415573120117e+00 -8.346050977706909180e-01 2.212381124496459961e+00 -4.514142513275146484e+00 1.831912159919738770e+00 -7.833536267280578613e-01 3.489008188247680664e+00 1.955420255661010742e+00 1.750205993652343750e+00 -1.735155940055847168e+00 3.485641002655029297e+00 -1.174572944641113281e+00 4.839350700378417969e+00 -1.778800964355468750e+00 -1.541829228401184082e+00 -3.180128574371337891e+00 2.024745464324951172e+00 -6.310081958770751953e+00 4.028317451477050781e+00 1.719153523445129395e+00 1.402886390686035156e+00 -4.854721069335937500e+00 3.995070219039916992e+00 -9.239296317100524902e-01 5.832397460937500000e+00 2.348570823669433594e+00 -1.821419715881347656e+00 -9.452179670333862305e-01 6.769390106201171875e-01 -2.754281282424926758e+00 -1.200853228569030762e+00 1.123370409011840820e+00 3.328838348388671875e+00 7.937293648719787598e-01 7.429127097129821777e-01 -5.403841972351074219e+00 -3.481004238128662109e+00 -4.452285289764404297e+00 2.736439704895019531e+00 -4.497841835021972656e+00 5.899985432624816895e-01 -6.921907067298889160e-01 -4.041492080688476562e+01 -1.574293017387390137e+00 2.421569347381591797e+00 3.636763691902160645e-01 3.599869608879089355e-01 -2.109431505203247070e+00 1.274578928947448730e+00 8.076249957084655762e-01 -4.603569507598876953e+00 7.411116600036621094e+00 1.607842206954956055e+00 -1.143519306182861328e+01 6.005555391311645508e-01 -1.622251319885253906e+01 1.630344390869140625e+00 4.065005302429199219e+00 2.086184501647949219e+00 -1.452582120895385742e+00 1.243897914886474609e+00 1.842277526855468750e+00 -5.250851511955261230e-01 -1.798780441284179688e+00 -1.429008483886718750e+00 1.290035486221313477e+00 -2.736167669296264648e+00 -6.421897888183593750e+00 -1.379586315155029297e+01 -5.684933066368103027e-01 3.297748565673828125e-01 -1.595376014709472656e+00 4.503319263458251953e-01 -4.532099246978759766e+00 -1.232010936737060547e+01 9.827638864517211914e-01 -4.799763560295104980e-01 -1.079564213752746582e+00 1.557097673416137695e+00 -2.455313205718994141e+00 -1.239352464675903320e+00 2.861975669860839844e+00 -1.547894597053527832e+00 7.279364466667175293e-01 1.539442300796508789e+00 1.928879171609878540e-01 -1.017940425872802734e+01 -1.315369725227355957e+00 2.351882696151733398e+00 1.539289712905883789e+00 1.616500496864318848e+00 -4.322463989257812500e+00 2.468692064285278320e+00 -7.382571697235107422e-01 3.977031707763671875e+00 -1.797128468751907349e-01 1.692157864570617676e+00 -6.099921464920043945e-01 -6.465256214141845703e-01 1.461694955825805664e+00 -9.004666328430175781e+00 1.632174253463745117e+00 -1.552449703216552734e+00 4.026617109775543213e-01 1.218783378601074219e+00 1.227999567985534668e+00 2.854241430759429932e-01 1.621592164039611816e+00 -3.551217794418334961e+00 1.037739753723144531e+00 2.305688619613647461e+00 1.530490040779113770e+00 1.198620572686195374e-01 7.532382607460021973e-01 9.728621840476989746e-01 -5.590961456298828125e+00 -1.215988254547119141e+01 1.342966675758361816e+00 5.669184327125549316e-01 1.056607961654663086e+00 2.338360786437988281e+00 1.484674572944641113e+00 -1.277889013290405273e+00 -3.364669036865234375e+01 1.491664409637451172e+00 1.375781059265136719e+00 1.731474399566650391e+00 1.063733339309692383e+00 -7.409953325986862183e-02 3.719604492187500000e+00 3.708373308181762695e-01 5.775462985038757324e-01 -1.859263300895690918e+00 6.693595409393310547e+00 -1.379870176315307617e+00 -2.473223686218261719e+00 1.044276714324951172e+00 1.123129725456237793e+00 -5.187714099884033203e-01 5.297001004219055176e-01 -8.497390747070312500e-01 1.950404167175292969e+00 1.276059269905090332e+00 -8.494529128074645996e-01 -2.862672567367553711e+00 9.738666415214538574e-01 4.373311042785644531e+00 9.214247465133666992e-01 -3.507330894470214844e+00 -5.147601962089538574e-01 -1.883652925491333008e+00 -1.184843254089355469e+01 2.681050539016723633e+00 1.671374589204788208e-01 1.409072160720825195e+00 3.100066661834716797e+00 4.453811943531036377e-01 3.261669278144836426e-01 -1.331674933433532715e+00 -2.824759244918823242e+00 -4.161453247070312500e-01 7.007178664207458496e-01 8.348220586776733398e-01 7.916868329048156738e-01 8.082072734832763672e-01 -1.877928853034973145e+00 6.563783884048461914e-01 -3.840092086791992188e+01 6.849203705787658691e-01
