4.710885584354400635e-01 -1.840782165527343750e-01 -2.689951956272125244e-01 -5.986775875091552734e+00 8.001111149787902832e-01 4.977544546127319336e-01 1.409937620162963867e+00 -3.360258817672729492e+00 -1.937848210334777832e+00 -1.279394626617431641e+00 1.067642688751220703e+00 5.432727932929992676e-01 4.742994308471679688e+00 5.388448238372802734e-01 -7.075507640838623047e-01 -2.790301322937011719e+00 5.514003038406372070e-01 -2.594906568527221680e+00 -1.267849445343017578e+00 4.055254757404327393e-01 4.485414028167724609e-01 -2.100700378417968750e+00 6.979732513427734375e-01 9.233300089836120605e-01 -3.960224866867065430e+00 5.728309750556945801e-01 -2.152307748794555664e+00 -8.422999382019042969e-01 -7.456574916839599609e+00 1.175614833831787109e+00 -2.218147039413452148e+00 -7.977365016937255859e+00 1.292814731597900391e+00 1.415753602981567383e+00 -4.074291884899139404e-01 1.712570071220397949e+00 5.193024277687072754e-01 -2.232327461242675781e+00 1.490221977233886719e+00 -5.078192949295043945e-01 -6.486002802848815918e-01 -1.229526638984680176e+00 -7.245231866836547852e-01 3.684384346008300781e+00 -1.537401080131530762e+00 1.247085332870483398e+00 -2.198454856872558594e+01 -9.322868585586547852e-01 -4.649125576019287109e+00 -3.270548343658447266e+00 1.231360077857971191e+00 6.440141201019287109e+00 -1.039544343948364258e+00 -3.529592752456665039e+00 8.600397706031799316e-01 -1.588089346885681152e+00 -3.779942750930786133e+00 9.715375900268554688e-01 -5.887294292449951172e+00 6.614705920219421387e-01 6.930753588676452637e-02 -1.104660511016845703e+00 -1.051983237266540527e+00 -5.057442188262939453e-01 5.214338779449462891e+00 8.340353369712829590e-01 -2.426160722970962524e-01 7.257899641990661621e-01 -2.286519050598144531e+00 1.056273937225341797e+00 -1.046552896499633789e+00 1.115143656730651855e+00 -1.404831647872924805e+00 -1.180315494537353516e+00 9.713829159736633301e-01 -6.358403682708740234e+00 -1.152658700942993164e+00 -7.107359170913696289e-01 6.385878324508666992e-01 3.325106382369995117e+00 -3.594385385513305664e-01 -9.958130717277526855e-01 8.957908153533935547e-01 1.420045495033264160e+00 7.087407112121582031e-01 -1.257621169090270996e+00 5.312477350234985352e-01 -4.289324283599853516e-01 -1.124885797500610352e+00 -3.038201332092285156e+00 -3.437469005584716797e+00 1.156353354454040527e+00 1.273406028747558594e+00 1.541871547698974609e+00 1.281116366386413574e+00 -8.947834968566894531e+00 -2.987992286682128906e+00 1.440294384956359863e+00 -3.263113975524902344e+00 7.868813276290893555e-01 -1.578273582458496094e+01 -1.019740462303161621e+00 -1.720943689346313477e+00 -1.545834779739379883e+00 3.621379137039184570e-01 2.770470142364501953e+00 -1.257256221771240234e+01 -4.431557655334472656e+00 2.987657308578491211e+00 -7.669210433959960938e+00 1.052446126937866211e+00 5.928280353546142578e-01 -2.483309507369995117e+00 -4.163537979125976562e+00 1.676211357116699219e+00 3.671510517597198486e-01 1.420130014419555664e+00 -3.400746822357177734e+00 -2.635483980178833008e+00 9.520010948181152344e-01 -5.021031856536865234e+00 -4.054164409637451172e+00 8.735715150833129883e-01 -1.349433898925781250e+00 6.549828052520751953e-01 6.301939487457275391e-01 -9.162260293960571289e-01 3.262233257293701172e+00 4.498719692230224609e+00 1.698786973953247070e+00 -1.278186321258544922e+00 3.904757976531982422e+00 8.735044598579406738e-01 2.850672900676727295e-01 -1.335387587547302246e+00 -1.784208178520202637e+00 -2.562290430068969727e+00 -3.047533512115478516e+00 -1.077500820159912109e+00 -5.499495267868041992e-01 5.834509134292602539e-01 -5.868686676025390625e+00 -4.791412353515625000e+00 1.696051478385925293e+00 1.136195659637451172e+00 -4.631654262542724609e+00 5.871750712394714355e-01 1.681880593299865723e+00 2.343880176544189453e+00 1.579436540603637695e+00 2.273317098617553711e+00 2.343228101730346680e+00 8.651050329208374023e-01 3.632365167140960693e-01 -8.942777514457702637e-01 -9.402055740356445312e-01 -1.701129525899887085e-01 5.772368907928466797e-01 9.381288886070251465e-01 5.755538940429687500e-01 -9.353884458541870117e-01 -5.712218880653381348e-01 1.677081704139709473e+00 9.811809659004211426e-01 -2.301702022552490234e+00 1.044861793518066406e+00 -7.944778203964233398e-01 -4.526062905788421631e-01 -1.639892101287841797e+00 -2.767601490020751953e+00 8.349632024765014648e-01 -9.787355065345764160e-01 4.501186311244964600e-01 2.491073608398437500e-01 3.640448570251464844e+00 -3.236197471618652344e+00 6.302146315574645996e-01 -8.881174921989440918e-01 1.883669853210449219e+00 -2.989923095703125000e+01 1.284430265426635742e+00 1.062969088554382324e+00 1.020021915435791016e+00 -7.208841323852539062e+00 -1.536654114723205566e+00 1.178472042083740234e+00 4.995571136474609375e+00 -5.486251831054687500e+00 1.314803242683410645e+00 1.805283308029174805e+00 8.445600271224975586e-01 1.253771185874938965e+00 -4.558793306350708008e-01 7.260000705718994141e-01 -1.742048621177673340e+00 -5.473500728607177734e+00 -1.023232221603393555e+00 1.534704923629760742e+00 -9.764023423194885254e-01 1.255878448486328125e+00 1.828854084014892578e+00 9.210414290428161621e-01 7.799655199050903320e-01 1.203035354614257812e+00 5.115361213684082031e-01 -1.104237198829650879e+00 -2.549211692810058594e+01 1.367588341236114502e-01 3.645456075668334961e+00 -9.356083273887634277e-01 2.077118396759033203e+00 1.702118158340454102e+00 6.758525371551513672e-01 1.464416861534118652e+00 4.417742788791656494e-01 2.313043117523193359e+00 1.106225013732910156e+00 6.851420402526855469e-01 7.992112636566162109e-01 6.420511007308959961e-01 6.974481344223022461e-01 -2.839694261550903320e+00 1.411549210548400879e+00 -5.388478040695190430e-01 -1.220419049263000488e+00 -1.482973814010620117e+00 -7.546277642250061035e-01 -1.126464724540710449e+00 6.329462528228759766e-01 1.151674389839172363e+00 1.279860615730285645e+00 1.156640887260437012e+00 -4.065051555633544922e+00 7.221215367317199707e-01 -8.113903999328613281e-01 -6.880991458892822266e-01 -1.008985638618469238e+00 -1.344645500183105469e+00 -1.219888329505920410e+00 3.805725574493408203e-01 8.107633590698242188e-01 1.277640104293823242e+00 2.854976058006286621e-01 4.990428984165191650e-01 1.504037141799926758e+00 -3.302215814590454102e+00 -4.757206141948699951e-01 -5.966848850250244141e+00 1.328795194625854492e+00 8.999635577201843262e-01 2.927433252334594727e-01 1.752413153648376465e+00 -1.555422663688659668e+00 1.402284145355224609e+00 -1.207352995872497559e+00 -1.086022377014160156e+00
