5.244856476783752441e-01 7.496073246002197266e-01 -1.410892128944396973e+00 -1.313904857635498047e+01 -1.140139460563659668e+00 1.256123304367065430e+00 2.033279657363891602e+00 -7.251537442207336426e-01 -3.393738031387329102e+00 1.002306103706359863e+00 -1.295648479461669922e+01 6.717393994331359863e-01 -8.872112274169921875e+00 4.018438756465911865e-01 -4.664473056793212891e+00 -1.910172104835510254e+00 5.814112424850463867e-01 -2.850630521774291992e+00 -4.169560909271240234e+00 2.356685400009155273e+00 3.536215543746948242e+00 -1.163472270965576172e+01 8.452410101890563965e-01 1.344700813293457031e+00 6.584466695785522461e-01 -1.615528678894042969e+01 -1.843975663185119629e+00 4.817497730255126953e-01 -1.990715622901916504e+00 5.388432741165161133e-01 2.313100695610046387e-01 4.466374874114990234e+00 3.509988307952880859e+00 1.081096649169921875e+00 3.869830369949340820e-01 6.215652227401733398e-01 -2.323492527008056641e+00 6.808218955993652344e-01 5.322846412658691406e+00 -3.795176982879638672e+00 -8.659247398376464844e+00 -2.278650045394897461e+00 -1.972809910774230957e+00 -1.400257468223571777e+00 -3.422199249267578125e+01 5.157252550125122070e-01 1.993568062782287598e+00 3.269919872283935547e+00 1.220480799674987793e+00 4.012576043605804443e-01 6.061327457427978516e-01 6.220897436141967773e-01 -3.642827749252319336e+00 -1.022057890892028809e+00 2.523954868316650391e+00 6.168012619018554688e-01 2.339298874139785767e-01 1.572811417281627655e-02 1.201560735702514648e+00 1.035032153129577637e+00 4.352890968322753906e+00 4.258249998092651367e-01 1.369996190071105957e+00 5.460469126701354980e-01 1.010448455810546875e+00 3.478343248367309570e+00 -6.320564150810241699e-01 2.559162139892578125e+00 1.688408017158508301e+00 6.799815297126770020e-01 5.837809443473815918e-01 2.443705558776855469e+00 -4.780519962310791016e+00 1.488000035285949707e+00 1.955849885940551758e+00 6.704997420310974121e-01 7.312974929809570312e-01 7.956672310829162598e-01 2.441284894943237305e+00 1.374561429023742676e+00 -9.844038009643554688e+00 5.095859766006469727e-01 7.913513779640197754e-01 3.069876134395599365e-01 7.038737535476684570e-01 1.313201427459716797e+00 -9.852687835693359375e+00 5.470823645591735840e-01 -5.182878971099853516e-01 1.438564181327819824e+00 -9.770405292510986328e-01 -1.049399471282958984e+01 -7.455752491950988770e-01 4.819738566875457764e-01 1.293010950088500977e+00 1.878179192543029785e+00 5.342195630073547363e-01 1.254303812980651855e+00 -5.858605384826660156e+00 2.669838666915893555e+00 -3.605487823486328125e+01 6.940468549728393555e-01 -9.825246334075927734e-01 6.916188597679138184e-01 5.536746501922607422e+00 5.304328441619873047e+00 2.147829055786132812e+00 1.811890602111816406e+00 -1.026609539985656738e+00 1.787492632865905762e+00 2.125145435333251953e+00 4.713374614715576172e+00 1.552399992942810059e+00 -4.466242313385009766e+00 -1.883953690528869629e+00 1.243556976318359375e+00 -5.590271949768066406e+00 -2.198605060577392578e+00 3.027517199516296387e-01 4.257819175720214844e+00 3.869703114032745361e-01 1.335880875587463379e+00 4.311954021453857422e+00 1.889972686767578125e-01 -1.038698077201843262e+00 4.635179042816162109e-01 -6.766714453697204590e-01 6.379424780607223511e-02 2.118480682373046875e+00 -5.211790204048156738e-01 -1.517840147018432617e+00 2.195995092391967773e+00 6.235473752021789551e-01 4.454621970653533936e-01 -7.404260039329528809e-01 1.645605564117431641e+00 5.334555625915527344e+00 -4.646917581558227539e-01 8.671936988830566406e-01 1.204346179962158203e+00 -1.681660771369934082e+00 3.096496760845184326e-01 1.024839115142822266e+01 1.071319341659545898e+00 1.010826349258422852e+00 9.418060779571533203e-01 -8.129016160964965820e-01 1.334173083305358887e+00 4.205631613731384277e-01 -1.912801933288574219e+01 -1.500448226928710938e+00 4.470825791358947754e-01 2.966260015964508057e-01 -3.076242446899414062e+00 -5.341192483901977539e-01 -2.428974151611328125e+00 -1.844957113265991211e+00 6.769219636917114258e-01 -8.131542205810546875e-01 6.049343943595886230e-01 -3.136096000671386719e+00 -2.583715677261352539e+00 2.208887577056884766e+00 1.382419347763061523e+00 -8.787416815757751465e-01 1.464543223381042480e+00 -2.764400482177734375e+00 -2.566411733627319336e+00 3.541559576988220215e-01 2.004390507936477661e-01 1.266835451126098633e+00 5.959292888641357422e+00 -6.005110144615173340e-01 -1.302378177642822266e+01 -3.882912993431091309e-01 4.674234390258789062e+00 1.004414200782775879e+00 6.645349264144897461e-01 -4.705844879150390625e+00 1.524719595909118652e+00 7.581048607826232910e-01 1.358093619346618652e+00 -4.984525963664054871e-02 -1.254282951354980469e+00 -1.384956598281860352e+00 -1.244409456849098206e-01 -1.282415866851806641e+00 -1.470513725280761719e+01 4.430151283740997314e-01 -2.115479230880737305e+00 1.475174784660339355e+00 3.779816627502441406e-01 8.369512557983398438e-01 1.038043618202209473e+00 1.014377117156982422e+00 -4.633852958679199219e+00 2.788860321044921875e+00 1.605991482734680176e+00 4.789177179336547852e-01 2.114050388336181641e-01 6.058702468872070312e-01 5.522758960723876953e+00 9.847964644432067871e-01 -3.640530347824096680e+00 1.252583742141723633e+00 1.055732131004333496e+00 1.582875967025756836e+00 1.089683175086975098e+00 1.047283172607421875e+00 -5.834491848945617676e-01 -1.387221717834472656e+01 4.258716106414794922e+00 7.480463385581970215e-01 1.302880644798278809e+00 1.883228421211242676e-01 9.529148340225219727e-01 1.603588581085205078e+00 6.631619334220886230e-01 1.122811317443847656e+00 -2.817673921585083008e+00 1.077544569969177246e+00 -1.887071132659912109e+00 -1.212650299072265625e+00 -8.191192150115966797e-01 6.929904818534851074e-01 -5.944401741027832031e+00 7.989718914031982422e-01 5.764418244361877441e-01 5.666161537170410156e+00 1.147136330604553223e+00 -2.693677520751953125e+01 -7.537962198257446289e-01 1.276327610015869141e+00 5.207057476043701172e+00 -2.278548240661621094e+00 9.020207524299621582e-01 -3.918867707252502441e-01 -6.858827173709869385e-02 -6.552460789680480957e-01 -3.801846504211425781e+00 -7.583050131797790527e-01 2.086580514907836914e+00 3.334919929504394531e+00 3.558346927165985107e-01 1.628284096717834473e+00 2.890644371509552002e-01 -6.958341002464294434e-01 -6.998691558837890625e-01 1.648066759109497070e+00 1.330655097961425781e+00 -4.644409716129302979e-01 7.253914475440979004e-01 -9.986026287078857422e-01 -1.766030311584472656e+00 -6.813045501708984375e+00 -2.509655952453613281e+00
