-1.828900575637817383e+00 1.366936922073364258e+00 9.565130472183227539e-01 2.575266361236572266e+00 2.537920475006103516e+00 1.224664449691772461e+00 1.192383170127868652e+00 -3.893791198730468750e+00 2.203702688217163086e+00 -1.741376519203186035e+00 1.455207943916320801e+00 1.299074292182922363e+00 1.172000885009765625e+00 4.046944618225097656e+00 2.772968530654907227e+00 1.817892789840698242e+00 8.454539179801940918e-01 2.134502172470092773e+00 6.910412311553955078e-01 -1.602080464363098145e+00 1.596860766410827637e+00 4.117836952209472656e+00 1.673448920249938965e+00 -4.330952644348144531e+00 -2.943129062652587891e+00 2.998969793319702148e+00 1.282540798187255859e+00 -4.671222209930419922e+00 -4.109081745147705078e+00 1.533552408218383789e+00 -1.522733092308044434e+00 -2.147421836853027344e+01 1.872313737869262695e+00 4.944796562194824219e-01 1.946605801582336426e+00 1.407489061355590820e+00 4.676768779754638672e+00 6.210472583770751953e-01 1.388489365577697754e+00 4.333627223968505859e+00 8.313458561897277832e-01 -9.179781079292297363e-01 1.148709893226623535e+00 -1.101966500282287598e+00 8.988447189331054688e-01 -2.148483276367187500e+00 4.233535289764404297e+00 2.032731294631958008e+00 -3.475338363647460938e+01 1.539945006370544434e+00 8.309227228164672852e-01 2.530543565750122070e+00 4.619330883026123047e+00 7.399925589561462402e-01 1.110943436622619629e+00 -1.615055322647094727e+00 -3.347459077835083008e+00 -1.575016856193542480e+00 -1.026289224624633789e+00 9.237167239189147949e-01 -8.352952599525451660e-01 -4.940824985504150391e+00 -2.296592712402343750e+00 1.209944844245910645e+00 1.007664799690246582e+00 3.848850727081298828e+00 1.540526151657104492e+00 7.090801596641540527e-01 4.697056770324707031e+00 -8.540063858032226562e+00 -2.134721755981445312e+00 1.333362936973571777e+00 -1.134199261665344238e+00 -6.972246646881103516e+00 1.575474858283996582e+00 9.776918292045593262e-01 4.052070617675781250e+00 1.066534876823425293e+00 1.630654335021972656e+00 1.786641240119934082e+00 1.107890486717224121e+00 -1.298622250556945801e+00 -2.574287414550781250e+00 4.347939491271972656e-01 9.808583259582519531e-01 3.384127140045166016e+00 1.288910388946533203e+00 1.154924154281616211e+00 -1.823049068450927734e+00 2.986311197280883789e+00 6.784800291061401367e-01 6.167747974395751953e+00 6.253724694252014160e-01 2.320576667785644531e+00 8.559970259666442871e-01 4.188185691833496094e+00 5.339481353759765625e+00 1.151550889015197754e+00 1.200941801071166992e+00 -2.326433420181274414e+00 5.989311337471008301e-01 2.531555652618408203e+00 6.186189055442810059e-01 4.813618183135986328e+00 1.429097533226013184e+00 -1.309813618659973145e+00 5.630117058753967285e-01 -1.013426899909973145e+00 1.439414381980895996e+00 9.253694415092468262e-01 1.547025561332702637e+00 4.866377830505371094e+00 -1.304957389831542969e+00 -2.012315988540649414e+00 -2.518947219848632812e+01 2.054801702499389648e+00 -1.260331034660339355e+00 -4.143794536590576172e+00 2.231914281845092773e+00 7.153126597404479980e-01 -5.503235340118408203e+00 1.031502604484558105e+00 2.028111457824707031e+00 -2.261931896209716797e+00 9.043187499046325684e-01 -1.233941912651062012e+00 1.359472632408142090e+00 2.896134614944458008e+00 -3.335731267929077148e+00 -4.566666126251220703e+00 2.449144363403320312e+00 4.029032707214355469e+00 1.649609565734863281e+00 -3.584101915359497070e+00 -1.213052034378051758e+00 3.392989397048950195e+00 3.488529622554779053e-01 -1.953001976013183594e+00 -1.314865708351135254e+00 -3.716697931289672852e+00 1.224809646606445312e+00 -2.166172266006469727e+00 -1.201366424560546875e+00 1.521954774856567383e+00 1.368949413299560547e+00 -2.712264299392700195e+00 7.543098926544189453e-01 7.810106277465820312e+00 9.351246953010559082e-01 -1.970382118225097656e+01 1.127906084060668945e+00 1.903006315231323242e+00 5.378134727478027344e+00 -1.843761801719665527e+00 8.762630820274353027e-01 -1.462762236595153809e+00 -1.616591644287109375e+01 1.095951318740844727e+00 -2.922125339508056641e+00 -9.655986785888671875e+00 1.278627395629882812e+00 7.442289590835571289e-01 -5.108175873756408691e-01 -1.066389656066894531e+01 2.174267530441284180e+00 1.288072109222412109e+00 1.993017196655273438e+00 1.303799867630004883e+00 1.312564730644226074e+00 -6.185875535011291504e-01 -9.495998382568359375e+00 1.143163442611694336e+00 9.331623911857604980e-01 1.048131465911865234e+00 1.050628066062927246e+00 -6.574040889739990234e+00 -6.490819454193115234e-01 6.847020983695983887e-01 1.574466824531555176e+00 2.516792058944702148e+00 -1.631570577621459961e+00 4.090643882751464844e+00 -2.093755483627319336e+00 -1.473272323608398438e+00 -1.671412110328674316e+00 3.093286514282226562e+00 1.654582142829895020e+00 -5.470545291900634766e+00 -4.048407077789306641e+00 1.176210284233093262e+00 1.103708267211914062e+00 -1.394488430023193359e+01 1.517628550529479980e+00 -1.376694083213806152e+00 -2.404895544052124023e+00 1.065523147583007812e+00 -2.389263153076171875e+01 1.064067268371582031e+01 7.374976873397827148e-01 1.835265874862670898e+00 1.093533873558044434e+00 -1.535527610778808594e+01 2.202240705490112305e+00 9.696801304817199707e-01 -3.729292869567871094e+00 1.144516706466674805e+00 -8.696746826171875000e+00 1.857926130294799805e+00 6.470899581909179688e-01 -1.387191104888916016e+01 2.046530723571777344e+00 1.773128628730773926e+00 -1.140346527099609375e+00 1.931316137313842773e+00 -2.206445693969726562e+00 3.653611838817596436e-01 -3.009976148605346680e+00 9.838892817497253418e-01 1.715981602668762207e+00 -8.626740455627441406e+00 1.845551013946533203e+00 2.029907703399658203e+00 -1.174700641632080078e+01 -6.725420355796813965e-01 -2.457251787185668945e+00 -2.001472234725952148e+00 -2.445211887359619141e+00 8.244640231132507324e-01 1.233411550521850586e+00 3.201319932937622070e+00 7.146283388137817383e-01 2.698253393173217773e+00 1.549042820930480957e+00 2.121914863586425781e+00 1.053174972534179688e+00 -9.633650183677673340e-01 1.166105985641479492e+00 9.478034377098083496e-01 -2.010040283203125000e+00 -2.247857332229614258e+00 2.169997215270996094e+00 1.045870184898376465e+00 -2.941859483718872070e+00 1.187026858329772949e+00 -1.894656777381896973e+00 5.783599376678466797e+00 -2.816003561019897461e+00 3.079649209976196289e+00 7.058779597282409668e-01 -1.198701500892639160e+00 2.188863277435302734e+00 2.314680099487304688e+00 3.601565361022949219e-01 8.905943036079406738e-01 7.851998209953308105e-01 2.593594789505004883e+00
