1.878470659255981445e+00 1.262115383148193359e+01 -6.091501712799072266e-01 -2.086294412612915039e+00 7.659463882446289062e-01 5.979144573211669922e-01 -6.963860988616943359e-01 -1.830860853195190430e+00 -5.187333226203918457e-01 -1.403478622436523438e+00 7.689021229743957520e-01 1.839507937431335449e+00 1.088912606239318848e+00 -9.018692374229431152e-01 -1.773465871810913086e+00 -8.844555616378784180e-01 6.142018437385559082e-01 -1.326675176620483398e+00 -2.028233528137207031e+00 8.151040077209472656e-01 2.259221553802490234e+00 -1.987077236175537109e+00 -5.553933620452880859e+00 6.054795980453491211e-01 3.228904008865356445e-01 2.241494059562683105e-01 2.780286073684692383e-01 -4.551364898681640625e+00 -1.587200522422790527e+00 6.109164357185363770e-01 -8.253539204597473145e-01 1.084453940391540527e+00 1.223158717155456543e+00 1.803091764450073242e+00 1.270655274391174316e+00 1.329344868659973145e+00 7.958129644393920898e-01 -2.256564795970916748e-01 2.835805177688598633e+00 -1.348812341690063477e+00 -2.910418033599853516e+00 -1.097787380218505859e+00 -8.390719413757324219e+00 3.272831141948699951e-01 -5.377447605133056641e-01 -1.462683796882629395e+00 -1.108473777770996094e+01 -1.779163241386413574e+00 -2.444678068161010742e+00 -1.915007114410400391e+00 -1.530570626258850098e+00 1.385295152664184570e+00 -8.938695788383483887e-01 7.234079241752624512e-01 3.350447118282318115e-01 1.032656908035278320e+00 -9.429244995117187500e+00 8.190987706184387207e-01 -6.870174407958984375e-01 7.187284231185913086e-01 4.505257010459899902e-01 -5.375714898109436035e-01 -5.600487589836120605e-01 -3.283334732055664062e+01 3.935445845127105713e-01 1.708225369453430176e+00 4.317827820777893066e-01 1.295369982719421387e+00 -7.588747739791870117e-01 -7.166921615600585938e+00 6.954393386840820312e-01 8.264764547348022461e-01 9.820081710815429688e+00 1.143355488777160645e+00 1.300070166587829590e+00 -6.491988301277160645e-01 -4.963011741638183594e+00 -1.433881163597106934e+00 1.604457855224609375e+00 -6.742773056030273438e+00 -4.156906127929687500e+00 -1.046505808830261230e+00 -5.207301974296569824e-01 1.312150597572326660e+00 -1.028780937194824219e+00 -1.162576675415039062e+01 3.216668963432312012e-01 -8.396558761596679688e-01 -1.053864002227783203e+00 -2.023971557617187500e+00 -5.468820333480834961e-01 6.665311455726623535e-01 9.800156354904174805e-01 1.489801526069641113e+00 1.689276695251464844e+00 -9.702313542366027832e-01 -1.524213886260986328e+01 1.088908433914184570e+00 -1.004478454589843750e+00 1.417164802551269531e+00 -1.994748497009277344e+01 7.958518266677856445e-01 -8.090106844902038574e-01 1.118825197219848633e+00 7.490538358688354492e-01 7.675002813339233398e-01 1.214984297752380371e+00 8.746401071548461914e-01 1.150991916656494141e+00 8.116602897644042969e-01 2.731871604919433594e-01 1.137842893600463867e+00 1.371368527412414551e+00 2.034507036209106445e+00 3.984790086746215820e+00 1.099758625030517578e+00 1.598251342773437500e+00 -8.493238091468811035e-01 9.192197918891906738e-01 2.564090967178344727e+00 -4.700885295867919922e+00 -5.010217189788818359e+00 2.284559965133666992e+00 -1.572422385215759277e+00 6.038200259208679199e-01 5.663395404815673828e+00 -1.178673624992370605e+00 6.426665186882019043e-01 1.400071382522583008e+00 -5.075069427490234375e+00 -1.311726927757263184e+00 -1.850800752639770508e+00 4.363594055175781250e-01 -9.760014414787292480e-01 -3.130208253860473633e+00 8.724110722541809082e-01 -3.429356336593627930e+00 -8.749810457229614258e-01 7.340709567070007324e-01 8.561506867408752441e-01 8.880807161331176758e-01 -2.842727184295654297e+00 -8.656715393066406250e+00 4.964353144168853760e-01 5.840662121772766113e-01 -5.839043140411376953e+00 5.861890912055969238e-01 -2.339798659086227417e-01 7.139998078346252441e-01 1.690943956375122070e+00 1.367021918296813965e+00 9.044123888015747070e-01 5.731502175331115723e-01 -3.296802282333374023e+00 -1.216427922248840332e+00 5.376690030097961426e-01 -1.495186448097229004e+00 1.135655283927917480e+00 7.298188209533691406e-01 7.274768352508544922e-01 9.156415462493896484e-01 -7.814151287078857422e+00 1.088899326324462891e+01 -1.071238756179809570e+00 -1.681844353675842285e+00 9.166674613952636719e-01 -8.783363103866577148e-01 -6.530995368957519531e-01 -1.402416110038757324e+00 -2.320982933044433594e+00 1.429998159408569336e+00 -4.895285964012145996e-01 4.158934354782104492e-01 4.959683418273925781e-01 8.520470857620239258e-01 5.331086516380310059e-01 8.321794867515563965e-01 -3.348783493041992188e+01 3.018926620483398438e+00 1.316702246665954590e+00 2.099080324172973633e+00 7.216309309005737305e-01 -6.233670711517333984e+00 -1.193146944046020508e+00 -6.577777862548828125e-01 -1.574348449707031250e+00 7.089843750000000000e-01 -1.063706398010253906e+00 7.967870235443115234e-01 -9.921144485473632812e+00 4.570771694183349609e+00 1.016875028610229492e+00 -5.445657968521118164e-01 6.197168231010437012e-01 -1.041523456573486328e+00 -7.927583456039428711e-01 -1.795309782028198242e-01 1.222006320953369141e+00 -1.358491063117980957e+00 7.316492795944213867e-01 8.669440746307373047e-01 1.063363552093505859e+00 5.154092311859130859e-01 1.561835169792175293e+00 8.786920905113220215e-01 2.082315206527709961e+00 -9.429268836975097656e+00 -2.860419082641601562e+01 -6.687347888946533203e+00 -1.249560356140136719e+00 1.016104221343994141e+00 9.028876423835754395e-01 8.657664656639099121e-01 7.193532586097717285e-01 9.459409713745117188e-01 8.339135646820068359e-01 1.175591588020324707e+00 -7.938889861106872559e-01 -1.025797486305236816e+00 7.258707284927368164e-01 1.057711958885192871e+00 -1.635356307029724121e+00 9.686210155487060547e-01 -1.828353047370910645e+00 4.024728238582611084e-01 -5.095186233520507812e+00 1.304407835006713867e+00 -9.661412239074707031e-01 1.171454668045043945e+00 1.040293812751770020e+00 4.232034206390380859e+00 7.254059910774230957e-01 7.906662821769714355e-01 1.282696485519409180e+00 -4.265072822570800781e+00 9.823737740516662598e-01 -2.776936531066894531e+00 7.899287343025207520e-01 -9.169909358024597168e-01 -2.051918983459472656e+00 -6.175504922866821289e-01 -5.655497550964355469e+00 1.125519990921020508e+00 2.115030765533447266e+00 5.426574945449829102e-01 6.616375446319580078e-01 -8.504387140274047852e-01 -9.572291970252990723e-01 -7.372595071792602539e-01 1.690946459770202637e+00 1.080349326133728027e+00 -2.248077630996704102e+00 -8.804705142974853516e-01 8.907852768898010254e-01 8.505126237869262695e-01 -5.501328110694885254e-01
