-1.179809808731079102e+00 8.207054138183593750e-01 7.084894180297851562e-01 5.995300412178039551e-01 -5.490762710571289062e+00 3.430245220661163330e-01 7.649025917053222656e-01 2.516384363174438477e+00 -7.185860872268676758e-01 -6.884316205978393555e-01 4.849651753902435303e-01 4.910921752452850342e-01 -2.247552871704101562e+00 7.011031508445739746e-01 -3.772168397903442383e+00 3.861760199069976807e-01 -2.227645158767700195e+00 4.615295231342315674e-01 -9.877773523330688477e-01 4.662412106990814209e-01 8.928373456001281738e-01 1.220279857516288757e-01 2.052111864089965820e+00 7.981517314910888672e-01 7.904637455940246582e-01 4.182553887367248535e-01 4.021200239658355713e-01 4.643682837486267090e-01 -2.164596557617187500e+00 -5.855653285980224609e-01 5.750264525413513184e-01 3.772113919258117676e-01 1.639735102653503418e-01 4.229229390621185303e-01 3.864272534847259521e-01 1.779562234878540039e+00 6.611891984939575195e-01 1.276962459087371826e-01 -1.081399321556091309e+00 4.102698266506195068e-01 5.336765944957733154e-02 2.347054004669189453e+00 4.597978293895721436e-01 -9.253866076469421387e-01 -8.181158304214477539e-01 -1.240738987922668457e+00 -6.216878294944763184e-01 -1.213500618934631348e+00 -1.025833487510681152e+00 9.512488365173339844e+00 -3.079763650894165039e+00 5.406829714775085449e-01 1.373276561498641968e-01 7.324958324432373047e+00 1.820531338453292847e-01 -5.622063875198364258e-01 3.634658157825469971e-01 3.478872179985046387e-01 -9.135063886642456055e-01 4.580611586570739746e-01 1.176904797554016113e+00 -7.516977190971374512e-01 -2.057443380355834961e+00 -1.594356775283813477e+00 1.089980006217956543e+00 -1.327926993370056152e+00 -2.573357149958610535e-02 7.836962342262268066e-01 5.663031339645385742e-01 4.465037584304809570e-01 1.217461347579956055e+00 6.649615168571472168e-01 6.034036278724670410e-01 5.076076388359069824e-01 8.186533451080322266e-01 -1.239709019660949707e+00 5.314904451370239258e-01 -1.258197665214538574e+00 -4.545955181121826172e+00 -8.830324411392211914e-01 -7.416420578956604004e-01 8.639830350875854492e-01 1.002578884363174438e-01 5.547901391983032227e-01 -2.729663848876953125e+00 2.006073951721191406e+00 3.426105678081512451e-01 -8.992511034011840820e-01 -9.461526274681091309e-01 -1.607151985168457031e+01 1.889974713325500488e+00 8.604626655578613281e-01 6.873729825019836426e-01 -1.048823595046997070e+00 3.226099014282226562e-01 -3.917923271656036377e-01 5.674952864646911621e-01 -8.415994644165039062e-01 7.647833228111267090e-01 2.871372699737548828e-01 3.294173955917358398e+00 1.272029757499694824e+00 5.204610228538513184e-01 6.291025876998901367e-01 -9.953606128692626953e-01 1.389661788940429688e+00 -1.817889928817749023e+00 -9.126960039138793945e-01 -1.201564073562622070e+00 1.009142518043518066e+00 -2.296888589859008789e+00 8.194199204444885254e-01 9.513128995895385742e-01 2.799617350101470947e-01 5.512610077857971191e-01 1.554735302925109863e-01 -1.021341919898986816e+00 -1.356847882270812988e+00 -1.089937591552734375e+01 -5.596933841705322266e+00 5.060198903083801270e-01 -6.165052890777587891e+00 -6.656657218933105469e+00 2.140870332717895508e+00 4.682307243347167969e-01 -1.177016615867614746e+00 -6.523231267929077148e-01 5.550618767738342285e-01 2.523349821567535400e-01 7.930392026901245117e-01 1.632080435752868652e+00 7.417565584182739258e-01 4.018825590610504150e-01 -8.334590792655944824e-01 -8.679752349853515625e-01 3.299751281738281250e-01 -3.291889190673828125e+00 -7.111194729804992676e-01 4.877681434154510498e-01 -6.268019080162048340e-01 2.897492945194244385e-01 -1.463126659393310547e+00 -5.368505477905273438e+00 5.907765626907348633e-01 1.828320741653442383e+00 1.895146667957305908e-01 -2.197856426239013672e+00 7.271035909652709961e-01 4.825154542922973633e-01 -1.470353841781616211e+00 2.080308914184570312e+00 -1.413665175437927246e+00 5.835004448890686035e-01 8.170702457427978516e-01 2.100830972194671631e-01 1.460925102233886719e+00 1.444899678230285645e+00 4.655974805355072021e-01 5.036106705665588379e-01 -1.045883464813232422e+01 3.874501585960388184e-01 8.602091073989868164e-01 -5.746946334838867188e-01 4.586636722087860107e-01 -9.618275165557861328e-01 2.178416967391967773e+00 2.271774291992187500e+00 -1.918095207214355469e+01 1.466590046882629395e+00 6.289628148078918457e-01 -2.540855407714843750e-01 -9.204738616943359375e+00 -1.601553320884704590e+00 -8.060688018798828125e+00 -7.302807569503784180e-01 5.712610483169555664e-01 -1.282886624336242676e+00 -1.505115985870361328e+00 5.670009255409240723e-01 -1.181511044502258301e+00 -5.775147914886474609e+00 -2.684849262237548828e+00 1.122845292091369629e+00 -1.330089449882507324e+00 -8.135205268859863281e+00 7.074357271194458008e-01 -7.871945858001708984e+00 4.608793556690216064e-01 2.500051021575927734e+00 2.074511051177978516e+00 -1.856860995292663574e+00 7.659890055656433105e-01 2.087436199188232422e+00 5.744144916534423828e-01 -8.227642774581909180e-01 2.904511988162994385e-01 8.006435036659240723e-01 -1.568538546562194824e+00 5.702918767929077148e-01 9.739851355552673340e-01 6.043263077735900879e-01 -6.833649277687072754e-01 5.783602595329284668e-01 6.389144062995910645e-01 -6.164305210113525391e-01 -7.875345945358276367e-01 6.250309944152832031e-01 1.876172065734863281e+00 -2.768090248107910156e+00 -5.659994482994079590e-01 6.207031607627868652e-01 2.227737426757812500e+00 1.665436506271362305e+00 1.566211342811584473e+00 -6.002194881439208984e-01 5.748087167739868164e-01 6.027194857597351074e-01 -3.630758762359619141e+00 2.474637985229492188e+00 8.088364005088806152e-01 4.652874767780303955e-01 1.443619728088378906e+00 5.886298418045043945e-01 5.157259851694107056e-02 1.246270537376403809e+00 3.229424238204956055e+00 3.536936938762664795e-01 -3.021440744400024414e+00 9.694636464118957520e-01 -7.469161748886108398e-01 -1.250739693641662598e+00 -1.389154911041259766e+00 6.390711069107055664e-01 2.017003774642944336e+00 -2.567045783996582031e+01 2.216083407402038574e-01 3.897601664066314697e-01 6.705008745193481445e-01 -4.044390678405761719e+00 5.259305834770202637e-01 -1.801377773284912109e+00 2.263407707214355469e+00 -2.570755004882812500e+00 3.219567835330963135e-01 1.797399967908859253e-01 -2.508733272552490234e+00 5.341491103172302246e-01 -3.561455488204956055e+00 -1.437877297401428223e+00 6.805549860000610352e-01 1.179278731346130371e+00 2.151276111602783203e+00 -4.151632189750671387e-01 2.748269736766815186e-01 5.485028028488159180e-01 1.981589078903198242e+00
