9.544536471366882324e-01 1.790511757135391235e-01 1.819203980267047882e-02 3.809158504009246826e-01 -2.748100042343139648e+00 -1.228241443634033203e+00 -2.537452220916748047e+00 -9.639334678649902344e-01 7.774912565946578979e-02 1.839476346969604492e+00 -2.524440288543701172e+00 8.559603691101074219e-01 2.448523938655853271e-01 -3.931532502174377441e-01 5.244878530502319336e-01 -1.668800473213195801e+00 7.110087275505065918e-01 -5.328426957130432129e-01 -8.634092807769775391e-01 4.740839600563049316e-01 -4.116465568542480469e+00 -2.279708385467529297e+00 1.637516021728515625e+00 -2.845109701156616211e+00 3.997804224491119385e-01 7.883172988891601562e+00 -7.193156480789184570e-01 -1.460566520690917969e+00 -1.978098106384277344e+01 7.252229452133178711e-01 -1.394410514831542969e+01 1.787324786186218262e+00 7.174192070960998535e-01 -2.553342580795288086e-01 1.927731633186340332e-01 1.404072523117065430e+00 -1.762662291526794434e+00 -5.887081027030944824e-01 4.129053950309753418e-01 -1.123189687728881836e+00 -2.150848627090454102e+00 -2.493992328643798828e+00 -1.481444358825683594e+00 -5.036944746971130371e-01 -2.732987403869628906e+00 3.449069336056709290e-02 -2.601601779460906982e-01 -5.640481114387512207e-01 5.294431447982788086e-01 2.356430292129516602e-01 1.152149081230163574e+00 1.069087147712707520e+00 -1.073034882545471191e+00 4.146061837673187256e-01 1.201701998710632324e+00 1.067411303520202637e+00 1.404322862625122070e+00 -1.022622287273406982e-01 4.143276810646057129e-01 3.210648894309997559e-01 1.848024725914001465e+00 -1.204532265663146973e+00 -1.386821627616882324e+00 2.159402072429656982e-01 3.526942431926727295e-01 2.369846999645233154e-01 -1.696728765964508057e-01 1.404805302619934082e+00 -5.158780097961425781e+00 4.105133712291717529e-01 3.354105055332183838e-01 3.854908943176269531e-01 -3.410654067993164062e+00 -5.317798614501953125e+00 2.468518316745758057e-01 1.044544935226440430e+00 6.529337167739868164e-01 -3.280424773693084717e-01 1.617634057998657227e+00 4.086950421333312988e-01 -1.423507928848266602e+00 1.173679471015930176e+00 5.641870498657226562e-01 2.188036739826202393e-01 2.079923897981643677e-01 8.661759495735168457e-01 -7.854232788085937500e-01 2.815943956375122070e-01 -1.560703516006469727e+00 2.100184708833694458e-01 1.695552021265029907e-01 -5.588947534561157227e-01 1.123983979225158691e+00 4.129542708396911621e-01 -3.578342497348785400e-01 4.612939655780792236e-01 5.481076240539550781e-01 4.543027877807617188e-01 -2.573081970214843750e+00 5.402222871780395508e-01 -2.254187911748886108e-01 -4.189492225646972656e+00 1.085461258888244629e+00 -1.541836023330688477e+00 9.445258378982543945e-01 3.670895993709564209e-01 2.989603281021118164e-01 5.315951108932495117e-01 -9.854812622070312500e+00 1.242147803306579590e+00 -1.901704406738281250e+01 8.148528933525085449e-01 5.217550396919250488e-01 6.079267024993896484e+00 -1.481280684471130371e+00 4.143329858779907227e-01 8.799787759780883789e-01 -6.970171928405761719e-01 -9.747277498245239258e-01 1.682030081748962402e+00 3.015641272068023682e-01 1.596591770648956299e-01 1.450913906097412109e+00 -7.074096798896789551e-01 -1.247404694557189941e+00 1.989146620035171509e-01 -4.157007634639739990e-01 1.431409478187561035e+00 4.341856241226196289e-01 -1.801443576812744141e+00 -2.068333625793457031e+00 2.851156592369079590e-01 2.048197537660598755e-01 1.671258807182312012e+00 3.369094729423522949e-01 2.692255377769470215e-01 -2.683883666992187500e+00 -4.802562296390533447e-01 8.744414448738098145e-01 2.737398743629455566e-01 1.623078346252441406e+00 3.329347968101501465e-01 -2.374639034271240234e+00 -1.646110534667968750e+00 1.894998669624328613e+00 5.137947797775268555e-01 -1.539322972297668457e+00 -2.743293523788452148e+00 7.280973792076110840e-01 8.361495137214660645e-01 -1.150337100028991699e+00 2.396700531244277954e-01 -2.672385692596435547e+00 -2.255879878997802734e+00 2.772036194801330566e-01 2.609454691410064697e-01 -1.360571146011352539e+00 5.219922065734863281e-01 -4.218117296695709229e-01 1.855933427810668945e+00 -1.885965704917907715e+00 -3.983003497123718262e-01 -4.882822036743164062e-01 4.555593058466911316e-02 -6.431937217712402344e+00 1.217499256134033203e+00 -2.272304296493530273e+00 -3.754999399185180664e+00 -1.106624007225036621e+00 -6.377497315406799316e-01 3.609613180160522461e-01 1.180402487516403198e-01 5.404731631278991699e-01 -1.214313387870788574e+00 8.365617394447326660e-01 1.615129947662353516e+00 -1.061200022697448730e+00 -2.168167591094970703e+00 -4.196030139923095703e+00 -1.484428405761718750e+00 1.434594869613647461e+00 1.473199963569641113e+00 2.869624793529510498e-01 -2.241039276123046875e+00 -2.959770441055297852e+00 8.021782636642456055e-01 1.082610130310058594e+00 -1.102576017379760742e+00 -1.460243225097656250e+00 -1.338449001312255859e+00 1.467544078826904297e+00 3.401473462581634521e-01 8.520947694778442383e-01 4.019411504268646240e-01 -2.989564418792724609e+00 -1.694869399070739746e+00 5.761395692825317383e-01 -1.295000791549682617e+00 1.295731544494628906e+00 3.090276718139648438e-01 3.453173935413360596e-01 -4.252269268035888672e+00 1.908069550991058350e-01 3.800874352455139160e-01 5.231453776359558105e-01 1.225836351513862610e-01 3.460204303264617920e-01 4.172857478260993958e-02 1.854110121726989746e+00 -1.551687359809875488e+00 8.221958875656127930e-01 2.119995206594467163e-01 4.370554983615875244e-01 3.986369669437408447e-01 -2.474303007125854492e+00 -8.560405969619750977e-01 1.619707047939300537e-01 -5.488622188568115234e-01 5.013319253921508789e-01 -3.298945426940917969e+00 2.161046743392944336e+00 -1.661416292190551758e+00 -2.196778059005737305e+00 -1.809644818305969238e+00 9.146956205368041992e-01 -5.182416439056396484e-01 -4.554694890975952148e-01 2.470843642950057983e-01 5.754017829895019531e-01 3.086199760437011719e-01 1.205971717834472656e+00 -1.913501024246215820e+00 -9.922959804534912109e-01 2.768370211124420166e-01 -6.957678794860839844e-01 4.270428717136383057e-01 4.093759953975677490e-01 -2.215668916702270508e+00 1.971801042556762695e+00 -6.899764537811279297e+00 1.446097850799560547e+00 9.418267607688903809e-01 1.132164299488067627e-01 -2.755694866180419922e+00 -2.542594909667968750e+00 1.216877251863479614e-01 -5.119521617889404297e-01 -8.009424209594726562e-01 1.600548386573791504e+00 -1.322632312774658203e+00 1.046966075897216797e+00 -1.984475612640380859e+00 -4.790669083595275879e-01 1.663699746131896973e-01 -1.258419275283813477e+00 1.584580183029174805e+00
